{"conv1d": {"bias:0": [-0.014220181852579117, 0.007316142320632935, -0.010733470320701599, -0.004392930772155523], "kernel:0": [[[-0.4725567102432251, 0.44394394755363464, -0.2180587202310562, -0.279460072517395]], [[-0.6523179411888123, 0.4561058580875397, -0.10584009438753128, -0.44670432806015015]], [[-0.40335240960121155, 1.1020514965057373, -0.5759788155555725, -0.3460669219493866]], [[-0.39493328332901, 1.0846763849258423, -0.7128783464431763, -0.26121193170547485]], [[-0.03644487261772156, 0.7746142148971558, -0.356253057718277, -0.19299007952213287]], [[-0.12992705404758453, 0.8579716682434082, -0.6503883004188538, -0.18553699553012848]], [[0.1544525921344757, 0.26823362708091736, -0.7551378011703491, -0.6609405875205994]], [[0.6157074570655823, -0.40884387493133545, -0.508364200592041, -0.46195393800735474]], [[0.4649840295314789, -0.8173587918281555, -0.29131078720092773, -0.7341434359550476]], [[0.15360505878925323, -1.1010209321975708, -0.3575291633605957, -0.3981459140777588]], [[-0.034460876137018204, -1.1628862619400024, -0.3309982419013977, -0.3982865810394287]], [[-0.23217709362506866, -1.0717132091522217, -0.33395522832870483, -0.45116889476776123]]]}, "conv1d_1": {"bias:0": [0.027293946593999863, -0.009752326644957066, 0.023139076307415962, 0.05445912107825279], "kernel:0": [[[0.1999448537826538, -0.17941680550575256, -0.4804096221923828, 0.13097335398197174], [-0.048395708203315735, 0.6550654172897339, -0.4844145178794861, 0.043516408652067184], [-0.24828629195690155, -0.19850388169288635, -0.19726046919822693, 0.13152675330638885], [0.03358064964413643, -0.06692714244127274, -0.06513999402523041, 0.10293543338775635]], [[0.15681985020637512, 0.4570586681365967, -0.11450804024934769, -0.12852443754673004], [-0.06932263821363449, -0.008519995957612991, -0.10624923557043076, -0.019828155636787415], [0.042760107666254044, -0.6132778525352478, 0.42999500036239624, -0.011586958542466164], [0.2264157086610794, -0.44188210368156433, 0.37408721446990967, 0.37740573287010193]], [[-0.04095602408051491, 0.21275170147418976, -0.26694411039352417, -0.12057404965162277], [0.3689388036727905, -0.7215774059295654, 0.9930281043052673, -0.015953637659549713], [-0.341743141412735, 0.3696369230747223, -0.9385156631469727, -0.20699873566627502], [-0.08821819722652435, 0.46562159061431885, -0.6859193444252014, -0.22486814856529236]], [[0.2379261553287506, 0.3072860538959503, -0.10573997348546982, 0.21697615087032318], [0.2652473747730255, 0.245515838265419, 0.5886767506599426, -0.36058035492897034], [-0.44985172152519226, 1.0186954736709595, 0.3242496848106384, 0.5913655757904053], [-0.37732744216918945, 0.8564401268959045, 0.6254615187644958, 0.357753723859787]], [[0.7459571957588196, 0.6473082304000854, -0.2302320897579193, 0.1361541450023651], [-2.217184543609619, -0.7725133895874023, 1.396371841430664, -1.3555376529693604], [0.6059049367904663, 0.39001983404159546, -0.0017528386088088155, -1.116824984550476], [0.2185518741607666, 0.33891937136650085, 0.32676729559898376, -1.3788217306137085]], [[-0.24937792122364044, -0.08365070074796677, 0.08012355118989944, -0.5992950201034546], [-0.16494911909103394, 0.008496014401316643, 0.18464097380638123, 0.2522881031036377], [-0.08592034876346588, 0.08871231973171234, -0.04503990709781647, 0.012742266990244389], [-0.03724711015820503, -0.06688185036182404, -0.06772205233573914, -0.34483635425567627]], [[0.0445978082716465, 0.16428214311599731, -0.11523464322090149, -0.2510942220687866], [-0.17891284823417664, -0.3405831456184387, -0.36728933453559875, -0.29972001910209656], [-0.0016057653119787574, 0.0806829109787941, 0.055270858108997345, 0.01912883296608925], [0.07926587760448456, 0.18528272211551666, 0.09790477156639099, 0.031594473868608475]], [[-0.24544657766819, -0.1030450090765953, 0.5035428404808044, -0.35348260402679443], [0.016103683039546013, -0.05960189923644066, -0.6702921390533447, 0.8475797176361084], [-0.567114531993866, -0.05931340157985687, 0.2519230544567108, -0.42705145478248596], [-0.26221245527267456, 0.10193631798028946, 0.3578746020793915, -0.35710257291793823]], [[-0.18859365582466125, 0.228846475481987, 0.36390796303749084, -0.2547298073768616], [0.21688172221183777, 0.021862749010324478, 0.008499156683683395, 0.3608837127685547], [-0.11180229485034943, 0.21665525436401367, 0.6078741550445557, 0.022993257269263268], [-0.1300414502620697, 0.20095005631446838, 0.7057746648788452, 0.09291578084230423]], [[-0.17088377475738525, 0.21475236117839813, 0.22230498492717743, -0.4173230230808258], [0.3277817368507385, 0.2286597043275833, -0.08977759629487991, 0.21183477342128754], [-0.5484026670455933, 0.11987230181694031, -0.2912083864212036, 0.14103524386882782], [-0.3008183240890503, 0.19295866787433624, -0.13151142001152039, 0.058717161417007446]], [[-0.12048046290874481, 0.390891969203949, 0.7541413307189941, -0.2601693272590637], [0.07979623973369598, 0.04682966321706772, 0.1740735024213791, -0.11510775238275528], [0.05294700711965561, 0.3287380039691925, 0.07408594340085983, -0.23256351053714752], [-0.016433734446763992, 0.22248409688472748, 0.3968389332294464, -0.051532600075006485]], [[0.008201951161026955, 0.584930419921875, 0.9825270771980286, -0.35778290033340454], [0.9137880206108093, 0.3524624705314636, 0.047694552689790726, 0.38311123847961426], [-0.35121992230415344, 0.05221271514892578, 0.2075994312763214, -0.7763363122940063], [-0.3654785752296448, 0.12317441403865814, 0.11246125400066376, -0.6391469240188599]]]}, "dense": {"bias:0": [-0.0087547916918993], "kernel:0": [[-0.3358761668205261], [-0.24207210540771484], [0.18533311784267426], [-0.17667651176452637], [0.051792941987514496], [0.09394443035125732], [-0.29898715019226074], [0.11990909278392792], [0.11618410050868988], [0.5230692625045776], [0.35169798135757446], [0.2101605087518692], [-0.18369542062282562], [-0.13975614309310913], [0.10948406159877777], [0.1443520486354828], [-0.09753779321908951], [-0.046103335916996], [0.19885893166065216], [0.17060066759586334], [-0.07582008838653564], [-0.11057310551404953], [0.16867445409297943], [0.34323903918266296]]}, "lstm": {"lstm_cell": {}, "kernel:0": [[-0.7391771674156189, 0.48710376024246216, -0.21576941013336182, 0.5219359397888184, 0.7171695232391357, -0.46566149592399597, 0.22062252461910248, -1.083142638206482, -0.03593756631016731, -0.09500177204608917, 0.3129718601703644, 0.03915254771709442, -1.44330632686615, 0.18242792785167694, -0.26698681712150574, 0.4326147437095642, -0.2687278091907501, 0.9824231863021851, 0.275968462228775, -1.5615028142929077, 0.10901547968387604, 0.07488099485635757, -0.19569405913352966, 0.7921475768089294, -0.24502462148666382, 0.1832595020532608, -0.2559491693973541, -0.21364283561706543, -0.20021969079971313, 0.9053145051002502, -0.02046601101756096, 0.17781434953212738, 0.6145150065422058, -0.16003911197185516, 0.4860363006591797, 0.09071153402328491, -0.7086799740791321, 0.2751913070678711, 3.776566982269287, -0.7900346517562866, -0.3134610652923584, -0.2016013115644455, 0.33608537912368774, -0.38728126883506775, -0.9917863011360168, 0.16456589102745056, -0.5176893472671509, 0.017916902899742126, 0.713079571723938, 0.393659770488739, 0.05796137824654579, 0.29872971773147583, 0.01584308035671711, -0.5591967701911926, -0.7398280501365662, -0.17558977007865906, -0.2679181396961212, -0.8016414642333984, -1.1270381212234497, -0.05031859129667282, 1.2455682754516602, -0.08008059114217758, -0.03609661012887955, -0.22882698476314545, -0.6358345150947571, -0.11756043136119843, -1.115197777748108, -0.3161332607269287, 0.34969353675842285, 0.11715743690729141, 0.197842538356781, -0.056953392922878265, -0.11684630811214447, -0.05679895356297493, -0.4361080527305603, 0.026326177641749382, 0.11098093539476395, -0.4692193865776062, 0.15216484665870667, 0.08473970741033554, -1.3058933019638062, 1.1264746189117432, -0.5234045386314392, 0.6149933338165283, 1.504805326461792, 0.14841926097869873, -0.29982855916023254, -0.45119863748550415, -0.7239630222320557, -0.14860552549362183, -0.9992393851280212, 0.33541572093963623, 0.08197054266929626, 0.13814494013786316, 0.1988203376531601, 0.11292768269777298], [0.12246056646108627, 0.0017678870353847742, 0.25157657265663147, 0.39466917514801025, 0.3252756893634796, -0.4089464247226715, -0.2352905124425888, -0.0036344192922115326, 0.21396787464618683, 0.37404361367225647, -0.023611431941390038, -0.7876347899436951, -0.4073427617549896, -0.18285802006721497, -0.4680652618408203, 0.25659307837486267, 0.39013707637786865, 0.5546453595161438, -0.3396434187889099, 0.06613773107528687, 0.5525898337364197, 0.004360046703368425, -1.4950298070907593, -0.18203705549240112, 0.14557284116744995, -0.264883428812027, 0.4196213483810425, 0.5088464617729187, 0.15012791752815247, 0.7796179056167603, -0.014788066036999226, -0.3214428424835205, 0.5716762542724609, 0.06526888161897659, 0.06505093723535538, 0.8563806414604187, -0.2737824022769928, -0.7848093509674072, 0.6770492792129517, 1.1610944271087646, -1.3862353563308716, -0.07255128026008606, -0.11217999458312988, -0.12198519706726074, 0.17003588378429413, 0.4390789866447449, -0.9005854725837708, -0.6296600103378296, -0.002883974928408861, 0.022940104827284813, 0.0880977138876915, 0.26499032974243164, 0.5717619061470032, -0.43368133902549744, 0.5134592652320862, -0.0017702594632282853, 0.20647457242012024, 0.10400982201099396, -0.13236428797245026, 0.17787005007266998, 0.5044756531715393, 0.3142441213130951, -0.13414807617664337, -0.8878173828125, -0.12876230478286743, -0.29649803042411804, 0.15351121127605438, -0.06480465829372406, 0.05370158702135086, -0.3674606680870056, -0.803088903427124, -0.035338446497917175, -0.4716053903102875, -0.09176712483167648, 0.13315743207931519, -0.6768814325332642, -0.3430676758289337, -0.9572460055351257, -0.04209528863430023, 0.9106035828590393, -0.15697318315505981, -0.1740466207265854, -0.04377307742834091, -0.27079910039901733, 0.7532151937484741, -0.1451217085123062, 0.10874266922473907, 0.9800961017608643, -0.46525269746780396, 0.4572366178035736, -0.2374815195798874, 0.09822460263967514, 0.32710936665534973, 0.6290137767791748, 1.1874734163284302, 0.7341724038124084], [0.6490200161933899, 0.3494003415107727, 0.08628416061401367, -0.08245227485895157, -0.2855248749256134, -0.15143516659736633, 0.8500682711601257, -0.2697725296020508, 0.5505569577217102, 0.3784111738204956, -0.11987196654081345, -0.42952054738998413, 0.2913242280483246, -0.5196568369865417, -0.5295937061309814, -0.7046827077865601, 0.5446755290031433, -0.9284093379974365, 0.0076304031535983086, 0.6319966316223145, -0.058472950011491776, 1.040238380432129, 1.2743860483169556, -0.3156026005744934, 0.6117987632751465, -0.017691558226943016, -0.06323118507862091, -0.47511398792266846, -0.2329854667186737, -0.027722137048840523, 0.2477930188179016, 0.1569882184267044, -0.37937915325164795, 0.16111856698989868, 0.03707766532897949, 0.6775925159454346, 0.22591835260391235, 0.5203521847724915, -0.02495306171476841, -1.4798258543014526, -0.03531086444854736, -0.528494656085968, 0.2392752468585968, 0.12250161170959473, -1.3473604917526245, 0.5399001240730286, 0.9727734923362732, 0.1566915661096573, -0.44581863284111023, -0.07699090242385864, 0.5388031005859375, 0.025336379185318947, 0.06734633445739746, -0.33682987093925476, -1.2609282732009888, 0.03172171115875244, 0.1613643914461136, 0.5177372097969055, 0.19171205163002014, 0.28785276412963867, 0.282882422208786, 0.037438441067934036, 0.05748651549220085, -0.5827041268348694, 0.25601667165756226, 0.22359180450439453, 0.6279642581939697, 0.311638742685318, 0.06369094550609589, -0.00949880201369524, 0.7598151564598083, 0.07083413749933243, -0.36645397543907166, -0.363727867603302, 0.4240323603153229, 0.3655509948730469, 0.2501055598258972, 0.1578637957572937, -0.15211865305900574, -0.5979964733123779, 0.7778995037078857, -0.7706215977668762, -0.03157467395067215, -0.8020099997520447, -0.1167360171675682, -0.49481940269470215, -0.5326245427131653, 1.187523365020752, 0.8866711854934692, 0.03897586464881897, 0.7425813674926758, -0.39852625131607056, 0.5028530955314636, 0.5080810189247131, -1.121424674987793, -0.3875698149204254], [-1.0581899881362915, -0.4214387834072113, -0.21998777985572815, 0.37448933720588684, 1.0301932096481323, -0.6103077530860901, 0.06825602799654007, -0.3268447816371918, 0.17053531110286713, -1.2541991472244263, -0.3602515459060669, -0.41538935899734497, 0.5981331467628479, 0.06578720360994339, -0.17591451108455658, -0.41140949726104736, -1.4385647773742676, 0.2637989819049835, -0.15302880108356476, 0.748602569103241, 0.09759010374546051, -0.4055468440055847, -0.28929802775382996, 0.9490845203399658, -1.0245078802108765, -0.27456143498420715, 0.3382904529571533, 0.5706757307052612, 0.6729299426078796, -0.06773044168949127, 0.11197897046804428, -0.16970111429691315, 0.05873345956206322, -0.21970218420028687, -0.524738609790802, 0.2026577740907669, 0.2135438770055771, -1.1752873659133911, 0.6071859002113342, 1.1199792623519897, 1.0106068849563599, -0.02071283385157585, -0.6546242833137512, 0.2673751711845398, 0.24650634825229645, -0.21381455659866333, -0.16793008148670197, 0.3739699423313141, 0.7361955046653748, 0.18240851163864136, 0.057082537561655045, 0.4534566402435303, 0.1281415820121765, -0.11023852229118347, -0.2576692998409271, 0.11994156241416931, 0.11610240489244461, -0.5750570297241211, 0.7965376377105713, 0.06600717455148697, -0.1988203525543213, -0.01346217468380928, -0.42979729175567627, -0.3238780200481415, -0.28248634934425354, 0.32544851303100586, -0.9251892566680908, 0.3893308639526367, 0.1388521045446396, 0.12917481362819672, -0.051048580557107925, -0.41126617789268494, 0.090312160551548, 0.6914981007575989, 0.5733367800712585, -0.33393368124961853, -0.009761027991771698, -0.058355994522571564, -0.06869564950466156, -0.25449833273887634, 0.8287102580070496, 1.4421992301940918, 0.5217933654785156, -0.4390016794204712, -0.7483010292053223, 0.30067649483680725, -0.4320550560951233, 0.6711675524711609, -0.5524480938911438, -0.8057767748832703, -0.1688585728406906, -0.18934771418571472, -0.09744156897068024, 0.013655484654009342, 0.17344394326210022, 0.31522640585899353]], "bias:0": [0.1350320279598236, 0.037534430623054504, -0.062204815447330475, 0.10970338433980942, -0.1279623657464981, 0.048460330814123154, 0.5781145095825195, -0.1709153801202774, 0.1618458479642868, 0.24722476303577423, 0.4102068245410919, -0.27300703525543213, 0.2594227194786072, -0.13821427524089813, -0.17413340508937836, 0.7206021547317505, -0.010887601412832737, 0.18485094606876373, 0.3595085144042969, 0.06424735486507416, 0.0694233626127243, -0.04280954971909523, 0.06925153732299805, -0.37190237641334534, 0.42464640736579895, 0.5895833373069763, 1.1843340396881104, 0.7311586737632751, 0.9032272696495056, 0.4775983691215515, 1.0636781454086304, 0.5305197238922119, 0.6904314160346985, 0.10119561851024628, -0.11043697595596313, 0.8241459131240845, 0.04952559620141983, 0.9334954023361206, 1.0454424619674683, -0.0587097704410553, 1.0663102865219116, 0.8669688701629639, 0.5979887247085571, 0.5238784551620483, 0.7342208623886108, 1.2024074792861938, 0.42540422081947327, 0.7036969065666199, -0.10081997513771057, 0.03882215544581413, 0.01581018790602684, 0.08095091581344604, 0.04060915857553482, -0.03345843404531479, 0.0326373316347599, -0.004458438139408827, 0.018755221739411354, -0.11196903139352798, 0.004804527387022972, -0.022443946450948715, 0.08096571266651154, 0.034942835569381714, -0.05788406729698181, -0.16413508355617523, 0.09210175275802612, -0.13585393130779266, 0.07254679501056671, 0.05264901742339134, -0.09316326677799225, -0.027651440352201462, 0.11763304471969604, -0.04209687188267708, 0.10408896207809448, -0.10180799663066864, -0.053885359317064285, -0.24980399012565613, 0.14161401987075806, -0.02868831343948841, 0.10948225855827332, -0.10244283825159073, -0.09201420098543167, 0.49930283427238464, 0.30521729588508606, -0.13010360300540924, 0.261285662651062, -0.17807486653327942, -0.33919137716293335, 0.8843744397163391, 0.02244516648352146, 0.14400313794612885, 0.44411757588386536, -0.23612190783023834, -0.055353064090013504, 0.012361482717096806, -0.16024798154830933, -0.30746176838874817]}, "input_size": 180, "conv1d_stride": 12, "conv1d_1_stride": 12}