{"conv1d": {"bias:0": [-0.007171242497861385, -0.0007345184567384422, -0.0059266723692417145, 0.003989696502685547], "kernel:0": [[[-0.25981569290161133, 0.11576682329177856, 0.3627072274684906, 0.11303628236055374]], [[-0.001707269111648202, 0.2626657485961914, -0.045128434896469116, 0.2766905128955841]], [[0.4583519697189331, 0.15329362452030182, -0.12831677496433258, 0.007117430213838816]], [[0.31845322251319885, 0.015613462775945663, 0.15466171503067017, -0.2023533135652542]], [[0.3536120057106018, -0.16378839313983917, -0.09009106457233429, 0.0915747582912445]], [[0.28068962693214417, -0.29097896814346313, 0.16676124930381775, 0.10982092469930649]], [[-0.5002828240394592, -0.3843327462673187, 0.21018853783607483, 0.7409496903419495]], [[-0.7549893260002136, -0.04070465639233589, 0.18565839529037476, 0.3564485013484955]], [[-0.45023301243782043, 0.1869584023952484, -0.9381744861602783, 0.08673662692308426]], [[0.5111755132675171, 0.8790350556373596, -1.0649434328079224, -1.2586816549301147]], [[0.11003291606903076, 0.7591175436973572, -0.9968458414077759, -0.8760784864425659]], [[-1.2170923948287964, -1.6852021217346191, 1.8577297925949097, 0.6945963501930237]]]}, "conv1d_1": {"bias:0": [0.10662440955638885, 0.06160109490156174, 0.0006100299069657922, -0.004301628563553095], "kernel:0": [[[0.11119884252548218, 0.01912224292755127, -0.016031861305236816, 0.0002738833427429199], [-0.1876927614212036, -0.23957687616348267, -0.17061424255371094, 0.09445148706436157], [0.2466219663619995, -0.02430427074432373, 0.026870250701904297, -0.06859546899795532], [-0.23245948553085327, -0.10266292095184326, 0.025143325328826904, 0.1711941361427307]], [[0.0008247789810411632, -0.018081624060869217, 0.16327910125255585, -0.7732729911804199], [0.4066934585571289, -0.2829403877258301, -0.10897859930992126, 0.6262900233268738], [0.24413207173347473, 0.015475784428417683, -0.44168147444725037, 0.2700655460357666], [-0.4376870095729828, -0.024609418585896492, 0.07059591263532639, 0.7852200269699097]], [[0.2508254647254944, 0.2590712904930115, -0.07329488545656204, -0.30899256467819214], [-0.024482831358909607, -0.2016916573047638, -0.0946354866027832, -0.5314749479293823], [0.10962632298469543, -0.06022639945149422, -0.22963596880435944, -0.2979060411453247], [-0.2318752259016037, -0.281897634267807, 0.14613446593284607, 0.251685231924057]], [[-0.009476479142904282, 0.09467049688100815, -0.13219329714775085, -0.3688916265964508], [0.2229699194431305, 0.16733716428279877, -0.0593482181429863, -0.7717390656471252], [0.15972425043582916, 0.0726206824183464, -0.24619874358177185, -0.27700114250183105], [-0.10765554755926132, -0.10424728691577911, 0.17727866768836975, 0.4097898304462433]], [[-0.131622314453125, 0.16284944117069244, -0.14642806351184845, -0.2963809072971344], [-0.5035576224327087, 0.06734897196292877, 0.08446681499481201, -0.20979948341846466], [-0.03403311222791672, 0.1253102421760559, -0.25977832078933716, -0.27684956789016724], [-0.03746713325381279, -0.13710899651050568, 0.2523803114891052, 0.306439608335495]], [[-0.4762111306190491, 0.15790970623493195, -0.11796636134386063, -0.20373694598674774], [-0.47209930419921875, 0.27738824486732483, -0.10803840309381485, -0.37129953503608704], [-0.18393541872501373, 0.1638912856578827, -0.1161988377571106, -0.0706549882888794], [0.22887060046195984, -0.33186087012290955, 0.2011307328939438, 0.42192503809928894]], [[-0.5524629950523376, 0.19361206889152527, 0.1993042230606079, 0.13004466891288757], [-0.7718628644943237, 0.31005197763442993, -0.07306776940822601, -0.25718197226524353], [-0.4813506305217743, 0.11877913028001785, -0.06064493954181671, 0.10109356045722961], [0.3151404559612274, -0.3544660806655884, 0.0010610942263156176, 0.24319258332252502]], [[-0.5560784935951233, -0.013622572645545006, 0.028664980083703995, 0.058337822556495667], [-0.42064422369003296, 0.15461380779743195, 0.1161186695098877, 0.06314122676849365], [-0.25835275650024414, 0.24204817414283752, 0.026036124676465988, 0.018498605117201805], [0.5596259236335754, -0.06143767759203911, 0.01218435075134039, 0.03366348519921303]], [[-0.47055354714393616, -0.06731559336185455, 0.21940582990646362, -0.2833912968635559], [-0.307319700717926, 0.04065237194299698, 0.3223731517791748, -0.1682460457086563], [-0.09919542074203491, 0.2397100180387497, -0.2696799337863922, 0.13787753880023956], [0.46771588921546936, -0.1114683672785759, -0.06906164437532425, 0.41945528984069824]], [[-0.2438305765390396, -0.09889167547225952, 0.37687256932258606, -0.03882800415158272], [0.22235271334648132, -0.15648126602172852, 0.3623470366001129, -0.23009580373764038], [-0.4275229275226593, 0.12320449203252792, -0.3669392466545105, -0.005731221754103899], [0.14609022438526154, -0.05573200434446335, 0.41298535466194153, -0.1303490847349167]], [[1.4872101545333862, 1.6488924026489258, 0.3505114018917084, 0.9198290705680847], [1.347345232963562, 1.7321735620498657, -0.5359821915626526, 1.272047519683838], [-1.4420875310897827, -2.462315559387207, 2.4109153747558594, -2.4481375217437744], [-1.5329132080078125, -0.47918692231178284, 1.7569986581802368, -1.5763334035873413]], [[0.1284082531929016, -0.08504176139831543, 0.19298189878463745, 0.005214095115661621], [0.222900390625, 0.18764346837997437, 0.18223053216934204, 0.07345074415206909], [-0.18168342113494873, -0.0597681999206543, -0.18388211727142334, 0.20596933364868164], [-0.00043022632598876953, -0.17947828769683838, -0.20071905851364136, 0.053633272647857666]]]}, "dense": {"bias:0": [-0.053035154938697815], "kernel:0": [[-0.002318772953003645], [-0.25916650891304016], [0.5809953808784485], [0.21325898170471191], [0.8569687008857727], [0.003536243923008442], [0.45478782057762146], [0.5569533109664917], [0.44320282340049744], [-0.5096557140350342], [-0.3184279799461365], [0.7678956389427185], [0.5800396800041199], [0.3241700232028961], [-0.5126626491546631], [-0.2517290413379669], [-0.16173270344734192], [-0.017077626660466194], [-0.5744408369064331], [-1.2072042226791382], [1.035285472869873], [0.002180804032832384], [-0.3071235716342926], [0.49026384949684143]]}, "lstm": {"lstm_cell": {}, "kernel:0": [[0.2565838098526001, -0.6501978039741516, 1.7267024517059326, -0.0884527787566185, -0.027686957269906998, -0.45187321305274963, -2.2980809211730957, -1.0356731414794922, -0.11074608564376831, 1.9880642890930176, 0.3389486074447632, 1.02396821975708, -2.3509750366210938, -0.9907649755477905, 2.9448087215423584, -0.8046368956565857, -0.8295854926109314, 0.7403519153594971, -0.5970723628997803, -3.320495367050171, -1.5346133708953857, -0.005664309021085501, -1.669326901435852, -0.007475032936781645, 0.13327042758464813, 0.10220716893672943, 0.18099401891231537, 0.13459046185016632, 0.21892084181308746, 0.009012117981910706, -0.026643186807632446, -0.1729540228843689, -0.115201935172081, 0.014724358916282654, 0.10005645453929901, 0.12969167530536652, -0.0880461186170578, -0.13965705037117004, 0.0608530193567276, -0.0927768349647522, -0.24413031339645386, 0.21621818840503693, 0.1478949934244156, 0.13635362684726715, 0.1565254181623459, -0.15122628211975098, 0.11827169358730316, -0.03317567706108093, -0.010421806946396828, -0.5598900318145752, 0.17305973172187805, 0.18812237679958344, 0.3163548409938812, 0.008294251747429371, -0.17604805529117584, 0.42830199003219604, 0.02868887595832348, -0.7896420359611511, 0.09719114750623703, 0.8104777932167053, -0.016039777547121048, 0.008263584226369858, -0.46658629179000854, -0.39950665831565857, -0.15991011261940002, -0.06163252517580986, -0.28791624307632446, 0.15801005065441132, 0.6757490038871765, 0.0017850634176284075, -0.1500164121389389, 0.8767867088317871, -0.06344664841890335, 1.2010966539382935, -1.511116862297058, -1.0787880420684814, -1.566840410232544, 0.11201465874910355, 0.9590075612068176, -0.43271106481552124, -0.31960004568099976, -0.4497421979904175, 0.09088422358036041, -0.5929320454597473, 0.16959013044834137, 0.3688707947731018, -1.1249576807022095, 0.2619490325450897, 0.10924824327230453, -0.403999924659729, -0.12406411021947861, -1.928476095199585, 1.966308355331421, -0.03150489926338196, -0.5923967957496643, 0.9235861897468567], [-0.24747522175312042, -1.4350656270980835, 0.04345226660370827, 2.3956458568573, -0.494812548160553, 0.3708550035953522, -1.3878360986709595, 1.199664831161499, -1.2582939863204956, -2.1159753799438477, -1.4842169284820557, 3.5410985946655273, 0.1645182967185974, -2.683868408203125, 0.6689111590385437, -1.9382137060165405, -0.2038818597793579, 0.6686880588531494, 2.9597067832946777, -3.6097424030303955, -3.806739568710327, -0.247982919216156, 0.41000935435295105, 1.5661752223968506, 0.05278564989566803, 0.0897313803434372, -0.17435258626937866, 0.10774777829647064, 0.22260166704654694, -0.03434748947620392, 0.2144247144460678, 0.112982377409935, 0.1887177973985672, -0.21071600914001465, 0.01106978952884674, -0.22511105239391327, -0.1371380090713501, 0.0259677916765213, 0.2329229861497879, 0.11141134798526764, -0.025684893131256104, -0.09125959873199463, -0.11838586628437042, -0.10153695940971375, 0.15140725672245026, 0.1410176008939743, 0.21536560356616974, -0.24195927381515503, -0.00040409216308034956, -0.2694787085056305, 0.7014702558517456, -0.09188509732484818, 1.1214970350265503, 0.027269965037703514, 1.0015681982040405, -0.6262784004211426, 0.16337667405605316, -0.30484768748283386, -0.4930456578731537, 1.1918526887893677, -0.3951186239719391, 0.06756361573934555, 0.1320192962884903, -0.11391232907772064, -0.09611386060714722, -0.03510129451751709, -1.1163458824157715, 1.041564702987671, 1.6897788047790527, 0.004892075899988413, 0.18820104002952576, -0.6250997185707092, -0.18101948499679565, 1.8809367418289185, -4.016777515411377, 1.4795722961425781, -1.2225672006607056, -0.270171195268631, 5.4720587730407715, -1.9889110326766968, 6.032362937927246, 1.881281852722168, -0.5359749794006348, -2.1440398693084717, -0.6877174973487854, -0.4375847280025482, 0.011457257904112339, -2.50545072555542, 0.511826753616333, -0.44891485571861267, -3.19789719581604, -2.73693585395813, 3.350579261779785, -0.18340611457824707, 2.622303009033203, -4.578200817108154], [-0.2906635105609894, -0.6984877586364746, 4.093685150146484, 0.6491203904151917, -2.505707025527954, -0.009419611655175686, -1.5258153676986694, -1.976460337638855, 3.0322649478912354, -1.0739864110946655, -1.224891185760498, 2.237229824066162, 0.6295421719551086, 2.6092185974121094, -1.7185255289077759, -1.133100986480713, -1.0680997371673584, -0.6901007294654846, -1.5819628238677979, -4.252505302429199, 0.3966192901134491, 0.017972953617572784, 0.5769165754318237, -0.8511278629302979, -0.23583149909973145, -0.014059245586395264, 0.062344446778297424, 0.24472032487392426, 0.1667301207780838, 0.0940036028623581, -0.12496017664670944, -0.18498918414115906, -0.02051401138305664, 0.24251015484333038, 0.1367761641740799, -0.05399063229560852, 0.023293063044548035, -0.11102625727653503, 0.2080068737268448, -0.13480910658836365, -0.12139285355806351, 0.18284396827220917, 0.1008707731962204, 0.14767350256443024, 0.17438150942325592, -0.0054941326379776, 0.0752311497926712, 0.10958226025104523, 0.03995005041360855, -0.10738258808851242, -1.145766258239746, -0.4925268292427063, -0.9620805382728577, -0.048469047993421555, -0.6046057939529419, 0.6230918169021606, 0.6885194778442383, 0.2805516719818115, 0.1500428318977356, 0.6982437372207642, 0.15459048748016357, -0.967156171798706, 0.7497801184654236, -0.12497798353433609, 0.6081128716468811, 0.2067432552576065, 0.8378854990005493, -0.8034546971321106, -0.23931849002838135, -0.01019394863396883, 0.5355015993118286, -0.013013064861297607, 0.6097744107246399, 0.003769587492570281, -0.47615066170692444, -0.925809383392334, 0.4204990267753601, 0.2026517391204834, 0.8853340148925781, -1.2760859727859497, 1.9485112428665161, 0.12927737832069397, -1.3518036603927612, 0.6351567506790161, 1.1519975662231445, -0.2207549661397934, 0.6373658776283264, 1.2869757413864136, 1.5097867250442505, 1.6231677532196045, 1.4592008590698242, -3.883451223373413, -1.0502909421920776, -0.05548882484436035, -1.140838384628296, -0.2653518319129944], [0.15334242582321167, -2.2660651206970215, -0.057556234300136566, -0.9100533127784729, 1.7729942798614502, -0.0031771676149219275, -1.9261465072631836, -2.542545795440674, 1.2122994661331177, -0.14435094594955444, -1.4489753246307373, 1.7228806018829346, 2.2172579765319824, 2.340430974960327, 1.6130709648132324, 2.0204286575317383, 0.3196742534637451, 1.1829819679260254, 3.718702793121338, -1.3229622840881348, -2.131410598754883, 0.07099249213933945, 0.40652573108673096, 0.5471404790878296, 0.1541786640882492, -0.07521426677703857, 0.2092808037996292, 0.17360104620456696, -0.10808095335960388, 0.09110991656780243, -0.12787435948848724, 0.16867239773273468, 0.13925431668758392, 0.19170106947422028, -0.12242303043603897, -0.03593340516090393, -0.18979348242282867, -0.21409237384796143, 0.09184680879116058, 0.2303062528371811, 0.03398866951465607, 0.18457113206386566, 0.17660896480083466, -0.2247380018234253, 0.09468688070774078, -0.016018524765968323, 0.20695345103740692, -0.19355399906635284, -0.03225462883710861, -0.19443564116954803, 0.7139781713485718, 0.3854954242706299, 0.4944518506526947, 0.04272786155343056, 0.5358337759971619, 0.1838616579771042, 0.1307881474494934, -0.06004243344068527, -0.6009746193885803, 0.4521562457084656, 1.815781593322754, -0.21645374596118927, -0.963022768497467, -0.4529338479042053, -0.4529520273208618, -0.06200920790433884, -0.46801692247390747, 0.640479326248169, 0.9374538064002991, 0.0240186657756567, -0.4025101065635681, 0.5825544595718384, 0.04914436489343643, 1.7714272737503052, -0.1453431248664856, 0.36875537037849426, -2.31605863571167, 0.25296521186828613, 1.7029309272766113, 0.409117728471756, -1.4451360702514648, 0.18244116008281708, -1.219212532043457, -1.3308542966842651, -1.1939326524734497, 3.4682676792144775, -1.8012982606887817, -1.9452422857284546, 0.4664544463157654, 0.3322543203830719, -2.78381085395813, 1.4683045148849487, 2.9654953479766846, 0.35521212220191956, 1.1774691343307495, 1.892987608909607]], "bias:0": [-0.3851490020751953, -0.16960150003433228, -0.6240727305412292, -0.41230544447898865, -0.43461716175079346, -0.27835139632225037, -0.09829425811767578, -1.334341049194336, -0.3140586316585541, -0.13816046714782715, -0.8140953779220581, -0.8783971667289734, 0.04285072907805443, -1.480316162109375, -0.2767375111579895, -0.4408537447452545, -0.32165589928627014, -0.625267744064331, -0.1944149285554886, -6.20001220703125, -0.30467337369918823, -0.9379476308822632, -0.39254188537597656, 0.3155629634857178, 1.0, 1.0, 1.0, 1.0, 1.0, 1.0, 1.0, 1.0, 1.0, 1.0, 1.0, 1.0, 1.0, 1.0, 1.0, 1.0, 1.0, 1.0, 1.0, 1.0, 1.0, 1.0, 1.0, 1.0, 0.002198445610702038, 0.06387512385845184, -0.005676634609699249, -0.06055475398898125, -0.08333801478147507, -0.0036483725998550653, -0.16482029855251312, 0.0714707002043724, -0.28738757967948914, 0.08645100146532059, -0.0023125242441892624, -0.24899423122406006, -0.09866879880428314, 0.0339873768389225, 0.0612555555999279, 0.02979673445224762, 0.034033168107271194, 0.0075646997429430485, 0.08526959270238876, -0.09244611859321594, 0.07451243698596954, -0.0016405812930315733, 0.05221960321068764, -0.05195239558815956, -0.4333994686603546, -0.4631913900375366, 0.3163031339645386, -0.5574713349342346, 0.35799115896224976, -0.2671962082386017, 0.011994420550763607, -0.5735728740692139, -0.18432866036891937, 0.09619405120611191, -0.7933316230773926, 0.09075238555669785, 0.2655315399169922, -1.774965763092041, 0.12059006839990616, -0.6396670341491699, -0.3481740355491638, -0.5325309634208679, 0.46088114380836487, -4.141354560852051, 1.5830596685409546, -0.9385949373245239, -0.6254861950874329, -0.5196839570999146]}, "input_size": 120, "conv1d_stride": 12, "conv1d_1_stride": 12}