{"conv1d": {"bias:0": [0.006291668396443129, -0.003877663752064109, 0.006087374407798052, 0.0014426071429625154], "kernel:0": [[[-1.4352494478225708, -1.2178906202316284, 1.2396571636199951, 0.15084697306156158]], [[-1.836448311805725, -0.14779525995254517, 0.44255292415618896, 0.5754935145378113]], [[-2.571446180343628, 0.460980623960495, 0.5432344675064087, 0.6500940918922424]], [[-2.565202236175537, 1.0110888481140137, 0.03137261047959328, 0.5419108867645264]], [[-2.2806735038757324, 1.3875205516815186, 0.009712203405797482, -0.2735663950443268]], [[-1.7844234704971313, 2.2888102531433105, -0.03141171112656593, -0.5873034000396729]], [[-1.2264161109924316, 2.0935401916503906, 0.4717516601085663, -1.0479003190994263]], [[-0.20901678502559662, 2.5196399688720703, 0.5868984460830688, -1.253780722618103]], [[1.3464962244033813, 2.711494207382202, 1.5045928955078125, -1.8270540237426758]], [[1.7668675184249878, 1.898459792137146, 1.6675280332565308, -1.775343894958496]], [[2.753159761428833, 1.5006272792816162, 1.81882905960083, -1.5182437896728516]], [[2.655468702316284, -0.2641696333885193, 1.3657952547073364, -0.50091552734375]]]}, "conv1d_1": {"bias:0": [0.011754087172448635, 0.12716779112815857, -0.04041953757405281, 0.006545973010361195], "kernel:0": [[[-0.21270453929901123, 0.10066264867782593, 0.0018023848533630371, -0.1250264048576355], [0.04081457853317261, 0.0684252381324768, 0.01868826150894165, 0.18810999393463135], [0.029504477977752686, -0.21106702089309692, 0.0004553794860839844, -0.17217332124710083], [0.0778646469116211, 0.06873518228530884, 0.03779631853103638, 0.0617101788520813]], [[0.3628672659397125, 0.6826595067977905, 0.32956939935684204, -0.07033351808786392], [-0.5288912057876587, 0.4059622585773468, 0.14082199335098267, 0.12051461637020111], [0.533347487449646, -1.1312346458435059, -0.6328393816947937, 0.018745655193924904], [-0.004118205048143864, 0.0038836635649204254, 0.12414627522230148, 0.00747232511639595]], [[0.12355221062898636, 0.2072352170944214, -0.07376938313245773, 0.09160111844539642], [-0.19860723614692688, -0.07760323584079742, -0.05545847862958908, 0.04104353487491608], [0.07562857866287231, -0.28532034158706665, -0.15963414311408997, 0.09247620403766632], [-0.24887314438819885, -0.11012200266122818, -0.1137697845697403, 0.06643394380807877]], [[0.05000189319252968, 0.08385137468576431, -0.04134555533528328, -0.006093996111303568], [0.08866503834724426, -0.037289515137672424, 0.013974586501717567, -0.11100349575281143], [0.08452142030000687, -0.2807295620441437, -0.25793692469596863, 0.17081932723522186], [0.13989363610744476, -0.0895003154873848, -0.05565851926803589, -0.1730036735534668]], [[0.022333592176437378, 0.3123443126678467, -0.061252690851688385, 0.08820826560258865], [0.15168841183185577, 0.02609756402671337, -0.06376536935567856, 0.08576436340808868], [0.09644914418458939, 0.01243828609585762, -0.16768519580364227, -0.09401983767747879], [-0.041862454265356064, 0.22914738953113556, -0.1453002542257309, -0.1081760972738266]], [[-6.204438977874815e-05, 0.2927030026912689, 0.09465198218822479, -6.778107490390539e-05], [-0.021743614226579666, -0.13458794355392456, -0.08368948101997375, -0.01112817507237196], [0.15380114316940308, -0.25179189443588257, -0.08262200653553009, -0.023856431245803833], [0.3474917709827423, 0.009765958413481712, 0.2691003680229187, -0.10723351687192917]], [[-0.04030347988009453, 0.3180273473262787, 0.15187135338783264, 0.017940301448106766], [0.35891133546829224, -0.047981929033994675, 0.14963825047016144, 0.06798794865608215], [-0.025506947189569473, -0.14991866052150726, -0.05008648708462715, 0.08859869092702866], [0.14270798861980438, 0.027488157153129578, 0.03081740252673626, 0.2122805118560791]], [[0.16172578930854797, 0.5124405026435852, 0.3074360191822052, 0.016871733590960503], [0.2036779671907425, 0.028283150866627693, 0.21543267369270325, -0.023585274815559387], [0.03816065564751625, 0.12822400033473969, 0.4926612675189972, -0.08216209709644318], [-0.030988438054919243, -0.30731356143951416, -0.4223109781742096, 0.10755735635757446]], [[-0.47131773829460144, 0.5059748291969299, -0.10460429638624191, -0.1332317441701889], [0.06156039237976074, 0.3771774172782898, 1.140580415725708, -0.1931210309267044], [-0.5596339702606201, 0.2652323544025421, 1.0967731475830078, 0.18511320650577545], [0.17814309895038605, -0.2218252420425415, -0.6304610371589661, 0.2889123558998108]], [[-1.5764238834381104, -0.28888529539108276, -1.8719810247421265, -0.28548526763916016], [-2.4007163047790527, 0.8838717937469482, 1.2810665369033813, -0.3362639844417572], [-1.981987714767456, 1.061867356300354, 1.0196256637573242, 0.4140520393848419], [1.9150996208190918, -0.5517270565032959, -0.42401859164237976, 0.5144593119621277]], [[-0.544731616973877, -2.6085000038146973, 0.9923121333122253, -5.790145397186279], [2.804392099380493, -0.3659436106681824, -2.424266815185547, -0.35702431201934814], [0.593872606754303, -0.7177523374557495, -1.1169592142105103, -1.2237552404403687], [-1.3711576461791992, 0.634009599685669, 1.3660888671875, 1.4528965950012207]], [[0.07320058345794678, 0.06143301725387573, 0.2199527621269226, 0.18197119235992432], [0.2109556794166565, 0.200961172580719, 0.2144331932067871, 0.19695895910263062], [-0.2361869215965271, 0.027518153190612793, -0.07683330774307251, 0.058456480503082275], [0.17654407024383545, 0.23326855897903442, 0.09193599224090576, 0.17707139253616333]]]}, "dense": {"bias:0": [-0.022259077057242393], "kernel:0": [[0.20133492350578308], [-0.19385050237178802], [0.1849774718284607], [-0.09307252615690231], [-0.058373987674713135], [0.17323777079582214], [0.5147032737731934], [0.04662347212433815], [-0.22879812121391296], [-0.4458652138710022], [0.08045797049999237], [-0.10800019651651382], [0.20761598646640778], [-0.11898621916770935], [0.20398281514644623], [0.17000262439250946], [0.11038019508123398], [0.15779541432857513], [0.1350712776184082], [-0.051631562411785126], [-0.12425189465284348], [-0.03224871680140495], [0.10332358628511429], [-0.09421639889478683]]}, "lstm": {"lstm_cell": {}, "kernel:0": [[0.22923310101032257, -0.2647857666015625, 0.026198100298643112, -1.114733338356018, -0.36824414134025574, -0.45732536911964417, -0.26675084233283997, 0.5198087096214294, 0.11825940757989883, 0.6901121139526367, -0.5527818202972412, 0.2197750061750412, -0.6171457767486572, -0.23937779664993286, 0.2632986009120941, -0.11784667521715164, 0.3990064263343811, -0.12919239699840546, 0.20728394389152527, -0.4928841292858124, -0.2498391568660736, -0.8688310384750366, -1.58451509475708, -1.6488205194473267, 0.20897619426250458, -0.1033308357000351, 0.2231999784708023, 0.21584992110729218, 0.08882744610309601, 0.02217884361743927, 0.018952026963233948, -0.15447163581848145, 0.11332695186138153, -0.08322329819202423, -0.1539057493209839, 0.13591791689395905, -0.013160407543182373, -0.011752143502235413, -0.18912667036056519, 0.1466556340456009, 0.029210016131401062, 0.22632087767124176, -0.05526125431060791, -0.08495917916297913, -0.03306274116039276, 0.1916738599538803, -0.14786452054977417, 0.2006991058588028, 3.8563458919525146, 0.002774645108729601, -0.0019766255281865597, -0.01895716041326523, 1.9883739948272705, 2.0051987171173096, 0.20562663674354553, 0.3531619906425476, -0.949102520942688, -0.24379633367061615, -2.1601810455322266, 0.24225711822509766, -1.4875164031982422, -0.021748531609773636, -0.008531264029443264, -0.4673565924167633, -0.09180453419685364, 2.2292091846466064, -0.15051212906837463, -0.29444995522499084, -0.011182425543665886, -0.7835428714752197, 5.27444314956665, -2.0630733966827393, -0.26224321126937866, 0.1255788654088974, 0.1603996902704239, 0.9656132459640503, -0.4715367555618286, 0.03353681415319443, 0.08153712749481201, 0.41632384061813354, 0.1709243804216385, 0.03701724857091904, 0.15309597551822662, 0.43985143303871155, 0.6902769207954407, 0.5193402767181396, -0.25308218598365784, 0.22695162892341614, 0.028405582532286644, 0.5880237817764282, -0.5155820250511169, -0.3163878917694092, -0.6626548767089844, -0.5950830578804016, 1.3454182147979736, 0.8629024028778076], [1.1969784498214722, 0.04342137277126312, -0.41077160835266113, 0.11025805026292801, 0.4158547818660736, 2.6181681156158447, 0.28768786787986755, -1.579677939414978, 0.3999614417552948, -0.11795756220817566, 1.2012317180633545, -0.37944263219833374, 0.9571431279182434, -0.3373149037361145, 0.01843603327870369, 0.8463342189788818, 1.0856062173843384, 0.7808306217193604, -1.118270754814148, -0.6164054870605469, -1.2235009670257568, 0.004136334639042616, -0.2239883542060852, 1.5238873958587646, -0.04267929494380951, -0.0015942156314849854, 0.2263191193342209, -0.07288794219493866, 0.22178106009960175, 0.1461654156446457, -0.17641589045524597, 0.1313042789697647, 0.16524983942508698, 0.24276544153690338, -0.07395784556865692, -0.01014554500579834, -0.11167334020137787, -0.13083332777023315, -0.1597651243209839, 0.23187528550624847, 0.17368723452091217, 0.04687453806400299, 0.2277030497789383, -0.18494433164596558, -0.20835965871810913, 0.1816028207540512, 0.21635876595973969, -0.0786333680152893, -1.3117475509643555, -0.7391172647476196, -0.4816741347312927, -0.2959236800670624, 0.01216353289783001, -2.9859914779663086, -0.1768215447664261, 0.42354536056518555, 0.4310917556285858, -0.029509827494621277, -0.801592230796814, 0.10184060782194138, 0.44672486186027527, 0.03438510745763779, -0.020471958443522453, -1.0431033372879028, 0.033149972558021545, 0.24405866861343384, 0.8411322236061096, -0.8132288455963135, -0.4680301249027252, 0.370813250541687, -1.8026281595230103, -0.05755077674984932, -0.2301633059978485, -0.279513418674469, -0.8155732750892639, 0.6799044609069824, -0.3677864372730255, -1.593543529510498, -0.15853151679039001, 0.7028233408927917, -0.3091129958629608, 0.13091017305850983, -0.6784021258354187, -0.31825241446495056, -0.5554150342941284, 0.3665439784526825, 0.077311672270298, -0.5271243453025818, -1.3162034749984741, -0.5347611904144287, 0.9192299842834473, 0.01244028378278017, 0.16318626701831818, -0.37613439559936523, 0.15229876339435577, -0.9807991981506348], [-0.24129311740398407, 0.15888535976409912, 0.01806376874446869, 0.8282232880592346, -1.309867262840271, 0.18783259391784668, 0.04368586093187332, -0.11671614646911621, -0.09792886674404144, -0.5739007592201233, 0.8285844922065735, -0.03533528745174408, 0.6895805597305298, -0.20902881026268005, -0.33085063099861145, 0.766226589679718, 0.028307950124144554, -0.9009577035903931, 0.024558598175644875, -0.12555308640003204, 0.21288606524467468, 0.04717351496219635, 1.506487488746643, 0.7628200650215149, -0.09768474102020264, -0.10016331076622009, -0.18809543550014496, 0.13832499086856842, 0.08709599077701569, -0.08491222560405731, 0.2387661188840866, -0.03236024081707001, 0.014671459794044495, 0.1698930710554123, -0.06318448483943939, 0.09829087555408478, -0.09191484749317169, 0.21761466562747955, -0.20932205021381378, -0.16013368964195251, -0.15121155977249146, 0.2253609448671341, -0.03862279653549194, -0.04552064836025238, 0.12712682783603668, -0.22592048346996307, -0.20887184143066406, 0.11913923919200897, -3.4075241088867188, 0.32000988721847534, 0.06347360461950302, 0.10169243067502975, 1.9748687744140625, -2.226954936981201, -0.24005545675754547, -0.10032569617033005, 0.6004476547241211, 0.14727769792079926, -1.120043396949768, 0.19909405708312988, 1.379324197769165, 0.5648149251937866, -0.44028833508491516, 0.10521548241376877, -0.21369923651218414, -4.055074214935303, 0.04152493551373482, 0.13360708951950073, 0.46617603302001953, -0.1588943749666214, -0.12478002905845642, 1.3677752017974854, 0.7008338570594788, -0.09096577018499374, 0.9604300856590271, 0.887483537197113, 0.30926549434661865, 0.11570572853088379, 0.18478159606456757, 1.2628159523010254, -0.1240372359752655, -0.10502682626247406, -0.11346043646335602, 0.2797772288322449, -0.2416117787361145, -0.25007668137550354, -0.11456470936536789, -0.43231186270713806, -0.0073919896967709064, -0.11904730647802353, 1.0101847648620605, -0.4578596353530884, 0.9629769921302795, 2.525529384613037, -1.2746955156326294, -0.531741201877594], [2.1010777950286865, 0.12553706765174866, -0.6304494738578796, 0.1280023753643036, 0.7437677979469299, 4.842740058898926, 0.02739197015762329, 0.061645206063985825, -0.18360771238803864, 0.05746915563941002, 1.9925001859664917, 0.20286978781223297, 1.66574227809906, -1.026016116142273, 0.17162150144577026, 2.1040077209472656, -0.4532035291194916, 1.714467167854309, -2.8948814868927, 1.4936076402664185, -2.4599809646606445, 4.421309471130371, -1.627367615699768, 1.0466548204421997, -0.24121946096420288, -0.015443459153175354, 0.10318495333194733, 0.15567182004451752, 0.08730576932430267, 0.09631182253360748, -0.03406307101249695, -0.13014104962348938, 0.035732612013816833, 0.02583177387714386, 0.14074380695819855, 0.02200116217136383, -0.23918069899082184, -0.05013848841190338, 0.20779190957546234, -0.19618481397628784, -0.12923461198806763, -0.1890132576227188, -0.14122730493545532, 0.1530369371175766, 0.07886014878749847, 0.09990285336971283, -0.17101934552192688, 0.19134511053562164, -0.1971185952425003, 0.43902871012687683, -0.707535982131958, 0.12139289081096649, 0.4334726929664612, -6.946449279785156, -0.26145243644714355, -0.218804731965065, 1.481360912322998, -0.01540724840015173, 0.778145968914032, 0.040573764592409134, -0.0007885624072514474, 0.7214533686637878, 0.22195418179035187, -2.6122043132781982, -0.09462489187717438, 3.1852874755859375, 1.4190608263015747, 0.5211883187294006, -0.5108752846717834, -0.6636912226676941, 0.7753029465675354, 1.164567470550537, -0.5662016272544861, -0.14914850890636444, -1.6529046297073364, -0.49881279468536377, -0.6579604744911194, -3.253955364227295, 0.21422484517097473, 1.715057611465454, -0.09976082295179367, -0.11982432752847672, -0.7312928438186646, -0.21011385321617126, -0.9767555594444275, 0.8114115595817566, -0.00169909349642694, -1.2781442403793335, 0.7019109725952148, -1.1647734642028809, 2.136403799057007, -0.372259259223938, -0.8508086800575256, -1.6585171222686768, 1.6738337278366089, -0.5340791940689087]], "bias:0": [0.9114693403244019, -0.17301392555236816, -0.9351727962493896, -0.697975754737854, 1.0440053939819336, 0.3838653564453125, -0.7596474289894104, -0.7863765358924866, 0.3160638213157654, 0.16669054329395294, 0.28825053572654724, -0.5377524495124817, 0.04042422026395798, -0.22739486396312714, -0.3862348198890686, 0.6546109318733215, 0.7863746881484985, 0.6394765973091125, -0.035699471831321716, 1.4943619966506958, -0.4366734027862549, 0.08201449364423752, 0.4707508385181427, 0.4575202465057373, 1.0, 1.0, 1.0, 1.0, 1.0, 1.0, 1.0, 1.0, 1.0, 1.0, 1.0, 1.0, 1.0, 1.0, 1.0, 1.0, 1.0, 1.0, 1.0, 1.0, 1.0, 1.0, 1.0, 1.0, -0.012767764739692211, 0.05316980928182602, 0.3926354944705963, 0.3995741605758667, 0.022624420002102852, 0.04647639021277428, -0.36238574981689453, 0.21404831111431122, -0.09351480007171631, -0.510087251663208, -0.07231492549180984, 0.01961653120815754, -0.09073250740766525, -0.21713225543498993, 0.10717782378196716, 0.01709086261689663, 0.5271230340003967, -0.09485992789268494, 0.11380390077829361, 0.12328173965215683, -0.6654553413391113, 0.04770143702626228, 0.04901925101876259, 0.2753763496875763, 0.13030482828617096, -0.20001883804798126, -0.22147537767887115, 0.7670397162437439, 0.5324963927268982, 0.5510021448135376, 0.20390662550926208, -1.0325329303741455, -0.5310107469558716, -0.9568715691566467, -0.21071021258831024, -0.1885141283273697, 0.17763635516166687, -0.24286648631095886, -0.12960630655288696, -0.09460055828094482, -0.8846167325973511, 0.7146320939064026, -0.3473629355430603, 0.4135311245918274, -0.45405110716819763, -0.5569241046905518, 0.638533353805542, 0.004969083238393068]}, "input_size": 120, "conv1d_stride": 12, "conv1d_1_stride": 12}