{"conv1d": {"bias:0": [-0.002931816503405571, -0.005721676629036665, 0.004616028629243374, 0.016518836840987206], "kernel:0": [[[-2.667426109313965, 0.803446352481842, -0.44352594017982483, -0.5431787371635437]], [[-2.2938647270202637, 1.1340099573135376, 1.20163893699646, -1.126038670539856]], [[-2.357875108718872, 1.2519828081130981, 2.606201171875, -2.37479305267334]], [[-1.8752061128616333, 1.453175663948059, 3.2152352333068848, -2.579500198364258]], [[-1.4739376306533813, 1.4792448282241821, 3.260415554046631, -3.1211581230163574]], [[-0.7359664440155029, 1.7833006381988525, 3.358386754989624, -3.1663293838500977]], [[-0.32953256368637085, 1.932995080947876, 3.444204807281494, -3.3168344497680664]], [[0.7834315299987793, 1.8877061605453491, 3.060514211654663, -3.275568962097168]], [[1.857369065284729, 1.5880259275436401, 2.9628119468688965, -3.359510898590088]], [[2.592883586883545, 1.029628872871399, 2.109644889831543, -2.4301633834838867]], [[3.106560707092285, -0.10337693244218826, 0.893424928188324, -1.5079834461212158]], [[3.3894124031066895, -0.4340039789676666, -1.677995204925537, 0.006641323212534189]]]}, "conv1d_1": {"bias:0": [-0.02834848314523697, -0.012048106640577316, -0.03165142610669136, -0.01861036941409111], "kernel:0": [[[-0.06551223993301392, -0.18213844299316406, -0.021063804626464844, -0.23911523818969727], [-0.1439163088798523, -0.1042969822883606, -0.2183043360710144, -0.18395406007766724], [-0.06152313947677612, -0.1630619764328003, 0.010546326637268066, -0.1401471495628357], [0.1282041072845459, 0.07021135091781616, 0.23120170831680298, -0.1769065260887146]], [[2.042414426803589, -0.7867045402526855, 0.6030049920082092, 1.5864989757537842], [-0.40169012546539307, 0.8266676068305969, 0.1429738700389862, -0.19253554940223694], [-0.4112078547477722, 0.4528573155403137, 0.5950066447257996, 0.37691017985343933], [0.42206600308418274, -0.4046888053417206, -0.22675247490406036, 0.08742246776819229]], [[2.487156629562378, -2.324765682220459, -1.0926949977874756, 1.0399237871170044], [-0.24750842154026031, 0.2584986090660095, -0.6735572814941406, 0.05777181312441826], [-0.32222551107406616, 0.11786295473575592, -0.7138963341712952, -0.10867495834827423], [0.4035557210445404, -0.057804323732852936, 0.6197404265403748, -0.3927963674068451]], [[-1.2034077644348145, 1.2302106618881226, 0.5387425422668457, -0.46917882561683655], [0.10617448389530182, -0.803337812423706, -0.9225837588310242, 0.04274667426943779], [0.38337796926498413, -0.471248596906662, -0.9021822214126587, 0.012807403691112995], [-0.19598588347434998, 0.40885859727859497, 0.800029993057251, -0.16773946583271027]], [[-1.5551588535308838, 1.2197418212890625, -0.9803524613380432, -0.34962934255599976], [0.06050927937030792, -0.05516041815280914, 0.19590303301811218, 0.12176785618066788], [0.060759637504816055, -0.20482882857322693, -0.09369781613349915, 0.014047189615666866], [-0.22015956044197083, -0.019537705928087234, 0.10266466438770294, 0.11147086322307587]], [[0.6080588698387146, 0.12445342540740967, 1.2345476150512695, -1.1289501190185547], [0.3455487787723541, -0.10220343619585037, 0.7885840535163879, 0.031037380918860435], [0.2928662896156311, 0.1843075305223465, 0.8193668723106384, -0.45653942227363586], [-0.37909287214279175, -0.04860398545861244, -1.0905888080596924, 0.2145114690065384]], [[-0.664581298828125, 0.4220201075077057, -2.3763785362243652, 0.8717072010040283], [0.17438064515590668, 0.10102196037769318, 0.7337635159492493, -0.05356169864535332], [0.10538892447948456, -0.1624017357826233, 0.7322522401809692, -0.39596009254455566], [-0.367984414100647, -0.05098794773221016, -0.2424628734588623, 0.3974950313568115]], [[0.08121582865715027, -0.02190750278532505, -0.7129811644554138, -0.17963764071464539], [0.0019507723627611995, 0.05947202444076538, -0.3318714499473572, 0.3973834812641144], [0.14936013519763947, -0.17281056940555573, -0.012111338786780834, 0.08268797397613525], [-0.00739698950201273, -0.17743466794490814, 0.3613385856151581, 0.09380955994129181]], [[-2.7063963413238525, 1.5281503200531006, 1.0265854597091675, 0.030652377754449844], [-0.48288995027542114, -0.14584147930145264, 0.19543881714344025, 0.5614146590232849], [-0.037470072507858276, 0.3068602979183197, 0.4726363718509674, 0.2062087059020996], [0.7057775855064392, -0.31142714619636536, -0.6292373538017273, -0.32208767533302307]], [[4.746595859527588, -4.810239315032959, -0.4819927215576172, 2.4816274642944336], [-1.4897030591964722, -0.9152237176895142, 1.2755252122879028, 0.9033201336860657], [-2.4564707279205322, -1.7569472789764404, 1.85578191280365, 1.5703212022781372], [1.7886264324188232, 1.6586216688156128, -1.827500820159912, -1.7043333053588867]], [[-2.2132930755615234, -0.4400410056114197, 2.6094703674316406, 2.0995280742645264], [2.2800986766815186, 1.4014124870300293, -1.6562947034835815, -1.1383992433547974], [2.300196647644043, 2.0480682849884033, -2.4220685958862305, -1.1946395635604858], [-2.4519400596618652, -1.6478551626205444, 2.0781378746032715, 0.6563974022865295]], [[-0.03432059288024902, 0.0949210524559021, 0.22180545330047607, 0.011959969997406006], [-0.18400251865386963, 0.011088967323303223, 0.08948749303817749, -0.023572027683258057], [-0.16838717460632324, -0.07022732496261597, -0.14593267440795898, -0.08275806903839111], [0.015953898429870605, -0.028294801712036133, 0.005576431751251221, 0.20732790231704712]]]}, "dense": {"bias:0": [0.046932004392147064], "kernel:0": [[0.20066283643245697], [-0.08558501303195953], [-0.09990468621253967], [0.3428570628166199], [-0.08583039790391922], [-0.15395739674568176], [-0.0925157219171524], [-0.11778540164232254], [-0.1612396389245987], [0.17404422163963318], [-0.2029893547296524], [0.025481585413217545], [0.1502106934785843], [0.09034893661737442], [0.16949382424354553], [-0.06892264634370804], [0.06424081325531006], [-0.03877277672290802], [0.02857860177755356], [0.10437493026256561], [0.16268786787986755], [-0.13030526041984558], [-0.1353025883436203], [-0.10121685266494751]]}, "lstm": {"bias:0": [0.21795715391635895, -0.28804120421409607, -0.07865266501903534, 0.74250727891922, -0.21590319275856018, 0.002067074179649353, -0.039210349321365356, 0.02463768795132637, -0.05944885313510895, -0.08295608311891556, 0.3619563579559326, 0.19186079502105713, 1.4213950634002686, -0.25698864459991455, 0.5534770488739014, -0.7782138586044312, -0.9130053520202637, -1.010000228881836, -1.3882454633712769, 0.14395776391029358, 0.25952520966529846, 0.32589107751846313, 0.8781024217605591, -0.41641685366630554, 1.0, 1.0, 1.0, 1.0, 1.0, 1.0, 1.0, 1.0, 1.0, 1.0, 1.0, 1.0, 1.0, 1.0, 1.0, 1.0, 1.0, 1.0, 1.0, 1.0, 1.0, 1.0, 1.0, 1.0, -0.03970780223608017, 0.37019383907318115, 0.2712728977203369, -0.11516540497541428, 0.18464908003807068, 0.1457313895225525, -0.286284476518631, -0.1911010593175888, 0.1416282206773758, -0.18155261874198914, 0.5504044890403748, 0.2763133645057678, 0.014420895837247372, 0.027832703664898872, -0.03709357976913452, 0.007461084984242916, -0.010122308507561684, -0.014117404818534851, 0.036325570195913315, -0.4263078272342682, 0.042174361646175385, 0.12858892977237701, -0.07740786671638489, 0.028347011655569077, 0.3408716022968292, 0.19061601161956787, -0.5804958343505859, 0.018806949257850647, -1.1276328563690186, 0.2822033166885376, 0.543309211730957, -0.4792356491088867, 0.08392506837844849, 0.31856799125671387, 0.042188964784145355, -0.6736482977867126, 0.7012642025947571, -0.6873499751091003, 0.28382015228271484, -1.4091250896453857, -0.767784595489502, -1.426127552986145, -1.071624994277954, -0.29287469387054443, 0.4358128309249878, 0.45444977283477783, 1.1340159177780151, -0.15639710426330566], "kernel:0": [[1.8065069913864136, -0.11325943470001221, -0.9399656653404236, -1.586749792098999, 0.12019160389900208, 0.6326423287391663, -0.39051225781440735, 0.743515133857727, 0.04758497700095177, 0.04884548857808113, -1.6510579586029053, -0.7363854050636292, 0.5789015889167786, 0.4124468266963959, -0.5364041328430176, 0.3832934498786926, -0.8870406746864319, -0.24519632756710052, -0.7506996393203735, 0.5103854537010193, -1.5176845788955688, 1.143825888633728, 1.4079252481460571, 1.964643955230713, -0.13837730884552002, -0.173647940158844, -0.15406903624534607, 0.05202879011631012, -0.023279264569282532, 0.1746174544095993, 0.12658919394016266, -0.11316873133182526, 0.13341422379016876, 0.1586247831583023, 0.0019994527101516724, 0.22870086133480072, 0.0731276124715805, 0.10971252620220184, -0.1507830172777176, -0.08250555396080017, -0.17973437905311584, -0.07645510137081146, -0.23225873708724976, -0.14405319094657898, -0.15404170751571655, 0.043801501393318176, 0.008766189217567444, -0.24288737773895264, -2.087198257446289, -0.1999100148677826, -0.4378896653652191, 2.409369707107544, -0.4289231598377228, -0.4968889653682709, 0.027727976441383362, -0.691785454750061, 0.81789630651474, -0.05058573931455612, 0.7723084688186646, 0.740990161895752, -1.7547062635421753, 0.10090965777635574, -0.695013701915741, -0.4582032263278961, -0.22102008759975433, -0.09447076171636581, 0.2474423497915268, 0.8290049433708191, 0.09913527965545654, 0.4535830318927765, 0.19941745698451996, 0.5607200860977173, -1.2915542125701904, -0.726018488407135, -0.6199730634689331, 0.9810899496078491, -0.742501974105835, -0.3429787755012512, 0.826818585395813, -0.8327953219413757, -0.3774949312210083, -0.05210760235786438, 1.00222909450531, 0.5391340851783752, -0.10486942529678345, -0.19032473862171173, 0.33957523107528687, -0.6279538869857788, -0.3226814866065979, -0.5710225701332092, 0.24499134719371796, -0.2445773333311081, 1.892655611038208, -0.4146510064601898, -0.8288998603820801, -1.018890380859375], [0.3290572464466095, -0.08962789922952652, -1.1396663188934326, -1.3104002475738525, 0.007672024425119162, 0.5409451723098755, -0.0460628941655159, 0.6008947491645813, -0.2329203188419342, -0.04852870851755142, -1.8605217933654785, -1.1513806581497192, -0.033405695110559464, 0.047739848494529724, 0.7334089875221252, 0.37027212977409363, -1.1006144285202026, -0.5561423301696777, -1.578236699104309, -0.6248131394386292, -0.5641822218894958, -0.46419164538383484, -0.85768061876297, -0.3365532159805298, 0.18737955391407013, -0.13412413001060486, -0.06858915090560913, -0.15876950323581696, -0.10247831046581268, -0.14415982365608215, -0.10294398665428162, -0.03333348035812378, -0.02921690046787262, -0.17303502559661865, 0.1902671605348587, -0.03934924304485321, -0.13802316784858704, -0.07647764682769775, 0.014195427298545837, 0.1404009610414505, -0.12021076679229736, -0.09909102320671082, 0.06335724890232086, 0.031761154532432556, 0.02730761468410492, -0.07875064015388489, -0.2369420975446701, 0.030447497963905334, 1.4403655529022217, -0.07611815631389618, -0.3712228834629059, 2.769651412963867, -0.386262446641922, -0.6757309436798096, 0.4007345736026764, -0.3733421564102173, 0.7701777815818787, 0.12267964333295822, 0.7244714498519897, 0.01836041547358036, 3.3819706439971924, -0.060301363468170166, -1.6352273225784302, -0.38729795813560486, -0.04522828385233879, 0.052468668669462204, 0.16509456932544708, 1.1041959524154663, -0.5877956748008728, 1.729346513748169, -0.972594678401947, -0.3192267417907715, -0.6500778198242188, 0.017413996160030365, -0.45560675859451294, 0.8344212174415588, 0.46674272418022156, 0.301948606967926, -0.07050073891878128, -0.6187381744384766, -0.21835976839065552, -0.34502869844436646, 1.0003610849380493, 0.00907384417951107, -0.8004401922225952, -1.4363925457000732, -0.23657327890396118, -1.5038203001022339, -0.2056138962507248, -1.97870934009552, -0.6942521929740906, -0.10900428146123886, 0.36742162704467773, 0.2866915762424469, 0.9669199585914612, 0.6974299550056458], [-0.6282414793968201, 0.3049798011779785, 0.7593890428543091, 1.4011282920837402, -0.3549383580684662, -0.16875222325325012, -0.5758877396583557, -0.5993443727493286, 0.06429335474967957, 0.1820915788412094, 0.984610378742218, 0.3992355167865753, -0.1849336177110672, -0.19278794527053833, 0.473906010389328, -0.7046416401863098, 0.27165836095809937, 0.7862858176231384, 0.07423748821020126, 0.1696683168411255, 0.9862037301063538, -0.10159524530172348, -0.335963636636734, -0.03053182177245617, -0.03783568739891052, -0.11596634984016418, 0.04781927168369293, 0.029261276125907898, 0.08604864776134491, 0.2346726506948471, 0.16157104074954987, 0.17637844383716583, -0.08319281041622162, -0.15458838641643524, -0.1573263704776764, -0.043345168232917786, -0.11692072451114655, 0.045672252774238586, 0.16234152019023895, -0.0665293037891388, -0.0542488694190979, 0.02510504424571991, -0.14618906378746033, 0.059258297085762024, 0.006177887320518494, 0.1901816576719284, -0.24129924178123474, 0.1065298467874527, -2.081646680831909, 0.1705646961927414, 0.32038164138793945, -1.4268711805343628, 0.3621695339679718, 0.3277217149734497, 1.4887995719909668, 1.4221681356430054, -0.6388977766036987, -0.21080955862998962, -0.5215526819229126, 0.22812360525131226, -0.04535399377346039, -0.12978008389472961, -1.5935946702957153, 0.035046763718128204, 0.49168434739112854, -0.24274741113185883, 0.1389494389295578, -0.49298882484436035, 0.2765576243400574, 0.6924321055412292, -0.49593058228492737, -0.10202182829380035, 0.9894604086875916, 0.1263027936220169, 0.842078447341919, -0.8464113473892212, 0.6090041399002075, -0.08933837711811066, 0.0161754097789526, 0.858191192150116, 0.4015478789806366, 0.004440129268914461, -0.6246778964996338, -1.0323681831359863, -0.0016991556622087955, -0.059616174548864365, -0.11631564050912857, 0.7452772855758667, -0.2955155074596405, -0.23338645696640015, 0.3877162039279938, 0.5062950253486633, -0.5877993702888489, 0.14200620353221893, 0.6618277430534363, 0.23746970295906067], [-0.7343508005142212, 0.5819180607795715, 1.2263612747192383, 0.9337278604507446, -0.19427694380283356, -0.03668979927897453, 0.07915899902582169, -0.39468568563461304, 0.1866871416568756, 0.3116421699523926, 1.3429975509643555, 0.07882945984601974, -0.9884138703346252, 0.22966210544109344, -0.19954568147659302, -1.1315796375274658, 0.08351615071296692, -0.18709126114845276, -0.29259932041168213, 0.071761354804039, 0.12893259525299072, -1.3330549001693726, 0.430667906999588, -1.0129960775375366, 0.162883922457695, 0.24136395752429962, 0.021584436297416687, -0.024934157729148865, 0.06841214001178741, 0.1565942019224167, 0.08948265016078949, 0.16479741036891937, -0.1603476107120514, 0.22533245384693146, 0.07388736307621002, 0.07301561534404755, -0.11819344758987427, 0.15820033848285675, 0.05652917921543121, 0.023728087544441223, 0.14978338778018951, 0.030658796429634094, -0.13487300276756287, -0.042811453342437744, -0.12966643273830414, -0.03325265645980835, 0.23408468067646027, -0.05040566623210907, 0.9542903900146484, -0.11514198035001755, 0.13731715083122253, -2.7177515029907227, -0.0457046777009964, 0.30379509925842285, 0.5003525018692017, 0.7075767517089844, -0.5495865345001221, -0.307851642370224, -0.5956441164016724, -0.647320568561554, -1.3906255960464478, -0.3137703239917755, 1.221234679222107, -0.37303364276885986, 0.1817144900560379, -0.5136032104492188, -0.3225375711917877, -0.5440331697463989, -2.0913445949554443, -0.018740501254796982, 1.7234951257705688, 0.3422714173793793, 0.31376323103904724, 1.1827619075775146, 0.8297572731971741, -0.4688418209552765, -0.6729154586791992, -0.19613268971443176, -0.6229700446128845, 0.4748556315898895, 0.2771155536174774, -0.05049487203359604, -0.7778006196022034, -0.038892440497875214, 0.5245800018310547, 0.42079535126686096, -0.3589046001434326, 0.18602661788463593, -0.25023820996284485, -0.41567856073379517, 0.6643083095550537, 0.3449059724807739, -0.6465563774108887, 0.7044223546981812, -0.47354570031166077, -0.15794737637043]], "recurrent_kernel:0": [[0.1558973789215088, -0.01576947793364525, 0.1353267878293991, 0.11180960386991501, -0.006847928743809462, 0.014139031060039997, 0.04965294897556305, 0.024502679705619812, -0.08547307550907135, 0.028244512155652046, 0.07688035815954208, -0.03478650748729706, -0.036487773060798645, -0.05420910567045212, 0.1841059923171997, -0.16440440714359283, -0.1883653700351715, 0.13780896365642548, -0.016219863668084145, -0.2579726278781891, -0.059729523956775665, 0.17559978365898132, 0.012880106456577778, -0.16103969514369965, 0.06506431847810745, -0.06511952728033066, -0.07126377522945404, 0.1569538563489914, 0.06153951585292816, -0.00928531028330326, 0.05134669318795204, -0.06551335006952286, -0.0013588679721578956, 0.26898735761642456, 0.05698293820023537, -0.037153396755456924, -0.02114773914217949, -0.10913391411304474, -0.0747993141412735, 0.06700825691223145, -0.17677617073059082, 0.08322134613990784, -0.05053884536027908, 0.16357006132602692, 0.10582186281681061, 0.17472586035728455, 0.02540493942797184, -0.05824199691414833, -0.005442348308861256, -0.10578656196594238, 0.08975715935230255, -0.0329366996884346, 0.013572601601481438, 0.07088202238082886, 0.1220020204782486, 0.08644802123308182, 0.045309167355298996, 0.05524018779397011, 0.018471306189894676, -0.01611567847430706, -0.14489342272281647, -0.08437813818454742, -0.10186008363962173, 0.047755755484104156, 0.03745004162192345, -0.13717935979366302, 0.1422867327928543, -0.03722071647644043, 0.04029099643230438, -0.17797210812568665, -0.0734940841794014, 0.029378965497016907, 0.04138277471065521, -0.06641438603401184, 0.18524682521820068, -0.1096506267786026, -0.18259115517139435, -0.1045793816447258, -0.061986327171325684, -0.11615705490112305, 0.16201427578926086, -0.05487000569701195, 0.018042735755443573, -0.17230865359306335, -0.10789036005735397, -0.10746612399816513, -0.13749045133590698, 0.03999119624495506, 0.031737346202135086, -0.09274282306432724, -0.04646342247724533, 0.0545368492603302, 0.06793589144945145, -0.001258871634490788, -0.012746332213282585, -0.07120192795991898], [-0.01672315038740635, 0.02216504141688347, 0.14384706318378448, 0.12109368294477463, -0.009600908495485783, -0.11299099773168564, -0.08951764553785324, 0.04104575887322426, 0.16907918453216553, 0.03717923164367676, 0.027330873534083366, -0.05746370553970337, -0.12188423424959183, -0.1700356900691986, -0.18814021348953247, 0.1421753317117691, -0.1257179230451584, 0.050437670201063156, -0.059137966483831406, 0.10251463204622269, 0.041431229561567307, -0.03796236962080002, -0.05593371018767357, -0.05805690959095955, 0.010534064844250679, -0.13846002519130707, 0.058830905705690384, 0.09270722419023514, 0.007901637814939022, 0.03791311755776405, 0.2169729471206665, 0.22130338847637177, -0.03453420102596283, -0.13858002424240112, 0.09070376306772232, 0.09347041696310043, -0.04591837897896767, -0.1071912944316864, 0.03539718687534332, -0.06670748442411423, 0.10063678026199341, 0.08701890707015991, -0.01075751706957817, -0.05416892096400261, -0.00018296821508556604, 0.24599960446357727, 0.026801064610481262, 0.029980743303894997, -0.14761227369308472, -0.04104573279619217, -0.09546349942684174, -0.10637123137712479, -0.0573132187128067, 0.018655456602573395, 0.07555694878101349, -0.013991805724799633, -0.1026427149772644, 0.0768914595246315, -0.07383628934621811, 0.1084713265299797, -0.1546943485736847, 0.0057421233505010605, 0.0062439339235424995, -0.11478088796138763, -0.06683944165706635, -0.16512595117092133, -0.04183277487754822, 0.0913909375667572, -0.07672052085399628, -0.006311469245702028, 0.17591217160224915, -0.014196601696312428, -0.13543276488780975, -0.049461185932159424, 0.020860735327005386, -0.03461723402142525, 0.10422634333372116, 0.032546013593673706, -1.5489815268665552e-05, -0.045510295778512955, -0.19850273430347443, -0.08375954627990723, -0.07452579587697983, -0.10529081523418427, -0.2188694030046463, -0.017616789788007736, -0.01776140369474888, -0.2178860604763031, -0.12196199595928192, -0.01650063320994377, -0.16876450181007385, -0.06338988244533539, -0.01678466983139515, -0.20776142179965973, 0.08684345334768295, -0.012879086658358574], [-0.0829482451081276, -0.11516065150499344, 0.030752886086702347, -0.031540561467409134, -0.04209870472550392, -0.012891341000795364, -0.06735607981681824, 0.1987800896167755, 0.28809693455696106, 0.014437943696975708, -0.09961631149053574, -0.01317029818892479, 0.0015789549797773361, -0.10917708277702332, 0.008722703903913498, -0.1120164543390274, 0.13089619576931, 0.1746269017457962, -0.06306241452693939, 0.07107608020305634, 0.09205114841461182, 0.04616269841790199, 0.04757864773273468, 0.05532146245241165, -0.04322484880685806, 0.02896111086010933, -0.039469048380851746, -0.04710358753800392, -0.0861198827624321, 0.18141549825668335, -0.14392827451229095, -0.02325781062245369, 0.06786928325891495, -0.06401404738426208, 0.004095115233212709, -0.13292428851127625, 0.17582733929157257, -0.096659816801548, -0.12010642886161804, -0.03836773335933685, 0.13512839376926422, 0.08977694809436798, -0.06326480209827423, 0.03340877220034599, -0.08550045639276505, 0.08392837643623352, -0.20512408018112183, 0.06489139795303345, 0.12962792813777924, -0.3500141203403473, -0.12947331368923187, 0.06744920462369919, 0.0944354385137558, 0.07349053770303726, -0.010308636352419853, 0.0660606324672699, -0.006859087385237217, -0.22072167694568634, 0.016581902280449867, -0.10650718212127686, -0.08267185091972351, -0.006396045442670584, -0.1346161961555481, -0.02512923814356327, 0.021037718281149864, 0.0557110533118248, 0.03347772732377052, -0.10061915963888168, -0.0978243350982666, -0.04094593971967697, 0.011426236480474472, -0.1443982869386673, -0.05531585216522217, -0.0021328390575945377, -0.10188645124435425, -0.1199227124452591, 0.02350711077451706, -0.14411023259162903, 0.03879527375102043, 0.042256418615579605, 0.03223467245697975, -0.051287729293107986, -0.14303065836429596, 0.08917796611785889, -0.010189959779381752, -0.05441936105489731, -0.10727937519550323, 0.18498428165912628, 0.07830379158258438, -0.08684821426868439, 0.012087279930710793, 0.12295043468475342, -0.023117706179618835, -0.07435298711061478, 0.09865926206111908, 0.09114298224449158], [-0.013337497599422932, -0.19342148303985596, -0.1444145292043686, -0.0809459313750267, 0.11317965388298035, 0.10240136831998825, 0.03845788165926933, 0.08288008719682693, -0.01774802803993225, 0.06836818903684616, 0.0074012745171785355, -0.014160559512674809, -0.07857503741979599, 0.2585815489292145, -0.12837257981300354, -0.10034270584583282, 0.2601734697818756, 0.05719797685742378, 0.16431722044944763, -0.13247600197792053, -0.06447753310203552, -0.07069725543260574, -0.22660478949546814, -0.0771813914179802, -0.0663926973938942, -0.17861735820770264, 0.02645023912191391, 0.1022733747959137, -0.05914224684238434, 0.015213618054986, 0.07444405555725098, -0.08386297523975372, -0.2141236513853073, -0.07733020186424255, -0.2515398859977722, 0.11167122423648834, 0.09746492654085159, 0.05203584209084511, -0.18142472207546234, -0.041865650564432144, 0.054614897817373276, -0.016870742663741112, 0.14544667303562164, -0.0696990117430687, -0.025883901864290237, -0.024628272280097008, -0.07282263040542603, 0.00905048567801714, -0.04940458759665489, 0.06849946081638336, 0.06687674671411514, -0.013190768659114838, 0.121401846408844, -0.02958880364894867, 0.06010060012340546, 0.1550724059343338, -0.08408203721046448, 0.04724862053990364, 0.1681617647409439, 0.07129593938589096, -0.06650080531835556, 0.010993465781211853, -0.12619876861572266, -0.04081282019615173, -0.0029225111939013004, 0.031122246757149696, -0.03157815709710121, 0.01684173196554184, 0.09650682657957077, -0.1560341864824295, 0.06436652690172195, 0.07569102197885513, -0.17218728363513947, 0.08238179236650467, 0.0362725555896759, 0.0699281170964241, -0.0033828176092356443, -0.07697390019893646, 0.09498275816440582, -0.05167492851614952, 0.04015098512172699, 0.0475698783993721, 0.02492065541446209, -0.05942755192518234, -0.07820785790681839, -0.05822063237428665, -0.1032165139913559, -0.08941351622343063, 0.20418603718280792, 0.08650325983762741, -0.0741482675075531, -0.09065595269203186, 0.045301325619220734, -0.08830496668815613, 0.08681364357471466, 0.004305605310946703], [-0.19382020831108093, 0.21229366958141327, 0.016649562865495682, -0.10852676630020142, -0.038007430732250214, 0.19934336841106415, 0.07417965680360794, -0.04642617329955101, 0.19917014241218567, -0.14156365394592285, 0.09003923088312149, -0.21819204092025757, 0.08393137156963348, 0.1369694471359253, -0.02054479718208313, -0.08039683848619461, -0.08989088237285614, 0.014711050316691399, -0.13241413235664368, 0.011054351925849915, 0.027818020433187485, 0.17677898705005646, 0.020594079047441483, -0.0758850947022438, 0.07867254316806793, -0.07616399973630905, 0.07562742382287979, -0.047484032809734344, -0.03104858659207821, 0.08321822434663773, 0.1353621631860733, -0.09220898896455765, -0.06307096034288406, -0.07085371762514114, 0.0031334850937128067, -0.054632578045129776, -0.11605498194694519, -0.005160283297300339, -0.21102777123451233, 0.0160453449934721, 0.009023649618029594, -0.0017590764909982681, -0.17750464379787445, -0.10814137756824493, 0.12889529764652252, 0.021747618913650513, -0.10291969776153564, 0.1006118431687355, -0.011728931218385696, -0.09031856805086136, 0.0021463586017489433, -0.19652536511421204, -0.008272301405668259, 0.03554518520832062, 0.04840913414955139, -0.0062181055545806885, 0.05996289849281311, 0.003040820360183716, 0.11062894016504288, 0.036534667015075684, 0.013932814821600914, 0.014903582632541656, 0.02608450874686241, 0.05628751590847969, -0.07757657766342163, 0.19217552244663239, 0.060539837926626205, 0.04601962864398956, 0.08514375239610672, -0.05897178873419762, 0.010621125809848309, 0.004496354144066572, 0.15383146703243256, -0.0931214764714241, -0.05583522096276283, 0.03426264226436615, -0.1806984692811966, 0.14204677939414978, -0.056960780173540115, 0.15824979543685913, 0.07141363620758057, 0.1895103007555008, -0.014025688171386719, -0.10024740546941757, 0.09579724073410034, 0.08180248737335205, 0.08671395480632782, -0.12297497689723969, 0.008325420320034027, 0.029728742316365242, -0.11338036507368088, -0.07266810536384583, -0.24123232066631317, -0.10238617658615112, -0.039578162133693695, 0.09813391417264938], [-0.11523227393627167, -0.03013806976377964, -0.012558242306113243, 0.061873361468315125, 0.16760049760341644, -0.08151231706142426, 0.1173836886882782, 0.0781688243150711, -0.05715659633278847, -0.10215440392494202, -0.1127101480960846, 0.10127435624599457, -0.1916942447423935, -0.14208945631980896, 0.08311520516872406, -0.0395670086145401, 0.1035698875784874, 0.10938052088022232, 0.06923884153366089, -0.03347049653530121, 0.06292616575956345, 0.1369839459657669, -0.010581228882074356, -0.010033072903752327, 0.07237597554922104, -0.03023146092891693, 0.0103547852486372, -0.07820458710193634, -0.10905758291482925, 0.1310061663389206, 0.0433431938290596, -0.0813441053032875, 0.09132043272256851, -0.05260101333260536, -0.24877211451530457, 0.1316969096660614, 0.05397048220038414, 0.011185599491000175, 0.19963853061199188, 0.13303741812705994, -0.13107973337173462, 0.1736559420824051, 0.13288986682891846, 0.24253734946250916, 0.06322390586137772, 0.052102599292993546, -0.09712076187133789, -0.11917683482170105, 0.07876209914684296, -0.05463061109185219, 0.009643244557082653, 0.04690831899642944, 0.06521167606115341, -0.05198807641863823, 0.027508873492479324, -0.14478856325149536, -0.017512774094939232, 0.26172393560409546, -0.09788451343774796, 0.06897936761379242, 0.009737050160765648, 0.0484439991414547, 0.020426306873559952, -0.01599949225783348, -0.21341577172279358, 0.1395268738269806, -0.22970062494277954, 0.035771436989307404, 0.06023704260587692, -0.021018559113144875, 0.08765764534473419, 0.10188810527324677, 0.06712374091148376, 0.008807264268398285, 0.01762266643345356, -0.0512457937002182, -0.07723600417375565, 0.13651476800441742, -0.03137421980500221, -0.07409167289733887, -0.024058859795331955, 0.0018860246054828167, -0.03546702861785889, 0.04037513583898544, 0.0956435576081276, -0.006285839714109898, 0.13097169995307922, 0.119326651096344, -0.08959072828292847, -0.049384795129299164, -0.058936528861522675, 0.01264769583940506, -0.16550478339195251, -0.13988488912582397, -0.04600966349244118, 0.07163997739553452], [-0.035478658974170685, -0.06842611730098724, -0.008129158988595009, -0.1400948166847229, 0.1933923065662384, 0.1728925257921219, -0.04742644354701042, -0.011210658587515354, 0.01856708899140358, -0.040883809328079224, 0.009250268340110779, -0.09273336082696915, -0.10184529423713684, -0.060377806425094604, -0.08610768616199493, 0.03541955351829529, 0.004140104632824659, 0.02053595334291458, -0.02736578695476055, -0.11439666152000427, 0.05402549356222153, 0.02384093403816223, -0.06446265429258347, -0.14107239246368408, 0.07198865711688995, 0.23024381697177887, -0.2133696973323822, -0.07379745692014694, 0.08776236325502396, 0.027519533410668373, 0.060758452862501144, 0.08296380192041397, -0.20704331994056702, 0.06630802154541016, 0.0679398849606514, -0.0337313748896122, 0.009735929779708385, 0.008651502430438995, 0.09258855134248734, -0.23607702553272247, 0.12603239715099335, -0.1627015471458435, 0.024404937401413918, 0.010186290368437767, 0.056224748492240906, 0.00624353252351284, 0.012114813551306725, 0.021765001118183136, 0.07083787024021149, 0.02313900552690029, 0.06487301737070084, -0.14239095151424408, -0.08804934471845627, 0.1047709584236145, 0.0182915311306715, -0.047165706753730774, -0.016532577574253082, -0.10211914777755737, -0.09368468075990677, 0.055217791348695755, 0.04487360268831253, -0.006671354174613953, -0.07736430317163467, 0.2104823738336563, -0.12263105809688568, 0.06848064064979553, -0.2229171097278595, -0.11652809381484985, -0.14317892491817474, -0.09127109497785568, 0.06995789706707001, -0.04996105283498764, 0.03406880050897598, -0.16188086569309235, 0.17168909311294556, -0.027646739035844803, 0.0936165526509285, -0.1653977781534195, 0.11369021236896515, -0.22273819148540497, -0.0794597864151001, 0.06501269340515137, 0.10858476907014847, -0.0444844588637352, -0.01088765449821949, -0.06277863681316376, 0.11792385578155518, 0.002709814114496112, -0.021350685507059097, -0.05907639488577843, 0.1643628478050232, 0.059123750776052475, -0.03350786119699478, 0.045303598046302795, -0.1433994323015213, 0.18643903732299805], [-0.028971001505851746, -0.11107435822486877, 0.06269313395023346, 0.16775916516780853, 0.05889422446489334, 0.05570387467741966, 0.007718389388173819, 0.0669819712638855, 0.04922689497470856, 0.034390710294246674, 0.012490367516875267, -0.11608782410621643, 0.12878242135047913, -0.09125739336013794, 0.009881791658699512, -0.11974818259477615, 0.25368058681488037, -0.070882648229599, -0.16445285081863403, 0.005868020933121443, -0.042191989719867706, -0.20896346867084503, 0.02302241511642933, 0.0036467229947447777, -0.027995342388749123, -0.16240374743938446, -0.0019142560195177794, 0.07287313044071198, 0.012378223240375519, 0.12198526412248611, 0.032342348247766495, 0.06122802197933197, 0.08159870654344559, 0.08638711273670197, 0.09036785364151001, -0.08499043434858322, 0.042121607810258865, 0.02874862030148506, 0.18680676817893982, -0.012606415897607803, -0.11650523543357849, -0.018314845860004425, -0.026490919291973114, 0.16185642778873444, -0.07989363372325897, 0.09958324581384659, 0.014056503772735596, 0.14792636036872864, 0.28781378269195557, 0.07867185771465302, -0.10141866654157639, -0.03777247294783592, -0.14256934821605682, 0.04591711610555649, -0.008139614015817642, 0.15526852011680603, 0.13507546484470367, 0.047274164855480194, -0.06873582303524017, 0.13443678617477417, 0.08274400979280472, 0.09171520173549652, 0.12559100985527039, -0.0027180113829672337, 0.01783115789294243, -0.018608849495649338, -0.06737717986106873, -0.09816203266382217, 0.11164917051792145, -0.022085217759013176, -0.06507096439599991, 0.04291592165827751, 0.13995671272277832, 0.1269637495279312, -0.13218343257904053, 0.03848841413855553, -0.10701701045036316, -0.1870868057012558, 0.08478159457445145, -0.007023981772363186, -0.13631963729858398, 0.10477667301893234, 0.03187015280127525, -0.14350654184818268, 0.0720842182636261, -0.01495290920138359, 0.07159887254238129, -0.1923014372587204, 0.08885356783866882, 0.10582274198532104, -0.20896445214748383, 0.018623558804392815, 0.051853157579898834, 0.12980012595653534, -0.0014438501093536615, 0.02668343298137188], [0.03863275796175003, 0.10745660960674286, 0.08824390172958374, -0.003395727602764964, 0.11368674039840698, -0.008384937420487404, 0.009761716239154339, -0.11144100874662399, -0.08486976474523544, -0.07229970395565033, -0.1687239408493042, -0.06270872056484222, 0.04412652924656868, 0.015715237706899643, -0.009260840713977814, -0.007349732331931591, 0.023913342505693436, -0.09852886199951172, -0.08951926231384277, -0.08754058182239532, -0.21933232247829437, -0.06632641702890396, -0.03756089136004448, 0.16061371564865112, -0.09233339875936508, 0.14037053287029266, 0.0642174631357193, 0.039677783846855164, 0.0018474048702046275, -0.07041700929403305, 0.12353470921516418, -0.0018512299284338951, 0.052138056606054306, 0.061712153255939484, -0.2040531486272812, 0.03435759246349335, -0.08586869388818741, -0.04767051339149475, -0.12093272805213928, -0.09014566242694855, -0.005744886118918657, 0.17871101200580597, 0.08939210325479507, 0.06292358040809631, -0.08581146597862244, 0.0851021483540535, -0.12464001029729843, -0.020748164504766464, -0.14158813655376434, -0.11005722731351852, -0.11340600997209549, 0.09257057309150696, 0.05852622538805008, 0.029648611322045326, 0.14776799082756042, -0.1416921615600586, 0.21402522921562195, -0.017435794696211815, -0.20261573791503906, -0.08568742871284485, 0.11336737871170044, -0.04575396329164505, 0.037634242326021194, 0.17938566207885742, 0.26728805899620056, 0.21844297647476196, -0.008890846744179726, 0.09486062079668045, 0.0668310821056366, -0.08702236413955688, 0.05525626614689827, -0.05748504400253296, -0.2000434845685959, -0.11405173689126968, 0.0008997335098683834, -0.10929575562477112, 0.10481163114309311, -0.1485895812511444, -0.1174771785736084, 0.022382892668247223, -0.034621186554431915, 0.10065096616744995, -0.10583655536174774, 0.0027145491912961006, -0.08304837346076965, 0.02638344094157219, 0.036809585988521576, -0.12132550776004791, -0.03239087015390396, 0.08754794299602509, -0.0846642479300499, 0.016467373818159103, 0.04279165714979172, 0.1307368278503418, -0.011782927438616753, 0.08474864810705185], [0.10773559659719467, 0.15865503251552582, 0.0094000780954957, -0.04438897967338562, -0.06913786381483078, 0.13301193714141846, 0.027103181928396225, -0.11516763269901276, 0.02170991711318493, -0.09859353303909302, -0.0494917668402195, -0.07882574200630188, -0.13961566984653473, 0.005201688501983881, -0.06150044500827789, -0.19470234215259552, -0.061090901494026184, -0.10435594618320465, 0.059353556483983994, -0.03089432418346405, 0.12825290858745575, -0.06991185247898102, 0.017474064603447914, -0.10415983945131302, -0.2471746802330017, -0.2729475498199463, -0.17051798105239868, -0.04316544532775879, -0.1327233612537384, 0.06728922575712204, -0.23343373835086823, -0.07093670964241028, 0.0433448925614357, 0.07236432284116745, -0.03658439218997955, 0.027941949665546417, 0.009643460623919964, -0.158181831240654, 0.20618999004364014, 0.011165803298354149, -0.08288945257663727, -0.0641212910413742, 0.053975723683834076, -0.1439407765865326, -0.17522847652435303, 0.014907756820321083, 0.1688023954629898, 0.1343637853860855, 0.09484397619962692, 0.028655830770730972, -0.00810555275529623, -0.014279122464358807, 0.0691411942243576, 0.1600983887910843, 0.16463804244995117, 0.03965843468904495, 0.03364055976271629, -0.11460988968610764, -0.07731214910745621, -0.05727170780301094, 0.06591179966926575, -0.09989066421985626, 0.033438000828027725, 0.022411102429032326, -0.07667504251003265, -0.0032536135986447334, -0.10226704180240631, 0.06789327412843704, 0.03327734395861626, -0.09691163897514343, -0.09536168724298477, 0.02507326565682888, -0.26997947692871094, 0.01907491683959961, 0.04563517868518829, 0.018934421241283417, -0.02321362867951393, 0.11209554970264435, 0.02297999896109104, 0.09288189560174942, 0.07427726686000824, -0.046493880450725555, -0.0387774296104908, 0.14951494336128235, -0.1217905655503273, 0.03290840610861778, 0.05731958895921707, -0.09329036623239517, -0.12068594992160797, -0.09169936925172806, 0.014310234226286411, 0.07025036215782166, -0.10459397733211517, -0.050853073596954346, -0.07733508944511414, -0.03028743341565132], [0.15020453929901123, -0.02729484997689724, 0.19816157221794128, 0.009272400289773941, -0.0020008492283523083, 0.03984574228525162, 0.13583219051361084, 0.1467321366071701, 0.03169693797826767, 0.11179541051387787, -0.2747689485549927, 0.11254813522100449, -0.13685715198516846, 0.21919728815555573, -0.09270882606506348, -0.055333882570266724, 0.04784911125898361, 0.08823157101869583, 0.15011070668697357, 0.0321785993874073, -0.00046912534162402153, 0.011844420805573463, 0.02906006947159767, 0.017422771081328392, 0.04144216328859329, 0.06840353459119797, 0.14975856244564056, -0.1811511218547821, 0.055067963898181915, 0.051325492560863495, 0.08254535496234894, 0.0392511710524559, 0.09502630680799484, 0.10768936574459076, 0.1566309630870819, 0.006540234666317701, -0.2253432273864746, 0.1460084468126297, -0.04361966997385025, 0.18703655898571014, -0.04565076157450676, -0.12451393157243729, -0.1343972384929657, 0.002027427777647972, 0.053340960294008255, -0.014420876279473305, 0.06658944487571716, -0.161339670419693, 0.04660779610276222, 0.07196377962827682, -0.06616850197315216, -0.1715712696313858, 0.1340719759464264, 0.1652602255344391, -0.047381263226270676, 0.056402307003736496, -0.10065848380327225, -0.01786014437675476, -0.02619672566652298, 0.074152871966362, 0.06930829584598541, -0.04389703646302223, 0.14948450028896332, -0.016404708847403526, 0.06064822897315025, 0.03565341979265213, -0.12514939904212952, 0.021431151777505875, -0.20637917518615723, -0.22968243062496185, 0.09946369379758835, 0.041184671223163605, 0.07121515274047852, 0.0728427916765213, -0.10308405011892319, -0.025185514241456985, 0.03925223648548126, -0.11007888615131378, -0.030138850212097168, 0.08432076126337051, 0.10502403229475021, 0.03619296848773956, -0.06055339425802231, 0.11407948285341263, -0.08323611319065094, 0.012121390551328659, -0.06996915489435196, -0.08430984616279602, -0.07700282335281372, 0.06939444690942764, 0.007509929593652487, 0.1039624959230423, -0.006111945956945419, -0.005403430201113224, 0.04257341846823692, 0.03073054924607277], [0.02120102196931839, -0.24445895850658417, 0.0042654117569327354, -0.1045062243938446, 0.060348838567733765, -0.11176726967096329, 0.010751891881227493, -0.002903228159993887, -0.041491031646728516, 0.026243582367897034, -0.014974115416407585, 0.005558069795370102, 0.004463827237486839, -0.07654578238725662, 0.0694071501493454, -0.0701785683631897, 0.019216813147068024, 0.03828077018260956, -0.11753077059984207, -0.10807455331087112, 0.0700768306851387, -0.009118985384702682, -0.07285363227128983, -0.10172399878501892, 0.09189952909946442, -0.0006262046517804265, 0.009134779684245586, -0.12776650488376617, 0.06301022320985794, 0.009650248102843761, -0.007897688075900078, -0.26973703503608704, 0.06301888823509216, -0.0167846642434597, 0.052933093160390854, -0.11430134624242783, 0.07893747091293335, 0.05869852378964424, 0.002430886495858431, 0.05948710814118385, -0.08292163908481598, -0.026282265782356262, -0.1910950094461441, -0.11388682574033737, -0.09565623849630356, -0.043495938181877136, 0.009913011454045773, -0.020336616784334183, 0.08188078552484512, -0.13592658936977386, -0.11215436458587646, -0.033942438662052155, 0.197456493973732, 0.03766133636236191, -0.007201953791081905, -0.10990303009748459, 0.1381991058588028, -0.07940982282161713, 0.11039651930332184, 0.012513632886111736, 0.036557283252477646, -0.07287871837615967, 0.0432194247841835, -0.09918808937072754, 0.20993362367153168, -0.11953626573085785, -0.015198509208858013, 0.2828679084777832, 0.011517472565174103, 0.20284533500671387, 0.2431405931711197, -0.016750629991292953, -0.0017008010763674974, 0.0946766808629036, 0.2779484987258911, 0.07182662934064865, 0.004184539429843426, 0.02473153918981552, 0.06381237506866455, -0.013881570659577847, -0.0991830974817276, 0.008492935448884964, 0.07909122109413147, -0.00044254912063479424, -0.06152600422501564, -0.06477996706962585, 0.11188764870166779, -0.11744651943445206, -0.09900307655334473, -0.016823945567011833, -0.010319454595446587, -0.2887166440486908, 0.0002862380351871252, 0.030442645773291588, -0.08565539121627808, 0.08520351350307465], [0.0047068665735423565, 0.047894902527332306, -0.001772877061739564, -0.16311094164848328, -0.007484012749046087, -0.021163320168852806, 0.002811529440805316, 0.06104376167058945, 0.07632188498973846, 0.12009916454553604, -0.018419096246361732, -0.06977414339780807, 0.08149538189172745, -0.06108453869819641, -0.019690997898578644, 0.055321820080280304, 0.082949697971344, -0.11046724766492844, 0.30008968710899353, -0.23261073231697083, 0.009335774928331375, -0.0684230849146843, -0.06308544427156448, 0.1265096813440323, 0.08351346850395203, -0.08964398503303528, -0.04000124707818031, 0.07385076582431793, 0.12221884727478027, -0.1431547999382019, -0.021950185298919678, -0.24198730289936066, -0.08313542604446411, 0.059006884694099426, 0.19663363695144653, 0.10990233719348907, 0.061767157167196274, -0.006960973609238863, 0.16384050250053406, 0.055454377084970474, 0.043673690408468246, 0.1353750079870224, -0.02791466750204563, 0.019154466688632965, 0.07006194442510605, -0.02331659197807312, -0.06882190704345703, 0.12673792243003845, 0.017705047503113747, -0.021075604483485222, -0.07373249530792236, -0.029848549515008926, -0.1788599193096161, 0.19945372641086578, 0.02494351752102375, -0.026034843176603317, -0.04171543940901756, 0.02914036624133587, 0.024872027337551117, 0.13458257913589478, -0.15791797637939453, 0.2692379355430603, 0.07181919366121292, -0.03205098584294319, 0.10523904114961624, 0.09091202914714813, 0.027680953964591026, -0.11899358034133911, -0.07947028428316116, -0.011078312061727047, 0.055544182658195496, 0.010508504696190357, -0.1468731313943863, -0.058425962924957275, 0.05069466307759285, -0.06486764550209045, -0.10673316568136215, 0.10701732337474823, -0.15497173368930817, 0.09031776338815689, -0.07443194836378098, 0.1298546940088272, -0.1553228795528412, -0.002277001738548279, 0.08163565397262573, -0.004889599047601223, -0.02334647998213768, 0.09784766286611557, -0.1718606948852539, -0.02173222042620182, 0.126997709274292, -0.08202392607927322, 0.01090984046459198, 0.07009643316268921, 0.15160585939884186, 0.021959654986858368], [0.023566732183098793, -0.030138161033391953, -0.054696887731552124, -0.0627555325627327, 0.07293151319026947, 0.02611810341477394, 0.035331640392541885, 0.06148501858115196, -0.07808010280132294, -0.22340817749500275, 0.021541908383369446, 0.10411184281110764, -0.09039899706840515, 0.0012672638986259699, 0.14349515736103058, -0.11139477789402008, -0.03860022872686386, -0.005543858744204044, 0.041911639273166656, 0.016494249925017357, -0.004224259406328201, -0.0014849076978862286, -0.0030914628878235817, 0.04665422812104225, -0.07444360852241516, 0.3458867371082306, 0.011862799525260925, -0.1070142611861229, 0.09442555904388428, -0.04016461595892906, 0.11160766333341599, 0.051201917231082916, -0.1194060668349266, -0.1181638315320015, 0.18196259438991547, 0.048551883548498154, 0.14019587635993958, 0.08170586079359055, 0.07775887846946716, 0.12263410538434982, 0.11338919401168823, 0.07188769429922104, 0.027955345809459686, 0.10734200477600098, -0.21942171454429626, -0.15161962807178497, -0.004837779328227043, 0.3033812642097473, 0.16383858025074005, -0.0009530899114906788, -0.04004389047622681, 0.021037926897406578, 0.026895973831415176, 0.014740673825144768, 0.059448257088661194, 0.10388264060020447, 0.009881451725959778, 0.055257707834243774, 0.09550108015537262, 0.037112485617399216, -0.11276895552873611, -0.24078939855098724, -0.054803721606731415, 0.052828531712293625, -0.0077117616310715675, 0.012815196067094803, 0.1187351644039154, 0.05793280899524689, 0.004530108999460936, -0.07188893109560013, 0.04030374065041542, 0.16188809275627136, -0.03693326562643051, -0.1144755631685257, -0.056736938655376434, -0.005196015350520611, 0.02869991958141327, 0.022592831403017044, -0.06451448798179626, 0.08789753168821335, -0.08542066812515259, -0.11604534089565277, 0.0006842854199931026, -0.17924262583255768, -0.0032027186825871468, 0.054542094469070435, -0.10252153128385544, -0.09944944828748703, -0.08141742646694183, 0.08384937793016434, -0.0808616578578949, 0.06464483588933945, -0.1723511517047882, -0.006944248918443918, 0.01577484980225563, -0.2296467423439026], [-0.06739380210638046, 0.1686539500951767, 0.061919644474983215, 0.07426579296588898, 0.13368909060955048, -0.043949879705905914, -0.024477602913975716, 0.04251894727349281, -0.07756438851356506, -0.05997316166758537, -0.04529193416237831, -0.0833679661154747, -0.09138450026512146, -0.016438420861959457, -0.27931398153305054, -0.08854550123214722, -0.09920282661914825, 0.07346285879611969, -0.05280058830976486, -0.023545313626527786, -0.12385325133800507, 0.06351282447576523, 0.08272247761487961, -0.006251554004848003, 0.08299045264720917, -0.015568554401397705, -0.1139025092124939, -0.08737297356128693, 0.09191259741783142, 0.01939820684492588, -0.07020637392997742, 0.009936452843248844, -0.17254234850406647, 0.1841619908809662, 0.06797772645950317, 0.1500285118818283, 0.051678773015737534, 0.01739710196852684, -0.10777842253446579, -0.06709200888872147, 0.1429535150527954, 0.18865390121936798, -0.09664437174797058, 0.04520486667752266, 0.014675339683890343, -0.12517611682415009, 0.017101414501667023, 0.024933941662311554, 0.17591141164302826, 0.07063338160514832, -0.08819025754928589, -0.03965052217245102, 0.19881202280521393, 0.024178067222237587, -0.21816542744636536, -0.09001197665929794, 0.029246944934129715, 0.14029669761657715, 0.021388305351138115, 0.05448569357395172, -0.009602748788893223, 0.06901073455810547, -0.058444470167160034, -0.05799616873264313, -0.042005665600299835, 0.029053743928670883, -0.005280524957925081, -0.04846891015768051, 0.049823369830846786, 0.08619439601898193, 0.016215898096561432, -0.1832052320241928, -0.11997440457344055, 0.03763682395219803, -0.04825102910399437, 0.09496238082647324, -0.17054483294487, 0.11321057379245758, -0.0391884483397007, 0.022749368101358414, -0.003507249988615513, -0.3039003312587738, -0.03024619072675705, 0.14519089460372925, 0.029282495379447937, 0.02999424934387207, -0.031193740665912628, -0.10910017788410187, 0.16357672214508057, -0.0019771670922636986, -0.09461826086044312, 0.004676483571529388, 0.21054388582706451, 0.15131857991218567, -0.11274150758981705, 0.02497439831495285], [-0.009380626492202282, -0.026349354535341263, 0.19130390882492065, -0.002131229266524315, -0.13266481459140778, 0.098887138068676, -0.2114049345254898, -0.1551344245672226, 0.04106597229838371, 0.10630901902914047, -0.08790715038776398, -0.09029199928045273, 0.017030255869030952, 0.14800004661083221, -0.025946037843823433, -0.02497449330985546, 0.22991640865802765, 0.048647522926330566, 0.0014913815539330244, -0.020730409771203995, -0.13347336649894714, -0.09079032391309738, -0.19166752696037292, -0.03457899019122124, 0.11215488612651825, 0.04166409745812416, -0.05331236869096756, -0.0023962371051311493, 0.0921199768781662, -0.048389315605163574, -0.02506103739142418, 0.038853224366903305, -0.10018378496170044, -0.09568986296653748, 0.00493622524663806, 0.12249546498060226, -0.05835761874914169, -0.15344808995723724, 0.053535956889390945, -0.06832820177078247, -0.09276514500379562, -0.1301957219839096, -0.08484449982643127, 0.013904926367104053, -0.20947742462158203, 0.07707513868808746, 0.03925501927733421, -0.13809725642204285, 0.1480269432067871, -0.14961083233356476, 0.14337730407714844, 0.11791928857564926, -0.04946879670023918, -0.02087418921291828, -0.15425285696983337, -0.18775072693824768, -0.03662945702672005, 0.1342015415430069, -0.03567273169755936, -0.056803688406944275, -0.019127069041132927, 0.07304245233535767, -0.017994128167629242, 0.0213374812155962, -0.02843835949897766, -0.13321492075920105, 0.0261402390897274, 0.02842765487730503, 0.0892125815153122, 0.09945515543222427, 0.07248684018850327, 0.01601913385093212, 0.0001693381927907467, -0.06567037105560303, 0.006599905900657177, -0.09400121122598648, -0.10507278144359589, -0.11855679005384445, -0.11444022506475449, 0.12270641326904297, 0.09402234107255936, -0.12641844153404236, 0.11263745278120041, 0.019851697608828545, 0.04720653221011162, 0.16649924218654633, -0.17427198588848114, 0.06992365419864655, -0.09195402264595032, 0.0960916057229042, -0.018157219514250755, 0.023672128096222878, -0.25661319494247437, -0.08075732737779617, -0.12849485874176025, -0.028449954465031624], [-0.1434873789548874, 0.029262270778417587, -0.032862499356269836, 0.1698712557554245, 0.01805233582854271, -0.026767341420054436, -0.30499792098999023, 0.023811258375644684, -0.12086080014705658, -0.16637998819351196, -0.03326001390814781, -0.015929948538541794, -0.03316856920719147, 0.018417418003082275, -0.14256690442562103, 0.07647863775491714, 0.023979410529136658, -0.07550965249538422, 0.0658172145485878, 0.10243134945631027, 0.07816103845834732, -0.04370266944169998, -0.07022213190793991, -0.08633735775947571, 0.10032633692026138, 0.05006910860538483, -0.04649918153882027, 0.1603253185749054, 0.07365484535694122, 0.16893453896045685, -0.047877997159957886, -0.06954893469810486, 0.227910578250885, 0.18841812014579773, -0.07360026240348816, -0.016734536737203598, -0.08787227421998978, 0.053318947553634644, 0.08471475541591644, 0.02391621842980385, 0.06326683610677719, -0.11564377695322037, 0.1531853824853897, 0.007398888468742371, 0.06545127928256989, -0.0399414524435997, -0.04109547659754753, 0.22753682732582092, -0.1063850075006485, 0.09707425534725189, 0.04234791547060013, -0.00823148526251316, 0.09184760600328445, 0.25993111729621887, 0.041459836065769196, -0.08659318834543228, 0.028682302683591843, -0.07352984696626663, 0.16835586726665497, -0.024718865752220154, -0.021278752014040947, 0.009639638476073742, -0.18361720442771912, 0.1365717351436615, 0.010632103309035301, -0.12136907875537872, 0.08581368625164032, 0.13791051506996155, 0.029273079708218575, -0.056801341474056244, 0.15461814403533936, 0.007843230850994587, 0.1750621348619461, 0.01790270209312439, 0.0767064169049263, -0.05551134794950485, 0.0016125533729791641, -0.06317438930273056, -0.09812408685684204, 0.08476428687572479, 0.05017396807670593, -0.007984858937561512, -0.02031051367521286, 0.10087020695209503, 0.15769673883914948, 0.0018590325489640236, -0.013468882068991661, 0.07376313954591751, -0.07005437463521957, 0.1291017234325409, -0.14315907657146454, 0.03328154981136322, 0.08629506081342697, -0.08525396138429642, 0.13644352555274963, 0.04343588650226593], [-0.03923991322517395, -0.009311007335782051, 0.004283151123672724, 0.11317657679319382, 0.10486146062612534, 0.09680844098329544, -0.04103771597146988, 0.12375950068235397, 0.08648291975259781, 0.10328604280948639, -0.142628476023674, -0.06613186001777649, -0.2469748854637146, 0.032914236187934875, 0.02947886288166046, -0.039650335907936096, 0.13301341235637665, -0.08226421475410461, 0.09317512065172195, 0.14371055364608765, 0.07734551280736923, 0.10740459710359573, 0.05836845561861992, -0.20297791063785553, -0.08518464118242264, 0.12297878414392471, 0.1550036370754242, -0.011005036532878876, 0.07179893553256989, -0.06305206567049026, 0.04432449862360954, -0.08614394813776016, 0.10687826573848724, -0.021200791001319885, 0.005486754700541496, -0.04118693992495537, 0.030654827132821083, 0.07555920630693436, -0.13445338606834412, -0.16095004975795746, -0.11874067038297653, 0.15417450666427612, 0.02621953748166561, 0.07732445001602173, -0.12314997613430023, -0.0451982207596302, 0.06543298810720444, 0.1069861575961113, -0.04480785131454468, 0.007837805896997452, 0.17714862525463104, -0.07991211861371994, -0.2707003951072693, -0.043496739119291306, -0.018164563924074173, 0.07553790509700775, -0.10071322321891785, -0.07838756591081619, -0.012301839888095856, -0.13804061710834503, 0.04764449968934059, 0.1299678385257721, 0.116319939494133, -0.03252771496772766, 0.05813058465719223, 0.016611218452453613, 0.12300866842269897, 0.08083205670118332, 0.2347812056541443, -0.10669655352830887, -0.02361493930220604, -0.26664796471595764, 0.02322527952492237, 0.07643011212348938, 0.07767532020807266, -0.13745777308940887, -0.04711148887872696, 0.1556854248046875, 0.029454587027430534, -0.009241592139005661, -0.06426248699426651, -0.1396830976009369, 0.004385346546769142, -0.054806727916002274, -0.05467905104160309, 0.013341685757040977, 0.0936046913266182, -0.01781177707016468, -0.10663294792175293, 0.06245888024568558, 0.16566695272922516, -0.031083114445209503, 0.09849847108125687, -0.0178793016821146, -0.11211589723825455, -0.02120801992714405], [-0.10906883329153061, 0.05717579275369644, 0.048369087278842926, -0.029112836346030235, 0.08103548735380173, -0.016033528372645378, 0.05104001984000206, -0.23472794890403748, -0.01751287467777729, -0.042913056910037994, -0.0025935210287570953, 0.10425089299678802, -0.19770799577236176, -0.184976264834404, 0.06401932239532471, 0.09955093264579773, 0.07737787067890167, 0.10748700052499771, 0.14608174562454224, -0.005073165521025658, -0.03802666813135147, -0.08019722253084183, 0.04972246661782265, -0.04548295959830284, -0.11826053261756897, -0.09933759272098541, 0.013317468576133251, -0.03232871741056442, 0.028519313782453537, 0.002500422764569521, 0.022127795964479446, 0.009977716021239758, 0.028673334047198296, -0.040909573435783386, -0.06343140453100204, 0.05240870639681816, 0.08813881874084473, 0.02773997373878956, -0.12568429112434387, 0.08397617936134338, 0.04889804497361183, -0.15691295266151428, 0.02782932110130787, -0.2339998334646225, 0.135384202003479, -0.13876134157180786, 0.0110024930909276, -0.030322564765810966, 0.1861935406923294, -0.02980630099773407, -0.1540345996618271, 0.11348839104175568, -0.07839135825634003, 0.13274671137332916, -0.07469107955694199, -0.054499246180057526, 0.08951253443956375, 0.02158806100487709, -0.036164119839668274, -0.11385766416788101, 0.0526803620159626, 0.0657387524843216, 0.26771023869514465, 0.09301634877920151, 0.0022584148682653904, -0.016092468053102493, 0.2369793951511383, -0.08477666229009628, -0.02370787039399147, 0.006317736580967903, 0.06906410306692123, -0.105295829474926, 0.10483364015817642, -0.10516668111085892, 0.15499138832092285, 0.11180349439382553, -0.11805065721273422, -0.06366204470396042, 0.028704769909381866, -0.17048335075378418, -0.028653070330619812, 0.10011713951826096, -0.17316819727420807, -0.0832672044634819, -0.09154978394508362, 0.00257324380800128, -0.09781310707330704, 0.004540788941085339, 0.09051602333784103, 0.10250640660524368, -0.07682429254055023, 0.14075857400894165, 0.04880005493760109, -0.20789383351802826, -0.05833740532398224, -0.12972605228424072], [-0.1853010505437851, -0.08167710900306702, -0.10140228271484375, 0.04466380178928375, -0.013742687180638313, -0.12612582743167877, 0.11241599917411804, -0.03349268436431885, 0.018145333975553513, 0.09674107283353806, -0.057171642780303955, 0.018897321075201035, 0.02438553422689438, 0.1270637959241867, -0.012660613283514977, -0.04028436541557312, 0.031277574598789215, -0.021033180877566338, -0.09946085512638092, -0.11277082562446594, 0.016657629981637, -0.03938102722167969, -0.07097746431827545, 0.22005128860473633, -0.2094808667898178, -0.030274659395217896, 0.0963415652513504, -0.04421628266572952, 0.02368142083287239, -0.024379510432481766, 0.005616282112896442, -0.060757219791412354, -0.0017312199342995882, -0.048054859042167664, 0.06783346831798553, -0.08807476609945297, -0.1424521803855896, 0.050197891891002655, 0.028618188574910164, -0.1519935578107834, 0.037342630326747894, 0.11755122989416122, 0.04593612998723984, -0.003927631303668022, 0.23304733633995056, -0.12365248799324036, 0.0485960990190506, 0.14162889122962952, 0.186770498752594, 0.011845320463180542, 0.041340526193380356, -0.13882054388523102, -0.1431966871023178, -0.03493255749344826, -0.12159620225429535, -0.20388761162757874, 0.09685061872005463, -0.01659558340907097, -0.13633045554161072, -0.07855455577373505, -0.11794208735227585, -0.005115782842040062, -0.08950909972190857, 0.046630196273326874, -0.19686302542686462, -0.07428193837404251, -0.0028316713869571686, 0.07786305248737335, -0.03693408519029617, 0.022780753672122955, -0.020069945603609085, -0.0041623348370194435, -0.03807946294546127, 0.05036940425634384, 0.05554812774062157, 0.007569038309156895, 0.09930248558521271, -0.036912716925144196, 0.01206059381365776, 0.06727635115385056, 0.37047016620635986, -0.07211597263813019, 0.03534892946481705, -0.09167172759771347, -0.18777592480182648, -0.2319013476371765, 0.020803948864340782, 0.06834621727466583, -0.164920836687088, 0.009575373493134975, -0.1774594485759735, 0.0039290739223361015, 0.013588735833764076, -0.005688890349119902, 0.01646401546895504, -0.014275829307734966], [0.016555992886424065, -0.09229455888271332, -0.09099552780389786, -0.09728476405143738, 0.12222123891115189, 0.15133048593997955, 0.062233272939920425, -0.06269590556621552, 0.14327463507652283, 0.02466166764497757, 0.02400345727801323, 0.16388867795467377, -0.034749384969472885, -0.03937448933720589, 0.02564200572669506, 0.0665450394153595, -0.01802234910428524, -0.01606201007962227, -0.18315738439559937, 0.04624519869685173, 0.049722183495759964, -0.009522255510091782, 0.05110503360629082, -0.020584220066666603, 0.04139494523406029, 0.11737456172704697, 0.008008509874343872, 0.1415766179561615, 0.0412137471139431, -0.04500700160861015, -0.18813009560108185, -0.07420682907104492, -0.035732533782720566, 0.06035912036895752, -0.11926502734422684, 0.04571045935153961, 0.00047692671068944037, -0.18493075668811798, -0.15713950991630554, -0.0947241485118866, -0.07867084443569183, 0.00877944566309452, 0.0427759550511837, -0.03519611805677414, 0.14378009736537933, 0.08787155151367188, -0.25513845682144165, 0.019739588722586632, 0.0731748566031456, 0.16389454901218414, -0.00925036147236824, -0.0542847141623497, -0.031358394771814346, 0.12950299680233002, -0.045299794524908066, -0.061389002948999405, -0.1597343534231186, 0.09938675165176392, -0.01858537830412388, 0.2403409630060196, 0.09840536117553711, -0.06635919958353043, 0.11189638078212738, 0.18619407713413239, 0.03293595835566521, -0.06271450966596603, 0.014924617484211922, 0.09309342503547668, 0.05540606752038002, 0.032270338386297226, -0.047148387879133224, 0.0825422927737236, 0.06061747670173645, 0.2603379786014557, -0.008778447285294533, 0.0944356694817543, 0.03662817180156708, -0.10870290547609329, -0.05447007715702057, 0.19411753118038177, -0.09557051211595535, -0.14879077672958374, -0.15598975121974945, -0.02115522138774395, -0.13071222603321075, 0.10915574431419373, -0.11072535812854767, 0.018149301409721375, -0.1185850277543068, -0.22954420745372772, 0.03676711767911911, -0.00527419475838542, -0.04248518496751785, 0.061266958713531494, 0.01757652871310711, -0.10223750025033951], [0.030057284981012344, 0.1485692262649536, -0.15011072158813477, 0.03157438710331917, 0.11829604208469391, -0.15526863932609558, -0.035723499953746796, 0.020093021914362907, 0.039511460810899734, -0.03478603810071945, 0.06558094173669815, 0.21697276830673218, -0.031264401972293854, -0.05268433317542076, 0.014031199738383293, 0.17263728380203247, -0.02878865785896778, 0.10000050067901611, -0.0855124443769455, -0.1564997136592865, -0.03286627307534218, -0.12754160165786743, 0.13970166444778442, -0.07395364344120026, -0.02062785066664219, -0.02852644957602024, -0.18688000738620758, -0.13438023626804352, 0.01243763417005539, 0.11952073872089386, -0.047788169234991074, -0.02005060389637947, -0.16236010193824768, -0.2514297664165497, -0.07832799106836319, 0.03101751022040844, -0.07593847066164017, 0.032296549528837204, -0.09753938764333725, 0.013315091840922832, -0.06371893733739853, -0.14390212297439575, -0.15483099222183228, 0.05678248405456543, -0.029569216072559357, 0.0840214341878891, 0.15266059339046478, -0.002630824688822031, -0.037337612360715866, 0.00306590530090034, 0.05072447657585144, -0.03409329056739807, -0.16997352242469788, 0.11698149889707565, 0.07592827826738358, 0.08090375363826752, 0.13312433660030365, 0.10114845633506775, 0.004082164261490107, -0.08887382596731186, 0.04643164575099945, -0.05935031175613403, -0.06345392763614655, -0.030020544305443764, 0.04034841060638428, -0.11879518628120422, -0.06443279981613159, 0.06624708324670792, 0.12359701097011566, -0.1388116031885147, 0.21991093456745148, -0.09612835943698883, -0.08080349862575531, 0.14622363448143005, -0.18362073600292206, -0.045891135931015015, -0.05863393843173981, 0.07464928925037384, 0.0007617282681167126, 0.08510737121105194, 0.07901802659034729, 0.04872289299964905, -0.0865844339132309, -0.13282063603401184, 0.07264576107263565, -0.040388524532318115, -0.11570728570222855, 0.13034363090991974, -0.059997957199811935, 0.10424470901489258, 0.06592709571123123, 0.04680541902780533, 0.014230881817638874, 0.21083204448223114, 0.06157926842570305, 0.172348752617836], [-0.1258583664894104, -0.019318867474794388, -0.0452842153608799, 0.07133527100086212, 0.14985522627830505, -0.20975588262081146, -0.17825786769390106, -0.11133645474910736, -0.0074953604489564896, 0.11956191807985306, 0.0768599584698677, -0.08227076381444931, -0.09419585764408112, 0.19789758324623108, -0.10638001561164856, 0.058957137167453766, 0.03332703560590744, 0.05181150883436203, -0.05449621006846428, 0.03910653293132782, -0.06063353642821312, 0.050458863377571106, 0.07843542844057083, -0.07220789790153503, 0.007451195269823074, 0.08081351220607758, 0.05352794751524925, -0.032234907150268555, -0.03309673070907593, -0.1701948493719101, 0.11479292809963226, -0.03795789182186127, 0.05805230140686035, 0.04638214036822319, -0.0711282342672348, 0.016462871804833412, 0.1321313977241516, -0.009774711914360523, 0.09612933546304703, 0.14547988772392273, 0.019477244466543198, 0.010105306282639503, -0.009646864607930183, -0.03685958683490753, -0.09787052124738693, 0.093459852039814, 0.02506219409406185, 0.07662220299243927, 0.044733982533216476, 0.11239859461784363, 0.030102454125881195, -0.10937545448541641, 0.2563879191875458, -0.05869440734386444, 0.0906578004360199, 0.19542495906352997, -0.006322321482002735, -0.20246420800685883, -0.07203739881515503, -0.024368207901716232, -0.03528778254985809, 0.11160332709550858, 0.10475778579711914, 0.03577401861548424, -0.03807497024536133, -0.0404832661151886, 0.017090436071157455, -0.03929828107357025, -0.06391791999340057, 0.11814933270215988, -0.15500608086585999, -0.026898663491010666, -0.0254525113850832, 0.05778101086616516, -0.0702776089310646, 0.11815834790468216, -0.026142220944166183, -0.012216915376484394, -0.17023450136184692, -0.21825610101222992, 0.1228921115398407, 0.0744345560669899, -0.17624413967132568, -0.1670714169740677, -0.01988905668258667, 0.09096810221672058, -0.12828321754932404, 0.1168774738907814, -0.165474995970726, -0.12852360308170319, -0.05331294983625412, -0.02242065779864788, -0.17426790297031403, 0.12710653245449066, -0.07948363572359085, 0.16475172340869904], [-0.031366441398859024, -0.1709887534379959, -0.02181832306087017, 0.04967908561229706, -0.08985120058059692, -0.028439998626708984, -0.0038014347665011883, 0.07835457473993301, 0.0004370145034044981, -0.1775473952293396, 0.1254708468914032, 0.07285017520189285, 0.0817822739481926, -0.07575897127389908, -0.1597152054309845, -0.12048392742872238, 0.05212593823671341, -0.11618707329034805, 0.10013201087713242, -0.05755867809057236, -0.055233508348464966, 0.14245717227458954, 0.04648838937282562, 0.06949575245380402, 0.24015559256076813, 0.006249198690056801, -0.02530512399971485, -0.005997102707624435, -0.09375307708978653, -0.21056370437145233, -0.009597159922122955, -0.06662002205848694, -0.011204905807971954, -0.04648199677467346, -0.13618509471416473, 0.12011811882257462, 0.028064090758562088, -0.25515851378440857, -0.013124876655638218, 0.06964414566755295, 0.10763426870107651, -0.03896594047546387, -0.01619868166744709, 0.006702236831188202, -0.0836944505572319, -0.03446070849895477, 0.006818308029323816, -0.07690591365098953, -0.035380154848098755, -0.04513111710548401, 0.021826554089784622, -0.07675687223672867, -0.009644975885748863, 0.07599509507417679, -0.07620294392108917, -0.021177668124437332, 0.07978105545043945, -0.05118329077959061, -0.12471221387386322, -0.053489428013563156, -0.09918615967035294, 0.11661863327026367, 0.07553169876337051, 0.03588604927062988, -0.09543427079916, -0.04421762004494667, 0.1763654202222824, 0.226113423705101, -0.2042180895805359, -0.18634340167045593, -0.07702185213565826, -0.00818389281630516, 0.061932358890771866, 0.1534053087234497, -0.0848173201084137, -0.08106537163257599, 0.0640702173113823, 0.0885833352804184, 0.24517177045345306, 0.07883411645889282, -0.06203087791800499, 0.12024477124214172, 0.0716032087802887, -0.06116686016321182, 0.015477878041565418, -0.07001828402280807, -0.016334624961018562, -0.09897106885910034, -0.0756172239780426, 0.06096147000789642, -0.04723889380693436, 0.1908152550458908, 0.0901181623339653, 0.0675755962729454, -0.24295756220817566, -0.013331861235201359]]}, "input_size": 120, "conv1d_stride": 12, "conv1d_1_stride": 12}