{"conv1d": {"bias:0": [0.011826532892882824, 0.012976564466953278, 0.01960848644375801, 0.011776981875300407], "kernel:0": [[[-1.7859034538269043, -1.1728863716125488, -3.952894449234009, -1.3428527116775513]], [[-1.736910104751587, -1.243039846420288, -3.876085042953491, -1.9176015853881836]], [[-1.4610400199890137, -1.9136906862258911, -3.0688588619232178, -2.1762795448303223]], [[-2.0213539600372314, -2.197756052017212, -2.8969457149505615, -2.2192940711975098]], [[-2.00302791595459, -2.6896538734436035, -1.7999262809753418, -2.9061062335968018]], [[-1.4169169664382935, -2.532374382019043, -1.457702875137329, -2.807560920715332]], [[-1.5616071224212646, -2.1249563694000244, 0.16171886026859283, -2.486600160598755]], [[-0.5890833735466003, -1.7217230796813965, 1.007103443145752, -2.006640672683716]], [[-0.20265808701515198, -1.1143362522125244, 2.57330060005188, -0.5599995255470276]], [[0.5785173177719116, -0.38373705744743347, 3.79447340965271, 0.2755906283855438]]]}, "conv1d_1": {"bias:0": [-0.013495073653757572, -0.0058120000176131725, -0.027550192549824715, -0.02658993750810623], "kernel:0": [[[-0.2109040468931198, 0.2786282002925873, 0.7343877553939819, -0.21919701993465424], [-0.775755763053894, -0.27596384286880493, 0.6021742224693298, 0.11571872979402542], [0.4017738997936249, 0.41075006127357483, 1.5560636520385742, -0.8785834312438965], [-0.7818230986595154, -0.20873522758483887, 0.8029860258102417, 0.013030304573476315]], [[-0.4239485561847687, 0.4280702471733093, 0.7324469089508057, -0.17786559462547302], [-0.2802991569042206, 0.7107460498809814, 0.860287606716156, -0.5227362513542175], [-0.871887743473053, -0.12858404219150543, 0.40067920088768005, 0.18965354561805725], [-0.27157825231552124, 0.6432704329490662, 0.4802177846431732, -0.6449559330940247]], [[0.6357343792915344, -0.2396334707736969, -0.6394934058189392, 6.354151992127299e-05], [0.43467938899993896, -0.10285770893096924, -0.8834587931632996, -0.030938010662794113], [0.17537690699100494, -0.28033435344696045, -0.8191322684288025, 0.1867075264453888], [0.6168539524078369, -0.07619565725326538, -0.8588981032371521, 0.23422470688819885]], [[0.548008918762207, -0.09816205501556396, -0.8374355435371399, 0.08891825377941132], [0.4854714274406433, -0.08202987909317017, -0.7615487575531006, -0.0012979860184714198], [0.8141542077064514, 0.1594243198633194, -0.4925692677497864, -0.27462100982666016], [0.9135017991065979, -0.15932637453079224, -0.9813527464866638, 0.13527093827724457]], [[0.6282430291175842, 0.041854362934827805, -0.38870173692703247, -0.4354504346847534], [0.7210222482681274, 0.5016370415687561, -0.3991321325302124, -0.40915316343307495], [0.37374669313430786, -0.1440405249595642, -1.3494240045547485, -0.08142991364002228], [0.38988643884658813, 0.3308858275413513, -0.16445401310920715, -0.468120813369751]], [[-0.6128824353218079, -0.27492034435272217, 0.33940649032592773, 0.6262052059173584], [-0.7718216180801392, -0.4853214621543884, 0.36066383123397827, 0.8085647225379944], [-0.15010759234428406, 0.19449739158153534, 0.18679673969745636, -0.30287569761276245], [-0.4708511233329773, -0.415772020816803, 0.7703395485877991, 0.8741346001625061]], [[-0.4975639581680298, -0.11417388170957565, 0.5703374743461609, 0.27902472019195557], [-0.14341238141059875, -0.31433239579200745, 0.5608905553817749, 0.6403020024299622], [-0.54483562707901, -0.555432140827179, 0.7061721086502075, 1.0125705003738403], [-0.38401010632514954, -0.4177740812301636, 0.7687731981277466, 0.334507554769516]], [[0.15284046530723572, 0.34875497221946716, -0.23285238444805145, -0.1996571123600006], [-0.0034646992571651936, 0.3840871751308441, 0.1615283042192459, -0.2763260006904602], [-0.029429128393530846, -0.13728199899196625, -0.000985151738859713, 0.3825487196445465], [-0.12673290073871613, 0.26282110810279846, -0.039537250995635986, 0.11063574999570847]], [[0.01915660686790943, -0.2506602108478546, 0.007592543959617615, 0.2660290598869324], [0.0866263136267662, -0.3882097601890564, 0.3294919431209564, 0.6983351111412048], [0.24735380709171295, -0.37102144956588745, 0.0345282256603241, -0.015300221741199493], [0.40594691038131714, -0.49491479992866516, 0.08173579722642899, 0.8238099217414856]], [[-1.0887070894241333, 0.5599175095558167, -0.4760904312133789, -1.2606151103973389], [-1.4627182483673096, 0.9477390646934509, -0.4674839377403259, -2.008669137954712], [-0.9813306331634521, 0.3274434506893158, -0.23137567937374115, 0.25591155886650085], [-1.4577150344848633, 0.9104440212249756, -0.08721928298473358, -1.89302659034729]], [[-1.1291663646697998, -1.5006296634674072, -1.820517659187317, -1.0734072923660278], [-1.0820008516311646, -1.4192229509353638, -1.9841718673706055, -0.38281646370887756], [-2.1041922569274902, -1.4857929944992065, -2.1922755241394043, -3.3085274696350098], [-1.5016376972198486, -1.9774374961853027, -1.8881728649139404, -0.797798216342926]], [[1.7732064723968506, 1.548478126525879, 1.420640468597412, 2.2878928184509277], [1.5134763717651367, 1.6700477600097656, 1.1261794567108154, 1.9325802326202393], [3.1015963554382324, 1.7562713623046875, 2.203000545501709, 2.6070947647094727], [1.872894287109375, 1.7628638744354248, 1.5077807903289795, 2.215038537979126]]]}, "dense": {"bias:0": [-0.03112918511033058], "kernel:0": [[0.11377957463264465], [-0.1493099331855774], [0.03260304778814316], [0.1103677898645401], [0.18290136754512787], [-0.15098462998867035], [-0.053150031715631485], [-0.1628917008638382], [-0.10436941683292389], [0.057830482721328735], [0.09601841866970062], [-0.2485419660806656], [-0.1687566488981247], [-0.1484028846025467], [-0.22236061096191406], [0.08773346245288849], [0.066664919257164], [-0.05141333490610123], [0.04672706127166748], [0.08262759447097778], [-0.1518416404724121], [0.07324597984552383], [-0.19412878155708313], [-0.04769713804125786]]}, "lstm": {"bias:0": [-0.8886966705322266, 0.7342029213905334, -0.4720393419265747, 0.2605004608631134, -0.8375658988952637, -0.10588791221380234, -0.7394601702690125, 0.46618103981018066, 0.13311898708343506, -0.5197199583053589, -0.8415502309799194, 0.23742052912712097, -0.021266205236315727, 0.6760625243186951, 0.6240759491920471, 0.6132507920265198, 0.6765297651290894, 0.07807634770870209, -0.08886124938726425, 1.1425164937973022, 0.7016688585281372, -2.0409417152404785, 0.12151891738176346, 0.9138272404670715, 1.0, 1.0, 1.0, 1.0, 1.0, 1.0, 1.0, 1.0, 1.0, 1.0, 1.0, 1.0, 1.0, 1.0, 1.0, 1.0, 1.0, 1.0, 1.0, 1.0, 1.0, 1.0, 1.0, 1.0, 0.05534307658672333, -0.13889776170253754, -0.13876888155937195, 0.04235869273543358, -0.610873281955719, -0.0802803486585617, 0.10411404073238373, -0.025172188878059387, -0.044965989887714386, 0.2416020929813385, -0.07188341021537781, 0.08268631249666214, -0.044505298137664795, -0.12318375706672668, 0.0010192531626671553, 0.22162623703479767, -0.6205348968505859, -0.07356150448322296, -0.04261965677142143, 0.4284443259239197, 0.1058577224612236, 0.2729920744895935, -0.03344675898551941, -0.15845799446105957, 0.24477504193782806, 0.1001909002661705, 0.5553098917007446, -0.22759146988391876, -0.3053238093852997, 0.0691002905368805, -1.3111411333084106, 0.04588008671998978, 0.007640935946255922, -0.4281548261642456, -0.28920406103134155, 0.9534997344017029, 0.06640156358480453, 0.013602366670966148, 0.4094766080379486, -0.1249522864818573, 0.47798052430152893, -1.7611727714538574, -0.06154705584049225, -0.15315259993076324, 0.8060928583145142, -1.5421072244644165, 0.48959779739379883, -0.14787966012954712], "kernel:0": [[-0.9054343104362488, 0.6069420576095581, 0.7152330875396729, -0.6318798065185547, -0.21019574999809265, -0.10023143887519836, 0.6486274003982544, 0.9487386345863342, -0.5644394159317017, 0.43228262662887573, 0.13023050129413605, -1.9075872898101807, -0.7178816795349121, -0.42075520753860474, 0.5001237988471985, -0.5350506901741028, -1.225109577178955, 1.1690174341201782, 0.29947397112846375, -1.0747790336608887, 0.8152766227722168, -0.047173913568258286, 0.1446826308965683, 1.3363487720489502, -0.014424949884414673, -0.02852514386177063, -0.09510233998298645, -0.09652058780193329, -0.05608305335044861, 0.10393242537975311, -0.0867912620306015, 0.12302269041538239, 0.24146099388599396, -0.03503836691379547, 0.24244050681591034, 0.03951190412044525, 0.019750013947486877, -0.009423956274986267, -0.19450049102306366, 0.01364968717098236, 0.1678289920091629, 0.13177917897701263, -0.16773372888565063, -0.07351242005825043, -0.02938041090965271, 0.04975922405719757, -0.21056602895259857, 0.08382008969783783, -0.3937256634235382, 0.7478225231170654, 0.6322842836380005, -1.5718073844909668, -0.3106289803981781, 0.4599789083003998, -0.17580673098564148, 1.0717909336090088, 0.6105650663375854, -0.40240657329559326, 1.0272241830825806, 3.168415069580078, -0.34558284282684326, -0.9873561859130859, -1.3066725730895996, 0.4239524006843567, 0.7823529243469238, -0.36555683612823486, -0.4987241327762604, -0.43896615505218506, 1.613969087600708, -0.0292122270911932, 0.3152344226837158, -0.9170829653739929, 0.2196384221315384, -0.5024276971817017, 0.916986346244812, 0.7817564606666565, 0.7573521733283997, -0.2565232813358307, -0.23197324573993683, 0.23115600645542145, 0.02599157765507698, -0.8050603270530701, 0.500809907913208, 0.5398026704788208, 0.560141921043396, 0.301498144865036, -0.8638628721237183, 0.059210095554590225, -0.49399739503860474, -1.1651124954223633, -1.4968371391296387, -0.5675551295280457, -0.799494743347168, -0.4840061366558075, -0.20361264050006866, -0.0008246649522334337], [-0.26285651326179504, -1.3215943574905396, 0.9862590432167053, -0.909332275390625, -1.2511430978775024, -0.26346540451049805, 0.032941266894340515, 0.2127237319946289, -0.18026714026927948, 0.6580797433853149, -1.2805395126342773, -2.6344878673553467, 0.11488478630781174, -0.007013566792011261, 1.2203854322433472, 0.3149377703666687, -0.6896166801452637, 0.8910704255104065, -0.43430790305137634, -3.388228416442871, -0.11573366820812225, 0.8562686443328857, 0.1441763937473297, -0.056975871324539185, -0.17299923300743103, -0.1640121042728424, -0.1010785698890686, -0.1468515694141388, -0.10829819738864899, -0.16464370489120483, 0.17768503725528717, 0.15477444231510162, 0.2412533313035965, 0.17600001394748688, 0.057417258620262146, 0.192831352353096, 0.019972816109657288, -0.23399369418621063, -0.1890164613723755, -0.0911322832107544, 0.1950465887784958, -0.10123787820339203, 0.052963003516197205, -0.033268943428993225, -0.0051990896463394165, -0.06348226964473724, 0.23032812774181366, 0.11810730397701263, -1.026362657546997, 1.9274860620498657, 1.188213586807251, 1.9641002416610718, -0.873047411441803, 0.6646766066551208, 0.06711645424365997, 1.1618298292160034, 0.3063414692878723, -0.30990543961524963, -0.396195650100708, 2.783632278442383, -0.8442537784576416, -0.30078500509262085, 2.680471420288086, -0.6701318025588989, 1.1700036525726318, -0.2822292745113373, -0.16726385056972504, 0.417024701833725, -0.08645398169755936, -0.561206042766571, -0.00345726334489882, -1.1373931169509888, 0.45331376791000366, 1.09099543094635, -0.2742999494075775, 1.120171308517456, -0.6687695980072021, -0.3298160433769226, -1.2193406820297241, 0.4511971175670624, -0.31940510869026184, 1.0298874378204346, -0.28413069248199463, 1.299696683883667, 0.05699227377772331, 0.2903483808040619, -0.5005502700805664, 0.010251420550048351, -0.03386992588639259, -0.18553774058818817, 0.23596668243408203, 0.20061945915222168, 0.1595291644334793, 0.24311816692352295, -0.3654387891292572, -0.3810771405696869], [-1.2923262119293213, -1.2814186811447144, 0.5505900382995605, -1.3802695274353027, -0.14218056201934814, -0.200935959815979, 1.367961049079895, 0.6167249083518982, -0.08026464283466339, -0.04294518381357193, -0.09531290829181671, -1.7058302164077759, 0.13197559118270874, -0.4919615685939789, 1.1855943202972412, 0.47093844413757324, -0.6900033950805664, 0.709993839263916, 0.7728676795959473, -0.32112783193588257, 0.25371289253234863, -0.05554703250527382, -0.02657514438033104, -0.3661087453365326, 0.24036531150341034, -0.08988356590270996, -0.05543224513530731, -0.20727646350860596, -0.1999080777168274, -0.23971232771873474, 0.2188987284898758, -0.22339846193790436, 0.05374465882778168, 0.04360862076282501, 0.15372483432292938, 0.15709300339221954, 0.09395407140254974, -0.10997773706912994, -0.09344446659088135, -0.18176162242889404, -0.2092159390449524, -0.19234733283519745, 0.11017845571041107, -0.21743105351924896, 0.019331589341163635, -0.20878943800926208, -0.12075114995241165, -0.2241542786359787, -0.25395524501800537, -0.1627591848373413, -0.5861952900886536, -0.6343589425086975, -0.08475498110055923, 0.19211260974407196, -0.17929580807685852, -0.03982441872358322, 0.4110485017299652, 0.4612950086593628, -0.5198757648468018, 1.6336016654968262, 1.1207581758499146, 2.469984769821167, 2.5857365131378174, -0.8996639251708984, 0.7783271670341492, 0.06222628429532051, -0.3292387127876282, -0.6351768970489502, -1.1201303005218506, 0.05075101554393768, 0.16025254130363464, -0.7478014826774597, 0.026706241071224213, 0.7850540280342102, -0.5877453684806824, 1.8318028450012207, 0.9431139826774597, 0.08817924559116364, 0.034831080585718155, -0.14345741271972656, -0.4116031229496002, -0.6150456666946411, 0.5805596113204956, 1.164975643157959, 0.27332648634910583, 0.01868029311299324, -0.4912797212600708, -0.40260037779808044, 0.22341427206993103, 0.40923866629600525, 0.009030180051922798, -0.9212938547134399, 0.10676415264606476, -0.2996402084827423, 0.19108164310455322, -0.6100632548332214], [-0.757193386554718, 0.7409438490867615, -0.6532278656959534, -0.941865861415863, -1.079529047012329, 0.08844975382089615, -0.006485296413302422, 1.538270115852356, -1.0425195693969727, 1.1253374814987183, -0.9204958081245422, -2.4749646186828613, -1.1033300161361694, -0.56934654712677, 1.1126198768615723, -0.05493832752108574, -1.109877347946167, 1.5077065229415894, 0.6373291015625, -1.220590591430664, 1.0869165658950806, 0.5283016562461853, -0.2023080438375473, 0.8025357723236084, 0.031011059880256653, 0.03568653762340546, 0.1711951345205307, -0.21642136573791504, -0.2448287159204483, -0.08189257979393005, 0.15720216929912567, 0.15914176404476166, 0.088748499751091, -0.1716139018535614, 0.21447698771953583, -0.057143434882164, -0.07877388596534729, -0.20952831208705902, -0.0031235963106155396, -0.10882420837879181, -0.14875563979148865, -0.015408068895339966, 0.07229821383953094, 0.05943839251995087, -0.12140902876853943, 0.2078312486410141, -0.028207555413246155, -0.08048723638057709, -0.5869299173355103, -1.7842243909835815, 0.18648260831832886, -0.32902058959007263, -0.4256458580493927, 0.22551745176315308, 0.33154454827308655, -0.7737992405891418, 0.649078369140625, -0.1958085149526596, 0.24798066914081573, 2.4797677993774414, 0.04880458861589432, 0.5763500332832336, -1.665188193321228, 0.2991757094860077, 0.9690752029418945, 0.8092203736305237, -0.4406731426715851, -0.9453198909759521, -1.5213857889175415, -0.2064618170261383, -0.0527748242020607, -0.9211605191230774, 0.18124887347221375, -0.44284018874168396, -0.7348777651786804, 1.1846826076507568, 1.007139801979065, -0.2362590879201889, -0.41684213280677795, -0.6834631562232971, 0.5750775933265686, -1.2143819332122803, 0.4388964772224426, 1.17063570022583, 0.9769735932350159, 0.7395834922790527, -1.3922349214553833, 0.1987607777118683, -0.3820435106754303, 0.28992193937301636, -1.399829387664795, 0.027442172169685364, -1.2944391965866089, -0.6821490526199341, 0.44056594371795654, 0.7380586266517639]], "recurrent_kernel:0": [[0.03666496276855469, 0.07992009818553925, -0.07974430918693542, 0.0777200236916542, 0.08324005454778671, -0.013022213242948055, -0.09439001232385635, -0.1238815039396286, -0.15964657068252563, -0.0051735565066337585, -0.10357444733381271, -0.04297575354576111, -0.05329268053174019, 0.02658468671143055, -0.14161331951618195, 0.11411234736442566, 0.028392357751727104, -0.1361095905303955, 0.18015706539154053, -0.09158072620630264, 0.0406787134706974, -0.025609925389289856, -0.04116832837462425, -0.11411720514297485, 0.030913978815078735, -0.11970686167478561, 0.11408405005931854, 0.023166919127106667, -0.13093213737010956, 0.01960776560008526, -0.04727378487586975, 0.018858592957258224, -0.015645552426576614, 0.20926524698734283, -0.17240417003631592, -0.0016511998837813735, 0.20305366814136505, 0.06046338751912117, -0.0607353039085865, 0.08397986739873886, 0.15270397067070007, -0.17494288086891174, -0.05567855387926102, -0.08900810033082962, -0.004946634639054537, 0.13326169550418854, -0.0482754223048687, 0.05103876069188118, -0.022318420931696892, 0.036343783140182495, 0.005762431770563126, -0.03329978883266449, 0.05491205304861069, 0.16696840524673462, -0.022259345278143883, -0.17048393189907074, -0.19725199043750763, -0.1079210489988327, -0.2209312915802002, -0.015802934765815735, 0.045654091984033585, -0.015913503244519234, -0.03251528739929199, -0.08439891040325165, 0.035254329442977905, -0.0958692654967308, 0.14461830258369446, 0.03385092318058014, 0.19443389773368835, 0.018881192430853844, 0.04688708856701851, 0.12694422900676727, 0.011358888819813728, -0.036020003259181976, -0.052258964627981186, -0.009251907467842102, -0.05685056373476982, -0.03978858143091202, 0.06061957776546478, 0.1423548460006714, 0.009630853310227394, -0.18554969131946564, 0.017284011468291283, 0.03252025321125984, -0.0752226933836937, 0.10845669358968735, -0.030712338164448738, -0.052550170570611954, -0.22793704271316528, -0.0071389260701835155, -0.2617725729942322, -0.05387617275118828, -0.15626853704452515, 0.004295712802559137, 0.014433708041906357, -0.17317497730255127], [0.004100986756384373, 0.13491441309452057, -0.022564513608813286, -0.03784972429275513, -0.0926951989531517, 0.07303616404533386, 0.07324178516864777, 0.12915953993797302, 0.012793618254363537, -0.15815949440002441, -0.12182959914207458, -0.20250725746154785, -0.0244456697255373, 0.09234621375799179, 0.0351579412817955, -0.027813870459794998, 0.07917257398366928, -0.07210899889469147, 0.16347385942935944, 0.040506865829229355, 0.08266241103410721, -0.009289195761084557, 0.014320206828415394, 0.13195495307445526, 0.03587794676423073, -0.06450962275266647, 0.12826256453990936, -0.06111340969800949, 0.006613633595407009, 0.05230577662587166, 0.019101640209555626, 0.09294576942920685, -0.03600175678730011, -0.12774540483951569, -0.06331389397382736, 0.18629767000675201, 0.09195274859666824, -0.057012248784303665, 0.03399413079023361, -0.1436174064874649, 0.10931432992219925, 0.0931214690208435, -0.015796376392245293, 0.19743551313877106, 0.052066076546907425, 0.12796203792095184, -0.11057188361883163, 0.20741237699985504, 0.01753816194832325, -0.16273605823516846, 0.045020803809165955, -0.25807684659957886, -0.08906285464763641, -0.11186914145946503, 0.17559769749641418, 0.18500986695289612, -0.11279182881116867, -0.04356301948428154, 0.035548895597457886, 0.2734096646308899, 0.1651325225830078, -0.007335946429520845, -0.06519637256860733, 0.06614433974027634, 0.015313900075852871, -0.045308005064725876, -0.2116740196943283, 0.07719845324754715, -0.013205925934016705, -0.13146628439426422, -0.08222305774688721, -0.12452572584152222, -0.08059830218553543, -0.0792330652475357, -0.07652121782302856, -0.18360696732997894, -0.03896026685833931, -0.025944922119379044, 0.01119852066040039, -0.043381404131650925, -0.044809740036726, -0.05181039124727249, -0.05184951424598694, -0.11566579341888428, -0.04862502962350845, 0.004552731290459633, 0.025599924847483635, 0.08758113533258438, -0.09097123891115189, -0.022332971915602684, -0.07403218001127243, 0.040155790746212006, 0.08816643804311752, -0.09393075108528137, 0.05848873779177666, -0.04153820499777794], [-0.08569981157779694, 0.012275619432330132, -0.16609077155590057, -0.05493229627609253, -0.08105480670928955, 0.09851748496294022, -0.06215455383062363, -0.09760518372058868, -0.08228138834238052, 0.19960342347621918, -0.16849647462368011, -0.11754119396209717, -0.04293764382600784, -0.13905492424964905, -0.02837209962308407, -0.0006138011813163757, 0.09090031683444977, 0.0312795527279377, 0.032637566328048706, 0.022716065868735313, -0.12888062000274658, 0.1758526861667633, 0.1316864937543869, 0.0071978941559791565, -0.03621922805905342, 0.13636146485805511, 0.24701368808746338, 0.12774072587490082, -0.002520984038710594, -0.06315646320581436, 0.09710834175348282, -0.03793661296367645, 0.01776965707540512, -0.2191598117351532, -0.0947163850069046, 0.1979573518037796, 0.15164074301719666, 0.06773746758699417, 0.03836887702345848, -0.037631869316101074, -0.04433184862136841, 0.0939364805817604, -0.025047745555639267, -0.054907236248254776, 0.015406065620481968, -0.06160368025302887, 0.03385663777589798, 0.0014781346544623375, -0.15832212567329407, 0.003993126563727856, -0.213774636387825, -0.024792008101940155, 0.054687514901161194, 0.10295096784830093, 0.045606255531311035, 0.11409512907266617, 0.09290281683206558, 0.1405692994594574, -0.016084974631667137, -0.006594149395823479, -0.01629449985921383, 0.03354388102889061, 0.1824427992105484, 0.04648595303297043, -0.03786153718829155, -0.02359849587082863, 0.11584553867578506, 0.21150556206703186, 7.65528529882431e-05, 0.1387353241443634, 0.03378375619649887, -0.01622810587286949, -0.09623727947473526, 0.04800383746623993, 0.1053633987903595, -0.1061350479722023, -0.058884814381599426, 0.08757762610912323, -0.13059234619140625, -0.08199683576822281, -0.006323578767478466, 0.13141804933547974, 0.06894289702177048, -0.06541113555431366, 0.04642001539468765, 0.13042932748794556, -0.178714320063591, -0.2324451357126236, 0.08963093161582947, -0.056098274886608124, -0.03351197764277458, -0.010339835658669472, -0.1642342507839203, 0.0023487689904868603, -0.029220104217529297, -0.00299970805644989], [-0.05632549896836281, -0.1379440277814865, -0.10808911919593811, -0.0590939037501812, -0.007253038231283426, 0.0054724812507629395, 0.17133930325508118, -0.048044707626104355, 0.024492671713232994, 0.12763573229312897, 0.09840675443410873, -0.013075901195406914, -0.14572925865650177, 0.24801531434059143, 0.06125704199075699, 0.0014114603400230408, -0.008639114908874035, 0.04512685164809227, 0.009323944337666035, -0.08251407742500305, -0.003643887583166361, 0.004863652400672436, 0.14856557548046112, 0.10061081498861313, -0.12227670848369598, 0.11150220036506653, 0.12435534596443176, 0.06025037541985512, 0.05605991184711456, 0.06890301406383514, 0.15682271122932434, -0.15523412823677063, 0.09609613567590714, 0.0037013590335845947, 0.005637514404952526, -0.022739281877875328, -0.14999479055404663, -0.03967329487204552, -0.2973441183567047, 0.10434406250715256, -0.05197908729314804, 0.09153708070516586, 0.0022818180732429028, -0.011349396780133247, 0.05428007245063782, 0.1949237436056137, -0.0452226847410202, -0.017574172466993332, -0.10469275712966919, -0.021579474210739136, 0.15789251029491425, -0.13634437322616577, 0.2581903338432312, -0.06504325568675995, -0.055969417095184326, 0.08906985819339752, -0.06377245485782623, -0.12705092132091522, -0.008506624959409237, -0.1554732769727707, -0.10040852427482605, -0.06168846786022186, 0.024199726060032845, -0.15354487299919128, -0.05491035431623459, -0.1549830138683319, -0.1634870022535324, 0.016149353235960007, -0.013401780277490616, 0.02910466305911541, -0.045117102563381195, 0.005141680594533682, 0.07113068550825119, 0.06938384473323822, 0.11897753924131393, 0.007837602868676186, 0.14677731692790985, 0.05170236900448799, 0.19463206827640533, -0.06505777686834335, 0.02812945656478405, 0.015101911500096321, 0.15046411752700806, -0.12311168760061264, -0.050405848771333694, 0.09186903387308121, 0.058270446956157684, 0.04060448333621025, -0.11012198030948639, 0.14466755092144012, -0.08429781347513199, 0.12092621624469757, -0.03058777004480362, -0.0006461124285124242, -0.07090015709400177, -0.055847667157649994], [0.06155308708548546, -0.022315427660942078, 0.09800336509943008, -0.12406125664710999, -0.047553565353155136, -0.03534504771232605, -0.1313769817352295, -0.012785166501998901, -0.01708117499947548, 0.011270210146903992, -0.18417473137378693, -0.04343998059630394, -0.024908309802412987, 0.01890133135020733, 0.16135574877262115, 0.04871021956205368, -0.06857859343290329, -0.042543381452560425, 0.02710888162255287, 0.03918270021677017, 0.0012639290653169155, 0.045932698994874954, 0.15542475879192352, -0.08853134512901306, -0.07693476974964142, -0.13702823221683502, -0.13735367357730865, -0.041346944868564606, -0.03189807012677193, 0.05251459777355194, -0.017875315621495247, -0.10859253257513046, 0.062178563326597214, -0.06992717832326889, 0.172938734292984, -0.10848302394151688, 0.14665906131267548, -0.11424198746681213, -0.09820233285427094, -0.022820044308900833, 0.05877203866839409, 0.15347003936767578, 0.23967427015304565, -0.13363641500473022, 0.20874415338039398, 0.06351717561483383, 0.09523431956768036, -0.22860795259475708, 0.025034040212631226, 0.009247628040611744, -0.05487966910004616, -0.019848832860589027, -0.029457228258252144, -0.07296521216630936, 0.07586134970188141, 0.01179835107177496, -0.026204485446214676, 0.04964236170053482, 0.14950242638587952, 0.024486880749464035, 0.019452426582574844, 0.07390441000461578, -0.12834592163562775, -0.08332229405641556, -0.03580360859632492, -0.08765890449285507, 0.11632268130779266, 0.03953704237937927, 0.041351839900016785, -0.04985273256897926, -0.1006489247083664, 0.08636069297790527, -0.09851015359163284, 0.2687622904777527, 0.10936041176319122, 0.005866929888725281, 0.06896018236875534, -0.16566097736358643, -0.20001012086868286, -0.09295812994241714, 0.1306106597185135, -0.20562222599983215, -0.08308001607656479, 0.032892901450395584, 0.07688415050506592, -0.02725866436958313, -0.19249454140663147, 0.07531891763210297, -0.10458874702453613, 0.06959761679172516, -0.10815158486366272, -0.05610555782914162, 0.09774065017700195, -0.14476406574249268, -0.04968656599521637, -0.03500897437334061], [0.13036924600601196, -0.061536550521850586, 0.13391482830047607, 0.08661379665136337, -0.013909570872783661, -0.06653673201799393, -0.12910674512386322, -0.01900753378868103, -0.004091629758477211, -0.07877093553543091, -0.1324218213558197, -0.08455989509820938, -0.046045731753110886, 0.16157639026641846, 0.0869479700922966, 0.05666917935013771, -0.09723928570747375, -0.22110673785209656, -0.08984844386577606, -0.10652149468660355, -0.12164850533008575, 0.06665012985467911, 0.031207695603370667, -0.07132496684789658, -0.12413672357797623, -0.0701565146446228, 0.08270815759897232, 0.2025458961725235, -0.0053718360140919685, -0.021766146644949913, -0.061776868999004364, -0.0058874934911727905, 0.06411636620759964, -0.10566215962171555, 0.12379572540521622, -0.0504821352660656, 0.09246267378330231, 0.04004863649606705, -0.039620593190193176, 0.03589285537600517, 0.04920736700296402, -0.08269023150205612, -0.029754646122455597, -0.05833011120557785, 0.05052134394645691, -0.020274808630347252, -0.002244919305667281, 0.08307268470525742, -0.04630681872367859, 0.02220003306865692, 0.031999628990888596, 0.0006542820483446121, -0.01910918951034546, 0.05684173107147217, 0.013425410725176334, -0.03774409368634224, 0.0189766027033329, -0.13365308940410614, -0.19526824355125427, -0.20368961989879608, 0.17735381424427032, -0.12410511076450348, -0.0341927632689476, -0.043649185448884964, 0.04691465198993683, 0.043660975992679596, -0.013805685564875603, 0.05688623711466789, -0.08057152479887009, 0.04665454849600792, -0.1068616434931755, -0.05438639968633652, -0.011807889677584171, -0.15603086352348328, 0.13320323824882507, -0.0058858515694737434, -0.02422485500574112, -0.07074635475873947, 0.06852561980485916, 0.04771459847688675, -0.06793246418237686, 0.31414005160331726, -0.03592497855424881, -0.03914955258369446, 0.06038941070437431, 0.10010438412427902, -0.005336478352546692, 0.2365032285451889, 0.30740484595298767, -0.07597433030605316, 0.04393626004457474, -0.06155170127749443, 0.1463748812675476, -0.2083302140235901, 0.16179248690605164, -0.04738377407193184], [-0.0229398962110281, -0.11646047234535217, -0.010219273157417774, 0.10616084933280945, 0.14698423445224762, 0.0938621386885643, -0.009645162150263786, 0.18520529568195343, -0.15740808844566345, 0.0034738858230412006, -0.13566868007183075, -0.17335055768489838, 0.02818319946527481, 0.10670281201601028, -0.02001563087105751, 0.05911397188901901, 0.15670880675315857, 0.06361532211303711, 0.0764571949839592, 0.1274695098400116, -0.05365707352757454, 0.18726490437984467, -0.2573220133781433, -0.10289748758077621, 0.11039015650749207, 0.023086313158273697, -0.0003990200348198414, 0.027355767786502838, -0.04818248003721237, -0.01120890025049448, 0.0007451698184013367, 0.18682746589183807, 0.14569947123527527, -0.09164080023765564, -0.126003235578537, 0.157431498169899, -0.1024484783411026, -0.16042235493659973, -0.046939294785261154, 0.11030765622854233, -0.04743170365691185, 0.1016041561961174, -0.10072143375873566, -0.07496120035648346, 0.17945656180381775, -0.11398598551750183, 0.16125266253948212, -0.06770533323287964, 0.1322619765996933, -0.0038392236456274986, 0.05607636645436287, -0.027655500918626785, 0.0496230386197567, -0.0053274971432983875, -0.047025710344314575, -0.07945174723863602, 0.08521008491516113, -0.10956336557865143, 0.11657384037971497, -0.006370572838932276, 0.04977663233876228, -0.042590782046318054, 0.06517383456230164, -0.08154527842998505, -0.014532618224620819, -0.19255077838897705, 0.06752781569957733, -0.10370871424674988, 0.10412945598363876, 0.07918981462717056, 0.09892456233501434, 0.0840904712677002, -0.06414411962032318, -0.11088152974843979, -0.016553502529859543, 0.0942116305232048, 0.011908544227480888, 0.043645698577165604, 0.06504765152931213, -0.029320204630494118, 0.14155614376068115, 0.009462038055062294, 0.023226382210850716, 0.037778064608573914, -0.057494331151247025, -0.0914110392332077, -0.10233757644891739, 0.1811709851026535, -0.05253298580646515, -0.16918900609016418, 0.15276767313480377, 0.1810697317123413, 0.08639530837535858, -0.017469901591539383, -0.08246020972728729, 0.014547918923199177], [0.1372566521167755, 0.07658544927835464, -0.05773936212062836, -0.12423162162303925, -0.12720954418182373, -0.11541197448968887, 0.007626290433108807, 0.10433629900217056, 0.0758911669254303, 0.025325076654553413, -0.008298126049339771, -0.05177357420325279, -0.0015310035087168217, 0.009237829595804214, -0.17350368201732635, -0.10337748378515244, 0.1697697788476944, -0.12695974111557007, -0.20596525073051453, 0.04844559729099274, 0.052070360630750656, -0.16187703609466553, 0.03665957599878311, 0.13001106679439545, -0.08432736992835999, 0.10074266791343689, 0.06205306574702263, -0.09262935072183609, -0.04417239874601364, -0.09921207278966904, 0.013340076431632042, 0.024521511048078537, -0.029820211231708527, -0.028901992365717888, -0.036314889788627625, -0.1244247630238533, 0.09508967399597168, -0.11069171130657196, -0.13596700131893158, 0.007295154966413975, -0.11805865168571472, 0.006825266405940056, -0.11592913419008255, -0.03392159938812256, -0.13989391922950745, -0.1179163008928299, 0.07071711868047714, 0.003980100154876709, -0.06095562502741814, -0.03650413081049919, -0.12761753797531128, -0.19197118282318115, -0.05129047855734825, -0.010122248902916908, -0.011403869837522507, -0.250881552696228, -0.04071880877017975, 0.05846233665943146, -0.026408586651086807, -0.19013041257858276, 0.11906907707452774, 0.09337452799081802, -0.04878131300210953, 0.09393420070409775, -0.18552371859550476, -0.05842738598585129, -0.09782563149929047, -0.12247661501169205, 0.06377030909061432, 0.13979433476924896, 0.019414829090237617, 0.21517661213874817, -0.1295149177312851, -0.03559552878141403, -0.08634588122367859, 0.02808217704296112, -0.0012948717921972275, -0.09197473526000977, -0.05558843910694122, -0.20443923771381378, -0.24488064646720886, 0.008900128304958344, -0.08465851843357086, -0.019877005368471146, 0.05569642782211304, -0.005235924385488033, -0.00021816138178110123, 0.10817977786064148, -0.1261868178844452, 0.014898624271154404, 0.11320385336875916, 0.010322347283363342, -0.07186752557754517, -0.09980927407741547, -0.13490280508995056, -0.06574633717536926], [-0.029380442574620247, -0.046934258192777634, 0.41177988052368164, 0.036471374332904816, 0.05043860524892807, 0.086848184466362, -0.023612920194864273, 0.053985122591257095, 0.11222518980503082, 0.0009930951055139303, 0.04316096380352974, 0.0719347670674324, -0.11454156786203384, -0.009357145056128502, -0.10835697501897812, -0.08310915529727936, 0.034730080515146255, -0.06397288292646408, 0.13344994187355042, -0.11321823298931122, 0.06818623095750809, -0.05458908528089523, 0.050835490226745605, -0.15302333235740662, -0.15473996102809906, 0.1731295883655548, 0.13936109840869904, -0.03895473852753639, -0.1293620616197586, 0.05247753486037254, -0.13436861336231232, 0.018772335723042488, -0.08274895697832108, -0.03442220017313957, 0.1119329184293747, 0.016019318252801895, 4.9853697419166565e-05, 0.10192018747329712, -0.07858943194150925, -0.001548754284158349, 0.013294592499732971, -0.03994501382112503, 0.038214538246393204, -0.15908761322498322, 0.005404680036008358, -0.20619133114814758, -0.08803094178438187, 0.06393943727016449, -0.15761567652225494, -0.07127268612384796, -0.02742437645792961, 0.04978373274207115, 0.10462336242198944, 0.003877578768879175, -0.1740371286869049, 0.08248551934957504, -0.06620673835277557, 0.14244580268859863, 0.13504399359226227, 0.02790854126214981, 0.15492039918899536, -0.08989929407835007, 0.11720997840166092, 0.05264177545905113, 0.039549920707941055, 0.09506605565547943, -0.11058259755373001, 0.11740930378437042, 0.03865696117281914, 0.05607983097434044, 0.09728210419416428, 0.04383508861064911, 0.1199745237827301, -0.15424591302871704, 0.02242439053952694, -0.1548132747411728, -0.04429994896054268, -0.02340845763683319, -0.002886159811168909, -0.034674257040023804, 0.13358533382415771, -0.1465425342321396, 0.18759974837303162, 0.06248077005147934, 0.024047035723924637, -0.13068601489067078, -0.049262598156929016, 0.01264331117272377, -0.18228106200695038, -0.005277764983475208, 0.05452440306544304, 0.0371435210108757, 0.09753300994634628, -0.1068594753742218, -0.07715639472007751, 0.052154865115880966], [0.01873668283224106, -0.03644922748208046, -0.1998998522758484, 0.018966617062687874, 0.01576331816613674, -0.056121066212654114, -0.1257224678993225, 0.05004023015499115, 0.04471539705991745, 0.01807183213531971, 0.03451932221651077, -0.0007983211544342339, -0.08336129039525986, -0.12267497181892395, -0.09602254629135132, -0.08624056726694107, -0.12906084954738617, 0.08143029361963272, 0.014256472699344158, 0.020529402419924736, 0.1704205721616745, -0.01273510605096817, 0.04117097333073616, -0.03983377292752266, -0.1099872961640358, 0.03417568653821945, -0.26397308707237244, 0.17965714633464813, 0.04009038582444191, -0.03983257710933685, -0.197129487991333, 0.0648358017206192, 0.020741641521453857, -0.18033012747764587, -0.1840399205684662, -0.05776601657271385, -0.09374883770942688, 0.16801302134990692, -0.1414564847946167, 0.10926590114831924, -0.09093715995550156, -0.02469257079064846, -0.17492812871932983, 0.06863497942686081, 0.03963311016559601, -0.10938376933336258, 0.14949679374694824, 0.04587382450699806, 0.08454431593418121, 0.13785302639007568, -0.04413007199764252, -0.06643521785736084, 0.08636245876550674, -0.024247100576758385, -0.014887180179357529, -0.0853421539068222, -0.014938930049538612, 0.08857636898756027, 0.07511138916015625, 0.01856369525194168, 0.09434308111667633, -0.04630693048238754, -0.020499657839536667, 0.12132231891155243, 0.006874298211187124, 0.07261878252029419, -0.12491032481193542, 0.08636054396629333, 0.004487495869398117, -0.19095267355442047, -0.2476605623960495, -0.05789477005600929, 0.07235118001699448, -0.008239299058914185, 0.10696824640035629, -0.07753069698810577, 0.10532109439373016, 0.08866682648658752, 0.08369817584753036, -0.01474839635193348, 0.12170346081256866, -0.01960494928061962, -0.11307107657194138, -0.04503343626856804, 0.018329720944166183, -0.06788791716098785, -0.19743026793003082, 0.058962222188711166, -0.11241139471530914, -0.053643811494112015, -0.11731099337339401, -0.013470625504851341, -0.1270267218351364, 0.022505225613713264, 0.21356479823589325, -0.13794343173503876], [-0.0952364057302475, -0.05691659078001976, 0.041188839823007584, -0.1353759765625, 0.1176716610789299, 0.11605942249298096, 0.21242092549800873, 0.27076256275177, -0.17123693227767944, -0.008977617137134075, -0.1950279325246811, -0.029544085264205933, 0.014867844060063362, 0.01925928331911564, -0.01659213751554489, 0.009909636341035366, 0.0707688108086586, -0.05454622209072113, 0.023419255390763283, -0.12500858306884766, 0.03720911592245102, -0.07629039138555527, 0.026243938133120537, 0.01179257221519947, -0.0002654732670634985, 0.06337074190378189, -0.058657530695199966, 0.2341565191745758, -0.08161698281764984, 0.018443094566464424, 0.06618954241275787, -0.0524771548807621, 0.08192726224660873, 0.029937390238046646, 0.015367505140602589, -0.16630706191062927, 0.041270650923252106, -0.02872549742460251, 0.05137856304645538, 0.1362360119819641, -0.018689367920160294, -0.20195505023002625, -0.03773252293467522, 0.18273508548736572, -0.10262731462717056, 0.08651510626077652, 0.042777009308338165, 0.13409289717674255, -0.06031065434217453, -0.13966646790504456, 0.0365469865500927, -0.014891055412590504, -0.34553059935569763, 0.06832503527402878, -0.1025792583823204, -0.07574200630187988, 0.1920793354511261, -0.027401458472013474, 0.014307795092463493, -0.021277254447340965, -0.009303491562604904, 0.040972691029310226, -0.005023769102990627, 0.008611381985247135, 0.02885381691157818, 0.1037655621767044, -0.06627979129552841, 0.043044980615377426, 0.08086206763982773, 0.019370147958397865, 0.042125292122364044, -0.0482683889567852, -0.029512323439121246, 0.10935084521770477, 0.2860560715198517, 0.05579415708780289, -0.004422706086188555, -0.028002340346574783, -0.09551163762807846, -0.13194333016872406, 0.14055921137332916, -0.0778132975101471, 0.08345631510019302, 0.0247969813644886, 0.1756870299577713, 0.0035222889855504036, 0.05656089633703232, -0.027646485716104507, -0.026869161054491997, 0.030305737629532814, -0.04485815390944481, 0.02032887563109398, 0.0380474254488945, 0.18545393645763397, 0.05666045844554901, -0.022535290569067], [0.019303282722830772, -0.04710671305656433, 0.04398181661963463, 0.1343706250190735, -0.1030694991350174, 0.13512387871742249, -0.12504248321056366, 0.044577229768037796, -0.2066103219985962, 0.005449403543025255, -0.07327747344970703, 0.07955748587846756, -0.15929923951625824, 0.223549947142601, 0.007357082795351744, 0.1315789520740509, -0.14271953701972961, 0.19415199756622314, -0.13594789803028107, 0.03823237493634224, 0.11363277584314346, 0.08987820148468018, 0.017285490408539772, -0.1066313087940216, -0.05316901579499245, 0.05195644870400429, -0.052922893315553665, -0.023317990824580193, 0.2037089765071869, -0.11983033269643784, 0.11522814631462097, 0.07640618830919266, -0.1305798888206482, -0.06667567789554596, 0.04678213968873024, 0.043484169989824295, 0.10467154532670975, 0.06531400978565216, 0.08167380094528198, -0.08171932399272919, -0.01144256442785263, 0.08620117604732513, -0.3210434913635254, -0.15017741918563843, 0.06738773733377457, 0.015616112388670444, -0.15821737051010132, -0.03274323046207428, -0.022979676723480225, 0.03998054191470146, 0.06549825519323349, -0.0958859771490097, -0.1623077392578125, -0.09505560249090195, -0.08864027261734009, 0.00034500728361308575, -0.042432624846696854, 0.0719183087348938, 0.11270187795162201, 0.035592611879110336, 0.018560631200671196, 0.02958916313946247, 0.10253094136714935, -0.05140606686472893, 0.04984090477228165, 0.1506214141845703, -0.06356871128082275, -0.056732043623924255, 0.04748481884598732, 0.10438378155231476, 0.13712617754936218, 0.030201701447367668, 0.15956544876098633, 0.031628090888261795, 0.03613116219639778, 0.07783176749944687, 0.0037942342460155487, -0.14760355651378632, -0.018731847405433655, 0.0050064073875546455, -0.17296983301639557, -0.07205072045326233, -0.1505335420370102, -0.04759465530514717, 0.04598372429609299, 0.03626029193401337, 0.07624746114015579, 0.0960952490568161, 0.0125779053196311, 0.08192833513021469, -0.20211030542850494, 0.02724752575159073, -0.11234579235315323, 0.08976084738969803, -0.017319491133093834, 0.08737049996852875], [-0.21138474345207214, -0.024902625009417534, 0.025201890617609024, 0.07909302413463593, 0.009108470752835274, -0.1359662264585495, -0.009641963988542557, 0.19726872444152832, 0.048780735582113266, -0.16676053404808044, 0.054436229169368744, -0.024022798985242844, 0.13051265478134155, 0.020279597491025925, 0.05015159398317337, 0.05422705411911011, -0.007543807849287987, -0.2209431678056717, 0.13084502518177032, -0.1895139515399933, 0.11955156922340393, -0.10603146255016327, 0.10615382343530655, 0.08194669336080551, -0.062096595764160156, 0.07506006956100464, -0.11952779442071915, -0.042905837297439575, -0.18675360083580017, -0.017177101224660873, 0.01039095874875784, -0.0026862365193665028, -0.032935816794633865, 0.15030577778816223, -0.010107781738042831, -0.017193425446748734, 0.023589864373207092, 0.026105983182787895, 0.06701979786157608, 0.0473971962928772, -0.1137247085571289, 0.07156607508659363, -0.3056027591228485, -0.0030003562569618225, 0.2754952907562256, 0.07616617530584335, -0.007812858559191227, 0.02631087601184845, 0.016670556738972664, 0.17548394203186035, 0.020741207525134087, 0.05396997183561325, 0.164203941822052, -0.025093404576182365, 0.06391371786594391, 0.17146044969558716, -0.04309165105223656, -0.0778360515832901, 0.1197083592414856, 0.01974564976990223, -0.051499929279088974, 0.12163923680782318, 0.08384603261947632, 0.11697660386562347, -0.16400471329689026, -0.12478254735469818, 0.08719039708375931, -0.0937218889594078, 0.032912127673625946, 0.10573238879442215, 0.0004588151350617409, 0.08192724734544754, -0.04882466048002243, -0.09786196798086166, -0.0031419359147548676, -0.03724576532840729, -0.11067339777946472, -0.05338651314377785, -0.10204155743122101, -0.02921062335371971, 0.08458799123764038, 0.09609048068523407, -0.0571635402739048, -0.03618235141038895, 0.1068098321557045, 0.14455386996269226, -0.06587167829275131, -0.06639529764652252, 0.11708275228738785, 0.13049352169036865, -0.005011029541492462, -0.09467870742082596, -0.0418107844889164, 0.06392600387334824, 0.045471638441085815, 0.13348937034606934], [-0.09951844811439514, 0.2062389999628067, 0.08835038542747498, -0.045383553951978683, -0.2651454508304596, -0.16982606053352356, 0.104801706969738, -0.08381988853216171, -0.28100666403770447, -0.17618800699710846, 0.00459599494934082, -0.03680863603949547, -0.023457329720258713, -0.041390616446733475, -0.10533446818590164, -0.08945317566394806, 0.14322616159915924, 0.12322577834129333, -0.11069706827402115, -0.04367721825838089, 0.09303276240825653, -0.052383873611688614, -0.06671640276908875, -0.00028614141047000885, -0.04204248636960983, -0.0032603852450847626, 0.08626068383455276, 0.07032803446054459, -0.15987098217010498, 0.0034019523300230503, -0.12046810984611511, -0.04228634759783745, 0.07279207557439804, -0.039110153913497925, -0.014526406303048134, -0.02994522638618946, -0.04845534265041351, -0.12652720510959625, 0.06594181060791016, 0.06108041852712631, 0.05761690437793732, 0.10366065800189972, 0.1156332790851593, -0.06534834951162338, -0.10685502737760544, 0.00963656697422266, -0.0870402529835701, -0.009455474093556404, 0.01632789522409439, 0.009629787877202034, -0.06384953111410141, 0.09949538856744766, -0.019422955811023712, -0.0840478390455246, 0.008039718493819237, 0.09927026927471161, -0.12979114055633545, -0.021892009302973747, -0.08514539897441864, -0.054866302758455276, 0.1268959641456604, -0.07533732801675797, 0.24188916385173798, -0.11481879651546478, -0.15806536376476288, -0.0196993425488472, -0.034079499542713165, -0.17170347273349762, 0.020145358517766, -0.00492602726444602, -0.022419273853302002, 0.04324176162481308, 0.0916994959115982, 0.10354044288396835, 0.1248791366815567, -0.08485563099384308, 0.12843841314315796, -0.08032985776662827, 0.1266552209854126, 0.09043388068675995, 0.09424757212400436, 0.05366325378417969, -0.16185861825942993, -0.02055167220532894, -0.0760202407836914, -0.15284065902233124, -0.1824638694524765, -0.04280073940753937, 0.13898856937885284, -0.029055379331111908, -0.08016344904899597, 0.040171995759010315, 0.05621285364031792, 0.20431827008724213, 0.03578939661383629, 0.05565353482961655], [0.0011532725766301155, -0.08635883033275604, -0.01367726270109415, -0.1345444768667221, 0.11517894268035889, 0.009214886464178562, 0.09585043042898178, -0.17716091871261597, -0.043338023126125336, -0.105569988489151, -0.07214602082967758, 0.11676902323961258, 0.04097004607319832, -0.15457814931869507, -0.25127077102661133, 0.03907628729939461, -0.05345791205763817, 0.12926733493804932, 0.05314602330327034, -0.038595184683799744, -0.01995106041431427, -0.1612003743648529, -0.04275660216808319, -0.11520019918680191, 0.1335950642824173, -0.03388940542936325, -0.06974417716264725, 0.020054953172802925, -0.09049037098884583, -0.02189127914607525, 0.08921296894550323, -0.015599519945681095, 0.05594877153635025, -0.07659322768449783, -0.17963968217372894, -0.08250291645526886, 0.14242582023143768, -0.11746975034475327, -0.003767280373722315, -0.030635986477136612, -0.23720106482505798, 0.21638892590999603, 0.076139435172081, -0.1732385754585266, 0.16160596907138824, 0.1778154969215393, -0.10610302537679672, 0.21628066897392273, -0.13539914786815643, 0.1151193380355835, 0.1201731488108635, -0.002286526607349515, 0.0229488518089056, -0.051088541746139526, -0.06623928248882294, 0.005231688264757395, 0.14321523904800415, 0.06996619701385498, -0.03807533532381058, -0.03903153911232948, -0.0601307637989521, -0.11510558426380157, -0.1957189440727234, -0.09764450788497925, -0.12822623550891876, -0.0055356393568217754, -0.1765914410352707, 0.08099627494812012, -0.12214191257953644, 0.09054867178201675, 0.062154240906238556, -0.14523935317993164, 0.0018403882859274745, -0.12398848682641983, -0.02408371865749359, 0.009604234248399734, -0.10404635965824127, -0.05887962877750397, -0.04664352163672447, -0.03183383122086525, -0.01564844511449337, -0.09228731691837311, -0.08225532621145248, 0.040048304945230484, -0.038851115852594376, -0.08481243252754211, -0.004992104601114988, 0.058161135762929916, 0.09564121067523956, -0.09049367159605026, 0.03421022370457649, -0.08857794851064682, -0.06365979462862015, -0.10539747029542923, 0.02372262440621853, 0.011888050474226475], [-0.06023360788822174, -0.15661010146141052, -0.08234376460313797, -0.03848227858543396, 0.24399258196353912, -0.058913830667734146, 0.0843074768781662, -0.18964625895023346, -0.0206316951662302, 0.03084409236907959, 0.08630551397800446, -0.0918990895152092, -0.08433869481086731, 0.09505486488342285, -0.08594533056020737, 0.01742487959563732, 0.23172876238822937, 0.0491042286157608, 0.04417042434215546, -0.10835844278335571, 0.010985944420099258, 0.10327527672052383, -0.18247415125370026, -0.06183269992470741, -0.1825222223997116, 0.008160940371453762, 0.04201466590166092, -0.17801760137081146, -0.05266072228550911, -0.03320741653442383, -0.05723791569471359, 0.0551922470331192, 0.0032193446531891823, 0.02361473999917507, 0.04709599167108536, -0.08500123769044876, 0.08843456208705902, 0.05629100650548935, 0.13617736101150513, -0.07164616882801056, 0.035745736211538315, 0.04718928784132004, 0.04113640636205673, 0.010488579049706459, -0.009190033189952374, 0.003883074037730694, -0.15537376701831818, 0.02040952444076538, -0.14373376965522766, 0.1598210334777832, -0.053695641458034515, -0.0051193684339523315, -0.23266103863716125, -0.16274365782737732, 0.08780595660209656, 0.0461210235953331, 0.12256336957216263, 0.0009081517346203327, 0.09435027837753296, 0.007602628320455551, 0.0661599412560463, 0.1370815634727478, -0.12811362743377686, 0.1859089434146881, 0.035311952233314514, -0.15560409426689148, 0.05802023410797119, -0.08058593422174454, -0.07580765336751938, -0.04892761632800102, -0.1224185898900032, 0.06180524080991745, 0.2526533603668213, 0.07124757021665573, 0.0013863963540643454, 0.07208362966775894, 0.1664399653673172, 0.026081683114171028, 0.1047494038939476, 0.03553992137312889, -0.09966050833463669, 0.11750069260597229, 0.10085669159889221, 0.036693643778562546, 0.17297983169555664, 0.12915970385074615, -0.14606620371341705, -0.011818211525678635, -0.10754109919071198, -0.05479303374886513, 0.03535650670528412, -0.009424778632819653, 0.04184360057115555, -0.041921257972717285, 0.09357648342847824, -0.028642108663916588], [-0.06257859617471695, 0.14418357610702515, -0.19162550568580627, 0.07697810977697372, 0.04770764335989952, 0.05602969974279404, 0.0030279322527348995, 0.08287712931632996, -0.07232552021741867, 0.15601864457130432, 0.182281032204628, -0.06781713664531708, 0.10528013110160828, -0.07526353001594543, -0.12372028827667236, 0.08915772289037704, -0.17412175238132477, 0.023099413141608238, 0.12011231482028961, 0.08551130443811417, 0.0026767186354845762, -0.08097930252552032, 0.047664523124694824, 0.07494524121284485, 0.009229031391441822, -0.04451460763812065, 0.13095256686210632, -0.13332557678222656, -0.0014056246727705002, -0.003045884659513831, -0.007677352521568537, 0.06845966726541519, 0.034831881523132324, 0.006403500214219093, 0.22785955667495728, -0.0768432468175888, -0.028390977531671524, 0.013195849023759365, -0.1214667335152626, -0.13646136224269867, 0.20689447224140167, -0.021474765613675117, -0.11381927877664566, 0.08770497888326645, 0.12037032842636108, -0.08129038661718369, 0.06067735701799393, 0.08025405555963516, -0.1565595269203186, 0.012934280559420586, -0.19874317944049835, 0.04184374958276749, 0.02179441787302494, -0.02259039506316185, -0.02483515255153179, 0.03881748393177986, 0.10464195907115936, -0.12034671753644943, -0.179762065410614, -0.12329129129648209, -0.029684117063879967, -0.016930393874645233, 0.023381516337394714, -0.01042255386710167, -0.01407783292233944, -0.012319869361817837, -0.0836951956152916, 0.07614980638027191, -0.14129158854484558, 0.1587543934583664, 0.07262179255485535, -0.09614690393209457, 0.037321537733078, -0.06974521279335022, 0.025367237627506256, 0.19607578217983246, 0.07479116320610046, 0.05177413299679756, -0.09095460176467896, 0.006003746762871742, -0.022594530135393143, -0.18149517476558685, -0.1637369841337204, 0.06542704254388809, 0.016831815242767334, -0.07925702631473541, -0.2112559825181961, 0.08474186062812805, -0.02885325625538826, 0.05586165189743042, -0.08887820690870285, 0.06973088532686234, 0.29468661546707153, 0.06642431765794754, 0.058032359927892685, 0.052582792937755585], [-0.0994616448879242, -0.01473279856145382, 0.1379455327987671, -0.01564943790435791, -0.0912681370973587, -0.08013727515935898, 0.07526316493749619, -0.009921405464410782, -0.06716759502887726, -0.055838048458099365, 0.21597982943058014, 0.13851048052310944, -0.08626831322908401, -0.17091503739356995, 0.22399072349071503, 0.08730988949537277, 0.14408531785011292, -0.02781766466796398, 0.04517762362957001, -0.02417927421629429, 0.18665538728237152, 0.033219609409570694, -0.04730014130473137, -0.09457242488861084, 0.13396528363227844, -0.0607045441865921, -0.013561949133872986, 0.11168412864208221, 0.1611539125442505, 0.13630220293998718, 0.000985903898254037, -0.07196490466594696, 0.13054277002811432, -0.12287059426307678, 0.13389255106449127, 0.09515079110860825, 0.1360703706741333, -0.005089698825031519, 0.02940935641527176, -0.04878261312842369, 0.03357627987861633, 0.11937975138425827, -0.03696289658546448, 0.15887807309627533, -0.051762934774160385, -0.045440301299095154, 0.050367895513772964, 0.06533455103635788, -0.10572679340839386, 0.20906668901443481, 0.012262223288416862, -0.00325657706707716, -0.004368380643427372, 0.0826820582151413, -0.1276216357946396, -0.1735135018825531, -0.03477802500128746, -0.08417902886867523, -0.04370729997754097, -0.0274749044328928, 0.08246631175279617, 0.2281138002872467, -0.11541096121072769, 0.08423949778079987, -0.015138495713472366, -0.010799020528793335, 0.08221645653247833, 0.11729718744754791, -0.18483178317546844, 0.0744805634021759, 0.07299698144197464, 0.13913041353225708, -0.040189795196056366, -0.0019264991860836744, -0.002439475618302822, 0.061631977558135986, -0.05701029673218727, -0.038321562111377716, 0.07919301092624664, -0.17325566709041595, 0.08924791216850281, 0.04239201918244362, 0.007982355542480946, -0.14449630677700043, -0.22509777545928955, -0.016671983525156975, 0.062326107174158096, 0.015860244631767273, -0.08567866683006287, -0.06861045211553574, -0.10668140649795532, 0.16479595005512238, -0.05846734717488289, -0.06966815888881683, 0.09738946706056595, 0.0900638997554779], [0.0906282439827919, -0.10038308799266815, 0.043051205575466156, -0.023964283987879753, 0.10964061319828033, -0.20490673184394836, -0.015165363438427448, -0.052684273570775986, -0.053131088614463806, -0.09578052163124084, -0.0720774233341217, 0.016333740204572678, -0.14234577119350433, 0.0003346395678818226, 0.16337226331233978, -0.04537449777126312, -0.10930325835943222, -0.031387098133563995, -0.16480226814746857, -0.028196804225444794, -0.007446332834661007, 0.07284960895776749, -0.06451588869094849, 0.07853562384843826, 0.03470880910754204, 0.07955016195774078, 0.010622723028063774, -0.16584426164627075, -0.07193909585475922, -0.034204401075839996, 0.09015512466430664, -0.025544924661517143, -0.01397374551743269, -0.1415734738111496, -0.0649140477180481, 0.16706427931785583, -0.05798575282096863, -0.01542186364531517, 0.01724207028746605, 0.03141828626394272, 0.09392528235912323, -0.07998406887054443, -0.02901504561305046, -0.11532888561487198, -0.24170884490013123, 0.025422200560569763, -0.09523313492536545, 0.0539073683321476, 0.06604112684726715, 0.055998146533966064, -0.1721651405096054, -0.07646068930625916, 0.03919276222586632, 0.13110898435115814, -0.01385279931128025, 0.014590157195925713, -0.017056889832019806, -0.16671733558177948, -0.020116539672017097, 0.04381953924894333, -0.12422438710927963, 0.16391243040561676, -0.05777609720826149, -0.07664279639720917, -0.12057237327098846, 0.1290765106678009, -0.16060277819633484, -0.02363675832748413, 0.011229190975427628, -0.10256262123584747, 0.10760882496833801, -0.05165506526827812, -0.03367675840854645, -0.12760983407497406, -0.11633028835058212, 0.17480260133743286, 0.004018322564661503, 0.04921947047114372, 0.06653173267841339, -0.10623878240585327, 0.2302597463130951, -0.2612396478652954, 0.07820828258991241, -0.13328586518764496, 0.20101329684257507, 0.06942600756883621, -0.25470125675201416, -0.017868749797344208, 0.1076105460524559, 0.03299550339579582, 0.02724354714155197, -0.09425123780965805, 0.013798071071505547, -0.0395033173263073, 0.053413718938827515, 0.05182654783129692], [0.26252883672714233, 0.006374306045472622, -0.07354114204645157, 0.1562325358390808, -0.036013320088386536, -0.057567451149225235, 0.045383524149656296, -0.12314947694540024, 0.08020102232694626, 0.00959689635783434, 0.049659986048936844, 0.11228997260332108, -0.06392762064933777, -0.02648381143808365, -0.03464624285697937, -0.17185524106025696, -0.015372233465313911, -0.14860373735427856, 0.1511179655790329, 0.005052510648965836, -0.08122090995311737, 0.13919232785701752, 0.054749391973018646, 0.05663531646132469, -0.06926557421684265, -0.10131734609603882, 0.1338818371295929, 0.16744700074195862, -0.006416480988264084, 0.02416459657251835, 0.1052871122956276, -0.1705242097377777, 0.03772225230932236, -0.03375403210520744, -0.08857665956020355, -0.13526029884815216, 0.12052527815103531, -0.08627334237098694, 0.19749724864959717, -0.09494403749704361, -0.1120092123746872, -0.2137388288974762, -0.17642611265182495, -0.08375859260559082, 0.018817132338881493, 0.005036281421780586, 0.018351133912801743, -0.19217480719089508, -0.06735166162252426, 0.08559529483318329, -0.005858992226421833, 0.02256830781698227, 0.021562136709690094, -0.1199449747800827, -0.020463546738028526, 0.026556868106126785, -0.0059783197939395905, -0.08253287523984909, 0.091176837682724, 0.07146279513835907, 0.18882466852664948, 0.03571165353059769, -0.048763781785964966, 0.06612652540206909, 0.058681387454271317, -0.1643538624048233, -0.21520252525806427, -0.02403923310339451, 0.07687431573867798, 0.022908439859747887, 0.12759220600128174, -0.048011284321546555, -0.04098723828792572, 0.21857546269893646, -0.007447618059813976, 0.012594019062817097, -0.07848797738552094, 0.17795105278491974, 0.02200506255030632, 0.05463208258152008, 0.11033172905445099, -0.1313917487859726, -0.10947109758853912, 0.020974837243556976, 0.011779943481087685, -0.09498489648103714, 0.06945100426673889, 0.02930624410510063, 0.048526085913181305, -0.05815993249416351, 0.09246492385864258, 0.13451194763183594, 0.0348978228867054, 0.09576600044965744, 0.049273520708084106, 0.15104940533638], [0.14431709051132202, 0.0805877298116684, -0.024674372747540474, 0.008484155870974064, 0.01850011944770813, 0.1731046885251999, 0.07345318794250488, -0.08021258562803268, 0.02620886079967022, -0.13641226291656494, 0.1863097846508026, 0.027955474331974983, -0.09079685062170029, 0.0534173958003521, -0.05579404532909393, -0.09842229634523392, -0.0043721916154026985, -0.04624653607606888, 0.10205266624689102, -0.1453862190246582, -0.15741440653800964, -0.11879503726959229, -0.027503076940774918, 0.16271817684173584, -0.053166914731264114, -0.1911322921514511, -0.1314450353384018, -0.00016437051817774773, -0.16813388466835022, -0.10673588514328003, 0.04096263274550438, 0.11803972721099854, -0.008770497515797615, -0.12996119260787964, 0.1382398158311844, 0.025967437773942947, -0.013208787888288498, -0.22160427272319794, 0.05291784554719925, 0.1334991455078125, 0.029939312487840652, 0.07072377949953079, -0.12259695678949356, -0.054456677287817, 0.004502439871430397, -0.21310977637767792, -0.06930229067802429, -0.15576381981372833, 0.0639587864279747, -0.09552676975727081, 0.010100181214511395, -0.10299081355333328, -0.06986552476882935, 0.0410882905125618, -0.03693268075585365, 0.05246928334236145, 0.03673682361841202, 0.08930451422929764, -0.12691637873649597, 0.005405310541391373, -0.11524616926908493, 0.018774067983031273, 0.1306581199169159, 0.009370599873363972, -0.006348055321723223, -0.03774210810661316, 0.07871989160776138, 0.15711650252342224, -0.16524657607078552, -0.02627698704600334, 0.028162555769085884, -0.02746373973786831, 0.05860808864235878, -0.0033340980298817158, -0.10082260519266129, -0.00015397171955555677, 0.16554957628250122, -0.0569051131606102, -0.03639578819274902, -0.14659585058689117, 0.24305136501789093, 0.039655692875385284, 0.0004979644436389208, 0.11993274837732315, -0.005633442662656307, 0.1777295470237732, 0.12491730600595474, 0.08330386132001877, 0.02128094807267189, -0.12356901168823242, -0.180551677942276, -0.004319408908486366, -0.16797290742397308, 0.005219560116529465, -0.0431375727057457, -0.0831456333398819], [-0.11969791352748871, 0.08437316119670868, -0.062376849353313446, 0.013828344643115997, 0.011540651321411133, 0.012808576226234436, 0.04313460737466812, -0.08295881748199463, -0.02287750132381916, -0.05403238534927368, -0.1096658706665039, 0.050627510994672775, 0.05827469006180763, -0.16391049325466156, -0.11974425613880157, -0.1678391695022583, 0.10292494297027588, -0.03608982264995575, 0.016042303293943405, 0.011034846305847168, 0.09069810062646866, -0.04263120889663696, -0.0158853679895401, 0.06286925822496414, -0.022434063255786896, -0.01889115944504738, 0.02790902927517891, 0.07560138404369354, 0.09306462109088898, -0.1341036558151245, 0.10089308023452759, 0.07145620882511139, 0.06858092546463013, 0.10300257056951523, 0.018060404807329178, -0.013007760979235172, -0.04434185102581978, 0.16065388917922974, -0.17978814244270325, -0.16575533151626587, 0.14364251494407654, 0.0632534995675087, 0.05805447697639465, -0.10619214177131653, 0.20563741028308868, -0.06683128327131271, 0.07462077587842941, -0.05817268416285515, 0.047288596630096436, -0.0009798998944461346, -0.02170397713780403, 0.03470133990049362, -0.07384784519672394, 0.024615352973341942, -0.052683573216199875, 0.017314009368419647, -0.12511907517910004, -0.03980567306280136, -0.010303327813744545, -0.10162979364395142, -0.13826614618301392, 0.27772700786590576, 0.1455056369304657, -0.10364925861358643, -0.002262870315462351, 0.005700091365724802, -0.10443443059921265, -0.12080502510070801, -0.008667346090078354, -0.266062468290329, 0.049717046320438385, 0.02123429626226425, 0.027933742851018906, 0.026006430387496948, 0.09989479184150696, -0.029614413157105446, -0.11454359441995621, 0.05730822682380676, -0.05725640803575516, 0.06829815357923508, -0.04504427686333656, -0.02577129751443863, 0.1966075599193573, -0.0805535614490509, 0.22841857373714447, -0.01479154359549284, 0.19957610964775085, 0.17629718780517578, 0.06627842783927917, -0.23399962484836578, -0.09343571960926056, 0.06415418535470963, -0.03500285744667053, -0.18066571652889252, 0.06809814274311066, 0.1180645227432251], [-0.0020461000967770815, -0.17869918048381805, -0.1037723571062088, -0.06359256058931351, -0.09125684946775436, -0.0857958048582077, -0.1924065500497818, -0.14941160380840302, -0.10589305311441422, 0.04977812618017197, -0.005926343612372875, -0.061447009444236755, 0.17830725014209747, 0.026937050744891167, -0.16065609455108643, -0.036032430827617645, 0.06632941216230392, 0.14940622448921204, -0.0981256514787674, -0.19974583387374878, 0.06569036096334457, -0.11322560161352158, 0.0027088418137282133, 0.044332168996334076, 0.09184995293617249, 0.05836765095591545, -0.07694776356220245, 0.07384020835161209, -0.22784413397312164, 0.09987826645374298, -0.04266710579395294, -0.0645800307393074, -0.048154328018426895, -0.06047828122973442, 0.1292749047279358, 0.0012807411840185523, -0.05824856460094452, 0.04986144229769707, -0.04915081709623337, -0.09603168815374374, -0.08233282715082169, -0.031761713325977325, -0.17406052350997925, 0.08790753036737442, -0.012239220552146435, 0.05768371745944023, -0.10717158764600754, -0.26157134771347046, -0.09266199171543121, -0.16139590740203857, -0.026819754391908646, -0.04593276232481003, -0.01924697682261467, 0.15368908643722534, 0.05589551851153374, -0.04576784372329712, 0.13991425931453705, -0.04866959527134895, 0.06232720613479614, 0.09458419680595398, 0.036434903740882874, 0.06316366046667099, -0.09914067387580872, -0.050572775304317474, 0.06373989582061768, -0.02195771224796772, 0.13055342435836792, 0.1657734215259552, 0.05613071843981743, -0.17391493916511536, 0.21536299586296082, -0.05075012147426605, -0.049605969339609146, -0.0941009595990181, -0.053030505776405334, -0.06695099920034409, 0.009349441155791283, -0.04034858196973801, 0.09024571627378464, 0.12394159287214279, 0.04216745123267174, 0.12592244148254395, -0.05678572133183479, -0.16941507160663605, 0.02998691238462925, -0.1391049474477768, 0.04289204254746437, 0.04083963483572006, -0.05292670428752899, 0.1091516762971878, -0.05419078841805458, 0.10444789379835129, 0.14530321955680847, -0.125530406832695, -0.07243303954601288, 0.08262839168310165], [-0.0038779762107878923, 0.006623603869229555, -0.0011205993359908462, -0.15962684154510498, 0.047261010855436325, 0.09393429756164551, -0.01133815385401249, 0.08543675392866135, 0.05584480240941048, 0.0032943319529294968, 0.06356357783079147, -0.21222464740276337, -0.05161504074931145, 0.08294389396905899, -0.08901114016771317, 0.028629379346966743, -0.012027033604681492, 0.023692581802606583, 0.0008907428127713501, -0.12364602088928223, 0.03767329826951027, 0.07474291324615479, 0.19338908791542053, 0.0661730244755745, 0.10733854025602341, 0.1445041298866272, 0.09522528201341629, -0.10818841308355331, 0.05875975266098976, 0.10915356129407883, -0.06392771005630493, -0.043570779263973236, -0.002106752712279558, -0.012900575995445251, 0.13439659774303436, -0.11956196278333664, -0.0020463671535253525, -0.21983782947063446, 0.12455649673938751, -0.037372887134552, 0.05779806524515152, -0.0856134295463562, 0.04143020138144493, -0.2192894071340561, 0.19309553503990173, 0.01331044640392065, 0.2545187473297119, 0.024168070405721664, -0.04852393642067909, 0.07552492618560791, -0.10964478552341461, -0.04625736176967621, -0.08585403114557266, 0.08111125975847244, -0.09784357994794846, -0.10694960504770279, -0.18189163506031036, 0.1180034652352333, 0.04783521592617035, 0.022124197334051132, 0.05185312777757645, -0.03322524204850197, -0.002336196368560195, -0.1021331325173378, -0.036340657621622086, -0.025951366871595383, 0.09598977863788605, 0.008826383389532566, -0.013840461149811745, -0.1730860322713852, -0.02607817016541958, -0.22706086933612823, 0.054757412523031235, -0.05334202200174332, -0.1735435277223587, 0.15956656634807587, -0.06883905827999115, -0.10803577303886414, 0.1318834125995636, 0.026798758655786514, -0.005218452773988247, 0.06427820771932602, 0.051779795438051224, -0.1589522659778595, -0.009281713515520096, -0.09596700221300125, 0.057737186551094055, -0.06359962373971939, 0.03119082748889923, -0.025628605857491493, 0.0992816835641861, 0.008784078992903233, -0.18201042711734772, 0.18068885803222656, 0.21930557489395142, 0.008155746385455132]]}, "input_size": 120, "conv1d_stride": 12, "conv1d_1_stride": 12}