{"conv1d": {"bias:0": [0.010696271434426308, -0.00850952509790659, 0.0007872269488871098, 0.0001219250843860209], "kernel:0": [[[-2.880305767059326, 0.5116937756538391, 0.7211872339248657, 0.14766599237918854]], [[-3.954751968383789, 1.5804561376571655, -0.7929137945175171, -0.4796368181705475]], [[-4.245465278625488, 2.0581817626953125, -1.1248087882995605, -1.0587369203567505]], [[-3.609401226043701, 2.471928358078003, -1.6932073831558228, -1.0537478923797607]], [[-3.473026990890503, 2.649116039276123, -1.9324458837509155, -1.3609241247177124]], [[-2.2883806228637695, 2.705026626586914, -2.837021589279175, -1.467325210571289]], [[-1.2063618898391724, 2.8475916385650635, -2.903773307800293, -1.6981432437896729]], [[-0.21717071533203125, 2.352144956588745, -3.082165479660034, -1.491032361984253]], [[1.6345089673995972, 2.1473371982574463, -2.781707763671875, -1.1507452726364136]], [[3.021885633468628, 1.208132028579712, -2.0033161640167236, -0.6696369051933289]], [[4.2490620613098145, 0.08248952031135559, -0.9341130256652832, -0.07660524547100067]], [[1.8370039463043213, 0.593373715877533, -0.9949018955230713, -0.4693658649921417]]]}, "conv1d_1": {"bias:0": [-0.044044379144907, 0.0022073620930314064, -0.002229026285931468, 0.0484066866338253], "kernel:0": [[[-0.24109292030334473, 0.7415007948875427, 0.4327910542488098, -0.06704457849264145], [0.11041317135095596, -0.31744587421417236, -0.0005688868695870042, -0.10443012416362762], [0.05856712535023689, 0.2089565098285675, 0.1472223550081253, -0.42704182863235474], [-0.05216965824365616, 0.11703737825155258, 0.3512454628944397, -0.05629925802350044]], [[-0.03973688185214996, -0.056674372404813766, -0.11181733012199402, 0.050483159720897675], [0.23105816543102264, -0.14947332441806793, -0.027956731617450714, -0.01802224852144718], [0.13457950949668884, 0.21859849989414215, 0.17585153877735138, -0.03387776389718056], [0.15130576491355896, 0.1423516869544983, 0.43313080072402954, 0.15162120759487152]], [[-0.3432084619998932, 0.047241389751434326, -0.023390641435980797, -0.05769713595509529], [0.07046075165271759, -0.27789849042892456, -0.056286510080099106, 0.14405591785907745], [-0.25776126980781555, 0.12479943037033081, 0.09244082123041153, 0.05031969025731087], [0.020543690770864487, 0.061167750507593155, 0.0023056743666529655, -0.1922837346792221]], [[-0.25180789828300476, -0.22142399847507477, -0.2804834544658661, 0.09918238967657089], [0.07700684666633606, 0.3330438733100891, -0.18394145369529724, 0.1113065555691719], [0.5355091691017151, -0.19026720523834229, 0.36111295223236084, 0.15941999852657318], [0.270191490650177, -0.04971885681152344, 0.16591030359268188, 0.1552044153213501]], [[-0.4861826002597809, 1.2761205434799194, 0.03183943033218384, -0.5435298085212708], [0.518012523651123, -0.409694641828537, 0.007426396943628788, 0.1789490282535553], [-0.5535138249397278, 0.35575154423713684, 0.1935449093580246, -0.4083578288555145], [-0.29108381271362305, 0.26484668254852295, -0.23019026219844818, -0.023783095180988312]], [[-1.5831067562103271, 0.6753220558166504, -0.20485414564609528, 0.04650847986340523], [-0.23696863651275635, -0.7559630274772644, 1.615107536315918, 0.645703911781311], [0.8045787811279297, 0.8825445771217346, -1.91274094581604, -0.8835688233375549], [0.5935328006744385, 1.0096615552902222, -1.4511263370513916, -0.6469354033470154]], [[3.347118854522705, 1.263522982597351, -2.355930805206299, 1.568256139755249], [-1.784404993057251, -0.492689847946167, -0.3555178642272949, -2.206531286239624], [0.9558915495872498, 0.6153526902198792, 0.9752557277679443, 2.454495668411255], [1.100070834159851, 0.39971140027046204, 0.6403244137763977, 1.6989643573760986]], [[-1.1276752948760986, -2.4467649459838867, 2.447740077972412, -1.7824506759643555], [1.2214694023132324, 0.9963128566741943, -1.8147298097610474, 1.282671332359314], [-1.0906851291656494, -0.6105281710624695, 1.35305917263031, -1.3609025478363037], [-0.8238751888275146, -1.039358139038086, 1.2684392929077148, -1.1009812355041504]], [[0.5745886564254761, -0.6405717730522156, 1.2045756578445435, -0.12729784846305847], [-0.8743494153022766, 0.09547818452119827, -0.8919194340705872, 1.0778839588165283], [0.8131569027900696, -0.08876048773527145, 0.5280566215515137, -1.229494333267212], [0.6704155206680298, -0.019989557564258575, 0.513388991355896, -0.9460391402244568]], [[-0.40913450717926025, -0.24341997504234314, -0.0846744179725647, -0.0222559105604887], [1.011008381843567, -0.052422620356082916, 0.43712109327316284, -0.6294088959693909], [-1.3336577415466309, -0.5918899178504944, -0.4996426999568939, 1.1933927536010742], [-1.2229821681976318, -0.15687867999076843, -0.20532125234603882, 0.7688860297203064]], [[-1.1029629707336426, 0.06012917682528496, -0.7170391082763672, 1.0377713441848755], [0.6900702118873596, -0.08925037086009979, 0.34509989619255066, -0.8324170708656311], [-0.22308024764060974, 0.18507306277751923, -0.5162363052368164, 0.5976890325546265], [-0.15788137912750244, 0.20569732785224915, -0.05675267055630684, 0.2369343638420105]], [[0.08215522766113281, 0.019009973853826523, 0.11110133677721024, 0.15285539627075195], [-0.2801346778869629, -0.11101481318473816, 0.14506077766418457, 0.0475812666118145], [0.028400305658578873, -0.009267493151128292, 0.12093759328126907, -0.3324004113674164], [0.2400381714105606, 0.28742843866348267, 0.16195128858089447, -0.029330622404813766]]]}, "dense": {"bias:0": [0.015967007726430893], "kernel:0": [[0.11508337408304214], [-0.2622748911380768], [0.1438576877117157], [0.0840509831905365], [-0.10890331864356995], [-0.1710023134946823], [0.07053723186254501], [0.12347237765789032], [-0.04369170963764191], [-0.1732347458600998], [-0.0949627012014389], [0.12552261352539062], [-0.08004999160766602], [0.016602767631411552], [-0.23265552520751953], [-0.03254654258489609], [0.044011346995830536], [0.0686018317937851], [0.11076731234788895], [0.0883544534444809], [0.056178584694862366], [0.0654376819729805], [-0.10668904334306717], [-0.051375892013311386]]}, "lstm": {"bias:0": [-0.008547438308596611, 1.4425277709960938, -0.2103126347064972, 0.3864552080631256, 1.33511221408844, 0.030156897380948067, 0.10139617323875427, 0.3778207302093506, 0.40109482407569885, -0.01878494583070278, 0.03886989504098892, 0.9948464035987854, 0.046450454741716385, 1.2672122716903687, 0.31407272815704346, 0.9190650582313538, 2.0995559692382812, 0.22372320294380188, -0.45770007371902466, 0.14571502804756165, 0.39687100052833557, 0.07394453138113022, 0.058301765471696854, 0.163504496216774, 0.8327262997627258, -0.6876986026763916, 0.2742657959461212, 0.7210332155227661, 0.19746573269367218, 1.0726358890533447, 0.26075342297554016, 1.041038990020752, 0.6761630773544312, 0.05844822898507118, 0.5487640500068665, -0.6782768964767456, 0.7590832114219666, 0.24085301160812378, -0.3677697777748108, 0.6093397736549377, -0.058080799877643585, 0.39270392060279846, -0.5543931722640991, 1.315861463546753, 1.0712915658950806, 0.8526296019554138, 0.6587356328964233, 0.15967541933059692, 0.03176363930106163, 0.21526382863521576, -0.023395787924528122, 0.0020527371671050787, 0.04828217998147011, 0.11571725457906723, 0.12284362316131592, 0.056092314422130585, -0.33250918984413147, -0.007595019415020943, 0.18641066551208496, -0.2718779742717743, -0.08280085772275925, 0.2553902268409729, -0.0737297460436821, 0.006303782574832439, -0.025497909635305405, -0.0762692540884018, 0.13587374985218048, 0.07710794359445572, 0.0009912861278280616, -0.052953820675611496, -0.15083108842372894, 0.09284218400716782, 0.7520580887794495, 1.0409231185913086, 0.33362266421318054, -0.07743406295776367, 1.6166913509368896, 0.46254122257232666, -0.1481153964996338, 0.24449759721755981, 1.6045116186141968, 0.012673654593527317, 0.5619624257087708, 0.5032861828804016, 0.1621161848306656, 0.39505356550216675, 0.26580187678337097, 0.5868614912033081, 0.7143600583076477, 0.12521210312843323, 0.2269197404384613, -0.2154979705810547, 1.3083378076553345, 0.042813610285520554, -0.17082178592681885, 0.5562753677368164], "kernel:0": [[0.7967244386672974, -0.22332975268363953, 0.26710638403892517, 0.08541198819875717, 0.29425960779190063, 0.692768931388855, -0.2060738503932953, -0.368367463350296, -3.395599365234375, -0.22776176035404205, 1.695544719696045, 0.526251494884491, 0.29089319705963135, 2.3537027835845947, 0.3043613135814667, -0.05017383396625519, -1.0116630792617798, 0.09286007285118103, 0.8354655504226685, -0.23737449944019318, 1.5097368955612183, 0.24159979820251465, 0.06136871874332428, 0.24264849722385406, 0.08339046686887741, -0.24464528262615204, 0.28400442004203796, 0.058524683117866516, -0.18184997141361237, 0.027456851676106453, 0.13259129226207733, 0.23131312429904938, -0.5687481760978699, 0.05059516429901123, 0.06466066837310791, -0.40940868854522705, 0.06922504305839539, -0.8562586903572083, 0.31439000368118286, -0.1442914456129074, 0.04106302559375763, 0.06270987540483475, 0.5014308094978333, 0.41628605127334595, -0.9485752582550049, -0.5645092725753784, 0.1717589646577835, -0.18753892183303833, 2.163248062133789, -2.626749038696289, -0.8263821005821228, 0.02060396410524845, 0.8437161445617676, 0.972292959690094, 0.10949411243200302, -0.2888815104961395, -1.6170543432235718, 0.02755826525390148, 1.186280369758606, 1.3359014987945557, 0.6392772793769836, -1.692344307899475, 0.26882046461105347, -0.32500728964805603, 0.8742011785507202, -0.23708944022655487, -0.472403883934021, -1.4417352676391602, -1.458959937095642, 0.2574784755706787, -0.2641797959804535, -0.06200128793716431, -0.7168482542037964, 0.37982964515686035, 0.5142419338226318, 0.15643687546253204, 0.43364495038986206, -0.3750424385070801, 0.003218139288946986, -0.17945346236228943, -0.03248238563537598, -0.342418909072876, -1.11716628074646, 0.7491423487663269, 0.2852969467639923, 0.4822140634059906, -0.1629207730293274, -0.4341922700405121, 0.28084686398506165, -0.037663936614990234, -1.080145001411438, -0.3540506064891815, 0.1395685374736786, -0.35638993978500366, -0.11922618001699448, 0.3342644274234772], [0.8118603825569153, 0.46007946133613586, -0.015186779201030731, 0.09930354356765747, -0.37923189997673035, 0.8717789649963379, 0.017752818763256073, -0.09750182181596756, -0.4241209924221039, -0.048771440982818604, 0.4620298147201538, 0.9700546264648438, 0.05834139510989189, 0.7859042286872864, 0.14140355587005615, 0.28765320777893066, -0.16262462735176086, -0.5296107530593872, -1.0827361345291138, 0.03132324293255806, 0.02679317258298397, -0.11315858364105225, -0.10471684485673904, -0.05058467015624046, -0.08092013746500015, -0.15196172893047333, -0.06904716789722443, -0.08113698661327362, 0.5862562656402588, -0.02069845050573349, -0.15402916073799133, -0.19884897768497467, 0.16737151145935059, 0.057934969663619995, 0.1604873090982437, -0.10889601707458496, -0.025957223027944565, -0.5321661829948425, 0.02353796921670437, 0.9649986028671265, 0.46802622079849243, 0.22175955772399902, 0.2911069393157959, 0.11808557063341141, -0.5942450165748596, -0.2980601489543915, 0.013273096643388271, -0.2506944537162781, 1.8534129858016968, -2.6828105449676514, -0.21740993857383728, 0.10329697281122208, 0.195309117436409, 0.7736033201217651, -0.06349779665470123, 0.23221713304519653, -0.08568137139081955, -0.4537060260772705, 0.35097387433052063, 0.17178408801555634, 0.23718571662902832, 0.0002529785269871354, -0.7098098993301392, -1.7080717086791992, -1.544603705406189, -0.10196082293987274, 0.9578201174736023, -0.6177748441696167, 0.8560544848442078, -0.04072430357336998, -0.4056164026260376, -0.19292917847633362, -0.9219343066215515, 0.36978578567504883, 0.22128251194953918, -0.08033005893230438, -0.3026452958583832, -1.0589255094528198, 0.07074210047721863, 0.04586181789636612, 0.35677748918533325, -0.1717144250869751, -0.33698171377182007, -1.0976110696792603, -0.04277094081044197, -1.1569448709487915, -0.09802695363759995, -1.2923307418823242, -0.12948612868785858, -0.0881168469786644, -1.4286381006240845, -0.054957978427410126, -0.3698842227458954, -0.5240561962127686, -0.09601657092571259, -0.2820100486278534], [-2.3594114780426025, -0.5296908020973206, 0.0545198880136013, -0.5485014319419861, -0.007902998477220535, -2.2076759338378906, -0.3405304253101349, -0.19725434482097626, 0.42527952790260315, 0.05194070562720299, -0.4762609302997589, -0.7787519097328186, 0.14472226798534393, 0.17845070362091064, 0.230417862534523, -0.24363060295581818, 0.24150441586971283, 1.0363520383834839, 0.7748718857765198, 0.08689313381910324, -0.3140350878238678, -0.12254948168992996, 0.11834175139665604, 0.39689478278160095, 0.640550971031189, 0.1969330608844757, -0.07133374363183975, -0.004348237998783588, 0.18192057311534882, 0.025262709707021713, 0.01170703861862421, -0.21557416021823883, 0.34300073981285095, 0.011226414702832699, -0.08998983353376389, -0.6312870383262634, -0.0074394457042217255, 0.6296106576919556, 0.2527373433113098, -1.6971850395202637, 0.3431522846221924, -0.5074995756149292, -0.4961031973361969, -0.2780244052410126, 0.13810725510120392, 0.8698875308036804, 0.07371054589748383, -0.1475309431552887, -1.52629816532135, 3.337799072265625, -0.7999055981636047, 1.3828401565551758, -1.369302749633789, -0.7328588962554932, 0.14194858074188232, 0.2250659018754959, -0.8050287961959839, 0.4861393868923187, -1.8472461700439453, 0.6365376114845276, -0.16294355690479279, -1.8053888082504272, -0.23822052776813507, -0.9767694473266602, 1.1986461877822876, 0.30058375000953674, -0.6852827668190002, -0.1067160815000534, 0.08479200303554535, 0.09668196737766266, 0.11114741861820221, -0.09132523089647293, 1.4650894403457642, -0.4514741003513336, 0.6850369572639465, -0.11032331734895706, 0.0609346367418766, 1.3293523788452148, -0.024614498019218445, 0.061751510947942734, -0.23675449192523956, 0.4910339117050171, 0.661913275718689, 0.9970418810844421, 0.10292457789182663, 2.2080953121185303, -0.18515610694885254, 1.3081039190292358, 0.41152670979499817, 0.6729739904403687, 2.9681758880615234, 0.06534278392791748, 0.36905139684677124, -0.10268246382474899, 0.008405294269323349, 0.22630329430103302], [1.3027561902999878, -0.26845937967300415, -0.31840577721595764, 1.0091068744659424, -0.12644454836845398, 1.1627330780029297, 0.19409748911857605, 0.012494032271206379, -2.2541980743408203, 0.1884751319885254, 1.099772334098816, 1.3879867792129517, -0.29924365878105164, 0.9541952013969421, 0.22665242850780487, 2.1229021549224854, -0.9698255062103271, 0.4588899314403534, 1.1524572372436523, 0.16275280714035034, 1.5081876516342163, 0.18123620748519897, -0.2142379730939865, 0.45446890592575073, -1.1412708759307861, -0.39680016040802, -0.02560286410152912, 0.03764037787914276, -0.028874702751636505, -0.0016062628710642457, -0.5074619650840759, -0.44768956303596497, 0.33826544880867004, 0.1737682968378067, 0.06996970623731613, 0.199000284075737, 0.1452799290418625, -0.747998058795929, 0.28810983896255493, 0.5024110674858093, -0.04143544286489487, 0.09807062894105911, -0.4935726225376129, 1.222706913948059, -0.5871451497077942, -0.13281869888305664, -0.15252366662025452, 0.1731042116880417, 1.8376704454421997, -2.3198039531707764, 1.315841555595398, -0.4621710777282715, -2.43367075920105, 0.789421558380127, -0.21420598030090332, 0.4400652348995209, -2.0114502906799316, -0.8415912985801697, 0.6880932450294495, 1.8651773929595947, 0.5812196731567383, 1.4140331745147705, 0.2033199518918991, 0.25209906697273254, 1.8468475341796875, -0.48316892981529236, -0.6583477854728699, -0.31555747985839844, -1.9661883115768433, 0.5310002565383911, -0.9708800911903381, -0.359565794467926, -1.0657918453216553, 1.1276675462722778, -0.9252979755401611, -0.19213205575942993, -0.20399914681911469, -1.2899006605148315, 0.18660902976989746, 0.31519797444343567, -0.1276528388261795, -0.948971152305603, -0.19601930677890778, 0.2146153748035431, -0.6433959007263184, -2.768503427505493, -0.18364162743091583, 0.33186739683151245, 0.2857591211795807, -0.7380259037017822, 0.13777220249176025, -0.4218910038471222, -0.15973691642284393, -0.6910122036933899, -0.2953451871871948, 0.5070334672927856]], "recurrent_kernel:0": [[-0.5807675719261169, 0.5945616960525513, 1.1129781007766724, 0.5836101174354553, -0.48674923181533813, -0.9389121532440186, -0.7247433662414551, 0.26063501834869385, 0.7765756249427795, 1.2164943218231201, 0.02445119619369507, -0.16062243282794952, -0.5421558022499084, 1.693390965461731, -0.19719164073467255, -0.604505181312561, -0.21628591418266296, -0.8010287880897522, -0.34982433915138245, -1.6266193389892578, 0.45008066296577454, 0.4751743972301483, 0.7764587998390198, -0.10445387661457062, 0.198240727186203, 0.004361568484455347, 0.22820499539375305, -0.05507870763540268, 1.546805739402771, 1.827107548713684, 0.16625018417835236, 0.053131215274333954, -1.2131099700927734, -0.2021736204624176, 0.9701064825057983, -1.0640352964401245, 0.11843918263912201, -0.2007758468389511, -0.006030060350894928, 0.791057825088501, 0.012640928849577904, 0.7784594297409058, 0.4037209451198578, 0.10776200145483017, -1.117313027381897, -0.029093876481056213, -0.4738219976425171, 0.709244966506958, -0.7683916687965393, -0.09816797077655792, -0.14717818796634674, 0.3296794891357422, 0.17632968723773956, 0.06456667929887772, -0.25433775782585144, -0.20779910683631897, 0.35450461506843567, -0.02094523049890995, -0.11064933240413666, -0.3959448039531708, 0.6776914000511169, 0.43724489212036133, 0.7617993950843811, -0.41262590885162354, 0.1578819453716278, -0.5439893007278442, -0.427877277135849, 0.47869473695755005, -0.3482023775577545, -0.30536171793937683, 0.13704948127269745, 0.3678346872329712, 0.4909265339374542, 0.22915993630886078, 1.2369142770767212, 0.6560065150260925, -0.7482748627662659, 0.4750668406486511, -1.045501470565796, -0.6385319232940674, -0.4333246648311615, 0.05332525819540024, -1.3394412994384766, -0.08074898272752762, -0.20680643618106842, 0.28926318883895874, 0.13661006093025208, -0.39674946665763855, -0.4982413947582245, 0.41285309195518494, -0.7340090274810791, -1.3403379917144775, 0.240965336561203, -0.31962254643440247, -0.3363727033138275, 0.36220255494117737], [1.2244999408721924, 0.29749754071235657, 0.9959849119186401, 0.09154928475618362, -1.659532070159912, 1.1574859619140625, 0.0403030700981617, 0.11216893047094345, -0.36773917078971863, 0.10865015536546707, 0.1475958377122879, 0.10862552374601364, 0.01646939292550087, -0.5856602787971497, -0.17034222185611725, -0.03699396923184395, 0.1415690779685974, 0.16393107175827026, 0.22839857637882233, 0.6299585103988647, 0.33172816038131714, -0.05807211622595787, 0.2834509015083313, 0.5986162424087524, -0.7295516133308411, 0.5543625950813293, 0.6755210161209106, -0.2002815157175064, 0.2455618977546692, -0.6111816763877869, 0.529261589050293, 0.10885962098836899, 0.4400559365749359, -0.004106529988348484, -0.1754438877105713, 1.8189221620559692, -0.17907926440238953, 1.0949065685272217, 0.4682697653770447, 0.256598562002182, 0.5800126194953918, 1.8747484683990479, 0.8124719262123108, 0.21674562990665436, -0.7627687454223633, 0.4145054221153259, 0.0014975296799093485, 0.12350138276815414, 0.029412031173706055, -0.4576728343963623, -0.07586073130369186, 0.2902100384235382, 0.11315281689167023, 0.25608229637145996, 0.4004957973957062, 0.5113353133201599, 0.09489008039236069, -0.4476218521595001, 0.6171674728393555, -0.10625451803207397, -0.3130473792552948, 0.3181099593639374, -0.07733843475580215, 0.45018425583839417, -0.07291063666343689, 0.41123512387275696, 0.23665881156921387, -1.1562550067901611, -0.16170954704284668, 0.5052932500839233, -0.20196349918842316, -0.3750993609428406, -0.12640780210494995, 0.3144671618938446, -0.22126105427742004, -0.25902941823005676, -0.20057004690170288, -0.21023905277252197, 0.29688528180122375, -0.0246487557888031, 1.2899004220962524, -0.4583091735839844, 0.8611772656440735, 0.9479387998580933, 0.1091931089758873, -0.5405636429786682, 0.8141528367996216, 0.8272078037261963, 0.7204639911651611, -0.019710619002580643, 0.01447001751512289, 0.495714008808136, 0.5916647911071777, -0.22366631031036377, 0.5014128684997559, -0.18432794511318207], [-0.025172162801027298, 0.6167183518409729, 1.543845295906067, 1.3994470834732056, -1.7353291511535645, 1.288429856300354, -0.19402389228343964, -0.09258762747049332, -0.8425537347793579, -0.5606701970100403, 1.9995315074920654, 1.1029778718948364, 0.686581552028656, 0.7983688712120056, -0.3323008120059967, -1.0570908784866333, -1.3953598737716675, 0.020708806812763214, -0.8654012084007263, 1.3406481742858887, 1.161703109741211, 0.22231325507164001, 0.37307319045066833, 0.2720469832420349, 0.5787481665611267, 0.9086711406707764, 1.4809848070144653, -1.666812777519226, 2.571633815765381, 0.23260101675987244, 1.0086780786514282, 1.0467946529388428, -1.5580599308013916, 0.08854734897613525, 1.2175320386886597, -1.0940576791763306, 0.5152759552001953, 1.4982715845108032, -1.0889731645584106, 0.22273431718349457, -1.1397545337677002, 0.29094213247299194, 0.6328466534614563, -1.0898122787475586, -1.757061243057251, -1.895119309425354, 0.45236343145370483, 1.096481442451477, -0.9804190993309021, -0.7806156277656555, -0.918481171131134, 0.5476028919219971, 0.134484201669693, -0.7809525728225708, 1.2818697690963745, 0.7843935489654541, 0.04319146275520325, -0.7075422406196594, -0.7377038598060608, 0.11195170134305954, 0.09544245898723602, -0.8759577870368958, -0.123077392578125, 0.22022368013858795, 0.5520126223564148, -0.37926700711250305, 0.6847051382064819, 0.31348752975463867, 1.5242127180099487, 0.3676173985004425, 0.22460776567459106, -0.6256869435310364, 1.0729775428771973, 0.9019156694412231, 2.0245606899261475, -0.5374233722686768, -0.6088629961013794, 0.6000797152519226, -2.032738447189331, 0.5445596575737, 0.18266624212265015, -0.4375535845756531, 1.1437820196151733, 0.25963354110717773, 0.24674439430236816, -1.283067226409912, 0.23317736387252808, 0.8756861090660095, 1.1212852001190186, 0.021215710788965225, -0.9420779943466187, 0.39006537199020386, 0.6160036325454712, 0.029579361900687218, -0.01089198887348175, 0.5513354539871216], [2.139014720916748, 0.18465690314769745, 1.3674839735031128, 0.6363336443901062, -2.834622383117676, 1.5942094326019287, 0.5769132375717163, 0.977262020111084, 1.7864305973052979, -0.07336807250976562, 0.7942020893096924, 0.10257919132709503, 0.7286364436149597, -0.8998006582260132, -0.05728529021143913, -0.26505136489868164, 0.21918688714504242, 0.7839709520339966, 0.6045464277267456, -0.12022178620100021, 0.6713478565216064, 1.3002877235412598, 0.23156344890594482, 1.2570806741714478, -1.0465091466903687, 0.1840926855802536, 1.6707936525344849, -0.6276006698608398, 0.4451483190059662, -0.342867374420166, 0.1948159635066986, 1.4469995498657227, -0.3478371202945709, 0.03268006816506386, -0.649246335029602, 1.5937328338623047, -0.6951355338096619, 1.6812646389007568, -0.23364534974098206, -0.28923216462135315, 1.2935152053833008, 0.8261664509773254, -0.5289846658706665, 0.7981830835342407, -2.0698208808898926, 0.24081531167030334, -0.3850698471069336, 0.3342423141002655, -1.787673830986023, -0.3219931423664093, -0.090452179312706, -0.4312993884086609, 0.39600715041160583, 0.7645382881164551, -0.8951380252838135, -0.1532372534275055, 0.5060123205184937, -0.20810243487358093, -0.6217713952064514, -0.09042803943157196, 1.040270447731018, 0.6819119453430176, 1.3434717655181885, -0.3510160446166992, 0.7643666863441467, -0.3217456042766571, -0.21136264503002167, -1.2247822284698486, -0.6456018686294556, -0.13528862595558167, 0.1743670105934143, 0.045968227088451385, 1.5008784532546997, 0.433440625667572, 0.8658781051635742, 0.4743559658527374, -0.1529189497232437, 0.6391871571540833, 0.19504962861537933, 0.5106912851333618, 1.9844383001327515, 0.026647930964827538, 0.9045395255088806, 2.107867479324341, -0.033395763486623764, 0.19811885058879852, 0.8264929056167603, 0.22933438420295715, 0.30940479040145874, 0.15972408652305603, 0.2541654109954834, -0.23668357729911804, 0.4017603397369385, 1.2358427047729492, 1.2423827648162842, 1.0129989385604858], [0.5023522973060608, 0.029738258570432663, -0.7587470412254333, -0.2389608472585678, -1.401268482208252, -0.9925170540809631, -0.2838505208492279, -0.35103097558021545, 0.7793906927108765, -0.06237464025616646, 0.41303858160972595, -0.3240271210670471, -0.5102055072784424, -1.0689995288848877, -0.13847562670707703, -1.5177594423294067, 1.4131574630737305, -0.30651628971099854, -0.763264000415802, -0.32859089970588684, -0.9880136847496033, 0.14477376639842987, -0.008834877982735634, 0.5487135052680969, -0.7067809700965881, -0.4767082631587982, 0.097981296479702, -0.7469931244850159, 0.07892218232154846, -0.13141030073165894, -0.6245190501213074, 0.6129301190376282, 0.09782769531011581, -0.04988402873277664, -0.3192588686943054, 1.1033395528793335, -0.40420758724212646, -0.6489236354827881, -0.604030966758728, -1.2176790237426758, 0.6125427484512329, 0.6272902488708496, 0.31051790714263916, 0.10941324383020401, 0.9434446096420288, 0.6561844944953918, -0.23349429666996002, 0.29959729313850403, 0.3692544400691986, 0.015828749164938927, 1.3443351984024048, 0.42083749175071716, -0.0339132621884346, 0.28695833683013916, -0.42677387595176697, 0.1562831997871399, -0.10853725671768188, -0.07943308353424072, -0.41247260570526123, 0.06813564151525497, 0.16914665699005127, 1.3000402450561523, -0.3136434555053711, 0.04015211760997772, -0.6264609098434448, 0.13665594160556793, -0.2278243750333786, 1.1711138486862183, 0.462562620639801, -0.7247817516326904, 0.36950942873954773, 0.33830204606056213, 0.6357232332229614, -0.22366900742053986, -0.8920364379882812, 0.20429591834545135, -0.10983266681432724, 0.7126284241676331, 0.344492107629776, 0.5708138346672058, -0.454936683177948, 0.5278717875480652, 0.5180873870849609, 0.3207959532737732, 0.12035913020372391, -0.011485591530799866, 0.42329251766204834, -0.9127004146575928, -1.441454291343689, 0.43552276492118835, -0.03773755207657814, -0.256610244512558, 0.16156359016895294, 0.1374756246805191, 0.03061482682824135, -0.38153666257858276], [0.8254417181015015, -0.20068083703517914, 0.1645069122314453, 1.6777491569519043, -0.35189855098724365, 0.5209464430809021, -0.2273150235414505, -0.3388955891132355, 1.1588714122772217, -0.9152960181236267, 1.2625231742858887, 1.1070448160171509, 0.6117204427719116, 0.4797920882701874, 1.2854067087173462, 0.6244394183158875, 0.17262500524520874, 0.16646213829517365, -1.6707369089126587, -0.11678259074687958, 0.9788355827331543, -0.12398930639028549, 0.08078021556138992, -0.13851146399974823, -1.1243842840194702, 0.014015134423971176, -0.6104870438575745, -0.5698921084403992, -0.3029536008834839, 0.8598047494888306, -0.6912851333618164, -0.5645569562911987, -0.2850469648838043, 1.2562100887298584, -0.9564038515090942, -1.1771917343139648, -1.295279622077942, 0.189083069562912, -1.313874363899231, 0.022819094359874725, 0.3270503580570221, 0.08773726969957352, 0.7110154628753662, -0.11025652289390564, -0.29270416498184204, 0.40173840522766113, 0.24332444369792938, -0.7075437307357788, 0.07073519378900528, -0.47813406586647034, 0.247894287109375, 0.015628276392817497, -0.04705404117703438, 0.7403194904327393, 0.19521351158618927, 0.2700866758823395, -0.16435176134109497, 0.047559745609760284, -0.35977476835250854, -0.27150958776474, 0.327094703912735, 0.8001933097839355, 0.060454707592725754, -0.16569074988365173, -0.2556169629096985, -0.007972775027155876, -0.19667813181877136, -0.5868706703186035, -0.5119849443435669, -0.08904938399791718, -0.4765267074108124, 0.04819873347878456, 0.25953465700149536, 0.12624266743659973, -0.07001940906047821, 0.25116828083992004, 0.2549699544906616, 0.08010698109865189, 0.34310147166252136, 0.6593114733695984, 0.6057050824165344, -1.094544529914856, -0.26664555072784424, 1.389893889427185, 0.2829873263835907, -0.5500271320343018, -0.04412994906306267, 0.3105369508266449, 0.22361335158348083, 0.470753014087677, -0.09330286085605621, 0.08875544369220734, -0.27180880308151245, -0.6149925589561462, -0.3085821270942688, -0.49581053853034973], [3.040764570236206, 0.5156317949295044, 1.0803020000457764, 1.8687729835510254, -1.0606526136398315, 0.39935600757598877, 0.6963319182395935, 0.6401732563972473, 1.501245141029358, 0.23276716470718384, 0.4558687210083008, 0.4016592502593994, 0.7639161348342896, -0.5900619029998779, 0.8496469855308533, 0.728101372718811, -0.14080408215522766, 0.4690927565097809, -0.3477298319339752, 0.2643367648124695, 1.0361602306365967, 0.8037753105163574, 0.48920413851737976, 0.6985495090484619, -1.737099051475525, -0.3709750175476074, 0.1905682533979416, -1.0348210334777832, 0.5197129845619202, -0.5226134061813354, -0.01682560332119465, 2.5322113037109375, -1.5756102800369263, 0.6951426863670349, -0.226430281996727, 3.390937566757202, -0.40696263313293457, 0.43878260254859924, 0.22979073226451874, 0.31161051988601685, 0.7367450594902039, 0.7998037338256836, 1.0479251146316528, 0.9355838298797607, -0.5246443748474121, -0.04516096040606499, 0.33672770857810974, 0.08457992970943451, -0.8904643654823303, -1.1016727685928345, 0.8793002367019653, 0.10003205388784409, 0.5680959224700928, -0.39412447810173035, -0.3652873933315277, -0.2758480906486511, 0.38460642099380493, -0.0012237814953550696, -0.7933884859085083, -0.10045386105775833, 0.5087912678718567, 0.9191734790802002, 0.541982889175415, -0.14785687625408173, 0.6295565962791443, -0.1523013710975647, 1.0609406232833862, -0.6633915901184082, -1.0425468683242798, 0.13755398988723755, -0.022281456738710403, 0.45889994502067566, 0.9957619905471802, 1.0957708358764648, 1.3421868085861206, 0.975226640701294, 0.3278803527355194, 0.6642537713050842, 0.12907373905181885, 1.4429104328155518, 1.6183832883834839, 0.3062167167663574, 1.4465655088424683, 2.287498712539673, 0.29380908608436584, -0.4781934916973114, 1.7308342456817627, 0.6865785121917725, -0.8259536623954773, 0.34627553820610046, -0.3436148464679718, 0.6235044598579407, 1.4089237451553345, -0.5659764409065247, 0.34867721796035767, -0.20599812269210815], [-1.0714643001556396, -0.4044662415981293, -1.529458999633789, -1.0468302965164185, 1.3140361309051514, -1.157281756401062, -0.5263059735298157, -0.40443524718284607, 0.45622217655181885, 1.3216609954833984, -2.6004936695098877, -1.426337480545044, -0.285907119512558, 0.2688344717025757, -0.057606663554906845, 1.374706745147705, -1.3247504234313965, 0.01325413677841425, 0.97776198387146, -0.8140038251876831, -0.41025498509407043, -0.1022462397813797, -0.5376563668251038, -1.1059194803237915, 2.1457297801971436, -0.8160040378570557, -0.3184257745742798, 1.9926835298538208, -0.058026984333992004, -0.5151585340499878, 0.3250159025192261, -0.1543676257133484, 0.17851577699184418, -0.7044006586074829, -0.7410012483596802, -1.083237886428833, 0.7353347539901733, 0.6258843541145325, 0.1783023327589035, 1.8981424570083618, -2.5253400802612305, 0.8557214140892029, 0.4749882221221924, -0.7302126884460449, 0.8738024234771729, 0.3844449818134308, -0.7198551893234253, -1.1438616514205933, -1.2928768396377563, 1.51031494140625, -1.423609733581543, -0.025883372873067856, -0.15318962931632996, -0.365550696849823, -0.14203733205795288, -0.9269828796386719, 1.4084112644195557, 0.5170321464538574, 0.7652501463890076, -1.1919318437576294, -0.5670775175094604, -0.41562461853027344, 2.1086905002593994, -0.2960187494754791, 1.2637933492660522, 0.3214552402496338, -1.3960627317428589, -0.5363731384277344, -2.0071990489959717, -0.657217800617218, 0.30841064453125, 0.5140836834907532, -0.3738752007484436, -0.4773097038269043, 1.1212700605392456, 0.8882784843444824, 0.814050555229187, -0.2926120460033417, -0.061054836958646774, -0.2990594506263733, -1.365095615386963, -0.036256201565265656, -0.9583254456520081, -0.4377954602241516, -0.6907351016998291, -0.4947623610496521, -0.7750186324119568, 1.3971714973449707, 0.013559000566601753, 0.1634748876094818, 0.5587701201438904, -0.7324303984642029, -1.2107300758361816, -0.022545674815773964, -0.6336968541145325, -0.36619365215301514], [-3.7222235202789307, -0.4481780230998993, -1.472900152206421, -1.2265844345092773, 2.7767386436462402, -3.4800891876220703, -0.5509154796600342, -0.6510836482048035, -2.6007730960845947, 0.14101475477218628, -1.5128127336502075, -1.415959119796753, -0.4300973117351532, -1.7911272048950195, -1.394906759262085, -0.577777087688446, 2.544736385345459, -0.80531245470047, -1.2355729341506958, -1.1767693758010864, -4.018625259399414, -0.5812579989433289, -1.3045780658721924, -0.8006247878074646, 1.4198623895645142, -0.1736011803150177, -0.8049421310424805, -0.886510968208313, 0.5940735936164856, -0.5026774406433105, -1.4708726406097412, -0.39618343114852905, -1.1009643077850342, -1.548351764678955, -0.8982095718383789, -0.7167291045188904, -1.7754794359207153, 0.8750856518745422, -0.09815409034490585, -0.5055935382843018, -0.8852019906044006, -0.920825183391571, 0.5073449611663818, -0.8744886517524719, 3.655231237411499, -0.4563540816307068, 1.3254952430725098, -0.07797206193208694, 1.8665120601654053, 0.34085971117019653, 0.583484411239624, 0.5050509572029114, -0.09327048808336258, -0.3582298457622528, 0.5207205414772034, -0.21469351649284363, -0.016535991802811623, 0.045906152576208115, 0.7290012240409851, -0.5208370089530945, -0.5067592263221741, 0.34783923625946045, -0.4325176179409027, 0.7699617743492126, -0.40390506386756897, 0.20753125846385956, -0.2748110294342041, 1.518987774848938, 0.590175986289978, -0.871134340763092, 0.9473278522491455, 0.5214300155639648, -2.3033699989318848, -0.32386335730552673, -2.0282108783721924, -0.2383180856704712, -0.7612074613571167, -1.3935320377349854, 0.28579285740852356, -0.38496509194374084, -2.078162431716919, 0.39410850405693054, -1.4509943723678589, -1.4866938591003418, -1.4785393476486206, 1.0651410818099976, -1.3394049406051636, -0.6215712428092957, -1.688256025314331, -0.10366924107074738, -0.436215877532959, -1.1345865726470947, -2.3848085403442383, -1.3134294748306274, -0.7007083296775818, -1.1288567781448364], [0.34090399742126465, -0.7028265595436096, -0.7733634114265442, -1.3454258441925049, 1.4941685199737549, 0.39986398816108704, -0.0535641610622406, 0.3905491232872009, -1.0313438177108765, 0.30117690563201904, -0.021549440920352936, -0.45072072744369507, 0.31674763560295105, 0.4189693331718445, -0.013898486271500587, -0.004405088722705841, 0.684579610824585, 0.3192727863788605, 0.09846160560846329, -0.7871032953262329, -1.17130446434021, -1.027428150177002, -0.09552697092294693, -0.05278732627630234, -0.21142369508743286, -0.1911672055721283, -0.5366144776344299, 0.20541968941688538, -0.8731166124343872, 0.15296894311904907, 0.7840873599052429, 0.23046152293682098, -1.531665563583374, 0.09760507941246033, -0.05370672419667244, 0.9467656016349792, -0.33820703625679016, -0.6892722845077515, -0.6961722373962402, -1.8421332836151123, -0.8968456983566284, -0.3405577540397644, -1.2050281763076782, -0.13926436007022858, -1.3598556518554688, -0.7149255871772766, 0.05638924986124039, 0.17621499300003052, 0.1488162726163864, 0.13014759123325348, 0.3482447564601898, 0.16174717247486115, -0.3383592665195465, -0.16753804683685303, 0.18122471868991852, -0.06972295790910721, -0.2532046139240265, 0.06573867797851562, -0.6489651799201965, 0.48624056577682495, -0.02503807656466961, 0.11420340836048126, -0.4817204475402832, -0.04371863231062889, -0.19843454658985138, 0.08343721926212311, -0.16091428697109222, 0.25573423504829407, 0.5037007927894592, 0.479523628950119, -0.27075085043907166, -0.2796676754951477, -0.8909323215484619, -0.4023209810256958, -0.3611345589160919, -0.2101849466562271, -0.08415687829256058, -0.3956632614135742, 0.06042817234992981, -0.13703493773937225, -1.0097732543945312, 0.08803177624940872, -0.9846268892288208, -0.9923458099365234, 0.1456972360610962, 0.9854700565338135, -0.7489040493965149, -0.9713006615638733, -0.5877143144607544, 0.2052585631608963, 0.24793221056461334, -0.793658971786499, -0.457166463136673, -1.7882862091064453, -0.02322293631732464, -0.1668434739112854], [-0.9476748108863831, -0.05370554327964783, 1.132332682609558, 0.06363879889249802, -2.03786039352417, -0.657766580581665, 0.08665089309215546, -0.09005110710859299, -0.4776705503463745, -0.1045193299651146, -0.3289918005466461, -0.43411755561828613, 0.14173266291618347, 0.7925289273262024, -0.2909831404685974, -0.9317167401313782, -0.338661789894104, 0.02372659370303154, -0.31688934564590454, 0.0020850675646215677, 0.19508203864097595, -0.08463864773511887, 0.07187899947166443, -1.2300795316696167, 0.3814393877983093, 0.05496002733707428, 0.4484999477863312, -0.13767045736312866, 1.606754183769226, -0.21033437550067902, -0.9832252860069275, 0.3653510510921478, -0.03404683619737625, 0.37830519676208496, 0.3529660105705261, 0.4619092345237732, -0.4932841658592224, -0.3709834814071655, -0.41663607954978943, -0.2773192524909973, -0.03157312050461769, 1.3055038452148438, 0.40719443559646606, 0.10615435987710953, 1.4784094095230103, 0.22908292710781097, 0.6320627331733704, -0.019192153587937355, -0.2098156362771988, -0.4607856273651123, -0.09343712776899338, -0.22409823536872864, 0.09691835194826126, -0.3030674159526825, 0.30561572313308716, 0.15082593262195587, -0.021600252017378807, -0.14620569348335266, -0.11144226044416428, -0.24969612061977386, 0.24093438684940338, 0.07749056816101074, 0.44839170575141907, 0.9338937401771545, 0.635469913482666, -0.2721134126186371, 0.3012489676475525, 0.8828316926956177, -0.22533293068408966, -0.13953566551208496, 0.07646605372428894, 0.22993962466716766, 0.2547568678855896, 0.1509052962064743, 0.8836684226989746, -0.10141056776046753, 0.42975643277168274, 0.5854521989822388, 0.004286077804863453, 0.33050736784935, -1.8695344924926758, -0.054985832422971725, -0.6284835934638977, 0.18262988328933716, -0.2717747092247009, -1.2528384923934937, -0.169436976313591, -0.29830801486968994, -0.08539839833974838, 0.4249087870121002, -0.4374072849750519, 0.8730447888374329, -0.15673290193080902, -0.254205584526062, -0.2720881998538971, -0.23391839861869812], [-2.190549850463867, -0.3411351144313812, -3.105409622192383, -0.9290249943733215, 1.4970391988754272, -1.907161831855774, 0.7119487524032593, -0.2946878671646118, -0.6086024641990662, 0.1644272357225418, -3.054205894470215, 0.059731047600507736, -1.178189992904663, 0.5103760361671448, -0.3085267245769501, -0.25263968110084534, -1.5307761430740356, 0.6520536541938782, 0.587611973285675, -0.5399355888366699, -0.6080095767974854, -0.12603256106376648, -0.07311473041772842, -0.8609744310379028, -0.5210819244384766, -0.36782312393188477, -1.6217948198318481, 0.009556126780807972, -3.218590497970581, 0.017789816483855247, -1.2837539911270142, 2.3710594177246094, -0.4772534966468811, -0.7190712094306946, -0.8755766153335571, -2.3971989154815674, 0.2954907715320587, -0.18253597617149353, 0.17768384516239166, 0.9094168543815613, -0.5456480383872986, -1.2959449291229248, -0.43049487471580505, -0.204244464635849, 4.160943984985352, 0.43657386302948, -1.1833053827285767, -1.1989129781723022, -0.0008511270862072706, 1.0296670198440552, -0.6535598039627075, -0.09839705377817154, -0.24125473201274872, 0.0454617440700531, -0.2908899188041687, -0.2675376236438751, -1.2094833850860596, 0.2388717383146286, -0.4873378276824951, -0.46851587295532227, -0.7815589308738708, -0.5442899465560913, 1.0945826768875122, 0.48020943999290466, -0.4053120017051697, 0.2662501335144043, -0.7330684065818787, -1.5384883880615234, -0.5956887602806091, -0.40497565269470215, -1.2943459749221802, -0.24872416257858276, -0.646153450012207, -0.7805624604225159, -0.4808744788169861, -1.1314187049865723, 0.5079289078712463, -2.137367010116577, -0.31106260418891907, -0.440647691488266, -1.5191231966018677, 0.8444222211837769, -2.5455522537231445, -1.189808964729309, -1.061953067779541, 0.6965131759643555, -0.34225964546203613, -0.8952367305755615, 0.31591230630874634, 0.1455455869436264, -0.11871601641178131, -0.5319517254829407, -1.6755584478378296, -0.599746584892273, -0.8376357555389404, 1.1638818979263306], [-0.2827184498310089, 0.15273001790046692, 0.8146849870681763, -0.8149092197418213, 0.1758875697851181, 0.11828067153692245, -0.19272908568382263, -0.5167893171310425, 1.4062280654907227, -0.23466284573078156, 0.33186206221580505, 0.6357781887054443, 0.6282486915588379, 0.08360424637794495, 0.7745574116706848, 0.48632869124412537, 0.5306227803230286, 0.06829077750444412, -0.21702292561531067, 0.3930957615375519, 0.9794577360153198, -0.697472870349884, 0.1855936497449875, -1.2898846864700317, 0.955640435218811, -0.44103026390075684, 0.033455271273851395, 0.4497319757938385, 0.3160910904407501, -0.1753288358449936, 2.2215585708618164, 0.2573184669017792, 0.7401145100593567, -0.474274218082428, -0.4295320510864258, 0.21339042484760284, 1.0743155479431152, -1.974153757095337, 0.38646361231803894, -0.20473559200763702, -0.021150998771190643, -0.11617515981197357, 0.40442684292793274, -0.1390625536441803, -0.0641627162694931, 0.7931897044181824, -0.4125335216522217, 0.37640634179115295, 1.511816382408142, 0.014657692983746529, 0.1311154067516327, 0.4378838539123535, -0.21192465722560883, 0.23311744630336761, 0.43519335985183716, -0.36492785811424255, -1.3246285915374756, -0.02916790172457695, 0.6788462996482849, 0.6178977489471436, -0.4047406017780304, 0.7617166638374329, -0.7350367903709412, -0.6315701007843018, -0.2315603345632553, 0.19224613904953003, 0.26953405141830444, -0.8386058211326599, 0.6912131309509277, -0.36546820402145386, -0.7249811887741089, 0.017025360837578773, 0.2248343825340271, -0.01663995161652565, 0.7784721851348877, 0.6711384057998657, -0.10603993386030197, 0.7677674293518066, 0.7441014051437378, -0.12995636463165283, 1.0754276514053345, -0.4252696633338928, -0.6594038605690002, 0.009743827395141125, 0.45593157410621643, -0.13349968194961548, -0.47067204117774963, -1.0017635822296143, 0.1868366152048111, 0.00744993519037962, -0.12705987691879272, 0.8273510932922363, 0.24421682953834534, -0.8586783409118652, -0.6197552680969238, 0.6511008739471436], [3.1575636863708496, 0.6799460649490356, 0.7702285647392273, 2.528869390487671, -2.406618595123291, 2.2748751640319824, 0.5014531016349792, 0.247717022895813, 2.8949084281921387, -0.4818525016307831, 2.4602558612823486, 2.42878794670105, 1.3211214542388916, -0.666968822479248, 0.5927403569221497, 0.21800217032432556, 0.4948696196079254, 0.6067051291465759, 0.3833655118942261, 1.0816314220428467, 2.9986178874969482, 0.3802993893623352, 1.3855434656143188, 0.256555438041687, -1.3641655445098877, 0.8123759627342224, 1.3954213857650757, -0.40082240104675293, 2.869800567626953, -0.09421175718307495, 0.4258038401603699, 2.082453489303589, -2.4597220420837402, 1.0560107231140137, 2.1578168869018555, 2.7115538120269775, 0.09446443617343903, 0.6499615907669067, 0.2174052745103836, -0.7212990522384644, -1.8014827966690063, 0.3169143497943878, 0.715448796749115, -0.44876816868782043, -1.3085156679153442, 0.1478569507598877, 1.4249601364135742, 1.3689416646957397, -0.15320822596549988, 0.07032698392868042, -0.1482047289609909, 0.21604415774345398, 0.24743744730949402, -0.41586771607398987, 1.077367901802063, 0.05567561835050583, 0.8593449592590332, -0.1047920286655426, -0.5531166195869446, 0.46353819966316223, -0.5535372495651245, -0.920411229133606, -0.06895159184932709, 0.7230691313743591, 0.479196697473526, 0.05226161703467369, -0.21832387149333954, 0.6552051901817322, 0.9931563138961792, 0.4900376498699188, 0.13305546343326569, -0.4135063588619232, 2.7930989265441895, -0.021823320537805557, 1.362513542175293, 0.8723657727241516, -0.38611799478530884, 1.6483532190322876, 0.7851601839065552, -0.023490676656365395, 1.6351221799850464, 0.44447576999664307, 2.0669755935668945, 1.679297685623169, 0.7017190456390381, -1.6490193605422974, 1.2455424070358276, 0.8917854428291321, 0.001424198504537344, -0.049693234264850616, -0.009067087434232235, -0.1413932591676712, 1.8325457572937012, 1.6752028465270996, 0.8621720671653748, 1.1987415552139282], [-0.5047200322151184, 0.13195523619651794, -1.8726972341537476, 0.29013368487358093, -0.9027014374732971, -0.7197169065475464, 0.02568037062883377, 0.4099145829677582, -2.0345120429992676, -0.5888491272926331, 1.3707998991012573, -1.0741437673568726, 0.5091825127601624, -2.1961090564727783, -1.84096097946167, 0.16668754816055298, -0.8966426849365234, -1.7052501440048218, -2.0002152919769287, -0.9703919887542725, -1.1784905195236206, -1.6590815782546997, 0.4417606592178345, -0.6634395122528076, 0.718409538269043, 0.23475061357021332, 0.7060099840164185, 3.455188751220703, -0.8054007887840271, 0.22976408898830414, 2.7968668937683105, -0.3578754961490631, 0.767208456993103, 0.0818571150302887, -0.6716093420982361, 2.196995496749878, -0.7044140696525574, -1.7412360906600952, 0.22698816657066345, -2.105801820755005, -0.019279878586530685, 0.7159193754196167, 0.11222614347934723, -0.9900562763214111, -0.7768386602401733, 2.581148386001587, -0.06350434571504593, -2.0455474853515625, 0.9560380578041077, -0.38838985562324524, 1.1143912076950073, -0.1069033220410347, 0.01826373115181923, -0.029851209372282028, 0.4243152439594269, 1.2637279033660889, 0.007852046750485897, 0.11869677156209946, -0.205742746591568, 0.528684139251709, 0.14760556817054749, 0.6400279402732849, -0.7029873132705688, 1.752519965171814, -0.41201508045196533, 0.5361213088035583, 0.33411213755607605, 0.9711205363273621, 1.1892240047454834, 0.6036492586135864, -0.18721619248390198, -0.7074334025382996, -0.7409948110580444, 0.02595975436270237, -1.1917427778244019, -0.09953467547893524, -1.2447309494018555, -0.30371448397636414, 0.23671449720859528, -0.6851961016654968, -0.25849127769470215, 0.3390416204929352, -0.31628626585006714, 0.7071048021316528, -0.8560584783554077, -3.586233615875244, 0.9020649194717407, 0.2645322382450104, -1.0853619575500488, -1.3934547901153564, -0.769867479801178, -2.321713447570801, -0.41492965817451477, -0.6948938965797424, -0.26269614696502686, -2.208009958267212], [0.24235674738883972, -0.04548979550600052, -1.6327576637268066, 0.622964084148407, 0.9368757009506226, -1.191117286682129, 0.5211038589477539, 0.45739153027534485, 0.7004452347755432, 0.059062257409095764, -0.05485684424638748, 1.2259036302566528, 0.3033902645111084, -2.018989324569702, 0.14830659329891205, 1.6521145105361938, 0.34201550483703613, 0.505028247833252, 0.5055038928985596, -0.35233139991760254, 0.7130864858627319, 0.24832788109779358, 0.00400107866153121, 0.588690996170044, 0.41283807158470154, -0.05401110649108887, 1.07684326171875, 2.5143463611602783, -0.2003238946199417, 0.2033756524324417, -0.39173755049705505, 0.5439348220825195, 0.42246586084365845, -0.6105528473854065, 0.2392585277557373, -0.6632155776023865, 0.4142301082611084, 1.2911546230316162, -1.2840802669525146, -1.4976050853729248, -1.1381136178970337, -0.7568241953849792, -0.8672528266906738, 1.3279989957809448, 0.2729041576385498, 0.1504921317100525, -0.5810884833335876, -0.6130041480064392, 0.7910990715026855, 0.44766324758529663, -0.4851784110069275, -1.4832252264022827, -0.008441445417702198, -0.0049913679249584675, 0.07368910312652588, 0.2912111282348633, 0.9806860089302063, 0.06220930069684982, 1.3407808542251587, -0.6026906371116638, 0.08701535314321518, -0.22421392798423767, 0.1673833429813385, 1.2795478105545044, -0.0795474573969841, 0.07790689170360565, 0.24842311441898346, 0.8586907386779785, -0.21883277595043182, 0.16564343869686127, 0.14926768839359283, -0.29978764057159424, -0.8048229217529297, -0.4397459626197815, 1.0171482563018799, -1.3508819341659546, 0.20240533351898193, -0.45919373631477356, -0.369314044713974, 0.6163344979286194, -0.2835698425769806, 0.44379985332489014, -0.3936809301376343, -0.06315212696790695, -0.054962147027254105, -2.351914882659912, 1.1080560684204102, 1.1652206182479858, -0.02873018942773342, 0.028491195291280746, -0.5387442708015442, -0.5312091708183289, -0.6414886713027954, 0.3022273778915405, 0.6592063307762146, -0.6150304079055786], [-0.28574422001838684, -0.20157885551452637, -0.9592334032058716, -0.23993051052093506, -0.6913925409317017, -0.09975695610046387, 0.05919594690203667, -0.259433776140213, 0.6309324502944946, 0.08804261684417725, -0.43418288230895996, -0.26480284333229065, -0.5100617408752441, 0.09078137576580048, -0.09949851781129837, -0.140863835811615, -1.0427274703979492, 0.30857253074645996, -0.058195505291223526, 0.5374481678009033, -0.06048576533794403, -0.43861451745033264, -0.46028056740760803, -0.6707531213760376, 1.034909963607788, 0.1903907209634781, 0.3304472863674164, 1.5386736392974854, -0.4678875207901001, -0.6152524948120117, -0.7395145893096924, 1.5018888711929321, 1.0488530397415161, -0.1402006447315216, -0.18436045944690704, -1.2620429992675781, -1.052314281463623, -1.2280199527740479, -0.6839195489883423, -0.028457414358854294, -0.13899730145931244, 0.07302071154117584, -1.0112680196762085, 0.6542367935180664, -1.0471678972244263, -0.21477201581001282, -0.2787829637527466, -1.2226779460906982, 0.6137869358062744, -0.10609107464551926, 0.22902803122997284, 0.06913775950670242, 0.06636909395456314, -0.5085576176643372, 0.28085818886756897, -0.10721378773450851, -0.960101306438446, -0.1438688486814499, -1.089191198348999, 0.5728470087051392, -0.23220644891262054, -0.0474056601524353, -0.18229489028453827, 0.7702100872993469, -0.04464181140065193, 0.34144070744514465, 0.2574024200439453, -0.09180257469415665, 0.24576635658740997, 0.7821530103683472, -0.6166885495185852, -0.0719585046172142, -0.7690691351890564, 0.15944287180900574, -0.11834730952978134, -2.078052520751953, 0.23474925756454468, -0.699294924736023, -0.4805695414543152, 0.2880876362323761, -0.5784969925880432, 0.25864627957344055, 0.48944857716560364, 0.10127241164445877, -0.47199496626853943, -0.9340432286262512, 0.23999856412410736, 0.8151881694793701, -0.10509762912988663, -0.18124137818813324, -0.020790698006749153, 0.3900756537914276, 0.5448087453842163, -1.3820430040359497, 0.40620338916778564, -0.11570949852466583], [-0.4947337806224823, 0.10158196091651917, -2.234247922897339, -1.0041570663452148, 1.1144587993621826, -0.754183292388916, -0.19130295515060425, 0.04141441732645035, -0.947238564491272, 0.5576001405715942, -1.4563006162643433, -0.9525305032730103, -0.5722207427024841, 0.17037005722522736, -0.5853306651115417, 0.041779082268476486, 0.6598682999610901, -0.5369083881378174, 0.17462646961212158, -0.32341688871383667, -1.2833653688430786, -2.0029428005218506, -0.7380993366241455, -0.590522289276123, -0.7142265439033508, -0.939640998840332, -0.7084730863571167, 0.3019999563694, -0.710421621799469, 0.10936863720417023, 0.2538696229457855, 0.38696444034576416, -1.239181637763977, 0.20216920971870422, 0.04149511456489563, -1.4052635431289673, -0.4317357540130615, -0.39845696091651917, 0.42942124605178833, 0.4735192656517029, -1.2023446559906006, -0.4900699555873871, -1.4167653322219849, -0.23542404174804688, -0.4413665235042572, -1.4287558794021606, -0.12571991980075836, -0.7796503901481628, -0.6477135419845581, 0.7846147418022156, 0.2880915701389313, -0.3353956341743469, 0.15038590133190155, -0.20872727036476135, -0.4257216453552246, 0.026826409623026848, 0.5615057945251465, 0.3688122034072876, -1.3003309965133667, 0.30954620242118835, -0.5964534878730774, -0.03396737575531006, 0.5920393466949463, -0.1892010122537613, 0.38575828075408936, -0.14782439172267914, -0.8557027578353882, 0.15497715771198273, -0.7119728922843933, 0.22472111880779266, 0.12668849527835846, 0.09597599506378174, -2.1041696071624756, -0.290410578250885, -0.5228934288024902, -0.35215699672698975, 0.5740015506744385, -0.45759958028793335, -0.4816550314426422, -0.4620867073535919, -1.3834339380264282, 0.14029008150100708, -0.23177935183048248, -0.695609450340271, -0.41973525285720825, 0.8901816010475159, -0.5564344525337219, -0.26168322563171387, -0.3442862033843994, -0.05294983461499214, 0.0978514552116394, -0.32903262972831726, -0.8043085336685181, 0.22143185138702393, -0.3521324098110199, -1.0487786531448364], [-0.1580994576215744, -0.2323502153158188, 0.9620360136032104, 0.20969976484775543, -1.3001657724380493, 0.8694444298744202, 0.02152031473815441, -0.03021438978612423, -1.3441097736358643, -0.3539506793022156, -0.46889251470565796, -0.6299638152122498, -0.005404875613749027, 1.044735074043274, 0.46954473853111267, -0.3865112066268921, -0.18020915985107422, -0.3408655524253845, -0.861478328704834, 0.8502418398857117, 0.07716488838195801, 0.6923509240150452, 0.5456871390342712, 0.7795921564102173, -0.8272214531898499, 1.0110660791397095, 0.19827313721179962, -0.7621006369590759, 0.609290361404419, -0.14575423300266266, -0.28095337748527527, -0.3916114270687103, 1.5195571184158325, 0.517577052116394, 0.5143664479255676, 1.0000905990600586, -0.07424028217792511, 0.320284366607666, 0.17439624667167664, 0.8134719133377075, -0.08493414521217346, -0.44009673595428467, 0.7873696088790894, -0.3124743103981018, -0.18721209466457367, 0.49812957644462585, 1.4880162477493286, 1.4843714237213135, -1.1353548765182495, -0.393306165933609, -0.3859799802303314, -0.1759980171918869, 0.28701189160346985, 0.26174384355545044, -0.13257738947868347, -0.40241074562072754, -0.49999749660491943, 0.02170078456401825, 0.5119836330413818, 0.08098140358924866, 0.421473890542984, -0.3551061153411865, 0.005338833201676607, -0.8373608589172363, 0.3289325535297394, -0.6410722732543945, 0.10157076269388199, -1.1513004302978516, -0.217560812830925, -0.2229074388742447, -0.061743125319480896, 0.4298783540725708, 0.5040814280509949, 0.28628009557724, 0.07554971426725388, 1.3980469703674316, 0.06251075863838196, 1.0306804180145264, 0.1836380511522293, -0.32786911725997925, 1.560615062713623, 0.004670510999858379, 0.5909752249717712, 0.6890555620193481, -0.18039420247077942, 0.3827125132083893, -0.3381403982639313, -0.14612959325313568, 0.21828770637512207, -0.487880676984787, 0.4290488362312317, 0.3949549198150635, 0.49952057003974915, 1.5472664833068848, 0.7022920846939087, 0.7639697790145874], [0.12079384177923203, -0.002726313192397356, -1.237565279006958, -1.214627981185913, 1.2093538045883179, -0.5192238092422485, -0.776093065738678, -0.3463177978992462, -0.32874199748039246, 0.5042724013328552, -1.2016314268112183, 0.224741131067276, -0.5729137063026428, 0.12634770572185516, -1.05257248878479, 0.6473667025566101, 0.24772194027900696, 0.19422747194766998, 0.15389181673526764, -0.33119601011276245, -1.1524829864501953, -0.6292790174484253, -0.4355393648147583, -0.40928614139556885, 0.021706892177462578, -0.8574877381324768, -0.8858435153961182, 0.8432723879814148, -1.1038334369659424, -0.7364855408668518, 0.26572731137275696, -0.04548956826329231, -0.05052807927131653, -0.2980635166168213, -0.04557494446635246, 0.5641191601753235, -0.25972265005111694, -0.6413791179656982, 0.018706902861595154, 0.7490893602371216, -1.0763144493103027, 0.15007412433624268, -0.04073838144540787, -0.14845693111419678, -0.6250845789909363, 0.5000173449516296, 0.04749729484319687, -0.9516414999961853, 0.1468506157398224, 0.03985771909356117, 0.0011394725879654288, 0.2726000249385834, -0.1898135393857956, -0.9045699834823608, 0.01644030213356018, -0.032976940274238586, 0.43911024928092957, -0.09119486808776855, 0.374896377325058, 0.2104048728942871, -0.28285303711891174, -0.07562461495399475, -0.040533397346735, 0.36707454919815063, -0.24439245462417603, 0.25023990869522095, -0.2847193777561188, 0.0018389252945780754, -0.3234397768974304, 0.44676104187965393, -0.10327323526144028, 0.11006365716457367, -0.591827392578125, -0.2215922772884369, -0.58831387758255, -0.9760144352912903, 0.36191120743751526, -0.857446014881134, -0.15018096566200256, -0.5468918085098267, -1.1438219547271729, -0.03370850533246994, -0.4573609232902527, -0.9430765509605408, -0.38099634647369385, 0.6528298258781433, -0.10576565563678741, 0.49895229935646057, 0.40404435992240906, -0.22171945869922638, -0.3330269753932953, -0.6234771609306335, -0.6029921174049377, -1.0668373107910156, 0.049967456609010696, -0.49744459986686707], [2.7915689945220947, 0.2904917597770691, 2.6521048545837402, 1.6031709909439087, -1.6472114324569702, 1.693569540977478, 0.566921591758728, 0.46880480647087097, 0.48278117179870605, 0.500974714756012, 0.17244210839271545, 0.9357942938804626, -0.5763018131256104, 0.540622353553772, 1.5888570547103882, -0.6118588447570801, -0.007482514716684818, 0.5562017560005188, 0.5069860816001892, 0.6956853866577148, 1.2639310359954834, 1.3821591138839722, -0.026607250794768333, 2.2582998275756836, -2.546475887298584, 0.4838230609893799, 1.0949304103851318, -2.4511358737945557, 1.9956762790679932, -0.017163988202810287, 0.9078625440597534, -2.0974626541137695, -1.1809216737747192, -0.10184996575117111, 0.9624103903770447, 2.680511474609375, 0.31660112738609314, 2.7746365070343018, 0.7601149082183838, 1.8176863193511963, 0.7139384150505066, 0.5973516702651978, -0.40597888827323914, 0.48229703307151794, -1.6573857069015503, -0.9336247444152832, 0.7583878636360168, 0.9146440029144287, -1.3586697578430176, -0.12735028564929962, 0.15210604667663574, 0.3839742839336395, -0.008082861080765724, 0.2980833053588867, -0.5641180276870728, -0.5248668789863586, 1.1372110843658447, 0.09186968207359314, 0.3981282114982605, -0.8487067222595215, 0.4482957124710083, 0.2831788957118988, 0.3865090012550354, -1.9860680103302002, 0.3330920338630676, -0.18816128373146057, -0.031940050423145294, -1.1927422285079956, -1.5351135730743408, -0.4443574547767639, 1.4176619052886963, 0.036653853952884674, 0.6120426058769226, 0.0845768079161644, -1.2196849584579468, 1.2899599075317383, 0.07488853484392166, -0.1043437123298645, 0.8298302292823792, -0.212439626455307, 2.9200687408447266, -1.0687335729599, 1.0731147527694702, 0.6718911528587341, 0.26808351278305054, 2.7620418071746826, 1.0215764045715332, 0.32162249088287354, -0.3088289499282837, 0.7913693189620972, 0.12669746577739716, 1.196444034576416, 0.08702059090137482, 0.7006813287734985, 0.645709216594696, -0.18346107006072998], [0.2995123565196991, 0.11672677099704742, 2.4504432678222656, 1.1355262994766235, -0.5720794200897217, 0.038247883319854736, 0.395499587059021, 0.5741697549819946, 1.4098668098449707, -0.3253631293773651, -0.14084412157535553, -1.7234463691711426, -0.22664953768253326, 0.5321043133735657, -0.640393853187561, 0.6600579619407654, -0.6766839623451233, 0.42231300473213196, -0.09559118747711182, -1.1288654804229736, 0.16127775609493256, 0.29968953132629395, 1.4652901887893677, -1.2836525440216064, 0.6842705011367798, 1.2084920406341553, 0.5582366585731506, 0.695145845413208, 0.3193555474281311, 0.30550190806388855, -0.8277627229690552, -0.967681884765625, -0.13396471738815308, 1.1202795505523682, 0.008582347072660923, -0.7467283606529236, -0.2610982656478882, -0.2974618375301361, 0.3144616484642029, -0.46366918087005615, -1.5825008153915405, -0.30569493770599365, 0.7900576591491699, 1.0455819368362427, 1.691051959991455, -0.5449360609054565, -0.26968419551849365, -1.0375832319259644, -0.20553386211395264, -0.22388944029808044, -0.4802958071231842, -0.27438244223594666, 0.23298406600952148, 0.6316052079200745, 0.500495433807373, -0.4228329062461853, -0.3555360734462738, -0.4650413393974304, -0.10944154858589172, -0.7385181784629822, 0.5022836327552795, 0.1433146744966507, 0.6838845610618591, -1.3370544910430908, 0.5393261909484863, 0.6226916313171387, -0.5671439170837402, -0.2654198408126831, 0.0036028623580932617, -0.0062293559312820435, -0.20317436754703522, -0.415242463350296, -0.39823976159095764, -0.2338607907295227, 0.9652958512306213, -0.3327045142650604, -0.14973878860473633, 0.8031729459762573, 0.8417569398880005, -0.4466018080711365, -0.0833069458603859, -0.08385305106639862, -0.3311313986778259, 0.1824183166027069, 0.5164311528205872, -0.42201459407806396, -0.5028154850006104, -0.15610285103321075, -1.016794204711914, -1.012463092803955, -1.3312946557998657, 1.0183874368667603, -0.41562098264694214, -0.7796787023544312, -1.117282748222351, -0.2236841470003128], [-1.0437425374984741, -0.5644034147262573, -1.0527377128601074, -1.6868970394134521, 0.8279794454574585, 0.20905980467796326, -0.5333357453346252, -0.10074003040790558, -1.353546142578125, -0.09477275609970093, -0.8599962592124939, -0.820742130279541, -0.042736612260341644, -0.16594532132148743, -1.7364864349365234, -1.5275261402130127, 1.0903583765029907, -0.44983455538749695, 0.0934523493051529, -0.19332829117774963, -1.9073587656021118, -0.9894079566001892, -0.5549591779708862, -0.007074644323438406, 0.29991522431373596, -0.20669648051261902, -0.34884852170944214, 0.007944496348500252, -1.38754141330719, -1.1221305131912231, -0.3643157482147217, 0.16940680146217346, -0.47170889377593994, -0.058976661413908005, -1.1726552248001099, 0.6593629121780396, -0.9492627382278442, 0.19608159363269806, -0.12148052453994751, -1.5163283348083496, -0.5318089723587036, -0.31226426362991333, -0.7776849865913391, -0.3482119143009186, -1.210693359375, 0.021199669688940048, 0.2480710744857788, -0.7724549174308777, -0.12858161330223083, 0.13117776811122894, 0.4502348005771637, 0.32047826051712036, -0.32315585017204285, -0.6533494591712952, -0.06871972978115082, 0.46987205743789673, -0.061231985688209534, -0.22773733735084534, -0.028016263619065285, 0.7274708151817322, -0.17793898284435272, 0.187020406126976, -0.42606353759765625, 0.6976540088653564, -0.37552711367607117, 0.13335159420967102, -0.2921866476535797, 0.1802855134010315, 0.6728419661521912, 0.5043107271194458, -0.2552447021007538, 0.13561490178108215, -1.3716243505477905, -1.383631706237793, -0.41828763484954834, -1.335623025894165, -0.10423863679170609, -0.7813969850540161, -0.1826612502336502, -0.24050235748291016, -1.4584367275238037, 0.025990845635533333, -1.5999778509140015, -0.625248908996582, -0.30552637577056885, 1.304019808769226, -1.706556797027588, -2.6353516578674316, 0.42118731141090393, 0.047727759927511215, -0.3815929591655731, -0.7551036477088928, -0.5943986177444458, 0.23919369280338287, 0.10227534174919128, -0.9029979109764099], [2.2116706371307373, 0.6303021907806396, 1.7142324447631836, -0.3699016869068146, 0.31823351979255676, 1.374151349067688, 0.6378182172775269, 1.5236085653305054, -0.2290140837430954, -0.5446445941925049, 0.745722234249115, 0.559486448764801, 0.17991292476654053, -0.3120851516723633, 0.6664190888404846, -0.42903396487236023, -0.21692325174808502, -0.06164705008268356, -0.9635138511657715, 0.12123841047286987, 0.2802582085132599, 1.0089560747146606, 0.7913427352905273, 1.8297022581100464, -1.4587982892990112, -0.6854009032249451, 0.8164786696434021, 2.0416581630706787, 0.6815766096115112, 0.28075650334358215, 1.6452561616897583, -2.0139315128326416, -1.994754433631897, 0.912830650806427, 0.69292151927948, -0.31695660948753357, 0.4974348843097687, 0.6909586787223816, 0.05594829097390175, 0.5107532739639282, 0.9208389520645142, -1.0224528312683105, 0.45039594173431396, 0.6542595624923706, -1.133655071258545, -2.525928497314453, -0.2952798902988434, -0.5195304751396179, 0.8937737345695496, -0.7344172596931458, 0.8534789085388184, -0.42190617322921753, 0.1005774661898613, 0.11970417201519012, -0.08006534725427628, 0.5713030099868774, -0.30163848400115967, -0.1380375176668167, -0.6489638686180115, 0.3968157470226288, 0.09574414044618607, 0.7608876824378967, -1.5247396230697632, 1.4222090244293213, -0.26842719316482544, 0.003721063956618309, 0.5953930020332336, 0.4736560881137848, 1.2450873851776123, 0.38073602318763733, -0.5548722743988037, -0.20394161343574524, 0.5980814695358276, 0.8694064617156982, 0.7070603370666504, 1.7900422811508179, -0.5363886952400208, 0.12033701688051224, 0.9311944246292114, -0.2510282099246979, 1.1495765447616577, 0.11149879544973373, 0.41461700201034546, 0.25504982471466064, 0.8722527027130127, -0.45223236083984375, 0.5657021403312683, 0.6933462619781494, 0.05510706081986427, 0.13523469865322113, -0.47843438386917114, 0.8060579895973206, 0.9381663203239441, -0.5344839096069336, -0.22907474637031555, -1.6281148195266724]]}, "input_size": 120, "conv1d_stride": 10, "conv1d_1_stride": 8}