{"conv1d": {"bias:0": [-0.00789978913962841, -0.004720616154372692, -0.007026892155408859, -0.006160454824566841], "kernel:0": [[[3.4174766540527344, -1.1858092546463013, 1.1671470403671265, -2.52437424659729]], [[3.4484047889709473, -0.5547047257423401, 1.5065535306930542, -0.9530526995658875]], [[3.449662923812866, 0.39331895112991333, 1.4000111818313599, 0.6045586466789246]], [[3.1256988048553467, 1.070137858390808, 1.5788277387619019, 1.9400770664215088]], [[3.003316640853882, 1.764404058456421, 2.0889947414398193, 3.1163642406463623]], [[2.4909636974334717, 1.992037296295166, 2.3997914791107178, 3.5258398056030273]], [[1.7935453653335571, 2.397646903991699, 2.825356960296631, 3.5637218952178955]], [[0.783642053604126, 2.5129263401031494, 2.8861441612243652, 3.152562379837036]], [[-0.277252733707428, 2.327103853225708, 2.80409836769104, 3.0494461059570312]], [[-1.1168726682662964, 2.055638074874878, 2.434814929962158, 1.9335987567901611]], [[-2.315939426422119, 0.722508430480957, 1.4428850412368774, 0.08755089342594147]], [[-3.7223479747772217, -0.49486637115478516, -0.018299251794815063, -2.746027708053589]]]}, "conv1d_1": {"bias:0": [0.0078084128908813, 0.01305278018116951, 0.008828934282064438, -0.0033153172116726637], "kernel:0": [[[-0.13277941942214966, 0.17725133895874023, -0.10263824462890625, 0.02829355001449585], [0.10307347774505615, -0.06320732831954956, 0.08397132158279419, -0.17752504348754883], [-0.14283233880996704, -0.11947101354598999, 0.2087392807006836, -0.01742309331893921], [-0.2479960322380066, 0.17006206512451172, 0.23025912046432495, -0.04947251081466675]], [[-0.5875369906425476, -0.31642505526542664, 1.3905879259109497, 0.3974076807498932], [0.5222646594047546, 1.0807791948318481, 0.6814601421356201, -0.005094856955111027], [0.01678239181637764, 0.24104510247707367, 1.1670901775360107, 0.10067956894636154], [0.3754381537437439, 1.6967860460281372, -0.16361020505428314, 0.4973226487636566]], [[-0.683692216873169, -0.016219543293118477, 0.9271032214164734, -0.11125417798757553], [0.008223501965403557, -0.1605786234140396, -0.0015115501591935754, -0.15855813026428223], [-0.3011060953140259, 0.2058698683977127, 0.4169832766056061, -0.38304853439331055], [-0.47145864367485046, 0.0765950083732605, -0.15345390141010284, 0.011338208802044392]], [[0.0672263652086258, -0.7044064402580261, -1.613601803779602, -0.1405617594718933], [-0.2626921534538269, -1.0772833824157715, -0.48771217465400696, -0.3929109573364258], [-0.30016088485717773, -0.7024267911911011, -0.9314441084861755, -0.3135073781013489], [-0.3423784077167511, -1.0988249778747559, -0.4625786244869232, -0.23256456851959229]], [[0.008407268673181534, 0.14142869412899017, -1.1200491189956665, -0.2219865769147873], [-0.7476198673248291, -0.6256040930747986, -0.4040597975254059, -0.27700409293174744], [-0.41554853320121765, -0.26455432176589966, -0.24038852751255035, -0.3126799166202545], [-0.36745262145996094, -0.5879898071289062, -0.05660254508256912, -0.5778976082801819]], [[-0.48098909854888916, 0.14106951653957367, 0.34342139959335327, 0.09772174060344696], [1.2624812126159668, 0.6656519174575806, 0.3204379081726074, 0.5897777676582336], [0.7781758904457092, 0.29776689410209656, 0.16450953483581543, 0.22494389116764069], [1.0636180639266968, 0.5311608910560608, 0.04872525855898857, 0.6264746189117432]], [[1.2488540410995483, 0.7362892031669617, 0.13977055251598358, 0.843687891960144], [0.45355790853500366, 0.24578948318958282, 0.053048763424158096, 0.09675324708223343], [0.46484243869781494, -0.11318457871675491, 0.014663892798125744, 0.21989043056964874], [0.647594690322876, -0.2924261689186096, 0.460806280374527, 0.3140867054462433]], [[0.10350893437862396, 0.09386663138866425, -0.04826665669679642, 0.3095795512199402], [0.09529199451208115, -0.14970621466636658, 0.39621502161026, -0.1370658129453659], [0.27247270941734314, -0.2979651093482971, 0.0240341667085886, 0.0324016809463501], [0.05736175552010536, 0.06612773984670639, -0.022211575880646706, -0.1041598841547966]], [[0.6425214409828186, 0.6401539444923401, -0.7143518924713135, -0.33924341201782227], [-0.831984281539917, 0.731673538684845, 0.32026442885398865, 0.16961802542209625], [-0.7118421196937561, 0.6784341931343079, 0.4409762918949127, -0.11432987451553345], [-0.6159538626670837, 0.8119542002677917, 0.2482387274503708, -0.24399811029434204]], [[-3.365895986557007, 0.2889222204685211, 0.2413148432970047, 0.8722589612007141], [-0.9487687349319458, 1.9130607843399048, -2.362922191619873, 1.579925775527954], [-1.7467091083526611, 1.6528794765472412, -1.8513298034667969, 1.5017184019088745], [-1.4143837690353394, 1.8088042736053467, -2.197582960128784, 1.4027432203292847]], [[1.6566534042358398, -2.059028148651123, 1.0552223920822144, -2.2263681888580322], [1.105604887008667, -1.1046512126922607, 1.367816686630249, -1.8278037309646606], [1.9311672449111938, -0.49170365929603577, 0.6897879242897034, -1.7690834999084473], [1.9066195487976074, -1.9062343835830688, 2.3783884048461914, -2.1895592212677]], [[-0.14065831899642944, -0.19611716270446777, -0.03319525718688965, 0.17276805639266968], [0.07799071073532104, -0.036166489124298096, 0.08750152587890625, 0.023133516311645508], [-0.1683993935585022, -0.07442367076873779, -0.08425217866897583, -0.24468731880187988], [-0.1581847071647644, 0.10480129718780518, -0.2107459306716919, 0.1791468858718872]]]}, "dense": {"bias:0": [-0.01602165400981903], "kernel:0": [[-0.039114415645599365], [0.2818247973918915], [-0.062092412263154984], [0.08721902221441269], [-0.32274243235588074], [-0.06926599889993668], [-0.1746518611907959], [-0.19036965072155], [0.056136276572942734], [0.014502801932394505], [0.06822739541530609], [0.08746377378702164], [0.0016347803175449371], [0.04191487655043602], [0.050371430814266205], [0.20605042576789856], [0.02062598429620266], [0.029690563678741455], [0.05369385704398155], [0.08747096359729767], [-0.04351050406694412], [0.0399959459900856], [0.07446667551994324], [0.11754091084003448], [-0.047853000462055206], [-0.06151894852519035], [0.07458078116178513], [-0.027319397777318954], [0.23655927181243896], [0.16432242095470428], [-0.20790404081344604], [0.10070670396089554]]}, "lstm": {"bias:0": [-0.08271455764770508, 0.6456547975540161, -0.12088955193758011, -0.14784789085388184, 0.13882100582122803, 1.2771003246307373, 0.7808566093444824, 0.39352691173553467, -0.3722791075706482, -1.1460530757904053, -0.46544113755226135, -0.5176714658737183, -0.37401121854782104, 0.8364457488059998, -0.8833553791046143, 0.25732186436653137, -0.23990891873836517, -0.9691598415374756, 0.04207452014088631, 0.23242956399917603, -0.2234317511320114, 0.032019659876823425, -0.1465284824371338, 0.3693385720252991, -0.41207778453826904, 0.07587867230176926, 0.815373420715332, -0.35142430663108826, 0.09759843349456787, -0.06807582825422287, 0.21793875098228455, 0.4952281415462494, 1.0, 1.0, 1.0, 1.0, 1.0, 1.0, 1.0, 1.0, 1.0, 1.0, 1.0, 1.0, 1.0, 1.0, 1.0, 1.0, 1.0, 1.0, 1.0, 1.0, 1.0, 1.0, 1.0, 1.0, 1.0, 1.0, 1.0, 1.0, 1.0, 1.0, 1.0, 1.0, -0.11959546059370041, -0.055357031524181366, -0.2741866111755371, -0.02710549905896187, 0.008976057171821594, 0.03231349587440491, -0.16620038449764252, 0.04542763903737068, -0.04324144124984741, 0.03590594232082367, 0.4006619155406952, 0.03603008762001991, 0.13459044694900513, 0.11748570203781128, -0.02769741788506508, -0.03856302797794342, -0.037699416279792786, -0.06099613383412361, -0.2863791584968567, 0.04946575686335564, -0.12085387110710144, 0.22107604146003723, -0.03916804492473602, 0.12433341890573502, -0.18149687349796295, 0.002110993955284357, -0.05503826215863228, 0.08138597756624222, -0.1640681028366089, -0.25841423869132996, -0.23869620263576508, -0.008302818052470684, -0.08460146188735962, 0.3929394781589508, -0.11434591561555862, 0.6262175440788269, -0.00019003020133823156, 0.6480886936187744, 0.3299076557159424, 0.15346495807170868, -0.019153090193867683, -1.2677838802337646, -0.16835978627204895, -1.0192352533340454, -0.20685775578022003, 0.14250971376895905, -0.5190853476524353, 0.22325675189495087, -0.34008267521858215, -0.5902392864227295, -0.004571606405079365, 0.5222988128662109, 0.09520438313484192, -0.644757866859436, 0.1535618156194687, -0.025893056765198708, -0.4566781520843506, 0.5320486426353455, 1.138445496559143, -0.22753652930259705, -0.3777894675731659, -0.04795296862721443, 0.1426297277212143, 0.22737222909927368], "kernel:0": [[0.2074223756790161, -1.4583606719970703, 0.03453737497329712, 0.07168355584144592, 1.4060838222503662, -0.587098240852356, 0.8033919334411621, 0.7239052653312683, 0.5990204215049744, 0.1583050787448883, -0.9696421027183533, 0.13454461097717285, 1.6161139011383057, 0.14416076242923737, -0.6025364398956299, 0.20384269952774048, 0.2344074547290802, 0.7691882252693176, -0.07374048233032227, 0.22670245170593262, -1.0116665363311768, 0.529232382774353, -0.6529620289802551, 1.3680521249771118, 0.7296282649040222, 0.16878795623779297, 0.11991917341947556, 0.9218670725822449, -0.606346607208252, 0.5863000750541687, 1.026938796043396, 1.8042664527893066, -0.00010928511619567871, -0.0017617493867874146, 0.2033175528049469, -0.10780668258666992, 0.010509967803955078, 0.04203423857688904, 0.1676602065563202, -0.0397428423166275, 0.2044389843940735, 0.1947847306728363, 0.0025847554206848145, -0.21235275268554688, 0.02769853174686432, -0.0260450541973114, 0.1438261866569519, 0.07011035084724426, 0.024094045162200928, -0.20326676964759827, 0.03547196090221405, 0.08416202664375305, 0.0025245696306228638, -0.16232340037822723, 0.11562693119049072, 0.1593061089515686, -0.11704257130622864, 0.20826289057731628, 0.13673806190490723, -0.1958075612783432, 0.09383979439735413, -0.12082912772893906, -0.09863158315420151, -0.18290060758590698, -0.8012053966522217, 2.3096797466278076, 0.5734044909477234, -0.0959625244140625, 0.6610503792762756, -0.20758740603923798, 1.4934179782867432, -1.1574501991271973, -0.34075552225112915, 0.12300518900156021, -0.012227049097418785, -0.3055606484413147, 0.6349146962165833, 0.9681426882743835, 0.043370649218559265, 0.5258635878562927, 0.2345215529203415, -0.2563592791557312, -0.019757593050599098, -0.479494571685791, 0.36803141236305237, -0.15833929181098938, -0.24763523042201996, 1.6633273363113403, -0.3861726224422455, -0.12611080706119537, -2.24946928024292, 0.04275745898485184, 0.6774236559867859, -0.41413334012031555, 2.6089494228363037, -0.9156553745269775, -0.7243120670318604, 1.8559478521347046, 0.06261354684829712, -0.06856369227170944, -0.9445459842681885, 0.23456574976444244, -0.697826623916626, -0.851682186126709, -0.4554944634437561, -0.5529263615608215, 0.5960386991500854, 0.3500460088253021, 1.5455697774887085, -0.011682783253490925, 0.2191503494977951, 0.4846884608268738, 0.2956409752368927, 0.2527618706226349, -0.118845634162426, 0.5349425077438354, 1.2909551858901978, -0.8844618201255798, 0.9312925934791565, -1.2760827541351318, -0.4966293275356293, 1.2629947662353516, -0.5069819092750549, -0.38254883885383606, 1.0144789218902588, -0.4540625512599945, -0.8793379664421082, -0.9047218561172485], [-1.1555495262145996, 1.1002967357635498, 1.400099754333496, 0.2149488925933838, -1.136252522468567, 0.10211211442947388, -0.06055155768990517, -0.059153150767087936, -0.48711827397346497, 0.35816940665245056, 0.21004632115364075, 0.04920564964413643, -1.5259116888046265, 0.19949720799922943, 0.1735522449016571, -0.15645040571689606, -0.3929062783718109, 0.3273043930530548, 0.05764900892972946, -0.19016215205192566, 0.7673692107200623, 0.8027938604354858, 0.48887673020362854, -1.2490137815475464, -0.11388279497623444, 1.1499912738800049, -0.8545088768005371, 0.1441010981798172, 0.35820919275283813, -0.3837507665157318, -0.6894852519035339, 0.5941393971443176, 0.17820873856544495, -0.20088553428649902, -0.18675094842910767, 0.08360069990158081, -0.05686226487159729, -0.09811762720346451, -0.1629863828420639, -0.14663435518741608, -0.14120616018772125, 0.1759580671787262, 0.1342996060848236, -0.01824726164340973, -0.13854943215847015, -0.10093000531196594, -0.016993924975395203, -0.13310964405536652, -0.03155700862407684, -0.014105752110481262, 0.021561548113822937, -0.16452565789222717, 0.20102372765541077, 0.032171815633773804, 0.1509476602077484, 0.20384898781776428, 0.03430107235908508, -0.09832151234149933, -0.08938877284526825, 0.200479656457901, 0.21062928438186646, -0.04732601344585419, -0.06239563226699829, -0.045187294483184814, 0.15972895920276642, -2.5639963150024414, 0.09606873989105225, -0.3092123866081238, -1.3754382133483887, -0.42782044410705566, 1.5224754810333252, -0.5802432894706726, -0.2603382170200348, -0.19199945032596588, -0.5024322271347046, -0.1718132495880127, -0.6144816279411316, -0.4721408188343048, 0.05017027258872986, -0.40555819869041443, -0.4468899965286255, 0.14544400572776794, 0.2982940673828125, 0.13482366502285004, -0.029556000605225563, -0.7072085738182068, -0.19108013808727264, -1.108487844467163, 0.08884993195533752, 0.1655389964580536, 0.09081988781690598, -0.35207200050354004, -0.3593844175338745, -1.7475230693817139, 0.65766441822052, -0.7914350628852844, -0.19507244229316711, -1.4552654027938843, -0.7615545392036438, -0.21544145047664642, 0.69215327501297, -0.28268206119537354, 0.12131205201148987, 0.11346864700317383, 1.0133516788482666, 0.3419544994831085, 0.5355290770530701, -0.34089627861976624, -1.3495155572891235, -0.4059663712978363, -0.038682784885168076, -0.3390568196773529, -0.3013940453529358, 0.035038791596889496, 1.5819803476333618, -0.09001322835683823, -0.1381220668554306, -0.7233049273490906, 0.36846664547920227, 1.3035404682159424, -0.2697579860687256, -0.7594276666641235, 0.014110252261161804, -0.25867733359336853, -0.6757436394691467, 0.40248924493789673, 0.6194211840629578, -0.342145711183548], [-0.28980785608291626, -2.179326057434082, -0.4152306914329529, -0.047907158732414246, 1.8195891380310059, -0.27294471859931946, 0.5343695282936096, 0.5201852917671204, -0.28225454688072205, 0.18198400735855103, -0.4376573860645294, -0.16894052922725677, 1.5447648763656616, 0.2732151448726654, -0.22154492139816284, 0.2974572479724884, 0.3685069680213928, -0.590581476688385, 0.6096935868263245, -0.7529798746109009, -0.21999675035476685, 1.6544140577316284, -0.5931326746940613, 1.2910610437393188, 0.715354859828949, -0.41213417053222656, -3.2119104862213135, -0.4577593505382538, -0.321097195148468, 0.48077699542045593, 0.7761226892471313, 0.5841901898384094, 0.1714838445186615, -0.1186811625957489, 0.04857173562049866, -0.04324570298194885, -0.10084323585033417, -0.14625206589698792, 0.0801967978477478, 0.19702023267745972, 0.005577176809310913, 0.16339769959449768, -0.11870932579040527, 0.14780667424201965, 0.1502789855003357, 0.07543697953224182, -0.0739177018404007, 0.06202998757362366, -0.13016444444656372, -0.0559428334236145, 0.17747515439987183, -0.04112350940704346, 0.21118998527526855, 0.1544036865234375, 0.0026959776878356934, -0.010138347744941711, 0.15592387318611145, 0.09798893332481384, 0.07488182187080383, 0.11326169967651367, 0.037937819957733154, -0.08842278271913528, -0.16686290502548218, -0.12426022440195084, -0.3357698619365692, 1.4621829986572266, 0.007092375308275223, 0.17900875210762024, -3.711637496948242, -1.3291473388671875, 0.5262342095375061, -1.011779546737671, 0.24259135127067566, 0.06813469529151917, 0.25009214878082275, 0.165666863322258, 0.8376425504684448, 0.5859653353691101, -0.14051459729671478, 0.41415542364120483, 0.17838841676712036, -0.2948436141014099, 0.8342700004577637, 0.7268494367599487, -1.234793782234192, -0.8411450386047363, 0.4835542142391205, 0.5767768025398254, -0.25851503014564514, -0.08684185892343521, 2.6132214069366455, -0.5507445931434631, 0.4799173176288605, -0.6427503824234009, -0.4383701980113983, 0.2717688977718353, 0.484601765871048, 2.278637409210205, 0.3476904332637787, -0.07987646758556366, -1.5156261920928955, -0.6715841293334961, -0.548199474811554, -0.6449071168899536, 0.2272031605243683, -0.2775806188583374, -0.14478032290935516, 0.6526988744735718, 1.1765226125717163, -0.062433451414108276, 0.19597145915031433, 0.16827039420604706, 0.32576489448547363, 0.483855664730072, -0.044982343912124634, 0.7506746053695679, -0.2207784205675125, 0.22778719663619995, -0.6435065865516663, -1.2486258745193481, -0.20381778478622437, -0.07337752729654312, 2.092684507369995, -1.058377742767334, 0.7120011448860168, -0.4480713903903961, -0.6600885391235352, -0.24356260895729065], [-0.1560894101858139, 1.8491322994232178, 0.982164740562439, -0.27351468801498413, -1.857146978378296, 1.3135321140289307, -0.45622217655181885, -0.42981675267219543, -0.5095142126083374, -0.897255539894104, 1.9245412349700928, 0.2010549157857895, -1.0204578638076782, -0.475004643201828, 0.7220292687416077, -0.5660560727119446, 0.7629700899124146, 0.011930418200790882, -0.05639923736453056, -0.11515071243047714, 1.0014814138412476, 0.4255519509315491, 1.0462805032730103, -1.4450500011444092, 0.2981405556201935, 0.10562951862812042, 0.5558079481124878, -1.6282979249954224, 0.5104309320449829, -1.4742625951766968, -1.6344975233078003, 0.8683657050132751, -0.006727531552314758, 0.10700350999832153, 0.016993209719657898, -0.01766824722290039, 0.08583679795265198, 0.17668479681015015, 0.20876407623291016, -0.13260719180107117, 0.1751672625541687, -0.10767218470573425, -0.05169747769832611, -0.1308804452419281, 0.13457190990447998, -0.144727885723114, 0.03710365295410156, 0.002768412232398987, -0.10279987752437592, -0.12726488709449768, 0.12587568163871765, -0.05344581604003906, 0.09821709990501404, 0.006472259759902954, 0.2032105028629303, 0.038149088621139526, -0.09494282305240631, 0.014111608266830444, -0.09479755163192749, -0.0954851433634758, -0.03814531862735748, -0.014475762844085693, 0.05798974633216858, 0.1522110402584076, 0.33566954731941223, -2.942709445953369, -0.5948743224143982, 0.3000680208206177, -0.9155950546264648, -0.3479255735874176, 0.6241725087165833, -1.4041694402694702, 0.19238315522670746, 0.1077825129032135, -0.9717437624931335, -0.06674627214670181, -0.8214660286903381, 0.8310868144035339, 0.2706396281719208, -0.5999622344970703, -0.1299578696489334, 0.20534315705299377, -0.16299794614315033, 0.1524321585893631, 0.6058608293533325, -0.34389030933380127, -0.44901832938194275, 0.6150712966918945, 0.7190790772438049, -1.6412698030471802, -0.08001179993152618, 0.19335217773914337, -0.9823846220970154, 0.5903134942054749, 0.7456121444702148, -0.2505951225757599, -0.1662631630897522, -2.399348497390747, -0.09043596684932709, 0.2624114453792572, 1.2587465047836304, -0.11836650967597961, 0.4320290982723236, 0.5246182084083557, -0.41507792472839355, -0.5430135130882263, 0.2862505316734314, -0.8069571852684021, -0.6909099221229553, 0.4787387251853943, -0.04857669770717621, -0.3788389265537262, -0.5821400284767151, 0.36902669072151184, -0.28408312797546387, 0.11955910176038742, -0.5606202483177185, 1.4162403345108032, 0.052444178611040115, 0.9649823307991028, 2.104965925216675, -0.502495288848877, 0.2944972515106201, -0.836262583732605, -1.412781000137329, 1.2165955305099487, 1.1852442026138306, -0.356881320476532]], "recurrent_kernel:0": [[0.023795604705810547, 0.07372480630874634, 0.08128472417593002, -0.0008081410196609795, 0.06911981105804443, -0.05832616612315178, -0.2130969762802124, 0.011352374218404293, 0.0004290073411539197, -0.0356077142059803, 0.08767108619213104, 0.03208489716053009, 0.04951123893260956, -0.09698876738548279, -0.09453613311052322, 0.14773641526699066, -0.009257646277546883, 0.10611240565776825, 0.014027914963662624, 0.060855086892843246, -0.0301236379891634, -0.061068788170814514, -0.014388173818588257, 0.15060535073280334, 0.07398686558008194, 0.05828461796045303, -0.17045427858829498, 0.01579991728067398, -0.05717892199754715, 0.12576082348823547, -0.04416913539171219, 0.00903086457401514, 0.19010627269744873, 0.028263751417398453, -0.14902351796627045, -0.087984599173069, -0.05365089327096939, 0.06473476439714432, 0.0746784657239914, -0.0435887835919857, 0.023799847811460495, 0.06816601008176804, 0.012393887154757977, -0.06685679405927658, 0.10048389434814453, 0.05334032326936722, 0.12571020424365997, -0.005304126534610987, 0.013298877514898777, -0.03190219774842262, -0.06204185634851456, 0.01293368823826313, 0.05932259187102318, -0.0036180964671075344, 0.05629339441657066, -0.06867461651563644, -0.1378859281539917, 0.11226391047239304, -0.025604093447327614, -0.07585549354553223, -0.04561975598335266, -0.16622042655944824, -0.18348142504692078, 0.1265852004289627, -0.0031186286360025406, -0.03269554674625397, -0.1016986221075058, -0.04147599637508392, -0.0926477462053299, -0.03957488387823105, -0.07368361204862595, 0.149247944355011, -0.02477487549185753, 0.023033486679196358, 0.005619602743536234, 0.11060706526041031, -0.07545110583305359, -0.02316822111606598, -0.03147171810269356, 0.074494369328022, 0.028296509757637978, -0.014868947677314281, -0.08895701169967651, 0.10453402251005173, 0.05667845904827118, 0.18475431203842163, 0.03488195687532425, 0.18480730056762695, -0.3016386032104492, -0.16262702643871307, 0.06403327733278275, 0.15903054177761078, -0.052996352314949036, 0.07934659719467163, -0.13550476729869843, 0.08839285373687744, 0.019441545009613037, -0.11279609799385071, -0.06750641763210297, 0.026839980855584145, -0.030641580000519753, -0.002139434916898608, -0.08893600106239319, -0.0994817465543747, -0.13315656781196594, -0.0444507896900177, -0.03265153616666794, -0.11892164498567581, 0.04844561219215393, -0.10120102763175964, 0.1321837306022644, -0.004545868840068579, 0.09341787546873093, -0.03936132788658142, 0.022836077958345413, -0.0032221628352999687, 0.03052208386361599, 0.07359317690134048, -0.15205341577529907, -0.08088942617177963, 0.09150855988264084, -0.07257621735334396, -0.027229731902480125, 0.003720767330378294, 0.08982343971729279, 0.014749647118151188, -0.005702577065676451, -0.03724946454167366], [0.10296609252691269, -0.17254804074764252, 0.028934676200151443, -0.24820095300674438, 0.0009088637307286263, -0.10822723805904388, -0.0035833362489938736, 0.040753647685050964, 0.08082228899002075, -0.019101722165942192, -0.09703093767166138, 0.04105014726519585, 0.039304908365011215, -0.019800739362835884, -0.14169946312904358, 0.002107195556163788, 0.06991740316152573, 0.16705645620822906, -0.08658044785261154, 0.11068315804004669, -0.07274094969034195, 0.10784848034381866, -0.17524804174900055, -0.11685382574796677, -0.026237506419420242, -0.008330997079610825, -0.10262385755777359, -0.09921570867300034, 0.0670376867055893, 0.10425974428653717, 0.022362176328897476, -0.03024400770664215, 0.08961515873670578, 0.05638334900140762, 0.03257102519273758, -0.002843706402927637, -0.02732785977423191, 0.14185290038585663, 0.18451721966266632, -0.07072527706623077, -0.05222858116030693, 0.04224427044391632, 0.10879990458488464, -0.14562515914440155, 0.11253036558628082, 0.031904034316539764, -0.08380352705717087, -0.14069420099258423, 0.09415847808122635, 0.03901273012161255, -0.008617631159722805, -0.15248648822307587, -0.06262772530317307, -0.011072488501667976, 0.06474531441926956, -0.023677513003349304, -0.04637262970209122, -0.038567669689655304, -0.031463947147130966, 0.08138728886842728, 0.12704120576381683, 0.04049459472298622, 0.08691222965717316, -0.10528729856014252, 0.0042150868102908134, -0.04708506166934967, 0.09572649002075195, 0.019263043999671936, -0.08127536624670029, 0.09551157802343369, 0.09272485971450806, -0.15569448471069336, 0.06767752021551132, -0.046991802752017975, -0.0031499071046710014, -0.049708668142557144, -0.08555471152067184, -0.169842928647995, -0.17244496941566467, -0.01214208360761404, -0.0001402145717293024, 0.01571171171963215, -0.1733999252319336, -0.1038268506526947, -0.05860624834895134, -0.00944230891764164, 0.0626969262957573, -0.09928498417139053, 0.14536716043949127, -0.02534252405166626, -0.05508677661418915, -0.028672760352492332, -0.07936179637908936, 0.013180404901504517, 0.07243941724300385, -0.09905211627483368, 0.10729582607746124, -0.0617215596139431, -0.005804053973406553, -0.12398536503314972, -0.0755235031247139, -0.09459149092435837, -0.07887691259384155, 0.008941101841628551, -0.026083238422870636, -0.04943085089325905, 0.11801028996706009, 0.06176306679844856, 0.07429008930921555, 0.10853315889835358, 0.045989956706762314, -0.14632830023765564, 0.12674200534820557, -0.05682700127363205, -0.016077935695648193, -0.009180862456560135, -0.06459365785121918, 0.08370152860879898, -0.11668442189693451, 0.03943841904401779, 0.029312919825315475, -0.0262298546731472, -0.0937395915389061, -0.0694635882973671, 0.09961548447608948, -0.0775778591632843, -0.1298384666442871, -0.05533038079738617], [0.05674286186695099, -0.05293390527367592, 0.012164236977696419, -0.007717350032180548, -0.043328072875738144, -0.00027612526901066303, -0.07159729301929474, -0.11905089020729065, 0.0423969067633152, 0.1429929882287979, 0.15249215066432953, 0.032088104635477066, -0.05316025763750076, -0.22682933509349823, -0.08516823500394821, -0.12546153366565704, 0.13432255387306213, 0.03697039186954498, -0.09726876020431519, -0.09773033112287521, 0.16104966402053833, 0.11383423954248428, -0.028760869055986404, -0.07592586427927017, 0.0070475442335009575, -0.035314228385686874, -0.008881110697984695, 0.14474990963935852, -0.034285422414541245, -0.097735695540905, 0.11388368904590607, -0.018895335495471954, -0.14354990422725677, 0.0418737418949604, 0.043933168053627014, -0.05163128674030304, -0.0867282971739769, -0.06253328919410706, 0.03145649656653404, 0.008788986131548882, 0.05691780894994736, 0.07815448939800262, -0.013202862814068794, -0.032306306064128876, 0.08316991478204727, -0.011488011106848717, 0.0027125212363898754, 0.01722426526248455, -0.13047754764556885, -0.1091085746884346, 0.22201842069625854, 0.0029824089724570513, 0.0895097404718399, -0.1507815569639206, -0.1059420108795166, -0.04774709418416023, -0.0879921242594719, -0.08063379675149918, -0.009042498655617237, -0.09425231069326401, 0.01315231155604124, 0.08720282465219498, -0.037157148122787476, -0.015454303473234177, -0.008110267110168934, 0.01167449913918972, -0.006661537569016218, -0.0186733677983284, -0.16243141889572144, 0.24466833472251892, 0.06650938093662262, -0.015142673626542091, 0.0667126476764679, -0.10737140476703644, 0.11033710837364197, -0.03590227663516998, 0.03690464049577713, 0.006277201697230339, 0.12163879722356796, 0.1721169650554657, 0.1237594336271286, -0.028631694614887238, 0.05183684453368187, 0.02797265350818634, 0.05382681265473366, 0.03643742576241493, 0.0652441456913948, 0.09389407187700272, -0.013135645538568497, 0.026669306680560112, 0.0678081065416336, -0.028932083398103714, -0.014337201602756977, 0.046564023941755295, -0.06879525631666183, 0.0359514057636261, 0.08351770788431168, 0.08363015204668045, -0.005251919850707054, 0.09355034679174423, -0.09175225347280502, -0.12838788330554962, 0.15779100358486176, 0.18595673143863678, -0.11046375334262848, -0.0757330134510994, -0.10290463268756866, 0.07043947279453278, 0.13612771034240723, -0.09394939243793488, -0.09259676188230515, 0.015751004219055176, -0.03324287012219429, -0.06543385982513428, -0.1430867463350296, 0.03789672628045082, -0.040557049214839935, -0.009116042405366898, -0.12808628380298615, 0.09145074337720871, -0.08276121318340302, 0.002596911508589983, -0.10883213579654694, 0.049098774790763855, -0.05011340230703354, 0.16039009392261505, -0.0581575483083725, -0.06588815897703171], [-0.09335216879844666, -0.07363912463188171, 0.04818340018391609, -0.0815030112862587, -0.029505930840969086, 0.0716942623257637, 0.04434451088309288, -0.13090859353542328, 0.010578915476799011, 0.012168293818831444, -0.024332065135240555, 0.104793980717659, 0.08389107882976532, 0.1700984090566635, -0.03232849761843681, -0.09894490987062454, -0.16129469871520996, -0.06519395858049393, -0.10926629602909088, -0.005262248683720827, -0.039531879127025604, 0.06700310111045837, 0.015968959778547287, -0.05215519666671753, -0.08475062251091003, -0.12654416263103485, 0.17287340760231018, 0.14809881150722504, -0.04206916317343712, 0.04358180612325668, 0.0697827860713005, -0.0924656018614769, 0.1757298856973648, -0.03506015986204147, 0.041057195514440536, 0.19216346740722656, 0.11172498762607574, 0.03588717430830002, -0.15127207338809967, 0.024177726358175278, 0.007011348381638527, -0.06365960836410522, -0.04185862839221954, -0.002330935560166836, -0.107285276055336, -0.06798400729894638, -0.03235384076833725, -0.043741632252931595, 0.07392773032188416, -0.20630311965942383, -0.015012983232736588, -0.13197481632232666, -0.06027727201581001, -0.008470315486192703, -0.01296001672744751, -0.15096557140350342, -0.04501732438802719, 0.07406534999608994, -0.010492793284356594, 0.0734245628118515, 0.12860745191574097, -0.07283283770084381, 0.060537807643413544, 0.06702335923910141, -0.13199445605278015, -0.013942445628345013, -0.13205157220363617, -0.03184954822063446, 0.031669795513153076, 0.03120364248752594, -0.18661172688007355, -0.029091816395521164, 0.04613931104540825, -0.15361323952674866, 0.07198850810527802, 0.08324936032295227, 0.0861266553401947, -0.14068397879600525, -0.059340618550777435, 0.03941456601023674, 0.06126788258552551, -0.05745003744959831, -0.052936851978302, 0.060243766754865646, 0.07974564284086227, 0.05563138425350189, -0.08298359811306, -0.029808441177010536, -0.060759030282497406, -0.21312683820724487, 0.09468656033277512, 0.027980830520391464, 0.023664813488721848, 0.060318563133478165, -0.009421853348612785, -0.007716744672507048, 0.12357572466135025, -0.02017945982515812, -0.01493967603892088, -0.03991391137242317, -0.14399194717407227, 0.16771200299263, 0.09156941622495651, -0.1253267228603363, 0.14306217432022095, 0.010672390460968018, 0.020849596709012985, 0.002672852948307991, -0.024938387796282768, -0.03878191486001015, -0.06494580209255219, 0.04354959353804588, 0.101594477891922, -0.042750950902700424, -0.12919893860816956, -0.09973713755607605, 0.18626669049263, -0.08801916986703873, -0.07743965089321136, 0.1119907796382904, -0.09405467659235, 0.04797937348484993, -0.010466760024428368, 0.023155437782406807, 0.02315879985690117, 0.10324272513389587, -0.01847466640174389, 0.03074207529425621], [-0.01543433777987957, -0.0799567922949791, 0.16274170577526093, -0.08147133886814117, 0.01794932223856449, 0.04569178447127342, 0.013401797041296959, -0.014222445897758007, 0.03471596539020538, 0.05159671977162361, -0.013313368894159794, 0.0415186882019043, -0.004408084321767092, -0.07586859911680222, 0.03957657143473625, -0.10597207397222519, -0.06955079734325409, -0.010173794813454151, -0.011181492358446121, 0.06115492805838585, -0.09512105584144592, -0.041938964277505875, -0.20668722689151764, -0.06550218164920807, -0.06030367314815521, 0.1016484871506691, 0.009869164787232876, -0.010161743499338627, -0.04704289138317108, -0.07101436704397202, -0.10025660693645477, -0.049379561096429825, -0.0849960446357727, -0.031196286901831627, -0.1349007487297058, -0.18770256638526917, -0.015336250886321068, -0.011912455782294273, 0.015067302621901035, -0.048184238374233246, -0.030253509059548378, 0.03277798742055893, 0.055836692452430725, 0.07397885620594025, -0.14351217448711395, 0.002602160908281803, 0.007836798205971718, -0.04771123826503754, -0.019040554761886597, -0.03654779866337776, -0.21501578390598297, 0.0991809144616127, -0.04576490819454193, 0.07657978683710098, -0.13017447292804718, -0.04794623702764511, -0.1969168484210968, -0.02100357599556446, 0.16985119879245758, 0.054059017449617386, -0.022322271019220352, -0.1354834884405136, 0.15291716158390045, 0.06976813822984695, 0.047079551964998245, 0.035166025161743164, -0.1750379502773285, 0.20263703167438507, -0.056471336632966995, 0.10430382937192917, -0.008636156097054482, -0.018317511305212975, -0.0652628242969513, 0.07302963733673096, 0.18387067317962646, 0.022695183753967285, -0.13709737360477448, 0.17273522913455963, 0.06878799200057983, -0.050359755754470825, -0.12535473704338074, -0.026718033477663994, 0.14087511599063873, -0.0897471085190773, 0.07956840097904205, -0.10214919596910477, -0.014129793271422386, -0.07894321531057358, -0.09601688385009766, 0.056651026010513306, -0.2693871259689331, -0.00408539641648531, 0.03211639076471329, 0.019118422642350197, -0.041195936501026154, -0.10983094573020935, 0.02111940085887909, -0.1038249209523201, -0.1010151132941246, -0.006155409850180149, 0.04534174129366875, 0.037379808723926544, 0.07247146964073181, 0.0014931128825992346, 0.04336477071046829, -0.022067341953516006, -0.011260666884481907, -0.11151409894227982, 0.11700904369354248, -0.020170222967863083, -0.009878351353108883, -0.10270851850509644, 0.05013328418135643, 0.029194021597504616, 0.05744586139917374, -0.03781513124704361, 0.05197283625602722, 0.009004938416182995, -0.04350493475794792, 0.04808283597230911, -0.15468259155750275, 0.1036781594157219, 0.054549653083086014, -0.02655685506761074, -0.037832606583833694, 0.09261522442102432, -0.009830203838646412, -0.20223072171211243], [-0.07952003926038742, -0.02607652358710766, -0.05542720854282379, 0.04148237034678459, 0.0529681071639061, -0.07958559691905975, 0.11630390584468842, -0.24204982817173004, 0.11646932363510132, 0.052850205451250076, -0.12304302304983139, 0.1730187088251114, 0.13004566729068756, 0.12956763803958893, -0.16632628440856934, 0.02998340129852295, -0.06906793266534805, 0.05388457700610161, 0.024930456653237343, -0.031211046501994133, -0.042821239680051804, -0.07508300989866257, -0.2062290459871292, 0.08632474392652512, 0.16592681407928467, 0.10801737755537033, -0.085013248026371, 0.04989708960056305, 0.0945904552936554, -0.02589438110589981, 0.014130918309092522, 0.04806201532483101, -0.17509308457374573, -0.03367658331990242, -0.10964661091566086, 0.05046382173895836, 0.0803598165512085, 0.08153711259365082, 0.06633298844099045, 0.045134808868169785, -0.042013589292764664, -0.09933224320411682, 0.11012942343950272, -0.028612766414880753, -0.057445596903562546, 0.0047029065899550915, 0.005054758861660957, 0.027414385229349136, -0.010002318769693375, 0.14451171457767487, -0.11046209931373596, -0.024371759966015816, -0.0910138189792633, -0.13790322840213776, 0.0235684122890234, 0.19301311671733856, 0.028358563780784607, 0.0018839053809642792, -0.07943590730428696, 0.011396341025829315, -0.14280980825424194, -0.07981981337070465, 0.1969260424375534, -0.02449917420744896, -0.04567144066095352, 0.10721833258867264, -0.042147863656282425, -0.24840116500854492, 0.04819944128394127, 0.17343872785568237, 0.04039405286312103, -0.015608924441039562, -0.027480270713567734, -0.077880859375, 0.032232314348220825, 0.04789307340979576, -0.032402023673057556, 0.011165537871420383, 0.006649610120803118, 0.049697183072566986, -0.07169055938720703, -0.07709965109825134, 0.020205028355121613, 0.021058272570371628, -0.028487563133239746, 0.023060642182826996, 0.11838668584823608, 0.13676151633262634, -0.09208796918392181, -0.02390100806951523, 0.014168310910463333, -0.02568376436829567, -0.08106447011232376, -0.1558162122964859, -0.04021843895316124, 0.0892041027545929, 0.07800973951816559, 0.0002430872991681099, -0.005482403561472893, 0.07594514638185501, -0.058061383664608, 0.008229377679526806, 0.0796152800321579, -0.06616738438606262, 0.035753034055233, 0.08352094888687134, 0.02110147476196289, 0.12828651070594788, 0.06088750809431076, 0.013100584968924522, -0.033363599330186844, 0.08756902068853378, -0.05958626791834831, -0.08639608323574066, 0.06472413241863251, 0.175598606467247, -0.014441519975662231, -0.10217573493719101, 0.11028777062892914, -0.10984528064727783, 0.04792213812470436, -0.017287602648139, -0.0030293050222098827, -0.049097683280706406, -0.01368551142513752, 0.10967987030744553, -0.019435975700616837, 0.06870444864034653], [0.10668077319860458, -0.042693354189395905, 0.06120988726615906, 0.07745350897312164, -0.048945650458335876, -0.00956936925649643, -0.1614040583372116, 0.11771266162395477, 0.07005701959133148, 0.10678766667842865, -0.04499160498380661, 0.01740783452987671, 0.03454224765300751, 0.09362659603357315, -0.1555510014295578, -0.06034884974360466, 0.09975997358560562, 0.10713586956262589, -0.03787332400679588, -0.11799103021621704, 0.0012115405406802893, -0.023818526417016983, -0.06437613815069199, 0.15992538630962372, -0.008597638458013535, 0.014338202774524689, 0.02178936079144478, 0.11238820105791092, 0.02214321866631508, 0.14444765448570251, 0.10635296255350113, 0.029468171298503876, 0.059020742774009705, -0.18448609113693237, -0.011373328976333141, 0.009278827346861362, -0.05739050358533859, -0.06964264810085297, -0.07114270329475403, 0.12055367231369019, -0.037568505853414536, -0.056231141090393066, -0.006761615164577961, -0.07108860462903976, -0.05038471519947052, -0.2186995893716812, 0.1397538036108017, -0.018576612696051598, -0.02785184420645237, -0.07322458177804947, -0.06551828980445862, -0.1004638671875, -0.019174959510564804, 0.15750591456890106, -0.06432227790355682, 0.02971692383289337, 0.06403707712888718, -0.0030337627977132797, 0.02064415067434311, -0.018229670822620392, -0.09226701408624649, 0.180667445063591, -0.04362625628709793, -0.1500023454427719, 0.01349044218659401, 0.0006512647960335016, 0.14514939486980438, 0.03571857139468193, -0.036565717309713364, 0.1264108419418335, 0.043184589594602585, -0.06120666116476059, 0.04446898400783539, 0.02507820352911949, 0.11090721189975739, 0.05720788240432739, 0.12115418165922165, 0.04263468459248543, 0.10818979889154434, -0.06683750450611115, 0.022918378934264183, -0.0866314098238945, 0.12390010058879852, -0.033846452832221985, 0.07604984194040298, -0.07332351058721542, -0.11235359311103821, 0.018880505114793777, -0.04063008725643158, -0.1660180389881134, -0.08582654595375061, -0.09110478311777115, -0.13460350036621094, 0.14460811018943787, -0.08380237221717834, -0.005168694071471691, -0.15512068569660187, -0.09236595034599304, 0.06393861025571823, 0.008414218202233315, 0.05998259410262108, -0.01353736873716116, -0.24139758944511414, -0.05478326231241226, 0.07519195973873138, 0.10799815505743027, -0.010417124256491661, 0.24247321486473083, 0.017461838200688362, -0.03128333017230034, 0.037350885570049286, -0.05596891790628433, 0.01356326974928379, 0.019403832033276558, 0.02267862856388092, 0.01524379663169384, 0.08861863613128662, -0.012502321973443031, 0.025312747806310654, 0.027936499565839767, 0.09199671447277069, -0.008626428432762623, -0.0011491584591567516, 0.029980817809700966, -0.05002957582473755, -0.1111457347869873, 0.12479451298713684, -0.16528014838695526], [-0.06330817937850952, -0.01158425584435463, -0.10343051701784134, -0.009766437113285065, -0.0484839491546154, -0.07780517637729645, 0.01072736456990242, 0.0859960988163948, 0.017165159806609154, -0.015561047941446304, -0.1141040101647377, 0.05943628400564194, -0.09255316108465195, -0.1533387154340744, -0.10485459864139557, 0.11570151895284653, 0.10098695755004883, -0.02230660617351532, 0.046778008341789246, -0.013383043929934502, 0.05998857691884041, 0.05802243947982788, -0.02389645203948021, 0.06798341125249863, -0.10145637392997742, 0.01248885877430439, 0.035463932901620865, 0.11552039533853531, 0.01940106973052025, 0.10675888508558273, -0.033667683601379395, 0.07023649662733078, -0.06604542583227158, 0.10163172334432602, -0.0835302472114563, -0.0650433823466301, -0.1390281766653061, 0.15140551328659058, -0.06410438567399979, -0.025807207450270653, -0.036216363310813904, -0.15277045965194702, 0.04596470296382904, 0.09114545583724976, -0.0672948807477951, 0.13593408465385437, -0.16517691314220428, 0.09522151947021484, -0.0564086027443409, -0.06603240966796875, 0.07204720377922058, -0.08516304194927216, 0.022560138255357742, 0.01187674980610609, 0.028293944895267487, 0.03874250873923302, 0.13783225417137146, 0.17475354671478271, 0.022531304508447647, 0.15531091392040253, 0.029289061203598976, 0.24462668597698212, -0.04861992597579956, 0.10628198832273483, -0.010365583933889866, -0.023654086515307426, 0.03631884604692459, 0.1361214518547058, -0.008546406403183937, 0.06025524437427521, -0.056143488734960556, -0.026618465781211853, -0.03160427138209343, -0.022579949349164963, 0.003956763539463282, -0.18598322570323944, 0.051392413675785065, 0.020800838246941566, -0.15274113416671753, -0.060236793011426926, -0.093015156686306, -0.14334265887737274, 0.054121535271406174, 0.03629668802022934, -0.08305836468935013, -0.07877064496278763, -0.009877149946987629, -0.14668326079845428, -0.04016920179128647, -0.016331680119037628, 0.011643500998616219, 0.01889916881918907, -0.04318976029753685, -0.012060356326401234, -0.05895306542515755, 0.19364364445209503, 0.10845722258090973, -0.019220026209950447, -0.08600698411464691, 0.1257130205631256, -0.05800116807222366, 0.12146923691034317, 0.027755621820688248, 0.09305956214666367, 0.11569242924451828, 0.08808699995279312, -0.030623843893408775, -0.14220629632472992, 0.03355462849140167, -0.018979448825120926, 0.12815894186496735, 0.00472065806388855, -0.10458528250455856, -0.086570605635643, 0.1876334846019745, -0.0809871256351471, 0.16690680384635925, -0.00453931512311101, -0.12344467639923096, -0.1330355852842331, -0.027574099600315094, -0.13574549555778503, -0.03432951122522354, 0.08292951434850693, -0.019388889893889427, 0.0873589739203453, 0.004557875916361809, -0.03896709159016609], [0.32288870215415955, 0.09461900591850281, -0.076081283390522, 0.03261072188615799, 0.01998155191540718, 0.13785593211650848, 0.10536026954650879, 0.016371460631489754, 0.05309506133198738, 0.03843820467591286, 0.10426504909992218, -0.04324525222182274, 0.01804940029978752, 0.06728735566139221, 0.05285615846514702, 0.04669861122965813, 0.08691930025815964, -0.024785924702882767, -0.03243200480937958, 0.09429265558719635, 0.12601321935653687, 0.19560709595680237, 0.06854062527418137, -0.041657954454422, -0.07152433693408966, -0.06287993490695953, 0.031306903809309006, 0.04603225737810135, -0.02521374449133873, -0.14988666772842407, -0.06649612635374069, -0.15849411487579346, -0.10049140453338623, -0.10418127477169037, -0.033551834523677826, -0.08076020330190659, -0.15863965451717377, 0.026916254311800003, -0.18609677255153656, -0.040671978145837784, 0.039849549531936646, -0.14419740438461304, 0.1631634682416916, -0.03426075726747513, 0.06996949762105942, 0.03939129039645195, 0.00431118905544281, -0.12134385854005814, 0.13308894634246826, -0.0030142301693558693, -0.18469023704528809, 0.11471949517726898, -0.09256818145513535, 0.111662857234478, -0.012836618348956108, 0.01333995908498764, -0.08116134256124496, 0.1983637511730194, -0.11264300346374512, -0.009069012477993965, 0.010712257586419582, -0.013204872608184814, -0.09774051606655121, -0.1183684915304184, 0.033756792545318604, -0.06608624756336212, 0.05747530236840248, -0.10276412218809128, -0.04466059058904648, -0.006509855855256319, 0.1405501514673233, -0.017446890473365784, 0.006930132396519184, -0.02399432100355625, -0.042826972901821136, 0.06179327890276909, 0.007658965885639191, -0.054036159068346024, 0.01372293010354042, 0.06858272105455399, 0.061833422631025314, -0.11086615920066833, 0.01723509281873703, 0.06685006618499756, -0.036984220147132874, 0.048118360340595245, -0.026952529326081276, -0.09015755355358124, -0.05340416356921196, 0.0010467804968357086, 0.07023921608924866, -0.012505996972322464, -0.013968873769044876, -0.0267991591244936, 0.09664978086948395, 0.01061864010989666, 0.07628945261240005, -0.23797057569026947, -0.09227873384952545, -0.043127357959747314, 0.13160201907157898, -0.05733238905668259, 0.13227957487106323, 0.009886808693408966, 0.07095029205083847, 0.08318108320236206, 0.05680198594927788, -0.05608191713690758, 0.16652655601501465, -0.10767743736505508, 0.0050795190036296844, -0.05027639865875244, 0.015665994957089424, 0.06964120268821716, -0.011774331331253052, 0.07638014107942581, 0.07531192898750305, -0.07877429574728012, 0.09498323500156403, -0.08711870014667511, 0.08626369386911392, 0.06599602848291397, -0.0566788911819458, -0.06002161279320717, 0.02579493820667267, 0.03860286623239517, -0.006846988573670387, 0.09369779378175735], [0.061682891100645065, -0.04726256802678108, 0.05813309922814369, -0.01764080300927162, -0.10598929971456528, -0.06219050660729408, -0.10881723463535309, -0.043693773448467255, 0.025586334988474846, 0.054484959691762924, -0.005177053157240152, 0.10937236249446869, 0.00628673704341054, -0.003284517675638199, -0.02548103593289852, -0.037328291684389114, -0.07816602289676666, -0.05267462506890297, -0.12594740092754364, -0.10546579957008362, -0.05889526382088661, 0.030428055673837662, 0.03748071566224098, 0.06655871868133545, -0.06272044032812119, -0.002053549513220787, 0.08457406610250473, -0.1710103154182434, -0.04977414384484291, 0.027355266734957695, -0.08653891086578369, 0.05561938136816025, -0.006577916443347931, -0.05275113508105278, 0.007649147883057594, 0.04457160830497742, 0.2024809867143631, -0.053422845900058746, -0.04560159519314766, -0.05291365832090378, 0.23569996654987335, -0.091376394033432, -0.12957483530044556, -0.04875823110342026, 0.08609799295663834, 0.17971999943256378, -0.028411617502570152, -0.13732728362083435, 0.07698768377304077, -0.11587465554475784, -0.02974756807088852, 0.2780876159667969, -0.08318831771612167, -0.047194816172122955, -0.043543491512537, 0.15870754420757294, -0.08921156823635101, -0.00013488158583641052, 0.010829721577465534, 0.1775672733783722, 0.03543677553534508, 0.0789547711610794, -0.1612670123577118, -0.20452028512954712, 0.005597064271569252, 0.015857353806495667, -0.15438280999660492, 0.01865491457283497, -0.00030482886359095573, 0.12742936611175537, -0.0011163181625306606, -0.055029843002557755, 0.02952468767762184, 0.08810168504714966, -0.03977733477950096, 0.027388572692871094, 0.13723649084568024, 0.08754584938287735, -0.09806587547063828, 0.09075663238763809, 0.11689065396785736, -0.06557575613260269, 0.05669450759887695, -0.06600363552570343, -0.10433977842330933, -0.10695972293615341, 0.06008173152804375, 0.011529192328453064, -0.06976901739835739, 0.004124850034713745, -0.029149476438760757, 0.011622494086623192, -0.07983934879302979, -0.12809517979621887, -0.0713171437382698, 0.019574830308556557, -0.005631261505186558, 0.08614633977413177, 0.083193838596344, 0.0018069660291075706, 0.06953033059835434, 0.06374368071556091, 0.03826319798827171, -0.08471634238958359, -0.06496081501245499, -0.14246149361133575, 0.017293786630034447, 0.039222538471221924, -0.08014114201068878, 0.0756501704454422, 0.07775366306304932, -0.13306793570518494, -0.07256530970335007, -0.10406084358692169, -0.01900991052389145, 0.004714339971542358, 0.019023576751351357, 0.24478913843631744, -0.020588111132383347, -0.08606038987636566, 0.03892330825328827, -0.013643384911119938, 0.10129497945308685, 0.1008889451622963, 0.022669222205877304, 0.014345966279506683, 0.027246754616498947, 0.10744922608137131], [-0.1282029151916504, -0.09549258649349213, -0.17861315608024597, -0.1606302708387375, -0.17110778391361237, 0.1421317607164383, -0.08150439709424973, 0.07799255847930908, -0.17576761543750763, -0.200556680560112, 0.05610278621315956, -0.07329858839511871, -0.15623438358306885, 0.15853777527809143, 0.009131524711847305, -0.2073545604944229, -0.18409831821918488, 0.053090982139110565, -0.03472945839166641, 0.08659947663545609, -0.01107870414853096, -0.0379338301718235, 0.005963017698377371, 0.10313352942466736, 0.11146087944507599, -0.02624603733420372, -0.0185153316706419, 0.04627428576350212, -0.0750143826007843, 0.03058774210512638, -0.09804882109165192, 0.017146965488791466, -0.03760058432817459, -0.2169070839881897, -0.062231503427028656, 0.019216377288103104, 0.08939903229475021, -0.06160791590809822, -0.037318289279937744, -0.03280455246567726, 0.011883514001965523, 0.09768025577068329, 0.07578844577074051, 0.12156640738248825, -0.04715125262737274, 0.012637516483664513, 0.05984123423695564, 0.07141760736703873, -0.14883042871952057, 0.05900914594531059, 0.07531947642564774, -0.03303803130984306, 0.04088437557220459, 0.05646742880344391, 0.0009634844027459621, 0.1266486644744873, -0.03949522599577904, -0.006009504199028015, 0.06489814072847366, -0.030045732855796814, 0.041194625198841095, 0.02301821857690811, -0.16374571621418, 0.06276054680347443, -0.026293853297829628, 0.17124074697494507, 0.05675478279590607, 0.03720969706773758, -0.06693458557128906, 0.023875011131167412, 0.00904813501983881, -0.10346320271492004, 0.14653703570365906, -0.05046956241130829, -0.028632760047912598, -0.036301128566265106, 0.09883639216423035, -0.020272256806492805, -0.02681862562894821, -0.06135643646121025, -0.011007333174347878, -0.15967239439487457, 0.010632907971739769, 0.09101167321205139, -0.0023614680394530296, 0.01637263037264347, 0.04670589417219162, -0.0051107462495565414, -0.06285738945007324, 0.16067704558372498, 0.047498930245637894, -0.07974254339933395, -0.04133843258023262, -0.1022564098238945, 0.08425334095954895, -0.05916386842727661, 0.010061293840408325, -0.10365988314151764, 0.029048897325992584, -0.03400174155831337, -0.012813104316592216, -0.1676011085510254, -0.07199567556381226, -0.10855645686388016, 0.03152298927307129, -0.04894930124282837, 0.07504142820835114, 0.002298991195857525, 0.12796594202518463, -0.07744579762220383, -0.031240902841091156, 0.0299350805580616, 0.017548564821481705, 0.014841720461845398, 0.0904359519481659, 0.1308693289756775, 0.009873593226075172, 0.03752979636192322, -0.18439173698425293, -0.04914877563714981, -0.051713839173316956, -0.031176067888736725, -0.05039075389504433, -0.1189255565404892, 0.09538581967353821, 0.08842606097459793, -0.09203081578016281, 0.04011388495564461], [0.016904301941394806, -0.08723410964012146, 0.04207494109869003, -0.004724485334008932, -0.09304066002368927, 0.030842505395412445, 0.15897169709205627, 0.024363478645682335, -0.04704584181308746, 0.127240389585495, -0.07832378149032593, 0.07418131828308105, -0.05011868476867676, -0.07068052887916565, 0.024099817499518394, -0.08210671693086624, -0.023643791675567627, 0.052619967609643936, -0.09315098822116852, 0.05501418933272362, 0.11313670873641968, -0.10362204909324646, 0.1760619878768921, -0.0421576052904129, -0.08378147333860397, -0.15956369042396545, -0.05290907621383667, 0.07733979821205139, 0.024628637358546257, -0.05113155394792557, 0.016344141215085983, -0.05535028874874115, 0.12943251430988312, 0.06132015585899353, -0.04518045857548714, 0.006785361561924219, 0.12600630521774292, -0.1442703902721405, -0.03896050900220871, -0.0011852289317175746, -0.14479312300682068, -0.03944455459713936, -0.02610001340508461, 0.06325604021549225, 0.15807011723518372, -0.07898226380348206, -0.08550483733415604, -0.045913394540548325, -0.06281095743179321, 0.08085829019546509, 0.02760939858853817, -0.04592112824320793, 0.12247167527675629, -0.04167354851961136, 0.02258794754743576, 0.054968491196632385, 0.14122726023197174, -0.08905831724405289, -0.04755007103085518, 0.008703582920134068, -0.1674172729253769, -0.08010656386613846, 0.06047932431101799, -0.02418443188071251, -0.12127592414617538, -0.08399782329797745, 0.09806172549724579, 0.002049958100542426, -0.08789724111557007, 0.0453617237508297, 0.02294502966105938, 0.008055191487073898, -0.042056530714035034, 0.05056023970246315, -0.01193027850240469, 0.024218278005719185, -0.06515046209096909, 0.09870786219835281, -0.11319528520107269, 0.031337130814790726, 0.006737604271620512, -0.12860038876533508, -0.11150595545768738, 0.06395617127418518, 0.21896904706954956, 0.02253689244389534, 0.053364310413599014, -0.05758257582783699, -0.13135778903961182, -0.011857574805617332, -0.17656299471855164, 0.18978126347064972, 0.02663773111999035, -0.03304685279726982, 0.019256873056292534, 0.018988564610481262, 0.04074684530496597, -0.04970890283584595, -0.10963866114616394, 0.08199736475944519, 0.24668240547180176, -0.07811625301837921, 0.03464855998754501, -0.10591508448123932, 0.11582430452108383, -0.020382395014166832, 0.001489246729761362, 0.06418539583683014, -0.041297558695077896, 0.01490271557122469, 0.011295503005385399, 0.017307190224528313, -0.03745109960436821, -0.1614912748336792, -0.0002196245186496526, -0.16167862713336945, -0.039680834859609604, 0.18272213637828827, -0.00327037600800395, -0.04493219405412674, 0.06339654326438904, -0.04958048462867737, -0.020296944305300713, -0.20918333530426025, -0.20729880034923553, -0.015694785863161087, -0.04105900228023529, 0.03828902170062065], [-0.046707555651664734, 0.09798543155193329, -0.09224335849285126, -0.1230393797159195, 0.10229034721851349, -0.041947849094867706, 0.049985114485025406, 0.10100999474525452, 0.02601335383951664, 0.07827002555131912, 0.06988131254911423, 0.13243818283081055, -0.12439361959695816, -0.05356257036328316, -0.0758911669254303, 0.1632164865732193, -0.0727141723036766, -0.13434560596942902, -0.09114587306976318, 0.0029305177740752697, -0.0700102373957634, -0.07041928172111511, 0.1386452168226242, 0.07396814227104187, 0.15469080209732056, 0.004422272089868784, 0.101069875061512, 0.027535993605852127, 0.1939709335565567, -0.11864320933818817, 0.1830894500017166, 0.03959333896636963, 0.07744374126195908, 0.071510910987854, 0.04528580605983734, -0.19001024961471558, -0.139894500374794, -0.22039532661437988, -0.066109299659729, 0.003635095665231347, 0.04412269964814186, -0.0686526820063591, -0.10239188373088837, 0.0014978174585849047, 0.03491947799921036, 0.08269086480140686, 0.017068665474653244, -0.02605573460459709, 0.10268441587686539, 0.07075420022010803, -0.032544463872909546, 0.060964442789554596, 0.05477580800652504, 0.030519358813762665, 0.161808043718338, 0.14580640196800232, -0.06335249543190002, 0.04976164922118187, 0.08439253270626068, 0.13080675899982452, -0.04422302544116974, -0.009407390840351582, 0.03511522710323334, -0.017788060009479523, 0.02215910144150257, -0.024410611018538475, 0.04322737455368042, 0.017822645604610443, 0.049055226147174835, 0.08907189220190048, -0.010527041740715504, -0.03730201721191406, 0.07973364740610123, -0.009610826149582863, 0.07556501030921936, -0.11476562917232513, -0.0651983991265297, -0.13208353519439697, 0.14295054972171783, -0.192068412899971, 0.033651791512966156, 0.08424989134073257, 0.18835727870464325, 0.10548033565282822, 0.041568923741579056, 0.006424205377697945, -0.11827252805233002, 0.14123502373695374, -0.07966981083154678, -0.13526777923107147, 0.017244771122932434, -0.03155727684497833, 0.0015250900760293007, -0.12045161426067352, 0.14524228870868683, -0.11743953824043274, 0.11616295576095581, -0.011476317420601845, 0.003929029684513807, -0.1773298978805542, -0.03059767745435238, 0.04124172031879425, -0.01202775351703167, -0.018792029470205307, 0.007886751554906368, 0.00240174587816, 0.022772548720240593, 0.04298027604818344, 0.009964464232325554, 0.08900760114192963, -0.11106002330780029, 0.05165761336684227, 0.0372854545712471, 0.0122360959649086, 0.004516768269240856, -0.040747638791799545, -0.05494647100567818, 0.06355803459882736, -0.10261184722185135, 0.03730054199695587, -0.006222098134458065, -0.08076483756303787, -0.03562029078602791, -0.012970976531505585, -0.007931428030133247, 0.0386347696185112, -0.1422652155160904, -0.08220058679580688], [0.1439356505870819, -0.0318075530230999, -0.07490023970603943, -0.0408051572740078, -0.0002414816990494728, 0.05812937766313553, 0.02910503000020981, 0.041207075119018555, 0.054750047624111176, 0.1253853589296341, -0.019095826894044876, -0.03659854084253311, -0.11245155334472656, 0.029416915029287338, -0.16950549185276031, -0.1229596883058548, -0.0524166077375412, -0.03843207657337189, -0.0036993385292589664, -0.27987638115882874, -0.014216586947441101, -0.02605782076716423, -0.017029602080583572, 0.04277242720127106, -0.14396651089191437, 0.058944277465343475, 0.05353666841983795, 0.01908036693930626, -0.18076862394809723, 0.07132260501384735, -0.01439439132809639, 0.11373227834701538, 0.14622817933559418, 0.0005814020987600088, -0.11689242720603943, -0.12300354242324829, -0.0046302336268126965, 0.11562705039978027, 0.09713197499513626, -0.01812940649688244, 0.004372826311737299, 0.09448592364788055, 0.08086004853248596, 0.030946552753448486, -0.08677729219198227, -0.05356629937887192, 0.02240324765443802, -0.08607123047113419, -0.04418008774518967, -0.05787438526749611, -0.04631665349006653, 0.0728256106376648, 0.02357923611998558, -0.02635537087917328, -0.10712862014770508, 0.07346190512180328, 0.12139251828193665, 0.04044284671545029, -0.007385426200926304, 0.12462376058101654, -0.19690711796283722, -0.10972128808498383, 0.09514583647251129, -0.0985313281416893, -0.031345099210739136, -0.08679663389921188, 0.028824549168348312, 0.05739818140864372, 0.06874138861894608, -0.12716716527938843, 0.05446518585085869, 0.02086438424885273, -0.046116892248392105, 0.06257961690425873, 0.014402367174625397, -0.19441628456115723, -0.09290486574172974, -0.14013737440109253, 0.02459177002310753, 0.036419741809368134, -0.016014087945222855, 0.13693317770957947, 0.003853314556181431, 0.09685654938220978, 0.10774658620357513, 0.1042780876159668, -0.008622396737337112, -0.20041219890117645, -0.12670563161373138, 0.1223907545208931, 0.13582061231136322, 0.044430263340473175, 0.010363096371293068, -0.0032686004415154457, -0.029598651453852654, 0.030123349279165268, 0.13431698083877563, 0.15727916359901428, 0.1418026238679886, -0.0786169096827507, -0.09291958808898926, -0.04746807739138603, 0.025114916265010834, 0.011243525892496109, 0.03919065743684769, 0.008905397728085518, -0.02961241640150547, -0.010384618304669857, -0.08768296241760254, -0.18983453512191772, -0.1760227531194687, -0.07491922378540039, 0.05273141711950302, 0.05559471249580383, -0.030781056731939316, 0.11997469514608383, -0.0533052533864975, 0.026818949729204178, 0.008880654349923134, 0.00028806552290916443, 0.012172965332865715, -0.08252845704555511, 0.031242776662111282, -0.06303101032972336, 0.11681010574102402, -0.03460051119327545, 0.07610365003347397, 0.07869695127010345], [-0.19044765830039978, 0.002274375408887863, -0.028192099183797836, -0.030698144808411598, 0.0785822868347168, -0.05459671467542648, 0.037894356995821, 0.11325965821743011, 0.048933930695056915, -0.07194018363952637, -0.039178792387247086, 0.13827715814113617, 0.10709425061941147, -0.11458826065063477, 0.10438139736652374, -0.02289193496108055, -0.047121331095695496, -0.12341803312301636, -0.07423568516969681, 0.04682347923517227, -0.05157916620373726, 0.07438822835683823, -0.04671747237443924, -0.022812370210886, -0.14404189586639404, 0.15818071365356445, 0.0733211413025856, 0.1292184740304947, 0.02201026678085327, 0.0678047463297844, -0.07222571223974228, 0.08153597265481949, -0.13767145574092865, 0.03180460259318352, -0.12694494426250458, 0.12256011366844177, 0.12302516400814056, -0.06524781882762909, -0.052674729377031326, 0.056156013160943985, -0.004860322456806898, -0.05074857175350189, -0.19258104264736176, -0.07013237476348877, -0.008902092464268208, -0.07759742438793182, 0.07577307522296906, -0.12348093837499619, 0.021201563999056816, 0.019181864336133003, -0.1486407071352005, 0.007424930110573769, 0.05392990633845329, 0.083188995718956, -0.014837784692645073, -0.0346374548971653, -0.013082178309559822, -0.08478148281574249, 0.00014302879571914673, -0.08674813061952591, 0.131791889667511, 0.07986518740653992, 0.0383349172770977, 0.050448939204216, 0.08670345693826675, 0.06314351409673691, 0.08833512663841248, -0.0019921506755053997, -0.15464581549167633, -0.057829584926366806, 0.051076531410217285, 0.030757946893572807, 0.010619331151247025, -0.12701989710330963, -0.034637823700904846, -0.0961703360080719, -0.022236619144678116, -0.15862607955932617, 0.07349362224340439, 0.14454923570156097, 0.05031050369143486, -0.04726419597864151, -0.006476234644651413, 0.037123460322618484, -0.07835110276937485, 0.14464353024959564, -0.1117805540561676, 0.03989983722567558, -0.05458628013730049, 0.12224828451871872, 0.12133199721574783, 0.28351691365242004, -0.21468472480773926, -0.10745038092136383, 0.058424536138772964, 0.016121093183755875, 0.057495616376399994, 0.08291226625442505, 0.07089506834745407, 0.04396280273795128, 0.09574494510889053, -0.07433491200208664, -0.02071041241288185, 0.06569726765155792, -0.041701190173625946, 0.09688592702150345, 0.11651840806007385, -0.014784416183829308, -0.0589330680668354, -0.10187475383281708, 0.01873704604804516, -0.16214746236801147, -0.018720949068665504, 0.0990762785077095, 0.06047976016998291, -0.02892264537513256, -0.047924578189849854, 0.019519448280334473, 0.07511068880558014, -0.015109829604625702, -0.02799934521317482, 0.028201378881931305, -0.04030657559633255, -0.05748105049133301, -0.09903789311647415, -0.06168626621365547, 0.005651070270687342, -0.1808476746082306], [-0.07857485115528107, 0.03238330036401749, 0.10751377046108246, -0.12305326014757156, -0.02003427967429161, 0.15711727738380432, 0.04474443197250366, 0.08247131109237671, 0.23807820677757263, -0.04862290620803833, 0.12207131087779999, -0.19147300720214844, -0.04560275748372078, -0.08213592320680618, 0.03177011013031006, -0.1119525358080864, 0.05138728395104408, 0.060138680040836334, -0.17304405570030212, -0.026259515434503555, -0.0463717058300972, -0.04697428643703461, -0.055032528936862946, -0.12136862426996231, 0.20984947681427002, -0.05326911062002182, 0.039718277752399445, 0.10767966508865356, -0.0335540734231472, -0.0407472662627697, -0.06097546964883804, 0.06343961507081985, 0.007993421517312527, 0.08934477716684341, 0.004985048435628414, -0.027722187340259552, 0.10138732194900513, -0.034958068281412125, -0.02896750718355179, -0.043591730296611786, 0.16998562216758728, 0.006417549215257168, -0.001545086270198226, -0.016792234033346176, -0.05621972680091858, 0.018388153985142708, 0.01965847797691822, 0.06311582028865814, 0.13467064499855042, -0.06514060497283936, -0.041773200035095215, -0.12726528942584991, -0.06930289417505264, 0.05765162780880928, -0.11747799068689346, 0.06119552627205849, 0.243312269449234, 0.19175364077091217, 0.10029340535402298, -0.06732507795095444, 0.014341482892632484, 0.08506903797388077, 0.18609210848808289, -0.03884962201118469, 0.0216507725417614, 0.1259354203939438, 0.08479238301515579, -0.09552978724241257, 0.06430527567863464, 0.05371019244194031, -0.07148870080709457, 0.14783035218715668, -0.054783403873443604, -0.017471136525273323, -0.07551515102386475, 0.05074569955468178, 0.04368891566991806, 0.059537243098020554, -0.10481511056423187, 0.022697094827890396, 0.03357202932238579, -0.0034446273930370808, -0.019533392041921616, -0.0036099269054830074, 0.04665474593639374, -0.10328619927167892, 0.004435737617313862, 0.1285891830921173, -0.052227266132831573, 0.12634074687957764, -0.06382222473621368, 0.11436360329389572, 0.02226392552256584, 0.01747981831431389, -0.060519829392433167, 0.035783108323812485, 0.04465709626674652, -0.059043630957603455, -0.011007132939994335, -0.18360494077205658, -0.014542080461978912, 0.1124439463019371, -0.021192122250795364, 0.022496888414025307, -0.10348329693078995, 0.13282456994056702, -0.12026388943195343, -0.10318084806203842, 0.07646592706441879, -0.017384352162480354, -0.014638516120612621, -0.011169418692588806, -0.11060260981321335, -0.041771017014980316, -0.07193196564912796, 0.03593384474515915, -0.03801567107439041, 0.07090479135513306, -0.04515599086880684, 0.00405732449144125, 0.15485532581806183, 0.02095409482717514, -0.060852766036987305, 0.04516182467341423, 0.04480854421854019, -0.1891113817691803, -0.10525672882795334, 0.023998264223337173], [-0.09401553124189377, 0.015537276864051819, 0.01924806460738182, -0.1587645560503006, -0.010077513754367828, -0.10749014467000961, 0.0036224108189344406, -0.047972165048122406, 0.018654342740774155, 0.0010932553559541702, 0.09576497972011566, -0.05063234269618988, 0.11356572806835175, 0.020796582102775574, -0.0648338794708252, 0.09885276108980179, 0.027763431891798973, -0.03677136078476906, -0.08507232367992401, 0.05819670855998993, -0.05562421679496765, -0.11203061789274216, -0.08448662608861923, 0.005614319816231728, 0.038315679877996445, -0.08410172164440155, 0.01783818006515503, -0.06514427810907364, 0.07776393741369247, 0.08025911450386047, 0.07016318291425705, -0.012656677514314651, 0.03690255805850029, 0.008137481287121773, -0.04574376344680786, -0.009131711907684803, -0.02351272664964199, -0.18302753567695618, -0.07172594964504242, -0.04802364856004715, -0.055414676666259766, -0.04352812469005585, 0.1615379899740219, -0.0020232489332556725, 0.11924013495445251, -0.10420150309801102, -0.14614224433898926, 0.05140301585197449, -0.05019402503967285, -0.0018156617879867554, -0.09400662034749985, -0.01909898966550827, 0.22406505048274994, 0.03413493186235428, -0.08963160961866379, -0.07019730657339096, -0.02283453568816185, 0.04734991863369942, 0.049480512738227844, -0.043209969997406006, -0.007045694161206484, 0.014553764835000038, -0.09094546735286713, 0.006955349817872047, 0.009363419376313686, 0.09518887102603912, -0.04516121372580528, -0.055441588163375854, -0.0034696366637945175, 0.041620735079050064, -0.09420865029096603, 0.0019596656784415245, 0.04672210291028023, 0.11067408323287964, -0.04253007099032402, 0.12958984076976776, -0.12392517179250717, -0.11111371219158173, 0.06340579688549042, 0.003991910256445408, -0.04183802381157875, -0.012316360138356686, 0.08099212497472763, -0.01934671774506569, 0.018296394497156143, -0.1279728263616562, -0.025269972160458565, -0.06045582890510559, 0.1327233910560608, 0.00027222931385040283, 0.09353764355182648, 0.03619827702641487, -0.015738526359200478, -0.05594729632139206, -0.13302010297775269, 0.11722781509160995, 0.015970837324857712, -0.03927617147564888, -0.008061142638325691, 3.790971823036671e-05, -0.06842536479234695, -0.18628086149692535, 0.02801084890961647, 0.09166307002305984, 0.20255699753761292, -0.03628784418106079, -0.10157813131809235, -0.05087456479668617, -0.06649716943502426, -0.046149592846632004, -0.08491306006908417, -0.1761723905801773, 0.07160593569278717, 0.08782926946878433, -0.044808730483055115, 0.13619239628314972, 0.024304863065481186, 0.11331823468208313, 0.03471677005290985, -0.17446716129779816, -0.24352896213531494, 0.009021565318107605, -0.021245606243610382, 0.1465245932340622, -0.1611834615468979, -0.18310309946537018, 0.08270911872386932, 0.26491779088974], [-0.016088102012872696, -0.027766147628426552, 0.13954226672649384, 0.06687398999929428, 0.03586003929376602, -0.07241310924291611, 0.005247191991657019, 0.030548034235835075, -0.131564661860466, 0.015652505680918694, -0.14911611378192902, -0.06457445025444031, 0.0548037551343441, -0.010089329443871975, 0.11587754637002945, -0.07205475866794586, 0.02630608342587948, 0.0914272889494896, -0.07738296687602997, 0.03318370133638382, 0.04513762891292572, 0.012394285760819912, 0.05146314203739166, 0.002778788097202778, -0.07620032876729965, -0.07287412136793137, 0.11826396733522415, -0.06265194714069366, -0.07042621076107025, -0.01363172847777605, 0.00474472064524889, 0.007412981707602739, 0.1374354511499405, -0.12980465590953827, -0.10022489726543427, 0.1513853818178177, -0.16949467360973358, -0.12381163984537125, 0.11719771474599838, -0.03578181192278862, 0.06663256138563156, -0.03485284745693207, -0.10935992002487183, -0.21351923048496246, 0.015431440435349941, -0.05670055374503136, -0.1863882839679718, 0.010893591679632664, -0.014854250475764275, 0.1528099626302719, 0.014464364387094975, 0.09150160104036331, -0.0029657315462827682, 0.17796523869037628, -0.029660167172551155, 0.179780051112175, -0.008137457072734833, 0.05577481538057327, -0.12994083762168884, -0.11250948905944824, 0.12731407582759857, -0.02490103989839554, 0.07305953651666641, -0.0539323128759861, -0.14014983177185059, 0.003445051610469818, -0.06363758444786072, 0.06778912246227264, 0.1160164475440979, 0.020504236221313477, 0.057112742215394974, 0.04718562215566635, -0.03925437107682228, 0.015466311015188694, -0.03175053000450134, -0.008085690438747406, -0.0912080854177475, -0.015660768374800682, 0.07963938266038895, -0.0407881997525692, -0.09075422585010529, 0.05018017068505287, 0.08127382397651672, 0.01926323026418686, -0.021451931446790695, -0.09910910576581955, -0.015887388959527016, 0.06302843242883682, 0.062811940908432, -0.10035326331853867, 0.039179883897304535, 0.010704349726438522, -0.07423194497823715, 0.0030771098099648952, -0.1938047707080841, 0.059268683195114136, -0.08354337513446808, 0.1805172562599182, -0.006318189203739166, 0.12238157540559769, -0.07420075684785843, -0.015403102152049541, 0.11520761996507645, -0.05430416390299797, 0.014437406323850155, 0.09035179764032364, -0.018235206604003906, -0.11212720721960068, 0.1834600269794464, -0.028950784355401993, -0.1443258672952652, 0.04565974324941635, -0.08026645332574844, 0.042684320360422134, 0.07793709635734558, 0.009247995913028717, 0.041119448840618134, 0.02716848999261856, -0.10639284551143646, -0.04509023204445839, 0.029253752902150154, -0.000704979756847024, -0.15503492951393127, -0.17056751251220703, 0.1974770575761795, 0.006704621948301792, -0.1436084806919098, -0.04255303367972374], [0.17364035546779633, 0.08586712181568146, 0.06347231566905975, -0.06812873482704163, 0.07761285454034805, -0.037350114434957504, 0.18501082062721252, 0.023433774709701538, -0.02637305110692978, 0.011934397742152214, 0.11392094194889069, 0.013384103775024414, 0.029375344514846802, 0.1034160926938057, -0.1520632654428482, -0.061689287424087524, -0.13159802556037903, 0.019032469019293785, 0.019175320863723755, 0.042019765824079514, -0.04495643451809883, -0.021531300619244576, 0.21005436778068542, -0.08933734148740768, -0.0763329342007637, 0.04363900050520897, -0.037688542157411575, -0.007623119279742241, -0.035427361726760864, 0.04190593957901001, 0.018939340487122536, 0.06411033123731613, -0.08176389336585999, 0.15742269158363342, -0.06877229362726212, 0.020480457693338394, 0.020132053643465042, 0.08609307557344437, -0.02197079360485077, 0.020605895668268204, 0.0766444131731987, -0.004739872179925442, 0.01352962851524353, 0.001078413799405098, 0.11316031217575073, -0.05218883603811264, 0.05860566720366478, 0.1538883000612259, -0.02794220671057701, -0.03528337925672531, -0.10697172582149506, 0.08863819390535355, 0.11210836470127106, -0.13714568316936493, -0.00722699798643589, 0.08594968914985657, -0.0849030464887619, -0.031233545392751694, -0.06148223206400871, -0.009887730702757835, 0.15371334552764893, 0.0500156469643116, 0.072540782392025, 0.07727577537298203, -0.17096570134162903, 0.00457761948928237, 0.30696460604667664, 0.04561728984117508, -0.018346302211284637, 0.1277676671743393, 0.06814200431108475, 0.03551776707172394, 0.14115996658802032, -0.04215312749147415, 0.06175919249653816, 0.11882521212100983, -0.04890052229166031, -0.0030470159836113453, 0.015313833951950073, 0.008355235680937767, -0.07477212697267532, -0.17706885933876038, 0.08851055800914764, -0.011880394071340561, -0.10783468931913376, -0.028182536363601685, -0.03913412243127823, 0.054439935833215714, 0.11349788308143616, 0.048105720430612564, -0.08459930121898651, -0.06305043399333954, 0.13137556612491608, 0.13945451378822327, -0.07309794425964355, -0.026342645287513733, -0.006303945556282997, 0.11221235245466232, 0.03841283172369003, -0.02444283664226532, -0.1239859014749527, 0.10002215206623077, -0.036819636821746826, -0.23485508561134338, -0.09788969904184341, -0.03228943049907684, -0.024729087948799133, -0.14995093643665314, -0.07527285814285278, -0.10807029157876968, 0.05661182105541229, -0.07012338191270828, -0.02102973870933056, 0.12192883342504501, 0.0018632705323398113, -0.021219328045845032, -0.037099119275808334, -0.08571868389844894, -0.09738320112228394, -0.0932670533657074, 0.043495625257492065, -0.0779925212264061, 0.1333877146244049, -0.0654459148645401, -0.08424525707960129, -0.004756803624331951, 0.07882629334926605, -0.034484751522541046], [-0.05361635237932205, -0.04740731790661812, 0.004881632514297962, -0.06677167862653732, 0.08175744861364365, 0.08245989680290222, 0.005336169619113207, -0.12370554357767105, -0.10878822952508926, -0.11673473566770554, -0.11769884079694748, -0.04973648115992546, -0.05480363219976425, -0.008304687216877937, -0.051898133009672165, -0.04223497211933136, -0.057684578001499176, 0.08411762118339539, -0.035680387169122696, -0.07412470877170563, 0.043576568365097046, 0.0928543359041214, 0.010699478909373283, -0.027575958520174026, 0.07742397487163544, 0.06785056740045547, 0.02592693641781807, -0.12371253222227097, -0.025188790634274483, -0.003215326927602291, -0.1172432079911232, 0.09213884174823761, 0.026616446673870087, 0.0819292664527893, -0.034579645842313766, -0.042844586074352264, 0.027699878439307213, 0.024330390617251396, -0.011800095438957214, 0.07356996089220047, 0.08584637194871902, -0.18620026111602783, 0.06676144897937775, 0.17790377140045166, 0.1456340253353119, 0.15780651569366455, 0.12503068149089813, 0.10403788834810257, -0.06847341358661652, 0.07604754716157913, 0.15024185180664062, 0.07597824931144714, -0.16609901189804077, 0.04178127273917198, -0.049767959862947464, 0.00203924928791821, 0.08549786359071732, -0.05221666395664215, -0.0025286246091127396, 0.008864267729222775, 0.036161020398139954, 0.00991097092628479, -0.09259992837905884, -0.006521683186292648, -0.05804356187582016, 0.09790826588869095, 0.08349432796239853, 0.041893597692251205, 0.04704694449901581, -0.04569106549024582, 0.20336537063121796, -0.051564086228609085, 0.044994451105594635, -0.18611901998519897, 0.06815868616104126, 0.14106938242912292, -0.0988926962018013, -0.06157977506518364, 0.19305087625980377, 0.00992729514837265, 0.0171208493411541, 0.22972744703292847, -0.06725557148456573, -0.042754292488098145, 0.10215040296316147, -0.056285809725522995, -0.0765947476029396, -0.003204320091754198, -0.0561116524040699, -0.10026858747005463, 0.09797970205545425, 0.006692977622151375, -0.09493657946586609, 0.022323349490761757, -0.06469129025936127, -0.009834406897425652, 0.007820834405720234, -0.11909766495227814, -0.2894722819328308, -0.020630210638046265, 0.006059669423848391, 0.1003376767039299, 0.0706854835152626, 0.018062317743897438, 0.07251348346471786, -0.0048813894391059875, -0.10743752121925354, 0.08996284008026123, -0.12186186760663986, -0.03050035610795021, -0.0392674021422863, -0.17985287308692932, -0.03179529309272766, -0.09638196974992752, -0.012653759680688381, -0.14754042029380798, -0.01663096621632576, -0.03092501498758793, 0.05404605716466904, -0.07583373785018921, -0.08697672188282013, 0.011314642615616322, -0.0546606108546257, -0.04274514690041542, 0.030734814703464508, -0.1257421374320984, 0.08727527409791946, -0.10090439021587372], [0.02769017592072487, -0.033502429723739624, 0.023186562582850456, -0.0904926136136055, -0.22599710524082184, -0.05461478605866432, -0.06123153120279312, -0.007264481857419014, 0.04369502142071724, -0.11253277957439423, -0.15845362842082977, 0.026855502277612686, -0.04595804587006569, 0.10142943263053894, -0.06140635535120964, -0.03058623895049095, 0.008363677188754082, -0.09619533270597458, 0.051799673587083817, -0.17521807551383972, -0.020360203459858894, 0.06185516342520714, -0.0011066554579883814, -0.06710212677717209, -0.005542181432247162, -0.0701981782913208, 0.02170480415225029, -0.10460428148508072, 0.02761177159845829, -0.006503039039671421, 0.23500467836856842, 0.09906260669231415, -0.08750511705875397, -0.03022995963692665, 0.09699106216430664, -0.005456164479255676, -0.01883893460035324, 0.05441855639219284, -0.024901442229747772, 0.015852341428399086, 0.14172926545143127, 0.14983534812927246, 0.021948859095573425, 0.053703173995018005, -0.15990899503231049, -0.028460443019866943, -0.09886959195137024, 0.004599589388817549, -0.061846815049648285, 0.002209703205153346, -0.04355434700846672, -0.09365475922822952, 0.10166094452142715, 0.2152743637561798, 0.020837973803281784, -0.01407881360501051, -0.05480743944644928, -0.006537512876093388, -0.07574495673179626, 0.06622572243213654, 0.09143444895744324, 0.013475961983203888, -0.042625609785318375, 0.13460910320281982, 0.05159525200724602, -0.07955646514892578, -0.08956804126501083, -0.027333522215485573, 0.027587583288550377, 0.1153932437300682, 0.06703218072652817, -0.046022433787584305, -0.10119210928678513, -0.02772640436887741, -0.022760143503546715, -0.02995787374675274, -0.10403035581111908, 0.1466771513223648, 0.06438512355089188, 0.09535706043243408, 0.18288595974445343, 0.05725305154919624, 0.03746842220425606, -0.13148701190948486, -0.10762910544872284, 0.08258514106273651, -0.052157532423734665, 0.0553157776594162, -0.061371006071567535, -0.05909164994955063, -0.027474934235215187, 0.17703421413898468, 0.21768639981746674, -0.1087796613574028, -0.02801811695098877, -0.018522869795560837, -0.0355355441570282, -0.13203242421150208, -0.1036253571510315, 0.021111303940415382, 0.031818147748708725, -0.04829869046807289, 0.03755571320652962, -0.022305743768811226, -0.07871808856725693, 0.14004522562026978, -0.12946473062038422, 0.013309534639120102, -0.1173880398273468, 0.009799418039619923, 0.07344081997871399, -0.007239093072712421, 0.08726983517408371, 0.13164003193378448, -0.06406845897436142, 0.004003395792096853, -0.09062237292528152, -0.08061347901821136, -0.0155884874984622, -0.15147970616817474, 0.10367146134376526, -0.14116312563419342, -0.04719996824860573, -0.2044527381658554, -0.056692153215408325, -0.01323025580495596, -0.04306264594197273, 0.0524042584002018], [0.11633047461509705, -0.04466673731803894, 0.07142913341522217, 0.03453827649354935, -0.11745224893093109, -0.06470603495836258, 0.12488023936748505, 0.10792645066976547, -0.07030094414949417, -0.15034908056259155, -0.05645344778895378, 0.14683151245117188, 0.19395026564598083, 0.062460847198963165, 0.04122002050280571, 0.06863315403461456, -0.019286541268229485, 0.1799127459526062, -0.028722796589136124, 0.027496203780174255, 0.06962734460830688, 0.019950393587350845, 0.014350389130413532, 0.11526962369680405, -0.023029889911413193, -0.09354250133037567, 0.09189428389072418, 0.06621485203504562, 0.09009610116481781, -0.08205725252628326, 0.14333747327327728, 0.14997312426567078, -0.12003980576992035, 0.05645487830042839, -0.009281329810619354, -0.18095530569553375, -0.024521706625819206, 0.003122885711491108, 0.03551047295331955, -0.05202735215425491, 0.29393061995506287, 0.1407175064086914, 0.002590872347354889, 0.08228924870491028, 0.06372463703155518, 0.09057743102312088, -0.013589675538241863, 0.03209586814045906, -0.01750868558883667, 0.17266032099723816, 0.07668246328830719, -0.16979055106639862, 0.022494861856102943, -0.037337735295295715, -0.01575460284948349, -0.20326842367649078, -0.02229161374270916, -0.029304947704076767, 0.05564720928668976, -0.037882089614868164, -0.06281742453575134, -0.14345048367977142, 0.022580662742257118, -0.1504298895597458, 0.0365225113928318, -0.044909026473760605, 0.016055814921855927, -0.0005037188529968262, -0.06117062270641327, -0.06534482538700104, -0.02644973434507847, 0.08468225598335266, 0.025420330464839935, -0.02581271529197693, 0.14935803413391113, 0.04636434465646744, 0.264955997467041, -0.006328117568045855, -0.056618209928274155, 0.058596931397914886, -0.1024382933974266, 0.00594191811978817, 0.02593851275742054, 0.05183682590723038, 0.09335922449827194, 0.04555415362119675, -0.09486269950866699, -0.054314061999320984, 0.06800858676433563, 0.02976284921169281, -0.018573427572846413, 0.044931795448064804, -0.06225329637527466, -0.12570542097091675, -0.10210645943880081, -0.060235247015953064, 0.0054573779925704, -0.05811956524848938, 0.0679788812994957, 0.02857978828251362, -0.034038230776786804, 0.01023800391703844, -0.03623040020465851, -0.0627065971493721, 0.008719021454453468, 0.05899734050035477, -0.048104509711265564, -0.11769283562898636, -0.09757799655199051, 0.0385139063000679, -0.15011009573936462, -0.14365974068641663, -0.069712795317173, 0.027784893289208412, 0.12001514434814453, 0.026158738881349564, 0.0871516764163971, 0.05231710523366928, 0.07414205372333527, 0.06990281492471695, 0.026673518121242523, 0.045526228845119476, 0.004004728980362415, 0.047275081276893616, 0.10656095296144485, 0.09211130440235138, 0.007725403644144535, 0.019168749451637268], [-0.007834438234567642, 0.026761727407574654, 0.18865083158016205, 0.06750129908323288, -0.0678376704454422, -0.006942987907677889, -0.07571441680192947, 0.10084027051925659, 0.08435279875993729, 0.0382724292576313, -0.014515968039631844, -0.010391227900981903, -0.03762409836053848, -0.09449262917041779, 0.1253533959388733, -0.09172668308019638, -0.09236276894807816, -0.08321668207645416, 0.0022676277440041304, -0.07358680665493011, 0.0720694288611412, -0.12011223286390305, 0.005959230940788984, 0.1683032214641571, 0.06986367702484131, -0.0022857277654111385, 0.09117136150598526, 0.03797007352113724, 0.07052188366651535, 0.05960937216877937, -0.27995604276657104, -0.029374681413173676, -0.03413801267743111, 0.160745769739151, 0.08567452430725098, -0.0945897176861763, -0.07460279017686844, 0.13530105352401733, -0.08719340711832047, 0.05290328338742256, -0.1307101547718048, -0.03969510272145271, -0.09484151005744934, 0.14033618569374084, 0.048293907195329666, -0.04900536313652992, -0.08905304968357086, 0.07210815697908401, 0.038208525627851486, 0.10832734405994415, -0.09426740556955338, -0.035090625286102295, -0.043850239366292953, 0.10335048288106918, 0.022418852895498276, -0.1298670917749405, 0.1153365895152092, -0.031680233776569366, -0.02497488632798195, -0.05246184021234512, -0.036498066037893295, -0.08759928494691849, 0.004240256268531084, -0.027223197743296623, -0.06849530339241028, -0.1301574409008026, -0.17993448674678802, -0.02760925516486168, 0.015119912102818489, 0.04884377866983414, 0.18907427787780762, -0.1959129124879837, 0.13072481751441956, 0.10717300325632095, -0.0016447704983875155, -0.012282436713576317, 0.037818290293216705, -0.11506687849760056, 0.026110947132110596, 0.07720760256052017, -0.0765993595123291, -0.14386890828609467, 0.02011130563914776, -0.007071583531796932, -0.10593965649604797, -0.013815206475555897, -0.07616707682609558, 0.10600721091032028, 0.10312960296869278, -0.021345699205994606, -0.03194728121161461, 0.009853407740592957, -0.0033941406290978193, -0.023815389722585678, 0.031103311106562614, 0.14767752587795258, 0.13226497173309326, 0.01816251501441002, -0.029475407674908638, -0.02427111752331257, -0.018331706523895264, -0.15333400666713715, -0.08391425758600235, -0.1530590057373047, -0.1089610829949379, -0.015640437602996826, -0.07591573894023895, 0.06417509913444519, -0.010344468057155609, 0.05088349059224129, -0.008472874760627747, -0.08283129334449768, -0.05170561000704765, -0.03902708366513252, -0.21239922940731049, 0.00947641022503376, -0.03559283912181854, -0.16710975766181946, -0.08314146846532822, 0.0171047393232584, -0.08332985639572144, -0.03345068171620369, 0.03377961367368698, -0.006429359316825867, 0.14742207527160645, 0.014547432772815228, -0.03308745473623276, 0.06690959632396698], [0.1055058091878891, -0.01006330270320177, -0.16909940540790558, -0.03954843431711197, -0.13504111766815186, -0.004737865645438433, -0.014194495975971222, 0.01584264077246189, 0.052774637937545776, 0.11678949743509293, -0.1499880850315094, -0.10785998404026031, 0.07473286241292953, -0.19754423201084137, -0.04346579685807228, -0.14839084446430206, -0.06334195286035538, 0.043507471680641174, -0.0011947652092203498, -0.03140921890735626, 0.009523758664727211, -0.008159720338881016, 0.0006668667774647474, 0.1077127456665039, 0.06605420261621475, 0.017351876944303513, 0.04606403037905693, -0.025816550478339195, 0.10069617629051208, 0.12694162130355835, 0.06902221590280533, -0.07650545984506607, 0.056306175887584686, 0.04719741642475128, 0.1640305519104004, -0.03852459415793419, -0.12826204299926758, -0.13293799757957458, 0.07525075227022171, 0.12629373371601105, 0.013537244871258736, 0.039466653019189835, 0.07411032915115356, -0.06755675375461578, -0.031924057751894, -0.04719509556889534, -0.04502556473016739, 0.10554195940494537, 0.07777576148509979, -0.029017586261034012, 0.0958346575498581, 0.08938401192426682, -0.011285478249192238, -0.07400484383106232, 0.10107801109552383, -0.08953872323036194, 0.02643207460641861, -0.0587407611310482, -0.016224348917603493, -0.09002045542001724, 0.17010243237018585, -0.1561613231897354, -0.02563871257007122, 0.01529696211218834, 0.02117830142378807, 0.1667039394378662, -0.08778893947601318, 0.16256195306777954, -0.010653693228960037, 0.052179839462041855, 0.06220417097210884, -0.05175747349858284, 0.016157474368810654, -0.02207431197166443, -0.07766725867986679, -0.10338311642408371, -0.11160353571176529, -0.08016013354063034, -0.12002405524253845, 0.041204728186130524, -0.08062535524368286, 0.011124614626169205, 0.05484519526362419, 0.0239027738571167, 0.06412443518638611, 0.11470726877450943, 0.021187005564570427, 0.12863600254058838, -0.03827247768640518, 0.10091918706893921, 0.0030123121105134487, 0.04866644740104675, 0.049959711730480194, 0.022963672876358032, 0.07785335928201675, -0.11605192720890045, -0.019389132037758827, -0.04316878318786621, 0.07072634249925613, 0.009130541235208511, 0.036264270544052124, 0.2467557042837143, 0.032580554485321045, -0.11951467394828796, 0.016871176660060883, 0.007939724251627922, 0.010950151830911636, 0.07855555415153503, 0.06112716346979141, -0.17435048520565033, 0.11566082388162613, -0.08436258137226105, -0.13890278339385986, 0.029742244631052017, 0.07380525767803192, 0.04469003900885582, 0.1953132599592209, -0.008428869768977165, 0.20432627201080322, -0.11944011598825455, -0.008962264284491539, 0.14984199404716492, 0.077842578291893, 0.04646235704421997, -0.06475503742694855, -0.05927998572587967, -0.08574314415454865, 0.08009582757949829], [-0.09872794896364212, 0.03285986930131912, 0.023916922509670258, -0.21127311885356903, 0.09830351918935776, 0.017845558002591133, -0.04440045729279518, -0.0025553745217621326, -0.03803155943751335, -0.07239184528589249, 0.08882854878902435, -0.016631659120321274, -0.020775549113750458, -0.0015461351722478867, 0.060471564531326294, -0.013425090350210667, 0.05935760214924812, -0.009630324319005013, 0.006578813772648573, -0.09307432919740677, -0.07607264816761017, -0.01852520741522312, 0.15415534377098083, 0.07059971988201141, -0.20304805040359497, 0.07412157952785492, 0.05675847828388214, 0.08255591988563538, -0.15103080868721008, 0.1285741627216339, -0.04836208000779152, -0.036102235317230225, -0.152886301279068, -0.026122882962226868, 0.07378053665161133, -0.1707063764333725, -0.15652133524417877, -0.058826155960559845, -0.02954532392323017, -0.05908013880252838, 0.013549990952014923, -0.17949658632278442, 0.12000010162591934, 0.030923649668693542, -0.06482449173927307, -0.06545249372720718, -0.1362568736076355, 0.07567373663187027, 0.023929892107844353, 0.040938664227724075, 0.08968799561262131, -0.02071739174425602, 0.025200404226779938, 0.0025805295445024967, -0.18957877159118652, -0.0029105148278176785, -0.06656885892152786, -0.1768193393945694, -0.04854639992117882, 0.015390811488032341, 0.011548621580004692, -0.0673176720738411, 0.004555841907858849, -0.05228525772690773, 0.0341913066804409, 0.06686129420995712, 0.031809065490961075, -0.15718679130077362, 0.024458996951580048, -0.029382916167378426, -0.14957086741924286, -0.0642632246017456, -0.1937980353832245, -0.10503071546554565, 0.06991612911224365, 0.020617075264453888, 0.0019826102070510387, -0.013959897682070732, -0.15951715409755707, 0.028797652572393417, 0.016387155279517174, -0.12208191305398941, -0.00593497883528471, -0.0808272659778595, 0.14663280546665192, 0.15147419273853302, -0.0367494635283947, 0.035245381295681, 0.021492768079042435, -0.215716153383255, -0.052224885672330856, -0.07975555211305618, -0.03670196980237961, -0.03293944150209427, 0.1788415014743805, 0.06634968519210815, -0.11709240078926086, 0.08360140770673752, -0.033087778836488724, 0.029320666566491127, -0.06834471225738525, 0.02291230671107769, 0.07233352214097977, -0.04582296311855316, -0.0812256932258606, -0.010495321825146675, -0.031604547053575516, 0.024322517216205597, 0.11257737129926682, 0.07401903718709946, 0.024600468575954437, -0.02621058002114296, 0.03599308431148529, -0.025631103664636612, 0.0264907144010067, 0.05129101499915123, -0.1718207448720932, 0.11841437220573425, 0.1413276493549347, -0.05284683778882027, 0.04538959264755249, -0.08204304426908493, 0.15450447797775269, -0.019662074744701385, 0.11460098624229431, -0.11029204726219177, -0.04816296696662903, -0.053338903933763504], [-0.09442175924777985, -0.045341748744249344, 0.10192083567380905, -0.05124618113040924, -0.06090783700346947, -0.05119926109910011, 0.08505752682685852, -0.03883195295929909, 0.016914037987589836, -0.09251256287097931, -0.045031771063804626, -0.02622145041823387, -0.01940520480275154, -0.12914948165416718, -0.04845784232020378, 0.05631960928440094, -0.1063450276851654, 0.0057855211198329926, -0.0717037096619606, 0.06838223338127136, 0.008006480522453785, 0.04149417579174042, -0.044683825224637985, -0.016414403915405273, 0.07807885110378265, -0.017592471092939377, 0.0536450520157814, 0.08798224478960037, -0.03914206847548485, 0.1113586351275444, 0.13073445856571198, -0.10684846341609955, -0.15993885695934296, -0.07291017472743988, 0.10357948392629623, -0.0028606634587049484, -0.15558043122291565, -0.08441539108753204, -0.09497040510177612, -0.0006607985123991966, -0.009455949999392033, -0.08529508858919144, -0.07917995750904083, -0.0013717170804738998, 0.00752099696546793, 0.08605580776929855, 0.017146306112408638, -0.06383633613586426, -0.1810033619403839, 0.17426367104053497, -0.059012118726968765, 0.0041963886469602585, 0.06819868832826614, -0.10707460343837738, 0.007493719924241304, -0.0021269628778100014, -0.06527608633041382, 0.16182094812393188, -0.2212112545967102, 0.00460770633071661, -0.014812486246228218, 0.0345400795340538, 0.05563194677233696, -0.2464704066514969, 0.05309170484542847, 0.017909042537212372, -0.0016283728182315826, 0.05458240211009979, 0.08940820395946503, -0.11719067394733429, -0.06496679782867432, -0.03477795422077179, -0.08468031138181686, -0.06709665060043335, -0.11553873121738434, 0.034498050808906555, -0.07623613625764847, 0.08017952740192413, 0.11940152198076248, 0.08229362219572067, -0.06149869039654732, 0.02214117720723152, -0.2319445013999939, -0.003737158142030239, 0.028733130544424057, 0.0012183692306280136, -0.07960756123065948, -0.17001156508922577, -0.09918025135993958, 0.059677306562662125, -0.008259741589426994, -0.021754108369350433, 0.0683063268661499, -0.036646876484155655, -0.10127784311771393, -0.07716113328933716, 0.08929233253002167, 0.017000297084450722, 0.15261873602867126, -0.06002878397703171, 0.1029035672545433, 0.006075662095099688, -0.06823021173477173, -0.06126280874013901, -0.04104264825582504, -0.17265677452087402, -0.10752829909324646, 0.07681577652692795, 0.00932570081204176, -0.05716288834810257, 0.09815026074647903, 0.14195440709590912, -0.012162632308900356, 0.010593157261610031, -0.06088803708553314, 0.040549278259277344, 0.05444088578224182, -0.13189715147018433, -0.20885351300239563, -0.04152318090200424, -0.015977870672941208, 0.01328480988740921, 0.18693403899669647, 0.05664366856217384, 0.04248718172311783, -0.12114851921796799, 0.071078822016716, -0.12811285257339478], [0.05426229536533356, 0.07868792861700058, -0.092743419110775, -0.1983252316713333, -0.007126684300601482, 0.0640486404299736, -0.16078953444957733, 0.07745734602212906, -0.07437396049499512, 0.13381899893283844, -0.07910120487213135, -0.01809925213456154, 0.060490529984235764, -0.10833574831485748, -0.018275007605552673, 0.08409742265939713, 0.03636877238750458, -0.08001728355884552, 0.08898739516735077, 0.03604988008737564, 0.22388748824596405, -0.04038609564304352, 0.20433522760868073, 0.0628078505396843, -0.14416849613189697, -0.07722176611423492, 0.005204233340919018, -0.09772889316082001, 0.02051343396306038, -0.06718108803033829, -0.06243938207626343, -0.048158809542655945, -0.08333875983953476, -0.08373868465423584, -0.04905048757791519, 0.021428139880299568, 0.09446060657501221, -0.013422437943518162, -0.020259199663996696, 0.05130162462592125, 0.1890215426683426, 0.04574130102992058, 0.09139347076416016, -3.202608786523342e-05, -0.08603224903345108, 0.06686145812273026, -0.017720907926559448, 0.02008112333714962, -0.05588468164205551, -0.06223117932677269, -0.02914675697684288, -0.14732415974140167, -0.1163334846496582, 0.0722326785326004, 0.08510927110910416, 0.10862990468740463, -0.05027610808610916, 0.0883924588561058, 0.1408589482307434, -0.056217119097709656, 0.1368965357542038, -0.18043237924575806, 0.20875094830989838, -0.06282895803451538, -0.1603027731180191, 0.018516207113862038, 0.06794096529483795, 0.0325155183672905, 0.05971061438322067, 0.08485442399978638, -0.03261610493063927, 0.04476647078990936, 0.08785451203584671, -0.026219530031085014, -0.05698516219854355, 0.01946156844496727, -0.10012964904308319, 0.11981897801160812, -0.04283423349261284, 0.03321278095245361, -0.15045203268527985, -0.0016805730992928147, -0.12608006596565247, 0.1444854587316513, -0.09691473841667175, 0.03247663006186485, -0.06042248010635376, 0.04937974736094475, -0.10446774959564209, 0.048442207276821136, -0.027078980579972267, 0.007176375947892666, -0.07536745071411133, -0.01903797686100006, -0.06616470217704773, 0.10002486407756805, 0.01832704432308674, -0.03993643447756767, 0.06938681751489639, 0.10037059336900711, -0.038946736603975296, -0.024320129305124283, -0.03652293235063553, 0.10625181347131729, -0.023598600178956985, -0.07012232393026352, 0.012834974564611912, 0.14603844285011292, -0.04413732513785362, 0.17428278923034668, -0.004857173189520836, 0.019282188266515732, 0.13326577842235565, -0.011899007484316826, -0.08164948970079422, 0.08591794967651367, -0.036272525787353516, -0.057700518518686295, 0.06971578299999237, 0.08504021167755127, -0.14359895884990692, -0.07706927508115768, -0.03767513483762741, 0.07800541818141937, -0.03385196998715401, -0.12484066188335419, 0.10191220045089722, -0.0925266370177269], [0.21484625339508057, 0.005980217829346657, 0.18450960516929626, 0.19537082314491272, 0.04745065048336983, 0.002838868647813797, -0.07111106812953949, -0.021960953250527382, -0.07244802266359329, -0.0867714062333107, -0.003680942580103874, -0.13987940549850464, -0.014456086792051792, -0.07882774621248245, -0.030829844996333122, -0.056140247732400894, -0.18486295640468597, -0.009042026475071907, -0.06001034006476402, 0.04925311729311943, 0.07365798950195312, -0.0207761749625206, 0.07565396279096603, -0.026143498718738556, 0.08697572350502014, 0.1281367540359497, -0.0402073934674263, -0.08066250383853912, 0.1748703420162201, 0.01102327648550272, 0.2825390100479126, -0.1776362806558609, -0.00899585708975792, -0.017574263736605644, 0.018185079097747803, 0.05622902512550354, -0.016986433416604996, 0.1285070925951004, -0.2066650688648224, -0.0987890213727951, -0.07890765368938446, -0.10250993818044662, 0.11802548170089722, 0.0023851869627833366, -0.06304662674665451, 0.02479889616370201, -0.014533663168549538, 0.04456828162074089, -0.06022488698363304, 0.03459533303976059, -0.013410769402980804, -0.06414306908845901, 0.04532906040549278, 0.05436921492218971, -0.22233839333057404, 0.21608339250087738, 0.018671831116080284, -0.11649715900421143, 0.17695143818855286, -0.03443323075771332, 0.048207491636276245, 0.0672534629702568, 0.05831803008913994, -0.050390537828207016, -0.06600780785083771, 0.05108826979994774, -0.1663452535867691, -0.04715815559029579, -0.13909676671028137, -0.01565171219408512, 0.010466146282851696, 0.01750796101987362, -0.026614930480718613, 0.011076195165514946, 0.07557367533445358, 0.05529169365763664, 0.06444067507982254, 0.03116634488105774, -0.11497027426958084, -0.09305766969919205, -0.012465061619877815, 0.15718971192836761, 0.052340611815452576, 0.05417019501328468, -0.014950924552977085, 0.10603739321231842, 0.08456169068813324, -0.0828908383846283, 0.018537752330303192, 0.05388501659035683, 0.1537865698337555, 0.14736858010292053, -0.030609972774982452, 0.005347627215087414, 0.041357140988111496, 0.04144986718893051, 0.15867693722248077, 0.011409124359488487, 0.07045319676399231, 0.014368319883942604, -0.04889049753546715, 0.009264799766242504, -0.03927493467926979, -0.05431943014264107, -0.0303975697606802, 0.06393217295408249, 0.07456513494253159, 0.03968926519155502, -0.01811235398054123, -0.014582142233848572, 0.08261214941740036, 0.004964685998857021, -0.0029987916350364685, 0.04629555344581604, 0.0596877820789814, -0.13309644162654877, -0.11765186488628387, 0.07320833951234818, 0.01664038747549057, 0.004059536382555962, -0.081281378865242, -0.05421483889222145, 0.0076362378895282745, 0.06898795068264008, 0.04516497254371643, -0.026641301810741425, -0.04819650202989578, -0.0473964624106884], [-0.027203308418393135, -0.08140195906162262, -0.034211862832307816, 0.07931914925575256, 0.08631860464811325, -0.04561499133706093, 0.0026517603546380997, 0.13875362277030945, -0.21653087437152863, 0.09615595638751984, 0.09207838773727417, 0.002324964851140976, 0.11246229708194733, -0.008264698088169098, -0.10372050851583481, -0.180034339427948, -0.04949885234236717, 0.03182871639728546, -0.05433613806962967, -0.05651290342211723, -0.00920853205025196, -0.12753905355930328, -0.052077047526836395, 0.0452575646340847, 0.14965182542800903, -0.0020487233996391296, 0.16540367901325226, -0.12073680013418198, 0.17990189790725708, -0.09485694766044617, -0.0837593600153923, -0.057259462773799896, -0.05243038386106491, -0.017765134572982788, -0.050772685557603836, -0.09154979139566422, -0.01737385056912899, -0.021638797596096992, -0.013185138814151287, 0.005408146884292364, 0.03163336589932442, -0.012895695865154266, -0.1142687126994133, -0.04340418800711632, 0.015912141650915146, 0.08972319215536118, -0.002761957235634327, -0.0814930871129036, -0.06278270483016968, -0.07481644302606583, -0.09355594217777252, -0.013949573040008545, -0.045054029673337936, -0.07359115034341812, -0.08387088030576706, -0.0773770734667778, -0.1492338627576828, -0.16277749836444855, 0.07659351825714111, 0.0009475559927523136, 0.034562841057777405, 0.06559988111257553, 0.13315539062023163, 0.05556482821702957, 0.05842569097876549, -0.004737522453069687, 0.22533071041107178, 0.038679059594869614, 0.06924127787351608, -0.02973996475338936, -0.01865208148956299, -0.01743592508137226, -0.12145640701055527, 0.11237694323062897, -0.20433539152145386, 0.01637529954314232, 0.07285241037607193, -0.046538472175598145, -0.027977509424090385, 0.09665536135435104, -0.04456532001495361, 0.024401064962148666, -0.07427048683166504, -0.15485063195228577, -0.07943159341812134, 0.10647261887788773, -0.0688110888004303, -0.11584660410881042, -0.11925054341554642, -0.033921074122190475, 0.11842145025730133, 0.07230152934789658, -0.01820506528019905, 0.21400968730449677, 0.1151607483625412, -0.010294869542121887, -0.01740514114499092, -0.06530852615833282, -0.06868293136358261, 0.08119096606969833, -0.10609089583158493, 0.01330662053078413, -0.06149154156446457, 0.07629522681236267, 0.12711146473884583, 0.012956960126757622, -0.2151031643152237, 0.0050415415316820145, 0.10548850893974304, 0.12336855381727219, -0.005010916851460934, 0.10427931696176529, -0.014681057073175907, -0.004154161550104618, -0.08478889614343643, 0.00755544938147068, 0.059916913509368896, 0.021565180271863937, -0.00038468046113848686, -0.14343973994255066, 0.08935458958148956, -0.07290686666965485, -0.014816380105912685, -0.0669085830450058, 0.021760839968919754, 0.10893896967172623, -0.02490241453051567, 0.11100827157497406], [0.058130212128162384, -0.13342233002185822, 0.07572921365499496, -0.039576347917318344, -0.08989176899194717, 0.12693572044372559, 0.1618494987487793, -0.1287463754415512, 0.11115460842847824, 