{"conv1d": {"bias:0": [0.01413052249699831, 0.012765361927449703, -0.0076987119391560555, -0.0033289131242781878], "kernel:0": [[[1.0033493041992188, -1.9028490781784058, 3.801959991455078, -1.0824387073516846]], [[1.103215217590332, -1.7867701053619385, 3.7608425617218018, -1.6285697221755981]], [[1.8029286861419678, -1.7378365993499756, 3.150757312774658, -1.718009114265442]], [[2.330446481704712, -2.1011404991149902, 2.000406503677368, -1.7142969369888306]], [[2.602308988571167, -1.8511658906936646, 1.3445497751235962, -1.914509892463684]], [[2.648895740509033, -2.46945858001709, -0.03474391996860504, -2.261855125427246]], [[3.0360522270202637, -2.144392728805542, -0.9434435367584229, -1.8783295154571533]], [[3.0207467079162598, -1.7704039812088013, -1.9102272987365723, -1.806066632270813]], [[1.9563390016555786, -0.5265318751335144, -3.1028599739074707, -1.355739951133728]], [[1.1400057077407837, 0.39702123403549194, -3.4508447647094727, -0.7162771224975586]]]}, "conv1d_1": {"bias:0": [0.011515267193317413, 0.03580827638506889, 0.013924204744398594, -0.014612305909395218], "kernel:0": [[[0.12903466820716858, 0.5666601657867432, 0.4155620038509369, 0.2616584002971649], [-0.6195527911186218, -0.17513208091259003, -0.20310039818286896, 0.02830740064382553], [0.22128409147262573, 0.29736092686653137, -0.08452104777097702, 0.8447299003601074], [-0.0664597675204277, -0.1848503202199936, -0.04010014235973358, 0.12219947576522827]], [[-0.1249375119805336, -0.3140322268009186, -0.4255077838897705, 0.38578325510025024], [0.3927096426486969, 0.3494836688041687, -0.0257012527436018, -0.4528045356273651], [0.09121234714984894, 0.03427235037088394, 0.0863342434167862, -0.28837522864341736], [0.09363115578889847, 0.46326887607574463, 0.23894403874874115, -0.19679507613182068]], [[0.5704162120819092, 0.5384340882301331, 0.6296505928039551, 0.5012916922569275], [-0.28700876235961914, -0.6750709414482117, -0.46928033232688904, 0.25350436568260193], [0.4345576763153076, 0.6138957142829895, 0.4191933572292328, -1.6624913215637207], [-0.6291643381118774, -0.4722803831100464, -0.39908602833747864, -0.3846999704837799]], [[-0.1553233414888382, 0.39678362011909485, 0.601067304611206, -2.863567352294922], [-0.016149789094924927, -0.4510079324245453, -0.2327543944120407, 2.178740978240967], [0.13681091368198395, 0.7004818320274353, 0.5781591534614563, 0.6857314705848694], [0.18895621597766876, -0.3938460648059845, -0.528605043888092, 2.2713429927825928]], [[-1.3401867151260376, 1.0155760049819946, -2.3820416927337646, 1.25094473361969], [1.4106605052947998, -1.1467000246047974, 2.5361838340759277, -0.6732934713363647], [-1.6816813945770264, 1.242071509361267, -2.609496831893921, -2.866105318069458], [1.2691012620925903, -0.7359820604324341, 2.335054636001587, -0.9461785554885864]], [[1.39582097530365, -1.0913646221160889, 1.3726049661636353, 0.8610958456993103], [-1.604640007019043, 1.4404141902923584, -1.2632848024368286, -1.360892653465271], [2.135591983795166, -2.938201427459717, 1.304511308670044, 2.2809464931488037], [-1.5135947465896606, 1.1087772846221924, -1.134002447128296, -1.425759196281433]], [[1.2784713506698608, -0.040531836450099945, -0.7640526294708252, 0.3087136745452881], [-1.0482386350631714, 0.1372530460357666, 0.5855822563171387, -0.7554638385772705], [-0.7556301951408386, -0.4784504175186157, -0.8422822952270508, 2.1814069747924805], [-0.9141112565994263, 0.06109495460987091, 0.7209222912788391, -0.3327324390411377]], [[-1.9499441385269165, 0.44669589400291443, 1.244482159614563, 0.17876535654067993], [1.0686575174331665, 0.009263316169381142, -1.2234673500061035, -0.5429686903953552], [0.16503675282001495, 0.15733392536640167, 0.5779023170471191, -0.0555533729493618], [1.7487481832504272, -0.2631832957267761, -0.9379266500473022, 0.07789850234985352]]]}, "dense": {"bias:0": [-0.00686667300760746], "kernel:0": [[0.03985198587179184], [-0.3177316188812256], [-0.2307257056236267], [-0.21176403760910034], [-0.046173132956027985], [0.06023962050676346], [-0.050634849816560745], [-0.0893365889787674], [-0.09369142353534698], [-0.14979130029678345], [-0.18433129787445068], [0.16263625025749207], [-0.021024148911237717], [-0.038553982973098755], [-0.06916473805904388], [0.08030039072036743], [0.025196297094225883], [-0.09792184084653854], [0.04648271203041077], [0.062490783631801605], [-0.41356050968170166], [0.23432812094688416], [-0.13515853881835938], [0.1944655478000641]]}, "lstm": {"bias:0": [0.8920039534568787, 0.526526153087616, 0.18563713133335114, -1.5918630361557007, 0.399567186832428, -0.19419793784618378, 0.39095234870910645, 0.2819274961948395, 0.0015963944606482983, 0.5820614695549011, -0.33754420280456543, 1.3485382795333862, 0.015217982232570648, 1.1642893552780151, 0.37975266575813293, 0.25180986523628235, 0.09865269064903259, 0.05830451101064682, -0.0010420004837214947, 1.3309400081634521, 0.9877207279205322, 0.22858813405036926, 0.2441943883895874, -0.7402123212814331, 0.23339802026748657, -0.7959637641906738, 0.13022340834140778, 0.9880679249763489, 0.14450696110725403, 0.11293866485357285, 0.48670652508735657, -0.016810519620776176, 0.3562646508216858, 0.2938353419303894, 0.3782542645931244, -0.16257157921791077, 0.35370874404907227, 0.16939999163150787, 1.0986446142196655, 1.776650071144104, 0.2731468379497528, 0.25493323802948, 0.7313875555992126, 0.41693705320358276, -0.4409879148006439, 0.4531969428062439, 0.8275264501571655, 0.1852206289768219, 0.6244274973869324, -0.17440542578697205, 0.18154627084732056, -0.007979891262948513, 0.02014773339033127, -0.03881113603711128, -0.34478646516799927, 0.01904485560953617, -0.13720104098320007, 0.13980866968631744, -0.015927115455269814, 0.07393753528594971, 0.040320150554180145, 0.40400320291519165, -0.1768522411584854, -0.09363158792257309, -0.443595826625824, 0.06702268123626709, 0.01876332424581051, -0.0010556724155321717, 0.11699115484952927, 0.029068922623991966, -0.16770441830158234, 0.03595142066478729, 0.6139801740646362, 0.17920340597629547, 0.7882092595100403, -0.3863973021507263, 0.7450881004333496, -0.16731402277946472, 0.520899772644043, -0.15919286012649536, 0.2956855595111847, -0.3165404200553894, 0.4892255365848541, 0.6992750763893127, 0.5319580435752869, 0.5822998881340027, 0.4844526946544647, -0.4084072411060333, 0.8990659117698669, -0.23522217571735382, -0.15558838844299316, 0.3089551329612732, 0.3768594264984131, -0.0030624624341726303, 0.30115020275115967, 0.08199496567249298], "kernel:0": [[3.8280296325683594, -1.2612254619598389, 1.1609498262405396, -1.773949146270752, -0.8424094915390015, 1.055902123451233, 0.15940861403942108, 0.06957069039344788, 0.7314249873161316, 0.6735364198684692, 1.0196446180343628, 0.490910142660141, -2.5147159099578857, 1.1497324705123901, 0.08757772296667099, 0.294892281293869, -1.9972196817398071, -0.15202410519123077, 1.1910629272460938, 0.44321757555007935, -1.3301985263824463, 0.9292057156562805, -0.1126788780093193, 0.11347941309213638, 0.7354663014411926, -1.0899347066879272, 0.228159561753273, 0.2646770179271698, -0.22717417776584625, 0.19147567451000214, 0.341641902923584, 0.638412594795227, 0.07632403075695038, -0.141819030046463, 0.47346463799476624, 0.7745104432106018, 0.3419932723045349, -0.45080259442329407, 1.6293641328811646, 0.39399734139442444, 0.3187863528728485, 0.27331340312957764, 0.5315889120101929, -0.17585764825344086, -1.1101925373077393, 1.5556553602218628, 0.020744960755109787, 0.8147100210189819, -0.4652763307094574, 1.5308879613876343, 0.617023766040802, -0.3184972107410431, -0.17534686625003815, -0.17944446206092834, 0.6509745717048645, -0.008234383538365364, 0.26612424850463867, 1.4623697996139526, -0.8162814378738403, 1.3664116859436035, 1.6489492654800415, -2.5345890522003174, -0.6331700682640076, 0.570758044719696, -0.7483418583869934, -0.943198025226593, 0.46531254053115845, 1.3040858507156372, -2.666684865951538, 1.1796265840530396, -0.40730002522468567, -0.015102257020771503, -2.400489568710327, 1.489444375038147, -1.2576701641082764, -0.2469102442264557, -0.6228304505348206, 0.06535270810127258, -0.2014361023902893, -0.4006359279155731, 0.1335565596818924, -0.06420104950666428, -0.22785848379135132, 0.15478473901748657, -1.0599443912506104, 2.4136295318603516, -0.06786764413118362, 1.1409169435501099, 0.22886955738067627, -0.8937832713127136, 0.48821935057640076, -0.015244013629853725, 1.1699503660202026, -1.074573040008545, -0.20975859463214874, -0.4700339734554291], [-0.43070968985557556, 0.809369683265686, -0.961775541305542, -0.702768862247467, 0.4006209671497345, -1.0405285358428955, 0.01291207130998373, -0.12406013906002045, 0.17775392532348633, 0.7715434432029724, -0.3964977264404297, 0.6198527216911316, 0.9699234366416931, -0.6315121650695801, 0.15006034076213837, 0.03537767007946968, 0.12398117035627365, 0.3412330150604248, -0.4803065359592438, -0.03331901878118515, 0.873235285282135, -1.0190290212631226, 0.057727791368961334, -0.36186671257019043, -0.2606998682022095, 1.2741587162017822, -0.03649817034602165, -0.8838402628898621, 0.20401820540428162, 0.1724967658519745, -0.3694785535335541, -0.7135788202285767, -0.40141192078590393, 1.0070058107376099, 0.1936933845281601, -0.8119853138923645, 0.21189351379871368, -0.40796810388565063, -1.52611243724823, 0.38379570841789246, -1.0194422006607056, -0.09437420219182968, -0.33690890669822693, 1.1911578178405762, 0.7942612171173096, -0.6630988717079163, 0.0769486352801323, -0.22023318707942963, -1.3474059104919434, 0.5309896469116211, -0.6481744647026062, -0.12882493436336517, 0.5746510028839111, 0.20356419682502747, 0.7213599681854248, 0.49494412541389465, 0.22886870801448822, 0.9229876399040222, 0.7442636489868164, 0.9891093373298645, -0.050753772258758545, 0.7157708406448364, 0.29791194200515747, -0.28094956278800964, -0.14981214702129364, 0.7712156176567078, 0.06987982243299484, -1.3740816116333008, 3.1668238639831543, -0.10141656547784805, 0.15616390109062195, -0.2565678656101227, 0.6183937191963196, -1.0770217180252075, 1.3604528903961182, -0.019226498901844025, 0.27951428294181824, -0.05992773920297623, 0.2001911997795105, 0.697766900062561, -0.009939839132130146, -1.040789008140564, -0.19519594311714172, -0.05559423565864563, 0.0029330775141716003, -0.8249778151512146, 0.07199461758136749, -0.5578017234802246, -0.335947722196579, 0.7787615060806274, 0.00912922341376543, -0.02493291348218918, -0.6926653981208801, 0.837288498878479, 0.18988874554634094, 0.22506916522979736], [-0.12945891916751862, -0.5406251549720764, 0.9108837246894836, 0.49043381214141846, 0.012557018548250198, 0.7129853367805481, 0.08959660679101944, -0.5599839091300964, 0.7730404734611511, -0.25720080733299255, 0.07499665766954422, 0.37020692229270935, 2.274214267730713, -0.44408729672431946, 0.3256159722805023, -0.12072215974330902, -2.928311586380005, 0.11774878948926926, 0.3573627173900604, -0.024706190451979637, -0.9781481623649597, 0.8614597320556641, -0.30736783146858215, 0.10371697694063187, -0.17376115918159485, -0.17945776879787445, -0.04816487431526184, 0.38885849714279175, -0.46718499064445496, 0.14928297698497772, -0.0049536218866705894, 0.37810954451560974, -0.23316951096057892, -0.18533024191856384, 0.015531294047832489, -0.27413392066955566, -0.3998100757598877, -0.6135538220405579, 0.2874909043312073, -0.10418494790792465, 0.6597338914871216, -0.004275451879948378, -0.38888201117515564, -0.832047164440155, -0.8483061790466309, 0.11216234415769577, -0.01123671606183052, -0.12102587521076202, 0.8215307593345642, 1.8191179037094116, 0.8024656176567078, 0.14052318036556244, 0.39054515957832336, 0.03318610414862633, 0.5689392685890198, -2.28706693649292, 0.47771120071411133, -1.1176396608352661, -0.11216763406991959, 1.6670938730239868, -1.1360371112823486, -0.7333745360374451, -0.6117924451828003, -0.232392817735672, -1.3904436826705933, 0.14942800998687744, 0.7238080501556396, 2.7168917655944824, -2.3819046020507812, 1.4159621000289917, -0.111843541264534, 0.04198222979903221, -0.4193982779979706, -0.12454145401716232, -0.3454308807849884, 0.16177771985530853, 0.7004662156105042, -0.18085607886314392, 0.15217331051826477, -0.505219578742981, 0.46287232637405396, 0.02515004388988018, -0.025957366451621056, 0.30401596426963806, 0.842241108417511, 3.721468687057495, -0.04865622520446777, -0.3797381818294525, -1.163007140159607, 0.12365027517080307, -0.5383005738258362, 0.09811326861381531, 0.7024551630020142, -0.7097609043121338, 0.13434764742851257, -0.0749019905924797], [1.3310661315917969, -1.2114711999893188, 0.7440931797027588, 0.09314962476491928, 0.24379286170005798, -0.7291808724403381, -0.12787285447120667, -0.11842023581266403, -0.868237316608429, -0.9353232383728027, 0.34778663516044617, -0.8387882709503174, -1.5591952800750732, 0.050709567964076996, -0.16846084594726562, -0.018086187541484833, -0.1690760850906372, -0.05961352586746216, -0.3996567130088806, -0.2941787838935852, -0.2814633250236511, 0.6917788982391357, 0.22640840709209442, -0.11450870335102081, 0.2857581377029419, -0.7734098434448242, -0.020367523655295372, 0.37434613704681396, 0.18797612190246582, 0.49035751819610596, 0.05443133786320686, -0.021746976301074028, 0.501514196395874, -1.2668304443359375, 0.004750160500407219, -0.03262735903263092, 0.2646424174308777, -0.14991432428359985, -0.47960132360458374, 0.07126610726118088, -1.9480483531951904, 1.3400620222091675, -0.6357990503311157, -0.31638410687446594, -0.29838648438453674, 0.4724162518978119, 0.0034340801648795605, -0.013072693720459938, 2.873767852783203, -0.3699394166469574, 0.7968302369117737, 0.007235975004732609, 0.36328744888305664, 0.6392298936843872, 0.11944044381380081, -0.13909517228603363, -1.3022148609161377, 1.1922138929367065, -0.2509070038795471, -4.385743618011475, 0.3018295168876648, -0.04030456021428108, 1.6729323863983154, -0.11903927475214005, 0.3780631422996521, -0.15869028866291046, -0.5933786034584045, 0.4001257121562958, -3.282834053039551, -0.5735195875167847, 0.3754669427871704, -0.0810701921582222, -2.0760672092437744, 0.6690115928649902, -0.13490647077560425, 0.07157645374536514, -1.107549786567688, -0.5106045603752136, 0.28390514850616455, 0.192594513297081, -1.3953043222427368, 0.7769370079040527, -0.05544183775782585, -0.7474299073219299, 0.041899558156728745, -0.1054646298289299, 1.1342777013778687, -0.3117351233959198, 0.8198108077049255, 0.011725938878953457, -0.16347752511501312, 0.1015525534749031, 0.2603440284729004, -0.8757742643356323, 0.10349411517381668, -0.047885961830616]], "recurrent_kernel:0": [[-1.7327131032943726, 0.04713902249932289, -0.035951875150203705, -0.10101010650396347, -0.3230060338973999, 0.3242848813533783, -0.8434969186782837, -1.839540958404541, -0.5161623954772949, -0.8796364068984985, 0.09305167198181152, -0.43085023760795593, 0.23573969304561615, 1.144647240638733, -0.21629755198955536, -0.7715163230895996, -0.6978046298027039, 0.32031702995300293, 0.368269145488739, 0.0888393223285675, 0.09077138453722, -1.1388369798660278, -0.6307628750801086, -0.6790177226066589, 0.7070189118385315, 0.08587399125099182, 0.3947790265083313, 0.39560258388519287, -2.9589920043945312, 1.0694799423217773, 1.0988620519638062, -0.13027489185333252, 0.43899059295654297, -0.7990279197692871, -0.8138965964317322, -0.31316077709198, -0.3123387098312378, -2.0859410762786865, -1.4103405475616455, -0.6861786842346191, -0.6437014937400818, -0.49307361245155334, -0.46102771162986755, 1.5668689012527466, -0.012353150174021721, -1.0257548093795776, -0.5115554928779602, -0.2738211452960968, -0.5742934346199036, -0.022573720663785934, 0.15166983008384705, 0.49801722168922424, 0.3807835876941681, 0.365416020154953, 0.22476160526275635, 0.4381117522716522, 0.5397033095359802, -0.3263324797153473, 0.24407988786697388, 0.38517510890960693, 0.18599320948123932, -0.3871665596961975, -0.04126796871423721, -0.5544881224632263, 0.3099152147769928, 0.012044050730764866, 0.14422717690467834, -0.2170211225748062, 0.11080470681190491, -0.011304674670100212, 0.07662313431501389, -0.23413203656673431, 0.29522058367729187, -1.2101715803146362, -0.6631693243980408, -0.7602499127388, -0.2530427575111389, -0.4773346781730652, -0.8618320822715759, -0.7292157411575317, -0.3315993547439575, -1.3531217575073242, 0.16370059549808502, -0.39237385988235474, 0.8577315807342529, -0.9802008867263794, -0.7599635124206543, -0.532582700252533, -0.5800063610076904, 0.7508388161659241, -0.04469146952033043, 0.2740143835544586, -0.6350905895233154, -0.6041035056114197, -0.6185383200645447, -0.5218114852905273], [2.442220449447632, 0.08629367500543594, 0.8122861385345459, 1.3274073600769043, -0.22657917439937592, 0.23239478468894958, 1.7541862726211548, -0.39214515686035156, -1.1390217542648315, 0.08880756050348282, -0.3237378001213074, -1.4374165534973145, 0.21134056150913239, -3.049269914627075, -1.4424415826797485, 0.4884551167488098, 0.17202988266944885, 0.3389303982257843, 0.4296730160713196, 0.3705374002456665, 0.21097838878631592, -0.27142199873924255, 0.43554550409317017, 0.8761974573135376, -1.1504006385803223, 0.09074687957763672, -0.24001644551753998, -3.6525495052337646, -0.08064121007919312, -0.3751489222049713, -1.276305913925171, -0.07958192378282547, 1.763594388961792, -0.3285609185695648, 1.8858423233032227, -0.04267716035246849, 0.030609313398599625, 2.8985612392425537, -0.5393111109733582, 0.17529480159282684, -0.934228241443634, 0.8368827700614929, -0.7494049072265625, -0.3390651047229767, 1.614774227142334, -1.9051264524459839, 0.7262076139450073, 0.9009035229682922, 0.5361583828926086, -1.3288224935531616, -0.5453070998191833, -1.2588675022125244, -0.11337273567914963, -0.17394687235355377, -0.42014074325561523, -2.314411163330078, -0.33010587096214294, 0.1837671548128128, 0.0015665760729461908, 0.1825607866048813, 0.44855064153671265, 1.0964891910552979, -0.1776900738477707, 1.6949524879455566, -0.1028549075126648, -0.8652458190917969, -0.03466416522860527, 0.7260271310806274, -0.6655893921852112, -0.33742931485176086, 0.7213051319122314, 0.013509261421859264, -0.029278304427862167, 1.027243733406067, 0.06842273473739624, -0.7191410660743713, -0.9397978782653809, 0.03167201578617096, 1.1203081607818604, 0.7291582226753235, -0.22385965287685394, 0.8068110942840576, -0.3202688694000244, 0.6711112856864929, 0.4311690330505371, -1.0216646194458008, -0.2293299287557602, -0.6818998456001282, -0.05477186292409897, 0.8033069968223572, 0.9224804043769836, 0.6434047222137451, 0.07139381766319275, -0.4728386402130127, 0.20598255097866058, -1.4592313766479492], [0.038943689316511154, 0.13653799891471863, 0.2154727578163147, -0.16023768484592438, 0.3229830265045166, 1.5070271492004395, 0.8861600756645203, 0.6970952749252319, -0.19111432135105133, 0.03562644124031067, 0.16826805472373962, 0.9996467232704163, 0.49356839060783386, 0.5173158645629883, -0.5409008264541626, -0.6888058185577393, 1.128126859664917, -0.7194658517837524, -0.5505135655403137, -0.5603100061416626, 0.05714927986264229, -0.6288708448410034, -1.1225329637527466, 0.25311675667762756, -0.24971279501914978, -0.9426677823066711, -0.2293013632297516, -0.019438421353697777, -1.098192572593689, 0.03174329176545143, -0.361419677734375, -0.23623299598693848, 0.9090135097503662, 1.5266658067703247, 0.33915960788726807, 0.2767581641674042, -1.0771937370300293, 0.6736558675765991, -0.044957540929317474, -0.5069144368171692, -2.3080527782440186, -0.5037199854850769, 1.4505614042282104, 0.9108284115791321, -0.4629215598106384, -0.313094824552536, 1.6789222955703735, 0.921586811542511, -0.5069372653961182, -0.7958537340164185, -0.14206576347351074, -0.8207349181175232, -0.6849489212036133, -0.5688570141792297, -0.584799587726593, -0.6086621880531311, 0.5406624674797058, -0.2185589075088501, -0.3812089264392853, -0.35174843668937683, 0.3703216314315796, 1.1392112970352173, 0.003371753729879856, 0.363746702671051, -0.6548339128494263, 0.47474849224090576, 0.01992620714008808, 0.3624366521835327, -0.03125021979212761, 0.21453873813152313, -0.7195680141448975, 0.7305658459663391, -0.1962948441505432, 0.49452558159828186, -0.1876305639743805, 0.1184101477265358, 0.914368748664856, -0.43550097942352295, 0.3764171898365021, -0.004142334684729576, 0.24587145447731018, 0.8130170702934265, 0.03300793468952179, 0.2077300101518631, -0.16738809645175934, -1.033166527748108, -0.21694232523441315, 0.28031888604164124, 0.49310052394866943, -0.18525494635105133, 1.1422771215438843, -0.2631478011608124, -0.2421932816505432, -0.23804815113544464, 0.865943968296051, -0.44081756472587585], [-1.2384085655212402, -0.9482565522193909, -0.5746451020240784, -0.7200475335121155, 0.4322347044944763, 1.6896510124206543, -1.3867589235305786, -0.8932502269744873, -0.7693672180175781, -1.139199137687683, -0.5505513548851013, -1.8480498790740967, 0.12328703701496124, 0.803081750869751, 0.9740933775901794, -0.32548925280570984, -0.05478961765766144, 0.5006234645843506, -0.03843659535050392, 0.3100990653038025, 0.2819232642650604, -0.4871382415294647, -1.523997187614441, -0.8289199471473694, -0.324447900056839, -0.05227155238389969, -0.23499107360839844, -1.0135657787322998, -1.0768635272979736, -0.08980834484100342, 1.538854718208313, -0.9106866717338562, -0.7294599413871765, 0.3842845857143402, -0.8570537567138672, 0.3193889856338501, -1.768349051475525, -0.5013235211372375, 0.22535526752471924, 1.9230798482894897, -1.992113709449768, -0.6829351186752319, -0.7616260051727295, -1.1349563598632812, -1.2743889093399048, -0.6598657369613647, 2.028207778930664, 0.5001538991928101, -0.028874872252345085, 0.2667873501777649, 0.5072112679481506, -0.034122176468372345, -0.3541750907897949, -1.3807828426361084, -0.39775338768959045, -1.7603726387023926, -0.47066056728363037, -2.326910972595215, 0.10961135476827621, 1.128226399421692, 0.336855947971344, 0.270558625459671, -1.3628206253051758, 0.15040549635887146, -0.700562059879303, -0.4581346809864044, -0.3701856732368469, -0.0373985655605793, 2.3268585205078125, 0.10254577547311783, 0.579700231552124, 0.04524651914834976, 0.9703639149665833, -0.24927981197834015, -0.7075735330581665, -0.25914037227630615, -0.9472960233688354, 0.27993419766426086, -0.14989833533763885, 0.8929817080497742, -0.3668968379497528, -0.10427816957235336, 0.19610264897346497, -0.000922025996260345, -1.9917279481887817, -1.4355661869049072, 1.0810463428497314, 2.135378837585449, -0.2943374216556549, 0.24208927154541016, -0.14644551277160645, -0.3461683690547943, -1.1647937297821045, -1.1288164854049683, 0.42065465450286865, 1.5829373598098755], [-1.0487853288650513, 0.23665675520896912, -0.06755346059799194, -2.3204641342163086, -0.477659672498703, 1.5005072355270386, -0.8207837343215942, -0.08869556337594986, -0.5172043442726135, -0.27547767758369446, 0.3483802378177643, -1.0804297924041748, 1.258400321006775, -0.39714646339416504, 0.19922403991222382, -0.040949661284685135, 0.3996809422969818, -0.31424665451049805, -1.9571508169174194, -0.23039774596691132, 0.2772374153137207, -0.4547249972820282, -1.2960758209228516, -0.40880510210990906, -1.544256329536438, -1.468048334121704, -0.761497974395752, -1.3192071914672852, 0.08074404299259186, 0.4186304211616516, -1.670328974723816, -0.10580582916736603, 0.2787560820579529, -0.3230189085006714, -0.5869563221931458, -0.7933865785598755, -0.024892102926969528, 0.011768425814807415, -0.3897939622402191, -0.17399868369102478, -2.373908042907715, 0.17770539224147797, -0.7773164510726929, 0.192452535033226, -0.25385358929634094, -0.09113606065511703, 1.363788366317749, -0.5185498595237732, 1.1002099514007568, -1.6516098976135254, 0.3232508897781372, 0.6607003211975098, -0.5921345353126526, 0.4904061257839203, -1.2015918493270874, -0.8817132115364075, -0.4987843632698059, 0.6215261816978455, -0.19739113748073578, -0.8578401207923889, -0.22824124991893768, 0.5061130523681641, 0.4354327917098999, 1.120215892791748, 1.0793606042861938, -0.018658410757780075, -0.13159772753715515, 0.4979023337364197, -0.08039221912622452, -0.6289371252059937, 0.3059269189834595, 0.16458560526371002, 1.6214205026626587, 0.0029645711183547974, -0.5883299112319946, -0.5687187910079956, -0.5012294054031372, 0.3081895112991333, 1.455942988395691, 0.03999391198158264, -0.26975172758102417, -1.0202301740646362, 0.04483240470290184, -0.021694965660572052, 0.19934311509132385, -2.119250774383545, -0.22223487496376038, 0.22485430538654327, 1.0011476278305054, 0.27260836958885193, -0.41261571645736694, -0.06446779519319534, -0.27285921573638916, 0.40109166502952576, 0.03622320294380188, -0.4328736364841461], [-0.8106438517570496, 0.36205190420150757, 0.12620635330677032, 0.763159453868866, 0.06170915812253952, -0.521102249622345, -0.3741697072982788, -0.23944322764873505, 0.18531455099582672, -1.033061146736145, 0.06955552846193314, -0.06007136031985283, -0.2109152376651764, 0.19746652245521545, 0.019682923331856728, -0.04167085513472557, 0.35449495911598206, -0.21023504436016083, 0.9841904044151306, -0.3804333209991455, 0.005204314365983009, 0.29181215167045593, -0.4547458589076996, 0.07740762084722519, -1.4933712482452393, 1.5619616508483887, 1.5156550407409668, -0.15813127160072327, -0.006333456374704838, 1.0166990756988525, -1.5553309917449951, 1.2152645587921143, -0.34084048867225647, 0.41114363074302673, 1.3003590106964111, -0.019445650279521942, 0.8207915425300598, -0.5703853368759155, 0.49388882517814636, -1.0582102537155151, -1.4751790761947632, -0.420782208442688, 0.4149617552757263, 1.9939217567443848, 1.304712176322937, 1.2311997413635254, 0.2412465214729309, -0.4219396114349365, 1.1544016599655151, 0.017817486077547073, -0.5008728504180908, 0.9021884799003601, -0.22311045229434967, -0.200562983751297, -0.9218384623527527, -1.0416496992111206, -0.056758634746074677, -0.47488388419151306, 0.025250649079680443, -0.7769690155982971, 0.3062044382095337, 0.048423297703266144, 0.39639878273010254, -0.21368996798992157, -0.29107922315597534, 0.1344679296016693, 0.2314871847629547, 1.1066917181015015, -0.6474128365516663, 0.08573763072490692, 0.0053667835891246796, 0.15769755840301514, -0.23179014027118683, 0.45894700288772583, 0.20168611407279968, 0.7632657885551453, -0.24887005984783173, -0.015183234587311745, -0.28794530034065247, 0.37708666920661926, 0.09097830206155777, 1.1599253416061401, -0.34729716181755066, 0.22350163757801056, 0.15365801751613617, 1.0383692979812622, -0.9036945700645447, -0.17176701128482819, 1.9396506547927856, -0.04857700318098068, -0.4647826552391052, 0.5189740657806396, 0.02120533585548401, 0.763974666595459, 0.2537831664085388, -0.3074711561203003], [0.4422735273838043, -1.2479182481765747, -0.6716193556785583, 0.18829649686813354, 0.5191569328308105, 0.036316610872745514, 1.1068675518035889, -0.33582285046577454, -0.3515298366546631, -0.48407766222953796, -0.5170904397964478, -1.637325644493103, 0.024293366819620132, -0.9090353846549988, 0.651160717010498, 1.0266667604446411, -1.2596546411514282, -0.13547374308109283, -1.4463526010513306, 0.3731560707092285, -0.01940525509417057, -0.3392459750175476, 0.20976467430591583, -0.613969087600708, -0.5502458214759827, 0.06170954555273056, -0.2609511613845825, -0.8089572787284851, 0.1964542418718338, -0.277599960565567, -1.490986943244934, 0.33853408694267273, -0.3589877486228943, -1.6567128896713257, -0.8624593615531921, -0.10381589084863663, 0.16016361117362976, 1.2321916818618774, -1.16920006275177, -1.9512726068496704, 0.45856034755706787, -1.1346681118011475, -1.3158373832702637, -2.402592182159424, -0.4634833335876465, -0.43763086199760437, 0.25367435812950134, 0.1656242311000824, 0.21690018475055695, -0.18416380882263184, 0.08573812246322632, -0.4789868891239166, -0.09233474731445312, 1.0096051692962646, -1.3329848051071167, -0.043181151151657104, -0.2284897416830063, 1.1334760189056396, -0.3495826721191406, -0.02391500025987625, -0.5378866195678711, 0.658562183380127, -0.10353464633226395, 1.47920560836792, -0.20276163518428802, -0.0554945208132267, 0.9899166822433472, 0.5806127190589905, 0.3632340431213379, -0.34347033500671387, 0.09557139128446579, 0.1812024712562561, 0.15930227935314178, -0.019021645188331604, -0.3064965009689331, -1.6809327602386475, -0.8167934417724609, -0.6389690637588501, 0.5073956251144409, -1.467729926109314, -0.607561469078064, -1.690114974975586, 0.30875131487846375, -0.29051950573921204, -0.5405898690223694, 0.6492021083831787, -0.5160301327705383, -1.2293131351470947, -0.4313216507434845, -0.15598531067371368, -0.44709208607673645, -0.14602190256118774, -0.9882878065109253, 1.2468451261520386, -1.085451602935791, -0.015486246906220913], [1.4914675951004028, -0.8814601302146912, -1.2157591581344604, -1.937559962272644, 0.019488908350467682, -0.9354054927825928, 0.11323584616184235, 0.030146369710564613, -0.07479289174079895, -0.827242374420166, 0.136661559343338, 0.2920524477958679, -0.6707291007041931, 0.15155044198036194, 0.08611463755369186, -0.7568227052688599, -0.39275267720222473, 0.5466229915618896, -1.0186821222305298, -0.4763372242450714, -0.385771781206131, -0.5586833953857422, -0.26784634590148926, -0.933402955532074, 0.11125639081001282, -0.15032216906547546, -1.2341855764389038, 1.266587495803833, -0.46716564893722534, -0.5057539343833923, -0.7977638244628906, 1.3445003032684326, -0.10665564239025116, -0.391923189163208, -1.8872431516647339, -1.0521811246871948, -0.30480143427848816, -2.27170991897583, -0.4290076196193695, -1.0884063243865967, 0.5681028366088867, 0.5217382907867432, -0.6446778178215027, -0.2550205588340759, -0.2111637443304062, 0.9507891535758972, 0.42396390438079834, -0.4635928273200989, -0.5349828600883484, 0.7516329884529114, 0.10439882427453995, -0.2250262200832367, 0.22468046844005585, -0.13458657264709473, -0.4426340162754059, 0.69844651222229, -0.21231919527053833, -0.3790569603443146, -0.181932270526886, 0.8054233193397522, 0.14647307991981506, -0.4554661810398102, -0.10183833539485931, 0.6915888786315918, -0.5390424132347107, 0.23716017603874207, 0.5484956502914429, 0.32279956340789795, 0.20963448286056519, 0.617861807346344, -0.7100480794906616, 0.7143451571464539, 0.9423903822898865, -1.2965718507766724, -0.6665409207344055, -0.9795306324958801, -0.3658899664878845, -1.3595370054244995, -0.7468006610870361, -0.05351395532488823, -0.6154317855834961, -0.7617745995521545, 0.14926140010356903, -0.6210569739341736, -0.5194745659828186, 1.025734782218933, 0.5256191492080688, -0.07687529921531677, -0.5213704109191895, -0.3652772605419159, -0.5816724300384521, 0.04000861570239067, -0.4846997559070587, -0.5591014623641968, -0.7962274551391602, -0.9023712873458862], [0.5115959048271179, 0.5087518692016602, -0.675774872303009, -1.5327963829040527, -0.6171251535415649, 0.23803703486919403, 0.023201540112495422, -0.6783387064933777, -0.047161221504211426, 1.2425434589385986, 0.03611290082335472, 0.8699807524681091, -0.1810574233531952, -0.0256862360984087, 0.30284813046455383, 0.17883040010929108, -0.5468317866325378, -0.10912831872701645, -0.6726710796356201, 0.10706998407840729, -0.20657113194465637, 0.13815061748027802, 0.09621848165988922, 0.2504073679447174, 0.3855104148387909, -0.3022072911262512, 0.01594485342502594, -0.5513365268707275, 0.023009397089481354, -0.8136195540428162, 1.1347829103469849, -1.382082223892212, -0.4752255976200104, -0.2419506311416626, -1.4615134000778198, 0.24626579880714417, -0.21149224042892456, -0.3084571063518524, -0.048701778054237366, 0.029432035982608795, 0.6270229816436768, 0.04694947600364685, -0.6337462663650513, -1.4105358123779297, -0.7342675924301147, -0.7232339382171631, 0.9140217900276184, 0.4391908347606659, -0.4207531213760376, 0.1193125993013382, 0.11696746945381165, -0.36415234208106995, -0.098081074655056, -0.20630459487438202, 0.4793371260166168, -0.16559897363185883, -0.7322890758514404, 0.023750171065330505, -0.055934809148311615, 0.10667099803686142, -0.3367937207221985, -0.6604401469230652, 0.08454859256744385, 0.7811415195465088, -0.06890828907489777, -0.31124794483184814, -0.18267135322093964, -0.11389922350645065, 0.3188432455062866, 0.03235364332795143, 0.1995483934879303, 0.031417086720466614, 1.2237952947616577, -0.17962726950645447, -0.32676637172698975, -0.29968225955963135, -0.061835478991270065, -0.9710176587104797, -0.32874390482902527, -0.8006107211112976, -0.35161229968070984, 0.03682062774896622, -0.11687921732664108, -0.10031051933765411, -0.5173971652984619, -0.0436570979654789, 0.649009108543396, -0.09570997208356857, -1.2263994216918945, -0.49278393387794495, -0.145598903298378, -0.6675522327423096, -0.3200896978378296, -0.5504985451698303, -0.4296538531780243, -0.3222277760505676], [1.9151314496994019, -0.7819293737411499, 0.6666754484176636, -1.9488790035247803, -2.6111690998077393, -1.0568922758102417, -0.7204412221908569, 0.18684999644756317, 0.07218195497989655, -1.4157333374023438, -0.37056764960289, 1.4164035320281982, -1.3051328659057617, -0.4625788927078247, 0.3962951600551605, -1.041508674621582, 1.1935287714004517, 0.5747966766357422, -0.5864274501800537, -0.527436375617981, 0.27434709668159485, -0.5852429270744324, -1.448820948600769, -0.1437169909477234, -2.1091816425323486, -0.06831132620573044, 0.12253307551145554, -1.8229846954345703, 1.6449323892593384, -0.17572131752967834, -2.8130874633789062, 2.000471353530884, 0.16984297335147858, 0.5078917741775513, -1.7435760498046875, -0.25432348251342773, 0.20071598887443542, 1.092409610748291, -0.003046201542019844, -1.3360003232955933, -0.9632464051246643, 0.7281114459037781, 0.003967210650444031, 1.7859307527542114, 0.28731927275657654, -0.4933741092681885, -0.12723053991794586, 0.23160099983215332, -0.206117182970047, -0.6532962322235107, 0.2772666811943054, 0.26150190830230713, -0.06076832860708237, 0.21687908470630646, -1.1239402294158936, 0.17302314937114716, -0.8502399325370789, -0.07053210586309433, -0.2817672789096832, 0.8330544233322144, 0.030500326305627823, 0.9510794281959534, 0.23604831099510193, -0.46728867292404175, -0.7761957049369812, 0.01901264488697052, 0.19310195744037628, 1.461055874824524, -0.653234601020813, 1.5625683069229126, -1.2746576070785522, 1.1767781972885132, 0.5900382995605469, -0.24304184317588806, 0.7037309408187866, -0.11855872720479965, -0.41443106532096863, -1.9159793853759766, 1.179119348526001, -0.38774240016937256, 0.2585204243659973, 0.6549136638641357, 0.20670261979103088, -0.35146743059158325, -1.3729746341705322, -1.7619575262069702, 0.9605259299278259, -0.8469612002372742, 0.3221707046031952, 0.4747563302516937, -0.3346796929836273, 0.9274800419807434, -0.1509835571050644, -1.647310733795166, 0.26389726996421814, 0.08061326295137405], [-0.2388395518064499, -0.03319147601723671, 1.5014182329177856, -0.6126848459243774, -1.2351735830307007, -0.5257464647293091, -0.48279207944869995, -1.024354100227356, 0.38819676637649536, 0.9901890754699707, -0.5972259640693665, -1.459540605545044, 1.294746994972229, 1.6522732973098755, -1.1726701259613037, 1.8011637926101685, 0.05642227828502655, 0.22288082540035248, 0.4008350968360901, -0.08639359474182129, 0.5935208797454834, -0.26159903407096863, 0.6548172831535339, 0.31311139464378357, 1.496169090270996, 0.34762245416641235, 0.13190627098083496, 0.8101199865341187, 0.04113715514540672, 1.4362473487854004, -1.025302529335022, 1.561933994293213, 0.07825672626495361, 0.5054506659507751, 0.04074549302458763, 0.2962760031223297, 0.193364679813385, -0.5443150401115417, 0.32061803340911865, -2.64715838432312, -0.32854583859443665, 2.0349202156066895, -0.19436225295066833, 0.6265611052513123, -0.05936358869075775, 1.6204605102539062, 0.3771234154701233, 0.15942975878715515, -0.27126574516296387, -0.024924656376242638, -0.053174521774053574, 0.22156062722206116, 0.28035351634025574, 0.13773955404758453, 0.6837322115898132, 0.8090553879737854, 0.3602772653102875, 0.7940508127212524, -0.3349899351596832, -0.554038405418396, -0.1918611079454422, -0.014931542798876762, -0.05701301619410515, 1.3283175230026245, -0.29715612530708313, -0.5665542483329773, 0.7854587435722351, -0.05215876176953316, -0.5551462769508362, -0.14946939051151276, -0.15144211053848267, -0.5432149767875671, -1.475494623184204, -0.5709812045097351, -0.3829806447029114, -0.31846070289611816, -0.2500724196434021, 0.2751336395740509, 0.6417079567909241, 0.008652515709400177, -0.9497749209403992, -0.3705900311470032, 0.12522275745868683, -0.18027009069919586, 1.4637818336486816, 0.8003391027450562, -0.5944674015045166, 0.40583086013793945, -0.14172083139419556, 0.14019463956356049, 0.766656219959259, 0.24689002335071564, 0.22148002684116364, 2.091761827468872, 0.23817218840122223, -1.1105194091796875], [1.0022401809692383, -0.20385262370109558, -0.5272268652915955, -0.9171094298362732, -0.29512640833854675, -0.5203842520713806, 0.6655802726745605, 0.22295263409614563, 0.4372931718826294, -0.16986046731472015, 0.14074718952178955, 0.5070797801017761, -1.1342308521270752, -0.1278679370880127, 0.1934989094734192, -0.15353165566921234, -0.7445210218429565, 0.3644484877586365, -1.2135231494903564, -0.2181142419576645, -0.16079410910606384, -0.5420334935188293, -0.3555028438568115, -0.8165283203125, 0.019078431650996208, -0.6013402938842773, -0.28390297293663025, -0.6498957872390747, 0.7634877562522888, -1.2356077432632446, 0.3859351575374603, -0.04472673311829567, -1.011126160621643, 0.4697834551334381, -0.8229697942733765, -0.12525337934494019, 0.058372613042593, 0.2924934923648834, -0.24989522993564606, 0.3340790569782257, 0.42409804463386536, 0.28874659538269043, -1.0186022520065308, -1.1088542938232422, -0.27466270327568054, -0.7320609092712402, 0.5092381238937378, 0.6549757122993469, 0.03298327326774597, -0.47436270117759705, 0.03469767048954964, -0.719933032989502, -0.1014769896864891, -0.6247628331184387, 0.10653188079595566, -0.07184575498104095, 0.46317076683044434, 0.3145756423473358, 0.09885679930448532, -0.440142959356308, 0.09635216742753983, 0.30600428581237793, 0.11142643541097641, 0.38942453265190125, -0.17231743037700653, 0.1690044105052948, -0.08949356526136398, 0.12475013732910156, 0.20991891622543335, 0.011566213332116604, -0.1813863068819046, 0.35124197602272034, 0.12529203295707703, -0.19956372678279877, 0.13088954985141754, -0.08210312575101852, -0.10258389264345169, -0.5861849784851074, -0.13355568051338196, 0.18007515370845795, -0.5187373757362366, -0.9296263456344604, -0.4058082699775696, -0.05579393357038498, -0.9985069036483765, 0.5786842703819275, 0.10560078918933868, -0.28983715176582336, -1.498388648033142, -0.2494659423828125, -0.749198317527771, -0.436200350522995, -0.0646531879901886, -0.528698742389679, -0.2783438265323639, -0.09535976499319077], [1.5362476110458374, 1.2487269639968872, 1.6210097074508667, 2.954979419708252, 0.742702066898346, -1.6250814199447632, 1.9789586067199707, 1.3097983598709106, -0.07998865842819214, 0.6230357885360718, -0.4306475818157196, -0.659837007522583, -1.848810076713562, -0.9995216727256775, -1.8484828472137451, 1.1511082649230957, 1.8354482650756836, -0.8116830587387085, 0.2940983176231384, 1.3246344327926636, 0.5463503003120422, 1.9943686723709106, 2.0707175731658936, 2.4404094219207764, 0.29441526532173157, -0.194192036986351, 0.41312190890312195, 0.28513845801353455, 1.1329081058502197, -0.007031561806797981, -3.410829544067383, 0.06974342465400696, -0.3187580704689026, 1.137331247329712, 1.5947530269622803, 0.5346452593803406, 2.078287363052368, 2.858552932739258, 0.4776521921157837, 0.032571762800216675, 0.3047997057437897, -0.6772046685218811, 1.8645830154418945, -0.15991275012493134, 1.414262056350708, 1.2364673614501953, -1.7330021858215332, -0.5148319005966187, 1.4170098304748535, 0.47788456082344055, -0.007425130344927311, -1.230367660522461, -0.36435726284980774, 0.4216076731681824, -1.4592058658599854, 0.3758704662322998, -0.3501005172729492, 1.20270574092865, -0.6171391606330872, -0.9426895380020142, 0.3438716530799866, 1.5542482137680054, 0.014901186339557171, 0.06510724872350693, 0.44718438386917114, -0.10546808689832687, -0.1803824007511139, 0.6574617624282837, -0.42116618156433105, 1.1783745288848877, -0.4215260446071625, 2.040736198425293, -2.8096015453338623, 2.9484004974365234, 0.4839930534362793, 1.6887704133987427, -0.5417757034301758, 1.5187615156173706, -0.012461088597774506, 0.9120064377784729, 0.6001870036125183, 1.8978564739227295, -0.15098655223846436, 0.9359339475631714, 2.180846929550171, -0.010105766355991364, -0.527621328830719, -0.4940345883369446, 1.9310259819030762, -0.6990983486175537, 0.7007716298103333, 0.5902719497680664, 1.011225938796997, 2.6071653366088867, 0.1612071990966797, 2.2244842052459717], [-0.03579763323068619, 1.2097370624542236, 1.6187703609466553, 0.871189296245575, 0.22165167331695557, -0.14161166548728943, 0.4491003751754761, 1.4176185131072998, 0.8703529834747314, 1.21077561378479, -0.9328818917274475, 1.1625009775161743, -0.12812276184558868, -0.14470051229000092, -0.6022869348526001, 1.022689938545227, -0.4081735908985138, 0.07114072889089584, 1.4276081323623657, 0.5050610899925232, 0.7021781206130981, 1.7720825672149658, 0.5696843266487122, 3.1828525066375732, 1.5646450519561768, -2.0688588619232178, 0.21339185535907745, -0.2902257740497589, -0.42660799622535706, 1.3511135578155518, -2.4697957038879395, -0.785534679889679, -0.8329057097434998, 1.1087380647659302, 0.5380934476852417, 0.1787804812192917, 2.3581795692443848, -1.0385862588882446, -0.07556826621294022, -0.2667921483516693, 0.9015846252441406, 1.3428419828414917, -0.005228915251791477, 1.041482925415039, -0.29403361678123474, 2.2370150089263916, 0.9254884123802185, 1.0576295852661133, 0.6594205498695374, 0.4902082681655884, -0.5288894176483154, 0.6997029781341553, -0.01769423857331276, -0.34819406270980835, -0.006745150312781334, -0.15426568686962128, 0.4405394494533539, -0.21590954065322876, -0.009983154945075512, -0.14695434272289276, 0.24588365852832794, -0.07740738242864609, 0.04130274057388306, 0.4221359193325043, -0.4935378134250641, -0.6187296509742737, 0.47737598419189453, 0.5992919206619263, -0.4156781733036041, -0.5380966067314148, -0.03691539168357849, 0.007808716967701912, -1.2417538166046143, 2.4645183086395264, 0.6979286670684814, 1.4050394296646118, -0.34725716710090637, 1.135206699371338, 0.804190456867218, 2.2680163383483887, 1.2978798151016235, 1.942638635635376, 0.15211336314678192, 0.8948783278465271, 1.2992899417877197, -0.11188077181577682, -0.23469257354736328, -0.8931906223297119, 0.11760230362415314, 0.2788889408111572, 1.1377205848693848, 0.49606558680534363, 0.8686783313751221, 2.6167898178100586, 0.7141262292861938, 1.2894988059997559], [-0.25359907746315, 1.1229068040847778, 0.18148869276046753, -0.6635306477546692, 0.39582115411758423, 0.7782304286956787, 0.5170860290527344, 0.6734872460365295, 0.03615383803844452, 0.6790546178817749, 0.26985007524490356, -0.19959807395935059, 0.38387346267700195, 0.7500683069229126, -0.6132575869560242, 0.4487602114677429, 1.1924679279327393, 0.3060828149318695, 0.03448008745908737, 0.20088523626327515, -0.01982581801712513, -0.37906962633132935, -0.5896599292755127, 0.7923564910888672, -0.16006486117839813, 0.14265409111976624, 0.42085790634155273, -0.11292685568332672, -2.154143810272217, 0.32094722986221313, -2.0186221599578857, 1.2724617719650269, 0.6427285671234131, -0.4298514723777771, 0.2389919012784958, 0.4044041037559509, -0.7364584803581238, -0.3192388415336609, 0.8793401718139648, 1.4697291851043701, -1.1600003242492676, 0.8232884407043457, 2.4112675189971924, 0.6091116666793823, -0.5235885381698608, 0.9231299757957458, 1.6121970415115356, 0.5269285440444946, -0.7751928567886353, 0.2593812942504883, -0.20754577219486237, 0.05314898118376732, -0.0681723952293396, 0.43151500821113586, -0.597275972366333, 0.21265985071659088, -0.3480393588542938, -0.37213191390037537, 0.32536956667900085, 0.25819864869117737, -0.07252666354179382, -0.3287697434425354, -0.5603473782539368, -0.7824584245681763, -0.1162547618150711, 0.12823981046676636, -0.7001338005065918, -0.21022066473960876, 0.3248172104358673, 0.09521152079105377, 0.07303609699010849, -0.15739592909812927, 1.201070785522461, 0.1982925981283188, 0.2556557059288025, 0.054052334278821945, -0.4362918734550476, 0.35490089654922485, -0.23218801617622375, -0.42780590057373047, 0.8422591090202332, 1.5496002435684204, 0.29990893602371216, -0.3609699308872223, 0.2093694508075714, 0.5886279344558716, 0.28844475746154785, 0.306039422750473, 0.4680365324020386, 0.3942352533340454, 0.2959570288658142, 0.7406097650527954, 0.11788959056138992, 0.6253840327262878, 0.34491974115371704, 0.7222582101821899], [0.8398393988609314, -0.12754324078559875, -1.6904466152191162, -0.9307928085327148, -1.633284091949463, -0.5296920537948608, -0.6216041445732117, -0.590507447719574, 0.39093321561813354, -0.546703577041626, 1.52924382686615, -0.606229305267334, -0.8930488228797913, -0.05438515543937683, 0.17232467234134674, -1.159458875656128, -1.70754873752594, 0.7556565403938293, -1.5403915643692017, 0.29304587841033936, -0.3914533257484436, -1.1901569366455078, -1.1723848581314087, -1.1192948818206787, -0.15285709500312805, -1.038413405418396, -1.4936091899871826, -1.787015438079834, 2.081944227218628, -2.1070311069488525, 2.4209542274475098, 1.3189502954483032, -1.9291601181030273, -1.6615960597991943, -2.004585027694702, -1.115694284439087, -0.3173418641090393, -0.9538293480873108, -0.5612093806266785, -1.7350127696990967, -1.831955909729004, -1.5311176776885986, 0.06329568475484848, -0.3210994005203247, -1.1031721830368042, -0.8580586910247803, -0.6906151175498962, -0.33153021335601807, -2.2787928581237793, 0.5453632473945618, 0.9009111523628235, -0.322376012802124, 0.09943849593400955, 0.5475812554359436, 0.6745460033416748, 2.7685694694519043, 0.5434779524803162, 0.9357790946960449, 0.27263855934143066, 2.5019333362579346, -0.2862030863761902, -1.4600988626480103, -0.3810780644416809, -0.1796288937330246, -0.34079137444496155, 0.2810921370983124, -0.24203698337078094, -0.1865556687116623, 1.479689598083496, -0.09645738452672958, 0.5127293467521667, 0.018317025154829025, 1.0345035791397095, -1.6721720695495605, -1.168397307395935, -1.2390042543411255, -1.5155514478683472, -0.009345732629299164, -0.16412736475467682, 0.5352223515510559, -0.7998547554016113, -1.7374693155288696, -0.5806599259376526, -0.6989163756370544, -1.3895835876464844, 0.5960599780082703, 1.3957715034484863, -0.6395619511604309, -1.2947566509246826, 0.15079882740974426, 0.5246086716651917, -0.9312158823013306, -1.277596116065979, -0.6945158839225769, 0.2327607274055481, -0.18194957077503204], [0.25944140553474426, -0.8345034122467041, -0.8806090354919434, -3.697659492492676, 0.0870567336678505, 0.21897219121456146, -0.8744485974311829, -0.6115785837173462, -0.5914056897163391, -0.6872732043266296, 0.5997127294540405, -0.6594620943069458, 0.22987566888332367, 1.2139781713485718, 0.46337050199508667, -2.3975677490234375, -0.6518480777740479, 0.20989641547203064, -0.9404059052467346, -0.1071292981505394, -0.6842371225357056, -0.6095991730690002, -1.0475469827651978, -1.0887142419815063, -0.8215945959091187, -0.5930427312850952, -0.9030813574790955, 1.9209626913070679, -0.16211643815040588, 0.831304669380188, 0.04215308278799057, 0.25762712955474854, 0.5855569243431091, -3.121546745300293, -0.9899110794067383, -1.5070706605911255, -1.7220462560653687, -3.061568260192871, 0.08340801298618317, -1.6146632432937622, -0.06743096560239792, 0.9701963663101196, 1.4242308139801025, -0.6040652990341187, -0.46689432859420776, -1.3825377225875854, -1.1486433744430542, -1.1381796598434448, -0.8473017811775208, -0.5882397890090942, 0.19064801931381226, 0.05385890230536461, 0.25633174180984497, -0.3311871588230133, -0.45815351605415344, -0.5484256148338318, -0.18575674295425415, -1.1780335903167725, 0.0636783018708229, 0.7797065377235413, 0.1570514291524887, -0.9445076584815979, 0.07556599378585815, -1.3864809274673462, 0.04429185390472412, 0.4465120732784271, 0.27754276990890503, 0.03184463083744049, 0.6027520298957825, 0.6638695597648621, 0.07763947546482086, 0.8332812786102295, 1.5956634283065796, -2.0648040771484375, -0.6801498532295227, -1.8410611152648926, -1.3926124572753906, -0.8880255818367004, -0.6102115511894226, -1.9933735132217407, -0.934988260269165, -3.030951499938965, 0.20818205177783966, -1.1675554513931274, -1.3514423370361328, -0.05603626370429993, 0.8908048272132874, -0.4103671908378601, -0.20065170526504517, -0.41854292154312134, -1.1657929420471191, -0.251891165971756, -0.9624394178390503, -1.987768530845642, -0.4741658568382263, -0.24008499085903168], [-0.17491519451141357, -0.29981720447540283, -0.6274415254592896, -1.40670907497406, -0.39777806401252747, 0.4504847824573517, 0.06009560823440552, -0.8305961489677429, 0.11716337502002716, -0.8288326263427734, 0.2076939046382904, -0.4316781163215637, 0.1689615547657013, 0.30518215894699097, 1.2232332229614258, -0.5369679927825928, -1.5395153760910034, 0.2678832411766052, -1.5017836093902588, -0.3293684720993042, -0.4049958288669586, -0.2950018048286438, -0.70672208070755, -0.7371081709861755, -0.015443775802850723, -0.5938711762428284, -0.05584263801574707, -0.1374516487121582, 0.31455448269844055, -0.80674809217453, -0.10610949248075485, 0.07624927163124084, -0.20551073551177979, -0.43439650535583496, -0.6133370995521545, -0.43641889095306396, 0.1297367364168167, -1.2301331758499146, -0.6821704506874084, -0.7760135531425476, 0.8644117116928101, 1.6074117422103882, -1.013721227645874, -0.8207806944847107, -0.4261314868927002, -0.11047951877117157, 0.005574946291744709, -0.28390586376190186, -0.04215776547789574, 0.1966022253036499, 0.4092307984828949, 0.5460043549537659, 0.3731239438056946, 0.13834808766841888, -0.22127030789852142, -0.4317077696323395, -0.1493152678012848, -0.7966949939727783, 0.01373156625777483, 0.7216569185256958, -0.3752841055393219, -0.7459155321121216, -0.09452979266643524, 1.0490864515304565, 0.13298429548740387, -0.20894402265548706, 0.4345000684261322, -0.04890240356326103, 0.39450109004974365, -0.07398876547813416, -0.158191978931427, 0.09135469049215317, 1.469722867012024, -1.0378069877624512, -1.1069797277450562, -1.1383492946624756, -0.26987364888191223, -1.0641483068466187, -0.25254347920417786, -0.3762280344963074, -0.3585532307624817, -1.2628381252288818, 0.16169777512550354, -0.527532696723938, -0.5549812316894531, -0.7210488319396973, -0.37068799138069153, -0.4411957263946533, -1.6799728870391846, 0.12158422917127609, -0.6641460657119751, 0.2073926031589508, -0.8953578472137451, 0.12994350492954254, -1.2029764652252197, -1.2145076990127563], [0.017373312264680862, 0.5119757652282715, 0.38464105129241943, 0.03610775247216225, -0.6506236791610718, 0.4407750070095062, 0.7590862512588501, -0.4299691617488861, -0.47324925661087036, 0.7205135822296143, 0.02589416690170765, -0.6688321828842163, 0.526863694190979, 0.6485639214515686, -1.3262256383895874, -0.48688918352127075, 0.2490255981683731, -0.7513564229011536, -0.32522547245025635, 0.9956319332122803, -0.22311736643314362, -0.12813283503055573, 0.4502810537815094, 0.866008460521698, 1.475736379623413, -0.7862066030502319, 0.3278536796569824, 0.5904757976531982, -0.4807637333869934, -0.9036635756492615, 0.3724376857280731, -1.0510544776916504, -0.5708829760551453, -0.33212247490882874, 0.034277647733688354, -0.07053026556968689, -0.3249232769012451, -0.011667908169329166, -0.6340717673301697, 0.47695013880729675, 0.5909886956214905, -0.7659426927566528, -2.5234999656677246, -0.5952878594398499, -0.4945506751537323, -0.07204760611057281, 1.2313531637191772, 0.23480738699436188, -0.7027501463890076, -0.5029054284095764, 0.04485312104225159, -1.7625494003295898, -0.8801621794700623, 0.10142017155885696, 0.5832463502883911, -0.4597426950931549, -0.1033153235912323, 0.39066728949546814, -0.17362461984157562, 0.429688423871994, -0.06823383271694183, 0.12567287683486938, -0.34975603222846985, 1.447913408279419, 0.5229914784431458, -1.3164796829223633, -0.1907036155462265, -0.22252291440963745, 0.0667937695980072, -0.3051064610481262, 0.224350705742836, -0.2116020917892456, -0.49206551909446716, -0.15837621688842773, -0.6329033970832825, -0.5775924324989319, -0.7642003297805786, 0.02652415819466114, -0.2184727042913437, -0.06835096329450607, -0.8177676796913147, -0.7167127132415771, 0.6238172650337219, -0.1615908443927765, 0.003754070494323969, -0.5453718304634094, 0.009879649616777897, 0.005043165758252144, -0.7556205987930298, -0.885301947593689, 0.40886390209198, -0.3796769976615906, -0.2891483008861542, -0.3616662323474884, -0.289827436208725, 1.0038429498672485], [-0.8330711126327515, -1.261081337928772, -0.6867265701293945, 0.15449413657188416, 0.44363510608673096, 1.2683075666427612, -0.7809003591537476, 0.4443851113319397, 0.1547374278306961, -0.5234122276306152, -0.2667841613292694, -0.09160523116588593, 0.37489253282546997, -0.09296635538339615, 0.46570494771003723, -0.9331884980201721, -0.5516946315765381, 0.875392496585846, 0.34926456212997437, 0.16124315559864044, -0.37731775641441345, -0.2463994324207306, 0.025534486398100853, 0.00040592881850898266, -0.5549179315567017, -0.05600404739379883, 0.2885383069515228, -0.23904375731945038, 0.11873024702072144, -1.0043960809707642, 2.498765468597412, -0.7353474497795105, 0.6359710097312927, -1.104421854019165, 0.0764801874756813, 0.29387250542640686, -0.8094154000282288, 0.7742624282836914, -0.20214426517486572, -0.0009652418084442616, -0.7024664878845215, -0.6761804819107056, -1.2944285869598389, -0.15169428288936615, 0.18216368556022644, -1.0446490049362183, -1.22833251953125, -1.3539674282073975, -0.09862518310546875, 0.1775454580783844, 0.5626603960990906, 0.3726634979248047, 0.4827989637851715, 0.0846996158361435, 0.4198858439922333, -0.15434233844280243, 0.49901288747787476, -0.11959677934646606, 0.02876584604382515, 0.21506226062774658, -0.42457813024520874, 0.6735686659812927, 0.06707033514976501, -0.778622567653656, -0.18562249839305878, 0.5681065320968628, -0.5243039727210999, -0.19631800055503845, 0.37891077995300293, -1.1047433614730835, 0.9253800511360168, -0.6574920415878296, 0.32351940870285034, -0.20151346921920776, 0.45856043696403503, -0.7117665410041809, 0.26674962043762207, 0.24769628047943115, -0.5451025366783142, -0.0843392014503479, 0.23644573986530304, -0.22201403975486755, -0.3549128770828247, -0.34360799193382263, 0.2428675889968872, -0.36096566915512085, -0.5104700326919556, -0.19578731060028076, 1.149998664855957, 0.49664145708084106, 0.3153440058231354, -0.08902012556791306, 0.002894510282203555, 0.06805648654699326, -0.05851896107196808, -1.1869752407073975], [0.0979112759232521, -0.03283095359802246, 0.51490718126297, -0.3219268023967743, -0.17297811806201935, -0.12763068079948425, 0.9014802575111389, 0.33147889375686646, 0.2804872989654541, -0.2552949786186218, 0.05757266655564308, 0.12860970199108124, -0.5063017010688782, 0.17496539652347565, 0.21365275979042053, 0.20466849207878113, -0.6528779864311218, -0.16919957101345062, 0.08748292922973633, -0.2814899981021881, 0.13388195633888245, 0.17616496980190277, 0.3155372738838196, 0.13832104206085205, -0.42763546109199524, 0.057638779282569885, -0.1977560967206955, -0.6468925476074219, 0.40392279624938965, 0.3306194245815277, -0.7395492196083069, 0.7037143707275391, -1.013745665550232, 0.01946748048067093, -0.7771162986755371, -0.29619845747947693, 1.068002462387085, -1.1696882247924805, 0.1532927006483078, 1.4997973442077637, 1.6351505517959595, 0.15932203829288483, 0.3249317705631256, -0.616415798664093, 0.5212277173995972, 1.0325835943222046, -0.36723682284355164, -1.6218420267105103, 0.27486875653266907, -0.08636323362588882, -0.45530712604522705, 0.13360625505447388, -0.46496424078941345, 0.03707074373960495, -0.21787869930267334, -0.3442594110965729, -0.1119123324751854, 0.18419380486011505, -0.22800087928771973, -0.15407472848892212, 0.3720037043094635, -0.490205317735672, 0.02493848279118538, 0.13429361581802368, 0.19969049096107483, -0.34681445360183716, 0.8860045075416565, 0.2338414490222931, -0.08362063765525818, 0.3809387981891632, -0.5433257222175598, 0.06551287323236465, -0.3189058303833008, 0.6270200610160828, -0.5110182166099548, -0.3767133355140686, 0.0429074726998806, 0.4922385513782501, 1.0109211206436157, 0.474672794342041, 0.34577885270118713, -0.6505778431892395, 0.24854275584220886, -0.14700470864772797, -0.39286863803863525, 1.0906474590301514, 0.6782537698745728, 0.06589116901159286, -0.4381774365901947, -0.37978625297546387, -0.625560998916626, 0.06966782361268997, -0.3464050590991974, -0.0906725525856018, 0.12506389617919922, 0.16237591207027435], [-0.941322386264801, -1.3218172788619995, -0.33773210644721985, 0.9623209238052368, -0.3944460451602936, 0.1345316618680954, 2.2176787853240967, 0.18907395005226135, -0.6035711169242859, -1.0229125022888184, 0.540429949760437, 0.7595916390419006, -0.3321451246738434, -1.8789728879928589, -0.5596296787261963, -1.3782838582992554, -0.3906942903995514, 0.41149476170539856, -0.3180716931819916, 0.7787687182426453, 0.48374325037002563, 0.11980094760656357, 1.1342703104019165, 1.0798672437667847, 0.5672942399978638, -1.8544667959213257, -0.9668394923210144, -0.44013702869415283, 0.86762535572052, -1.0941104888916016, 1.616616129875183, -1.8007246255874634, 1.036987543106079, 0.0568619966506958, -0.8177611231803894, -0.2318490892648697, 0.39272722601890564, 3.2420337200164795, -1.6981486082077026, 1.3278688192367554, -0.8775848150253296, 0.6188221573829651, -1.1849581003189087, -1.7905808687210083, 0.026519106701016426, -1.61659836769104, -0.07846320420503616, -0.0182157214730978, 0.07287317514419556, -1.2618790864944458, -0.44693002104759216, -1.3714338541030884, -0.2682126760482788, -0.24077829718589783, 0.402942419052124, -0.7851637005805969, -0.8049379587173462, -0.20634807646274567, 0.21504516899585724, 0.7925589084625244, 0.1385614573955536, 0.29420414566993713, -0.6971979737281799, 1.015454649925232, -0.14368145167827606, -0.45214834809303284, -0.13850027322769165, -0.13017867505550385, 0.10162843018770218, -0.1018647775053978, 0.312423437833786, -0.014582335017621517, 0.1197366937994957, -0.4964880049228668, -0.4770401120185852, 0.48859140276908875, -0.5437609553337097, 0.4420763850212097, 1.4924709796905518, 0.7411882281303406, 0.44144684076309204, -1.0437607765197754, 0.38059261441230774, 0.7148210406303406, -0.2187137007713318, -2.364877939224243, 0.38387182354927063, -0.25377365946769714, -0.5482175946235657, 0.6970846056938171, 0.13657957315444946, -0.2709940969944, 0.21031804382801056, -0.2284645289182663, 0.12469162046909332, -0.42086854577064514], [0.026148514822125435, -1.40780770778656, -1.0538336038589478, -1.7419434785842896, 1.8406620025634766, 0.5085914731025696, -1.5221201181411743, -0.18561288714408875, -1.937889814376831, 0.08134030550718307, -0.3838876485824585, -1.8731486797332764, 0.009342201054096222, -0.7222421765327454, 1.1177455186843872, -0.4126140773296356, 1.1348206996917725, 0.43537482619285583, -0.8630619049072266, -0.48368313908576965, -0.21815434098243713, -0.08545146882534027, -0.6917949318885803, -0.97169429063797, -0.3951716721057892, -0.5090944766998291, -0.1254437416791916, -0.2903626561164856, 0.00762915937229991, 1.1796348094940186, -1.9652498960494995, 0.23586717247962952, 1.4857696294784546, -0.3639538884162903, -0.6398590207099915, -1.4403122663497925, -0.5482073426246643, -2.50423526763916, 1.6778879165649414, -3.027056932449341, -0.027117213234305382, 0.6271511912345886, 2.275228977203369, -0.43432193994522095, -0.5414480566978455, 0.449407696723938, 1.5118544101715088, -0.12513914704322815, 0.25114402174949646, -0.8277597427368164, -0.1621210128068924, -0.08683008700609207, -0.719145655632019, -0.2084115892648697, -1.2288827896118164, -0.2679502069950104, -0.1819653958082199, -0.5003288388252258, -0.44250789284706116, -0.4882340729236603, 0.03325110673904419, 1.0600957870483398, -0.44787296652793884, -1.0475066900253296, -0.9362006187438965, 0.6695206761360168, -0.7705239653587341, 0.09356489032506943, -0.21015837788581848, -0.13500574231147766, 0.531677782535553, 0.6164429187774658, -0.15130436420440674, -0.00794462114572525, -0.23792746663093567, -0.9906561374664307, 0.07797262817621231, 0.310321569442749, 0.5183170437812805, -0.501677393913269, -1.4184316396713257, 0.3159247636795044, -0.2480081021785736, -1.0097228288650513, -0.14784817397594452, -0.7790297865867615, 0.1500828117132187, 0.3642486333847046, 1.7215105295181274, -0.13586071133613586, 0.14101949334144592, 0.3609446883201599, -1.0827105045318604, 0.02690269611775875, 0.8809719085693359, -0.7398278117179871], [-0.3884287476539612, -0.06542150676250458, -0.1870575100183487, 0.8334783911705017, 0.011976336129009724, 0.4139717221260071, -0.6248965263366699, 0.35558798909187317, 0.5577782988548279, -0.13212907314300537, -0.24936114251613617, 0.6125527024269104, -0.1902739405632019, -0.03737715631723404, -1.3362691402435303, -0.698415219783783, 0.9912670254707336, 1.0915626287460327, 0.3938322067260742, -0.25670912861824036, -1.2072232961654663, 0.44667860865592957, -0.11225076764822006, 0.04189104214310646, -0.48459142446517944, 0.4971252977848053, -1.0554028749465942, 1.4193954467773438, -0.29435139894485474, 0.637901782989502, 2.9092347621917725, -0.17834733426570892, 0.1393536478281021, -0.5789307951927185, -0.26364389061927795, -0.43189722299575806, -0.01838565431535244, 1.0964090824127197, 0.9643890857696533, 1.3312872648239136, -0.8601557016372681, -0.15993312001228333, 0.9826791882514954, 0.17737506330013275, -0.20947718620300293, 0.6652439832687378, -0.7963760495185852, -0.8138766288757324, 0.003124550450593233, 0.22866149246692657, -0.0003152999561280012, 0.23779289424419403, 0.34659650921821594, -0.32454726099967957, 1.0847753286361694, -0.17354761064052582, 0.47194504737854004, -0.5158753991127014, -0.05783220753073692, 0.48863863945007324, -0.03731941431760788, -0.27745285630226135, 0.22926081717014313, -1.3297837972640991, -0.1071910709142685, 1.075822114944458, -0.3124140202999115, -0.36145296692848206, 0.3949642777442932, -0.2849005460739136, 0.7546722292900085, -0.42819860577583313, -0.2044878453016281, -0.32382655143737793, 1.244323968887329, 1.5484113693237305, -0.27311351895332336, 0.901928186416626, -0.023154422640800476, 0.12360966950654984, 0.2388012409210205, 0.055115796625614166, -0.25273239612579346, -0.1603761464357376, -0.23052580654621124, -0.06885514408349991, 0.6271201968193054, -0.2407217025756836, -0.861850380897522, 0.5040848851203918, 0.1686444878578186, -0.955224335193634, -0.8184292912483215, -0.19918276369571686, -0.07139348238706589, 1.9662697315216064]]}, "input_size": 120, "conv1d_stride": 12, "conv1d_1_stride": 12}