{"conv1d": {"bias:0": [-0.005963671021163464, -0.003716835053637624, 0.002200730610638857, 0.0018076865235343575], "kernel:0": [[[-1.2955583333969116, 0.11552466452121735, -1.4249755144119263, -3.231208324432373]], [[-2.326481342315674, -0.21133899688720703, -1.898252248764038, -1.6689342260360718]], [[-2.7516655921936035, -1.4769641160964966, -2.2362828254699707, -0.0601961612701416]], [[-2.9584624767303467, -1.4726163148880005, -2.44392728805542, 0.9702473282814026]], [[-2.861013174057007, -2.0542709827423096, -2.5440924167633057, 2.1222174167633057]], [[-2.5448169708251953, -2.419229745864868, -1.8503700494766235, 2.4699604511260986]], [[-1.8195499181747437, -2.781996726989746, -1.4490474462509155, 3.0984506607055664]], [[-1.4066071510314941, -2.4686882495880127, -1.2260650396347046, 3.401052713394165]], [[-0.5753813982009888, -2.212581157684326, -0.29763364791870117, 3.432490110397339]], [[0.5628623366355896, -2.1337850093841553, 0.5216183066368103, 3.4405672550201416]], [[1.9797638654708862, -0.8557509183883667, 1.3656129837036133, 2.4388842582702637]], [[2.9810092449188232, 0.05216816067695618, 2.448491334915161, 1.0530961751937866]]]}, "conv1d_1": {"bias:0": [-0.0037357690744102, 0.024670414626598358, 0.028152892366051674, 0.0764332264661789], "kernel:0": [[[-0.5757540464401245, 0.3042922914028168, -0.5687941312789917, -0.024058453738689423], [-0.32646289467811584, 0.12332305312156677, -0.47137418389320374, -0.2795969545841217], [-0.4423896372318268, 0.10478182882070541, -0.5270058512687683, 0.014555585570633411], [0.18281793594360352, 0.24974629282951355, 0.17307297885417938, 0.160402312874794]], [[-0.34605586528778076, 0.12471237033605576, -0.5628387331962585, 0.4114730656147003], [-0.35100582242012024, 0.10826846212148666, -0.20841291546821594, 0.7075486183166504], [-0.7084246873855591, 0.0019964282400906086, -0.37864261865615845, 0.41025310754776], [-0.17116676270961761, 0.1734830141067505, 0.2632380723953247, -1.269539713859558]], [[-0.31922832131385803, -0.9793084859848022, 0.33494704961776733, 0.9318907260894775], [-0.0976446196436882, -0.31756600737571716, 0.41103532910346985, 0.8161305785179138], [-0.3476925790309906, -1.0050714015960693, 0.5483154654502869, 1.0762996673583984], [-0.012356470339000225, -0.05825190246105194, -0.13992340862751007, -0.7819638252258301]], [[0.3785040080547333, -0.21289078891277313, 0.3008762001991272, -0.3522615134716034], [0.08560342341661453, 0.10959446430206299, 0.22206231951713562, -0.5841881036758423], [0.45296066999435425, -0.09091030061244965, 0.2226347029209137, -0.44148531556129456], [0.12305654585361481, -0.6224384307861328, 0.04415120929479599, 0.5607500076293945]], [[0.24068602919578552, 0.2038353979587555, -0.1458413451910019, -0.2480584979057312], [0.3786371350288391, 0.29705488681793213, 0.25400927662849426, -0.5169386863708496], [0.42182669043540955, 0.14991451799869537, -0.2304232269525528, -0.47326430678367615], [-0.3062034547328949, 0.037691134959459305, -0.9738834500312805, 0.6342393755912781]], [[0.6721287369728088, -0.026363661512732506, 0.39382293820381165, -0.13179926574230194], [0.20472152531147003, 0.15989796817302704, 0.1484290361404419, 0.27999475598335266], [0.6824122667312622, 0.07367824018001556, 0.3276146650314331, 0.3126443326473236], [-0.035291191190481186, -0.2737371325492859, -0.1935296356678009, -0.4110335409641266]], [[0.06045867130160332, -0.026985714212059975, -0.08337289839982986, -0.2912351191043854], [-0.28011804819107056, 0.11693999916315079, 0.2515100836753845, -0.1391369104385376], [-0.09699257463216782, -0.12994787096977234, -0.0320223793387413, -0.5824825763702393], [-0.0947495624423027, -0.12098855525255203, -0.32624301314353943, -0.1385837197303772]], [[0.3070898652076721, -0.3488629460334778, 0.6617931127548218, -0.555881917476654], [-0.45613181591033936, -0.1808122992515564, -0.7741733193397522, -1.0412064790725708], [-0.051396653056144714, -0.4436205327510834, 0.33828550577163696, -0.3183659315109253], [0.673062264919281, -0.024989327415823936, 1.4374290704727173, 1.5617338418960571]], [[0.36287039518356323, -0.6326068043708801, -2.997008800506592, -0.2213587462902069], [1.5085411071777344, -2.2345049381256104, -1.4385477304458618, -0.6601614952087402], [0.228372722864151, -0.6008254885673523, -2.7274856567382812, -0.29803645610809326], [-2.0185441970825195, 3.0568606853485107, 0.5482175350189209, 0.9538668990135193]], [[-1.6459100246429443, 1.724320650100708, 3.0410659313201904, 0.8172075152397156], [-1.432794213294983, 1.2368214130401611, 1.8337900638580322, 0.5264846682548523], [-1.4387657642364502, 1.4463984966278076, 2.750992774963379, 0.5461271405220032], [1.3287632465362549, -1.8468486070632935, -1.3331886529922485, -0.7927121520042419]], [[-1.32266366481781, 0.11304259300231934, 0.20739464461803436, 0.5634533762931824], [-1.6045467853546143, 0.20976121723651886, 0.5378331542015076, -0.3442087769508362], [-1.2643495798110962, 0.2149829864501953, 0.07199583947658539, 0.7093729376792908], [1.6515209674835205, -0.3572954535484314, -0.742108166217804, 0.905631959438324]], [[1.4596003293991089, -1.1014145612716675, -0.3784404397010803, -0.650965690612793], [1.876846432685852, -0.8567891120910645, -0.9736255407333374, -0.1466486006975174], [1.2788360118865967, -0.8652835488319397, -0.5804696679115295, -0.4381817877292633], [-1.8516205549240112, 0.722368597984314, 1.1978553533554077, 0.09107533097267151]]]}, "dense": {"bias:0": [-0.015361816622316837], "kernel:0": [[0.05557280406355858], [0.051053207367658615], [0.36664190888404846], [-0.08011659979820251], [-0.1252121478319168], [-0.08852884918451309], [-0.13440553843975067], [0.13078781962394714], [0.029592376202344894], [0.07828349620103836], [0.14643235504627228], [0.030535802245140076], [-0.14649179577827454], [-0.004139692988246679], [0.03383408114314079], [-0.20691339671611786], [-0.0800386294722557], [0.12582038342952728], [-0.16415651142597198], [-0.20224303007125854], [-0.19415457546710968], [0.025369547307491302], [0.22983451187610626], [-0.0880492553114891]]}, "lstm": {"bias:0": [0.7082812190055847, 0.2500040829181671, 1.0391002893447876, -0.41326048970222473, -0.37963417172431946, -0.5219724178314209, 0.2691294252872467, 0.5432544350624084, 0.465719997882843, 0.05450299754738808, 0.4052530825138092, 0.8175516128540039, -0.580133855342865, 0.48542335629463196, -0.14338412880897522, -0.27157217264175415, -0.5619195699691772, 0.4514369070529938, 0.6236169338226318, 0.599216103553772, 0.7032110095024109, 0.7101026177406311, 0.6930345296859741, 0.33039069175720215, 0.4182547628879547, 0.6014367341995239, -0.6910630464553833, 0.5593111515045166, 0.23117904365062714, 1.306527018547058, 0.08610869944095612, -0.746005117893219, 0.6689636707305908, 0.05519571527838707, 0.9206394553184509, 0.878783106803894, 0.4202198386192322, 0.6448290944099426, 0.8363000154495239, 0.9407626390457153, 0.3567442297935486, 0.6312605142593384, -0.3181271255016327, -0.7390668392181396, -0.3067069351673126, 0.5341979265213013, -0.8217296004295349, 0.19926200807094574, 0.24240972101688385, 0.15168499946594238, -0.028820112347602844, -0.1620989292860031, -0.02638811618089676, 0.06467881053686142, 0.04433193430304527, -0.029177019372582436, -0.1972283124923706, 0.08125001937150955, -0.07613472640514374, 0.28582102060317993, -0.1969098150730133, 0.08297013491392136, -0.12393518537282944, 0.1609380543231964, -0.052298687398433685, 0.010618372820317745, -0.03159627318382263, -0.1789729744195938, -0.00893864594399929, -0.5764418244361877, -0.016819380223751068, -0.06085045263171196, 0.5087588429450989, 0.38949668407440186, 0.34042486548423767, 0.471347451210022, -0.20016057789325714, 0.43296346068382263, 0.12591251730918884, 0.5921041965484619, -0.154620960354805, 0.15637953579425812, -0.07411730289459229, 0.5027889013290405, -0.09245576709508896, 1.094849944114685, 0.03388310596346855, -0.25703150033950806, 0.12369969487190247, -0.40746715664863586, 0.21124330163002014, 0.4126650094985962, 0.34175896644592285, 1.1608816385269165, -0.012440075166523457, 0.3881259262561798], "kernel:0": [[0.11266808211803436, -0.5418179631233215, 1.1579948663711548, -0.7911288738250732, 0.15791606903076172, 0.05164308100938797, -0.6404643058776855, -0.17995671927928925, 0.7351380586624146, -0.39006251096725464, -0.4913019835948944, -0.09172263741493225, 0.4157518446445465, -0.0779828280210495, 0.06129854917526245, 0.591330349445343, -0.16201533377170563, 0.09789971262216568, 0.16828545928001404, -1.1421021223068237, -0.5939709544181824, -1.059763789176941, 0.8972721695899963, 0.32555750012397766, -0.019959215074777603, -0.9324890375137329, 0.7824122905731201, 0.09528113901615143, 0.3918217122554779, -0.047675155103206635, 0.1332515925168991, 0.02154492400586605, 0.7788965702056885, -0.285981148481369, 0.14749431610107422, -0.2287856936454773, -0.018406517803668976, -0.9084581732749939, 0.38148850202560425, 0.07842858880758286, 0.14894349873065948, 0.06767227500677109, -0.3690395653247833, -0.5066507458686829, -0.12928906083106995, 0.39342042803764343, 0.8055019378662109, 0.08422022312879562, -0.13071174919605255, -1.0790867805480957, 2.399045944213867, -0.6056175827980042, -0.2135753631591797, 0.06458507478237152, -1.7578030824661255, 0.5557464957237244, 0.4191814064979553, -0.1130082979798317, -0.6875261664390564, 0.43531569838523865, -0.7161611914634705, -0.4579441249370575, -0.4332895278930664, 0.05330570042133331, -0.6738244295120239, -0.2365356683731079, -2.281464099884033, 1.2651259899139404, -1.8834630250930786, -1.485028862953186, -1.288094162940979, 0.1215936467051506, -0.22187429666519165, 0.4116606116294861, -0.42173004150390625, -0.26420271396636963, 0.38172242045402527, 0.11184258759021759, 0.19854456186294556, -0.34405162930488586, 0.24353119730949402, 0.1268673688173294, 0.27261775732040405, -0.8438420295715332, 0.005602092016488314, 1.321494698524475, -0.9224598407745361, -0.07131576538085938, -0.90179842710495, -0.21310372650623322, 0.14772211015224457, 1.1303240060806274, 0.1662132740020752, -1.466058373451233, -0.804056704044342, -0.5220815539360046], [0.2737031579017639, 0.1950271725654602, -0.4884149432182312, -0.7410129904747009, -0.7341039180755615, -0.05892229825258255, 1.2350080013275146, 0.46390804648399353, 0.2077113538980484, -0.5869268178939819, 0.7483477592468262, -0.3364296853542328, -0.12070377171039581, -1.06753408908844, -1.6111783981323242, 0.01727987825870514, -0.29940152168273926, -0.43970412015914917, -0.11965060979127884, 0.3305279612541199, 0.7012980580329895, 1.9424580335617065, 0.16338294744491577, -0.03786445036530495, -0.06318829953670502, 0.28534263372421265, -0.3659505844116211, 0.3087456524372101, -0.7737889289855957, 0.9918516278266907, 0.6163588762283325, 0.04086661711335182, 0.16629400849342346, -0.48230963945388794, 0.8779932260513306, 1.1814078092575073, -0.09395052492618561, 0.6798490285873413, -0.37214770913124084, -0.20704318583011627, 0.06880713254213333, -0.04217873513698578, -0.422464519739151, 0.20632599294185638, 0.23084823787212372, -1.0680674314498901, 0.19828127324581146, -0.00892558228224516, -0.9934821724891663, -0.3878072202205658, -3.9349212646484375, -0.6269105672836304, 0.3532131016254425, -0.23485435545444489, 1.1214911937713623, -0.9217602610588074, 0.0389939583837986, -0.1727062314748764, 0.6847894787788391, 0.8655502796173096, 0.20736736059188843, 1.5690230131149292, -0.1533619910478592, -0.3096703588962555, 0.12629632651805878, 0.4906054437160492, 0.21124818921089172, -0.7783693671226501, 1.8622573614120483, 1.2583082914352417, -0.17463845014572144, 0.4333633482456207, 1.790742039680481, -0.30597740411758423, 0.15116803348064423, 0.0356113463640213, -0.12703347206115723, -1.0158144235610962, -0.7254812717437744, 0.27760589122772217, 0.006029112730175257, 0.3845493197441101, -0.36667144298553467, -0.4768592119216919, -0.1666104644536972, -1.1562960147857666, -0.4200376272201538, 0.2547145485877991, 0.05519784986972809, 0.4094829559326172, 0.06529074907302856, -0.3583388328552246, -0.23674288392066956, -0.1471174955368042, -0.16380426287651062, 0.4259030222892761], [0.1544526070356369, 2.145263671875, -0.9201105833053589, 0.006885451264679432, 0.005842527840286493, 0.1284794956445694, 1.9991135597229004, -0.5310906767845154, -0.8089074492454529, 0.5337440967559814, 1.5884017944335938, -1.29351007938385, -0.5327436923980713, -0.49736249446868896, -0.706375241279602, -0.6319355964660645, -0.17679782211780548, -0.8326337337493896, 0.5896959900856018, 0.4964309334754944, 0.8389649987220764, 2.1155757904052734, -0.22486700117588043, 0.2907281517982483, 0.05919378250837326, 0.8646978139877319, -0.6061943173408508, 0.6517446041107178, -0.28790342807769775, -0.3733116686344147, 0.5968972444534302, -0.1117299348115921, 0.6344438791275024, -0.014533445239067078, 0.6879096031188965, -0.5564473867416382, -0.35778868198394775, 0.06542146950960159, -0.24673087894916534, -0.14206314086914062, -0.32645222544670105, -0.07874507457017899, 0.33540913462638855, 0.17120960354804993, 0.28402575850486755, 0.7034664154052734, -0.35891610383987427, -0.2508324682712555, 0.08630745112895966, 0.33589041233062744, -2.787614583969116, 0.10767649114131927, 0.0912470892071724, 0.3567121922969818, 0.17928776144981384, 0.6830212473869324, -0.19084197282791138, 0.3206992745399475, 0.05809401720762253, 1.099074125289917, 0.825188159942627, 0.3222644031047821, -0.13073763251304626, 0.032051753252744675, 0.06169632449746132, -0.3572207987308502, -1.773494005203247, -1.1831684112548828, -2.0815646648406982, 1.4921125173568726, -0.9296191334724426, 0.6815021634101868, -0.8137194514274597, -0.9745359420776367, 0.3097551763057709, -0.2173214554786682, -0.3657107353210449, 0.4225047826766968, -1.226248860359192, -0.07571769505739212, 0.013523055240511894, 0.0011201712768524885, -0.75281822681427, -0.6464649438858032, 0.14123083651065826, -1.4486706256866455, 0.25952428579330444, 0.10173466056585312, 0.6148700714111328, -0.22484190762043, -0.0703018382191658, -0.5311627388000488, -0.5741090178489685, 0.9128408432006836, 0.24541814625263214, 0.40848061442375183], [-0.19945354759693146, 1.3185111284255981, 0.08144170045852661, 0.41941002011299133, -0.19858473539352417, -0.11266164481639862, 0.7311440110206604, -0.2121509313583374, 0.032116975635290146, 0.1817740499973297, 0.34246236085891724, -0.8743385076522827, -0.031837012618780136, 1.502764105796814, -0.7826747894287109, 0.2518313527107239, -0.4671487510204315, -0.2526833415031433, -0.2503725588321686, 0.7766193747520447, 0.2498111128807068, 0.41443732380867004, -0.11040104180574417, 0.19335973262786865, -0.07887066900730133, 0.16572993993759155, 0.05640294402837753, 1.1068955659866333, -0.140640988945961, -0.2624007761478424, 0.3250744342803955, -0.09061673283576965, 0.4402753412723541, 0.8575128316879272, 0.35744279623031616, -0.3102072477340698, -0.37730392813682556, -0.20724663138389587, 0.09081068634986877, -0.009866535663604736, -0.009297429583966732, -0.026309533044695854, -0.012101085856556892, 0.33389514684677124, 0.037520527839660645, 0.43755674362182617, -0.10561800003051758, 0.03698503226041794, 0.6377865672111511, 1.003271222114563, -0.9020622968673706, 0.05514366552233696, 0.019693942740559578, -0.2628842294216156, 2.04872727394104, 0.09209473431110382, 0.5497807860374451, -0.3239598572254181, 0.8456288576126099, -0.2782853841781616, 0.021564926952123642, -0.08763948082923889, 0.7036765217781067, -0.13238702714443207, -0.5242868065834045, 0.09059491753578186, 0.7371252179145813, 0.7339184284210205, -0.973183274269104, 0.20362995564937592, -1.247804880142212, 0.1323595643043518, -0.5509977340698242, -0.8312060236930847, -0.04274741932749748, -0.016620971262454987, 0.07094883173704147, 0.3703763782978058, -0.043438032269477844, 0.16125723719596863, 0.7249757647514343, -0.5233101844787598, 0.09725354611873627, 0.7488903403282166, 0.026026006788015366, 0.5715413093566895, 0.30787795782089233, 0.05051254853606224, -0.2992286682128906, 0.10060939192771912, 0.05836328864097595, -0.785393476486206, -0.17996329069137573, -0.6968068480491638, 0.09918182343244553, 0.11762820929288864]], "recurrent_kernel:0": [[2.1352932453155518, 2.680368423461914, 1.0933126211166382, 0.2262471318244934, -0.2106809914112091, 0.6811437010765076, 0.41780003905296326, -0.012516982853412628, -0.2607300579547882, 0.4371311664581299, -0.8613801598548889, 2.0857975482940674, -0.6818445324897766, 1.6954294443130493, 2.735226631164551, 2.973958969116211, 1.695003628730774, 1.5872966051101685, 1.1924197673797607, 0.8557918667793274, 1.2121503353118896, 0.9960917830467224, 0.9572524428367615, -1.2946927547454834, 2.428555965423584, 3.115572452545166, 1.45596444606781, 1.327154278755188, 0.7162837982177734, -1.2254010438919067, 0.5960227847099304, -1.4102375507354736, 1.0203865766525269, -0.691016435623169, 0.36494752764701843, -0.8156818747520447, 0.8361204266548157, -1.0535857677459717, -0.4859718084335327, 1.463616967201233, 0.8121188879013062, 0.14518319070339203, -1.1423206329345703, -0.14633892476558685, 0.8948822021484375, 0.8523492217063904, -1.3581831455230713, -0.7220644354820251, -1.192628026008606, 1.4125374555587769, 0.5128579139709473, 0.3307904303073883, -0.13417543470859528, 1.4490487575531006, -0.8305016756057739, 0.2248108983039856, 1.0549992322921753, -0.5992187261581421, 1.5371582508087158, 1.1906784772872925, 0.09439592063426971, -0.029318682849407196, 0.5659542083740234, -0.2873079776763916, 0.21546228229999542, -0.5505414009094238, -0.062283799052238464, 0.4509412944316864, 0.5134881138801575, -1.0149613618850708, 0.1584320366382599, -0.06405742466449738, 2.0319788455963135, 2.7258405685424805, 0.3301692306995392, 0.557857871055603, -0.009592019021511078, 1.3704603910446167, 1.6066663265228271, 0.5592514872550964, 2.977613925933838, 0.16640996932983398, 3.099609851837158, -0.2513698935508728, 0.06976684927940369, 0.7252374887466431, 1.4667305946350098, 1.507104754447937, 1.3975027799606323, 1.1315513849258423, 0.9602348208427429, 1.8535441160202026, 0.8587289452552795, 3.7185230255126953, 0.9867217540740967, 1.0505597591400146], [-1.3086910247802734, 1.1812703609466553, 0.6086477637290955, 1.8319443464279175, -0.839286744594574, -0.44260451197624207, 0.535015344619751, -0.7304472923278809, 0.07078871876001358, -0.8914483189582825, 0.6449998021125793, 0.8832151293754578, -0.20611663162708282, 0.32239556312561035, -0.2589728832244873, -0.31619128584861755, -1.010919451713562, 0.46677184104919434, 1.0091700553894043, -0.9416656494140625, 0.7597998976707458, 0.06276129186153412, -0.2598055303096771, -0.10149871557950974, 1.7909015417099, -1.0539885759353638, -0.6857039332389832, 0.5779948234558105, -0.2186627984046936, 1.1407214403152466, 0.37987589836120605, 0.7021359205245972, -0.5453712344169617, 0.3260778486728668, -0.4484669864177704, -0.6800084710121155, -0.011072437278926373, -0.2785624563694, -0.27688291668891907, 0.12501095235347748, -0.38434407114982605, -0.2170925736427307, -0.059626445174217224, 0.6079174280166626, 0.2653149962425232, -0.7703387141227722, 0.16533739864826202, 0.033507224172353745, 0.3575781285762787, 0.24643059074878693, 0.6446152925491333, -0.19341035187244415, 0.17387641966342926, -0.1643516570329666, -0.9626656174659729, -0.311099648475647, 0.0197512935847044, 0.28711754083633423, 0.032049186527729034, -0.1607997864484787, 0.1728493869304657, 0.384854793548584, 0.21621744334697723, -0.41039058566093445, 0.14421065151691437, 0.19381041824817657, -0.7675952911376953, -1.2750004529953003, -0.628669261932373, -0.1606242060661316, 1.1117802858352661, -0.30036306381225586, -0.8974021673202515, 0.8765470385551453, 0.03361506760120392, 0.029706161469221115, -0.8820052742958069, -0.794913113117218, 1.1929494142532349, 0.40572938323020935, -0.48362165689468384, -0.4544786810874939, 0.5368871092796326, 0.23355330526828766, -0.4988262355327606, 0.39057230949401855, -1.3236840963363647, -0.8312745690345764, 0.06225105747580528, 0.3773891031742096, -0.14480113983154297, 0.5905187129974365, -0.1811504364013672, -1.692382574081421, 0.8684493899345398, 0.6567177176475525], [-0.6260613799095154, 0.4808718264102936, -0.15464605391025543, 0.045400574803352356, -0.02612566016614437, 0.2607577443122864, -0.1380062699317932, 0.15216124057769775, -2.093068838119507, -0.20521199703216553, -0.3606994152069092, -0.020779455080628395, -0.6876193881034851, -0.28609785437583923, 0.07314031571149826, 0.12035710364580154, -0.9689272046089172, 0.4001157581806183, -0.20831234753131866, -0.23386217653751373, 0.10434971749782562, 0.0805278792977333, -0.6056426763534546, 0.021907469257712364, 1.6277714967727661, 0.3230864703655243, 0.17037266492843628, -1.1009036302566528, -0.025631479918956757, 0.5611518621444702, 0.42367273569107056, -0.0813949704170227, -0.3670768737792969, 1.3659151792526245, 0.04572233557701111, -0.3046921491622925, 0.15576285123825073, 0.21639171242713928, -0.3017868101596832, -0.11253774911165237, 0.3297565281391144, 0.7181985974311829, -0.2916225492954254, 0.2516235411167145, -0.09879965335130692, -0.6607012748718262, 0.28067365288734436, -0.6942164897918701, 0.023617446422576904, 0.1227891743183136, -0.39749065041542053, 0.7939267158508301, 0.5175145864486694, 0.35022473335266113, -0.15424780547618866, -0.3259175419807434, 0.40669184923171997, -0.29304471611976624, 0.8179898262023926, 0.2752043902873993, 0.630146861076355, 0.04230586811900139, 0.07477862387895584, -0.012325511313974857, 0.32278430461883545, -0.33217206597328186, 0.10214497148990631, 0.05364829674363136, -0.06777472048997879, -0.12278276681900024, -0.10629527270793915, 0.47520485520362854, -0.2703242301940918, -0.182842418551445, -0.03357519954442978, 0.005396273452788591, -0.3947046101093292, -0.20474065840244293, 0.08955258131027222, 0.5149361491203308, 0.7905718088150024, 0.06539228558540344, 0.10213466733694077, -0.4007514715194702, -0.23656801879405975, -0.2650274634361267, 0.5555594563484192, -0.40767520666122437, -0.23049698770046234, 0.18196436762809753, -0.4559656083583832, 0.4776311218738556, -0.650629460811615, 0.08923932909965515, -0.3869858384132385, 0.38094890117645264], [-1.526038408279419, -1.1119040250778198, -0.7537221312522888, -1.1799308061599731, 0.28513237833976746, -1.1434643268585205, -0.4928150475025177, -0.5379972457885742, -0.9529860615730286, -0.3751879930496216, -1.0573846101760864, -1.4447978734970093, 0.4812628924846649, -0.15535694360733032, -0.05398440361022949, -0.8618616461753845, -0.6192224621772766, 0.11913410574197769, -0.7081977725028992, -1.2062691450119019, -0.211857870221138, -0.5812775492668152, -1.1950725317001343, 0.3729826509952545, -2.4301886558532715, 0.878818929195404, -0.36988478899002075, 0.12992526590824127, -0.0005088347825221717, -0.022115327417850494, -0.4484620988368988, -0.7691320776939392, -0.7420436143875122, 0.6565045118331909, -0.07761090248823166, 0.14097841084003448, -1.103009581565857, -0.2840542197227478, -1.0643384456634521, -2.560343027114868, -0.4818568229675293, 0.6331074833869934, -0.7355268597602844, -1.5016309022903442, -1.3920278549194336, -0.2633816599845886, 0.2182946503162384, -0.704226553440094, -0.4920289218425751, 1.1675432920455933, -0.33412712812423706, -0.21150484681129456, -0.16839012503623962, 0.37388595938682556, -0.14124488830566406, -0.013714656233787537, -0.636459469795227, -0.1495949625968933, 0.2445891946554184, -0.09742524474859238, 0.37303754687309265, -0.27587631344795227, 0.4068836271762848, -0.10192232578992844, 0.5738056302070618, -0.44758740067481995, -0.16103030741214752, -0.6988170146942139, -0.025370419025421143, 0.41737666726112366, -0.027263253927230835, 0.7835857272148132, -2.346956729888916, -1.9083750247955322, -0.26790016889572144, 0.4296185076236725, 0.4979088008403778, -1.1010079383850098, -0.5785611867904663, -0.11276769638061523, -0.7939629554748535, -0.5003432035446167, -0.7813646197319031, -0.6599907279014587, -0.2621765732765198, -0.8998631834983826, -0.8894439339637756, -1.0022151470184326, -1.5435830354690552, -0.2658989131450653, -0.7489372491836548, -1.2052133083343506, -0.2267710119485855, -0.26220178604125977, -1.1069777011871338, -0.045092348009347916], [0.97133469581604, 1.2609081268310547, 0.7812984585762024, 0.5174990296363831, 0.1398717761039734, 1.1075726747512817, 0.6295029520988464, 0.5501571297645569, 1.6213915348052979, 0.4651641249656677, -0.007854444906115532, 1.2917581796646118, -1.0094356536865234, 0.4847892224788666, 0.08252036571502686, 1.7992050647735596, 0.5569942593574524, -0.39171937108039856, 1.032204031944275, 0.9731093645095825, -0.2159508764743805, -0.27686989307403564, 0.07354811578989029, 0.09529753029346466, 0.24425210058689117, -0.034774299710989, 0.5128204226493835, 0.49037906527519226, 0.02074510231614113, 0.18923477828502655, 0.05797068774700165, 2.0678937435150146, 1.0248748064041138, -0.40368354320526123, -0.39453408122062683, -0.5994208455085754, 1.5633131265640259, 0.8652629256248474, -0.17613263428211212, -0.1691710203886032, 1.9788354635238647, 0.4798499643802643, -0.04863009229302406, 0.3528827428817749, -0.7167801260948181, 0.5934830904006958, 1.3378841876983643, 1.3740390539169312, 0.323931485414505, 0.5151748061180115, 0.6610303521156311, -1.0487284660339355, 0.020995618775486946, -0.5608140826225281, -0.38776451349258423, 0.9519909620285034, -0.3501933813095093, 0.14286679029464722, 0.7314485311508179, 0.1418297439813614, -0.5485196113586426, 0.00013593383482657373, -0.3139980137348175, -0.4536765515804291, -0.4965648949146271, 0.43284112215042114, -0.2920960783958435, 0.005167359486222267, 0.41888129711151123, 0.031517546623945236, -0.6414949297904968, -0.7671476602554321, 0.6712758541107178, 1.0870964527130127, 0.5604512691497803, 0.5578243732452393, 0.2664133608341217, 0.3086005747318268, 0.6395646333694458, 0.5187796950340271, 0.5676118731498718, 0.9028574228286743, 0.9175007939338684, -0.9567678570747375, 0.8503259420394897, 0.431550532579422, -0.1376236081123352, 0.49619045853614807, 0.24466641247272491, 0.7198436260223389, 1.4038007259368896, 1.3725907802581787, 0.7242550849914551, 1.1475862264633179, 1.6531950235366821, 0.3968251645565033], [-1.8612996339797974, -0.36437517404556274, -0.2018195390701294, -0.27719172835350037, -0.08952225744724274, -1.9255714416503906, -0.0463261604309082, 0.3841025233268738, -0.6819248795509338, -0.680121123790741, -0.32815587520599365, -0.05972446873784065, -0.2570542097091675, 0.5207244157791138, 0.09397406131029129, -1.5929265022277832, -1.6353989839553833, -0.2697086036205292, 0.10470464825630188, 0.15897908806800842, 0.2929089367389679, 0.19990558922290802, 1.024152159690857, 0.5347735285758972, 1.5276963710784912, 0.16128933429718018, -0.5971881747245789, -0.9324319958686829, -0.2801729440689087, -1.2001599073410034, -0.42497798800468445, -2.1250040531158447, 0.722329318523407, -0.2027045637369156, -0.15017369389533997, -0.30507126450538635, -0.5837329030036926, -0.09420288354158401, 0.1868533194065094, 0.24479886889457703, 1.2062735557556152, 1.8489638566970825, -0.6600807309150696, 0.05413883179426193, -0.8399418592453003, 0.1795414388179779, -1.5131490230560303, 1.131068468093872, -0.06037364527583122, -0.9114021062850952, -0.03903992846608162, 0.7114244103431702, -1.277921199798584, 0.31135910749435425, 0.07719779759645462, 0.09831008315086365, -1.2375568151474, 0.21507611870765686, 0.6985803246498108, -0.15212726593017578, 0.4655144214630127, -1.7708103656768799, 0.5401753187179565, 0.4764831066131592, -0.2154427021741867, -0.8420573472976685, -0.2277514934539795, 0.2813837230205536, -1.1472561359405518, 1.3388768434524536, 0.051685333251953125, 0.6693118214607239, -0.31532588601112366, -1.1754487752914429, -0.2888825833797455, 1.1476014852523804, 0.06763359904289246, 1.2359448671340942, -0.7374038696289062, -0.662578821182251, 0.9035336971282959, -1.0104126930236816, -0.4502426087856293, 0.10863635689020157, -0.876763105392456, -1.55100679397583, 0.6510692834854126, -0.5986767411231995, -0.2769908607006073, -0.9581478834152222, -1.2266701459884644, -0.16102223098278046, -0.05445338785648346, -0.6341481804847717, -1.2523159980773926, -0.3620127737522125], [0.11730889230966568, 1.019798994064331, 0.1275625377893448, -0.1874822974205017, -0.11910290271043777, 0.15500156581401825, -0.44154560565948486, -0.4304322898387909, -0.12695923447608948, -0.576127290725708, 0.7851865291595459, -0.4003048241138458, -0.14026634395122528, 0.1277523636817932, -0.2631942629814148, -0.02557222731411457, -0.00034611066803336143, -0.36445385217666626, 0.47305577993392944, -0.4374009966850281, 0.4387490153312683, 0.17757055163383484, 0.20466673374176025, 0.027399370446801186, 0.6635532379150391, -0.5937268137931824, -0.18526123464107513, -0.20381012558937073, -0.1039615347981453, -0.5685529112815857, -0.2080969661474228, 0.25706055760383606, 0.22542059421539307, -0.18653623759746552, -0.07079467922449112, -1.0943344831466675, 0.7481691241264343, -0.7695397138595581, -0.8734995722770691, 0.012368638068437576, -0.8076218366622925, -1.1455128192901611, 0.08140634745359421, 0.02370673231780529, 1.0508939027786255, -0.20480753481388092, -0.6754258275032043, 0.0964985117316246, -0.16707397997379303, -0.16378116607666016, 0.00989098846912384, -0.10080810636281967, -0.33048567175865173, 0.24379198253154755, -0.1248292326927185, -0.04997391626238823, -0.22482670843601227, -0.11263415962457657, -1.2954124212265015, -0.08471503108739853, -0.6434519290924072, -0.10627048462629318, 0.1897777020931244, -0.043845102190971375, 0.37400591373443604, 0.045014429837465286, -0.04392430558800697, 0.12735478579998016, 0.40821489691734314, 0.04661620408296585, -0.15852035582065582, -0.11728691309690475, -0.09465041011571884, -0.17244765162467957, -0.3373238742351532, -0.33584722876548767, -0.1923445761203766, -0.02659175917506218, 0.09900801628828049, -0.2460303157567978, 0.14561162889003754, -0.08954190462827682, 0.41667789220809937, -0.0132073312997818, -0.070768341422081, 0.12126261740922928, -0.9724771976470947, 0.09065943956375122, -0.060615286231040955, -0.24761024117469788, -0.14242085814476013, -0.07726997882127762, 0.2728138566017151, -0.40685686469078064, -0.3300204873085022, -0.16393835842609406], [1.2188336849212646, -0.6963266134262085, 0.6109896898269653, 1.4141199588775635, 0.16163118183612823, 1.6436220407485962, 0.6077603101730347, 0.393506795167923, 0.41407087445259094, -0.6376885175704956, -0.747321367263794, 0.5237255692481995, 0.1987108588218689, 0.4493779242038727, 1.1109458208084106, 1.2819068431854248, 0.7498387098312378, 0.9311287999153137, 0.39960455894470215, 0.0032601100392639637, -0.3702884614467621, 0.7606677412986755, 0.31945496797561646, 0.40376418828964233, 0.13650569319725037, -0.055807746946811676, 0.5031471848487854, 0.5049829483032227, 1.1677732467651367, 0.10410533100366592, 0.4274147152900696, 0.04129564017057419, 1.1353812217712402, 1.3520090579986572, 0.5406003594398499, 0.6866171956062317, 1.6671452522277832, 0.6239128112792969, 0.8988230228424072, 0.08796664327383041, 0.29081428050994873, 1.0830634832382202, 0.4044914245605469, -0.0711967721581459, 0.9328338503837585, -0.2813692092895508, 0.7892776131629944, 0.2898966073989868, -0.6700834035873413, -0.0008706925436854362, 0.3771020770072937, -0.48002517223358154, 0.3410800099372864, 0.897546112537384, 0.03140076994895935, -0.19598911702632904, -0.48792022466659546, -0.8023326992988586, 0.13432297110557556, 0.5074171423912048, 0.5946785807609558, 0.0751693993806839, -0.18614700436592102, 1.1304186582565308, 1.7796630859375, -0.6225101947784424, 0.1849217563867569, -0.9809514284133911, 0.5357126593589783, -0.1029854342341423, -0.33167365193367004, -0.06896335631608963, -0.36809924244880676, 1.0714951753616333, 0.24782049655914307, 1.452956199645996, -0.42984193563461304, 0.14105837047100067, 0.9183288812637329, 0.29170161485671997, -0.41584911942481995, -0.444339394569397, 0.7159438729286194, -0.6459529995918274, -0.7907482981681824, 0.5222644805908203, 0.8578543066978455, 0.8098359107971191, 0.5042918920516968, 0.8536156415939331, -0.4236709177494049, 0.7424222826957703, 0.8348524570465088, 1.0597913265228271, 1.4679616689682007, -0.3388943672180176], [-1.6168427467346191, -0.0052456785924732685, -0.04365796223282814, -0.39668941497802734, -0.0016904189251363277, -2.4032840728759766, -0.531927764415741, -0.47910913825035095, -1.2267872095108032, 0.9400526285171509, -0.722430944442749, 1.6284795999526978, -0.4222187399864197, -0.9372302293777466, -1.4209610223770142, -0.2967545688152313, -0.44571593403816223, -0.5940390229225159, -0.2933426797389984, -0.1869359314441681, -0.27925243973731995, -0.6990092396736145, 0.17643041908740997, -0.5393648743629456, -0.3211536109447479, -0.4083641469478607, -0.53762286901474, -1.0181190967559814, -0.11968392878770828, 1.828974962234497, -0.9031955599784851, -2.090543270111084, -0.8039978742599487, -1.1556276082992554, -0.24417632818222046, -1.652101755142212, -0.8386683464050293, -0.4879019260406494, -0.8289943933486938, -0.9578271508216858, -1.5912156105041504, -1.550855278968811, -1.5479270219802856, -0.3729081153869629, 0.23167523741722107, 0.19661176204681396, -1.8518521785736084, -0.2924286723136902, 1.3086016178131104, -0.23289518058300018, -0.792554497718811, 0.35325539112091064, -0.8026002049446106, -0.43164747953414917, -0.3184715509414673, 0.3082880675792694, 0.6864198446273804, 0.8061567544937134, -0.254149854183197, -0.41245245933532715, -0.7467933297157288, -0.15644913911819458, -0.11541853100061417, -1.050870418548584, -0.10660967975854874, -0.4168899655342102, 0.35986632108688354, 0.3602179288864136, -0.5524424910545349, 0.6097975969314575, 0.7578582167625427, 0.6851869821548462, -1.0508209466934204, -0.8421958088874817, -0.5962020754814148, -0.11753872781991959, 0.03687312826514244, 0.6468651294708252, -0.8874571323394775, -0.1266840398311615, -0.9059532284736633, -0.0008251527324318886, 0.5992491841316223, 0.008237572386860847, 1.5575865507125854, -0.33048802614212036, -0.8766871690750122, -1.008830189704895, -1.7700203657150269, -0.7258575558662415, 0.008573505096137524, -0.2716946005821228, -0.8332527279853821, -0.3272881507873535, -1.4575473070144653, -0.4876234531402588], [-0.02056325227022171, 0.40267062187194824, 0.10132230073213577, 1.4884676933288574, -0.026753447949886322, -0.5523961782455444, -0.2116144895553589, -0.09999589622020721, 0.49520209431648254, -0.6437493562698364, 0.48157116770744324, -0.3390146791934967, -0.24684001505374908, 0.06633804738521576, 0.690608024597168, -0.2829281687736511, -0.48930054903030396, 0.1858244687318802, 0.7738186120986938, 0.6887187957763672, 0.09466249495744705, 0.44129595160484314, -0.6465075612068176, 0.9226500391960144, 2.7069485187530518, -0.47251155972480774, -0.1585588902235031, -0.7538648247718811, 0.24352960288524628, 1.2955238819122314, 0.07950122654438019, 0.4203871190547943, 0.4665605425834656, 1.5300029516220093, -0.17691929638385773, 0.1916177123785019, -1.046185851097107, 0.6857556104660034, 0.58584064245224, 0.3672846853733063, 0.5719258189201355, 1.2875921726226807, -0.5671377182006836, -0.7343388199806213, 0.8728175163269043, -1.181860327720642, 0.6934290528297424, 0.8042380213737488, -0.9719959497451782, -0.5602126121520996, -0.4344933032989502, 0.9022343158721924, 0.4551255404949188, 0.39590904116630554, -0.23125529289245605, -0.3444376587867737, -0.6424731016159058, -0.5485395789146423, 0.16954582929611206, -0.22947131097316742, 0.9518783092498779, -0.3474384844303131, -0.10596491396427155, 0.4366788864135742, 0.7568393349647522, -0.9899367094039917, -0.7037975788116455, 0.4511035978794098, -0.7489234805107117, 0.09686934947967529, -0.45220962166786194, 0.6184586882591248, 1.3718031644821167, -0.1307644098997116, 0.4656006395816803, 0.9055050611495972, 0.4169909656047821, 1.068828821182251, 0.2000570446252823, -0.14383353292942047, -0.2588455379009247, -1.6132794618606567, 0.10875719785690308, -0.9428699612617493, -1.3397247791290283, -1.1661055088043213, -0.1264898031949997, 0.4225998818874359, 1.0146405696868896, 0.6822418570518494, -0.5395116209983826, -1.1393519639968872, -0.16830651462078094, -1.4782748222351074, -1.1735718250274658, 0.4458218812942505], [0.26065823435783386, 1.3798757791519165, -0.07647299766540527, 0.45652008056640625, -0.06135893985629082, -0.4684533476829529, -0.25121986865997314, 0.25746095180511475, 0.48677143454551697, -0.06090762838721275, -0.06206277385354042, 0.37675246596336365, 0.32598134875297546, 0.47272300720214844, -0.9640603065490723, 0.20406296849250793, 0.34672659635543823, -0.6923116445541382, 0.3276655972003937, -0.9201014637947083, 0.6030724048614502, -0.20321479439735413, -0.15027397871017456, -0.5455964207649231, -0.4276772737503052, -0.23213551938533783, -0.43341854214668274, 0.5243858098983765, -0.300353467464447, 0.17453312873840332, 0.002235175110399723, -0.39435645937919617, 0.2916369140148163, -0.7365620732307434, -0.12319083511829376, -1.1480919122695923, 0.3464735746383667, -0.8821089863777161, -0.42700299620628357, 0.025731157511472702, -1.6020565032958984, -0.14218486845493317, -0.5065041184425354, -0.7419869303703308, 0.3208986222743988, -0.15457382798194885, -0.4919200837612152, 0.12829115986824036, 0.3021467328071594, 0.6185382604598999, -0.23949983716011047, 0.4936790466308594, -0.4523566961288452, -0.09869499504566193, -0.49273860454559326, 0.026089945808053017, 0.2304861694574356, 0.22364181280136108, -0.42912885546684265, -0.03176720440387726, -0.46573448181152344, -0.16607682406902313, 0.12064476311206818, -0.22881059348583221, 0.547453761100769, -0.04739648848772049, -0.14798323810100555, -0.2544342279434204, -0.46422573924064636, -0.2534645199775696, 0.39265352487564087, 0.04360862821340561, -0.4212360382080078, 0.013039677403867245, -0.17571698129177094, 0.38664722442626953, 0.47457021474838257, 0.28759703040122986, -0.1148279458284378, 0.5279309153556824, 0.3137838542461395, 0.31497156620025635, -0.4959351718425751, 0.06551341712474823, 0.9916790127754211, 0.034614142030477524, -0.7585861682891846, -0.008544622920453548, -0.01618911884725094, 0.10092204809188843, -0.3163756728172302, -0.29912829399108887, -0.27048352360725403, -0.006076765712350607, -0.17737440764904022, -0.35535627603530884], [1.4699605703353882, 0.19352015852928162, 0.35730981826782227, 1.0250539779663086, -0.3196293115615845, 2.726125478744507, 0.6048902273178101, 0.21404899656772614, 1.6626816987991333, 0.4343253970146179, 0.7171599864959717, 0.025807734578847885, 0.04436784237623215, 1.0816586017608643, 0.49831438064575195, 1.2213828563690186, 0.08388933539390564, 1.3837509155273438, 0.599037766456604, 0.638081431388855, 0.6896843910217285, 0.5103773474693298, 0.3085101544857025, 0.11535874009132385, -0.11925050616264343, -0.04502532631158829, 0.42270970344543457, 0.9685142040252686, 0.6388799548149109, 0.7641294598579407, -0.26995640993118286, 0.7690704464912415, 0.6513901352882385, 0.5368316769599915, 0.3850395679473877, -0.6230224967002869, 1.4267778396606445, 0.8192050457000732, 0.9638379812240601, 0.6272594928741455, -0.026187937706708908, 1.165172815322876, 0.7859218716621399, 0.8965974450111389, 1.0403995513916016, 0.9052968621253967, 0.3000851571559906, -0.048710692673921585, -0.10524290055036545, 0.08053328096866608, 0.4440969228744507, -0.17216536402702332, 0.17091168463230133, -0.2961660921573639, 0.11337482184171677, 0.3300696313381195, 0.29619184136390686, -0.297803670167923, 0.10908359289169312, -0.9480233192443848, 0.054128970950841904, 0.3371541500091553, -0.6678091883659363, 0.24776209890842438, 0.47772952914237976, 0.7203496098518372, 0.6098632216453552, 0.3782961070537567, -0.7336741089820862, -0.21578063070774078, -0.8288307189941406, -0.8303866386413574, 0.6737189888954163, 0.29949289560317993, 0.40307188034057617, 0.35703808069229126, -0.5377808809280396, 1.8583893775939941, 1.4216548204421997, -0.08183680474758148, -0.23004594445228577, 0.15424562990665436, 0.5257766246795654, 1.1169850826263428, -0.3182172179222107, 0.6800203323364258, 1.0476685762405396, 0.744029700756073, 0.7215154767036438, 1.4610477685928345, 0.4498995244503021, 0.8500473499298096, 1.1235967874526978, 0.6133804321289062, 0.7248349785804749, 0.419470876455307], [-0.6924785375595093, 0.0319860614836216, -0.6228413581848145, 0.5990989804267883, 0.04357123002409935, 0.37886467576026917, 0.37590527534484863, 0.7167761325836182, 1.5607578754425049, -0.6093062162399292, -0.18094833195209503, -0.7895188331604004, -0.3645387589931488, 0.5677376389503479, 1.0965309143066406, 0.6704603433609009, -0.9582681059837341, 0.6431761384010315, 0.35015881061553955, -0.268648624420166, -0.45274969935417175, 0.8094547390937805, 0.8963660001754761, 0.16011883318424225, 1.3142914772033691, 0.3455539643764496, -0.11300652474164963, -0.6738271713256836, 0.18888236582279205, -1.7990161180496216, 0.308965265750885, 0.6021299362182617, 1.0609601736068726, 0.9656592011451721, 0.1729632019996643, 0.09635648131370544, 0.3659285008907318, -0.1072293072938919, -0.4420388340950012, 0.3100046217441559, 0.19661347568035126, 0.9883114695549011, 0.4155237376689911, -0.3885430693626404, 0.48864689469337463, 0.5211824178695679, 1.0359691381454468, 0.9876852035522461, -0.3871862590312958, -0.1758589893579483, 0.32567012310028076, -0.4484681189060211, -0.1698741614818573, -0.6297661066055298, 0.13841010630130768, 0.2575230300426483, -0.7299261093139648, 0.1388162076473236, 0.9177128672599792, -0.5095741152763367, 0.3531508147716522, -0.22045886516571045, -0.35525351762771606, -0.2258058339357376, 0.03288707509636879, -0.14231814444065094, -0.2844565212726593, 0.5871449112892151, 0.1394696831703186, -0.24494017660617828, -0.09480856359004974, -0.21191376447677612, 0.28897109627723694, 1.0794334411621094, 0.01604173518717289, 0.12378427386283875, 0.3488992750644684, -0.9372374415397644, 0.385451078414917, -0.013681141659617424, 0.574512779712677, 0.3536249101161957, 0.8319099545478821, -1.658483862876892, -0.0753871500492096, -0.7196534872055054, 0.43988823890686035, 0.15166741609573364, -0.9039791822433472, 0.11452855914831161, 0.009135858155786991, 0.5643914937973022, 0.3254941999912262, 1.1339740753173828, 0.8781654834747314, 0.1273033767938614], [1.5926668643951416, 1.5591405630111694, 0.5950226187705994, 0.1549575924873352, -0.7179522514343262, 0.8293067812919617, 1.585294485092163, -0.19638873636722565, 1.7564911842346191, 0.6700106859207153, 1.1190807819366455, 1.513257622718811, -0.03547809273004532, 1.5441640615463257, 0.13394279778003693, 0.9024717211723328, 0.9539468288421631, 0.6553226113319397, 0.5256487727165222, 1.5666406154632568, 2.2286133766174316, 0.6401783227920532, 1.3191066980361938, 0.08997216820716858, 0.7580782175064087, 0.35366004705429077, 0.4761611521244049, 0.9159570932388306, -0.17992885410785675, 1.8509118556976318, -0.7149577736854553, 0.690914511680603, 0.1817532628774643, 0.7863441705703735, 0.1807553917169571, -0.0436454713344574, 0.2276454120874405, 0.6352018713951111, 0.6304298639297485, 0.6952311396598816, 1.5171260833740234, 1.281442403793335, -0.6054187417030334, 0.13571377098560333, -0.2727527320384979, 0.8415133953094482, -0.177351713180542, 1.0672471523284912, 0.2628384828567505, 0.010448477230966091, 0.22947195172309875, -0.42436838150024414, 0.04616883769631386, -0.3273595869541168, -0.2958533763885498, 0.12005015462636948, 0.14063571393489838, -0.0989241823554039, -0.3380579352378845, -0.8876638412475586, -0.6552632451057434, -0.26419779658317566, -0.6613610982894897, -0.6435444355010986, -0.9304336309432983, 0.41977402567863464, 0.4009007215499878, 0.9550429582595825, -0.1451207399368286, 0.05459292232990265, 0.15732984244823456, -0.22626864910125732, 1.5167372226715088, 1.3204288482666016, 0.26050856709480286, 0.46610701084136963, -0.7298592329025269, 2.0784623622894287, 0.804614782333374, 0.28716179728507996, 0.9991966485977173, 0.6472164988517761, 0.9005798101425171, 0.9927451014518738, 0.04263105243444443, 0.5530352592468262, 0.22791725397109985, 1.0437464714050293, 1.3201051950454712, 0.6287299990653992, 0.8622108101844788, 1.2065436840057373, 0.7963129878044128, 0.24377846717834473, 1.1639034748077393, 0.28249499201774597], [-0.030803630128502846, 1.1906301975250244, -0.48377129435539246, -0.8661710619926453, -0.08706817030906677, -1.1003659963607788, -0.6598083972930908, -0.2742071747779846, -0.54250168800354, 0.15822482109069824, -0.1543278694152832, -0.7153326272964478, 0.5438292622566223, 0.2229490429162979, -0.6482686400413513, -0.44766855239868164, 0.9671093821525574, -0.038558606058359146, -0.8482602834701538, -0.29168906807899475, 0.6872425675392151, -0.745941162109375, -2.118682861328125, -0.7646017670631409, -0.07129516452550888, 0.05960659682750702, 0.3280925750732422, 0.20675455033779144, -1.088272213935852, 0.05585948005318642, 0.06085270643234253, 0.4790753126144409, -1.8409308195114136, -0.3961699903011322, -1.043481707572937, -0.2562793791294098, 0.3565722107887268, -0.2471235692501068, -1.185970425605774, -0.5033255815505981, -0.5873422026634216, -0.27864009141921997, 0.7932239174842834, -0.6361217498779297, -1.1642563343048096, 0.9632640480995178, 1.4681134223937988, -0.7121224403381348, 0.8768380284309387, 1.0696851015090942, -0.5515569448471069, 0.37198570370674133, 0.05632127448916435, -0.8005678057670593, 0.6738394498825073, -0.14291547238826752, 0.25343218445777893, -0.06566696614027023, -0.12159483879804611, 0.5867547392845154, -0.3400336503982544, 0.2642512619495392, -0.05617576092481613, -0.8663730025291443, 0.16774718463420868, 0.3709382712841034, -0.12270504981279373, -0.3240900933742523, -0.6082158088684082, -0.13443337380886078, -0.7136995196342468, -0.4770445227622986, -0.7050953507423401, 0.3571397662162781, 0.06015460938215256, -0.17091961205005646, -0.10277413576841354, -1.4174948930740356, -0.6504819989204407, 0.03908603638410568, -1.08818781375885, -0.617587685585022, -1.409980058670044, 0.4470655918121338, 0.026176640763878822, 0.4662604331970215, -0.4499678909778595, -0.8031297922134399, -0.59372878074646, -0.12485872209072113, -0.36186841130256653, -0.1345389038324356, -0.21407273411750793, 0.1048402339220047, -0.5432196259498596, -0.12811104953289032], [0.4650121033191681, -0.24766618013381958, -0.22781556844711304, 1.1411701440811157, 0.23873271048069, 1.371584415435791, -0.20895050466060638, -0.5398063659667969, -3.2195026874542236, -0.4780675172805786, 0.36925259232521057, -0.7293409705162048, 0.38601821660995483, -1.2259351015090942, -0.6889358162879944, -0.33349141478538513, 1.1882942914962769, 0.2701095640659332, 0.4461130201816559, 0.03432333096861839, 0.33679938316345215, -0.4996322691440582, -0.29924383759498596, -0.07260816544294357, -0.9664365649223328, 0.11556483060121536, -0.8340698480606079, -1.0607911348342896, -0.4132467806339264, -1.5133877992630005, -0.3063828945159912, -0.24098148941993713, 0.08942695707082748, -0.9421335458755493, 0.9850054383277893, -0.351688027381897, 0.4275110960006714, 0.3112393319606781, -0.0625205710530281, -0.5302518010139465, -1.3710163831710815, -0.10356124490499496, 0.37186524271965027, 0.7304581999778748, -0.23363927006721497, 0.15528108179569244, -0.27440643310546875, -0.5421432256698608, -0.29072660207748413, -0.19567616283893585, -0.23784410953521729, 0.16680043935775757, 0.030022013932466507, 0.2023310363292694, 0.37825825810432434, 0.5784472823143005, 2.0329325199127197, 0.9139534831047058, -0.04404907301068306, 1.0356203317642212, -0.08233098685741425, -0.2372337281703949, 0.314060240983963, 0.10507207363843918, 0.2797366678714752, -0.2545999586582184, -0.6932919025421143, -0.6350157856941223, -0.03146767243742943, 0.5738732814788818, -0.3055545389652252, -0.2831067144870758, -0.932713508605957, 0.5857987999916077, -0.039323240518569946, 0.5418739318847656, -0.10605854541063309, -1.2341177463531494, 0.15207594633102417, -0.16481173038482666, -1.1891385316848755, -0.6079874038696289, -0.5268401503562927, -1.1642597913742065, -0.5112746953964233, 0.19501721858978271, -0.8916274905204773, -0.3058527112007141, 0.06113569438457489, 0.06615874171257019, -0.004466617479920387, 0.5615838170051575, 1.4484156370162964, -0.1748911291360855, -0.13352224230766296, -0.7539989352226257], [-0.8866597414016724, -1.8743963241577148, 0.203365296125412, 0.2120833843946457, 0.8884348273277283, 0.2149186134338379, 0.13115061819553375, 0.5805332660675049, -0.4864600896835327, 0.27494722604751587, -0.5602898597717285, 0.0551757737994194, 0.1254797726869583, -0.8690395951271057, -0.2450139820575714, -1.5738105773925781, -0.5521075129508972, -1.369598388671875, -0.34201452136039734, -0.17998898029327393, 0.4920390546321869, 0.4489259123802185, 0.7381635308265686, 0.6567021608352661, 0.09631695598363876, 1.122620701789856, -0.9485188722610474, -0.5275235176086426, -1.017181396484375, 0.29029381275177, -1.2171956300735474, -0.37225785851478577, -0.08433178812265396, -0.6262707710266113, -0.5602742433547974, 0.13622386753559113, -2.401223659515381, 0.3555415868759155, 0.20302361249923706, -0.9303543567657471, -0.1946161389350891, -0.16735957562923431, -0.7304962873458862, 0.06607462465763092, -0.8033902049064636, -0.019641125574707985, -0.2732515037059784, 0.8469023108482361, -1.4057044982910156, -0.42271727323532104, 0.08613265305757523, 0.5247787237167358, -0.21353596448898315, 0.4634213149547577, -1.1535006761550903, 0.7251380681991577, -1.5008043050765991, 0.17973504960536957, 0.1408008486032486, -0.6658236980438232, -0.280210942029953, -0.9622700214385986, -0.7945904731750488, -0.15259329974651337, -0.36022186279296875, -0.5731759071350098, -1.2607365846633911, -0.749654233455658, -0.5566636323928833, 0.33123770356178284, 0.4886961877346039, 1.0954954624176025, -0.3330448567867279, -1.6072818040847778, -0.2830043435096741, 1.07673180103302, -0.06485582888126373, 0.9106351137161255, -0.8425289392471313, 0.18226972222328186, -0.082947738468647, -1.195762276649475, -1.1026419401168823, -0.24786722660064697, -0.491061806678772, -0.9413741827011108, -0.2906568646430969, -0.38909631967544556, 0.3835384249687195, -0.6493538022041321, -0.910445511341095, -0.7107869982719421, -0.3929404616355896, -1.4520909786224365, -1.369653582572937, -0.46796855330467224], [0.49939265847206116, 0.8554332256317139, 0.4044022262096405, -1.8057154417037964, 0.10155662894248962, -0.09702044725418091, 0.11944147199392319, 0.295653373003006, 1.7286322116851807, 0.30787262320518494, -0.1500612199306488, 1.8582465648651123, -0.841074526309967, 0.5019259452819824, -1.058698296546936, -0.8171775341033936, -0.22461630403995514, -1.1437782049179077, -0.023104403167963028, 0.6016072630882263, 1.4187136888504028, -1.2326942682266235, -0.009084208868443966, 0.27176329493522644, -0.6699283123016357, -0.49717801809310913, 0.05018911883234978, 1.436453938484192, -0.9335610866546631, -0.29233911633491516, -0.26570069789886475, 0.2339390069246292, -0.568152666091919, 0.5522907376289368, 0.019464923068881035, 0.1457192450761795, -0.47662535309791565, -0.2509622871875763, 0.5349571704864502, 0.14097148180007935, 1.4258801937103271, 0.5874836444854736, -1.0160127878189087, -0.552928626537323, -0.7890839576721191, -0.3595898747444153, -0.09886990487575531, 0.5678487420082092, 0.3831999599933624, 0.20390847325325012, -0.12623803317546844, 0.3091315031051636, -0.26696228981018066, -0.1072445660829544, 0.41791263222694397, -0.5069729685783386, 0.17076152563095093, -0.13831552863121033, -0.23459430038928986, -0.3758036494255066, -0.9883770942687988, -0.15840570628643036, -0.0252334363758564, -0.560668408870697, -1.6881526708602905, -0.2969091534614563, 0.15723960101604462, 1.164225697517395, -0.4952583611011505, -0.2506332993507385, -0.7994164824485779, 0.4213627278804779, 0.7765066623687744, -0.9668152928352356, -0.1449863165616989, -1.0412076711654663, -0.5758045315742493, -0.07191543281078339, -0.5053902864456177, 0.8509919047355652, 2.051375150680542, -0.03790605440735817, 0.07344958931207657, 0.9002308249473572, 0.48624151945114136, 0.1705654263496399, -0.35711658000946045, -0.2813083231449127, 1.1685142517089844, 0.40780046582221985, 0.43776461482048035, -0.2687113881111145, -0.8510790467262268, -0.5713219046592712, -0.6984760165214539, 0.5391283631324768], [0.6780505776405334, 1.7408111095428467, 0.32786768674850464, 0.167690709233284, -0.6871775388717651, 1.437433123588562, 0.4877067506313324, -0.32977360486984253, 0.3737766742706299, -0.874794602394104, 1.9198153018951416, -0.4018217623233795, 0.16366729140281677, -0.6486446857452393, -0.24808378517627716, 0.6232908964157104, 0.7388142943382263, -0.23640581965446472, 0.3957235813140869, 0.36623552441596985, -0.14313393831253052, -1.020676851272583, -0.1596115380525589, -1.216905951499939, 0.854280412197113, 0.5457611680030823, 1.2498373985290527, -0.9513392448425293, -0.1537354439496994, 0.18805573880672455, 0.2431895136833191, 0.6686075329780579, 0.7489785552024841, -1.3038432598114014, 0.38005515933036804, 0.34180834889411926, 0.29890549182891846, 0.2773340046405792, -0.9309412837028503, 1.2831271886825562, 0.060320109128952026, -0.7124775052070618, 0.8462503552436829, 0.5376467704772949, 0.13968925178050995, 0.1126280426979065, 1.150713324546814, -0.42579877376556396, -0.7946499586105347, 1.0513687133789062, 0.063945472240448, -1.2455066442489624, -0.10950858891010284, -0.10407336056232452, 0.09690184891223907, 0.37635207176208496, -0.08834678679704666, 0.20054768025875092, -0.8915566802024841, 0.28097397089004517, -0.17153601348400116, 0.021575594320893288, 0.0017899936065077782, -0.5676291584968567, -0.4001159965991974, 0.1283680945634842, -0.07600380480289459, 0.37999749183654785, 0.5506168603897095, 0.3442912697792053, -0.5881027579307556, -0.8890376091003418, 2.0647077560424805, 1.0015792846679688, 0.2634510099887848, -0.4527120888233185, 0.20912769436836243, 0.5386009812355042, 0.6446366310119629, -0.27350714802742004, -0.12080878764390945, 0.24188043177127838, 0.5354844927787781, 0.18286585807800293, -0.5574085116386414, 0.9876787066459656, -0.39605748653411865, 1.0466878414154053, -0.1438700407743454, 0.6583619117736816, 0.6128485798835754, 0.5976809859275818, 0.30870574712753296, 0.32871413230895996, 0.9610475897789001, 0.15487709641456604], [0.4479133188724518, 0.6568225622177124, 0.18994320929050446, -1.1412698030471802, 0.13103443384170532, -1.3479468822479248, -0.21630308032035828, 0.12221843004226685, -2.9305922985076904, 0.40581056475639343, -0.024848487228155136, -0.054453518241643906, -0.023408707231283188, -0.5116857290267944, -1.3773000240325928, 0.2820128798484802, 0.4585731625556946, -1.5945698022842407, 0.15346300601959229, -0.6496069431304932, -0.032798636704683304, -0.7825035452842712, -0.31412139534950256, -0.21244598925113678, 1.032475233078003, 0.1707763969898224, 0.43249276280403137, 0.36120080947875977, -0.9224343299865723, 0.7126947045326233, 0.3602227568626404, 0.0588386170566082, -0.954772412776947, -1.4894790649414062, -0.7232478260993958, -0.8321073055267334, -0.20361289381980896, 0.010663012973964214, -0.4218657314777374, 0.2653340995311737, -0.6263558268547058, 1.0974968671798706, -0.7070966362953186, -0.3899776339530945, -0.758792519569397, -0.505879282951355, 0.13909697532653809, -1.2071318626403809, 1.2800850868225098, 1.1117578744888306, -0.17494434118270874, 0.1208212599158287, -0.08469567447900772, 0.027507750317454338, -0.037888720631599426, 0.16075345873832703, 2.1040027141571045, -0.09239793568849564, -0.40087345242500305, 0.8475944399833679, -0.6409158110618591, 0.7761110067367554, 0.5151791572570801, -0.47242870926856995, -0.2449188530445099, 0.163155198097229, 0.4485529065132141, -0.8935306072235107, -1.0790824890136719, 0.8287975192070007, 0.14010901749134064, 0.021467499434947968, -1.653638482093811, -1.4319034814834595, -0.26037877798080444, -0.9384938478469849, 0.5385422706604004, -0.8926481604576111, 0.5809669494628906, 0.10417022556066513, 0.14848293364048004, 0.1089293584227562, -1.0725349187850952, 1.1177773475646973, 0.32506901025772095, 0.3534667491912842, -1.0724986791610718, -0.4123300611972809, 0.9288354516029358, -1.3586829900741577, -0.17022094130516052, -0.34313926100730896, -0.19293692708015442, -0.9556329250335693, 0.7101478576660156, 0.05851273238658905], [-0.014456184580922127, 0.03336161747574806, 0.2745545506477356, 1.052038311958313, 0.11839459836483002, 0.9841810464859009, 0.8921283483505249, 0.13734261691570282, 1.116135597229004, -0.20908859372138977, -0.5132918357849121, 0.8919709324836731, 0.8400091528892517, -0.3715672492980957, -1.0469712018966675, -0.9073237180709839, -0.6989831924438477, -0.8183848261833191, -0.4410289227962494, -0.08594700694084167, -0.3373326063156128, -1.4708002805709839, 1.1070977449417114, 0.21398817002773285, -0.9500618577003479, -0.4720461964607239, -0.1056554839015007, 0.7635049819946289, -1.4102517366409302, -0.16814838349819183, -0.33013999462127686, 0.19261988997459412, 0.6681131720542908, 0.9892467856407166, 0.46501481533050537, -0.8740751147270203, -0.7280559539794922, 0.2125261425971985, 0.5723425149917603, 0.4592720568180084, 0.529045045375824, -1.384658694267273, 0.1432604342699051, -0.6932265758514404, -0.42884522676467896, 0.34202414751052856, 0.35500016808509827, -0.006179614923894405, -0.8879696130752563, 0.8509369492530823, -0.17078308761119843, -0.9805580973625183, -0.028860410675406456, 0.017604244872927666, 0.6203041076660156, 0.20436836779117584, -0.5291891098022461, -0.3568616509437561, -0.23212119936943054, 0.6070984601974487, -0.7016826868057251, 0.07929511368274689, -0.17909972369670868, 0.05754256248474121, -0.9300860166549683, 0.8073497414588928, 0.22296999394893646, 0.5062832236289978, -0.4124123156070709, 0.5776460766792297, 0.16190031170845032, -0.14388960599899292, 1.7516188621520996, 0.32219481468200684, -0.09698174893856049, 0.29851454496383667, -0.3404211401939392, 0.5680142045021057, -0.3702239394187927, -0.5178771018981934, -1.1246684789657593, -0.019987400621175766, -0.040706735104322433, 1.297083854675293, -0.4342764914035797, 0.476675420999527, -0.18871694803237915, 1.045436143875122, -0.3292691707611084, -0.07281570881605148, 0.6244445443153381, 0.4598596692085266, 0.21467407047748566, -0.7605249285697937, 0.23048114776611328, 0.41181591153144836], [-2.9813199043273926, 0.5842381715774536, -0.5701162815093994, -0.44740059971809387, 0.03995925560593605, -2.5171427726745605, -0.9066438674926758, 0.060787346214056015, -0.07084964215755463, -0.1565130054950714, -1.4057716131210327, -0.5272124409675598, -0.25937420129776, -1.104042410850525, -1.3659034967422485, -1.3703311681747437, -0.36788409948349, -1.1708526611328125, -1.7129507064819336, -0.5254022479057312, -1.6363431215286255, -1.3672648668289185, -0.8795520663261414, -0.07412019371986389, -0.37437352538108826, -0.4535445272922516, -0.4088645577430725, -0.11834241449832916, -0.7619045376777649, 0.5046151876449585, -0.05409296974539757, -0.06834013760089874, 1.836247205734253, -2.292590618133545, -0.22061708569526672, -0.3042217791080475, -0.6834712028503418, -0.18569642305374146, 0.39752304553985596, 0.39490851759910583, 0.8825510144233704, 0.265238881111145, -1.195794939994812, -0.6304066181182861, -0.9609776735305786, 0.017605990171432495, 0.1852257400751114, -0.35266417264938354, -0.03741474077105522, 0.2206667810678482, -0.2848265469074249, 1.6229456663131714, -0.041581492871046066, 0.23377852141857147, -0.05404381453990936, -0.2344294786453247, -0.4196696877479553, 0.23851168155670166, -0.1869923621416092, 0.7290439605712891, -0.021486887708306313, 0.3104686141014099, -0.20051483809947968, 0.3996526896953583, 0.18974818289279938, -0.6833592057228088, -0.13718144595623016, -0.4834723472595215, -0.18674391508102417, -0.349409818649292, 0.024405650794506073, 0.6004296541213989, -2.1008007526397705, -0.5467692017555237, -0.29581865668296814, 0.056493159383535385, 0.358558714389801, -0.44685378670692444, -0.5968148708343506, 0.2915118336677551, -0.2096034586429596, -0.37520280480384827, -1.1699763536453247, 0.23534347116947174, 0.6652119755744934, -0.8885233402252197, -1.3596320152282715, -1.1071254014968872, -0.2704295516014099, -0.607344925403595, -1.1847950220108032, -0.6035102009773254, -1.4826782941818237, -0.6267833709716797, -1.3256256580352783, -0.5096623301506042], [-0.41618189215660095, -1.3392632007598877, -0.003223127219825983, 1.6350500583648682, -0.28154894709587097, 0.6604115962982178, 0.08736000955104828, -0.24274808168411255, 0.5272805094718933, -0.035464972257614136, -1.241913914680481, 0.8964352607727051, 0.40097397565841675, -0.2508606016635895, -0.28052911162376404, -0.5855785012245178, -0.9575214385986328, 0.7163474559783936, 0.13166245818138123, -0.1184784397482872, 0.7444984316825867, -0.22828693687915802, 0.0483095645904541, 0.34600508213043213, 0.14709822833538055, -0.11526530236005783, -0.028677809983491898, 0.4880119860172272, -0.014344767667353153, 0.3379555940628052, 0.5335881114006042, 0.41634631156921387, 1.1178840398788452, 1.4672837257385254, -0.25419479608535767, -0.2602953016757965, 0.9957408905029297, -0.1998525857925415, 0.23286791145801544, 0.22575607895851135, 0.5481410622596741, -0.4259244203567505, -0.18634192645549774, -0.5000129342079163, -0.34566637873649597, 0.1351224184036255, 0.6744242310523987, -0.34037497639656067, -0.5136409401893616, -0.45027852058410645, -0.37059658765792847, 1.0198478698730469, -0.021547598764300346, 0.6027059555053711, 0.6512495279312134, -0.33690115809440613, -0.5626701712608337, -0.16885840892791748, 0.6695559024810791, 0.16805660724639893, 0.14170478284358978, 0.12262547761201859, -0.3586960434913635, 0.11940609663724899, -0.09266132861375809, -0.31997960805892944, 0.16323356330394745, 0.844908595085144, -0.05344550311565399, -0.26209813356399536, -0.6983095407485962, 0.1441541165113449, 0.5737514495849609, -0.26596102118492126, -0.05704059079289436, 0.8752226233482361, 0.054894931614398956, 0.6140120625495911, -0.331900030374527, 0.30645552277565, 0.2501688003540039, -0.42636552453041077, -0.0017818567575886846, 0.8981316685676575, -0.5220804810523987, 0.28304028511047363, 0.3915087878704071, 0.1184886246919632, 0.2905120849609375, 0.8722299933433533, 0.31416749954223633, 0.630766749382019, -0.4727635681629181, -0.36987432837486267, -0.3020687997341156, 0.694370448589325], [-1.3540455102920532, -0.5543798208236694, -0.6920251846313477, -1.6131542921066284, 0.4510784149169922, -2.9455983638763428, -0.7582979202270508, -0.6604357361793518, 0.5852552652359009, 0.4424409866333008, -0.6563279032707214, -1.8370437622070312, -0.20197759568691254, -0.5729804635047913, -0.1942034810781479, -0.39357641339302063, -0.1752360761165619, -0.3049323260784149, 0.45290571451187134, -1.0761305093765259, -0.9220574498176575, 0.0869099497795105, -0.8527642488479614, -0.3905819356441498, -0.8363581299781799, 0.10681375861167908, -0.4906795620918274, -0.42830437421798706, -0.14159651100635529, -0.47211167216300964, -0.34049031138420105, -0.5320628881454468, -0.8408851027488708, -1.2973552942276, 0.1446884572505951, 0.8865851163864136, -1.0363274812698364, -0.046825021505355835, -0.5258510708808899, -0.034502290189266205, 0.6793730854988098, 0.15448589622974396, -1.3820912837982178, -0.7558748722076416, -0.5004587769508362, 0.0667000487446785, -1.2643605470657349, -0.3589382469654083, 0.48173969984054565, 0.12294117361307144, -0.9220432639122009, 0.4112526774406433, -0.640769898891449, -0.9494194984436035, 0.5147472023963928, -0.2178516387939453, 0.7427783012390137, 0.30695950984954834, -1.0164505243301392, 0.051908764988183975, -0.18843023478984833, -0.12848509848117828, -0.00954069197177887, 0.1308867335319519, -0.023740002885460854, 0.45737069845199585, 0.18107378482818604, -0.1495014727115631, 0.12125540524721146, 0.23730196058750153, 0.46814364194869995, -0.01519219670444727, -0.39842522144317627, -1.141545295715332, -0.6021255254745483, -1.886870265007019, 0.6294798254966736, -0.40438851714134216, -0.8243308067321777, -0.1007748395204544, 0.872395396232605, -0.013340850360691547, -0.9049260020256042, -0.6973730325698853, 1.1015455722808838, -0.6752640604972839, -0.5925988554954529, -0.3122510612010956, -0.8996296525001526, -1.0692660808563232, -0.47205811738967896, -1.2341582775115967, -0.7666842937469482, 0.3079496920108795, -1.3322237730026245, -0.1574951410293579]]}, "input_size": 240, "conv1d_stride": 12, "conv1d_1_stride": 12}