{"conv1d": {"bias:0": [0.009167117066681385, -0.004445305559784174, -0.00890431273728609, -0.0016695591621100903, 0.003998943604528904, 0.006064313463866711, -0.0031434446573257446, -0.0019683833234012127, 0.0008575936080887914, -0.007293669506907463], "kernel:0": [[[0.7233558893203735, -1.7102185487747192, -0.7164714336395264, 0.5612097382545471, 0.38965195417404175, 3.6604416370391846, -1.360094428062439, 0.4991145730018616, -0.45451146364212036, -2.4332408905029297]], [[0.6742830276489258, -1.6165292263031006, -0.5083652138710022, 0.26404568552970886, 0.29449746012687683, 2.8701655864715576, -1.6398606300354004, 0.6852278113365173, -0.4907750189304352, -2.3110039234161377]], [[0.009632543660700321, -1.21947181224823, 0.045808468014001846, 0.3883936107158661, 0.1592048853635788, 1.898579478263855, -1.692152500152588, 0.5629594326019287, -0.12528710067272186, -1.904825210571289]], [[-0.5077463984489441, -0.6995609402656555, 0.46758589148521423, 0.43755632638931274, 0.31998100876808167, 0.38943737745285034, -1.7032870054244995, 0.23571395874023438, 0.2556125819683075, -1.3380963802337646]], [[-0.8217895030975342, -0.04497520998120308, 0.8513618111610413, 0.45177173614501953, 0.6121532320976257, -0.7419031262397766, -1.6144754886627197, -0.17583602666854858, 0.6804147958755493, -0.45018866658210754]], [[-1.2069600820541382, 0.5712180137634277, 1.0383268594741821, 0.6013035178184509, 0.4988328814506531, -1.6960121393203735, -1.7368134260177612, -0.4424732029438019, 0.8431512713432312, -0.23151689767837524]], [[-1.52154541015625, 0.9551464915275574, 1.124230146408081, 0.6681786775588989, 0.5821881890296936, -2.0153050422668457, -1.3839753866195679, -0.6322541832923889, 1.0104689598083496, 0.25706151127815247]], [[-1.3088785409927368, 1.5704745054244995, 1.1589875221252441, 0.5686241388320923, 0.9097195267677307, -2.2216641902923584, -1.2345279455184937, -0.7873769402503967, 1.2236899137496948, 0.03955856338143349]], [[-1.064285397529602, 1.597765326499939, 0.9644120931625366, 0.4751381576061249, 1.0002869367599487, -1.733910322189331, -0.7971088886260986, -0.9031198024749756, 1.1875369548797607, 0.23776111006736755]], [[-0.6714523434638977, 1.3239641189575195, 0.607555091381073, 0.3216978907585144, 0.915623664855957, -1.0956658124923706, -0.05761009827256203, -1.082613468170166, 1.010474681854248, -0.19646544754505157]], [[0.29605787992477417, 0.9869860410690308, -0.17043162882328033, 0.05109304189682007, 0.8075674176216125, -0.2692283093929291, 0.49046674370765686, -1.0183383226394653, 0.38354504108428955, -0.4597795009613037]], [[0.9580203294754028, 0.3180638253688812, -0.756996750831604, -0.046938154846429825, 0.41689908504486084, 1.0898771286010742, 1.4341073036193848, -0.6732364296913147, 0.006467682309448719, -0.4375632107257843]]]}, "conv1d_1": {"bias:0": [-0.016094690188765526, 0.061089638620615005, 0.04607630893588066, 0.18270723521709442, 0.011000080034136772, 0.006469891406595707, -0.015682419762015343, 0.09260778874158859, -0.019142962992191315, -0.1018289253115654], "kernel:0": [[[0.01080411672592163, 0.14809001982212067, -0.05128908157348633, -0.12237139046192169, -0.07273631542921066, 0.09700162708759308, -0.13362285494804382, 0.1385650485754013, 0.012687548995018005, -0.1274930238723755], [-0.056251853704452515, -0.03959248214960098, 0.04895029962062836, -0.02059011161327362, -0.12706029415130615, -0.06367795914411545, -0.07842464745044708, 0.09489239752292633, 0.14673961699008942, 0.009988799691200256], [0.0682360827922821, -0.07905241847038269, 0.14811794459819794, -0.06698528677225113, -0.1366041898727417, -0.054717421531677246, 0.08295559883117676, -0.12207475304603577, -0.10959789156913757, -0.015716373920440674], [0.05607686936855316, -0.09846274554729462, -0.12831157445907593, 0.1407446712255478, -0.10145866870880127, -0.05059360712766647, -0.05805777758359909, 0.0883292704820633, 0.06438666582107544, 0.12324313819408417], [-0.10810752213001251, 0.12878815829753876, -0.11389265954494476, -0.04038216173648834, -0.07642235606908798, -0.15261468291282654, -0.06502657383680344, 0.13652615249156952, 0.1435082107782364, 0.06542722880840302], [0.14026223123073578, 0.04056394100189209, 0.1298130601644516, -0.11388082802295685, -0.1026655063033104, 0.10987313091754913, 0.06670621037483215, -0.0024517178535461426, -0.05177220702171326, -0.05622445046901703], [-0.13705836236476898, 0.12024147808551788, 0.15732164680957794, 0.14849801361560822, -0.07807545363903046, -0.10277844965457916, 0.10847325623035431, 0.050000593066215515, -0.05310680717229843, 0.004090264439582825], [0.09814809262752533, 0.029668748378753662, -0.06166175752878189, 0.01379905641078949, 0.06538130342960358, 0.052234530448913574, 0.07095010578632355, -0.10985174030065536, 0.12365983426570892, 0.02803690731525421], [-0.0938110202550888, 0.030061140656471252, 0.030181273818016052, -0.15645459294319153, -0.15251828730106354, -0.06504885852336884, -0.003968358039855957, 0.07393549382686615, -0.05582629144191742, -0.0750555619597435], [0.14683742821216583, 0.005780771374702454, -0.1364925652742386, 0.1035778671503067, 0.12541256844997406, 0.03945760428905487, 0.060386911034584045, -0.09282074868679047, -0.10186892747879028, -0.08032100647687912]], [[-0.046041034162044525, -0.07968169450759888, -0.039724111557006836, -0.05643627420067787, 0.1683967113494873, -0.05700637400150299, -0.15020833909511566, 0.024991925805807114, 0.04252057895064354, 0.1316079944372177], [-0.13164480030536652, 0.05290098860859871, -0.37283796072006226, 0.13236504793167114, 0.04073987901210785, 0.014410166069865227, 0.1517515629529953, 0.010443863458931446, 0.5099481344223022, -0.03302547708153725], [-0.029861226677894592, 0.013021129183471203, 0.1626664251089096, -0.08375275135040283, -0.013132229447364807, -0.011256651021540165, 0.11053431779146194, 0.16889426112174988, -0.017705176025629044, 0.0003060167655348778], [-0.052400726824998856, 0.020574385300278664, -0.2641390860080719, 0.27893948554992676, 0.33546292781829834, -0.20923927426338196, 0.07834798097610474, -0.3456806540489197, -0.1662570685148239, 0.35710227489471436], [0.10682182759046555, 0.006431227549910545, -0.2363443821668625, 0.3775328993797302, 0.3641781210899353, -0.09015816450119019, 0.018524333834648132, -0.45708850026130676, -0.03967851400375366, 0.2198798656463623], [-0.3455599248409271, -0.0028886098880320787, -0.7528411149978638, 0.8425039649009705, 0.760448694229126, 0.023534076288342476, -0.15115690231323242, -1.126814842224121, -0.5157057642936707, 0.3486609160900116], [-0.08373217284679413, 0.13224010169506073, 0.19302739202976227, -0.09821503609418869, -0.1393485814332962, 0.4827152490615845, -0.3755919337272644, 0.42873239517211914, 0.24150671064853668, -0.37851810455322266], [0.2476113885641098, 0.03116983361542225, 0.33150580525398254, -0.12361396849155426, -0.007426475174725056, -0.20470696687698364, -0.07261741906404495, 0.18137548863887787, -0.3550853431224823, -0.03997837379574776], [-0.09609794616699219, -0.20630955696105957, -0.12108854204416275, 0.09778789430856705, 0.05804981291294098, -0.17046917974948883, 0.07316019386053085, -0.06538961827754974, 0.09217885881662369, -0.10434141755104065], [0.14229625463485718, 0.12601238489151, 0.2436065375804901, -0.1705862581729889, -0.3760823905467987, 0.6052465438842773, -0.1890340894460678, 0.9041851162910461, 0.5088145136833191, -0.2812992036342621]], [[-0.10829168558120728, 0.1437358409166336, 0.05580279976129532, -0.1750115603208542, -0.22786307334899902, 0.3539162576198578, -0.5670663714408875, 0.36276108026504517, 0.030570602044463158, -0.23151367902755737], [0.03341657295823097, -0.35089269280433655, 0.1553240269422531, 0.07956449687480927, -0.0878494456410408, 0.25586020946502686, -0.2554960250854492, 0.23339688777923584, 0.176080584526062, 0.029067590832710266], [0.11351180821657181, -0.23101840913295746, -0.240130215883255, 0.19644412398338318, 0.06621888279914856, -0.18846029043197632, 0.2745133340358734, -0.37410321831703186, -0.14307549595832825, 0.11570212990045547], [0.007493583485484123, -0.18361712992191315, -0.1486789882183075, 0.33547332882881165, 0.2903030216693878, -0.3321526348590851, 0.29037949442863464, -0.5427096486091614, -0.05966910719871521, 0.4020957052707672], [0.2636522650718689, -0.3038818836212158, -0.3802434802055359, 0.1007060706615448, 0.2778046727180481, -0.2051585614681244, 0.23411180078983307, -0.30407950282096863, 0.1343650072813034, 0.28053075075149536], [-0.4343813955783844, 0.30651184916496277, -0.547105073928833, 0.013237988576292992, 0.19154374301433563, -0.4062865078449249, 0.02326291613280773, -0.6252416372299194, -0.386148065328598, 0.1622973531484604], [-0.14661188423633575, -0.09664706140756607, 0.34336987137794495, -0.27981892228126526, -0.19006694853305817, 0.44580987095832825, -0.6890214681625366, 0.6335594058036804, -0.032942965626716614, -0.4615156650543213], [-0.05426916480064392, 0.20753400027751923, 0.12769384682178497, -0.06434762477874756, 0.012119126506149769, -0.13195347785949707, -0.05199421942234039, 0.14947891235351562, -0.13163457810878754, -0.07858302444219589], [0.02652311511337757, -0.04409981146454811, -0.1604960411787033, 0.1581307202577591, 0.07063885033130646, -0.21575495600700378, 0.26270678639411926, -0.3206135928630829, 0.2025405913591385, 0.24377523362636566], [0.07094644010066986, 0.061079543083906174, 0.6248482465744019, -0.36169829964637756, -0.2608773410320282, 0.5423564910888672, -0.49447616934776306, 0.8159413933753967, 0.07859913259744644, -0.4892266094684601]], [[-0.4750908315181732, 0.7152187824249268, -0.2395397126674652, 0.06032443046569824, 0.16920554637908936, -0.26781579852104187, 0.1876724362373352, -0.39063236117362976, -0.28308790922164917, 0.12962555885314941], [0.06463079154491425, -0.5428996086120605, -0.13276197016239166, 0.13167324662208557, 0.04783988744020462, -0.005862187594175339, 0.12593533098697662, -0.13023537397384644, 0.26128458976745605, 0.2557627856731415], [0.40486258268356323, -0.6979149580001831, 0.45184680819511414, 0.17279160022735596, -0.04452434927225113, 0.4965835213661194, -0.16284258663654327, 0.3665120303630829, 0.16938665509223938, 0.11173883080482483], [0.6014746427536011, -0.7968624830245972, 0.2963436543941498, 0.0371633879840374, -0.026573359966278076, 0.5614302754402161, -0.40219831466674805, 0.5575426816940308, 0.2896529734134674, -0.15334084630012512], [0.4007403552532196, -0.7553769946098328, 0.2773520350456238, 0.26313745975494385, -0.0009162080241367221, 0.589354932308197, -0.2719971835613251, 0.44668149948120117, 0.5411937832832336, -0.1029467061161995], [-0.216172993183136, 0.3454338014125824, 0.017512449994683266, -0.21254770457744598, -0.14163944125175476, 0.10184642672538757, -0.37221479415893555, 0.5667802095413208, 0.04318339377641678, -0.4381658136844635], [-0.8031195998191833, 1.0493457317352295, -0.5952727198600769, -0.188033789396286, 0.05416017025709152, -0.7872583866119385, 0.4546652138233185, -0.8401672840118408, -0.5763229727745056, 0.3159960210323334], [-0.19725316762924194, 0.6245786547660828, -0.1479915976524353, -0.2636798322200775, -0.21406243741512299, -0.3975597620010376, 0.1886751651763916, 0.09988325089216232, -0.43656399846076965, 0.001678416971117258], [0.6354923248291016, -0.8493020534515381, 0.09711485356092453, 0.09354269504547119, 0.13114041090011597, 0.4297996461391449, -0.36681076884269714, 0.22250106930732727, 0.4749261438846588, 0.07907102257013321], [-0.47368305921554565, 0.7285550236701965, -0.23873311281204224, -0.2080553025007248, 0.07802120596170425, -1.0854833126068115, 0.7116449475288391, -0.9859838485717773, -0.7856569886207581, 0.4194295108318329]], [[1.0800487995147705, -0.1998947709798813, -0.23670709133148193, -0.0716060996055603, 0.475630521774292, 0.20817747712135315, 0.2973417639732361, 0.12095315009355545, 0.296835720539093, -0.1948135793209076], [-0.9569698572158813, 0.05476205050945282, 0.26009851694107056, 0.08117146790027618, -0.38840460777282715, -0.23991170525550842, -0.6639006733894348, 2.901162952184677e-05, -0.19798578321933746, -0.18045911192893982], [-1.183461308479309, 0.2301657348871231, 0.2065633088350296, 0.03548220917582512, -0.5368658304214478, -0.09853572398424149, -0.4279407858848572, -0.11192595213651657, -0.2745545506477356, 0.038697630167007446], [-0.9069763422012329, 0.31182166934013367, 0.0467623732984066, 0.05476541444659233, -0.3689979612827301, -0.14280110597610474, -0.5348859429359436, -0.44973307847976685, -0.09556181728839874, 0.01619948260486126], [-0.9764288067817688, 0.19619886577129364, 0.2433762401342392, 0.14849071204662323, -0.308149129152298, -0.3347163796424866, -0.47794175148010254, -0.1484382003545761, -0.10571055114269257, 0.11602231860160828], [1.1046193838119507, -0.20015184581279755, -0.5098312497138977, 0.4907171428203583, 0.5998575091362, 0.25117388367652893, 0.5246487259864807, -0.35574495792388916, 0.3672335147857666, 0.028070103377103806], [1.2490049600601196, -0.19169890880584717, -0.21989472210407257, -0.16900648176670074, 0.5313892960548401, 0.25291067361831665, 0.29886752367019653, 0.2281203269958496, 0.49789515137672424, -0.25817519426345825], [0.8436486124992371, -0.05312104523181915, -0.15707600116729736, 0.019199175760149956, 0.41434869170188904, 0.21123568713665009, 0.5647616386413574, 0.22749677300453186, 0.23281164467334747, -0.030766703188419342], [-1.1264411211013794, 0.2893396317958832, 0.2768706679344177, 0.00109654082916677, -0.5272430181503296, -0.29543665051460266, -0.37808099389076233, -0.25146713852882385, -0.3282158076763153, 0.014442766085267067], [1.0459388494491577, 0.057752709835767746, -0.015705464407801628, -0.3684980571269989, 0.27067112922668457, 0.061009667813777924, 0.35607948899269104, 0.3941883444786072, 0.22732622921466827, -0.46849772334098816]], [[0.038255129009485245, 0.0057457201182842255, 0.004487922415137291, 0.5021421909332275, -0.3359206020832062, 0.9866710305213928, 0.04193419590592384, -0.18836469948291779, -0.4111170470714569, 0.7040339708328247], [-0.04087293520569801, 0.09848883748054504, 0.00014345586532726884, -0.5791400671005249, 0.36605656147003174, -0.7632202506065369, -0.1238817423582077, 0.3843720555305481, 0.19816502928733826, -0.588805079460144], [0.20446841418743134, 0.11475467681884766, 0.07509925216436386, -0.3894226551055908, 0.3142862319946289, -0.7524095773696899, -0.03223345801234245, 0.1287357062101364, 0.19700080156326294, -0.8239917159080505], [-0.14520813524723053, 0.08304920792579651, 0.11691250652074814, -0.3970143795013428, 0.25315165519714355, -0.8804237842559814, -0.21594463288784027, 0.24298638105392456, 0.3432686924934387, -0.6968622803688049], [-0.21068572998046875, -0.01676427386701107, -0.09989903122186661, -0.38192906975746155, 0.3162602484226227, -0.8356643319129944, -0.2066909521818161, 0.28280600905418396, 0.43486592173576355, -0.6444218754768372], [-0.10774173587560654, -0.39903438091278076, -0.02929617650806904, 1.1047757863998413, -0.31239718198776245, 0.9573936462402344, -0.058424197137355804, -0.5190402269363403, -0.2995154857635498, 0.6867893934249878], [-0.008225662633776665, 0.19121047854423523, 0.1913040727376938, 0.49046018719673157, -0.24921859800815582, 1.157795786857605, 0.39176860451698303, -0.22109468281269073, -0.23855796456336975, 0.38210949301719666], [-0.017417307943105698, 0.04253285378217697, 0.2555225193500519, 0.48953646421432495, -0.22771550714969635, 0.6931365132331848, 0.30778586864471436, -0.08805510401725769, -0.4379540681838989, 0.6951712965965271], [0.05096368491649628, 0.04594764485955238, -0.03826858848333359, -0.5015847682952881, 0.4869108498096466, -0.851043701171875, -0.18440453708171844, 0.3064817190170288, 0.3131677210330963, -0.7869720458984375], [0.2589467167854309, 0.20071899890899658, 0.14729301631450653, 0.09238264709711075, -0.5456181764602661, 0.6348233819007874, 0.365885853767395, -0.005554552190005779, -0.3042645752429962, 0.47004878520965576]], [[-0.6142982244491577, -0.6373392343521118, -0.15970727801322937, -0.12216884642839432, -0.017206724733114243, -0.7372196316719055, -0.3150298595428467, 0.012508733198046684, 0.4992639720439911, -0.0409226268529892], [1.0289818048477173, 1.2794827222824097, 0.21917831897735596, 0.1535746157169342, -0.0640387311577797, 1.1956655979156494, 0.4502317011356354, 0.09148351848125458, -0.8611705899238586, 0.3729391396045685], [0.43915125727653503, 0.45041558146476746, 0.03441054746508598, -0.006558877415955067, -0.01439853385090828, 0.5281633138656616, 0.3507022559642792, 0.01957358978688717, -0.5136857032775879, 0.32523953914642334], [0.3338993489742279, 0.3641456067562103, 0.15353454649448395, 0.07979188859462738, -0.11864988505840302, 0.2554551362991333, 0.1447094827890396, -0.13305222988128662, -0.1781255453824997, 0.022512193769216537], [0.2639768123626709, 0.6096915602684021, -0.005234035663306713, 0.11619265377521515, -0.08420602232217789, 0.5120337009429932, 0.12734447419643402, -0.1172637939453125, -0.45141541957855225, 0.11676479130983353], [-1.337024450302124, -2.0442464351654053, -0.6294276714324951, -0.1412018984556198, 0.01284402422606945, -2.0167150497436523, -1.2480378150939941, -0.12260764837265015, 1.8359202146530151, -0.34762585163116455], [-0.22568239271640778, -0.1682938188314438, 0.029540449380874634, -0.1455564796924591, -0.09599245339632034, -0.06750737875699997, -0.0031041246838867664, -0.0068967523984611034, 0.08134372532367706, -0.1417529433965683], [-0.658351719379425, -0.9981000423431396, -0.11115129292011261, 0.0422358475625515, 0.08833664655685425, -0.848151683807373, -0.1327868551015854, 0.06631353497505188, 0.658443808555603, -0.37833043932914734], [0.5535984635353088, 0.55756676197052, 0.24931365251541138, 0.22420741617679596, -0.011980006471276283, 0.6693596839904785, 0.1237635463476181, -0.05666128173470497, -0.4333888590335846, 0.3801082670688629], [-0.06705743819475174, 0.22536781430244446, 0.2296665608882904, -0.15175475180149078, 0.0037272123154252768, 0.08433552831411362, 0.31812137365341187, 0.18111713230609894, -0.0767863318324089, -0.017974793910980225]], [[-0.10183156281709671, -0.13154064118862152, -0.05054913088679314, 0.014579249545931816, -0.057965073734521866, 0.02505187876522541, 0.0223463773727417, 0.046252913773059845, 0.0009318031370639801, -0.26038041710853577], [-0.021761279553174973, 0.0028889651875942945, 0.059211086481809616, -0.06308945268392563, -0.1510498970746994, -0.47531017661094666, 0.2573152482509613, 0.17734269797801971, 0.07816769182682037, 0.14707262814044952], [-0.09428704530000687, -0.15012331306934357, 0.1953982412815094, 0.06656347215175629, -0.13885052502155304, -0.22744672000408173, -0.011747531592845917, 0.13274481892585754, -0.1846340298652649, 0.20275253057479858], [0.3137429654598236, 0.18236090242862701, 0.19353874027729034, 0.15813101828098297, 0.16369719803333282, 0.07141613215208054, 0.09725522249937057, 0.12205541133880615, -0.17842905223369598, 0.35096901655197144], [0.17280609905719757, 0.22066934406757355, -0.0646519809961319, -0.05772252753376961, 0.030182858929038048, 0.1046290472149849, 0.1506015658378601, 0.21267886459827423, 0.06679973751306534, 0.17389097809791565], [0.671574056148529, 0.713463544845581, 0.19929951429367065, 0.28003185987472534, 0.05607295781373978, 0.48615047335624695, -0.03837217018008232, 0.12942074239253998, -0.44554153084754944, 0.3459142744541168], [-0.5932666659355164, -0.359747976064682, -0.10434334725141525, -0.12511096894741058, -0.0711158961057663, -0.2864033877849579, -0.2432854026556015, 0.027686774730682373, 0.18897362053394318, -0.19142667949199677], [0.0465698316693306, 0.035195209085941315, 0.03262384608387947, -0.009573093615472317, 0.16442228853702545, 0.17551593482494354, 0.022180233150720596, -0.11811693757772446, -0.12156402319669724, -0.11809472739696503], [0.156935453414917, 0.052422527223825455, -0.08024683594703674, 0.037907395511865616, -0.03694882616400719, -0.27513402700424194, -0.04382164031267166, 0.05590222775936127, -0.05172275751829147, 0.24940483272075653], [-0.5857045650482178, -0.6264140009880066, -0.03161608800292015, -0.372454434633255, -0.20782113075256348, -0.6228044629096985, 0.101609006524086, -0.14462508261203766, 0.4898863732814789, -0.39377719163894653]], [[0.10322437435388565, 0.18733128905296326, -0.0074571045115590096, 0.17539800703525543, 0.042955849319696426, -0.0429946705698967, -0.2022528350353241, -0.4169026017189026, 0.12221547961235046, -0.5693689584732056], [-0.02701902575790882, -0.5432348251342773, 0.40888848900794983, -0.39925140142440796, -0.08198051154613495, -0.32415464520454407, 0.6335750222206116, 0.10885344445705414, -0.36565008759498596, 0.6081826090812683], [0.03193363919854164, -0.15592536330223083, 0.22226980328559875, -0.017804978415369987, 0.0020184102468192577, -0.009593972936272621, 0.21966660022735596, 0.38607707619667053, -0.09962141513824463, 0.5145646929740906], [0.17883604764938354, 0.1271388977766037, 0.2714521586894989, -0.27018555998802185, -0.03346964344382286, -0.2297951579093933, 0.16759581863880157, 0.2916310131549835, 0.06502903997898102, 0.5487881898880005], [0.11590645462274551, 0.0023906927090138197, 0.17123910784721375, -0.3428278863430023, -0.11402391642332077, -0.2175910919904709, 0.29016339778900146, 0.48162975907325745, -0.06519512087106705, 0.8980597257614136], [0.5153807401657104, 0.6517763137817383, -0.15272948145866394, 0.24832779169082642, -0.2523796558380127, 0.01477724127471447, -0.4975583851337433, 0.24802713096141815, 0.21017059683799744, -0.3260868787765503], [-0.019083015620708466, -0.17527851462364197, -0.03763390704989433, 0.07828281074762344, 0.035371314734220505, 0.09384164214134216, -0.0011035115458071232, -0.5133823752403259, -0.24358847737312317, -0.5638477206230164], [-0.12334436178207397, 0.19567972421646118, -0.25146785378456116, 0.4356119930744171, 0.02867133542895317, 0.3909466564655304, -0.38213711977005005, -0.3828561007976532, 0.17435716092586517, -0.8379769921302795], [-0.09423501044511795, -0.10712268948554993, 0.28672927618026733, -0.19538933038711548, -0.006759731099009514, -0.19711823761463165, 0.13190805912017822, 0.3221551775932312, -0.036152247339487076, 0.5903611779212952], [-0.1059400886297226, -0.22749826312065125, 0.099246084690094, -0.041990965604782104, -0.10851938277482986, 0.1517384648323059, 0.2211461067199707, -0.5341190695762634, -0.22102393209934235, -0.9321052432060242]], [[-0.3249575197696686, 0.5518658757209778, -0.03033711574971676, 0.5191605687141418, 0.1758498251438141, 0.7163674831390381, 0.053578928112983704, -0.612421452999115, 0.7496297955513, -1.5279521942138672], [0.7507702112197876, -1.0949890613555908, 0.7431201934814453, -0.40344780683517456, -0.8514658808708191, -0.7440771460533142, 0.9052898287773132, -0.05257058143615723, -1.0442622900009155, -0.20320045948028564], [0.1566980630159378, -0.5664845705032349, -0.1969747543334961, -0.30054742097854614, -0.10047709941864014, -0.6926504969596863, 0.07076440751552582, 0.5456516742706299, -0.6412284970283508, 1.272651195526123], [0.2922614514827728, -0.40524932742118835, -0.03702257201075554, -0.4912002682685852, 0.047942597419023514, -0.60837721824646, -0.17413711547851562, 0.8961957693099976, -0.6525473594665527, 1.5861772298812866], [0.3046121597290039, -0.8534765243530273, 0.43936020135879517, -0.5757913589477539, -0.41802459955215454, -0.7964506149291992, 0.5400437116622925, 0.6195694804191589, -0.7618034482002258, 1.224661946296692], [-0.1572456657886505, 0.44094714522361755, 0.1327066719532013, -0.10855334997177124, 0.5817434191703796, -0.02399868704378605, -0.12300986796617508, 0.3740529417991638, 0.6713451147079468, 0.835604727268219], [0.09548165649175644, -0.013070418499410152, 0.7817443013191223, 0.4617078900337219, -0.567505955696106, 0.5838528275489807, 0.7003814578056335, -1.373563528060913, 0.1955934464931488, -2.4280173778533936], [-0.548733115196228, 0.9466772675514221, -0.6692367792129517, 0.512610912322998, 0.8063226938247681, 0.9041872024536133, -0.8349258303642273, -0.29938143491744995, 0.9613869190216064, -0.44868162274360657], [0.4013376832008362, -0.7037587761878967, 0.37242162227630615, -0.609931230545044, -0.5456905364990234, -0.8998231291770935, 0.26872318983078003, 0.5611579418182373, -0.885532021522522, 1.0307600498199463], [-0.038265544921159744, -0.10395222902297974, 0.16175459325313568, 0.5232582092285156, -0.2764585614204407, 0.750920832157135, 0.7032901048660278, -1.231753945350647, 0.39272022247314453, -2.2445590496063232]], [[1.1847714185714722, -1.3416279554367065, 0.6317904591560364, -0.6241412162780762, -1.2362957000732422, -1.4748733043670654, 0.720520555973053, 0.9594789743423462, -1.172467827796936, 1.5563803911209106], [-0.490128755569458, 1.618100881576538, -1.6182446479797363, 0.7802214026451111, 1.0517613887786865, 1.5435009002685547, -2.331658124923706, -1.1865280866622925, 1.1482927799224854, -0.6299866437911987], [-0.9597089290618896, 1.2526812553405762, -0.6548728942871094, 0.7653124332427979, 1.0340826511383057, 1.4180052280426025, -0.6141624450683594, -0.7861979603767395, 1.0527044534683228, -1.5666660070419312], [-0.48601144552230835, 0.28049570322036743, 0.2587963044643402, 0.45993077754974365, 0.3045628070831299, 1.053299903869629, 0.23307950794696808, -1.1318217515945435, 0.5341978073120117, -1.934290885925293], [-0.2560797333717346, 0.42926594614982605, -0.07863322645425797, 0.6957446932792664, 0.310000479221344, 0.9861841797828674, -0.284544974565506, -1.3102909326553345, 0.4948970079421997, -1.7975070476531982], [2.8508524894714355, -3.4286394119262695, 3.805067539215088, -1.778192400932312, -3.4959611892700195, -3.4264638423919678, 4.777398586273193, 0.9495869874954224, -2.7979331016540527, -0.25595223903656006], [0.937465250492096, -0.12597337365150452, -0.7467953562736511, -0.8803523182868958, -0.2017027884721756, -1.2020131349563599, -1.0375036001205444, 1.4740957021713257, -0.5980568528175354, 3.0280203819274902], [0.18394531309604645, -0.8500776290893555, 0.8431295156478882, -0.5195333957672119, -0.45994967222213745, -0.7870324850082397, 0.964211106300354, 1.0447918176651, -0.8105883002281189, 0.9736953377723694], [-0.5481692552566528, 0.971571683883667, -0.6024786829948425, 0.7858128547668457, 0.6303456425666809, 1.3021601438522339, -0.9341391921043396, -1.1261430978775024, 0.8967118263244629, -1.3953566551208496], [-0.29066336154937744, 1.4215946197509766, -1.6483720541000366, -0.12613248825073242, 0.9849114418029785, 0.32653552293777466, -2.1861791610717773, 1.3163721561431885, 0.6482435464859009, 3.0450878143310547]], [[0.14233769476413727, -0.1478545218706131, 0.12938712537288666, 0.08366720378398895, 0.03260275721549988, -0.1555037945508957, 0.06435605883598328, 0.10829009115695953, 0.059497058391571045, 0.1333635002374649], [0.02747868001461029, 0.1348879188299179, -0.09383322298526764, 0.06371161341667175, 0.12098799645900726, 0.03971114754676819, 0.055383190512657166, -0.03999900817871094, 0.04762600362300873, 0.14566083252429962], [-0.10473679006099701, 0.019682958722114563, -0.06311061233282089, 0.14519400894641876, 0.015210285782814026, 0.11480306088924408, 0.0854133814573288, -0.10621516406536102, 0.10439740121364594, -0.01600167155265808], [0.12536557018756866, 0.12596489489078522, -0.13077592849731445, -0.06482485681772232, 0.019803479313850403, -0.05310073494911194, -0.009656116366386414, -0.036785051226615906, 0.05332273244857788, -0.02885432541370392], [0.08829575777053833, -0.10292516648769379, 0.10404469072818756, -0.12156093120574951, 0.1125749796628952, -0.0052892714738845825, 0.05808733403682709, -0.14650669693946838, -0.017658621072769165, 0.02315641939640045], [0.00016357004642486572, 0.04097390174865723, -0.10771358758211136, 0.10293908417224884, 0.01985776424407959, 0.022496119141578674, 0.1013612300157547, 0.12395133078098297, 0.13287131488323212, 0.09866751730442047], [-0.04779227823019028, -0.0434192419052124, -0.012642353773117065, -0.11935816705226898, -0.1497565507888794, 0.1253022700548172, -0.01907825469970703, 0.07596395909786224, 0.06418675184249878, 0.13511069118976593], [-0.07111408561468124, 0.06154918670654297, 0.09048758447170258, 0.10781459510326385, 0.058045223355293274, -0.14959308505058289, -0.14647163450717926, 0.12153984606266022, 0.03546017408370972, 0.06903141736984253], [-0.0020231008529663086, 0.03634263575077057, 0.13910426199436188, 0.12117810547351837, -0.09032315015792847, -0.1478460133075714, -0.011890396475791931, -0.025142133235931396, 0.13033415377140045, -0.01486825942993164], [-0.09870272874832153, 0.07112996280193329, -0.06623142212629318, -0.06913233548402786, -0.04255477339029312, 0.05791814625263214, -0.12329067289829254, 0.08195741474628448, 0.0966721624135971, -0.001174643635749817]]]}, "dense": {"bias:0": [-0.1357623040676117], "kernel:0": [[-0.08277630805969238], [0.5259385108947754], [-0.213853120803833], [-0.07582035660743713], [0.11139851808547974], [-0.17577233910560608], [-0.1427810937166214], [-0.23823268711566925], [0.33998897671699524], [-0.11721691489219666]]}, "lstm": {"bias:0": [2.1047861576080322, -0.13542264699935913, 0.4048183560371399, 0.9873948693275452, 0.5948589444160461, 0.7591938376426697, 1.2420809268951416, 0.3483456075191498, 0.5799475908279419, 1.644127607345581, 1.0, 1.0, 1.0, 1.0, 1.0, 1.0, 1.0, 1.0, 1.0, 1.0, 0.07511655986309052, 1.1006639003753662, -0.005721304565668106, 0.1334882229566574, 0.24668391048908234, -0.07130497694015503, 0.06854919344186783, 0.002008806448429823, -0.21142399311065674, -0.04604152590036392, 1.783082127571106, 0.6620987057685852, 0.44009560346603394, 0.397058367729187, 1.4282259941101074, 1.2085943222045898, 1.2928664684295654, 0.18000569939613342, 0.22997719049453735, 1.1453399658203125], "kernel:0": [[-0.41345107555389404, -0.7006845474243164, -0.43924784660339355, 0.39395517110824585, -0.3400946855545044, -0.1481986790895462, -0.11094179004430771, -0.3368232548236847, -0.6609786152839661, 0.3021657466888428, 0.29951637983322144, 0.06681904196739197, -0.109051913022995, 0.26583629846572876, -0.21620942652225494, 0.07125851511955261, 0.2156515121459961, 0.2545638680458069, -0.1931883692741394, 0.09369105100631714, 0.17162716388702393, -0.12982547283172607, -1.6540327072143555, 0.25214746594429016, -0.20758137106895447, -0.03928230330348015, 0.5891155004501343, 1.8530776500701904, -0.6312692165374756, 0.35196956992149353, 0.6492125988006592, -0.014710566028952599, 0.40347909927368164, 0.213652104139328, -0.19060209393501282, 0.09551259130239487, 0.08823411166667938, 0.2707970142364502, 0.4008693993091583, -0.4208635687828064], [0.8759214282035828, 0.26958367228507996, 0.14153537154197693, 0.44734448194503784, -0.7276780605316162, -0.26448768377304077, 0.0818416178226471, -0.12128140032291412, 1.0567429065704346, 0.2555604577064514, -0.009702086448669434, 0.026936113834381104, 0.30393528938293457, -0.10853488743305206, -0.15513837337493896, -0.0022387802600860596, -0.14250077307224274, -0.18553495407104492, 0.2979710102081299, -0.2823565900325775, 0.432497501373291, -0.03686387464404106, 1.6596322059631348, -0.4047403931617737, 0.19999383389949799, -0.4695303738117218, -1.1227368116378784, 1.872817039489746, 0.7351384162902832, -0.677571177482605, -0.4067685306072235, -0.08169466257095337, -0.11052457988262177, -0.48951461911201477, 0.6683093905448914, 0.14818955957889557, 0.04711456969380379, 0.07930760085582733, -0.6509871482849121, -0.08952809870243073], [0.12848736345767975, 0.031162066385149956, 0.2557859420776367, 0.5071836709976196, -0.48192328214645386, -0.3964803218841553, 0.1655229777097702, 0.30782198905944824, -1.2766973972320557, -1.6664924621582031, -0.26768726110458374, -0.30993813276290894, -0.08398863673210144, 0.18471497297286987, 0.04452112317085266, 0.25925296545028687, 0.1291758418083191, -0.16928400099277496, 0.2741152048110962, -0.1508179008960724, -0.25795429944992065, -0.048327311873435974, 0.4583403766155243, 1.2162601947784424, -0.6752893924713135, 1.2817864418029785, 1.9778152704238892, 0.05851300060749054, -0.5000587701797485, 0.9509952664375305, 1.5314778089523315, -0.1529131978750229, -0.28700557351112366, 0.8957878947257996, -1.4619109630584717, 0.030025538057088852, -0.017942070960998535, -0.22195790708065033, 0.928825318813324, 1.0674495697021484], [0.7723143100738525, 0.04133309796452522, 0.16198308765888214, 0.17632542550563812, -0.042798638343811035, -0.04547495394945145, 0.0159547571092844, 0.8248344659805298, 0.718183159828186, -0.866892397403717, -0.11550652980804443, 0.24361777305603027, -0.22914659976959229, 0.12229424715042114, 0.1522485315799713, 0.16022950410842896, -0.10766471922397614, -0.17461465299129486, -0.024951457977294922, 0.30860990285873413, -0.3148517906665802, 0.14648377895355225, -0.9488697052001953, -0.3898256719112396, 0.22171621024608612, 0.2030436247587204, -0.8278831243515015, -0.0765184611082077, 1.0145797729492188, 0.19361059367656708, 0.11743663996458054, -0.043434251099824905, -0.12410087883472443, 0.009509176015853882, -0.2218681424856186, 0.17510773241519928, 0.15650975704193115, -0.7269282937049866, -0.35221803188323975, 1.0629701614379883], [0.4845488369464874, 0.8048220276832581, -0.6831676959991455, -0.11118993163108826, 0.1147008016705513, 0.041400667279958725, 0.036893803626298904, -1.0633444786071777, 1.0935900211334229, -0.15684065222740173, -0.18109437823295593, -0.008820027112960815, -0.21618853509426117, -0.33781468868255615, -0.03298074007034302, -0.26819080114364624, 0.056815654039382935, 0.3112398386001587, 0.0003504455089569092, 0.31043118238449097, 0.061889708042144775, 0.18985311686992645, -0.8358901143074036, -1.283280849456787, 0.07454272359609604, -0.5423712730407715, -1.494857668876648, 0.7159659266471863, 0.6551570892333984, -1.401642084121704, -0.23780162632465363, 0.008014918304979801, 0.585642397403717, -0.36318036913871765, -0.16234177350997925, -0.06444729119539261, -0.012937469407916069, 0.7649848461151123, -0.6871022582054138, -0.08997299522161484], [0.9153356552124023, 0.9239410161972046, 0.09671216458082199, -0.6760722994804382, -0.07780787348747253, 0.19650806486606598, 0.034283556044101715, 1.405483365058899, 1.3590224981307983, -0.4425947368144989, -0.07204973697662354, 0.08121290802955627, 0.2525772452354431, 0.26961541175842285, 0.26332712173461914, -0.0474371612071991, -0.26824885606765747, 0.07219469547271729, 0.09046265482902527, -0.11644227802753448, 0.6853925585746765, 0.08379565179347992, -0.8149594664573669, 0.7398492693901062, -0.7508668303489685, 0.15104879438877106, -1.504465103149414, 1.5600615739822388, 1.2501060962677002, -0.01980375312268734, 0.14779150485992432, 0.06026950106024742, -0.07710687071084976, 0.6849203705787659, -0.6236620545387268, -0.15904131531715393, -0.15846394002437592, -0.9616025686264038, -0.9499908089637756, 0.09999954700469971], [0.07054610550403595, 0.21552135050296783, -0.14226995408535004, 0.22513853013515472, -0.3579116463661194, 0.1254480481147766, 0.12451839447021484, 0.10268422216176987, -1.1591516733169556, -0.8457381725311279, 0.2552452087402344, -0.27008411288261414, 0.24453139305114746, 0.03801959753036499, -0.12651008367538452, 0.0825347900390625, 0.2615817189216614, -0.08098074793815613, -0.02961757779121399, -0.2396160364151001, 0.6736735105514526, 0.02355298213660717, -0.5454262495040894, -0.4672905206680298, 0.5844005346298218, 1.0751646757125854, 1.9897054433822632, 1.3612658977508545, -0.299403578042984, 1.1268316507339478, -0.7505297660827637, -0.0042557502165436745, 0.14120368659496307, -0.7897077798843384, 1.1489505767822266, -0.0753018707036972, -0.09137881547212601, -0.13423481583595276, 0.7944799661636353, 1.0166199207305908], [-0.14315398037433624, -0.718268871307373, -0.2503136396408081, 0.020492177456617355, 0.2342202514410019, 0.11932912468910217, -0.0026915250346064568, -0.4701017141342163, -1.0799880027770996, 2.1860060691833496, -0.20830757915973663, -0.08509296178817749, 0.2805095314979553, 0.33631783723831177, -0.3361264765262604, -0.2203027904033661, 0.04914018511772156, 0.1780279278755188, -0.08309236168861389, -0.23170475661754608, 0.9557895660400391, 0.04245375469326973, 0.15178784728050232, 1.4459091424942017, -0.6407100558280945, -1.1233550310134888, 1.0733431577682495, 0.05704078450798988, -1.193249225616455, -1.3301032781600952, 1.0819380283355713, 0.008775679394602776, 0.2648501694202423, 0.7232369184494019, -1.0041130781173706, 0.17104773223400116, 0.12216237932443619, 0.2749209403991699, 0.821207582950592, -1.4553080797195435], [-1.7822848558425903, 0.6988396644592285, -0.05212462693452835, 0.017614969983696938, -0.3016839921474457, -0.2706315517425537, 0.05611849203705788, -0.6592651009559631, 1.3989007472991943, -0.7781299352645874, 0.04028192162513733, 0.08703052997589111, 0.033757179975509644, -0.12154200673103333, 0.3311404585838318, 0.3352077007293701, -0.18100956082344055, -0.2607944905757904, 0.2106226086616516, -0.3123021423816681, 0.7387875318527222, -0.052564315497875214, -1.1644854545593262, 0.4526875615119934, -0.022978683933615685, -0.09929598867893219, -1.249726414680481, -1.6555017232894897, 0.9171440005302429, -0.47434544563293457, 1.3722684383392334, -0.04925375431776047, 0.04757777228951454, 0.017830459401011467, -0.35801440477371216, 0.08698717504739761, -0.049983102828264236, 0.4632730185985565, -0.9465680122375488, 0.10187393426895142], [0.5615784525871277, -0.8694487810134888, 0.2881774306297302, 0.0638899877667427, -0.24848145246505737, -0.18182453513145447, -0.08225397765636444, 0.9442214369773865, -0.9771095514297485, 2.475342273712158, 0.028183400630950928, 0.17965316772460938, 0.20220041275024414, -0.1952008605003357, 0.3338267207145691, -0.26322999596595764, -0.1110348254442215, -0.08828836679458618, 0.15547245740890503, -0.24781569838523865, -0.1455942690372467, -0.11961404979228973, -0.4620259404182434, -0.5914705395698547, 0.2068222463130951, -1.640789270401001, 0.8491883277893066, 0.28088676929473877, -1.8312960863113403, -1.9710972309112549, -0.3794596195220947, -0.02080138958990574, -0.2646436393260956, -0.38854706287384033, 0.3073033392429352, 0.12123905122280121, 0.09974824637174606, -0.6774235963821411, 0.655455470085144, -2.2919538021087646]], "recurrent_kernel:0": [[0.07703244686126709, -0.21254247426986694, -0.19442105293273926, -0.10947899520397186, -0.17097748816013336, -0.19890080392360687, -0.11655902117490768, 0.14911378920078278, -0.06444334983825684, 0.03854683041572571, 0.14177051186561584, -0.08836212754249573, 0.11501557379961014, -0.09803503006696701, -0.11642639338970184, -0.16045954823493958, -0.031620170921087265, -0.17659686505794525, -0.009731002151966095, 0.004130072426050901, -0.13308200240135193, -0.050544723868370056, 0.11701853573322296, -0.035598695278167725, 0.06522373110055923, 0.015703365206718445, 0.1845904439687729, -0.1431390941143036, -0.11116573214530945, -0.00029574811924248934, 0.22105221450328827, 0.29719698429107666, -0.1006523072719574, 0.03811784088611603, -0.014057822525501251, -0.15768297016620636, 0.1788925975561142, -0.442266047000885, 0.3882806599140167, -0.08751288801431656], [0.0005979263223707676, 0.0850386843085289, -0.0425189808011055, 0.29083842039108276, 0.003583155106753111, 0.0842459425330162, -0.08173016458749771, 0.2399766892194748, -0.009288297966122627, 0.19348472356796265, -0.1085309162735939, -0.4305627644062042, -0.3030865788459778, -0.17235013842582703, 0.007635624147951603, -0.00023762218188494444, -0.1277754306793213, -0.044404469430446625, -0.26852357387542725, 0.2753198444843292, 0.13012538850307465, 0.08546209335327148, 0.14451219141483307, 0.16224943101406097, 0.09400785714387894, 0.06329523772001266, -0.09308455884456635, 0.09975030273199081, 0.14525206387043, 0.06394322216510773, -0.1165861040353775, -0.15025411546230316, -0.0710182711482048, 0.2732461094856262, -0.09492449462413788, -0.0076633174903690815, -0.10200733691453934, -0.21270745992660522, 0.016571661457419395, -0.059327930212020874], [0.3529056906700134, 0.13667026162147522, 0.4190122187137604, -0.07805811613798141, 0.24210108816623688, 0.01068037748336792, -0.007719947025179863, 0.09003354609012604, -0.0913451611995697, 0.010649957694113255, 0.11896313726902008, -0.0639251321554184, 0.17232492566108704, 0.05726654827594757, 0.04213044047355652, 0.1725812554359436, 0.10589218139648438, -0.020791366696357727, -0.256721556186676, 0.05326417461037636, -0.07990919053554535, -0.18576215207576752, -0.08375631272792816, 0.02617943100631237, -0.13930366933345795, -0.33715471625328064, 0.05628974735736847, 0.10920136421918869, 0.09752431511878967, 0.08545386046171188, 0.13003766536712646, 0.17465952038764954, 0.15629233419895172, 0.17113064229488373, -0.15880873799324036, 0.15469995141029358, 0.11039303243160248, -0.04712079465389252, 0.0018071234226226807, -0.24152079224586487], [0.0045319776982069016, 0.0004554924089461565, -0.005581046920269728, -0.1534433364868164, 0.10583574324846268, -0.191506028175354, -0.19315820932388306, 0.19286374747753143, -0.03750623017549515, 0.034059472382068634, 0.18112759292125702, 0.27389681339263916, -0.040504198521375656, -0.11166620254516602, 0.023090822622179985, -0.1368788629770279, -0.10810299962759018, 0.019552934914827347, -0.06309588998556137, -0.11968706548213959, 0.34824225306510925, 0.06745874881744385, 0.030224835500121117, -0.22454506158828735, -0.04324105754494667, 0.15327242016792297, 0.05506659671664238, 0.18368160724639893, -0.09837140142917633, 0.06976743042469025, -0.41531363129615784, 0.27664241194725037, -0.05195892974734306, 0.31106066703796387, -0.06376983225345612, 0.131375253200531, -0.0998377650976181, 0.19150857627391815, 0.09778480231761932, -0.005733381025493145], [-0.03346055746078491, -0.2530412971973419, -0.007380031980574131, -0.07189938426017761, 0.13471564650535583, -0.04501130431890488, -0.1511400192975998, 0.13381840288639069, -0.04031853377819061, 0.0858544409275055, 0.1489269882440567, -0.008938471786677837, -0.14989198744297028, -0.01234162226319313, -0.14813145995140076, 0.24572141468524933, 0.23499219119548798, 0.33908966183662415, -0.060442641377449036, 0.2830241024494171, -0.17966189980506897, -0.06526016443967819, -0.1988040953874588, -0.1257983297109604, 0.08423494547605515, -0.039237119257450104, -0.0020604729652404785, -0.05789487436413765, -0.04174017161130905, -0.14054082334041595, -0.1615036278963089, -0.18775086104869843, -0.3312142491340637, -0.17093652486801147, 0.15945219993591309, 0.08846129477024078, 0.0019425400532782078, 0.14169475436210632, 0.2335439920425415, -0.2122359573841095], [-0.0424732007086277, -0.06910044699907303, -0.15778817236423492, -0.22580450773239136, -0.04231365770101547, 0.2976206839084625, 0.05825863406062126, -0.11259517818689346, 0.2000138908624649, -0.24867048859596252, 0.21090950071811676, -0.23201243579387665, -0.06324578076601028, 0.024577539414167404, -0.15104058384895325, 0.22504842281341553, -0.3417372703552246, 0.21657341718673706, 0.015933098271489143, -0.0318598672747612, 0.07326409220695496, -0.04655524343252182, 0.19012923538684845, -0.2950439751148224, 0.02514040283858776, -0.03171363100409508, 0.15164080262184143, 0.05992717668414116, 0.08695437759160995, 0.33662959933280945, -0.008195221424102783, -0.020640086382627487, 0.12242613732814789, -0.050332605838775635, -0.0845269039273262, -0.10983771830797195, 0.009780202060937881, 0.0184207521378994, -0.022863158956170082, -0.22337950766086578], [0.06388331204652786, -0.22987131774425507, -0.21166516840457916, 0.0596998929977417, 0.22049930691719055, -0.008646532893180847, -0.03994324803352356, 0.2685399651527405, 0.09172287583351135, 0.034361157566308975, -0.1738276183605194, -0.06908140331506729, 0.05320185795426369, -0.18924464285373688, 0.02093842625617981, -0.24170202016830444, -0.0012169680558145046, 0.4237198829650879, 0.052503038197755814, -0.31102100014686584, 0.015136538073420525, 0.0812951996922493, -0.2082720249891281, 0.18504419922828674, 0.11500205844640732, -0.07370701432228088, 0.12142090499401093, 0.1358238011598587, 0.1804978996515274, 0.030459217727184296, 0.24410058557987213, 0.1535540074110031, -0.032219190150499344, -0.0011918079107999802, 0.026378799229860306, -0.02980489283800125, 0.0665091723203659, 0.07480821758508682, -0.27252447605133057, -0.10631567239761353], [-0.21437771618366241, -0.27243268489837646, 0.10077531635761261, 0.0055026765912771225, 0.019127195701003075, -0.0441320464015007, -0.07731863856315613, 0.009202651679515839, -0.29337620735168457, -0.07349727302789688, -0.1588282436132431, -0.014191370457410812, -0.031363461166620255, -0.1411626636981964, -0.05153270065784454, 0.0460914745926857, 0.1928352415561676, -0.17219406366348267, 0.16804051399230957, 0.14713874459266663, -0.3549858629703522, 0.17208293080329895, 0.24172483384609222, -0.1446654200553894, 0.20451727509498596, 0.006146712228655815, -0.13605165481567383, 0.05885106325149536, 0.09618376195430756, 0.117713063955307, -0.16792775690555573, 0.2555503845214844, 0.2576921284198761, 0.02386019378900528, -0.03943466767668724, -0.0014233104884624481, 0.04613889008760452, 0.07698813080787659, -0.2814580798149109, -0.1752198040485382], [0.3028315305709839, 0.2155982255935669, 0.1257120966911316, 0.1256818026304245, -0.1719750165939331, 0.1859876960515976, -0.0903005376458168, -0.11368412524461746, -0.22525626420974731, -0.07965219020843506, -0.1786007583141327, 0.1578606367111206, -0.02534923329949379, -0.09535159170627594, -0.10600664466619492, -0.16186608374118805, 0.14066748321056366, 0.28834059834480286, 0.12601631879806519, -0.16644220054149628, -0.04366888850927353, 0.08540159463882446, 0.22230058908462524, -0.0885191336274147, -0.03129655867815018, -0.03435041755437851, -0.16064044833183289, -0.1516934335231781, -0.23085269331932068, 0.19802433252334595, 0.026205163449048996, -0.11755301803350449, -0.3010956048965454, 0.1864793300628662, -0.04419277235865593, -0.1698860377073288, -0.01293380931019783, -0.012833349406719208, 0.024782240390777588, -0.23610322177410126], [-0.08744809031486511, 0.1437913030385971, 0.09609457850456238, -0.1710250824689865, -0.05500929430127144, 0.022805258631706238, 0.1698947548866272, -0.1020476371049881, 0.12319672852754593, 0.03516047075390816, 0.19840805232524872, -0.03466784954071045, 0.1524379402399063, -0.1723065972328186, -0.15838295221328735, -0.22884501516819, 0.2902339994907379, 0.04387212544679642, -0.1813560128211975, -0.04729148745536804, -0.04217257350683212, -0.02058064192533493, 0.13417506217956543, -0.06992264837026596, 0.3150748014450073, 0.05350573733448982, -0.12898045778274536, 0.1773344725370407, 0.17425145208835602, 0.0025523961521685123, 0.21276989579200745, 0.028457142412662506, -0.0020076604560017586, -0.008418839424848557, 0.16344158351421356, 0.10454291105270386, -0.5291316509246826, -0.01804211735725403, 0.10846956819295883, 0.012886526063084602]]}, "input_size": 120}