{"conv1d": {"bias:0": [0.004904875531792641, 0.0007793490076437593, 0.001611317740753293, 0.004880662076175213, -0.0007259836420416832, -0.004286194685846567, 0.0006317039369605482, -0.0007891991990618408, 0.004260815680027008, 0.010508919134736061, 0.0015432877698913217, 0.002038792707026005, -0.0033934549428522587, -0.0007992663886398077, 0.004564743489027023, -0.0038944643456488848], "kernel:0": [[[-0.3869929313659668, 1.518921971321106, -0.20663565397262573, 0.36166268587112427, -0.3569239675998688, 0.42137613892555237, -0.2520214021205902, -0.6961468458175659, -0.2387014478445053, -0.28516003489494324, -0.09769509732723236, -0.7935662269592285, -1.6823066473007202, -0.18338701128959656, -0.6312291622161865, 0.2907879948616028]], [[-0.5352315306663513, 1.8603975772857666, -0.6812352538108826, -0.01613154262304306, -0.637506902217865, 0.577872633934021, -0.34174951910972595, -0.5473985075950623, -0.5239796042442322, -0.5911487340927124, -0.11185514181852341, -1.6165510416030884, -1.580566167831421, -0.6779534816741943, -1.6312885284423828, 0.4684602618217468]], [[-0.8619617223739624, 2.198352098464966, -0.9797415733337402, -0.0091729536652565, -0.7514721155166626, 0.595233142375946, -0.6760441660881042, -0.3149387240409851, -0.5468636155128479, -0.9441415071487427, -0.15613259375095367, -2.1904869079589844, -1.161962628364563, -0.8325685262680054, -1.8179866075515747, 0.6590010523796082]], [[-0.8619218468666077, 1.8347944021224976, -1.0049629211425781, -0.1716555953025818, -0.6385986804962158, 0.6834060549736023, -0.6744514107704163, 0.011539703235030174, -0.5390055179595947, -1.1741949319839478, -0.3826397955417633, -2.2018041610717773, -0.7676100134849548, -0.9014325141906738, -1.7423747777938843, 0.6419971585273743]], [[-0.502433717250824, 4.207923889160156, -1.3822736740112305, -0.4818498492240906, -0.6423034071922302, 0.6326133012771606, -0.41613543033599854, -0.7201973795890808, -0.4145788252353668, -2.5463004112243652, -0.8090571165084839, -4.102465629577637, 0.4202990233898163, -1.8089954853057861, -3.228745937347412, 0.7205738425254822]], [[-0.4062385559082031, 1.403340458869934, -0.7431095838546753, -0.859455406665802, -0.402719110250473, 0.5172690153121948, -0.254639208316803, 0.3863663673400879, -0.4641709327697754, -1.6129158735275269, -0.7211934328079224, -1.766395926475525, 0.8771219253540039, -0.8104214668273926, -1.1540087461471558, 0.5214670300483704]], [[-0.20169468224048615, -1.1688936948776245, -0.2152445763349533, -0.8615478277206421, -0.31647518277168274, 0.2401854246854782, -0.1549787074327469, 1.3561939001083374, -0.4367610514163971, -1.0508649349212646, -0.6631601452827454, 0.1404007375240326, 1.4944956302642822, -0.06882719695568085, 0.19020211696624756, 0.37417975068092346]], [[-0.15164390206336975, -2.662426471710205, 0.14672398567199707, -0.9542511701583862, 0.0612107589840889, 0.16281281411647797, -0.2001219391822815, 1.562124490737915, -0.07071549445390701, -0.2878621816635132, -0.5409138798713684, 1.590430498123169, 1.8186075687408447, 0.606535792350769, 1.0480973720550537, 0.00017024856060743332]], [[-0.7571446299552917, -1.6694812774658203, -0.2720871865749359, -1.2197059392929077, -0.5079470276832581, 0.41842371225357056, -0.9183073043823242, 1.9183555841445923, -0.5015486478805542, -1.1610106229782104, -0.8395824432373047, 0.3642502725124359, 1.4165065288543701, 0.009222496300935745, 0.03565705195069313, 0.3960362672805786]], [[-0.9162283539772034, -1.7885973453521729, -0.380251944065094, -1.0789202451705933, -0.33020493388175964, 0.16130246222019196, -0.5998300313949585, 1.4799926280975342, -0.2643464505672455, -1.2029019594192505, -0.7765060067176819, 0.2587292194366455, 1.5051658153533936, 0.19991648197174072, 0.01275545358657837, 0.5066733360290527]], [[-0.413843035697937, -1.2830770015716553, 0.006365207955241203, -0.5448481440544128, -0.12084508687257767, 0.0825270414352417, -0.42516279220581055, 0.9327704906463623, -0.28278684616088867, -0.46684008836746216, -0.4616874158382416, 0.5025895833969116, 1.3761193752288818, 0.341474711894989, 0.1789185106754303, 0.11625247448682785]], [[-0.09422025829553604, -1.298632264137268, 0.2071032077074051, -0.2085394561290741, 0.25222450494766235, 0.062491524964571, 0.03861784562468529, 0.44587457180023193, 0.1738920509815216, -0.23579850792884827, -0.06228725239634514, 0.6741945743560791, 1.0214084386825562, 0.4384428560733795, 0.32814428210258484, -0.10734160244464874]]]}, "conv1d_1": {"bias:0": [0.02326119691133499, 0.03250455483794212, -0.0008025758434087038, 0.11339104175567627, 0.1077849268913269, 0.041729677468538284, -0.008147030137479305, 0.013027455657720566, -0.12379776686429977, -0.057461488991975784, 0.06023159250617027, 0.06860973685979843, -0.016430944204330444, 0.01971346139907837, -0.03957465663552284, -0.1131988912820816], "kernel:0": [[[-0.0667620599269867, 0.0850292444229126, 0.02884778380393982, -0.10158303380012512, 0.06359955668449402, 0.07813102006912231, 0.03977102041244507, 0.05460631847381592, 0.06909409165382385, 0.022303104400634766, -0.07513675093650818, -0.09936115145683289, -0.07327312231063843, -0.11300656199455261, 0.10493382811546326, -0.008382260799407959], [-0.05589529871940613, -0.09724047780036926, -0.048563152551651, 0.03705921769142151, -0.11732545495033264, -0.07982951402664185, -0.08994808793067932, -0.03616628050804138, -0.06715118885040283, -0.10873150825500488, -0.05567851662635803, 0.08024874329566956, -0.09758931398391724, 0.030517488718032837, -0.03273433446884155, -0.0787903368473053], [0.016941756010055542, -0.026801973581314087, 0.09463503956794739, -0.07881206274032593, -0.11141446232795715, -0.10775640606880188, 0.10781610012054443, -0.06978285312652588, -0.06711390614509583, -0.043002963066101074, -0.08134990930557251, 0.09651041030883789, 0.003147900104522705, -0.12400892376899719, 0.11848610639572144, 0.007832467555999756], [-0.11455073952674866, -0.08720970153808594, 0.08077898621559143, -0.009083807468414307, 0.012049078941345215, -0.12205365300178528, -0.030308425426483154, -0.12373018264770508, 0.10793274641036987, 0.021678566932678223, 0.07641133666038513, 0.002292245626449585, 0.11514651775360107, -0.024809420108795166, 0.027036845684051514, -0.004941493272781372], [0.11053189635276794, -0.1008317768573761, 0.04513955116271973, 0.11626553535461426, -0.0335993766784668, 0.01944410800933838, -0.09222710132598877, 0.04920834302902222, 0.021947264671325684, -0.11895722150802612, 0.03725385665893555, -0.018288373947143555, -0.07286104559898376, 0.11349663138389587, -0.0034612715244293213, 0.09403890371322632], [0.06043490767478943, -0.0962340235710144, -0.11094909906387329, 0.027854591608047485, -0.08815872669219971, -0.10018056631088257, 0.08601266145706177, 0.09808972477912903, 0.12343326210975647, -0.0006501972675323486, 0.05614817142486572, -0.100670725107193, 0.06450989842414856, -0.10591530799865723, 0.04012250900268555, -0.09644612669944763], [0.10100662708282471, 0.017498373985290527, 0.10404932498931885, 0.11181673407554626, -0.03260183334350586, 0.06781706213951111, 0.022152572870254517, 0.01317983865737915, -0.1121319830417633, 0.006064057350158691, 0.06862837076187134, 0.07510241866111755, -0.006503939628601074, -0.03982052206993103, -0.052539974451065063, -0.12360751628875732], [-0.06589359045028687, 0.013499438762664795, 0.059351831674575806, 0.09684741497039795, 0.09691417217254639, 0.11338761448860168, 0.09244108200073242, 0.10253384709358215, -0.09084179997444153, -0.04600811004638672, -0.09856337308883667, -0.06843358278274536, 0.08014440536499023, 0.05907747149467468, -0.07879409193992615, -0.0496181845664978], [0.10829198360443115, -0.04397773742675781, -0.05883452296257019, 0.11502164602279663, -0.08244442939758301, -0.013502448797225952, 0.10070902109146118, -0.11219757795333862, 0.12308445572853088, -0.055592238903045654, -0.06454697251319885, -0.051224976778030396, -0.006227225065231323, -0.06874555349349976, -0.11745044589042664, 0.020436465740203857], [0.04121556878089905, -0.04412397742271423, -0.07618525624275208, 0.004005372524261475, -0.05823558568954468, 0.05622720718383789, -0.059479594230651855, -0.08547729253768921, 0.08490628004074097, 0.023050427436828613, -0.04065629839897156, 0.021134942770004272, -0.04188179969787598, 0.008281320333480835, 0.06659135222434998, 0.0912085473537445], [0.08557763695716858, -0.061704009771347046, 0.11102026700973511, -0.06769359111785889, -0.06472209095954895, -0.016108065843582153, -0.07315295934677124, -0.04499724507331848, 0.06431713700294495, -0.05763864517211914, -0.0445881187915802, 0.040662169456481934, -0.11436629295349121, -0.07707548141479492, -0.03369322419166565, -0.026124536991119385], [0.022716403007507324, -0.02749735116958618, -0.09764108061790466, 0.10162949562072754, -0.0048500001430511475, 0.06921079754829407, 0.1246066689491272, 0.09185129404067993, -0.00778844952583313, 0.0660114586353302, -0.08234736323356628, -0.0032637715339660645, 0.06194937229156494, -0.023206710815429688, -0.020833909511566162, 0.027443677186965942], [0.11069411039352417, -0.022187381982803345, 0.023699641227722168, -0.09757602214813232, 0.10046502947807312, 0.11613267660140991, -0.04895240068435669, -0.10734060406684875, -0.08503809571266174, -0.013868451118469238, 0.03375118970870972, -0.05896031856536865, -0.09426373243331909, 0.0864628255367279, 0.012327611446380615, 0.09771466255187988], [0.0706549882888794, -0.07837238907814026, -0.040366530418395996, 0.07766276597976685, -0.09605884552001953, 0.06435972452163696, 0.06865194439888, 0.0019033551216125488, 0.08979952335357666, -0.054444968700408936, 0.09421250224113464, -0.060485661029815674, -0.039776504039764404, 0.07703444361686707, 0.12445783615112305, -0.00850069522857666], [-0.011177152395248413, -0.0222741961479187, -0.06556335091590881, 0.10626545548439026, -0.11892420053482056, -0.1121794581413269, -0.021637052297592163, 0.07409781217575073, 0.11170879006385803, -0.01891106367111206, -0.042555391788482666, -0.11732330918312073, 0.007265061140060425, -0.0789269208908081, 0.0297870934009552, -0.005204588174819946], [0.0549444854259491, 0.012792438268661499, -0.01976907253265381, 0.026309937238693237, -0.1150425374507904, 0.06508216261863708, -0.018587857484817505, -0.06269314885139465, -0.11002779006958008, -0.11300355195999146, 0.11602872610092163, -0.007622331380844116, -0.0877208411693573, 0.025011062622070312, 0.11018490791320801, 0.10880529880523682]], [[-0.13864971697330475, -0.5174450874328613, 0.5452383756637573, -0.04065856710076332, -0.16041089594364166, 0.6211625933647156, 0.17940866947174072, -0.19554787874221802, 0.2357650101184845, -0.06701327115297318, 0.3411698639392853, 0.14748819172382355, -0.11729224771261215, -0.11247207224369049, -0.277307391166687, 0.13076139986515045], [-4.259984493255615, 1.6561530828475952, -4.5622782707214355, 1.2008728981018066, 1.731187343597412, 1.0905545949935913, 2.8139426708221436, 0.1175316870212555, -2.527376651763916, -0.8386185169219971, -0.35177886486053467, -2.2764132022857666, -2.5827791690826416, -0.14361855387687683, 2.1457722187042236, 0.04682086408138275], [0.6444838643074036, -0.49178287386894226, 0.9402380585670471, -0.36757397651672363, -0.22713272273540497, 0.0369841530919075, -0.5197187662124634, -0.0020695170387625694, 0.16430068016052246, 0.1678135097026825, 0.15579597651958466, 0.6598782539367676, 0.4732540547847748, -0.07042134553194046, -0.17217135429382324, 0.0023494299966841936], [-0.04124942421913147, -0.2786122262477875, 0.043310463428497314, -0.4790531098842621, -0.01838533952832222, 0.5803749561309814, 0.041925545781850815, -0.05460290610790253, -0.21063332259655, 0.18765872716903687, 0.2647388279438019, 0.3623092770576477, 0.04930628836154938, -0.2701738178730011, 0.013044298626482487, -0.13558080792427063], [0.14227323234081268, -0.4067719876766205, 0.6604582071304321, -0.23894070088863373, -0.2005416601896286, 0.4701143503189087, -0.1654452532529831, 0.03206035867333412, 0.13085629045963287, -0.022626683115959167, 0.2554461658000946, 0.12244021147489548, -0.00876591820269823, -0.05209971219301224, -0.18363414704799652, -0.0022485023364424706], [-0.27863532304763794, 0.3569052219390869, -0.4553891718387604, 0.30696576833724976, 0.04239077866077423, -0.32323500514030457, 0.2429797500371933, 0.02759735658764839, 0.021593544632196426, -0.12639610469341278, -0.3123001456260681, -0.13968460261821747, -0.04800876975059509, 0.24508921802043915, 0.07733967900276184, 0.0524512454867363], [-0.1409180611371994, -0.4657502770423889, 0.23751144111156464, -0.08769240230321884, 0.05126649886369705, 0.497610479593277, 0.11810135841369629, -0.027949301525950432, -0.051095664501190186, -0.08888742327690125, 0.3612061142921448, 0.1258125752210617, -0.017374146729707718, -0.2968285381793976, -0.21694764494895935, -0.059102192521095276], [0.6903504729270935, -0.06620843708515167, 0.7641736268997192, 0.1557636708021164, -0.31806302070617676, -0.5767761468887329, -0.552089273929596, -0.2604382634162903, 0.3154592514038086, 0.044300686568021774, 0.038955479860305786, 0.30794936418533325, 0.49680906534194946, 0.3780277669429779, -0.49677351117134094, 0.07391151785850525], [0.048084646463394165, -0.4225830137729645, 0.7828046679496765, -0.2701033353805542, -0.18843300640583038, 0.5581455230712891, -0.029401492327451706, 0.10837666690349579, 0.17266859114170074, -0.1762000024318695, 0.3726688623428345, 0.2385542243719101, -0.12274876236915588, -0.008276748470962048, -0.09949354827404022, 0.09420132637023926], [0.7259479761123657, -0.7074305415153503, 0.9590168595314026, -0.5993606448173523, -0.2312421202659607, 0.3134380280971527, -0.5252667665481567, -0.16740837693214417, 0.23783211410045624, 0.35577666759490967, 0.2440120428800583, 0.6342045664787292, 0.39126482605934143, -0.2979983985424042, -0.2712124288082123, 0.03835897147655487], [0.17457446455955505, -0.2752242684364319, 0.3978312909603119, -0.3932550847530365, -0.06708218157291412, 0.32174360752105713, -0.17060670256614685, 0.11593600362539291, 0.011549650691449642, 0.1782432496547699, 0.06515353918075562, 0.5969125628471375, 0.1451302170753479, -0.4897077679634094, -0.09795182198286057, -0.1079217717051506], [3.2742056846618652, -1.5058475732803345, 3.398350477218628, -1.0087509155273438, -1.2393183708190918, -0.6161599159240723, -2.050536870956421, 0.09114289283752441, 1.8587895631790161, 0.7756842970848083, 0.1440911889076233, 1.941015362739563, 1.882379412651062, 0.07485028356313705, -1.5588794946670532, 0.06917115300893784], [-0.03385860472917557, 0.1273949146270752, 0.2903864085674286, 0.40175768733024597, -0.401425838470459, -0.28449979424476624, 0.14006176590919495, 0.1160019189119339, 0.09652822464704514, -0.17459316551685333, 0.11631160229444504, -0.49577590823173523, -0.19055701792240143, 0.47807928919792175, -0.1914495825767517, 0.2389429360628128], [1.6870956420898438, -0.5480430126190186, 2.084418773651123, -0.587232232093811, -0.6257823705673218, -0.3015424907207489, -1.153900146484375, 0.3033779561519623, 0.8033083081245422, 0.35089436173439026, 0.3959465026855469, 0.745414674282074, 0.7949864864349365, -0.013536510057747364, -0.5468742847442627, -0.009710537269711494], [2.0918970108032227, -0.9975774884223938, 2.3757622241973877, -0.6851377487182617, -0.8974811434745789, -0.18319572508335114, -1.4336615800857544, -0.14391140639781952, 1.1700003147125244, 0.6266083121299744, 0.14645449817180634, 1.5096864700317383, 1.2941147089004517, -0.14097960293293, -1.0421199798583984, -0.13897451758384705], [-0.27291399240493774, 0.27924826741218567, -0.6966029405593872, 0.24114160239696503, 0.12096771597862244, -0.2523654103279114, 0.07422789186239243, 0.10884705185890198, -0.03136444091796875, -0.1758049875497818, -0.18631678819656372, -0.3387451469898224, -0.1966409832239151, 0.08782188594341278, 0.038937248289585114, -0.06433732062578201]], [[-0.10305753350257874, 0.018156256526708603, -0.21920984983444214, -0.05729765444993973, -0.030737079679965973, 0.06056974455714226, -0.04594283923506737, -0.43982768058776855, 0.22347861528396606, -0.09126956015825272, -0.029467448592185974, 0.35710567235946655, 0.16989348828792572, -0.2540076971054077, -0.27909502387046814, 0.02031787298619747], [0.7706214785575867, 1.0247182846069336, 0.5136136412620544, 0.22110460698604584, 0.2395654022693634, -0.37143072485923767, 0.22775554656982422, 0.7278998494148254, -1.4786674976348877, -0.0008640089072287083, -0.04428044706583023, -0.7881578207015991, -0.11432839184999466, 0.65177321434021, 0.6598066687583923, 0.712581217288971], [-0.23766933381557465, -0.34290996193885803, -0.020102515816688538, -0.03905279561877251, -0.12036288529634476, 0.13193556666374207, -0.08132980018854141, -0.3278201222419739, 0.5199671387672424, 0.07640682905912399, 0.08834253251552582, 0.4743126630783081, 0.21088002622127533, -0.28060075640678406, -0.26205408573150635, -0.15833747386932373], [0.20679861307144165, 0.06086790934205055, -0.11446218937635422, -0.3142092227935791, 0.18771229684352875, 0.15989403426647186, -0.048054445534944534, -0.268282413482666, 0.22921089828014374, 0.20169369876384735, -0.14672324061393738, 0.400124728679657, 0.5149399638175964, -0.2909378111362457, -0.23493415117263794, -0.031842250376939774], [-0.0068061016499996185, -0.26765376329421997, -0.21723151206970215, -0.2044181525707245, 0.04717407375574112, 0.24795818328857422, -0.16720469295978546, -0.29444921016693115, 0.2943536043167114, 0.03161465376615524, -0.04985560104250908, 0.3121483027935028, 0.17391741275787354, -0.29711267352104187, -0.31511190533638, -0.267924040555954], [-0.013292841613292694, 0.2053465098142624, 0.03206120431423187, 0.11841709911823273, 0.04207411780953407, -0.16008277237415314, 0.05758531391620636, 0.4666108787059784, -0.2939801514148712, 0.049911655485630035, 0.020524829626083374, -0.37425994873046875, -0.15712393820285797, 0.27497509121894836, 0.21770691871643066, 0.05291745439171791], [0.09996477514505386, -0.11525245010852814, -0.14182467758655548, -0.0398377925157547, 0.10134398937225342, 0.016501523554325104, -0.19418388605117798, -0.4818069040775299, 0.40984079241752625, -0.07904375344514847, -0.12880650162696838, 0.2747904360294342, 0.1352521777153015, -0.18556056916713715, -0.26378121972084045, -0.19498556852340698], [-0.10730990022420883, -0.17571333050727844, -0.0511745885014534, -0.02750842459499836, -0.06893420219421387, -0.03481638804078102, -0.08059820532798767, 0.22093574702739716, 0.010579179972410202, -0.04128711670637131, 0.02568386122584343, -0.1906602680683136, -0.29815909266471863, -0.02884773537516594, 0.2604951858520508, -0.05413855239748955], [-0.23061516880989075, -0.04909253492951393, -0.021791625767946243, -0.1468077003955841, 0.036909349262714386, 0.07514335960149765, -0.16071128845214844, -0.4177002012729645, 0.2558286488056183, 0.08120081573724747, -0.0038182539865374565, 0.28152427077293396, 0.2921842932701111, -0.22135336697101593, -0.21326188743114471, -0.09130556881427765], [-0.2240377515554428, -0.12551340460777283, -0.11734196543693542, -0.14617083966732025, -0.06681042909622192, 0.22011218965053558, 0.036134302616119385, -0.49164143204689026, 0.273209810256958, -0.13562531769275665, -0.12158023566007614, 0.3839188814163208, 0.15352720022201538, -0.3412822484970093, -0.4148142635822296, -0.08885892480611801], [0.016885023564100266, -0.09981569647789001, -0.16852112114429474, -0.10510477423667908, 0.1184830367565155, 0.05917288735508919, -0.14158199727535248, -0.36748090386390686, 0.3468874990940094, 0.020725153386592865, 0.01021687313914299, 0.2660657465457916, 0.2917432487010956, -0.17938347160816193, -0.3776918947696686, -0.16035524010658264], [-0.4094656705856323, -0.5069423913955688, -0.16826754808425903, -0.2659769654273987, -0.2913062572479248, 0.18822772800922394, -0.09807009249925613, -0.7096917629241943, 0.7039937973022461, 0.05826481059193611, -0.06304291635751724, 0.6081364750862122, 0.24885714054107666, -0.3631400465965271, -0.5421376824378967, -0.4046332538127899], [-0.2783564627170563, -0.34517931938171387, -0.3748905658721924, 0.15941102802753448, -0.08977910876274109, -0.12544934451580048, -0.18302218616008759, -0.042795874178409576, 0.2717953026294708, 0.06751348078250885, 0.028499430045485497, -0.24020104110240936, -0.3598506450653076, -0.1787080615758896, 0.1651603877544403, -0.4893859028816223], [-0.41869574785232544, -0.5474953651428223, -0.08437033742666245, -0.16102614998817444, -0.25495490431785583, 0.2732638120651245, 0.03385214880108833, -0.5875934958457947, 0.5761449933052063, -0.17130766808986664, 0.21234619617462158, 0.3570253252983093, 0.08648057281970978, -0.22437910735607147, -0.3883287012577057, -0.26866695284843445], [-0.10300756990909576, -0.2991328239440918, -0.13341890275478363, -0.15228527784347534, 0.0037940749898552895, 0.1538320928812027, -0.04508678987622261, -0.44725561141967773, 0.38339096307754517, -0.08252764493227005, -0.05710039287805557, 0.44573986530303955, 0.2159780114889145, -0.35257455706596375, -0.31715333461761475, -0.31947192549705505], [0.026409989222884178, 0.03168429061770439, 0.11384755373001099, 0.20024234056472778, -0.0005438146181404591, -0.16885024309158325, 0.039850350469350815, 0.36266979575157166, -0.3701804578304291, 0.09096655994653702, 0.07127192616462708, -0.45124131441116333, -0.31163766980171204, 0.16817493736743927, 0.3049497604370117, 0.16808928549289703]], [[0.44255203008651733, 0.5216782093048096, -0.7118732333183289, -0.05296123027801514, 0.1583082675933838, -0.47378525137901306, -0.12472411245107651, -0.4448939561843872, -0.4456051290035248, 0.18709443509578705, -0.030814163386821747, 0.1090000718832016, -0.07470499724149704, 0.21776777505874634, -0.27122801542282104, 0.281952440738678], [-0.5225273370742798, -1.5531117916107178, 0.9071344137191772, -0.14927537739276886, -0.6799856424331665, 0.271880179643631, 0.01891937106847763, 0.26547855138778687, 0.021237635985016823, 0.21715682744979858, 0.3373689651489258, 0.36447277665138245, 0.1693180501461029, -0.8427922129631042, 0.7217394113540649, -0.8095881938934326], [0.3725413382053375, 0.6942505836486816, -0.7178862690925598, 0.11207661032676697, 0.2683808207511902, -0.279006689786911, 0.1630357801914215, -0.39036840200424194, -0.5287543535232544, -0.1557568460702896, 0.058176591992378235, -0.10916167497634888, -0.05889870598912239, 0.3691013753414154, -0.4299188554286957, 0.5595203638076782], [0.20311105251312256, 0.40065422654151917, -0.43331772089004517, -0.20310285687446594, 0.12915553152561188, -0.29366788268089294, -0.10700717568397522, -0.2839958071708679, -0.45407718420028687, 0.0504164844751358, -0.06527164578437805, 0.18207556009292603, 0.014422543346881866, 0.13279233872890472, -0.39477506279945374, 0.46578750014305115], [0.3715045154094696, 0.6727668642997742, -0.7702508568763733, -0.029165582731366158, 0.22028401494026184, -0.28369778394699097, 0.10477516800165176, -0.32944175601005554, -0.340341180562973, -0.030692461878061295, -0.16110645234584808, 0.006573996040970087, -0.07862319052219391, 0.15105977654457092, -0.34813737869262695, 0.4899687170982361], [-0.28770211338996887, -0.6772984862327576, 0.5063307881355286, -0.0865492969751358, -0.2383931428194046, 0.303924024105072, -0.0969870463013649, 0.3101745545864105, 0.3690582811832428, -0.046155236661434174, 0.1968294233083725, -0.004552456550300121, 0.017565913498401642, -0.19450388848781586, 0.25380876660346985, -0.47644272446632385], [0.3337027132511139, 0.42631852626800537, -0.5567646026611328, -0.06402644515037537, 0.2821666896343231, -0.3036743700504303, 0.1262485831975937, -0.320349782705307, -0.4038415253162384, -0.053533390164375305, -0.20949967205524445, -0.04112677648663521, 0.10210234671831131, 0.23216217756271362, -0.2581537067890167, 0.4979684352874756], [-0.3363398611545563, -0.224147766828537, 0.19877788424491882, 0.18003959953784943, -0.025728337466716766, 0.19353808462619781, 0.0780218243598938, 0.18432876467704773, 0.4218945801258087, -0.2209785282611847, 0.10555175691843033, -0.1877978891134262, -0.18065647780895233, 0.16565141081809998, 0.3678947389125824, -0.39599376916885376], [0.24948331713676453, 0.7123597860336304, -0.5976176857948303, -0.09235066175460815, 0.277222216129303, -0.3609752655029297, 0.009711433202028275, -0.33444511890411377, -0.4369474947452545, 0.12151232361793518, -0.25023114681243896, 0.06120528653264046, -0.0453837551176548, 0.08609381318092346, -0.2122645527124405, 0.5115726590156555], [0.21341079473495483, 0.5214393138885498, -0.5517305731773376, -0.023109765723347664, 0.1511080414056778, -0.10824794322252274, 0.061043281108140945, -0.3425445854663849, -0.3366895914077759, 0.010126030072569847, -0.1705760359764099, -0.12140484154224396, -0.07309041172266006, 0.44800329208374023, -0.5611075758934021, 0.6082678437232971], [0.3326326906681061, 0.4744599759578705, -0.6300152540206909, -0.17800909280776978, 0.15399415791034698, -0.24308468401432037, -0.018184440210461617, -0.31949612498283386, -0.5898484587669373, 0.15624070167541504, -0.026570264250040054, -0.009824089705944061, -0.0666128471493721, 0.1677805483341217, -0.50262051820755, 0.3839914798736572], [0.38930460810661316, 0.9469854831695557, -0.6635802388191223, 0.1999797523021698, 0.41093164682388306, -0.050453923642635345, 0.06123289465904236, -0.37610140442848206, -0.12499133497476578, -0.17776846885681152, -0.08988817781209946, -0.19103747606277466, -0.26373291015625, 0.47523146867752075, -0.6578680276870728, 0.692613959312439], [-0.16638562083244324, 0.2881983518600464, 0.2713035047054291, 0.3864209055900574, 0.12435758858919144, -0.021682152524590492, 0.10454361140727997, 0.161028191447258, 0.4903806447982788, -0.1898280382156372, -0.0489104688167572, -0.47428998351097107, -0.3737303614616394, 0.35860955715179443, 0.30258914828300476, -0.16567228734493256], [0.37393492460250854, 0.8173105716705322, -0.6052410006523132, 0.08580800145864487, 0.4099947214126587, -0.28621384501457214, 0.14661720395088196, -0.26374056935310364, -0.17531730234622955, -0.19575351476669312, -0.18238326907157898, -0.1903361976146698, -0.18963274359703064, 0.27339911460876465, -0.41261354088783264, 0.5699903964996338], [0.3406084477901459, 0.71781986951828, -0.6380552649497986, 0.133871927857399, 0.3153700828552246, -0.19027727842330933, 0.15485627949237823, -0.46722280979156494, -0.3789108693599701, -0.1436767876148224, -0.17309072613716125, -0.16676823794841766, -0.09121258556842804, 0.37345167994499207, -0.6541464328765869, 0.6710783839225769], [-0.3335699439048767, -0.5957905054092407, 0.6529077291488647, 0.05159378424286842, -0.20990481972694397, 0.2184460312128067, 0.025335989892482758, 0.3857826292514801, 0.3310907483100891, 0.032569997012615204, 0.012266934849321842, 0.08740027993917465, 0.09072281420230865, -0.28056567907333374, 0.3154895603656769, -0.3873261511325836]], [[0.27069541811943054, -0.475056529045105, -0.11893444508314133, 0.2204948216676712, -0.42819923162460327, -0.5294729471206665, -3.8433587178587914e-05, -0.2421995997428894, -0.9232956171035767, 0.0966980904340744, -0.08935899287462234, -0.19617123901844025, 0.0540243498980999, 0.1112632304430008, 0.4889568090438843, -0.31474068760871887], [0.2789916396141052, 0.6565924882888794, -0.7498624920845032, -0.47384440898895264, 0.38395145535469055, 0.5622857213020325, -0.07723110914230347, -0.8243841528892517, 0.959601640701294, -0.16434720158576965, -0.3586152195930481, 1.0893099308013916, 0.0804152563214302, 0.3591585159301758, -1.3484059572219849, 0.56495600938797], [0.03643670678138733, -0.4966523349285126, -0.11033035814762115, 0.19963191449642181, -0.3531111776828766, -0.33152028918266296, 0.09595414996147156, 0.009929471649229527, -0.9342721104621887, 0.060577940195798874, 0.09230951964855194, -0.2897207736968994, -0.12163905799388885, -0.06932549178600311, 0.6156055331230164, -0.3252846598625183], [0.2734254002571106, -0.48193368315696716, -0.33814024925231934, 0.17830434441566467, -0.2714887261390686, -0.5102915167808533, -0.058475084602832794, -0.45582908391952515, -0.9136372804641724, 0.01569983921945095, -0.293311208486557, -0.012152263894677162, 0.18781474232673645, 0.03269670531153679, 0.3356564939022064, -0.45342880487442017], [-0.031029440462589264, -0.49439188838005066, -0.018759768456220627, 0.0508442148566246, -0.2288833111524582, -0.4863933026790619, 0.01947750709950924, -0.04896291345357895, -0.7874700427055359, 0.10769405961036682, -0.032260917127132416, -0.3095240890979767, 0.010481886565685272, -0.06789110600948334, 0.47702333331108093, -0.31027597188949585], [0.02661621943116188, 0.34176698327064514, -0.09538914263248444, -0.24811415374279022, 0.3166293501853943, 0.25954437255859375, 0.01854316145181656, 0.1509818732738495, 0.5621724724769592, 0.008020087145268917, 0.1004561260342598, 0.06829293072223663, -0.02398260310292244, 0.036344364285469055, -0.44098135828971863, 0.4024268686771393], [0.20645874738693237, -0.3018890619277954, -0.06999175250530243, 0.10008364915847778, -0.20127178728580475, -0.3399195075035095, -0.04306764528155327, -0.18286404013633728, -0.7798164486885071, 0.1256241351366043, 0.005578836891800165, -0.15152817964553833, -0.016682662069797516, -0.1193120926618576, 0.4616433084011078, -0.47491613030433655], [-0.4158710837364197, 0.32219043374061584, 0.42742717266082764, -0.2067943513393402, 0.34676313400268555, 0.44614100456237793, 0.18121197819709778, 0.7650831937789917, 1.1196318864822388, 0.06763999909162521, 0.17812025547027588, -0.18891704082489014, -0.2312307357788086, -0.05090838298201561, -0.14210183918476105, 0.47264552116394043], [0.06815465539693832, -0.32190948724746704, -0.2507205903530121, 0.19676294922828674, -0.3011077046394348, -0.3262781798839569, 0.02274436503648758, -0.10401389002799988, -0.7554940581321716, 0.1481022983789444, -0.11837926506996155, -0.17774386703968048, 0.06513076275587082, 0.03909799084067345, 0.4366539418697357, -0.5165801644325256], [0.17828334867954254, -0.4072083532810211, -0.23495814204216003, 0.14570403099060059, -0.549583375453949, -0.5100306868553162, 0.040107548236846924, -0.38748037815093994, -1.0441793203353882, 0.0929468423128128, 0.04169376567006111, -0.30992844700813293, 0.09417148679494858, 0.021500054746866226, 0.6375873684883118, -0.5865514278411865], [0.27921274304389954, -0.27948978543281555, -0.33691614866256714, 0.0841854065656662, -0.24601224064826965, -0.4993787407875061, -0.051194000989198685, -0.42878326773643494, -0.9406362175941467, 0.06246674433350563, -0.040951166301965714, -0.00019630277529358864, 0.08461501449346542, 0.035396721214056015, 0.5404886603355408, -0.38607755303382874], [0.013057461008429527, -0.7430513501167297, 0.08218605816364288, 0.38421234488487244, -0.5097339749336243, -0.43170392513275146, -0.06227545440196991, 0.12329460680484772, -1.1536508798599243, 0.05610949173569679, 0.21061037480831146, -0.553542971611023, -0.007435180246829987, 0.08434223383665085, 0.9383649826049805, -0.6688656210899353], [-0.5618352293968201, 0.10100559890270233, 0.8819363117218018, 0.15859411656856537, 0.16555139422416687, 0.3747258484363556, 0.2628273069858551, 1.326115369796753, 0.9219383001327515, -0.024856921285390854, 0.33002352714538574, -0.5961884260177612, -0.4805992841720581, -0.10025900602340698, 0.008455968461930752, 0.3457152545452118], [-0.07186179608106613, -0.39570653438568115, 0.0385461300611496, 0.4046095609664917, -0.3643534779548645, -0.2882401645183563, 0.026474596932530403, -0.049579963088035583, -0.7264522910118103, -0.08976104110479355, 0.12521079182624817, -0.5417042374610901, 0.019297905266284943, -0.11746431887149811, 0.6033949255943298, -0.39496925473213196], [0.02174452692270279, -0.5460560917854309, 0.03441745042800903, 0.24766556918621063, -0.3772772550582886, -0.34813961386680603, 0.05444636940956116, -0.1359219253063202, -0.7976837754249573, 0.12587930262088776, 0.12451380491256714, -0.6770033240318298, 0.0032905680127441883, 0.04925069957971573, 0.8528242707252502, -0.40957918763160706], [-0.014530575834214687, 0.4246027171611786, 0.06779192388057709, -0.278120756149292, 0.3548775017261505, 0.49612247943878174, -0.026011398062109947, 0.13317081332206726, 0.8770754337310791, -0.09179429709911346, -0.0011997641995549202, 0.18801379203796387, -0.1262252926826477, -0.029876021668314934, -0.6070986986160278, 0.32620927691459656]], [[0.16275425255298615, -0.16968165338039398, 0.2596457004547119, -0.606395959854126, 0.06635304540395737, 0.3824973404407501, 0.366827130317688, 0.942794144153595, 0.6582688689231873, -0.2815089821815491, -0.2490793913602829, -0.1422795206308365, 0.06386081874370575, -0.027478307485580444, 0.11625036597251892, 0.11303745955228806], [-0.008560151793062687, -0.2551283538341522, -0.3614216148853302, 0.31297561526298523, -0.13054606318473816, -0.20196710526943207, -0.2234523892402649, -0.8870423436164856, -0.9392222166061401, 0.22513993084430695, 0.075332872569561, 0.4422079920768738, 0.1421080380678177, -0.13180796802043915, -0.1050095409154892, 0.4885699152946472], [-0.06004121154546738, 0.048406925052404404, 0.24199528992176056, -0.42159268260002136, -0.04190714284777641, 0.33141031861305237, 0.2370581030845642, 0.6713806390762329, 0.46461746096611023, -0.14136193692684174, -0.18518289923667908, -0.08243715018033981, -0.13892607390880585, 0.15851183235645294, 0.03691558167338371, 0.059872426092624664], [0.05547625571489334, 0.0694693773984909, 0.3652980625629425, -0.7894169092178345, -0.05581552907824516, 0.21851465106010437, 0.2505461573600769, 1.1357377767562866, 0.6408136487007141, -0.17436175048351288, -0.29792219400405884, -0.04093627259135246, 0.18986502289772034, -0.0655592754483223, -0.033881887793540955, 0.07280710339546204], [-0.10426216572523117, -0.10257550328969955, 0.11982402950525284, -0.46185681223869324, 0.009929122403264046, 0.17518498003482819, 0.1321326047182083, 0.6966004371643066, 0.43621155619621277, -0.12821732461452484, -0.23991049826145172, -0.23384377360343933, -0.04620222747325897, 0.014729316346347332, 0.012642104178667068, -0.10481023043394089], [0.02771509625017643, -0.0517142154276371, -0.29687735438346863, 0.19030968844890594, 0.011116993613541126, -0.20867513120174408, -0.2142290472984314, -0.38934794068336487, -0.3355773389339447, 0.20711064338684082, 0.10946138948202133, 0.15095756947994232, 0.10298758000135422, -0.08652501553297043, -0.07780835777521133, 0.02310321480035782], [0.03736526519060135, -0.18315201997756958, 0.32763928174972534, -0.4234406054019928, -0.12566843628883362, 0.34284350275993347, 0.2221629023551941, 0.6622768640518188, 0.6047359108924866, -0.24541792273521423, -0.19400754570960999, -0.17942577600479126, 0.09877461940050125, -0.018065251410007477, 0.07468987256288528, -0.09321048110723495], [-0.15359722077846527, 0.21759769320487976, -0.35728684067726135, 0.8739193081855774, 0.01051073893904686, -0.3739214241504669, -0.12601064145565033, -1.0030426979064941, -0.4241074323654175, 0.06911656260490417, 0.39616504311561584, -0.12872685492038727, -0.32757440209388733, 0.23471258580684662, 0.10051365196704865, -0.07027573883533478], [-0.0030251778662204742, 0.06872393190860748, 0.3116026818752289, -0.5750568509101868, -0.10566569119691849, 0.26408886909484863, 0.20343685150146484, 0.6194414496421814, 0.44703608751296997, -0.10130637884140015, -0.13403624296188354, -0.14053493738174438, 0.1386009305715561, -0.024066349491477013, -0.09936397522687912, 0.04631752520799637], [-0.12644359469413757, -0.06785618513822556, 0.5331713557243347, -0.6681769490242004, -0.030997613444924355, 0.5476266145706177, 0.5028905868530273, 1.3246874809265137, 0.8390644788742065, -0.3440813422203064, -0.23615007102489471, -0.09602422267198563, 0.07852035760879517, 0.07969686388969421, 0.14544539153575897, 0.06945384293794632], [0.0075012510642409325, 0.09651349484920502, 0.41478341817855835, -0.687842845916748, 0.02847253903746605, 0.16495610773563385, 0.3069649934768677, 1.1629718542099, 0.7202280163764954, -0.18500089645385742, -0.25862449407577515, -0.1962379366159439, 0.14431539177894592, -0.15488532185554504, 0.016681453213095665, -0.0772436261177063], [-0.06721896678209305, 0.06029907986521721, 0.4067307710647583, -0.6076156497001648, 0.0907452255487442, 0.43404173851013184, 0.3328585922718048, 1.2364110946655273, 0.8142086863517761, -0.3678863048553467, -0.2276703417301178, -0.43812817335128784, 0.1252269297838211, -0.04247671738266945, 0.048536479473114014, -0.11190267652273178], [-0.2620335817337036, 0.17612643539905548, -0.3590453267097473, 1.1144696474075317, 0.04940732941031456, -0.3619864583015442, -0.2770899534225464, -1.4213414192199707, -0.43743064999580383, 0.11185397207736969, 0.44719621539115906, -0.03386828675866127, -0.2972155809402466, 0.319924920797348, -0.1270439177751541, -0.17095813155174255], [-0.060501907020807266, 0.04461994022130966, 0.2966630756855011, -0.3922043740749359, -0.0967119038105011, 0.22351039946079254, 0.3018716275691986, 0.5990356206893921, 0.5313642621040344, -0.2609536647796631, -0.1868271678686142, -0.3528524339199066, -0.08578239381313324, 0.2557273805141449, 0.06222629174590111, -0.051206935197114944], [0.0004079884383827448, -0.1371781975030899, 0.5799975991249084, -0.5000989437103271, 5.0753384130075574e-05, 0.5371511578559875, 0.4857880473136902, 0.923243522644043, 0.9284578561782837, -0.21468707919120789, -0.22838230431079865, -0.21455715596675873, 0.11562792956829071, 0.02625076286494732, -0.008711423724889755, -0.02812698669731617], [0.07853627949953079, 0.052169784903526306, -0.27879342436790466, 0.39907023310661316, -0.11019682884216309, -0.3275962173938751, -0.35160014033317566, -0.7338530421257019, -0.5969698429107666, 0.21448813378810883, 0.30388376116752625, 0.2681293487548828, -0.1222439631819725, 0.05402331054210663, -0.0331907793879509, -0.036816831678152084]], [[-0.2292172610759735, -0.054849397391080856, 0.18649929761886597, 0.45554274320602417, 0.16978788375854492, 0.2764051854610443, -0.03506965562701225, 0.10645268857479095, -0.26944372057914734, -0.046648234128952026, -0.15039904415607452, 0.12888509035110474, 0.061832502484321594, 0.13649621605873108, 0.2276695817708969, 0.3265264630317688], [-0.16826410591602325, 0.1032852753996849, 0.5494054555892944, 0.1781926304101944, 0.02930918149650097, 0.4941510558128357, -0.05898994952440262, 0.1784551739692688, -0.44173604249954224, -0.17331376671791077, -0.17221075296401978, 0.11529145389795303, 0.24516677856445312, 0.20280665159225464, -0.10761012881994247, 0.11652380973100662], [-0.08384577184915543, -0.009653858840465546, 0.09310325235128403, 0.27435100078582764, 0.11659781634807587, 0.22708366811275482, -0.03556371107697487, -0.0969722718000412, -0.049003951251506805, 0.07200407981872559, -0.022362805902957916, -0.10238511860370636, -0.0636889860033989, 0.03930079564452171, 0.09817773103713989, 0.19034579396247864], [-0.1638048142194748, 0.045735012739896774, 0.2726432681083679, 0.3297633230686188, 0.20397770404815674, 0.11974219977855682, 0.03948530554771423, 0.06232598423957825, -0.3903481960296631, 0.30580103397369385, -0.11331630498170853, 0.21137486398220062, 0.1997605413198471, -0.14234568178653717, 0.23888348042964935, 0.39779210090637207], [-0.26843419671058655, 0.037151988595724106, 0.21502739191055298, 0.25420787930488586, 0.08772855252027512, 0.12185393273830414, 0.14240436255931854, -0.03247992694377899, -0.04670741409063339, -0.06908032298088074, -0.020552676171064377, 0.026013944298028946, -0.08298535645008087, -0.06077110767364502, -0.020253874361515045, 0.2803463935852051], [0.23479604721069336, 0.1108725443482399, -0.2000412493944168, -0.15248924493789673, 0.00564339617267251, -0.19939781725406647, -0.20023171603679657, -0.07151500880718231, 0.07509398460388184, -0.06536704301834106, 0.15669730305671692, 0.039960894733667374, -0.02570507302880287, -0.12916919589042664, -0.07576016336679459, -0.15194688737392426], [-0.14834919571876526, -0.08390010893344879, 0.34643593430519104, 0.27291059494018555, 0.19849653542041779, 0.10870715975761414, 0.05012743920087814, -0.0052327620796859264, -0.3152178227901459, -0.06127962842583656, -0.21562610566616058, 0.021103372797369957, 0.12695924937725067, 0.1419857144355774, -0.003430179785937071, 0.2675477862358093], [0.025584647431969643, 0.1149168312549591, -0.6424079537391663, -0.49676093459129333, -0.3577878475189209, -0.23117683827877045, 0.1017754077911377, 0.0479850210249424, 0.4725348651409149, -0.15506163239479065, 0.2914416491985321, -0.16877439618110657, -0.25718745589256287, 0.10743166506290436, -0.14797453582286835, -0.4276312291622162], [-0.13976842164993286, 0.005146684590727091, 0.06943413615226746, 0.21087542176246643, 0.02253866195678711, 0.20056572556495667, 0.039295345544815063, 0.013562302105128765, -0.2319895476102829, -0.03485562652349472, -0.05936621129512787, -0.0629671961069107, 0.021967925131320953, 0.05910429731011391, 0.17297764122486115, 0.2957428991794586], [-0.1176786869764328, -0.07609793543815613, 0.22685189545154572, 0.4278675317764282, 0.09739559143781662, 0.16807173192501068, 0.07409930229187012, -0.12371977418661118, -0.10395807027816772, 0.19261494278907776, -0.2289036363363266, 0.11430755257606506, 0.11147554963827133, -0.041662707924842834, 0.10605982691049576, 0.3175184726715088], [-0.2559693157672882, -0.020092085003852844, 0.2942558228969574, 0.33995822072029114, 0.13271097838878632, 0.14699874818325043, 0.07174404710531235, 0.1575430929660797, -0.15610668063163757, 0.08691750466823578, -0.1696675419807434, 0.06177225708961487, 0.07861369103193283, -0.06523561477661133, 0.23560623824596405, 0.35794320702552795], [-0.014882194809615612, -0.13760769367218018, 0.023407645523548126, 0.30281272530555725, 0.01665186509490013, -0.00919150747358799, -0.026325440034270287, -0.18604007363319397, -0.05543358996510506, 0.19319355487823486, 0.000913777039386332, 0.07227912545204163, 0.17219533026218414, -0.1685398370027542, 0.12535521388053894, 0.1418105959892273], [0.2613220512866974, 0.04715333133935928, -0.3998185992240906, -0.34869226813316345, -0.440826952457428, -0.3053818643093109, 0.1546359807252884, 0.08891535550355911, 0.6378995180130005, -0.4291321933269501, 0.3203074336051941, -0.3798445463180542, -0.5197209119796753, 0.025861971080303192, -0.27074572443962097, -0.3859955370426178], [-0.29475918412208557, -0.09329413622617722, -0.04637972265481949, 0.24078591167926788, -0.014984128065407276, 0.031240923330187798, 0.06424937397241592, -0.19765478372573853, 0.02499757707118988, -0.050172287970781326, 0.08105676621198654, -0.06480687856674194, -0.1447732001543045, 0.03659568727016449, 0.21916607022285461, 0.06056594476103783], [-0.06567569077014923, -0.12790779769420624, 0.30650267004966736, 0.3730058968067169, 0.08630936592817307, 0.152212992310524, 0.07412465661764145, -0.08469565957784653, 0.08133233338594437, 0.1317768394947052, 0.1301100105047226, -0.014349834993481636, 0.14774465560913086, -0.06956181675195694, 0.16934248805046082, 0.3658643066883087], [0.30038776993751526, -0.044495873153209686, -0.2568373680114746, -0.41478368639945984, 0.018196800723671913, -0.17782191932201385, 0.015029785223305225, -0.06679876893758774, 0.15407419204711914, -0.045780766755342484, 0.18066315352916718, -0.002222468378022313, -0.08878352493047714, -0.03625112399458885, -0.09563089907169342, -0.24943025410175323]], [[-0.006475083064287901, -0.337391197681427, 0.49021416902542114, 0.8050732612609863, -0.10071076452732086, 0.18573930859565735, -0.09324397891759872, 0.04508790001273155, -0.4372963607311249, -0.10540895164012909, -0.7605845928192139, 0.08755778521299362, -0.050503186881542206, 0.07747343927621841, -0.5441466569900513, 0.18942996859550476], [-0.007684960961341858, 0.06599602103233337, -0.10411028563976288, -0.36359483003616333, -0.738085925579071, 0.5093898177146912, 0.39083945751190186, -0.04110774025321007, -0.4563538134098053, 0.2131023108959198, -0.4879412055015564, -0.3994210660457611, -0.5260022878646851, 0.3865000009536743, -0.6944905519485474, -0.12829206883907318], [-0.10400491952896118, -0.09879925101995468, 0.42974624037742615, 0.44858455657958984, -0.15630610287189484, 0.3116733729839325, 0.14134953916072845, 0.03174978867173195, -0.21329808235168457, -0.14848610758781433, -0.25674623250961304, -0.07144221663475037, -0.14418019354343414, 0.1738961637020111, -0.1611391305923462, 0.2967751622200012], [-0.0064504011534154415, -0.08097103983163834, 0.4998137652873993, 0.6411213278770447, -0.12911206483840942, 0.24625714123249054, -0.13139329850673676, 0.16165846586227417, -0.5292669534683228, 0.1924072653055191, -1.0790150165557861, 0.22741827368736267, -0.12044073641300201, -0.030589476227760315, -0.5910352468490601, 0.11481314152479172], [-0.07445961982011795, -0.2355150282382965, 0.45266252756118774, 0.5769622325897217, -0.11987470090389252, 0.1448916494846344, -0.02029627375304699, -0.04512477293610573, -0.2580249607563019, -0.17222830653190613, -0.3673259913921356, -0.07229152321815491, -0.11344913393259048, 0.01904686912894249, -0.3441299796104431, 0.19076868891716003], [0.17075179517269135, 0.23337337374687195, -0.3514579236507416, -0.44600245356559753, 0.19504205882549286, -0.20345552265644073, -0.022596783936023712, 0.07152432948350906, 0.13770286738872528, 0.08782963454723358, 0.21547965705394745, -0.10547467321157455, 0.1618826538324356, -0.06516668945550919, 0.30794766545295715, -0.18037015199661255], [-0.11752080917358398, -0.2406885176897049, 0.44275718927383423, 0.6874719262123108, -0.22035281360149384, 0.25498834252357483, -0.05060378834605217, 0.026113761588931084, -0.39129748940467834, -0.1327366679906845, -0.58104407787323, -0.010394174605607986, -0.1479986310005188, 0.033005241304636, -0.502559244632721, 0.27699097990989685], [0.21011127531528473, 0.13069182634353638, -0.3204558789730072, -0.574008047580719, 0.03795694187283516, -0.25264862179756165, -0.17270171642303467, -0.2416481226682663, 0.8717406392097473, -0.17633461952209473, 0.9535999894142151, -0.019456300884485245, 0.15215319395065308, -0.04525964707136154, 0.42089733481407166, 0.03181463107466698], [0.03289136663079262, -0.1520126461982727, 0.38308003544807434, 0.5601871609687805, -0.14861051738262177, 0.3273025155067444, 0.040340032428503036, 0.09686745703220367, -0.3310285806655884, -0.019463207572698593, -0.6493558883666992, -0.005983107723295689, -0.030912332236766815, -0.00789525918662548, -0.2738649845123291, 0.20282776653766632], [-0.06384768337011337, -0.3966522216796875, 0.6360384821891785, 0.7031894326210022, -0.054005082696676254, 0.5075481534004211, 0.004720980301499367, -0.1644347459077835, -0.4558488726615906, 0.07009750604629517, -0.7382479310035706, 0.18046194314956665, -0.21191297471523285, -0.02598341926932335, -0.5411512851715088, 0.2266884446144104], [-0.010285773314535618, -0.018847990781068802, 0.5010241270065308, 0.5792792439460754, -0.008116892538964748, 0.39352184534072876, -0.10926120728254318, 0.07240408658981323, -0.5817613005638123, 0.10701078176498413, -0.8093459010124207, 0.058251697570085526, -0.11474806070327759, 0.005196575075387955, -0.5170257091522217, 0.12839913368225098], [-0.368908554315567, -0.014804493635892868, 0.3434089720249176, 0.39171794056892395, 0.08978165686130524, 0.3265649080276489, 0.130179300904274, -0.12310853600502014, -0.2882833778858185, -0.15482155978679657, -0.12192285805940628, -0.03808806091547012, 0.16494843363761902, -0.10015373677015305, 0.06596536189317703, 0.2657929062843323], [0.012116281315684319, 0.04706605523824692, -0.16450896859169006, -0.34941336512565613, 0.4982309341430664, -0.36383676528930664, -0.2006930708885193, -0.015382200479507446, 0.9451355934143066, -0.15190909802913666, 1.2756236791610718, -0.014442745596170425, 0.36285465955734253, 0.053154848515987396, 0.8242079019546509, 0.06246712803840637], [-0.2865143120288849, -0.06907428801059723, 0.18426457047462463, 0.31589677929878235, 0.13670766353607178, 0.3046071529388428, 0.06235657259821892, -0.017942849546670914, -0.0015152852283790708, -0.1779131293296814, 0.03197212889790535, -0.0688566341996193, 0.06710724532604218, 0.012134525924921036, 0.020396534353494644, 0.25717657804489136], [-0.1614772379398346, -0.16528426110744476, 0.44362083077430725, 0.7296518683433533, 0.17820174992084503, 0.303062379360199, 0.05184910446405411, 0.07768148928880692, -0.23142409324645996, -0.17858794331550598, -0.2662510871887207, 0.10076852887868881, -0.001052069361321628, 0.1152232438325882, -0.06184542551636696, 0.2519596219062805], [0.001186609035357833, 0.12945173680782318, -0.5349713563919067, -0.7107430100440979, 0.03327479586005211, -0.24646984040737152, -0.04911189526319504, -0.1710997372865677, 0.2858971357345581, 0.014578035101294518, 0.412075400352478, -0.009787369519472122, 0.0010600467212498188, -0.030373364686965942, 0.37138989567756653, -0.27981147170066833]], [[-0.4695137143135071, -0.3594527840614319, 0.7639511823654175, 0.32444193959236145, -0.8755739331245422, 0.47343146800994873, 0.5545794367790222, -0.8648961782455444, 0.2803145945072174, -0.7452215552330017, 0.9886294007301331, -0.6205717921257019, -0.33888208866119385, 0.6757655143737793, -0.7964627146720886, 0.4550988972187042], [-1.1185094118118286, 1.9008480310440063, 0.333763986825943, -3.154707193374634, -2.238935708999634, 0.9205272793769836, 0.7201755046844482, -1.5184754133224487, -0.25138595700263977, -0.875700831413269, 2.823431968688965, -0.277835875749588, 0.9057523012161255, 0.9753662943840027, 1.7682793140411377, 0.889939546585083], [-0.34873396158218384, -0.8727973699569702, 0.6242079138755798, 0.8776219487190247, -0.5362014770507812, 0.562491774559021, 0.5571178793907166, -0.4498922526836395, 0.2956521213054657, -0.5440438389778137, 0.4883866012096405, -0.7117051482200623, -0.6676363945007324, 0.669795036315918, -1.0773913860321045, 0.4786064326763153], [-0.7772195339202881, -0.37429362535476685, 0.9053252935409546, 0.039127107709646225, -1.3855695724487305, 0.830122709274292, 0.8030962944030762, -1.2426525354385376, 0.17447151243686676, -1.243570327758789, 2.242363214492798, -1.1649590730667114, -0.5473603010177612, 1.2907902002334595, -0.6588494777679443, 0.8709834218025208], [-0.1820337325334549, -0.6232314705848694, 0.6886171698570251, 0.8124077916145325, -0.5998491644859314, 0.39191916584968567, 0.2709082067012787, -0.6062746047973633, 0.2918766736984253, -0.5904174447059631, 0.6061279773712158, -0.671342134475708, -0.5000087022781372, 0.6183261871337891, -0.977419376373291, 0.5475253462791443], [0.1881437450647354, 0.5773571729660034, -0.42592981457710266, -0.7498249411582947, 0.49302324652671814, -0.5074062943458557, -0.3368692994117737, 0.40358874201774597, -0.18845149874687195, 0.4552222490310669, -0.4774974584579468, 0.5810755491256714, 0.459572434425354, -0.6106410622596741, 0.6883769631385803, -0.31765982508659363], [-0.4933221638202667, -0.43294769525527954, 0.8867645859718323, 0.33939290046691895, -0.6882883906364441, 0.5381364226341248, 0.6289238929748535, -0.8155077695846558, 0.16857591271400452, -0.7484433054924011, 1.1968724727630615, -0.5971704125404358, -0.44600003957748413, 0.8315725922584534, -0.6831942200660706, 0.5880759358406067], [0.4484512507915497, 0.05599440261721611, -0.9695399403572083, 0.5140849947929382, 1.5651264190673828, -0.77051842212677, -0.4804112911224365, 1.4956659078598022, -0.35748291015625, 1.039320468902588, -2.0710248947143555, 0.6721378564834595, -0.09069378674030304, -1.152517557144165, 0.4550175666809082, -0.7479099631309509], [-0.3225489556789398, -0.5444028973579407, 0.7516440749168396, 0.6182819604873657, -0.6034793257713318, 0.5761505961418152, 0.3036680519580841, -0.6631078124046326, 0.24810847640037537, -0.5485100746154785, 0.7057662606239319, -0.6586227416992188, -0.5011880993843079, 0.667625367641449, -0.7660405039787292, 0.5090950727462769], [-0.36344069242477417, -0.7473085522651672, 0.8701003193855286, 0.6047088503837585, -1.0847843885421753, 0.902370810508728, 0.44635817408561707, -1.234094262123108, 0.2030392289161682, -0.8903263211250305, 1.5053235292434692, -0.9076740145683289, -0.6902118921279907, 0.9527010917663574, -1.0466102361679077, 0.9351590275764465], [-0.4680253863334656, -0.6789323091506958, 0.9442476630210876, 0.42692962288856506, -1.1359204053878784, 0.8223916292190552, 0.7305465936660767, -0.9934589266777039, 0.20385323464870453, -0.8897653818130493, 1.4634296894073486, -0.9372715353965759, -0.6311908960342407, 1.085781455039978, -0.7644942998886108, 0.8811179995536804], [0.16191962361335754, -1.6850132942199707, 0.6130396723747253, 1.889623761177063, -0.011456958949565887, 0.24153707921504974, 0.11852528154850006, -0.3093467056751251, 0.18074603378772736, -0.45548155903816223, -0.29302701354026794, -0.45789650082588196, -0.7679827809333801, 0.57036292552948, -1.6252837181091309, 0.4452892243862152], [0.7415603995323181, -0.47207632660865784, -0.9129923582077026, 1.6707454919815063, 2.2548859119415283, -0.9191790819168091, -0.8981806039810181, 2.2416934967041016, -0.3744310140609741, 1.429459810256958, -4.198501110076904, 0.9851529002189636, -0.42671340703964233, -1.6583644151687622, -0.33874741196632385, -1.2171939611434937], [0.04013151675462723, -1.0371876955032349, 0.3089213967323303, 1.3876738548278809, -0.033962175250053406, 0.36585092544555664, 0.3699077367782593, -0.16500627994537354, 0.3262191712856293, -0.5072149634361267, -0.15876144170761108, -0.6162911653518677, -0.49156126379966736, 0.4700332581996918, -1.123907208442688, 0.3265365660190582], [-0.11609970778226852, -1.3762853145599365, 0.7926233410835266, 1.4762917757034302, -0.25302812457084656, 0.5250829458236694, 0.2582879066467285, -0.4646035432815552, 0.13403388857841492, -0.5806441307067871, -0.039540618658065796, -0.47172436118125916, -0.785624623298645, 0.5952900052070618, -1.3721339702606201, 0.4606490433216095], [0.22958819568157196, 0.7132822275161743, -0.4999462962150574, -0.5852382183074951, 0.6022604703903198, -0.578273355960846, -0.5080806016921997, 0.7021563053131104, -0.24994418025016785, 0.6012382507324219, -0.7319809794425964, 0.7139745354652405, 0.4331091344356537, -0.6320743560791016, 0.7804901003837585, -0.46250930428504944]], [[0.40238285064697266, 1.1652493476867676, -0.9921355843544006, -1.1989072561264038, 0.897163987159729, -0.8992722630500793, -0.4589119255542755, 0.5242976546287537, 0.583213210105896, 0.772642195224762, -0.08302028477191925, 0.21013350784778595, 0.7565426826477051, -0.9226988554000854, 1.129170536994934, -0.9932252764701843], [-0.3068159818649292, -1.9963520765304565, 0.9358514547348022, 1.8970603942871094, -1.185888409614563, 1.2359174489974976, 0.6686089038848877, -0.40083250403404236, -0.5854846835136414, -1.6551697254180908, 0.11739884316921234, -0.18617293238639832, -1.1036540269851685, 1.0976638793945312, -1.2008825540542603, 1.63681960105896], [0.5784139037132263, 1.1092647314071655, -0.9797618985176086, -1.034242033958435, 1.0278122425079346, -1.036622405052185, -0.4944153428077698, 0.636021077632904, 0.3705712556838989, 0.7669277191162109, -0.16764655709266663, 0.22935588657855988, 0.5970988869667053, -0.9661498665809631, 0.9221664667129517, -0.9820318222045898], [0.6799775958061218, -0.05195334553718567, -1.1142934560775757, -0.3398146629333496, 1.1329870223999023, -0.6426478028297424, -0.21760287880897522, 0.8845874667167664, 0.2626917362213135, -0.2619582712650299, 0.08101161569356918, 0.3598306477069855, 0.3979548513889313, -0.8106011748313904, 0.807407557964325, -0.4819929897785187], [0.31099653244018555, 1.109696388244629, -0.9892598390579224, -1.1337201595306396, 0.8879129886627197, -0.8877589106559753, -0.38023796677589417, 0.5120427012443542, 0.31872788071632385, 0.6203187704086304, -0.03934447467327118, 0.13856224715709686, 0.506298840045929, -0.7195404171943665, 1.0971843004226685, -0.9421030282974243], [-0.46567970514297485, -0.9084633588790894, 0.9144722819328308, 0.9706401228904724, -0.7791537642478943, 0.7403132915496826, 0.21161521971225739, -0.2688131332397461, -0.34455981850624084, -0.6319711208343506, -0.0481322780251503, -0.1648910641670227, -0.5577871799468994, 0.8087782263755798, -1.0058778524398804, 0.782089114189148], [0.6043777465820312, 1.091908574104309, -0.8912875056266785, -0.9863725900650024, 1.1015307903289795, -1.1290103197097778, -0.3312489688396454, 0.5235903859138489, 0.42317095398902893, 0.7996813058853149, -0.09699740260839462, 0.2011932134628296, 0.5712289214134216, -1.00140380859375, 0.978093147277832, -1.001247763633728], [-1.1616264581680298, 1.06903076171875, 1.4406652450561523, 0.2160322666168213, -1.5249780416488647, 1.0763823986053467, 0.21457476913928986, -1.0393168926239014, -1.2670150995254517, 1.0942564010620117, -1.1942594051361084, -0.5520760416984558, -0.4282999038696289, 1.0722465515136719, -0.9428211450576782, 0.181719571352005], [0.38557302951812744, 0.7824403047561646, -0.8391108512878418, -0.9962915778160095, 0.7832940816879272, -0.9641262292861938, -0.36018240451812744, 0.5436397194862366, 0.32459279894828796, 0.4712313115596771, -0.0034183503594249487, 0.22743622958660126, 0.5752403736114502, -0.8315833210945129, 0.8629227876663208, -0.886100709438324], [0.7199470400810242, 0.9512008428573608, -1.345851182937622, -1.0587074756622314, 1.1962777376174927, -1.058475375175476, -0.23742850124835968, 0.5961241722106934, 0.2585454285144806, 0.6651352643966675, -0.027777569368481636, 0.3701891005039215, 0.533453643321991, -1.068459391593933, 1.1670376062393188, -0.9980452656745911], [0.5110198259353638, 0.43008509278297424, -1.0941545963287354, -0.5736982226371765, 0.9412651062011719, -0.8844833374023438, -0.17095819115638733, 0.6013023853302002, 0.29451873898506165, 0.1201486885547638, 0.14981478452682495, 0.1936509609222412, 0.4142357110977173, -0.761456310749054, 1.0667662620544434, -0.6446518301963806], [0.545583963394165, 1.4275240898132324, -1.1082404851913452, -1.449436068534851, 1.2664421796798706, -1.1352577209472656, -0.6870008111000061, 0.578742265701294, 0.5619240999221802, 1.2600613832473755, -0.3773902952671051, 0.41281887888908386, 0.8673141598701477, -1.2485026121139526, 1.117379069328308, -1.2577745914459229], [-2.025190591812134, 4.56546688079834, 2.1562349796295166, -1.9757663011550903, -1.3393551111221313, -0.1514359414577484, -0.41057008504867554, -1.519523024559021, -0.2524320185184479, 4.114368915557861, -1.2731680870056152, -0.5826231837272644, 0.4871184229850769, 0.5892027020454407, -0.33483806252479553, -1.6485453844070435], [0.3532172739505768, 1.0036888122558594, -0.8345405459403992, -0.8439787030220032, 0.830052375793457, -0.7282182574272156, -0.41321861743927, 0.339790016412735, 0.19475798308849335, 0.7100304961204529, -0.2194695770740509, 0.30753400921821594, 0.6359475255012512, -0.8377557992935181, 0.836047351360321, -0.7645695209503174], [0.5564143657684326, 1.448630690574646, -1.1306788921356201, -1.327187180519104, 1.3091912269592285, -1.1559697389602661, -0.4842972457408905, 0.5916112065315247, 0.4997623562812805, 1.2223013639450073, -0.2972468137741089, 0.32662704586982727, 0.9023047089576721, -1.1980125904083252, 1.1365735530853271, -1.3586208820343018], [-0.38512420654296875, -1.041663408279419, 0.9695264101028442, 0.9098870754241943, -0.9485747218132019, 0.9618565440177917, 0.3875610828399658, -0.6052574515342712, -0.27485284209251404, -0.58915776014328, -0.13020220398902893, -0.18611037731170654, -0.5118829011917114, 0.8966611623764038, -0.8732677698135376, 0.9041079878807068]], [[-0.009413659572601318, 0.057397693395614624, -0.06742796301841736, 0.11426049470901489, -0.02340903878211975, 0.06512883305549622, -0.01363709568977356, 0.05941769480705261, 0.03765815496444702, 0.015165209770202637, 0.08816978335380554, -0.046837955713272095, -0.08381140232086182, -0.022165149450302124, -0.12250694632530212, -0.07792747020721436], [-0.043537676334381104, 0.04319286346435547, 0.03701290488243103, -0.008759617805480957, 0.02511611580848694, 0.0561983585357666, -0.005728602409362793, 0.07119792699813843, 0.09734925627708435, 0.07222267985343933, -0.058216631412506104, -0.04103991389274597, 0.020645350217819214, -0.07426917552947998, -0.09695985913276672, -0.045836955308914185], [-0.0017451345920562744, -0.06631508469581604, 0.055933356285095215, 0.0870608389377594, 0.11835044622421265, -0.08232784271240234, 0.08612284064292908, -0.09094017744064331, 0.029367148876190186, -0.0019849538803100586, -0.0632506012916565, 0.003991186618804932, -0.0378953218460083, -0.024659663438796997, 0.07498198747634888, -0.11353474855422974], [0.08726811408996582, 0.0778842568397522, 0.0026315152645111084, -0.056812137365341187, -0.12418350577354431, 0.11643147468566895, 0.02240714430809021, -0.11101201176643372, 0.04124784469604492, 0.0002811253070831299, -0.10974130034446716, 0.016111254692077637, 0.058651119470596313, 0.011755228042602539, 0.01657813787460327, -0.11751648783683777], [-0.06630486249923706, -0.06935247778892517, 0.07961055636405945, 0.07433924078941345, 0.0055356621742248535, -0.09612864255905151, -0.022488683462142944, -0.016552269458770752, 0.02062705159187317, -0.09080210328102112, 0.025125235319137573, 0.031983882188797, -0.11552613973617554, -0.03986361622810364, 0.03284391760826111, 0.08358654379844666], [0.04669812321662903, -0.0475219190120697, -0.0005821287631988525, 0.07233083248138428, 0.06329134106636047, 0.04853340983390808, 0.06577235460281372, 0.08558937907218933, -0.10226786136627197, 0.04115763306617737, -0.08952474594116211, 0.018951117992401123, -0.07091012597084045, -0.019827336072921753, 0.1044594943523407, -0.05943247675895691], [-0.08527413010597229, -0.06960102915763855, -0.11652064323425293, 0.018061429262161255, -0.1012296974658966, -0.06170159578323364, -0.06369969248771667, 0.01936107873916626, -0.09448432922363281, -0.08611041307449341, -0.00597834587097168, -0.07943183183670044, 0.11349201202392578, 0.0731947124004364, -0.024897456169128418, 0.0408099889755249], [-0.022836148738861084, 0.03277650475502014, 0.09907081723213196, 0.11156949400901794, -0.06555381417274475, -0.03344997763633728, 0.0028009116649627686, 0.07323312759399414, -0.1210533082485199, -0.007455259561538696, 0.10156625509262085, 0.014500945806503296, -0.09706652164459229, 0.06353884935379028, -0.03133702278137207, 0.056834250688552856], [-0.012378007173538208, -0.08331584930419922, -0.04583647847175598, -0.01846727728843689, 0.001327425241470337, 0.004972636699676514, 0.07506483793258667, 0.019473373889923096, -0.10076245665550232, 0.03639295697212219, -0.016339987516403198, -0.12056183815002441, 0.037334322929382324, 0.1242193877696991, -0.0735238790512085, -0.01960301399230957], [0.06298089027404785, -0.01810699701309204, 0.024350255727767944, -0.001126706600189209, 0.07119354605674744, 0.12273555994033813, -0.10021203756332397, 0.025631457567214966, -0.10689401626586914, 0.11793950200080872, 0.03640887141227722, 1.958012580871582e-05, 0.10398626327514648, -0.007821410894393921, -0.04191216826438904, -0.08283275365829468], [-0.08560246229171753, -0.09475576877593994, 0.04338991641998291, -0.06610387563705444, 0.11331674456596375, 0.03811901807785034, -0.09955796599388123, -0.10070174932479858, -0.09667661786079407, -0.09545689821243286, -0.03788253664970398, -0.047350913286209106, -0.020812034606933594, -0.061512261629104614, -0.10232409834861755, -0.05011093616485596], [0.0019352138042449951, 0.012242555618286133, -0.012473374605178833, -0.08975350856781006, -0.11286565661430359, 0.10229155421257019, 0.10450384020805359, -0.04174911975860596, -0.09289312362670898, -0.08258765935897827, 0.03490340709686279, 0.01467105746269226, 0.015951693058013916, -0.10879623889923096, -0.08740746974945068, 0.0789056122303009], [0.04674825072288513, -0.0873468816280365, 0.07763540744781494, -0.12148180603981018, 0.10472476482391357, -0.08524817228317261, -0.07054808735847473, 0.11431819200515747, -0.022000104188919067, -0.04482001066207886, 0.017584770917892456, 0.03339868783950806, -0.024815350770950317, 0.022126376628875732, 0.013008683919906616, 0.10407033562660217], [-0.05911263823509216, -0.08720067143440247, 0.09238997101783752, 0.00673443078994751, 0.08107805252075195, 0.07520967721939087, 0.10826009511947632, 0.10363957285881042, -0.05486223101615906, -0.028619349002838135, -0.0058588385581970215, -0.0734967291355133, 0.08041068911552429, -0.0825732946395874, 0.11856362223625183, -0.004418760538101196], [-0.03982517123222351, -0.015428304672241211, 0.09980550408363342, -0.11163520812988281, -0.05200275778770447, -0.07909122109413147, 0.022684752941131592, 0.08519324660301208, -0.0819242000579834, 0.07358184456825256, 0.07900670170783997, 0.12264305353164673, 0.023588955402374268, 0.11605259776115417, 0.07637938857078552, -0.05157214403152466], [0.08977743983268738, -0.005984693765640259, -0.04194846749305725, 0.12259376049041748, -0.09805479645729065, 0.09879320859909058, 0.03851205110549927, 0.08911451697349548, 0.02161109447479248, -0.11317843198776245, 0.083354651927948, 0.044370681047439575, -0.009729862213134766, -0.12191185355186462, -0.03986021876335144, 0.03658980131149292]], [[-0.12323179841041565, 0.11610138416290283, -0.026642531156539917, 0.06886067986488342, 0.11906266212463379, -0.10669228434562683, 0.06886452436447144, 0.07497015595436096, -0.06865248084068298, -0.10033845901489258, 0.0558781623840332, 0.020113050937652588, -0.07080748677253723, 0.09152191877365112, 0.07386472821235657, 0.018962949514389038], [-0.049935996532440186, 0.10893630981445312, 0.03583440184593201, -0.09872481226921082, 0.10842344164848328, -0.010178476572036743, 0.019607722759246826, -0.02201169729232788, 0.047505199909210205, 0.12325796484947205, -0.018692731857299805, 0.06351771950721741, -0.025668472051620483, -0.014348924160003662, 0.0006308257579803467, 0.09477239847183228], [0.03114643692970276, 0.12317231297492981, 0.06517031788825989, -0.03181841969490051, -0.0020141899585723877, 0.04909205436706543, -0.06563752889633179, -0.10953763127326965, -0.03770315647125244, 0.04233995079994202, -0.051150500774383545, 0.010149896144866943, -0.07697314023971558, 0.08876579999923706, -0.0063059329986572266, -0.11063924431800842], [0.013318002223968506, -0.09757912158966064, 0.06311360001564026, 0.09559935331344604, -0.04281172156333923, 0.0232771635055542, 0.09801238775253296, -0.08810260891914368, 0.041057586669921875, 0.0680730938911438, -0.029220491647720337, -0.09712603688240051, 0.005353152751922607, -0.09841719269752502, 0.08659297227859497, 0.0487055778503418], [0.08368614315986633, -0.102450430393219, 0.060283273458480835, 0.036907970905303955, 0.11668780446052551, -0.03697630763053894, 0.051136672496795654, -0.08814024925231934, -0.0991651713848114, 0.0872967541217804, 0.015509963035583496, -0.04903513193130493, -0.054767102003097534, 0.12140354514122009, -0.08953943848609924, 0.04950672388076782], [0.03893023729324341, -0.09030976891517639, 0.03039279580116272, 0.08605411648750305, -0.0007932186126708984, -0.07824409008026123, 0.026392042636871338, -0.05054628849029541, 0.005104869604110718, -0.09448835253715515, -0.06962651014328003, 0.009133964776992798, -0.11520028114318848, 0.028451919555664062, -0.08380720019340515, 0.023193687200546265], [-0.02324661612510681, -0.07914620637893677, -0.046547263860702515, 0.06338751316070557, -0.06780797243118286, -0.05088841915130615, 0.054010480642318726, 0.09449005126953125, -0.045880258083343506, 0.0742114782333374, 0.01261088252067566, -0.10667034983634949, 0.008996188640594482, -0.1105341911315918, 0.0557992160320282, 0.049786388874053955], [-0.10639244318008423, 0.10038495063781738, -0.0736074447631836, -0.039858609437942505, -0.07399013638496399, 0.027052581310272217, -0.08441290259361267, 0.01934140920639038, 0.006182342767715454, 0.005327284336090088, 0.07026270031929016, 0.08129343390464783, 0.05011308193206787, 0.01711297035217285, -0.08370813727378845, 0.03566098213195801], [0.017298907041549683, 0.04256877303123474, -0.009508728981018066, 0.011581718921661377, 0.09748721122741699, -0.01856231689453125, -0.0022153258323669434, 0.04586723446846008, 0.060838788747787476, -0.028546184301376343, -0.09149998426437378, 0.10565108060836792, 0.06551617383956909, -0.05186229944229126, -0.04615926742553711, 0.04241934418678284], [-0.032505422830581665, -0.10657000541687012, 0.010474324226379395, -0.12324663996696472, -0.030809253454208374, -0.08451041579246521, -0.0008170008659362793, 0.01639080047607422, -0.021240025758743286, 0.042833030223846436, 0.057895809412002563, 0.0446816086769104, -0.11270251870155334, -0.05528053641319275, -0.09442576766014099, -0.06470489501953125], [0.11176514625549316, 0.08028626441955566, -0.0891750156879425, -0.07264024019241333, -0.0932273268699646, 0.0785442590713501, 0.0036101341247558594, -0.09119632840156555, -0.06309577822685242, 0.02339109778404236, -0.11965492367744446, -0.07016995549201965, -0.03492015600204468, 0.07482945919036865, 0.0795968770980835, -0.09969696402549744], [-0.07742461562156677, 0.10056677460670471, 0.11489427089691162, 0.026334255933761597, -0.03832089900970459, 0.031043171882629395, -0.060069113969802856, 0.06144261360168457, -0.10857412219047546, -0.06530332565307617, -0.07045894861221313, 0.054499804973602295, -0.07081010937690735, 0.11312052607536316, 0.039767444133758545, -0.025991857051849365], [-0.08744758367538452, 0.0969940721988678, 0.0013485848903656006, 0.04400676488876343, 0.05173128843307495, 0.06277984380722046, 0.018443137407302856, 0.009097248315811157, -0.11220371723175049, -0.09442704916000366, -0.12209108471870422, 0.012770980596542358, 0.06453263759613037, 0.056114792823791504, -0.06564521789550781, -0.06708654761314392], [0.020000189542770386, 0.048479169607162476, 0.11413675546646118, -0.06260278820991516, -0.05128985643386841, -0.0030100643634796143, 0.11465570330619812, -0.030510246753692627, 0.022275418043136597, -0.033025771379470825, -0.023838937282562256, 0.0976596474647522, -0.031796783208847046, 0.09728437662124634, 0.1026448905467987, 0.08201178908348083], [0.017704635858535767, -0.08055508136749268, 0.10124516487121582, 0.01036885380744934, -0.07078081369400024, 0.008622050285339355, 0.09092268347740173, 0.05157172679901123, 0.08496353030204773, 0.032281309366226196, 0.023033201694488525, 0.08874660730361938, 0.014828741550445557, 0.11229118704795837, -0.04947194457054138, -0.06279855966567993], [0.10015156865119934, 0.12186926603317261, 0.06364288926124573, -0.05676183104515076, -0.0746135413646698, 0.08880656957626343, 0.01641172170639038, -0.03599700331687927, -0.07231739163398743, -0.005953609943389893, 0.05979740619659424, 0.01349368691444397, -0.09167996048927307, 0.06898140907287598, 0.022575795650482178, 0.014559775590896606]]]}, "dense": {"bias:0": [-0.0036019724793732166], "kernel:0": [[-0.03668659180402756], [0.04744665324687958], [-0.22777383029460907], [0.08422062546014786], [0.04118044301867485], [0.10905823856592178], [-0.21541625261306763], [0.04806690290570259], [-0.08271165192127228], [0.048661015927791595], [-0.04405822232365608], [-0.07090999186038971], [0.02308405004441738], [-0.02122798003256321], [0.042642489075660706], [0.08162526786327362], [-0.07451587915420532], [0.04437738656997681], [0.025570975616574287], [0.1081557348370552], [-0.07339216768741608], [-0.0310216061770916], [0.07249860465526581], [-0.21302738785743713], [0.02835269272327423], [0.09763150662183762], [-0.046361032873392105], [-0.13405804336071014], [0.29512232542037964], [-0.17755888402462006], [0.05402163416147232], [0.030097004026174545], [0.04114306718111038], [0.03752453625202179], [-0.012039357796311378], [0.02890261821448803]]}, "lstm": {"bias:0": [2.2687957286834717, -0.2682191729545593, 0.3014880120754242, -0.06667982041835785, -0.6958613991737366, -0.2962726354598999, 0.16208891570568085, -0.37423843145370483, 0.7636079788208008, 2.05899715423584, 0.6659363508224487, 0.4863315522670746, -1.871060848236084, -2.0427513122558594, 2.361210823059082, 0.8991470336914062, 1.0375332832336426, 1.1794958114624023, 0.21744626760482788, 0.6336694359779358, 0.48456186056137085, -1.2761015892028809, 1.5958359241485596, 1.5881282091140747, 0.39532390236854553, -0.03157250955700874, 1.3693456649780273, 0.2820599377155304, 0.6659059524536133, 0.6075474619865417, 1.401219367980957, -0.2553039491176605, -0.20079852640628815, 0.6283276081085205, -0.6777228713035583, -1.895645022392273, 1.0, 1.0, 1.0, 1.0, 1.0, 1.0, 1.0, 1.0, 1.0, 1.0, 1.0, 1.0, 1.0, 1.0, 1.0, 1.0, 1.0, 1.0, 1.0, 1.0, 1.0, 1.0, 1.0, 1.0, 1.0, 1.0, 1.0, 1.0, 1.0, 1.0, 1.0, 1.0, 1.0, 1.0, 1.0, 1.0, -0.1075504869222641, -0.16116930544376373, -0.06484523415565491, -1.0676199197769165, -0.02675454318523407, -0.012529289349913597, 0.16360251605510712, -0.2798544764518738, -0.15832717716693878, 0.1694357544183731, -0.0707240179181099, -0.023289797827601433, -0.10417208075523376, -0.07606268674135208, 0.0716218650341034, 0.12516264617443085, 0.024029260501265526, 0.27718567848205566, 0.00963328592479229, -0.10364682972431183, 0.05792030319571495, 0.44665056467056274, 0.001722731627523899, 0.09660080820322037, -0.26676541566848755, 0.3874147832393646, 0.016464171931147575, -0.26270362734794617, 0.008699817582964897, -0.24043023586273193, -0.12092133611440659, -0.6453589797019958, 0.3149119019508362, 0.04337155818939209, 0.09387611597776413, 0.07856687158346176, 2.006110191345215, -0.6135579347610474, 0.23907919228076935, -2.2956831455230713, -0.6682150959968567, 0.07139542698860168, 0.4521230459213257, -1.0118169784545898, 0.15803804993629456, 1.74695885181427, 1.3086010217666626, 0.6061495542526245, -0.6467083692550659, -0.38895124197006226, 2.335277795791626, 0.6703490018844604, 0.5830639004707336, 1.5114269256591797, -0.11432233452796936, 0.5930675864219666, 0.49245670437812805, -0.6941732168197632, 1.4185057878494263, 0.6668226718902588, -0.3487037420272827, -0.3927963972091675, 1.6814751625061035, 0.1622772216796875, 0.23419587314128876, -0.42081204056739807, 1.8180454969406128, 0.6516979932785034, -0.08522668480873108, -0.09071267396211624, -0.544941246509552, -1.9576060771942139], "kernel:0": [[2.075716495513916, -0.34097862243652344, -0.6653459668159485, -0.6072524785995483, 0.4741835594177246, 0.13817720115184784, 0.5088251829147339, -0.22406041622161865, -0.3841835856437683, -0.7128296494483948, -0.08693621307611465, 0.2556392550468445, 0.7553606629371643, -0.26949915289878845, -1.3964829444885254, 0.07366852462291718, -0.22414791584014893, 1.3127145767211914, -0.3656920790672302, 0.13614308834075928, -0.6017149090766907, -0.4653102457523346, 0.9313406348228455, -0.6925761699676514, 0.28105059266090393, -0.4689410328865051, 0.5726853609085083, -0.036296311765909195, 0.7815929651260376, 0.3616592586040497, -0.3396663963794708, 0.1408180445432663, -1.0008363723754883, 0.2891882061958313, 0.37450283765792847, -1.030102252960205, -0.0498121976852417, -0.03762611746788025, 0.1330118179321289, 0.18023133277893066, -0.09851328283548355, 0.1299704909324646, 0.07538929581642151, 0.03460897505283356, 0.055063292384147644, -0.0284002423286438, -0.13795146346092224, 0.014378726482391357, 0.0461360365152359, 0.18496519327163696, -0.09432607144117355, -0.17635604739189148, -0.0652814507484436, 0.16596567630767822, 0.16721200942993164, 0.009136870503425598, -0.08695113658905029, -0.0575823038816452, 0.0969659686088562, 0.12674573063850403, 0.0755910575389862, 0.00499841570854187, -0.1613897681236267, -0.035447463393211365, -0.1474398970603943, -0.039383694529533386, -0.06206047534942627, -0.04110988974571228, 0.16882473230361938, 0.12175256013870239, 0.13628795742988586, -0.05232289433479309, 0.07368559390306473, -0.2577619254589081, 0.895030677318573, -0.015503555536270142, -0.19035020470619202, -0.09274137020111084, 0.45945265889167786, -0.2499261200428009, 0.5042425990104675, -2.018357276916504, 0.6932883858680725, 0.24188360571861267, 0.39393121004104614, 0.0964018851518631, -1.9103641510009766, -0.2720741927623749, -0.49372202157974243, -0.8118300437927246, -0.35941165685653687, -0.3864825665950775, 0.8528158664703369, 0.32849597930908203, -0.23450444638729095, 0.07795827090740204, -0.2430470883846283, 0.18292075395584106, -0.294650673866272, 0.38431501388549805, -0.6283915042877197, -0.15958721935749054, -1.2139544486999512, -0.26632410287857056, -0.3289209008216858, -0.2648887038230896, -0.21249179542064667, 0.4472762942314148, -1.3263862133026123, 0.34254467487335205, 0.825467586517334, -0.5138400793075562, 0.13591933250427246, 0.04149262234568596, 0.010670940391719341, -0.1364433765411377, -0.038876768201589584, 0.003743159119039774, 0.14324073493480682, -0.28564783930778503, -0.1241852194070816, 0.3608627915382385, 1.807489275932312, -0.3150823414325714, 0.1187831312417984, -2.0585227012634277, 0.06400147825479507, 0.04585094377398491, 0.498104453086853, -0.13192600011825562, -0.19163092970848083, 0.08834388107061386, 1.3770524263381958, 0.14395324885845184, -0.42204204201698303, -0.07926659286022186, -0.6874392628669739, 0.09538134187459946, 0.3933205008506775, 0.9359215497970581, 0.5333223342895508, -0.9067862033843994, 0.10120884329080582, -0.6375395059585571], [0.38550782203674316, 0.6587148308753967, -1.0852288007736206, 0.6670543551445007, -0.450641930103302, 0.5236050486564636, 0.0495833083987236, -0.3138285279273987, -0.2034139484167099, -0.34059566259384155, -0.2319672852754593, 0.36320555210113525, 0.431429386138916, -0.18554642796516418, 0.2408449649810791, -0.45804035663604736, -0.002638668054714799, -0.38677075505256653, 0.8320456743240356, 1.4426974058151245, -0.7282111644744873, 0.7914868593215942, 0.6394466757774353, 2.4224226474761963, 0.53729248046875, -0.7756838202476501, 0.6828999519348145, -0.04496871307492256, 1.2127501964569092, -1.1757948398590088, 0.4278847277164459, -1.084797978401184, 0.018159886822104454, 0.0037466688081622124, 1.0362910032272339, -1.32765793800354, 0.016887202858924866, 0.18815869092941284, 0.17966827750205994, -0.10425539314746857, -0.15909425914287567, 0.1035151481628418, -0.029390528798103333, 0.1769585907459259, 0.11643114686012268, -0.03895579278469086, 0.04110604524612427, -0.15478575229644775, -0.0035193711519241333, 0.11632481217384338, 0.04464246332645416, 0.09744071960449219, 0.1387690305709839, 0.02074296772480011, -0.007538750767707825, -0.11461750417947769, -0.1347634494304657, 0.1369766891002655, -0.10280774533748627, -0.14907154440879822, -0.068187415599823, 0.08617937564849854, 0.00549653172492981, -0.17440375685691833, -0.12807786464691162, 0.12502628564834595, 0.14098429679870605, 0.14818701148033142, -0.09816078096628189, 0.09783342480659485, 0.000877872109413147, 0.09960788488388062, -1.3168936967849731, -0.3649003505706787, 0.6125574111938477, -0.7057424187660217, -0.25483939051628113, -0.11297603696584702, -0.08825873583555222, 0.7602682113647461, -0.1411152482032776, -0.0577804259955883, -0.5293739438056946, 0.5293413996696472, -0.37810996174812317, 0.4626605212688446, 0.3251253068447113, 0.2333083152770996, -1.4355428218841553, 0.06643173098564148, -0.057247746735811234, -1.5763211250305176, -1.0735505819320679, -0.15420326590538025, -0.8607884645462036, -0.2686136066913605, 1.0697060823440552, -0.9732300043106079, -1.2505961656570435, 0.579115629196167, -1.3277175426483154, 1.012762427330017, 0.5820115804672241, 0.14954379200935364, 0.19973963499069214, -0.060708627104759216, -0.45539066195487976, 0.7967365980148315, -0.00031450134702026844, -0.0657791718840599, 0.9622026681900024, -0.36944183707237244, 0.20614665746688843, -0.28932175040245056, 0.004793250001966953, 0.03659910336136818, 0.10285042226314545, 0.3231474459171295, 0.12144346535205841, -0.3029412031173706, 0.04818056523799896, -0.2384907603263855, -0.49067550897598267, 0.19363893568515778, 0.02982700802385807, 0.6018475294113159, -0.4660091698169708, -1.470340609550476, 0.5806657671928406, -1.0487474203109741, -0.6504141092300415, -0.4309864640235901, 0.04581592604517937, 1.144906759262085, -0.5730426907539368, -0.18868859112262726, -0.9579610228538513, 0.4362618327140808, -0.5062980055809021, 0.2537115216255188, 0.21400536596775055, 0.30495214462280273, 1.2494922876358032, -1.548891305923462], [0.38044050335884094, 0.12248951196670532, 1.0325592756271362, 0.4803924560546875, -0.5783810019493103, -0.31490322947502136, -0.36675894260406494, 0.34575435519218445, 0.19949549436569214, -0.5800507068634033, -0.3872630000114441, -0.17108799517154694, 0.16763095557689667, -0.12085650861263275, -1.1552709341049194, 0.31760120391845703, -0.2685805857181549, 0.25914037227630615, -0.4066406488418579, -0.35625752806663513, 0.3610357344150543, -0.6444681286811829, -0.219499409198761, 0.10493987053632736, 0.7511981725692749, 0.3894104063510895, -0.9423990845680237, -0.01404707133769989, -1.3066405057907104, -0.005010335240513086, -0.022074304521083832, -0.011396771296858788, -0.7438278198242188, -0.19489286839962006, -0.9205414652824402, 0.5309741497039795, 0.18178114295005798, 0.07609686255455017, -0.034307628870010376, -0.134177103638649, -0.04796278476715088, 0.0912482738494873, -0.12012419104576111, 0.14830341935157776, -0.006949856877326965, -0.11298319697380066, -0.1365624964237213, -0.15820331871509552, 0.059427469968795776, -0.06707306206226349, -0.1504496932029724, -0.03113633394241333, -0.07952596247196198, -0.13672685623168945, -0.10082988440990448, -0.02383466064929962, -0.1508604735136032, 0.17299705743789673, 0.06067773699760437, 0.01562105119228363, -0.048264503479003906, -0.06834046542644501, -0.181202232837677, -0.0950101688504219, -0.1924900859594345, 0.10782641172409058, 0.018753111362457275, 0.03300897777080536, 0.17949852347373962, -0.15628021955490112, -0.07915452867746353, 0.028885066509246826, 0.5032576322555542, 0.3146786689758301, -1.6559128761291504, 0.034157440066337585, 0.22558656334877014, 0.21606309711933136, -0.2625974714756012, 0.10507869720458984, -0.4169255793094635, -0.620755672454834, -0.5502975583076477, -1.404535174369812, 0.05991427227854729, -0.3132103383541107, -0.8829841017723083, 0.49038317799568176, 0.6479259133338928, -0.28768259286880493, -0.23130151629447937, 1.8925076723098755, 1.3712059259414673, 0.02448471263051033, 0.6037563681602478, 0.17275162041187286, 0.44082972407341003, -0.05391490086913109, 0.29226627945899963, -0.3981671929359436, 1.0879157781600952, -0.12102499604225159, 0.8369160294532776, -0.11207981407642365, -0.3450320363044739, 0.456246554851532, 0.2990521192550659, -0.6013663411140442, -0.36728227138519287, -0.008957481011748314, -1.13424813747406, 0.2167191058397293, -0.038784634321928024, -0.3959375023841858, 0.02191496267914772, 0.22668233513832092, 0.19032186269760132, 0.40184056758880615, -0.053747668862342834, 0.14226296544075012, 0.3123219907283783, -0.23730334639549255, 1.2384949922561646, 0.2830444872379303, 0.09893526881933212, -0.6203672885894775, 0.16912974417209625, 0.39174792170524597, -0.36591681838035583, 0.39343929290771484, 0.2993743121623993, 0.10343775153160095, -0.17542225122451782, -0.2743961811065674, 0.617698073387146, 0.21157388389110565, 0.8457757830619812, -0.19801563024520874, -0.026053084060549736, -0.5885661244392395, 0.06621409952640533, 0.07171961665153503, -0.584292471408844, 0.6578481197357178], [-0.17723116278648376, -0.3534640371799469, 1.160953164100647, -0.05599331483244896, -0.40694141387939453, -0.1270180493593216, 0.05332241579890251, 0.6881758570671082, 0.15338607132434845, 0.038909949362277985, 0.395350843667984, -0.5431565642356873, 0.24570605158805847, 0.41231727600097656, 0.18611809611320496, 0.2983322739601135, 0.05819312483072281, 0.10072871297597885, 0.1040176972746849, -1.2430509328842163, 1.1495219469070435, -0.6103267669677734, -0.018565913662314415, -1.871435284614563, -0.17384867370128632, 1.4913922548294067, -0.5290724039077759, -0.06468810886144638, -1.4849885702133179, 0.7543923258781433, -0.3090888559818268, 0.5063208937644958, 0.10239414870738983, -0.7988068461418152, -1.0507688522338867, -0.134141743183136, -0.0643695592880249, 0.0008465200662612915, 0.11158180236816406, 0.007715672254562378, -0.008987963199615479, 0.15401190519332886, -0.015629276633262634, 0.05889895558357239, 0.13132530450820923, -0.009891778230667114, 0.11387643218040466, 0.13141721487045288, -0.1374218910932541, 0.19213947653770447, 0.17654940485954285, -0.12311713397502899, -0.09058832377195358, -0.13320209085941315, -0.06608559191226959, 0.1430753469467163, -0.02086523175239563, -0.14870615303516388, 0.1577783226966858, -0.07836423814296722, 0.14560383558273315, -0.026292964816093445, -0.013015523552894592, -0.04850301146507263, -0.17220008373260498, -0.12934286892414093, -0.016782954335212708, 0.01043732464313507, 0.15671443939208984, 0.1258639097213745, 0.045638516545295715, -0.14538249373435974, -0.09936405718326569, 0.6051190495491028, -0.3815206289291382, 0.3756760358810425, 0.5651395320892334, -0.021542249247431755, 0.135103240609169, -0.6439613699913025, -0.5350313186645508, -0.011028497479856014, 0.5700691342353821, 0.3758302927017212, -0.44244441390037537, -0.11889567971229553, 0.13629122078418732, -0.4668413996696472, -0.27929922938346863, 0.6669669151306152, 0.5323882699012756, 1.4198329448699951, -2.4085750579833984, 0.08605042845010757, 0.40446144342422485, 0.9420885443687439, -0.03647160157561302, 0.6267082691192627, -1.218489408493042, -0.4276619851589203, 2.239070415496826, -0.4695315659046173, 1.2088873386383057, -0.5038015842437744, 0.0011308611137792468, 0.36443495750427246, 0.3633352220058441, -1.1814931631088257, -0.10730375349521637, -0.436209499835968, -1.232130527496338, 0.4012293815612793, 0.2766263782978058, 0.2965030372142792, 0.0174150038510561, 0.37334948778152466, 0.17657168209552765, -0.001026985701173544, 0.26130345463752747, 0.40275442600250244, 0.6856337189674377, -0.04421611130237579, -0.02233116328716278, -0.44055110216140747, -0.1252775639295578, 0.04096919670701027, -0.028528472408652306, 1.1849488019943237, -0.9629755616188049, 0.12304491549730301, 0.35177692770957947, 0.723835825920105, -0.599444568157196, -0.9186066389083862, 0.4407399892807007, 0.12837228178977966, 1.0486596822738647, -0.7654438614845276, -0.06257138401269913, -0.48894721269607544, -0.03188116103410721, 0.9299291968345642, -0.7830191254615784, 0.18860042095184326], [0.2073960155248642, 0.4445703625679016, -0.7448961734771729, -0.04431820288300514, -0.5767711997032166, 0.3795797526836395, 1.1416795253753662, -0.30039122700691223, -1.0137017965316772, 0.12889230251312256, -0.20008014142513275, 0.5173084735870361, 1.5822054147720337, 0.3841775059700012, 0.5716515779495239, -0.4956664741039276, 0.37786856293678284, -0.8158585429191589, 1.0384324789047241, 0.7224492430686951, -0.5802426934242249, 0.07691626995801926, 0.5592832565307617, -0.4981893301010132, 0.32910582423210144, -0.5010910034179688, 1.2399051189422607, 0.10213281214237213, 0.8186128735542297, 0.18217876553535461, 0.3831125795841217, 0.04372283071279526, 0.22998633980751038, -0.4016302227973938, 1.2157808542251587, -2.4508326053619385, -0.14977936446666718, -0.08243496716022491, -0.07469246536493301, -0.05704623460769653, 0.03635585308074951, 0.04103103280067444, 0.009119912981987, 0.08197146654129028, 0.18250781297683716, 0.15427687764167786, 0.1356183886528015, 0.10311084985733032, 0.018267542123794556, -0.16471032798290253, -0.11349885910749435, -0.022104650735855103, 0.17735454440116882, 0.00027808547019958496, 0.03517982363700867, -0.09835926443338394, -0.02258545160293579, 0.12140986323356628, -0.12421384453773499, -0.05742432177066803, -0.12408189475536346, 0.17694732546806335, 0.11566212773323059, -0.16644810140132904, 0.1534518301486969, -0.17880579829216003, -0.05279354751110077, 0.11605757474899292, 0.13248088955879211, -0.08105957508087158, 0.06182265281677246, -0.18578502535820007, -0.9862059354782104, -0.11776329576969147, -0.004372068680822849, -0.4886637032032013, 0.2565455138683319, 0.0659555196762085, 0.8588430285453796, -0.6547918319702148, 0.7137383818626404, 0.22804759442806244, -0.306740939617157, 0.19418632984161377, -0.29067376255989075, 0.07882260531187057, 0.8570351004600525, 0.2767993211746216, -0.5822157859802246, 0.37578120827674866, -0.26871055364608765, -0.3961516320705414, -0.6299468874931335, 0.0022453046403825283, -0.9319607615470886, 0.892669677734375, 0.14417317509651184, -0.41882720589637756, 0.45057618618011475, 1.2812248468399048, -1.1274694204330444, 0.5577176213264465, 1.3158860206604004, -0.5506723523139954, 0.34336531162261963, 0.26593995094299316, -0.2531583905220032, 0.5444990396499634, 0.6639398336410522, 0.21412429213523865, 0.598639965057373, -0.024073900654911995, 0.2951745092868805, -0.19200661778450012, -0.09867372363805771, -0.2445230484008789, -0.12133798003196716, -0.02010454051196575, 0.41257765889167786, -0.4512704908847809, 0.6251761317253113, 0.4377225935459137, -0.517080545425415, 0.17788946628570557, 0.06064213439822197, 0.870819628238678, -0.7212026715278625, -0.666030764579773, 0.5415031313896179, -1.3103985786437988, -0.7780241370201111, 0.7583402991294861, -0.6207587718963623, 1.0341278314590454, -0.9259507060050964, -0.5132275819778442, -0.6573817133903503, -0.8222600817680359, -0.42550840973854065, 1.2647587060928345, -0.6227387189865112, 0.5151492357254028, 1.28187096118927, -2.907166004180908], [-0.5484286546707153, -0.2137625813484192, 0.904604971408844, 0.4738684594631195, -0.41214826703071594, 0.4727829694747925, -0.3862899839878082, 0.2210058867931366, 0.6617783308029175, 0.13996621966362, -0.21005946397781372, -0.20613403618335724, -0.565915584564209, -0.12787103652954102, 0.346360445022583, -0.20839010179042816, 0.07133103162050247, -0.3733913004398346, 0.274301677942276, -0.9120469689369202, 0.33244404196739197, 0.754477858543396, -0.16095873713493347, -0.43787986040115356, 0.8944823741912842, 0.3776791989803314, -0.6485381126403809, 0.013046924024820328, -1.2017414569854736, 0.23275737464427948, -0.22492268681526184, 0.37857890129089355, 0.16961374878883362, -0.0888558030128479, -0.9730568528175354, 1.3071247339248657, 0.08500352501869202, -0.1326221525669098, 0.1052335798740387, 0.02600136399269104, -0.010492444038391113, -0.06147421896457672, -0.07028521597385406, 0.15034392476081848, 0.10240399837493896, -0.09994661808013916, -0.13514545559883118, -0.1276366263628006, 0.02883008122444153, -0.1623792201280594, 0.12341004610061646, 0.1804429590702057, -0.16926781833171844, 0.028865307569503784, -0.15028247237205505, 0.17486122250556946, 0.15939989686012268, 0.11949911713600159, -0.011871308088302612, 0.10342130064964294, 0.09215477108955383, 0.11893317103385925, 0.1261599063873291, 0.14690923690795898, 0.144229918718338, 0.10172489285469055, 0.0751083493232727, -0.11010678112506866, -0.046309590339660645, 0.14829376339912415, 0.07881680130958557, -0.13965192437171936, 0.18872304260730743, 0.35278597474098206, -1.6304727792739868, 0.41315510869026184, 0.41248464584350586, 0.012325827032327652, -0.4568313956260681, 0.03590016812086105, -0.2778540551662445, 0.6357406377792358, -0.6786774396896362, -0.6593356728553772, 0.1874011605978012, -0.439150869846344, 0.36155375838279724, 0.6904633641242981, 0.7276058197021484, -0.09792305529117584, -1.1655791997909546, -0.4023045301437378, 0.8961687088012695, -0.17193907499313354, -0.7248712182044983, 0.09738821536302567, 0.1998458206653595, 0.5037935376167297, 2.092158079147339, -1.0925710201263428, 1.1728650331497192, -0.39812836050987244, 0.29274505376815796, 0.3678438365459442, 0.40176552534103394, 0.20150649547576904, 0.283390611410141, -0.7448313236236572, 0.7166849374771118, -0.3568384349346161, -0.8799866437911987, 0.3682619333267212, -0.42205294966697693, -0.5043297410011292, -0.12349812686443329, 0.025625986978411674, 0.12278380244970322, -0.011326686479151249, -0.3560485243797302, 0.29992708563804626, 0.5569692254066467, 0.040701981633901596, 0.0021217467729002237, 0.4260264039039612, 0.1420428603887558, 0.6545592546463013, -0.020895566791296005, 0.7609140872955322, -0.40448760986328125, 0.7787507772445679, -0.23527945578098297, 0.11263351142406464, 0.0818682461977005, -0.5318677425384521, 1.0337293148040771, 0.22908349335193634, 0.8964133858680725, -0.27655038237571716, 0.2925446033477783, -0.5355428457260132, -0.20915627479553223, -0.07573629915714264, -0.7819371819496155, 1.3336946964263916], [-0.5450515151023865, -0.2628329396247864, 0.7343103885650635, -0.20610113441944122, 0.3463529050350189, -0.3632027208805084, -0.32881614565849304, 0.011126872152090073, 0.42935115098953247, 0.5081038475036621, -0.4065321385860443, -0.028568096458911896, -0.9140608310699463, -0.03758573159575462, 1.970818281173706, 0.35423997044563293, 0.2806714177131653, -1.0910298824310303, -0.43107086420059204, -0.4418492019176483, -0.2412635087966919, 1.326830506324768, 0.5444605350494385, -0.3632917106151581, -0.4187953770160675, -0.11155310273170471, -0.20480938255786896, 0.24656334519386292, -0.6873653531074524, 0.059839628636837006, -0.2967868149280548, 0.22044678032398224, -0.5157109498977661, 0.7340742349624634, -1.143548607826233, 1.7130330801010132, -0.012359783053398132, -0.09583480656147003, -0.022272244095802307, 0.17199787497520447, -0.04755210876464844, 0.1442023515701294, -0.17859096825122833, -0.06556510925292969, 0.09933871030807495, -0.16211208701133728, 0.1348263919353485, 0.15654870867729187, 0.16288644075393677, -0.04989221692085266, 0.07400739192962646, -0.18904490768909454, 0.05312584340572357, 0.16484776139259338, 0.18796786665916443, -0.025246992707252502, 0.004844486713409424, 0.03401213884353638, 0.04901687800884247, 0.0928097665309906, 0.19344091415405273, -0.0792614072561264, 0.04363836348056793, 0.04390314221382141, -0.035673320293426514, -0.17588575184345245, -0.18656384944915771, -0.0033266544342041016, -0.03913235664367676, -0.07542914897203445, 0.15669500827789307, 0.004552319645881653, -0.5478274822235107, -0.02847810834646225, 0.017484694719314575, 0.22171421349048615, 0.2155347317457199, 0.16491743922233582, -0.273088663816452, 0.0968291386961937, -0.06063598766922951, 0.9826081991195679, -0.5456593036651611, -0.0802561566233635, 0.1178622916340828, -0.13518165051937103, 1.1998729705810547, 0.5250470638275146, -0.9335870742797852, 0.19590337574481964, 0.17220719158649445, 0.41079720854759216, -0.07511141151189804, -0.3271979093551636, 0.04584885761141777, -0.29898133873939514, 0.13292065262794495, 0.43501245975494385, -0.7346005439758301, -0.5344694256782532, 1.411734700202942, -0.5030531287193298, -0.9347919821739197, 0.2860313355922699, 0.821232795715332, -0.60744309425354, 0.12894225120544434, -0.43760284781455994, -0.09891828149557114, 0.20781010389328003, -0.44934940338134766, -0.07196877151727676, -0.6023938655853271, -0.8363418579101562, -0.1538013219833374, -0.12263812124729156, -0.20899896323680878, -0.2989300489425659, -0.2410387396812439, -0.08802537620067596, -0.73582524061203, 0.31944072246551514, -0.979929506778717, 0.44327831268310547, -0.027748510241508484, 0.4614632725715637, -0.14501886069774628, 0.3518747091293335, 0.3676028549671173, 0.7518450617790222, 0.12621887028217316, -0.28418493270874023, 0.579910933971405, -0.7385342717170715, 0.30645912885665894, 0.12261949479579926, 0.4805491864681244, 0.5873795747756958, 0.27968791127204895, -0.5716924071311951, -1.0871914625167847, -0.2086312174797058, -0.5111531615257263, 1.1733393669128418], [0.5100801587104797, 0.05992375686764717, -0.3632546663284302, 0.16203561425209045, 0.2098577469587326, -0.25543680787086487, 0.26148679852485657, -0.20702920854091644, 0.025309082120656967, -0.017472315579652786, -0.8734652996063232, 0.04523367062211037, 0.3975701332092285, 1.1050394773483276, -0.43269237875938416, 0.2996644377708435, -0.19428257644176483, 0.37331297993659973, -1.2859807014465332, 0.22570860385894775, -0.061995960772037506, 0.178980752825737, 0.14057695865631104, -0.690119743347168, 0.26844656467437744, -0.26937705278396606, 0.4786028265953064, 0.022525794804096222, 0.4594804048538208, 0.17338179051876068, 0.19530576467514038, 0.4516477584838867, 0.24190573394298553, -0.050001852214336395, 0.3757617473602295, -0.201766237616539, 0.05028150975704193, -0.09910337626934052, 0.16506102681159973, -0.01812972128391266, -0.1842380166053772, 0.007576420903205872, 0.1670236587524414, -0.030544951558113098, -0.127231165766716, 0.09949332475662231, -0.12137460708618164, 0.16097742319107056, -0.08000838756561279, -0.022755354642868042, 0.16404226422309875, 0.18781426548957825, 0.0934082567691803, -0.04390835762023926, 0.011793732643127441, -0.16187860071659088, 0.11941727995872498, -0.04454424977302551, -0.10793256759643555, -0.19278058409690857, -0.19109220802783966, 0.004244506359100342, -0.17240586876869202, 0.1082700788974762, 0.04981538653373718, 0.16472506523132324, -0.12840822339057922, -0.038458406925201416, -0.018926754593849182, 0.0014318525791168213, 0.05832526087760925, 0.1413125991821289, -0.18644511699676514, -0.1782555878162384, -0.32310205698013306, 0.071146659553051, -0.14659206569194794, 0.4521397352218628, 0.19252605736255646, -0.3282659947872162, 0.5901272892951965, -0.07982812076807022, -1.1712113618850708, -1.8536064624786377, -0.23277977108955383, 0.20514465868473053, 0.10480614751577377, 1.4008057117462158, -0.5061049461364746, 0.11553987860679626, 0.863922655582428, 2.7762467861175537, 0.8200602531433105, 0.015992898494005203, 0.6322997808456421, 0.6575168371200562, 0.27796971797943115, 0.1835886389017105, -0.10505352914333344, 0.183006152510643, -0.8203133940696716, 0.2918255925178528, -0.4563160240650177, -0.22329966723918915, -0.05611762776970863, -0.021224966272711754, -0.07317021489143372, 0.31875401735305786, -0.374300479888916, -0.10274876654148102, 0.30867087841033936, 0.6199806928634644, -0.3982032835483551, -0.7540333867073059, -0.006409416440874338, -0.5222541689872742, -0.4117863178253174, 0.362789124250412, 0.21620580554008484, -0.03863583132624626, -0.06152656674385071, -0.2088910937309265, 0.3381490111351013, 0.929821252822876, 0.08141108602285385, -0.34603631496429443, 1.127000331878662, -0.29624539613723755, 0.08483126014471054, 0.06303343176841736, 0.1785309761762619, 0.5563117265701294, -0.8255560994148254, 0.10159555077552795, -0.4374888241291046, -0.16953371465206146, -0.22746852040290833, -0.6281342506408691, 0.003402208909392357, 0.3951711654663086, 0.05265389382839203, -0.0791018083691597, 0.12759409844875336, -0.2861744165420532], [-0.368862122297287, -0.22056381404399872, 0.19649942219257355, -0.7548927664756775, 0.2773286998271942, 0.5607802271842957, 0.19356976449489594, 0.07784436643123627, -0.4888518452644348, -0.2684440314769745, -0.8508341312408447, -0.18261654675006866, 0.5682364106178284, 0.7120105624198914, -0.5203568935394287, -0.5289008617401123, 0.24656686186790466, 0.4120332598686218, -0.002452823566272855, 0.5901177525520325, 0.2961033284664154, -0.5029366612434387, -0.46538349986076355, 0.3646034598350525, 0.4120887517929077, 0.2054368257522583, -0.17825071513652802, -0.10332705825567245, -0.3714701533317566, -0.21986085176467896, 0.03699181228876114, -0.3342898190021515, 0.32897496223449707, -0.29239127039909363, -0.13946039974689484, -0.9540554881095886, -0.07306157797574997, 0.024922877550125122, 0.09782379865646362, 0.18054497241973877, -0.16897305846214294, -0.04867614805698395, -0.07463369518518448, -0.036606281995773315, 0.12111550569534302, -0.02531757950782776, -0.14828240871429443, 0.04394695162773132, 0.12462499737739563, -0.11258184164762497, 0.13265013694763184, 0.004404157400131226, -0.005666017532348633, -0.02244265377521515, 0.07800489664077759, 0.06528237462043762, 0.1494767665863037, 0.09868407249450684, -0.11611658334732056, -0.13143882155418396, 0.10092493891716003, -0.07912525534629822, -0.040725886821746826, -0.14085787534713745, -0.13340015709400177, 0.004931330680847168, -0.006149515509605408, -0.0003401339054107666, 0.13863995671272278, 0.07932022213935852, 0.01547136902809143, 0.14832207560539246, 0.0603998601436615, -0.0712403655052185, -2.736698865890503, -0.2420569509267807, -0.1475096344947815, 0.09329953044652939, 0.24334381520748138, 0.057630013674497604, -0.3167727291584015, -0.3066611588001251, -0.9005910158157349, -1.380102515220642, -0.2618227005004883, 0.13147424161434174, 0.0013783765025436878, 0.9220616221427917, 0.6085934042930603, -0.6149551272392273, -0.6367029547691345, 0.244967982172966, 