{"conv1d": {"bias:0": [0.06225140020251274, -0.035670842975378036], "kernel:0": [[[3.0398919582366943, 0.2627502977848053]], [[0.48886945843696594, 2.4444034099578857]], [[-1.4520578384399414, 3.335181713104248]], [[-2.4283788204193115, 3.2548165321350098]], [[-3.7691731452941895, 5.119895935058594]], [[-2.6824514865875244, 2.607323169708252]], [[-1.653694748878479, -0.31679946184158325]], [[0.5488170385360718, -2.814586639404297]], [[-2.74269962310791, -0.16315004229545593]], [[-2.458005428314209, -0.569369375705719]], [[-2.0917842388153076, -1.0202925205230713]], [[-1.0893856287002563, -1.998800277709961]]]}, "conv1d_1": {"bias:0": [0.132195845246315, 0.14599938690662384], "kernel:0": [[[0.0416504442691803, 0.04478955268859863], [0.23589828610420227, -0.22009025514125824]], [[-1.089393138885498, -0.7359824180603027], [1.2768747806549072, 2.463062286376953]], [[-0.5057792067527771, -0.41845187544822693], [-0.49141737818717957, 0.011191610246896744]], [[0.13815239071846008, 0.08864403516054153], [-0.23962827026844025, -0.10208425670862198]], [[-0.09602228552103043, -0.1496230512857437], [-0.3133333921432495, -0.18803879618644714]], [[0.44897258281707764, 0.36886829137802124], [-0.2596415877342224, -0.2864082455635071]], [[0.43777331709861755, 0.3582576811313629], [0.535451352596283, 0.012712746858596802]], [[-1.8868612051010132, -0.5433502197265625], [0.45979729294776917, -0.6741467118263245]], [[-0.3420979678630829, 2.66135835647583], [2.1333842277526855, -0.511679470539093]], [[2.021045446395874, -2.2227299213409424], [-2.785947799682617, 2.2439301013946533]], [[0.09937435388565063, -0.3506600856781006], [0.06894010305404663, 0.01253160834312439]], [[-0.20719239115715027, 0.2562868297100067], [0.1364734172821045, -0.1711224466562271]]]}, "dense": {"bias:0": [-0.11194121837615967], "kernel:0": [[0.6254141926765442], [-0.23423193395137787]]}, "lstm": {"bias:0": [0.5452163219451904, 1.921545386314392, 1.0, 1.0, 1.0333099365234375, 0.4021155536174774, 0.5222170352935791, 1.1122270822525024], "kernel:0": [[-3.815140962600708, 1.6613473892211914, -0.6871871948242188, 0.5499856472015381, -2.127223491668701, -1.1869544982910156, 0.08514726907014847, -0.73072350025177], [3.8083691596984863, -0.553228497505188, 0.43196845054626465, -0.41092514991760254, 2.3483152389526367, -2.9137649536132812, 0.1567259132862091, -0.5204868316650391]], "recurrent_kernel:0": [[0.4090367555618286, 0.22031141817569733, 0.09637826681137085, -0.21320375800132751, -0.5203943848609924, -0.1482367366552353, 0.20848241448402405, 0.627022922039032], [-0.4953651428222656, 0.2453090250492096, 0.12273597717285156, 0.19826798141002655, 0.20547926425933838, -0.08477534353733063, 0.7451275587081909, 0.18825159966945648]]}, "input_size": 100}