{"conv1d": {"bias:0": [-0.010345971211791039, -0.009919699281454086, 0.007899371907114983, 0.0013666909653693438, -0.002994745271280408, 0.0006850057980045676, 3.042927710339427e-05, -0.0036912565119564533], "kernel:0": [[[0.43225350975990295, 0.5219714641571045, 0.9104562997817993, 2.822254180908203, -3.4818549156188965, 2.492644786834717, 0.570279061794281, -1.553389072418213]], [[0.4319797456264496, 0.48057931661605835, 0.742236852645874, 2.237294912338257, -2.9279441833496094, 2.462218999862671, 0.567221999168396, -1.3558542728424072]], [[0.4872250258922577, 1.1514370441436768, 0.14274056255817413, 1.3744784593582153, -1.8252198696136475, 2.161419153213501, 0.5659511685371399, -1.2226624488830566]], [[0.6807994246482849, 1.3316659927368164, -0.42845675349235535, 0.2732509970664978, -0.41816961765289307, 1.6025348901748657, 0.6279441118240356, -0.7733625173568726]], [[1.033630132675171, 1.9908958673477173, -1.2291512489318848, -0.41282549500465393, 1.0196596384048462, 1.2286205291748047, 0.5894583463668823, -1.0661555528640747]], [[1.2615647315979004, 1.892985463142395, -1.6164453029632568, -1.1439472436904907, 2.3393447399139404, 0.8314515948295593, 0.5205210447311401, -1.0453979969024658]], [[1.3611364364624023, 2.2538585662841797, -1.777946949005127, -1.2930214405059814, 2.8697664737701416, 0.2888660132884979, 0.7002353668212891, -0.9530454277992249]], [[1.2581610679626465, 2.1577844619750977, -1.8997737169265747, -1.5719841718673706, 2.7635953426361084, 0.12134629487991333, 0.7631584405899048, -1.011061668395996]], [[1.2874804735183716, 1.4635517597198486, -1.6390811204910278, -1.1497867107391357, 2.273707389831543, -0.4359467327594757, 0.8430652022361755, -0.7953681349754333]], [[0.936223030090332, 0.9549500346183777, -1.4484995603561401, -0.7597830295562744, 1.6658270359039307, -0.5261618494987488, 0.7699141502380371, -0.6610314249992371]], [[0.97551429271698, 0.32174545526504517, -0.6305903196334839, -0.09510498493909836, 0.21070359647274017, -0.9116169214248657, 0.34754207730293274, -0.25107795000076294]], [[0.46811380982398987, -0.5706649422645569, -0.18440531194210052, 0.7500844597816467, -1.1606097221374512, -0.8092160224914551, 0.35243865847587585, 0.1455307900905609]]]}, "conv1d_1": {"bias:0": [0.005648364312946796, 0.06742735207080841, -0.005326336249709129, -0.01222385372966528, 0.022372104227542877, -0.001932305982336402, 0.01772073656320572, 0.02857619896531105], "kernel:0": [[[0.038094982504844666, -0.03765079379081726, -0.007973849773406982, 0.12698538601398468, 0.10460422933101654, -0.14838451147079468, -0.09004838764667511, -0.11675924062728882], [0.09243996441364288, 0.1280868798494339, 0.10654895007610321, 0.003740072250366211, -0.03729076683521271, -0.1724495142698288, -0.021215245127677917, -0.17635075747966766], [-0.05274652689695358, -0.03741897642612457, -0.1736203134059906, -0.1261744648218155, 0.00285358726978302, 0.156515434384346, 0.05187468230724335, -0.03191329538822174], [-0.01951281726360321, -0.13704055547714233, -0.04018373787403107, -0.003448501229286194, 0.11988027393817902, -0.0412832647562027, 0.09993182122707367, -0.17036156356334686], [0.00659218430519104, -0.15757033228874207, -0.08466973155736923, -0.02223701775074005, 0.1609041839838028, -0.02490335702896118, -0.0037011653184890747, 0.009595990180969238], [-0.10350604355335236, 0.02389608323574066, -0.15107035636901855, -0.17393970489501953, 0.12323315441608429, 0.08061204850673676, -0.12056779861450195, -0.11071964353322983], [-0.07880900055170059, -0.10421022772789001, 0.0866868644952774, 0.06004926562309265, 0.1451348215341568, 0.10832254588603973, 0.03187136352062225, 0.03588855266571045], [-0.12673713266849518, 0.009686827659606934, -0.1257515698671341, -0.110738106071949, 0.1286817044019699, 0.17322085797786713, 0.09426622092723846, 0.02989041805267334]], [[0.04315486177802086, 0.2325340062379837, 0.30838605761528015, -0.1626635491847992, -0.38980013132095337, -0.06337584555149078, 0.038294751197099686, 0.01180813368409872], [0.03926999121904373, -0.04116502031683922, 0.3404633402824402, -0.376639723777771, -0.13002793490886688, 0.2108883410692215, -0.0566718727350235, 0.4247211217880249], [0.10325713455677032, -0.0648903176188469, -0.02345365844666958, 0.26225534081459045, 0.27311480045318604, -0.0569583922624588, 0.054446060210466385, -0.275923490524292], [-0.49723324179649353, 0.719279944896698, 0.2556878328323364, -1.3933963775634766, -0.7536080479621887, -0.2682594358921051, 0.5015170574188232, 0.6314111948013306], [0.036874428391456604, -0.10269759595394135, -0.0610896460711956, 0.6212728023529053, 0.42471781373023987, 0.11453437060117722, -0.22478832304477692, -0.003030811669304967], [-0.45929840207099915, 0.3621751368045807, -0.04322054237127304, -0.13273458182811737, 0.26489847898483276, 0.18066027760505676, 0.3307746648788452, 0.1689145565032959], [-0.09672144055366516, 0.15239989757537842, 0.04780231788754463, -0.4029013216495514, -0.39971598982810974, -0.22606714069843292, -0.09352973103523254, 0.3319215476512909], [0.05013580620288849, -0.381337970495224, -0.3529726564884186, 0.3385210335254669, 0.43945977091789246, 0.05455252528190613, -0.21784642338752747, -0.4359961152076721]], [[-0.1381203979253769, -0.025219162926077843, 0.29160791635513306, -0.39979517459869385, -0.3854571580886841, 0.13596026599407196, -0.21629509329795837, 0.34334275126457214], [-0.26818621158599854, 0.1859721839427948, 0.42511799931526184, -0.47384515404701233, -0.3562670052051544, 0.06608974188566208, -0.05783512815833092, 0.45267289876937866], [0.04206222668290138, -0.10504420846700668, -0.29225876927375793, 0.18640713393688202, 0.16362980008125305, -0.09637682139873505, 0.1409977525472641, -0.3523000478744507], [0.3170517086982727, 0.9400689601898193, 0.25483113527297974, -0.7295961976051331, -0.5830986499786377, -0.18581317365169525, 0.3767164945602417, 0.3041251599788666], [-0.38432779908180237, -0.38045674562454224, -0.05219260975718498, 0.18383565545082092, 0.09141374379396439, -0.015549260191619396, -0.558533787727356, -0.2211126983165741], [-0.26697513461112976, 0.722062885761261, 0.1889299601316452, -0.7491534948348999, -0.2654935419559479, 0.19183479249477386, 0.8277403116226196, 1.015319585800171], [-0.11736605316400528, 0.3289496898651123, 0.3050632178783417, -0.4031904935836792, -0.24109157919883728, 0.13339552283287048, -0.14174708724021912, 0.21153153479099274], [-0.0029390761628746986, -0.4093911647796631, -0.2943730652332306, 0.5011667609214783, 0.4639258086681366, 0.06837153434753418, -0.12945207953453064, -0.3944821357727051]], [[-0.29112035036087036, -0.4419969618320465, 0.1423991471529007, 0.0829135850071907, 0.016031792387366295, -0.15424083173274994, -0.9869033098220825, -0.3687027394771576], [-0.4354754388332367, -0.9425492882728577, 0.5429537296295166, 0.3431026339530945, 0.04693879932165146, -0.02226109616458416, -1.2966597080230713, -0.5495831966400146], [0.29399698972702026, 0.4953863322734833, -0.5115907788276672, -0.04106197506189346, 0.04530853033065796, -0.052160970866680145, 0.9785128235816956, 0.45778343081474304], [0.6600146889686584, -0.4203527569770813, -0.3234628140926361, -0.03160513937473297, 0.32415279746055603, -0.38483360409736633, -0.4922022819519043, -0.9061397910118103], [-0.7303921580314636, -0.3570960760116577, 0.329534649848938, -0.17511656880378723, -0.22961963713169098, -0.06140914559364319, -0.41079020500183105, -0.01802593469619751], [-0.09324400126934052, -0.9304954409599304, -0.1254478394985199, 0.640873908996582, 0.20197832584381104, 0.15177689492702484, -1.1371062994003296, -0.8395779728889465], [-0.3100552558898926, -0.34147804975509644, 0.20634445548057556, 0.037368178367614746, -0.06749366968870163, -0.16846297681331635, -0.9228850603103638, -0.518256664276123], [0.5596956014633179, 0.6024876236915588, -0.2811335325241089, -0.22730204463005066, -0.20190384984016418, 0.09080178290605545, 1.0562657117843628, 0.6955392360687256]], [[0.329485148191452, 0.4623202383518219, 0.4319145977497101, 0.04436701908707619, 0.553043782711029, -0.4134661555290222, 0.36226344108581543, -0.3783654570579529], [0.311143159866333, 0.6256221532821655, 0.5959224104881287, 0.12619814276695251, 0.8259167671203613, -0.1998341828584671, 0.39549827575683594, -0.4990476369857788], [-0.5143012404441833, -0.40112829208374023, -0.251263290643692, -0.3563903570175171, -0.56095290184021, 0.2505846619606018, -0.42667508125305176, 0.5486589670181274], [-0.37496453523635864, -0.018411405384540558, -0.2178463339805603, -1.161228060722351, -0.659441351890564, 0.2413204163312912, -0.6568794250488281, 0.31349003314971924], [0.3243197500705719, 0.2260783612728119, 0.18537722527980804, 0.6162811517715454, 0.9064024090766907, -0.2661869525909424, 0.8382891416549683, -0.47884175181388855], [-0.14087480306625366, 0.18304580450057983, 0.28461888432502747, -0.2327892929315567, 0.6325201988220215, -0.7500771284103394, 0.24677743017673492, 0.25388815999031067], [0.3224661350250244, 0.4393700957298279, 0.2942569851875305, 0.03526929020881653, 0.4778100252151489, -0.24852311611175537, 0.27928340435028076, -0.36239632964134216], [-0.1333363801240921, -0.6083322167396545, -0.5068038702011108, -0.17321310937404633, -0.4397585988044739, 0.539129912853241, -0.3856924772262573, 0.08336874842643738]], [[0.6749434471130371, 0.14900700747966766, -0.0898570716381073, -0.08363400399684906, -0.21262778341770172, 0.5658948421478271, 0.5732007026672363, -0.7382890582084656], [0.6916258931159973, 0.10629852861166, 0.036232393234968185, 0.017772946506738663, -0.3827405869960785, 0.8268331289291382, 0.6815280318260193, -0.8408291935920715], [-0.7273746728897095, -0.07653272151947021, 0.24359965324401855, -0.001883780350908637, 0.315437912940979, -0.8275333642959595, -0.6407883763313293, 0.7529948353767395], [-0.8515297174453735, 0.5052523612976074, 0.9818568825721741, -0.5896793007850647, 0.7238959074020386, -1.4185134172439575, -0.9846302270889282, -0.003192286705598235], [1.1967148780822754, -0.1739560067653656, -0.7601590752601624, 0.19080376625061035, -0.7654856443405151, 1.2372245788574219, 0.9613494277000427, -0.4447351098060608], [0.7117107510566711, -0.01211762335151434, 0.12037312984466553, -0.20056207478046417, -0.21181218326091766, 0.27432769536972046, 0.5206550359725952, -0.30985721945762634], [0.48129916191101074, 0.14521607756614685, -0.12749992311000824, 0.07674778997898102, -0.23262323439121246, 0.5056187510490417, 0.4695510268211365, -0.595858097076416], [-0.6579799056053162, -0.1726382076740265, -0.05097237229347229, 0.026723189279437065, 0.4448447525501251, -0.5624730587005615, -0.6895943880081177, 0.6824690103530884]], [[-0.1390564739704132, -0.10007186979055405, -0.6989997625350952, -0.19229744374752045, 0.20121312141418457, 0.0059212809428572655, -0.11836785823106766, 0.30134356021881104], [-0.10798179358243942, -0.12298661470413208, -0.4867093563079834, -0.653391420841217, 0.19508446753025055, -0.16144335269927979, -0.20475894212722778, 0.6072134971618652], [0.2059324085712433, 0.36617782711982727, 0.7393063306808472, 0.4816400706768036, -0.4531581699848175, 0.12886576354503632, 0.33805033564567566, -0.9959779977798462], [1.2205681800842285, 0.3278891444206238, 1.8948042392730713, 0.021023981273174286, -0.9388874769210815, 0.43886691331863403, 0.9661039113998413, -3.0002574920654297], [-0.5198180675506592, -0.32412150502204895, -1.8551874160766602, -0.025229284539818764, 0.6644807457923889, -0.36919963359832764, -0.7411600351333618, 2.1189048290252686], [0.03979428857564926, 0.1905195415019989, 0.6632439494132996, -0.19685006141662598, -0.17147549986839294, 0.2943059802055359, 0.10759297758340836, -0.9861335158348083], [0.006159701384603977, -0.23592813313007355, -0.5440155267715454, -0.17428581416606903, 0.2067539393901825, 0.011237535625696182, -0.2727552652359009, 0.3926568329334259], [0.06447914987802505, 0.16947920620441437, 0.12045259028673172, 0.254443883895874, -0.16225041449069977, 0.13730184733867645, 0.04182080924510956, -0.23509487509727478]], [[-0.019211294129490852, -0.3141305148601532, -0.05652656778693199, -0.3250681459903717, 0.07837297022342682, -0.01247149333357811, 0.044663652777671814, 0.5196059942245483], [0.09549020230770111, -0.11655054241418839, -0.18782128393650055, -0.24296753108501434, 0.23117850720882416, -0.14342404901981354, -0.18743066489696503, 0.6579515933990479], [-0.08440601825714111, 0.35129857063293457, -0.15064725279808044, 0.26148056983947754, -0.09550868719816208, -0.08287325501441956, 0.08228053897619247, -0.2323942631483078], [0.059220779687166214, -0.34818780422210693, -1.2548882961273193, -0.3887583911418915, 0.1257081925868988, -0.6634225845336914, -0.7388127446174622, 0.7091283798217773], [0.33039310574531555, 0.1717071384191513, 0.5522794723510742, 0.3340208828449249, -0.15600119531154633, 0.25665217638015747, 0.2567039430141449, -0.3303939700126648], [0.02461363561451435, -0.1998535394668579, -0.34580865502357483, -0.3116115629673004, 0.13812385499477386, 0.08439029008150101, -0.5661141276359558, 0.3251049518585205], [0.0708630159497261, -0.15325313806533813, -0.12896320223808289, -0.3590087890625, 0.26857131719589233, 0.08606033772230148, 0.012351050972938538, 0.3376036286354065], [0.04525657370686531, 0.21017856895923615, 0.4050098955631256, 0.3103677034378052, -0.2645207345485687, -0.08116795122623444, 0.32802003622055054, -0.474560409784317]], [[0.3353303372859955, -0.44909054040908813, 0.4453381299972534, 0.14709928631782532, 0.22129128873348236, 0.25897347927093506, 0.333035945892334, 0.39435455203056335], [0.26900622248649597, -0.5037234425544739, 0.43876028060913086, 0.3109676241874695, 0.00697903661057353, 0.010391104966402054, 0.053071897476911545, 0.6430567502975464], [-0.18461139500141144, 0.48950308561325073, -0.39838770031929016, -0.19935360550880432, 0.07012343406677246, -0.053837575018405914, -0.12108568847179413, -0.7358263731002808], [1.2583205699920654, -0.2489849030971527, -0.6041282415390015, -0.546120285987854, 0.3230744004249573, -0.16214558482170105, -0.1470852792263031, -0.29728057980537415], [-0.33410966396331787, -0.395202100276947, 0.7176147103309631, 0.6636222004890442, -0.307969331741333, 0.20979821681976318, 0.33317217230796814, 0.7550227642059326], [0.8585702776908875, -0.27665290236473083, 0.20194676518440247, -0.3720400333404541, 0.031592436134815216, -0.13358701765537262, -0.0811227336525917, 0.2634538412094116], [0.35353007912635803, -0.6235707998275757, 0.265585720539093, 0.04499352350831032, 0.15693627297878265, -0.0023644505999982357, 0.22212685644626617, 0.515350878238678], [-0.41316360235214233, 0.33283594250679016, -0.26743918657302856, -0.03843230381608009, -0.03376077860593796, -0.11774672567844391, 0.022573312744498253, -0.49241903424263]], [[-0.528401792049408, -1.359065055847168, 0.9713788032531738, 0.9076340794563293, 0.20127980411052704, 0.2817932963371277, 1.1470417976379395, 0.8413003087043762], [-0.5306384563446045, -1.6030970811843872, 1.3447797298431396, 0.8312252163887024, -0.3691093623638153, -0.29113665223121643, 1.682719349861145, 0.9919419884681702], [1.116942286491394, 0.9790913462638855, -0.8218948245048523, -1.222360610961914, -0.07566409558057785, -0.2997490465641022, -1.2065833806991577, -1.1524658203125], [2.25103497505188, -0.7082532644271851, 0.6099230051040649, -0.775446355342865, 0.39972615242004395, -0.1962975263595581, -0.5046718716621399, 0.07206571102142334], [-1.620015263557434, -0.7134860754013062, 0.1620941311120987, 1.3110737800598145, -0.06316547840833664, 0.28066375851631165, 1.0643965005874634, 0.5787677764892578], [2.3310389518737793, -1.760618805885315, 0.9035990238189697, 0.11772386729717255, -0.49579188227653503, -1.3130793571472168, 0.6730117797851562, 0.5829885601997375], [-0.16375915706157684, -1.1179765462875366, 0.9984263181686401, 0.7719472050666809, 0.0023122953716665506, 0.10791661590337753, 1.12519109249115, 0.9399248361587524], [-0.16611817479133606, 1.5393366813659668, -1.1263635158538818, -0.5089102983474731, -0.0032531775068491697, 0.527803361415863, -1.3202919960021973, -0.7552602887153625]], [[-0.00039322860538959503, 1.7479912042617798, -1.120768427848816, -0.2842961847782135, -0.2739960253238678, -0.17228694260120392, -0.9989750385284424, -1.0537829399108887], [0.344969242811203, 2.5271666049957275, -1.4524142742156982, -0.03290168195962906, -0.40014153718948364, -0.21688827872276306, -1.7636767625808716, -1.2180160284042358], [-0.9164952635765076, -1.5641199350357056, 1.1097677946090698, 0.6896527409553528, 1.0290589332580566, 0.9519903063774109, 1.2959474325180054, 1.3781977891921997], [-4.984147548675537, -0.04240661486983299, 1.8963595628738403, 3.1784069538116455, 3.141803026199341, 6.131863117218018, 1.2632395029067993, 2.7108874320983887], [3.694950580596924, 1.4351526498794556, -2.2830967903137207, -2.6256229877471924, -2.793428659439087, -4.43621826171875, -2.2943880558013916, -2.983872175216675], [-2.4805095195770264, 2.617124080657959, -0.3305387496948242, 1.2899136543273926, 0.5189647674560547, 1.920668363571167, -1.4423810243606567, 0.2854878604412079], [-0.3729797899723053, 1.5775617361068726, -0.7683428525924683, 0.11723534762859344, -0.23444437980651855, 0.30327361822128296, -0.8971332907676697, -0.8062689304351807], [0.9168492555618286, -2.185267925262451, 0.9770616292953491, -0.568096935749054, -0.11710651963949203, -0.7800241112709045, 1.2652324438095093, 0.5766339302062988]], [[-0.09899438917636871, -0.020049676299095154, -0.09084589034318924, 0.08203922212123871, 0.03233768045902252, -0.09110686182975769, 0.1368667334318161, -0.04070913791656494], [0.11924292147159576, -0.011774063110351562, -0.12457744032144547, -0.11267150193452835, 0.11636100709438324, -0.015455424785614014, 0.07811857759952545, -0.1584116667509079], [0.10541300475597382, 0.1411261409521103, 0.028634026646614075, 0.030329212546348572, -0.022366613149642944, 0.08395726978778839, 0.15408356487751007, 0.02965506911277771], [0.01615282893180847, 0.07162047922611237, 0.006908923387527466, -0.15369290113449097, 0.10019810497760773, 0.1523517519235611, 0.057135194540023804, 0.10908018052577972], [-0.07469028234481812, 0.1310843676328659, -0.05589763820171356, -0.10848670452833176, -0.07956178486347198, -0.00947338342666626, -0.007901564240455627, -0.00826309621334076], [-0.0909542441368103, -0.15084028244018555, -0.154036283493042, -0.010057330131530762, -0.12449601292610168, -0.09036756306886673, 0.04419994354248047, -0.020740002393722534], [0.09666018187999725, 0.0292176753282547, -0.1622994989156723, 0.0780545324087143, -0.1238514631986618, -0.06149347126483917, -0.052531786262989044, -0.03204323351383209], [0.09962393343448639, -0.04799720644950867, 0.1508331447839737, 0.10871051251888275, 0.1649269014596939, 0.024255260825157166, 0.06302213668823242, 0.024596691131591797]]]}, "dense": {"bias:0": [0.002791685750707984], "kernel:0": [[0.04469280689954758], [-0.057980749756097794], [0.03417336940765381], [-0.20026294887065887], [0.11064404994249344], [-0.2230055034160614], [0.24661549925804138], [0.05605941265821457], [-0.04599231854081154], [0.3790002465248108], [-0.024007948115468025], [0.07934290170669556], [-0.04925569146871567], [0.07427048683166504], [-0.20868463814258575], [0.11085715144872665], [0.05689210817217827], [-0.05258059501647949], [-0.048608843237161636], [0.05585521087050438], [-0.10418273508548737], [-0.04463812708854675], [-0.035319115966558456], [0.10373304784297943], [0.06268278509378433], [-0.07794885337352753], [0.03560039773583412], [0.37179216742515564], [0.0812525525689125], [-0.19379328191280365], [-0.19575802981853485], [-0.03283189609646797]]}, "lstm": {"bias:0": [-0.972134530544281, 1.682476282119751, 1.2815706729888916, 0.19885499775409698, 0.34932929277420044, -0.04880056157708168, 0.4443884491920471, 0.006292152218520641, 0.7381852865219116, 0.6540231108665466, -0.35652071237564087, -0.39006662368774414, 0.7006309628486633, 0.7996466159820557, 0.7254387140274048, 0.14890791475772858, 1.5546427965164185, 1.176890254020691, 0.15049104392528534, 1.0301517248153687, 1.7517216205596924, 0.6748082637786865, 0.5893337726593018, 0.36180606484413147, 1.5443625450134277, -1.0015698671340942, -0.2680266499519348, 0.27202388644218445, -0.19384875893592834, 1.4262540340423584, 0.8255500793457031, 0.4873047173023224, 1.0, 1.0, 1.0, 1.0, 1.0, 1.0, 1.0, 1.0, 1.0, 1.0, 1.0, 1.0, 1.0, 1.0, 1.0, 1.0, 1.0, 1.0, 1.0, 1.0, 1.0, 1.0, 1.0, 1.0, 1.0, 1.0, 1.0, 1.0, 1.0, 1.0, 1.0, 1.0, -0.432382196187973, -0.0983225479722023, -0.12359420210123062, -0.05738447979092598, -0.09056154638528824, 0.5093610882759094, 0.26640620827674866, 0.3521042466163635, -0.07268109172582626, 0.04048005864024162, -0.01464694645255804, 0.21183955669403076, -0.00927597377449274, 0.1783396601676941, 0.059708867222070694, -0.29231777787208557, -0.006601045839488506, -0.0008925413712859154, -0.37055909633636475, 0.016738375648856163, 0.0929790660738945, -0.1946207880973816, 0.04411518573760986, 0.04952961206436157, -0.028666498139500618, -0.4349297881126404, -0.04934096708893776, -0.21495798230171204, 0.049643345177173615, 0.032579727470874786, -0.03991081193089485, -0.01088791061192751, 1.4535940885543823, 1.0913994312286377, 0.35227707028388977, 0.5032462477684021, 0.5152166485786438, 0.12219078093767166, -0.169425830245018, 0.6775005459785461, 0.4338958263397217, 0.833691418170929, -0.25142908096313477, -0.13822446763515472, 0.9971928000450134, 0.7843675017356873, 0.4999138414859772, -0.12838895618915558, 1.106248140335083, 0.5642650723457336, 0.12117697298526764, 1.22357177734375, 0.4846058487892151, 0.3023504316806793, 0.29770874977111816, 0.22379234433174133, 1.2193357944488525, 0.3317597210407257, 0.10803047567605972, 0.5288935303688049, -0.04979564994573593, 0.8529662489891052, 0.20056897401809692, 0.012288464233279228], "kernel:0": [[-0.8954885601997375, -0.2602648138999939, -0.25547030568122864, 0.28182369470596313, -0.10030749440193176, -0.03298736363649368, -0.09761926531791687, -0.51371830701828, 0.12733209133148193, 2.057502031326294, -0.05981133505702019, 0.8006870150566101, -1.3892714977264404, 0.03301798924803734, 0.3833427131175995, 0.09506352245807648, 0.36193621158599854, -0.28816184401512146, 0.6150671243667603, 0.5341430902481079, -0.043276410549879074, -0.6963409185409546, -1.4108593463897705, -0.6408907175064087, 0.0856659933924675, -0.31649863719940186, -0.9204002618789673, -1.7719072103500366, -0.40895137190818787, 0.8597657084465027, -0.02414754591882229, -0.2339598685503006, 0.17636652290821075, -0.18298721313476562, -0.1558459848165512, 0.06372244656085968, -0.018437981605529785, 0.043123796582221985, -0.11848225444555283, -0.19185541570186615, -0.055520638823509216, -0.20540489256381989, 0.11316131055355072, 0.20095773041248322, 0.17635218799114227, -0.19597862660884857, -0.06601101160049438, 0.09073708951473236, 0.012375205755233765, -0.09738993644714355, -0.0806196928024292, 0.10057131946086884, 0.11447443068027496, -0.09805331379175186, 0.097801074385643, 0.08891080319881439, -0.18329104781150818, -0.06432949006557465, -0.20996063947677612, -0.0876024067401886, -0.12628859281539917, -0.16656501591205597, 0.20622391998767853, 0.11426998674869537, -0.058112289756536484, 0.06285341829061508, -1.8157551288604736, -0.22695228457450867, 0.16268205642700195, -0.205590158700943, 0.09454068541526794, -0.8841221928596497, -0.321098655462265, 0.9804178476333618, -0.27470940351486206, -0.0346510149538517, -1.2093589305877686, -0.46295300126075745, -0.4530602693557739, -0.2969253361225128, -0.26530519127845764, 1.50766122341156, -0.258938193321228, -1.4186915159225464, 0.3575085401535034, -0.6106683611869812, -0.5772044062614441, 1.7818036079406738, -0.4305335581302643, -0.2627479135990143, -0.07206998020410538, 0.4810396134853363, 0.1882781982421875, -1.6764194965362549, -0.5273106694221497, -1.0469685792922974, -1.4375524520874023, 0.20613691210746765, 0.6716799736022949, -0.04986046254634857, 0.4110763669013977, -0.019500132650136948, 0.0718267410993576, 0.4525004029273987, 0.0165852140635252, -1.9105900526046753, 0.1069161593914032, 0.5576183795928955, 1.3166998624801636, -0.5326801538467407, -0.2686649262905121, 0.6903896331787109, 0.45038700103759766, 0.23777416348457336, 0.4016152620315552, -0.8799547553062439, -0.012874678708612919, 0.45595988631248474, 0.7102683782577515, 0.3857443034648895, -0.36213913559913635, 0.4514791965484619, 0.7409646511077881, 1.5902327299118042, 0.27734771370887756, -0.5054001808166504, -0.22624443471431732, 0.4291870594024658], [2.2366483211517334, -0.06399176269769669, -0.5221152901649475, -0.55447918176651, 0.021406816318631172, -0.8836632966995239, 0.009144237264990807, 3.0236051082611084, -0.4878254532814026, 1.2325172424316406, 0.2853921353816986, 0.8424959778785706, -0.5296053290367126, -0.1571173369884491, 1.6132537126541138, 0.1540435254573822, 0.722801148891449, -0.028984572738409042, -0.3565775752067566, 0.6110118627548218, 0.13265357911586761, -0.08743464201688766, -0.0941406860947609, -0.7926377058029175, -0.3843923807144165, 0.30114927887916565, 0.6610882878303528, -0.638207197189331, 2.0667927265167236, -0.9042158722877502, -0.6565201878547668, 0.13638678193092346, -0.03657570481300354, -0.13766714930534363, 0.187489315867424, 0.1221529096364975, -0.1153152734041214, -0.10592566430568695, -0.14694814383983612, 0.2019457072019577, 0.17056049406528473, -0.20403476059436798, -0.13695058226585388, -0.17733922600746155, -0.17626351118087769, 0.02984653413295746, -0.17618754506111145, 0.13368870317935944, -0.18762853741645813, -0.15114542841911316, -0.03674738109111786, -0.04472833871841431, -0.1872921735048294, 0.017065510153770447, 0.05139546096324921, 0.09692449867725372, 0.022157475352287292, -0.1784099042415619, -0.10075817257165909, 0.16275058686733246, 0.05101226270198822, 0.19670380651950836, 0.20363368093967438, -0.08816252648830414, 0.09905135631561279, -0.7201000452041626, -0.8390615582466125, -0.9870630502700806, 0.1298707276582718, -0.5343984961509705, 0.29621079564094543, 1.6546998023986816, 0.33692339062690735, 2.279930591583252, -0.013378958217799664, 0.12723258137702942, -0.6329815983772278, 0.34425172209739685, -2.0084280967712402, -0.4779098331928253, 0.5044514536857605, 0.7006626725196838, -0.798108696937561, -0.23717808723449707, -1.224320888519287, -0.9241312146186829, -0.04264936223626137, 1.2262412309646606, -0.6622426509857178, 0.28453654050827026, -0.15402330458164215, -0.6978726983070374, -0.22099941968917847, 2.894545316696167, -0.45868510007858276, 1.145072340965271, 1.4288527965545654, 0.02296818606555462, 0.3514508306980133, 0.861008882522583, -0.1540878266096115, -0.08561994135379791, 0.3012695014476776, -2.7853963375091553, 0.1915583610534668, -0.6722351312637329, -0.11082575470209122, 0.4505365490913391, 0.3818325102329254, 0.35153868794441223, -1.3550710678100586, 0.9529373049736023, -0.2099236249923706, 0.10882735997438431, 0.2844991385936737, -0.9564924836158752, -0.04133836552500725, 0.1093764677643776, -0.11445118486881256, 0.5916543006896973, -0.13670146465301514, -1.0439858436584473, -0.767202615737915, 0.9957943558692932, -1.7284883260726929, 0.3534059524536133, 0.25441914796829224, 0.27641215920448303], [-1.1271264553070068, 0.47504091262817383, -0.13578127324581146, 0.14433100819587708, -0.3588374853134155, 0.3165419399738312, -0.03345080092549324, 0.08148080110549927, -1.1819746494293213, -1.3086085319519043, 0.6789693236351013, -0.3741763234138489, -0.6209108829498291, 0.37059256434440613, -1.111223578453064, -0.07563650608062744, 0.008483568206429482, -0.12119066715240479, -0.8688667416572571, -0.35680779814720154, -0.02211613394320011, -0.23551902174949646, 0.5060637593269348, 0.7450072765350342, 0.28087112307548523, 0.7602438926696777, -0.054675109684467316, 0.6953352689743042, 0.09609002619981766, 0.23097781836986542, 0.3872208893299103, -0.10169172286987305, -0.09527018666267395, -0.12692072987556458, 0.0480455607175827, 0.18646563589572906, -0.16073544323444366, 0.08453552424907684, -0.02928091585636139, 0.07837103307247162, -0.19842538237571716, 0.15216051042079926, 0.0007230788469314575, 0.1394912451505661, -0.015073955059051514, 0.023575186729431152, 0.17610396444797516, 0.19119082391262054, -0.0299750417470932, -0.031758666038513184, 0.054352983832359314, 0.026894748210906982, -0.1338987946510315, -0.12331181764602661, 0.030359581112861633, -0.10489070415496826, 0.20134763419628143, -0.11516168713569641, 0.19514624774456024, 0.12532581388950348, 0.1319049447774887, 0.19452731311321259, -0.13560189306735992, 0.1784275323152542, 0.4597999155521393, -0.7642212510108948, 1.0752805471420288, 0.43509382009506226, 1.341206669807434, 0.310563325881958, -0.23752044141292572, 1.6609989404678345, -2.1634786128997803, -1.6116728782653809, 0.23661014437675476, -0.2035222351551056, -0.9425971508026123, 0.8517856597900391, 1.1888561248779297, 0.15004800260066986, 0.32012489438056946, -1.9944711923599243, -0.24609248340129852, 0.46458321809768677, -0.3463946282863617, 0.07654222846031189, -0.20369063317775726, 1.2750381231307983, 0.09529455006122589, -0.568070113658905, 0.24361871182918549, 0.3670157194137573, -0.040895070880651474, -0.7134120464324951, 0.5661632418632507, -0.4010207951068878, -0.40865132212638855, -0.3496806025505066, -0.350687712430954, -0.38294652104377747, -0.41045820713043213, 0.3428829610347748, -0.3023799657821655, -0.25357264280319214, 0.8034302592277527, 0.7840788960456848, -0.49192047119140625, -0.1182648092508316, 0.4348815083503723, 0.6684970855712891, 0.891706109046936, -0.05545678734779358, -0.13819536566734314, -0.021447710692882538, 0.9830499887466431, 0.6471679210662842, -0.000861309003084898, 0.003886664751917124, -0.4994390904903412, -0.5192465782165527, -0.12211694568395615, 0.2196320742368698, 0.4447171688079834, -0.9883086085319519, -0.14784002304077148, -0.09039410203695297, -0.03929043933749199, -0.014820469543337822], [0.61666339635849, 0.34364327788352966, -0.9041570425033569, -0.18837879598140717, 0.028469014912843704, -0.1836080402135849, -0.014308112673461437, 0.3232986032962799, -0.9404323697090149, -2.324673891067505, -0.1687832623720169, -0.29748085141181946, -0.1550719439983368, 0.08725269138813019, -0.030252153053879738, -0.2794400155544281, 0.5364123582839966, -0.14910997450351715, -0.7584121823310852, -0.3238290250301361, -0.007096116431057453, -0.12049210071563721, 0.4462171792984009, 0.1934712529182434, 0.244105264544487, -0.11430090665817261, -0.16822703182697296, 1.903225064277649, -0.10297569632530212, -0.4052469730377197, -0.07601715624332428, 0.16032803058624268, 0.20073942840099335, -0.06143048405647278, -0.04091571271419525, 0.06166975200176239, -0.06115621328353882, -0.06086359918117523, 0.18673034012317657, -0.09711260348558426, -0.1375381052494049, -0.18695373833179474, -0.04945835471153259, 0.050722911953926086, 0.18805710971355438, -0.042185038328170776, 0.04976429045200348, -0.12198840826749802, 0.0033912211656570435, 0.11043427884578705, -0.11008869111537933, 0.016713902354240417, 0.12661324441432953, 0.1165475994348526, 0.15770436823368073, -0.03870867192745209, -0.20882602035999298, -0.00624316930770874, 0.1913488656282425, 0.12105749547481537, 0.19724203646183014, -0.07887162268161774, -0.05037038028240204, -0.06294938921928406, -0.037263937294483185, 0.18394356966018677, -0.4305548667907715, 0.0362631119787693, 0.08483767509460449, -0.00989548210054636, -0.010965348221361637, 0.15647533535957336, -1.3973199129104614, -2.2114503383636475, -0.03756071627140045, -0.09060417115688324, -0.1331394463777542, -0.10308124870061874, 1.3649996519088745, -0.18287178874015808, -1.2522892951965332, 0.021770194172859192, 0.47116097807884216, -0.9337928891181946, 1.2419171333312988, 0.6962779760360718, 0.5774945616722107, -0.5632511973381042, -0.2855588495731354, 0.13091187179088593, -0.4552462697029114, 0.06587968021631241, -0.1853836476802826, 0.5654299259185791, 0.351726233959198, 0.24347560107707977, 1.0736753940582275, -0.18235015869140625, 0.4721873998641968, 0.14051373302936554, 0.08464741706848145, 0.13694722950458527, 0.0345197468996048, -0.21379460394382477, 0.6957998871803284, 2.0203285217285156, -0.003741912078112364, -0.0433068573474884, 0.1378486603498459, -0.09862956404685974, 0.09277042001485825, 0.3950096368789673, 0.39663276076316833, 0.03964712470769882, 0.784862220287323, 0.3292030692100525, -0.009253970347344875, 0.01701449230313301, -0.803231418132782, -0.078863725066185, -0.04010450839996338, -0.34895214438438416, -0.28437283635139465, -1.7797361612319946, 0.07046373933553696, 0.23898945748806, 0.1428508758544922, 0.34765371680259705], [-0.023076757788658142, 1.1497446298599243, -0.43936237692832947, -0.1317441612482071, 0.5065963864326477, 0.19345684349536896, -0.04838712885975838, -2.656247854232788, 0.8097504377365112, -1.2145771980285645, -0.8787080645561218, -0.06255865097045898, 0.864646315574646, -0.5816358923912048, -1.4933416843414307, -0.5405565500259399, 0.3115032911300659, 0.2096550017595291, 1.136846899986267, -1.0201648473739624, 0.15778394043445587, 0.38726189732551575, -0.35484543442726135, 0.558943510055542, -0.24868281185626984, -0.16269993782043457, -0.6033754348754883, 0.7161901593208313, -1.6437313556671143, -0.15229232609272003, 0.4979960024356842, -1.297945261001587, 0.20876352488994598, -0.17606554925441742, 0.07514356076717377, 0.06995789706707001, -0.002497836947441101, 0.08303095400333405, 0.16403953731060028, -0.07409654557704926, -0.16858631372451782, 0.09882952272891998, -0.20030316710472107, -0.01078738272190094, -0.005337059497833252, -0.18218082189559937, -0.1860399693250656, -0.05521330237388611, -0.20461371541023254, -0.2013087272644043, 0.0561499148607254, -0.19987745583057404, 0.14333827793598175, -0.11468334496021271, -0.09676025062799454, -0.14585715532302856, -0.05483075976371765, -0.017906665802001953, 0.09009356796741486, -0.0890602245926857, -0.11087541282176971, -0.18688428401947021, 0.023523256182670593, 0.06792964041233063, -0.11591733992099762, -0.8181432485580444, -0.30056700110435486, 0.11029647290706635, -0.7297220230102539, 0.4701859951019287, -0.3621726930141449, -1.0338201522827148, -0.6735562682151794, -1.1589007377624512, -0.1360977292060852, -0.4427297115325928, 0.5908113121986389, 0.7524194121360779, -0.6388451457023621, -0.6625226736068726, -0.9441978335380554, -1.325339913368225, 0.033260297030210495, -1.0448791980743408, 0.7562142014503479, 0.7137429714202881, 0.5070335268974304, -0.5708490610122681, -1.0887136459350586, 0.036554478108882904, 0.5004577040672302, 0.1061130240559578, 0.39160752296447754, 0.9370236992835999, 0.955079197883606, -0.11404502391815186, -0.3035144507884979, -0.7934613823890686, 0.1648218184709549, -0.2002604752779007, -0.4553879499435425, 0.4909301698207855, -0.43746626377105713, 2.4466824531555176, -0.49568793177604675, 0.7815675139427185, 0.4536725878715515, -0.2191993147134781, -0.6897204518318176, 0.7734653353691101, 1.2239130735397339, 1.6031450033187866, 0.4358402490615845, -0.04818660765886307, -0.3092133402824402, 0.6803110837936401, -0.07955361902713776, -0.3289918303489685, 0.030773190781474113, -0.4649128019809723, 0.3413032293319702, -0.13749830424785614, 0.2905324399471283, -0.925955057144165, 1.3461695909500122, 0.08480647951364517, 0.1153884008526802, 0.7748897075653076], [0.8216922283172607, -0.8065013885498047, -0.6513014435768127, -0.41314417123794556, -0.5079205632209778, -0.02260545827448368, -0.06376595795154572, -1.3782334327697754, 0.1610981822013855, -1.9565566778182983, -0.08914809674024582, -0.8550063371658325, -0.8805356025695801, 0.08391185849905014, -1.5573865175247192, -0.10616541653871536, 1.9697126150131226, 0.22156067192554474, 0.5039985775947571, -0.7066789269447327, -0.02456306479871273, -0.3727215826511383, 0.7197980880737305, 1.234194278717041, 0.41868388652801514, 0.23325173556804657, -0.5709195137023926, 1.1397228240966797, -0.8868645429611206, -0.8029363751411438, 0.42893487215042114, -0.3552079200744629, 0.061540111899375916, -0.07739637792110443, 0.11320783197879791, -0.19728577136993408, 0.04745428264141083, -0.1621672809123993, -0.03907729685306549, 0.1087179034948349, -0.0030739307403564453, 0.14693348109722137, 0.015499472618103027, 0.12404771149158478, 0.1329844743013382, -0.16810180246829987, 0.18829701840877533, 0.1278524249792099, 0.11958225071430206, -0.017197713255882263, -0.04036940634250641, -0.09293320029973984, 0.19337953627109528, -0.04219244420528412, 0.03512926399707794, 0.014305010437965393, -0.1857069432735443, 0.2015388458967209, -0.13561095297336578, -0.11548779159784317, -0.17072708904743195, 0.017992839217185974, 0.2097214013338089, -0.046958163380622864, 0.022997677326202393, 0.9047967195510864, -0.30112987756729126, -0.0434277206659317, 0.7342312335968018, 0.5032256841659546, -0.37918853759765625, 2.1809194087982178, -0.2575652301311493, -2.2541542053222656, 0.002811245620250702, -0.4489731788635254, -2.4288547039031982, -1.1966323852539062, -0.47621655464172363, 0.5246767401695251, 0.4104195535182953, 2.390957832336426, 0.01550154946744442, 0.8620617985725403, 0.2413351982831955, -1.3705079555511475, -0.03985057398676872, 0.5825656056404114, 0.45976370573043823, 0.30349886417388916, -0.24591785669326782, 0.41580885648727417, -0.13975867629051208, 2.43274188041687, 1.3950916528701782, -0.20448487997055054, 0.8359072804450989, 0.6454738974571228, 0.10119305551052094, 0.04914075881242752, 0.6978810429573059, 0.618414580821991, -0.4681521952152252, 1.1674073934555054, -0.15233947336673737, 1.2277390956878662, 0.18302826583385468, 0.24952572584152222, 0.5546560287475586, -1.084949016571045, 1.334480881690979, -0.6442270278930664, -0.6042231917381287, 0.06424684822559357, 0.14148275554180145, 0.9130268096923828, -0.012133431620895863, 0.31058362126350403, -0.5081720352172852, -1.019912600517273, 0.05642479285597801, -0.5560912489891052, 1.4377381801605225, -1.5017064809799194, 0.5533525347709656, 0.302988201379776, 0.2724458873271942, 0.25199058651924133], [-1.2006735801696777, -0.7134369015693665, -1.6280471086502075, 0.22840748727321625, -0.26102668046951294, 0.5184211730957031, 0.06040841341018677, -1.0639616250991821, 0.4518599808216095, -1.3507664203643799, 0.11182621866464615, -0.6493848562240601, -0.06630159914493561, 0.39527609944343567, -0.9848196506500244, -0.3867681324481964, 1.9102532863616943, 0.18845324218273163, -0.04432230070233345, -0.877549946308136, 0.12456324696540833, -0.21628068387508392, 1.0466277599334717, 0.7342038154602051, -0.4974358081817627, 0.3867548704147339, 0.19843897223472595, 0.9189093708992004, -0.5842733979225159, 0.1802126169204712, 0.3461030423641205, -0.057913389056921005, 0.003951951861381531, 0.19000403583049774, -0.034174829721450806, 0.013652846217155457, 0.08453987538814545, 0.08252696692943573, -0.14395108819007874, 0.1194177120923996, 0.016062185168266296, -0.1530916541814804, 0.2049182504415512, -0.16413423418998718, -0.12169931083917618, 0.18878178298473358, 0.04992897808551788, -0.17997178435325623, -0.05155782401561737, 0.02914033830165863, 0.14289458096027374, -0.17678101360797882, 0.10669304430484772, 0.17548994719982147, 0.12663979828357697, 0.14968620240688324, -0.18109486997127533, 0.20174245536327362, 0.14069391787052155, -0.20075766742229462, 0.1914575845003128, -0.14120230078697205, -0.11053002625703812, 0.05602668225765228, 0.2219368815422058, 0.010899831540882587, -1.7355685234069824, 0.6783496737480164, 0.5065382122993469, 0.3371973931789398, -0.18318849802017212, -0.490077942609787, -0.061640169471502304, -1.6650410890579224, -0.15178930759429932, -0.05317699536681175, -1.2914615869522095, -0.08243555575609207, 1.5125161409378052, -0.2784343957901001, -0.48169368505477905, 2.5565755367279053, 0.1985032707452774, -1.2621430158615112, -1.2090094089508057, 0.17298616468906403, -0.01739347167313099, -0.2450600415468216, -0.6103277206420898, -0.394186794757843, -0.2851737141609192, 0.2801496684551239, -0.020189443603157997, -1.1240839958190918, 0.38267451524734497, -0.223523810505867, -0.38834619522094727, 0.46347928047180176, 0.9090976715087891, -0.49629729986190796, 0.05219368264079094, 0.050507523119449615, -0.1921682059764862, 0.9492349624633789, -0.517733633518219, 0.9749639630317688, 0.002422904595732689, -0.7636886239051819, 0.20415760576725006, -0.20391838252544403, 0.7835993766784668, 0.7498121857643127, -0.6544225215911865, -0.03982553631067276, -0.8287888765335083, 0.6198179721832275, -0.007900886237621307, 0.1805129498243332, -0.3604038655757904, -0.4848840534687042, 0.6866027116775513, 0.40353840589523315, 1.1271510124206543, -1.0377540588378906, 0.5750290751457214, 0.025876617059111595, -0.05698995664715767, -0.37488308548927307], [-0.3634726107120514, -0.10287483781576157, 0.2920877933502197, 0.058736931532621384, 0.6521195769309998, 0.15953987836837769, -0.015942052006721497, -0.7280437350273132, 1.3175324201583862, -2.063037872314453, -0.7980685830116272, 0.039209995418787, 1.9535818099975586, -0.574087381362915, -0.9044386744499207, -0.37105676531791687, -0.0847405418753624, 0.1699535995721817, 1.3703088760375977, -0.35166531801223755, 0.06089784577488899, 0.317522257566452, 0.265290230512619, 0.10678000748157501, 0.28631722927093506, -0.8726320266723633, -0.6004650592803955, 1.5294567346572876, -0.5243821740150452, 0.22880250215530396, 0.31498685479164124, -0.2463168054819107, -0.003743976354598999, 0.039007097482681274, 0.12478731572628021, 0.19983018934726715, -0.19994474947452545, -0.06918570399284363, 0.18424196541309357, -0.03499680757522583, -0.19579695165157318, 0.14031581580638885, 0.171704962849617, 0.12638013064861298, -0.026697635650634766, -0.15014506876468658, 0.03693787753582001, 0.16307558119297028, -0.1485002040863037, -0.18876135349273682, 0.16476891934871674, 0.1874612420797348, 0.006164148449897766, -0.13155053555965424, -0.047732219099998474, -0.015093937516212463, -0.10677257925271988, 0.14690639078617096, -0.10450630635023117, 0.17543961107730865, 0.17826072871685028, 0.02055223286151886, 0.20501865446567535, -0.045098528265953064, -0.4607950448989868, -0.27121973037719727, 0.41638270020484924, 0.2649077773094177, -1.593007206916809, 0.23291096091270447, -0.18873782455921173, 0.8779157400131226, 2.334418535232544, -1.4259111881256104, 0.08464494347572327, -0.2837337851524353, 1.6193294525146484, -0.04855548217892647, 0.8803302049636841, 0.14593347907066345, 1.0153778791427612, 0.22052234411239624, -0.5588861107826233, 0.6798638701438904, -0.9444560408592224, -0.4252486228942871, -0.15497851371765137, -2.5005879402160645, -0.04947836697101593, 0.3400747776031494, -0.17865322530269623, -0.18749305605888367, -0.0938778892159462, -0.576094388961792, 0.5217465758323669, -0.4993496537208557, -0.12521453201770782, 0.08168423175811768, -0.22417975962162018, -0.2315562218427658, -0.06825591623783112, 0.32412582635879517, -0.20935265719890594, 0.5385770797729492, -0.9338772892951965, 1.6554937362670898, 0.5586188435554504, -0.2829684615135193, -1.6582785844802856, 0.14144809544086456, 0.7546020150184631, 0.10593485087156296, -0.2327098250389099, -0.10761874914169312, -0.7827377915382385, 0.8296216130256653, -0.020832862704992294, -0.2484813630580902, -0.366792231798172, -0.15101121366024017, 0.13931816816329956, 0.12544573843479156, 0.7823833227157593, -1.5520461797714233, 0.40023839473724365, -0.10258612781763077, -0.03122779354453087, 0.06312693655490875]], "recurrent_kernel:0": [[-0.016117334365844727, 0.06438799202442169, -0.011839691549539566, -0.016013413667678833, 0.05302130803465843, -0.11280800402164459, 0.1154664158821106, -0.06817147880792618, -0.07910770177841187, 0.032272037118673325, -0.12917450070381165, -0.1679280400276184, 0.0407920703291893, -0.150758758187294, 0.10570796579122543, -0.09873206168413162, 0.0003875669790431857, 0.05523943156003952, 0.0770338699221611, 0.01958135887980461, 0.08801653981208801, -0.05462777242064476, -0.15921826660633087, -0.18107381463050842, -0.019297856837511063, 0.12174099683761597, 0.052878569811582565, -0.028880564495921135, -0.07466892153024673, -0.03945803642272949, -0.021872082725167274, -0.1064147874712944, 0.07761767506599426, 0.04259784519672394, -0.14767415821552277, 0.03701290488243103, 0.03921213001012802, -0.18282786011695862, -0.0984107255935669, -0.10131151974201202, 0.13971026241779327, -0.0827828124165535, 0.13290008902549744, -0.0016652548220008612, 0.05500824376940727, 0.11897651851177216, 0.09653428941965103, 0.009141308255493641, -0.044785451143980026, -0.045285988599061966, -0.08186201006174088, -0.06646792590618134, 0.183762326836586, -0.17198488116264343, 0.07024669647216797, 0.09543740004301071, 0.04236283153295517, -0.11433833092451096, -0.023966945707798004, 0.057125844061374664, 0.03461051732301712, 0.12420496344566345, 0.07710406929254532, -0.007672469597309828, -0.01036028377711773, -0.15146952867507935, -0.010323848575353622, -0.05706290155649185, -0.13228268921375275, 0.21299858391284943, -0.08241204917430878, -0.09628215432167053, 0.04262736812233925, 0.05589782074093819, -0.13421261310577393, 0.09411598742008209, 0.01349574699997902, 0.042743612080812454, -0.12906622886657715, 0.1039922758936882, -0.05798323452472687, -0.04791140928864479, 0.014304736629128456, -0.0853680819272995, 0.1768008917570114, -0.0173359252512455, -0.17473626136779785, 0.02241744101047516, 0.08656865358352661, -0.018433701246976852, 0.021482856944203377, 0.10614225268363953, 0.05648011714220047, 0.011103696189820766, 0.03408269211649895, 0.04120578244328499, 0.05062071606516838, 0.01946049928665161, -0.10477884113788605, 0.062185827642679214, 0.07994793355464935, 0.004263495560735464, -0.08726102858781815, -0.04730234667658806, -0.05464465916156769, 0.07339674979448318, 0.14801368117332458, 0.023821288719773293, 0.05418418347835541, -0.016342435032129288, -0.06990567594766617, 0.09107264131307602, -0.06469742953777313, 0.09491071850061417, 0.13318265974521637, -0.016143472865223885, -0.049646783620119095, 0.001949745579622686, -0.09392059594392776, 0.11654555052518845, -0.0987708792090416, 0.15953804552555084, 0.021126044914126396, 0.0196884423494339, 0.006238030735403299, -0.11056475341320038, 0.022098690271377563, -0.058982305228710175], [-0.054469816386699677, -0.11066938936710358, 0.21480049192905426, -0.10461659729480743, -0.2787935435771942, -0.05018828809261322, -0.19131878018379211, 0.07314340025186539, 0.03713718056678772, -0.041335079818964005, -0.17617963254451752, -0.013272829353809357, 0.10704502463340759, -0.041577279567718506, -0.01205451786518097, -0.03912176191806793, -0.09905603528022766, 0.11946075409650803, -0.02255779132246971, 0.01813550479710102, 0.00915566273033619, -0.09007485210895538, 0.0696692019701004, -0.021759532392024994, -0.1447705328464508, 0.043771129101514816, -0.04409217834472656, 0.015136918984353542, 0.005602797958999872, -0.099349744617939, -0.053525347262620926, 0.09359461814165115, -0.0011868267320096493, 0.06439615786075592, 0.006316940300166607, 0.07154659181833267, 0.12417532503604889, 0.039213839918375015, 0.032087743282318115, 0.0258709117770195, 0.0221767108887434, 0.005182052496820688, -0.10818074643611908, 0.1238793432712555, -0.01739874668419361, 0.0778876543045044, 0.06199388951063156, -0.00839394610375166, -0.017339570447802544, -0.0175566915422678, 0.021818742156028748, 0.015958886593580246, 0.019787196069955826, 0.016306087374687195, -0.017190244048833847, 0.03834214806556702, 0.05480794608592987, 0.06970340013504028, 0.10866142809391022, 0.1573130339384079, -0.048738978803157806, -0.07401750981807709, 0.09342288225889206, 0.07647591829299927, 0.15532875061035156, 0.14006361365318298, 0.045629940927028656, 0.05967593938112259, -0.11909922957420349, 0.06500343978404999, -0.20365573465824127, 0.03899948298931122, 0.012621521018445492, 0.013348360545933247, 0.006952456198632717, 0.0018299308139830828, -0.07542550563812256, -0.20995058119297028, 0.05913558974862099, -0.001893254928290844, -0.0005418835207819939, -0.017139893025159836, 0.0663343146443367, -0.021906184032559395, 0.11467209458351135, -0.07980373501777649, -0.02535400539636612, -0.015702711418271065, 0.04740625619888306, -0.07837902754545212, -0.15568025410175323, -0.03701280429959297, 0.16860415041446686, -0.010067099705338478, -0.16019408404827118, 0.07131514698266983, -1.7721205949783325e-05, 0.1048731654882431, -0.006333283148705959, 0.0026109395548701286, -0.022455722093582153, 0.15270960330963135, 0.09263698756694794, 0.0003814687952399254, -0.014527302235364914, -0.044283512979745865, -0.1676793396472931, -0.1803196668624878, -0.01681177318096161, -0.04144933447241783, 0.1424894481897354, 0.14444038271903992, -0.010763691738247871, 0.07797086983919144, 0.16652312874794006, -0.08522495627403259, 0.06656098365783691, -0.03852736949920654, -0.030689220875501633, 0.024270057678222656, 0.14310292899608612, -0.10413393378257751, -0.006870984099805355, 0.10913369804620743, 0.09071521461009979, -0.02638111636042595, 0.03370581194758415, -0.013727986253798008], [0.08751694858074188, 0.14425460994243622, 0.1482219696044922, 0.08421958982944489, -0.01876254938542843, 0.15621276199817657, -0.05273234844207764, 0.12435843795537949, -0.022579235956072807, 0.1123090609908104, 0.14977861940860748, -0.038239736109972, 0.005910668987780809, 0.09786633402109146, -0.03881978616118431, -0.10005542635917664, -0.2020244598388672, 0.013739999383687973, 0.028008734807372093, 0.0022712177596986294, 0.008393766358494759, -0.0420890636742115, 0.06520584970712662, 0.04126361757516861, 0.03862648829817772, -0.08922330290079117, 0.07865944504737854, 0.048586539924144745, -0.015772931277751923, -0.04426901042461395, 0.08462595194578171, -0.09884276241064072, 0.07299570739269257, 0.015837885439395905, -0.18410003185272217, 0.010628102347254753, -0.12909160554409027, -0.14090238511562347, 0.13106155395507812, -0.10948841273784637, -0.1386704295873642, 0.04977117478847504, -0.034575097262859344, 0.06424513459205627, 0.14781343936920166, 0.07039700448513031, 0.02436903305351734, 0.22286060452461243, -0.012266509234905243, -0.06914755702018738, 0.19351983070373535, -0.027861790731549263, -0.020115744322538376, -0.07877269387245178, -0.05593482404947281, -0.094792939722538, -0.031247276812791824, 0.04797195643186569, -0.013422942720353603, -0.06376007944345474, -0.021892771124839783, 0.05120059847831726, -0.03226926177740097, 0.02148163877427578, 0.07041113823652267, 0.09494445472955704, -0.06270981580018997, -0.01438861433416605, -0.04238366335630417, 0.024225883185863495, -0.07372662425041199, -0.14126087725162506, 0.021832607686519623, 0.08581607788801193, -0.050077248364686966, -0.026238981634378433, -0.05165550485253334, 0.05433187633752823, -0.069988913834095, 0.18077251315116882, -0.1642407923936844, -0.0899902880191803, 0.08014623075723648, 0.025372277945280075, 0.01221241895109415, 0.1530650407075882, 0.1258537918329239, 0.06918025761842728, -0.015591530129313469, -0.07635341584682465, -0.09288793057203293, -0.17477631568908691, -0.09450709074735641, 0.1126255914568901, 0.041763901710510254, -0.22840775549411774, 0.050637416541576385, 0.09455506503582001, 0.00503884069621563, -0.06713970005512238, 0.09524276107549667, 0.040922969579696655, 0.09591273218393326, -0.16971656680107117, -0.03230319917201996, 0.03669213131070137, -0.007312031462788582, 0.03131544962525368, 0.03522935137152672, 0.10237361490726471, -0.011255750432610512, -0.01532310526818037, 0.10344291478395462, -0.006116938777267933, -0.02068275585770607, 0.07188266515731812, 0.09503436088562012, -0.014428521506488323, -0.0018294593319296837, 0.010129447095096111, -0.0834210067987442, -0.06770167499780655, 0.005643532145768404, 0.16831843554973602, 0.0186329148709774, -0.12140065431594849, -0.01764223538339138, -0.05197629705071449], [0.16221371293067932, 0.08736801892518997, 0.006222372874617577, 0.021744998171925545, 0.01573973149061203, -0.051726579666137695, -0.04011359065771103, -0.1615178883075714, 0.14789491891860962, -0.17533037066459656, -0.02329149842262268, -0.027607927098870277, -0.10633455216884613, 0.02630765177309513, -0.02359091117978096, 0.010371726006269455, -0.10833171010017395, -0.13208787143230438, 0.15887510776519775, 0.029855096712708473, -0.023545417934656143, -0.13282005488872528, 0.11792029440402985, -0.03345515951514244, 0.09806037694215775, 0.08487473428249359, -0.017995761707425117, -0.10068319737911224, 0.13778309524059296, -0.10158032178878784, 0.08622826635837555, -0.12764446437358856, 0.14995145797729492, -0.1511579304933548, 0.06917303055524826, 0.05568620190024376, -0.040744468569755554, -0.11381775140762329, -0.04589349776506424, -0.12654128670692444, 0.18994221091270447, -0.03480822592973709, -0.03338401019573212, -0.0413936972618103, -0.008690997958183289, 0.02136308141052723, 0.1569775491952896, -0.01277383416891098, -0.04724656045436859, -0.0514330193400383, 0.10544166713953018, 0.0838242769241333, 0.08230485022068024, -0.0249757319688797, 0.037321802228689194, -0.041120968759059906, 0.11817050725221634, 0.13122902810573578, 0.07310444116592407, 0.08394525945186615, -0.07938515394926071, -0.06602632999420166, -0.03088201954960823, 0.003340040799230337, 0.12105049192905426, 0.04111657664179802, -0.10462714731693268, -0.013138786889612675, 0.04343555122613907, -0.0002864152193069458, 0.05805093050003052, -0.020268915221095085, -0.013864345848560333, 0.008321774192154408, 0.010962005704641342, 0.05196785926818848, 0.06034623831510544, 0.04437075927853584, -0.07976222038269043, 0.03970590978860855, 0.19273456931114197, -0.15066276490688324, -0.2317660003900528, 0.08856882154941559, -0.0824805200099945, -0.06425885856151581, -0.01792287640273571, -0.10940370708703995, 0.02852015756070614, 0.10568441450595856, -0.0324249342083931, -0.08041593432426453, 0.05549485236406326, 0.09894485026597977, -0.13295170664787292, 0.11182345449924469, 0.12158846110105515, -0.09113552421331406, 0.0757693201303482, 0.01615837588906288, 0.020960751920938492, 0.014945512637495995, 0.18632782995700836, -0.03725096583366394, -0.03544527664780617, -0.057390667498111725, -0.06584568321704865, 0.06576474010944366, 0.033231236040592194, -0.08028846234083176, 0.04966124892234802, -0.06459124386310577, 0.0004936456680297852, 0.09808114171028137, -0.1469361037015915, -0.06310290098190308, 0.10302422195672989, -0.0034929760731756687, -0.05631037428975105, -0.037429079413414, 0.04631810635328293, 0.08483032882213593, 0.019452529028058052, -0.06617087870836258, -0.16180464625358582, 0.0031315991654992104, -0.11224091053009033, 0.07680723816156387], [-0.05461376532912254, -0.08325248956680298, -0.05168933421373367, -0.004902244079858065, 0.1442415714263916, 0.09623723477125168, -0.02221076190471649, 0.022058501839637756, 0.05431284382939339, -0.01597798429429531, 0.023996097967028618, -0.07242321968078613, -0.06401170790195465, 0.030076678842306137, 0.01645027846097946, -0.17463979125022888, -0.033701665699481964, -0.22618505358695984, 0.06447292119264603, -0.09968075156211853, -0.1874443143606186, 0.038547080010175705, 0.003920744173228741, 0.011316594667732716, -0.13915038108825684, 0.0735553428530693, 0.014254719018936157, -0.0464777834713459, -0.18479929864406586, -0.042132459580898285, -0.028185894712805748, -0.025997791439294815, 0.06545961648225784, -0.0689263790845871, -0.10649360716342926, 0.16898687183856964, -0.02146460860967636, 0.03482278063893318, 0.04094262048602104, -0.05036715045571327, -0.0035991407930850983, 0.0009556063450872898, 0.08598397672176361, 0.05677815526723862, 0.02840997278690338, -0.06504710763692856, 0.02697785384953022, -0.1625513881444931, 0.04456782713532448, 0.10259754210710526, 0.17181971669197083, 0.039265915751457214, -0.09239409863948822, -0.040564343333244324, -0.19688543677330017, 0.00805835984647274, -0.07359801977872849, -0.09871158003807068, -0.0021698419004678726, 0.129925936460495, 0.049839574843645096, 0.16929958760738373, -0.0066046565771102905, 0.03821386769413948, 0.24929046630859375, 0.02040991187095642, 0.21351490914821625, -0.13164162635803223, -0.055032841861248016, -0.021881230175495148, -0.09654765576124191, -0.11346052587032318, -0.05961190536618233, -0.100485660135746, 0.03257686644792557, -0.028878072276711464, -0.06411954015493393, 0.17408302426338196, 0.058089155703783035, -0.001252408605068922, 0.0020748355891555548, -0.02694961428642273, -0.041828006505966187, -0.002851079683750868, -0.00826429482549429, 0.059230443090200424, 0.06527601927518845, -0.015213057398796082, -0.07085256278514862, -0.05498029291629791, 0.01171988807618618, 0.19799765944480896, 0.044992540031671524, -0.06559699773788452, 0.04898194223642349, 0.08777716755867004, -0.03693028539419174, -0.09368295222520828, -0.07707711309194565, 0.0563092939555645, 0.04956292361021042, 0.22111599147319794, -0.03599909693002701, 0.07827040553092957, -0.09097814559936523, 0.07233770936727524, -0.026195738464593887, 0.03044871613383293, -0.1607801914215088, -0.036108750849962234, -0.05623538792133331, -0.05628877133131027, -0.09702042490243912, -0.037246327847242355, -0.05836553871631622, 0.0015716804191470146, 0.021703073754906654, -0.13111478090286255, 0.027051953598856926, -0.07461579889059067, 0.14341002702713013, -0.09051582962274551, -0.08822901546955109, 0.0006519419839605689, -0.051096007227897644, 0.024172233417630196, 0.018665499985218048, -0.07178880274295807], [0.02480541542172432, -0.0003442973829805851, 0.13062810897827148, 0.042790498584508896, -0.049071237444877625, -0.07592624425888062, 0.09774500131607056, 0.08134812861680984, -0.04539699852466583, -0.03514305502176285, -0.00941813737154007, 0.100841224193573, 0.04712862893939018, 0.09227627515792847, -0.07526791095733643, 0.029562540352344513, 0.005947548896074295, -0.21231667697429657, 0.036496035754680634, -0.1639164388179779, -0.10596603155136108, -0.20521590113639832, 0.08005040884017944, -0.16231362521648407, -0.05527298152446747, -0.19623492658138275, 0.043271832168102264, -0.053161732852458954, -0.0927676409482956, 0.041726987808942795, 0.04787720367312431, -0.004212789237499237, -0.046186186373233795, 0.03162307292222977, 0.05752129480242729, 0.14146016538143158, 0.13684134185314178, 0.002918060403317213, -0.038724880665540695, -0.1748688817024231, -0.005875446833670139, 0.04782862961292267, -0.0027198754251003265, 0.032888591289520264, 0.08286937326192856, 0.02772483043372631, -0.0030916498508304358, 0.06690513342618942, 0.04123329743742943, -0.03205335512757301, 0.05953936651349068, 0.025507992133498192, 0.005288947373628616, 0.06995698809623718, 0.05231095850467682, 0.014135162346065044, -0.11566969007253647, 0.018182482570409775, 0.27099335193634033, -0.0686342716217041, -0.17896845936775208, 0.07295069098472595, -0.1208387240767479, -0.052351467311382294, 0.01659582555294037, -0.02687748521566391, 0.024707157164812088, -0.01723223179578781, -0.0892307460308075, 0.04182390496134758, 0.21209821105003357, -0.00427877064794302, 0.06979139149188995, 0.014780974015593529, 0.028838209807872772, -0.1299489438533783, 0.05564473569393158, -0.27703216671943665, 0.18742816150188446, -0.03325476497411728, -0.03152519464492798, 0.08444032818078995, 0.06049145385622978, -0.07717587053775787, -0.02042720466852188, -0.11483176797628403, -0.050139669328927994, 0.005695665255188942, -0.12121102213859558, -0.05452901870012283, 0.002721792319789529, 0.10916203260421753, -0.09840376675128937, -0.08622497320175171, 0.0364064946770668, 0.03320269286632538, 0.035951245576143265, -0.03507118299603462, -0.00046209245920181274, 0.06013977527618408, -0.07149004191160202, -0.00836293213069439, -0.051254045218229294, -0.17504577338695526, 0.08638196438550949, 0.13027521967887878, 0.08789801597595215, -0.06561487168073654, 0.05383370816707611, 0.05332131311297417, -0.06973306834697723, -0.019194629043340683, -0.04022326320409775, 0.04091167449951172, -0.0050216917879879475, 0.07428248971700668, -0.04194090887904167, -0.03567105159163475, -0.04179561883211136, 0.0865607038140297, 0.00839963462203741, 0.12076733261346817, 0.06961038708686829, -0.06548894941806793, -0.1482749879360199, -0.06885548681020737, -0.09517942368984222, -0.040213607251644135], [-0.027268728241324425, 0.059546712785959244, 0.03963872045278549, 0.06604845076799393, 0.04955296218395233, 0.016442295163869858, -0.08135789632797241, -0.10790596157312393, -0.048300862312316895, 0.02176283858716488, 0.03546779975295067, 0.021963324397802353, -0.05539458245038986, -0.015595362521708012, 0.09260011464357376, 0.09762049466371536, 0.033407390117645264, -0.05517398938536644, -0.06667990237474442, -0.09015540033578873, -0.010620404034852982, -0.026736637577414513, -0.14095482230186462, -0.022186368703842163, 0.10354533791542053, 0.02714848518371582, 0.04488028585910797, 0.0527096763253212, -0.0596129335463047, 0.10078698396682739, 0.07343428581953049, 0.055076032876968384, 0.028254974633455276, -0.0525350384414196, 0.09412200003862381, -0.277159720659256, 0.04023846611380577, -0.03265732526779175, -0.01693074032664299, -0.09253720194101334, -0.0049257585778832436, 0.06804528087377548, -0.017352629452943802, 0.05997984856367111, -0.03597388416528702, 0.04943341016769409, 0.12357882410287857, -0.002028847811743617, -0.16330459713935852, -0.015412608161568642, 0.061715155839920044, -0.26988691091537476, -0.03259042277932167, 0.1726837307214737, -0.08191412687301636, 0.12807057797908783, 0.0014881676761433482, 0.024489637464284897, -0.03237765654921532, -0.08566359430551529, -0.016985278576612473, 0.04437587782740593, -0.09859427809715271, -0.03764049708843231, 0.13171052932739258, -0.13541120290756226, -0.03939518332481384, -0.029261721298098564, 0.11427915841341019, 0.024529380723834038, 0.016216060146689415, -0.03738009184598923, -0.05932944267988205, -0.07083307206630707, 0.09831272065639496, -0.11153718084096909, 0.02392197586596012, -0.02596084401011467, 0.030332116410136223, 0.11879165470600128, -0.006071196869015694, 0.18908022344112396, -0.09989947080612183, -0.016468729823827744, -0.05230434983968735, 0.06996817886829376, -0.051536787301301956, 0.009515715762972832, -0.05307759344577789, 0.04264417663216591, 0.01578514464199543, 0.060975249856710434, 0.08332531899213791, -0.07258366793394089, -0.2879498600959778, -0.13542841374874115, -0.07244984060525894, 0.041426680982112885, 0.09116916358470917, -0.051912903785705566, 0.14911794662475586, 0.2704896330833435, -0.03629332035779953, -0.011594072915613651, -0.036495231091976166, -0.05635311082005501, 0.1752508133649826, -0.11517532169818878, -0.017474768683314323, 0.021590135991573334, 0.14871641993522644, 0.1342901587486267, -0.0578734427690506, 0.07870755344629288, -0.010758696123957634, 0.010519642382860184, 0.033126477152109146, 0.05575735494494438, -0.11214318871498108, -0.05436355620622635, -0.021457726135849953, 0.040731821209192276, -0.036435216665267944, 0.1478508561849594, -0.018673725426197052, 0.0918164998292923, 0.09692022204399109, 0.04693637788295746], [0.08624298125505447, -0.04271576926112175, 0.14482958614826202, 0.0023016093764454126, 0.04137517139315605, 0.1003231331706047, -0.046320561319589615, 0.03740149363875389, -0.07164055109024048, 0.07161036133766174, 0.0317964106798172, 0.08836931735277176, 0.15337251126766205, 0.075738325715065, 0.057934924960136414, 0.12812931835651398, 0.04552488029003143, 0.10663653165102005, 0.012488853186368942, 0.015378079377114773, -0.03210379555821419, -0.03695607930421829, -0.1182737946510315, -0.0611024908721447, 0.05543067678809166, -0.16492754220962524, -0.17773723602294922, 0.045700881630182266, 0.09499398618936539, -0.0006400563288480043, -0.006597499828785658, -0.07652032375335693, 0.15262596309185028, -0.18183472752571106, 0.06580143421888351, 0.05696618929505348, -0.03640574589371681, 0.06214951351284981, 0.02238452062010765, -0.13650968670845032, -0.08911165595054626, -0.03455265238881111, -0.10729530453681946, -0.017629962414503098, 0.04291027784347534, 0.037798844277858734, 0.14903110265731812, 0.16464610397815704, 0.03146038576960564, 0.11056824028491974, 0.08617527037858963, 0.11003822088241577, 0.052323173731565475, -0.03283291310071945, 0.07365373522043228, 0.11364936828613281, 0.038209218531847, -0.140150249004364, -0.1345030963420868, 0.10121431201696396, 0.12667638063430786, 0.041214026510715485, 0.1440742015838623, 0.1608976125717163, 0.07026991248130798, -0.15109197795391083, 0.14212310314178467, -0.14534547924995422, 0.20323464274406433, 0.023402266204357147, 0.07379069924354553, 0.03594685345888138, 0.05886425822973251, -0.002621319144964218, 0.012850973755121231, 0.05045124143362045, 0.08618728071451187, -0.09238016605377197, -0.0004967888817191124, -0.05987263470888138, -0.1364370584487915, -0.032738279551267624, -0.08579672873020172, -0.04336857423186302, 0.10534676909446716, -0.007082777097821236, -0.052304528653621674, 0.08750416338443756, 0.15576457977294922, 0.13103321194648743, 0.07320442795753479, -0.03525650501251221, -0.004134973045438528, 0.0010012219427153468, -0.06024320051074028, -0.03981165960431099, -0.013833485543727875, 0.10664436221122742, 0.05085034668445587, 0.045379623770713806, -0.041117988526821136, 0.04935954138636589, -0.158628448843956, -0.0420573391020298, 0.011178165674209595, 0.02624889276921749, -0.12730500102043152, 0.07353175431489944, -0.025878025218844414, -0.04750090464949608, 0.018097324296832085, 0.04653960466384888, -0.04747704043984413, -0.12529143691062927, -0.011279599741101265, 0.053116098046302795, -0.010725661180913448, -0.01160427462309599, 0.010323848575353622, -0.01590370386838913, 0.10756415128707886, -0.08015964180231094, 0.0264077577739954, -0.19149667024612427, -0.025485852733254433, 0.11692984402179718, -0.1335577815771103, -0.10797052085399628], [0.048422671854496, 0.08616694062948227, -0.0046734269708395, -0.10449802875518799, 0.08071887493133545, -0.03683766722679138, -0.06810968369245529, -0.043683044612407684, 0.03575409576296806, 0.19126848876476288, 0.07738238573074341, 0.09475032985210419, -0.14000724256038666, 0.05182357132434845, -0.05913738161325455, 0.0655578151345253, 0.10043223947286606, -0.07501541078090668, 0.013106726109981537, 0.0068436432629823685, 0.07533708959817886, -0.07993009686470032, 0.01840214803814888, 0.16631466150283813, 0.056260887533426285, 0.0428941547870636, 0.013297559693455696, 0.07303350418806076, -0.09398521482944489, -0.017032958567142487, 0.08632897585630417, 0.0948949083685875, -0.023949958384037018, 0.03997160121798515, -0.09405741840600967, 0.07839221507310867, 0.09113701432943344, -0.08161170035600662, -0.04866666719317436, -0.031806621700525284, 0.12132468819618225, 0.008157985284924507, 0.11699651181697845, -0.03041151911020279, -0.06356831640005112, 0.05776058882474899, 0.06304533779621124, 0.058380793780088425, 0.17263026535511017, 0.034904565662145615, -0.035581134259700775, -0.011323485523462296, 0.0380505695939064, 0.08411281555891037, -0.1346045285463333, 0.0047407131642103195, 0.04095099866390228, 0.004933919757604599, 0.015094542875885963, 0.059761106967926025, -0.049718573689460754, -0.06296666711568832, -0.102623850107193, 0.015046554617583752, -0.09858707338571548, 0.10474558919668198, 0.04246782511472702, -0.1284269243478775, 0.14039218425750732, 0.052082359790802, -0.0716610923409462, 0.057375468313694, 0.0020789452828466892, 0.053680360317230225, -0.1266305148601532, 0.0030835350044071674, 0.0543362982571125, -0.10735726356506348, 0.04438987374305725, 0.007030198350548744, -0.13264010846614838, -0.08707959204912186, -0.042096205055713654, -0.21160094439983368, 0.12180206924676895, -0.10575204342603683, -0.08590700477361679, 0.014042694121599197, -0.007975802756845951, 0.02247026562690735, -0.048327427357435226, 0.19722485542297363, -0.089383065700531, 0.04682173207402229, -0.09043999016284943, -0.06126147136092186, -0.004183750133961439, 0.14123189449310303, -0.10004888474941254, -0.20865695178508759, 0.13961906731128693, -0.12306429445743561, 0.14159078896045685, 0.1517680287361145, -0.13121482729911804, -0.06957176327705383, -0.061235927045345306, -0.13381990790367126, -0.04037415236234665, 0.033496156334877014, -0.003172411350533366, -0.027240419760346413, 0.07684728503227234, -0.052388157695531845, -0.08297190815210342, -0.025762513279914856, -0.1600763499736786, -0.012686495669186115, 0.037073682993650436, 0.01274825632572174, 0.010904976166784763, -0.05008510500192642, -0.28017833828926086, -0.06849522888660431, -0.019860995933413506, -0.043735697865486145, -0.1389567106962204, 0.06719541549682617], [-0.05252939835190773, -0.04607544094324112, 0.06520659476518631, 0.001510096830315888, 0.1317843645811081, -0.019443055614829063, -0.002427445724606514, 0.08552532643079758, -0.0919012501835823, -0.05257474631071091, 0.1279318928718567, 0.06560161709785461, 0.14904865622520447, -0.05017617344856262, -0.12224608659744263, -0.2915976047515869, 0.0035844219382852316, -0.14317911863327026, -0.14464068412780762, -0.022108493372797966, 0.09737764298915863, -0.03394586592912674, -0.09034845232963562, -0.07349203526973724, -0.08668548613786697, -0.11346055567264557, -0.050211112946271896, -0.05363323912024498, 0.15224424004554749, 0.08168736100196838, 0.05891162529587746, -0.17787732183933258, -0.04302758723497391, 0.007387878373265266, 0.08889263868331909, 0.07022948563098907, -0.02108377404510975, -0.03263063356280327, 0.09032206982374191, -0.07852596789598465, -0.04293425381183624, -0.03243933245539665, -0.09697659313678741, 0.022319898009300232, -0.06612570583820343, 0.03484644740819931, -0.030703406780958176, -0.04416317120194435, 0.140397310256958, 0.07490363717079163, -0.03605731204152107, -0.13848312199115753, 0.010927604511380196, 0.2026374489068985, 0.0001872936263680458, 0.003208472393453121, 0.027741722762584686, -0.023644477128982544, -0.0748259499669075, -0.019836511462926865, 0.06320197135210037, 0.15784521400928497, -0.004606002476066351, -0.042960524559020996, -0.09370885044336319, -0.02947491593658924, -0.13469015061855316, 0.006252718158066273, -0.010901184752583504, 0.06337416172027588, -0.1759980022907257, -0.2135869413614273, -0.0073163160122931, 0.0056593650951981544, -0.11414222419261932, 0.03364178538322449, -0.04224985092878342, -0.06467628479003906, 0.03441286459565163, 0.08024711161851883, 0.12158410996198654, -0.009639174677431583, -0.15518507361412048, 0.06958068907260895, -0.10097981989383698, -0.06853660941123962, -0.17835834622383118, 0.06563965231180191, -0.03976520523428917, 0.0052281576208770275, 0.0024293132591992617, 0.03295236825942993, 0.1141144335269928, -0.042690206319093704, -0.020062150433659554, -0.048575758934020996, 0.026328537613153458, -0.027443140745162964, 0.14818906784057617, 0.03731638565659523, -0.07374933362007141, -0.15047933161258698, 0.2087888866662979, 0.05024907737970352, 0.03805849328637123, -0.10092978179454803, -0.03206150606274605, -0.0521773099899292, -0.02503802254796028, -0.0719909593462944, -0.039249468594789505, 0.03198207914829254, -0.05138717219233513, -0.09897773712873459, 0.00985812395811081, -0.0006066730711609125, 0.09447672218084335, 0.08225008100271225, 0.09550530463457108, 0.01913519948720932, 0.014532811939716339, -0.05510720610618591, -0.12671837210655212, -0.10807884484529495, 0.08305478096008301, -0.09243212640285492, 0.11825565248727798, -0.05475851148366928], [0.19275932013988495, -0.10858407616615295, 0.16792528331279755, 0.08634945005178452, -0.09876519441604614, -0.07227545976638794, -0.12720778584480286, 0.08280178904533386, -0.019659584388136864, -0.03285419940948486, -0.11243908852338791, 0.193153977394104, -0.10066946595907211, -0.06461799144744873, -0.03544377535581589, -0.16734649240970612, 0.09087119996547699, -0.0173514261841774, -0.06580047309398651, 0.08590159565210342, -0.04351228475570679, 0.15057076513767242, 0.06520233303308487, -0.03663231059908867, 0.11953030526638031, 0.05469473451375961, -0.13356755673885345, 0.040973540395498276, 0.005117090418934822, 0.10084324330091476, -0.15068459510803223, 0.08838454633951187, 0.0057809362187981606, 0.10011006891727448, -0.009876376017928123, 0.07823267579078674, -0.0760817900300026, -0.12686869502067566, -0.0583796352148056, -0.01969604380428791, -0.01544969528913498, -0.02492741122841835, -0.0491466298699379, 0.012719706632196903, -0.017382798716425896, 0.02903948351740837, -0.02183067426085472, -0.12197700142860413, 0.13898634910583496, -0.022755369544029236, 0.010490670800209045, 0.029264742508530617, -0.04900994524359703, 0.030926980078220367, 0.019202537834644318, 0.23373177647590637, -0.058490410447120667, 0.12161227315664291, -0.05700211226940155, -0.11799974739551544, -0.13430622220039368, -0.03829558938741684, 0.0027791671454906464, -0.10164043307304382, 0.08653825521469116, -0.009793594479560852, 0.005322612822055817, 0.01012904942035675, 0.09545938670635223, -0.08783920109272003, -0.02629801072180271, 0.11995990574359894, 0.11328592896461487, -0.08855053037405014, -0.037603989243507385, -0.12167239189147949, -0.07166893780231476, -0.009011151269078255, -0.0758277103304863, -0.07582756876945496, -0.01070023700594902, -0.07469312101602554, -0.12362953275442123, 0.1129750907421112, 0.017232444137334824, 0.00605950690805912, -0.14279454946517944, 0.02483820728957653, 0.07866363227367401, -0.017220165580511093, 0.049342747777700424, -0.010659663937985897, -0.07480749487876892, 0.1002267375588417, 0.03854041174054146, 0.006656015291810036, 0.05485144630074501, 0.0365222692489624, -0.0503980778157711, -0.028474094346165657, 0.16697464883327484, 0.12379685789346695, -0.027127109467983246, -0.06370005011558533, -0.08614053577184677, 0.046227142214775085, 0.14485017955303192, 0.11049137264490128, -0.16981300711631775, -0.032605137676000595, -0.22468066215515137, -0.0028062816709280014, -0.0012615863233804703, -0.0019417963922023773, -0.02644999697804451, -0.10875672847032547, -0.0543595626950264, 0.17051902413368225, 0.07014945149421692, 0.01319287158548832, -0.08858615905046463, -0.0393567755818367, 0.08924213796854019, 0.06875482946634293, -0.02058711089193821, -0.08557840436697006, -0.005741279572248459, -0.12369326502084732], [-0.012069961056113243, -0.02570480853319168, -0.0035975815262645483, 0.03624804690480232, -0.03203648701310158, 0.009452419355511665, -0.12844018638134003, -0.11397077143192291, -0.0356656089425087, -0.09817562997341156, 0.057154905050992966, -0.07583069801330566, -0.07772000879049301, 0.10353527963161469, -0.04238509759306908, 0.138661727309227, 0.033662814646959305, -0.09920109808444977, -0.11884554475545883, -0.00540916295722127, -0.0024772384203970432, -0.05805113911628723, -0.10478440672159195, -0.11816230416297913, 0.06905484944581985, -0.06518945097923279, 0.10037414729595184, 0.0027626638766378164, 0.08105245977640152, 0.11388355493545532, 0.03048517182469368, 0.1162843108177185, 0.07814454287290573, 0.17057283222675323, 0.049689505249261856, 0.02934844233095646, 0.1530701071023941, -0.06419099122285843, 0.01354553084820509, -0.1741647869348526, -0.0792173445224762, 0.011173269711434841, -0.09258197993040085, -0.09911539405584335, -0.20643341541290283, -0.05072754994034767, -0.047769054770469666, -0.0324321985244751, 0.025309327989816666, 0.13793683052062988, 0.0633975937962532, 0.015085266903042793, -0.03536226972937584, -0.09374109655618668, -0.07413958758115768, -0.01465691439807415, -0.036268774420022964, -0.07930584996938705, 0.03495628386735916, -0.010669994167983532, 0.12101703882217407, -0.040418025106191635, -0.2566904127597809, 0.03564813733100891, 0.09052693843841553, -0.019358167424798012, -0.0014260824536904693, 0.04222073033452034, 0.03595733642578125, -0.03887806087732315, -0.05369676277041435, 0.04392114281654358, 0.20497480034828186, 0.1809433251619339, -0.05558905005455017, -0.05835222452878952, 0.04488297179341316, 0.10922871530056, -0.14423274993896484, 0.054092466831207275, 0.03661307692527771, -0.037317682057619095, 0.12809741497039795, 0.017300130799412727, 0.01669570617377758, -0.0989660918712616, 0.08769865334033966, 0.151952862739563, 0.03797268494963646, -0.015540873631834984, -0.02421850897371769, 0.05320625379681587, 0.07384663820266724, 0.0757964700460434, -0.008461502380669117, 0.015647176653146744, 0.13914702832698822, -0.10759146511554718, -0.007347536273300648, 0.07987614721059799, 0.07277858257293701, -0.14811772108078003, -0.09412676841020584, 0.01219524908810854, -0.1636934131383896, 0.008813004940748215, -0.12227163463830948, -0.0169123113155365, -0.04943062365055084, -0.0795031413435936, 0.03757303208112717, -0.05125436186790466, 0.042938198894262314, -0.024821842089295387, -0.011561784893274307, -0.0940418392419815, 0.019876830279827118, -0.1294424831867218, -0.003747260197997093, 0.2017643302679062, 0.02924705483019352, 0.05900473892688751, 0.14914971590042114, 0.07309447973966599, 0.18720439076423645, 0.08773190528154373, 0.10588454455137253, -0.05942040681838989], [0.023015083745121956, -0.13004617393016815, -0.0819130465388298, -0.02057967521250248, 0.003199930302798748, 0.08761902898550034, -0.016189739108085632, -0.0005527040921151638, -0.04512210190296173, 0.079506054520607, 0.2429732382297516, 0.0279669389128685, -0.10083819925785065, -0.04544668644666672, 0.03998442366719246, -0.09444613754749298, -0.09222292900085449, 0.001440392341464758, 0.10792987793684006, 0.06803324073553085, -0.012828896753489971, -0.21046632528305054, 0.023880735039711, -0.09837454557418823, 0.11369624733924866, 0.05054737254977226, -0.1748346984386444, 0.08314569294452667, -0.10623998194932938, 0.017265424132347107, -0.019787123426795006, -0.12538601458072662, -0.019253816455602646, 0.07198651880025864, 0.04991549998521805, -0.24419233202934265, 0.16860456764698029, -0.18825262784957886, -0.11570604145526886, -0.041729193180799484, -0.059734176844358444, -0.13578017055988312, 0.011997243389487267, 0.10144083946943283, 0.02414029650390148, 0.14826756715774536, -0.18680037558078766, 0.05174587666988373, -0.10449527949094772, 0.06129945442080498, -0.06505627930164337, 0.013298321515321732, -0.07507432997226715, 0.07790716737508774, 0.030707329511642456, 0.011372269131243229, -0.031059741973876953, 0.06554047763347626, -0.02729894407093525, 0.11036507040262222, -0.029634764418005943, -0.059583280235528946, 0.017846880480647087, -0.0436706505715847, -0.10315471142530441, 0.012922464869916439, -0.05021265149116516, -0.25766870379447937, -0.12211675941944122, 0.037582799792289734, 0.05658159777522087, -0.00010951701551675797, -0.018895061686635017, 0.014946331270039082, 0.00576772540807724, -0.040140219032764435, 0.08135205507278442, -0.07485681772232056, -0.0994463637471199, -0.11386360973119736, -0.0025681413244456053, 0.11263597011566162, 0.05327371880412102, 0.02749914862215519, 0.04869040474295616, -0.06698910892009735, 0.1593850553035736, 0.053155165165662766, 0.04400783032178879, 0.004558278247714043, -0.17826677858829498, 0.029027631506323814, -0.01668393611907959, 0.0935087502002716, 0.055428244173526764, 0.16733711957931519, -0.12784375250339508, -0.098591648042202, -0.0008943649008870125, 0.12553100287914276, 0.039591047912836075, 0.06594692170619965, 0.06820522248744965, 0.06392677128314972, 0.06069713085889816, -0.016613896936178207, -0.056296687573194504, 0.053620595484972, -0.10755737870931625, -0.0827522873878479, 0.06533430516719818, 0.02802359312772751, -0.028139596804976463, -0.0023071051109582186, -0.03311987221240997, -0.013715952634811401, 0.021867573261260986, -0.03655833378434181, 0.13219265639781952, -0.09213913977146149, -0.12003772705793381, -0.1111387237906456, 0.06589455902576447, -0.030460307374596596, 0.014260582625865936, 0.005125365685671568, -0.014073312282562256, -0.07463210076093674], [-0.051352355629205704, 0.040310293436050415, -0.07902293652296066, 0.10988331586122513, -0.123935766518116, -0.06215392053127289, -0.010433634743094444, -0.08340651541948318, 0.029634596779942513, 0.08141382038593292, -0.06726419925689697, 0.27725785970687866, 0.043474625796079636, -0.11015241593122482, -0.07770056277513504, -0.07926253229379654, 0.033490803092718124, -0.09498340636491776, -0.05493898689746857, -0.03977133333683014, -0.051534298807382584, -0.013994905166327953, -0.14658811688423157, -0.08210750669240952, 0.007265547290444374, 0.10254049301147461, 0.17373673617839813, 0.00868329219520092, 0.03226132318377495, -0.0721665471792221, -0.0013285333989188075, 0.11569367349147797, -0.10371062159538269, -0.0891851931810379, -0.030149422585964203, -0.010693492367863655, -0.06141087785363197, -0.09483698010444641, -0.023437388241291046, -0.015550265088677406, -0.05584898963570595, 0.015034666284918785, -0.06614996492862701, -0.10830802470445633, 0.007388237863779068, 0.012070918455719948, -0.03705163672566414, -0.025779662653803825, -0.01950429007411003, -0.006975253112614155, 0.08315607905387878, 0.16626250743865967, 0.025952812284231186, -0.08318063616752625, 0.09984899312257767, -0.08691094070672989, -0.13740143179893494, -0.06936811655759811, -0.17656049132347107, 0.002292152028530836, -0.05510368198156357, -0.007362190634012222, 0.015833135694265366, -0.09653252363204956, -0.04074849188327789, -0.008741550147533417, -0.1100730374455452, -0.04959423840045929, -0.006851315964013338, 0.14089272916316986, -0.08869270980358124, -0.06319314241409302, 0.08871664106845856, 0.10469963401556015, 0.0616484060883522, -0.11287607252597809, 0.13634300231933594, 0.11104876548051834, 0.26545846462249756, -0.17232677340507507, -0.05641134828329086, -0.04399986192584038, -0.09273847937583923, 0.07616410404443741, 0.140825092792511, 0.02478347159922123, 0.032133616507053375, -0.07843304425477982, -0.04154455289244652, 0.01988714374601841, -0.014992477372288704, -0.00168254179880023, -0.015373678877949715, 0.14943626523017883, 0.02710837312042713, 0.06646815687417984, -0.029389560222625732, -0.04435935243964195, 0.18718542158603668, 0.029965896159410477, 0.03216938301920891, 0.16659720242023468, -0.09986916929483414, 0.055507540702819824, -0.021672934293746948, -0.015494649298489094, -0.1429026573896408, -0.07073482871055603, 0.18241170048713684, -0.006736651062965393, 0.140127494931221, -0.025250373408198357, 0.08520471304655075, -0.16640605032444, -0.0039208438247442245, 0.02426745556294918, -0.03559344634413719, -0.017111193388700485, -0.14423365890979767, -0.016243843361735344, -0.04525182396173477, -0.03198090195655823, -0.06188686564564705, -0.0009141025366261601, 0.0020885723643004894, -0.15995480120182037, 0.05548445135354996, 0.0338202640414238], [-0.018687214702367783, 0.061927471309900284, 0.010730303823947906, -0.11475548148155212, -0.023506339639425278, 0.189059317111969, -0.043333351612091064, 0.01777581498026848, -0.2542835772037506, -0.06296950578689575, 0.058696139603853226, 0.02643682062625885, -0.001767502399161458, 0.07584241777658463, -0.08250661194324493, 0.05007178708910942, -0.10950222611427307, 0.12088673561811447, -0.009138018824160099, 0.104721300303936, -0.10860864073038101, 0.02013944834470749, 0.09306327253580093, -0.1994706094264984, 0.004155217669904232, 0.06345313787460327, -0.01596941612660885, 0.05555122345685959, 0.05313209071755409, 0.008932015858590603, -0.07643548399209976, 0.02826501801609993, -0.192216694355011, -0.09354976564645767, 0.013038834556937218, 0.03796821087598801, 0.029660064727067947, 0.2325020432472229, -0.12350741773843765, -0.1349867284297943, 0.1376752257347107, 0.1473168283700943, 0.10283230245113373, 0.03964642807841301, 0.0351576991379261, 0.11399020254611969, -0.03839820995926857, -0.07996556907892227, -0.03266378119587898, -0.0755094513297081, 0.043963342905044556, -0.13985277712345123, 0.13098536431789398, -0.015515096485614777, -0.06041746959090233, -0.0268052089959383, 0.10357910394668579, -0.022905193269252777, 0.0443786084651947, -0.1019364595413208, -0.13542905449867249, -0.03755145147442818, -0.0491931326687336, 0.004898791667073965, 0.10657216608524323, 0.034026362001895905, 0.07548946887254715, -0.08069781959056854, -0.06346607953310013, -0.03708586096763611, -0.10510983318090439, -0.09976442158222198, 0.07167388498783112, 0.0900576189160347, 0.13808903098106384, -0.018138470128178596, 0.07127338647842407, 0.035586707293987274, -0.11638966202735901, -0.10195110738277435, -0.025713760405778885, 0.03226148337125778, -0.05970332399010658, 0.044286809861660004, -0.03012305125594139, 0.026752278208732605, -0.09786239266395569, -0.0871092900633812, -0.016501324251294136, -0.02459009177982807, 0.12682120501995087, -0.11144667863845825, 0.032390594482421875, 0.08607489615678787, -0.051313742995262146, -0.1496749371290207, -0.08881936222314835, -0.08967740833759308, 0.0038428057450801134, 0.05344431847333908, -0.041638631373643875, -0.08659277111291885, -0.10479635745286942, 0.16515934467315674, -0.038087788969278336, -0.16222572326660156, -0.04530651494860649, -0.030038217082619667, -0.05323464050889015, -0.008580776862800121, -0.12437638640403748, -0.12495420128107071, -0.06790308654308319, -0.032542042434215546, 0.09915821254253387, -0.0031200649682432413, -0.053215593099594116, -0.13667012751102448, -0.046608537435531616, -0.024621235206723213, -0.16961106657981873, -0.02461746521294117, -0.05430370196700096, -0.047088686376810074, 0.02967815287411213, -0.10672744363546371, -0.11606566607952118, 0.021544329822063446], [-0.04758847877383232, -0.08344128727912903, 0.045537009835243225, -0.04107380285859108, -0.08882151544094086, 0.0667629987001419, 0.038728564977645874, -0.05114596337080002, -0.07802657783031464, 0.236360102891922, 0.05333089455962181, -0.0706661120057106, -0.07372289150953293, -0.07046100497245789, 0.10185988247394562, 0.09120801836252213, -0.006876475643366575, -0.009491415694355965, 0.01849169284105301, -0.03593399003148079, -0.07820960134267807, -0.02155718207359314, 0.051107462495565414, -0.013086235150694847, 0.02983301505446434, -0.09654045104980469, -0.039138346910476685, -0.04686050862073898, -0.04918089881539345, 0.04657141864299774, 0.0761091336607933, -0.06596958637237549, 0.10570990294218063, 0.10703334212303162, 0.12702228128910065, 0.07280053943395615, -0.05421089380979538, 0.057487260550260544, 0.027927350252866745, 0.12026845663785934, 0.09395325183868408, 0.017947837710380554, -0.12516017258167267, 0.003825576975941658, -0.12343346327543259, -0.0875326618552208, 0.011224472895264626, -0.13943785429000854, 0.03171822801232338, 0.033324286341667175, -0.08073024451732635, 0.07538304477930069, -0.012041694484651089, -0.016913682222366333, -0.007836288772523403, -8.464278653264046e-05, -0.17088916897773743, -0.14179104566574097, 0.11791209131479263, 0.04847129061818123, -0.024990126490592957, -0.12570349872112274, 0.026717282831668854, -0.08232820779085159, -0.031381428241729736, -0.032889317721128464, 0.019067557528614998, -0.200557142496109, 0.07515296339988708, -0.0014023128896951675, -0.10401836037635803, -0.024983877316117287, -0.04535883665084839, 0.05910760909318924, -0.022281650453805923, -0.04479757696390152, 0.025381790474057198, -0.037980590015649796, -0.055014487355947495, 0.10066331177949905, 0.15173596143722534, -0.09302674233913422, 0.14225254952907562, 0.02350509725511074, -0.04587720334529877, 0.20818831026554108, 0.05889236554503441, -0.0020908070728182793, 0.06361521035432816, 0.07461684942245483, 0.0539596788585186, 0.011963184922933578, -0.042020853608846664, 0.1040845587849617, -0.05313405022025108, -0.06436484307050705, 0.027985522523522377, 0.05769069492816925, 0.012269093655049801, -0.09630285203456879, -0.09667694568634033, 0.10210973024368286, 0.08461545407772064, -0.052486661821603775, 0.07351381331682205, 0.024321721866726875, -0.03403279557824135, -0.018692947924137115, -0.05775989592075348, -0.13513663411140442, -0.10669731348752975, -0.001228412613272667, -0.10535337775945663, -0.1279851496219635, 0.1494111269712448, -0.04003266245126724, 0.13176026940345764, 0.0673014372587204, -0.22678221762180328, 0.14869146049022675, -0.1860664188861847, -0.006778959650546312, -0.05750240385532379, -0.06121687591075897, -0.2230866253376007, -0.12244958430528641, 0.11334513127803802, 0.16786181926727295], [0.11212776601314545, -0.19090533256530762, 0.0022532199509441853, -0.1622162014245987, -0.01815616898238659, -0.2086544781923294, -0.03257129341363907, 0.0025220937095582485, -0.028902601450681686, 0.06058601662516594, -0.024771563708782196, -0.0073937419801950455, -0.031037554144859314, 0.024395743384957314, -0.017112012952566147, -0.11067362874746323, 0.01326883863657713, 0.0015280959196388721, -0.17458662390708923, -0.17912571132183075, -0.017577391117811203, 0.12660354375839233, -0.0611494816839695, -0.00664711557328701, -0.07946456223726273, -0.045052461326122284, -0.09316285699605942, -0.06871587783098221, 0.0896737277507782, 0.0878741517663002, -0.049940433353185654, 0.06065120920538902, -0.12018802762031555, -0.07656369358301163, 0.00199847761541605, 0.1274576187133789, 0.08147299289703369, -0.18738999962806702, -0.06812238693237305, -0.03272489085793495, 0.13338951766490936, -0.08474203944206238, -0.00878741405904293, 0.009218966588377953, -0.05331119894981384, -0.0016858726739883423, 0.12786881625652313, 0.026360303163528442, 0.040159281343221664, -0.0008166888728737831, 0.08219801634550095, -0.015459056943655014, -0.11029240489006042, -0.11072514951229095, -0.1342708021402359, -0.13010747730731964, 0.03426999971270561, 0.1482122838497162, -0.06994026154279709, -0.053994812071323395, 0.06585077941417694, -0.0028072474524378777, -0.002376081421971321, 0.18257108330726624, -0.029577167704701424, -0.048501890152692795, 0.0035569551400840282, -0.07646355032920837, -0.01785433664917946, -0.05186165124177933, 0.16094371676445007, 0.01566453091800213, 0.05429881438612938, -0.12060249596834183, -0.14012697339057922, -0.07422051578760147, -0.01957334205508232, 0.1573362946510315, -0.08238720893859863, 0.03236338496208191, 0.030223671346902847, 0.21663659811019897, -0.0383882150053978, -0.0753084123134613, 0.03306242823600769, 0.08550385385751724, 0.12477375566959381, 0.05634089559316635, -0.006746566388756037, -0.06005237624049187, -0.06929168850183487, -0.14870114624500275, -0.024268461391329765, 0.09842732548713684, 0.04563384875655174, -0.036104995757341385, -0.09589042514562607, 0.03105558454990387, -0.016922205686569214, 0.01637149229645729, -0.14173994958400726, 0.020636295899748802, 0.07617594301700592, -0.034584544599056244, -0.09825892001390457, -0.1356881707906723, -0.0242955069988966, -0.07311644405126572, 0.12025932967662811, 0.09011544287204742, 0.11339402943849564, 0.01726415753364563, -0.1958542764186859, -0.008053946308791637, 0.11539412289857864, 0.11480741202831268, -0.05324939638376236, -0.053209707140922546, -0.0135038448497653, 0.017070483416318893, -0.12031404674053192, 0.05381864309310913, 0.03605099394917488, -0.033946506679058075, -0.11303885281085968, 0.006703031249344349, -0.07919225096702576, 0.1003638505935669], [0.18572312593460083, 0.19346770644187927, 0.14830894768238068, 0.0402129590511322, -0.049698274582624435, -0.12331655621528625, -0.0008143261075019836, -0.06848808377981186, -0.11789529025554657, 0.051730018109083176, -0.0019121691584587097, -0.137700155377388, -0.08647709339857101, -0.15354743599891663, -0.022053858265280724, -0.09095151722431183, 0.12566299736499786, 0.03660650551319122, 0.06482502818107605, -0.038640305399894714, -0.05500660836696625, 0.12946557998657227, 0.1583198755979538, -0.11810152977705002, -0.09552115947008133, 0.044791627675294876, 0.06226508319377899, 0.027071362361311913, 0.06284298747777939, 0.062227774411439896, 0.016286607831716537, 0.04034360125660896, -0.18120619654655457, -0.08877716213464737, -0.007940851151943207, -0.13304699957370758, 0.058413222432136536, -0.016698647290468216, 0.053857866674661636, 0.0898866280913353, -0.03066113218665123, 0.02201400138437748, 0.12278462946414948, 0.05555659532546997, 0.14417758584022522, -0.05889652296900749, -0.01943330094218254, 0.12426166236400604, 0.17070843279361725, -0.029658649116754532, 0.014547093771398067, 0.02583569847047329, 0.01776467263698578, -0.03966637700796127, -0.01828795298933983, -0.09955394268035889, -0.07340341806411743, 0.026201102882623672, 0.11599336564540863, 0.09767738729715347, -0.03132088482379913, 0.007668308913707733, 0.02679351717233658, 0.04097265377640724, 0.06200597435235977, -0.09727063030004501, 0.14934758841991425, 0.13396531343460083, 0.13160231709480286, 0.17472892999649048, -0.09814585745334625, 0.002364426851272583, -0.12982474267482758, 0.049309685826301575, 0.03286850452423096, -0.061074189841747284, 0.005423677619546652, 0.09031765908002853, 0.12396293133497238, 0.13331562280654907, -0.0601792074739933, 0.1432710886001587, 0.03228601813316345, -0.01543369609862566, -0.04769962280988693, -0.11591930687427521, 0.038623515516519547, 0.02545003592967987, 0.09713950753211975, 0.12463274598121643, 0.017655985429883003, 0.08272263407707214, -0.022368982434272766, 0.08777822554111481, -0.031211229041218758, -0.000418640673160553, -0.13785481452941895, -0.01893874816596508, 0.0774974599480629, 0.10757406055927277, 0.0022111544385552406, -0.12038576602935791, 0.07370539754629135, 0.014251716434955597, 0.006370219402015209, -0.03180636838078499, -0.027613123878836632, 0.04448014870285988, -0.10891242325305939, -0.249263733625412, 0.024256056174635887, 0.0124320387840271, 0.032862111926078796, -0.04645847901701927, -0.11662121117115021, 0.03111983649432659, 0.0484180748462677, 0.05182266607880592, 0.012372439727187157, 0.1286952793598175, -0.02697029709815979, -0.11918234825134277, 0.15780380368232727, -0.021662356331944466, -0.041148342192173004, 0.10476309061050415, 0.03818172588944435, 0.025801800191402435], [-0.07178854197263718, -0.1312849372625351, -0.023634251207113266, -0.14584581553936005, -0.11443307250738144, 0.0888754278421402, 0.03433714061975479, -0.04150661453604698, -0.2178853452205658, 0.15163235366344452, -0.04564320668578148, 0.041879985481500626, -0.10427237302064896, -0.02952401340007782, -0.08731434494256973, -0.00910905934870243, -0.013306180015206337, -0.011452941223978996, 0.03294631466269493, -0.00032731855753809214, 0.026892688125371933, -0.010806099511682987, -0.11461786180734634, -0.055387139320373535, -0.15717747807502747, 0.007962621748447418, 0.0498562715947628, -0.015608212910592556, 0.05613755062222481, 0.033826589584350586, 0.0775783360004425, -0.0445019006729126, -0.03282642364501953, -0.06809365749359131, 0.01709030009806156, 0.024626387283205986, -0.19536906480789185, -0.009633238427340984, 0.0025786827318370342, -0.07485600560903549, 0.013263785280287266, -0.08503995090723038, 0.04077078402042389, -0.17109449207782745, -0.018610946834087372, -0.02748933434486389, -0.013979485258460045, -0.08155441284179688, -0.0901307761669159, -0.08803374320268631, -0.016430417075753212, 0.2146195024251938, -0.04219640791416168, -0.03161345422267914, -0.27549082040786743, 0.05612925440073013, -0.07554467022418976, 0.030075788497924805, -0.014372036792337894, 0.10485921055078506, -0.03509501367807388, -0.14885830879211426, -0.04721704497933388, 0.10601776093244553, -0.1047649085521698, -0.05094899982213974, 0.04691740870475769, 0.06459423154592514, -0.015133502893149853, 0.1048312708735466, -0.05846736580133438, 0.00733545096591115, 0.039544276893138885, -0.11723924428224564, -0.04156935214996338, 0.02520335465669632, 0.012740539386868477, -0.19949695467948914, -0.04470553249120712, 0.08636067807674408, -0.015685882419347763, 0.02309081144630909, -0.047803543508052826, 0.0789363756775856, -0.07680530101060867, -0.03600126877427101, -0.03991913050413132, -0.07864666730165482, -0.04676881060004234, -0.10525207221508026, -0.0570128969848156, 0.06478410959243774, -0.06970805674791336, 0.03640320152044296, -0.029421459883451462, -0.11268103122711182, 0.11710060387849808, 0.09761074930429459, 0.07100708782672882, -0.06232883036136627, -0.05852363631129265, 0.004728249739855528, -0.011795875616371632, 0.1262936294078827, 0.054045483469963074, 0.02504066377878189, 0.09141696989536285, 0.07487066090106964, -0.038822658360004425, -0.08796669542789459, 0.05088763311505318, -0.05580523610115051, 0.16499528288841248, 0.13949567079544067, -0.1039113849401474, 0.12783341109752655, 0.09799966216087341, -0.030364535748958588, -0.0220089890062809, -0.19256651401519775, -0.05299973115324974, 0.16008567810058594, 0.11398785561323166, 0.04486159235239029, 0.07417788356542587, 0.13456061482429504, -0.01551208645105362, -0.21117691695690155], [-0.052716027945280075, 0.0697837695479393, 0.11301358044147491, 0.023785779252648354, 0.008705612272024155, -0.06407826393842697, 0.002010820899158716, -0.07647348195314407, -0.054288025945425034, 0.04232408478856087, -0.06288591772317886, 0.021240703761577606, 0.009242445230484009, -0.04574143886566162, 0.2450581043958664, -0.004035818390548229, -0.10356418788433075, -0.06384475529193878, -0.051141202449798584, 0.17023931443691254, -0.07617589831352234, -0.0541350394487381, -0.15663617849349976, 0.007071180269122124, 0.12866121530532837, -0.055371493101119995, -0.04576529562473297, 0.053315505385398865, 0.05320469290018082, -0.1615900844335556, -0.12594552338123322, 0.1173253282904625, -0.03763546049594879, -0.010361064225435257, 0.03490589186549187, 0.08046349138021469, 0.08968135714530945, -0.03321795538067818, -0.15073150396347046, -0.00939415767788887, -0.09521736204624176, 0.07012811303138733, 0.04050343483686447, 0.059237346053123474, 0.11156591027975082, -0.09700791537761688, 0.009728292003273964, -0.04538434371352196, -0.19719165563583374, 0.06492401659488678, -0.09506487846374512, 0.09306365251541138, 0.07635444402694702, -0.05745186656713486, 0.03710956126451492, -0.060886528342962265, 0.13009457290172577, 0.04061860218644142, 0.17016009986400604, 0.03348621726036072, -0.0677257627248764, -0.10120601952075958, -0.0812353640794754, 0.2733728587627411, 0.017648151144385338, -0.20733962953090668, -0.09029965102672577, 0.1485307216644287, 0.10786432027816772, -0.10962294042110443, -0.11642926931381226, -0.005777278915047646, -0.05573001876473427, -0.008997762575745583, -0.08246158808469772, -0.08530903607606888, 0.0512334369122982, 0.03417745605111122, 0.024973120540380478, 0.053465791046619415, -0.011061129160225391, -0.08003716915845871, 0.05389651656150818, -0.017602093517780304, -0.11858201026916504, 0.07867453992366791, -0.013831880874931812, 0.06120186671614647, -0.04160080850124359, 0.009551497176289558, -0.1021013855934143, 0.06695421785116196, -0.06810599565505981, -0.09834021329879761, 0.07778681814670563, 0.03766504302620888, 0.028790222480893135, -0.05277951434254646, 0.015141485258936882, -0.01473391056060791, -0.0910390093922615, 0.10994608700275421, 0.10455246269702911, 0.04724842682480812, -0.02382698655128479, -0.04315453767776489, 0.07916396856307983, -0.05658973753452301, -0.010717914439737797, 0.10455472022294998, -0.06514091044664383, -0.07811368256807327, -0.04592686519026756, -0.0738113522529602, -0.1377943456172943, 0.16479037702083588, 0.03228563070297241, 0.009906450286507607, 0.15779706835746765, 0.004028767347335815, -0.047337744385004044, -0.0987255871295929, -0.09487762302160263, -0.1002841368317604, 0.06170934438705444, -0.1334696263074875, 0.11089206486940384, -0.08516017347574234], [-0.044076185673475266, -0.0924212783575058, 0.07344000041484833, 0.0876215249300003, -0.08552692085504532, -0.08043435961008072, 0.012014324776828289, -0.008968619629740715, -0.20606131851673126, -0.07684208452701569, 0.019280558452010155, 0.03563389927148819, -0.0836266577243805, -0.027399763464927673, 0.02550973743200302, -0.06857065111398697, -0.19622506201267242, 0.055451907217502594, -0.004383503459393978, -0.13467836380004883, -0.10150563716888428, 0.08936602622270584, -0.11428575962781906, -0.11432763934135437, 0.06781516969203949, 0.018686221912503242, 0.09400239586830139, 0.12182352691888809, -0.09054430574178696, -0.11667649447917938, 0.04993504285812378, -0.07182053476572037, 0.15279066562652588, -0.04148080572485924, -0.27999433875083923, 0.010819381102919579, -0.08568155020475388, 0.016599150374531746, -0.051207926124334335, 0.046496495604515076, 0.021000713109970093, -0.16044652462005615, -0.11658470332622528, -0.007915159687399864, -0.2150561660528183, -0.06626690924167633, 0.017798801884055138, 