{"conv1d": {"bias:0": [0.009477888233959675, 0.010383320041000843, -0.024516424164175987, -0.0183756984770298, 0.009298134595155716], "kernel:0": [[[1.7804518938064575, -3.164215564727783, -0.30778801441192627, 0.2588663399219513, -2.1793947219848633]], [[1.02118980884552, -3.0718867778778076, 0.05673808231949806, 0.29172879457473755, -2.135287284851074]], [[0.16368038952350616, -2.5123343467712402, 0.6349471807479858, 0.5271090865135193, -1.6862380504608154]], [[-0.957283079624176, -1.368989109992981, 1.4080710411071777, 0.6572321057319641, -0.7961969375610352]], [[-1.890708327293396, -0.5558558106422424, 2.0677146911621094, 0.6092103719711304, -0.4438728988170624]], [[-3.036548137664795, 0.29225778579711914, 2.375434160232544, 1.001043438911438, 0.613189160823822]], [[-3.2862534523010254, 0.7219136953353882, 2.584531545639038, 0.9529767036437988, 1.3503916263580322]], [[-3.440053939819336, 0.7726194262504578, 2.4989919662475586, 0.932207465171814, 1.5771524906158447]], [[-2.7177395820617676, 0.9346608519554138, 2.2351131439208984, 1.087929606437683, 1.8889604806900024]], [[-1.701393485069275, 0.5489303469657898, 1.203431248664856, 0.8928185701370239, 1.5630241632461548]], [[-0.3167538642883301, -0.08690565079450607, 0.5802105069160461, 0.6796665191650391, 1.4404706954956055]], [[1.981250286102295, -1.0438367128372192, -0.6601595282554626, 0.4591714143753052, 0.675909161567688]]]}, "conv1d_1": {"bias:0": [0.03843932971358299, 0.022279508411884308, 0.00017532234778627753, -0.06559865176677704, -0.03421933576464653], "kernel:0": [[[0.05667955055832863, -0.2784593105316162, -0.3545745015144348, -0.09374617785215378, -0.13304781913757324], [0.2261863499879837, -0.10034852474927902, -0.13869483768939972, 0.15844035148620605, -0.05106591433286667], [-0.05417343229055405, -0.15665729343891144, 0.44981032609939575, 0.2873072326183319, 0.3262486457824707], [-0.10130501538515091, 0.10511568188667297, 0.502830445766449, 0.1162736713886261, -0.14012867212295532], [-0.22543133795261383, 0.1697949320077896, 0.5228849649429321, 0.20576123893260956, 0.0634920597076416]], [[-0.13350582122802734, -0.22326794266700745, -0.5402951836585999, -0.3720264136791229, -0.20042535662651062], [0.15409909188747406, -0.34035685658454895, -0.8135552406311035, 0.7136502265930176, -0.281767874956131], [-0.17162953317165375, 0.2423635870218277, 0.960698664188385, 0.3905803859233856, 0.3881096839904785], [-0.4447445273399353, -0.18865035474300385, 0.5767369270324707, 0.09838611632585526, 0.06675711274147034], [-0.03246084600687027, -0.6355512738227844, 0.10554391890764236, 1.0687804222106934, -0.3048112988471985]], [[-0.3250506520271301, -0.15727044641971588, -0.07534889876842499, 0.0371481254696846, 0.06519012153148651], [0.36049872636795044, -0.2630809247493744, 0.19283753633499146, 1.2322514057159424, -0.23852823674678802], [0.047842659056186676, 0.27436330914497375, 0.06914880126714706, -0.2292410433292389, -0.0015988873783499002], [-0.19081714749336243, 0.2582642734050751, 0.45679759979248047, -0.2903566360473633, 0.3148922622203827], [-0.21791456639766693, -0.0789172351360321, 0.3824000358581543, 0.5458753705024719, -0.18167714774608612]], [[-0.0007898265612311661, -0.2417416274547577, 0.7988467812538147, 0.8400039076805115, 0.12376067042350769], [0.2785912752151489, 0.11195535957813263, -0.8216826915740967, -0.07454807311296463, -0.21507345139980316], [0.2596985399723053, 0.1905432492494583, -0.23001205921173096, -0.736558735370636, -0.01706467755138874], [3.9228034438565373e-05, 0.23900820314884186, -0.15478558838367462, -0.45897477865219116, -0.22513915598392487], [0.2761487066745758, 0.07812700420618057, -0.9259045124053955, -0.774628221988678, -0.32001930475234985]], [[-0.14444340765476227, -0.3856413662433624, 0.6350743174552917, 0.841222882270813, 0.0914686843752861], [0.041816797107458115, -0.1318291425704956, -0.40700358152389526, 0.9704737067222595, 0.22681555151939392], [0.017875567078590393, 0.2733139097690582, -0.5951495170593262, -1.0889118909835815, -0.026288924738764763], [0.03610784560441971, 0.025152646005153656, -0.45779526233673096, -0.7574744820594788, -0.054227374494075775], [0.09787467867136002, -0.08219216763973236, -0.6422379612922668, -0.8642273545265198, -0.044422447681427]], [[0.6962538361549377, 0.9701036810874939, 0.5023863911628723, -0.8473708629608154, -0.5487999320030212], [0.24887193739414215, -0.6530117392539978, -0.6743517518043518, 0.9603734612464905, 0.01691589131951332], [-0.7310769557952881, -0.6961055994033813, -0.3769664764404297, 0.762241542339325, 0.5096272826194763], [-0.5140645503997803, -0.42208176851272583, -0.3857184946537018, 0.3448379933834076, 0.16701066493988037], [-0.9186173677444458, -1.7681291103363037, -1.4219905138015747, 2.514007329940796, 0.6731038689613342]], [[-0.03838175907731056, -0.20087668299674988, 0.39864498376846313, -0.33713412284851074, 0.16223149001598358], [0.9660950899124146, 0.6605835556983948, 0.053293969482183456, -0.9881608486175537, -0.23098739981651306], [0.15039826929569244, -0.08036399632692337, -0.17024381458759308, 0.4556995928287506, 0.06614108383655548], [-0.06223934516310692, 0.1444101631641388, -0.3453434109687805, 0.585583508014679, 0.1914697140455246], [1.385081171989441, 1.0980989933013916, -0.28653284907341003, -0.3027815818786621, -0.3767543137073517]], [[-0.2721124291419983, -0.6995585560798645, 0.4488690495491028, -0.7495662569999695, -0.049697019159793854], [0.14174526929855347, -0.7510465979576111, 0.17952817678451538, -0.4910362958908081, 0.534263551235199], [0.14392201602458954, 0.6356807947158813, -0.5444248914718628, 0.6652138233184814, -0.023459479212760925], [0.1964162290096283, 0.6228551864624023, -0.3999468982219696, 0.4845254719257355, 0.41703879833221436], [0.4446848928928375, 0.6233977675437927, -0.12494859844446182, -0.12790776789188385, 1.0209190845489502]], [[-0.7779561281204224, -2.4256184101104736, 0.3036922514438629, -1.5119637250900269, -0.37982067465782166], [1.2187578678131104, -2.7018637657165527, 0.6535038948059082, -1.3724932670593262, 0.13732676208019257], [0.7777615189552307, 2.5826752185821533, -0.5326879620552063, 1.3218814134597778, 0.3756541609764099], [0.7363265752792358, 1.5634613037109375, -0.3091622591018677, 0.9442214965820312, 0.22423382103443146], [2.816554546356201, -0.7751273512840271, 0.014983021654188633, -0.39872807264328003, 1.1114497184753418]], [[1.703670620918274, 2.9095304012298584, -1.9353957176208496, 1.9823483228683472, 2.55458927154541], [-4.616950035095215, 3.637906551361084, 0.8654916286468506, 0.6181210279464722, -3.287693738937378], [-0.5715022087097168, -3.0430338382720947, 1.2866908311843872, -1.8667380809783936, -1.5058966875076294], [-0.21392425894737244, -1.9512308835983276, 0.5406926870346069, -1.0157660245895386, -0.3676237463951111], [-3.3357431888580322, 0.22675509750843048, 1.645119309425354, -0.14136435091495514, -2.9421801567077637]], [[-1.0406466722488403, 0.01346264686435461, 0.27554816007614136, -0.06535404920578003, 0.22291992604732513], [0.31775495409965515, 0.41530025005340576, 1.1332184076309204, 0.3731410503387451, -1.1057907342910767], [0.506420373916626, 0.4063156247138977, -0.26900744438171387, 0.13183562457561493, -0.19843155145645142], [0.14279228448867798, 0.1883227825164795, -0.19170624017715454, 0.470246821641922, -0.3331018388271332], [1.1448806524276733, 0.4516327977180481, 0.8339701890945435, 0.3106228709220886, -0.8258655667304993]], [[1.6721103191375732, -0.23742467164993286, 0.22406701743602753, 0.5306593775749207, 0.9060710072517395], [-0.4146380126476288, 0.5189648270606995, -0.13290083408355713, -0.14512096345424652, -0.1367834061384201], [-1.540334939956665, 0.5708057284355164, -0.004314504563808441, 0.0807378813624382, -0.9290642738342285], [-0.6096855998039246, 0.11076905578374863, 0.0657181516289711, 0.20203053951263428, -0.6865942478179932], [-3.083250045776367, 0.7091691493988037, -0.26571133732795715, 0.3228020668029785, -2.8046886920928955]]]}, "dense": {"bias:0": [-0.030081573873758316], "kernel:0": [[0.11483223736286163], [0.056664299219846725], [0.37669265270233154], [0.12473092973232269], [0.10888252407312393], [-0.03629700466990471], [-0.2068207710981369], [-0.05213238298892975], [0.01642725057899952], [0.10080648213624954], [-0.13469097018241882], [-0.18599122762680054], [0.18340733647346497], [-0.012910374440252781], [-0.14570020139217377], [-0.20803864300251007], [0.04397089034318924], [-0.10500998049974442], [-0.18542493879795074], [-0.024295631796121597], [0.009065068326890469], [-0.36319801211357117], [-0.10025881230831146], [-0.05521223694086075], [0.8868011832237244], [0.049959633499383926], [0.02199237048625946], [0.06476162374019623], [0.12466941773891449], [-0.25091832876205444], [-0.070260189473629], [0.09774814546108246]]}, "lstm": {"bias:0": [-0.29053205251693726, -0.018039841204881668, 0.4453043043613434, 1.166232943534851, 1.9182809591293335, 0.40507015585899353, -0.05052448809146881, 0.9861454963684082, -0.7405223250389099, 0.19398348033428192, 1.111520767211914, -0.13577590882778168, 1.2592507600784302, -0.10170567780733109, 0.38135841488838196, 1.0454782247543335, -0.015693163499236107, 0.4390448331832886, 0.6155211329460144, 0.009120055474340916, 0.781339704990387, 0.3121093511581421, -0.15094569325447083, 0.17610301077365875, 0.35105380415916443, 0.36578109860420227, 0.3188362717628479, -0.24957381188869476, 1.0766878128051758, 0.3096850514411926, 0.5824097394943237, 0.2987746000289917, 0.5121098160743713, 0.5639253258705139, -0.8252584338188171, -0.3794504702091217, -0.5019702315330505, 0.05101488158106804, 0.43717557191848755, -1.0462846755981445, 0.6830651760101318, -0.6901341080665588, -0.5146751403808594, -0.46863970160484314, -0.3013419508934021, 0.2273057997226715, -0.048102714121341705, -0.3674924075603485, 0.6631596088409424, 0.08064701408147812, -0.18473677337169647, 1.2932926416397095, 0.44981810450553894, -0.1690661609172821, 0.7361510992050171, 0.3365391194820404, -0.7283088564872742, 0.46883922815322876, 0.38577941060066223, 0.48936405777931213, 0.29759493470191956, -0.5707915425300598, 0.9635772109031677, 2.1336376667022705, 0.037733979523181915, -0.28622081875801086, -0.06261943280696869, -0.12674090266227722, -0.2752912640571594, -0.0780985876917839, -0.6041527986526489, 0.24142083525657654, 0.36319825053215027, -0.16955845057964325, -0.03500087931752205, -0.1720568686723709, 0.10577622056007385, 0.2682805061340332, 0.05888857692480087, -0.0027573222760111094, -0.05844435840845108, 0.3813680112361908, 0.0044449069537222385, 0.0528678223490715, -0.20993809401988983, -0.03515106067061424, 0.03470531851053238, -0.23917144536972046, 0.11668986827135086, 0.12030103802680969, -0.2463577389717102, 0.03972913697361946, -0.44220107793807983, 0.17100565135478973, -0.022478247061371803, 0.12861530482769012, -0.6645310521125793, 0.7924996614456177, 0.17578518390655518, 0.7303064465522766, 0.7672733664512634, 0.8285226225852966, 0.05076365917921066, 0.8525784015655518, 0.43838590383529663, 0.0711459368467331, 1.2358310222625732, -0.2658279836177826, 0.1474151313304901, -0.14432822167873383, 0.5327406525611877, -0.026407983154058456, 0.19803208112716675, 0.6154114603996277, -0.03294187784194946, 0.5924112796783447, 0.1727864146232605, -0.4977908432483673, 0.1619156002998352, 0.06866777688264847, -0.06920015066862106, -0.3558444082736969, 0.9927542805671692, -0.12567657232284546, 0.43122968077659607, 0.1750013679265976, 0.33122873306274414, 0.1369209736585617], "kernel:0": [[-0.07463397830724716, -0.018628045916557312, -0.7500402331352234, 0.8910310864448547, -0.4727800786495209, -0.6283812522888184, -0.07518767565488815, -0.003017119597643614, 0.4186369776725769, 0.08695483952760696, 0.1493014097213745, -0.0040261042304337025, 0.9835851788520813, -0.19761578738689423, 1.913468837738037, 0.4941471815109253, -0.18312110006809235, 0.28474339842796326, -0.2798684537410736, -0.5444129705429077, -0.11407416313886642, 0.8870038390159607, -0.3309153616428375, -0.1338944286108017, -3.949279308319092, 0.3793133497238159, 0.22057528793811798, -0.07141287624835968, -0.16457019746303558, 0.00805656798183918, 0.08794277906417847, -0.07594145834445953, -0.24752625823020935, -0.1247781366109848, -0.3001706600189209, 0.2148997187614441, -0.12216969579458237, -0.3420550227165222, 0.7081217765808105, -0.34906792640686035, 0.7603189945220947, -0.04534487798810005, 0.01721026934683323, -0.1519009917974472, 0.5482307076454163, 0.4396853744983673, 0.6842271685600281, 0.19184301793575287, -0.025388184934854507, -0.38399359583854675, -0.34422752261161804, -0.9632193446159363, 0.6996518969535828, 0.24975962936878204, 0.034572307020425797, -0.3064548075199127, -1.2033435106277466, 0.5971133708953857, -0.20939421653747559, -0.03675772249698639, -0.23571637272834778, -0.03254276141524315, -1.0725188255310059, -0.0764622837305069, -0.5417550206184387, 0.04798910766839981, -1.8091400861740112, -2.1218771934509277, 0.7458561062812805, 0.3925729990005493, 0.006985252723097801, -1.1009740829467773, 0.0006470108055509627, 0.09345776587724686, 1.8373937606811523, -0.18699760735034943, -3.6519293785095215, 1.172160267829895, 1.1420347690582275, -1.0272860527038574, -0.40026023983955383, 0.1690540909767151, 1.2934969663619995, -0.06630674004554749, -0.7114059329032898, -0.1063886508345604, 0.10203862935304642, 0.06044378504157066, -3.1583290100097656, 0.19455930590629578, -0.6551122069358826, 0.02830605022609234, 0.7408095002174377, 0.2557514011859894, 0.009182684123516083, 0.09664195775985718, 0.21976661682128906, 0.3245706260204315, 0.5106654763221741, -0.28877219557762146, 0.0651627779006958, 0.3313978612422943, -0.3135124146938324, 0.8975011110305786, 2.276045799255371, -0.20590002834796906, -0.4014728367328644, 0.3443143963813782, -0.3299986720085144, -1.280541181564331, -0.35048359632492065, -0.10704071819782257, -0.02309463359415531, 0.05003002658486366, 0.13765819370746613, 0.2921313941478729, -0.8190988898277283, -0.36303603649139404, -0.02271593175828457, 0.07973761856555939, 2.1828551292419434, 0.07064533233642578, 1.1016844511032104, -0.004324004985392094, 0.2791961133480072, 0.2513900101184845, 0.2571219801902771, -0.043215010315179825], [-0.03543977811932564, -0.06387060135602951, 2.2327170372009277, 0.7954437136650085, -1.0692559480667114, -0.5091350674629211, -1.6063767671585083, -0.41772210597991943, -0.23678140342235565, 0.5378513336181641, -0.06281435489654541, -1.554652452468872, -2.1391870975494385, -0.372475266456604, 1.2473034858703613, 1.41171133518219, -0.014724361710250378, -0.43388259410858154, -0.5698856115341187, 0.07311258465051651, 0.2170594334602356, 1.5332106351852417, 0.41300153732299805, 0.6254868507385254, -2.762793779373169, 0.9972852468490601, 0.22003765404224396, -0.41429272294044495, 0.41074588894844055, 0.36627164483070374, -0.11982586979866028, -0.001239656237885356, 0.4492347538471222, 0.2575412392616272, 0.893980085849762, 0.3072640299797058, -0.11545737087726593, -0.39943212270736694, 0.9884511232376099, -0.20932810008525848, 0.6007726192474365, 0.15624332427978516, -0.07086771726608276, -0.5381191372871399, -1.1112027168273926, 0.27349093556404114, 0.18440307676792145, 0.7221707105636597, 0.32832008600234985, 0.0180851761251688, -0.4359695017337799, -1.0702965259552002, -0.6319757699966431, 0.7024814486503601, 0.01565651036798954, -0.11595765501260757, -0.8612952828407288, -1.7618939876556396, -0.14252229034900665, -0.03248923271894455, 0.5154736638069153, 0.03901999071240425, -0.7614125609397888, 0.15340466797351837, 0.5027076005935669, -0.08671435713768005, 2.46789813041687, -0.40990445017814636, 2.0865817070007324, 0.16990262269973755, 0.589664876461029, 0.4978637993335724, -0.22517868876457214, 0.3091607391834259, -1.87795090675354, 0.4072856307029724, -2.318006753921509, 0.875891923904419, 1.9069409370422363, -1.304458498954773, 0.002239673864096403, -0.19942845404148102, 0.2319098562002182, -0.022454267367720604, 1.0449217557907104, -1.3142277002334595, -0.02079080045223236, -0.8447974324226379, -2.365058422088623, 0.6340353488922119, -0.483451247215271, -0.29270631074905396, -0.8928731679916382, 0.26517239212989807, -0.03345545381307602, -0.053007978945970535, -0.5406295657157898, 0.19570837914943695, -1.506080985069275, -1.635229468345642, 0.1441834270954132, 0.44418996572494507, -0.66777104139328, -0.160969078540802, -0.2828889787197113, -0.7873309254646301, 0.701609194278717, 0.7064535617828369, 0.7903405427932739, -0.26224803924560547, 0.046186696738004684, -0.37243208289146423, 0.016158897429704666, 0.03326302394270897, 0.2123052477836609, -0.10417844355106354, 2.2605786323547363, -0.7265089154243469, 0.013324853032827377, 0.6484498977661133, 1.5471042394638062, 0.25958535075187683, 0.5372897982597351, 0.04039330780506134, -0.5203698873519897, -0.01912911795079708, -0.1053648367524147, 0.03616873174905777], [-0.08926064521074295, -0.07649311423301697, -2.1656618118286133, -0.9341402053833008, 0.7574175000190735, -0.3018772006034851, 0.9870680570602417, -0.2753986716270447, -1.6410959959030151, -0.4132707715034485, 0.016536075621843338, 0.9126487374305725, 1.3640081882476807, -0.22822590172290802, -1.3470509052276611, -0.17205238342285156, 0.11096757650375366, -2.7937355041503906, 0.5475904941558838, -0.020395973697304726, 0.10576745867729187, 2.58487868309021, 1.0138471126556396, 0.5828574895858765, 1.9924700260162354, -0.44070184230804443, -0.38036805391311646, -0.006150833796709776, -0.3502618968486786, -0.2597615718841553, -0.04465680941939354, 0.1567956656217575, -0.19332467019557953, 0.005467518232762814, -1.1753216981887817, -0.1495162397623062, 0.09473993629217148, -0.23080024123191833, 0.1953592598438263, -0.1964239478111267, 0.20474472641944885, -0.01645483449101448, 0.04521636664867401, 0.4102177023887634, 0.7126155495643616, 1.2285929918289185, -0.5290913581848145, -0.17944571375846863, 0.18271490931510925, 0.25914087891578674, 0.46828705072402954, -0.47156065702438354, -1.0850176811218262, 1.0028327703475952, -0.17527766525745392, 0.5880725979804993, 0.6570805311203003, 0.8855357766151428, -0.25250688195228577, -0.052981145679950714, -0.4103434383869171, -0.018689000979065895, -0.27607089281082153, 0.27473121881484985, -0.15981607139110565, -0.2289707362651825, -1.0235037803649902, 0.8394137620925903, -0.6253769993782043, 0.2621595561504364, -0.35439640283584595, -0.19510208070278168, -0.22686974704265594, 0.1448066234588623, 0.507646918296814, -0.22783124446868896, -0.820607602596283, 0.5578959584236145, -1.2841049432754517, -0.7302808165550232, 0.1800200343132019, -1.3727649450302124, -1.4199750423431396, 0.007051834836602211, 0.6976413726806641, -2.5603578090667725, -0.6187726259231567, -0.5562726855278015, 1.8954042196273804, -0.34178122878074646, -0.04258258640766144, 0.5931660532951355, -0.7209721803665161, -0.2946275770664215, 0.034081872552633286, -0.2100362479686737, 0.3179227411746979, -0.8502205014228821, 1.4578989744186401, 1.172480821609497, -0.036160845309495926, 0.4838331341743469, 0.22043950855731964, 0.2747344374656677, -1.1517971754074097, -0.0011021438986063004, -0.3592663109302521, -0.21828123927116394, -0.5702194571495056, 0.4451662600040436, 0.13597263395786285, 0.03843263164162636, -0.007108330726623535, -0.1984020173549652, -0.20665797591209412, -0.3816586434841156, 1.3578832149505615, -1.1329927444458008, 0.16943074762821198, 0.07812446355819702, -1.1038298606872559, 0.1640075147151947, 0.7313541173934937, 0.44028693437576294, 0.3413563668727875, -0.07068847119808197, -0.09247805923223495, 0.06546638160943985], [-0.023869281634688377, 0.02799365483224392, 1.6552603244781494, 0.24607180058956146, -0.21850623190402985, -0.18803918361663818, -0.6416677832603455, -0.12781104445457458, -1.180113434791565, 0.4411931335926056, 0.018751081079244614, -0.6144676208496094, -0.9763370156288147, 0.2609388828277588, 0.7872633337974548, -2.310389995574951, -0.04312247782945633, -1.1978750228881836, 1.2304553985595703, -0.28367185592651367, -0.12385988980531693, -1.2565417289733887, 0.1447969675064087, 0.11693339794874191, -2.772487163543701, 0.4757812023162842, -0.06774511933326721, 0.3587082028388977, 0.3913409113883972, 0.1478511095046997, 0.10413121432065964, 0.05020035058259964, 0.25047042965888977, 0.008442146703600883, 0.7003272175788879, 0.15378950536251068, 0.3175466060638428, 0.21776629984378815, -1.4309353828430176, 0.17302381992340088, -0.601101279258728, -0.2587938904762268, -0.020549621433019638, -0.07959116250276566, -0.4181770384311676, 0.7591918110847473, 0.005944511853158474, -1.2318801879882812, -0.19426169991493225, 0.17789210379123688, 1.0341887474060059, 0.4802824556827545, -0.6553913950920105, -0.4827719032764435, -0.04587215185165405, 0.6056644320487976, -0.9985666871070862, -0.5462090373039246, -0.008017657324671745, 0.14670826494693756, 0.4070281982421875, -0.013382380828261375, 1.0429216623306274, -0.09395668655633926, 0.18205998837947845, 0.05495881289243698, 1.2988818883895874, -0.375222384929657, -4.161416530609131, 0.7827528715133667, 0.2042359709739685, 0.1940179020166397, -0.3143521249294281, -1.1957097053527832, -0.7639344334602356, 0.34366169571876526, -2.3378560543060303, -0.2977030575275421, 0.922512412071228, 1.1455873250961304, 0.007255985401570797, -0.5098499655723572, -0.6773622632026672, -0.033587660640478134, 0.1369105875492096, -0.47234201431274414, -0.265726238489151, 0.2569109797477722, -1.5992217063903809, 0.2447272092103958, -0.2074674814939499, 0.38873767852783203, -0.030256381258368492, 0.07526037842035294, -0.03458601236343384, 0.06699703633785248, -0.29195746779441833, 0.3424793779850006, -1.1347497701644897, -0.6772738099098206, -0.28321653604507446, -0.3574006259441376, 0.25650644302368164, 0.025792134925723076, 0.5374996662139893, 1.4900916814804077, 0.27160438895225525, -0.2787327468395233, 0.35581883788108826, -0.40243056416511536, -0.020012332126498222, 0.6426111459732056, 0.06728831678628922, -0.07638736069202423, -0.5065528154373169, -0.32219749689102173, 1.0451631546020508, 0.537125825881958, 0.056738950312137604, -0.7054442763328552, 1.5547819137573242, -0.21417368948459625, 0.491901159286499, 0.1251758337020874, -0.28436970710754395, 0.04571051150560379, 0.02732439711689949, -0.0922297015786171], [-0.01419376116245985, 0.0966305285692215, 2.244805335998535, 2.3476412296295166, -1.8342974185943604, 0.6664112210273743, -1.5160104036331177, 0.6116855144500732, 0.5361397862434387, 0.7154826521873474, 0.09451905637979507, -1.2508432865142822, -0.7589859962463379, 0.06871260702610016, 3.198124885559082, -0.8308432102203369, -0.17495062947273254, -0.41509684920310974, 0.6304413080215454, 0.4817267060279846, 0.11966119706630707, -0.07089494913816452, 0.3069610595703125, -0.5691177845001221, -4.1518964767456055, 0.1165074035525322, -0.6706792712211609, 0.24567237496376038, 0.3045739233493805, 0.479452908039093, 0.10256834328174591, 0.145490825176239, 0.135149747133255, -0.017405671998858452, 1.2711886167526245, 0.40578481554985046, 0.013946670107543468, 0.6323043704032898, -0.5349550843238831, 0.6096193790435791, -0.8316306471824646, 0.025931069627404213, -4.015536978840828e-05, -0.7252930998802185, -0.41669198870658875, 0.8064383268356323, 1.7806274890899658, -0.4711523950099945, -0.16554555296897888, 0.46756711602211, 0.4476078450679779, 0.6096323132514954, 0.1418168842792511, -0.055828556418418884, -0.06246323138475418, 0.11711590737104416, -1.3328766822814941, 0.0021381741389632225, 0.1375982165336609, 0.05229881405830383, 0.2899491488933563, -0.09750469774007797, 0.07908393442630768, 0.030626896768808365, -0.2940208315849304, -0.19875584542751312, -0.8975052833557129, -2.766545057296753, -0.611365556716919, -0.6163055896759033, 0.5690248012542725, -0.6696363687515259, 0.6000427603721619, -0.2819159924983978, 1.2469819784164429, 0.279906302690506, 1.5692801475524902, -0.35388073325157166, 2.274672269821167, 0.16329938173294067, -0.7810913324356079, -0.5027518272399902, -0.31882593035697937, 0.17833922803401947, 0.051694754511117935, -0.9472885727882385, -0.3100869655609131, 0.7888626456260681, -2.0203840732574463, 0.0954432487487793, 0.9745463728904724, 0.6681278944015503, -0.10348490625619888, 0.6366082429885864, 0.1813179850578308, -0.19420622289180756, -0.19836556911468506, 1.2468129396438599, -1.5248652696609497, -2.0820441246032715, 0.021497802808880806, -0.24507459998130798, -0.27164575457572937, -0.15380987524986267, 0.7694873809814453, 0.0301243606954813, 0.16909350454807281, 0.2596202492713928, 0.29577648639678955, 1.2537014484405518, -0.5281238555908203, 0.17016826570034027, -0.18831536173820496, -0.2964974343776703, -0.2403138279914856, 0.2675330340862274, -1.2061214447021484, 0.10886097699403763, 0.07794708758592606, -0.5944783091545105, 2.2426750659942627, -0.03845692798495293, -0.6289284229278564, 0.3222714066505432, -0.4608118534088135, 0.3381870687007904, -0.05678214877843857, 0.03751421347260475]], "recurrent_kernel:0": [[0.1306154429912567, -0.030112890526652336, 0.071437768638134, 0.21399682760238647, 0.23782937228679657, 0.4376031160354614, -0.583696186542511, -0.18016809225082397, -1.715671181678772, 0.044364333152770996, 0.003478956874459982, 0.05407857522368431, 0.4056914150714874, 0.5772034525871277, 0.18414056301116943, -0.5819907784461975, -1.2422047853469849, 1.3741456270217896, 1.5141834020614624, -0.7364456653594971, 0.8044261932373047, -0.41979482769966125, -1.3508789539337158, -0.22225967049598694, -0.6500215530395508, 0.036386169493198395, 0.5144341588020325, 0.7626716494560242, -0.5556054711341858, -0.13851787149906158, -0.628902018070221, 1.494639277458191, 1.7222001552581787, 0.7792487740516663, 0.5056532621383667, 1.3492958545684814, -0.04264092817902565, -1.3969125747680664, -0.0649104118347168, 1.4456849098205566, 0.2176029533147812, -0.441276490688324, 0.7087031006813049, -0.4241379499435425, 0.3946617543697357, 2.473485231399536, 0.9567825794219971, -0.8621497750282288, 1.1454087495803833, -0.4773067831993103, 1.050827980041504, 0.9885774254798889, 0.20464348793029785, -0.5282699465751648, -0.4829137325286865, -0.16134211421012878, -0.2126666158437729, 0.5054427981376648, -1.2886883020401, -1.793712854385376, -1.6832414865493774, 0.1337270587682724, 0.8664577603340149, -1.5732895135879517, -0.2456573247909546, -0.37950244545936584, 0.05802211910486221, 0.0642629861831665, 0.46516916155815125, 0.1438581794500351, 0.19340644776821136, -0.03499028831720352, 0.3953738510608673, 0.24227479100227356, -0.01244797557592392, 0.13938941061496735, 0.031029485166072845, -0.24562135338783264, 0.096053846180439, 0.17783977091312408, 0.2043902575969696, 0.4822500944137573, -0.11928179115056992, -0.1061001867055893, -0.26841992139816284, 0.5674030780792236, 0.2574418783187866, 1.002885341644287, -0.2916578948497772, 0.466277539730072, -0.23797205090522766, -0.17565345764160156, -0.07475870102643967, -0.07913925498723984, 0.39586418867111206, -0.35065320134162903, 0.24893121421337128, -1.143506407737732, 0.29481521248817444, 0.5056865215301514, 0.00279046269133687, -0.28858861327171326, 0.48302751779556274, -0.029745057225227356, -0.682666540145874, -0.3151760697364807, -0.039154957979917526, -0.5973415970802307, 0.06423089653253555, -0.9947832226753235, 0.1774951070547104, 0.4019837975502014, 0.6047790050506592, 0.5216291546821594, -0.20101912319660187, -0.03866022080183029, 1.235397458076477, 1.0467567443847656, 0.0783931091427803, 0.142765074968338, 0.0590369813144207, 0.33972474932670593, -0.02122167870402336, -0.06347358971834183, 0.2779468595981598, 0.09323249757289886, 0.7668458223342896, -0.21385882794857025], [-0.19657790660858154, 0.19219225645065308, -0.7889544367790222, -0.8805903196334839, -0.36162203550338745, -0.9515432119369507, 0.2627239227294922, -1.2354434728622437, -0.3278208374977112, -0.9413799047470093, -0.6886338591575623, -0.252191960811615, -0.4457378387451172, 2.2651164531707764, -0.3011418879032135, -0.7626633644104004, 0.18965253233909607, 1.656518578529358, 0.11729751527309418, 0.6764718890190125, 0.41954904794692993, -1.39211106300354, -1.4725035429000854, -0.513991117477417, -0.3073412775993347, -0.693854808807373, -0.784272313117981, -1.1237074136734009, 0.8553810715675354, -0.4024259150028229, 0.9694291353225708, 0.7359871864318848, -1.5329210758209229, -2.2157764434814453, -0.3452337682247162, -0.24077260494232178, -1.200350284576416, -0.9977949857711792, 1.0641796588897705, 0.24725759029388428, -0.4131040871143341, -1.3086425065994263, -0.8867493271827698, 0.647982656955719, -0.4763627350330353, -1.8722362518310547, -0.18660767376422882, 1.2449951171875, -0.35411372780799866, -0.29325270652770996, -0.697610080242157, 0.8422209620475769, -0.7422698736190796, 0.08446192741394043, -0.2465806007385254, 0.9662371277809143, 1.0434421300888062, -0.8150447607040405, -4.426090240478516, -0.24238170683383942, -0.4917619824409485, 0.22824890911579132, 0.40379825234413147, -0.22771871089935303, -0.09494058787822723, 0.3105336129665375, -0.8585958480834961, -0.16114139556884766, -0.5745479464530945, -0.10999517887830734, 0.4285690486431122, -0.06649302691221237, -0.46495887637138367, -0.3542158305644989, 0.10863777250051498, 0.24606995284557343, -0.9475411772727966, -0.4442870020866394, 0.043373603373765945, 0.33384135365486145, 0.16444933414459229, 0.9247761368751526, 0.65205317735672, -0.18102151155471802, -0.15725524723529816, 1.1584383249282837, -0.10508348792791367, 0.07829812914133072, 0.3162870705127716, -0.2731006443500519, -0.34710538387298584, -0.14423584938049316, 0.2241392582654953, -0.2686276137828827, 0.1444140523672104, 0.06259554624557495, 0.14390136301517487, -0.1549014300107956, -0.02746010385453701, -0.6043798923492432, -0.3473271429538727, -1.1717294454574585, 1.015018343925476, -1.1008449792861938, 1.5784053802490234, 0.25802865624427795, 0.20697155594825745, -0.8058743476867676, -0.59963458776474, -0.9304192662239075, -0.07633719593286514, 0.09189564734697342, 0.967949628829956, 0.13302107155323029, -0.27220091223716736, -0.7228478193283081, 2.133620500564575, 1.1175551414489746, -0.14950096607208252, -0.06406708806753159, -0.05482647940516472, 0.20655760169029236, 0.11038833856582642, -0.5198404788970947, -0.7218279838562012, 0.2541734576225281, -0.9912824630737305, 0.3496323227882385], [-0.2231636792421341, -1.0292226076126099, -0.21587646007537842, 0.33341893553733826, 0.1621277630329132, -0.42278537154197693, 0.062310654670000076, -0.8290132880210876, -0.1894514560699463, 0.4177585542201996, 0.1169871836900711, -0.7040442228317261, -0.7487790584564209, 0.1918932944536209, -0.13465747237205505, 0.1605626493692398, -0.6933681964874268, -0.09228953719139099, 0.12095612287521362, 0.07698954641819, -0.7127732038497925, 1.1099554300308228, 0.14749114215373993, -0.003993212711066008, 0.8157615065574646, 0.9747663736343384, 0.46747007966041565, -0.5360773205757141, 0.17372508347034454, 0.0016155638732016087, 0.3372068703174591, -0.40476882457733154, 0.24167044460773468, 0.7517232894897461, 0.15357916057109833, -1.1894358396530151, -0.44280627369880676, -0.0911519005894661, 0.8574328422546387, -0.8108955025672913, -0.7587734460830688, -0.1752883791923523, -0.2722476124763489, 0.820064902305603, 0.6202412843704224, 1.813460111618042, -0.7270150184631348, 2.1076765060424805, -0.0465521402657032, 0.002390084555372596, 0.7939676642417908, 0.7190160751342773, -0.3932686448097229, 0.5774409770965576, -0.42771366238594055, 1.6871821880340576, -0.6195617914199829, 0.8179344534873962, 0.307634562253952, -0.6886570453643799, -0.9667697548866272, -0.11920219659805298, -0.392067015171051, 0.6818215250968933, -0.14696526527404785, -0.4838472008705139, 0.0202096626162529, 0.08951302617788315, 0.09210588037967682, 0.20751628279685974, 0.9426671266555786, 0.4250813126564026, 0.050071947276592255, -0.13479511439800262, 0.17425864934921265, 0.4469761252403259, -0.21497146785259247, 0.2936236262321472, -0.3616894781589508, -0.2504686713218689, 0.11957167088985443, 0.4617769122123718, -0.4861939549446106, 0.4944119155406952, -0.3124624788761139, -0.49703988432884216, 0.033354442566633224, 0.4449864625930786, 0.285101979970932, -0.6571531891822815, -0.31590065360069275, -0.22407297790050507, 0.39160606265068054, 0.15622594952583313, 0.0500665120780468, -1.0324264764785767, 0.2720077335834503, -0.6944757699966431, -0.16248035430908203, 0.7865972518920898, -0.513543426990509, 0.47564682364463806, 1.1236222982406616, 0.06665874272584915, -0.7331959009170532, -0.17555871605873108, 0.17540408670902252, -0.6003394722938538, -0.4029703438282013, -0.8104314804077148, 0.15949998795986176, 0.04174100235104561, -0.028786050155758858, 0.3119681477546692, -1.1042485237121582, -0.9002452492713928, -0.2819023132324219, -1.457419514656067, -0.5260438323020935, -0.7144631743431091, -1.0702677965164185, 0.04563169926404953, -1.2676035165786743, 0.7776532173156738, -0.14062391221523285, -0.08792680501937866, 0.08909193426370621, -0.2773781418800354], [-0.7065600752830505, 0.10633909702301025, -0.08925513923168182, 0.3600890040397644, -0.5485885739326477, 0.8301070332527161, 0.8642505407333374, 0.3481891453266144, -1.7905354499816895, 0.6342507600784302, 0.20509999990463257, 0.10278872400522232, 0.25721362233161926, 0.7053783535957336, -0.375367671251297, 0.14484398066997528, -0.14623957872390747, 0.12236006557941437, 0.8403784036636353, 0.23151378333568573, 0.8895393013954163, 0.42552149295806885, 0.1522209346294403, -0.22867527604103088, 0.7385758757591248, 1.046916127204895, 0.9977953433990479, -0.3947078585624695, -0.004435067530721426, 0.12683215737342834, 0.24483858048915863, 0.9996828436851501, 0.585639238357544, -0.6278222799301147, 0.6405629515647888, 1.0434331893920898, -0.08199802041053772, 0.036949094384908676, 1.0736465454101562, 0.6468088626861572, 0.46845364570617676, -0.5403234362602234, 0.14990606904029846, 1.40651535987854, -0.016031626611948013, -0.40231603384017944, 0.8355276584625244, 0.637516438961029, -0.8590490221977234, -0.23969069123268127, 0.1567682921886444, 0.07913658767938614, -1.149005651473999, 0.701400637626648, 1.3848122358322144, 1.3572896718978882, 0.003691938240081072, 0.6432894468307495, 1.7127572298049927, 0.8272542953491211, 1.409347653388977, -0.950661301612854, -0.15363915264606476, -2.224764108657837, -0.05031170696020126, -0.1662725806236267, 0.5276053547859192, -0.038930103182792664, 0.4568493664264679, -0.21448686718940735, 1.3679670095443726, 0.2481418251991272, 0.4612104892730713, -0.8472936153411865, -0.02385152131319046, 0.3447209894657135, 0.4522094130516052, 0.4031439423561096, 0.17169450223445892, -0.16964294016361237, -0.26332610845565796, -0.426018089056015, 0.0842750072479248, 0.31252795457839966, -0.007032806519418955, -0.2519741654396057, -0.04957710951566696, 0.005306237377226353, 0.3796539008617401, -0.9566571712493896, -0.12560537457466125, -0.1411004364490509, -0.12187314033508301, 0.20738434791564941, 0.2862176299095154, -0.7108452320098877, -0.19472384452819824, -1.074169635772705, -0.015199940651655197, -0.35438036918640137, 0.06271003931760788, -0.12800152599811554, -0.10917763411998749, 0.21185453236103058, -0.5747948288917542, -0.23965232074260712, 0.24927830696105957, 0.18248026072978973, 0.09916555881500244, 0.628607988357544, 0.23350206017494202, -0.12825876474380493, -0.7124231457710266, 0.1963195949792862, -0.16782963275909424, 0.21275115013122559, 0.23484528064727783, -0.20565001666545868, 0.2138107419013977, -0.27938970923423767, -0.35966697335243225, 0.056542035192251205, -0.40776965022087097, 0.12603284418582916, -0.4568062424659729, -0.31017211079597473, -0.326809287071228, -0.5630254149436951], [0.6356363296508789, -1.4071550369262695, 0.3391337990760803, -0.13254062831401825, 0.5220548510551453, 0.6665000319480896, -0.12588796019554138, -0.08858180791139603, 0.00693786796182394, -0.30308952927589417, -0.1579255759716034, 0.20575864613056183, 0.04168953746557236, -1.8280479907989502, -0.10888131707906723, -0.5580301284790039, 0.4902285039424896, 0.1145675852894783, 0.16527114808559418, -0.07591208815574646, -1.026535987854004, -0.19012559950351715, -0.2910246253013611, -0.523666262626648, -0.21991606056690216, 0.1154090166091919, -0.16794854402542114, -0.36669594049453735, 0.3934810161590576, -0.12403882294893265, -0.13873390853405, -0.005597015842795372, 0.30725952982902527, 0.14032381772994995, -0.7733886241912842, 1.1830823421478271, -1.575345516204834, 0.05171078070998192, 0.1496240496635437, -1.1029642820358276, -1.5076897144317627, -0.7119899988174438, -0.25405746698379517, -0.5181992053985596, -0.7522757649421692, 0.08589918911457062, 0.4089692533016205, 0.31955763697624207, -0.5190790295600891, -0.2175450325012207, 0.6041221618652344, 0.5285525918006897, -1.8634841442108154, -1.8794268369674683, -0.9355177283287048, -0.42997828125953674, -0.035192858427762985, 0.1817515343427658, 1.0138061046600342, -1.302013635635376, 0.7890421748161316, -0.6426386833190918, -0.01023305207490921, 0.47195926308631897, -0.12150126695632935, -0.08140814304351807, -0.1696883887052536, -0.09930270910263062, 0.08793607354164124, 0.11096276342868805, 0.08669593185186386, 0.3281078338623047, -0.19614635407924652, -0.144467294216156, 0.029128657653927803, -0.09945476800203323, -0.007341627962887287, 0.8037582635879517, 0.10130682587623596, -0.06359691917896271, -0.27632948756217957, -0.09374798834323883, -0.0015990049578249454, 1.251708984375, 0.0641307681798935, 0.0052556307055056095, -0.1461053341627121, 0.0878920778632164, -0.04706762358546257, -0.013154318556189537, -0.19015748798847198, -0.040634885430336, 0.918857991695404, 0.024263178929686546, 0.2796366512775421, 0.09932657331228256, -0.2721605896949768, 0.4605335593223572, -0.13436049222946167, 0.5347667336463928, -0.32513153553009033, 0.10321478545665741, -0.08129261434078217, 0.3322194218635559, 0.24850508570671082, -0.05311262980103493, 0.18820643424987793, 0.17039501667022705, 0.14587143063545227, -0.6888917684555054, -0.09927282482385635, 0.0899285152554512, -0.4651026725769043, -0.050141774117946625, -0.3175816833972931, 0.13567142188549042, -0.4531172215938568, -0.2681041359901428, -0.6570295095443726, -0.1836041361093521, -0.08856385946273804, -1.0236257314682007, 0.1627192348241806, -0.30344322323799133, -0.08617684990167618, 0.032321348786354065, -0.021284176036715508, -0.35882359743118286], [-0.9185322523117065, 0.9606932401657104, 0.06567411869764328, 0.07789891958236694, -0.08607412874698639, -1.6700927019119263, 0.10268530249595642, -0.30738723278045654, 0.45503735542297363, -0.70518559217453, 0.3946511149406433, -0.3527987003326416, -0.06622714549303055, 1.964534878730774, -0.1260431706905365, 0.0973946750164032, -1.3698928356170654, 0.6086435914039612, 0.024822726845741272, -0.1090991422533989, 1.762825608253479, 0.2046326994895935, 0.061098862439394, 0.18801656365394592, -0.26649191975593567, -0.4248090386390686, -1.3881360292434692, -0.5029201507568359, 1.1816719770431519, 0.10313809663057327, 0.14605475962162018, 0.28585416078567505, 0.598974883556366, -0.26452702283859253, 0.5518470406532288, 0.5524632930755615, 1.931384563446045, 0.39939117431640625, 1.2321317195892334, 2.362177610397339, 0.5900639891624451, 1.1539772748947144, 0.5037885308265686, 1.0639506578445435, 1.3603628873825073, 0.8463805317878723, 0.9339010715484619, 1.6515120267868042, 0.26081639528274536, 0.797720730304718, 1.6043920516967773, -0.22582225501537323, 0.6721941828727722, 1.4848096370697021, 0.26110392808914185, 0.9371766448020935, 1.3937262296676636, -0.05639546737074852, 0.4542379081249237, 1.6449687480926514, -0.047444429248571396, 0.5517919659614563, -0.1395845264196396, -1.429168462753296, 0.30861252546310425, 0.7873689532279968, -0.043998878449201584, -0.1396251767873764, 0.0839591845870018, 0.13745847344398499, 0.7510883212089539, -0.21463823318481445, 0.1509784460067749, 0.09853421151638031, -0.06165117397904396, 0.06354355067014694, -0.4711601138114929, -0.1427329182624817, 0.03630632907152176, -0.24970585107803345, -0.11344374716281891, -0.6443415284156799, -0.46741607785224915, -0.4379008710384369, 0.06350238621234894, 0.05674923583865166, -0.23501458764076233, -0.13539762794971466, -0.194734588265419, 0.5582929253578186, 0.08581789582967758, -0.12638863921165466, -0.3416050970554352, 0.07486466318368912, -0.7717788815498352, 2.1943445205688477, 0.4694403409957886, -0.6112709641456604, 0.5922427773475647, -0.6369283199310303, 0.5576802492141724, -0.20150552690029144, 0.429370254278183, -0.8073554635047913, -0.3942866325378418, -0.00047544040717184544, -0.5362975001335144, -0.3148789703845978, 0.43881046772003174, 1.0629901885986328, -0.23606179654598236, 0.319637656211853, 0.24588781595230103, -0.19601096212863922, 0.5967521667480469, -0.21006131172180176, 0.6876405477523804, 0.9221580028533936, 0.56639564037323, -0.3830222487449646, 0.850276529788971, 0.9668537378311157, -0.6707532405853271, 0.3832182288169861, 1.5312398672103882, -0.4879864752292633, -0.5042454600334167, -0.20246173441410065], [-0.8102246522903442, 0.5658447742462158, -0.3774084150791168, -0.6148285865783691, 0.1844547837972641, -0.3320885896682739, 0.190702885389328, -1.5877362489700317, 1.2512575387954712, -0.012527762912213802, -1.3135855197906494, 0.07400304079055786, -0.00043139210902154446, 1.547834038734436, -1.4373265504837036, -0.355807363986969, -0.09340755641460419, -0.24702905118465424, -0.44433844089508057, 0.8233617544174194, 2.268564462661743, -0.2690829634666443, -1.0325751304626465, -0.2979162037372589, -0.27046525478363037, 0.7729552388191223, 0.4111538231372833, -1.154494285583496, 0.7672034502029419, -0.1886076033115387, 0.006556223146617413, 0.5143675804138184, -0.04009876400232315, 0.20442812144756317, -0.034156445413827896, -0.2136096954345703, 0.9190986156463623, 1.1215993165969849, 0.44546985626220703, 1.9161264896392822, 0.9266670942306519, 1.9580961465835571, 1.2543165683746338, 1.5589311122894287, 2.1875534057617188, 0.7057432532310486, 1.7987914085388184, 1.1079822778701782, -0.19219627976417542, 1.0220340490341187, -0.26074060797691345, -1.2100579738616943, -0.3301973342895508, 0.3558245897293091, -0.043107807636260986, -0.32553502917289734, 1.2513210773468018, 0.6426456570625305, 0.5493792295455933, -0.0933079868555069, -1.0924975872039795, 1.5953044891357422, -0.0703970268368721, -2.0830347537994385, -0.1503385752439499, -0.3579370379447937, -0.24256518483161926, 0.09296982735395432, -0.18694256246089935, -0.4749162793159485, 0.15711542963981628, 0.31828439235687256, -0.13940425217151642, 0.44964349269866943, 0.11751674860715866, 0.27135351300239563, 0.09714946150779724, 0.32634633779525757, -0.343346506357193, -0.17751994729042053, 0.4136662781238556, 0.2758106589317322, 0.3308195471763611, 0.787814199924469, 0.21562927961349487, 0.014446284621953964, -0.10786521434783936, 0.7511336803436279, 0.8377770781517029, 0.37206515669822693, 0.6184483170509338, -0.3285938799381256, -0.8032751083374023, -0.29262107610702515, 0.20527978241443634, -0.4529770016670227, 0.8083612322807312, -0.5808966159820557, 0.46646079421043396, -0.4706391394138336, 0.6580459475517273, 0.3822961747646332, 0.33482614159584045, -0.6577449440956116, 1.792698860168457, 0.4389732778072357, -0.5636718273162842, -0.12983210384845734, 0.28763699531555176, 0.4441741704940796, 0.09742331504821777, 0.42376193404197693, -0.06815284490585327, 0.3170555531978607, 0.7541446685791016, -0.3475898206233978, 0.7103268504142761, 0.3915506899356842, -0.33943480253219604, -0.721095085144043, 0.6942318677902222, -0.8889052271842957, -0.7193070650100708, -0.656568706035614, 0.7077631950378418, -0.11445396393537521, 0.5420092940330505, -0.8824793100357056], [0.1510627418756485, -0.02619006484746933, 0.47219011187553406, -0.06929922848939896, 0.38325732946395874, 0.010918722487986088, -0.38103780150413513, 0.32822728157043457, -1.0464544296264648, -0.7279216647148132, -0.19573763012886047, -0.2405768483877182, 0.39139309525489807, 0.4890063405036926, -0.13525620102882385, -0.8731313943862915, -1.430776596069336, 0.6518462896347046, -0.3598588705062866, -0.7667903304100037, 1.3482400178909302, 0.12434686720371246, -1.3766567707061768, -0.5396261215209961, 0.006239383481442928, 1.5263808965682983, -0.17352056503295898, 0.20158503949642181, 1.6629019975662231, 0.2523671090602875, 0.09530707448720932, 2.447406053543091, 0.6535068154335022, -1.2195632457733154, 0.8152770400047302, 1.1767406463623047, 0.3594713807106018, -0.07686759531497955, 1.8706680536270142, -0.5567459464073181, 0.07775141298770905, 0.24503415822982788, 0.4217051565647125, 0.28705480694770813, 1.1895959377288818, 0.7719873785972595, 1.023903489112854, 0.8284538984298706, 0.3530800938606262, 0.6692705750465393, 0.6577322483062744, 0.1990257352590561, -1.1368684768676758, 1.1162753105163574, 1.5263782739639282, 2.526423692703247, 0.9634469151496887, 1.0678011178970337, -0.3858283460140228, -0.8152034282684326, 0.8307823538780212, 0.4892507493495941, -0.10660140961408615, 0.08250052481889725, 0.01623879373073578, 0.6096375584602356, -0.12875914573669434, 0.11496333032846451, -0.2762002944946289, 0.5952116250991821, 0.08446997404098511, 0.07833439856767654, 0.0601385161280632, 0.9993101954460144, -0.029535584151744843, 0.29098600149154663, -0.393363356590271, 0.10118100792169571, -0.26822760701179504, -0.09828449040651321, -0.1768716275691986, -0.7441267371177673, 0.148630291223526, 0.24568186700344086, -0.014944750815629959, 0.6527080535888672, 0.0919325202703476, 0.2827700972557068, -0.0670362263917923, 0.17940828204154968, -0.3176442086696625, -0.33674532175064087, -0.6833570599555969, -0.05197235941886902, 0.017453286796808243, -0.4873357117176056, 0.12323209643363953, -1.1533892154693604, 0.9056097865104675, -0.4865112006664276, 0.4091596305370331, -0.4132663309574127, 0.2701330780982971, -0.16307376325130463, -0.3966429531574249, -0.09789898991584778, -0.3576078712940216, -0.007246131077408791, 0.07053636014461517, 1.468961238861084, 0.1375318020582199, 0.25915154814720154, 0.2598695755004883, 0.4344281256198883, 0.7647262215614319, 0.09586214274168015, 1.3930702209472656, 1.7570925951004028, 0.018059950321912766, -0.2630309462547302, 0.9703109264373779, 0.3731761872768402, -1.125433087348938, -0.3063797652721405, 0.11715636402368546, -0.23864203691482544, 0.35670119524002075, -0.4844096004962921], [0.783867359161377, 0.23169970512390137, 0.7126200199127197, 0.20059485733509064, -0.05394671857357025, 0.06008622422814369, -0.1442432850599289, -0.1253872960805893, 1.1187950372695923, 0.1024157851934433, 0.5114092230796814, 0.41015225648880005, 0.2412146031856537, -0.6247389316558838, 0.5639888048171997, 0.7178798317909241, 0.43328139185905457, 0.26210489869117737, -0.4662573039531708, -0.4702673554420471, -0.6119584441184998, 0.21266449987888336, 1.5751837491989136, 0.6653328537940979, 0.48254647850990295, 0.7488860487937927, 1.5652680397033691, -0.404548317193985, -1.2002068758010864, -0.052922919392585754, -0.04155794531106949, -0.06163784861564636, -0.628616452217102, -0.6216773986816406, -1.5823414325714111, -0.5146783590316772, -0.80338454246521, -0.7047777771949768, -0.6678842902183533, -0.3961224853992462, -0.4501539468765259, -1.3658926486968994, -1.274013638496399, -0.10181529819965363, -1.3245426416397095, -0.24970152974128723, -0.3536839783191681, -1.9350508451461792, -0.21436405181884766, -0.12103051692247391, 0.4986882507801056, 0.026385681703686714, 0.049509260803461075, -0.2676524817943573, 1.031922698020935, -0.7252954840660095, -2.6135921478271484, -0.59343421459198, 0.8319118618965149, -0.052788425236940384, -0.6401605010032654, 0.05808074772357941, -0.4665506184101105, -0.3320019543170929, -0.016227617859840393, -0.5970262885093689, -0.11000796407461166, 0.29507070779800415, -0.45314088463783264, 0.04781416058540344, -0.17166458070278168, -0.3115115761756897, -0.36622363328933716, -0.8973026871681213, 0.08282499760389328, -0.17273560166358948, -0.5005996823310852, 0.4416603446006775, -0.318767249584198, 0.28073760867118835, -0.012401603162288666, 0.14955280721187592, 0.7324092984199524, -0.3431623578071594, -0.14078427851200104, 0.513202965259552, 0.23916859924793243, 0.17367641627788544, 0.28598666191101074, -0.26508739590644836, 0.07877673208713531, -0.09390228241682053, 0.22342431545257568, 0.11902172863483429, 0.1975698322057724, -1.0718344449996948, -0.6210108995437622, -0.8902353644371033, -0.06823337823152542, 0.3594436049461365, -0.04143838584423065, 0.10234532505273819, -0.23030759394168854, 1.2357839345932007, 0.11398491263389587, -0.10228699445724487, 0.4886246621608734, 0.2959596514701843, -0.12893466651439667, -0.22794301807880402, 0.2663349509239197, -0.08231380581855774, -0.38735803961753845, 0.4098629355430603, 0.040289029479026794, 0.3923371434211731, -0.9868733286857605, 0.014471564441919327, -0.03492150083184242, 0.8323798179626465, -1.3990497589111328, -0.6890830993652344, 1.0667531490325928, 1.1899240016937256, -0.6468967795372009, -0.012903770431876183, 0.4089721739292145, 0.1495346873998642], [0.4682494103908539, 0.4429432451725006, -0.7162725329399109, -0.6420833468437195, -0.47518205642700195, -0.6091928482055664, 0.13901527225971222, -1.658145546913147, -0.2568884491920471, -0.05923212319612503, -1.1160516738891602, 0.14351585507392883, -0.211867094039917, -0.15986482799053192, -0.7588726878166199, -0.2524275481700897, 0.12332173436880112, -0.6647419333457947, 0.43480435013771057, 0.5695615410804749, 2.320232629776001, 0.19598886370658875, -0.7699921131134033, -0.2911069393157959, 0.30145061016082764, 0.6874885559082031, 0.22780272364616394, -1.2050526142120361, 0.9365255236625671, -0.34060224890708923, -0.7426300048828125, 1.4949047565460205, -0.4237227141857147, 0.406276673078537, 0.4723004400730133, 0.9535707831382751, 1.1310243606567383, 2.8657150268554688, 0.878165066242218, 1.01581871509552, -0.4677121639251709, 0.9730072021484375, -0.21659225225448608, 1.4988099336624146, 0.5915903449058533, 0.5726917386054993, 0.6652219295501709, 0.3660844564437866, 0.20862631499767303, -0.15775510668754578, 1.747174859046936, 0.10641192644834518, 1.1378118991851807, 1.6055991649627686, 1.4505692720413208, 2.7896337509155273, 0.4031357169151306, 0.38880977034568787, 2.3859951496124268, 1.5075401067733765, 0.9393478035926819, 1.6309679746627808, -0.289963960647583, -0.29386112093925476, -0.2673056721687317, 0.5078782439231873, -0.11824346333742142, -0.08528883755207062, -0.25850266218185425, 0.14446164667606354, 0.9095273613929749, 0.14291821420192719, 0.22330695390701294, 0.14711911976337433, 0.12073943763971329, 0.21621182560920715, 0.3086131811141968, 1.5340384244918823, -0.09613938629627228, 0.023595374077558517, 0.08353249728679657, 0.19449539482593536, 0.1541837751865387, 0.6918127536773682, 0.08807087689638138, -0.1521560698747635, 0.34262901544570923, 0.30707359313964844, 0.53172767162323, -0.8843238949775696, 0.5512157082557678, 0.026995660737156868, -0.7003620862960815, -0.2611079216003418, 0.5886099338531494, -0.5191971063613892, 0.5579748749732971, -0.7990982532501221, 0.037738457322120667, -0.5616390705108643, 0.13317632675170898, -0.7836940288543701, -0.29042497277259827, -0.9213749170303345, -0.06959988921880722, -0.011151483282446861, -0.6323131322860718, 0.2700609266757965, 0.1653071641921997, -0.224252387881279, 0.1972217559814453, 0.22457879781723022, -0.01619570143520832, 0.7728255391120911, 0.4953966736793518, -0.46781685948371887, 0.36632660031318665, 1.247137188911438, -0.5352264046669006, -0.694696307182312, 1.1427017450332642, -1.4329798221588135, -0.09672090411186218, -0.9557521939277649, 1.2176064252853394, 0.19095924496650696, -0.16008082032203674, 1.388508915901184], [0.18430325388908386, 0.6840239763259888, 0.2780391573905945, 0.08042219281196594, 0.09746092557907104, -0.14504753053188324, -0.0247956495732069, 0.04901346191763878, 0.35356268286705017, -0.5979790091514587, 0.13619399070739746, 0.16665959358215332, -0.17645107209682465, -1.6975675821304321, 0.17796684801578522, 0.6462678909301758, -0.1798620969057083, -0.18643265962600708, -0.7217713594436646, 0.08923546224832535, 0.5158898234367371, -0.9537302255630493, 0.3535727858543396, 0.08042661100625992, -0.19267341494560242, -0.30771198868751526, -0.18033038079738617, 0.03468971699476242, 0.40568673610687256, 0.0518149808049202, -0.216190367937088, 0.7385666966438293, 0.5153302550315857, 1.3307384252548218, 0.5807703137397766, -0.33491218090057373, 0.041836969554424286, 1.512263536453247, -0.009478012099862099, 1.6307851076126099, -0.4889984130859375, 1.2541909217834473, 0.12048155814409256, -0.7819744944572449, -0.08562779426574707, -0.3562905788421631, 0.010546812787652016, -0.15599936246871948, 0.7408962845802307, 1.1823127269744873, 0.40370067954063416, -0.08894108980894089, 2.268728733062744, 0.8397563695907593, -0.055151693522930145, -0.29166486859321594, 0.620951771736145, 0.02011231519281864, -0.3803149461746216, 0.4824784994125366, 0.4313204884529114, 0.7008242607116699, 0.4435194134712219, -0.8055100440979004, 0.11575217545032501, 0.337794691324234, 0.09098874032497406, -0.11061263829469681, 0.2506111264228821, -0.08574710786342621, -0.28132757544517517, 0.19192837178707123, 0.3994075059890747, 0.05787529796361923, -0.28253090381622314, -0.3747396171092987, -0.13717222213745117, 0.6705072522163391, 0.2751722037792206, -0.36284181475639343, -0.1399793177843094, -0.1839722841978073, 0.1604522466659546, -0.07835005223751068, 0.5419390797615051, 0.007023320998996496, -0.2170751690864563, 0.05156061053276062, 0.1283419132232666, 0.5188842415809631, 0.08256516605615616, 0.1820329874753952, -0.31958329677581787, 0.009815586730837822, 0.03363678231835365, 0.41536250710487366, 0.28339317440986633, -0.6488953828811646, -0.19926099479198456, -0.19022318720817566, 0.09589257836341858, 0.2681967318058014, -0.5963876247406006, -0.23242251574993134, 0.3243035078048706, 0.016370762139558792, -0.39421457052230835, 0.5562228560447693, 0.13934843242168427, 0.2562185525894165, -0.08671983331441879, -0.07392851263284683, -0.0783083513379097, -0.1494707465171814, 0.5120469927787781, 0.34595611691474915, -0.13138873875141144, 0.3648141622543335, 0.018715254962444305, 0.40669387578964233, -0.13689620792865753, 0.20494398474693298, -0.7249393463134766, 0.13672657310962677, 0.9492405652999878, 0.004141733981668949, 0.5158331394195557, -0.08147896826267242], [-0.7934988737106323, 0.3413141071796417, 0.894391655921936, -0.4992343783378601, 0.6656740307807922, 0.8381685614585876, -0.4255330562591553, -0.21657447516918182, 0.3879743814468384, -0.40558409690856934, -0.9673232436180115, 0.5152297019958496, 0.5515553951263428, -0.016529258340597153, -0.970532238483429, -0.875288188457489, 0.7177900075912476, 0.8001154661178589, -0.06647869944572449, 1.4674700498580933, 0.6373709440231323, 0.5327371954917908, -1.1341638565063477, -0.007507476955652237, -0.03434860706329346, 0.3645527958869934, -0.883884847164154, -0.1808081418275833, 0.10559316724538803, -0.18176418542861938, 0.6039315462112427, 1.5918452739715576, -0.47358208894729614, -0.1602817326784134, -0.9777065515518188, 0.303792804479599, 0.7668588757514954, -0.5271856784820557, 0.20402224361896515, -0.23425103724002838, -0.05446035414934158, 1.2833188772201538, 0.8677603602409363, 0.5999563336372375, 0.9568276405334473, -0.17402693629264832, 1.31635582447052, 0.21844281256198883, 0.04256713390350342, -0.47647008299827576, 0.02306520938873291, 0.4237712621688843, 1.326605200767517, 1.274068832397461, 0.6833333969116211, 0.25851714611053467, 0.8502907156944275, -1.3867594003677368, 1.3459670543670654, 0.49615412950515747, 1.0453028678894043, 0.9145824909210205, -0.47595125436782837, 0.1587202250957489, -0.09192938357591629, 0.9351187944412231, -0.2010379433631897, 0.22821129858493805, -0.26098889112472534, 0.4014868140220642, -0.007182389032095671, 0.2948189377784729, 0.3222390115261078, 0.9763405323028564, 0.19579391181468964, 0.2219616174697876, -0.22462768852710724, -0.11259015649557114, -0.5001919865608215, 0.10242866724729538, 0.41377919912338257, 0.0646882876753807, -0.3467583656311035, -0.3711353540420532, 0.07333303242921829, -0.13254502415657043, -0.029141120612621307, 0.6695958375930786, 0.0975661650300026, 0.5172261595726013, 0.3737342059612274, 0.05984177440404892, -0.4692997336387634, -0.4273640215396881, -0.2670121192932129, -0.2780264914035797, 0.739405632019043, -0.5678544640541077, 0.019406884908676147, -0.06524807214736938, 1.0158237218856812, 0.5102362036705017, 0.282944917678833, -0.5509257912635803, 1.2233328819274902, 0.881970226764679, -0.9045027494430542, 0.1277032196521759, 0.9294622540473938, 1.165937066078186, 0.40104618668556213, 0.7342647910118103, 0.07777460664510727, -0.24351295828819275, 0.7424255013465881, 0.4698726236820221, 1.079730749130249, 1.2022379636764526, -0.13871653378009796, -1.0527937412261963, 1.0793439149856567, -0.3418787717819214, -0.37497076392173767, -0.3872954845428467, 0.9342465996742249, -0.2883463501930237, 0.26260456442832947, 0.48829466104507446], [0.5197328329086304, -0.10117151588201523, -0.023821871727705002, -0.3993209898471832, -0.08864051103591919, 0.01846490614116192, 1.2145230770111084, -0.20284557342529297, -0.5044354796409607, -0.9888020157814026, -0.16651831567287445, 0.6433377861976624, -0.14419564604759216, 0.505748450756073, 0.0010618272935971618, -0.2724967300891876, 0.5485025644302368, 0.27429914474487305, -0.2784576416015625, -0.35855618119239807, -0.1991109549999237, -0.6601411700248718, -0.3692668676376343, -0.9348745942115784, 0.24639056622982025, 0.8062872886657715, 0.6300705671310425, -0.047192614525556564, 1.2458670139312744, -0.17624156177043915, 0.09945697337388992, 0.4258705973625183, 0.4441128671169281, 0.7506566643714905, 0.9212049245834351, 0.14134719967842102, 0.10186761617660522, -0.28759315609931946, 0.4443683326244354, -0.8562860488891602, 0.5954157710075378, -1.7295448780059814, -0.5199931859970093, -1.5054951906204224, 0.28330424427986145, -0.36995160579681396, 0.1782298982143402, -0.7802448272705078, 0.12350001186132431, -0.2872038185596466, -0.2054765373468399, -0.6432671546936035, -0.47868993878364563, -0.4787834584712982, -0.9189355969429016, -0.6871311068534851, -0.4149622321128845, 1.7091143131256104, 0.09479036182165146, 0.09003002941608429, -0.6375120878219604, -0.6096549034118652, -0.20882479846477509, 0.7016234397888184, -0.1280578076839447, -0.2315344512462616, -0.4238191545009613, 0.3160100281238556, -0.40614795684814453, 0.1782744824886322, -0.16949523985385895, 0.05714564397931099, -0.02354629524052143, -0.19312170147895813, 0.12089096009731293, 0.36180728673934937, -0.7899105548858643, 0.5799233913421631, 0.007034158334136009, 0.159624844789505, -0.2673049867153168, 0.07155150920152664, 0.35808712244033813, 0.16336114704608917, 0.09160101413726807, 0.4444601833820343, 0.18115447461605072, 0.22882689535617828, -0.3099426031112671, -0.1932290941476822, -0.4640119671821594, -0.17158877849578857, 0.853257417678833, 0.22835850715637207, 0.32563066482543945, -0.6217732429504395, 0.16074293851852417, -1.1396124362945557, -0.33422547578811646, 0.9043923020362854, 0.5873934626579285, 0.8105117082595825, -0.1158146783709526, 0.37311482429504395, 0.9116601943969727, -0.7147500514984131, -0.12232252210378647, 0.18703098595142365, 0.15976908802986145, -0.29250368475914, 0.17351622879505157, 0.04798385128378868, -0.09469947218894958, -0.04604872316122055, -0.24098540842533112, 0.16866052150726318, 0.17899857461452484, 0.21326282620429993, 0.18117333948612213, -0.5611703395843506, -0.35353007912635803, -0.4288850724697113, 0.5683601498603821, -0.41416797041893005, 0.20691072940826416, -0.2666139602661133, 0.8942472338676453, 0.3130585849285126], [-0.3105156421661377, 0.8057502508163452, 0.9094701409339905, 0.2043580263853073, 0.32616981863975525, 0.6552795171737671, -0.5874708294868469, 0.3935549557209015, 1.7899338006973267, -0.1436111330986023, -0.11580783873796463, -0.3736688196659088, 0.6488286256790161, 2.0677554607391357, -0.48869380354881287, 0.3447223901748657, -0.7697228193283081, 0.895086407661438, 0.9523804187774658, 0.7754629850387573, 1.3195871114730835, 1.6704062223434448, -0.2261553704738617, 0.7016477584838867, 0.38566359877586365, 2.7126498222351074, 0.026495417580008507, -0.48717379570007324, 0.849023699760437, 0.09730584174394608, 0.7003156542778015, 2.6066391468048096, 0.5400416254997253, 1.528009295463562, 0.6532949209213257, 1.7717926502227783, 0.38024410605430603, -0.5001898407936096, 1.1955609321594238, 2.1274242401123047, 0.04837324097752571, 0.2299511432647705, 0.3411684036254883, 1.5360980033874512, 0.20617085695266724, 0.7973781824111938, 1.2364060878753662, 0.599175751209259, -0.11966647207736969, 0.3927886188030243, 2.206160306930542, -0.1043010875582695, 0.6268236041069031, 0.9035093784332275, -0.04023854434490204, 2.263049364089966, 2.411588430404663, -0.18222486972808838, 2.1781435012817383, 3.3130013942718506, 0.9966937899589539, 1.006226658821106, -0.2331847846508026, -2.0347025394439697, -0.06496623158454895, 0.9374104142189026, -0.1606355756521225, 0.11080040782690048, -0.4514685869216919, 0.6206558346748352, 0.8754252195358276, 0.35029518604278564, 0.4001569151878357, 1.4696524143218994, -0.03155594319105148, 0.4052473306655884, -0.5513140559196472, -0.49373042583465576, 0.14233815670013428, -0.017904045060276985, -0.2098972201347351, -0.6398717164993286, -0.6438964009284973, 0.04133385792374611, 0.603703498840332, 0.29218387603759766, -0.17469480633735657, 0.8416112661361694, 0.607475221157074, 0.003561390098184347, -0.01531517319381237, -0.9603186249732971, -0.4619244933128357, -0.050700023770332336, -0.25168123841285706, 0.6118158102035522, 0.5033585429191589, 0.23860900104045868, 1.8234803676605225, -1.04546320438385, 0.8874943256378174, 1.025400996208191, -0.050170958042144775, 0.9076201319694519, -0.3933781087398529, -0.18191096186637878, -0.6135216951370239, 0.04125186428427696, 0.42155200242996216, 0.656012237071991, 0.3169780671596527, 0.8526848554611206, 0.3294607102870941, 0.5330738425254822, 1.1224746704101562, 1.3881068229675293, 1.200868010520935, 3.0325896739959717, 0.7157230973243713, 0.2902277112007141, 1.8099427223205566, 1.587445616722107, -0.3560234606266022, 0.7322182059288025, 1.433164119720459, -0.44493046402931213, -0.17048534750938416, 2.4603333473205566], [0.19002406299114227, 0.10326755791902542, -0.2639908790588379, 0.09100650250911713, 0.44936057925224304, 0.26337510347366333, 0.31557801365852356, 0.2589559853076935, 0.2532138228416443, -0.4671369194984436, 1.2245140075683594, -0.5423938035964966, -0.6139819025993347, 1.18520188331604, 0.8685551881790161, -0.542747974395752, 0.28614458441734314, 0.583429217338562, 0.2972474992275238, -0.6308404803276062, -1.082906723022461, -0.19642223417758942, -0.21714244782924652, -0.14157041907310486, -0.30635419487953186, -0.18608082830905914, 2.4861345291137695, 1.4668153524398804, 0.4230189621448517, 0.28589898347854614, -0.3673425614833832, 0.12763093411922455, 0.01286245509982109, 0.08883876353502274, -0.40423691272735596, -0.813010036945343, -0.6004394292831421, -0.4616568386554718, -0.5417260527610779, -0.6325430870056152, -0.6931796669960022, -0.9326839447021484, -0.7691892981529236, -0.06945433467626572, -0.6875224113464355, -0.39850932359695435, -0.2547437846660614, 0.29850494861602783, -0.1782279908657074, 0.20218351483345032, -0.7615776658058167, -0.18201826512813568, -0.8953617215156555, -0.25578930974006653, 0.46393805742263794, 0.08812427520751953, -0.27165815234184265, -0.7287561297416687, 1.0607008934020996, -1.5415771007537842, -1.331969976425171, -0.5146312117576599, 0.3998594582080841, 0.8005538582801819, -0.051543548703193665, -0.2674490809440613, -0.08074446767568588, 0.03435753285884857, 0.06577098369598389, 0.4973701238632202, -0.5743582248687744, -0.1543998420238495, 0.2010517716407776, 0.5400206446647644, -0.04259990528225899, -0.2824094295501709, -0.2020527869462967, -0.6223066449165344, -0.11930961161851883, -0.21989308297634125, 0.27567845582962036, 0.03138512745499611, 0.24187758564949036, -0.6017495393753052, 0.3338721990585327, 0.4667035639286041, 0.3036782741546631, 0.9504941701889038, 0.05478087067604065, 0.569263756275177, 0.31222763657569885, 0.18697978556156158, 0.5168437361717224, -0.000444721314124763, -0.42414578795433044, 0.11659416556358337, -0.3823680579662323, -0.10488750040531158, -0.07359335571527481, 0.19566187262535095, 0.09367424249649048, 1.1025025844573975, 0.22426283359527588, 0.4574422240257263, 0.6026248931884766, -0.17129863798618317, 0.1594705730676651, -0.506829559803009, -0.10344965010881424, -0.4194104075431824, 0.08041703701019287, 0.30996277928352356, -0.5237955451011658, -0.2521204352378845, 0.18826037645339966, -0.45071643590927124, -0.13172747194766998, 0.011830128729343414, 0.3026311695575714, 0.42246994376182556, -0.47418755292892456, 0.015197057276964188, 0.4023747146129608, -0.20419538021087646, 0.45250213146209717, -0.3354457914829254, 0.19489456713199615, -0.12016462534666061], [-0.5871011018753052, 0.4762665033340454, -0.2999972105026245, 0.23360954225063324, 0.32076576352119446, -1.605225920677185, -1.5067697763442993, 0.8788501620292664, -0.9520306587219238, 0.852783203125, 0.31936609745025635, -0.6160753965377808, 0.18813379108905792, 1.148661494255066, 0.40747272968292236, 0.3639654219150543, -0.3076266348361969, -0.567333459854126, -0.6722328066825867, 0.11675719916820526, 0.8851498365402222, -0.7932375073432922, 0.826424777507782, -0.3828742802143097, -0.28564807772636414, -0.20312227308750153, -2.1255249977111816, -0.6769090890884399, -0.2903093993663788, 0.283401221036911, -0.11878017336130142, -0.6103851795196533, -0.6226198077201843, -1.2052236795425415, 0.8315528035163879, -0.016425279900431633, 1.0269814729690552, 2.108473539352417, 0.54453444480896, 1.122154712677002, 0.8904736638069153, 0.7998226284980774, -0.3678247928619385, -0.02849092334508896, -1.0408296585083008, -0.7476156949996948, 0.49264463782310486, -1.1055771112442017, -0.27149856090545654, -0.6438045501708984, -0.25166064500808716, -0.9320378303527832, -0.5692163109779358, 1.5316368341445923, -0.12059660255908966, 0.3508611023426056, 0.0005687802331522107, -0.3729272484779358, -3.4604179859161377, -1.9870038032531738, 0.8277103900909424, -0.30981630086898804, -0.19457919895648956, 0.23292423784732819, 0.32021859288215637, 0.7269949913024902, -0.1584630161523819, 0.057058077305555344, 0.36684226989746094, -0.49505919218063354, 0.33576664328575134, -0.6500645875930786, 0.15219782292842865, 0.7722082138061523, 0.1585576981306076, -1.0190157890319824, 0.3529864549636841, -0.6557846069335938, -0.35766565799713135, -0.6720340847969055, 0.46752673387527466, -0.004804469645023346, -0.3611566424369812, -0.41617560386657715, -0.2847868800163269, -0.5820143222808838, -0.12361924350261688, -0.9082353115081787, 0.3295900225639343, 0.24343933165073395, 0.643233597278595, 0.12186312675476074, -0.35388731956481934, -0.0167220626026392, -0.542160153388977, -0.2403709888458252, 0.01257153507322073, -0.5715577006340027, 0.07719532400369644, -0.05779270455241203, -0.34473493695259094, -0.32833296060562134, 0.11943738907575607, -1.033202052116394, -1.3931753635406494, 1.016912579536438, -0.7605312466621399, 0.39325010776519775, -0.20864735543727875, 0.41836899518966675, -0.5133954286575317, 0.13110189139842987, 0.937275767326355, -0.5900503396987915, 0.582868754863739, 0.3656727969646454, 0.6568641662597656, 0.5065619349479675, 0.41637343168258667, -0.008535590022802353, 0.19542750716209412, -0.360481321811676, 0.2570450007915497, -0.228526771068573, -0.1603798270225525, -0.12922431528568268, 0.10302677750587463, -1.350746989250183], [0.16477040946483612, -1.6010725498199463, -0.03984108567237854, -0.4444304406642914, -0.09459443390369415, 0.8229014873504639, 0.35731571912765503, 1.0496479272842407, -2.429192066192627, 0.227446049451828, 0.14057549834251404, 0.23601952195167542, -0.35676565766334534, -0.7416260242462158, -0.2542535960674286, -0.8604773879051208, -0.28336235880851746, 0.10982204973697662, 0.30401942133903503, -1.4264737367630005, -0.7862948179244995, -1.079357624053955, -0.6868050694465637, -0.38438767194747925, -0.3663877546787262, -0.13095757365226746, -1.0596646070480347, 1.2193982601165771, -2.7140233516693115, -0.03126316890120506, -0.18753087520599365, -2.2615296840667725, 0.4320864677429199, 0.13263356685638428, -0.5386055111885071, 0.43483462929725647, -2.203139066696167, -1.388794183731079, 0.13576601445674896, 0.28617697954177856, -0.17121519148349762, 0.21556363999843597, -0.65822833776474, -0.7178963422775269, -1.0795854330062866, 0.965003490447998, 0.1949331909418106, -1.195504069328308, 1.101657509803772, -1.2738409042358398, 2.4415605068206787, 1.8224272727966309, 0.3530290722846985, -0.6975290179252625, -0.5843244194984436, 0.4443036615848541, -1.284379482269287, 0.10508044809103012, -2.907243013381958, -1.2995840311050415, 0.9181773066520691, -0.5249308347702026, 0.7023093700408936, 1.4223421812057495, 0.08938039839267731, 0.14507944881916046, -0.5443094968795776, 0.25214695930480957, 0.33519235253334045, -0.26805001497268677, -0.5342350602149963, -0.578666627407074, 0.5956635475158691, 0.005047657061368227, 0.42113015055656433, -0.24283863604068756, -0.17505629360675812, -0.6002159118652344, -0.2765442728996277, 0.019773393869400024, 0.0756867378950119, 0.3572607636451721, -0.40665173530578613, -0.6370955109596252, -0.3402361571788788, -0.051773495972156525, 0.07248666882514954, -0.620872437953949, -0.6894762516021729, -0.2961154878139496, -0.22897633910179138, 0.29733309149742126, 0.8972216248512268, 0.030509330332279205, 0.17963768541812897, 0.1883762925863266, -0.37516358494758606, 0.41080811619758606, -0.10894778370857239, 0.8127607703208923, -0.4585161507129669, -0.8853728175163269, 0.2750723958015442, -0.33257943391799927, -1.763358235359192, 0.38238099217414856, -0.12377461045980453, 0.003927039448171854, 0.11882984638214111, 1.130798578262329, -0.46164438128471375, -0.37662073969841003, 1.4248018264770508, -1.396836757659912, -0.10689770430326462, 0.4558277428150177, -0.11595868319272995, -0.316135436296463, -0.030550125986337662, 0.5348364114761353, -1.0782839059829712, -0.45911404490470886, 0.3974873125553131, 0.042382240295410156, -1.4381319284439087, 0.24398241937160492, -0.4085536599159241, 0.6049697995185852], [0.04799296334385872, -0.23202396929264069, -0.6092899441719055, -0.11416930705308914, 0.27426645159721375, 0.44256025552749634, 0.31820520758628845, 0.5436426997184753, 0.29650458693504333, 0.498249888420105, 1.0071523189544678, -0.6354285478591919, -0.7606635689735413, -0.067088782787323, 0.5763454437255859, -0.41182148456573486, 0.18504974246025085, 2.1039392948150635, 0.1312311440706253, -1.1075280904769897, -1.4038022756576538, -1.3015193939208984, 0.2946641445159912, 0.15823331475257874, -0.15064501762390137, -1.3179514408111572, 0.20289260149002075, 0.864629864692688, -1.1163818836212158, 0.30821916460990906, -0.05708935484290123, -1.808896541595459, -0.5617954730987549, -1.0859917402267456, -2.801555633544922, -0.898353636264801, -2.558159828186035, -0.9170081615447998, 0.3081335425376892, -1.5520057678222656, -1.1073989868164062, -2.178941249847412, -1.3138633966445923, -0.8819217085838318, -1.0619585514068604, -1.3843495845794678, -0.5555998086929321, -1.1317064762115479, -0.02031530812382698, -0.8229700326919556, -0.5116015672683716, 0.48844224214553833, -1.4872990846633911, -1.7154837846755981, 0.20562677085399628, 0.5367828607559204, -2.771226406097412, -0.9329888224601746, -2.6931445598602295, -1.5582469701766968, -0.8361844420433044, -0.2573409676551819, 0.16947847604751587, 1.1930731534957886, 0.14127859473228455, -0.14445760846138, -0.04324829950928688, 0.2305881232023239, -0.28382354974746704, -0.1947091668844223, -0.7439290285110474, -0.8002203702926636, -0.4118461608886719, -0.756827175617218, 0.01174693088978529, -0.16400614380836487, -0.11893916875123978, -0.5238382816314697, -0.06781972944736481, 0.06106989085674286, -0.13451345264911652, -0.5165972709655762, 0.35609304904937744, -0.3096715211868286, 0.14484809339046478, 0.43064084649086, -0.3608458340167999, -0.34531545639038086, 0.08376144617795944, 0.26649510860443115, -0.2935762107372284, 0.3737976849079132, 1.064574956893921, -0.021081387996673584, 0.22445224225521088, 0.1604284644126892, -0.7295058369636536, 0.6380847096443176, -0.4456622898578644, 0.4909467101097107, -0.06901498883962631, 0.054328929632902145, 0.4750726819038391, 0.3255850374698639, -0.0695638656616211, 0.428581565618515, 0.7596054673194885, -0.20013226568698883, -0.9558674097061157, -0.3703697621822357, -0.419014573097229, -0.6018688082695007, 0.1362389624118805, -0.9379777908325195, -0.6749948263168335, -0.5742614269256592, -0.7041156888008118, -0.8263036608695984, 0.6058564782142639, 0.5610392093658447, -1.1720218658447266, -0.7096661925315857, 1.4171671867370605, 0.56606525182724, -1.6774557828903198, 0.025177359580993652, 0.19008933007717133, 0.9975177049636841], [0.1681675761938095, 0.6564749479293823, 0.06955169886350632, -0.7031351923942566, -0.24063080549240112, -0.15243834257125854, 0.20615243911743164, -0.5109081268310547, 0.9580321907997131, 0.2961602509021759, -0.024329490959644318, 0.08948644250631332, -0.22324825823307037, 0.2034834772348404, -0.1587347686290741, -0.5550671815872192, 0.4044795632362366, -0.3559665083885193, -0.04245683550834656, 0.11659681051969528, 0.41546666622161865, -0.3553484380245209, -0.08232156187295914, 0.3941202461719513, 0.22496534883975983, -0.5357258319854736, 0.03310047835111618, 0.31364676356315613, 0.6201633214950562, 0.23181600868701935, -0.32216015458106995, 0.32485049962997437, -0.49280470609664917, 0.5517037510871887, 0.857844352722168, 0.3720221221446991, 0.19537445902824402, 0.3325694501399994, -0.6604726314544678, 0.937609076499939, -0.10017792880535126, -0.2579329013824463, -0.47498393058776855, 0.5142279863357544, 0.6146501898765564, -0.9101954102516174, 0.9552496671676636, 1.0362423658370972, -0.018604611977934837, 0.463533878326416, 0.020257659256458282, -0.6386486887931824, -1.048264741897583, -0.3620944023132324, 0.25877106189727783, -0.28602948784828186, 1.1943204402923584, 0.4404907822608948, 1.684417963027954, 0.3196220397949219, -1.25377357006073, 0.3636227548122406, -0.8153529763221741, -0.23085284233093262, -0.08895600587129593, 0.56023108959198, -0.26210495829582214, 0.1518678367137909, -0.28646203875541687, -0.07656275480985641, -0.21185185015201569, 0.18360237777233124, 0.44234833121299744, -0.039867520332336426, 0.29437512159347534, 0.11920160055160522, 0.22072558104991913, 0.13761961460113525, -0.1656711995601654, -0.03215571492910385, 0.1103813499212265, 0.3268522322177887, 0.11085271090269089, 0.1817130148410797, -0.0700753703713417, 0.44936224818229675, 0.15616357326507568, 0.34329038858413696, 0.31798043847084045, 0.30121415853500366, 0.060504425317049026, -0.38652926683425903, 0.6518238186836243, -0.31277111172676086, -0.3795056641101837, 0.07660839706659317, -0.3682178258895874, 0.12439348548650742, 0.14819617569446564, -0.40325140953063965, -0.19146600365638733, 0.5828714966773987, -0.0588851198554039, 0.0731324553489685, 0.7263672351837158, 0.17421232163906097, -0.08503444492816925, 0.3812020421028137, -0.021676521748304367, -0.3610137701034546, 0.16386394202709198, 0.16667316854000092, -0.1955280750989914, -0.4752887785434723, 0.4945245385169983, -0.4720833897590637, -0.08059585839509964, 0.5374656319618225, 0.6527467370033264, -0.2941006124019623, 0.271442174911499, -0.5633488893508911, -1.3997453451156616, -0.05774828419089317, 0.037033066153526306, 0.20997107028961182, 0.14398746192455292, -1.4694056510925293], [0.7726214528083801, -1.207859992980957, 0.33292272686958313, 0.536698043346405, -0.11671143025159836, 0.6183651089668274, -0.3104206919670105, -0.8873471617698669, 0.5980628728866577, 0.6938359141349792, 0.006166902370750904, -0.3829154074192047, 0.07833158224821091, -0.9068333506584167, 0.674019992351532, 1.5290014743804932, 0.9346052408218384, -0.9591650366783142, -0.7928112745285034, 0.6667838096618652, -0.9042251110076904, 1.4067509174346924, 2.6853139400482178, 0.9638729095458984, -0.19601286947727203, 0.17752820253372192, 0.556274950504303, -0.7332899570465088, -0.204393208026886, -0.15001162886619568, -0.22549916803836823, -0.9902962446212769, 0.2015840709209442, 0.10536590218544006, -0.2908013164997101, -0.8236379623413086, -0.9279428124427795, 0.7891322374343872, -0.8469552397727966, -2.8151795864105225, 0.009755052626132965, 0.3023380637168884, -1.094247817993164, -0.34168365597724915, -0.07319901138544083, -0.8041976094245911, -0.9325000643730164, -1.5332599878311157, 0.2419828325510025, -1.9464378356933594, -0.979139506816864, 0.10551478713750839, -0.5116903185844421, 0.5283212661743164, 0.4307398200035095, -3.0134265422821045, -1.3061492443084717, 0.7465516924858093, 1.0850205421447754, -0.1322723776102066, 0.33741018176078796, 0.6364854574203491, -0.4102608859539032, 1.7715935707092285, -0.10530100017786026, -1.028475284576416, 0.3261617422103882, -0.04878925159573555, 0.33446431159973145, -0.2504514157772064, -0.25594982504844666, -0.08091595768928528, -0.3561769127845764, -1.1573132276535034, -0.0497792549431324, -0.1412622630596161, 0.2644272744655609, 0.7006330490112305, 0.20972824096679688, -0.2970292568206787, 0.1951276957988739, -0.28329354524612427, -0.6406119465827942, 0.646598756313324, -0.2575892210006714, -0.8217312693595886, -0.12542012333869934, -0.8397544026374817, -0.3868947923183441, -0.2305465191602707, 0.02295099012553692, -0.09419944882392883, 0.06377957761287689, 0.05998031049966812, 1.0031393766403198, -0.11278509348630905, -0.15987460315227509, -0.22307583689689636, -0.4396909177303314, 0.11673177778720856, -0.5382907390594482, 0.2190389633178711, -0.6652277708053589, 0.43232011795043945, 0.42741554975509644, 0.7990396022796631, 0.18441404402256012, 0.6548051834106445, 0.08697329461574554, 0.2741440534591675, -0.3034537434577942, -0.8124976754188538, -0.35981690883636475, -0.18251536786556244, -0.4036160111427307, 0.5846803784370422, -1.275246500968933, -0.9646632671356201, -0.16611835360527039, 0.08693218976259232, -0.7674306035041809, -0.15527677536010742, -0.48881131410598755, 0.2436249852180481, -0.41947227716445923, 0.30768394470214844, 1.4248424768447876, -0.6055871248245239], [0.32644984126091003, -0.8194741010665894, -0.864225447177887, 0.41323962807655334, -1.2954154014587402, 0.11325053125619888, 0.5483114123344421, 0.07122375071048737, -0.7498722076416016, -0.17857368290424347, 0.22009997069835663, 0.44532153010368347, -1.585870623588562, -0.8775635957717896, 0.29375675320625305, -0.10395033657550812, 0.38664212822914124, -2.1723685264587402, -1.7247071266174316, -0.5343283414840698, -2.736922264099121, -0.26397088170051575, 1.0402324199676514, 0.25333496928215027, -1.366976261138916, -0.7729118466377258, -1.188309669494629, 1.2611361742019653, -1.214274525642395, -0.0743962749838829, -0.6360859870910645, -1.349602222442627, -0.6168180704116821, 0.9038839340209961, -0.5974616408348083, -2.4398608207702637, 1.2817953824996948, -1.724993348121643, -1.1740390062332153, -1.02392578125, -0.6780759692192078, -0.5085753798484802, -0.6887214183807373, 0.44035980105400085, 0.278273344039917, 1.3433797359466553, -0.8302436470985413, -0.08779483288526535, 0.5341812372207642, -1.2004835605621338, -0.9161034226417542, -1.263513445854187, -1.05766761302948, -0.5472517013549805, 0.5665689706802368, -0.854591965675354, -1.7548564672470093, 0.19404160976409912, 0.7044805884361267, 0.4086531400680542, -0.3776295483112335, -0.37696731090545654, -0.0010343454778194427, 1.8790462017059326, 0.038972534239292145, -0.18744437396526337, 0.4639871120452881, -0.14149561524391174, 0.73399418592453, -0.27463388442993164, -0.8230356574058533, -0.1425057351589203, -0.6896776556968689, -0.3498959243297577, -0.15946181118488312, 0.05049334093928337, 0.7303648591041565, 0.3093917965888977, 0.1696813553571701, -0.16605833172798157, -0.20520447194576263, 0.15722273290157318, 0.14158494770526886, -0.004924975335597992, -0.3803523778915405, -0.6858167052268982, -0.06468237191438675, -0.34273505210876465, -0.6008578538894653, 0.038943588733673096, -0.18510276079177856, 0.009795822203159332, 0.08838046342134476, 0.27040353417396545, 0.17121079564094543, 0.7547338604927063, -0.006449464242905378, -0.08305580914020538, -1.2859350442886353, 0.6970990896224976, -0.6449624300003052, -0.8115760087966919, -0.053162988275289536, -0.6597644090652466, 0.28358158469200134, -0.5900424122810364, 0.6621189713478088, -0.04627148434519768, -0.5311354398727417, -1.0205281972885132, -0.18250668048858643, -0.591882586479187, -0.09634321928024292, -0.7011483907699585, -0.06307001411914825, -0.753960907459259, -1.7631474733352661, -2.963120222091675, -0.26259681582450867, 0.16460266709327698, -1.3174794912338257, -0.10960522294044495, -0.215297669172287, -1.1398639678955078, -0.16178594529628754, 0.2451183944940567, 0.024177685379981995, 0.2599393129348755], [-0.3802904188632965, -1.3582980632781982, -0.09248828142881393, -0.5803494453430176, -0.4305012822151184, 0.12991391122341156, 0.5091464519500732, -1.0013976097106934, 1.3343597650527954, 0.004895057529211044, -0.2570996582508087, -0.23317545652389526, -1.4403307437896729, 1.2300701141357422, -0.19974304735660553, -0.6898106336593628, -0.1253643035888672, -0.5278188586235046, -1.3116850852966309, -0.5848670601844788, -0.7411155104637146, -1.9023617506027222, 0.25699546933174133, -0.19174009561538696, 0.7424042820930481, -0.5497896671295166, -0.08728278428316116, 0.23741702735424042, -0.26532694697380066, 0.15948927402496338, -0.07714258879423141, 0.3530672490596771, -0.12871655821800232, 0.11522947251796722, 0.6960958242416382, 1.9272136688232422, 1.1158125400543213, 0.639544665813446, 0.06341483443975449, 0.05209685489535332, -0.3894454538822174, -1.181282877922058, 0.3719177842140198, -0.34389060735702515, 0.13439127802848816, -2.0252597332000732, 0.9001200199127197, -0.9739101529121399, -0.43732330203056335, 0.774459958076477, -0.5823770761489868, -0.5646973252296448, 0.8154272437095642, -0.3603229224681854, -0.4350113570690155, 1.4478583335876465, 0.23351770639419556, 1.46736478805542, -0.4287380278110504, 1.0470865964889526, -0.5463150143623352, -0.7129276990890503, 1.0497113466262817, 1.2774099111557007, 0.10534080862998962, 0.16513694822788239, -0.07110398262739182, 0.09462323039770126, -0.6908189654350281, -0.11371386051177979, -0.2901661694049835, -0.24331463873386383, 0.015396405011415482, 0.49339568614959717, -0.03134521469473839, -0.16332033276557922, -0.5792288780212402, 0.22001348435878754, -0.3425334095954895, 0.17301078140735626, 0.1216265931725502, -0.16153350472450256, 0.3902661204338074, -0.10574817657470703, 0.17107418179512024, 0.902309000492096, 0.15657956898212433, -0.5179806351661682, 0.21045945584774017, 0.05276602506637573, -0.731216311454773, 0.0189143605530262, 0.05045464262366295, -0.04033495858311653, 0.12497635185718536, 0.38252243399620056, 0.06416326016187668, -0.4930609166622162, 0.12636065483093262, 0.2660921514034271, -0.3113998770713806, 1.2011082172393799, -0.019352853298187256, -0.35915786027908325, 0.24273701012134552, 1.2153314352035522, 0.02002066560089588, 0.2685821056365967, -0.39779287576675415, 0.4115428328514099, 0.0033989192452281713, -0.6001081466674805, 0.10207464545965195, -1.0496940612792969, 0.059870243072509766, 0.636070728302002, 0.25704658031463623, 0.8083003163337708, -0.4030582010746002, -0.1992069035768509, 0.2540014088153839, -0.8458455801010132, -0.3864482343196869, 0.4221111834049225, -1.2470805644989014, -0.1343259960412979, 1.3127164840698242, -0.5498305559158325], [-0.8503514528274536, 1.006514072418213, -1.1416361331939697, 0.14947877824306488, -0.3464220464229584, 0.799709141254425, -0.47828954458236694, -0.7497259378433228, -0.07667534798383713, -0.6571299433708191, 0.527710497379303, 0.13242647051811218, -0.07779453694820404, 1.2915836572647095, -0.6417933106422424, 0.08943387120962143, -0.10822299122810364, 0.5434242486953735, 1.0313118696212769, 0.7577322125434875, 0.13068532943725586, -1.5443309545516968, -0.11946041136980057, -0.1899559050798416, 0.03223871812224388, 1.2086362838745117, -2.7677114009857178, -0.2064957618713379, 1.242218255996704, 0.15699121356010437, 0.24105238914489746, -0.6704476475715637, -0.3216109573841095, 0.4061149060726166, 0.8912511467933655, 1.699060082435608, 0.7110639810562134, 3.4189515113830566, -0.74430251121521, 1.4559646844863892, -0.42035770416259766, -1.385941982269287, 1.123848795890808, 0.14713987708091736, 0.716901421546936, 0.40746796131134033, 0.7254442572593689, -0.45625683665275574, -0.27126696705818176, 1.1832636594772339, -0.20821316540241241, -0.16490472853183746, -0.5919247269630432, -0.710048258304596, 2.309607744216919, 1.3182307481765747, 0.0609709769487381, 0.6246868371963501, -0.5291521549224854, 0.13254837691783905, 0.4792572557926178, 0.2120499610900879, 0.406089723110199, 0.6361700296401978, 0.22411072254180908, 0.42808762192726135, -0.05764305964112282, 0.01049492135643959, -0.18685060739517212, -0.054782476276159286, -0.3592744767665863, -0.529401421546936, 0.5811318159103394, 1.019094705581665, 0.01792082190513611, 0.68162602186203, 0.4749695658683777, 0.03598199039697647, -0.2857614755630493, -0.40149423480033875, 0.299300879240036, -0.309233158826828, 0.9887334704399109, -0.5672084093093872, 0.11443614959716797, 0.4691401422023773, -0.7358250021934509, -0.538617730140686, 0.6819534301757812, -1.0838408470153809, 0.7341379523277283, 0.09166319668292999, -0.9459165930747986, -0.021084146574139595, -0.22463175654411316, -0.6335116624832153, 0.4532622694969177, 0.10085824877023697, 0.8105746507644653, 0.14896146953105927, 0.3219102919101715, 0.015618788078427315, 0.15672948956489563, 0.5533238053321838, -0.1511751413345337, -0.8172619342803955, -0.056714192032814026, -0.4001554548740387, 0.3743058741092682, 0.42077234387397766, -0.24144697189331055, -0.3469143807888031, 0.01873909682035446, -0.721994161605835, 0.28842318058013916, -0.9191669821739197, 0.8826579451560974, 0.7258033156394958, 0.8435296416282654, -1.2983194589614868, -0.08945252746343613, 0.4013873338699341, 0.37235283851623535, 0.8686069250106812, 1.6119182109832764, -0.21387821435928345, 0.6866866946220398, 1.4750962257385254], [-0.4652356207370758, 0.8832612633705139, 0.5429590344429016, -0.25176021456718445, -0.4468413293361664, 0.6296901106834412, -0.21078826487064362, -0.2633002698421478, 0.3084856867790222, -0.020170055329799652, -0.4090115427970886, -0.24025721848011017, 0.02037235163152218, 0.9772193431854248, -0.5964893698692322, 0.45759639143943787, -0.26434850692749023, -0.010591037571430206, -0.5850299596786499, 1.0129514932632446, 2.0237743854522705, 0.7502323389053345, 0.037132229655981064, 0.6658505797386169, 0.3991771638393402, -0.2547678053379059, -0.6826489567756653, -0.5973381996154785, 0.7771323919296265, 0.08132251352071762, 1.3740350008010864, 0.5517603754997253, -0.25837966799736023, -2.6006720066070557, 1.6158708333969116, 2.046283006668091, 1.5386791229248047, -0.4880799651145935, 0.8334428071975708, 0.5099693536758423, 0.4300817549228668, 0.8641279935836792, 1.4663599729537964, 0.7279571890830994, 0.15210925042629242, -0.7566874027252197, 0.6782286763191223, 0.6940873265266418, -0.2248217910528183, 1.3485209941864014, -0.59783536195755, -0.6623817682266235, 1.2458775043487549, 2.104825496673584, 0.4222241938114166, -0.6193446516990662, 1.5886667966842651, 0.7040117979049683, -1.2942132949829102, 0.07455530762672424, 0.5168417096138, 0.48904672265052795, -0.7845399975776672, -1.2082254886627197, 0.08022850006818771, 0.5204444527626038, -0.34846439957618713, -0.14314724504947662, 0.006397312041372061, -0.014928285032510757, 0.6275767087936401, 0.16109225153923035, 0.011508873663842678, 0.31691354513168335, -0.1998622566461563, 0.5449055433273315, -0.38215893507003784, 0.39137136936187744, 0.24341659247875214, -0.17981703579425812, 0.07782955467700958, -0.3643105626106262, 0.08026715368032455, 0.21555037796497345, 0.2511647939682007, 0.2950693964958191, -0.5427945852279663, 0.05821491405367851, 0.3625127971172333, 0.5825806260108948, -0.0006899270229041576, -0.2676137387752533, -0.36327794194221497, -0.12325512617826462, -0.37705808877944946, -0.6782488226890564, 0.6730952858924866, -0.49176985025405884, 0.8034968376159668, -0.7679959535598755, 0.42806217074394226, 0.5735844373703003, -0.4587717652320862, -0.17062638700008392, 0.8933640122413635, -0.46304258704185486, -0.27461111545562744, 0.2748805284500122, 0.4021729528903961, 0.4081410765647888, 0.07507544755935669, 0.7266913652420044, -0.06911744922399521, -0.19166572391986847, 1.3058878183364868, 0.731494128704071, 1.9531670808792114, 1.4818367958068848, 0.7115076780319214, 0.027287185192108154, 0.9893013834953308, 0.4989209771156311, 0.8654125928878784, 0.5382611751556396, -0.0695297122001648, -0.1851881444454193, 1.1583482027053833, -0.19596414268016815], [-0.48711833357810974, 0.643288254737854, 0.31588315963745117, 0.41124191880226135, 0.18017953634262085, -0.16492360830307007, 1.2898582220077515, 0.4427339434623718, -0.7315162420272827, 0.9236511588096619, 1.0303069353103638, -0.06128981336951256, 0.7310078740119934, 0.5813446640968323, -0.13316656649112701, 0.6732922196388245, 0.03159746900200844, 1.228799819946289, 1.1177880764007568, -0.9586049318313599, -0.13769592344760895, 0.951503574848175, -0.0684681385755539, 0.47621798515319824, 0.3057720959186554, -0.9950685501098633, 1.2831485271453857, -0.019908878952264786, -0.6601023077964783, 0.4179944694042206, 0.14762699604034424, -0.023988615721464157, 0.16773030161857605, -0.810581386089325, -1.2607604265213013, 0.20189818739891052, -0.24650783836841583, -0.06290442496538162, 0.5523668527603149, -0.39435985684394836, -0.11119652539491653, -1.9597513675689697, -0.053227122873067856, -0.5994857549667358, 1.4469432830810547, -0.896026611328125, -0.45439016819000244, 0.30287492275238037, -0.1393754929304123, 0.24063517153263092, 0.5283054113388062, 0.2850096821784973, -0.4903947412967682, 0.33187535405158997, 0.7245377898216248, -0.2526351511478424, -0.42193326354026794, -0.2493550330400467, -2.2284016609191895, 0.5321953892707825, -0.7974860668182373, 0.15301866829395294, 0.28255796432495117, -0.5877345204353333, -0.09113101661205292, 0.10039364546537399, 0.20651377737522125, -0.06583930552005768, 0.3606821894645691, -0.07732393592596054, 0.15475882589817047, -0.4578871726989746, -0.33744803071022034, -0.8706978559494019, -0.045690376311540604, 0.26142972707748413, 0.3279891014099121, -0.07995713502168655, 0.11980653554201126, -0.14836427569389343, -0.2663300633430481, -0.1684628427028656, 0.162886381149292, -0.2887815535068512, -0.10266713798046112, -0.6787827610969543, 0.19012734293937683, -0.02253139205276966, 0.10498356074094772, -0.27528563141822815, -0.45585349202156067, -0.12404897809028625, -0.18940147757530212, 0.2622537910938263, 0.06520810723304749, 0.24281729757785797, -0.07784667611122131, 0.6488057374954224, -0.5956186652183533, -0.427395224571228, 0.3212446868419647, 0.10347720235586166, 0.28792431950569153, 0.674034059047699, 0.12832759320735931, -0.4425602853298187, 0.23049288988113403, -0.08321051299571991, -0.14140000939369202, 0.42868465185165405, -0.10041201859712601, -0.5150038003921509, 0.14879892766475677, 0.35226985812187195, -0.3726477026939392, 0.026049340143799782, -0.5764848589897156, -0.25189322233200073, -0.21663926541805267, -0.3863752782344818, -0.2633950412273407, 0.6526549458503723, 0.32850518822669983, 0.006257410626858473, 0.3506507873535156, 0.32822513580322266, 0.2675902843475342, 0.34172505140304565], [1.079458475112915, -0.2883029878139496, -0.39098483324050903, -0.6082253456115723, -0.36262020468711853, -0.6410694718360901, 0.20019304752349854, -1.0120124816894531, 0.3426208198070526, -0.3680463135242462, 0.10478565841913223, -0.44757235050201416, -0.3657255172729492, -0.7635812759399414, -0.03246576711535454, -0.5975686311721802, 0.3276408612728119, -0.28836512565612793, -0.6164641976356506, -0.18264564871788025, -2.271368980407715, 0.37838348746299744, 0.7311853766441345, -0.6699255108833313, 0.4826527535915375, -0.11573676764965057, 0.3873404860496521, 0.2967509329319, -0.8305014371871948, -0.3437667191028595, 0.2391383945941925, -0.5673641562461853, -0.28357604146003723, 0.24247445166110992, -0.5372492074966431, 0.203385591506958, 0.2799048125743866, -0.33819445967674255, -0.6081838607788086, -0.03907560929656029, 0.7882356643676758, -0.5803696513175964, -0.8821396231651306, 1.4351670742034912, -0.014278195798397064, 0.2315179407596588, 0.6315656304359436, 0.13910001516342163, 0.623921811580658, 0.6508745551109314, -0.31028297543525696, -0.0227814931422472, 0.741720974445343, -0.9086461067199707, 0.053348392248153687, 0.9070676565170288, 0.9613000750541687, -0.18678642809391022, 1.3981757164001465, -0.21815074980258942, -0.5183296799659729, -0.2207968533039093, -0.5612813234329224, 0.4015935957431793, -0.11482247710227966, -0.9412659406661987, -0.6916339993476868, -0.06840525567531586, -0.30827993154525757, 0.012916130013763905, -0.26489579677581787, 0.044777899980545044, -0.4287254214286804, -0.5062294006347656, 0.05812197923660278, -0.1562318503856659, -0.41985219717025757, -0.07037726789712906, 0.0310311708599329, 0.4240299463272095, -0.06534828990697861, 0.40380531549453735, 0.13325102627277374, 0.5883983373641968, -0.2984525263309479, 0.3430773913860321, 0.4114614725112915, 0.21051914989948273, 0.14316634833812714, -0.00123113626614213, 0.1820148378610611, 0.12057146430015564, 0.016427993774414062, -0.02933073416352272, 0.29141244292259216, -0.21963122487068176, -0.691935122013092, -0.6941395401954651, 0.1835256814956665, 0.3578890562057495, -0.5139610171318054, -0.12421439588069916, -0.2250339239835739, 0.0986618623137474, -0.9977213740348816, -0.040093254297971725, 0.3096890449523926, -0.24845045804977417, -0.3631328046321869, 0.6653059720993042, -0.02157830446958542, -0.5311064720153809, -0.38949355483055115, 0.16093027591705322, -0.5524997711181641, -0.4822565019130707, -0.5266007781028748, -0.45683911442756653, -0.6553667783737183, 0.08422479033470154, -0.6110528707504272, -0.14936710894107819, 0.5560079216957092, -0.15070579946041107, -0.16729193925857544, 0.06054679676890373, 0.2165125608444214, -0.2590320110321045], [0.34752315282821655, 1.779840350151062, 1.4183437824249268, -0.16966864466667175, -0.440654993057251, -1.130789041519165, 0.16594749689102173, -1.140449047088623, -0.29664087295532227, -0.7023177146911621, -0.49734458327293396, 0.13392318785190582, -0.09140519052743912, -0.6571493744850159, -0.15718837082386017, 0.24208159744739532, 0.02072468213737011, -1.459223985671997, -0.6394843459129333, 0.5455389022827148, 2.477785110473633, 1.0705697536468506, -0.5496460199356079, 0.20976772904396057, 0.2589685618877411, 0.6479922533035278, 1.3502812385559082, -1.1967017650604248, 1.5548255443572998, -0.2866687774658203, -0.17664781212806702, 2.4469501972198486, -1.1915719509124756, -2.5311365127563477, 0.8946046233177185, 2.2160398960113525, 2.9818336963653564, 2.4761505126953125, 1.3884718418121338, 1.8507498502731323, 0.1392810344696045, 1.1333351135253906, -0.23694340884685516, 1.0885578393936157, -0.433804988861084, 0.9206762313842773, 1.3761727809906006, 1.2962721586227417, 0.11753031611442566, 0.4509457051753998, 0.08252789825201035, -0.726823627948761, 0.05596723407506943, 2.583007335662842, 1.2572624683380127, 1.1761095523834229, 0.7240563035011292, 0.880470871925354, -0.18902507424354553, -0.23975828289985657, -0.3298243284225464, 1.5920130014419556, -1.0722121000289917, -0.40599682927131653, -0.1921727955341339, -0.6284257769584656, 0.007867253385484219, -0.08125584572553635, 0.5569263696670532, 0.5222692489624023, 0.8225017786026001, 0.5134257078170776, 0.31608903408050537, 0.17238974571228027, -0.05006473511457443, 0.5981863141059875, -0.07528676092624664, 1.9964911937713623, 0.10085607320070267, -0.5332909226417542, 0.029377415776252747, -0.34211012721061707, 0.18247385323047638, 0.5412659645080566, -0.06926281005144119, -0.614590048789978, 0.22596684098243713, 0.8454956412315369, -0.5326783657073975, 0.12338397651910782, -0.7104321718215942, -1.0116455554962158, -0.12465742230415344, -0.009168731048703194, 0.05180882662534714, -1.9202347993850708, -0.03245951607823372, -0.6957491040229797, 0.4521426260471344, -1.0221705436706543, 0.27234765887260437, 0.052892327308654785, -0.58360356092453, -0.4266972839832306, 0.28036972880363464, -0.5841773748397827, -0.10964327305555344, 0.08221296966075897, 0.2791208028793335, -0.09540636092424393, 0.47194087505340576, 0.2210446000099182, -0.11384932696819305, 1.1422741413116455, 1.0424734354019165, -0.2912639081478119, 1.1233317852020264, 0.9626566171646118, -0.23948907852172852, -0.40388116240501404, 0.8922140002250671, -0.3283590078353882, -0.7831007838249207, 0.06380413472652435, 0.8694046139717102, -0.3037049174308777, -0.03347131237387657, 0.031112201511859894], [0.9175342917442322, -0.6136167645454407, -0.8435360789299011, 0.1867305189371109, -0.2252793163061142, -0.403410404920578, 0.12816546857357025, -0.3465842008590698, 1.0657252073287964, -0.015047789551317692, 0.1331397294998169, -0.029546601697802544, -0.9814960956573486, -1.285059928894043, 0.13105615973472595, 0.4160135090351105, 0.6084450483322144, -2.041257858276367, -0.7300097346305847, -0.36999741196632385, -1.7547529935836792, -0.6141297221183777, 0.838538408279419, 1.014225721359253, -0.620704174041748, -1.8020098209381104, 0.09874539077281952, -0.20643192529678345, -0.627504289150238, 0.22610688209533691, -0.7242202758789062, -1.1775134801864624, -0.3849486708641052, -0.22321279346942902, -1.0967719554901123, -1.8893531560897827, -1.0748896598815918, -1.918808102607727, -0.8379815220832825, -0.9015613794326782, -0.013031774200499058, -0.05803889408707619, -1.2841551303863525, -0.16701462864875793, -1.8068791627883911, 0.5032292008399963, -1.2987602949142456, -0.7205575704574585, 1.7495975494384766, -0.9794138073921204, -0.8554438948631287, 0.5054295659065247, 0.35506901144981384, -0.8686398267745972, -0.5670334696769714, -2.0637431144714355, -0.8016403317451477, -0.9949436783790588, -0.9061644077301025, 0.6682152152061462, -0.98343825340271, 0.12647925317287445, -0.4385843873023987, 0.43375638127326965, -0.05449977517127991, -0.19352640211582184, 0.39085057377815247, -0.06430639326572418, 0.04532160982489586, 0.4045039117336273, -0.8116493821144104, -0.46454113721847534, -0.7985403537750244, -0.36122196912765503, 0.1614365577697754, -0.06461237370967865, -0.006538569927215576, -0.3280336558818817, -0.29812994599342346, 0.015397470444440842, -0.16606786847114563, -0.034954220056533813, -0.6930990815162659, 0.020409302785992622, -0.17767265439033508, -0.21589688956737518, 0.3751637935638428, -0.3125157356262207, -0.07677049189805984, 0.10945599526166916, 0.3573179244995117, -0.021936563774943352, 1.624590277671814, 0.11996103823184967, 0.34959954023361206, 0.6981432437896729, -0.6360214948654175, -0.08283868432044983, -1.3546267747879028, 0.4914812445640564, -0.5807348489761353, 0.8781620264053345, 0.3019261658191681, 0.3517128527164459, 0.07028498500585556, 0.2264329493045807, 0.7187178730964661, -0.3127437233924866, -0.7175996899604797, -0.11704721301794052, -0.03157547488808632, -1.2694485187530518, 0.35611164569854736, -0.6864135265350342, -0.68600994348526, 0.09721158444881439, -1.588930606842041, -2.250405788421631, -1.0344066619873047, -0.15934942662715912, -1.1805469989776611, -1.0239900350570679, 0.9982844591140747, 1.0308475494384766, -1.16978919506073, 0.06827234476804733, 0.05869235843420029, -2.027280330657959], [-0.056702837347984314, -0.1628631055355072, -1.1450982093811035, -0.24296243488788605, -1.4280593395233154, -0.32313215732574463, -0.033996276557445526, -0.3023701608181, 0.35137811303138733, -0.0489974319934845, -0.40290483832359314, -0.5206804275512695, -0.04336833581328392, -0.24632395803928375, -0.3659118413925171, -0.21694150567054749, 0.20847901701927185, 