{"conv1d": {"bias:0": [0.01314272079616785, -0.00026879552751779556, -0.006395645439624786, 0.024511637166142464, -0.009902387857437134, 0.004797253757715225], "kernel:0": [[[0.5506869554519653, 3.01147198677063, -1.229886770248413, -1.0037624835968018, -1.8608967065811157, -2.3398256301879883]], [[0.3382287919521332, 3.0218989849090576, -0.7382605671882629, -0.9687263369560242, -1.6772516965866089, -2.5456225872039795]], [[0.06038890406489372, 2.3375980854034424, -0.21624621748924255, -0.9745514988899231, -1.3460872173309326, -2.421401262283325]], [[-0.11663544178009033, 1.277867078781128, 0.47633978724479675, -1.167005181312561, -0.16326792538166046, -1.8382458686828613]], [[-0.6934899687767029, 0.07122727483510971, 1.1387920379638672, -1.3386155366897583, 0.4783340096473694, -1.7367234230041504]], [[-0.6671592593193054, -1.6467303037643433, 1.3603929281234741, -1.460854411125183, 1.5505095720291138, -1.5302724838256836]], [[-1.2765488624572754, -2.509410858154297, 1.905332088470459, -1.274489164352417, 1.8327953815460205, -1.0570858716964722]], [[-1.2292134761810303, -2.6316256523132324, 1.573412537574768, -1.3891643285751343, 2.007178783416748, -0.4648417532444]], [[-1.2597578763961792, -2.947317123413086, 1.2294799089431763, -1.3737564086914062, 1.97999906539917, -0.5041107535362244]], [[-0.8248762488365173, -2.247495651245117, 0.8706232905387878, -1.2968177795410156, 1.2073709964752197, -0.09227370470762253]], [[-0.6319262385368347, -0.9544188976287842, 0.1005484014749527, -1.098646640777588, 0.339799702167511, 0.4616048038005829]], [[0.22652128338813782, 0.6897563934326172, -1.1177572011947632, -0.6903268694877625, -1.3022935390472412, 0.588979184627533]]]}, "conv1d_1": {"bias:0": [-0.0002946401946246624, -0.007343269418925047, -0.005988825112581253, -0.039171237498521805, 0.0573766753077507, 0.006158324424177408], "kernel:0": [[[-0.40047791600227356, 0.0035069426521658897, -0.07345286756753922, -0.20190958678722382, 0.2840650975704193, -0.01724887080490589], [-0.15873509645462036, 0.08970139175653458, 0.03966173157095909, -0.2401004135608673, 0.05100155249238014, -0.04705513268709183], [0.014504862017929554, 0.06718190759420395, 0.12533262372016907, 0.1461532711982727, -0.24500152468681335, -0.23969581723213196], [-0.5021284222602844, -0.005904740653932095, -0.2643539011478424, -0.4301874339580536, 0.5149273872375488, -0.11614789813756943], [0.013052472844719887, -0.18468815088272095, 0.01523586641997099, 0.152718648314476, 0.10278390347957611, 0.11248266696929932], [-0.26555347442626953, 0.048872653394937515, -0.31852659583091736, -0.5194025635719299, 0.4614514410495758, -0.232319176197052]], [[-0.11891758441925049, 0.015867037698626518, -0.19806136190891266, -0.12250512093305588, 0.3135508596897125, 0.005725168157368898], [-0.03996623307466507, 0.2776569724082947, 0.3483652174472809, -0.2695300877094269, -0.3663627505302429, -0.11634562164545059], [0.20476041734218597, 0.04329168051481247, 0.18802496790885925, 0.30203694105148315, -0.19818413257598877, -0.062323760241270065], [-0.13689179718494415, -0.07837872207164764, -0.19320102035999298, -0.2863259017467499, 0.4862813949584961, -0.36589884757995605], [0.09469431638717651, -0.058676090091466904, -0.08390490710735321, 0.35661181807518005, 0.022212084382772446, 0.08635430037975311], [-0.7625243663787842, -0.006118795834481716, -1.0431807041168213, -0.8257872462272644, 0.913354218006134, -0.3402153551578522]], [[0.3904953896999359, 0.16034601628780365, 0.8053350448608398, -0.6609677672386169, 0.0020436111371964216, -0.2781803011894226], [0.14556188881397247, 0.10450702905654907, 0.14050662517547607, -0.5138794779777527, -0.13908924162387848, -0.5168622732162476], [-0.5699674487113953, -0.2929932773113251, -0.6401344537734985, 0.4237571656703949, -0.055387720465660095, 0.05694965273141861], [0.3194480240345001, -0.026630643755197525, 1.2127838134765625, -0.6551976203918457, 0.0054728868417441845, -0.1419663429260254], [-0.20069792866706848, -0.07553914934396744, -0.1097663938999176, 0.6330801844596863, -0.027703188359737396, 0.19333387911319733], [1.0465195178985596, 0.14049877226352692, 1.832318902015686, -0.47513440251350403, 0.010273551568388939, 0.3187497854232788]], [[0.4284621775150299, -0.20794959366321564, -0.09541154652833939, 0.45188474655151367, 0.021948639303445816, 0.3615366220474243], [0.772510826587677, -0.4085792601108551, -0.22492556273937225, 0.5691542029380798, -0.21691590547561646, 0.19076763093471527], [-0.5914456248283386, 0.09539081901311874, 0.11038679629564285, -0.3911411464214325, -0.060840968042612076, -0.26755601167678833], [0.49988335371017456, -0.2703312039375305, -0.13756442070007324, 0.21313317120075226, 0.09181701391935349, 0.13107596337795258], [-0.6781790256500244, 0.22010768949985504, 0.026998378336429596, -0.26314985752105713, 0.008225406520068645, -0.23716843128204346], [-0.04344097152352333, -0.19018352031707764, 0.16200238466262817, -0.21181832253932953, 0.3920784592628479, -0.21658556163311005]], [[0.46760717034339905, -0.48872390389442444, -0.5589051246643066, 0.6731720566749573, 0.1571875363588333, 0.3337310254573822], [1.0458155870437622, -0.5007668733596802, -0.28594470024108887, 0.9413601160049438, -0.07178257405757904, 0.5444471836090088], [-0.9197173714637756, 0.27936625480651855, 0.409241259098053, -0.6862967014312744, 0.1368289291858673, -0.44302940368652344], [0.838031530380249, -0.8819689154624939, -0.6149415373802185, 1.0599926710128784, 0.4509982168674469, 0.4317306876182556], [-0.8825668096542358, 0.2893667221069336, 0.34315842390060425, -0.5707011818885803, 0.15502429008483887, -0.4819255769252777], [0.8186241388320923, -0.6479836702346802, -0.7983276844024658, 1.0488226413726807, 0.2413347363471985, 0.07705705612897873]], [[-0.6704543828964233, 0.5701172351837158, 0.15159988403320312, -0.05432997643947601, -0.4591817259788513, 0.4650267958641052], [-1.9815986156463623, 1.0180981159210205, 0.4101562201976776, 0.4644930362701416, -1.0295292139053345, 1.3514692783355713], [0.7228413224220276, -0.4469999074935913, -0.3733651638031006, 0.1593073606491089, 0.19759561121463776, -0.5941469669342041], [-1.208662509918213, 0.27250534296035767, 0.5161034464836121, 0.029192045331001282, 0.10168179869651794, 0.5693000555038452], [1.117421269416809, -1.0120797157287598, -0.3309065103530884, -0.3472623825073242, 0.5444567799568176, -0.8156641125679016], [-0.02703394927084446, -0.2227899730205536, -0.013068964704871178, -0.1757592260837555, 0.6527536511421204, 0.33047062158584595]], [[0.21922701597213745, -0.06237926706671715, 0.03762515261769295, -0.17365071177482605, -0.5634445548057556, 0.022803159430623055], [0.8226103186607361, 0.2585752308368683, -0.5695947408676147, -0.12853221595287323, -0.8608116507530212, -0.5889631509780884], [0.04636106267571449, -0.44576290249824524, 0.26343658566474915, 0.10707636177539825, 0.5032495260238647, 0.14447613060474396], [-0.23093825578689575, -0.03126493841409683, -0.09693396091461182, -0.34013131260871887, -0.5023462772369385, -0.1915542483329773], [-0.39890414476394653, -0.022580768913030624, 0.10359935462474823, 0.23917217552661896, 0.6639795899391174, 0.3258592188358307], [-0.9598156809806824, 0.40173354744911194, 0.26466941833496094, -0.05907807871699333, -0.30817171931266785, 0.33762794733047485]], [[0.2131538987159729, 0.03821508213877678, -0.32921695709228516, -0.48673439025878906, -0.3148629367351532, 0.16364924609661102], [0.41429615020751953, 0.5677952170372009, -0.3057926595211029, -0.5925334095954895, -0.30512887239456177, 0.3215118944644928], [-0.11012877523899078, -0.19586966931819916, 0.32162609696388245, 0.36535313725471497, 0.6381188631057739, 0.3051871359348297], [0.16009189188480377, 0.006953116971999407, -0.45867079496383667, -0.7634789347648621, -1.0966885089874268, 0.1105751022696495], [-0.4555129408836365, -0.4699060618877411, 0.2754635512828827, 0.5832036137580872, 0.5034694671630859, -0.02366340532898903], [-0.10256285220384598, -0.43284088373184204, -0.3202976584434509, -0.2802882194519043, -1.134116291999817, -0.20351514220237732]], [[0.4538147449493408, 0.7082722187042236, -0.6399137377738953, -0.9617547392845154, -0.6772656440734863, 0.3838435113430023], [1.2270407676696777, 1.9067920446395874, -1.1634891033172607, -0.5727042555809021, -0.39616310596466064, 0.11407014727592468], [-0.3416622579097748, 0.04146520048379898, 0.6027784943580627, 1.2423977851867676, 0.9012557864189148, -0.23484216630458832], [0.8544216156005859, 0.4106101393699646, -1.1510027647018433, -1.7868398427963257, -1.1775941848754883, 0.6225886940956116], [-0.6484906077384949, -0.6098458170890808, 0.42270171642303467, 1.1070902347564697, 0.6722208261489868, -0.31177031993865967], [-0.2865440249443054, -2.0523743629455566, -0.5533560514450073, -3.154575824737549, -1.6212924718856812, 1.0587530136108398]], [[-1.0895603895187378, -0.8140864968299866, 0.9432274699211121, 1.7188094854354858, 1.2500261068344116, -0.8835440278053284], [-2.9535117149353027, -3.8180744647979736, 2.792804479598999, 1.6680504083633423, 1.5205626487731934, -1.6697150468826294], [1.5006861686706543, 1.2476232051849365, -1.4056545495986938, -1.8668630123138428, -1.5069419145584106, 1.3166848421096802], [-0.20420251786708832, 0.5415878891944885, 0.9146047234535217, 2.1526038646698, 1.4934178590774536, -0.8942651748657227], [2.215223550796509, 2.5614535808563232, -2.2360737323760986, -2.0000979900360107, -1.269408941268921, 1.7180734872817993], [0.8370304107666016, 3.024437665939331, 0.3030356168746948, 3.6355767250061035, 1.6621227264404297, -1.2139649391174316]], [[-0.11102958023548126, -0.4471433758735657, 0.3330957293510437, -0.3950865566730499, -0.2435416281223297, -0.507170557975769], [-0.2304902970790863, -0.7652084231376648, -0.41265979409217834, -0.497710645198822, -0.045975059270858765, -0.7479100227355957], [-0.16005612909793854, 0.4765523374080658, -0.3198546767234802, 0.3256194293498993, 0.25922831892967224, 0.33350348472595215], [0.0720832571387291, -0.43660417199134827, -0.05567565932869911, 0.2657780647277832, -0.6575382947921753, 0.28308573365211487], [0.31050020456314087, 0.43075716495513916, 0.026247968897223473, 0.0679972693324089, 0.41722190380096436, 0.3628710210323334], [0.47252923250198364, 0.13232950866222382, 0.4657374322414398, 0.22757506370544434, -0.9826371669769287, 0.4186376631259918]], [[-0.5460861325263977, -1.2125293016433716, 0.3999130427837372, -0.51601642370224, -0.47035855054855347, -0.21489328145980835], [-0.8463853001594543, -2.0881738662719727, 0.5544281005859375, -0.9727210998535156, -0.45527082681655884, -0.04572979360818863], [0.2126263529062271, 1.0635918378829956, -0.5850983262062073, 0.3321820795536041, 0.33120912313461304, -0.06193549931049347], [-0.853034257888794, -1.6193525791168213, 0.3628009855747223, -0.24768893420696259, -0.5972542762756348, 0.212402805685997], [0.458865225315094, 1.3211983442306519, -0.2640239894390106, 0.6540355086326599, 0.6215798854827881, -0.3564470708370209], [-0.4053257703781128, -1.2523021697998047, 0.2334168702363968, -0.16068188846111298, -0.33809489011764526, 0.3863472640514374]]]}, "dense": {"bias:0": [0.0859769806265831], "kernel:0": [[0.11160668730735779], [-0.14628204703330994], [0.089358389377594], [0.03321732208132744], [0.2075093388557434], [-0.015511532314121723], [-0.037007201462984085], [0.09763127565383911], [0.11280477046966553], [0.0027928738854825497], [-0.042379360646009445], [-0.01492394134402275], [0.13641496002674103], [-0.2264867126941681], [-0.023878322914242744], [0.11449500918388367], [0.39229345321655273], [-0.020539192482829094], [0.16184735298156738], [0.01905311457812786], [0.2277306318283081], [-0.38913822174072266], [0.06505496799945831], [0.06073502451181412], [-0.14045710861682892], [0.2877865433692932], [-0.03967895731329918], [0.026650531217455864], [-0.04136057570576668], [-0.16247566044330597], [0.037118129432201385], [-0.2774368226528168]]}, "lstm": {"bias:0": [-0.2431553602218628, 0.3704533576965332, -0.10648216307163239, -0.2915095090866089, 1.0653475522994995, -0.2343517243862152, -0.4612521231174469, 0.5412322282791138, -0.03713354468345642, 0.5235859155654907, 0.869786262512207, 1.1868504285812378, 0.2476518154144287, 0.41659602522850037, 0.4413517713546753, 0.4328838884830475, 0.2953528165817261, 0.30624154210090637, 0.18636371195316315, 0.7023589015007019, 0.24921797215938568, -0.016364308074116707, -0.5034666657447815, 0.9538945555686951, 1.2048542499542236, 0.49079257249832153, 1.3846139907836914, 1.100746989250183, 0.7171211242675781, 0.8392318487167358, 0.6583296060562134, 1.7975318431854248, 0.026480574160814285, -0.6252102851867676, 0.8223303556442261, 0.49115702509880066, -1.330682396888733, -0.004602249711751938, 1.0513569116592407, 1.1934611797332764, -0.041118234395980835, 0.6319979429244995, 0.6318433880805969, 0.898708701133728, -0.6233940720558167, 0.09516476839780807, 1.1140289306640625, 0.25262561440467834, -0.6965407729148865, 1.0056862831115723, 0.03202570974826813, -0.28335341811180115, 0.7363650798797607, -0.6437345743179321, 1.2265645265579224, 0.5330113768577576, -0.0005201993626542389, -0.9795655608177185, -1.0963916778564453, 0.9739739298820496, -0.22110113501548767, -0.15397219359874725, -0.5860170722007751, -0.989658534526825, -0.1949453502893448, 0.06669242680072784, 0.2968222498893738, 0.23754405975341797, -0.1419331431388855, 0.056348033249378204, -0.3758881986141205, 0.03803214803338051, -0.1244259849190712, 0.44092437624931335, -0.816112756729126, 0.10265802592039108, 0.09165281057357788, -0.07087278366088867, 0.09436484426259995, -0.8454615473747253, -0.018481647595763206, 0.08650796860456467, 0.208977609872818, 0.19023975729942322, -0.1244644969701767, 0.008634518831968307, -0.0630440041422844, -0.25377216935157776, -0.05680166557431221, 0.06749719381332397, 0.07371656596660614, 0.036216411739587784, -0.41567930579185486, -0.11078998446464539, -0.5552182197570801, -0.03383742645382881, -0.2064560502767563, 0.7735259532928467, -0.37074220180511475, 0.43332770466804504, 1.4125893115997314, 0.5083276629447937, 0.19024872779846191, 0.5487541556358337, -0.10448624938726425, 0.9366262555122375, 0.4600606858730316, 0.40227994322776794, -0.2848623991012573, -0.30918940901756287, 1.0962165594100952, 0.31714245676994324, -0.22300300002098083, -0.18359266221523285, -0.1055246964097023, 0.7797165513038635, 0.23384995758533478, -0.259706050157547, 0.19910280406475067, 1.0384132862091064, 0.38074567914009094, 0.5500600934028625, 0.9085323214530945, 1.1486129760742188, 1.409688949584961, 0.17945630848407745, 1.3160499334335327, 0.7895875573158264], "kernel:0": [[0.29151031374931335, 1.157836675643921, 0.5038593411445618, -1.1742662191390991, -0.5519563555717468, -0.3958970010280609, -0.2893373370170593, 0.038814347237348557, 0.015014579519629478, 0.8543257713317871, -0.031112775206565857, 0.1106124147772789, -0.5147281289100647, 0.228997141122818, -0.20574939250946045, -0.617295503616333, -0.698839545249939, -0.9858939051628113, 0.6370535492897034, -0.3122883439064026, -0.3213474154472351, -1.3188927173614502, -0.02124449424445629, -0.2535322606563568, -0.1515684872865677, -0.008071995340287685, 0.3608176112174988, -0.35096168518066406, -0.02427218295633793, -0.40083521604537964, 1.496727705001831, 0.7935634255409241, -0.27222809195518494, 0.0726567730307579, 0.6955455541610718, 0.10053768754005432, -0.3911297619342804, -0.2885984480381012, -0.7412765622138977, -0.0179228987544775, 0.017565179616212845, -1.099020004272461, -0.49822890758514404, 0.14993810653686523, -0.08295756578445435, 0.12634266912937164, 0.12550106644630432, 0.6057117581367493, -0.32798445224761963, -0.33278563618659973, 0.3548172116279602, -0.6170493960380554, -0.2916089594364166, -0.4120778441429138, -0.08453882485628128, -0.36397138237953186, -0.03858494758605957, 0.03520740941166878, 0.21096046268939972, 0.5684665441513062, 0.17779532074928284, -0.47641003131866455, 0.451185405254364, -0.04721871763467789, -0.29245397448539734, 1.1976946592330933, 0.033424220979213715, -0.6529361009597778, 0.8298832178115845, 0.09118597954511642, 0.1538373976945877, -0.0013657184317708015, 0.167464017868042, -0.6041699647903442, 0.5119175314903259, -0.17377661168575287, -0.499523401260376, -0.6569281816482544, 0.3613121509552002, 0.16586674749851227, -4.734285831451416, -0.1957174837589264, -0.675460159778595, 0.7435044050216675, 0.07232996076345444, -2.660630941390991, 0.11333144456148148, -0.9369016289710999, -0.9313852787017822, 1.0372252464294434, 0.846776008605957, -0.004513522144407034, -0.09501250833272934, -0.34347471594810486, 0.24758708477020264, -2.264867067337036, 0.4592532515525818, -0.07403581589460373, -0.04841515049338341, -0.7631133198738098, 0.11806915700435638, -0.47651389241218567, 0.0073018320836126804, 0.07900910824537277, 0.054606761783361435, 0.3665120005607605, 0.3370214104652405, 0.14212766289710999, 0.9197041392326355, -0.10901616513729095, -0.6363184452056885, -0.00647186953574419, 0.3984787166118622, 0.04459339752793312, -0.39664506912231445, -2.2662296295166016, -0.17624349892139435, 0.9671267867088318, -0.03079061210155487, 0.11059274524450302, 0.07540766894817352, -0.01376831904053688, -0.4871901571750641, 0.4273115396499634, 0.2584317922592163, 0.19136428833007812, -0.29571351408958435, 0.13842687010765076], [0.47562217712402344, -0.7968699932098389, 1.5570733547210693, -2.173187494277954, -2.112975835800171, -1.3022414445877075, -0.16176626086235046, 0.0065507469698786736, -0.49861574172973633, 1.5182439088821411, -0.09267567098140717, 0.14072273671627045, -0.721221923828125, -1.7503900527954102, 0.527249276638031, -0.7311572432518005, -1.5021535158157349, 0.104404516518116, 0.19232288002967834, 0.3840969502925873, -0.1753939539194107, -1.567928433418274, -0.1227034479379654, -0.04448399320244789, 0.001771136187016964, -0.5760030746459961, -0.43990135192871094, -0.23945893347263336, 0.01332870777696371, 0.048892758786678314, -0.004618498962372541, 0.991983950138092, 0.0016100506763905287, -0.03165663778781891, 0.5570268630981445, 0.48878124356269836, -1.045401930809021, 0.5447641015052795, 0.14134761691093445, -0.10124622285366058, 0.025852631777524948, -1.1179957389831543, -0.20609453320503235, 0.6454616189002991, -0.2997540533542633, -0.93486088514328, 0.03749340772628784, 1.5426392555236816, -0.7785110473632812, -0.16124951839447021, -0.22995047271251678, 0.09806789457798004, -0.1766732931137085, -0.4317843019962311, 0.24222077429294586, -0.1704246997833252, 0.02252887934446335, -0.28649386763572693, -0.0270913727581501, 1.1960914134979248, -1.3210407495498657, -0.024484945461153984, 0.03844865784049034, -0.12131091207265854, -0.40362703800201416, -0.7605887651443481, 0.11549889296293259, -1.1561025381088257, 2.957963705062866, 0.08849681168794632, -0.07663927227258682, -0.009536521509289742, 0.5821167230606079, -0.9068990349769592, -0.6647881269454956, -0.11485888063907623, -0.8446401953697205, -0.6216888427734375, -0.9233520030975342, 0.2730080783367157, 3.027484893798828, 0.2958897352218628, -0.8429555892944336, -0.5621597170829773, 0.04893879219889641, 0.6789043545722961, 0.24108827114105225, 0.678536593914032, -0.133895143866539, 1.0393675565719604, 0.08053295314311981, -0.4971817135810852, -0.027961665764451027, 0.762989342212677, -0.49066993594169617, -3.268231153488159, 0.6102469563484192, 0.06060634180903435, -0.0765383318066597, -1.6738675832748413, 0.8519121408462524, -0.4646904766559601, 0.30660948157310486, 0.06471667438745499, 0.12116645276546478, 0.5298128128051758, -0.22926878929138184, -1.2137870788574219, 1.0396769046783447, 0.7002000212669373, 0.5836766958236694, -0.061225444078445435, 0.8557406663894653, -0.13356347382068634, 0.2729157507419586, 0.8924669623374939, -0.045528240501880646, 1.1212620735168457, -0.07952098548412323, -0.037463314831256866, -0.03910289332270622, 0.32022300362586975, 0.24512863159179688, 0.16999410092830658, -0.034936871379613876, -0.02049456164240837, -0.1521613597869873, 0.22768442332744598], [-0.4932955503463745, -0.28803518414497375, -0.17335696518421173, 1.5689423084259033, 0.002943777944892645, 0.0503510944545269, -0.07066963613033295, 0.052785567939281464, -0.1613413393497467, -0.12416481971740723, -0.4584716856479645, 0.6904202103614807, 0.6389777064323425, 2.6017205715179443, 1.5242496728897095, 0.7239943146705627, 1.2344753742218018, 0.2766069173812866, -0.5353854298591614, 0.33057060837745667, 0.44381192326545715, 1.2976000308990479, -0.3122996389865875, -0.3937813937664032, -0.4845372140407562, -0.1604570746421814, -0.4589551091194153, -0.02854171209037304, -0.10368166863918304, -0.7289206981658936, 0.40084347128868103, -0.715792715549469, 1.0194629430770874, -0.013707543723285198, 1.3784607648849487, -0.24322360754013062, 0.11045634001493454, -1.022226333618164, -0.242008775472641, 0.00998532772064209, -0.0770626962184906, -0.024012401700019836, -0.6336414813995361, -0.9040815234184265, 0.29601427912712097, 1.6293296813964844, 0.15318593382835388, -0.19017410278320312, 0.5968262553215027, 0.16771160066127777, -0.44696828722953796, -0.5802515745162964, -0.5266716480255127, 0.38220977783203125, 0.2075481116771698, 0.11894035339355469, -0.15379540622234344, -0.0912972092628479, -0.15343472361564636, -0.09242292493581772, -0.5223320722579956, -0.6298335790634155, 0.3050645589828491, 0.11881902068853378, 0.385506808757782, -0.3630583584308624, -0.02952488884329796, 0.7145239114761353, -0.12113045156002045, 0.08177541196346283, -0.01993536949157715, -0.03117784857749939, -0.05161483585834503, -0.2800331115722656, -0.7955609560012817, -0.7445938587188721, 0.7695574760437012, 1.061314582824707, -1.9878076314926147, -0.12367893010377884, 0.5907911062240601, 0.09081874787807465, -0.2013239711523056, -0.4644717276096344, -0.1085953563451767, -0.5512929558753967, 0.7891969084739685, 0.3135271966457367, -1.6361130475997925, -1.2452161312103271, 1.2659868001937866, 0.060099221765995026, 0.23858194053173065, 0.8693678975105286, -0.871338963508606, 2.785703420639038, -0.6189080476760864, -0.05695046856999397, -0.21563312411308289, 0.5435216426849365, 0.15753263235092163, -0.7472060918807983, 0.05835260450839996, 0.05042599141597748, 0.013003388419747353, 1.1387519836425781, 0.039899200201034546, 1.3499755859375, -0.873404324054718, -1.1415544748306274, 0.19886445999145508, 0.027353420853614807, -0.6828346848487854, -0.8336947560310364, 0.427014023065567, 0.7969632744789124, 0.29925963282585144, -1.0338813066482544, -0.0881381556391716, 0.026102827861905098, 0.17785565555095673, 0.13430637121200562, 0.6047248840332031, -0.6887038946151733, -0.3123927414417267, 0.3185151517391205, -0.36426740884780884, -0.23513245582580566], [-0.42356619238853455, -0.05694374442100525, 0.5578895807266235, 1.3571224212646484, -0.941902756690979, -0.9266142249107361, -0.020093323662877083, 0.02009366825222969, -0.572258472442627, 1.4334092140197754, -0.16760782897472382, -1.1658880710601807, 0.5274311900138855, -0.4942207336425781, -0.8100600838661194, 0.7137412428855896, 1.2216424942016602, -0.13931040465831757, -0.9016464948654175, 0.24390196800231934, 0.7414708137512207, 1.0229281187057495, 0.3345898985862732, 0.3883301019668579, 0.18277470767498016, -0.5518677830696106, 0.2763690948486328, -0.2565908133983612, -0.09428886324167252, 0.06885135173797607, -0.677885890007019, -0.7632414102554321, 0.10085839778184891, 0.04799872264266014, -0.25634312629699707, 0.22179120779037476, -0.408355176448822, -0.5246500968933105, 0.36309656500816345, -0.03713096305727959, 0.046817418187856674, -0.7509651184082031, -0.023786252364516258, 0.19930414855480194, 0.3072996139526367, -0.17503294348716736, 0.28539571166038513, 0.26803314685821533, 0.6874392628669739, -0.035708412528038025, -0.7970610857009888, 0.022499341517686844, -0.005242818500846624, 0.31040194630622864, -0.6620641350746155, -0.28238585591316223, 0.04136286675930023, -0.2595392167568207, 0.12820525467395782, 0.6443449258804321, 0.6402609944343567, -0.013185321353375912, -0.012155148200690746, 0.08018598705530167, 0.32730257511138916, -0.09531522542238235, 0.06039193645119667, 0.49989235401153564, 1.1466856002807617, 0.0678313747048378, -0.004527554847300053, -0.06864078342914581, 0.20484952628612518, -1.1028530597686768, -0.8554328680038452, 0.4457002282142639, 0.5795285105705261, -2.726423978805542, 0.8460133075714111, -0.12232627719640732, -0.7289120554924011, -0.1530189961194992, -0.43458589911460876, -0.2797081470489502, -0.16885899007320404, -0.8692456483840942, -0.5614812970161438, -0.10266689211130142, -0.11434552073478699, -1.3980159759521484, -1.0441025495529175, 0.12724706530570984, 0.19444197416305542, -1.1147300004959106, 0.45315614342689514, 2.3933751583099365, -0.5006952285766602, -0.039089079946279526, 0.36655667424201965, -0.18275076150894165, 0.6198427677154541, -0.05517281964421272, -0.00635297317057848, -0.009351806715130806, -0.15740938484668732, 1.1965488195419312, -0.39357641339302063, -0.5584510564804077, -0.994723916053772, 0.20294174551963806, -0.058285366743803024, -0.09669648855924606, -0.7231570482254028, -0.14752301573753357, 0.8624833226203918, -0.09925009310245514, 0.365221232175827, -0.765614926815033, -0.005540965124964714, 0.06966614723205566, -0.05974308401346207, 0.3726685047149658, -0.20049916207790375, 0.19884994626045227, -0.17664986848831177, -0.013145542703568935, -0.021556198596954346, -0.2095678150653839], [-0.45847636461257935, 0.3467940092086792, 0.6458359360694885, 1.0953816175460815, -1.068684697151184, -0.7570075392723083, 0.6756709814071655, -0.012323280796408653, -0.40487998723983765, -1.6955718994140625, -0.3121064603328705, 0.7392159104347229, 0.5646949410438538, 0.07326601445674896, 0.18188641965389252, 0.6881741881370544, 1.5337698459625244, 0.2936501204967499, -0.6302706003189087, 0.282640278339386, 0.45366212725639343, 1.2387776374816895, -0.11591637134552002, -0.15963920950889587, 0.07242754101753235, -0.4439840018749237, 0.1226360872387886, 0.047343023121356964, -0.4741603136062622, 0.25266554951667786, 0.5736808776855469, -0.26903414726257324, 0.5048544406890869, -0.0412808358669281, -0.4538751244544983, 0.22937646508216858, -0.3364264965057373, -0.23966842889785767, -0.42307528853416443, 0.016858931630849838, -0.06049026548862457, -0.674267053604126, 0.23701179027557373, 0.7304941415786743, 0.38466301560401917, 0.030212149024009705, -0.23129506409168243, 0.23174592852592468, 0.6919474601745605, -0.08623932301998138, -0.5934473276138306, 0.1920415759086609, 0.15789487957954407, 0.24655981361865997, 0.3768317699432373, 0.1820932775735855, 0.0019672983326017857, -0.18947024643421173, -0.015336430631577969, 0.39838430285453796, -0.7954217791557312, 0.3272692561149597, -0.11056006699800491, 0.12444059550762177, 0.43482300639152527, 0.4569121301174164, 0.05104605481028557, 0.5919893383979797, 1.4408040046691895, -0.11621575802564621, -0.3099331259727478, 0.12425234168767929, 0.2638120949268341, 0.7294723391532898, 0.05025699362158775, -0.223356693983078, 0.7207602262496948, 0.5748445987701416, 0.13855977356433868, -0.21180857717990875, -1.932692289352417, -0.5412920713424683, -0.20586277544498444, -0.08536887168884277, -0.09598153084516525, 0.8633109927177429, 0.24772155284881592, -0.5389072299003601, 0.6269444823265076, -0.9144997596740723, 0.14353476464748383, -0.3586178719997406, 0.46619653701782227, 0.4974464774131775, -0.08278901129961014, 2.4209394454956055, -0.4039066433906555, 0.06591038405895233, -0.168364480137825, -0.537537157535553, 0.5127279162406921, 0.3725093603134155, 0.0785052627325058, -0.059299543499946594, 0.097397081553936, -0.1582074612379074, 0.1617879718542099, 0.18889841437339783, -0.4092675447463989, -0.04632643237709999, -0.7959701418876648, 0.14458605647087097, -0.8089705109596252, -0.5601174235343933, 0.7346534132957458, -0.4195917546749115, 0.23499718308448792, -0.8849397301673889, -0.005544999148696661, -0.12677212059497833, -0.018129432573914528, 0.29450181126594543, -0.09917651116847992, -0.4732283055782318, -0.3768955171108246, -0.13690121471881866, 0.2035702019929886, -0.2565147578716278], [0.017545605078339577, -0.5474467277526855, -0.37144237756729126, -0.2739414572715759, 0.5350369215011597, 0.2531326711177826, 0.8644233345985413, -0.01151102501899004, 0.6041088104248047, -1.0438716411590576, 0.06419657170772552, -1.1236004829406738, -0.20002011954784393, -0.6222941279411316, -0.1277812421321869, -0.7920879125595093, -0.16775256395339966, -0.36225563287734985, 1.6431022882461548, 1.1965608596801758, -0.875137984752655, -0.6348809003829956, 0.27657777070999146, 0.42053133249282837, 0.028722116723656654, 0.4849206805229187, 0.1808006316423416, 0.08495423942804337, -0.6509564518928528, -0.02225252240896225, -0.30442774295806885, 1.4185365438461304, -1.1333492994308472, -0.01888704113662243, 0.29365578293800354, -0.07500073313713074, 0.4382479786872864, 0.46535491943359375, 0.6121140122413635, -0.06270305067300797, 0.07708123326301575, 0.27663424611091614, -0.16150979697704315, 0.8402315974235535, 0.027572721242904663, -0.33095115423202515, 0.06053568050265312, -0.3733656108379364, -0.13821354508399963, -0.08453362435102463, 1.1371434926986694, -0.10216525197029114, -0.17696568369865417, -0.1346186399459839, -0.24335385859012604, -0.3327227532863617, -0.018286069855093956, 0.32776662707328796, -0.08838804811239243, -0.8104836940765381, -0.3489457070827484, -0.0339498445391655, -0.0837298035621643, 0.07355811446905136, -0.03707542270421982, -0.6356473565101624, -0.00901514757424593, -0.11693388968706131, -0.5848608613014221, -0.03611860051751137, -0.4160628616809845, 0.02607818692922592, -0.1590910404920578, 0.8989485502243042, -0.7713363766670227, -0.05895489454269409, -0.18107683956623077, -1.39112389087677, -0.00840354897081852, 0.23440372943878174, -0.5199735164642334, -0.5118772983551025, -1.0739948749542236, -1.200732707977295, 0.2496921420097351, -0.3125365078449249, -0.24606889486312866, 0.12951968610286713, -0.43833211064338684, 1.5587620735168457, -0.9828574061393738, -0.09144321829080582, 1.0968862771987915, -0.33850380778312683, 0.12485229969024658, -1.1793807744979858, 0.6323809027671814, -0.02257402613759041, 0.17755301296710968, 0.2816725969314575, -0.5206132531166077, -0.36071306467056274, 0.2083716094493866, 0.021850094199180603, -0.15187129378318787, -1.4866422414779663, -0.6025342345237732, -0.17555591464042664, 1.7314249277114868, 0.1915050894021988, 0.8794659972190857, 0.016772110015153885, 0.17654713988304138, -0.9942620396614075, -1.2841992378234863, 0.23454388976097107, -0.43650996685028076, 0.5879669189453125, -0.13432857394218445, -0.014134746976196766, 0.0036138510331511497, -0.338039755821228, 0.25622281432151794, 0.6422256827354431, -1.2235136032104492, 0.01594386249780655, -0.02854778617620468, 0.032880522310733795]], "recurrent_kernel:0": [[0.5683345794677734, -0.4218798279762268, 0.4670661389827728, 0.7218796610832214, -0.1782560497522354, 0.6065149307250977, 0.7895858883857727, 1.0136140584945679, 0.08247010409832001, 2.626856565475464, 0.21715331077575684, 0.4037996530532837, 0.1820600926876068, 0.5210067629814148, 3.293050765991211, 0.9012883305549622, 0.18460173904895782, 1.0089917182922363, -0.4411306083202362, -0.14050784707069397, 0.2078857719898224, -0.034335993230342865, 2.0062930583953857, -0.9154165387153625, -0.06684735417366028, 0.10861122608184814, -1.5071797370910645, 0.1969696581363678, -0.6123392581939697, -0.40403467416763306, 1.25473153591156, 0.5105744004249573, 0.9035079479217529, 2.3726210594177246, 0.3196723759174347, 0.3978547155857086, 1.3133727312088013, 1.8764474391937256, -1.1982380151748657, -1.9737807512283325, 1.092879056930542, 1.3291175365447998, 0.053401973098516464, -0.6358219385147095, 0.8554895520210266, -0.09071747213602066, -0.4817914068698883, 1.0874139070510864, -0.473286896944046, 0.005918287206441164, 1.8897343873977661, 1.014630675315857, 0.5560332536697388, 0.6783591508865356, -0.34663915634155273, 1.2034845352172852, 1.0908827781677246, 0.7216764092445374, 2.004586696624756, 0.8349353075027466, 1.4018529653549194, 1.6925947666168213, 1.287050724029541, -0.02286192774772644, -0.4940522015094757, -0.0398411750793457, -0.6332215070724487, 0.11480435729026794, -0.04704451560974121, -0.6798615455627441, -0.36947405338287354, 0.03396299108862877, 0.21424894034862518, -0.25900110602378845, -0.15219742059707642, -0.26053234934806824, -0.23348493874073029, 0.05410197004675865, -0.3930070102214813, 0.06531437486410141, -0.1659732311964035, 0.6334338784217834, -0.6450356245040894, -0.9932132363319397, 0.20163725316524506, 0.06167425215244293, 0.12224449962377548, -0.43412959575653076, 0.327193945646286, 0.2178291231393814, 0.2938794493675232, -0.37335485219955444, 0.012090013362467289, -0.032995402812957764, -0.29016944766044617, -0.42738935351371765, -0.21388061344623566, 0.14721830189228058, 0.723702073097229, -0.30202916264533997, 0.04448799416422844, 0.09857835620641708, -0.35448768734931946, -1.3319426774978638, 0.018518684431910515, 2.007222890853882, 0.993340015411377, -0.37034767866134644, 1.4204792976379395, 0.914339542388916, 0.5801681876182556, 0.46426114439964294, 0.8589211702346802, 0.6132844090461731, 1.160076379776001, 0.34396669268608093, 0.12225822359323502, 1.36074697971344, 0.6386985182762146, 0.2872329354286194, -0.1375551074743271, -0.036691587418317795, -0.6364873051643372, 0.3904939591884613, -0.28219038248062134, 0.1188235729932785, 0.9826418161392212, 0.5003583431243896], [-0.439728707075119, 0.2571529448032379, 0.03402804210782051, -0.7003301382064819, -0.03462030738592148, 0.0385369136929512, -0.7144216895103455, -0.8948052525520325, -0.07497814297676086, -1.9177507162094116, -0.7302215099334717, -0.561531662940979, -0.15958598256111145, 0.3795695900917053, -2.3305583000183105, 0.2867364287376404, -0.28991416096687317, -0.9342120885848999, -0.1004791334271431, 0.5282254815101624, 0.03423581272363663, -0.08732438087463379, -0.6460503339767456, 1.0772615671157837, 0.33420881628990173, -0.20699815452098846, 0.5085091590881348, 1.5428271293640137, 0.7965114116668701, 0.27947089076042175, -1.2044155597686768, -0.44821715354919434, -1.2985349893569946, 0.020386885851621628, 1.1350972652435303, 1.0798481702804565, -0.5534902215003967, -0.001526141888462007, 0.45051899552345276, 1.4961661100387573, -0.985119640827179, -0.2530829906463623, -0.5556476712226868, -1.209542989730835, -0.42711931467056274, -0.6775503158569336, -0.74415522813797, -0.33249616622924805, -0.31343942880630493, 0.15272113680839539, 0.0952010452747345, -1.3742653131484985, -1.4466229677200317, -2.308948516845703, -0.10848332941532135, 0.8046865463256836, -0.3121093809604645, 0.36492201685905457, -1.1718800067901611, -0.2145829051733017, 1.011072039604187, -1.440524697303772, -0.6126816868782043, 0.2512475252151489, 0.28507742285728455, -0.15557855367660522, 0.4062086045742035, 0.49233579635620117, 0.13103903830051422, -0.32384857535362244, -0.2655602991580963, 1.0727884769439697, -0.02449267916381359, -0.23056712746620178, 0.171304851770401, 0.21377138793468475, 0.17104823887348175, 0.5726229548454285, -0.38881155848503113, 0.2871549725532532, -0.6295789480209351, -0.37526965141296387, -0.23647066950798035, 0.629793107509613, 0.13358688354492188, -0.011608012020587921, -0.9487246870994568, 0.15265627205371857, -0.04537157341837883, -0.12553077936172485, -0.26024705171585083, 0.36163774132728577, 0.12606745958328247, 0.05590159818530083, 0.3463497757911682, 0.0008153572562150657, -0.2563175857067108, -0.7833806276321411, 0.5661441087722778, 0.011560294777154922, 0.2194698303937912, -0.1689920872449875, 1.4709370136260986, 0.5782870054244995, -0.2775843143463135, -1.874588966369629, -0.22972938418388367, 0.18773752450942993, -0.1702173948287964, -0.7018627524375916, -0.32955798506736755, -0.8411064743995667, -0.5555333495140076, -0.14916351437568665, -0.10268844664096832, -1.1106476783752441, -0.08719838410615921, -0.18056932091712952, -2.1726229190826416, 1.019001841545105, 0.07479531317949295, 0.3162235915660858, 1.0719586610794067, -0.3066260516643524, 0.7241124510765076, -0.19845503568649292, -1.8471720218658447, 0.11965658515691757], [-0.8951983451843262, -0.3928479850292206, -0.6413146257400513, 0.7872457504272461, -0.014916540123522282, -0.6787157654762268, -0.730289101600647, -0.4437873065471649, -0.048330020159482956, -2.385341167449951, -2.0291292667388916, -0.9796034097671509, -0.08284033089876175, -0.06800852715969086, -2.8480825424194336, -0.6878480911254883, -0.3924423158168793, 0.7353920936584473, -0.44825682044029236, 0.6289510130882263, 0.11241304129362106, -0.5491273999214172, -1.5743491649627686, 0.6163445711135864, -0.7733562588691711, 0.1727600246667862, 0.01815800741314888, 0.5007885098457336, -0.9569448232650757, -0.17586974799633026, -1.7531269788742065, -0.37908926606178284, -0.7758825421333313, -1.069818139076233, -0.4986538290977478, -1.979255199432373, -2.349944829940796, 0.594509482383728, 0.26853710412979126, -1.0583990812301636, -0.8733705878257751, -1.843029260635376, -2.2046291828155518, 1.0342557430267334, -0.9133662581443787, -0.5535799860954285, -0.40173646807670593, 0.025996481999754906, -0.7537932991981506, -0.4918350279331207, -0.5233590602874756, -1.5979689359664917, 0.6287338137626648, -0.46425437927246094, -0.33144411444664, 0.16550783812999725, -2.1578586101531982, -1.2561547756195068, -1.5804003477096558, -1.5063737630844116, -2.7031054496765137, -0.7640957832336426, 0.6723592877388, -0.9159185886383057, -0.06282475590705872, 0.5730395317077637, 0.10520293563604355, -0.8352700471878052, -0.22094124555587769, 0.5596864223480225, 0.133612260222435, -0.11243517696857452, -0.02101793885231018, -0.13304708898067474, -0.0013227005256339908, 0.26659974455833435, 0.13851995766162872, 0.5295589566230774, 0.08338574320077896, -0.07605640590190887, 0.020882125943899155, -0.08160512149333954, 0.48511284589767456, 1.093087077140808, -0.3933218717575073, -0.44452187418937683, -0.4252318739891052, -0.3990715742111206, 0.08495667576789856, 0.3188577890396118, -0.4116535484790802, -0.5332300066947937, -0.049351029098033905, 0.5302931070327759, -0.3631254732608795, -0.4796404242515564, 0.5679538249969482, 0.4872274100780487, -1.2094509601593018, -0.6812002062797546, -0.1796918660402298, 1.1481431722640991, 0.33344876766204834, -0.24143947660923004, 0.4362142086029053, -2.2303059101104736, -0.544073760509491, 0.9738472104072571, -1.1558305025100708, -1.4187062978744507, -0.803020179271698, 0.22744643688201904, -1.0206842422485352, -0.17798662185668945, -0.7809837460517883, -0.6951356530189514, -0.07676872611045837, -0.45749878883361816, 0.36241209506988525, -1.4816830158233643, -0.21006691455841064, -0.06602519005537033, -0.8465048670768738, -0.183600053191185, 0.6455421447753906, -0.6290746927261353, -1.5744866132736206, -0.39791688323020935], [-0.049306418746709824, 0.09427744150161743, -0.358024924993515, -0.9983916878700256, -0.33411282300949097, -0.7640050053596497, -0.15792660415172577, -0.6525710821151733, -0.11247556656599045, -2.615837335586548, -0.38751229643821716, -0.6965197920799255, 0.5888163447380066, -0.5479549765586853, -1.551734447479248, -0.11454740166664124, -0.9553107619285583, -0.7154814004898071, -0.9777958989143372, -1.854100227355957, -0.1709877848625183, -1.028761386871338, -0.9458699226379395, 1.0315349102020264, 0.8274232745170593, 0.13636568188667297, 0.8505064249038696, -0.023435864597558975, 1.6218417882919312, 0.12261947244405746, -1.1807994842529297, -0.41655656695365906, -2.089559316635132, -1.4350051879882812, -1.0218019485473633, 0.6055424809455872, -1.2722166776657104, -0.7714135050773621, 0.916544497013092, 0.8855798244476318, -1.3525041341781616, 0.3545764684677124, -1.5585182905197144, -0.3859478533267975, -0.7868008017539978, -1.231403112411499, 0.14268243312835693, -0.1497306525707245, -2.041759967803955, -0.029536858201026917, -0.9599143266677856, -0.7296497225761414, 0.4867175221443176, -1.6857755184173584, 0.03787234425544739, -0.297231525182724, -1.2212722301483154, -0.7859640717506409, -1.4364418983459473, -0.5081197023391724, -1.3149551153182983, -1.345088005065918, -1.450184941291809, -0.5577723383903503, 0.12050263583660126, 0.05960185080766678, 0.5059091448783875, 0.37093135714530945, 0.20713137090206146, 0.8869819045066833, 0.538478672504425, 0.09154767543077469, -0.23213064670562744, 0.40386566519737244, -0.24154873192310333, 1.3636401891708374, -0.36805975437164307, -0.31524911522865295, 0.4259641170501709, 0.08648858964443207, 0.4436213970184326, -0.4665868282318115, 0.140378937125206, 0.44412872195243835, -0.46618348360061646, 0.467690110206604, 0.47554028034210205, 0.26553571224212646, 0.07091366499662399, -0.15232166647911072, -0.36964213848114014, -0.048079803586006165, 0.16176503896713257, -0.26714494824409485, -0.3000873327255249, -0.06182018294930458, 0.07250318676233292, -0.02424119971692562, -1.0053132772445679, -0.2528231143951416, 0.28820061683654785, -0.18086804449558258, -0.27537593245506287, 0.9367592930793762, 0.08258089423179626, -0.860433042049408, -0.6662688851356506, 1.0709357261657715, -1.212876796722412, -0.7243972420692444, -0.26260635256767273, -0.30547356605529785, -0.9763511419296265, -0.2370149791240692, -0.9325702786445618, -1.0183535814285278, -0.1547512412071228, -0.8959989547729492, -0.6111265420913696, -0.35603949427604675, -0.06753842532634735, 0.1079159528017044, 0.9103624224662781, 0.037618860602378845, 0.3154312074184418, -0.14634887874126434, -0.3978736698627472, -0.39275917410850525], [-0.26156678795814514, 0.17178407311439514, 0.1407850682735443, 0.5189275145530701, 0.0643535926938057, -0.5921375751495361, 0.0010278936242684722, -0.19783718883991241, 0.12045276165008545, -0.3875495493412018, 0.9152774810791016, 0.8848275542259216, -0.30052292346954346, -0.7670161128044128, 0.604153573513031, -0.058499015867710114, -0.47770461440086365, -0.31692808866500854, 0.028317781165242195, 1.7240326404571533, 0.4736785888671875, -0.6153473854064941, -0.5474452376365662, 0.25846782326698303, -0.2920977771282196, 0.06091240793466568, -0.5219699740409851, 0.8308257460594177, -0.5836890935897827, 0.46767503023147583, -0.894767701625824, 0.004803013056516647, -1.133772611618042, 0.7526969909667969, -0.775687038898468, -0.9875991940498352, 0.7827475666999817, 0.09746594727039337, 0.20740759372711182, -0.6221993565559387, 0.0574004240334034, -0.5506038069725037, 0.31867918372154236, 0.87947678565979, -0.17875626683235168, -0.4225437343120575, -2.1551990509033203, -0.14407740533351898, 0.2864334285259247, 0.26449698209762573, 0.322968453168869, 0.39943715929985046, -0.588584840297699, 0.8842267990112305, -0.9519025683403015, 0.5667881965637207, -0.7429280281066895, -0.0634535700082779, 0.9193149209022522, 0.1694221794605255, -0.10658463090658188, -0.4348713755607605, -0.11205925047397614, -0.17690876126289368, -0.44463643431663513, 0.00834968127310276, -0.4283358156681061, -0.40267446637153625, 0.0684080570936203, 0.22048091888427734, 0.4465031027793884, -0.2950150668621063, -0.09085862338542938, -0.1985756903886795, 0.5472634434700012, -0.5273678302764893, -0.18335121870040894, -0.06116855517029762, 0.01337624154984951, -0.3856363296508789, 0.1707485467195511, -0.18281376361846924, 0.06794553995132446, 0.3809231221675873, 0.08811116218566895, -0.28843551874160767, 0.009522650390863419, 0.1638161540031433, 0.10716751962900162, -0.010936558246612549, 0.08946004509925842, 0.11840330064296722, 0.04636476933956146, -0.2872444689273834, -0.34087398648262024, -0.07138843089342117, 0.26528307795524597, -0.17375978827476501, -0.03408515453338623, 0.35417813062667847, 0.11060428619384766, 0.20022669434547424, -0.5916408896446228, -0.3863358497619629, -0.21145448088645935, 0.017959829419851303, 0.09557954221963882, -0.24951961636543274, 0.10663335025310516, 0.2642010748386383, -0.9931078553199768, 0.10064982622861862, 0.2420855015516281, 0.005251878872513771, 0.48398417234420776, 0.39245983958244324, -0.19595685601234436, 0.2032577395439148, 0.3253609240055084, 0.1373053938150406, -0.277241975069046, 0.02805095911026001, 0.2524649500846863, 0.12306148558855057, -0.17346422374248505, -0.14303404092788696, -0.8097586631774902, 0.07295423001050949], [0.791781485080719, 0.4698426127433777, 0.22334720194339752, 0.3705812692642212, 0.11036248505115509, 0.6935588121414185, -0.6271159052848816, 0.4686720073223114, -0.1655580848455429, 0.34394219517707825, -0.4405091106891632, 0.42056405544281006, 0.7629371285438538, 0.5610266327857971, 0.9088935256004333, -0.37546202540397644, 0.44971439242362976, -0.2708168625831604, -0.044808655977249146, 0.9596309065818787, 0.32783523201942444, 1.351304292678833, 1.3213496208190918, -1.0009400844573975, -0.381667822599411, 0.04690255969762802, 0.381839394569397, 0.1255599707365036, -0.8324500918388367, 0.04486093297600746, 1.1461167335510254, 0.17641419172286987, 0.7745022177696228, 1.2820947170257568, 0.4869128465652466, 0.21701762080192566, 0.15793046355247498, 0.3113701641559601, -1.13738214969635, -0.48867443203926086, 1.4847328662872314, -1.1301138401031494, 0.17422419786453247, -0.259624719619751, 0.9586468935012817, 0.8896186947822571, -0.47807565331459045, 0.4562356472015381, 2.1233608722686768, 0.5103235244750977, 0.4703459143638611, -0.0580722838640213, 0.6903737783432007, 0.7717159390449524, 0.8945984244346619, -0.1458660066127777, -0.33999571204185486, 0.8635585904121399, 1.0319690704345703, 0.05146893113851547, 0.377063512802124, 0.20094893872737885, 0.756005048751831, 0.555693507194519, 0.27371248602867126, -0.4778643846511841, -0.1250142753124237, -0.028385231271386147, 0.5455124378204346, -0.7982993721961975, -0.166224405169487, 0.5838119387626648, 0.26285162568092346, -0.24354654550552368, -0.10279129445552826, -0.7991310358047485, 0.1322254091501236, 0.39616891741752625, -0.5355092287063599, 0.31341028213500977, -0.03997063636779785, 0.9844236373901367, 0.4268518090248108, 0.570181667804718, 0.12668775022029877, -0.7568714022636414, 0.4768826365470886, -0.298717200756073, -0.13042618334293365, -0.6460973024368286, -0.2167464643716812, 0.07891013473272324, 0.13605529069900513, 0.08349096029996872, 0.6616047620773315, 0.9632402658462524, 1.0794092416763306, 0.12988542020320892, -0.10607331991195679, 0.1553775668144226, 0.04721608757972717, -0.017071425914764404, 0.2257111817598343, -0.8034482002258301, -0.3037034869194031, -0.6620134115219116, 0.830723226070404, -0.8236860632896423, 0.5940688252449036, 0.3420667052268982, 0.10198912024497986, 0.45216378569602966, 1.0215635299682617, 0.5004726052284241, 0.2884213626384735, 0.29752305150032043, 0.0747213289141655, 0.5689926147460938, 0.6247562170028687, -0.08281630277633667, 0.19084329903125763, -0.16553285717964172, -0.44292399287223816, 0.6547608971595764, 0.5020372867584229, 0.13090771436691284, 0.6305538415908813, 0.7368344664573669], [0.35084792971611023, -0.8284776210784912, -0.21110080182552338, 1.3191802501678467, -0.6346098780632019, 0.8449086546897888, 0.9268016219139099, 0.76177579164505, -0.012860738672316074, 2.7017579078674316, 0.713967502117157, 0.23060166835784912, 0.034761764109134674, -0.11497541517019272, 2.3748927116394043, -0.8070270419120789, -0.6096122860908508, 0.7817134261131287, 1.349741816520691, -0.9029300212860107, 0.1353731006383896, 0.5014389753341675, 0.9380519390106201, -1.3505679368972778, -0.3163246810436249, -0.07175318151712418, -0.1426415890455246, 0.22954823076725006, -0.4242793917655945, -0.2023945450782776, 0.28611308336257935, -0.1568746417760849, 2.135199785232544, 1.3510011434555054, -0.5959316492080688, 0.8002653121948242, 1.4034051895141602, -0.0745987743139267, 0.45279285311698914, 0.5431433320045471, 0.41514915227890015, 1.4626550674438477, 2.1560118198394775, -1.3726736307144165, 0.5988281965255737, 1.992511510848999, 1.1065729856491089, -0.04636123776435852, 0.7625065445899963, 0.7157837748527527, 0.8119535446166992, 0.6307616829872131, 0.3530280888080597, 0.7238895893096924, -0.48766350746154785, 1.4433655738830566, 0.45449861884117126, 1.1028541326522827, 1.1215252876281738, 1.3907597064971924, 2.041513681411743, 0.8106980323791504, 2.453540563583374, 0.7059086561203003, -0.15374323725700378, -0.3428225517272949, -0.24574105441570282, 0.23828339576721191, 0.07609724998474121, -0.5424027442932129, -0.31578272581100464, -0.6863880157470703, 0.2146683633327484, -0.42122846841812134, 0.14354188740253448, -0.3473184108734131, -0.13453461229801178, -0.7028042078018188, 0.011344264261424541, 0.054689325392246246, 0.49296626448631287, 0.34304824471473694, -0.1867406964302063, -1.2143683433532715, 0.5462380647659302, 0.5775166749954224, -0.20789377391338348, 0.28817278146743774, -0.020774507895112038, -0.18900786340236664, -0.4772915840148926, 0.09043718874454498, 0.012069477699697018, -0.8890472054481506, -0.4131086766719818, 0.15471018850803375, -0.5083302855491638, 0.4571569561958313, -0.17877471446990967, 0.49047303199768066, 0.584831953048706, 1.0635401010513306, -0.9813790321350098, -1.371444582939148, 0.13018746674060822, 2.603468656539917, 2.0890719890594482, -0.9233332276344299, 0.12525016069412231, 1.561653733253479, 1.9048492908477783, 0.31754523515701294, 0.16816987097263336, 0.0668310895562172, 1.5794786214828491, 1.0369148254394531, 0.15596291422843933, 0.6988624930381775, 0.7336587309837341, 0.4697936773300171, -0.21052353084087372, -0.029724039137363434, -0.08924873173236847, -1.2473938465118408, -0.4444545805454254, 0.21766644716262817, 2.0164387226104736, -0.09707117825746536], [0.3767416179180145, 0.035946641117334366, -0.017761262133717537, -0.371748149394989, -0.06980419903993607, -0.3551099896430969, -0.36368322372436523, 0.32966312766075134, -0.3184145987033844, -0.22383108735084534, -1.9878742694854736, -0.09993116557598114, -0.7062603831291199, 0.6772902011871338, 1.5288240909576416, -1.4524905681610107, -0.1452522873878479, -0.5074059963226318, -0.09549180418252945, -0.26102548837661743, 0.29359880089759827, -0.10500039160251617, 0.27233806252479553, 1.6225147247314453, -1.1579586267471313, -0.02143288403749466, 0.883966863155365, -1.3843903541564941, -1.1556111574172974, -0.12254998832941055, 0.4336501657962799, 0.03763195872306824, -1.2706547975540161, 0.25498849153518677, 0.9252376556396484, 0.2748599052429199, 0.022487709298729897, 0.7880964875221252, -0.6804034113883972, -0.7386457920074463, 0.3184022009372711, -0.8775004148483276, -0.2070227414369583, -0.0922916829586029, 0.2527458071708679, -0.2971179783344269, -2.1203534603118896, 0.14661026000976562, -0.1244547888636589, -0.4362022280693054, 0.026868807151913643, -1.0464067459106445, -0.31120893359184265, -0.1499829739332199, 1.2782301902770996, -2.2678933143615723, 0.14870263636112213, -0.031398169696331024, -0.1269180327653885, -0.022441286593675613, -0.6272535920143127, -0.8376011848449707, 0.1442195177078247, 0.20401380956172943, -0.826370358467102, 0.6291030049324036, -0.311047226190567, -0.0842125192284584, -0.667090117931366, -0.08150573819875717, 0.3054966926574707, 0.01684490218758583, -0.3975328803062439, 0.23932325839996338, 0.037236426025629044, 0.4368513822555542, 0.5442214012145996, 0.9975499510765076, -0.028499877080321312, 0.007658862508833408, -1.2435579299926758, 0.178177610039711, -0.09405390918254852, -0.0611254908144474, -0.6808710098266602, 0.06026572361588478, 0.020921600982546806, -0.28202828764915466, 0.02891354076564312, 0.8622600436210632, 0.998196005821228, 0.38891345262527466, 0.4966864287853241, 0.8457707762718201, -0.5665739178657532, -1.271074891090393, -0.6181125640869141, 0.15470489859580994, 0.9253594875335693, -0.07972780615091324, 0.3801410496234894, -0.5016399621963501, 0.09828219562768936, -1.0929464101791382, 0.00830795243382454, -0.46343761682510376, -1.273977279663086, 0.8191625475883484, 0.15745683014392853, -0.33009374141693115, 0.14383895695209503, 0.17710371315479279, -0.5699008703231812, -0.20719777047634125, -0.16007307171821594, -1.2892333269119263, 0.441362202167511, -0.012611712329089642, -1.687856674194336, -0.6806851029396057, -0.0697450041770935, -0.08576060086488724, -0.04407849162817001, 0.982489287853241, -0.6880155205726624, -0.2721259593963623, -0.9718678593635559, -0.5593485236167908], [0.4433479905128479, -0.4796810746192932, 0.11598368734121323, 1.5706781148910522, 0.3845980167388916, 0.5558030605316162, -1.2683643102645874, 0.5994163751602173, -0.03516199067234993, -0.08561313897371292, 0.4860950708389282, -0.13298656046390533, -0.35676226019859314, 1.903393268585205, 0.7125777006149292, 0.4494822919368744, 0.11238829791545868, -0.07723773270845413, 0.4921940863132477, 1.5547517538070679, 0.18951259553432465, 0.8590066432952881, 1.9219248294830322, -0.29426687955856323, -0.7429401278495789, 0.18979796767234802, -0.16093800961971283, 0.15257537364959717, -0.9496269822120667, 0.24042347073554993, -0.8482166528701782, 0.11806144565343857, -0.1788289099931717, 1.8412716388702393, -0.22496910393238068, 0.03968463093042374, -0.04237204045057297, 1.2491484880447388, 0.8825889825820923, -2.131584405899048, 1.6655511856079102, -0.20847398042678833, -1.4475758075714111, 1.7987120151519775, 0.17175790667533875, 0.5284173488616943, 0.1374206691980362, 0.12228496372699738, 0.8738871812820435, 0.31357431411743164, 1.7301222085952759, -1.2526859045028687, -0.08111400902271271, 1.0885168313980103, 0.10798328369855881, 0.24205639958381653, -0.12866364419460297, 0.9999778866767883, -0.26107320189476013, 0.5161817073822021, 0.5412452816963196, 0.21535439789295197, 2.3525850772857666, 0.37687939405441284, -0.21558068692684174, 0.020283222198486328, -0.29691800475120544, -0.2615530788898468, -0.10114401578903198, -0.6827092170715332, -0.24344778060913086, -0.08458475768566132, 0.028179461136460304, 0.10477030277252197, -0.021744180470705032, -1.640183448791504, -0.011282225139439106, 0.5543965101242065, -0.2512437105178833, 0.08223366737365723, 0.07449360936880112, 0.3446245491504669, 0.9959713220596313, 0.07922164350748062, 0.22241340577602386, -0.6155888438224792, 0.09414168447256088, -0.12725701928138733, -0.05882560834288597, 0.32672926783561707, 0.3637346625328064, -0.18925514817237854, 0.22577445209026337, 0.06087801977992058, 1.0151270627975464, 0.29839497804641724, 0.32024574279785156, 0.2819497585296631, 0.07725460827350616, -0.19946366548538208, 0.011062346398830414, 0.6630213856697083, -0.19757141172885895, -1.2719866037368774, -0.007463040295988321, 0.02081187628209591, 0.7527182698249817, -0.13046428561210632, 0.714942216873169, 0.9617906808853149, -0.1649802029132843, -0.18945728242397308, 0.3675519526004791, -0.12578681111335754, 0.9061643481254578, 1.280967116355896, -0.11498439311981201, 0.6383875608444214, 0.35759496688842773, 0.027392901480197906, 0.14841806888580322, 0.059673089534044266, -1.3801451921463013, -0.17562787234783173, -0.7736186981201172, 0.20063401758670807, -0.24405834078788757, 0.15325304865837097], [1.6385843753814697, 0.2332444041967392, 0.0909346416592598, 0.23392929136753082, 0.4357092082500458, 0.5607201457023621, 0.0030173752456903458, 1.3993173837661743, -0.13808460533618927, 2.709760904312134, 0.655581533908844, 2.122009754180908, 0.118804432451725, -0.23748432099819183, 2.4654698371887207, -0.48124322295188904, 0.5617611408233643, 0.5444139242172241, 1.6155169010162354, 1.6556544303894043, 0.14061933755874634, 1.4467829465866089, 2.2198095321655273, -0.33982178568840027, 0.1899726390838623, -0.19837425649166107, 0.15172569453716278, -1.1610571146011353, 0.059493474662303925, -0.13573887944221497, 1.7566927671432495, 0.6838040947914124, 0.9380738735198975, 1.8039848804473877, 0.11118049174547195, 0.6611226201057434, 0.3884527385234833, 1.3126707077026367, -1.4915598630905151, -1.8337191343307495, -0.39519980549812317, 0.3606526851654053, 3.120429754257202, -1.470407485961914, 0.4074194133281708, 2.722383975982666, -1.4519445896148682, 1.766456127166748, 0.39548349380493164, 0.46865591406822205, 0.7556347846984863, 0.3481350839138031, 1.0163490772247314, 1.9247300624847412, -0.7405633926391602, 0.5678551197052002, 0.7712257504463196, 0.6246557831764221, 1.1808953285217285, 1.2540769577026367, 0.13649916648864746, 2.9031057357788086, 0.4176090359687805, 0.3570277988910675, 0.25762417912483215, -0.23959536850452423, -0.46169689297676086, -0.2008969783782959, 0.02291313372552395, -0.8032333850860596, 0.3133462071418762, 0.021792108193039894, 0.03250624239444733, -0.5247230529785156, -2.056104898452759, -1.0953174829483032, -0.577630877494812, -0.4021710753440857, -0.7208626866340637, 0.6421362161636353, -0.2836379408836365, 0.29848194122314453, 0.08069097250699997, -0.6040293574333191, 0.2925666570663452, 0.33464086055755615, 0.642042338848114, -0.3756657540798187, 0.17969858646392822, -0.20844164490699768, 0.14149323105812073, 0.03864927962422371, 0.36480358242988586, -0.1309143602848053, -0.37972521781921387, -0.08521444350481033, -0.0468534491956234, -0.07394880801439285, -0.2532244324684143, 0.5461606979370117, -0.09583671391010284, -0.35237807035446167, -0.11704121530056, -0.44538795948028564, -0.11944948881864548, 1.1849396228790283, 1.2582716941833496, -0.37053921818733215, 1.384338140487671, 1.7095943689346313, -0.3681764006614685, 0.35086172819137573, 1.696271538734436, 0.8844836950302124, 1.809933066368103, 0.8875174522399902, 0.303530216217041, 1.9041330814361572, 1.0812331438064575, 0.4856353998184204, 0.2708756923675537, -0.22324718534946442, 0.5121311545372009, 0.04985135421156883, -0.36972299218177795, 0.47851118445396423, 0.48092857003211975, 0.8266569972038269], [-2.335604667663574, -0.14073248207569122, 0.33697792887687683, -1.4715125560760498, -0.3983478546142578, -0.9319791197776794, 0.6828087568283081, -2.114980697631836, 0.14026714861392975, 0.6880132555961609, -0.705487847328186, 0.2719350755214691, 0.17098402976989746, -0.6553012728691101, -0.6315081715583801, -0.5398492813110352, -0.6889210343360901, -0.22365239262580872, -1.485303521156311, -0.6083447337150574, -0.06808647513389587, -1.2770990133285522, -1.6225115060806274, -0.6876897215843201, -0.4190574288368225, 0.1718752235174179, -0.7233324646949768, 0.26312556862831116, -1.0293081998825073, -0.09521188586950302, 0.2784084677696228, -0.48364222049713135, -0.12907902896404266, -1.2073451280593872, 0.5133078098297119, -0.4040611982345581, -0.22247596085071564, -1.3296928405761719, 0.7113915085792542, 1.7525724172592163, -1.332637906074524, -1.5094478130340576, 1.278882622718811, -2.7419753074645996, -0.06068115681409836, -0.58056640625, -0.9266927242279053, -0.0047933440655469894, 0.32306015491485596, -1.2153021097183228, 0.04400958865880966, 1.2334049940109253, -0.0807795375585556, 0.037681322544813156, -0.6757123470306396, 0.02072104811668396, -1.0560920238494873, -0.7644954919815063, -0.8952285647392273, 0.4019654393196106, 1.5260875225067139, -0.8100396394729614, -1.3566372394561768, 0.4680536985397339, -0.10748263448476791, 0.4037986993789673, 0.6623206734657288, 0.6657735109329224, -0.25632810592651367, 0.7578579783439636, -0.8456723690032959, -0.659544050693512, 0.04298030585050583, 0.07356209307909012, 0.8369088768959045, 0.33288130164146423, 0.5167105793952942, -0.03448106348514557, -0.5609979629516602, -0.21692438423633575, -0.19034187495708466, 0.2216784805059433, 0.17724424600601196, 0.5740482807159424, -0.2700739800930023, 0.2687276303768158, 0.3860378861427307, 0.148445725440979, 0.2540963292121887, 0.27389463782310486, 0.15119820833206177, 0.5534442663192749, -0.15045209228992462, 0.48219361901283264, -0.6395168900489807, -0.23544849455356598, -0.15584374964237213, -0.7361558675765991, 0.29721274971961975, -0.14826373755931854, -0.12087102234363556, -0.723476231098175, -0.817650318145752, 0.34179237484931946, 0.38855859637260437, 0.5052767395973206, -1.1782268285751343, 0.45865362882614136, -0.5941715836524963, -1.9499213695526123, -0.7400718927383423, -0.3744693398475647, -1.8260118961334229, -1.3321954011917114, -1.7962334156036377, -0.35398346185684204, -0.1383294016122818, -1.5764070749282837, -1.2371833324432373, -0.41570475697517395, -0.3520231246948242, 0.06842512637376785, -0.04741210862994194, 0.34535735845565796, 0.023951174691319466, -0.6219157576560974, -0.7374042868614197, -0.913912832736969], [1.2434329986572266, -0.21279564499855042, 0.2589920461177826, 0.8128925561904907, 0.1577487587928772, 1.0376478433609009, 0.7037171125411987, 0.8969957232475281, 0.14786726236343384, 1.535991907119751, 1.4254521131515503, -0.34319040179252625, 0.6885534524917603, 0.855134904384613, 1.847368597984314, 1.4315801858901978, 0.49669328331947327, 0.5583519339561462, 0.02897871844470501, 1.166047215461731, 0.6586242318153381, 0.31959983706474304, -1.4351236820220947, 0.06172771379351616, 0.15950103104114532, 0.007911699824035168, -0.42614302039146423, 0.6999009251594543, -0.757061243057251, 0.07584025710821152, 0.20013371109962463, 0.6230357885360718, 0.9277001619338989, 0.5203906297683716, -0.6055153012275696, -0.14744102954864502, 0.11512727290391922, 0.7743922472000122, -1.3639119863510132, -0.863309383392334, 0.18492916226387024, 1.4667177200317383, -0.7702453136444092, 1.2764354944229126, 0.5515661835670471, 0.005650931037962437, 1.307773470878601, 0.43704164028167725, 0.40675589442253113, -0.18910057842731476, 1.3465110063552856, -0.4031969904899597, 0.1795724481344223, 1.2995854616165161, -0.29579123854637146, 0.13838981091976166, 1.2356963157653809, 0.8356773853302002, 1.5234463214874268, -0.3184541165828705, 0.7779000997543335, -0.4638056457042694, 0.8893420696258545, -0.03624973073601723, 0.4171023368835449, -0.17382828891277313, -0.4600889980792999, -0.8944123387336731, 0.10605330765247345, -0.8793352246284485, -0.09062741696834564, -0.2417716383934021, 0.10572275519371033, 0.18423236906528473, 1.067091941833496, -0.8880348205566406, -0.8217369318008423, -0.39845284819602966, 1.014633059501648, 0.4347671866416931, 0.3589627742767334, 0.5947465896606445, -0.36061689257621765, -0.24331583082675934, 0.5298741459846497, -0.7073264718055725, -0.5969498157501221, -0.011040556244552135, 0.026328498497605324, 0.025175482034683228, 0.12966790795326233, -0.11950787156820297, 0.06660374253988266, 0.1329321414232254, 0.3138054311275482, 0.10652665048837662, 0.38500678539276123, 0.32422497868537903, 0.579910159111023, -0.023316187784075737, 0.1339961439371109, 0.6438894271850586, -0.3999386131763458, 0.2298167496919632, -0.17728804051876068, -0.10654390603303909, 0.6120318174362183, -0.9138560891151428, 0.44772249460220337, 0.8338369131088257, 0.7831323742866516, 0.2558225095272064, -0.12155731767416, 0.40939733386039734, 0.8119004368782043, 0.9142844676971436, -0.023174118250608444, 0.9708392024040222, 2.0976011753082275, 0.707669734954834, 0.33922407031059265, -0.04414351284503937, 0.1792345941066742, 0.13992609083652496, 0.7839430570602417, 0.28421100974082947, 0.836110532283783, 0.516659677028656], [0.2543758153915405, -0.18499384820461273, 0.7016688585281372, -0.6593675017356873, 0.002142100827768445, 0.48800063133239746, 0.6619027256965637, -0.6968289017677307, -0.11134251952171326, 0.2279675155878067, 0.4506383240222931, 0.1737964153289795, -0.5583042502403259, -0.22299312055110931, 1.0867379903793335, 0.8177030682563782, 0.5966942310333252, 0.11852200329303741, -1.9091691970825195, 0.6202142834663391, 0.6963304877281189, -0.3474915623664856, 0.9490232467651367, -0.4846956729888916, -0.8069359660148621, -0.20882458984851837, -0.25535595417022705, -0.03334561735391617, -1.505244493484497, -0.15747277438640594, 0.4831036329269409, -0.05342075601220131, 0.3072736859321594, -0.046187613159418106, -0.32846134901046753, 0.4134535491466522, 0.8937113285064697, 0.19531072676181793, -0.3011739253997803, -0.11728475242853165, -0.9893988370895386, 0.16692706942558289, -0.6264445781707764, -1.6784268617630005, 0.14904367923736572, -0.498870313167572, 0.529987633228302, 0.17888958752155304, -0.17634925246238708, -0.0033628465607762337, 1.037293553352356, -1.1863584518432617, -3.1244137287139893, -0.5865844488143921, 1.1708213090896606, 0.08317339420318604, -0.04777912423014641, 0.12786176800727844, -1.0143147706985474, 1.0343210697174072, 1.5885313749313354, -0.9122965931892395, 0.1414109766483307, -0.16722969710826874, 0.024753239005804062, 0.4219558835029602, 0.31991395354270935, 0.016961850225925446, -0.2525194585323334, -0.014332247897982597, -0.7704067826271057, -0.02656416781246662, -0.061528414487838745, 0.10337171703577042, 0.23024173080921173, -0.354871928691864, -0.020640090107917786, -0.03241682052612305, -0.2538764178752899, 0.12411956489086151, 0.6303663849830627, 0.14791898429393768, 0.5285545587539673, 0.09246837347745895, -0.07115992903709412, -0.30163341760635376, -0.6835957765579224, 0.2158893495798111, -0.2584872841835022, 0.23948656022548676, -0.21556513011455536, 0.003938912879675627, -0.17722666263580322, 0.031486254185438156, 0.3762854337692261, -0.42196670174598694, 0.4557044804096222, -0.40620189905166626, 0.027737626805901527, 0.14092481136322021, 0.03674183040857315, 0.061306651681661606, 0.5103310346603394, 0.029071712866425514, -0.007716222666203976, 0.7174786329269409, -0.585391640663147, -0.14553476870059967, -0.7578254342079163, 0.10489621758460999, -0.964335024356842, -0.13560844957828522, 0.5686377286911011, 0.20830726623535156, -0.013116110116243362, 0.07227765023708344, -0.08542737364768982, 0.19799691438674927, 0.6663549542427063, -0.40516436100006104, -0.37414687871932983, -0.10762438923120499, -0.6420280337333679, -0.06824860721826553, -0.25673818588256836, -0.6181499361991882, -0.3631022572517395, -0.023625461384654045], [-0.3594149351119995, 0.599605917930603, -0.6080470681190491, 0.5370913147926331, 0.2815064489841461, 0.6213535666465759, -0.8279781341552734, -0.4348275065422058, -0.19287163019180298, 0.8410195112228394, -1.0275129079818726, -1.1896768808364868, 1.4668877124786377, 0.9756483435630798, 1.0584754943847656, -0.8220382928848267, 0.7689143419265747, 0.19074714183807373, 0.10779315233230591, -1.211275577545166, 0.2534354329109192, 1.5016329288482666, 1.104859709739685, 0.5953102111816406, 0.3112701177597046, -0.09803128987550735, 0.718397319316864, -0.412568062543869, 0.02008998952805996, -0.029598843306303024, 1.5342884063720703, 0.19383488595485687, 0.33948004245758057, -0.2180456668138504, 0.9628831148147583, 0.6984825134277344, -0.8431211709976196, -0.24856652319431305, 1.3201889991760254, 0.27435940504074097, -0.6848851442337036, -1.5513331890106201, -0.46733298897743225, 0.3789386451244354, -1.1434650421142578, 1.3349820375442505, 0.5828976631164551, 0.43038928508758545, -1.1899915933609009, 0.1943502128124237, 0.04155560955405235, -0.1660573035478592, 0.0527106337249279, 0.06110498309135437, 1.5821471214294434, -1.2673170566558838, -0.9600967168807983, -0.21775572001934052, -0.37994250655174255, -0.9984490275382996, 0.03477487340569496, -0.32805299758911133, -0.4477510154247284, -0.46197131276130676, 0.11178139597177505, -0.16160079836845398, 0.6473209857940674, 0.29987600445747375, -0.007772576063871384, -0.2697758078575134, -0.3764874339103699, -0.4814572036266327, 0.2750190794467926, 0.014858543872833252, -0.23998621106147766, -0.2533302307128906, 0.2877691686153412, 0.445936918258667, -0.12736980617046356, 0.3865235149860382, -0.4424164891242981, 0.2020389288663864, -0.29264047741889954, -0.2777251601219177, 0.45612314343452454, 0.6301944851875305, 0.9580212831497192, 0.30946144461631775, 0.12630848586559296, -0.07296556234359741, 0.05739938095211983, 0.025009332224726677, -0.15291728079319, 0.48120900988578796, -0.18975941836833954, -0.36470142006874084, -0.8400505185127258, -0.24025681614875793, 0.34963685274124146, 0.10391297191381454, 0.4256185293197632, 0.2937154173851013, 0.31334203481674194, 0.817333459854126, 0.03545510396361351, -0.7905285358428955, -0.9157671928405762, 0.6630106568336487, 0.22916419804096222, -1.231902003288269, 0.0876985639333725, -0.35933634638786316, -0.4776931703090668, -0.3229176700115204, 0.056188810616731644, -0.1499224156141281, 0.5003158450126648, -0.8687607049942017, -0.718506932258606, 0.3272239863872528, 0.1400008201599121, -0.01553382072597742, 0.34267687797546387, 0.25129780173301697, 0.7849789261817932, 0.012567921541631222, -0.04769885912537575, -0.41972339153289795], [1.3582967519760132, -0.06510057300329208, 0.19740359485149384, 0.6056681871414185, 0.24879352748394012, 0.8661932945251465, 1.0207936763763428, 1.9666653871536255, 0.20088663697242737, 0.6332703232765198, -0.7106013298034668, -0.28199148178100586, -0.09240150451660156, 0.8165441155433655, 2.0038464069366455, 0.03447594493627548, 0.8891748189926147, 0.47529613971710205, 1.1854926347732544, 0.9699214696884155, 0.21081286668777466, 0.5852202773094177, 0.7635677456855774, -0.14214055240154266, -0.17825840413570404, -0.055683109909296036, 0.0585637241601944, 0.4553086757659912, 0.3520635962486267, 0.7969379425048828, 1.7329648733139038, 0.6263166666030884, 0.9260446429252625, 2.1463770866394043, -0.3609006702899933, -0.16828729212284088, 0.6170894503593445, 1.6902788877487183, -1.2949148416519165, -0.14707499742507935, 0.6363646984100342, 0.8244588375091553, 0.27339425683021545, 1.3590971231460571, 0.40806907415390015, 0.05592642351984978, -0.0209334809333086, 0.02489747479557991, 0.690012514591217, 0.04967629909515381, 1.1992961168289185, -1.731653094291687, -0.3876240849494934, 1.2323533296585083, -0.12381674349308014, 2.8481225967407227, 0.802047848701477, 0.8509179949760437, 0.28133442997932434, -0.473082572221756, 0.07232695817947388, -0.8271729946136475, 0.4521041214466095, 0.22207261621952057, -0.44535839557647705, -0.1255970150232315, -1.0299540758132935, -0.4894822835922241, 0.021640026941895485, -0.6735170483589172, 0.39068475365638733, 0.40529316663742065, -0.022317025810480118, 0.0005844167899340391, 0.1502019762992859, 0.3824462592601776, -0.29573777318000793, 0.9312247037887573, 0.3601657748222351, 0.20054954290390015, -0.5501013398170471, 0.219961017370224, -1.1183257102966309, -0.1608070284128189, 0.1971724033355713, 0.6152538061141968, -1.6292376518249512, -0.26216933131217957, -0.00011738715693354607, -0.054864685982465744, -0.06657020002603531, -0.11719748377799988, 0.2502669095993042, 0.1112106516957283, -0.8257188200950623, -0.057558342814445496, 0.7126325964927673, 0.30209746956825256, 0.4430743455886841, -0.2716726064682007, 0.2272920310497284, 0.29974958300590515, 1.4695308208465576, -1.4410516023635864, -0.5781476497650146, 0.4402814209461212, 0.3042021095752716, -1.2379988431930542, 0.8660833239555359, 1.4251360893249512, 0.5119724869728088, -0.36063575744628906, 1.4884870052337646, 0.8547950387001038, 1.249426245689392, -1.0488266944885254, -0.10998493432998657, 0.9550001621246338, 2.386331081390381, 1.255380630493164, 0.1183234378695488, -0.036213912069797516, -0.882324755191803, -0.7276111841201782, 0.31013935804367065, 0.21730101108551025, 0.6634860038757324, 0.6997508406639099], [0.6931551098823547, -0.22102457284927368, 0.23779810965061188, -0.056929346174001694, -0.1785561442375183, 0.002833319129422307, 0.6299782991409302, 0.00012711214367300272, 0.0912083312869072, 2.2405498027801514, 1.9044824838638306, 0.8558199405670166, 0.21403376758098602, 0.45438915491104126, 0.4616049826145172, 1.8005585670471191, 0.6822158098220825, 0.3516385555267334, 0.44541797041893005, 1.5800658464431763, -0.013325288891792297, 0.2476075142621994, 0.9788162708282471, -1.307201862335205, -0.7458043098449707, -0.07629727572202682, -1.118342638015747, 0.49339205026626587, -1.2398920059204102, -0.3468715250492096, 0.2305169552564621, -0.2711884379386902, 2.09611439704895, 1.1425772905349731, 0.017336970195174217, -0.3476406931877136, 1.5116069316864014, -0.16377052664756775, -0.5034422874450684, 0.1931886076927185, 2.247260570526123, 0.7269181609153748, 0.9620517492294312, 0.4147588312625885, 0.30360013246536255, 0.7967986464500427, 0.10739821195602417, 0.754103422164917, 1.8326364755630493, 0.16459673643112183, 0.465640664100647, 1.8510679006576538, 0.10727111995220184, 1.562897801399231, 0.4518871307373047, 0.30911049246788025, 1.3371851444244385, 0.8827135562896729, 1.089016318321228, 0.2712964415550232, 1.524687647819519, 1.6095597743988037, 0.9021306037902832, 1.1786919832229614, 0.4863063395023346, -0.10937929153442383, 0.18420693278312683, -0.04764927178621292, 0.06775166839361191, -0.6909408569335938, -0.3895955979824066, -0.16604773700237274, -0.013735281303524971, -0.24090933799743652, -0.13871166110038757, -0.8763063549995422, 0.37350064516067505, -0.7245824337005615, -0.18535591661930084, -0.08892246335744858, 0.2647159695625305, 0.44399675726890564, 0.003019685624167323, -0.13799969851970673, 0.5867681503295898, 0.1339208483695984, 0.8064649701118469, 0.14560934901237488, -0.01684606447815895, -0.29706501960754395, -0.13660310208797455, 0.01665237545967102, -0.09922198206186295, -0.20928819477558136, -0.2208736091852188, 0.846071183681488, 0.3497486114501953, 0.19926860928535461, 0.09295674413442612, 0.18237441778182983, -0.10635309666395187, -0.18329155445098877, -0.2622973620891571, 0.10899117588996887, -0.05385722219944, 0.8338668346405029, 1.668125033378601, -1.6249760389328003, 0.35274702310562134, 1.0167009830474854, 0.05018717423081398, 0.5323461294174194, 0.7104699015617371, 0.12043101340532303, 0.052656468003988266, 1.463590383529663, 0.3358241021633148, 0.6448326110839844, 2.1291911602020264, -0.21374168992042542, 0.09543229639530182, -0.20808145403862, -0.6594412326812744, -0.4190671443939209, -0.9347169399261475, 0.08966919034719467, 0.3691307604312897, 0.1981746256351471], [-0.089745432138443, 0.021557237952947617, 1.70712149143219, 0.853185772895813, 0.01022134069353342, -0.9352096319198608, 0.9523599743843079, -0.9203166961669922, -0.08442453294992447, 0.6359812021255493, -0.1390428990125656, -1.1434557437896729, -0.34529924392700195, -0.3878205716609955, 0.8631242513656616, -0.8628327250480652, 0.004428207874298096, 0.15269441902637482, 1.014344573020935, -0.8230184316635132, -1.1106418371200562, -0.43177253007888794, -2.7666828632354736, 0.3829885721206665, 0.06109446659684181, -0.010250287130475044, 0.9311344623565674, -2.2271997928619385, 0.46617045998573303, -0.046554554253816605, 1.0526973009109497, -0.13673199713230133, -0.07773452997207642, -1.0118186473846436, -1.274303913116455, -0.4208625853061676, 0.6644609570503235, -0.7560698390007019, 0.9385536313056946, -0.3278560936450958, 0.007649541366845369, -0.6068147420883179, 0.27508875727653503, 2.750990390777588, -1.752448558807373, -0.9261364936828613, 1.233917474746704, 0.12816393375396729, -0.7573015093803406, -0.5057389736175537, 0.8929377794265747, -0.7545806169509888, 1.1609749794006348, 0.08955896645784378, -1.2554984092712402, -0.3874050974845886, -0.008133161813020706, -0.20607584714889526, 1.1043826341629028, 0.017761334776878357, 0.2944006621837616, -0.13240262866020203, 0.3029671609401703, 0.1812308132648468, -0.810259997844696, 0.14487265050411224, -0.2442372441291809, -0.2816287577152252, 0.09960123896598816, 0.6391357183456421, 0.2513549327850342, -1.1905121803283691, -0.42129087448120117, 0.8838015794754028, 0.12509866058826447, -0.23578454554080963, 0.4946226477622986, 0.2497391253709793, -0.16911056637763977, 0.056305453181266785, -0.6281308531761169, 0.8793415427207947, -0.7005102634429932, -0.2804800570011139, -0.036030370742082596, 0.30485790967941284, -0.5379716753959656, -0.312611848115921, -0.19472993910312653, -0.2874165177345276, -0.46399012207984924, 0.2919825315475464, 0.06377122551202774, 0.18142837285995483, 0.0817345678806305, 0.21418049931526184, -1.2462263107299805, -0.3284960389137268, 0.2839215099811554, -0.15043623745441437, 0.04169316962361336, -0.5279242992401123, -0.404824823141098, -0.5856994986534119, 0.8007903099060059, -1.0428674221038818, -0.23022158443927765, 0.8461753726005554, -0.17995187640190125, -0.4845036268234253, 0.7085109949111938, -0.05216541886329651, -0.15970778465270996, -0.4508451819419861, 0.36503225564956665, -0.10962473601102829, -0.3189203441143036, -0.17104728519916534, -0.2488458901643753, -0.3108888268470764, 0.015358059667050838, 0.16648462414741516, 1.0729891061782837, 0.41538089513778687, 0.3630261719226837, -0.0372517928481102, 0.09054037928581238, -0.1465790569782257], [0.4754243493080139, 0.20024901628494263, 0.6369977593421936, -0.2724350392818451, 0.3100639581680298, 0.7733601331710815, 0.9673691987991333, -0.4078493118286133, -0.07367927581071854, 0.022222908213734627, -1.0115957260131836, 0.728979229927063, 0.2898162603378296, 0.6850264668464661, -0.8047996759414673, 0.0740095004439354, 0.7574050426483154, 0.5924738049507141, -0.809485137462616, 0.3390396237373352, 0.4243519902229309, -0.3605484366416931, -0.32273146510124207, 1.1306928396224976, 0.3507572412490845, -0.20567849278450012, 0.25375887751579285, -0.07788002490997314, 1.5060487985610962, -0.1593795120716095, 0.532128632068634, 0.2921552062034607, 0.25994211435317993, -0.5188223719596863, -0.2596089541912079, -0.40059080719947815, 0.0733572393655777, -0.26652151346206665, 0.40307167172431946, -0.06959716230630875, 0.47365903854370117, -0.21932651102542877, 0.2684031128883362, -0.33387285470962524, 0.13157807290554047, 0.013336957432329655, -0.638848602771759, 0.434704452753067, 0.55715411901474, 0.9979406595230103, 0.4388037323951721, 0.141990065574646, 0.13618209958076477, -0.38545674085617065, 1.0380122661590576, 0.362499862909317, 0.263168603181839, -0.43002116680145264, -0.1714428961277008, -2.1068105697631836, -0.12526649236679077, -1.4251331090927124, -0.3646320700645447, -0.5431973338127136, 0.08013204485177994, -0.2604652941226959, 0.3089641332626343, -0.06509226560592651, 0.29141271114349365, -0.4240945875644684, 0.5843452215194702, -0.4546677768230438, -0.02911585196852684, 0.06605317443609238, 0.1611039638519287, 1.2136626243591309, 0.4547741413116455, -0.2937312126159668, 0.14779125154018402, 0.17019392549991608, -0.2756355106830597, -0.6749134063720703, -0.42793431878089905, -0.3587377667427063, 0.12574322521686554, 0.3157044053077698, 0.5700501203536987, 0.176417738199234, -0.006153586320579052, -0.32747766375541687, 0.6127176284790039, -0.06281382590532303, 0.24495051801204681, -0.2123347818851471, 0.0748518779873848, -0.040010347962379456, 0.25541162490844727, 0.043132420629262924, 0.3509540557861328, -0.8695005178451538, 0.012354654259979725, 1.7772595882415771, 0.004539497196674347, 0.7671014666557312, 0.19522808492183685, -2.0702831745147705, 0.21603527665138245, 0.6386293768882751, 0.20844696462154388, -0.3338170051574707, 0.8265013694763184, 0.38632261753082275, 0.3253437578678131, -0.3857782483100891, -0.5215916037559509, -0.43566426634788513, 0.24259614944458008, 0.35274773836135864, 0.611424446105957, 0.5849990844726562, 0.28304290771484375, -0.017717672511935234, 0.20024575293064117, -0.8955748677253723, 1.0866906642913818, 0.3520345389842987, 0.1883450746536255, 0.07946142554283142], [-0.049182627350091934, -0.1744176298379898, -1.2211062908172607, -0.238556370139122, -0.22620443999767303, -0.6695082187652588, 0.09133809059858322, -0.39615005254745483, 0.0354585237801075, 0.3719853162765503, -0.6887183785438538, -0.33946385979652405, 0.1759231835603714, 0.48908403515815735, -0.18641646206378937, 0.2434840053319931, 0.12447754293680191, 0.5090392827987671, -0.9197812080383301, -1.1105272769927979, 0.5474951267242432, 0.0928717777132988, 0.002723732963204384, -0.32664281129837036, 0.03685274347662926, -0.04802866652607918, 0.0720796063542366, -0.8352847695350647, 0.8236707448959351, 0.13911010324954987, -0.28550028800964355, -0.02820705808699131, -0.26021769642829895, 0.5628294348716736, 0.9089473485946655, -0.39410001039505005, -0.37883833050727844, -0.5195435285568237, -0.7126096487045288, -0.5332177877426147, -0.7426619529724121, -0.6382789015769958, 0.41046980023384094, -1.8639357089996338, -0.17456258833408356, 0.6383843421936035, -1.0054669380187988, -0.7102610468864441, 0.28888946771621704, -0.4048541486263275, -0.014756734482944012, 0.6229389309883118, 0.8301703333854675, -0.636489748954773, 0.700012743473053, 1.264575481414795, -0.5582987070083618, -0.2391737997531891, -2.0894863605499268, 0.7729743123054504, -0.3409326374530792, -1.0025008916854858, -0.5575451850891113, -0.06430218368768692, 0.048745062202215195, -0.1353088915348053, 0.25175538659095764, 0.47676554322242737, -0.0010242275893688202, 0.17457541823387146, -0.003321220399811864, -0.20402736961841583, 0.21100875735282898, -0.08557131141424179, -0.2718127965927124, 0.12467377632856369, 0.06843715161085129, -0.08745595067739487, -0.05808847397565842, 0.08745656162500381, 0.2736758291721344, -0.21057367324829102, -0.17897476255893707, -0.4625890851020813, -0.19743618369102478, -0.10224563628435135, 0.08356375992298126, 0.06287671625614166, 0.08156788349151611, 0.040345530956983566, -0.28899022936820984, -0.1437220573425293, -0.18118205666542053, -0.1346498727798462, 0.6403862237930298, 0.031938791275024414, 0.18464960157871246, 0.07466579228639603, 0.028914421796798706, -0.8536671996116638, 0.09608044475317001, 0.23211883008480072, -1.1423594951629639, -0.05062868073582649, -0.42099618911743164, -0.4196285009384155, -0.7015637159347534, -0.5054804086685181, 0.09452857822179794, -1.1746329069137573, -0.6741509437561035, 0.08555059134960175, 0.34407585859298706, -0.7129252552986145, -0.6623336672782898, 0.4001927077770233, 0.18805117905139923, -0.5756751298904419, -0.15384896099567413, 0.17494052648544312, 0.05676227807998657, 0.08067783713340759, 0.5574393272399902, -0.4932222366333008, -0.024166744202375412, -0.34410542249679565, -0.4325576424598694, 0.29960954189300537], [1.1896570920944214, 0.5170676112174988, 0.5070724487304688, 0.6996719837188721, 0.18139566481113434, 1.1973633766174316, 1.0669991970062256, 2.8712899684906006, 0.01801537163555622, 1.1586861610412598, -0.9161286950111389, -0.21627746522426605, 0.6293147802352905, 1.885535478591919, 2.7806191444396973, 0.12514741718769073, 1.0353596210479736, 1.4748259782791138, 1.5662903785705566, 0.6959118247032166, 0.0017535830847918987, 0.5812345743179321, 2.5718185901641846, -0.1803547590970993, 0.009763184934854507, -0.024544280022382736, -0.679889976978302, -0.6240938305854797, -0.27501270174980164, -0.026485053822398186, 1.9422202110290527, 0.6827160120010376, 1.8263497352600098, 0.9253295063972473, 0.34000587463378906, 0.8342002034187317, 0.4893816113471985, -0.11011537909507751, -0.8295289874076843, 0.1078878790140152, 0.11510168015956879, 0.8318097591400146, 3.395449161529541, 0.7599560618400574, 0.07775500416755676, 2.019364595413208, 1.736633539199829, 0.8167588114738464, -0.9885492324829102, 0.9144164323806763, 1.4706127643585205, 0.9531393051147461, 0.9744739532470703, 0.9719218611717224, 1.4428551197052002, 0.35090845823287964, 2.6877801418304443, 1.0990207195281982, 0.6529960632324219, 0.6551346182823181, 0.3678821623325348, 1.640601634979248, 0.8798033595085144, 0.500458836555481, 0.23935134708881378, -0.43873128294944763, -0.7586906552314758, -0.5614193081855774, 0.11346950381994247, -0.9547059535980225, 0.005060258321464062, -0.13546742498874664, 0.06755281239748001, 0.047848258167505264, 0.31875884532928467, -0.38634026050567627, -0.2523203492164612, -0.44675707817077637, -0.11149082332849503, 0.7754216194152832, -0.44200313091278076, 1.0338351726531982, -0.9492478370666504, -1.1646960973739624, 0.7046216130256653, 0.9897491931915283, 0.45827043056488037, 0.06261177361011505, -0.1465991586446762, -0.20116707682609558, -0.014713635668158531, 0.21852867305278778, 0.40736258029937744, 0.17645332217216492, -0.04248078539967537, -0.05524999275803566, -0.08359519392251968, -0.017619863152503967, -0.06076772138476372, 0.14533545076847076, 0.11830183863639832, -0.3056184947490692, 1.0017480850219727, 0.32370316982269287, -0.018303487449884415, 0.5734560489654541, 0.7043328881263733, 0.402401328086853, 0.12199915945529938, 1.3897124528884888, 1.287851333618164, 0.0005866264691576362, 1.394583821296692, 0.9040775299072266, 1.7377427816390991, -0.27935102581977844, 0.3591158390045166, 0.9767163991928101, 1.333249568939209, 0.07284336537122726, 0.3627857267856598, -0.07396715879440308, -0.17592070996761322, -0.6453725695610046, 0.6782245635986328, 0.5733314752578735, 0.7260012626647949, 0.4877825379371643], [0.870227575302124, 0.18528588116168976, -0.29058852791786194, 0.9308159351348877, 0.2839634120464325, 1.0461266040802002, 0.23869827389717102, 1.379000186920166, -0.004046444781124592, 2.590219259262085, 1.180262565612793, 1.7941303253173828, 0.059766706079244614, 0.424383282661438, 3.06256365776062, -0.041729606688022614, -0.4588848948478699, 0.46524137258529663, 0.5788660645484924, 3.5967297554016113, 0.28262028098106384, 0.0898718610405922, 1.1088694334030151, 0.11600260436534882, 0.19386328756809235, -0.1270322948694229, -0.7565993666648865, -0.23247860372066498, -0.13564075529575348, 0.5635669827461243, 1.4962399005889893, 0.050156500190496445, 2.0166077613830566, 1.9152244329452515, 0.07969865947961807, -0.041686080396175385, -0.5641037821769714, 0.1977105438709259, -1.1059043407440186, 0.20608411729335785, 1.169819712638855, 0.13188868761062622, 1.9220032691955566, 0.24511438608169556, 0.3942870795726776, 1.3000295162200928, 1.1590584516525269, 0.4339902102947235, 1.3946517705917358, -0.11832182109355927, 0.5922190546989441, 0.8671759963035583, 0.19182725250720978, 1.4949461221694946, -0.8471601009368896, 0.41224661469459534, 0.9249765276908875, -0.04265308380126953, 2.2776310443878174, 0.03814896568655968, -0.950497031211853, 2.0504093170166016, 2.500638008117676, 1.0443720817565918, -0.8560863137245178, -0.265375554561615, -0.6841245293617249, 0.3021520972251892, 0.19586151838302612, -1.0214130878448486, -0.7007562518119812, 0.841703474521637, 0.2298187017440796, -0.17645417153835297, -1.088443398475647, -0.6841872930526733, -0.23744343221187592, -0.08531782031059265, -0.5296406745910645, 0.6126124262809753, 0.3852764070034027, 0.18837472796440125, 0.24973797798156738, -0.30761629343032837, -0.01271335780620575, -0.4837847352027893, 0.9687522649765015, -0.3019789457321167, -0.22932881116867065, -0.03812923654913902, -0.1890861541032791, 0.4044993221759796, 0.10365308821201324, -0.11761476844549179, 0.5167108774185181, -0.06331745535135269, 0.5703731775283813, 0.3273696005344391, -0.017054732888936996, 0.5469239950180054, 0.2285066545009613, -0.8283315300941467, 0.26451411843299866, 0.4229298233985901, -1.1094179153442383, 2.225001096725464, 0.16372820734977722, -1.32998788356781, 0.16372725367546082, -0.6426093578338623, -0.52396559715271, 0.8380815386772156, -0.2274394929409027, 0.4205935001373291, 0.29663482308387756, 1.331449270248413, 0.3126849830150604, -0.3216340243816376, 1.142274022102356, 0.6446865200996399, 0.6699034571647644, 0.21144427359104156, -0.5389988422393799, 0.3839189112186432, 0.8968048095703125, 0.03488704189658165, 0.3515053391456604, 0.5033201575279236], [0.746665358543396, 0.48827794194221497, 0.48170921206474304, -0.4377990961074829, 0.5530654788017273, 1.0529720783233643, 0.8879746794700623, -0.4435708522796631, -0.6252821683883667, 1.4123681783676147, -0.08476865291595459, -1.582253336906433, 0.05862940102815628, 0.31470492482185364, 0.48421111702919006, -0.47644391655921936, 0.20770516991615295, 0.342325359582901, -0.36900290846824646, -2.1716768741607666, -0.03118046000599861, 0.5346484184265137, -0.45387473702430725, 0.24591347575187683, 0.3888692855834961, -0.01450536772608757, -0.3523716926574707, -2.4074831008911133, 0.8807061910629272, -0.4757620096206665, 0.4984937012195587, 0.26450586318969727, -1.262125015258789, 1.2063751220703125, -0.4077136814594269, 0.9551877975463867, 0.9212643504142761, 0.47230151295661926, 0.06958423554897308, -0.1442081779241562, 0.13332761824131012, -0.23051682114601135, 0.7662365436553955, -0.9196791648864746, -0.11144137382507324, 0.9262441992759705, 0.34477537870407104, -1.5172007083892822, 0.7223090529441833, -0.0012035394320264459, 1.7751317024230957, 0.2611309885978699, 0.45142266154289246, 0.41155073046684265, 2.2588112354278564, 0.44923165440559387, -1.3343236446380615, 0.5429893732070923, -0.5417208075523376, 0.26004642248153687, -0.08980576694011688, -1.2250614166259766, 0.02058487944304943, 0.5536870360374451, 0.569659411907196, 0.08464012295007706, 0.025729713961482048, -0.20688597857952118, -0.16005350649356842, 0.005600585602223873, -0.35492944717407227, 0.028879746794700623, -0.05386871472001076, 0.5319424867630005, -0.28002139925956726, 0.2779915928840637, 0.03154291957616806, -0.11969470232725143, -0.3622184097766876, 0.5172345638275146, -0.07072590291500092, -0.04734823480248451, 0.3187171220779419, -0.20094238221645355, 0.08366663753986359, -0.3436705470085144, 0.8675903081893921, -0.000176787783857435, -0.1280367374420166, 0.14444072544574738, 0.0800689160823822, -0.1515072137117386, -0.17522095143795013, 0.15979261696338654, 0.40821459889411926, 0.2274945229291916, -2.2330901622772217, 0.06008126586675644, -0.09289656579494476, 0.10425204038619995, -0.17738154530525208, 1.9286203384399414, -0.7067664265632629, 0.008395172655582428, 0.21135468780994415, -0.4242182970046997, 0.6958453059196472, -0.7888829112052917, 0.5199322700500488, -0.9390302300453186, -0.39076757431030273, 0.46771425008773804, -0.18230374157428741, -0.588634192943573, -0.8177936673164368, -0.6522228121757507, 0.34381577372550964, -0.5168684124946594, 0.49488621950149536, -0.16901634633541107, -0.17312270402908325, 0.0009694530162960291, 0.7078223824501038, -0.3071492910385132, 0.3294556140899658, 0.23695513606071472, 0.08292146772146225, 0.11289212852716446], [1.5687706470489502, 0.08260329067707062, 0.6036511659622192, 0.9785569906234741, 0.07408662140369415, 0.69089275598526, 0.14643840491771698, 2.1137194633483887, -0.039658721536397934, 0.6036096215248108, -0.6733765602111816, 0.45366254448890686, 0.7860606908798218, 0.6316890716552734, 2.0937340259552, 0.7456331253051758, -0.6663456559181213, 0.32566720247268677, 1.0991567373275757, 0.697384774684906, -0.295907199382782, 0.3386589586734772, 1.570659875869751, -0.3139422833919525, -0.2306138426065445, -0.08933015912771225, 0.4962390065193176, 0.1161540076136589, -0.15822190046310425, 0.058052994310855865, 1.4465376138687134, 0.4244057536125183, 0.3884717524051666, 1.3700257539749146, 0.7977340817451477, 1.2847532033920288, 0.6907857060432434, 0.859851598739624, -0.12725523114204407, -2.672675848007202, 1.3413364887237549, 1.001250982284546, -1.0650238990783691, -0.7925707697868347, 0.2014339715242386, 0.098120778799057, -0.2180262804031372, 0.8187562823295593, 0.35210874676704407, 0.9699094891548157, 1.2014561891555786, 1.3707996606826782, -0.8629608154296875, -0.4190315902233124, -0.12703941762447357, -0.44676217436790466, 2.0971720218658447, 0.8490108847618103, 0.49594393372535706, 0.013613018207252026, 1.179489016532898, 1.1406692266464233, -0.9939023852348328, 0.6125288009643555, -0.33419564366340637, -0.3204634487628937, -0.01324374321848154, -0.11903988569974899, 0.14210650324821472, -0.8407266736030579, -0.2770002782344818, 0.10870743542909622, -0.008615199476480484, -0.20678237080574036, -0.09163279831409454, 0.031603679060935974, -0.31832537055015564, -0.14723700284957886, -0.18533320724964142, -0.23770488798618317, -0.15439127385616302, 0.06594274938106537, -0.42538872361183167, -0.6190862059593201, 0.5652730464935303, -0.079551562666893, 0.694405198097229, 0.023574359714984894, 0.19577711820602417, -0.1303703337907791, 0.11987822502851486, -0.5267736315727234, 0.10024327784776688, 0.07383939623832703, 0.04804689809679985, 0.340072363615036, -0.035278964787721634, -0.22611850500106812, 1.6399801969528198, 1.1931772232055664, 0.08923130482435226, -1.1424708366394043, 1.1584103107452393, -2.0474047660827637, -0.6229450106620789, 0.6523277759552002, 0.41246089339256287, -1.2318013906478882, 0.5717248916625977, 0.9770044088363647, 0.3286725580692291, -0.572063684463501, 0.6562469005584717, 0.7073686718940735, 1.8102060556411743, 0.025519078597426414, -0.18311934173107147, 0.7249017953872681, -0.6946783065795898, 1.1880675554275513, 0.013325058855116367, 0.09274180978536606, 0.016684001311659813, 0.38976240158081055, 1.270087718963623, 0.5630103349685669, 0.3636757731437683, 0.7242052555084229], [-0.19030019640922546, -0.250430703163147, 0.588606595993042, 0.3716571629047394, -0.0388314425945282, -0.20586226880550385, 1.3585660457611084, 1.3426623344421387, 0.05879479646682739, 0.8721752762794495, 0.3284880220890045, -0.3926033675670624, 0.2948899567127228, 0.924855649471283, 0.2239183932542801, 0.5077470541000366, 0.5973991751670837, 1.027655839920044, -0.8809181451797485, 0.15641015768051147, 0.24518953263759613, 0.5301421880722046, 0.9362360239028931, -0.13313163816928864, -0.010906437411904335, 0.19893229007720947, -0.2271309792995453, -1.5132102966308594, -0.9037677645683289, -0.1892874836921692, -0.2097357213497162, -0.10970214754343033, 0.8157762289047241, 0.1949433982372284, -0.5181288719177246, -0.4480704963207245, 0.3628920018672943, -0.6243571043014526, 0.7197278141975403, 1.2106902599334717, -0.940660834312439, 0.5579469203948975, 0.19860780239105225, -1.22575044631958, 0.12654583156108856, 0.38348063826560974, -0.7955217361450195, 0.24669459462165833, 0.385916531085968, 0.8331727385520935, 0.2036752551794052, 2.382507085800171, 0.5695467591285706, 0.7032792568206787, 0.009960150346159935, -1.547771692276001, -0.2276102751493454, -0.014581921510398388, 1.4323723316192627, -0.32671406865119934, -0.1646183282136917, -0.6413569450378418, 0.017195139080286026, -0.2139240801334381, 0.2535545825958252, 0.036146871745586395, -0.3871294856071472, -0.5718894600868225, -0.0627765953540802, 0.34313520789146423, 0.3990614116191864, -1.502206563949585, -0.07927251607179642, 0.06393299996852875, 0.40621399879455566, 0.27330929040908813, -0.3388078510761261, -0.3463740348815918, 0.2926830053329468, -0.2405671328306198, 0.43330734968185425, -0.008414576761424541, -0.43760597705841064, -0.17014563083648682, 0.1560424417257309, 0.3995535671710968, 0.48524171113967896, -0.41722336411476135, 0.20619308948516846, 0.0017984772566705942, -0.024103917181491852, -0.3365742564201355, 0.04965801537036896, 0.15443018078804016, -0.5817992091178894, 0.22199951112270355, 1.1895356178283691, 0.5088053345680237, -0.5271666049957275, -0.2865307927131653, 0.03724793717265129, -0.11521483212709427, -0.7778945565223694, 0.9765843152999878, 0.05545985326170921, 1.0031037330627441, 0.9011442065238953, -0.6114124655723572, -0.4738638997077942, 0.7558778524398804, -1.55985426902771, 0.45977911353111267, 0.2622007429599762, 0.3894199728965759, 0.02723274752497673, -0.8583462238311768, -0.2964009642601013, 0.25477728247642517, 1.926336407661438, -0.8526248931884766, 0.04670712351799011, -0.12309560924768448, -0.8031793236732483, -0.2914235293865204, 0.006863259710371494, 0.14099985361099243, 0.26026421785354614, 0.1878851056098938], [-0.5707330107688904, 0.04819484055042267, 0.5917927622795105, -0.462100088596344, 0.00272927968762815, 0.026788456365466118, 1.057778000831604, -0.5987372994422913, 0.5067400336265564, 0.6242371797561646, -1.281552791595459, -1.0648565292358398, -0.038513123989105225, -0.4731571078300476, 2.5884411334991455, -0.9655124545097351, -0.8560882210731506, 0.6432234048843384, -0.26169657707214355, -0.6964776515960693, 0.26041510701179504, -0.05598834902048111, -1.2278016805648804, 0.2985531985759735, 0.0033900588750839233, -0.24251478910446167, -0.12947216629981995, -0.12440944463014603, 1.7940596342086792, 0.0812394917011261, 1.3417237997055054, 0.12151621282100677, 0.909770667552948, 0.31514525413513184, 0.3976067900657654, -0.16635560989379883, 0.8868762850761414, 0.08074536919593811, 0.6277349591255188, 1.6195380687713623, 0.8268728852272034, 0.5660971403121948, 0.5914519429206848, 1.319359540939331, -0.7128025889396667, 0.9459794759750366, 1.3139680624008179, -0.2785300016403198, -0.09331119060516357, 0.9172847867012024, 0.5958831310272217, -1.2465485334396362, -0.46136823296546936, 1.2866981029510498, -0.8781524300575256, -0.28579747676849365, -0.08481704443693161, -0.20596936345100403, 0.8270587921142578, -1.0056517124176025, -0.34573403000831604, 0.029995011165738106, 0.9271674156188965, -0.3448719084262848, 0.052681297063827515, 0.049010179936885834, -0.038431547582149506, 1.0053995847702026, -0.09835957735776901, -0.21310187876224518, -0.31011271476745605, 0.02822149731218815, -0.02662724070250988, 0.286371111869812, 0.30631932616233826, -0.09521842002868652, 0.38603881001472473, 1.3003017902374268, 0.23577778041362762, 0.4109775722026825, -0.5618444085121155, -0.20907630026340485, 0.20363225042819977, -0.3412855863571167, 0.1157725602388382, 0.42230236530303955, -1.3106825351715088, -0.029290396720170975, -0.17089000344276428, 5.439470987766981e-05, -0.18163546919822693, 0.44599649310112, 0.26273271441459656, 0.03709366172552109, -0.2255125641822815, -0.7009469866752625, -0.599648654460907, -0.2464318722486496, 0.45350855588912964, 0.5027881264686584, -0.08266602456569672, 0.7650713324546814, -0.14138436317443848, 0.5058953166007996, 0.8909122943878174, 0.701511025428772, -1.260573148727417, -0.091255784034729, 0.1448727548122406, -0.8853217959403992, 1.9522976875305176, 0.42235344648361206, -0.30875256657600403, 0.09190832078456879, 0.7325420379638672, 0.07458318769931793, -0.005638850387185812, 0.07016061991453171, -0.9372764229774475, 0.542228639125824, -0.21273133158683777, 0.04385337606072426, -0.3736186623573303, -0.5396531820297241, -0.19945041835308075, -0.07680174708366394, 0.5412139296531677, -0.20109930634498596], [0.769430935382843, -0.056489184498786926, 0.1674853265285492, -0.2918367385864258, -0.0445428267121315, -0.37000802159309387, -1.0537967681884766, -0.1272483617067337, 0.01468766387552023, 0.16690251231193542, 0.5934005975723267, 0.34033268690109253, -0.06878618896007538, -0.0980093851685524, -0.7278174757957458, 0.7553858757019043, 0.40776875615119934, -0.6048270463943481, 0.32579776644706726, 1.40153968334198, 0.021949779242277145, 0.09030162543058395, 0.0026053348556160927, -0.02473742514848709, 0.24328339099884033, 0.056712228804826736, 0.16995090246200562, 0.6622661352157593, 0.3800143301486969, -0.14630073308944702, -0.5763413310050964, 0.13883882761001587, 0.2892894744873047, 0.5290446877479553, 0.4560242295265198, 0.21365447342395782, 0.19367223978042603, 0.14843276143074036, 0.49729421734809875, -0.022030696272850037, 1.875747799873352, -0.6590635180473328, 0.805667519569397, 0.33286601305007935, -0.04486856982111931, 0.23769156634807587, -1.0031321048736572, -0.42091768980026245, 1.0046138763427734, -0.09925146400928497, -1.0475767850875854, 0.3314982056617737, -0.6780667304992676, 0.7683443427085876, 0.20871849358081818, 0.49733272194862366, 0.7091245055198669, -0.631231427192688, 0.9311136603355408, -0.23401601612567902, 0.24924708902835846, 0.2175934612751007, -0.02676176279783249, 0.17316670715808868, -0.14747384190559387, -0.20605306327342987, -0.3743431568145752, -0.24514462053775787, 0.1646265983581543, 0.12286689132452011, 0.13709750771522522, 0.1145915538072586, -0.2196590155363083, 0.0007096658227965236, 0.10575101524591446, -0.08670321851968765, -0.000434405286796391, 0.2021970897912979, 0.08419804275035858, -0.44505560398101807, -0.20224103331565857, 0.2602801024913788, -0.01421192567795515, -0.03360387310385704, -0.2367842197418213, 0.1201401948928833, 0.6557442545890808, 0.11927152425050735, -0.19003283977508545, -0.06942667067050934, -0.05944949388504028, -0.0023117607925087214, 0.06418903917074203, -0.19162589311599731, -0.13971377909183502, 0.37604111433029175, 0.1953359842300415, 0.2599014639854431, 0.6476710438728333, 0.5695765018463135, 0.16447821259498596, -0.844204306602478, 0.06592675298452377, -0.10033991187810898, 0.06271830946207047, -0.5718319416046143, 0.3387518525123596, -0.9213659167289734, 0.23874206840991974, -0.05320761352777481, -0.5544096827507019, -0.11519281566143036, -0.1358242928981781, -0.11239413917064667, 0.14216040074825287, 0.9726238250732422, 0.07167915254831314, -0.21863150596618652, -0.8218756318092346, -0.044640835374593735, -0.06478723883628845, -0.23700441420078278, 