{"conv1d": {"bias:0": [0.0027669956907629967, 0.002419474069029093, -0.003727307543158531, 0.003283611498773098, -0.0004486201796680689, 0.0031271222978830338, 0.0016901541966944933, 0.0005582291050814092, -0.0023665379267185926, 0.0025539244525134563, 0.001960094552487135, -0.0044026910327374935, -0.004437697120010853, -0.0019237168598920107, -0.0023792418651282787, -0.008952569216489792], "kernel:0": [[[-0.7156532406806946, 1.361619472503662, -1.7304667234420776, -0.13707393407821655, -0.7092788219451904, -0.32766425609588623, 0.16488437354564667, 1.0952496528625488, -1.0147985219955444, 0.03842060640454292, 1.1028798818588257, -2.8434512615203857, 0.6815863847732544, 0.8891019225120544, 1.3557734489440918, -3.241672992706299]], [[-0.40829044580459595, 1.3017551898956299, -1.5672117471694946, -0.1631205976009369, -0.6213395595550537, -0.23254795372486115, 0.08650484681129456, 0.4680556058883667, -1.235266923904419, 0.16288717091083527, 1.116923213005066, -2.0967040061950684, 0.32586202025413513, 0.6722951531410217, 1.2104506492614746, -2.8563148975372314]], [[0.05543281510472298, 1.1649603843688965, -1.1543495655059814, 0.24793358147144318, -0.10228155553340912, 0.22535394132137299, 0.18098805844783783, -0.18714545667171478, -1.2295114994049072, 0.13420800864696503, 0.7427421808242798, -1.2258296012878418, -0.14160631597042084, 0.2063359171152115, 0.8503367304801941, -2.2020821571350098]], [[0.2897794544696808, 0.9305698275566101, -0.6303542852401733, 0.3276820778846741, 0.35403838753700256, 0.43067461252212524, 0.28690463304519653, -0.81565922498703, -1.171056866645813, -0.10474870353937149, 0.5017896294593811, 0.2803332209587097, -0.1482304334640503, -0.027072308585047722, 0.36847081780433655, -1.234135627746582]], [[0.7051053643226624, 0.7089565396308899, -0.48161622881889343, 0.43411174416542053, 0.5623381733894348, 0.5109748244285583, 0.36033955216407776, -1.1850767135620117, -1.5475654602050781, 0.1309497058391571, 0.32426154613494873, 1.5622539520263672, -0.6932478547096252, -0.5862074494361877, -0.053784653544425964, -0.0744088664650917]], [[1.071630835533142, 0.3316820561885834, -0.15280067920684814, 0.4943610727787018, 0.8946287035942078, 0.45676934719085693, 0.3528089225292206, -1.4786723852157593, -1.472762942314148, 0.0029468343127518892, 0.2853633761405945, 2.46000337600708, -0.7579514384269714, -0.8942217826843262, -0.2071976214647293, 0.6458575129508972]], [[0.9678337574005127, 0.3370342254638672, -0.2145848423242569, 0.6156189441680908, 0.7996070384979248, 0.7613445520401001, 0.3801634907722473, -1.3772525787353516, -1.3039469718933105, 0.3295302093029022, 0.32725033164024353, 2.5904738903045654, -0.8637534976005554, -1.1546939611434937, -0.5324187874794006, 1.3743250370025635]], [[0.9585249423980713, 0.2078603059053421, 0.0799751952290535, 0.702238142490387, 0.8209713101387024, 0.671403169631958, 0.5437019467353821, -1.0801825523376465, -1.1481225490570068, 0.32172349095344543, 0.29370418190956116, 2.435980796813965, -0.7204660773277283, -1.1347945928573608, -0.7619140148162842, 1.5764551162719727]], [[0.6936701536178589, 0.18213555216789246, -0.09993715584278107, 0.5258726477622986, 0.7403592467308044, 0.5654937624931335, 0.48858991265296936, -0.5638355016708374, -0.9438030123710632, 0.41914376616477966, 0.5900883078575134, 1.7336934804916382, -0.578009843826294, -1.2496452331542969, -0.7487870454788208, 1.6835877895355225]], [[0.23937366902828217, 0.2333676964044571, -0.22649484872817993, 0.5538212060928345, 0.6407317519187927, 0.4131048321723938, 0.7260814905166626, 0.4299620985984802, -0.38571929931640625, 0.7324818968772888, 0.8522903919219971, 1.0773537158966064, -0.4151732623577118, -1.1558349132537842, -0.9641517996788025, 1.4086657762527466]], [[-0.36932000517845154, 0.16915711760520935, -0.12362278252840042, 0.21547262370586395, 0.3258618712425232, 0.09537724405527115, 0.6093468070030212, 1.184381365776062, 0.12710577249526978, 0.5818122625350952, 1.1566717624664307, -0.1589464396238327, -0.08747156709432602, -0.6534070372581482, -1.051706075668335, 1.0813544988632202]], [[-0.5542978048324585, -0.12315789610147476, -0.33760595321655273, -0.06426512449979782, -0.07611227035522461, -0.05501629039645195, 0.1996181458234787, 1.904353380203247, 0.6322265267372131, 0.78509521484375, 1.0370949506759644, -1.3185840845108032, 0.3640671968460083, -0.340669184923172, -0.8521746397018433, 0.3696601390838623]]]}, "conv1d_1": {"bias:0": [0.06797336786985397, -0.003449559910222888, 0.14108552038669586, 0.09969023615121841, 0.059071872383356094, 0.200057253241539, 0.13208584487438202, 0.059527795761823654, -0.012167436070740223, 0.04214244335889816, 0.00189890805631876, 0.008809772320091724, -0.04183944687247276, 0.019109899178147316, 0.05415313318371773, -0.04835490882396698], "kernel:0": [[[0.7707675695419312, 0.19002589583396912, -0.527060329914093, 0.10707166790962219, 0.5121052265167236, -0.20381136238574982, 0.13691778481006622, -0.1614786684513092, -0.570771336555481, 0.0868682786822319, 0.4312914311885834, -0.2546764612197876, -0.19721439480781555, -0.1306944191455841, 0.008686821907758713, -0.18528270721435547], [0.6346501708030701, 0.20520001649856567, 0.09125105291604996, -0.12373004853725433, -0.07465047389268875, -0.25895997881889343, 0.10940728336572647, 0.33292487263679504, -0.5388919711112976, 0.18265190720558167, -0.024547820910811424, -0.5332145094871521, -0.05018119513988495, 0.204671248793602, -0.09787750989198685, 0.03731229156255722], [-0.4096356928348541, -0.27204954624176025, -0.4211532175540924, 0.13291385769844055, 0.17788125574588776, 0.4177510440349579, 0.22573572397232056, -0.31849581003189087, 0.6363962888717651, -0.19258108735084534, -0.05120185390114784, 0.4363204836845398, -0.16892163455486298, -0.2330687940120697, 0.057366400957107544, -0.2084725797176361], [0.45368993282318115, 0.23174111545085907, -0.21389776468276978, -0.041616372764110565, 0.3305835723876953, -0.23243272304534912, 0.1565820276737213, 0.0341944582760334, -0.5013888478279114, -0.003071391023695469, 0.21823273599147797, -0.22160311043262482, -0.084342360496521, -0.1877106875181198, -0.14862704277038574, -0.040966399013996124], [0.4360780715942383, 0.16267162561416626, -0.47201597690582275, -0.0284577626734972, 0.3472331464290619, -0.1161414086818695, 0.09856043010950089, -0.12293447554111481, -0.5944920778274536, -0.14471113681793213, 0.30202510952949524, -0.07883985340595245, -0.020888609811663628, -0.16054384410381317, -0.003162186127156019, -0.07672329992055893], [0.46256741881370544, 0.29200583696365356, -0.2892491817474365, -0.058749351650476456, 0.32456931471824646, -0.14531148970127106, -0.04628260061144829, -0.1743212342262268, -0.4129156172275543, 0.00725185964256525, 0.12929651141166687, -0.13983824849128723, -0.008605951443314552, -0.19381797313690186, 0.04633675888180733, 0.07977654039859772], [0.5337041020393372, 0.22911959886550903, -0.19761647284030914, -0.13488052785396576, 0.1493919938802719, -0.19579844176769257, -0.14879409968852997, 0.08819606900215149, -0.4987691640853882, -0.07968126982450485, 0.2748352587223053, -0.4370431900024414, 0.06301619112491608, -0.2092873901128769, -0.16663791239261627, 0.12748795747756958], [-0.9783945083618164, -0.18456301093101501, 0.7479208707809448, -0.2036992609500885, -0.5227116942405701, 0.26518985629081726, -0.3995128273963928, 0.6161391139030457, 0.2843286991119385, 0.10821647942066193, -0.4129798412322998, -0.051075953990221024, 0.1617121547460556, 0.2706278860569, 0.17992745339870453, 0.24619029462337494], [-0.5848231911659241, -0.24625030159950256, -0.040359530597925186, 0.18333320319652557, -0.047727201133966446, 0.23989468812942505, -0.09833021461963654, -0.03613552451133728, 0.6325172185897827, -0.05649736896157265, -0.16666719317436218, 0.34556251764297485, -0.0337211936712265, 0.09834980219602585, 0.12682637572288513, 0.04349016770720482], [0.39485612511634827, 0.30903011560440063, 0.03374422341585159, -0.0725461095571518, 0.28003132343292236, -0.15524514019489288, -0.06018822640180588, 0.167101189494133, -0.6927658915519714, 0.09439295530319214, 0.005754030309617519, -0.23045475780963898, 0.06941583007574081, -0.20259587466716766, -0.1204189881682396, 0.19285281002521515], [0.3457346558570862, 0.41648396849632263, 0.13559411466121674, -0.16209177672863007, -0.03623628988862038, -0.20423045754432678, -0.15166126191616058, 0.1450297087430954, -0.5558176040649414, 0.25832366943359375, 0.02303893119096756, -0.4189757704734802, 0.08060956746339798, -0.09856505692005157, 0.017452480271458626, 0.19886405766010284], [0.7722122669219971, 0.2898706793785095, -0.9397614002227783, 0.30964428186416626, 0.7235791683197021, -0.047150127589702606, 0.24424247443675995, -0.4512536823749542, -0.6366307139396667, -0.30212005972862244, 0.4395524859428406, -0.05673353746533394, -0.2214650809764862, -0.5019819736480713, -0.03315870463848114, -0.052478499710559845], [-0.6389586925506592, -0.15459856390953064, 0.32328030467033386, -0.08932016044855118, -0.41397103667259216, 0.03758213669061661, -0.1950511932373047, 0.11595134437084198, 0.4970921576023102, -0.023920470848679543, -0.1971651315689087, 0.014075858518481255, 0.11089777946472168, 0.30168893933296204, 0.0767979845404625, 0.11209142208099365], [-0.741775393486023, -0.28749120235443115, 0.17527195811271667, 0.07816408574581146, -0.34804442524909973, 0.30612969398498535, -0.23772071301937103, 0.19814611971378326, 0.5186253190040588, -0.12117749452590942, -0.34033364057540894, 0.15294533967971802, 0.01646708883345127, 0.1630108654499054, 0.12236518412828445, -0.01093323715031147], [-0.6350789070129395, 0.005298169795423746, 0.4575360119342804, -0.3307277262210846, -0.7877675294876099, 0.24449175596237183, -0.04072587564587593, 0.21453030407428741, 0.614705502986908, 0.19787457585334778, -0.34541189670562744, 0.11953037232160568, 0.16508729755878448, 0.6070824861526489, -0.0012293613981455564, 0.05074721574783325], [0.25567445158958435, -0.1085122749209404, -1.446488857269287, 0.6303289532661438, 1.3282256126403809, 0.1666249781847, 0.27138906717300415, -0.8779916763305664, -0.30880212783813477, -0.5741874575614929, 0.5260204672813416, 0.45954105257987976, -0.3829047679901123, -1.0581609010696411, 0.23229826986789703, -0.2186829000711441]], [[-0.800768256187439, -0.1587493121623993, 0.19443991780281067, 0.0441354475915432, 0.5291350483894348, 0.4424181580543518, -0.006078866310417652, -0.31537285447120667, 0.057568371295928955, -0.2597307562828064, 0.029480040073394775, 0.3344956338405609, -0.26550209522247314, -0.568894624710083, 0.1045680120587349, -0.08406063914299011], [-0.7729531526565552, 0.030396325513720512, 0.1493457406759262, -0.012095067650079727, 0.4234810769557953, 0.26392310857772827, -0.11186710745096207, 0.09936407208442688, -0.18387174606323242, -0.27209052443504333, 0.07384417951107025, -0.05181536450982094, -0.0270001869648695, -0.42289111018180847, 0.15992207825183868, 0.24183900654315948], [0.5491268038749695, -0.11690720915794373, -0.09068052470684052, -0.11283556371927261, -0.5458306670188904, -0.25556063652038574, 0.262665331363678, -0.1136590838432312, 0.20318610966205597, 0.2524610459804535, -0.10820546001195908, 0.16385088860988617, 0.13895867764949799, 0.5260087847709656, -0.14337366819381714, -0.21020090579986572], [-0.662523090839386, -0.0871334820985794, 0.2106694132089615, 0.10558460652828217, 0.5523272752761841, 0.39934560656547546, -0.02925153635442257, -0.22841227054595947, 0.05970149487257004, -0.2941180169582367, 0.1045241728425026, 0.11057741194963455, -0.17902551591396332, -0.3328702449798584, 0.2529240548610687, 0.08509314805269241], [-1.0536482334136963, 0.05515898019075394, 0.07681899517774582, -0.018278755247592926, 0.5908573269844055, 0.40413233637809753, -0.09122824668884277, -0.3670920431613922, -0.018778013065457344, -0.2809361219406128, 0.014398141764104366, 0.3978627622127533, -0.09369713813066483, -0.6188163757324219, 0.15216423571109772, -0.0335334949195385], [-0.7130706310272217, -0.01684567704796791, 0.2310234010219574, -0.1345784217119217, 0.3794545531272888, 0.33875772356987, -0.15749883651733398, -0.05335720628499985, -0.07354529947042465, -0.2278592586517334, 0.1649908423423767, 0.24151276051998138, -0.08683797717094421, -0.5278315544128418, 0.19506239891052246, -0.021156417205929756], [-0.8168203234672546, -0.040066394954919815, 0.15154774487018585, 0.0702114924788475, 0.3690713047981262, 0.420573890209198, -0.019770605489611626, -0.07235831767320633, -0.014920390211045742, -0.3238908350467682, 0.08911357074975967, 0.18697942793369293, -0.1212441623210907, -0.4364037811756134, 0.12155690044164658, 0.023437991738319397], [0.790722668170929, 0.3860611915588379, -0.05932900682091713, 0.04765225946903229, -0.5167810320854187, -0.4161401391029358, 0.008996645919978619, 0.37351086735725403, -0.15556927025318146, 0.28704702854156494, -0.016709357500076294, -0.522700309753418, 0.13142836093902588, 0.46107247471809387, -0.27577561140060425, 0.04987179487943649], [0.8179224133491516, 0.09818010032176971, 0.03751353546977043, 0.08223224431276321, -0.4819673001766205, -0.3908967077732086, 0.3250844180583954, -0.039651382714509964, 0.2039756178855896, 0.2080487757921219, 0.008278798311948776, -0.21114911139011383, 0.19202888011932373, 0.5824125409126282, -0.2845899164676666, -0.06804526597261429], [-0.5919771790504456, 0.07245314866304398, 0.05997686833143234, 0.11514472216367722, 0.52779221534729, 0.38117334246635437, -0.12676092982292175, -0.06283143907785416, -0.06158464401960373, -0.1812553107738495, 0.037070661783218384, 0.17097437381744385, -0.18521904945373535, -0.4061855673789978, 0.16275838017463684, 0.1731436401605606], [-0.752794086933136, 0.21568478643894196, 0.1977214515209198, -0.027384545654058456, 0.41413629055023193, 0.42462486028671265, -0.253875732421875, 0.1879587024450302, -0.0868852362036705, -0.39932045340538025, 0.11057029664516449, 0.004374678246676922, -0.10248969495296478, -0.46806371212005615, 0.14547254145145416, 0.07105047255754471], [-1.2731473445892334, -0.1332949548959732, -0.07974030077457428, 0.08708817511796951, 0.5817525386810303, 0.6069757342338562, -0.023889534175395966, -0.4228973686695099, 0.20955434441566467, -0.6412923336029053, -0.067658931016922, 0.47512152791023254, -0.13469064235687256, -0.6159899234771729, 0.08747098594903946, -0.03081757202744484], [0.5969676375389099, 0.19804903864860535, -0.20320257544517517, 0.0331999808549881, -0.3389642536640167, -0.2872593402862549, 0.14131145179271698, 0.21054404973983765, 0.015216026455163956, 0.15844297409057617, -0.08857250213623047, -0.3652452826499939, 0.20398551225662231, 0.29407185316085815, -0.11229076236486435, 0.05663144588470459], [0.9769050478935242, 0.09299447387456894, -0.19118347764015198, -0.0290690790861845, -0.41390547156333923, -0.45649176836013794, -0.012670987285673618, 0.16796152293682098, 0.02405214123427868, 0.2553032636642456, -0.1292017102241516, -0.28542062640190125, 0.06839726865291595, 0.5024396777153015, -0.17903363704681396, -0.07003069669008255], [0.9128516316413879, 0.06512810289859772, -0.23575423657894135, 0.004438821692019701, -0.623570442199707, -0.6493992209434509, -0.06617775559425354, 0.5016037821769714, -0.01600344106554985, 0.24632301926612854, -0.14295409619808197, -0.4251543879508972, 0.321950227022171, 0.5795225501060486, -0.008407809771597385, 0.1866997331380844], [-1.129460096359253, 0.11959561705589294, -0.2717078924179077, 0.2021278440952301, 0.4926815330982208, 0.7413190603256226, 0.2567848265171051, -0.5472933650016785, 0.34537598490715027, -0.3363257348537445, 0.2000819742679596, 0.7020061016082764, -0.16097746789455414, -0.9380514621734619, -0.2489592581987381, -0.36672165989875793]], [[0.24486200511455536, 0.02047756314277649, -0.17387132346630096, -0.042553894221782684, -0.42831170558929443, 0.1382032185792923, 0.35954561829566956, -0.277077317237854, 0.3144950568675995, 0.40739622712135315, 0.12661004066467285, 0.1661514788866043, 0.230234295129776, 0.3407355844974518, -0.17040809988975525, -0.47967013716697693], [-0.1924622654914856, 0.32951706647872925, 0.2600613832473755, -0.006839842069894075, -0.1556204855442047, 0.37488603591918945, 0.27415603399276733, -0.000758331036195159, -0.1630067080259323, 0.16888576745986938, 0.13759049773216248, 0.0760418251156807, -0.0001810230896808207, 0.10372540354728699, -0.20315486192703247, -0.2629355192184448], [0.3213726282119751, -0.38385775685310364, -0.15790264308452606, 0.04810719192028046, 0.1105596274137497, -0.24071694910526276, -0.07144676148891449, -0.08408951759338379, 0.013121873140335083, -0.231614351272583, -0.3085554242134094, -0.014997109770774841, -0.20416609942913055, 0.024129802361130714, 0.1542171835899353, 0.08223897963762283], [0.005796907935291529, 0.034417733550071716, -0.19086796045303345, -0.0756891742348671, -0.3889533579349518, 0.10139833390712738, 0.3741421103477478, -0.14103345572948456, 0.14992384612560272, 0.2137739509344101, 0.1392122209072113, 0.17745888233184814, 0.05074348300695419, 0.2182181030511856, -0.11100534349679947, -0.3807064890861511], [0.20256654918193817, 0.19272290170192719, -0.356587678194046, 0.04657018929719925, -0.40447771549224854, 0.13664598762989044, 0.5532506704330444, -0.17255151271820068, 0.5226545333862305, 0.3466118276119232, 0.14878441393375397, 0.2616434693336487, 0.11871158331632614, 0.27742114663124084, -0.1925002783536911, -0.554028332233429], [0.1921486258506775, 0.0645570382475853, -0.13184870779514313, 0.053762417286634445, -0.3611052632331848, 0.1433049738407135, 0.37931549549102783, -0.23793165385723114, 0.31378301978111267, 0.18046487867832184, 0.15909892320632935, 0.12358102202415466, 0.07381051033735275, 0.20359258353710175, -0.25124654173851013, -0.2627464830875397], [0.09281084686517715, 0.2391219139099121, -0.36642026901245117, -0.04219209402799606, -0.4633382260799408, 0.13339774310588837, 0.34817156195640564, -0.17055892944335938, 0.2378271073102951, 0.36058828234672546, 0.21905262768268585, 0.10858087986707687, 0.1181933805346489, 0.04631374403834343, -0.19349929690361023, -0.18887600302696228], [-0.1630815863609314, -0.10435814410448074, -0.2543598711490631, 0.07506655901670456, 0.3021007180213928, -0.07512331008911133, -0.2777303457260132, 0.410054475069046, -0.13920605182647705, -0.5229169726371765, -0.04803867265582085, -0.22694189846515656, -0.033138472586870193, -0.5529894828796387, 0.43137773871421814, 0.3343084454536438], [0.09526945650577545, -0.23364296555519104, 0.008942076936364174, 0.052637338638305664, 0.3823014795780182, -0.06747918576002121, -0.15025675296783447, 0.1905265748500824, -0.19851358234882355, -0.23585402965545654, -0.14433200657367706, -0.1042487621307373, -0.1582556813955307, -0.13564082980155945, 0.44291383028030396, 0.3194594085216522], [-0.06049007549881935, 0.11052251607179642, -0.27844658493995667, 0.14198532700538635, -0.3277306854724884, 0.18124742805957794, 0.3936738669872284, 0.005899569019675255, 0.25651124119758606, 0.2364613264799118, 0.11014021188020706, 0.07011954486370087, 0.22444100677967072, 0.2088213711977005, -0.19546356797218323, -0.23541049659252167], [-0.2231702208518982, 0.24308572709560394, -0.41744765639305115, -0.06700530648231506, -0.46788284182548523, 0.22209732234477997, 0.3638691306114197, 0.06709104776382446, 0.3208516836166382, 0.22292335331439972, 0.18519917130470276, -0.020624473690986633, 0.13678117096424103, 0.06342250853776932, -0.389601469039917, -0.17618875205516815], [0.38340723514556885, 0.07174518704414368, -0.9049025774002075, 0.3383672535419464, -0.577073872089386, 0.0908052921295166, 0.6339589953422546, -0.37557458877563477, 0.8955492377281189, 0.1982523798942566, 0.16849501430988312, 0.35421010851860046, 0.356893926858902, 0.6434147953987122, -0.3873613476753235, -0.5206345915794373], [-0.24379472434520721, -0.10657563805580139, 0.10001004487276077, -0.11802688986063004, 0.3870560824871063, 0.027243606746196747, -0.31150174140930176, 0.12490332871675491, -0.3131386339664459, -0.3344724476337433, -0.2196713089942932, -0.12605178356170654, -0.1894378513097763, -0.22147943079471588, 0.1893746703863144, 0.4079734981060028], [-0.18989376723766327, -0.028266267850995064, 0.6658433675765991, -0.11474332213401794, 0.6095137000083923, -0.12478429824113846, -0.4919452369213104, 0.1595233827829361, -0.6135264039039612, -0.30651146173477173, -0.2490820735692978, -0.11353448778390884, -0.22539269924163818, -0.2572631537914276, 0.34030798077583313, 0.43960174918174744], [-0.6910862326622009, 0.23419460654258728, 0.7912606000900269, -0.47513601183891296, 0.6876903772354126, 0.1649198979139328, -0.5791746973991394, 0.2508515417575836, -0.8672130703926086, -0.3413016200065613, 0.00161865190602839, -0.2103898674249649, -0.39137083292007446, -0.4901007413864136, -0.04871657118201256, 0.4530332684516907], [1.344543218612671, -0.701361358165741, -2.3025834560394287, 0.764938235282898, -1.3218086957931519, -0.43055522441864014, 0.9862993359565735, -0.6379660367965698, 1.8137547969818115, 0.36316314339637756, -0.12454617023468018, 0.7364927530288696, 0.3382089138031006, 0.9520817995071411, -0.13577856123447418, -0.7897515296936035]], [[0.014028596691787243, -0.15437959134578705, -0.11569954454898834, 0.060929037630558014, -0.2350090891122818, -0.23910215497016907, -0.06204559653997421, -0.046737607568502426, -0.05570916831493378, 0.23000642657279968, -0.19291847944259644, 0.09257469326257706, 0.05623076483607292, 0.16332416236400604, 0.24055521190166473, 0.11614254862070084], [0.04088450223207474, 0.041441597044467926, -0.5314388871192932, 0.12831340730190277, -0.3580123782157898, -0.06721357256174088, 0.11969619244337082, 0.28538718819618225, 0.2220301628112793, 0.1922767609357834, 0.02651408314704895, -0.012324033305048943, 0.07767941057682037, -0.035591792315244675, 0.3031758666038513, -0.04022355377674103], [-0.11007944494485855, -0.008795399218797684, 0.67098069190979, -0.11834383755922318, 0.3529473841190338, -0.009114770218729973, -0.21898216009140015, -0.13979724049568176, -0.5277050137519836, -0.0014250336680561304, 0.012922614812850952, -0.01922713965177536, -0.09217055886983871, 0.004803955089300871, -0.20051546394824982, 0.118714839220047], [0.10321159660816193, -0.03887779265642166, -0.2556484043598175, 0.18101933598518372, -0.384372740983963, -0.1709832400083542, 0.10270720720291138, -0.059886615723371506, -0.020466823130846024, 0.14755655825138092, 0.0524577833712101, 0.10072141885757446, -0.07780114561319351, 0.060304880142211914, 0.22416207194328308, -0.06380118429660797], [0.0618215911090374, -0.03751256689429283, -0.0686403289437294, 0.19606176018714905, -0.38073474168777466, -0.22393135726451874, -0.0737776979804039, 0.02774002216756344, 0.052383869886398315, 0.23980121314525604, -0.0484241284430027, 0.0037252712063491344, -0.042028818279504776, 0.06994924694299698, 0.2723323106765747, 0.0689772441983223], [0.08940764516592026, -0.027111753821372986, -0.13632461428642273, -0.011537853628396988, -0.35408517718315125, -0.17234919965267181, -0.008831823244690895, 0.01214599609375, 0.07453638315200806, 0.1283896565437317, -0.08209570497274399, 0.13312947750091553, -0.17252780497074127, 0.06198379397392273, 0.33782821893692017, 0.07569268345832825], [0.06981225311756134, -0.08660796284675598, -0.3573108911514282, 0.1159563809633255, -0.4914022386074066, -0.09399884939193726, 0.08868575096130371, 0.15763485431671143, 0.12148964405059814, 0.034756679087877274, -0.038185857236385345, 0.026383057236671448, -0.19280073046684265, 0.008921251632273197, 0.23234349489212036, 0.01580183021724224], [0.11837884038686752, 0.13345952332019806, -0.5015103220939636, 0.03931547701358795, -0.22275172173976898, 0.00953283254057169, 0.2910010516643524, 0.0591212660074234, 0.6144521832466125, -0.3667365312576294, 0.5888553261756897, 0.2263159453868866, -0.17800268530845642, -0.11299003660678864, -0.32569730281829834, -0.3376956582069397], [-0.10475916415452957, -0.12199925631284714, 0.6324377059936523, -0.026713157072663307, 0.37546077370643616, 0.06558297574520111, -0.019223671406507492, -0.18846656382083893, -0.18819659948349, -0.12736664712429047, 0.1184469535946846, -0.03515419736504555, -0.019032703712582588, 0.04029664769768715, -0.300527423620224, -0.009409144520759583], [0.0639571100473404, -0.14419220387935638, -0.4335801303386688, 0.19135384261608124, -0.4763818681240082, 0.044699378311634064, 0.21216680109500885, 0.036949273198843, 0.3110608458518982, -0.0485396608710289, 0.09125377237796783, 0.014777876436710358, -0.09262119978666306, 0.18676920235157013, 0.20216740667819977, -0.09948749840259552], [0.1053808256983757, -0.010846011340618134, -0.7410182952880859, 0.13416042923927307, -0.656161904335022, -0.18757636845111847, 0.2604020833969116, 0.18874600529670715, 0.46596747636795044, -0.0013370722299441695, 0.03948784992098808, 0.043828755617141724, -0.07674111425876617, -0.013123809359967709, 0.25348395109176636, -0.17022790014743805], [0.10370226204395294, 0.05945643037557602, -0.30223533511161804, 0.13569357991218567, 0.026554740965366364, -0.13958309590816498, -0.2689615786075592, -0.004318345338106155, -0.12708261609077454, -0.10766293108463287, -0.2614993155002594, -0.18116846680641174, 0.10949591547250748, 0.03633496165275574, 0.09540078788995743, 0.30945995450019836], [0.07705102860927582, 0.06110003963112831, 0.0650118961930275, 0.03243408352136612, 0.19262567162513733, -0.05370767042040825, -0.08531653881072998, 0.1028769314289093, 0.18798929452896118, -0.21059726178646088, 0.0648093968629837, -0.0860559493303299, 0.13915611803531647, -0.03194821625947952, -0.2197764366865158, 0.07242462784051895], [-0.12181808054447174, 0.12266789376735687, 0.34606996178627014, -0.13101138174533844, 0.4068540930747986, 0.2467757910490036, -0.15533962845802307, -0.030698198825120926, -0.029938437044620514, -0.08618072420358658, 0.010589634999632835, -0.09162589907646179, 0.07674746960401535, -0.1211562305688858, -0.26475486159324646, 0.1498880386352539], [-0.3078616261482239, 0.16503101587295532, 0.08262433111667633, -0.0325561985373497, 0.36367496848106384, 0.3520858585834503, -0.015445354394614697, 0.08423448354005814, 0.0696067065000534, -0.03867080435156822, -0.08670209348201752, -0.3182816505432129, 0.3665792942047119, -0.38524582982063293, -0.027537044137716293, 0.21923311054706573], [0.12313226610422134, -0.1798345148563385, 0.21384738385677338, 0.1857169270515442, -0.1392313539981842, -0.39957576990127563, -0.3160228431224823, -0.38133472204208374, -0.4174787700176239, -0.4018375277519226, -0.1785677969455719, 0.3697457015514374, -0.40335220098495483, 0.2390785813331604, 0.06800159066915512, -0.010009675286710262]], [[-0.007050737272948027, -0.149180606007576, 0.011538151651620865, 0.05347200110554695, -0.51394122838974, -0.07375165075063705, 0.0955137312412262, -0.21494516730308533, -0.0038401493802666664, 0.01045334804803133, 0.07692587375640869, 0.10391997545957565, -0.2916592061519623, -0.13372774422168732, 0.06698629260063171, -0.12565673887729645], [0.3351604640483856, -0.22557806968688965, 0.41078656911849976, 0.13339219987392426, -0.5112802982330322, 0.14590995013713837, -0.1817767322063446, -0.030917292460799217, -0.14419977366924286, -0.5763959288597107, -0.02174529805779457, -0.19754330813884735, -0.27205175161361694, -0.6085524559020996, -0.13258571922779083, -0.32516801357269287], [-0.16229628026485443, 0.2150675356388092, -0.5597255825996399, -0.05663985759019852, 0.5065871477127075, 0.06742066890001297, 0.22278818488121033, -0.06486734747886658, -0.051234252750873566, 0.758967936038971, 0.113302081823349, 0.39890313148498535, 0.25794392824172974, 0.6301881074905396, -0.0593738779425621, 0.2450396865606308], [0.10858389735221863, -0.14982223510742188, 0.3471202254295349, 0.15921570360660553, -0.434953898191452, -0.1294393688440323, 0.015435265377163887, -0.0024599286261945963, -0.05813227966427803, -0.1466398388147354, -0.06852269172668457, -0.1291089504957199, -0.20146897435188293, -0.28553998470306396, -0.020637569949030876, -0.13638296723365784], [-0.0661163255572319, -0.10218200832605362, 0.08429957181215286, 0.1298716962337494, -0.47012048959732056, -0.11322182416915894, -0.028290744870901108, -0.22686554491519928, -0.031235434114933014, 0.05225221812725067, -0.061901744455099106, 0.05453554913401604, -0.3887287378311157, -0.14279259741306305, 0.17155049741268158, -0.06064603850245476], [0.17191092669963837, -0.19629035890102386, 0.22058351337909698, 0.11521226167678833, -0.4064120948314667, -0.246967613697052, 0.09850834310054779, -0.2261161059141159, 0.038535695523023605, -0.09991108626127243, 0.08467856049537659, 0.07971450686454773, -0.40578505396842957, -0.1879040002822876, -0.008750555105507374, -0.3035898506641388], [0.10704836249351501, -0.03039570339024067, 0.493326336145401, 0.015710027888417244, -0.5215697884559631, -0.09732462465763092, -0.142531618475914, -0.07868976145982742, -0.10090039670467377, -0.12235897779464722, -0.09244833886623383, -0.06561116874217987, -0.17884187400341034, -0.32599499821662903, 0.148793563246727, -0.2904646694660187], [0.09727051109075546, 0.11412050575017929, 0.4815452992916107, -0.2458975464105606, 0.510122537612915, 0.012449437752366066, 0.008023519068956375, 0.5832756757736206, -0.08123131096363068, -0.34856757521629333, -0.22257699072360992, -0.08416634052991867, -0.06078933924436569, -0.240663543343544, 0.2343377023935318, 0.32601192593574524], [-0.2882240116596222, 0.07284336537122726, -0.6272483468055725, -0.08668883144855499, 0.4285960793495178, 0.11110468208789825, 0.12675125896930695, 0.18184709548950195, 0.15017949044704437, 0.4364378750324249, 0.001575337490066886, 0.14562959969043732, 0.3144031763076782, 0.4635574221611023, 0.09874650090932846, 0.36898258328437805], [0.1482546031475067, 0.041584260761737823, 0.36687418818473816, 0.13586676120758057, -0.5208987593650818, -0.17340132594108582, 0.04210400953888893, -0.008147270418703556, -0.15997560322284698, -0.160959392786026, -0.02003909833729267, 0.021138867363333702, -0.3379462957382202, -0.5064997673034668, 0.21941068768501282, -0.11613038182258606], [0.3388853967189789, -0.15640242397785187, 0.6252576112747192, 0.08173590898513794, -0.6396234631538391, -0.06749074906110764, -0.19450178742408752, 0.0628875195980072, -0.16828224062919617, -0.5875721573829651, -0.04297628253698349, -0.09364429116249084, -0.48187223076820374, -0.5063771605491638, 0.1022813692688942, -0.21381038427352905], [-0.2684822678565979, -0.15504519641399384, -0.37259161472320557, 0.2324148416519165, -0.68072509765625, -0.25223487615585327, -0.109012171626091, -0.6291430592536926, -0.18383318185806274, 0.3567201495170593, 0.27947255969047546, 0.1363406926393509, -0.03938712179660797, 0.0649307519197464, -0.20695281028747559, 0.006059289909899235], [-0.09457569569349289, 0.15040014684200287, 0.002797001041471958, -0.08773896843194962, 0.476776123046875, 0.10583436489105225, -0.08208166062831879, 0.17570091784000397, 0.018283292651176453, -0.0183214470744133, -0.09366042166948318, 0.07693613320589066, 0.35583141446113586, 0.06529540568590164, -0.12994436919689178, 0.19506770372390747], [-0.062239959836006165, 0.18374323844909668, -0.20888781547546387, 0.027207596227526665, 0.6901489496231079, 0.1404438465833664, 0.041658200323581696, 0.16661874949932098, 0.2985869348049164, 0.12358540296554565, 0.10477183759212494, 0.0052682929672300816, 0.2888953387737274, 0.3256509304046631, -0.08333839476108551, 0.053137581795454025], [0.047783952206373215, 0.12309490144252777, -0.08793674409389496, 0.08497317135334015, 0.6221874952316284, 0.308864951133728, -0.061685219407081604, -0.008986564353108406, 0.43465539813041687, -0.41988372802734375, -0.025898505002260208, -0.29576459527015686, 0.36662712693214417, -0.08887410908937454, -0.28805410861968994, -0.1770016849040985], [-0.7005051374435425, 0.07099148631095886, -0.9347588419914246, -0.36847367882728577, -0.418110728263855, -0.768499493598938, 0.2862670123577118, -0.4531523585319519, -0.550974428653717, 1.5989733934402466, 0.3031289577484131, 0.9442406296730042, 0.08542335033416748, 0.8712827563285828, 0.41799411177635193, 0.40171995759010315]], [[-0.13409173488616943, -0.5271155834197998, 0.6185688376426697, 0.5201744437217712, -0.5336806178092957, -0.7636818885803223, 0.32432839274406433, -0.5826842784881592, -0.9772136807441711, 0.514105498790741, 0.023253412917256355, 0.5724861025810242, -0.02172889932990074, -0.7935420274734497, 0.026547159999608994, -0.33254364132881165], [-0.24114052951335907, -0.3777409791946411, 0.7019696235656738, 0.6502144932746887, -1.4509460926055908, -0.7828198075294495, 0.31406235694885254, -0.17428959906101227, -0.7247657179832458, -0.2589040696620941, 0.0801844522356987, 0.3157588243484497, 0.12839418649673462, -1.2662485837936401, 0.15497125685214996, -0.36937281489372253], [0.15588708221912384, 0.17046239972114563, -0.610133171081543, -0.6052536368370056, 1.5205248594284058, 0.7049522995948792, -0.4617502689361572, 0.031554270535707474, 0.7242534756660461, 0.2730427086353302, -0.12077770382165909, -0.31838855147361755, 0.061451226472854614, 1.1493126153945923, -0.26607781648635864, 0.20910364389419556], [0.036033909767866135, -0.640433132648468, 0.6958984732627869, 0.14259231090545654, -0.4977126717567444, -0.7047147154808044, 0.35156694054603577, -0.4312286078929901, -0.5297754406929016, 0.4106680750846863, 0.14278054237365723, 0.3987850546836853, -0.22634829580783844, -0.5893775820732117, 0.14151418209075928, -0.4014602601528168], [-0.007193219382315874, -0.8372049927711487, 0.7199597358703613, 0.1382184475660324, -0.20873212814331055, -0.7585710287094116, 0.25319021940231323, -0.5440966486930847, -0.5763447880744934, 0.6444506049156189, 0.25365376472473145, 0.645829439163208, -0.3971685767173767, -0.5768941044807434, 0.2229897677898407, -0.557927668094635], [-0.10899222642183304, -0.5273787975311279, 0.5572237372398376, 0.13450887799263, -0.5570758581161499, -0.5646439790725708, 0.4134852886199951, -0.4320910573005676, -0.5815417766571045, 0.4649883508682251, 0.10940779745578766, 0.5098657011985779, -0.08869196474552155, -0.5344856381416321, 0.27250075340270996, -0.4974551498889923], [-0.01040868740528822, -0.5764572620391846, 0.6620383262634277, 0.09000684320926666, -0.4519026577472687, -0.6486032605171204, 0.3336290717124939, -0.36431705951690674, -0.6098766326904297, 0.5215042233467102, 0.21043506264686584, 0.49599477648735046, -0.46685561537742615, -0.5281363129615784, 0.21958713233470917, -0.3897719383239746], [0.27694541215896606, 0.3410947024822235, -0.6154642105102539, -0.9392716288566589, 1.2659385204315186, 0.6075664162635803, -0.19077758491039276, 0.6269853711128235, 1.2076033353805542, 0.2783809006214142, 0.2566697299480438, -0.40588152408599854, -0.6584253907203674, 1.0570400953292847, 0.245610311627388, 0.18043382465839386], [0.20743359625339508, 0.6240084171295166, -0.9636493921279907, -0.6882472634315491, 1.3728290796279907, 0.8023536205291748, -0.3127169609069824, 0.38470569252967834, 1.0445796251296997, -0.15335418283939362, -0.12975910305976868, -0.537713885307312, -0.0513690747320652, 1.2490036487579346, -0.26989588141441345, 0.464063435792923], [0.10122160613536835, -0.6264486312866211, 0.5481599569320679, -0.011278915219008923, -0.11943992227315903, -0.5162490010261536, 0.2489895075559616, -0.2629247307777405, -0.3592655062675476, 0.5333274602890015, 0.1633182168006897, 0.44785261154174805, -0.57026606798172, -0.3754573166370392, 0.43244853615760803, -0.57912677526474], [0.05905774235725403, -0.7430703639984131, 0.850582480430603, 0.20802339911460876, -0.7107585668563843, -0.6421927809715271, 0.4101378619670868, -0.33243969082832336, -0.7065572738647461, 0.34545281529426575, 0.22895625233650208, 0.4644172191619873, -0.4697015583515167, -0.940590500831604, 0.3989371061325073, -0.5698774456977844], [-0.18517820537090302, -0.9522814750671387, 0.7282967567443848, 0.6692569851875305, -0.0004521212540566921, -0.6948620676994324, 0.10124528408050537, -0.7251577377319336, -0.8855980038642883, 0.8433971405029297, -0.04248679801821709, 0.5747005939483643, -0.021204473450779915, -0.548771321773529, -0.09884855896234512, -0.33831146359443665], [-0.004500131122767925, 0.6270459294319153, -0.5391277074813843, -0.1967264860868454, 0.4646548330783844, 0.6566200256347656, -0.2182668298482895, 0.4297969937324524, 0.6809443831443787, -0.3207908272743225, 0.03373916074633598, -0.3648029863834381, 0.10397946834564209, 0.4556943476200104, -0.30504506826400757, 0.45390263199806213], [0.003961766138672829, 0.9817442297935486, -0.6457061171531677, -0.22476626932621002, 0.011256000027060509, 0.7500773668289185, -0.25727221369743347, 0.6090730428695679, 0.5147995352745056, -0.8732168078422546, -0.22223873436450958, -0.5766376852989197, 0.4465400278568268, 0.5603360533714294, -0.24333082139492035, 0.5126878619194031], [0.04612303152680397, 1.1279693841934204, -0.4327019155025482, 0.1124575212597847, -1.3171650171279907, 0.3342534303665161, -0.28216779232025146, 0.2270869016647339, 0.12315774708986282, -1.4762442111968994, -0.34273532032966614, -0.3931061327457428, 0.7735676765441895, -0.033794768154621124, -0.018682345747947693, 0.4038964807987213], [-0.11896726489067078, -1.4385584592819214, 0.21158728003501892, -0.36752402782440186, 3.115771770477295, -0.11366591602563858, -0.19678395986557007, -0.5068368315696716, 0.48936665058135986, 2.4554877281188965, 0.4016832113265991, 0.3649444282054901, -0.6983203887939453, 1.174648404121399, -0.35146284103393555, -0.6024351119995117]], [[0.07535937428474426, 0.956552267074585, -0.8821373581886292, 0.23181411623954773, 1.0818008184432983, 1.006719946861267, -0.512330949306488, 0.2286425083875656, 0.4805596172809601, -1.1130821704864502, -0.8465288877487183, -0.6369760632514954, 0.937298595905304, 0.8483672142028809, -0.8693099617958069, 0.9227065443992615], [0.6224256157875061, 0.2357100397348404, -0.4355146884918213, -1.2790484428405762, 2.1876513957977295, 0.7487746477127075, -0.060001350939273834, -0.3870466649532318, 0.902738630771637, 0.43631207942962646, -0.3305445611476898, 0.29244425892829895, -0.5289358496665955, 1.687928557395935, 0.23339751362800598, 0.07602298259735107], [-0.7267958521842957, -0.009786734357476234, 0.0922580435872078, 1.6209105253219604, -2.2759361267089844, -0.5932284593582153, -0.07570204138755798, 0.38083261251449585, -0.7225817441940308, -0.7111117839813232, 0.2616901397705078, -0.5846432447433472, 0.7950435876846313, -1.7646124362945557, -0.4763730466365814, 0.13372252881526947], [0.0386960543692112, 0.5619640350341797, -0.7112520933151245, 0.17095251381397247, 1.3043212890625, 0.9431236982345581, -0.36102235317230225, 0.34137162566185, 0.6608263850212097, -0.3702736496925354, -0.5994820594787598, -0.5154217481613159, 0.3544522821903229, 0.9191063046455383, -0.6006403565406799, 0.6060164570808411], [-0.13881230354309082, 0.6994773745536804, -0.8074274659156799, 0.2870855927467346, 0.954412579536438, 0.9355984330177307, -0.49570804834365845, 0.5703853368759155, 0.4598732590675354, -0.7026697993278503, -0.5648956894874573, -0.7598590850830078, 0.7530528903007507, 0.7847529053688049, -1.1153335571289062, 0.7487272620201111], [-0.08531975001096725, 0.6993032097816467, -0.8147482872009277, 0.06387846171855927, 1.024915337562561, 0.9880193471908569, -0.4378310441970825, 0.3423525094985962, 0.40222057700157166, -0.4554690718650818, -0.6164020299911499, -0.6311784386634827, 0.6321415305137634, 0.8842368721961975, -0.8102530241012573, 0.6339588165283203], [0.14721113443374634, 0.2882394790649414, -0.7075794339179993, -0.20897527039051056, 1.332838535308838, 0.8129568099975586, -0.35237154364585876, 0.39771315455436707, 0.6277792453765869, -0.17040559649467468, -0.4426901936531067, -0.42145177721977234, 0.03988480567932129, 0.839143693447113, -0.695279061794281, 0.4886021614074707], [-0.37408992648124695, -1.891855239868164, 0.9850865602493286, -0.07120358198881149, -0.8015444874763489, -1.706895351409912, 0.539880633354187, 0.8889568448066711, 0.014030513353645802, 2.4496798515319824, 1.3225284814834595, 0.6049936413764954, -1.5893210172653198, -1.0782095193862915, 0.7805262804031372, -1.231397032737732], [-0.5230865478515625, -0.6314000487327576, 0.7828620076179504, 0.903647780418396, -1.8581569194793701, -1.0268614292144775, 0.4036785960197449, 0.3081172704696655, -0.8176751136779785, 0.15202462673187256, 0.753568172454834, 0.23650799691677094, -0.10142944753170013, -1.5466142892837524, 0.3496038019657135, -0.515598475933075], [-0.07066363841295242, 0.01783483661711216, -0.7042043209075928, 0.15524248778820038, 1.1878509521484375, 0.48860955238342285, -0.3167654275894165, 0.6233381032943726, 0.6052792072296143, 0.22515495121479034, -0.10968936234712601, -0.5454697012901306, -0.15219011902809143, 0.7919338941574097, -0.7578824758529663, 0.3526165783405304], [0.24505172669887543, -0.01788933202624321, -0.566796064376831, -0.8099778890609741, 1.931036114692688, 0.7199614644050598, -0.1414143294095993, 0.37556612491607666, 0.7416126132011414, 0.7287497520446777, -0.16314437985420227, 0.019259635359048843, -0.5097689628601074, 1.3277345895767212, -0.17531755566596985, 0.19618164002895355], [-0.3324047923088074, 1.5141223669052124, -1.1920909881591797, 1.597252368927002, 0.6003805994987488, 1.4805803298950195, -0.945591926574707, 0.6818124055862427, 0.22427590191364288, -1.9434813261032104, -1.1822576522827148, -1.3890780210494995, 1.786620020866394, 0.47623202204704285, -1.8888837099075317, 1.5567736625671387], [-0.060582276433706284, -0.6900242567062378, 0.6787799000740051, -0.3749983608722687, -0.8738616704940796, -0.9294543266296387, 0.46570059657096863, -0.2888588607311249, -0.28531017899513245, 0.8303120732307434, 0.7418496012687683, 0.7652115225791931, -0.8573174476623535, -0.7952194213867188, 0.8605244159698486, -0.8406286239624023], [0.1677028387784958, -0.5731725096702576, 0.9736748337745667, -0.4654458463191986, -1.1093745231628418, -1.0094661712646484, 0.37380093336105347, -0.8197208046913147, -0.5344195365905762, 0.4970240294933319, 0.48893892765045166, 0.7145722508430481, -0.6327739953994751, -0.5593970417976379, 1.1110773086547852, -0.7857834696769714], [1.051246166229248, 0.11494456976652145, 1.1337662935256958, -1.8805897235870361, -0.5166448950767517, -0.5614782571792603, 0.7438866496086121, -1.7995221614837646, -0.277869313955307, 0.24666212499141693, 0.25031718611717224, 1.4591941833496094, -0.707055389881134, 0.2258395254611969, 2.038884162902832, -0.9693041443824768], [-1.8136850595474243, 0.6727232933044434, -1.7555153369903564, 3.869685649871826, -1.1313025951385498, 0.7027140259742737, -1.05833899974823, 2.3799846172332764, -0.21636444330215454, -1.6210510730743408, -0.5345008969306946, -2.5333852767944336, 2.511258840560913, -1.7419731616973877, -3.5875186920166016, 1.807318091392517]], [[-0.06676823645830154, 0.08074267953634262, -0.09085401892662048, -0.2364121824502945, -0.11483882367610931, -0.3621935546398163, 0.01783597283065319, -0.12590600550174713, -0.02014310285449028, 0.10640699416399002, -0.02531527355313301, 0.01918933354318142, -0.11156686395406723, -0.21699745953083038, 0.2247992604970932, -0.355487585067749], [0.0423705093562603, 0.2719388008117676, 0.13338227570056915, -0.5363425612449646, -0.25469329953193665, -0.44857504963874817, 0.1447305530309677, 0.02220279537141323, 0.23945081233978271, -0.06928667426109314, -0.3013000190258026, 0.019412748515605927, -0.16551552712917328, -0.4098133444786072, 0.451032817363739, -0.5412818193435669], [-0.0338469035923481, -0.3400341272354126, -0.04125651344656944, 0.4111441969871521, 0.2580569088459015, 0.3464129865169525, -0.11990156769752502, -0.19037210941314697, -0.23901911079883575, 0.012435991317033768, 0.18405303359031677, 0.07497408241033554, -0.06275676190853119, 0.6207401156425476, -0.21446816623210907, 0.3864930272102356], [-0.03006131760776043, 0.043017107993364334, -0.08186649531126022, -0.2104804366827011, -0.010616111569106579, -0.41599345207214355, -0.10054484754800797, -0.05363299697637558, 0.23705719411373138, 0.036926258355379105, -0.05739776790142059, -0.037946585565805435, -0.06317328661680222, -0.3764819800853729, 0.09376983344554901, -0.31444454193115234], [-0.01712147891521454, -0.0011567343026399612, 0.033124759793281555, -0.22007586061954498, -0.09853338450193405, -0.33878880739212036, -0.05502535030245781, -0.07430946826934814, 0.06248631700873375, 0.13734151422977448, -0.02697758376598358, -0.043271735310554504, -0.09116660058498383, -0.34981945157051086, 0.07871246337890625, -0.2842201590538025], [0.07063750922679901, -0.0695742666721344, 0.13722728192806244, -0.19751304388046265, -0.1389351338148117, -0.42433270812034607, -0.10741278529167175, 0.040938492864370346, 0.04511743783950806, 0.023927785456180573, -0.17959456145763397, 0.09468289464712143, -0.06379913538694382, -0.323009192943573, 0.06766907870769501, -0.1499531865119934], [-0.016659587621688843, 0.00924236886203289, 0.117127925157547, -0.059787433594465256, -0.06785348057746887, -0.27581337094306946, -0.05609272047877312, 0.017987003549933434, 0.09284132719039917, 0.05292607843875885, -0.24427661299705505, 0.11403845250606537, 0.019476313143968582, -0.25778573751449585, 0.23004509508609772, -0.39984965324401855], [0.16928812861442566, 0.07477854192256927, -0.24770860373973846, 0.3761436641216278, 0.10601205378770828, 0.6975685954093933, -0.19845032691955566, 0.2793072462081909, 0.17971539497375488, -0.2153695672750473, -0.025952495634555817, -0.06027917191386223, 0.10790754854679108, 0.40422698855400085, -0.10214373469352722, 0.4384753704071045], [-0.08938325196504593, 0.02121514268219471, -0.15643711388111115, 0.4765663146972656, 0.25368931889533997, 0.506154477596283, -0.16969500482082367, -0.03096982277929783, -0.11289850622415543, -0.02451491542160511, 0.0953093022108078, -0.15152963995933533, 0.2455327808856964, 0.3298919200897217, -0.5945010781288147, 0.5489722490310669], [-0.02715478092432022, 0.1709044724702835, 0.12151831388473511, -0.03240014612674713, 0.013762124814093113, -0.3047042191028595, -0.06006774678826332, 0.1635931432247162, 0.2084880769252777, 0.030927062034606934, -0.09479205310344696, -0.13214236497879028, -0.045915234833955765, -0.22124893963336945, 0.16522657871246338, -0.2314993143081665], [0.043667130172252655, 0.05492605268955231, 0.11929202079772949, -0.3380962610244751, -0.1126161590218544, -0.40387284755706787, 0.21125105023384094, 0.12092547118663788, 0.2999011278152466, 0.0056643239222466946, -0.10088764131069183, 0.18298770487308502, -0.10175646841526031, -0.2823556661605835, 0.40056872367858887, -0.46493709087371826], [0.0909779965877533, -0.40773531794548035, 0.4780641198158264, 0.2336196005344391, -0.21729972958564758, -0.6630830764770508, -0.002720721997320652, -0.35551154613494873, -0.1400051862001419, 0.31139981746673584, 0.04128352925181389, 0.11914148181676865, -0.09677216410636902, -0.2500329315662384, 0.3860606849193573, -0.61489337682724], [-0.13512353599071503, 0.03074377030134201, -0.04618494585156441, 0.20789319276809692, -0.016558587551116943, 0.1879381537437439, -0.06737259775400162, 0.05913494899868965, -0.21149715781211853, -0.17312584817409515, 0.16461147367954254, -0.011794371530413628, -0.05546191334724426, 0.1641339808702469, -0.18724822998046875, 0.3850491940975189], [0.16054147481918335, -0.05333881825208664, -0.03200782835483551, 0.12982302904129028, 0.04710409790277481, 0.2714846432209015, -0.0016796377021819353, 0.07271076738834381, 0.012723114341497421, -0.17186518013477325, 0.026254402473568916, -0.0786471739411354, 0.08702229708433151, 0.16794726252555847, -0.3701213300228119, 0.6001187562942505], [0.24867463111877441, 0.22041814029216766, 0.09292542189359665, -0.1239548996090889, 0.010175546631217003, 0.047273989766836166, -0.053446777164936066, -0.019452247768640518, -0.014051616191864014, 0.045191723853349686, -0.0720914676785469, 0.08737243711948395, 0.0428888313472271, 0.09014532715082169, 0.20914220809936523, 0.13402150571346283], [-0.2869424521923065, -0.7731915712356567, 0.25000372529029846, 0.7398708462715149, 0.08335692435503006, -0.14349092543125153, -0.252398282289505, -0.1932401955127716, -0.5622674822807312, 0.35194554924964905, 0.21771018207073212, -0.0300266295671463, -0.13427935540676117, 0.3180505633354187, -0.4161035120487213, 0.1583975851535797]], [[-0.1384526938199997, 0.1545228660106659, 0.07636818289756775, -0.04605896770954132, -0.029120853170752525, -0.0560733824968338, -0.08947563916444778, -0.010855639353394508, 0.011346530169248581, -0.006928476504981518, 0.12790653109550476, -0.07530705630779266, -0.05184856057167053, -0.05111493915319443, -0.07919982075691223, -0.13977459073066711], [0.1392674297094345, 0.3386304974555969, 0.17583024501800537, 0.024127326905727386, -0.0157984159886837, -0.3187256455421448, -0.11647946387529373, 0.1617565155029297, 0.259835809469223, -0.012069027870893478, -0.20759326219558716, -0.018871501088142395, 0.06827911734580994, -0.09388217329978943, 0.14366194605827332, 0.0181245356798172], [-0.04659007862210274, -0.3278807997703552, -0.21294520795345306, -0.03251940384507179, 0.016168411821126938, 0.3559364974498749, 0.18413423001766205, -0.24600642919540405, -0.2729482054710388, -0.0704362690448761, 0.18744027614593506, 0.007924439385533333, -0.15293166041374207, 0.15963730216026306, -0.1192307397723198, 0.11581744253635406], [-0.09576772153377533, 0.01024669874459505, 0.20969103276729584, -0.10217928141355515, 0.0006099974270910025, -0.08705388009548187, 0.027498167008161545, 0.15855403244495392, 0.12955597043037415, -0.06448177248239517, -0.09861448407173157, 0.1653316468000412, 0.07436443120241165, -0.008029559627175331, -0.07181396335363388, -0.02361571416258812], [-0.032270628958940506, 0.08781904727220535, -0.04897374287247658, -0.09374839812517166, 0.005171529017388821, -0.07394492626190186, 0.013881074264645576, 0.07894648611545563, 0.1934189796447754, 0.12901334464550018, 0.06631919741630554, 0.05470569431781769, 0.007852543145418167, -0.06833748519420624, -0.07271359115839005, -0.10537775605916977], [-0.08574444055557251, 0.06988327950239182, 0.15695616602897644, 0.000886011344846338, 0.08821186423301697, -0.1424204558134079, -0.13666152954101562, 0.11941024661064148, 0.01937970519065857, 0.07366015762090683, -0.11010173708200455, -0.07072943449020386, -0.04652012139558792, -0.0984417125582695, 0.02999936044216156, 0.08201581239700317], [0.05945184454321861, 0.2725430727005005, 0.010328905656933784, 0.09492719173431396, 0.03573799133300781, -0.1476011872291565, -0.14860974252223969, 0.011337746866047382, 0.20111438632011414, 0.014722900465130806, 0.02053462341427803, 0.05876605212688446, 0.19431784749031067, -0.17975404858589172, 0.06653730571269989, -0.03856547176837921], [0.1469193994998932, 0.2283393293619156, -0.2673516571521759, 0.270746648311615, -0.1311456859111786, 0.23219168186187744, -0.037414345890283585, 0.1825057715177536, 0.4949723482131958, 0.06773775815963745, -0.3401578962802887, 0.1606774628162384, 0.009366675280034542, 0.23310694098472595, -0.04599675536155701, 0.34038427472114563], [0.06978923827409744, -0.20281769335269928, -0.25076067447662354, 0.012212739326059818, -0.14190813899040222, 0.19514547288417816, 0.12273535132408142, -0.026422446593642235, -0.13557147979736328, -0.07601743191480637, 0.03386615961790085, -0.05553511530160904, -0.1951422095298767, 0.10860737413167953, 0.00655173696577549, 0.15803007781505585], [0.13284467160701752, 0.08669286221265793, 0.06892935931682587, 0.15215125679969788, -0.022551776841282845, -0.12869471311569214, -0.21078571677207947, 0.07145397365093231, 0.22241733968257904, 0.1559770703315735, -0.15303489565849304, 0.14828449487686157, 0.20095494389533997, -0.23108087480068207, -0.012703437358140945, 0.03945082426071167], [0.012536066584289074, 0.23801946640014648, 0.08922914415597916, 0.11966346204280853, 0.01853729411959648, -0.19645895063877106, -0.11189065873622894, 0.3228228986263275, 0.2703840732574463, 0.23377782106399536, -0.2138582319021225, 0.11570911854505539, 0.13662126660346985, -0.19071847200393677, 0.029102090746164322, 0.08967482298612595], [-0.16681648790836334, -0.03435125946998596, 0.5611883401870728, -0.05510732904076576, 0.21020743250846863, -0.31190377473831177, -0.1160820797085762, -0.314603328704834, -0.35228851437568665, 0.049214184284210205, 0.07636915147304535, 0.29586610198020935, 0.050078779458999634, -0.17036646604537964, 0.06708579510450363, -0.43277889490127563], [-0.05403570085763931, -0.133859321475029, -0.08803140372037888, -0.04332325607538223, 0.036914605647325516, 0.08301344513893127, 0.04488581791520119, -0.03070962242782116, -0.14582499861717224, -0.05452531576156616, 0.13949613273143768, -0.020037386566400528, -0.09013547748327255, 0.0026159705594182014, 0.054214995354413986, 0.1459355652332306], [-0.05510213226079941, -0.44719359278678894, -0.15840567648410797, -0.12099288403987885, -0.09568983316421509, 0.033839527517557144, 0.18913592398166656, 0.03406708315014839, -0.049507986754179, -0.05575907230377197, 0.058929938822984695, -0.09394431859254837, -0.0960908830165863, -0.016157202422618866, -0.024301650002598763, 0.12696567177772522], [0.2694585919380188, -0.14918284118175507, 0.026829522103071213, 0.14921873807907104, -0.10795942693948746, -0.04307696595788002, 0.13588638603687286, -0.00552222179248929, -0.019511988386511803, -0.17135727405548096, -0.015552666038274765, -0.30659976601600647, -0.046628955751657486, -0.08229060471057892, -0.029127541929483414, 0.17147304117679596], [-0.11654731631278992, -0.047037456184625626, 0.518639087677002, 0.061749424785375595, 0.2563861310482025, 0.0701717734336853, -0.41908082365989685, -0.2995411157608032, -0.25979718565940857, 0.10370881110429764, 0.4381412863731384, 0.1652679592370987, 0.020773712545633316, 0.2297421246767044, -0.24395526945590973, 0.03333248943090439]], [[0.06831564009189606, 0.38190627098083496, -0.08838602155447006, -0.12073172628879547, 0.4083293676376343, 0.2616323232650757, -0.4090125560760498, 0.11886630952358246, 0.14668983221054077, -0.02290341444313526, -0.08114936202764511, -0.22449509799480438, 0.4546569585800171, 0.3060219883918762, -0.34513193368911743, 0.29818660020828247], [0.28976765275001526, 0.7231754660606384, -0.023715363815426826, 0.2916879653930664, 0.5665197968482971, 0.30266228318214417, -0.3466614782810211, 0.413919061422348, 0.46833688020706177, 0.1037362813949585, -0.2369990050792694, -0.12436746060848236, 0.377344012260437, 0.16313230991363525, -0.03274016082286835, 0.2722208499908447], [-0.28522399067878723, -0.5221239924430847, 0.06121024489402771, -0.3348691165447235, -0.3577879071235657, -0.04400957375764847, 0.5240732431411743, -0.39058005809783936, -0.39905062317848206, -0.07108563929796219, 0.29861658811569214, 0.0349944606423378, -0.352815181016922, -0.21678391098976135, 0.05395818129181862, -0.2581931948661804], [0.2013024240732193, 0.3104262351989746, 0.09575502574443817, -0.02723103202879429, 0.27100709080696106, 0.12286081165075302, -0.3495170474052429, 0.28039294481277466, 0.29403337836265564, -0.005697567481547594, -0.0327615924179554, -0.06816726922988892, 0.3379875123500824, 0.018546700477600098, -0.0786733627319336, 0.33668187260627747], [0.09977719187736511, 0.4772111475467682, -0.044758763164281845, 0.25265827775001526, 0.4381141662597656, 0.2875215709209442, -0.34280967712402344, 0.29234278202056885, 0.4239558279514313, -0.16909348964691162, -0.12380991131067276, 0.0109908701851964, 0.3404122292995453, 0.12979069352149963, -0.21408303081989288, 0.28806206583976746], [0.1586797535419464, 0.218220517039299, -0.11515714228153229, 0.12344883382320404, 0.3473818898200989, 0.20390762388706207, -0.27379110455513, 0.14694298803806305, 0.19539183378219604, -0.06432690471410751, -0.13366414606571198, -0.1273268312215805, 0.22711634635925293, 0.24207590520381927, -0.09229911118745804, 0.30591458082199097], [0.15360474586486816, 0.3496935963630676, -0.13389015197753906, 0.08520463109016418, 0.2689116597175598, 0.31356319785118103, -0.3194688856601715, 0.35088756680488586, 0.32908084988594055, 0.06487920880317688, -0.09891903400421143, -0.04778499901294708, 0.3945472836494446, 0.16733641922473907, -0.2602456510066986, 0.3091311454772949], [0.07155731320381165, -0.2551964521408081, -0.07894454896450043, 0.31365737318992615, -0.42346104979515076, -0.22534756362438202, 0.33251503109931946, 0.037256479263305664, 0.10575459897518158, 0.12911969423294067, -0.1327391117811203, 0.26876023411750793, -0.20796586573123932, -0.07772359251976013, 0.14497488737106323, 0.034588709473609924], [-0.22920340299606323, -0.7196637988090515, -0.08512145280838013, -0.17920802533626556, -0.5853980183601379, -0.33500203490257263, 0.5256569385528564, -0.5143811702728271, -0.5257269144058228, -0.06633177399635315, 0.15357884764671326, 0.09463761001825333, -0.48324859142303467, -0.18696576356887817, 0.42231953144073486, -0.29256075620651245], [0.008422384038567543, 0.3293481767177582, -0.01770128309726715, 0.32079920172691345, 0.20944839715957642, 0.35730496048927307, -0.26471033692359924, 0.41238394379615784, 0.43044722080230713, -0.14033399522304535, -0.2051476389169693, -0.0018046279437839985, 0.41453203558921814, 0.006443762220442295, -0.10732767730951309, 0.29135313630104065], [0.2724775969982147, 0.6700676679611206, -0.002888245042413473, 0.5007673501968384, 0.4381607174873352, 0.373320072889328, -0.648806631565094, 0.5240071415901184, 0.7252142429351807, 0.1758016049861908, -0.20524562895298004, -0.033322591334581375, 0.4670659303665161, 0.17497821152210236, -0.3160173296928406, 0.5915385484695435], [-0.01171049103140831, 0.5467938780784607, 0.2441147416830063, 0.2258857935667038, 0.7838635444641113, 0.328383207321167, -0.4860314726829529, 0.14864735305309296, 0.295683890581131, -0.06921776384115219, -0.097217857837677, -0.28071460127830505, 0.564518928527832, 0.0510391965508461, -0.5898475646972656, 0.4149395227432251], [-0.11892174184322357, -0.327698677778244, 0.05833451449871063, -0.10080701112747192, -0.26025334000587463, -0.26060354709625244, 0.2491745799779892, -0.11876648664474487, -0.26489779353141785, 0.06460551917552948, -0.010441802442073822, 0.1450750231742859, -0.10348285734653473, -0.09590400010347366, 0.08048207312822342, -0.08475475758314133], [-0.0015257862396538258, -0.7549393177032471, -0.14061443507671356, -0.23576432466506958, -0.7024834156036377, -0.5892882347106934, 0.37837478518486023, -0.38508903980255127, -0.5687615275382996, -0.010894167236983776, 0.1285146176815033, -0.026706119999289513, -0.6371244192123413, -0.2626270353794098, 0.3751799166202545, -0.382353276014328], [0.1577553153038025, -0.12772127985954285, 0.03757692500948906, -0.13337212800979614, -0.4431232810020447, -0.5436908006668091, 0.36223503947257996, -0.20469556748867035, -0.29085206985473633, 0.29299598932266235, 0.11277905851602554, -0.17375648021697998, -0.046479176729917526, -0.20995625853538513, 0.24807335436344147, -0.4914023280143738], [-0.1957915872335434, -0.08672507107257843, 0.10332673043012619, 0.014806733466684818, 0.21884995698928833, 0.3422955274581909, -0.20076940953731537, -0.3213631808757782, -0.09190672636032104, -0.3024575710296631, 0.43442949652671814, -0.2744113802909851, 0.44616612792015076, -0.20332513749599457, -0.6722222566604614, 0.8554815053939819]], [[-0.044186923652887344, 0.25275832414627075, 0.17311091721057892, 0.9029197096824646, -0.044423624873161316, 0.5638052821159363, -0.40908992290496826, 0.11638154834508896, 0.34880438446998596, 0.3335047662258148, -0.22591274976730347, -0.2565145492553711, 0.5200712084770203, -0.8646033406257629, -0.09812074154615402, 0.8445276618003845], [0.09809653460979462, 0.9692447185516357, 0.22984370589256287, 1.5367099046707153, 0.4929085969924927, 0.4677261710166931, -0.6202274560928345, 0.552089273929596, 0.7911086678504944, 0.5483293533325195, -0.5296282172203064, -0.06376424431800842, 1.103895664215088, -0.6026591062545776, -0.16037636995315552, 0.9941234588623047], [-0.11994635313749313, -0.8217198252677917, -0.1559019237756729, -1.4828208684921265, -0.4763876795768738, -0.48624590039253235, 0.73514723777771, -0.5344911217689514, -0.729378342628479, -0.6560350656509399, 0.3457403779029846, 0.12191541492938995, -1.028033971786499, 0.5504334568977356, 0.11444958299398422, -1.0690640211105347], [0.136039599776268, 0.2430240362882614, -0.060458168387413025, 0.5280867218971252, -0.13463439047336578, 0.35327744483947754, -0.14662879705429077, 0.16234833002090454, 0.298103928565979, 0.2881868779659271, -0.2647039592266083, -0.20469960570335388, 0.4256628751754761, -0.6696443557739258, -0.24659690260887146, 0.8135868310928345], [-0.03757648915052414, 0.2277948260307312, 0.03852202743291855, 0.7590729594230652, -0.14568063616752625, 0.41748836636543274, -0.18167473375797272, 0.18817414343357086, 0.30760571360588074, 0.05436863377690315, -0.30515873432159424, -0.17826665937900543, 0.28494957089424133, -0.8629367351531982, -0.3779428005218506, 1.0529330968856812], [0.07406037300825119, 0.18693915009498596, 0.006657768972218037, 0.6291071772575378, -0.1382112205028534, 0.2930313050746918, -0.2637709081172943, 0.26072707772254944, 0.41222018003463745, 0.14578403532505035, -0.2572510242462158, -0.20045079290866852, 0.37929534912109375, -0.6089456081390381, -0.21838872134685516, 0.7145792245864868], [0.12641966342926025, 0.22795061767101288, 0.06724238395690918, 0.5847869515419006, -0.03100155107676983, 0.42231622338294983, -0.2442975789308548, 0.34005823731422424, 0.5441633462905884, 0.11471451818943024, -0.18847031891345978, -0.125815749168396, 0.42113006114959717, -0.6910424828529358, -0.24056123197078705, 0.958066463470459], [0.13422444462776184, -0.5954852104187012, -0.49755996465682983, -1.2663041353225708, -0.20694279670715332, -0.47895732522010803, 0.45635002851486206, -0.1754472404718399, -0.2040317803621292, -0.48320481181144714, 0.1929076761007309, 0.2684389054775238, -0.9852237105369568, 0.9378806352615356, -0.16072672605514526, -0.9195950627326965], [-0.07267366349697113, -0.8357120752334595, -0.1452620029449463, -1.6368566751480103, -0.3542906939983368, -0.47503766417503357, 0.5749598145484924, -0.7019920349121094, -0.8690146803855896, -0.4355813264846802, 0.32030242681503296, 0.13735134899616241, -0.8005393743515015, 0.848176121711731, 0.14622828364372253, -1.3771114349365234], [0.09780783951282501, 0.1512475311756134, 0.033985063433647156, 0.5030911564826965, -0.1623462736606598, 0.30018410086631775, -0.08329802751541138, 0.25889167189598083, 0.2772555649280548, 0.07040359824895859, -0.33165252208709717, -0.1118612140417099, 0.1683802455663681, -0.6546347737312317, -0.2606979012489319, 0.6760244965553284], [0.014788740314543247, 0.7442184090614319, 0.019687999039888382, 1.1577885150909424, 0.0930049940943718, 0.4937882721424103, -0.4787437617778778, 0.4587351679801941, 0.828804075717926, 0.2626008987426758, -0.395407110452652, -0.27834296226501465, 0.5977298021316528, -0.5942884087562561, -0.3210470676422119, 1.330857276916504], [-0.10895893722772598, -0.14054729044437408, 0.24310891330242157, 0.8997165560722351, -0.6775173544883728, 0.28658527135849, 0.20639684796333313, -0.13795146346092224, 0.0951065793633461, 0.131631001830101, -0.15625952184200287, -0.25239336490631104, 0.027852145954966545, -1.2124590873718262, -0.3789013624191284, 1.0241119861602783], [0.08257545530796051, -0.2570631206035614, -0.16459053754806519, -0.5443891286849976, 0.1941058188676834, -0.3746053874492645, 0.09940683841705322, -0.15914414823055267, -0.1884825974702835, -0.23257283866405487, 0.3106568455696106, 0.21266187727451324, -0.40315181016921997, 0.5395280718803406, 0.06097441539168358, -0.6300829648971558], [0.1059979647397995, -0.22403396666049957, 0.11872826516628265, -0.800948977470398, 0.37169092893600464, -0.5630201101303101, -0.009713822975754738, -0.11647798866033554, -0.4341810643672943, -0.2330746054649353, 0.3020241856575012, 0.3561786711215973, -0.40318015217781067, 0.853711724281311, 0.4554607570171356, -0.9531408548355103], [0.29295989871025085, 0.4871092736721039, 0.2577536106109619, 0.37570247054100037, 0.9744843244552612, -0.41131168603897095, -0.416258305311203, 0.18751701712608337, 0.19323430955410004, 0.6274060010910034, 0.197017103433609, 0.4928990304470062, 0.62211012840271, 0.8807410597801208, 0.5529791116714478, -0.5023900270462036], [-0.7056589722633362, -2.0149285793304443, -0.32955655455589294, -1.6618162393569946, -1.8022249937057495, -0.3059130907058716, 1.559688925743103, -1.1035304069519043, -0.936026394367218, -1.358446717262268, 0.47909343242645264, -0.5400612354278564, -1.9627437591552734, -1.0362480878829956, -1.0752044916152954, -0.17510679364204407]], [[-0.18245258927345276, -0.7236672639846802, 0.03998015075922012, -0.8839325904846191, -0.3936113119125366, -1.1990114450454712, 0.566852867603302, 0.30449149012565613, -0.08623918890953064, -0.46383312344551086, 0.1628706306219101, 1.171626091003418, -1.5935401916503906, 0.23535051941871643, 0.4001615643501282, -0.8213683366775513], [0.011770684272050858, -0.5778082609176636, -0.6997886896133423, -1.157575011253357, -0.8666107058525085, -0.9998306632041931, 0.9548811316490173, 0.08767155557870865, 0.06624419242143631, -1.025266170501709, 0.2422812283039093, 0.4632621705532074, -1.8430100679397583, 0.05828242748975754, -0.362232506275177, -0.06795554608106613], [0.023784954100847244, 0.2589084208011627, 0.9706820845603943, 0.8540050387382507, 0.6386958956718445, 0.7334118485450745, -0.8824582099914551, -0.02376706525683403, -0.04216820374131203, 0.9030768275260925, -0.37455007433891296, -0.18463142216205597, 1.5447535514831543, -0.050813186913728714, 0.587070643901825, 0.05992330610752106], [0.1190188005566597, -0.32546520233154297, -0.20030638575553894, -0.7278052568435669, -0.3336610794067383, -0.9400237798690796, 0.5161765813827515, 0.12385106086730957, -0.014239142648875713, -0.297343373298645, 0.23646531999111176, 0.5067843198776245, -1.203932285308838, 0.27553611993789673, 0.342123806476593, -0.6854110360145569], [0.1894189417362213, -0.40988433361053467, 0.009782864712178707, -0.7648399472236633, -0.20640355348587036, -1.4008859395980835, 0.4343298375606537, 0.2013508528470993, -0.22447043657302856, -0.16725021600723267, 0.2839450240135193, 0.8589842319488525, -1.2013481855392456, 0.5947771072387695, 0.5321701765060425, -1.0492876768112183], [0.08698995411396027, -0.2797725796699524, -0.18106414377689362, -0.653823733329773, -0.2981158494949341, -1.0097274780273438, 0.6035938262939453, 0.25461873412132263, -0.18228214979171753, -0.25046101212501526, 0.13571545481681824, 0.6132417917251587, -1.0644866228103638, 0.353888601064682, 0.2374940663576126, -0.6235880851745605], [0.20402319729328156, -0.24116525053977966, -0.17558935284614563, -0.5827149748802185, -0.35195884108543396, -1.0624215602874756, 0.4969823360443115, 0.012526546604931355, -0.2537227272987366, -0.4188274145126343, 0.2875404953956604, 0.45586249232292175, -0.8776691555976868, 0.42292696237564087, 0.310822069644928, -0.7958270311355591], [0.5098106861114502, 1.4872380495071411, -0.008460156619548798, 1.686453938484192, 0.8307774662971497, 0.9976267218589783, -0.308025062084198, -0.7377641201019287, -0.09084081649780273, 1.2357196807861328, -0.023922882974147797, -1.6749805212020874, 2.6921920776367188, 0.11932353675365448, -0.2692912220954895, 0.10555677115917206], [-0.06782078742980957, 0.9066164493560791, 0.5804432034492493, 1.2560948133468628, 0.7552760243415833, 1.1677700281143188, -0.9426701068878174, -0.22674475610256195, -0.25990504026412964, 0.8629757165908813, -0.3572534918785095, -0.9912540912628174, 2.1063220500946045, -0.19261778891086578, -0.04842135310173035, 0.5812355279922485], [0.1470245122909546, -0.03930066153407097, -0.252553790807724, -0.3167238235473633, -0.09799109399318695, -0.9738550186157227, 0.6180716156959534, 0.06338967382907867, -0.46911272406578064, 0.006497294642031193, 0.1674221009016037, 0.03962583839893341, -0.6423575282096863, 0.5739462375640869, 0.2608363926410675, -0.9255249500274658], [0.21621890366077423, -0.2152078002691269, -0.5864455699920654, -0.586534857749939, -0.4915285110473633, -1.2447348833084106, 0.9466873407363892, 0.11475925147533417, -0.09200199693441391, -0.4324799180030823, 0.4061737060546875, 0.3277558386325836, -1.1887706518173218, 0.4693221151828766, 0.00687955878674984, -0.8422483205795288], [0.14042261242866516, -1.1047091484069824, 0.4765078127384186, -0.7746832370758057, -0.354427695274353, -1.7202004194259644, 0.49896204471588135, 0.3434116244316101, -0.3465595841407776, -0.27895110845565796, 0.24443817138671875, 1.5684301853179932, -1.529903769493103, 0.5567243099212646, 1.7134054899215698, -1.6144604682922363], [0.09439574182033539, 0.4045638144016266, 0.15916839241981506, 0.58095383644104, 0.15262457728385925, 0.9702246189117432, -0.5363753437995911, -0.3074362874031067, 0.13594278693199158, 0.31447240710258484, -0.19578872621059418, -0.6457913517951965, 1.1433855295181274, -0.4059596061706543, -0.5241266489028931, 0.6387741565704346], [-0.11911001056432724, 0.37394043803215027, -0.20916417241096497, 0.5005654692649841, 0.4851697087287903, 1.6062322854995728, -0.5837857723236084, -0.10722585022449493, 0.23180699348449707, 0.045666828751564026, -0.38725581765174866, -0.8303762674331665, 1.1866189241409302, -0.6570959687232971, -0.9897894859313965, 1.4153414964675903], [-0.22053271532058716, -0.2789338529109955, -0.4215923547744751, -0.18709473311901093, -0.27248579263687134, 1.5752718448638916, -0.18845924735069275, -0.10575550049543381, 0.6315100789070129, -0.8763031363487244, -0.35201388597488403, -0.3835218548774719, -0.47239476442337036, -1.5105639696121216, -1.6190341711044312, 2.2155063152313232], [0.37131795287132263, 0.19967173039913177, 2.0427141189575195, 1.1626338958740234, 0.7476425170898438, -1.9198209047317505, -0.9625197649002075, 0.08431465178728104, -0.8971729874610901, 1.8901636600494385, 0.15478810667991638, 0.431303471326828, 1.5823653936386108, 1.5539597272872925, 3.5897083282470703, -3.147972345352173]]]}, "dense": {"bias:0": [0.018776213750243187], "kernel:0": [[0.0208768080919981], [-0.09148360788822174], [0.24083377420902252], [-0.0786341056227684], [-0.006344188936054707], [-0.07609719783067703], [-0.19463180005550385], [-0.24186833202838898], [-0.21912413835525513], [-0.2602725923061371], [-0.05543048679828644], [-0.05325382202863693], [0.014423569664359093], [-0.0777423158288002], [-0.034880008548498154], [0.0897064059972763], [-0.02666262723505497], [0.10435233265161514], [-0.025375397875905037], [-0.035058919340372086], [-0.07942020148038864], [0.0807744488120079], [-0.07496798038482666], [0.03668120130896568], [-0.08448319882154465], [-0.03980183228850365], [-0.03156266734004021], [0.11683213710784912], [0.20767168700695038], [-0.029757654294371605], [-0.12021736800670624], [-0.338939905166626]]}, "lstm": {"bias:0": [0.3733314573764801, 0.37799617648124695, 0.5610730648040771, 1.326215386390686, 1.0794883966445923, 1.2230690717697144, 0.5952745676040649, 0.29838991165161133, 0.5640650987625122, 0.1359812319278717, 1.124130368232727, 1.013907551765442, 0.8262866735458374, 0.49814537167549133, 0.5878979563713074, 2.137876510620117, 0.508060872554779, -0.12316519021987915, -1.2997150421142578, -0.023535510525107384, 1.0989750623703003, 0.29248854517936707, 0.37223324179649353, -0.1310265064239502, 1.1807605028152466, 0.7130873203277588, 0.9796981811523438, -0.059926532208919525, 0.017908768728375435, -0.43461117148399353, 0.47250887751579285, 0.17264224588871002, 0.31924867630004883, 0.27488717436790466, 0.026338228955864906, 0.5525617599487305, 0.8670317530632019, 0.027669228613376617, -0.6292646527290344, -0.08854720741510391, 0.10091691464185715, -0.1799621731042862, 0.187892347574234, 0.1492624580860138, 0.20086586475372314, 0.6123198866844177, 0.8767036199569702, -0.958967924118042, 1.1200085878372192, 1.2953219413757324, -0.2843388617038727, -0.2642210125923157, 0.12176907807588577, -0.13425464928150177, 0.35255494713783264, 0.13186362385749817, -0.3954276144504547, 0.6477695107460022, 0.3334997594356537, 1.0883018970489502, 0.19798976182937622, 0.5991167426109314, 0.5203166604042053, -0.29052555561065674, 0.07793015986680984, 0.2133490890264511, -0.0458124615252018, 0.07425131648778915, 0.5264495611190796, 0.11029105633497238, -0.1304091066122055, 0.06133704259991646, -0.0182541161775589, 0.009948093444108963, -0.15205761790275574, 0.38830482959747314, 0.16755737364292145, -0.004586664494127035, 0.1167839840054512, -0.06223411485552788, -0.2353631556034088, 0.36444276571273804, 0.0219980888068676, -0.06312338262796402, 0.14219561219215393, -0.005756170954555273, -0.22102020680904388, -0.05947908014059067, -0.16057777404785156, -0.8235030770301819, -0.003078093519434333, -0.03949335217475891, -0.04800674691796303, -0.015557153150439262, -0.19074319303035736, -0.0022372452076524496, 0.4646696150302887, -0.23164543509483337, 0.6562874913215637, 0.21283455193042755, 1.96352219581604, 0.8779342174530029, 0.21975243091583252, 0.201654314994812, -0.44179731607437134, 0.15995672345161438, 0.9990979433059692, 0.6194692850112915, 0.7081645131111145, 0.9923133850097656, 0.4048731029033661, 1.493443250656128, -0.02049841359257698, -0.3139784634113312, -0.6687799096107483, -0.5811479091644287, 0.9126684069633484, 0.7087677717208862, -0.0639355406165123, 0.9960863590240479, 1.1295993328094482, 0.8755972385406494, 1.0076948404312134, -0.08544052392244339, -0.11034658551216125, -0.5901036262512207, -0.27705466747283936, 0.009000479243695736], "kernel:0": [[-0.25667914748191833, -0.33236733078956604, 0.19206708669662476, -0.1946091651916504, -0.2737312316894531, -0.28401997685432434, -0.2135782539844513, 0.33780574798583984, 0.2019975185394287, -0.18950018286705017, -0.1772877424955368, 0.4845392405986786, -0.2551451027393341, 0.10289924591779709, 0.12293204665184021, -0.07701895385980606, 0.2693935036659241, 0.2028428465127945, -0.0656634122133255, 0.11098304390907288, -1.0843173265457153, 0.4642588198184967, -0.2676585614681244, 0.13083940744400024, 0.1705412119626999, -0.4034764766693115, 0.17883048951625824, 0.10444173216819763, 0.08710747212171555, 0.13066063821315765, -0.03462076187133789, 0.2563314437866211, -0.6990600824356079, 0.0255423653870821, 0.188456729054451, -0.08912304043769836, -0.4364067316055298, 0.11400370299816132, -0.11459007859230042, 0.11655262857675552, 0.18272265791893005, -0.34624138474464417, 0.03536242991685867, 0.42459237575531006, -0.5718486309051514, 0.19897113740444183, 0.3505348861217499, -0.09776771068572998, 1.485935926437378, -0.10507742315530777, -0.16330158710479736, -0.03959168493747711, 0.04193105176091194, -0.16102756559848785, -0.25702083110809326, -0.06215226277709007, 0.02762347087264061, 0.029430372640490532, 0.3692951500415802, -0.3245570957660675, 0.11309242993593216, 0.1320742964744568, -0.056060418486595154, 0.010173071175813675, 0.24056817591190338, -0.010798473842442036, -0.19046108424663544, -0.09114096313714981, 0.130111426115036, -1.8152726888656616, 0.13168217241764069, 1.2611486911773682, 1.9412126541137695, -0.24128811061382294, -0.4414486587047577, 0.11159052699804306, 0.530297040939331, 0.4633433520793915, -0.06561549007892609, -0.4398951828479767, -0.1317027062177658, 0.13081513345241547, -0.04073365777730942, 0.13209852576255798, 1.028644323348999, -0.15434372425079346, 0.5258100628852844, 0.1810440570116043, 0.5471451878547668, -0.18837274610996246, 0.2446485161781311, -0.08496609330177307, 0.3509400486946106, 0.16256721317768097, -0.7030858993530273, -0.9804482460021973, 0.09009705483913422, 0.1419457048177719, 0.048789821565151215, 0.1363452672958374, -0.407392680644989, 0.18506555259227753, 0.12397269904613495, -0.01732984371483326, 0.006178899202495813, 0.13122758269309998, -0.30989980697631836, 0.09132210910320282, 0.27374449372291565, -0.315623939037323, 0.08495962619781494, 0.14988607168197632, -0.03471609950065613, -0.18981029093265533, 0.34500911831855774, 1.0509061813354492, -0.05534252151846886, 0.03856997936964035, 0.31766650080680847, -0.13707418739795685, 0.01321512833237648, 0.31545159220695496, -0.8199644684791565, 0.14008787274360657, -0.22107604146003723, -0.2055744081735611, -0.21820776164531708, -0.16314664483070374], [-0.052852239459753036, -0.26828452944755554, -2.432694435119629, -0.05846785381436348, 0.00297614187002182, -0.06937520951032639, -0.5514307618141174, -0.34996044635772705, 0.07457874715328217, -0.29469728469848633, 0.06877904385328293, 0.2343386560678482, -0.37669476866722107, 0.19328424334526062, -1.380091905593872, -0.36398279666900635, 0.12243364006280899, 0.6546677947044373, -0.27360033988952637, -0.4871116280555725, 0.11745821684598923, -0.42738696932792664, -0.6219726800918579, 0.1891079992055893, -0.18335482478141785, -0.00802662968635559, -0.8763604760169983, 0.05927859991788864, -1.724735140800476, -0.3196448087692261, 0.09705112874507904, -0.08607465773820877, -0.3435520827770233, 0.13743412494659424, 0.2451724261045456, -0.009255423210561275, -0.24693182110786438, 0.1937938779592514, -0.14621694386005402, -0.21528781950473785, -0.04570808261632919, -0.2999362051486969, 0.15201668441295624, 0.3174123764038086, 0.018067941069602966, -0.015719430521130562, 0.7161896228790283, -0.05186385288834572, -0.2809058725833893, -0.18210531771183014, -0.08092255890369415, -0.11838210374116898, -0.018486279994249344, -0.09970130771398544, -0.08731717616319656, -0.13426735997200012, 0.04481303691864014, 0.15923181176185608, -0.08275577425956726, -0.1868288815021515, -0.5572909712791443, 0.1860981583595276, 0.2626137137413025, -0.5900297164916992, -0.06694762408733368, -0.07948147505521774, 2.355022430419922, 0.02966320514678955, -0.06579729914665222, -0.37931281328201294, -0.10919798165559769, -1.1928759813308716, -0.3445463180541992, -0.5618252158164978, -0.15964379906654358, 0.41554296016693115, 0.25772395730018616, 0.3860692083835602, 0.8045685291290283, -0.14909236133098602, -0.4867759943008423, 0.2833453118801117, 0.004605035297572613, 0.24385753273963928, -1.238404393196106, -0.026790248230099678, -0.40651705861091614, 0.03826940432190895, -2.6103148460388184, 0.1389440894126892, -0.08616569638252258, -0.21009135246276855, -0.09517340362071991, -0.24850159883499146, -0.02092924155294895, -0.17789927124977112, -0.462778776884079, -0.6855853199958801, 0.05235614627599716, 0.07628419995307922, 0.3089868128299713, 0.13433188199996948, 0.2289758324623108, 0.6185845732688904, 0.21350838243961334, 0.340736985206604, -0.5444474220275879, 0.41863396763801575, 0.17882859706878662, -0.34107619524002075, -1.3817627429962158, -0.007175197824835777, -0.04249487817287445, -0.13677656650543213, -0.11017679423093796, 1.2874376773834229, -0.28293827176094055, 0.2259366810321808, -0.46315324306488037, 0.16105890274047852, -0.03587406873703003, 0.4548461437225342, 0.7075943350791931, 0.1761143058538437, 0.6364349722862244, 0.017834320664405823, 0.022076169028878212, 0.538642168045044], [-0.04509821906685829, -0.21363745629787445, 1.927202582359314, 0.1982996165752411, 0.6785001158714294, -0.1759272813796997, 0.14435909688472748, 0.4772142767906189, 0.33912840485572815, -0.20463936030864716, -0.406825989484787, 0.3374328911304474, -0.06532583385705948, 0.1647646129131317, 1.3162037134170532, 0.10890204459428787, 0.19281058013439178, 0.32164183259010315, -0.1873050481081009, 0.29404890537261963, 0.9113761782646179, 0.38632652163505554, 0.33543282747268677, -0.49037718772888184, 0.5027541518211365, -0.34757453203201294, -0.07131389528512955, 0.06649415194988251, 1.1815769672393799, 0.1152319610118866, 0.4657132923603058, 0.5332305431365967, 0.3760893940925598, -0.03724460303783417, 0.2034667581319809, -0.06919199973344803, -0.015356117859482765, -0.15902243554592133, -0.29581600427627563, 0.06657242029905319, 0.16783615946769714, 0.09485720098018646, -0.1380009949207306, 0.21838584542274475, -0.00021545295021496713, -0.09594318270683289, -0.24308110773563385, -0.16692259907722473, 0.872920036315918, -0.1021222174167633, 0.26076051592826843, -0.0169327761977911, 0.2172485589981079, 0.19838868081569672, 0.16904401779174805, 0.5300225019454956, 0.01428299956023693, -0.4950750768184662, 0.3859861195087433, 0.01735813543200493, 0.3414686620235443, -0.11851759999990463, 0.5433409214019775, 0.14595140516757965, 0.3604714572429657, -0.04666275531053543, -1.610630750656128, -0.09571528434753418, -0.21459682285785675, -0.07479462772607803, 0.5663600564002991, 1.0938040018081665, -0.6150819063186646, 0.3010934889316559, -0.8404404520988464, -0.12278960645198822, 0.1121874526143074, -0.616689145565033, -0.4898987412452698, 0.3803044259548187, 0.47613367438316345, 0.28049278259277344, -0.34252870082855225, -0.06353243440389633, -2.22784423828125, 0.2014574259519577, -0.656147301197052, 0.4645134508609772, 2.6028871536254883, -0.35752370953559875, 0.15986819565296173, 0.5875646471977234, 0.14394749701023102, 0.25415828824043274, 0.2931395471096039, -0.45682746171951294, -0.04974919557571411, -0.19846388697624207, 0.05600662901997566, 0.116352878510952, -0.08063096553087234, 0.13900145888328552, 0.09092093259096146, -0.13042251765727997, -0.06627914309501648, -0.17312081158161163, -0.3859896957874298, -0.5369603037834167, 0.6609699130058289, 0.06628869473934174, 1.1311135292053223, 0.21348407864570618, 0.14462554454803467, 0.11937214434146881, 0.2532619535923004, -0.23287878930568695, -0.24617521464824677, -0.20386460423469543, -0.2766845226287842, -0.3916437029838562, 0.15252086520195007, 0.1564570516347885, -0.5917397737503052, -0.0329374298453331, -0.563440203666687, -0.3577817976474762, -0.45080098509788513, -0.44916200637817383], [0.558296263217926, -0.41645827889442444, -1.829308032989502, -0.04642443731427193, 0.19813172519207, 0.376080721616745, 0.9163649678230286, -1.1055008172988892, -0.03465510159730911, 0.14752383530139923, -0.7225470542907715, -0.25588753819465637, -0.637805700302124, 0.04795335605740547, -0.8301870822906494, -0.11466805636882782, -0.7181462645530701, 0.6170588731765747, 0.11223471164703369, 0.3916785418987274, -0.7831974029541016, -0.43731528520584106, -1.4929122924804688, -0.03396123647689819, 0.12018635123968124, 0.060129206627607346, -0.06276042014360428, -0.04896755889058113, -1.7339595556259155, -0.07577022165060043, -0.000484050833620131, 0.14096026122570038, -0.03215955197811127, 0.03898445516824722, -1.3828871250152588, -0.14859063923358917, 0.3323834240436554, 0.00678881723433733, -0.24361886084079742, -0.69378262758255, 0.049831777811050415, 0.26911455392837524, 0.12563428282737732, -1.9361690282821655, -0.39386358857154846, -0.02961028553545475, 0.2504326105117798, -0.06232116371393204, -0.8637557029724121, 0.0019594330806285143, -0.025217825546860695, 0.15389762818813324, -0.04300615191459656, 0.1535366326570511, -0.3681477904319763, -0.48994678258895874, -0.5202504396438599, 0.760498583316803, -0.20267853140830994, 0.06599952280521393, -0.6244739890098572, 0.4917618930339813, -0.4750840961933136, 0.17404982447624207, -0.3485281765460968, -0.6069686412811279, 1.565294861793518, 0.25827550888061523, -0.06361096352338791, 0.39271971583366394, -0.7803167104721069, 0.06284236907958984, 0.8874087929725647, 0.6050161123275757, -1.5137124061584473, 0.16021449863910675, -0.6968575716018677, 0.16530582308769226, 0.474886417388916, 2.4410107135772705, -0.8627015352249146, 0.24531376361846924, 0.21129409968852997, -0.27970433235168457, 0.407252699136734, 1.2863571643829346, 0.5842015743255615, -0.16424959897994995, 1.922398567199707, -0.05738437548279762, 0.3080393671989441, -0.033579010516405106, 1.8382909297943115, -0.04562731087207794, -0.5021848082542419, 0.537480354309082, 0.16975168883800507, -1.332919716835022, 0.037541404366493225, -0.16252343356609344, 0.34507477283477783, -0.03483068197965622, -0.19436511397361755, 0.6597393155097961, -0.06161007657647133, -0.35465437173843384, -0.3017197251319885, 0.8091617226600647, -0.15051552653312683, 0.44896551966667175, -0.7727375626564026, 0.22018826007843018, -0.15520191192626953, -0.1517588198184967, -0.23451387882232666, -1.6003211736679077, 0.3669370412826538, -0.7049157619476318, 0.5049518346786499, 0.02428406849503517, 0.36995625495910645, 0.3690626621246338, -0.27947595715522766, 0.041658855974674225, 0.48759156465530396, 0.032740797847509384, 0.397725373506546, -0.1712663471698761], [-0.06375829875469208, -0.45077353715896606, -0.9973726868629456, 0.32904744148254395, -0.024427713826298714, 0.22275272011756897, -0.45877453684806824, -0.8562042713165283, -0.01193439494818449, 0.03295505791902542, -0.699860155582428, 0.008021277375519276, 0.48726922273635864, -0.025950297713279724, -0.5299713015556335, 0.06053733080625534, 0.6894131898880005, 0.19441181421279907, 0.19357061386108398, 1.8051090240478516, 0.5710309743881226, 2.460829019546509, -0.882047176361084, 0.09377853572368622, 0.008797612972557545, -0.06000961735844612, -0.12130632251501083, 0.011252079159021378, -0.2583281695842743, -0.00418570451438427, -0.4048241674900055, -0.183799147605896, -0.0840732678771019, 0.029690725728869438, -0.7143006324768066, 0.07622745633125305, 0.25783422589302063, 0.14841289818286896, -0.025950226932764053, -0.4396001398563385, 0.28731250762939453, -0.24483758211135864, -0.058630529791116714, -0.7377524375915527, 1.3282901048660278, -0.04750291258096695, 0.14053331315517426, 0.003530528163537383, -0.12223998457193375, -0.045623257756233215, -0.648734986782074, -0.0515124574303627, -0.0015288544818758965, -0.47787582874298096, 0.30233603715896606, -0.1393357366323471, 0.25481677055358887, 0.17552830278873444, -0.19784939289093018, -0.06842143088579178, -0.2130499631166458, 0.08870090544223785, -0.4933936595916748, -0.2071319967508316, 0.13984732329845428, -0.34384390711784363, 0.949436604976654, -0.36552053689956665, 0.06587156653404236, 0.13502304255962372, -0.7775182127952576, -0.5604631304740906, -0.6023370027542114, -0.5134161114692688, -0.7477102875709534, 0.11911299079656601, 0.13873687386512756, 0.4204835891723633, 0.3184983730316162, -1.9415960311889648, 1.408957839012146, -0.031498201191425323, 0.26344844698905945, -0.4593980312347412, -1.338854193687439, -1.9357045888900757, -0.30385616421699524, -0.06302689760923386, -2.173910617828369, -0.1301865130662918, 0.109743133187294, -0.32546335458755493, -0.7618553638458252, 0.3045559823513031, 0.31756460666656494, 0.42091798782348633, -0.7965365052223206, 1.789031744003296, 0.0392814502120018, 0.016850892454385757, 0.16012459993362427, -0.1351902037858963, 0.0018013403750956059, 0.7187221646308899, 0.07696346938610077, 0.22889728844165802, 0.21330472826957703, 0.37024563550949097, -0.41473856568336487, -0.11046130955219269, -0.45350539684295654, 0.12184693664312363, -0.02002880908548832, -0.12202060967683792, -0.37572866678237915, 1.7980947494506836, 0.1610361933708191, 0.22121909260749817, -0.18925149738788605, -0.25852832198143005, -0.336104154586792, 0.3169018626213074, 0.17054463922977448, 0.0706828385591507, 0.28353482484817505, 0.008223322220146656, 0.3838545083999634, 0.161151722073555], [0.4647108316421509, -0.6092302799224854, -2.0255136489868164, 0.044294875115156174, -0.9529200196266174, 0.25571465492248535, -0.3205844461917877, -0.9216936826705933, 0.41026800870895386, 0.2776315212249756, -0.1717374473810196, 0.22431638836860657, 0.7303717136383057, -0.0863967165350914, -1.327260971069336, -0.10500986129045486, 0.11841986328363419, 0.007035382557660341, -0.21124035120010376, 0.2630707025527954, 0.2525622844696045, 0.19934532046318054, -0.145221546292305, 0.25219327211380005, -0.17163114249706268, 0.017666427418589592, -0.5521669983863831, 0.08714412152767181, -1.408974289894104, -0.2312987595796585, -0.1029355600476265, -0.700286865234375, 0.4765075743198395, -0.07205326110124588, -0.12750397622585297, -0.14476220309734344, -0.44233959913253784, 0.0766724944114685, -0.13049881160259247, -0.9524712562561035, -0.21731609106063843, -0.6483120322227478, -0.005279868841171265, -0.18213193118572235, 0.6607208847999573, 0.0811896026134491, 0.580194354057312, -0.2314034402370453, -1.4319020509719849, -0.05465983226895332, -0.056036725640296936, 0.2308053821325302, 0.09229595214128494, -0.49005600810050964, -0.17872825264930725, -0.12556833028793335, -0.05711415037512779, 0.10867559909820557, -0.20166043937206268, -0.09145843237638474, -0.7578209042549133, 0.01932944729924202, -0.4717645049095154, -0.3741462230682373, -0.012093156576156616, -0.05275287106633186, 1.8869894742965698, 0.18064628541469574, 0.41985780000686646, 0.9705651998519897, -0.9642874598503113, -1.5524150133132935, -0.7400528192520142, -0.7768747210502625, -0.26245051622390747, 0.4794050455093384, 0.5561959147453308, -0.08363863080739975, 0.6617346405982971, -0.6676009297370911, 0.9334830045700073, 0.21592794358730316, -0.04080038145184517, 0.23557497560977936, -0.9580466747283936, -0.5548502802848816, -0.01861606165766716, -0.18445269763469696, -2.61586594581604, -0.18375559151172638, -0.23628583550453186, 0.29754638671875, 0.13100287318229675, 0.38106614351272583, -0.2018800675868988, 1.4050029516220093, 0.09054648131132126, 0.10667847841978073, 0.05751749128103256, -0.13010174036026, 0.019926974549889565, -0.04594958573579788, -0.11451704800128937, 0.3099861741065979, -0.3538197875022888, 0.4311370551586151, -0.40880870819091797, 0.9937633872032166, -0.13803113996982574, 0.26673680543899536, -1.1225403547286987, 0.07867950201034546, 0.6581328511238098, 0.04410357028245926, -0.19988073408603668, 1.5395722389221191, 0.15785609185695648, 0.20355264842510223, 0.10913033038377762, 0.144205242395401, -0.009965131059288979, 0.42172330617904663, -0.2361108511686325, -0.17193841934204102, 0.036191292107105255, -0.5912883281707764, -0.05206602066755295, 0.053050048649311066], [0.21332846581935883, 0.4653814733028412, 1.6700011491775513, -0.26952698826789856, -0.16237075626850128, 0.011681602336466312, -0.16017138957977295, 1.7598767280578613, -0.20743557810783386, -0.04669011011719704, 0.4475850462913513, -0.1256004273891449, 0.46064624190330505, 0.26527854800224304, 1.1938601732254028, 0.49105897545814514, -0.01533561572432518, -0.37385866045951843, -0.16900013387203217, -0.6002339720726013, -0.4145296812057495, -0.6167644262313843, 1.3826546669006348, 0.16254061460494995, -0.14168286323547363, -0.05732060968875885, -0.5548650622367859, -0.06000617891550064, 0.8667203187942505, -0.25794583559036255, -0.43874967098236084, 0.5961783528327942, -0.817813515663147, -0.06239376962184906, 0.6705556511878967, -0.2557944655418396, -1.2003957033157349, -0.050379980355501175, -0.14099468290805817, 0.8278853297233582, -0.8078860640525818, -0.022497525438666344, 0.035747166723012924, 0.7221276760101318, -0.608894407749176, -0.02143733948469162, 0.02694256789982319, -0.18564246594905853, -0.8949667811393738, 0.023779673501849174, -0.8649460673332214, -0.08265648782253265, 0.3030734360218048, 0.029072977602481842, -0.2225196659564972, -0.5443238615989685, -0.7359774708747864, 0.3780718445777893, -0.21363046765327454, -0.031259529292583466, -0.12892499566078186, -0.24616390466690063, -0.4133445918560028, 0.038374148309230804, -0.21101616322994232, 0.6947857141494751, -1.3946592807769775, 0.45870891213417053, 0.32215145230293274, -0.12388826906681061, 0.6327211856842041, 0.24558623135089874, 0.02505461685359478, 0.29617953300476074, 0.4594601094722748, -0.0012725039850920439, -0.15033316612243652, 0.09737829118967056, -0.33641523122787476, 0.1836584210395813, -0.5874625444412231, -0.13027557730674744, -0.13215890526771545, 0.16784833371639252, 1.6310290098190308, 0.45389214158058167, 0.2744433879852295, -0.24250192940235138, 0.6734492182731628, -0.12430504709482193, -0.3386403024196625, -0.43950334191322327, 0.014428963884711266, -0.25069981813430786, -0.10700447857379913, 0.450094997882843, 0.5387294292449951, -0.17310023307800293, 0.12250553071498871, 0.15149706602096558, 0.018960392102599144, -0.0027966403868049383, 0.1574423462152481, -1.0975006818771362, 0.1631733626127243, -0.1563982516527176, 0.5183424949645996, -0.6110879182815552, -0.3432784080505371, -0.16935943067073822, 0.6901769638061523, -0.05711030215024948, 0.1922176033258438, -0.10274999588727951, -0.06593789160251617, -1.2211196422576904, 0.21186448633670807, 0.21667784452438354, 0.38665226101875305, 0.12458266317844391, 0.7264829277992249, 0.14370213449001312, 0.3452461361885071, 0.12275909632444382, -0.13892772793769836, -0.09732416272163391, 0.3321470618247986, 0.09014251828193665], [-0.476694792509079, -0.10644657164812088, -2.6797494888305664, 0.21516995131969452, 0.43822821974754333, -0.14610007405281067, 0.6646435260772705, -0.718056857585907, -0.1472269743680954, 0.08289272338151932, 0.1239740177989006, 0.1191079244017601, -0.005430744495242834, 0.08003474026918411, -1.5335718393325806, 0.10252643376588821, -0.07449831813573837, -0.18623687326908112, 0.18003100156784058, -0.5042470097541809, 0.11990128457546234, -0.6862637996673584, -0.34396347403526306, -0.10499056428670883, -0.12563498318195343, 0.0059470729902386665, 0.8748701214790344, 0.11923623085021973, -0.867490828037262, 0.1537940949201584, 0.33117368817329407, -0.1733468919992447, 0.08418719470500946, -0.1025066077709198, -0.526380181312561, -0.04582391679286957, 0.7107416987419128, -0.035019971430301666, -0.055018749088048935, -0.2747875154018402, -0.2567802369594574, 0.01871313899755478, -0.004287349991500378, -0.5400176644325256, -0.6133517622947693, -0.005166375078260899, -0.23271125555038452, -0.18139061331748962, 0.4470854699611664, -0.07150498032569885, 0.6680163145065308, -0.19954220950603485, -0.022611472755670547, 0.17085419595241547, 0.10494349896907806, 0.601652204990387, -0.0908433198928833, -0.8008623123168945, 0.15769624710083008, -0.1291247308254242, -0.3464186191558838, -0.2604511082172394, 0.7437653541564941, -0.5731024146080017, 0.03439706936478615, -0.0154443783685565, 2.3653266429901123, -0.2832154929637909, -0.004256728105247021, -0.335820734500885, 0.03920871391892433, -0.9729127883911133, 0.09450730681419373, 0.5467411875724792, 0.31266486644744873, 0.5309550166130066, -0.44083255529403687, -0.4149525761604309, 0.8182555437088013, 0.15810251235961914, -0.3768632411956787, 0.15029436349868774, 0.10787040740251541, 0.011056378483772278, 0.10265261679887772, 0.09353848546743393, -0.3917229473590851, 0.00023990962654352188, -1.5459643602371216, -0.11777736246585846, 0.18777425587177277, -0.1567119061946869, -0.41806110739707947, -0.3715035915374756, 0.4095424711704254, -0.8598743677139282, 0.0621238574385643, -0.11240610480308533, 0.10676690191030502, 0.015934063121676445, 0.3919623792171478, 0.08732444792985916, -0.12367694824934006, 0.5308560132980347, 0.24395088851451874, -0.27933263778686523, 0.33604803681373596, 1.2601836919784546, 0.3105907738208771, -0.12300258874893188, -1.3232264518737793, 0.07289822399616241, -0.3366886377334595, -0.14570531249046326, 0.32706418633461, -1.1269266605377197, 0.3878459334373474, 0.23877587914466858, -0.7058420777320862, 0.03441407531499863, 0.08805632591247559, -0.104665607213974, 0.565072774887085, 0.0036325757391750813, 0.5558139681816101, 0.054818324744701385, -0.46846362948417664, 0.2903969883918762], [0.16231289505958557, -0.44639721512794495, -1.6918351650238037, -0.3674447536468506, -0.15067727863788605, -0.06490440666675568, -0.10457909107208252, -0.1657835692167282, 0.09353187680244446, -0.2202526330947876, -0.0476825088262558, 0.55946946144104, -0.583263635635376, -0.15441925823688507, -0.8771969079971313, -0.22304531931877136, -0.07157964259386063, -0.01445002295076847, 0.013031410053372383, 0.024961872026324272, -1.459107756614685, 0.22714011371135712, -1.0234702825546265, -0.08269700407981873, 0.06456025689840317, -0.11634309589862823, -0.5449578762054443, 0.033984579145908356, -0.7419005632400513, 0.13009634613990784, 0.12456273287534714, 0.5792665481567383, 0.29415565729141235, -0.07349351048469543, -0.11082170158624649, -0.0023132329806685448, -0.14695805311203003, -0.09128808975219727, -0.054828155785799026, -0.06755155324935913, -0.3330308496952057, -0.1305336356163025, -0.20519870519638062, 0.17116333544254303, -0.5232637524604797, -0.20824792981147766, 0.17690175771713257, -0.012761895544826984, -0.5124129056930542, 0.0025605610571801662, 0.49934566020965576, -0.6052199602127075, 0.12160803377628326, 0.11696122586727142, -0.3307848274707794, 0.35035911202430725, 0.31295010447502136, -0.3571194112300873, 0.5406986474990845, 0.17506253719329834, -0.19903764128684998, -0.09657809138298035, 0.23384332656860352, -0.0037876383867114782, 0.34163588285446167, -0.2311905473470688, 1.5465697050094604, 0.40599027276039124, -0.03582625836133957, 1.0017889738082886, -0.015214243903756142, -0.4257016181945801, 1.1724566221237183, -0.1638304442167282, -0.05975945293903351, 0.337362676858902, 0.11794300377368927, -0.504369854927063, 0.4498700499534607, -0.843238890171051, -0.3969077467918396, -0.072294682264328, 0.06944380700588226, 0.1284000128507614, 1.7434273958206177, -0.5811284184455872, 0.914871096611023, -0.09432653337717056, -1.0442396402359009, -0.20636582374572754, 0.16022080183029175, 0.6919136643409729, -0.47573280334472656, -0.08087048679590225, -0.20199471712112427, 0.01210229005664587, -0.2831566035747528, 0.6589855551719666, 0.07858731597661972, 0.12509578466415405, -0.37558209896087646, -0.17145706713199615, 0.0057256524451076984, 0.5681217312812805, 0.22581301629543304, 0.09479621052742004, -0.2614523768424988, 0.4586467742919922, 0.5833412408828735, 0.039558835327625275, -0.8445176482200623, 0.10598336905241013, 0.1575964242219925, 0.020459819585084915, 0.23872452974319458, 1.3840757608413696, -0.05773334950208664, 0.27912038564682007, 0.6322829723358154, -0.11058057844638824, -0.234768807888031, 0.09579990059137344, -0.42781317234039307, 0.06253630667924881, 0.21591141819953918, 0.1550266593694687, -0.3291284143924713, -0.023204201832413673], [0.7517577409744263, -0.3259386420249939, 1.6362242698669434, -0.32898470759391785, 2.2433931827545166, -0.22452335059642792, 0.8305818438529968, 0.9419021010398865, -0.21583035588264465, -0.06354212760925293, -0.7613450288772583, 0.007096480578184128, -1.3260897397994995, 0.10888311266899109, 1.184598445892334, -0.5574783086776733, 0.5183053612709045, 0.14925755560398102, -0.2743251323699951, 2.3329291343688965, -0.7665375471115112, 1.980485200881958, -0.4766211211681366, -0.038003984838724136, -0.15759946405887604, 0.23904924094676971, -0.9392164349555969, -0.04656267911195755, 1.272883653640747, -0.5392357110977173, 0.42493757605552673, 0.5401396751403809, -0.5510697364807129, 0.045065589249134064, -0.48380768299102783, 0.036155711859464645, -0.28085723519325256, 0.05612193048000336, -0.033469900488853455, 0.29540878534317017, -0.7866823673248291, 0.23407508432865143, -0.14705385267734528, -0.5106140971183777, 0.03559257462620735, -0.036894965916872025, -0.34208253026008606, -0.13512668013572693, 1.9334028959274292, -0.12031786143779755, -0.1322334110736847, 0.1491682082414627, -0.17621417343616486, 0.21079999208450317, -0.49734804034233093, 0.059159666299819946, -0.3901462256908417, -0.27759888768196106, -0.34295743703842163, -0.21414615213871002, 0.85503751039505, -0.6227914690971375, 0.40372803807258606, 0.15733006596565247, -0.16193754971027374, -0.3456004858016968, -1.579957127571106, 0.2900109589099884, -0.8165032863616943, -0.7357657551765442, 0.2638494670391083, -0.5239171385765076, -0.4361231029033661, 0.6405642628669739, -1.5988712310791016, -0.2818065285682678, -1.4934349060058594, -0.12984053790569305, -0.6223883032798767, -0.8626318573951721, -0.4899131655693054, 0.186456561088562, -0.2909780740737915, -0.8103547096252441, 0.3714689612388611, -1.7933180332183838, 0.23728899657726288, -0.2970415949821472, 0.9569524526596069, 0.36012130975723267, -0.739885151386261, 0.5706090331077576, -0.1532367765903473, 0.22096626460552216, -0.580849826335907, -1.2089041471481323, 0.1979525238275528, 1.7992186546325684, 0.02829590067267418, -0.036039598286151886, 0.717936098575592, 0.1148247942328453, -0.2768840193748474, -0.5853154063224792, 0.048865899443626404, 