{"conv1d": {"bias:0": [0.0010722066508606076, 0.00596807012334466, 0.0006232184823602438, -0.00039988942444324493, 0.004250810015946627, -0.0036316681653261185, 2.942490391433239e-05, -0.0013500925851985812, -0.003798769786953926, -0.003768138587474823, 0.00433708168566227, -0.002787654986605048, 0.008187508210539818, -0.0006158093456178904, -0.0007100363727658987, -0.00048294791486114264], "kernel:0": [[[0.6605926156044006, -0.7166943550109863, -1.1010141372680664, 1.2158352136611938, 0.8762220144271851, -1.597981572151184, -0.29523730278015137, 0.03894658759236336, 0.07017984986305237, -0.3128242790699005, -2.9328997135162354, 1.4405988454818726, -0.057629525661468506, 2.3501315116882324, 0.3771241307258606, 2.18330717086792]], [[0.7372890114784241, -0.3553714454174042, -1.0220555067062378, 1.3834812641143799, 0.5801479816436768, -1.4990639686584473, -0.30500560998916626, -0.04721086099743843, 0.3665790259838104, -0.05482408404350281, -2.3188133239746094, 1.5689703226089478, -0.10890091955661774, 1.5237867832183838, 0.4194791615009308, 1.7948604822158813]], [[0.570948600769043, -0.3892296850681305, -1.0195332765579224, 1.2825525999069214, 0.25946927070617676, -0.9725362062454224, -0.4790586829185486, 0.18331995606422424, 0.4726966321468353, 0.23305341601371765, -1.2041860818862915, 1.3974292278289795, -0.3309478461742401, 0.8224396109580994, 0.2452428638935089, 1.1252317428588867]], [[0.5672136545181274, -0.2911982834339142, -0.6727221608161926, 0.9506558775901794, -0.4069705605506897, -0.40411701798439026, -0.32965850830078125, 0.3955530822277069, 0.5503897070884705, 0.5819926261901855, -0.17289112508296967, 0.9762415289878845, -0.604610025882721, -0.31210094690322876, 0.40462416410446167, 0.6924759149551392]], [[0.48507407307624817, -0.5433447360992432, -0.662559449672699, 0.873731791973114, -0.8526949882507324, 0.21320220828056335, -0.5125841498374939, 0.5916392803192139, 0.5664160847663879, 1.1325924396514893, 0.8090301156044006, 0.31280389428138733, -0.7057153582572937, -1.0871130228042603, 0.4134397804737091, 0.38049912452697754]], [[0.3521585762500763, -0.6032019853591919, -0.6560770869255066, 0.6491338610649109, -1.0954513549804688, 0.9575820565223694, -0.6878709197044373, 0.7466258406639099, 0.7221996784210205, 1.2155115604400635, 1.7510418891906738, -0.1327224224805832, -0.6347588300704956, -1.5412284135818481, 0.4223935902118683, -0.07032155990600586]], [[0.5251943469047546, -0.6414863467216492, -0.634563684463501, 0.232081338763237, -1.3397254943847656, 1.1996357440948486, -0.745603084564209, 0.8961886167526245, 0.5955340266227722, 1.6210291385650635, 2.1330676078796387, -0.6197144389152527, -0.7894882559776306, -1.7613677978515625, 0.6466480493545532, -0.2311187982559204]], [[0.5919837355613708, -0.38475513458251953, -0.5113164782524109, 0.2661321759223938, -1.4004435539245605, 1.412883996963501, -0.6143309473991394, 0.6859577894210815, 0.5798159837722778, 1.696706771850586, 2.1347944736480713, -1.2013338804244995, -0.7386595010757446, -1.5098462104797363, 0.36811596155166626, -0.4674563705921173]], [[0.5591510534286499, -0.539412796497345, -0.29666605591773987, -0.00718379020690918, -0.9742259383201599, 1.392907977104187, -0.4193006455898285, 0.7305038571357727, 0.38575518131256104, 1.3578343391418457, 1.5655287504196167, -1.2968664169311523, -0.5594286918640137, -1.2528762817382812, 0.40630418062210083, -0.28762078285217285]], [[0.32940050959587097, -0.4733711779117584, -0.25799766182899475, -0.2805528938770294, -0.8484678268432617, 1.136944055557251, -0.3456857204437256, 0.37031781673431396, 0.23743443191051483, 1.0373780727386475, 0.9600631594657898, -1.5549163818359375, -0.30056583881378174, -0.748384952545166, 0.5899703502655029, -0.20394697785377502]], [[0.29772862792015076, -0.16812673211097717, -0.12439384311437607, -0.309773713350296, -0.08923783898353577, 0.6635375618934631, -0.031026644632220268, 0.37502145767211914, 0.11591483652591705, 0.3075268566608429, -0.16084738075733185, -1.487358570098877, 0.18772438168525696, -0.16239036619663239, 0.3697177469730377, -0.023525264114141464]], [[0.15383386611938477, 0.010446754284203053, 0.19008837640285492, -0.5561050176620483, 0.28209471702575684, -0.20734529197216034, 0.07626613229513168, 0.034924764186143875, -0.29296746850013733, -0.6281300783157349, -1.442375659942627, -1.0075488090515137, 0.4149695038795471, 0.7404419779777527, 0.32087966799736023, 0.3267192244529724]]]}, "conv1d_1": {"bias:0": [-0.12406592816114426, 0.09001797437667847, 0.26373088359832764, 0.1176673099398613, 0.07973300665616989, 0.1335984468460083, -0.22387853264808655, -0.2241153120994568, -0.04236767068505287, -0.09210478514432907, -0.018390173092484474, -0.19040970504283905, -0.03605382889509201, 0.0182308591902256, 0.09670767933130264, 0.14334599673748016], "kernel:0": [[[0.11043170094490051, 0.008849501609802246, -0.0759907066822052, 0.028689295053482056, 0.009460210800170898, -0.12026998400688171, 0.022658228874206543, 0.012832224369049072, -0.11984342336654663, 0.06508088111877441, 0.05419921875, 0.0241243839263916, -0.08794674277305603, -0.04259499907493591, 0.12033998966217041, -0.10526421666145325], [0.0034134089946746826, -0.12287995219230652, -0.06537839770317078, 0.03111627697944641, -0.03305438160896301, -0.040409862995147705, -0.11915495991706848, 0.06677469611167908, -0.045395880937576294, 0.09407776594161987, -0.11634480953216553, -0.08363363146781921, 0.05924388766288757, 0.07653993368148804, 0.10559496283531189, -0.08201423287391663], [-0.05489391088485718, -0.1189938485622406, -0.10210305452346802, 0.09706854820251465, 0.11506307125091553, -0.07036224007606506, -0.037447601556777954, -0.091207355260849, -0.10600683093070984, 0.02007359266281128, -0.11853671073913574, 0.07295423746109009, -0.11273309588432312, 0.001750648021697998, -0.042645007371902466, -0.08650192618370056], [0.05367255210876465, 0.05778557062149048, 0.04234614968299866, 0.037916749715805054, -0.0745987594127655, -0.09890732169151306, 0.09240180253982544, 0.025098085403442383, 0.020295947790145874, 0.06795036792755127, -0.09156018495559692, -0.07392367720603943, -0.061044901609420776, 0.08160144090652466, 0.04866433143615723, -0.01934802532196045], [-0.03589010238647461, 0.01874566078186035, 0.030149877071380615, 0.02044573426246643, -0.00012809038162231445, -0.12194347381591797, -0.0762433409690857, -0.010349363088607788, 0.12062901258468628, 0.05881664156913757, -0.09826269745826721, -0.01496395468711853, 0.10624510049819946, 0.07802855968475342, 0.10981619358062744, -0.11552584171295166], [-0.10556003451347351, 0.12055492401123047, 0.027634888887405396, 0.027644723653793335, -0.059644341468811035, 0.021895140409469604, -0.08124509453773499, -0.0983177125453949, -0.08147791028022766, -0.012589305639266968, 0.0740622878074646, -0.029558569192886353, 1.3440847396850586e-05, -0.06374865770339966, -0.02963516116142273, -0.09424266219139099], [-0.10789790749549866, 0.005510509014129639, -0.06243312358856201, -0.10715126991271973, -0.092448890209198, -0.053615838289260864, 0.006055980920791626, 0.0811292827129364, -0.10820439457893372, -0.045143306255340576, -0.05653059482574463, -0.06134068965911865, 0.08074834942817688, 0.06793183088302612, -0.0968790054321289, -0.0808776319026947], [-0.08636650443077087, -0.06067126989364624, -0.0595531165599823, 0.038436681032180786, 0.01771003007888794, 0.007536739110946655, -0.02154812216758728, 0.010062575340270996, -0.019363969564437866, 0.06284850835800171, -0.08919122815132141, 0.0849837064743042, 0.018410086631774902, -0.04776504635810852, -0.012965530157089233, 0.03894355893135071], [0.08908247947692871, 0.042080968618392944, -0.01213759183883667, -0.08183252811431885, 0.0661921501159668, -0.1063099205493927, -0.05085793137550354, -0.02804890275001526, 0.10855937004089355, -0.005482971668243408, 0.054040759801864624, 0.01667049527168274, -0.08928313851356506, -0.12465667724609375, 0.11416104435920715, 0.10454514622688293], [-0.10132923722267151, 0.061059534549713135, -0.07430851459503174, 0.07453793287277222, -0.10083597898483276, -0.04128319025039673, -0.12228980660438538, 0.002679675817489624, 0.07240539789199829, 0.021485835313796997, 0.07204502820968628, 0.031199157238006592, 0.022336184978485107, 0.0033527910709381104, 0.020004361867904663, 0.11659616231918335], [-0.10211548209190369, 0.0138777494430542, 0.11447736620903015, 0.1020263135433197, 0.10628101229667664, -0.08699500560760498, -0.018558800220489502, 0.12137258052825928, 0.09051603078842163, -0.08881485462188721, 0.021955668926239014, -0.07745620608329773, -0.05606582760810852, -0.09060874581336975, 0.009578078985214233, -0.053970545530319214], [-0.011011779308319092, 0.053093165159225464, -0.05658575892448425, 0.0024728477001190186, 0.089231938123703, 0.03794252872467041, -0.08601850271224976, -0.03703281283378601, -0.009510338306427002, 0.04211953282356262, 0.07552757859230042, 0.08807075023651123, 0.02391698956489563, -0.09633898735046387, -0.11834883689880371, -0.06321626901626587], [-0.1157529354095459, 0.06675860285758972, 0.06682467460632324, 0.03152218461036682, -0.09210151433944702, 0.05461522936820984, -0.019504666328430176, -0.05192270874977112, -0.07453230023384094, 0.027709662914276123, 0.05817249417304993, 0.0642695426940918, -0.016686588525772095, 0.0073867738246917725, 0.11178481578826904, -0.10660555958747864], [0.09276878833770752, 0.0821107029914856, -0.10577353835105896, 0.059239208698272705, -0.11070430278778076, 0.08959507942199707, 0.11759880185127258, 0.04149928689002991, -0.0470348596572876, 0.04028397798538208, -0.06475073099136353, 0.04095405340194702, -0.04269033670425415, 0.07895025610923767, -0.06084984540939331, -0.11016759276390076], [-0.013440996408462524, 0.12025955319404602, 0.06283339858055115, 0.041050076484680176, -0.07741814851760864, -0.019236445426940918, 0.0734097957611084, 0.06256401538848877, 0.10118642449378967, -0.10178422927856445, -0.033600807189941406, 0.040252864360809326, 0.06401070952415466, 0.006195783615112305, 0.0036668777465820312, -0.04779168963432312], [-0.060812532901763916, 0.035127103328704834, 0.0073580145835876465, 0.007950514554977417, 0.052646636962890625, 0.008669942617416382, 0.018010377883911133, 0.06527632474899292, -0.03411710262298584, 0.12244254350662231, -0.0817708671092987, 0.11242461204528809, 0.001732945442199707, 0.09839582443237305, -0.11251163482666016, 0.07122769951820374]], [[-0.2376728504896164, 0.05192291736602783, -0.2281661480665207, 0.29164719581604004, -0.13447943329811096, 0.07452872395515442, -0.15723660588264465, -0.1248885914683342, 0.34696540236473083, 0.1980295032262802, -0.23480279743671417, 0.3099382519721985, -0.10690063238143921, -0.15759700536727905, -0.5145401358604431, 0.027799075469374657], [0.22792890667915344, -0.13639295101165771, 0.38796287775039673, -0.1274522840976715, 0.15445080399513245, 0.15328150987625122, 0.12738795578479767, 0.19230815768241882, -0.3087599277496338, -0.24127963185310364, 0.26472246646881104, -0.1821053922176361, 0.011960219591856003, 0.0694197341799736, 0.43148067593574524, 0.06436881422996521], [0.19686822593212128, -0.04712796211242676, 0.20042409002780914, -0.32567736506462097, -0.0673036202788353, 0.2578205168247223, 0.35454413294792175, 0.16739057004451752, -0.266306608915329, -0.1319190114736557, 0.17934198677539825, -0.146368145942688, -0.17049650847911835, 0.16088196635246277, 0.7582851648330688, 0.08748720586299896], [-0.07916352897882462, -0.10802066326141357, 0.12373143434524536, 0.4073154926300049, 0.05337338522076607, -0.18373188376426697, -0.3331943154335022, -0.26973429322242737, 0.14726366102695465, 0.02568504959344864, 0.2728555500507355, 0.3273122012615204, 0.2626301050186157, -0.053749725222587585, -0.29568302631378174, -0.1728907823562622], [-0.0518021360039711, 0.16138964891433716, 0.15834233164787292, 0.04876607283949852, -0.11241315305233002, -0.016758518293499947, -0.014894664287567139, 0.08138884603977203, -0.09075696021318436, 0.12269368022680283, 0.1787964105606079, -0.14330638945102692, 0.040516503155231476, 0.054255757480859756, 0.10244100540876389, -0.037178657948970795], [-0.03544303774833679, 0.010227297432720661, -0.021685229614377022, -0.22630175948143005, 0.08758314698934555, -0.019830191507935524, -0.01666087470948696, 0.25982752442359924, -0.11881795525550842, 0.12931858003139496, -0.4192418158054352, 0.04311531409621239, -0.2787720859050751, -0.147218719124794, 0.1822367012500763, 0.10137217491865158], [0.259652704000473, -0.0022737132385373116, 0.14754702150821686, -0.095210000872612, -0.057218119502067566, -0.021739870309829712, 0.12250706553459167, 0.23060603439807892, -0.09605786949396133, -0.058962542563676834, 0.1719842106103897, -0.3292371928691864, -0.022298334166407585, 0.04197234287858009, 0.3307976722717285, -0.0836012214422226], [-0.230672687292099, 0.1374773532152176, -0.09342003613710403, 0.22298884391784668, -0.017298566177487373, -0.037010058760643005, -0.13639093935489655, -0.0376608669757843, 0.16337314248085022, -0.03830561414361, -0.27331843972206116, 0.08875025808811188, 0.03242294490337372, -0.07395408302545547, -0.2759724259376526, 0.122298464179039], [-0.2024310976266861, -0.02288150228559971, -0.051959674805402756, 0.17313744127750397, 0.10756546258926392, -0.13913211226463318, -0.15307161211967468, -0.02567167580127716, 0.16025368869304657, -0.09018789976835251, 0.028447629883885384, 0.06497465074062347, -0.10699812322854996, 0.06352324038743973, -0.02000623568892479, -0.02191656455397606], [-0.03684176132082939, -0.06814812123775482, -0.07969316840171814, 0.13723595440387726, 0.14936676621437073, -0.23248356580734253, -0.2766439914703369, -0.13812075555324554, 0.0908682569861412, 0.014241987839341164, -0.17053702473640442, 0.04011581093072891, -0.01050711888819933, 0.01578712649643421, -0.24848292768001556, -0.008144058287143707], [0.5359294414520264, -0.2707454264163971, 0.5524107217788696, -0.4891372621059418, 0.46534475684165955, 0.18180765211582184, 0.7025242447853088, 0.18388478457927704, -0.6693907380104065, -0.4525858759880066, 0.3373560607433319, -0.14359787106513977, -0.39898356795310974, -0.05838993936777115, 1.2867062091827393, 0.07849510759115219], [0.4423316717147827, -0.2390117198228836, 0.46390318870544434, 0.13912399113178253, 0.11542403697967529, -0.1154722198843956, 0.057022348046302795, 0.07564713805913925, -0.04145722836256027, -0.18682043254375458, 0.825160026550293, 0.020530682057142258, 0.467136412858963, 0.3895707130432129, -0.08459638804197311, -0.15908417105674744], [-0.0018301797099411488, 0.021688804030418396, -0.013416443951427937, -0.20243984460830688, 0.0011873826151713729, 0.1682528257369995, 0.09068404883146286, 0.14756304025650024, -0.03565237298607826, 0.030785681679844856, -0.08293530344963074, -0.14057976007461548, 0.055019304156303406, -0.00973180215805769, 0.12963026762008667, -0.010870467871427536], [-0.2531706392765045, 0.3103514313697815, -0.3574533462524414, 0.35855141282081604, -0.27960553765296936, 0.09603067487478256, -0.32088086009025574, -0.08346767723560333, 0.4626506268978119, 0.4054674208164215, -0.22459906339645386, 0.020434463396668434, 0.18529009819030762, -0.02505887858569622, -0.8499405384063721, 0.0430774986743927], [-0.13202868402004242, 0.07084885984659195, -0.27410420775413513, 0.07185284048318863, -0.031642068177461624, 0.0324745774269104, -0.2231820523738861, -0.18931356072425842, 0.15138423442840576, 0.08473805338144302, -0.34615495800971985, 0.09636322408914566, -0.20743905007839203, -0.10086590051651001, -0.5558880567550659, 0.16392108798027039], [-0.7032635807991028, 0.11211805790662766, -0.42765843868255615, 0.9365898370742798, -0.39123156666755676, -0.26277366280555725, -0.6491180062294006, -0.3544068932533264, 0.5920342803001404, 0.41210153698921204, -0.15873457491397858, 0.5523509979248047, 0.22494672238826752, -0.23623931407928467, -1.0306919813156128, 0.0406583696603775]], [[-0.19538679718971252, 0.22560250759124756, -0.29597339034080505, 0.5475984215736389, -0.07027795165777206, 0.07417892664670944, -0.003358704736456275, -0.20634165406227112, -0.06716542690992355, 0.04228896647691727, -0.46612802147865295, 0.40283316373825073, -0.04619918018579483, -0.09327748417854309, -0.42449837923049927, 0.1468944549560547], [0.05230717733502388, -0.050129976123571396, 0.28441745042800903, -0.32839977741241455, 0.11641616374254227, -0.033455990254879, 0.09339354932308197, 0.08381575345993042, 0.020952530205249786, 0.10296899825334549, 0.45653319358825684, -0.4274905025959015, -0.054660946130752563, 0.15690739452838898, 0.5499469637870789, -0.17191532254219055], [0.1692618727684021, -0.13142570853233337, 0.42301732301712036, -0.6752961874008179, -0.017519760876893997, 0.11908221989870071, 0.1338261216878891, 0.24057793617248535, -0.06284338980913162, 0.08717489242553711, 0.6888949871063232, -0.498489111661911, 0.030400868505239487, 0.20874711871147156, 0.6939804553985596, -0.17914573848247528], [-0.052046582102775574, 0.1369701772928238, -0.1366560459136963, 0.8104661107063293, -0.10114030539989471, -0.22514469921588898, 0.0697176605463028, -0.5211759209632874, 0.13042740523815155, -0.1005542203783989, -0.7614593505859375, 0.6346487998962402, -0.09371653199195862, -0.49510034918785095, -0.6143407225608826, -0.0002534112427383661], [-0.16407598555088043, -0.09672561287879944, 0.1814213991165161, -0.2891850769519806, 0.0718156024813652, -0.05881083384156227, 0.11648755520582199, -0.19782719016075134, 0.3005782663822174, 0.25892800092697144, 0.337871253490448, -0.3339923918247223, 0.11985810846090317, 0.03922393172979355, 0.24625711143016815, -0.20416249334812164], [0.020438678562641144, 0.11298709362745285, -0.09192780405282974, 0.047199469059705734, -0.18077543377876282, 0.4801148772239685, 0.013128983788192272, 0.3554321825504303, -0.33458808064460754, -0.3517439663410187, 0.0591614730656147, 0.3465791642665863, 0.1282721757888794, 0.14053507149219513, 0.18190893530845642, 0.2482687383890152], [0.12748020887374878, -0.13706202805042267, 0.16630999743938446, -0.5033586025238037, 0.1841174066066742, 0.10991548746824265, 0.03321031853556633, 0.08656562864780426, -0.0376630499958992, 0.09535722434520721, 0.42831820249557495, -0.4342149496078491, 0.07509271800518036, 0.11149734258651733, 0.5604448914527893, -0.14541073143482208], [0.06846276670694351, 0.1880832016468048, -0.22334401309490204, 0.35373568534851074, -0.08553063869476318, 0.10977020859718323, -0.06160884350538254, 0.09032884240150452, -0.21050259470939636, -0.13753433525562286, -0.24861444532871246, 0.4071425199508667, -0.15912988781929016, -0.05055418610572815, -0.40674567222595215, 0.17487198114395142], [-0.06530773639678955, 0.14399608969688416, -0.228742778301239, 0.43186938762664795, -0.05878008157014847, -0.1210717186331749, 0.13158920407295227, -0.1391376256942749, -0.059594638645648956, 0.028653401881456375, -0.4017777740955353, 0.5014269948005676, -0.13426315784454346, -0.33859872817993164, -0.5350075960159302, 0.019958779215812683], [0.065806545317173, 0.038746025413274765, -0.1822260022163391, 0.39006999135017395, -0.13899067044258118, 0.07562840729951859, -0.0174767654389143, 0.03960339352488518, -0.26086387038230896, -0.08563700318336487, -0.4517538845539093, 0.5346774458885193, 0.053119052201509476, -0.12222516536712646, -0.4406626224517822, 0.3088364005088806], [0.1246531680226326, -0.01169598288834095, 0.3661401569843292, -0.10309508442878723, -0.0662383958697319, 0.464315801858902, 0.3869343400001526, 0.21081851422786713, -0.41044583916664124, -0.4173203408718109, 0.1818215548992157, 0.28476181626319885, 0.04866786301136017, 0.03683356195688248, 0.33068642020225525, 0.4664020240306854], [-0.005461919121444225, -0.16305913031101227, 0.237272709608078, 0.24621841311454773, 0.3142322599887848, -0.876630425453186, 0.2554619014263153, -0.6366632580757141, 0.4603879451751709, 0.3015788197517395, -0.20212282240390778, -0.13880497217178345, 0.05207061022520065, -0.08758610486984253, -0.4870208203792572, -0.6186489462852478], [0.15195269882678986, -0.15825435519218445, 0.08060479164123535, -0.5391854047775269, -0.02869619056582451, -0.09122339636087418, -0.008349727839231491, 0.12260624021291733, 0.040574800223112106, 0.12370499968528748, 0.4130890369415283, -0.5747891068458557, 0.10358889400959015, 0.17112131416797638, 0.5103023052215576, -0.17557118833065033], [-0.1532696932554245, -0.09611092507839203, -0.10746611654758453, -0.34403955936431885, 0.015968315303325653, -0.3117143511772156, -0.09781122952699661, -0.4172253906726837, 0.4420507848262787, 0.2387663871049881, 0.12100470066070557, -0.35470643639564514, 0.028031593188643456, 0.03905676677823067, -0.11749465018510818, -0.4214586913585663], [-0.02361375093460083, 0.2250441312789917, -0.2412692904472351, 0.3644877076148987, -0.08773447573184967, 0.0789717510342598, -0.09716090559959412, -0.13743175566196442, -0.07972528040409088, -0.06830523163080215, -0.3394300043582916, 0.30251097679138184, 0.0012727017747238278, -0.15223032236099243, -0.31747564673423767, 0.2805296778678894], [-0.22789351642131805, 0.26394495368003845, -0.4773399829864502, 0.7824051380157471, -0.04328459873795509, -0.21077565848827362, -0.011410619132220745, -0.5152925848960876, 0.4945116341114044, 0.11349131166934967, -0.9024243354797363, 0.6168400049209595, -0.11872256547212601, -0.5587297677993774, -0.8024759292602539, 0.05260861665010452]], [[-0.12623892724514008, -0.11496993899345398, -0.18113332986831665, -0.3067794144153595, -0.1648031771183014, 0.34963908791542053, -0.4944711923599243, 0.5336639285087585, -0.5834468603134155, -0.038669403642416, 0.31016215682029724, -0.3720000982284546, -0.19932538270950317, 0.32042086124420166, 0.3079996407032013, -0.23595349490642548], [0.017193518579006195, 0.11354418098926544, 0.3178820312023163, 0.3411613404750824, -0.04066541790962219, -0.2393198162317276, 0.5157208442687988, -0.43623119592666626, 0.4098604619503021, -0.1284598559141159, -0.25358057022094727, 0.13768653571605682, 0.1920551061630249, -0.3648333251476288, -0.2436417043209076, 0.130741685628891], [-0.07434548437595367, 0.03778107464313507, 0.27881282567977905, 0.4450024664402008, 0.12709638476371765, -0.4506899118423462, 0.47516465187072754, -0.8120810985565186, 0.6478806734085083, 0.10481493920087814, -0.6828271746635437, 0.21643944084644318, 0.33181825280189514, -0.677924394607544, -0.5023528337478638, 0.22202982008457184], [0.09914131462574005, 0.030669577419757843, -0.22695417702198029, -0.6363703012466431, -0.2316608875989914, 0.44143739342689514, -0.3511197566986084, 0.7615843415260315, -0.9097440242767334, 0.07623229175806046, 0.544876217842102, -0.296185702085495, -0.23319974541664124, 0.8327521085739136, 0.49693000316619873, -0.22947977483272552], [-0.002560819499194622, 0.14130035042762756, 0.21292032301425934, 0.39123663306236267, -0.20945455133914948, 0.01309226918965578, 0.48923805356025696, -0.5197340250015259, 0.4052722454071045, -0.2230837643146515, -0.31197118759155273, 0.38697052001953125, 0.21870741248130798, -0.42977699637413025, -0.2808670103549957, 0.3947824239730835], [-0.1282840371131897, -0.19899463653564453, -0.3344578742980957, -0.1545318216085434, 0.32619836926460266, -0.1728382408618927, -0.4718288481235504, -0.007973764091730118, -0.053241435438394547, 0.30726346373558044, -0.062082983553409576, -0.22044412791728973, -0.3922836482524872, -0.02593841776251793, -0.2416761964559555, -0.5256789922714233], [0.019350415095686913, 0.07888293266296387, 0.285457968711853, 0.3168904185295105, 0.10347988456487656, -0.20784375071525574, 0.5925951600074768, -0.6363484263420105, 0.4433043599128723, 0.06993965804576874, -0.3051120936870575, 0.33497005701065063, 0.25739291310310364, -0.3084048330783844, -0.2090172916650772, 0.21024858951568604], [-0.1656767874956131, -0.23511774837970734, -0.2912229895591736, -0.26636266708374023, -0.02614087611436844, 0.07611435651779175, -0.373930424451828, 0.5645363330841064, -0.35471227765083313, -0.017567653208971024, 0.3728153705596924, -0.17863112688064575, -0.28895917534828186, 0.36519649624824524, 0.10073093324899673, -0.3461472690105438], [-0.021074311807751656, 0.008339568972587585, -0.35633203387260437, -0.26994195580482483, -0.11835964769124985, 0.21681366860866547, -0.4836195409297943, 0.6662295460700989, -0.3920488655567169, -0.007693622261285782, 0.2760208547115326, -0.23931525647640228, -0.3647400140762329, 0.43137189745903015, 0.21221016347408295, -0.32137784361839294], [-0.03646472841501236, -0.061541277915239334, -0.2815439701080322, -0.34635987877845764, 0.038026362657547, 0.2437988519668579, -0.7602680921554565, 0.522358775138855, -0.5577363967895508, 0.08914628624916077, 0.47670337557792664, -0.28135499358177185, -0.46689140796661377, 0.4331168234348297, 0.20123419165611267, -0.5273270010948181], [-0.1424645036458969, -0.30857059359550476, 0.08733601868152618, 0.03486104682087898, 0.5516741275787354, -0.4927152097225189, -0.7003679871559143, -0.11908429116010666, 0.012401063926517963, 0.16741180419921875, 0.19470906257629395, -0.1715206801891327, -0.40030208230018616, -0.13369426131248474, -0.10950814932584763, -0.8170820474624634], [0.45262831449508667, -0.04241282120347023, 0.5956786870956421, -0.06409791111946106, -0.34406325221061707, 0.4514257609844208, 0.5615948438644409, 0.31011882424354553, -0.5834024548530579, -0.3614763617515564, 0.431109219789505, 0.24263647198677063, 0.5024983286857605, 0.366223007440567, 0.5543114542961121, 0.345950722694397], [-0.06466511636972427, 0.07880095392465591, 0.27282848954200745, 0.2968299388885498, -0.1554020196199417, -0.10996665060520172, 0.4629548192024231, -0.5122376680374146, 0.38740256428718567, -0.0764487013220787, -0.2739139795303345, 0.3220125436782837, 0.31148773431777954, -0.42391443252563477, -0.3539952337741852, 0.2603575885295868], [0.20691345632076263, 0.3184555470943451, 0.22592297196388245, 0.17509251832962036, -0.35208311676979065, 0.2659774124622345, 0.6348183751106262, -0.36730456352233887, 0.194872185587883, -0.12318000942468643, -0.1866232305765152, 0.39449411630630493, 0.35804304480552673, -0.24517996609210968, 0.021252069622278214, 0.4169296324253082], [0.028941242024302483, -0.0013604604173451662, -0.44801604747772217, -0.309991717338562, 0.022372830659151077, 0.3321082293987274, -0.5619646310806274, 0.4035640358924866, -0.4822770059108734, 0.18397752940654755, 0.23282206058502197, -0.17529606819152832, -0.22542978823184967, 0.4336310029029846, 0.20533691346645355, -0.04768448323011398], [0.021058397367596626, -0.09220200777053833, -0.33815038204193115, -0.8622704148292542, -0.4271976947784424, 0.631011962890625, -0.2304965704679489, 0.6178380250930786, -0.9148579835891724, -0.040844231843948364, 0.6972035765647888, -0.30182427167892456, -0.28689441084861755, 1.0604463815689087, 0.6186404824256897, 0.035987693816423416]], [[0.22265809774398804, -0.007728183642029762, -0.1565161645412445, -0.1994241327047348, 0.0841079130768776, -0.039796099066734314, -0.14276111125946045, 0.4166446030139923, 0.7326009273529053, -0.019398320466279984, -0.05835466831922531, -0.6816349029541016, 0.07276639342308044, -0.5634050369262695, 0.21635444462299347, 0.7742875218391418], [-0.0822703093290329, -0.07228367775678635, 0.21382957696914673, 0.17155404388904572, -0.13407687842845917, 0.05156877264380455, 0.02882288210093975, -0.41396552324295044, -0.6346139907836914, -0.095802903175354, -0.015525723807513714, 0.7024345397949219, 0.05192393437027931, 0.5986189842224121, -0.18920761346817017, -0.7250934839248657], [-0.22389385104179382, 0.12305131554603577, -0.02863045036792755, 0.08455921709537506, -0.204915851354599, -0.027906741946935654, -0.0018018783302977681, -0.47573038935661316, -0.938639223575592, 0.04007630795240402, 0.0006273125763982534, 0.5668515563011169, 0.11677340418100357, 0.6548452973365784, -0.14391648769378662, -0.7248659133911133], [0.18957053124904633, -0.07839743793010712, 0.0773424506187439, 0.11975155025720596, 0.1779872179031372, -0.08993685245513916, 0.034172423183918, 0.4654698073863983, 0.9439725875854492, 0.12994420528411865, 0.2222243696451187, -0.5560133457183838, -0.18139074742794037, -0.5486103892326355, -0.15028348565101624, 0.7902572154998779], [-0.25664204359054565, -0.017161915078759193, -0.24231165647506714, -0.03669068217277527, -0.14176978170871735, 0.0833822637796402, -0.3897841274738312, -0.47845327854156494, -0.5659493803977966, 0.13625359535217285, -0.12344104051589966, 0.6088882684707642, -0.23561812937259674, 0.47340190410614014, -0.30488792061805725, -0.7320242524147034], [0.28073087334632874, 0.07276680320501328, 0.15065740048885345, -0.1120956540107727, 0.01705082692205906, -0.03426530584692955, 0.3029315173625946, 0.601902186870575, 0.6175842881202698, -0.3236825466156006, 0.008334487676620483, -0.6326501369476318, 0.1983780711889267, -0.5323131084442139, 0.39381375908851624, 0.8187687397003174], [-0.17611995339393616, 0.08004056662321091, -0.08097732067108154, 0.14544980227947235, -0.19938506186008453, 0.11095520853996277, -0.17592068016529083, -0.40886178612709045, -0.6967261433601379, 0.08806212991476059, -0.09520036727190018, 0.5973223447799683, -0.013876909390091896, 0.6016038656234741, -0.3040049970149994, -0.6704663038253784], [0.2671094536781311, 0.04654034972190857, 0.0897122472524643, -0.08372993767261505, 0.14958235621452332, -0.12271381914615631, 0.19161301851272583, 0.4707322120666504, 0.5747796297073364, 0.025031881406903267, -0.06091510131955147, -0.6976139545440674, 0.2529011070728302, -0.5731349587440491, 0.2878294289112091, 0.8703526258468628], [0.37267714738845825, -0.19058790802955627, -0.0349063016474247, -0.0769181028008461, 0.26078128814697266, -0.02459242008626461, 0.21727976202964783, 0.47453394532203674, 0.6985260248184204, -0.008338738232851028, 0.15679416060447693, -0.48522132635116577, 0.1694856435060501, -0.4551471471786499, 0.1307462751865387, 0.8172873854637146], [0.20605678856372833, -0.08196783065795898, 0.10712146013975143, -0.19798827171325684, 0.12863066792488098, -0.12493628263473511, 0.16269463300704956, 0.6803764700889587, 0.7895444631576538, -0.046694330871105194, 0.09926284849643707, -0.6017817854881287, 0.22410455346107483, -0.7337372899055481, 0.17074307799339294, 0.9208802580833435], [0.4469354450702667, -0.1377059817314148, 0.9462253451347351, 0.11146287620067596, -0.01779434084892273, 0.1904570609331131, 0.561999499797821, 0.4794778823852539, 0.6846169233322144, -0.3108316659927368, 0.14240700006484985, -0.37309029698371887, 0.36262044310569763, -0.594881534576416, 0.7221253514289856, 0.540289580821991], [-0.18021339178085327, -0.19845576584339142, 0.18099282681941986, 0.1125793308019638, 0.27912503480911255, -0.29119253158569336, -0.1814720630645752, -0.6360505819320679, -0.2924431562423706, 0.20979896187782288, 0.09595929086208344, 0.4278518855571747, -0.1531420648097992, 0.28743860125541687, -0.39905792474746704, -0.9348157644271851], [-0.30444586277008057, 0.18994106352329254, -0.07398684322834015, 0.07945898920297623, -0.0720716044306755, 0.07356854528188705, -0.18462367355823517, -0.47550514340400696, -0.6286730766296387, 0.04282793030142784, -0.06154940277338028, 0.5981205105781555, -0.07513602077960968, 0.4932810366153717, -0.3574560880661011, -0.7524670362472534], [-0.3462834060192108, -0.0036373152397572994, -0.5333394408226013, 0.025647073984146118, -0.09396693110466003, 0.040876615792512894, -0.4323504567146301, -0.4098730683326721, -0.6060084700584412, 0.18114504218101501, -0.1343640685081482, 0.49825379252433777, -0.404978483915329, 0.5154899954795837, -0.5777828097343445, -0.9114062190055847], [0.16237866878509521, 0.06524962931871414, -0.0022911932319402695, -0.14048714935779572, 0.05402863398194313, -0.021551771089434624, 0.09272695332765579, 0.43828442692756653, 0.6503697633743286, -0.028192073106765747, 0.09617900103330612, -0.48351240158081055, 0.05056563764810562, -0.355308473110199, 0.09814003854990005, 0.8055737018585205], [0.26810750365257263, -0.07515493780374527, -0.1791052520275116, -0.06731878221035004, 0.0861542597413063, 0.16747581958770752, -0.38956695795059204, 0.29154494404792786, 0.8810250759124756, 0.3694918751716614, 0.030121339485049248, -0.462098091840744, -0.75295490026474, -0.5023601651191711, -0.4281793534755707, 0.5102207660675049]], [[-0.45497357845306396, -0.023239539936184883, -0.37053632736206055, -0.3137620985507965, -0.002497098408639431, -0.34892919659614563, 0.14045368134975433, -0.5298018455505371, -0.39767786860466003, -0.000884149456396699, -0.13557307422161102, 0.0657014548778534, 0.5789655447006226, -0.039846424013376236, 0.2821391224861145, 0.007988449186086655], [0.407166451215744, -0.09647522121667862, 0.21498185396194458, 0.3075752258300781, 0.15086747705936432, 0.26268112659454346, -0.2557797133922577, 0.37105876207351685, 0.28675466775894165, 0.051634352654218674, 0.14933887124061584, -0.19352926313877106, -0.7250813245773315, -0.031492892652750015, -0.3127978444099426, 0.06569214165210724], [0.4321604073047638, -0.0037423328030854464, 0.48606568574905396, 0.21045278012752533, 0.29879891872406006, 0.3502695858478546, -0.13181045651435852, 0.5230933427810669, 0.3348652124404907, -0.04315386712551117, 0.3224851191043854, -0.2982842028141022, -0.7380305528640747, 0.0743286982178688, -0.18398399651050568, -0.1329786479473114], [-0.40594521164894104, -0.014627127908170223, -0.4016215205192566, -0.29167020320892334, -0.15875262022018433, -0.19680054485797882, 0.23167145252227783, -0.45392584800720215, -0.35014671087265015, -0.005358886905014515, -0.21771544218063354, 0.26253223419189453, 0.5038936734199524, 0.10279177129268646, 0.24723336100578308, 0.1841837465763092], [0.6011443734169006, 0.03366012126207352, 0.1565939337015152, 0.3878835439682007, 0.012077722698450089, 0.397199422121048, -0.340304434299469, 0.7110246419906616, 0.6852988600730896, -0.1469852328300476, 0.38954445719718933, -0.24272097647190094, -0.9480400681495667, -0.10081452131271362, -0.16582399606704712, 0.164185032248497], [-0.5106604695320129, 0.01331297867000103, 0.0846773013472557, -0.509986937046051, 0.030825691297650337, -0.3779323399066925, 0.5002843737602234, -0.9300878643989563, -0.6406106948852539, 0.14713363349437714, -0.14335262775421143, 0.2817339301109314, 1.1484029293060303, 0.20912271738052368, 0.29275819659233093, -0.34982237219810486], [0.34593379497528076, 0.06657116860151291, 0.24169626832008362, 0.4179590344429016, 0.007664829026907682, 0.30115726590156555, -0.2448992133140564, 0.5989563465118408, 0.5271579623222351, -0.0034018303267657757, 0.25469088554382324, -0.16681359708309174, -0.8417125940322876, -0.19773279130458832, -0.192473903298378, -0.030807452276349068], [-0.3821178674697876, 0.02938234619796276, -0.22966788709163666, -0.3700873851776123, -0.01591520756483078, -0.45330238342285156, 0.3611566722393036, -0.560239315032959, -0.4279070794582367, -0.019279519096016884, -0.19485259056091309, 0.13874931633472443, 0.8031054735183716, 0.03248551860451698, 0.2714718282222748, -0.12037872523069382], [-0.4149877727031708, -0.08545917272567749, -0.2687828242778778, -0.2946254312992096, -0.08773089945316315, -0.3276984989643097, 0.20041446387767792, -0.563713788986206, -0.47078320384025574, 0.14079314470291138, -0.349025160074234, 0.2594791650772095, 0.8071258664131165, 0.2063727229833603, 0.3617890775203705, -0.20898550748825073], [-0.7095580101013184, 0.07078569382429123, -0.16665251553058624, -0.33566150069236755, -0.15497224032878876, -0.5157365202903748, 0.367315411567688, -0.788726806640625, -0.5801082253456116, 0.07493337988853455, -0.30379432439804077, 0.19749417901039124, 1.046819806098938, 0.2761816680431366, 0.178355872631073, -0.12982888519763947], [-0.7324722409248352, -0.10904837399721146, 0.6435156464576721, -0.3673825263977051, 0.15395741164684296, -0.7317423820495605, 0.8743941783905029, -1.3592149019241333, -0.834506630897522, 0.18515163660049438, -0.1875327080488205, 0.5796071290969849, 1.5033020973205566, 0.41423872113227844, 0.3672792315483093, -0.9183100461959839], [0.5962732434272766, 0.03415573760867119, 0.13887350261211395, 0.5374818444252014, -0.09017178416252136, 0.32108473777770996, -0.6064711213111877, 1.1463738679885864, 0.7032134532928467, -0.27751410007476807, -0.07624766230583191, -0.18184655904769897, -1.0873010158538818, -0.24272729456424713, -0.3055694103240967, 0.15373589098453522], [0.3975551724433899, 0.05430915951728821, 0.23435935378074646, 0.24229936301708221, 0.11919229477643967, 0.35258665680885315, -0.3578380048274994, 0.7440117597579956, 0.39547035098075867, -0.08412127941846848, 0.24613741040229797, -0.15179868042469025, -0.7699629068374634, -0.2163444459438324, -0.2264803647994995, 0.0368218719959259], [0.6112672090530396, -0.11682843416929245, -0.19958923757076263, 0.44683411717414856, -0.06516848504543304, 0.597048819065094, -0.49155426025390625, 0.9761503338813782, 0.6954130530357361, -0.20748011767864227, 0.15081144869327545, -0.259133517742157, -1.1794925928115845, -0.4415282905101776, -0.3020417392253876, 0.4864015281200409], [-0.4192921221256256, 0.13365934789180756, -0.36235448718070984, -0.3631353974342346, -0.18384520709514618, -0.33712536096572876, 0.11726514250040054, -0.46815061569213867, -0.4201008677482605, -0.015117667615413666, -0.34463444352149963, 0.1982409954071045, 0.5476516485214233, 0.2239014357328415, 0.12349428981542587, 0.17989078164100647], [-0.1889539211988449, 0.0643993616104126, -0.7119428515434265, -0.2164604514837265, -0.19178707897663116, -0.06394073367118835, 0.0051473528146743774, -0.13124233484268188, 0.22945661842823029, 0.003056150395423174, -0.36078497767448425, -0.035079728811979294, 0.24177056550979614, -0.06786180287599564, 0.34034109115600586, 0.5218227505683899]], [[0.14890921115875244, -0.05554196983575821, 0.07828783988952637, 0.09335654973983765, -0.09733766317367554, -0.0578496977686882, -0.16645309329032898, -0.17414307594299316, -0.12792837619781494, 0.22406816482543945, 0.0859358012676239, 0.06889235973358154, -0.06135914847254753, 0.028789427131414413, -0.18831737339496613, 0.308007150888443], [-0.16549351811408997, 0.14525826275348663, -0.13680602610111237, -0.12312810122966766, 0.02306634932756424, 0.17918317019939423, -0.010211976245045662, 0.05402645841240883, 0.21573428809642792, -0.10943802446126938, -0.2560025453567505, 0.11951500177383423, 0.08535358309745789, -0.24119386076927185, 0.17813314497470856, -0.14926999807357788], [-0.026590323075652122, 0.05680417641997337, -0.060616347938776016, -0.032725464552640915, 0.04756204038858414, -0.0028740419074892998, 0.2156216949224472, -0.014869702979922295, 0.18299856781959534, -0.3688793480396271, 0.02369042858481407, 0.08377473801374435, -0.09301570802927017, -0.08657708764076233, 0.23938928544521332, -0.42006829380989075], [-0.1798347532749176, -0.049420926719903946, -0.3392776846885681, 0.009560054168105125, 0.15303801000118256, -0.05245341360569, -0.33380118012428284, 0.047749727964401245, -0.3029864430427551, 0.29114750027656555, -0.19861607253551483, -0.28338608145713806, 0.337942898273468, -0.0037488846573978662, -0.05174490436911583, 0.500469982624054], [-0.5699889659881592, 0.1526722013950348, -0.5615354776382446, -0.40745192766189575, 0.03673066571354866, 0.08771675825119019, -0.25811558961868286, 0.012707354500889778, -0.06201102212071419, -0.27118778228759766, -0.35499241948127747, -0.11970117688179016, 0.6755284070968628, -0.25920942425727844, 0.3702651262283325, 0.04435974359512329], [0.7872363328933716, -0.3850610852241516, 1.1928300857543945, 0.7065747380256653, -0.10390941053628922, -0.005118172615766525, 0.5306105613708496, -0.14800909161567688, 0.04753255844116211, 0.16128374636173248, 0.43580910563468933, 0.20109833776950836, -0.9810652136802673, 0.6521605849266052, -0.5918732285499573, -0.1433464139699936], [-0.13648971915245056, 0.18568134307861328, -0.22782407701015472, -0.30940377712249756, -0.01609656773507595, -0.0014013557229191065, 0.010709863156080246, 0.11107156425714493, 0.0992550328373909, -0.32576215267181396, -0.12020248174667358, 0.09328094124794006, 0.08836659044027328, -0.14617834985256195, 0.33093538880348206, -0.13044805824756622], [0.26090875267982483, -0.20906491577625275, 0.3911835849285126, 0.2745550572872162, 0.03192916885018349, -0.09555685520172119, 0.026987357065081596, 0.01788022741675377, -0.17541539669036865, 0.31407907605171204, 0.11106901615858078, -0.02194812335073948, -0.3018302619457245, 0.217204749584198, -0.4098508059978485, 0.22383728623390198], [0.323952853679657, -0.21364055573940277, 0.12690991163253784, 0.1615384817123413, -0.06873585283756256, -0.0569005161523819, -0.05588947609066963, -0.13144372403621674, -0.14789117872714996, 0.15886466205120087, 0.12862274050712585, -0.06756424903869629, -0.04855567216873169, 0.08914916962385178, -0.20964296162128448, 0.12999854981899261], [0.5067158937454224, -0.004112930037081242, 0.6599172949790955, 0.3652052581310272, -0.10863415896892548, 0.05736764892935753, 0.12965868413448334, -0.12975537776947021, -0.007821689359843731, 0.24556587636470795, 0.3139421343803406, 0.09769802540540695, -0.5729708075523376, 0.4474944770336151, -0.5572485327720642, 0.20816773176193237], [1.0592544078826904, -0.39446860551834106, 2.1382105350494385, 1.0673253536224365, -0.12693338096141815, 0.13229697942733765, 0.5429901480674744, -0.3036644756793976, 0.23254597187042236, 0.12544497847557068, 0.5346044898033142, 0.3556410074234009, -1.5999394655227661, 0.9327666759490967, -0.8820818066596985, -0.43357208371162415], [-1.10726797580719, 0.3534788191318512, -1.7310501337051392, -0.8850772380828857, 0.3812575340270996, 0.1770348995923996, -0.6357381343841553, 0.2705538272857666, 0.03313501551747322, -0.24726413190364838, -0.722793459892273, -0.3756842315196991, 1.3399308919906616, -0.8523544669151306, 0.6446263790130615, -0.06911534070968628], [-0.2836291193962097, 0.04247649013996124, -0.34340375661849976, -0.24031706154346466, -0.10713396966457367, -0.0486426018178463, 0.01026473380625248, 0.013850482180714607, 0.21068042516708374, -0.30476266145706177, -0.0914197564125061, -0.11375971883535385, 0.14626169204711914, -0.334483802318573, 0.25633111596107483, -0.2342037558555603], [-0.7467766404151917, 0.30437061190605164, -1.133988857269287, -0.7475408911705017, 0.16584733128547668, -0.02466418780386448, -0.3037034571170807, 0.12548953294754028, -0.11569856852293015, -0.023172881454229355, -0.5122899413108826, -0.27745312452316284, 1.0804158449172974, -0.5400809049606323, 0.6156311631202698, 0.12298882752656937], [0.16842877864837646, -0.1534314602613449, 0.35451310873031616, 0.21468299627304077, -0.11701980978250504, -0.14924199879169464, -0.10708177089691162, -0.1529931128025055, -0.22760912775993347, 0.25129038095474243, 0.26517441868782043, -0.07832863181829453, -0.07284517586231232, 0.24398398399353027, -0.23403994739055634, 0.16978050768375397], [-0.6096890568733215, 0.21859902143478394, -0.9343632459640503, -0.4011637270450592, -0.16123783588409424, -0.14777374267578125, -0.346224308013916, -0.06425903737545013, -0.22258736193180084, 0.2672136425971985, -0.2564060688018799, -0.28681710362434387, 0.5706905722618103, -0.2046433538198471, 0.1880328208208084, 0.6130488514900208]], [[0.2867821753025055, 0.005640101153403521, 0.22823786735534668, 0.21368075907230377, 0.03877527639269829, -0.1380072683095932, -0.12327521294355392, -0.11034408211708069, 0.03718120977282524, -0.029909620061516762, 0.2054973691701889, 0.07749025523662567, -0.3069159984588623, 0.0987667590379715, -0.08646773546934128, 0.26131704449653625], [-0.2262980043888092, 0.015386229380965233, -0.04548555612564087, -0.18024896085262299, 0.010402041487395763, 0.24804000556468964, -0.05849209055304527, -0.042389459908008575, 0.010123463347554207, 0.10600961744785309, -0.11918248981237411, -0.1883760541677475, 0.35172170400619507, -0.02888108417391777, -0.000427457969635725, -0.07308182120323181], [-0.24803386628627777, 0.08502690494060516, -0.22160935401916504, -0.11556380987167358, 0.22334444522857666, 0.17303112149238586, 0.012524754740297794, 0.09171585738658905, -0.07121726125478745, -0.1265566051006317, -0.24819153547286987, -0.2055591195821762, 0.46600478887557983, -0.1193913072347641, 0.18551209568977356, -0.4192328453063965], [0.23017768561840057, -0.08530620485544205, 0.20658579468727112, 0.27207618951797485, -0.25007739663124084, -0.24818065762519836, 0.04234088212251663, -0.061294689774513245, -0.18009108304977417, 0.37925705313682556, 0.264852911233902, -0.021269651129841805, -0.3501704931259155, 0.26664426922798157, -0.13651032745838165, 0.47870275378227234], [-0.00432281568646431, 0.07142503559589386, 0.12154000997543335, 0.019481154158711433, -0.008616774342954159, 0.24709896743297577, 0.018416691571474075, -0.010599305853247643, -0.05391182750463486, 0.08507921546697617, -0.009464159607887268, -0.20551200211048126, 0.11953312903642654, 0.11189597100019455, -0.1227583959698677, 0.1234678104519844], [0.11076551675796509, -0.04386056959629059, -0.2527419626712799, -0.0540948212146759, 0.33592525124549866, -0.291029691696167, -0.09137248247861862, -0.12780636548995972, 0.31227192282676697, -0.33874577283859253, -0.16045543551445007, 0.3576308488845825, 0.2049121856689453, -0.20159298181533813, 0.34921544790267944, -0.44760507345199585], [-0.1611345261335373, -0.007569408975541592, -0.05391211807727814, -0.0897509902715683, 0.11008191108703613, 0.3217627704143524, -0.07728134840726852, 0.014368420466780663, 0.02730654366314411, 0.059390563517808914, -0.20872953534126282, -0.1930818408727646, 0.32784590125083923, -0.11606863141059875, 0.0947188287973404, -0.1652085781097412], [0.12463175505399704, 0.09857676923274994, -0.08251027762889862, 0.15771396458148956, 0.11576642841100693, -0.16018661856651306, -0.03255651891231537, -0.11326856911182404, 0.0409088134765625, -0.06980232894420624, 0.15906447172164917, 0.2860060930252075, -0.14346347749233246, -0.04510274901986122, 0.05137383192777634, 0.16764207184314728], [0.28263595700263977, -0.05030994862318039, -0.0865139588713646, 0.10013856738805771, 0.018689250573515892, -0.15928277373313904, 0.019277838990092278, 0.03786168992519379, -0.04294257238507271, 0.010795217007398605, 0.19073434174060822, 0.12167926877737045, -0.12690651416778564, 0.19761277735233307, -0.09170492738485336, 0.0410194918513298], [0.14509393274784088, 0.011272680014371872, -0.013223910704255104, -0.002018101280555129, 0.13679134845733643, -0.18582256138324738, -0.2048729807138443, -0.02445829287171364, 0.09895654767751694, -0.176590234041214, 0.11319832503795624, 0.33427155017852783, -0.2874690890312195, 0.010435914620757103, 0.009838233701884747, 0.011908125132322311], [-0.37626245617866516, 0.34460216760635376, -0.1076720580458641, -0.2812808156013489, 0.3203628957271576, 0.12342830747365952, -0.19105248153209686, 0.11365178972482681, 0.5114594101905823, -0.5065505504608154, -0.3827207684516907, 0.06991143524646759, 0.2584841847419739, -0.15075741708278656, 0.3969789743423462, -0.7394160628318787], [-0.13497965037822723, -0.09377028793096542, 0.2072247415781021, 0.22727848589420319, -0.5882821083068848, 0.20472735166549683, 0.04853885620832443, 0.20678658783435822, -0.2900446951389313, 0.5677064657211304, -0.16717806458473206, -0.43197113275527954, -0.051789674907922745, 0.2452792227268219, -0.6510623097419739, 0.6440399885177612], [-0.09168783575296402, 0.13389168679714203, -0.055747129023075104, -0.18092358112335205, -0.1229766309261322, 0.21164679527282715, 0.08155307918787003, 0.00922046136111021, -0.030107084661722183, 0.09945731610059738, -0.04944081977009773, -0.09927202016115189, 0.1491311639547348, -0.07775873690843582, 0.09990321099758148, 0.02122884802520275], [0.08073582500219345, -0.08288021385669708, 0.15028508007526398, 0.18782034516334534, -0.1290016770362854, 0.07683015614748001, 0.1761881411075592, 0.0796412006020546, -0.21800951659679413, 0.20648227632045746, 0.20803633332252502, -0.23415076732635498, -0.0770799070596695, 0.019580263644456863, -0.16906823217868805, 0.5561844706535339], [0.1032349094748497, -0.09923896193504333, 0.05775278061628342, 0.18473729491233826, 0.12674221396446228, -0.2701239287853241, -0.12791839241981506, -0.2207174003124237, 0.019503097981214523, -0.07344512641429901, 0.2652871906757355, 0.2575259506702423, -0.1825687289237976, 0.025135817006230354, -0.06654766947031021, 0.048087820410728455], [0.4057505428791046, -0.13511258363723755, 0.34637898206710815, 0.14533057808876038, -0.5254600048065186, -0.21368031203746796, 0.20079688727855682, -0.2404806911945343, -0.2564668357372284, 0.579185962677002, 0.3141597807407379, -0.10806210339069366, -0.5389676094055176, 0.6105285882949829, -0.3136684000492096, 0.8347664475440979]], [[0.2526867687702179, -0.04716482385993004, 0.1301085650920868, -0.17625443637371063, 0.2821652591228485, -0.30673277378082275, -0.3023855686187744, -0.21810661256313324, 0.020409442484378815, -0.17632193863391876, 0.37286433577537537, 0.8502478003501892, -0.08358106762170792, -0.2838056981563568, 0.503828227519989, -0.16540098190307617], [-0.29489508271217346, -0.06449871510267258, -0.1769339144229889, 0.07006784528493881, -0.33694225549697876, 0.2037990242242813, 0.18369455635547638, 0.2940840721130371, 0.12515215575695038, 0.31504499912261963, -0.19221939146518707, -0.788672149181366, 0.0012898585991933942, 0.10324453562498093, -0.45566895604133606, 0.11400164663791656], [-0.41759392619132996, -0.11667134612798691, 0.024915505200624466, 0.1954319030046463, -0.29715269804000854, 0.1481628268957138, 0.17844673991203308, 0.3197804391384125, 0.025327512994408607, 0.07098926603794098, -0.29344427585601807, -0.7669031023979187, 0.30228251218795776, 0.32131463289260864, -0.47655388712882996, 0.1667025089263916], [0.13827717304229736, 0.22974805533885956, 0.10297328233718872, -0.4047931134700775, -0.009295022115111351, 0.058818232268095016, -0.09305742383003235, -0.293720006942749, 0.2619670033454895, -0.16094160079956055, 0.28623220324516296, 0.8860532641410828, -0.37626513838768005, -0.03483060374855995, 0.44355806708335876, 0.1110280305147171], [-0.36071252822875977, -0.19631220400333405, -0.2229481339454651, 0.0005384428659453988, -0.41112658381462097, 0.21271181106567383, 0.38092708587646484, 0.06088413670659065, -0.09988953173160553, 0.32958027720451355, -0.07498491555452347, -0.7241161465644836, 0.04017719626426697, 0.31239351630210876, -0.3138127624988556, 0.25745922327041626], [0.15507416427135468, 0.03982885554432869, 0.1859486848115921, 0.33128786087036133, 0.4639565050601959, -0.21786919236183167, -0.2639178931713104, 0.30815041065216064, -0.0405736118555069, -0.21656538546085358, 0.16290782392024994, 0.4172596037387848, 0.2662406861782074, -0.31262636184692383, 0.18730051815509796, -0.5853325724601746], [-0.37801575660705566, -0.08748766034841537, -0.07325591146945953, 0.06350193917751312, -0.3094630539417267, 0.14652441442012787, 0.14791294932365417, 0.1679072380065918, 0.049926720559597015, 0.09185519814491272, -0.2784597873687744, -0.675605833530426, 0.1988624930381775, 0.29362213611602783, -0.4903455972671509, 0.16673777997493744], [0.3829881548881531, 0.09022293239831924, 0.047023043036460876, 0.06284086406230927, 0.37906432151794434, -0.15783610939979553, -0.2060231864452362, -0.2327459305524826, 0.12914060056209564, -0.15049698948860168, 0.26972782611846924, 0.6713366508483887, -0.04459391161799431, -0.2644529342651367, 0.3051197826862335, -0.08763880282640457], [0.35185396671295166, -0.0018295305781066418, 0.11918310821056366, -0.112418994307518, 0.14205428957939148, -0.07093405723571777, -0.19780564308166504, -0.18607719242572784, 0.12099618464708328, -0.15436597168445587, 0.27817678451538086, 0.733626127243042, -0.005126846954226494, -0.23884624242782593, 0.3233540952205658, -0.17857462167739868], [0.433559387922287, 0.28447359800338745, 0.05442964285612106, -0.09276389330625534, 0.5219594836235046, -0.28799527883529663, -0.3035433888435364, -0.18980775773525238, 0.08365531265735626, -0.17657946050167084, 0.30358484387397766, 0.8088065385818481, -0.24223744869232178, -0.32867249846458435, 0.4643888771533966, -0.3247745931148529], [-0.059741076081991196, 0.19444522261619568, 0.3508628010749817, 0.16089044511318207, 0.39828991889953613, 0.3538600504398346, -0.3018343150615692, 0.3272932767868042, 0.2327529937028885, -0.23845882713794708, -0.024378210306167603, 0.2715291380882263, 0.3645733892917633, -0.24379582703113556, 0.2352333962917328, -0.6311722993850708], [-0.5152931809425354, -0.031613968312740326, -0.16837264597415924, -0.3760356307029724, -0.8261144161224365, 0.4639805257320404, 0.5459231734275818, -0.5218851566314697, 0.2426653504371643, 0.40777987241744995, -0.18864962458610535, -0.23232674598693848, -0.682624101638794, 0.41244029998779297, -0.10318051278591156, 0.4659672677516937], [-0.24975092709064484, -0.05841594561934471, -0.21416959166526794, 0.11936845630407333, -0.16325202584266663, 0.04772628843784332, 0.2675248384475708, 0.24833226203918457, -0.08894269913434982, 0.3280569911003113, -0.15015998482704163, -0.6599858999252319, 0.1297837495803833, 0.13247258961200714, -0.5582782626152039, 0.21796488761901855], [0.021086644381284714, -0.1869836449623108, -0.13258925080299377, -0.03690773993730545, -0.39945366978645325, -0.12650172412395477, 0.26171135902404785, -0.05644109100103378, -0.0864204540848732, 0.11131440848112106, 0.08530504256486893, -0.49113592505455017, -0.11151266098022461, 0.1909014731645584, -0.30850255489349365, 0.4260956346988678], [0.4364190399646759, 0.036441948264837265, 0.2946441173553467, 0.0714593231678009, 0.4217485785484314, -0.37177950143814087, -0.2131163626909256, -0.04066767543554306, 0.06527996808290482, -0.13849301636219025, 0.3299312889575958, 0.7723749279975891, -0.050726402550935745, -0.23043207824230194, 0.4206584095954895, -0.2046385556459427], [0.2845522165298462, 0.12542824447155, -0.05008677393198013, -0.5001033544540405, 0.038561493158340454, -0.19892144203186035, -0.021728403866291046, -0.4005839228630066, 0.09441567957401276, 0.12958213686943054, 0.4939950704574585, 0.8469521999359131, -0.4347752034664154, -0.21221284568309784, 0.4492208957672119, 0.274774432182312]], [[0.5230655074119568, 0.009802745655179024, 1.047544240951538, 0.1592566967010498, 0.23071345686912537, -0.7138478755950928, -0.826569676399231, 0.39668160676956177, -0.27511951327323914, 0.01128856185823679, 0.28404998779296875, 1.2817516326904297, 0.23795558512210846, -0.8900205492973328, 0.6010716557502747, -0.5592023730278015], [-0.5146387815475464, -0.14943353831768036, -0.9488344192504883, -0.20005865395069122, -0.07058767974376678, 0.7735236287117004, 0.7271494269371033, -0.6309508085250854, 0.3698298931121826, -0.2148575633764267, -0.2329293042421341, -1.426995873451233, -0.40661734342575073, 0.914244532585144, -0.7156279683113098, 0.6050896644592285], [-0.5484762787818909, -0.4853629171848297, -1.244561791419983, 0.0020189492497593164, -0.20206035673618317, 0.9904934763908386, 1.0698469877243042, -0.5141105055809021, 0.4259374439716339, -0.39738041162490845, -0.6168724894523621, -1.7603588104248047, -0.2743614912033081, 1.4262076616287231, -1.0690003633499146, 0.3791848123073578], [0.5549775958061218, 1.17097806930542, 1.0945208072662354, -0.7257430553436279, -0.220567524433136, -0.731378436088562, -1.3022589683532715, -0.12153501808643341, -0.3419833779335022, 0.8951830267906189, 0.5774883031845093, 2.0176024436950684, -0.1666325479745865, -1.5167863368988037, 0.9224830865859985, 0.06254646182060242], [-0.1425660103559494, 0.39748576283454895, -1.0405552387237549, -0.4149762690067291, -0.14495955407619476, 0.5828401446342468, 0.702587366104126, -1.0703108310699463, 0.24193300306797028, 0.036753010004758835, -0.13308319449424744, -1.2963041067123413, -0.5179400444030762, 0.9353675842285156, -0.6324986219406128, 0.8125647902488708], [-0.07146494835615158, -1.2029718160629272, 1.0706053972244263, 0.9173511862754822, -0.0950494110584259, -0.3222132921218872, -0.3500973582267761, 1.4902180433273315, -0.37870433926582336, -0.40184471011161804, -0.1708768904209137, 0.5846052765846252, 1.0035139322280884, -0.6372750997543335, 0.3954063951969147, -1.0789613723754883], [-0.4155031442642212, -0.044042881578207016, -1.2164204120635986, -0.25205132365226746, -0.23246857523918152, 0.739640474319458, 0.9106161594390869, -0.628363847732544, 0.21284787356853485, -0.12773238122463226, -0.3571127653121948, -1.2944672107696533, -0.31314271688461304, 1.0086026191711426, -0.894047737121582, 0.5463716983795166], [0.4529763460159302, -0.05164538696408272, 1.0875579118728638, 0.4082152247428894, 0.09029462188482285, -0.8260416984558105, -0.6831350922584534, 0.7970919609069824, -0.4945707321166992, -0.14529062807559967, 0.10620737075805664, 1.2024719715118408, 0.49190154671669006, -1.0170258283615112, 0.8013589382171631, -0.7864156365394592], [0.48382052779197693, 0.24570916593074799, 1.1245673894882202, 0.19368810951709747, 0.13638906180858612, -0.5914012789726257, -0.8576939105987549, 0.5138056874275208, -0.24950432777404785, 0.1871722936630249, 0.20283587276935577, 1.5315223932266235, 0.22011150419712067, -1.1792505979537964, 0.5981656908988953, -0.4897650480270386], [0.3423152565956116, -0.24694116413593292, 1.283145546913147, 0.45537319779396057, 0.1742720901966095, -0.8559494018554688, -0.9997269511222839, 1.175318717956543, -0.5578733086585999, -0.027605261653661728, 0.2804272472858429, 1.391739010810852, 0.7887125611305237, -1.3332465887069702, 0.8749504685401917, -0.9297147989273071], [-0.8545323014259338, -0.5360598564147949, 1.1292312145233154, 0.202894926071167, -0.8536279201507568, 0.40554341673851013, -0.2892754077911377, 1.060719609260559, -0.08442258089780807, 0.40502092242240906, -0.7930060029029846, 0.4526834785938263, 0.5661326050758362, -0.8475708961486816, 0.5739479660987854, -0.9069746136665344], [0.13934890925884247, 2.479994058609009, -1.147688865661621, -1.6439523696899414, -0.028244556859135628, 0.11816761642694473, -0.2621341347694397, -1.8450820446014404, 0.5726583003997803, 0.9971485137939453, 0.6156277060508728, 0.13838809728622437, -1.4844324588775635, 0.21667888760566711, 0.048966553062200546, 1.5732980966567993], [-0.38150554895401, -0.29132312536239624, -1.1699004173278809, -0.18817183375358582, -0.11601059138774872, 0.7969077229499817, 1.0333938598632812, -0.7871977686882019, 0.33367806673049927, -0.2373427152633667, -0.3193277418613434, -1.4443992376327515, -0.3075796067714691, 1.1454535722732544, -0.8468309640884399, 0.7475120425224304], [0.22992202639579773, 0.5338878035545349, -1.262009620666504, -0.5266433358192444, 0.40920791029930115, 0.2562297284603119, 0.4685719907283783, -1.2171287536621094, 0.21733252704143524, -0.08651375770568848, 0.3881660997867584, -0.8981986045837402, -0.5762348771095276, 0.8900692462921143, -0.5211248397827148, 1.0035052299499512], [0.5268834233283997, -0.13877126574516296, 1.0140141248703003, 0.5492197275161743, 0.28055915236473083, -0.7889394164085388, -0.7810587286949158, 0.7071900367736816, -0.3873785436153412, -0.08066911995410919, 0.19729048013687134, 1.0822726488113403, 0.3803326189517975, -0.9757566452026367, 0.7278919816017151, -0.7005435824394226], [1.0696426630020142, 1.1477265357971191, 0.7106153964996338, -0.8814610838890076, 0.1276867389678955, -0.829416811466217, -1.034916639328003, -0.2817046642303467, -0.31396663188934326, 0.9310958385467529, 0.8731139898300171, 2.1668765544891357, -0.1471739411354065, -1.1295334100723267, 0.8401714563369751, 0.5368975400924683]], [[-0.5309417247772217, -0.4480625092983246, -0.5521003007888794, -0.06381157785654068, 0.19060032069683075, 0.8597051501274109, 0.8531838059425354, 0.03465583547949791, 0.1359504759311676, -0.5112692713737488, -0.744517982006073, -1.6891525983810425, 0.012771936133503914, 1.450629472732544, -0.9100282192230225, 0.23754441738128662], [0.5800150036811829, 0.2725338041782379, 0.5981822609901428, 0.16582225263118744, -0.16931304335594177, -0.9591723084449768, -0.9949256181716919, 0.06625288724899292, -0.42124640941619873, 0.3235061466693878, 0.6772726774215698, 1.5607014894485474, -0.07855715602636337, -1.3318785429000854, 0.9958651661872864, -0.24459336698055267], [0.5205701589584351, 0.6542307734489441, 0.6532033085823059, -0.27543577551841736, -0.7228251695632935, -0.8587079048156738, -0.999286413192749, -0.11300025880336761, -0.23471654951572418, 0.8973889350891113, 0.8957406282424927, 2.172607898712158, -0.37853071093559265, -1.796116590499878, 1.4866138696670532, -0.14279082417488098], [-0.17909148335456848, -0.7553710341453552, -0.7548856139183044, 1.0105491876602173, 1.5913060903549194, 0.33304455876350403, 1.1177500486373901, 0.5526083707809448, -0.06816715747117996, -1.8364402055740356, -0.8878605365753174, -2.8128552436828613, 0.9481326341629028, 1.9243906736373901, -1.6522444486618042, -0.20211806893348694], [0.9977068305015564, -0.6397188305854797, 0.8547760844230652, 1.2013121843338013, 0.8459635972976685, -1.68728506565094, -0.8524931073188782, 0.8643901944160461, -1.1129260063171387, -1.0719342231750488, 0.9364442229270935, 1.3974257707595825, 0.9083060026168823, -1.167853593826294, 0.8347663879394531, -0.73643559217453], [-1.2089461088180542, 1.1479604244232178, -0.5985005497932434, -1.8175519704818726, -2.0737311840057373, 2.238710880279541, 0.6556379795074463, -1.1819202899932861, 1.3613221645355225, 2.0662763118743896, -1.1222656965255737, -0.45841673016548157, -1.5998278856277466, 0.6136898994445801, -0.2799225449562073, 0.7308863401412964], [0.6932488679885864, 0.01748972199857235, 0.8033809065818787, 0.5011851191520691, 0.010457289405167103, -1.109373688697815, -0.8366705775260925, 0.44791626930236816, -0.5019572973251343, 0.12012587487697601, 0.7289824485778809, 1.5625548362731934, 0.1087479218840599, -1.5447883605957031, 0.8989186882972717, -0.36420494318008423], [-0.8261933922767639, 0.08224861323833466, -0.710503339767456, -0.6687356233596802, -0.44075849652290344, 1.096429705619812, 0.9107058048248291, -0.4607108533382416, 0.6131007671356201, 0.36108487844467163, -0.7330337166786194, -1.4664150476455688, -0.41835424304008484, 1.2407023906707764, -0.8586549162864685, 0.46582579612731934], [-0.7012661695480347, 0.05375486984848976, -0.8726751804351807, -0.4245946407318115, 0.03787023946642876, 1.0420827865600586, 0.9482336640357971, -0.47788965702056885, 0.44181832671165466, 0.0023128753527998924, -0.847805917263031, -1.8171714544296265, -0.13822734355926514, 1.4962172508239746, -0.92722487449646, 0.42678961157798767], [-1.0621505975723267, 0.5265751481056213, -1.1742018461227417, -0.9022360444068909, -0.7197167277336121, 1.6765953302383423, 0.8611307144165039, -0.7479925155639648, 1.1185057163238525, 0.513687789440155, -1.0687295198440552, -1.7958210706710815, -0.6461039185523987, 1.630286693572998, -1.1578773260116577, 0.9409283995628357], [-2.294494152069092, 3.7007322311401367, -1.235092282295227, -3.3754987716674805, -2.7034406661987305, 3.498833179473877, 0.5931506156921387, -3.0858161449432373, 2.5068304538726807, 3.6317033767700195, -1.2261924743652344, -0.9441676139831543, -3.121628761291504, 1.1869018077850342, -0.42292770743370056, 2.0206451416015625], [1.4327458143234253, -0.05409957841038704, 0.09352809935808182, 1.513824462890625, 2.9822542667388916, -2.2785298824310303, -0.3411925137042999, 0.6161611080169678, -1.2054411172866821, -2.5369458198547363, 1.1657828092575073, -0.6170808672904968, 1.6487306356430054, 0.17901752889156342, -0.47056904435157776, -0.45297306776046753], [0.6732531785964966, -0.3175664246082306, 0.8804369568824768, 0.5564356446266174, 0.06651505082845688, -1.3327133655548096, -0.9670284986495972, 0.48658788204193115, -0.6447193622589111, -0.19342169165611267, 0.9256544709205627, 2.0207724571228027, 0.2707364559173584, -1.5800524950027466, 1.0485488176345825, -0.45774978399276733], [1.4433923959732056, -1.8649680614471436, 1.0815486907958984, 2.130680561065674, 1.6167353391647339, -2.3234853744506836, -0.5744888782501221, 1.787899374961853, -1.5150471925735474, -2.1590466499328613, 1.1908988952636719, 1.0242468118667603, 1.6788486242294312, -1.181009292602539, 0.6138224601745605, -1.2005044221878052], [-0.508272647857666, -0.2677888870239258, -0.6138436198234558, -0.259735643863678, -0.23911957442760468, 1.0210970640182495, 0.7477303147315979, 0.010015000589191914, 0.31421348452568054, -0.22801338136196136, -0.7192032337188721, -1.46384859085083, -0.027755076065659523, 1.3036481142044067, -0.9541475772857666, 0.17965932190418243], [0.5195662379264832, -2.395528793334961, -0.22745278477668762, 2.6352155208587646, 2.7804312705993652, -0.732154369354248, 1.0382105112075806, 1.7584422826766968, -1.021079182624817, -3.356005907058716, -0.33756139874458313, -2.175516128540039, 1.9136903285980225, 1.4046077728271484, -1.246081829071045, -1.3622485399246216]], [[-0.1240086555480957, 0.12385308742523193, -0.10253825783729553, 0.09566813707351685, -0.004599094390869141, -0.0903700590133667, 0.03166067600250244, -0.0381547212600708, -0.10927510261535645, 0.11317598819732666, -0.03140935301780701, 0.11890029907226562, 0.036070287227630615, 0.11433714628219604, 0.07190024852752686, -0.05998697876930237], [0.03346279263496399, 0.11717444658279419, -0.06469672918319702, 0.06254646182060242, -0.0004247128963470459, 0.062278300523757935, -0.1006651520729065, 0.056570082902908325, 0.004028975963592529, -0.04517316818237305, -0.027886152267456055, 0.0621926486492157, 0.015945255756378174, 0.029426872730255127, 0.10723400115966797, -0.008143633604049683], [-0.07584017515182495, -0.09358051419258118, 0.006025910377502441, 0.08267539739608765, 0.01355627179145813, -0.0799761712551117, 0.0713331401348114, -0.06793820858001709, 0.11914604902267456, -0.07495936751365662, 0.0019539296627044678, -0.1028779149055481, -0.024394959211349487, 0.09098082780838013, -0.03756231069564819, -0.004473686218261719], [0.10545513033866882, -0.08737790584564209, -0.07281127572059631, 0.1097511351108551, 0.09399592876434326, -0.07692593336105347, 0.006154000759124756, 0.11876299977302551, 0.07642349600791931, -0.01919570565223694, -0.1020834743976593, 0.035330772399902344, -0.055838942527770996, -0.0788167417049408, 0.06727162003517151, -0.10277751088142395], [-0.03253510594367981, -0.056840717792510986, -0.10042792558670044, -0.04008889198303223, 0.06875631213188171, -0.03519362211227417, 0.06927093863487244, 0.03132012486457825, 0.005862593650817871, 0.05704161524772644, -0.04763719439506531, 0.013731032609939575, 0.010882705450057983, -0.0076760053634643555, 0.003998130559921265, -0.06976071000099182], [0.08713597059249878, -0.04446229338645935, 0.10917255282402039, 0.011803627014160156, 0.032642900943756104, -0.007316768169403076, 0.07510504126548767, -0.060336530208587646, 0.06752797961235046, 0.09444725513458252, -0.013204008340835571, 0.053813159465789795, -0.049419403076171875, -0.10763078927993774, 0.044935017824172974, 0.08772897720336914], [0.09851628541946411, -0.03870949149131775, -0.06135505437850952, 0.005395323038101196, -0.05664101243019104, -0.1133599579334259, 0.03556853532791138, 0.12164688110351562, 0.020500004291534424, 0.09042930603027344, 0.1193884015083313, -0.11466595530509949, -0.05996429920196533, -0.12074041366577148, 0.07722580432891846, 0.07108619809150696], [-0.030363351106643677, 0.10046663880348206, 0.0740397572517395, -0.1238798201084137, 0.10300084948539734, 0.11223572492599487, 0.029200375080108643, -0.01787334680557251, -0.12060955166816711, -0.0685986876487732, -0.03082728385925293, -0.09532776474952698, -0.00017178058624267578, 0.004705160856246948, -0.043758928775787354, -0.11111965775489807], [0.06478738784790039, -0.06782954931259155, 0.042457520961761475, -0.05690419673919678, 0.051757752895355225, 0.06808847188949585, 0.12414956092834473, 0.10451152920722961, 0.03541851043701172, -0.015350520610809326, 0.019918173551559448, 0.11538922786712646, -0.0870262086391449, -0.06787791848182678, -0.09437179565429688, 0.06485050916671753], [-0.0017163455486297607, 0.09990283846855164, -0.05000320076942444, 0.1172945499420166, -0.09827819466590881, -0.01420256495475769, -0.004538774490356445, 0.10913863778114319, -0.04649868607521057, 0.051206737756729126, 0.01501426100730896, -0.11192455887794495, -0.07581546902656555, -0.000339508056640625, 0.028459548950195312, -0.0661294162273407], [-0.08042377233505249, 0.0681508481502533, -0.06931662559509277, 0.04346153140068054, 0.003885120153427124, 0.07569417357444763, 0.10322082042694092, -0.02055606245994568, 0.049548208713531494, -0.10255980491638184, -0.0327739417552948, 0.061578214168548584, -0.05095392465591431, -0.08046525716781616, 0.07030940055847168, -0.010471731424331665], [-0.02005860209465027, 0.06169259548187256, 0.12245780229568481, -0.0024274587631225586, -0.05104449391365051, 0.08760097622871399, -0.040797024965286255, -0.09763172268867493, 0.12024641036987305, -0.08738669753074646, 0.12042036652565002, 0.12018841505050659, 0.10185524821281433, 0.0606229305267334, 0.09084951877593994, -0.01714766025543213], [0.06852138042449951, -0.10355392098426819, 0.11596226692199707, 0.10343688726425171, -0.10817843675613403, 0.0625598132610321, -0.1160115897655487, -0.07085356116294861, -0.08694729208946228, 0.07466292381286621, 0.1219293475151062, 0.04174011945724487, 0.10223820805549622, -0.12459534406661987, -0.08334064483642578, -0.020323097705841064], [-0.11678260564804077, 0.014962345361709595, 0.015014678239822388, -0.01047101616859436, -0.04489797353744507, 0.018190354108810425, -0.01833420991897583, 0.10197290778160095, 0.09231382608413696, -0.05573514103889465, -0.053647130727767944, 0.12030604481697083, 0.11320704221725464, -0.09504169225692749, -0.04566079378128052, 0.0787096619606018], [0.029846280813217163, -0.005926787853240967, -0.06530964374542236, 0.024899333715438843, 0.04647254943847656, -0.09397119283676147, -0.05072587728500366, -0.022793203592300415, -0.04833880066871643, -0.006844192743301392, 0.010495126247406006, -0.005887895822525024, 0.06567969918251038, 0.06908714771270752, 0.01875331997871399, 0.06215992569923401], [0.08845916390419006, -0.03326573967933655, -0.03149577975273132, -0.08927354216575623, 0.12236735224723816, 0.08254039287567139, -0.05265700817108154, -0.05189156532287598, -0.12324279546737671, 0.022398293018341064, 0.10129871964454651, -0.09733498096466064, 0.016218990087509155, -0.10808080434799194, -0.11408191919326782, 0.0906645655632019]]]}, "dense": {"bias:0": [-0.027500096708536148], "kernel:0": [[-0.21570266783237457], [0.058109547942876816], [0.02045414410531521], [0.04458128660917282], [-0.04123576357960701], [0.1660231351852417], [-0.07717643678188324], [0.059548042714595795], [-0.04368068650364876], [0.13644488155841827], [-0.10234591364860535], [-0.2363697737455368], [0.11341062188148499], [-0.07842198014259338], [0.0879579409956932], [0.03846285119652748], [-0.11917632818222046], [-0.05831705033779144], [-0.09085460752248764], [-0.03182718902826309], [0.06041692942380905], [-0.030191874131560326], [-0.17525209486484528], [-0.024612363427877426], [0.17740680277347565], [0.06720314919948578], [-0.047773197293281555], [-0.15107029676437378], [0.05827466771006584], [0.01867770031094551], [-0.0838596448302269], [-0.09815002232789993]]}, "lstm": {"bias:0": [-0.23054614663124084, -0.6678834557533264, 0.34151172637939453, 1.2379951477050781, 1.2494618892669678, -0.9525538086891174, 0.465714693069458, 0.6246485710144043, 1.103840947151184, 0.589474618434906, 0.3409755825996399, 0.33471667766571045, 0.04977831989526749, 0.9282485842704773, 0.7539355158805847, -0.8844770789146423, -0.2857615053653717, -1.2875018119812012, -0.4684116542339325, -1.1509921550750732, -0.9131709933280945, -0.9109141230583191, 1.2518949508666992, 0.408120721578598, 1.3470025062561035, 1.462815284729004, 2.057241201400757, 0.09055120497941971, 0.5868717432022095, -1.2426989078521729, 0.7240709066390991, -1.5000520944595337, 1.0, 1.0, 1.0, 1.0, 1.0, 1.0, 1.0, 1.0, 1.0, 1.0, 1.0, 1.0, 1.0, 1.0, 1.0, 1.0, 1.0, 1.0, 1.0, 1.0, 1.0, 1.0, 1.0, 1.0, 1.0, 1.0, 1.0, 1.0, 1.0, 1.0, 1.0, 1.0, -0.17308808863162994, -0.1857062727212906, 0.25714874267578125, 0.050657711923122406, 0.007970658130943775, -0.19731107354164124, -0.01761515624821186, -0.047938767820596695, -0.08464275300502777, -0.18281212449073792, 0.7369832992553711, -0.17496967315673828, -0.1612599492073059, 0.011143883690237999, 0.046876393258571625, 0.4337829053401947, -0.019958067685365677, 0.2152053415775299, -0.3608882427215576, 0.5399473309516907, -0.24461175501346588, -0.7740193009376526, 0.08948642015457153, -0.04402869939804077, -0.014277414418756962, 0.025713667273521423, 0.104197658598423, -0.17970791459083557, -0.09463072568178177, 0.025997256860136986, -0.012920820154249668, 0.007341873366385698, 0.10897514224052429, -0.011926097795367241, -0.1419217586517334, 1.4829050302505493, 1.4703047275543213, -0.39323341846466064, 0.15889891982078552, 0.20956189930438995, 1.1208250522613525, 0.03937620669603348, -0.6478642821311951, -0.05592920258641243, 0.13920119404792786, 0.7805696129798889, 0.7335184812545776, -0.7694159746170044, -1.4991172552108765, -1.2858104705810547, 0.5196488499641418, -0.1462182104587555, -0.0711430162191391, -1.8809565305709839, 1.2699658870697021, 0.5591385364532471, 0.8663966655731201, 0.9798260927200317, 1.96560800075531, -0.03190452232956886, 0.14548316597938538, -0.9407186508178711, 0.4714999794960022, -0.1529177576303482], "kernel:0": [[-0.25677141547203064, 0.9268650412559509, 0.621131420135498, -0.7600235939025879, 0.015048631466925144, 0.7610136866569519, -0.7308090329170227, 0.30861398577690125, 0.5666872262954712, 0.22639347612857819, -0.3229203224182129, -0.38872230052948, 0.06545411795377731, 0.19039635360240936, 0.7498077154159546, 0.946819543838501, -0.8825111985206604, -1.188520908355713, -0.7797614932060242, 0.5169814825057983, 1.1404834985733032, -2.088301181793213, 0.22346825897693634, 0.4661361873149872, -1.679606556892395, -2.1064679622650146, -0.20846082270145416, -0.48639029264450073, -0.22291097044944763, -0.9700157642364502, 1.2082587480545044, -0.4737420976161957, -0.1541629135608673, 0.006339356303215027, -0.1944531947374344, -0.10254928469657898, -0.1769675314426422, 0.09167811274528503, -0.003907382488250732, 0.1889326572418213, 0.16479632258415222, 0.0497150719165802, -0.09558654576539993, -0.012393832206726074, 0.15487995743751526, -0.013440266251564026, -0.19566023349761963, -0.10064012557268143, -0.051950156688690186, -0.19191555678844452, -0.01604175567626953, 0.05756688117980957, -0.15447112917900085, -0.12709885835647583, -0.05272795259952545, -0.11612056195735931, -0.12699398398399353, 0.09031113982200623, 0.19002631306648254, -0.11728939414024353, -0.0375065803527832, 0.02370987832546234, -0.13464617729187012, 0.08822450041770935, 1.0716291666030884, -0.6244112849235535, 0.021654944866895676, 0.21004028618335724, 0.35088133811950684, -0.2145051211118698, 0.13714352250099182, -0.31899651885032654, 0.007063673343509436, -0.22233633697032928, 0.1277233362197876, 0.40953177213668823, -0.2827102243900299, 0.2058708220720291, -1.2429579496383667, -0.5604346394538879, 0.04398898780345917, -0.8830463886260986, 0.33798953890800476, 0.20811644196510315, -0.5736246705055237, -0.5544136166572571, -0.5474094152450562, -0.10404959321022034, -0.8829964399337769, -0.1722007542848587, 0.4519934058189392, 0.3667096197605133, -0.40133559703826904, 0.46644920110702515, -0.6361821889877319, 0.24021975696086884, -0.544795572757721, -1.1203573942184448, -0.6834944486618042, 0.08036316186189651, 0.3505377769470215, -0.23061953485012054, 0.3701898455619812, -0.2228076159954071, -0.3795224130153656, 0.1433473825454712, -0.18983855843544006, 0.27536359429359436, 0.47820955514907837, -0.1685781031847, -0.5187010169029236, -1.337760090827942, 0.9599146842956543, -0.7689608335494995, 0.45571601390838623, -0.29915651679039, 0.6100682020187378, -1.8605512380599976, -0.28422075510025024, -1.0000051259994507, 0.2287689745426178, 0.5076764822006226, -0.032107651233673096, 0.0454874113202095, -0.144370436668396, -1.006504774093628, -0.5884888172149658, 0.33120545744895935], [0.04076017439365387, 0.02538701891899109, 0.2852100729942322, 0.10368512570858002, -0.2374308705329895, -0.3349226117134094, 0.89461350440979, -0.2729733884334564, 0.8067777752876282, -0.1566217690706253, -0.8578549027442932, 0.44934263825416565, -0.12968046963214874, 0.6008511781692505, 0.07862848788499832, -1.5430402755737305, -0.6443942785263062, 0.8459309339523315, -0.12696386873722076, -0.377522349357605, -1.1294187307357788, 1.8430087566375732, 0.15763162076473236, -0.4487759470939636, 1.1658847332000732, 1.3317413330078125, 0.4648108184337616, 0.2715669274330139, 0.35468819737434387, 0.6300296187400818, 0.10206934064626694, 0.5922382473945618, -0.06793808937072754, -0.09019112586975098, 0.021375417709350586, -0.14719857275485992, -0.043649375438690186, 0.17792072892189026, -0.150959312915802, 0.11301249265670776, -0.13064755499362946, -0.19530418515205383, -0.11380279064178467, 0.10341152548789978, -0.16185449063777924, -0.16251066327095032, 0.17341703176498413, -0.1448846012353897, -0.18373297154903412, 0.02217116951942444, 0.1323872208595276, 0.19873249530792236, 0.18673208355903625, 0.05089905858039856, -0.024375587701797485, -0.1552124172449112, 0.15237614512443542, -0.12535375356674194, -0.04911516606807709, 0.1472739577293396, 0.09879720211029053, 0.19421833753585815, -0.07246607542037964, -0.18067017197608948, -0.09183341264724731, 0.11372846364974976, 0.0614185556769371, -0.039568595588207245, -0.03153374046087265, 0.7577040791511536, -0.549489438533783, 0.04732399061322212, 0.08129284530878067, 0.5579158663749695, -0.36773017048835754, -0.9920555949211121, 0.03871328756213188, -0.49556824564933777, 0.6513948440551758, 0.20436307787895203, 0.08144146203994751, 0.09285843372344971, -0.2445015162229538, 0.048763494938611984, -0.8021200299263, 0.45880618691444397, -2.1812143325805664, -0.9347463250160217, 0.15523985028266907, 2.125425338745117, -0.093230701982975, -0.2784718871116638, 0.2526519000530243, -0.36563363671302795, 0.6883207559585571, 0.004520116373896599, 0.21976900100708008, 0.4222051203250885, 0.3034558892250061, 0.3232247233390808, 0.2297465205192566, -1.9324766397476196, -0.6449034810066223, -0.0486009418964386, 0.018412265926599503, -0.16029731929302216, -1.6055876016616821, 0.7632346153259277, -0.13990356028079987, -0.3066066801548004, 0.08677370846271515, -0.24082273244857788, -0.9168730974197388, 1.139317274093628, -0.4689788222312927, 0.1095256358385086, 0.5186866521835327, 3.8635458946228027, -0.30413201451301575, 0.9806687831878662, -0.20991620421409607, -0.46132320165634155, -0.2372608780860901, 0.19638530910015106, 0.19241778552532196, 0.9112646579742432, -0.0009976434521377087, -0.9030138850212097], [-0.30367305874824524, 0.9663658142089844, 0.12147970497608185, 0.2207643836736679, 0.16366536915302277, 0.08302720636129379, -0.31664085388183594, 0.5133521556854248, 0.10838206112384796, 0.17079219222068787, 0.319232702255249, -0.005577137693762779, 0.0019952338188886642, 0.12011586874723434, 0.4588871896266937, 0.5830458998680115, 0.05733689293265343, -0.17325374484062195, -0.5888619422912598, 0.649538516998291, 0.3292764723300934, -0.8451924324035645, 0.46538275480270386, 0.5770072340965271, -0.3029015064239502, -0.8574439287185669, -0.1256488859653473, -0.08058365434408188, 0.24371664226055145, -1.3531290292739868, -0.22448652982711792, -0.10951101034879684, 0.0500950813293457, -0.1862320750951767, -0.1933382749557495, 0.04991224408149719, 0.01671278476715088, -0.04628936946392059, 0.1229209303855896, 0.1701594591140747, -0.14148195087909698, -0.10282731801271439, 0.20041051506996155, 0.02341495454311371, -0.07637608051300049, -0.057169944047927856, 0.11220613121986389, -0.07232595980167389, -0.20400682091712952, -0.023319080471992493, -0.18753975629806519, 0.1847110390663147, 0.1780327558517456, -0.15397243201732635, 0.025133773684501648, 0.09873801469802856, 0.032261788845062256, 0.15458017587661743, 0.16627568006515503, 0.0938078761100769, 0.17758435010910034, -0.0428600013256073, -0.053634777665138245, -0.03972847759723663, 0.7327477335929871, -0.4322517216205597, 0.3292360305786133, -0.30908656120300293, 0.06514160335063934, -0.13588514924049377, 0.2570318281650543, -0.4019624888896942, -0.18688969314098358, -0.20842789113521576, 0.1423959583044052, 0.1560879647731781, -0.28511762619018555, 0.08148109912872314, -1.393188238143921, 0.2537962794303894, -0.3690425455570221, -0.7015266418457031, -0.27159085869789124, 0.30636492371559143, 0.5736992955207825, -1.0550278425216675, -0.34175050258636475, -0.08383916318416595, -1.4349291324615479, -1.6765788793563843, 0.8003237247467041, 0.11056690663099289, -0.6886313557624817, 0.2630138397216797, 1.1087274551391602, -0.2201939970254898, 0.03472644463181496, -0.43589073419570923, -0.33058807253837585, -0.13873189687728882, 0.1589728146791458, -0.24541163444519043, 0.3088819086551666, 0.14666953682899475, 0.6380026936531067, 0.0005557234981097281, -0.01088161114603281, 0.04165351763367653, 0.454204261302948, -0.021496757864952087, -0.25316205620765686, -0.06369361281394958, 0.7265664935112, -0.11790119856595993, 0.060045912861824036, 0.005915298592299223, -0.3409687876701355, -1.5096161365509033, -0.28767117857933044, 0.28632694482803345, 0.4558565020561218, 0.5537675619125366, -0.06325168907642365, -0.027153071016073227, -0.15147095918655396, -1.2718560695648193, 0.14673708379268646, 0.24838437139987946], [-0.2971380054950714, 0.5848157405853271, 0.3415813744068146, 0.31705307960510254, -0.7276501655578613, 0.3474249541759491, -0.4574398100376129, -0.3562556505203247, -0.06888417154550552, 0.16449294984340668, 0.23354151844978333, -0.24329257011413574, -0.3241434395313263, 0.21670308709144592, 0.5762192606925964, 0.31541717052459717, -0.3793065547943115, -1.0193395614624023, -0.5087934732437134, 0.4951678514480591, 0.3513144552707672, -1.4556124210357666, -0.3295598328113556, -0.07317974418401718, -0.8087210655212402, -1.2794502973556519, 0.33895739912986755, -0.4039393365383148, 0.6557348966598511, -1.0107015371322632, 0.5875533223152161, -0.5943015217781067, -0.1115335002541542, -0.07858623564243317, -0.16155488789081573, -0.0778672844171524, 0.0646439790725708, 0.1831907331943512, -0.14908723533153534, -0.1801432967185974, 0.08568432927131653, -0.01995249092578888, 0.04743129014968872, -0.06400653719902039, 0.04505327343940735, -0.015773415565490723, -0.09812530875205994, 0.12175717949867249, 0.11642181873321533, 0.09678453207015991, -0.04403398931026459, 0.14908578991889954, 0.1476365327835083, -0.12685707211494446, 0.11633610725402832, -0.11653681099414825, -0.00029161572456359863, 0.08149087429046631, 0.1826503872871399, -0.20355543494224548, -3.713369369506836e-05, 0.005416885018348694, 0.1416662037372589, -0.08653827756643295, 0.6358158588409424, -0.23780333995819092, 0.24469372630119324, 0.36463209986686707, -0.5355005860328674, -0.4045397639274597, -1.0847102403640747, 0.1717144101858139, -0.23410077393054962, -0.21790815889835358, 0.030730033293366432, 0.6260882019996643, 0.04077572003006935, -1.3797965049743652, -1.1079554557800293, 0.07598009705543518, 0.047535233199596405, -0.580623984336853, 0.2418498396873474, 0.03788788244128227, 0.3275899589061737, -0.4488832652568817, 0.8484725952148438, 0.30269256234169006, -0.5575635433197021, -0.932091474533081, -0.11025872081518173, 0.13552184402942657, -0.4070154130458832, 0.12619712948799133, 0.7959615588188171, 0.045778751373291016, -0.3386716842651367, -0.583729088306427, -0.6673797369003296, 0.2403256893157959, 0.08628297597169876, 0.2450619637966156, 0.4879932999610901, -0.057168588042259216, -0.1692461222410202, -0.16557449102401733, 0.23310962319374084, -0.11069399118423462, 0.2674104571342468, -0.06434521079063416, -0.33482858538627625, -0.3409245014190674, 0.7605756521224976, -1.1344807147979736, 0.5140722990036011, -0.8800318241119385, -0.16041378676891327, -1.5292799472808838, 0.2652958333492279, -0.11546388268470764, 0.36015698313713074, 0.8521129488945007, 0.03459266945719719, 0.16612344980239868, 0.11452134698629379, -0.8536825776100159, -0.26343050599098206, 0.25759661197662354], [-0.1436452716588974, 0.18625983595848083, 0.9551618099212646, -0.6240379810333252, -0.041890908032655716, 0.4333886206150055, -0.4086412787437439, 0.44134876132011414, 0.11567248404026031, -0.32957273721694946, -0.5952696800231934, -0.05384461581707001, 0.12684650719165802, -0.5388151407241821, -0.05488895997405052, 0.4458751976490021, -0.9856778383255005, -1.2096060514450073, -0.7920884490013123, -1.083564281463623, 0.45585939288139343, -1.0455427169799805, -0.899310827255249, 0.2644234299659729, -0.6726713180541992, -2.332080841064453, -0.5127284526824951, -0.06855649501085281, -0.23475244641304016, -1.3350036144256592, 0.5570012927055359, -0.9473070502281189, 0.1866777539253235, -0.1387104094028473, 0.13739898800849915, -0.1147431880235672, 0.10259348154067993, 0.15862786769866943, 0.20304960012435913, -0.1381382942199707, -0.08168900012969971, -0.1289156973361969, -0.11684116721153259, 0.1706143617630005, 0.09324988722801208, -0.07406342029571533, 0.1398405134677887, 0.0638335645198822, -0.05635005235671997, -0.07224445044994354, -0.142164945602417, -0.012074336409568787, -0.1741652935743332, 0.07559093832969666, -0.14715394377708435, 0.09392821788787842, 0.08415466547012329, -0.10856904834508896, 0.008735865354537964, -0.190947026014328, -0.07028515636920929, 0.004635527729988098, 0.17026802897453308, -0.09251682460308075, 0.562285840511322, -0.7411283254623413, -0.06288378685712814, -0.10090892016887665, 0.288756400346756, -0.11565950512886047, 0.08703313767910004, -0.09425181895494461, -0.505476176738739, 0.6024487614631653, -0.15940964221954346, 0.7019913196563721, -0.049079831689596176, -0.022713497281074524, 0.24704168736934662, -0.1456901729106903, 0.4184964895248413, -0.3700362741947174, 0.6885783076286316, 0.3599935472011566, -0.6508365869522095, -1.3117685317993164, 0.6077186465263367, -0.02191493660211563, -1.8465981483459473, -1.6535329818725586, 0.0780506283044815, 0.10342297703027725, 0.026274174451828003, 0.1705484688282013, -0.20015335083007812, 0.20299437642097473, -0.543129563331604, -1.0757325887680054, -0.41401219367980957, 0.6494627594947815, 0.8100748658180237, 0.7150919437408447, 0.2261456549167633, -0.147415429353714, 0.09826159477233887, -0.0422326922416687, -0.10410237312316895, -0.39597636461257935, -0.07523633539676666, 0.40923234820365906, 0.03441023826599121, -1.744627833366394, 0.6663620471954346, -1.1056843996047974, 0.8057287931442261, 0.7393989562988281, 0.6125239729881287, -1.5621827840805054, 0.6551005244255066, -0.5677002668380737, 0.20991773903369904, 0.8239469528198242, 0.37786510586738586, -0.02435891702771187, -0.013340620324015617, -1.2605488300323486, -0.3809329867362976, 0.16960737109184265], [-0.040233392268419266, 0.05439852923154831, -0.2582458555698395, -0.3174859285354614, -0.04723063483834267, -0.6562063694000244, 0.8054543733596802, -0.18324843049049377, 0.6545148491859436, -0.26541316509246826, 0.0925947055220604, 0.47526612877845764, 0.1210966408252716, 0.48163360357284546, 0.26257967948913574, -0.9964078068733215, 1.132496953010559, 1.6043273210525513, 0.8741042613983154, 0.1641693264245987, -1.5876798629760742, 3.2659740447998047, -0.2967715561389923, -0.1393410563468933, 2.2111692428588867, 1.7294018268585205, 0.3197344243526459, 0.8266108632087708, -0.15271000564098358, 1.1459017992019653, 0.9841911792755127, 0.9372501373291016, -0.10507096350193024, -0.08109570294618607, 0.14363104104995728, 0.0846981406211853, -0.17180576920509338, -0.13907238841056824, 0.11760562658309937, 0.04860624670982361, -0.1670236587524414, -0.10258310288190842, -0.16050422191619873, -0.04366713762283325, -0.2031518816947937, 0.0852559506893158, 0.06719547510147095, -0.14954403042793274, 0.11694273352622986, 0.053031593561172485, -0.11978790909051895, -0.09753911197185516, 0.06899967789649963, 0.13626274466514587, 0.1653454601764679, -0.11765746027231216, 0.039473116397857666, -0.15381431579589844, -0.11289169639348984, 0.14414885640144348, 0.11152142286300659, -0.13496685028076172, 0.1338469386100769, 0.10821342468261719, -0.16448934376239777, 0.773917555809021, 0.22923226654529572, 0.37257328629493713, -0.025639191269874573, 0.27728739380836487, -0.3388260304927826, 0.12635557353496552, -0.14869916439056396, 0.45722970366477966, -0.2795354127883911, -0.5697089433670044, -0.20442259311676025, 0.5263751745223999, -0.1697419136762619, 0.24967816472053528, -0.06346973031759262, 0.05912131443619728, -0.5486988425254822, 0.20376917719841003, 0.12285472452640533, 0.5171631574630737, 0.3139757812023163, 0.527016282081604, 0.6201900243759155, 1.424652099609375, -0.2654378414154053, -0.20674008131027222, -0.023931270465254784, -0.6389855742454529, -0.6392932534217834, -0.2369667887687683, 0.7412128448486328, 0.4305821657180786, 0.21181899309158325, 0.20761461555957794, -0.18462394177913666, 0.5978286862373352, -0.46265149116516113, -0.1935577094554901, -0.24871128797531128, -0.13273963332176208, 0.12682174146175385, -0.24232394993305206, -0.08658179640769958, -0.3193569481372833, -0.22002820670604706, 0.06872612237930298, -1.1643389463424683, 1.5306328535079956, -1.1970760822296143, 0.20179839432239532, -0.5308963060379028, 2.463142156600952, 0.2975441813468933, 0.8622312545776367, -0.6762791275978088, -0.5355918407440186, 0.03835313394665718, 0.10241103917360306, -0.2336503267288208, 1.4315065145492554, -0.5223429203033447, -0.6317976117134094], [0.06182334944605827, -0.1654399335384369, -0.40844547748565674, -0.1280316859483719, -0.40717020630836487, -0.43387675285339355, 0.026327982544898987, 0.23447665572166443, -0.35501378774642944, -0.46947696805000305, 0.10791005194187164, 0.33837226033210754, -0.036041080951690674, 0.29899781942367554, -0.1815350502729416, 0.2696741819381714, 0.41011103987693787, 0.7081994414329529, 0.5643569827079773, 1.1976672410964966, -0.4704272747039795, 1.3655916452407837, -0.5103453397750854, 1.5805914402008057, 0.7979118824005127, 1.3621271848678589, 0.030818818137049675, 0.40273338556289673, -0.16403856873512268, 1.2445006370544434, -1.0205047130584717, 0.03920774161815643, 0.12610089778900146, -0.17178556323051453, 0.0688665509223938, 0.013788864016532898, 0.003002554178237915, 0.05260825157165527, 0.12204021215438843, 0.012286514043807983, 0.032870516180992126, 0.08948561549186707, -0.17124010622501373, -0.10928751528263092, 0.06507644057273865, -0.09108815342187881, 0.1890038549900055, 0.030853554606437683, 0.13491886854171753, -0.004089444875717163, -0.04518550634384155, 0.015217676758766174, -0.08093583583831787, 0.16445153951644897, 0.10233286023139954, -0.16738349199295044, -0.0742793083190918, 0.023965373635292053, -0.057474493980407715, -0.07023195922374725, 0.16179919242858887, -0.19222891330718994, 0.10293430089950562, 0.010452985763549805, -0.09543442726135254, 0.5292059779167175, -0.37511882185935974, -0.5752465128898621, 0.03623557835817337, 0.3405988812446594, 1.0214118957519531, -0.8480648994445801, 1.2814147472381592, 0.48416128754615784, -0.2365167886018753, -0.30608052015304565, -0.28783002495765686, -0.43031907081604004, -0.3092607259750366, -0.002459085313603282, 0.020199453458189964, 0.03552662953734398, 0.14044883847236633, -0.1973618119955063, 0.06708552688360214, 0.7295731902122498, 0.5913511514663696, 0.40546703338623047, 1.3250958919525146, -0.044978927820920944, 1.1044260263442993, -0.14360561966896057, -0.21852485835552216, -0.30874767899513245, 1.985154390335083, 0.024822184816002846, 0.29432016611099243, 0.1579780876636505, 0.21370775997638702, -0.4647126793861389, -0.03195441514253616, 0.5857532620429993, -0.16199207305908203, 0.21918745338916779, 0.5991140007972717, 0.1839527189731598, 0.5109125375747681, -0.3205748498439789, 0.2562629282474518, -0.2009710818529129, 0.15209943056106567, 0.5086864829063416, -0.9835008978843689, 0.6892717480659485, -0.3731338679790497, 0.9908838868141174, -0.05608373507857323, 0.629130482673645, 0.40421903133392334, -0.20137225091457367, -0.4576253592967987, -0.8975950479507446, -0.06584714353084564, -0.22997917234897614, -0.06445348262786865, 1.2071549892425537, 0.4070710241794586, -0.23499830067157745], [-0.02334064617753029, 0.12343975901603699, 0.18848241865634918, -0.22338180243968964, 0.37668612599372864, 0.3658479154109955, -0.16656002402305603, 0.15257538855075836, 0.4985339045524597, 0.13791783154010773, 0.6801369190216064, -0.0884009599685669, 0.16944245994091034, 0.15868262946605682, 0.31325018405914307, 0.02412959188222885, 0.054217107594013214, -0.28804245591163635, -0.4143270254135132, -0.13487964868545532, 0.054591067135334015, -0.9876841306686401, -0.12975409626960754, -0.7816290259361267, -0.7569155097007751, -1.8069398403167725, -0.05326483026146889, -0.21860946714878082, -0.5723437666893005, -0.7357637286186218, 1.436183214187622, 0.26416438817977905, -0.2002638876438141, -0.02614741027355194, -0.15498611330986023, 0.09961649775505066, -0.003386586904525757, -0.023352861404418945, 0.1499641239643097, 0.00811678171157837, -0.16522608697414398, -0.03426019847393036, 0.17855900526046753, -0.17667840421199799, 0.06308892369270325, -0.03244701027870178, 0.15155208110809326, -0.13303259015083313, -0.05447086691856384, -0.1792115718126297, 0.09950590133666992, 0.15138056874275208, 0.10606509447097778, 0.16247043013572693, -0.06405247747898102, -0.18946492671966553, 0.1964758336544037, -0.13693688809871674, 0.09380552172660828, -0.14690622687339783, 0.18099284172058105, 0.00547279417514801, -0.15923616290092468, -0.19743779301643372, 0.17902296781539917, -0.17388510704040527, -0.11649956554174423, 1.1767423152923584, 0.12777455151081085, -0.274921715259552, -0.13743413984775543, 0.15679873526096344, -1.1315637826919556, -0.04731143265962601, -0.06803344190120697, 0.42467382550239563, -0.09989526122808456, 0.9099363088607788, 0.23875689506530762, -0.0645126923918724, -0.19771696627140045, -0.2072972059249878, 0.10537528246641159, -0.4109411835670471, 0.829357922077179, -0.6590625047683716, 0.3436207175254822, 0.5312626361846924, -1.4218436479568481, 0.19382968544960022, -0.18249842524528503, -0.035239312797784805, 0.17897887527942657, 0.15747572481632233, -3.2916650772094727, 0.06284419447183609, -0.13569054007530212, -0.5472801923751831, -0.15934868156909943, -0.15516865253448486, -0.4170799255371094, 0.27964505553245544, -0.011095881462097168, -0.1963181048631668, -1.2651840448379517, 0.02248447947204113, 0.8664725422859192, -0.24277611076831818, -0.05206865444779396, -0.1650276482105255, -0.2741875946521759, -0.4548552334308624, 0.4551532566547394, -0.17672152817249298, 0.3098430335521698, -0.23947195708751678, -0.6679064631462097, -1.2070949077606201, 0.02952822484076023, 0.2796790897846222, 0.09579391777515411, 0.6190148591995239, -0.134995236992836, -0.06663455069065094, -0.1275477260351181, -0.7980372905731201, -0.8521494269371033, 0.32091644406318665], [-0.016391558572649956, 0.16845978796482086, 0.06539974361658096, -0.5592541098594666, 0.12289918959140778, -0.4064873456954956, 0.2980511784553528, 0.4131912887096405, 0.689251184463501, -0.3373624086380005, 0.0003058795118704438, 0.3334692716598511, -0.4641769826412201, -0.4856087863445282, 0.6915574669837952, -1.1996310949325562, 0.592081606388092, 1.4043923616409302, 1.0367708206176758, -0.04371441900730133, -0.9449040293693542, 2.256466865539551, -0.2789827585220337, 0.19919434189796448, 1.4487481117248535, 0.7793363332748413, -0.981153130531311, 0.6544145941734314, 0.8153650760650635, 0.6035029292106628, 2.0781404972076416, 0.7491350173950195, -0.18649916350841522, 0.10825413465499878, -0.16438579559326172, 0.05059346556663513, -0.0546383261680603, -0.07256720960140228, -0.06699195504188538, -0.03948971629142761, 0.0013060718774795532, 0.0864613950252533, -0.1918189525604248, -0.0385495126247406, 0.04680737853050232, -0.2006065994501114, -0.08361480385065079, -0.06734727323055267, -0.050564125180244446, 0.19907134771347046, 0.17216235399246216, -0.09650571644306183, -0.13623657822608948, 0.032663777470588684, -0.19930611550807953, -0.1594560742378235, -0.1283288598060608, -0.05862171947956085, -0.12327426671981812, -0.027953103184700012, -0.03300406038761139, 0.14840668439865112, -0.17227287590503693, 0.06039494276046753, -0.015109418891370296, 0.3871922492980957, 0.13483749330043793, 0.7152466177940369, 0.325345903635025, 0.13933292031288147, -0.03808246925473213, -0.5299603343009949, 0.19634853303432465, 0.18865980207920074, -0.208428293466568, -0.500552773475647, 0.578917920589447, -0.9981759786605835, -0.13894706964492798, 0.3006010949611664, 0.03678455576300621, -0.08535593748092651, -0.29097265005111694, -0.6440582871437073, -0.027397634461522102, 0.284142404794693, -0.06222394481301308, -0.7007315754890442, 0.13450005650520325, 1.7656264305114746, 1.4883486032485962, -0.26142778992652893, 0.026464641094207764, -0.47736695408821106, -0.1148328110575676, -0.0947130024433136, 0.565378725528717, 0.3640604317188263, 0.4877749979496002, 0.1269136369228363, -0.08497117459774017, 0.028085559606552124, -0.18103983998298645, -0.4318442940711975, -0.7127270102500916, 0.11972358077764511, 0.12137361615896225, -0.03898721560835838, 0.09213345497846603, 0.24668531119823456, -0.53851717710495, -0.17699114978313446, -0.7897079586982727, 1.3548974990844727, -0.6190914511680603, 0.7868378162384033, -0.1969083547592163, 1.1887896060943604, 0.22357916831970215, 0.5251399278640747, -0.6993330121040344, -0.4439457058906555, 0.799735963344574, -0.11335330456495285, 0.4045707881450653, 0.8833978772163391, -1.151036024093628, -0.2512109577655792], [0.17969104647636414, -0.48773226141929626, -0.7967408299446106, 0.6337137222290039, 0.12087920308113098, -0.14428400993347168, 0.7487384676933289, 0.498518168926239, -0.7740280032157898, 0.25396355986595154, 0.22782477736473083, -0.0764441043138504, -0.1922244429588318, -0.6495071649551392, -0.07522787153720856, -0.10266251116991043, 1.1001458168029785, 1.0743063688278198, 0.4954437017440796, 0.6750811338424683, -0.4103116989135742, 0.8160312175750732, 0.9468966126441956, -0.7740062475204468, 0.6017317771911621, 1.1137714385986328, -0.6734429597854614, 0.1650000959634781, 0.3305737376213074, 1.039397954940796, -0.6441094875335693, 0.5972283482551575, 0.2013796865940094, -0.19853772222995758, 0.16591432690620422, 0.03516992926597595, 0.015957415103912354, 0.08517330884933472, 0.1762889325618744, -0.04497691988945007, -0.06392593681812286, -0.06082761287689209, 0.18257257342338562, 0.19316864013671875, 0.18144771456718445, 0.14690890908241272, -0.0024174898862838745, 0.11127489805221558, 0.14332550764083862, -0.02245771884918213, 0.19112694263458252, 0.20275813341140747, -0.1488460898399353, -0.049935102462768555, -0.023073896765708923, -0.12806212902069092, 0.12538081407546997, -0.058925554156303406, 0.01899029314517975, 0.005441844463348389, 0.0030387192964553833, 0.01714445650577545, 0.19557690620422363, -0.007447361946105957, -0.6809223294258118, 0.9209057092666626, -0.02517165243625641, -0.1265188455581665, -0.30968591570854187, 0.2645514905452728, 0.005596728064119816, -0.1470959633588791, -0.5598286986351013, -0.3677116334438324, -0.09232170879840851, -0.9698991775512695, 0.0549754723906517, 0.15913204848766327, -0.512766420841217, 0.0821252390742302, -0.6893087029457092, 0.534917950630188, -0.697047233581543, 0.532808244228363, 0.4802294373512268, 0.9532634019851685, -1.715225338935852, -0.8142573237419128, 1.6417936086654663, 1.2644485235214233, 0.010838616639375687, -0.10713482648134232, -0.1636071354150772, -0.23457811772823334, 0.12835387885570526, -0.14360308647155762, 0.5583508014678955, 0.30802831053733826, 0.7018204927444458, -0.9696179628372192, -0.8034156560897827, -1.3203949928283691, -0.38789159059524536, 0.027299005538225174, 0.33081331849098206, -0.026738479733467102, -0.459062784910202, 0.5688971281051636, 0.268498957157135, 0.43106427788734436, 0.05331903696060181, 1.7323633432388306, -0.44063135981559753, 1.3700119256973267, -1.3867790699005127, -0.9915171265602112, -0.3842323124408722, 