{"conv1d": {"bias:0": [0.006160936783999205, -0.019255923107266426, -0.00422985665500164, -0.007247373461723328], "kernel:0": [[[2.5022811889648438, 0.7011412978172302, -0.9995805025100708, 0.763134241104126]], [[2.071401596069336, 0.02547665312886238, -0.8732072114944458, 0.3722597360610962]], [[1.8908652067184448, -0.8124533891677856, -0.8858866691589355, 0.2051304578781128]], [[1.2020395994186401, -1.4734301567077637, -0.3815494477748871, -0.3871438205242157]], [[0.25543081760406494, -2.0880062580108643, -0.612538754940033, -0.5809020400047302]], [[-0.16762970387935638, -2.5625033378601074, -0.6593812108039856, -0.48979485034942627]], [[-0.6657503843307495, -2.502311944961548, -0.9196586608886719, -0.9453508257865906]], [[-0.9747783541679382, -2.2686407566070557, -1.0631251335144043, -1.125370979309082]], [[-1.575415015220642, -1.3755203485488892, -0.9649066925048828, -1.0617116689682007]], [[-2.139266014099121, 0.08257550746202469, -0.6802393794059753, -1.2340177297592163]], [[-2.2831051349639893, 1.7785844802856445, -0.4741014540195465, -1.4195126295089722]], [[-2.045163154602051, 3.9279708862304688, -0.003893611254170537, -0.93923419713974]]]}, "conv1d_1": {"bias:0": [-0.147210031747818, 0.0013843710767105222, 0.10289643704891205, -0.01689041592180729], "kernel:0": [[[0.19287323951721191, 0.14510977268218994, -0.13398033380508423, -0.006098389625549316], [-0.18231695890426636, -0.1960088610649109, -0.08590775728225708, -0.032260894775390625], [-0.17803150415420532, -0.21741676330566406, -0.11073559522628784, 0.24988359212875366], [0.21493077278137207, -0.211686372756958, 0.19538110494613647, 0.12375551462173462]], [[-0.1868238002061844, 0.3341662883758545, 0.46579474210739136, 0.41944167017936707], [0.3648105561733246, -0.1774391233921051, -0.08766726404428482, 0.4821738600730896], [0.04354976490139961, 0.2587203085422516, -0.7803210020065308, -0.35740038752555847], [0.4009990692138672, -0.25148624181747437, -0.2655717134475708, -0.07451466470956802]], [[-0.11376053839921951, -0.061040692031383514, 0.16500364243984222, 0.46462714672088623], [0.11734350025653839, -0.46595537662506104, -0.06325756758451462, -0.05578681826591492], [0.19393865764141083, -0.21501891314983368, -0.5654684901237488, -0.16376692056655884], [0.07477353513240814, -0.05905769020318985, -0.43942442536354065, -0.1508263200521469]], [[-0.12176932394504547, 0.37242498993873596, 0.8438453078269958, -0.6568406820297241], [0.2307308465242386, 0.22574765980243683, -0.019443944096565247, -0.07695995271205902], [0.1375514417886734, 0.2998248040676117, 0.013545366935431957, -0.2667088508605957], [-0.2008323073387146, -0.12318602949380875, 0.4349958598613739, -0.5672892928123474]], [[0.09666915237903595, -0.2978859543800354, -0.511563241481781, 0.18196216225624084], [-0.40162208676338196, 0.18677927553653717, 0.9540974497795105, -0.26997169852256775], [-0.28594037890434265, 0.16160878539085388, 0.57638019323349, -0.6579518914222717], [-0.37137389183044434, 0.20386692881584167, 0.65150386095047, -0.6510968208312988]], [[-0.3825911283493042, -0.3905455768108368, -0.43628576397895813, 0.606050968170166], [-0.20839864015579224, -0.06168336048722267, 0.4373439848423004, -0.08131822198629379], [-0.45555543899536133, 0.3574620485305786, 0.10884809494018555, 0.1621042639017105], [-0.13344746828079224, 0.1421356499195099, 0.27937373518943787, -0.2699190080165863]], [[-0.1541161835193634, -0.5432373881340027, -0.24500247836112976, 0.12768690288066864], [-0.5562799572944641, 0.2090870887041092, 0.08442919701337814, 0.9642443060874939], [-0.19654010236263275, 0.09013916552066803, -0.17800372838974, 0.44668084383010864], [-0.5876057744026184, -0.0770483911037445, -0.4400423765182495, 0.9269732236862183]], [[0.08584115654230118, -0.22485186159610748, 0.9093677997589111, -0.8211995363235474], [0.04834231361746788, 0.3412303030490875, -0.5185166597366333, 0.806231677532196], [-0.031694456934928894, 0.26905524730682373, -0.3497626781463623, 0.7799745202064514], [-0.49285051226615906, 0.30601027607917786, -0.5617883205413818, 0.7941290140151978]], [[0.5998762249946594, -1.017459750175476, 0.09147647768259048, -0.3765900731086731], [0.5125235915184021, 0.6652562618255615, -0.22122688591480255, 0.1762540191411972], [0.3616989552974701, 0.11441698670387268, 0.43815237283706665, 0.20176784694194794], [1.0245479345321655, 0.44021689891815186, 0.4496995806694031, -0.1943686306476593]], [[0.07372557371854782, -2.555577039718628, -0.5535690784454346, 0.5454015731811523], [1.8530195951461792, -0.32042503356933594, 1.422668218612671, 0.08815965056419373], [1.756546139717102, -1.505544900894165, 1.4506146907806396, 0.26545819640159607], [1.3926010131835938, -2.1856119632720947, 0.9542819261550903, 0.18712839484214783]], [[2.465296983718872, 4.506444931030273, -1.141352653503418, -1.9847326278686523], [-3.707493543624878, 0.059584278613328934, -1.9347208738327026, -1.4028171300888062], [-1.0722625255584717, -0.12594003975391388, -0.8168472647666931, -0.8335943818092346], [-0.3532770872116089, 1.3011493682861328, -0.9038217067718506, -1.030623197555542]], [[0.11378991603851318, -0.16841411590576172, 0.03653222322463989, -0.1752028465270996], [-0.004994451999664307, 0.015301883220672607, 0.16910827159881592, 0.17026865482330322], [0.0258711576461792, -0.003019392490386963, -0.007052302360534668, -0.13514673709869385], [-0.02744579315185547, 0.09060513973236084, -0.13754510879516602, -0.08209794759750366]]]}, "dense": {"bias:0": [0.07478708028793335], "kernel:0": [[-0.13003572821617126], [0.06474395096302032], [-0.06054234132170677], [0.07369235903024673], [-0.02056667022407055], [-0.41816601157188416], [0.06715546548366547], [-0.11874836683273315], [0.14370353519916534], [0.08142243325710297], [-0.280021071434021], [-0.03319322317838669], [-0.07815323024988174], [0.018537376075983047], [0.015448798425495625], [0.12391825765371323], [0.028011107817292213], [0.07155497372150421], [-0.042656268924474716], [0.04800775274634361], [-0.03695087134838104], [0.2504453659057617], [0.04045896232128143], [0.08412089198827744]]}, "lstm": {"lstm_cell": {}, "kernel:0": [[0.6697441935539246, 1.7179747819900513, 2.536578893661499, -1.2644966840744019, -0.6661122441291809, -0.402255117893219, 0.7112807035446167, 1.3692612648010254, 0.6035398244857788, -0.7019431591033936, 0.5013655424118042, 3.854790687561035, -0.7038801908493042, 3.433985710144043, -1.247363805770874, 0.2813977003097534, 3.53210186958313, 1.8012808561325073, -0.8932045102119446, -0.9042832255363464, 2.342649221420288, 0.1422363966703415, 3.265394926071167, 1.4812949895858765, 0.1345147043466568, -0.0014835447072982788, 0.15399987995624542, -0.23816482722759247, -0.11337955296039581, 0.1856381744146347, -0.2249070107936859, -0.07220524549484253, 0.11631856858730316, 0.1366206854581833, -0.021377280354499817, 0.03462518751621246, 0.02273474633693695, -0.21906772255897522, -0.2066710740327835, -0.16448450088500977, 0.03638391196727753, 0.15413625538349152, -0.08269388973712921, -0.17695538699626923, -0.020553484559059143, -0.17158091068267822, 0.03137741982936859, -0.10026131570339203, -0.03999227657914162, -0.37667834758758545, -0.2407686710357666, -0.6996089816093445, 0.27433785796165466, -0.4237310290336609, -0.3278743326663971, -1.2562766075134277, 1.1784675121307373, 0.10254518687725067, -0.5843697786331177, -0.9542997479438782, 0.834523618221283, -0.7927035689353943, -1.3601168394088745, -0.3821258544921875, 0.8779640197753906, -0.022965554147958755, -0.5338681936264038, 1.3761684894561768, -0.8304823637008667, 0.37977463006973267, -1.5979118347167969, 0.4298934042453766, 0.36116155982017517, -0.43755853176116943, -4.718879222869873, 1.9700933694839478, -0.9583025574684143, -0.2422187477350235, 0.023640785366296768, -1.5848238468170166, -0.30288729071617126, -0.556991696357727, -0.1342082917690277, -0.402719646692276, 0.4435141086578369, -2.6913838386535645, -0.235930934548378, -0.040087103843688965, 2.1769320964813232, 0.04749709740281105, -2.011671304702759, 0.15069198608398438, -2.378610849380493, 0.1147274374961853, -2.30977463722229, -1.66701340675354], [-0.15950261056423187, -0.13483524322509766, 1.9927061796188354, 0.6546157598495483, 0.40489038825035095, 0.20297062397003174, 1.5096349716186523, -0.022907506674528122, -1.7705003023147583, 0.1503240317106247, -0.7161495685577393, -1.4308767318725586, 0.48806896805763245, 2.3879432678222656, -1.0806032419204712, -0.11905656009912491, 1.7355057001113892, 1.1019057035446167, -1.970777988433838, 0.5583994388580322, -0.8841715455055237, -1.277282953262329, -0.23646697402000427, -0.9259509444236755, -0.19427570700645447, 0.06015591323375702, 0.008506134152412415, -0.030896320939064026, 0.15843649208545685, 0.11409567296504974, 0.040837064385414124, -0.03434520959854126, 0.23630429804325104, -0.21459636092185974, -0.07155291736125946, 0.09249313175678253, 0.056667760014534, -0.088895782828331, -0.07431524991989136, 0.08098791539669037, 0.1658976823091507, -0.05010046064853668, 0.21468256413936615, -0.1373160183429718, 0.10515527427196503, 0.02260918915271759, 0.23651711642742157, 0.21212731301784515, 0.31446048617362976, -1.0958645343780518, -4.748438835144043, -1.2102047204971313, -0.013571036979556084, 0.6693302392959595, 0.021044034510850906, -0.30329129099845886, 1.2328451871871948, -0.13523456454277039, 0.4219801425933838, 0.4100363552570343, -0.43557053804397583, -1.1043561697006226, 0.4534333050251007, 0.2528826594352722, -0.10183867067098618, -0.5185007452964783, 0.5753304958343506, 1.5102747678756714, 0.9127538204193115, -0.5043097138404846, 1.169596552848816, -0.9650430679321289, -0.3864334225654602, 0.8775213956832886, -0.6722816824913025, -0.7952516078948975, 0.7803671360015869, 0.9113613963127136, 0.0668945461511612, 1.3526325225830078, 0.36716148257255554, 0.23077301681041718, 0.38071689009666443, 0.7282305955886841, -0.034276049584150314, -1.9443262815475464, 5.320436000823975, 0.050573110580444336, 2.3835535049438477, -0.08947818726301193, -0.8709951639175415, -1.5156465768814087, 0.7207258343696594, 0.5181300044059753, 0.08877778053283691, 1.498510479927063], [-0.18769121170043945, 1.1784591674804688, 0.7083292007446289, -1.0871950387954712, 0.01807006448507309, -0.26082685589790344, -0.09836327284574509, 0.8382112383842468, 0.795305609703064, -1.8508720397949219, 0.43323084712028503, -1.8341825008392334, 0.18302910029888153, 0.18479201197624207, -2.211057186126709, -0.3840082287788391, 0.4978112280368805, -0.08842672407627106, -0.6177099347114563, -0.5949892401695251, 2.5738561153411865, 0.4502671957015991, -0.33749106526374817, 0.8655989170074463, -0.2313005030155182, -0.21604323387145996, 0.043964043259620667, 0.002076193690299988, 0.09695105254650116, 0.00459839403629303, 0.029330894351005554, -0.20496870577335358, -0.13615372776985168, 0.19687722623348236, -0.20833829045295715, -0.1885608285665512, 0.030332043766975403, -0.08793818950653076, 0.10498864948749542, 0.10291711986064911, -0.010289043188095093, 0.19707928597927094, 0.21942104399204254, -0.11274515092372894, 0.003786444664001465, 0.15646205842494965, 0.05562414228916168, -0.019998446106910706, 0.15887567400932312, 0.2890215218067169, 1.0896389484405518, -1.0464619398117065, 0.4174344837665558, -0.4523075819015503, -0.20072227716445923, -0.6579458713531494, -0.27382171154022217, -0.2755935788154602, -0.5615205764770508, 1.7243856191635132, -0.8567573428153992, -1.7448533773422241, 1.855682373046875, 1.3336882591247559, 0.6665404438972473, 0.20312578976154327, -0.6431885957717896, 2.9317691326141357, 1.4539170265197754, 0.3911416828632355, 2.3880467414855957, 0.7641019225120544, 0.5292742848396301, -2.4502756595611572, -2.5990965366363525, 1.2096073627471924, -1.0340839624404907, -0.41635066270828247, 0.8132290244102478, -1.2014448642730713, -0.1431237906217575, 0.8145772814750671, 0.155481219291687, -0.3824697732925415, 0.2594081163406372, -0.5661489963531494, -1.6868877410888672, -0.37580880522727966, -0.9808574318885803, -0.02949446439743042, 0.568013608455658, -0.35726410150527954, 1.9703538417816162, -0.0905979722738266, -0.34366169571876526, -1.3530436754226685], [-0.5626119375228882, 0.48202964663505554, 0.872063398361206, 0.9830785393714905, -0.8281407356262207, -0.10713573545217514, -0.6478258371353149, 0.3116275668144226, 0.13767024874687195, -0.42875126004219055, 0.12334176898002625, -0.6700990796089172, 0.6245864033699036, -0.7499532699584961, 5.232332706451416, 0.0944671481847763, -0.6676473021507263, 0.3005758821964264, -1.2357299327850342, 0.6342560648918152, -0.23842094838619232, 7.518504571635276e-05, 0.5833947062492371, -0.6300133466720581, 0.1289447695016861, 0.059809520840644836, -0.161142498254776, 0.07578758895397186, 0.20252172648906708, -0.17826104164123535, 0.032354936003685, -0.044865623116493225, 0.006743147969245911, 0.016620472073554993, -0.055063918232917786, 0.009548172354698181, 0.07738600671291351, 0.03215701878070831, -0.028120070695877075, -0.04948556423187256, 0.003557160496711731, 0.026311054825782776, -0.1422758400440216, -0.06681786477565765, -0.23006312549114227, -0.09228755533695221, -0.025275275111198425, -0.041185230016708374, 0.4133104085922241, -0.4710845947265625, -0.2987048625946045, 1.3591150045394897, -1.11685311794281, -0.19712375104427338, 0.10492073744535446, -0.43943601846694946, 1.0999889373779297, 0.6506147384643555, -0.43051108717918396, -1.3430410623550415, -0.12797006964683533, 1.4349302053451538, -0.6456404328346252, 0.6173672676086426, -0.5678057074546814, 0.28341299295425415, 0.0612129308283329, -0.24222487211227417, -1.614806890487671, 0.2048678696155548, 0.8569270372390747, 1.3352501392364502, 0.3982238173484802, -1.2852975130081177, -1.2005035877227783, -0.7941539883613586, 1.0885804891586304, -0.1021212786436081, 0.28712087869644165, 0.08669712394475937, -0.27828478813171387, -0.09440511465072632, 0.5413591861724854, 1.24430513381958, -0.0014499557437375188, 1.5041707754135132, 0.0488271489739418, -0.6561071276664734, 0.10079201310873032, -0.11146128177642822, 0.8314587473869324, -1.0173133611679077, -0.3648209273815155, -0.13203245401382446, -0.4184592366218567, -0.509685754776001]], "bias:0": [-0.7162024974822998, 2.2291455268859863, 0.4942898452281952, 0.15717005729675293, 0.35918861627578735, 0.34787651896476746, 0.07407078891992569, 0.6132944226264954, -0.18284426629543304, -0.8566741943359375, -0.8532269597053528, -0.6367728114128113, -0.9964868426322937, 0.22374659776687622, 0.010826987214386463, -0.5309001207351685, 1.3832861185073853, -0.2761484682559967, 1.5787066221237183, 1.85597825050354, 1.2838730812072754, 0.6326374411582947, 0.7284535765647888, 0.9394626021385193, 1.0, 1.0, 1.0, 1.0, 1.0, 1.0, 1.0, 1.0, 1.0, 1.0, 1.0, 1.0, 1.0, 1.0, 1.0, 1.0, 1.0, 1.0, 1.0, 1.0, 1.0, 1.0, 1.0, 1.0, -1.0183485746383667, -1.1606601476669312, 0.006703746970742941, 0.24954047799110413, -0.26087895035743713, 0.41886427998542786, -0.6306594014167786, -0.24525421857833862, 0.6419632434844971, -0.25818005204200745, 0.36901387572288513, 1.1970142126083374, 0.005594016518443823, -1.0928800106048584, -0.45124608278274536, 0.6547994613647461, -0.39794015884399414, -0.8172628879547119, -0.4996456205844879, -0.6058719158172607, -1.7266603708267212, -0.29515787959098816, 1.0446439981460571, 1.0029981136322021, -0.941284716129303, -0.8050391674041748, 1.3812462091445923, 0.9630748629570007, 0.38363704085350037, 0.9719209671020508, -0.33898162841796875, 1.6091192960739136, -0.3434702754020691, 0.27988773584365845, 0.19862346351146698, 1.8325115442276, -0.6815594434738159, 2.1623401641845703, 0.1783372163772583, -0.2489047795534134, -0.5276556611061096, -0.09522955864667892, 0.9608173966407776, 2.258345603942871, 0.024677814915776253, -0.05333985388278961, 0.09935127198696136, -0.5197999477386475]}, "input_size": 120, "conv1d_stride": 12, "conv1d_1_stride": 12}