{"conv1d": {"bias:0": [0.006260210648179054, -0.0038287017960101366, 0.003642510389909148, -0.02924705483019352], "kernel:0": [[[1.049025058746338, 0.6737907528877258, 0.8160873651504517, 0.28697457909584045]], [[0.9203053116798401, 0.7671262621879578, 1.435671329498291, 0.631610095500946]], [[1.6831436157226562, 1.3996713161468506, 1.6950117349624634, 1.3544381856918335]], [[1.6151164770126343, 1.0937668085098267, 1.172855257987976, 2.1049160957336426]], [[1.2427308559417725, 1.5078014135360718, 0.8181450366973877, 2.528787612915039]], [[0.47556644678115845, 0.8985944390296936, 0.5277791023254395, 2.9323549270629883]], [[0.22700135409832, 0.2282402068376541, -0.19317583739757538, 2.754507541656494]], [[-1.0649633407592773, -0.40246090292930603, -0.9356217980384827, 2.6031405925750732]], [[-1.3214914798736572, -0.7287387847900391, -1.4504897594451904, 2.686748504638672]], [[-2.2282819747924805, -1.533008337020874, -2.1579699516296387, 2.3030245304107666]], [[-2.265528917312622, -1.722198247909546, -2.0873470306396484, 1.1103349924087524]], [[-2.0883595943450928, -1.8065892457962036, -1.853783130645752, 0.20640093088150024]]]}, "conv1d_1": {"bias:0": [0.011426486074924469, 0.0007038130424916744, -0.01310030184686184, -0.007698374800384045], "kernel:0": [[[0.030508756637573242, 0.07108718156814575, 0.11518800258636475, -0.13863050937652588], [0.19994783401489258, 0.13390237092971802, -0.1971290111541748, -0.14576774835586548], [0.1504080891609192, 0.13586044311523438, 0.11429935693740845, -0.24082809686660767], [-0.13726186752319336, -0.19628041982650757, 0.1227685809135437, -0.1808408498764038]], [[0.002236278960481286, 0.17426738142967224, -0.22574177384376526, -0.01542280800640583], [0.04095511883497238, 0.0012954899575561285, 0.08961097151041031, -0.04753079637885094], [-0.045973487198352814, -0.05611994117498398, 0.06665413081645966, 0.18565286695957184], [0.03336667641997337, 0.02627396024763584, -0.02903805673122406, -0.01088640559464693]], [[-0.024003243073821068, -0.0022743381559848785, -0.047771014273166656, 0.06174934655427933], [-0.10210578143596649, -0.056073226034641266, -0.20306818187236786, -0.04626620560884476], [-0.06741002202033997, 0.1071571409702301, 0.1361387073993683, 0.1537940800189972], [-0.028352849185466766, 0.05636155977845192, -0.03613371029496193, 0.06055459380149841]], [[-0.11741343140602112, 0.0022887839004397392, 0.046900078654289246, -0.1605178266763687], [0.06269776821136475, 0.02841290459036827, 0.10825954377651215, 0.1717180758714676], [0.31687772274017334, 0.011426161043345928, -0.10625326633453369, 0.0011199958389624953], [0.03954636678099632, 0.07864592969417572, -0.03588564693927765, 0.05341517552733421]], [[0.05156354606151581, -0.16779649257659912, 0.00636171642690897, -0.18137623369693756], [0.050061702728271484, 0.0007512676529586315, 0.17760665714740753, 0.24019953608512878], [0.11057168245315552, 0.1150788888335228, -0.16708864271640778, -0.010989979840815067], [0.0229063518345356, 0.08780138939619064, -0.057133473455905914, -0.003016853705048561]], [[-0.030579615384340286, 0.16590717434883118, 0.00981732364743948, 0.11236320436000824], [0.2021062672138214, -0.17127004265785217, -0.2579666078090668, -0.0794263556599617], [0.12068342417478561, -0.12279491871595383, 0.019288552924990654, 0.14046812057495117], [-0.03209295868873596, 0.06796939671039581, -0.07956646382808685, -0.04362652823328972]], [[0.20113703608512878, 0.07880079746246338, -0.05850120633840561, 0.36924317479133606], [0.13966631889343262, 0.10634870082139969, 0.05557684600353241, 0.2454098016023636], [0.204672172665596, -0.10381413996219635, -0.03585037216544151, -0.10120099037885666], [-0.21609841287136078, 0.021768927574157715, -0.2150232344865799, -0.12493263930082321]], [[0.116245336830616, 0.1427997201681137, -0.1170777827501297, 0.408793181180954], [0.26576539874076843, -0.10132116079330444, -0.18259736895561218, 0.29860439896583557], [0.36832132935523987, 0.03939797729253769, -6.064772605895996e-06, 0.12948791682720184], [-0.542351484298706, 0.057952191680669785, -0.20779994130134583, -0.3575860559940338]], [[-0.019668828696012497, -0.30776241421699524, -0.5089961886405945, 0.45135223865509033], [0.1373433917760849, -0.2648112177848816, -0.4320128560066223, 0.38135358691215515], [0.0927688330411911, 0.11773528158664703, -0.25466594099998474, 0.3033665418624878], [-1.1748952865600586, -0.08904778212308884, -0.19320958852767944, -1.2609481811523438]], [[-1.4255443811416626, -1.1459202766418457, -1.2706446647644043, 0.18933671712875366], [-1.4939284324645996, -0.9371839165687561, -1.082957148551941, -0.9371464848518372], [-2.004128932952881, -1.3709043264389038, -1.664977788925171, 0.39820581674575806], [0.4509495794773102, 1.1179627180099487, 1.480522871017456, -2.5376577377319336]], [[-2.2833120822906494, 1.724226474761963, 1.9435491561889648, 0.8573466539382935], [-1.7781639099121094, 1.0142126083374023, 1.5883405208587646, 0.887646496295929], [-2.146799087524414, 1.8097023963928223, 2.2506439685821533, 0.6015109419822693], [0.5537770390510559, -1.9007177352905273, 0.013094775378704071, 4.0572285652160645]], [[-0.20500493049621582, -0.17329657077789307, -0.18198120594024658, -0.24959683418273926], [0.03976935148239136, -0.2364906668663025, 0.15816408395767212, -0.002089381217956543], [-0.1870654821395874, 0.04681879281997681, 0.041119158267974854, 0.2223573923110962], [0.24864047765731812, -0.17920535802841187, 0.22027677297592163, -0.08484470844268799]]]}, "dense": {"bias:0": [-0.00968987587839365], "kernel:0": [[-0.15103811025619507], [-0.017681043595075607], [0.16501954197883606], [0.12527497112751007], [0.0829484835267067], [-0.08375892043113708], [0.11856858432292938], [0.0685998871922493], [-0.031067969277501106], [0.04099729657173157], [0.023330390453338623], [-0.10644306987524033], [0.11841483414173126], [-0.038415759801864624], [0.01038246788084507], [0.04290532320737839], [-0.05994924530386925], [0.08103450387716293], [0.0617542564868927], [-0.21082647144794464], [-0.2644983232021332], [-0.5710932016372681], [-0.06121291220188141], [0.08948489278554916]]}, "lstm": {"lstm_cell": {}, "kernel:0": [[0.07600781321525574, -0.8651598691940308, 0.09198351949453354, -0.2696536183357239, 1.7913854122161865, 0.8613392114639282, -0.5902934074401855, -0.0640794187784195, -0.03251287713646889, 0.26338669657707214, 0.6759181618690491, -0.12198823690414429, -0.08517483621835709, -0.40970703959465027, -0.36736342310905457, 2.137695550918579, 2.512957811355591, -0.4038587510585785, 1.3613287210464478, -0.2797469198703766, 0.0016312493244186044, 0.09620146453380585, -0.2449888437986374, 1.7870371341705322, 0.03766782581806183, -0.003451049327850342, -0.19170346856117249, 0.16206644475460052, 0.11867864429950714, 0.19629822671413422, -0.2262371927499771, -0.21150155365467072, -0.23836596310138702, -0.1491089165210724, -0.12817618250846863, 0.11599017679691315, -0.1947043091058731, 0.2206893414258957, 0.20992986857891083, -0.18756726384162903, 0.24271778762340546, 0.19620110094547272, -0.04284714162349701, -0.09054845571517944, 0.1920977383852005, -0.22081045806407928, -0.007499024271965027, 0.213216170668602, 0.33320173621177673, -0.647465169429779, 0.33767765760421753, 1.374503493309021, -1.7400637865066528, 2.029902219772339, -0.44738537073135376, -0.5217871069908142, -0.2018754780292511, -0.19578371942043304, -0.5318611860275269, 0.275137722492218, -0.20714518427848816, -0.44689321517944336, 0.19011379778385162, -0.7554751038551331, 0.8260873556137085, -0.2977748513221741, 0.43606454133987427, 0.19618217647075653, -0.031053856015205383, -0.00999103207141161, 3.7192728519439697, -1.1790127754211426, 0.36340993642807007, 0.2824883460998535, -0.0503179207444191, 0.15234141051769257, -0.7927119731903076, -0.5201043486595154, 0.1664397269487381, -0.08821959793567657, -0.27887585759162903, 0.483747661113739, -0.4617331027984619, -0.19729548692703247, 0.18097369372844696, 0.0879422277212143, -0.6830160617828369, -0.9359534382820129, -1.5232659578323364, 0.5086262226104736, -0.9197281002998352, -0.17086833715438843, 0.07742235064506531, -0.013843449763953686, 0.2945759892463684, -0.9975327253341675], [-0.25386953353881836, 1.0887067317962646, 0.4613748788833618, 1.3425706624984741, -1.9046413898468018, 0.21133629977703094, 0.31643426418304443, -0.40241530537605286, -0.9978005290031433, 0.12102832645177841, -0.9271048307418823, -0.34616905450820923, -0.14725491404533386, -1.789864182472229, -0.3577287793159485, -0.5317528247833252, -3.0083513259887695, -0.17520980536937714, -2.0935914516448975, 0.6070888638496399, 0.17423996329307556, -0.12862852215766907, -0.22074469923973083, 1.075348138809204, 0.014060065150260925, 0.06475044786930084, -0.23638461530208588, 0.18413342535495758, 0.11378385126590729, 0.07039617002010345, -0.12604385614395142, -0.21109730005264282, -0.014253661036491394, 0.16100968420505524, -0.013712644577026367, 0.09292949736118317, 0.18219657242298126, 0.0749283879995346, 0.04471920430660248, -0.17327675223350525, 0.05603288114070892, 0.15917806327342987, 0.023729071021080017, -0.03472171723842621, -0.16957655549049377, -0.028447702527046204, 0.22407899796962738, -0.07955096662044525, -0.30414363741874695, 0.9455717206001282, 0.35136792063713074, 1.1680777072906494, 3.1489672660827637, -1.515541434288025, 0.5289945006370544, -0.29838135838508606, 0.08896007388830185, 0.22478269040584564, 0.760617733001709, -0.3745986521244049, 0.5355029702186584, -1.6342949867248535, -0.4415070712566376, 0.12517768144607544, -1.0053904056549072, -0.44269952178001404, -0.5519285202026367, -0.3772742748260498, -0.2707116901874542, -0.13199569284915924, 1.2400208711624146, -3.201760768890381, -0.2542767822742462, -0.39892998337745667, -0.20423786342144012, -0.6465374827384949, 1.0568296909332275, -0.025845760479569435, 0.007817299105226994, 0.2208700031042099, -0.16267389059066772, 0.6268738508224487, 0.585907518863678, 0.2018880397081375, -0.5484414100646973, 1.0893669128417969, 0.2767900228500366, 2.151123523712158, 1.9097484350204468, 0.3260137736797333, 1.8744021654129028, 0.22093339264392853, 0.6083742380142212, -0.16602668166160583, 0.23254841566085815, -0.5521854162216187], [0.19000127911567688, 0.3787674009799957, -0.296289324760437, 0.932672917842865, -2.640526294708252, 0.459953248500824, 0.403104305267334, -0.0977429747581482, 0.2582390010356903, -0.2115224450826645, -0.7062218189239502, -0.22283528745174408, -0.04914110526442528, -0.4770512282848358, -0.17079932987689972, -1.8867322206497192, -2.219649076461792, -0.05004441365599632, -2.236255407333374, -0.013204822316765785, -0.10015422105789185, 0.0713932141661644, -0.335064172744751, -0.7471398711204529, 0.048169270157814026, 0.08563096821308136, 0.21753834187984467, -0.1638043224811554, 0.0024963170289993286, 0.1322232037782669, 0.06662626564502716, -0.14326192438602448, -0.21272584795951843, 0.20579646527767181, 0.12708233296871185, -0.209465891122818, -0.1839369237422943, 0.18733446300029755, -0.0755220353603363, -0.04566068947315216, -0.02057170867919922, 0.09358830749988556, 0.1882960945367813, 0.07592810690402985, -0.13647246360778809, -0.1095886081457138, -0.16412365436553955, -0.15385019779205322, -0.26360124349594116, 0.583116888999939, -0.05257942155003548, -0.1622925102710724, 2.477537155151367, -1.8737258911132812, 0.614378809928894, -0.40323615074157715, 0.2921345829963684, 0.05104237422347069, -0.2194625735282898, -0.2866443395614624, -0.16358515620231628, -0.4970207214355469, -0.41734030842781067, 0.7717803716659546, -0.7784696221351624, -0.39927753806114197, -0.799930989742279, 0.16237568855285645, 0.2168584018945694, 0.1409185528755188, 1.339200735092163, -4.200675964355469, -0.33152440190315247, 0.2431134432554245, 0.13444101810455322, -0.5529841780662537, 1.351036787033081, -0.0712340772151947, -0.23919835686683655, -0.13879182934761047, -0.4596846401691437, 0.3297731578350067, 0.8280176520347595, 0.09518933296203613, 0.31150901317596436, 0.5529821515083313, -0.2170751988887787, 1.3057539463043213, 1.3341189622879028, 0.2844659984111786, 1.7635737657546997, -0.17765992879867554, -0.3896220624446869, 0.13454341888427734, 0.20903725922107697, 0.4031561017036438], [0.09627322107553482, -1.4616295099258423, -0.02083633467555046, -0.8881390690803528, 0.41136011481285095, -0.8430532813072205, 0.33810070157051086, -1.1354966163635254, 1.625128984451294, -0.3791228234767914, 0.9530027508735657, -0.3291843831539154, 0.7056142687797546, 0.9578922390937805, -0.3658581078052521, -0.30863168835639954, 4.062839508056641, 0.4579470753669739, 0.88641756772995, -0.21675321459770203, -0.0009321783436462283, -0.001127234660089016, 0.5608245134353638, -6.022243499755859, -0.22317029535770416, -0.20640423893928528, 0.234661266207695, -0.104434072971344, -0.1683526635169983, -0.22456851601600647, -0.21045249700546265, -0.1627378761768341, -0.21115773916244507, 0.012351199984550476, 0.20992158353328705, 0.06408543884754181, -0.042854905128479004, 0.12328512966632843, -0.03464795649051666, 0.03102104365825653, 0.11462534964084625, 0.05156363546848297, 0.05311770737171173, 0.09083099663257599, 0.21717046201229095, 0.07888029515743256, -0.1000937670469284, 0.01981319487094879, 0.1587054580450058, -1.085351824760437, -1.0653817653656006, -3.928692579269409, -1.5522884130477905, -0.49642840027809143, -0.04225185886025429, -0.0492386668920517, 0.15739458799362183, -0.018433064222335815, -0.3260860741138458, 0.11524379253387451, -0.0010020807385444641, 0.19824963808059692, -0.03353887051343918, 0.47397878766059875, 1.4439817667007446, -0.7245090007781982, 0.2628306448459625, 0.028394851833581924, -0.052318450063467026, 0.04255852848291397, -1.4585814476013184, -4.442863941192627, -0.03399502858519554, 0.0011354890884831548, -0.16429023444652557, 0.4469121992588043, -0.22133906185626984, 0.42220208048820496, -0.06489028036594391, 0.41479945182800293, -0.858741283416748, 0.4978768825531006, -1.0172117948532104, -0.029002409428358078, -0.16087116301059723, -0.7524183392524719, -1.1640771627426147, -1.310256004333496, -2.4667282104492188, 0.03973633795976639, -0.7280603051185608, 0.0823945552110672, 0.18159401416778564, -0.013279636390507221, -0.4554142653942108, 3.324172019958496]], "bias:0": [-0.12791968882083893, 0.3899644613265991, -0.2802072763442993, 0.49664053320884705, 0.53790283203125, 0.35680460929870605, 0.12353234738111496, -1.0372252464294434, -0.8584372401237488, -1.043047308921814, -0.13150937855243683, -0.17594480514526367, 0.24355949461460114, 0.18258985877037048, -0.9545349478721619, -0.0729539692401886, -0.06433868408203125, 0.23777620494365692, 0.2319159358739853, -0.733319878578186, -2.1220028400421143, -1.5302625894546509, 0.6292321085929871, 0.5071014761924744, 1.0, 1.0, 1.0, 1.0, 1.0, 1.0, 1.0, 1.0, 1.0, 1.0, 1.0, 1.0, 1.0, 1.0, 1.0, 1.0, 1.0, 1.0, 1.0, 1.0, 1.0, 1.0, 1.0, 1.0, 0.019749611616134644, 0.16925759613513947, 0.07189171761274338, 0.10757484287023544, 0.0449003241956234, -0.12324333190917969, 0.1408943235874176, 0.0414755754172802, 0.15425747632980347, 0.04926851764321327, -0.02441987581551075, 0.023332692682743073, -0.04315010830760002, -0.013539114966988564, 0.02926642633974552, 0.15386192500591278, 0.09290129691362381, -0.022563699632883072, 0.00961074884980917, 0.09893248975276947, 0.1411607265472412, 0.03063926100730896, -0.043503496795892715, 0.08655813336372375, -0.2614627778530121, 0.15775276720523834, -0.4638172388076782, -0.17198660969734192, -0.08081281185150146, -0.07437913119792938, -0.49138060212135315, -0.6166067719459534, -0.26231515407562256, -0.8362645506858826, -0.3948642909526825, -0.3905230164527893, -0.5484616160392761, -0.5982115268707275, -0.8549075126647949, -0.5582625865936279, -0.20771096646785736, 0.1610756367444992, -0.03272795304656029, -1.3743864297866821, -1.2429507970809937, -1.5121557712554932, -0.20245535671710968, -0.3387477397918701]}, "input_size": 120, "conv1d_stride": 12, "conv1d_1_stride": 12}