{"conv1d": {"bias:0": [-0.0073581598699092865, 0.026761945337057114, -0.020597511902451515, -0.007292572874575853, 0.0012153388233855367, -0.0016560250660404563, 0.0006533359992317855, 0.019317300990223885, 0.01182626187801361, 0.0016872413689270616], "kernel:0": [[[-0.12341120839118958, 0.3435527980327606, -0.0785900130867958, 0.29890748858451843, 0.15070611238479614, -0.9954107999801636, 0.4242042899131775, 0.33645308017730713, 0.20869740843772888, 0.04535633325576782]], [[-0.013496724888682365, -0.0953841432929039, -0.07980270683765411, 0.2644496560096741, 0.051203276962041855, -1.2399126291275024, 0.6253986954689026, 0.1674526035785675, -0.05233262851834297, 0.17330950498580933]], [[0.018427956849336624, -0.26341965794563293, -0.20344962179660797, 0.2266080230474472, 0.4093325436115265, -1.2771461009979248, 0.8310428261756897, 0.2991228699684143, 0.0795501247048378, 0.0767853707075119]], [[-0.18020161986351013, -0.6175965070724487, -0.14353251457214355, -0.0852203220129013, 0.2925128936767578, -1.44351065158844, 0.8513896465301514, 0.16616803407669067, 0.14792674779891968, -0.3018704652786255]], [[-0.307686984539032, -0.8325876593589783, -0.3134686350822449, 0.22333738207817078, 0.5442958474159241, -1.1834750175476074, 0.5954709053039551, 0.3129558861255646, 0.26106885075569153, -0.2416302114725113]], [[-0.3822029232978821, -1.0077499151229858, -0.3513225317001343, 0.05527672544121742, 0.6094263792037964, -0.8892578482627869, 0.6745310425758362, 0.42272594571113586, -0.11545701324939728, -0.3673986792564392]], [[-0.2818470597267151, -0.8744366765022278, -0.5534462928771973, -0.14661742746829987, 0.8762117624282837, -0.14348120987415314, 0.3670572340488434, 0.34448421001434326, 0.020695365965366364, -0.575506865978241]], [[-0.6779763698577881, -1.2501755952835083, -0.5417165160179138, -0.3722224831581116, 0.862639844417572, 0.4552645683288574, 0.10086552798748016, 0.4944326877593994, -0.368699312210083, -0.7224252820014954]], [[-0.35056427121162415, -0.9168649911880493, -0.6624857783317566, -0.6076788902282715, 0.622708797454834, 0.875912606716156, -0.10257720947265625, 0.5929590463638306, -0.35027003288269043, -0.5777930021286011]], [[-0.5699296593666077, -1.09919273853302, -0.6243146061897278, -0.7289066910743713, 0.42098259925842285, 1.030591368675232, -0.35947075486183167, 0.5792219638824463, -0.5931866765022278, -0.41855689883232117]], [[-0.5271298289299011, -0.5690231323242188, -0.5689052939414978, -0.8066107034683228, 0.6617209315299988, 1.384641170501709, -0.7443397045135498, 0.7251965403556824, -0.6783592104911804, -0.35751664638519287]], [[-0.6259011030197144, -0.28031235933303833, -0.49841415882110596, -0.5054266452789307, 0.1395500898361206, 1.472533941268921, -1.0822433233261108, 0.6900039911270142, -0.8236045837402344, -0.5387452244758606]]]}, "conv1d_1": {"bias:0": [0.023348236456513405, 0.0010309950448572636, -0.02727889083325863, -0.07804840058088303, 0.04766445606946945, -0.019178811460733414, -0.0024278792552649975, 0.13221360743045807, -0.03640571981668472, 0.009486205875873566], "kernel:0": [[[0.03550994396209717, -0.07880889624357224, 0.1393519788980484, 0.05837857723236084, 0.059182703495025635, -0.08854357898235321, 0.11589966714382172, 0.13467569649219513, 0.14584363996982574, 0.06510694324970245], [-0.12511876225471497, -0.11817733943462372, 0.12871862947940826, -0.06860020011663437, -0.013439685106277466, 0.012003570795059204, -0.13139835000038147, -0.04655524343252182, 0.044131457805633545, 0.15717168152332306], [-0.05647328495979309, -0.15618585050106049, -0.09349685162305832, 0.0006505846977233887, 0.07856506109237671, 0.15512211620807648, -0.14941470324993134, 0.047519803047180176, 0.03832826018333435, -0.14655348658561707], [-0.1405382752418518, 0.11629442870616913, 0.017206355929374695, -0.09760845452547073, -0.04764726012945175, 0.05642281472682953, 0.15481819212436676, 0.11919306218624115, -0.06301131844520569, -0.1529296338558197], [0.0643652081489563, -0.0984652042388916, -0.10379152745008469, 0.024735227227211, 0.015140548348426819, -0.0018595010042190552, 0.13987396657466888, 0.09883926808834076, 0.06183783710002899, -0.03158549964427948], [0.11764685809612274, 0.11113084852695465, -0.15188941359519958, 0.11603431403636932, 0.12084625661373138, -0.05536540597677231, -0.04490591585636139, -0.036722250282764435, 0.10588158667087555, 0.006692096590995789], [-0.0897858515381813, 0.058953315019607544, 0.07546839118003845, 0.01945433020591736, -0.0856175497174263, 0.03915390372276306, 0.08320239186286926, 0.11104921996593475, -0.156955286860466, -0.1264425814151764], [-0.11594611406326294, -0.14622589945793152, -0.020371168851852417, -0.06530123949050903, 0.09008927643299103, -0.04917000234127045, -0.071566641330719, -0.011656522750854492, -0.1056513637304306, 0.12066562473773956], [-0.003951013088226318, -0.1261076033115387, 0.05220392346382141, 0.008778303861618042, 0.07889096438884735, -0.09997870773077011, 0.04488416016101837, 0.12942396104335785, -0.09493537992238998, -0.03662607818841934], [0.04686534404754639, -0.06266001611948013, -0.08409597724676132, -0.12346397340297699, -0.09123960882425308, -0.08042033761739731, 0.15675632655620575, 0.13572658598423004, 0.13830672204494476, 0.009876608848571777]], [[-0.010140910744667053, -0.11453943699598312, -0.12229308485984802, 0.06463219225406647, 0.01556830108165741, -0.12914423644542694, 0.04360339045524597, 0.02384921908378601, -0.04250527173280716, 0.08738362789154053], [-0.10818642377853394, -0.05253271758556366, -0.09698757529258728, 0.01248691976070404, 0.06638605892658234, 0.017804279923439026, 0.007223561406135559, -0.017550840973854065, -0.07085476815700531, -0.012114360928535461], [-0.1437271237373352, 0.08222690224647522, 0.06047448515892029, 0.020886823534965515, -0.05079871416091919, -0.0846555158495903, -0.08643233776092529, 0.08504316210746765, -0.14026866853237152, -0.06768201291561127], [0.015395238995552063, -0.11392338573932648, -0.00041478872299194336, 0.13317300379276276, 0.030896663665771484, 0.04408493638038635, -0.09075320512056351, 0.04213361442089081, -0.06122443079948425, 0.1423325389623642], [0.12657849490642548, 0.15313981473445892, 0.13228611648082733, -0.09967109560966492, 0.06440509855747223, 0.01909796893596649, -0.01777520775794983, -0.005042240023612976, -0.12002533674240112, -0.08107872307300568], [-0.08345146477222443, -0.11014879494905472, 0.131243035197258, -0.056932367384433746, 0.03675052523612976, -0.09292158484458923, -0.11835481226444244, 0.03704312443733215, -0.10042443871498108, 0.005169093608856201], [0.12425388395786285, -0.06311185657978058, -0.023364663124084473, 0.11556471884250641, 0.12936840951442719, 0.12873701751232147, 0.04919688403606415, 0.062360554933547974, -0.03439146280288696, -0.13671249151229858], [0.11961929500102997, -0.09926257282495499, -0.14326873421669006, -0.10634385794401169, 0.016186758875846863, -0.10557253658771515, 0.06454356014728546, -0.04445324093103409, 0.012591302394866943, 0.04289548099040985], [-0.09184876084327698, -0.09738890826702118, 0.021610155701637268, -0.08017255365848541, 0.08026623725891113, -0.13536560535430908, 0.060001522302627563, -0.14476218819618225, -0.04940248280763626, -0.021415188908576965], [0.012661844491958618, -0.15486513078212738, -0.08388015627861023, 0.0004489719867706299, -0.09201489388942719, 0.03206011652946472, 0.10102973878383636, -0.1015501618385315, 0.1319003850221634, 0.07339997589588165]], [[0.08852224051952362, 0.06835328042507172, 0.130226269364357, 0.08514803647994995, 0.021462082862854004, 0.019471585750579834, -0.08601397275924683, -0.11971192061901093, -0.0779205933213234, 0.09561152756214142], [0.061517223715782166, -0.013462379574775696, -0.12388776242733002, 0.0967945009469986, 0.0912231057882309, 0.1513083428144455, 0.09190650284290314, -0.056316882371902466, -0.12748615443706512, -0.008745387196540833], [-0.009165272116661072, 0.1470189243555069, 0.12278275191783905, -0.04207884520292282, 0.06546498835086823, 0.07433576881885529, 0.08940823376178741, 0.00458119809627533, -0.08759718388319016, 0.13032759726047516], [0.015277013182640076, -0.0034073442220687866, 0.08145293593406677, -0.03112548589706421, 0.13980822265148163, 0.06213168799877167, 0.003675520420074463, 0.13074515759944916, 0.002539023756980896, 0.13779617846012115], [0.08151929080486298, -0.03383919596672058, 0.016031906008720398, 0.12188653647899628, 0.06005437672138214, -0.0977223739027977, -0.14434807002544403, 0.11962179839611053, 0.13913853466510773, -0.1042896956205368], [-0.1478976607322693, 0.09618408977985382, -0.12818437814712524, 0.011149957776069641, -0.15781542658805847, 0.06449590623378754, 0.08207924664020538, -0.0970441997051239, -0.027148082852363586, 0.08417701721191406], [0.105227991938591, 0.0384598970413208, 0.07191209495067596, -0.06161037087440491, -0.019655704498291016, -0.11832432448863983, 0.10699369013309479, -0.09972681105136871, -0.12887389957904816, 0.07409895956516266], [-0.1308130919933319, -0.07937035709619522, -0.023912295699119568, -0.002970963716506958, -0.10566176474094391, 0.035156041383743286, -0.1279064118862152, 0.07622252404689789, -0.023765578866004944, -0.09153029322624207], [0.03694356977939606, 0.05387119948863983, 0.11493133008480072, 0.009785428643226624, -0.01790308952331543, -0.1566232144832611, -0.1378076672554016, -0.1309688240289688, -0.08991504460573196, 0.07351762056350708], [0.13660459220409393, 0.008835002779960632, 0.10784231126308441, -0.13354742527008057, 0.03618626296520233, -0.009901002049446106, 0.008348405361175537, -0.07977141439914703, 0.021658822894096375, -0.05113237351179123]], [[0.13528846204280853, -0.04793087765574455, -0.0545266754925251, -0.047951918095350266, 0.15265795588493347, -0.03391676023602486, -0.20751479268074036, 0.05521335452795029, 0.1327304244041443, -0.03116077184677124], [-0.16424548625946045, -0.0644940584897995, 0.06495972722768784, -0.053450874984264374, -0.04465894773602486, 0.19085560739040375, 0.03108065016567707, 0.17043733596801758, -0.12818889319896698, 0.03155800327658653], [0.15849171578884125, 0.09234821796417236, 0.21571128070354462, -0.009238223545253277, -0.023505939170718193, 0.10537643730640411, -0.15241429209709167, -0.18535764515399933, 0.11333276331424713, 0.010857597924768925], [0.050366081297397614, -0.08699507266283035, 0.19339188933372498, 0.13615548610687256, -0.15891623497009277, 0.09847905486822128, -0.1635117083787918, 0.09301527589559555, -0.03834300860762596, 0.16234970092773438], [-0.0477074570953846, 0.011352026835083961, -0.09036172181367874, 0.106580451130867, 0.11984048038721085, -0.14978954195976257, 0.07584647089242935, 0.11912744492292404, 0.13455995917320251, -0.17623792588710785], [0.1221155896782875, 0.23259948194026947, -0.013221271336078644, -0.0558626689016819, 0.08613414317369461, -0.14291000366210938, 0.013084344565868378, -0.19620908796787262, 0.042353369295597076, -0.03157167509198189], [0.022688155993819237, -0.11249874532222748, 0.07503049075603485, 0.15439236164093018, 0.07430655509233475, 0.07378105074167252, -0.10843516141176224, -0.02799510769546032, 0.08487745374441147, -0.09539800882339478], [-0.16109701991081238, 0.016735922545194626, 0.05636691302061081, 0.12029050290584564, -0.22051283717155457, -0.08773896843194962, 0.07795017957687378, 0.14543361961841583, -0.224147766828537, 0.049616698175668716], [0.1548171043395996, 0.06340064853429794, 0.11489462852478027, -0.24132996797561646, 0.016330396756529808, -0.06080799922347069, -0.16585089266300201, 0.06721297651529312, -0.03040066920220852, 0.15804381668567657], [-0.02341829240322113, 0.0739978477358818, 0.09173105657100677, -0.1194000318646431, -0.1460503339767456, 0.14076542854309082, 0.011928344145417213, 0.06635234504938126, 0.0009068778599612415, -0.010689607821404934]], [[0.010130371898412704, -0.056564535945653915, 0.09350710362195969, -0.04146505892276764, 0.07549029588699341, 0.07994353771209717, -0.04982035607099533, -0.010477581061422825, 0.25167834758758545, 0.08290498703718185], [0.033870402723550797, 0.0672164335846901, 0.2882723808288574, -0.21689826250076294, -0.17039607465267181, 0.30866366624832153, -0.1792723536491394, 0.16251999139785767, 0.026056477800011635, 0.04097559675574303], [0.006724560633301735, -0.13489460945129395, 0.24399428069591522, -0.052588239312171936, -0.13687613606452942, -0.013997814618051052, -0.028141740709543228, -0.18099316954612732, 0.1641542911529541, -0.0002586051414255053], [0.0065894280560314655, -0.16259393095970154, 0.07706297188997269, 0.009250020608305931, -0.07737866789102554, -0.060606036335229874, -0.2654661238193512, -0.12885183095932007, 0.20163282752037048, 0.026257982477545738], [-0.00543186254799366, 0.016199542209506035, -0.21750254929065704, 0.045617032796144485, 0.09302978217601776, -0.03992132470011711, 0.21849681437015533, -0.08776984363794327, -0.09875267744064331, -0.03375207632780075], [0.3380643427371979, 0.21829138696193695, 0.07889486104249954, 0.10840905457735062, 0.12709257006645203, -0.09971407800912857, 0.19838111102581024, -0.038595449179410934, 0.16302071511745453, -0.14274564385414124], [-0.223497211933136, -0.05791166424751282, 0.09421272575855255, -0.13585935533046722, 0.04352567344903946, 0.026511462405323982, -0.123543880879879, -0.08203732967376709, -0.030119121074676514, 0.04666774719953537], [0.013877720572054386, -0.029795704409480095, -0.061648108065128326, 0.15846122801303864, 0.029568493366241455, -0.052922047674655914, 0.19666345417499542, 0.038750115782022476, -0.2098023146390915, -0.16748052835464478], [0.09415704011917114, -0.1632678061723709, 0.1396155059337616, -0.2984333634376526, 0.11898304522037506, 0.08927462249994278, -0.1075703576207161, -0.115945965051651, 0.034670986235141754, 0.07427683472633362], [0.1580483466386795, -0.1363227218389511, 0.0491485595703125, -0.03847285360097885, -0.05410502851009369, 0.03598807007074356, -0.14140476286411285, -0.1536736637353897, 0.19998566806316376, 0.2126530557870865]], [[-0.010294314473867416, -0.47160908579826355, 0.3197092115879059, -0.39477652311325073, 0.04137355461716652, -0.16720084846019745, -0.23367939889431, -0.14238303899765015, 0.28231221437454224, 0.3540130853652954], [0.1466439664363861, -0.2300611287355423, 0.3010542690753937, -0.3968104124069214, -0.2854849696159363, 0.1601174771785736, -0.273788183927536, -0.1358877271413803, 0.26546603441238403, 0.12442370504140854], [-0.03687450289726257, -0.3256017565727234, 0.1405371129512787, -0.18240231275558472, -0.08164912462234497, -0.025651874020695686, -0.3034685254096985, -0.08791444450616837, 0.15029136836528778, 0.24836459755897522], [0.026703475043177605, -0.4019363522529602, 0.09953093528747559, -0.3499946892261505, -0.1020655706524849, 0.19336524605751038, -0.24689462780952454, -0.04707041010260582, 0.18449784815311432, 0.23710346221923828], [-0.1739855855703354, 0.2511463761329651, -0.36924004554748535, 0.27176976203918457, 0.3241882622241974, -0.306120902299881, 0.3377593755722046, -0.06180576607584953, -0.3315483629703522, -0.24155952036380768], [0.37375956773757935, 0.4284847676753998, 0.03213173896074295, -0.013866977766156197, -0.02171585150063038, 0.06090330332517624, 0.09835869073867798, 0.04463306441903114, 0.1484593003988266, -0.0238258745521307], [-0.09139575809240341, -0.5373826026916504, 0.002922722836956382, 0.12756183743476868, 0.5225418210029602, -0.1831052005290985, -0.03530281037092209, -0.22042512893676758, -0.2645620107650757, 0.0331343412399292], [-0.20511028170585632, 0.4515766203403473, -0.3564622104167938, 0.12269679456949234, 0.21636506915092468, 0.07657533138990402, 0.27321839332580566, 0.23293039202690125, -0.323773592710495, -0.23100557923316956], [0.16706347465515137, -0.30700212717056274, 0.11939400434494019, -0.3282378911972046, 0.1997285634279251, -0.11782801896333694, -0.45205289125442505, -0.15972158312797546, 0.10049154609441757, 0.3509027361869812], [0.14709694683551788, -0.26341384649276733, 0.2664795517921448, -0.3872460424900055, -0.029990222305059433, -0.02817554399371147, -0.2650092542171478, -0.06281254440546036, 0.14705277979373932, 0.13129357993602753]], [[0.3191998302936554, -0.40169480443000793, 0.06110912933945656, 0.27381473779678345, 0.3201611042022705, -1.1630076169967651, 0.018984513357281685, -0.18801018595695496, -0.1306205689907074, 0.4876749515533447], [0.854384183883667, -0.8644734621047974, 0.34379932284355164, -0.344414621591568, 0.41280680894851685, -1.9569361209869385, -0.2047087401151657, -0.13520599901676178, 0.31636714935302734, 0.9875911474227905], [0.4153813123703003, -0.6378991603851318, -0.024119598791003227, -0.04196324944496155, 0.3088880181312561, -1.2103396654129028, -0.059236492961645126, -0.06197941675782204, 0.12559065222740173, 0.5168182253837585], [0.37426871061325073, -0.6225420236587524, -0.08668335527181625, 0.7057157158851624, 0.546933650970459, -1.0963528156280518, 0.20655031502246857, 0.0004706698236986995, -0.17385008931159973, 0.10926535725593567], [-0.7054898142814636, 0.6474207639694214, -0.09570729732513428, 0.1914767175912857, -0.23093794286251068, 1.8358691930770874, -0.030729347839951515, 0.2616387903690338, -0.08035282045602798, -0.6013223528862], [-0.6394053101539612, 1.2016918659210205, 0.40065664052963257, -1.7843232154846191, -1.3564943075180054, 1.0208075046539307, -0.42353489995002747, -0.28582897782325745, -0.09504809975624084, 0.1910179704427719], [0.41002753376960754, -0.391510546207428, -0.27027368545532227, 1.3829450607299805, 1.3195513486862183, 0.6217373013496399, 0.3957083523273468, 0.49026429653167725, 0.029822755604982376, -0.43674489855766296], [-0.2785364091396332, 0.6851242780685425, -0.07198002189397812, -0.23352167010307312, -0.4263978600502014, 1.3030879497528076, 0.11803577840328217, 0.17206354439258575, -0.12340395897626877, -0.3320466876029968], [0.3491035997867584, -0.7432994246482849, -0.34743934869766235, 0.6143735647201538, 0.9562821984291077, -0.7319555878639221, -0.15710516273975372, 0.31947416067123413, -0.11836361885070801, 0.1921798288822174], [0.3707735240459442, -0.4722597897052765, 0.06999094784259796, 0.13633820414543152, 0.20496706664562225, -1.394114375114441, -0.03490613028407097, -0.07727161794900894, -0.13152405619621277, 0.3897492289543152]], [[-0.4873493015766144, 0.5419161915779114, -0.3351708948612213, 0.5763263702392578, -0.5190930962562561, 0.8495847582817078, 0.6727184057235718, 0.24148133397102356, -0.4179977476596832, -0.6006093621253967], [-1.0753527879714966, 1.1460963487625122, -0.7820825576782227, 0.7247605919837952, -0.4090273082256317, 1.8935011625289917, 0.7301880717277527, 0.5834295749664307, -0.7344483733177185, -1.0581647157669067], [-0.5041059255599976, 0.6726056337356567, -0.19838856160640717, 0.6142234206199646, -0.6068066358566284, 0.9437698721885681, 0.6573283672332764, 0.4373672604560852, -0.3617238700389862, -0.5394205451011658], [-0.015299657359719276, 0.4240809977054596, -0.28283432126045227, 0.053160812705755234, -1.0676037073135376, 0.4917524456977844, 0.6690376400947571, 0.18429650366306305, -0.2991756796836853, -0.5510671138763428], [1.092962384223938, -0.7263026237487793, 0.44782644510269165, -0.741888165473938, 0.16228999197483063, -1.3719934225082397, -0.4174051582813263, -0.5102659463882446, 0.3826233744621277, 0.5824347138404846], [-0.7994726300239563, -1.027984619140625, 0.1106020137667656, 1.015944004058838, 3.8386495113372803, 0.8129221200942993, -2.3401546478271484, -0.3643803000450134, 0.5906882882118225, 0.2697382867336273], [1.1076339483261108, 0.4395262897014618, 0.0393768809735775, -1.0772171020507812, -3.0019586086273193, -1.6001501083374023, 1.4909576177597046, 0.18376539647579193, -0.0888398289680481, -0.013033564202487469], [0.6810320615768433, -0.6664953231811523, 0.2797921895980835, -0.5583842992782593, 0.44651103019714355, -0.6824608445167542, -0.6678071618080139, -0.48036789894104004, 0.5743996500968933, 0.5255497694015503], [0.0553927905857563, 0.5376787185668945, -0.3327022194862366, 0.24132640659809113, -1.20150887966156, 0.26168861985206604, 0.9365970492362976, 0.4150468707084656, -0.4544934928417206, -0.3982287645339966], [-0.7567987442016602, 0.6946365237236023, -0.38370898365974426, 0.4884045422077179, -0.5876356959342957, 0.9584810137748718, 0.7126415967941284, 0.4888004660606384, -0.5357075333595276, -0.67914879322052]], [[0.013261869549751282, 0.039812713861465454, 0.12899084389209747, 0.14662118256092072, -0.15522551536560059, -0.11963467299938202, 0.11784763634204865, 0.02511453628540039, 0.13174505531787872, 0.06636947393417358], [0.13722245395183563, 0.14436636865139008, -0.03219321370124817, 0.0698951780796051, -0.037181586027145386, -0.053162336349487305, 0.05865463614463806, -0.03274370729923248, 0.005070328712463379, -0.08811744302511215], [-0.019808873534202576, -0.07603241503238678, 0.07051330804824829, 0.10218386352062225, -0.021097317337989807, -0.13330556452274323, 0.1271332949399948, -0.11796125769615173, -0.12525466084480286, 0.05204777419567108], [0.1300996094942093, 0.12650053203105927, -0.0801180824637413, -0.027432993054389954, -0.05851086229085922, -0.10066182166337967, -0.015006721019744873, -0.048705458641052246, -0.033415667712688446, -0.06987418234348297], [-0.03777004033327103, 0.02800743281841278, -0.04961200803518295, 0.14087407290935516, -0.11618609726428986, 0.11075545847415924, -0.036677345633506775, -0.10576154291629791, -0.07867144793272018, 0.1492335945367813], [0.05892813205718994, 0.07410129904747009, -0.030498996376991272, 0.08377814292907715, 0.10520796477794647, 0.10412190854549408, -0.03824932873249054, -0.04272440820932388, 0.10868577659130096, -0.12626969814300537], [0.13269184529781342, -0.022370129823684692, -0.13748261332511902, -0.02884867787361145, 0.09790702164173126, -0.14105382561683655, 0.01707683503627777, -0.07397628575563431, -0.055116452276706696, 0.0765443742275238], [-0.08821345865726471, 0.15162305533885956, 0.14675767719745636, 0.03570094704627991, -0.013799548149108887, 0.06916649639606476, 0.14559464156627655, 0.09632693231105804, -0.04579481482505798, 0.035029903054237366], [-0.008622795343399048, -0.076243557035923, -0.12827184796333313, -0.04642108082771301, -0.046814486384391785, -0.13689444959163666, 0.012781381607055664, -0.014577090740203857, -0.11096218973398209, -0.008687108755111694], [-0.05644837021827698, 0.06830054521560669, -0.06011299788951874, 0.026361599564552307, -0.01416027545928955, 0.10851149260997772, 0.14607356488704681, -0.11403723061084747, -0.12071821093559265, -0.13396847248077393]], [[-0.0807148665189743, -0.09785766899585724, -0.034584738314151764, 0.058630287647247314, 0.1315985769033432, -0.1238299310207367, 0.15711815655231476, 0.0148811936378479, -0.08311475068330765, -0.13746127486228943], [-0.1173972636461258, 0.028311192989349365, -0.03817419707775116, -0.0626412034034729, -0.14516188204288483, -0.14339961111545563, 0.029583320021629333, -0.12993671000003815, -0.0760296955704689, -0.0028585046529769897], [-0.013068974018096924, 0.06476417183876038, -0.07685308158397675, -0.11419013142585754, -0.08439713716506958, 0.13475026190280914, -0.04360942542552948, -0.15658555924892426, -0.10959566384553909, -0.12866204977035522], [-0.08663511276245117, 0.04591144621372223, -0.07358518242835999, 0.01968175172805786, 0.04734066128730774, -0.10402204096317291, -0.10956603288650513, 0.011119261384010315, -0.15644505620002747, -0.10802164673805237], [-0.13670714199543, -0.142948716878891, 0.048072680830955505, 0.09170520305633545, 0.07115046679973602, 0.014686673879623413, 0.12650887668132782, 0.0032617896795272827, 0.07944786548614502, 0.01755698025226593], [-0.04957231134176254, -0.14564508199691772, -0.02753247320652008, 0.1086883693933487, -0.04936014860868454, -0.010370895266532898, -0.11009447276592255, 0.09695033729076385, -0.06646257638931274, -0.146457239985466], [-0.09266166388988495, -0.08357394486665726, 0.004268720746040344, 0.06882604956626892, 0.09961824119091034, -0.11941908299922943, 0.05819427967071533, -0.061904750764369965, 0.06894388794898987, 0.028373807668685913], [-0.07089363038539886, -0.04181171953678131, 0.07677248120307922, 0.05584913492202759, -0.13006871938705444, -0.11596288532018661, 0.015865549445152283, 0.003304809331893921, -0.07853657007217407, 0.11342315375804901], [0.057720690965652466, -0.00649377703666687, -0.02369523048400879, 0.09381477534770966, 0.13401268422603607, -0.13553282618522644, -0.11752400547266006, 0.1302710920572281, -0.001077204942703247, 0.05212704837322235], [-0.013016492128372192, 0.1402331441640854, 0.09541083872318268, 0.05181194841861725, 0.13949774205684662, -0.07446055114269257, -0.08975204080343246, 0.09894458949565887, 0.02447579801082611, 0.11860142648220062]], [[0.06037616729736328, 0.057919055223464966, -0.062292054295539856, -0.020409345626831055, -0.06434078514575958, -0.09580302238464355, 0.13547442853450775, -0.015276491641998291, -0.1315966248512268, -0.03591424226760864], [0.05999104678630829, 0.03899678587913513, -0.03577928990125656, 0.08268846571445465, 0.14258645474910736, 0.09251280128955841, -0.049827367067337036, -0.005274981260299683, 0.019164323806762695, 0.04770030081272125], [-0.0027788877487182617, 0.15097437798976898, -0.1213218942284584, 0.1481151431798935, 0.029119163751602173, -0.13573017716407776, 0.021844297647476196, -0.15384021401405334, -0.10161575675010681, 0.11017371714115143], [-0.08817941695451736, -0.14398127794265747, -0.15654189884662628, -0.03859252482652664, -0.010104119777679443, 0.06311333179473877, -0.04535190761089325, -0.14355134963989258, 0.048654913902282715, -0.09658825397491455], [-0.14392748475074768, -0.09646196663379669, -0.033606790006160736, -0.11925303190946579, 0.047835707664489746, -0.09494616091251373, 0.06694281101226807, -0.014454945921897888, 0.11147980391979218, -0.033993832767009735], [0.07388995587825775, 0.06980454921722412, -0.128854900598526, -0.09506712853908539, -0.09555711597204208, -0.14934082329273224, -0.05911021679639816, 0.05730220675468445, -0.1156591922044754, 0.1016053706407547], [0.064162477850914, 0.11754243075847626, 0.15454556047916412, -0.06783083826303482, -0.03363872319459915, 0.15500782430171967, -0.13813315331935883, -0.1407817304134369, -0.13444292545318604, 0.07863163948059082], [-0.013943776488304138, 0.030161485075950623, 0.14911766350269318, -0.13671042025089264, 0.06818817555904388, -0.016905128955841064, -0.05375128239393234, 0.03852730989456177, 0.13333983719348907, 0.1486743539571762], [-0.08009248226881027, 0.07082211971282959, 0.06054282188415527, -0.04556509107351303, 0.08390718698501587, -0.020271897315979004, -0.007202327251434326, 0.04688464105129242, 0.12171922624111176, -0.1465090811252594], [0.14162923395633698, -0.013521865010261536, 0.09516511857509613, -0.13756486773490906, -0.009339049458503723, -0.0902637392282486, -0.020233154296875, 0.13607706129550934, 0.12413962185382843, 0.036462053656578064]], [[0.117891326546669, -0.03804055601358414, 0.04861883819103241, -0.10161726176738739, -0.15062256157398224, -0.01716350018978119, 0.06641146540641785, -0.13023842871189117, -0.020668134093284607, 0.12920714914798737], [-0.0546959713101387, 0.038765132427215576, -0.022344127297401428, -0.08174204081296921, -0.06687279790639877, 0.05183704197406769, -0.07733100652694702, 0.11045144498348236, 0.0035509318113327026, 0.09294082224369049], [0.1164606362581253, 0.13526786863803864, 0.15309394896030426, -0.09705434739589691, 0.15726728737354279, -0.08144596964120865, 0.03542278707027435, 0.03264668583869934, -0.114677295088768, -0.06308324635028839], [-0.010093450546264648, -0.11532662808895111, -0.13885998725891113, 0.018384218215942383, -0.0013737231492996216, 0.05902425944805145, 0.14326728880405426, 0.11764015257358551, 0.12198273837566376, 0.14170701801776886], [0.12614835798740387, -0.011363476514816284, -0.004229485988616943, -0.0020870715379714966, -0.03813427686691284, 0.12548552453517914, 0.009231910109519958, -0.0037476420402526855, -0.04600229859352112, 0.15220554172992706], [-0.11144818365573883, 0.14043478667736053, 0.15257678925991058, -0.047314733266830444, 0.05637279152870178, 0.1030145138502121, -0.10445714741945267, -0.04267434775829315, -0.06118766963481903, -0.017624422907829285], [0.06410717964172363, 0.05487024784088135, -0.07996732741594315, 0.1520785540342331, -0.0688733235001564, -0.1477527767419815, -0.012611031532287598, 0.07105875015258789, -0.1113700419664383, 0.06030939519405365], [0.12321491539478302, -0.06627447158098221, 0.12806843221187592, 0.07160621881484985, -0.1383468210697174, 0.07090377807617188, 0.08699534833431244, -0.012355178594589233, 0.09634001553058624, 0.09416823089122772], [-0.10012376308441162, -0.019651249051094055, 0.08826453983783722, -0.006856650114059448, -0.027766913175582886, 0.15101148188114166, -0.07579684257507324, -0.10461117327213287, -0.036998115479946136, 0.06332115828990936], [-0.012934625148773193, 0.046754851937294006, -0.11145515739917755, -0.013540416955947876, -0.018889054656028748, 0.0758458822965622, -0.05614038556814194, -0.058791592717170715, 0.009636253118515015, -0.07250771671533585]]]}, "dense": {"bias:0": [-0.009462338872253895], "kernel:0": [[-0.21312108635902405], [0.0962681844830513], [0.24613487720489502], [-0.7794961929321289], [-0.26136669516563416], [-0.18387629091739655], [-0.5306004285812378], [-0.24714553356170654], [0.20949822664260864], [-0.21259400248527527]]}, "lstm": {"bias:0": [0.43077990412712097, 0.13200828433036804, -0.18825116753578186, -0.705529510974884, 0.015001845546066761, -0.01718991994857788, -1.3008363246917725, 0.2871647775173187, -0.6054847240447998, 0.18777483701705933, 1.0, 1.0, 1.0, 1.0, 1.0, 1.0, 1.0, 1.0, 1.0, 1.0, -0.05056863650679588, 0.050077129155397415, 0.06418900191783905, 0.13502641022205353, 0.0271126888692379, -0.03298594430088997, 0.04584454372525215, 0.08154691755771637, -0.13083972036838531, -0.10687041282653809, 0.19443129003047943, 0.8534319400787354, -0.34358710050582886, -0.9136509299278259, 0.3382541537284851, -0.08794841170310974, -1.2203311920166016, 0.22499188780784607, -0.1524748057126999, 0.08424137532711029], "kernel:0": [[-1.2927792072296143, 0.25262340903282166, 0.5560118556022644, 0.05974332615733147, 1.189849615097046, -0.06535586714744568, -0.23147791624069214, 0.7385971546173096, -0.07618067413568497, 0.6659383177757263, 0.2236890196800232, 0.327208936214447, 0.3430517911911011, 0.26641881465911865, 0.2121295928955078, -0.11113022267818451, 0.2414463758468628, -0.23698171973228455, -0.29803451895713806, -0.34043487906455994, 1.2545491456985474, -0.47836628556251526, -0.10090363025665283, 0.08249972015619278, -0.16716593503952026, -0.22143229842185974, 0.15036380290985107, 0.6754849553108215, -0.14941108226776123, -0.04833861067891121, 0.9539394378662109, -0.3540048599243164, -0.6155917048454285, 0.20141249895095825, -0.7153964042663574, 0.1556660681962967, -0.35106366872787476, -0.3482276499271393, -0.0592455193400383, -0.866374135017395], [1.6495888233184814, 0.031182659789919853, 0.19089636206626892, 0.2527512013912201, -1.0247222185134888, -0.29588767886161804, -0.17581187188625336, 0.026264257729053497, -0.07101290673017502, 0.5135818123817444, 0.05604550242424011, 0.014337331056594849, 0.27838951349258423, 0.23460739850997925, -0.09588903188705444, -0.28295832872390747, 0.339941143989563, -0.24001601338386536, 0.22962158918380737, 0.33723634481430054, -0.14465151727199554, 0.854935884475708, -0.0932961106300354, 0.1533830463886261, 0.11180251091718674, 0.19416649639606476, 0.08795274049043655, -1.3150527477264404, -0.6313983201980591, -0.1735178381204605, -1.4281609058380127, 0.004098816309124231, -0.3970847725868225, -0.04269134998321533, 0.4757828712463379, 0.38696011900901794, -0.09104188531637192, -0.4759390950202942, 0.32662734389305115, 0.2958541214466095], [-0.49035272002220154, -0.06100763380527496, 0.007746637798845768, 0.10899262875318527, 0.542785108089447, 0.2930438220500946, 0.042149562388658524, -0.033136673271656036, -0.026775265112519264, -0.33493122458457947, -0.183832585811615, -0.14397576451301575, 0.13041850924491882, 0.2492830753326416, -0.20930692553520203, -0.33734285831451416, 0.13865000009536743, -0.17578108608722687, -0.21670274436473846, 0.21614056825637817, 0.9266161322593689, -0.3081837594509125, -0.1461576670408249, -0.03586658090353012, -0.3098445236682892, 0.6313349008560181, -0.1411009430885315, 0.6389745473861694, 0.32759878039360046, 0.044679030776023865, 0.6540600657463074, -0.4720589518547058, -0.00666816346347332, -0.11184360086917877, -0.33356860280036926, 0.01823849231004715, 0.04496453329920769, -0.009244428016245365, -0.08417452126741409, -0.08249076455831528], [0.06394477933645248, -0.0968758687376976, 0.017617661505937576, 0.19905611872673035, 0.009941557422280312, -0.030773870646953583, 0.3546436131000519, -0.4253360629081726, -0.12159581482410431, 0.03567180782556534, -0.09577769041061401, 0.028160005807876587, -0.041027456521987915, 0.31041091680526733, 0.12101730704307556, 0.3458207845687866, 0.07237645983695984, 0.1984437108039856, 0.16682612895965576, -0.10094407200813293, -2.228424549102783, -0.37498927116394043, -0.07900500297546387, -0.32865428924560547, 0.48063528537750244, -0.7572682499885559, 0.12708428502082825, -0.4020170569419861, 0.08544865995645523, -0.27234095335006714, 0.15500907599925995, 0.6351895928382874, 0.4801890552043915, -0.03395824879407883, -0.07681909203529358, 0.2764846086502075, 0.25755101442337036, 0.037214573472738266, -0.1636255830526352, 0.06920450180768967], [-0.9503913521766663, -1.5755436420440674, -0.12312909215688705, -0.05352368578314781, 1.1788229942321777, 0.4812053143978119, -0.2874915301799774, -0.46467840671539307, 0.07105840742588043, -1.145861268043518, 0.13574528694152832, 0.12553071975708008, 0.10656222701072693, -0.0667622983455658, 0.27949267625808716, 0.2643401026725769, 0.15407294034957886, -0.29060935974121094, 0.2408120036125183, -0.007903099060058594, -2.807908535003662, -1.2322030067443848, -0.17059166729450226, 0.20757310092449188, -0.31257131695747375, -0.4451585114002228, -0.08546976745128632, 1.687923550605774, 0.5980566143989563, 0.5266968607902527, 0.8389835357666016, 1.3078685998916626, -0.0072959549725055695, 0.0601377859711647, -0.6073850393295288, -0.322890043258667, 0.05631609261035919, 1.2123616933822632, -0.38422706723213196, -0.031428541988134384], [1.5772314071655273, 0.15182991325855255, -0.19807416200637817, -0.006041631102561951, -1.5229084491729736, -0.10860424488782883, -0.12640030682086945, -0.48419496417045593, -0.026231493800878525, -0.003737058024853468, -0.20386213064193726, -0.13688379526138306, -0.22961141169071198, -0.25879159569740295, 0.22652721405029297, 0.13544020056724548, -0.011241316795349121, -0.1301049143075943, -0.11300742626190186, 0.32893842458724976, -1.7919962406158447, 0.8904938697814941, -0.2682762145996094, 0.06531669199466705, 0.5983550548553467, 1.036031723022461, -0.1621769219636917, -0.9728421568870544, 0.13086602091789246, -0.17814821004867554, -0.9696685671806335, 0.7232980728149414, 0.22134491801261902, 0.13629893958568573, 1.2356051206588745, 0.06346844881772995, -0.07423000782728195, 0.03865931183099747, 0.015409760177135468, 0.3528846502304077], [0.4761292636394501, 0.31953418254852295, -0.16762444376945496, 0.132123202085495, -0.6847060322761536, 0.08123445510864258, -0.11592692881822586, 0.27138933539390564, 0.03212962672114372, 1.1621752977371216, 0.25818300247192383, -0.3137025237083435, -0.34143638610839844, 0.07505720853805542, -0.018720149993896484, -0.013784706592559814, 0.07990345358848572, -0.17720724642276764, 0.16658347845077515, -0.004412978887557983, 0.14484015107154846, 0.31158819794654846, 0.07369542121887207, 0.12889958918094635, 0.4822426438331604, -0.5867639780044556, -0.15329204499721527, -1.309939980506897, -0.16197670996189117, -0.4794653058052063, 0.04698064923286438, -0.21823762357234955, -0.005131982732564211, -0.004950834438204765, 0.5713843107223511, -0.1010216623544693, 0.20139947533607483, -1.0721278190612793, 0.17337444424629211, -0.27711376547813416], [0.9777026772499084, 0.4015880227088928, 0.05302251875400543, -0.3874923884868622, -0.37603190541267395, -0.13970479369163513, -0.1724797487258911, 0.012154931202530861, -0.09180832654237747, 0.40320146083831787, -0.2903222143650055, -0.14982037246227264, 0.14640268683433533, -0.06266382336616516, 0.2103981375694275, -0.0009083449840545654, -0.197246715426445, 0.3186718225479126, -0.058780401945114136, -0.09756569564342499, -0.6691460609436035, 0.5531269907951355, 0.12232966721057892, -0.12228437513113022, -0.0009441768052056432, -0.253670871257782, -0.257828027009964, -0.4730755686759949, -0.28184574842453003, -0.3107181787490845, -0.5014374852180481, 0.4442371129989624, 0.06929673999547958, -0.4519007205963135, 0.28558266162872314, -0.01373344287276268, 0.08931330591440201, -0.2659076750278473, 0.4015059173107147, -0.35833802819252014], [-0.9737560749053955, 0.1545855849981308, 0.04131363332271576, 0.35530227422714233, 0.8608396053314209, -0.06103118881583214, -0.018748322501778603, -0.21059590578079224, 0.20985227823257446, -0.1671821027994156, 0.24624210596084595, -0.15684908628463745, 0.06759166717529297, 0.3393341302871704, 0.0664428174495697, -0.22244609892368317, 0.32023555040359497, 0.12396547198295593, -0.005027711391448975, -0.2980479896068573, 0.5132912993431091, -0.5201156139373779, -0.21895886957645416, 0.16767674684524536, 0.06060514599084854, 0.550873875617981, 0.36397942900657654, 0.6691296696662903, 0.13666896522045135, 0.022456303238868713, 0.7767172455787659, -0.23356421291828156, -0.17157329618930817, -0.1445242464542389, -0.8476061820983887, -0.04353940114378929, 0.27987679839134216, 0.4300020933151245, -0.20135276019573212, -0.3106100261211395], [-1.0132626295089722, -0.22498342394828796, 0.021080829203128815, 0.0525943897664547, 0.982161819934845, 0.2352837324142456, -0.009129799902439117, 0.41400861740112305, -0.27641409635543823, -0.09441729635000229, -0.1686079204082489, -0.08734840154647827, 0.21330702304840088, 0.2726871967315674, 0.19646334648132324, 0.07268652319908142, -0.3136861026287079, 0.27127349376678467, -0.23848313093185425, 0.2724214196205139, 0.9712309241294861, -0.4918721318244934, 0.16123616695404053, -0.08882062882184982, -0.43961629271507263, 0.19099624454975128, -0.2806440591812134, 1.0504846572875977, -0.08545736968517303, 0.30646297335624695, 0.4229656755924225, -0.21928443014621735, 0.3023369014263153, 0.016678616404533386, -0.837620198726654, -0.15063261985778809, -0.10330155491828918, 0.30947378277778625, 0.1921699494123459, -0.3647063970565796]], "recurrent_kernel:0": [[0.28421056270599365, 0.13521650433540344, 0.14823918044567108, 0.007758971769362688, -0.12906157970428467, -0.0030067043844610453, 0.05450380966067314, -0.17587155103683472, -0.26631537079811096, -0.04082729294896126, -0.1160268560051918, -0.02500140108168125, 0.224470317363739, 0.12791430950164795, 0.04742816835641861, -0.09479407966136932, -0.1097954511642456, -0.0712846964597702, -0.03711620718240738, -0.030069487169384956, -0.12704886496067047, -0.4151037633419037, -0.16182388365268707, -0.13911567628383636, 0.09597017616033554, -0.08522648364305496, -0.00029399539926089346, 0.10239265114068985, 0.09779044985771179, -0.1868438571691513, 0.11953402310609818, -0.5202589631080627, -0.07511159777641296, -0.15676622092723846, -0.025123288854956627, 0.11832959949970245, -0.02527192048728466, 0.007397188805043697, 0.0058013275265693665, -0.09109288454055786], [0.06608349829912186, 0.19901195168495178, 0.20450401306152344, -0.1777525246143341, -0.016784392297267914, -0.01613074727356434, 0.15498431026935577, -0.11052758991718292, 0.012227180413901806, 0.16201940178871155, -0.19916070997714996, -0.2808159589767456, -0.24739229679107666, -0.2930799424648285, -0.0036496929824352264, 0.05286712571978569, 0.1589963436126709, -0.005958132911473513, -0.35035762190818787, -0.02589319832623005, -0.05243045464158058, -0.17438764870166779, -0.06328147649765015, 0.09389297664165497, -0.004627084359526634, -0.037702806293964386, 0.01146796252578497, -0.05819651484489441, -0.13427481055259705, 0.14631295204162598, 0.006155416369438171, 0.17242538928985596, -0.29864659905433655, 0.09172458946704865, -0.2910977602005005, 0.173719123005867, -0.17759695649147034, 0.016123373061418533, -0.18036547303199768, 0.07256737351417542], [0.04384518414735794, -0.16129007935523987, 0.13290655612945557, 0.0133698470890522, 0.04940168559551239, 0.15753962099552155, 0.22544732689857483, -0.04910556972026825, -0.01128099113702774, 0.12491351366043091, -0.35695526003837585, -0.14027905464172363, 0.14934949576854706, -0.12899567186832428, 0.15653786063194275, 0.35274648666381836, -0.15219420194625854, -0.08601192384958267, 0.14232873916625977, 0.22711056470870972, -0.2493007332086563, 0.09216022491455078, -0.10578712821006775, -0.037254754453897476, -0.10182307660579681, -0.18248403072357178, -0.1863349825143814, 0.01319614052772522, 0.10860945284366608, -0.15040147304534912, -0.05627789720892906, 0.20682185888290405, 0.19460901618003845, -0.03358074277639389, 0.06178968772292137, -0.24071665108203888, -0.06493999809026718, 0.08778458088636398, -0.10520094633102417, -0.23392531275749207], [-0.25581738352775574, 0.18856146931648254, 0.04260697215795517, 0.0673276036977768, -0.01947210542857647, -0.26576516032218933, 0.1221563071012497, 0.024996014311909676, 0.243635356426239, 0.08007820695638657, 0.09092076122760773, 0.03586042672395706, -0.02767065167427063, -0.0591839998960495, 0.09443558007478714, 0.07162631303071976, -0.06854181736707687, -0.16682006418704987, 0.2202094942331314, -0.08677098900079727, -0.1629554033279419, -0.3173876702785492, 0.21229882538318634, 0.1358340084552765, 0.1286444365978241, 0.28600576519966125, -0.1816396415233612, 0.12078887224197388, 0.11922412365674973, 0.13049086928367615, -0.2732807397842407, 0.00353192538022995, 0.016721591353416443, -0.3267171084880829, -0.167353093624115, -0.010501736775040627, 0.12123015522956848, -0.0432283990085125, -0.048653073608875275, -0.16478630900382996], [0.07187823951244354, 0.015803977847099304, 0.018758872523903847, -0.2521969974040985, -0.08071282505989075, 0.03337724506855011, 0.11239812523126602, 0.14044027030467987, 0.13855373859405518, 0.1932886838912964, 0.09417600929737091, 0.06716673076152802, -0.10588660836219788, 0.17417623102664948, -0.2557055950164795, -0.236536905169487, -0.21940059959888458, -0.1338212937116623, -0.17758023738861084, 0.04865260049700737, -0.21610474586486816, 0.10565515607595444, 0.18288682401180267, 0.3259238600730896, 0.11280117928981781, 0.05916488170623779, -0.12824925780296326, 0.2371363639831543, 0.12047912925481796, -0.09874028712511063, 0.13374672830104828, -0.08247802406549454, 0.061172809451818466, 0.237715482711792, 0.22264735400676727, -0.013916540890932083, -0.22780293226242065, 0.09583640843629837, -0.19468733668327332, -0.11608416587114334], [0.13852627575397491, -0.0017289761453866959, -0.011487076058983803, -0.008818985894322395, 0.12501756846904755, 0.14544597268104553, 0.276843398809433, -0.14159411191940308, 0.011136097833514214, -0.15016664564609528, 0.07343275099992752, 0.1933254450559616, 0.016994420439004898, 0.11620175838470459, 0.11908294260501862, -0.35009339451789856, -0.12525483965873718, 0.14616425335407257, -0.05721720680594444, 0.3011472523212433, -0.15843725204467773, 0.0005321241915225983, 0.030972899869084358, -0.1306399255990982, 0.1402386873960495, 0.0019483976066112518, -0.14075003564357758, 0.0647500678896904, -0.038971953094005585, -0.12682992219924927, -0.19189321994781494, 0.22647377848625183, -0.13266368210315704, 0.02660093642771244, -0.18591129779815674, -0.0976148471236229, 0.22831422090530396, -0.2846902012825012, -0.16003362834453583, 0.29397517442703247], [-0.09521535038948059, -0.013154217973351479, 0.08267010748386383, -0.10522720962762833, -0.09424368292093277, -0.13844306766986847, -0.07733017206192017, -0.007188696414232254, -0.09535415470600128, -0.14364179968833923, 0.010980607941746712, 0.07611283659934998, -0.17660114169120789, -0.1346539407968521, -0.3505985736846924, 0.2392801195383072, -0.2476394921541214, 0.2379182130098343, -0.32062092423439026, -0.05249786004424095, -0.12163171172142029, -0.0795532613992691, -0.15171942114830017, -0.15490663051605225, 0.22231599688529968, 0.1894439160823822, -0.04798702895641327, 0.02448561228811741, -0.11164285987615585, -0.2883111238479614, 0.07768856734037399, 0.21003705263137817, 0.22286100685596466, -0.13148687779903412, 0.05216458812355995, 0.045628901571035385, 0.2187964767217636, 0.032220933586359024, 0.16150972247123718, -0.03619559109210968], [0.005050591193139553, -0.1107037365436554, 0.03493066132068634, -0.10159742087125778, 0.1898186206817627, 0.05883907899260521, -0.23521383106708527, 0.02126520872116089, -0.12189112603664398, -0.04485462233424187, -0.17246189713478088, 0.3736830949783325, -0.18382026255130768, 0.010694953612983227, 9.508065704721957e-05, -0.0410245880484581, 0.08835240453481674, -0.09500262886285782, 0.14372819662094116, -0.1479523926973343, -0.07903032749891281, -0.10651241987943649, 0.05539883300662041, 0.03878742828965187, 0.23960328102111816, -0.10466749221086502, -0.3949894309043884, -0.26067858934402466, -0.12015683203935623, -0.003992835991084576, 0.15537448227405548, 0.06679496169090271, -0.14588117599487305, -0.21679288148880005, 0.01220344752073288, -0.162399560213089, -0.3628179132938385, -0.02767856977880001, 0.08807696402072906, 0.0846693143248558], [-0.19890709221363068, 0.1423403024673462, -0.04861810803413391, 0.15335586667060852, -0.20102472603321075, 0.08883973956108093, 0.15069304406642914, -0.0756416916847229, 0.06321128457784653, -0.11394762992858887, -0.19816140830516815, 0.2734902799129486, 0.18820412456989288, 0.15125039219856262, -0.1417095959186554, 0.034157611429691315, 0.22441120445728302, 0.15288224816322327, 0.01542829442769289, -0.2181674838066101, 0.032521605491638184, -0.03289325535297394, -0.010922955349087715, 0.1468590795993805, 0.11446990072727203, -0.14524656534194946, 0.11727531999349594, 0.012878341600298882, -0.16827115416526794, -0.30845335125923157, -0.3781623840332031, 0.08574208617210388, -0.10885201394557953, 0.23792380094528198, -0.03949689865112305, 0.040259428322315216, -0.16665318608283997, 0.04720895364880562, 0.015391181223094463, -0.24033695459365845], [0.058867212384939194, 0.08819696307182312, -0.10178089886903763, -0.032206516712903976, -0.29728376865386963, 0.10077549517154694, -0.27899035811424255, -0.050751909613609314, 0.1839631050825119, -0.054343193769454956, -0.21061614155769348, -0.3532881736755371, -0.13096289336681366, 0.4154544770717621, -0.05985362082719803, 0.017401693388819695, 0.03379691392183304, 0.03509538248181343, 0.28285592794418335, 0.007053070701658726, -0.13351166248321533, -0.21150031685829163, 0.055818066000938416, 0.1305517852306366, 0.003319764044135809, 0.03562404587864876, 0.03151794150471687, -0.17186391353607178, -0.1095435619354248, -0.115509994328022, 0.17639067769050598, 0.14070333540439606, 0.11743437498807907, 0.06053995341062546, -0.10590140521526337, -0.10093547403812408, 0.1788298487663269, 0.0156384389847517, -0.13849148154258728, 0.18796910345554352]]}, "input_size": "60"}