{"conv1d": {"bias:0": [-0.03250565752387047, -0.03126136586070061, 0.006567363627254963, -0.018463723361492157], "kernel:0": [[[-0.33687612414360046, 0.01808539591729641, -0.27691736817359924, -0.04750702157616615]], [[0.3263970911502838, 0.31389281153678894, -0.38653111457824707, 0.07440057396888733]], [[-0.012138837948441505, -0.16194863617420197, -0.9181968569755554, -0.23369500041007996]], [[0.8909555673599243, -0.08645833283662796, -0.8234062194824219, -0.30425769090652466]], [[0.9732583165168762, 0.41915252804756165, -0.8800002932548523, -0.18539538979530334]], [[1.0759108066558838, 0.41800007224082947, -0.7738966345787048, 0.29022708535194397]], [[1.6514571905136108, 0.47862884402275085, -0.3065609931945801, 0.24654097855091095]], [[1.809352993965149, 0.8398222327232361, -0.09262768924236298, 0.6406394839286804]], [[1.618767499923706, 0.9356794357299805, 0.3738574683666229, 0.9002251625061035]], [[1.504131555557251, 0.48530206084251404, 1.137836217880249, 0.4388551414012909]], [[1.603734016418457, 0.7735424041748047, 1.5717774629592896, 0.9217752814292908]], [[1.3785057067871094, 1.0928809642791748, 2.0413107872009277, 0.8927925229072571]]]}, "conv1d_1": {"bias:0": [0.009313567541539669, 0.03910800442099571, -0.01318455021828413, -0.0032041138038039207], "kernel:0": [[[-0.12688100337982178, -0.15070700645446777, -0.16581952571868896, -0.012700974941253662], [0.18347281217575073, -0.03695499897003174, -0.14072537422180176, 0.2097780704498291], [-0.0018208026885986328, 0.006437897682189941, -0.1815999150276184, -0.1938048005104065], [-0.20074903964996338, 0.0857200026512146, 0.043862879276275635, -0.006883561611175537]], [[0.15057481825351715, 0.003502289764583111, -0.006798610556870699, -0.12520134449005127], [0.006357056554406881, 0.11429444700479507, -0.07607591152191162, 0.06826448440551758], [0.04259854182600975, -0.00411504041403532, 0.046017613261938095, -0.13133865594863892], [-0.2493312805891037, -0.0543985553085804, -0.034606918692588806, 0.10307144373655319]], [[0.05000244453549385, -0.015715796500444412, -0.14403241872787476, -0.009917589835822582], [0.00844388548284769, 0.07037300616502762, 0.04621783271431923, 0.06198553368449211], [0.0019121782388538122, 0.19023741781711578, -0.07176904380321503, -0.2141253799200058], [0.09560014307498932, -0.022088672965765, 0.24183112382888794, -0.12126242369413376]], [[-0.06562553346157074, -0.0927995815873146, 0.07996384054422379, 0.047700434923172], [-0.1261986792087555, 0.19043928384780884, -0.10446510463953018, -0.13272766768932343], [0.08343622833490372, 0.17278246581554413, -0.06731296330690384, -0.24579012393951416], [0.1872209906578064, 0.049215029925107956, -0.04032594710588455, 0.10861943662166595]], [[0.08590689301490784, -0.03511633723974228, 0.08571267127990723, 0.012621492147445679], [0.1651744395494461, -0.005231608171015978, -0.2666062116622925, 0.13368543982505798], [0.1993536353111267, 0.10940016806125641, -0.08166567981243134, -0.10721185803413391], [-0.11149311810731888, 0.006715693976730108, -0.30535125732421875, -0.2360544502735138]], [[-0.08598609268665314, 0.06860845535993576, -0.024287691339850426, 0.0010567351710051298], [-0.262992799282074, 0.06295154243707657, 0.207133486866951, -0.13533836603164673], [0.0009513336117379367, 0.12669406831264496, -0.13348782062530518, -0.11328563094139099], [-0.1760338544845581, 0.10918315500020981, 0.006643061060458422, 0.22420324385166168]], [[-0.05217450484633446, 0.08249809592962265, -0.029474584385752678, 0.0494137704372406], [-0.2571791708469391, -0.03708002716302872, -0.04102515056729317, -0.040614668279886246], [-0.3032752275466919, 0.1849333941936493, -0.07642858475446701, 0.016136247664690018], [-0.2842424213886261, 0.09084592759609222, 0.0179264098405838, -0.2104697972536087]], [[-0.6916726231575012, 0.09939826279878616, -0.09485334903001785, 0.26584556698799133], [-0.4553641080856323, -0.10898461937904358, 0.10325004160404205, -0.10887911915779114], [-0.39596763253211975, 0.04751944914460182, -0.3089839518070221, 0.09970521926879883], [-0.23575285077095032, 0.006431307177990675, 0.07097984105348587, 0.23452329635620117]], [[-0.37621065974235535, -0.5166197419166565, -0.46246200799942017, 0.03842048719525337], [-0.5355591177940369, -0.5287188291549683, -0.23903816938400269, 0.1139378696680069], [-0.2329002171754837, -1.0997569561004639, -0.69266277551651, 1.0038824081420898], [-0.42485955357551575, -0.3774226903915405, -0.4494614005088806, -0.14551565051078796]], [[-0.7006491422653198, -1.5703637599945068, -0.547034502029419, -0.7186099290847778], [-0.15338104963302612, -0.9812209010124207, 0.18047557771205902, -0.6476272940635681], [0.25710734724998474, -0.5293044447898865, 1.7843902111053467, -2.541698694229126], [0.1215135008096695, -0.9845982193946838, 0.3899877071380615, -1.0170468091964722]], [[1.3727003335952759, 1.7846171855926514, 1.3790878057479858, 0.8419411182403564], [0.794254720211029, 0.8113880753517151, 0.814559280872345, 0.7788782119750977], [0.5449388027191162, 1.0440480709075928, -0.6501343250274658, 1.6848315000534058], [0.573669970035553, 1.0424771308898926, 0.4872339367866516, 1.1705760955810547]], [[0.23623162508010864, 0.1108396053314209, -0.17466038465499878, -0.2484264373779297], [-0.23651903867721558, 0.20871806144714355, -0.2364622950553894, -0.20995795726776123], [0.063132643699646, 0.06952875852584839, 0.10129672288894653, 0.2402060627937317], [0.0472981333732605, 0.2467084527015686, 0.10449695587158203, 0.037575721740722656]]]}, "dense": {"bias:0": [0.0041954657062888145], "kernel:0": [[-0.25931012630462646], [0.04363495483994484], [0.30123430490493774], [0.16850745677947998], [0.15866988897323608], [-0.15830934047698975], [0.18291345238685608], [-0.14424751698970795], [0.15091411769390106], [0.307002454996109], [-0.23939353227615356], [0.2594507336616516], [-0.3637264370918274], [0.09229762107133865], [0.13106007874011993], [0.27300673723220825], [0.13345849514007568], [-0.4512898921966553], [-0.0551859512925148], [0.25464922189712524], [-0.2059740424156189], [-0.20722708106040955], [0.1891048699617386], [-0.11750929802656174]]}, "lstm": {"bias:0": [-0.3337023854255676, -0.22915208339691162, -0.01053926907479763, -0.535624086856842, -0.268716037273407, -0.37678438425064087, 0.728777289390564, 0.0253839660435915, -0.01881839893758297, -0.2164899855852127, 0.7841277718544006, 0.5489258766174316, -0.10913056880235672, -0.13365523517131805, 0.3530164957046509, -0.10177579522132874, -0.15139418840408325, 0.06361479312181473, -0.46706339716911316, 0.17112112045288086, -0.08295121043920517, -0.2759019732475281, -0.2540903389453888, -0.16788265109062195, 1.0, 1.0, 1.0, 1.0, 1.0, 1.0, 1.0, 1.0, 1.0, 1.0, 1.0, 1.0, 1.0, 1.0, 1.0, 1.0, 1.0, 1.0, 1.0, 1.0, 1.0, 1.0, 1.0, 1.0, -0.012889279052615166, -0.01852693036198616, 0.0509205088019371, -0.05304909124970436, -0.017975369468331337, 0.009667692705988884, 0.0763305053114891, -0.0036656188312917948, -0.03537467494606972, 0.04739971086382866, -0.03649042919278145, 0.14989647269248962, -0.01928487792611122, -0.014199363999068737, 0.07604328542947769, 0.02700948156416416, -0.013255142606794834, 0.20547117292881012, 0.04385499656200409, -0.0645914301276207, -0.01751171052455902, 0.062094204127788544, 0.16811205446720123, -0.005484830122441053, -0.7080923914909363, -0.2611469030380249, -0.16820523142814636, -0.5250515937805176, -0.381479412317276, -0.4500662386417389, 0.2565128207206726, -0.33601707220077515, -0.3860684335231781, -0.4476172626018524, 0.08372215181589127, 0.696163535118103, -0.41874876618385315, -0.12423925846815109, -0.16319528222084045, 0.0566692017018795, -0.10354644805192947, 0.49869224429130554, -0.7061570286750793, -0.23477576673030853, -0.22170987725257874, -0.08905820548534393, 0.15150569379329681, -0.4743172526359558], "kernel:0": [[-0.08769438415765762, -0.1363184005022049, 0.7908095717430115, -0.19365577399730682, 0.30193158984184265, -0.1830339878797531, 0.24089738726615906, 0.05696927011013031, 0.3209441006183624, 0.37299883365631104, 0.40304774045944214, -1.59556245803833, 0.19304490089416504, -0.3109077513217926, 0.24822624027729034, -1.050241470336914, -0.3562319278717041, -0.9746410846710205, 0.9623813629150391, 0.13200421631336212, -0.12474825233221054, -0.4475216269493103, -3.0322093963623047, -0.28746065497398376, -0.010835900902748108, -0.13374868035316467, 0.10375149548053741, 0.022471174597740173, -0.0003567039966583252, -0.00679488480091095, -0.07720823585987091, 0.23350967466831207, -0.08716140687465668, -0.06197729706764221, 0.05048917233943939, -0.22580304741859436, 0.2411726862192154, 0.09519462287425995, -0.12281782180070877, -0.18806366622447968, -0.039842501282691956, 0.06196881830692291, 0.1797519475221634, 0.09970872104167938, 0.06584356725215912, 0.07585199177265167, 0.11744771897792816, 0.09738875925540924, 0.09807249903678894, -0.06573974341154099, -0.07383672147989273, -0.0027755594346672297, 0.08408132940530777, -0.23690474033355713, -1.8254555463790894, 0.6376240253448486, -0.47735926508903503, -0.11915918439626694, 1.5118225812911987, -0.9606420397758484, 0.0035327936057001352, -0.29195937514305115, 0.07127612829208374, -0.8483020067214966, -0.26466143131256104, -0.8985651135444641, -0.17035865783691406, -0.6821369528770447, 0.33437198400497437, -0.46357351541519165, 1.4298673868179321, 0.1561833620071411, -0.10286017507314682, -0.042409058660268784, -0.8720408082008362, -0.33573657274246216, -0.08789117634296417, 0.06239307299256325, -0.1499783992767334, 0.09188409894704819, 0.09204009920358658, 0.006407580338418484, -0.46381568908691406, -1.5230542421340942, 0.24422794580459595, -0.2915235757827759, -0.42243555188179016, 0.6457822918891907, -0.04404118284583092, -0.0957450345158577, 0.4729081392288208, -0.09838581085205078, -0.39297348260879517, 0.34437698125839233, -1.4727602005004883, 0.6803329586982727], [-0.05184441804885864, -0.6295791268348694, 0.6789700984954834, -0.17961351573467255, 0.19470897316932678, -0.5286211371421814, -1.6340900659561157, 0.03696424141526222, 0.04926341399550438, 0.36450833082199097, 0.5394683480262756, -1.586786150932312, 0.4288025498390198, 0.34071993827819824, -0.4943915009498596, -1.1601852178573608, -0.4714234173297882, -1.0789016485214233, -0.3308669328689575, 0.14012502133846283, 0.09058850258588791, -0.49835488200187683, -3.7294468879699707, -0.1545265167951584, 0.17261622846126556, -0.18448640406131744, -0.11630162596702576, -0.15503397583961487, -0.04934534430503845, -0.025184988975524902, 0.20672212541103363, -0.06642583012580872, 0.01564936339855194, 0.24187038838863373, 0.17298270761966705, 0.020565643906593323, 0.038801804184913635, -0.025215476751327515, 0.0049325525760650635, -0.018976151943206787, 0.21525616943836212, -0.23907826840877533, -0.21966803073883057, 0.032434359192848206, 0.18518714606761932, 0.20651783049106598, -0.22976230084896088, -0.20196294784545898, 0.009184902533888817, -0.22946135699748993, 0.27163830399513245, 0.06033635511994362, -0.11990083754062653, -0.14340703189373016, -0.07527223229408264, -0.6025459170341492, 0.13177639245986938, -0.12791094183921814, 1.9961563348770142, -1.5693048238754272, -0.04460388794541359, 0.2287825345993042, -0.5334852933883667, -1.0822468996047974, -0.41671302914619446, -1.1218706369400024, -0.4426780641078949, -0.6733953952789307, 0.28999796509742737, -0.46888118982315063, 2.048466682434082, 0.03252202272415161, 0.5613433718681335, -0.5637903809547424, -0.8227767944335938, -0.506386935710907, -0.19960439205169678, -0.18662728369235992, 1.0256024599075317, -0.14422917366027832, -0.17770621180534363, -0.1155959740281105, -0.4122951328754425, -2.70449161529541, -0.014311517588794231, -0.3439142405986786, -0.49447453022003174, 0.6377429962158203, -0.16695882380008698, -0.10032559186220169, -0.8618391752243042, -0.2354537397623062, -0.4571516513824463, 0.27199506759643555, -2.5831241607666016, 0.2889982759952545], [-0.4242100119590759, -0.41306430101394653, -0.05115743726491928, -0.3534230589866638, 0.17558668553829193, -0.36120134592056274, -0.45443734526634216, 0.5088942050933838, -0.1638728231191635, 0.5806639194488525, 0.32717186212539673, -2.600314140319824, 0.1567707359790802, -0.07379213720560074, -0.4654082655906677, -0.3842322528362274, -0.20354846119880676, -0.8095980286598206, 0.9833739995956421, 0.08408799767494202, -0.21021291613578796, 0.24038153886795044, -2.111726760864258, 0.3404732346534729, 0.018378064036369324, -0.23577958345413208, -0.2332313358783722, 0.23985792696475983, 0.15019400417804718, -0.0685587227344513, -0.07867699861526489, 0.2180033177137375, 0.17555676400661469, -0.2015315592288971, -0.24171720445156097, 0.07825477421283722, -0.22565004229545593, 0.024053022265434265, -0.12029264867305756, -0.10291001200675964, -0.22887438535690308, 0.051833078265190125, 0.023134484887123108, 0.041526421904563904, -0.21032389998435974, -0.02532462775707245, 0.049644604325294495, -0.17814558744430542, 0.4675620496273041, 0.1650921255350113, 0.3166699707508087, -0.07465170323848724, 0.18476256728172302, 0.17585846781730652, -3.726797580718994, 0.38173574209213257, 0.13861660659313202, -0.38875970244407654, 1.4558963775634766, -0.370148628950119, 0.07714108377695084, 0.06338226050138474, 0.12144467979669571, -0.5788498520851135, 0.04817032814025879, -0.7294493317604065, -0.07617109268903732, -0.6211647391319275, 0.527823805809021, -0.7145982980728149, 0.6427363753318787, -0.18916045129299164, -0.1418481022119522, 0.18919728696346283, 0.05418529361486435, -0.8197082877159119, -0.3492608368396759, 0.19294576346874237, -0.0015603590290993452, 0.030389251187443733, 0.09967565536499023, 0.21222877502441406, 0.36951062083244324, 0.6672481894493103, -0.1502881646156311, -0.42083021998405457, -0.10477612912654877, -0.12409364432096481, -0.13614514470100403, 0.3086548447608948, 0.09348757565021515, 0.32538729906082153, -0.17318344116210938, 0.9874632358551025, 0.3910571038722992, -0.846288800239563], [-0.162336528301239, -0.2401001751422882, 1.2136019468307495, 0.5326224565505981, -0.23606781661510468, 0.06552556902170181, -0.9435374140739441, -0.4862302839756012, 0.07565203309059143, -0.2851051390171051, 0.41243666410446167, 0.6849867105484009, 0.2446587234735489, -0.059948522597551346, -1.022650957107544, -1.200791358947754, 0.29689693450927734, -0.9096169471740723, -1.3832145929336548, 0.202781543135643, -0.259050577878952, -1.1172997951507568, -2.766770601272583, 0.33457598090171814, -0.2201915830373764, -0.2148820012807846, -0.08841198682785034, -0.004545241594314575, -0.028758153319358826, -0.20257452130317688, 0.22617049515247345, 0.1601559966802597, 0.05648784339427948, -0.24066542088985443, 0.003799647092819214, -0.14675648510456085, -0.08448638021945953, 0.24098019301891327, 0.10715238749980927, 0.13685370981693268, 0.19977112114429474, 0.13804619014263153, -0.0832395851612091, 0.17170114815235138, -0.14690926671028137, 0.11470885574817657, 0.15377406775951385, -0.21259386837482452, -0.3914426863193512, -0.07391899079084396, -0.3696305751800537, -0.06115327030420303, -0.3849617540836334, -0.1870044320821762, 3.8483645915985107, 0.13407963514328003, -0.26827794313430786, -0.0239163376390934, 1.2506024837493896, -1.9845267534255981, 0.05569726973772049, -0.1135653406381607, -0.49736303091049194, -0.5743201971054077, -0.4100624918937683, -0.697547197341919, -0.19521121680736542, -0.6168392300605774, 0.4370843172073364, 0.18914206326007843, 2.152604341506958, -0.16639715433120728, -0.14489130675792694, 0.06586931645870209, -1.230353593826294, 0.050395987927913666, -0.5217273235321045, 0.19077154994010925, 0.8221694231033325, 0.20588643848896027, 0.190128356218338, 0.08729696273803711, -0.7631159424781799, -3.8715622425079346, -0.002035098848864436, -0.7464631199836731, -0.2517172396183014, 0.90766841173172, 0.20723873376846313, 0.12724970281124115, -2.31477689743042, 0.08638974279165268, -0.3344506621360779, -0.3062087297439575, -3.915224313735962, -0.5733963847160339]], "recurrent_kernel:0": [[-0.0071065425872802734, -0.05326307937502861, -0.014238324947655201, -0.008542001247406006, -0.036589063704013824, 0.037537261843681335, -0.20331065356731415, -0.1300540417432785, 0.020183922722935677, -0.05510307103395462, 0.08653539419174194, 0.20200638473033905, -0.029518457129597664, 0.024803591892123222, 0.09310467541217804, 0.15551473200321198, 0.1206476017832756, 0.1394919902086258, -0.13251100480556488, -0.024957969784736633, 0.03520423546433449, 0.15199735760688782, 0.15207400918006897, 0.030627159401774406, -0.02124554105103016, 0.10977480560541153, -0.16863644123077393, 0.1080830916762352, -0.1171058639883995, 0.124479740858078, 0.15295641124248505, 0.025100266560912132, -0.015824036672711372, 0.3186053931713104, -0.08520007878541946, -0.018048711121082306, -0.14613355696201324, 0.09481366723775864, 0.11071713268756866, -0.0631902888417244, 0.05055459588766098, -0.1981973499059677, -0.023103322833776474, 0.053921494632959366, -0.1987665593624115, -0.03233129531145096, -0.12447810918092728, 0.0033174536656588316, -0.06794591248035431, 0.15069584548473358, -0.1257331222295761, -0.14234764873981476, -0.058537863194942474, 0.07435555756092072, -0.024679413065314293, 0.07473505288362503, 0.03317594155669212, 0.02818986400961876, -0.015031790360808372, 0.12285426259040833, 0.057862538844347, -0.1467665433883667, 0.13997593522071838, -0.001975949155166745, 0.06918717920780182, 0.022707965224981308, 0.0894772931933403, 0.20535466074943542, -0.018057597801089287, -0.18378086388111115, 0.07166077196598053, -0.006997132673859596, -0.012296099215745926, 0.11156464368104935, -0.028701182454824448, 0.09636862576007843, 0.01528284139931202, 0.09642192721366882, -0.14091838896274567, 0.051514994353055954, -0.12234910577535629, -0.08125346899032593, 0.05667650327086449, 0.035626523196697235, 0.06534074246883392, 0.11438630521297455, -0.0215024221688509, 0.06888333708047867, -0.02600894682109356, -0.023793574422597885, 0.09826522320508957, -0.05574575811624527, -0.04271196946501732, -0.13182757794857025, -0.11955970525741577, 0.011889168061316013], [-0.10486065596342087, -0.00406115734949708, 0.05830899626016617, 0.10485216230154037, -0.003242867300286889, -0.23291338980197906, -0.019803257659077644, -0.056605271995067596, -0.009560232050716877, -0.08467581123113632, 0.03075399063527584, 0.13969740271568298, -0.17415814101696014, 0.21422205865383148, 0.03567349165678024, -0.03768111392855644, -0.08933557569980621, 0.03357503563165665, -0.13308237493038177, -0.10473232716321945, -0.032413870096206665, 0.06540793925523758, -0.03534798324108124, 0.18160854279994965, -0.09605758637189865, -0.09380991011857986, -0.038807570934295654, 0.033649273216724396, -0.046865809708833694, -0.09454981982707977, 0.23173083364963531, 0.035101111978292465, -0.055482711642980576, -0.03659462556242943, -0.0982363298535347, 0.2379232794046402, -0.003287048079073429, -0.14062915742397308, -0.1575801968574524, -0.02870061621069908, 0.07524760067462921, 0.19960308074951172, 0.028648249804973602, -0.004182585049420595, -0.002350103110074997, 0.13544324040412903, 0.01898737996816635, -0.16243894398212433, 0.0028183418326079845, 0.04179059714078903, -0.02045721560716629, 0.11972969770431519, 0.19402939081192017, -0.1500910073518753, 0.027811823412775993, -0.07467092573642731, 0.061024539172649384, 0.16548502445220947, 0.007942071184515953, -0.03688087314367294, 0.11813990026712418, 0.09621940553188324, 0.14771193265914917, -0.22072651982307434, 0.07809009402990341, -0.07984361797571182, 0.03465462476015091, -0.14370226860046387, -0.14834614098072052, -0.08035950362682343, 0.07406996935606003, -0.038639575242996216, 0.1005404144525528, 0.019704045727849007, 0.014366348274052143, 0.014749887399375439, 0.0223307553678751, -0.17662528157234192, -0.033285778015851974, -0.1504793018102646, -0.027190420776605606, -0.036341458559036255, 0.1985325813293457, 0.03035586327314377, 0.03749736025929451, -0.03824508935213089, -0.027179107069969177, 0.10442246496677399, 0.015697166323661804, -0.054313961416482925, -0.06215118244290352, 0.00274041760712862, -0.07963071018457413, 0.011095634661614895, 0.04680899903178215, 0.14275352656841278], [-0.07678984850645065, 0.054473068565130234, -0.061938244849443436, -0.1508205533027649, 0.03396965563297272, -0.0343654602766037, 0.1674058884382248, -0.17940549552440643, 0.08429732918739319, 0.14555393159389496, -0.10448014736175537, 0.0750015527009964, -0.02829558774828911, -0.04345936328172684, 0.0690317451953888, 0.08807510137557983, -0.04024036228656769, 0.08269216865301132, 0.12317544966936111, -0.22287113964557648, 0.06219073757529259, -0.07018446177244186, -0.027620285749435425, -0.01965264603495598, -0.1356838196516037, 0.17218971252441406, 0.06028168648481369, -0.008004141971468925, -0.009416123852133751, -0.01237529143691063, 0.028864111751317978, -0.038243863731622696, -0.06348977237939835, 0.2288450300693512, -0.037625040858983994, 0.006269391160458326, 0.13203822076320648, -0.15663839876651764, 0.02565395087003708, -0.004234559368342161, -0.021587172523140907, -0.011247296817600727, 0.014057284221053123, -0.13514569401741028, 0.23355257511138916, 0.017290910705924034, -0.09956446290016174, -0.03882433846592903, 0.07298468053340912, -0.1067705973982811, -0.12227509170770645, 0.07778069376945496, 0.09230677038431168, 0.17184528708457947, 0.16557003557682037, 0.08712401986122131, 0.0068456437438726425, -0.1220141276717186, -0.15669997036457062, 0.08260909467935562, -0.1019606739282608, 0.12039472162723541, -0.028942560777068138, 0.029014261439442635, 0.011435605585575104, 0.02875831164419651, -0.11601289361715317, 0.12920790910720825, 0.21683841943740845, 0.022602129727602005, -0.04015913978219032, 0.048161767423152924, 0.13802950084209442, -0.014701985754072666, 0.05908406898379326, 0.12636280059814453, -0.15592046082019806, -0.03791632503271103, -0.20776471495628357, -0.17290239036083221, 0.18818412721157074, 0.03250814601778984, 0.15121398866176605, -0.09651148319244385, -0.004670861642807722, -0.03027329035103321, -0.13336718082427979, 0.060852013528347015, 0.09517619013786316, 0.027583615854382515, 0.08002787828445435, 0.06318902969360352, -0.053971003741025925, -0.010432176291942596, -0.021277043968439102, -0.0073333801701664925], [0.07983573526144028, 0.07375351339578629, -0.03288682550191879, 0.2589090168476105, -0.05135755240917206, -0.02890956774353981, 0.034357987344264984, 0.09248397499322891, 0.10664179176092148, -0.22878313064575195, 0.01956828497350216, -0.10635591298341751, 0.11303813755512238, 0.09178166836500168, -0.009256482124328613, -0.06068141758441925, 0.04786636680364609, 0.12099436670541763, -0.05184532701969147, -0.034118082374334335, 0.11407171934843063, 0.018800387158989906, -0.05991686135530472, 0.032830238342285156, 0.020370446145534515, 0.09412150084972382, -0.08336401730775833, 0.17857180535793304, -0.06679831445217133, 0.09528815746307373, -0.007460135966539383, -0.008602621033787727, -0.09929289668798447, 0.09460876882076263, 0.004645259119570255, -0.10479860752820969, 0.06382367014884949, 0.02107701450586319, -0.021133560687303543, 0.31675782799720764, 0.11416051536798477, -0.012485619634389877, 0.08614850044250488, 0.14197006821632385, 0.12217498570680618, -0.03924741595983505, -0.01162808109074831, 0.11275644600391388, 0.1879245489835739, 0.050552595406770706, -0.06529738754034042, -0.07423605024814606, -0.157240092754364, -0.21676483750343323, -0.0483868271112442, -0.047786958515644073, -0.015798287466168404, -0.16983456909656525, -0.056997716426849365, 0.16276729106903076, 0.09650019556283951, 0.09647755324840546, -0.0032244808971881866, -0.04622801020741463, -0.05486354976892471, 0.13220669329166412, -0.13757966458797455, -0.12706539034843445, 0.026064731180667877, -0.09920775890350342, 0.0287779588252306, -0.12331359833478928, 0.008596955798566341, -0.05123722180724144, -0.09515650570392609, -0.10661445558071136, 0.12076108902692795, -0.08045143634080887, -0.07427717000246048, -0.10633690655231476, 0.14723923802375793, 0.03892945870757103, -0.026531819254159927, -0.0523228645324707, 0.11073074489831924, 0.07357124984264374, -0.08639659732580185, 0.09356725960969925, 0.04498884081840515, 0.09323789179325104, 0.006178523879498243, 0.05523136630654335, 0.032853223383426666, -0.08929333835840225, 0.22102969884872437, -0.1474582999944687], [-0.09160193800926208, -0.03804152086377144, 0.0013801029417663813, -0.08988181501626968, 0.11315008252859116, 0.03162555769085884, 0.05023396387696266, -0.15208062529563904, -0.23092593252658844, -0.11880847066640854, -0.011496562510728836, 0.23627474904060364, 0.006678018718957901, -0.08037663996219635, 0.19082698225975037, 0.019085396081209183, -0.047702718526124954, -0.2409432828426361, 0.023273242637515068, -0.12009871006011963, 0.11090287566184998, 0.0042192162945866585, -0.06432802975177765, -0.04831551015377045, 0.11779141426086426, 0.14149455726146698, -0.021841973066329956, 0.06573238968849182, 0.09034808725118637, 0.10779676586389542, -0.0362851545214653, -0.16745691001415253, -0.01543130911886692, 0.025559892877936363, -0.060335610061883926, -0.08640483021736145, -0.05568031966686249, -0.03622518852353096, -0.023780152201652527, -0.0675281286239624, -0.06303217262029648, -0.0803738608956337, -0.1922106146812439, -0.04384506866335869, -0.006517969071865082, 0.07707903534173965, 0.0057906778529286385, 0.045644499361515045, -0.04474287107586861, -0.10749921947717667, 0.27379241585731506, -0.1444237232208252, -0.010229334235191345, -0.08841057866811752, -0.1263849437236786, 0.043382007628679276, -0.1315673589706421, 0.04622189700603485, 0.06889805942773819, -0.06843578815460205, -0.1229930892586708, 0.06716165691614151, 0.10300853848457336, -0.13482899963855743, 0.17106853425502777, 0.011704971082508564, -0.03698904067277908, -0.1724860668182373, 0.12853653728961945, -0.06733164191246033, 0.12086308747529984, 0.05721461400389671, 0.1386452466249466, 0.024738512933254242, -0.07493935525417328, -0.12697403132915497, 0.16186808049678802, -0.014237413182854652, -0.06392591446638107, 0.12676261365413666, 0.10025759786367416, -0.017956461757421494, -0.0002118488773703575, 0.04166441038250923, 0.1250048279762268, -0.10280369967222214, 0.06455796211957932, 0.0774795189499855, -0.06645296514034271, 0.051672548055648804, -0.060384683310985565, 0.04576082527637482, -0.07546726614236832, 0.08999127894639969, 0.10586131364107132, -0.1695147007703781], [0.0774674266576767, -0.14658822119235992, 0.11566507071256638, 0.014594880864024162, -0.18224193155765533, -0.04923563823103905, -0.14693830907344818, 0.04568067193031311, -0.08138640224933624, -0.12575112283229828, 0.14045831561088562, 0.14549334347248077, 0.023981314152479172, -0.08731523156166077, 0.05511642247438431, -0.10422765463590622, -0.07985422760248184, 0.06124134361743927, 0.053087472915649414, 0.13798226416110992, -0.11061843484640121, -0.01954132318496704, -0.036046095192432404, 0.16963423788547516, 0.05567736178636551, 0.11814326047897339, 0.18627062439918518, 0.09803488105535507, 0.11214384436607361, -0.01650480553507805, -0.03226505592465401, -0.059330053627491, -0.04701864719390869, -0.07954131811857224, 0.13929830491542816, 0.11613904684782028, 0.02117275632917881, -0.19190426170825958, 0.09935452044010162, 0.06646617501974106, -0.026904694736003876, 0.024996420368552208, -0.025979725643992424, -0.07739324867725372, 0.1256038397550583, 0.019514385610818863, -0.08329196274280548, 0.2935279905796051, -0.12933394312858582, 0.10229820758104324, -0.1721409410238266, 0.04401945322751999, 0.03818606585264206, 0.18819032609462738, -0.10784028470516205, 0.07127439230680466, 0.18746235966682434, -0.1485854536294937, -0.02150345779955387, -0.026226934045553207, -0.03279120847582817, 0.018632087856531143, 0.10475847125053406, 0.11031375825405121, 0.046459149569272995, -0.120216965675354, 0.0062983715906739235, 0.09523798525333405, 0.004726808983832598, -0.014506260864436626, 0.1013287678360939, -0.04635946452617645, -0.07426704466342926, -0.12378960847854614, 0.09309795498847961, 0.017802882939577103, -0.0070975665003061295, -0.0780383050441742, 0.01987539418041706, 0.002841356210410595, 0.1102028638124466, 0.1052217110991478, 0.06121595948934555, 0.05475601553916931, 0.27900388836860657, -0.06178731843829155, 0.1225706934928894, 0.023259228095412254, -0.16833214461803436, -0.030410096049308777, -0.11950859427452087, 0.010669080540537834, 0.09430526942014694, -0.01007448136806488, -0.005599381402134895, 0.023836253210902214], [0.008201573975384235, -0.02298489771783352, -0.020995954051613808, -0.08319225907325745, -0.08014364540576935, -0.12368235737085342, 0.08041302114725113, 0.16383220255374908, -0.0136280357837677, -0.11248551309108734, 0.009261274710297585, 0.09738930314779282, 0.14114399254322052, -0.06014884263277054, -0.02290549874305725, 0.14365746080875397, 0.13488884270191193, 0.17766274511814117, -0.0735369473695755, -0.09298380464315414, -0.013015110045671463, 0.017900526523590088, -0.12332779914140701, -0.18571725487709045, -0.07484351843595505, 0.018140025436878204, 0.06304273009300232, -0.10087385028600693, -0.021589228883385658, -0.10004329681396484, 0.07750781625509262, 0.043402235954999924, -0.011352237313985825, 0.03176810219883919, 0.16089539229869843, 0.11928707361221313, 0.019667692482471466, 0.10067582130432129, 0.07840027660131454, -0.03754027187824249, -0.022438671439886093, 0.1749296486377716, -0.11128304898738861, -0.03460808843374252, 0.011461283080279827, 0.01638299971818924, 0.03729506582021713, -0.14656497538089752, 0.07777402549982071, 0.07255636155605316, 0.00548399705439806, -0.1328790932893753, 0.09734385460615158, -0.054438408464193344, -0.2646580636501312, 0.2778608202934265, 0.12881523370742798, 0.07620182633399963, 0.12803766131401062, 0.14429336786270142, 0.0008727684617042542, -0.029900142922997475, -0.1666988581418991, -0.06568461656570435, 0.06454677879810333, 0.017198188230395317, 0.0703573226928711, -0.11586948484182358, 0.0604267455637455, -0.013621492311358452, 0.06674597412347794, 0.04775676131248474, -0.19468954205513, -0.20100240409374237, 0.09929263591766357, -0.09316545724868774, -0.09499745070934296, 0.03478054329752922, -0.07458864897489548, -0.0113887470215559, 0.15073677897453308, -0.0916237160563469, -0.04359830170869827, 0.09888385981321335, 0.030124524608254433, 0.10024232417345047, -0.023006757721304893, -0.17949828505516052, 0.13152417540550232, -0.042217519134283066, -0.0428512766957283, 0.01333343144506216, -0.17700208723545074, 0.05696418881416321, -0.08456888049840927, -0.11557463556528091], [0.041762419044971466, -0.0943230465054512, -0.019495779648423195, 0.08448372781276703, -0.09164895862340927, -0.01496032439172268, 0.0002002241089940071, -0.09294405579566956, -0.1466921716928482, 0.010799541138112545, 0.1708105057477951, -0.011518350802361965, 0.10886377096176147, 0.035429421812295914, -0.015557844191789627, 0.07359781861305237, -0.07988495379686356, -0.1069980338215828, -0.1478603184223175, -0.000761317671276629, 0.24101188778877258, 0.21533237397670746, -0.0035184002481400967, -0.06365834176540375, -0.16987678408622742, -0.0678531676530838, -0.016507765278220177, 0.12771493196487427, -0.06579854339361191, 0.0762564018368721, -0.004333104006946087, 0.008892511017620564, -0.18027454614639282, -0.04287920892238617, -0.003633226966485381, -0.03598964214324951, -0.09821806848049164, -0.057508163154125214, -0.11279520392417908, -0.007818398997187614, -0.2383970469236374, 0.1206415519118309, -0.1141674593091011, -0.001778474892489612, 0.12015262246131897, -0.21889308094978333, 0.07209315896034241, 0.023143567144870758, -0.05191229656338692, -0.0869726836681366, -0.08372250199317932, 0.011306599713861942, 0.017051996663212776, 0.09659457951784134, -0.011047516018152237, -0.04297923296689987, -0.051924873143434525, -0.13658633828163147, -0.13306857645511627, 0.19831840693950653, -0.0856073722243309, 0.014203505590558052, -0.12544479966163635, 0.07095213979482651, 0.023910921066999435, 0.015915371477603912, 0.06394155323505402, -0.20660489797592163, -0.09509993344545364, 0.14554660022258759, -0.11106032878160477, -0.013647051528096199, 0.07088671624660492, 0.09935274720191956, 0.17333120107650757, 0.02970663271844387, -0.056343741714954376, 0.01983652636408806, -0.0685965046286583, -0.07880054414272308, -0.2393239289522171, 0.11202967166900635, 0.014579159207642078, 0.06948089599609375, -0.10948818176984787, 0.03317642956972122, 0.1645696461200714, -0.008773652836680412, -0.04589653015136719, -0.19358839094638824, -0.044532716274261475, 0.011784123256802559, -0.0794263631105423, -0.05159547179937363, -0.017008459195494652, -0.14165526628494263], [-0.013061678037047386, 0.016039540991187096, -0.0885971412062645, -0.009901233948767185, 0.059310588985681534, 0.13293761014938354, 0.04358743503689766, 0.18354439735412598, -0.08063306659460068, 0.10372015088796616, 0.027975451201200485, 0.06377788633108139, -0.1731187105178833, -0.13727444410324097, -0.1349508911371231, -0.054199159145355225, 0.0464145690202713, -0.03674512729048729, -0.0965716689825058, 0.10531257838010788, 0.020428752526640892, 0.07781624794006348, -0.083949513733387, 0.10196724534034729, 0.10892661660909653, 0.15557073056697845, 0.09218864887952805, 0.1285792887210846, 0.27922409772872925, 0.2787248492240906, 0.11731664091348648, -0.07460281997919083, -0.17870384454727173, 0.12059292197227478, 0.0944497361779213, 0.030241385102272034, 0.051985032856464386, -0.08603891730308533, -0.07432134449481964, 0.06867589801549911, -0.07600550353527069, 0.09399925917387009, 0.08284830302000046, 0.027001142501831055, 0.11061360687017441, -0.028107160702347755, -0.08713039010763168, -0.12819808721542358, 0.08360549807548523, -0.07762624323368073, 0.04085829108953476, 0.1382097601890564, -0.06773881614208221, -0.03981762006878853, 0.060911040753126144, -0.020260676741600037, 0.06927382200956345, 0.1524205058813095, 0.05590679869055748, 0.0812082588672638, -0.03789576515555382, -0.05502672120928764, -0.019755998626351357, -0.0725838840007782, -0.039369743317365646, 0.036947332322597504, -0.13625916838645935, 0.15532870590686798, -0.11171405762434006, -0.014155265875160694, -0.059946779161691666, 0.17372654378414154, -0.020902255550026894, -0.06695333868265152, -0.10584286600351334, 0.05943417176604271, 0.003168749390169978, -0.019150713458657265, 0.061222516000270844, 0.09088439494371414, -0.19265678524971008, -0.20055875182151794, 0.06559890508651733, -0.1027304008603096, 0.10624882578849792, 0.05973156914114952, -0.01476775947958231, -0.15574488043785095, 0.1486125886440277, -0.06692524254322052, -0.15714943408966064, -0.10280414670705795, -0.04759688302874565, -0.03795110434293747, -0.004079998005181551, -0.0989849716424942], [0.009460139088332653, -0.19018083810806274, 0.1163506954908371, -0.06469054520130157, -0.014392588287591934, -0.1001012995839119, 0.07055836915969849, -0.039494894444942474, -0.04633690416812897, -0.16612763702869415, -0.0704914852976799, -0.046760354191064835, 0.13319627940654755, 0.11510760337114334, -0.16096971929073334, 0.11774976551532745, -0.02867366559803486, 0.045914120972156525, -0.04021911323070526, -0.08583462238311768, 0.046688467264175415, -0.18072080612182617, -0.1023562103509903, -0.09232325106859207, 0.13628005981445312, -0.20708736777305603, 0.14125941693782806, -0.026007406413555145, -0.04217914491891861, -0.022323735058307648, -0.10936898738145828, 0.021352827548980713, -0.17827002704143524, 0.11994729936122894, 0.08634168654680252, -0.0275421179831028, 0.06412294507026672, -0.10742070525884628, -0.06392812728881836, -0.003803597530350089, 0.05904669314622879, -0.0619269534945488, 0.0128907086327672, 0.06191191077232361, 0.1888136863708496, 0.10883483290672302, 0.09368173032999039, -0.06199796870350838, -0.09051866829395294, -0.022375911474227905, -0.17675362527370453, 0.007507572416216135, -0.006305835209786892, 0.083487868309021, 0.13438542187213898, -0.03391803801059723, -0.07537610828876495, 0.08687969297170639, 0.024413634091615677, 0.1723073124885559, 0.0006223696982488036, -0.017510337755084038, 0.09620911628007889, 0.027820797637104988, 0.058400336652994156, 0.22333671152591705, 0.10876060277223587, 0.10492294281721115, -0.08774296939373016, 0.07407286763191223, 0.06656491756439209, 0.038237012922763824, 0.10735718160867691, 0.09393834322690964, -0.21249134838581085, -0.09902717173099518, 0.16599027812480927, -0.04126366600394249, -0.039864249527454376, 0.16213616728782654, -0.06419819593429565, -0.16236892342567444, -0.10466853529214859, 0.10958600044250488, 0.07361667603254318, -0.07221747934818268, 0.05432984605431557, -0.046768296509981155, -0.0009872082155197859, 0.05382367968559265, 0.008974346332252026, 0.1711481362581253, 0.08072478324174881, 0.01283370703458786, -0.21347297728061676, 0.10963068157434464], [0.06455685198307037, 0.15482425689697266, 0.003038430819287896, -0.09204014390707016, -0.15295329689979553, -0.05607672035694122, -0.04377315193414688, -0.20161423087120056, -0.09396705031394958, -0.22940212488174438, 0.11962230503559113, -0.12098541855812073, -0.0628785714507103, -0.02596188709139824, -0.10209409892559052, -0.05240916460752487, 0.1448921263217926, -0.10976482927799225, 0.09020697325468063, -0.02815595455467701, -0.15036390721797943, 0.16641682386398315, 0.004744456149637699, 0.030531028285622597, 0.06023886054754257, 0.1922290325164795, -0.06611219793558121, 0.06426005810499191, 0.10361909121274948, -0.1226876825094223, -0.04631422460079193, -0.018928078934550285, 0.1375378966331482, 0.2859961688518524, 0.06389857828617096, 0.1823783963918686, 0.14040054380893707, 0.15561291575431824, -0.07039231061935425, 0.09056095033884048, 0.14214524626731873, 0.09973055124282837, -0.005015978589653969, 0.13335755467414856, 0.09574101120233536, -0.06172330304980278, -0.03497670218348503, 0.07472912967205048, -0.025487486273050308, 0.013563747517764568, -0.05631504952907562, 0.029269719496369362, 0.08318497240543365, 0.02405744418501854, 0.06394563615322113, 0.03624682500958443, 0.02832149527966976, -0.008044908754527569, -0.042331915348768234, -0.13818871974945068, -0.01812174916267395, -0.034984372556209564, -0.08431549370288849, 0.023805173113942146, 0.11418333649635315, 0.14752992987632751, -0.0709497481584549, -0.13142570853233337, -0.04391436278820038, -0.06068858504295349, -0.09355935454368591, 0.052276790142059326, 0.020177653059363365, 0.2355930358171463, -0.027250200510025024, -0.021321717649698257, -0.04964604601264, 0.06986692547798157, 0.10385002195835114, 0.008741095662117004, -0.050440117716789246, 0.08569096028804779, -0.08076076209545135, 0.09949002414941788, -0.09151268750429153, -0.20163148641586304, -0.05181070417165756, -0.05458945780992508, 0.06518709659576416, -0.029343394562602043, -0.028100932016968727, -0.0637030079960823, -0.05057221278548241, 0.22791220247745514, -0.09395258873701096, 0.005636290647089481], [-0.0891546979546547, 0.019480973482131958, -0.1436973363161087, -0.07294859737157822, -0.1655678004026413, 0.01627332903444767, -0.1097724512219429, -0.011926430277526379, 0.0079889465123415, -0.04602651298046112, 0.0009803357534110546, -0.1288975328207016, -0.06397971510887146, -0.06223592907190323, -0.03404712677001953, 0.10030964761972427, 0.026857823133468628, -0.07150079309940338, 0.005472186021506786, 0.0005353724118322134, -0.11083802580833435, 0.049855787307024, 0.07105474174022675, 0.12995781004428864, -0.11041662096977234, -0.12594780325889587, 0.08963887393474579, 0.24240714311599731, -0.11257348209619522, 0.11069696396589279, 0.0981958732008934, 0.11169271171092987, 0.04426116868853569, -0.1593804955482483, 0.0818493515253067, -0.05285157635807991, 0.04908169060945511, -0.17117586731910706, -0.005770494230091572, 0.1269763857126236, 0.11259488761425018, -0.09486015886068344, 0.05763975530862808, 0.060471974313259125, -0.05854211747646332, -0.12363579869270325, 0.05742528289556503, 0.03579435497522354, -0.19823114573955536, 0.014235332608222961, 0.05283726379275322, -0.1195431649684906, 0.04941490665078163, 0.06982935220003128, -0.013495689257979393, 0.016196392476558685, -0.0929851159453392, 0.15359097719192505, 0.0517423152923584, -0.031846724450588226, 0.003915260545909405, 0.23607982695102692, -0.019201617687940598, -0.04487099498510361, 0.16698256134986877, -0.04421082139015198, -0.027762021869421005, 0.05399283766746521, 0.18408609926700592, 0.022204099223017693, -0.14992155134677887, 0.032741744071245193, -0.06888819485902786, 0.005016762763261795, 0.1843239963054657, -0.06034131720662117, 0.20998194813728333, 0.010038549080491066, -0.09863308072090149, 0.04240132495760918, 0.10010816901922226, -0.08038786798715591, -0.038373593240976334, -0.11913354694843292, -0.09619888663291931, -0.1681121587753296, -0.008459724485874176, -0.11946780234575272, 0.22967810928821564, 0.05774177238345146, -0.07050986588001251, 0.09798269718885422, -0.0899917334318161, -0.2271951586008072, -0.06311473995447159, 0.01954001374542713], [-0.10607950389385223, -0.00011584535241127014, -0.0195978544652462, -0.06499690562486649, 0.08909300714731216, -0.06096665561199188, -0.0583716556429863, 0.11148069053888321, -0.12814313173294067, -0.04390621557831764, -0.039670996367931366, -0.13337960839271545, -0.048065077513456345, -0.06989466398954391, 0.03748031333088875, -0.010687502101063728, -0.16150373220443726, -0.020585207268595695, 0.13834771513938904, 0.0470166839659214, 0.11314234882593155, 0.09424319118261337, -0.0852896198630333, -0.08793231099843979, 0.06086007505655289, 0.09631465375423431, -0.046857722103595734, -0.02220856584608555, 0.007903585210442543, 0.01912698708474636, -0.06635050475597382, 0.062087010592222214, 0.020832570269703865, -0.027746569365262985, -0.1303880512714386, 0.1807376593351364, 0.046153828501701355, 0.05510632321238518, -0.04247476905584335, 0.009649587795138359, 0.20020519196987152, 0.005094366148114204, -0.20910701155662537, 0.10250712186098099, -0.14956960082054138, -0.20380215346813202, -0.014186164364218712, 0.09963109344244003, -0.04159585386514664, 0.07718154042959213, 0.0016357926651835442, 0.23010730743408203, 0.053005415946245193, 0.005706325173377991, 0.19538767635822296, 0.08293016999959946, -0.16641029715538025, -0.039731673896312714, -0.12714019417762756, -0.05407664552330971, 0.1209891140460968, -0.10398637503385544, -0.05516056343913078, -0.07461894303560257, 0.04027016460895538, 0.062456224113702774, -0.05084412172436714, 0.005313904955983162, 0.0842004045844078, 0.12807586789131165, 0.16527295112609863, 0.02772822044789791, -0.0930628851056099, -0.10598711669445038, 0.020175021141767502, -0.12219399213790894, -0.03800332918763161, -0.24113541841506958, -0.0012749694287776947, 0.11832337826490402, -0.043502356857061386, 0.04398440569639206, 0.0787430927157402, -0.007283582352101803, 0.15096250176429749, 0.2193145602941513, -0.0038204118609428406, -0.03968503326177597, 0.051897287368774414, -0.10460072755813599, 0.17788371443748474, 0.18593516945838928, -0.08565613627433777, -0.18813082575798035, -0.10126364976167679, 0.011031411588191986], [0.15988080203533173, -0.01998986303806305, 0.18517610430717468, 0.06789182126522064, 0.04619356989860535, -0.00029673660174012184, 0.04488752409815788, 0.1358030140399933, -0.049492113292217255, 0.0938800722360611, -0.019534723833203316, 0.07981821894645691, 0.11007393151521683, 0.24148434400558472, -0.17144067585468292, 0.019445568323135376, 0.0023929178714752197, -0.14858029782772064, 0.07128985226154327, -0.09377942234277725, -0.057145245373249054, -0.014739411883056164, -0.012453306466341019, 0.09992964565753937, -0.052720747888088226, 0.018767066299915314, 0.011053556576371193, -0.026353193446993828, 0.022230088710784912, 0.015165723860263824, 0.14660605788230896, -0.07412886619567871, -0.21614472568035126, 0.14489787817001343, -0.10519343614578247, 0.20895247161388397, -0.06752017140388489, -0.07416098564863205, 0.042447783052921295, -0.004147334024310112, 0.1573336124420166, -0.27149030566215515, -0.16181373596191406, -0.04390448331832886, -0.1580730825662613, 0.08787493407726288, 0.031136831268668175, 0.13556882739067078, 0.11778455972671509, -0.09053920954465866, 0.026698868721723557, 0.08813890814781189, -0.07921872287988663, -0.03561944514513016, 0.07683375477790833, -0.07445847243070602, 0.024494530633091927, -0.06309803575277328, -0.04827810823917389, -0.028690364211797714, -0.01827211305499077, -0.03242053836584091, -0.10386575758457184, 0.08699655532836914, -0.05898674577474594, -0.09406105428934097, 0.07505097985267639, -0.12089521437883377, 0.07761694490909576, 0.027035105973482132, -0.007499458268284798, -0.09013120830059052, -0.18993337452411652, 0.006911240518093109, -0.018301596865057945, 0.1397886574268341, 0.039319295436143875, -0.04048004373908043, -0.13053470849990845, 0.13974401354789734, 0.10886559635400772, 0.04509609937667847, 0.04151209071278572, 0.07470812648534775, -0.17399634420871735, -0.13776583969593048, 0.08480236679315567, -0.19939161837100983, 0.13482962548732758, 0.08903118968009949, -0.11254541575908661, -0.12214620411396027, -0.033320073038339615, -0.037957191467285156, -0.026435058563947678, -0.07432519644498825], [-0.05190341919660568, 0.08509822189807892, 0.03349358215928078, -0.09507360309362411, 0.15629561245441437, -0.06881903856992722, -0.14461496472358704, -0.014407722279429436, -0.164572611451149, -0.04140402749180794, 0.06583476811647415, -0.11097072064876556, -0.05751928687095642, 0.01193694956600666, -0.15781186521053314, -0.08411432802677155, -0.07977113127708435, 0.19345910847187042, -0.14180418848991394, -0.14297521114349365, 0.25193336606025696, 0.07136057317256927, -0.13475318253040314, 0.020143968984484673, -0.018294446170330048, 0.009018728509545326, 0.004726793617010117, 0.053360600024461746, -0.13199864327907562, -0.007305235136300325, 0.07706375420093536, 0.016493797302246094, -0.07235892862081528, -0.12305991351604462, 0.09680044651031494, 0.1507771611213684, -0.08377700299024582, 0.09230870008468628, 0.07751733809709549, 0.04010108858346939, -0.11543259024620056, 0.043026458472013474, -0.01553344540297985, -0.06763587892055511, 0.15436065196990967, -0.03584183007478714, -0.222575843334198, 0.09277841448783875, 0.09968038648366928, 0.08426432311534882, 0.24428118765354156, 0.0380743108689785, -0.05194443464279175, 0.09340397268533707, -0.013438847847282887, -0.12218236178159714, -0.07807324081659317, 0.06532680243253708, -0.06842778623104095, 0.03692705184221268, 0.008396056480705738, -0.06014867126941681, -0.06676377356052399, -0.09210725128650665, 0.01673394814133644, -0.05741709843277931, -0.09275657683610916, 0.07670328766107559, 0.03889715299010277, 0.029053108766674995, -0.07388288527727127, -0.07970234751701355, -0.08766107261180878, 0.08816750347614288, 0.1317196488380432, -0.018567897379398346, 0.01912478171288967, 0.12638051807880402, 0.0030045052990317345, 0.1519877016544342, 0.16126470267772675, -0.11062324792146683, 0.0021420626435428858, -0.0028464843053370714, -0.031794000416994095, -0.016959160566329956, -0.02298641949892044, 0.08940722793340683, -0.08519543707370758, 0.2698957324028015, 0.07640179991722107, -0.1269277036190033, 0.17295728623867035, 0.12362313270568848, -0.1253829300403595, 0.13342148065567017], [0.05455416068434715, -0.013758387416601181, -0.03679092228412628, 0.060689207166433334, -0.021048232913017273, 0.044121310114860535, -0.12411424517631531, -0.18867740035057068, -0.14282964169979095, 0.12406788766384125, 0.015344832092523575, 0.01984073594212532, 0.04056340828537941, -0.0245689544826746, -0.014104480855166912, 0.08492078632116318, -0.06525686383247375, -0.017463408410549164, -0.07203813642263412, -0.06623642146587372, 0.06322668492794037, -0.15418004989624023, -0.13333208858966827, 0.07146868854761124, 0.0819556713104248, 0.07028371095657349, -0.11887280642986298, -0.006947825662791729, -0.1433987021446228, 0.10828309506177902, 0.040555309504270554, -0.017978839576244354, 0.0905681923031807, -0.026142986491322517, -0.03589842841029167, 0.1408110111951828, -0.0678682029247284, 0.07771721482276917, -0.0920313224196434, 0.1752738505601883, -0.01313930843025446, -0.06570561975240707, 0.07243373990058899, -0.30360889434814453, 0.14460816979408264, -0.12095750868320465, 0.10731356590986252, 0.02397366799414158, -0.14692790806293488, 0.14759929478168488, -0.05327938497066498, -0.08624324947595596, 0.10137242078781128, -0.021457292139530182, 0.12436783313751221, 0.10860715061426163, 0.06533914804458618, -0.06478289514780045, 0.06568612903356552, -0.24410906434059143, -0.12681816518306732, -0.065919890999794, -0.0006890213117003441, 0.05533614382147789, -0.10279829800128937, 0.10852932929992676, 0.18374662101268768, -0.10833866894245148, -0.06084709241986275, -0.0430363267660141, -0.05495775118470192, -0.18763792514801025, 0.05683755502104759, -0.2432553619146347, -0.15436722338199615, -0.13659225404262543, -0.13066191971302032, -0.005416371859610081, 0.002479222137480974, 0.04404184967279434, -0.03627300262451172, -0.1780555546283722, -0.02750120498239994, -0.11870688199996948, -0.037616878747940063, 0.04441412165760994, -0.04856538400053978, -0.046198949217796326, 0.20004616677761078, -0.009829943999648094, -0.06137192249298096, -0.048920709639787674, 0.06522059440612793, -0.02739294245839119, 0.08101776242256165, 0.03716052323579788], [0.0074490755796432495, 0.1514994204044342, -0.01698342338204384, 0.11762341856956482, -0.023616591468453407, 0.013868668116629124, 0.05153031647205353, 0.022928642109036446, 0.04507606849074364, 0.030442537739872932, 0.10780123621225357, 0.09341590851545334, -0.06366138905286789, 0.05049895867705345, 0.0029718861915171146, -0.00814250111579895, -0.1716490387916565, -0.33750277757644653, 0.0014446815475821495, 0.10282430052757263, 0.04913920909166336, 0.17343145608901978, 0.13508908450603485, -0.05463284254074097, -0.24844041466712952, -0.10783378779888153, 0.14025910198688507, 0.08633501827716827, 0.07627712935209274, -0.06811554729938507, -0.11281147599220276, -0.14670321345329285, 0.0935034528374672, 0.08809761703014374, 0.048922255635261536, 0.07518763095140457, -0.15358397364616394, 0.03589428961277008, -0.056491877883672714, 0.042531292885541916, -0.0422227643430233, -0.06325451284646988, -0.003725033951923251, -0.05772441253066063, 0.17782776057720184, 0.02821568213403225, -0.10160001367330551, 0.05200587213039398, -0.022169142961502075, 0.06998462975025177, 0.05082051455974579, -0.1207851842045784, -0.002752471249550581, -0.07055710256099701, 0.10299630463123322, 0.16902121901512146, -0.003948317375034094, 0.13242138922214508, 0.06788041442632675, 0.10593246668577194, 0.19652636349201202, 0.07782652974128723, -0.005475849844515324, 0.08097930997610092, -0.11696530133485794, 0.17428360879421234, 0.06208474189043045, 0.04109129682183266, 0.16528169810771942, 0.01706024631857872, -0.016306772828102112, -0.012881948612630367, -0.16973666846752167, -0.13517293334007263, -0.15382720530033112, 0.13450849056243896, 0.06319724023342133, -0.04134209826588631, 0.14054524898529053, -0.06356409937143326, 0.11579771339893341, -0.16838254034519196, 0.02465030364692211, 0.08891040086746216, -0.05320565029978752, 0.09026121348142624, -0.0009373181965202093, 0.12081623822450638, -0.06980068236589432, -0.020862160250544548, 0.075156070291996, 0.08326199650764465, -0.007464001886546612, 0.06776369363069534, -0.09941919147968292, 0.1071394756436348], [-0.0544457733631134, 0.0990598127245903, -0.05214908346533775, -0.1736980527639389, -0.04435456544160843, -0.016120752319693565, -0.01695205084979534, 0.10834261775016785, 0.020142536610364914, -0.020512552931904793, -0.2010536938905716, 0.10790911316871643, -0.16975456476211548, -0.04181570187211037, 0.04799430072307587, 0.2605736255645752, 0.057165756821632385, 0.015900885686278343, -0.053672172129154205, -0.10557509958744049, -0.08792100846767426, -0.03773998096585274, -0.10533399879932404, 0.07567492872476578, -0.09366422891616821, -0.1973976492881775, 0.05831589549779892, 0.10035000741481781, 0.15446598827838898, -0.03855264559388161, 0.026034945622086525, -0.08565545827150345, 0.03492768481373787, -0.029801923781633377, 0.0824831947684288, -0.0169190913438797, 0.020145878195762634, 0.02772953361272812, -0.03191445767879486, -0.03257332742214203, -0.11307647824287415, 0.053795356303453445, -0.05210810899734497, -0.07013795524835587, 0.024486413225531578, -0.03373988717794418, -0.08170827478170395, 0.026504965499043465, -0.2592664659023285, 0.08774156868457794, 0.0012832875363528728, 0.15869973599910736, -0.09378145635128021, -0.06702888011932373, 0.18919594585895538, 0.0629638135433197, 0.06675387918949127, -0.14671988785266876, 0.01120538916438818, 0.0697108805179596, 0.22255997359752655, -0.1831720918416977, 0.04578924551606178, -0.01130633894354105, 0.07441850751638412, 0.09815932810306549, -0.05201610177755356, -0.03867240995168686, -0.03196575492620468, -0.045454975217580795, 0.0025857186410576105, -0.1686500906944275, 0.04410214722156525, 0.05119963735342026, -0.022084424272179604, -0.022920094430446625, 0.03448035940527916, -0.08925846964120865, -0.05853908509016037, 0.04084007441997528, -0.0002429196611046791, 0.1610690951347351, -0.17996501922607422, 0.05239439010620117, -0.1872919648885727, 0.0668332576751709, -0.055179253220558167, -0.09905793517827988, -0.1817570924758911, 0.16269457340240479, -0.01837976835668087, -0.14120396971702576, 0.017259322106838226, -0.07010911405086517, 0.18534821271896362, -0.1744767427444458], [0.15109595656394958, 0.0007156198844313622, 0.13736052811145782, 0.042818352580070496, 0.2390841543674469, 0.07888295501470566, 0.17791974544525146, -0.337646484375, -0.06771895289421082, -0.12463575601577759, 0.07250414788722992, 0.05183311551809311, -0.0842500776052475, -0.05777783319354057, -0.0017233826220035553, 0.13872236013412476, 0.0420880988240242, -0.034278035163879395, -0.1301136612892151, 0.24068400263786316, -0.01620454341173172, 0.017103837803006172, 0.021060248836874962, 0.10672272741794586, 0.05222782492637634, -0.03911266475915909, 0.10189629346132278, -0.06015927344560623, -0.022330543026328087, -0.15849672257900238, -0.027565279975533485, 0.26695626974105835, 0.005079589784145355, 0.053813036531209946, 0.0791390985250473, 0.05315890163183212, 0.18783248960971832, 0.03650250658392906, -0.07610724866390228, 0.06252084672451019, -0.09756779670715332, -0.07495388388633728, -0.08352367579936981, 0.07005009055137634, 0.009416688233613968, 0.06241042539477348, 0.16176654398441315, 0.007791540119796991, 0.024836257100105286, 0.06581300497055054, 0.08964124321937561, 0.03745928779244423, -0.08641793578863144, -0.0834510326385498, 0.050722863525152206, 0.07990144193172455, 0.04420097544789314, 0.028669703751802444, -0.061192356050014496, 0.043062031269073486, 0.05934532731771469, -0.028371993452310562, 0.15634381771087646, 0.16610091924667358, 0.059186406433582306, -0.2169887274503708, -0.14422746002674103, -0.013427667319774628, 0.09017102420330048, 0.11697772890329361, 0.01981079950928688, -0.012728346511721611, -0.04823669418692589, 0.08284884691238403, 0.019225073978304863, -0.10351747274398804, -0.06779199093580246, 0.008805908262729645, -0.03654970973730087, -0.10411082208156586, 0.08204405009746552, -0.1284157931804657, 0.02215754985809326, -0.16505274176597595, -0.042862486094236374, 0.21589651703834534, 0.10140658169984818, -0.037846777588129044, 0.0269142035394907, 0.055026061832904816, -0.0599953830242157, -0.07326647639274597, 0.007672891020774841, -0.09150199592113495, -0.016060721129179, -0.043808117508888245], [0.008904833346605301, -0.0006681740051135421, 0.0295499786734581, -0.054512083530426025, 0.1870485097169876, 0.0750688910484314, 0.014190791174769402, 0.07133057713508606, -0.019645240157842636, 0.16992005705833435, 0.016950096935033798, -0.06439157575368881, -0.0011547704925760627, 0.08659138530492783, -0.113423191010952, -0.01212943997234106, 0.134966641664505, 0.07691878080368042, -0.016474513337016106, 0.04221625626087189, -0.0065205954015254974, 0.16057126224040985, 0.03432954102754593, -0.04854464903473854, 0.05526011064648628, 0.09643731266260147, 0.06651473045349121, -0.0411524623632431, -0.18763485550880432, 0.00746557442471385, 0.029498593881726265, -0.24079260230064392, 0.15752959251403809, -0.07963202893733978, 0.0807793140411377, 0.018461348488926888, -0.034150321036577225, 0.00047977379290387034, 0.06574791669845581, -0.01985529251396656, 0.026764338836073875, -0.037116050720214844, 0.0357433520257473, -0.07539283484220505, 0.05671234801411629, 0.029939603060483932, 0.06560095399618149, -0.17002834379673004, -0.11789275705814362, 0.08501045405864716, -0.17950069904327393, 0.03106405958533287, 0.027300667017698288, -0.11581578850746155, -0.09479597210884094, 0.242606058716774, -0.058917704969644547, 0.12086869776248932, -0.0330459326505661, 0.012888289988040924, -0.054992903023958206, -0.03795506805181503, -0.027090702205896378, 0.09842543303966522, -0.03949110582470894, 0.06497326493263245, -0.02633209340274334, -0.03249988704919815, 0.06258946657180786, 0.11309941112995148, -0.10302375257015228, -0.12219856679439545, -0.03837836533784866, 0.2709871828556061, -0.01082583237439394, -0.014530554413795471, 0.07723074406385422, -0.28638163208961487, 0.043744396418333054, -0.05835197493433952, -0.09666413813829422, 0.13140203058719635, 0.11880941689014435, -0.061052776873111725, 0.21924763917922974, -0.12457890808582306, 0.1514132022857666, 0.15141594409942627, 0.02510814554989338, 0.25621625781059265, -0.060710545629262924, -0.021625176072120667, -0.07493776828050613, -0.03577865660190582, -0.00822160392999649, -0.13188298046588898], [-0.08895944803953171, 0.05838371068239212, 0.07436486333608627, -0.04350470006465912, 0.029707958921790123, -0.08058416843414307, -0.0503552071750164, 0.013600612990558147, 0.1398264616727829, -0.06325553357601166, -0.04625796154141426, -0.12053219974040985, 0.006124868523329496, -0.004915460012853146, -0.09716983139514923, -0.017904160544276237, 0.037976305931806564, 0.02379445917904377, -0.05285084620118141, 0.1007816419005394, 0.014127722010016441, 0.13723202049732208, 0.20345327258110046, 0.04419587552547455, 0.23095837235450745, -0.027319975197315216, -0.05577708035707474, -0.08562233299016953, 0.07306285202503204, -0.04112846404314041, -0.321305513381958, 0.03991956263780594, -0.13133013248443604, 0.038249671459198, -0.07944401353597641, 0.21983365714550018, -0.1588129699230194, 0.06411316245794296, -0.02601569890975952, -0.006853964179754257, -0.08591386675834656, -0.094669409096241, 0.013123809359967709, -0.06755577772855759, 0.10946088284254074, 0.04113946110010147, -0.006186847575008869, -0.01702216826379299, -0.13791820406913757, -0.13769476115703583, -0.011537212878465652, -0.08198894560337067, 0.03575726971030235, -0.24037399888038635, 0.09403174370527267, -0.06988471001386642, -0.18149277567863464, -0.01265212707221508, 0.13638414442539215, 0.10548275709152222, -0.1262149214744568, -0.09076566994190216, -0.041790977120399475, -0.03841772302985191, 0.1637272834777832, -0.036531295627355576, 0.04779479652643204, 0.19871221482753754, 0.06550558656454086, -0.1649707704782486, -0.10221309214830399, -0.12794530391693115, 0.05774981155991554, -0.20838865637779236, 0.2201080471277237, -0.04099268466234207, -0.027408111840486526, -0.04633920639753342, -0.1179930791258812, -0.14993827044963837, 0.002189846709370613, 0.034574832767248154, 0.11284208297729492, 0.010337211191654205, 0.03352675959467888, -0.06322851777076721, -0.043786030262708664, -0.13570937514305115, -0.059986621141433716, -0.020476074889302254, -0.08154716342687607, -0.01469744835048914, -0.010128648020327091, 0.030662130564451218, 0.027251340448856354, -0.06683729588985443], [-0.23294775187969208, -0.1052674874663353, 0.05396038666367531, -0.06095210090279579, -0.04179617017507553, -0.002494935877621174, -0.0793810486793518, -0.06835626810789108, 0.0320352204144001, 0.2784416973590851, 0.09448681771755219, 0.08127933740615845, 0.08801587671041489, 0.1304766982793808, -0.05071597918868065, -0.01250498741865158, -0.041862644255161285, 0.10433565825223923, 0.28221529722213745, -0.045694902539253235, -0.00898677296936512, 0.03314075991511345, -0.11900399625301361, -0.011399034410715103, -0.1453397125005722, -0.036433614790439606, -0.10414304584264755, 0.07965711504220963, 0.12312258780002594, 0.02872263640165329, -0.11458490788936615, 0.02760285884141922, -0.1757717877626419, 0.0456344410777092, -0.10326816141605377, -0.0203163493424654, -0.005684258416295052, -0.08479076623916626, -0.04706757515668869, 0.18541905283927917, -0.0032224254682660103, -0.052365414798259735, -0.11823999136686325, 0.18162944912910461, 0.03785591199994087, 0.07572655379772186, 0.07540786266326904, -0.09665405005216599, -0.1600072979927063, -0.017858929932117462, 0.024252761155366898, -0.0021380744874477386, 0.057840343564748764, -0.026778949424624443, -0.12585748732089996, 0.09682405740022659, -0.006027292460203171, 0.12144757807254791, 0.0050054918974637985, 0.022462375462055206, 0.11964796483516693, -0.08444729447364807, 0.1076740100979805, 0.15708179771900177, 0.03345634043216705, -0.03591977059841156, -0.09485932439565659, -0.03266983851790428, -0.05105974152684212, -0.07087510824203491, -0.0968664288520813, 0.033272769302129745, -0.13411562144756317, -0.032938070595264435, 0.0012558246962726116, -0.27644914388656616, 0.03528677672147751, 0.15963932871818542, 0.13583093881607056, -0.038640495389699936, 0.0033626705408096313, 0.16181227564811707, 0.08561060577630997, -0.06841937452554703, -0.02205738052725792, 0.11650426685810089, -0.09296704828739166, 0.0642639696598053, 0.09393194317817688, 0.014566920697689056, 0.012296115979552269, -0.103626549243927, 0.21455018222332, 0.12499010562896729, -0.046993352472782135, -0.06438179314136505], [0.1735960692167282, 0.09705570340156555, 0.10689237713813782, 0.018952790647745132, -0.05025747790932655, 0.11933565139770508, 0.034637197852134705, 0.003529837355017662, -0.09086191654205322, 0.012486446648836136, -0.1122211217880249, 0.02890203893184662, -0.21802766621112823, 0.06730462610721588, -0.06295908242464066, 0.11925572156906128, -0.08416935801506042, -0.0968211442232132, 0.2293296903371811, -0.0963376984000206, 0.06843169778585434, 0.013627350330352783, 0.003266613930463791, 0.0716480240225792, 0.1668127477169037, 0.10130465030670166, 0.011643176898360252, -0.015478231012821198, -0.10874398052692413, 0.10310205817222595, 0.035307109355926514, -0.04231346771121025, 0.09190650284290314, -0.13689211010932922, 0.1770743876695633, 0.01911463402211666, -0.05403091385960579, 0.05467692017555237, -0.04787355661392212, -0.22245028614997864, 0.0653277263045311, 0.16959339380264282, -0.02739684469997883, 0.07117410749197006, 0.011233238503336906, 0.0956517830491066, 0.08125363290309906, 0.11602453887462616, 0.15299248695373535, 0.11250624805688858, 0.027657149359583855, 0.07032875716686249, -0.03107842430472374, 0.024136163294315338, 0.01608593948185444, 0.0748191550374031, 0.0008301935158669949, 0.010657055303454399, 0.08967405557632446, 0.2389380931854248, -0.023190408945083618, -0.07333590090274811, 0.03599802032113075, 0.043674178421497345, 0.055875182151794434, -0.025747869163751602, 0.21415531635284424, 0.11742579191923141, -0.06253622472286224, -0.025750182569026947, -0.15221469104290009, -0.044107694178819656, 0.03558262810111046, 0.051615871489048004, 0.07267154008150101, -0.08400009572505951, 0.19274339079856873, 0.11367776989936829, -0.05075480788946152, -0.10793155431747437, 0.09408273547887802, 0.09313186258077621, 0.06635800004005432, 0.057003773748874664, -0.009399985894560814, 0.04362192004919052, -0.12298546731472015, 0.0876828134059906, 0.206887349486351, -0.2442701905965805, 0.04358946532011032, 0.0558064803481102, 0.19435784220695496, -0.027976270765066147, 0.06709980964660645, -0.06119467318058014], [0.026901591569185257, -0.11896315962076187, 0.059708159416913986, 0.004258685279637575, -0.051902975887060165, -0.01741683855652809, -0.02680903486907482, 0.1986350268125534, -0.043796904385089874, 0.028050940483808517, 0.08774600178003311, -0.023230351507663727, -0.0703115463256836, -0.07309456914663315, 0.04734284058213234, -0.084937684237957, 0.09220538288354874, 0.012795274145901203, -0.08551200479269028, -0.06732051819562912, 0.0006585494847968221, -0.20609061419963837, 0.2715595066547394, 0.05470212176442146, -0.15914331376552582, 0.10303188860416412, 0.09598463773727417, -0.0690954327583313, 0.021874502301216125, -0.0227192472666502, 0.004157734103500843, -0.24322113394737244, -0.05520746111869812, 0.028965171426534653, 0.138342946767807, -0.013983402401208878, -0.019981222227215767, 0.18182234466075897, -0.241969496011734, -0.02396947517991066, 0.12992875277996063, 0.009851100854575634, -0.033136896789073944, 0.012507712468504906, 0.06174736097455025, -0.002871210454031825, -0.03753151372075081, 0.09085124731063843, -0.04233718663454056, -0.08121893554925919, -0.057683102786540985, -0.001716551836580038, -0.024855172261595726, 0.014220904558897018, -0.18496133387088776, 0.0026355928275734186, -0.17280234396457672, 0.12599283456802368, -0.058404646813869476, -0.1659274846315384, 0.11061865091323853, -0.10944917052984238, 0.08613883703947067, -0.01729520782828331, 0.051979560405015945, -0.14378038048744202, -0.13202297687530518, -0.08329515159130096, -0.025041159242391586, 0.11407282948493958, -0.08335239440202713, -0.09354289621114731, 0.07135984301567078, -0.007803654298186302, -0.0915285274386406, -0.09834874421358109, -0.11257079243659973, 0.021941982209682465, -0.28992554545402527, -0.1304377168416977, -0.05186140909790993, -0.14917926490306854, 0.006941384635865688, -0.05151904374361038, -0.1153181791305542, -0.005813756957650185, -0.050620898604393005, -0.04326648265123367, -0.053101714700460434, -0.04902530089020729, 0.11737439781427383, 0.1379360854625702, 0.18510274589061737, -0.03886059299111366, -0.10646381974220276, -0.09959713369607925]]}, "input_size": 120, "conv1d_stride": 12, "conv1d_1_stride": 12}