{"conv1d": {"bias:0": [-0.03488951921463013, 0.047967761754989624, 0.0040934947319328785, 0.002642955631017685, -0.014179877005517483, -0.00012297244393266737, 0.05715954676270485, 0.004463682882487774, -0.005359054543077946, 0.009947109036147594], "kernel:0": [[[0.1562211662530899, -0.15165404975414276, 0.021113060414791107, -0.6477093696594238, 0.25859203934669495, 0.6301624774932861, -0.00914741586893797, -0.07267634570598602, -0.4391058385372162, 0.12005822360515594]], [[0.17637787759304047, -0.21671989560127258, 0.41907984018325806, -0.992836594581604, 0.25995269417762756, 0.4815269112586975, -0.15265534818172455, -0.2052585482597351, -0.9231865406036377, 0.25001078844070435]], [[-0.4634745717048645, -0.39710307121276855, 0.12510110437870026, -1.0347329378128052, 0.1685488075017929, 0.22678275406360626, -0.19201825559139252, -0.4142782390117645, -1.0007468461990356, 0.19077572226524353]], [[-0.4240209758281708, -0.11284811794757843, 0.3539309501647949, -1.0067204236984253, 0.005094538442790508, 0.2648622989654541, -0.6161977052688599, -0.2981944978237152, -1.0606160163879395, 0.10654744505882263]], [[-0.9522523880004883, -0.558556079864502, 0.2665715515613556, -0.8150667548179626, 0.1511841118335724, 0.22894789278507233, -0.4051358699798584, -0.1986493468284607, -0.9785717725753784, 0.4410319924354553]], [[-1.2456345558166504, -0.5058412551879883, 0.25415968894958496, -0.5433664321899414, -0.052479516714811325, -0.04148918762803078, -0.7945585250854492, -0.40619152784347534, -0.7496250867843628, 0.48984193801879883]], [[-1.4212987422943115, -0.6965916752815247, 0.11854027956724167, -0.41532841324806213, -0.30535221099853516, -0.2252495288848877, -0.8313043713569641, -0.4327258765697479, -0.3590749502182007, 0.399297833442688]], [[-1.4368243217468262, -0.696501612663269, 0.11668094247579575, -0.22913983464241028, -0.49093902111053467, -0.602026641368866, -0.7784627676010132, -0.5795121788978577, 0.026125218719244003, 0.6084456443786621]], [[-1.2305699586868286, -0.6225935220718384, -0.21682395040988922, 0.474560409784317, -0.5644561648368835, -0.7729542255401611, -0.8947065472602844, -0.5875161290168762, 0.8081191182136536, 0.6414991617202759]], [[-1.0380858182907104, -0.6977154612541199, -0.33905816078186035, 0.5468989610671997, -0.7325736880302429, -0.7819339632987976, -0.4680580198764801, -0.5446475744247437, 1.284469723701477, 0.32058489322662354]], [[-0.6044260263442993, -0.6337115168571472, -0.2634887099266052, 0.998724102973938, -0.795668363571167, -0.4716167747974396, -0.3549857437610626, -0.381050705909729, 1.8971261978149414, 0.4761057198047638]], [[-0.41672343015670776, -0.15499389171600342, -0.5961446762084961, 1.2413208484649658, -0.6549038887023926, -0.579707145690918, -0.20947673916816711, -0.44818878173828125, 2.1226871013641357, 0.4853535592556]]]}, "conv1d_1": {"bias:0": [-0.07602477073669434, -0.0026502266991883516, 0.08972690254449844, 0.029300447553396225, -0.11811758577823639, 0.020633913576602936, 0.07832951098680496, -0.023318292573094368, 0.09333261847496033, 0.07747747749090195], "kernel:0": [[[0.08609314262866974, 0.12928228080272675, 0.10084842145442963, -0.10188329219818115, 0.04112569987773895, -0.013740435242652893, -0.003908604383468628, 0.08370494842529297, 0.10937361419200897, -0.04137454181909561], [0.032476067543029785, -0.005013406276702881, -0.10293236374855042, 0.10786356031894684, 0.07097803056240082, -0.06888033449649811, -0.027704715728759766, -0.1576640009880066, 0.14978615939617157, -0.07531721889972687], [-0.12268823385238647, 0.021946147084236145, 0.15624688565731049, 0.15127085149288177, -0.047828130424022675, 0.07058805227279663, -0.10927991569042206, 0.024954959750175476, -0.1133747398853302, -0.1323450803756714], [-0.10469837486743927, 0.02595137059688568, 0.0836234837770462, 0.05550225079059601, 0.04964827001094818, 0.034971728920936584, -0.08952389657497406, -0.06482825428247452, 0.07931174337863922, -0.14060638844966888], [0.12486691772937775, -0.13191506266593933, -0.004777640104293823, 0.101803258061409, 0.014457851648330688, 0.12642668187618256, -0.10523359477519989, 0.09362827241420746, 0.0353308767080307, -0.0036140084266662598], [0.06418901681900024, 0.032328709959983826, -0.02588503062725067, -0.055277757346630096, 0.03965607285499573, 0.09753502905368805, 0.027782291173934937, 0.08201022446155548, 0.016262605786323547, 0.14119239151477814], [-0.01054777204990387, -0.08695101737976074, 0.0315469354391098, -0.04932998865842819, -0.07405801862478256, -0.10380739718675613, 0.014748305082321167, -0.12714582681655884, 0.06984873116016388, -0.06745073944330215], [-0.12068876624107361, -0.09678450226783752, -0.1338605433702469, 0.09003819525241852, 0.09716136753559113, 0.06262654066085815, 0.006419464945793152, 0.1287488490343094, -0.10118238627910614, -0.00783376395702362], [-0.1344117820262909, 0.07901212573051453, -0.05828377604484558, 0.07167011499404907, 0.11803232133388519, -0.0258370041847229, 0.010241448879241943, -0.08127979934215546, 0.06298968195915222, 0.025910407304763794], [-0.10629654675722122, -0.10025035589933395, 0.10849045217037201, -0.02295440435409546, 0.04333329200744629, -0.12310599535703659, -0.1477130949497223, -0.043215230107307434, -0.06528133153915405, -0.05362827330827713]], [[0.051581498235464096, -0.18076173961162567, -0.07178640365600586, -0.022224921733140945, 0.09528129547834396, -0.10933566093444824, 0.03174242749810219, 0.04841481149196625, -0.12932726740837097, 0.0077245598658919334], [0.18104106187820435, 0.05709483474493027, 0.08598970621824265, 0.04608950391411781, -0.046703170984983444, -0.03770125284790993, 0.018727241083979607, -0.10523512959480286, 0.1574927270412445, -0.008544565178453922], [0.07482203096151352, -0.10648772865533829, 0.011967502534389496, 0.04674823209643364, -0.009329991415143013, 0.11076052486896515, 0.09889116138219833, -0.0030660629272460938, 0.2715417146682739, -0.06748941540718079], [-0.02630995213985443, -0.20045235753059387, -0.04985012486577034, -0.00765620544552803, -0.11372501403093338, -0.05336828902363777, -0.1573612242937088, -0.3267148733139038, 0.08465275913476944, 0.02682129666209221], [0.13524815440177917, -0.04233264923095703, 0.03911951929330826, 0.1033516600728035, 0.16125133633613586, 0.03443838283419609, 0.04919508472084999, 0.09726232290267944, 0.017739102244377136, 0.00010666006710380316], [-0.08231205493211746, 0.03313077986240387, -0.0728684812784195, 0.11979323625564575, -0.16469597816467285, 0.16322734951972961, 0.07199202477931976, 0.005746596027165651, -0.0458691269159317, -0.08509952574968338], [0.0666237473487854, 0.10424826294183731, 0.019576555117964745, -0.07721980661153793, -0.07656162232160568, 0.02843276970088482, 0.029533928260207176, -0.16966456174850464, 0.10614009946584702, -0.04830228537321091], [-0.1333256959915161, -0.08611437678337097, -0.11947009712457657, -0.03841095417737961, -0.094309002161026, 0.008506694808602333, 0.08726061135530472, 0.06063053011894226, -0.10973197966814041, 0.1566183865070343], [0.06451060622930527, 0.03073929250240326, 0.08314578980207443, -0.036732859909534454, -0.034410614520311356, 0.061673954129219055, -0.013461858965456486, -0.061430301517248154, -0.12872616946697235, -0.0558493547141552], [0.11162147670984268, -0.0720072090625763, -0.012011416256427765, 0.04556380212306976, -0.03359358757734299, -0.17724867165088654, 0.03651849180459976, -0.038902536034584045, 0.010949244722723961, 0.058323003351688385]], [[-0.0035576471127569675, -0.06202101707458496, -0.2694614827632904, -0.09851228445768356, 0.1508396565914154, 0.04950762912631035, 0.030725346878170967, -0.03201849386096001, -0.10511328279972076, 0.02009580470621586], [-0.039869822561740875, 0.11439391225576401, 0.09431975334882736, -0.10216576606035233, -0.12523776292800903, -0.15387895703315735, 0.15693558752536774, -0.07213939726352692, 0.05896846204996109, 0.05010625720024109], [-0.004339783452451229, -0.10054027289152145, -0.15581272542476654, 0.003961724229156971, 0.04040078446269035, 0.09447333961725235, 0.08503587543964386, 0.09701163321733475, 0.1730368584394455, -0.05461910367012024], [-0.030269036069512367, 0.07751941680908203, -0.041442979127168655, 0.1604330688714981, 0.2682206630706787, -0.13685600459575653, -0.0721479281783104, -0.03259488567709923, -0.17361858487129211, -0.015011724084615707], [0.0410388708114624, 0.1890423744916916, -0.03856339305639267, 0.06370246410369873, 0.17269966006278992, 0.01144883781671524, 0.01895247772336006, 0.06860426813364029, 0.043248262256383896, 0.01303221844136715], [0.055440448224544525, -0.09090501070022583, -0.0598200187087059, 0.08602689206600189, 0.05922443047165871, -0.10297802835702896, 0.08871404826641083, 0.12232282012701035, 0.03437112644314766, 0.015939941629767418], [-0.14887630939483643, 0.04752248525619507, 0.09819036722183228, 0.13983303308486938, -0.16909430921077728, 0.03072161227464676, 0.1279413253068924, 0.1333196610212326, -0.07204373180866241, 0.1352902501821518], [-0.06301594525575638, -0.09390981495380402, 0.07376474142074585, -0.10150410234928131, -0.028513550758361816, 0.07382487505674362, -0.053930483758449554, 0.10841662436723709, 0.03731171041727066, -0.09680479764938354], [-0.02329307235777378, -0.010731973685324192, 0.12932813167572021, -0.12329929322004318, 0.01566881500184536, -0.013862578198313713, -0.04915322735905647, 0.0544433631002903, 0.1542203277349472, 0.013474298641085625], [-0.19771625101566315, 0.04128913953900337, -0.015483211725950241, -0.045390233397483826, 0.06524607539176941, 0.0872717797756195, 0.06029301509261131, 0.05382612720131874, -0.11162807792425156, -0.02456127107143402]], [[0.11150843650102615, -0.062394656240940094, 0.006617214530706406, 0.22988936305046082, 0.03840233385562897, 0.06515787541866302, -0.08981827646493912, -0.1469811052083969, -0.09964944422245026, -0.09670903533697128], [-0.03591383993625641, -0.07542672753334045, -0.12294138967990875, -0.04682128131389618, -0.19144214689731598, -0.042215462774038315, -0.13426539301872253, -0.05771041661500931, 0.06194128096103668, 0.14921408891677856], [0.20123271644115448, -0.0023534544743597507, 0.014280039817094803, 0.16124658286571503, -0.13538023829460144, -0.10840849578380585, 0.02628672868013382, 0.05358288809657097, 0.20823360979557037, -0.10292011499404907], [-0.06070932000875473, -0.05842781811952591, -0.025076204910874367, 0.016175108030438423, 0.06847590208053589, 0.049760155379772186, 0.03504778444766998, -0.21171775460243225, -0.16246263682842255, -0.19630345702171326], [-0.11318917572498322, -0.10039489716291428, 0.007739688735455275, -0.16733725368976593, -0.12960433959960938, 0.049141548573970795, 0.03868403658270836, -0.0922231674194336, 0.08679958432912827, -0.02770688198506832], [0.1609867662191391, -0.052821993827819824, 0.0014911011094227433, 0.023346198722720146, -0.021185657009482384, 0.14807146787643433, -0.010528584942221642, -0.08554854243993759, 0.052154459059238434, 0.07360201328992844], [-0.1217142641544342, 0.024514900520443916, 0.0650167390704155, 0.03481641784310341, -0.06607725471258163, -0.12547536194324493, 0.07153686881065369, 0.06014680117368698, 0.030961215496063232, -0.012553121894598007], [0.0044144876301288605, 0.10537783056497574, 0.12641392648220062, -0.18014460802078247, 0.01138881966471672, -0.09827840328216553, 0.03198927640914917, -0.017879078164696693, -0.10442351549863815, 0.09868252277374268], [0.10999106615781784, -0.08635357022285461, 0.03930187597870827, -0.0062189530581235886, 0.10041355341672897, 0.033650223165750504, 0.16121557354927063, 0.011842478066682816, 0.098807193338871, 0.09900330752134323], [0.06974697858095169, -0.009436056949198246, -0.03501558676362038, 0.19759422540664673, -0.09173578768968582, -0.019770057871937752, 0.04806520789861679, -0.047778673470020294, -0.07662723958492279, -0.05647169426083565]], [[-0.007651868741959333, -0.04827941209077835, 0.013769722543656826, 0.11888350546360016, 0.006488107610493898, -0.129237562417984, -0.11523628234863281, -0.04091646894812584, 0.025187840685248375, -0.10384123772382736], [0.030809791758656502, -0.043797753751277924, 0.02176794409751892, -0.03459581360220909, -0.013690571300685406, 0.10356798768043518, -0.16928957402706146, -0.009062486700713634, -0.029872946441173553, 0.04457056149840355], [0.04651302099227905, 0.0460817776620388, 0.1351875513792038, 0.05123244225978851, -0.06929522007703781, -0.07051187753677368, 0.12381430715322495, 0.09488094598054886, 0.085371233522892, 0.14783820509910583], [-0.10804478824138641, 0.028271043673157692, 0.059681471437215805, -0.22035646438598633, -0.018605992197990417, -0.08484555780887604, -0.047088202089071274, 0.01635645516216755, -0.07614744454622269, 0.04170812666416168], [-0.1748580038547516, -0.021033579483628273, 0.12688800692558289, -0.14753159880638123, 0.08362007886171341, -0.08604696393013, -0.17716443538665771, -0.03487280756235123, 0.015057000331580639, 0.1495727300643921], [-0.09289196878671646, -0.11620459705591202, -0.09449854493141174, 0.09905299544334412, -0.09227465093135834, 0.07074317336082458, -0.014220885001122952, 0.008306433446705341, -0.02653246372938156, 0.02004212513566017], [-0.08295940607786179, 0.10153065621852875, 0.1042172759771347, -0.08124331384897232, -0.035581834614276886, -0.10384154319763184, 0.08238586038351059, -0.02473786473274231, -0.03770282119512558, 0.12221833318471909], [0.02498466521501541, -0.08897004276514053, 0.1604696363210678, 0.09722185879945755, 0.11872208118438721, -0.05520143732428551, -0.04769282415509224, 0.0586523711681366, 0.09041541814804077, 0.01622241549193859], [0.2334640920162201, -0.04986786097288132, 0.01217782311141491, 0.08071143180131912, 0.0433165542781353, -0.015013051219284534, 0.007490688469260931, -0.015317223966121674, 0.0008150794310495257, -0.03275321424007416], [-0.11091870069503784, 0.07564672082662582, -0.004927775822579861, -0.08839893341064453, 0.10914422571659088, -0.08124712109565735, -0.015012151561677456, -0.11060759425163269, -0.026254618540406227, 0.03713815286755562]], [[-0.019307630136609077, -0.06376737356185913, -0.048414889723062515, 0.1487724930047989, 0.0024317908100783825, -0.036273274570703506, 0.05355367064476013, 0.10261482745409012, 0.08777184039354324, 0.05805012211203575], [-0.12155153602361679, 0.007378073409199715, -0.10670136660337448, -0.010132844559848309, -0.005961383227258921, 0.002658285666257143, 0.056099604815244675, 0.01364909578114748, -0.07274267822504044, 0.0464031808078289], [0.13601388037204742, 0.029834598302841187, -0.058825816959142685, -0.0655198022723198, -0.0065355850383639336, 0.028075341135263443, -0.017426002770662308, -0.07722846418619156, 0.0779624655842781, 0.04394795745611191], [-0.06615261733531952, 0.07213388383388519, 0.06214311718940735, 0.0171712264418602, -0.06271432340145111, -0.22334395349025726, -0.12929818034172058, 0.10365483164787292, -0.16875754296779633, 0.08518985658884048], [0.034929368644952774, 0.053030677139759064, -0.11012507975101471, 0.16824206709861755, -0.03974686935544014, 0.008097796700894833, -0.05226441100239754, 0.14260226488113403, 0.08354862034320831, -0.004647298250347376], [0.022908225655555725, 0.03436883166432381, 0.07858626544475555, 0.13568775355815887, 0.01895950362086296, -0.04153335839509964, 0.06191125884652138, -0.06462344527244568, 0.07427682727575302, 0.037642523646354675], [-0.11881303042173386, -0.09248774498701096, 0.05278892442584038, -0.1225709542632103, 0.06580328196287155, -0.006233472842723131, 0.22484177350997925, -0.08328618854284286, -0.03611569106578827, -0.013408499769866467], [0.13419221341609955, -0.09604556858539581, 0.004928767681121826, -0.12227598577737808, 0.13445653021335602, -0.04027320072054863, -0.053813498467206955, 0.08207929879426956, 0.033083755522966385, 0.0693211704492569], [0.2143903225660324, -0.0689493864774704, 0.1717371940612793, -0.09050612896680832, 0.11825129389762878, 0.0017771231941878796, -0.03240548446774483, 0.05088043585419655, -0.018595542758703232, -0.05811454728245735], [0.05425110086798668, -0.007666299585253, 0.06759403645992279, 0.07737639546394348, -0.05098450928926468, 0.05603335425257683, 0.08692443370819092, -0.12009768933057785, 0.02245429903268814, 0.02034280076622963]], [[-0.1877189576625824, -0.12968860566616058, -0.05117702856659889, 0.1312253773212433, 0.27201393246650696, 0.11340045183897018, 0.14507107436656952, -0.09679728001356125, 0.26677820086479187, -0.1658436805009842], [-0.03040487691760063, 0.07243005186319351, 0.010482674464583397, 0.18549057841300964, -0.16561296582221985, -0.06082454323768616, 0.1143798753619194, 0.06135470047593117, -0.004244925919920206, 0.158127561211586], [-0.08990567922592163, -0.10274658352136612, 0.07677309960126877, -0.04213226959109306, -0.0473383329808712, 0.04376550018787384, 0.18752798438072205, 0.0068769995123147964, 0.017784330993890762, -0.0197417214512825], [0.13553066551685333, 0.05128791928291321, -0.07306107878684998, -0.2048291265964508, -0.004032366443425417, -0.03261582925915718, 0.16977323591709137, -0.23125480115413666, -0.30478399991989136, -0.04188469797372818], [0.08704771101474762, -0.16568109393119812, -0.17095303535461426, 0.02618739753961563, 0.09148392826318741, -0.017646612599492073, -0.07633090019226074, 0.06920477002859116, 0.02134012244641781, -0.019498834386467934], [-0.15325133502483368, -0.14273430407047272, -0.03781493380665779, 0.03792824596166611, 0.00850621983408928, 0.26543378829956055, -0.12241179496049881, -0.010184329003095627, 0.14166955649852753, -0.1154436469078064], [-0.2272823005914688, -0.07962847501039505, 0.017088839784264565, -0.09810035675764084, -0.005155094899237156, -0.013599548488855362, -0.03291383385658264, -0.10855545103549957, 0.17939692735671997, 0.10011805593967438], [-0.0830630362033844, -0.2039383202791214, -0.23227661848068237, 0.11658522486686707, -0.021128127351403236, -0.09367973357439041, 0.03438207879662514, 0.17447952926158905, 0.18187758326530457, 0.08069001138210297], [0.35175177454948425, -0.07696132361888885, 0.056104496121406555, -0.16786178946495056, -0.12152072787284851, -0.1236526221036911, -0.14428357779979706, -0.08049461990594864, -0.1223282441496849, 0.02187136560678482], [-0.05050216242671013, 0.060226645320653915, -0.05211692303419113, 0.12914295494556427, -0.04525166377425194, -0.195381760597229, 0.08928333967924118, -0.18866539001464844, -0.05092577263712883, -0.08628827333450317]], [[-0.4211275577545166, -0.16612845659255981, -0.12935540080070496, 0.14032606780529022, 0.16500647366046906, 0.20379313826560974, -0.14616717398166656, 0.0871277004480362, 0.30726146697998047, -0.04023673012852669], [-0.10827110707759857, -0.012462572194635868, -0.014796262606978416, 0.006959344260394573, 0.04152572900056839, 0.17137357592582703, -0.03712017461657524, 0.2316918671131134, 0.05785895138978958, 0.15161482989788055], [-0.07960835099220276, -0.05689636245369911, -0.34542495012283325, 0.1377902776002884, -0.2732618749141693, 0.09203541278839111, 0.14245253801345825, 0.12024318426847458, 0.2286631017923355, 0.3168712854385376], [0.12988319993019104, 0.1129588708281517, 0.03884972259402275, -0.17641271650791168, 0.1186763197183609, -0.172163188457489, 0.03095887042582035, -0.20363624393939972, 0.16325853765010834, -0.059976473450660706], [-0.31902024149894714, -0.13617020845413208, -0.1465417444705963, 0.1993604600429535, 0.04833611100912094, 0.20891651511192322, -0.07805585116147995, 0.08375891298055649, 0.24135252833366394, 0.03087429516017437], [-0.08074319362640381, -0.16316580772399902, -0.20344340801239014, 0.08372632414102554, -0.05241823196411133, 0.3173406422138214, -0.02549389936029911, 0.1779894083738327, 0.08133488893508911, -0.09584538638591766], [-0.2477136105298996, -0.21024224162101746, -0.06256163120269775, 0.221248060464859, -0.03261125460267067, 0.08121094107627869, 0.1111677959561348, 0.06407374143600464, 0.15977279841899872, 0.10114461928606033], [-0.12546850740909576, -0.03674748167395592, -0.04517332836985588, -0.028312863782048225, -0.06478623300790787, 0.16622000932693481, -0.02118797041475773, 0.13635753095149994, 0.30563220381736755, -0.015138340182602406], [0.44093701243400574, 0.10267391055822372, 0.002533642342314124, 0.007655336521565914, 0.030043933540582657, -0.2647199332714081, -0.012762228958308697, -0.167999729514122, 0.16661901772022247, 0.08220348507165909], [-0.07163765281438828, 0.03112264722585678, 0.10147327929735184, 0.0673811212182045, 0.10361521691083908, -0.24152147769927979, 0.1559997946023941, -0.0647260993719101, -0.23313811421394348, -0.16084301471710205]], [[-0.7958301901817322, -0.2564258873462677, -0.4294232130050659, 0.017320184037089348, 0.06155278906226158, 0.43748727440834045, -0.04453577101230621, 0.46136903762817383, 0.45799902081489563, -0.009730380028486252], [-0.1839437484741211, -0.17712216079235077, -0.2575221657752991, 0.3256223797798157, -0.18419744074344635, 0.3378243148326874, -0.2636356055736542, 0.30203092098236084, 0.11845282465219498, 0.2132824957370758], [0.3379540741443634, -0.06292486190795898, -0.12474067509174347, 0.0880097821354866, -0.352802574634552, 0.38266342878341675, -0.03485763445496559, 0.17153488099575043, -0.3042624890804291, 0.09939997643232346], [-0.4722945988178253, -0.01498498022556305, 0.005685098469257355, -0.11194736510515213, 0.3298161029815674, -0.0632539764046669, -0.07252200692892075, 0.03939429298043251, 0.9853537082672119, 0.0651048868894577], [-0.04515906795859337, -0.260545939207077, -0.185121551156044, 0.2650454044342041, -0.13324406743049622, 0.2240501493215561, -0.11388571560382843, 0.3479821979999542, -0.14115563035011292, 0.1812613159418106], [-0.07216673344373703, -0.2033388316631317, -0.24409206211566925, 0.12054190039634705, -0.19814960658550262, 0.3152221739292145, -0.019611699506640434, 0.16601546108722687, -0.16549494862556458, 0.045805782079696655], [-0.16894280910491943, -0.39919179677963257, -0.15467071533203125, 0.19273053109645844, -0.1576818823814392, 0.23926834762096405, -0.0423157662153244, 0.2961124777793884, 0.44483253359794617, 0.16672295331954956], [-0.01256639789789915, -0.2737036347389221, -0.3947945833206177, 0.25520750880241394, -0.19904835522174835, 0.3913000226020813, -0.17009885609149933, 0.4609994888305664, 0.2593345642089844, 0.1070241704583168], [0.45329809188842773, 0.23351086676120758, 0.2352389097213745, -0.08690773695707321, 0.4542609751224518, -0.3963158130645752, -0.02981719560921192, -0.34117117524147034, 0.400063157081604, -0.1827276349067688], [0.00557392742484808, 0.2844401001930237, 0.3091132938861847, -0.1942097544670105, 0.1549331098794937, -0.25944772362709045, 0.10538576543331146, -0.2710024416446686, -0.10213182866573334, -0.052266210317611694]], [[1.7879877090454102, -0.7821648120880127, -0.7162327170372009, 0.3945312798023224, -0.9331713318824768, 0.25670483708381653, -0.6871011257171631, 1.0860732793807983, -0.1990378499031067, 0.1693890541791916], [0.9962708950042725, -0.22186248004436493, -0.31364870071411133, 0.12658818066120148, -0.6690070629119873, 0.33528879284858704, -0.37966376543045044, 0.6220239996910095, -0.28183871507644653, 0.2888755798339844], [1.2894257307052612, 0.45456573367118835, 0.5981588959693909, 0.29498404264450073, 0.3659774363040924, -0.6251116394996643, 0.26238277554512024, -0.1429925560951233, 0.5736286640167236, -0.18402256071567535], [-1.860635757446289, -0.9758976697921753, -1.071807622909546, -1.0254415273666382, -0.24406807124614716, 0.9373990297317505, -0.15178760886192322, 0.4744424521923065, -0.7274703979492188, 0.3001909852027893], [1.3701579570770264, 0.11387693881988525, -0.08698852360248566, 0.37287938594818115, -0.28129592537879944, -0.12204255908727646, -0.31274649500846863, 0.11994684487581253, -0.05783793702721596, 0.03502912446856499], [1.4893189668655396, 0.04114004969596863, 0.1615152508020401, 0.28243786096572876, -0.09279654175043106, -0.4673585593700409, -0.2947555184364319, 0.16872410476207733, 0.1690826565027237, -0.2016640603542328], [1.0310046672821045, -0.6094090938568115, -0.6186044216156006, 0.23937514424324036, -0.8890855312347412, 0.241082102060318, -0.4188801050186157, 0.6812624335289001, -0.06471637636423111, 0.2256862372159958], [0.931023120880127, -0.34119775891304016, -0.20174862444400787, 0.37060263752937317, -0.4953014552593231, 0.2199847251176834, -0.4172890782356262, 0.5911201238632202, -0.28989771008491516, 0.22491027414798737], [-3.7000322341918945, -0.7134619355201721, -0.3782130181789398, -1.0745865106582642, 0.1549149751663208, 1.300133228302002, 0.3509567379951477, 0.10662028938531876, -0.6937667727470398, 0.3314194679260254], [-0.8369779586791992, 0.1792752593755722, 0.2258056104183197, -0.1633225381374359, 0.3120345175266266, -0.16374492645263672, 0.3257647156715393, -0.5125406980514526, 0.07628047466278076, -0.016526788473129272]], [[-1.368841528892517, 1.5394585132598877, 1.2390226125717163, -0.6377802491188049, 0.9879598021507263, -1.067330241203308, 1.0272109508514404, -1.0389368534088135, -0.3945992588996887, -0.784447193145752], [-0.4071916937828064, 0.7068428993225098, 0.8778577446937561, -0.2556283175945282, 0.43528252840042114, -0.6095612645149231, 0.6515847444534302, -0.30352136492729187, -0.29060813784599304, -0.3333561420440674], [-0.07577942311763763, -0.0549653135240078, -0.4910721778869629, -2.0357425212860107, 0.03226962685585022, -0.06996814161539078, -0.12380919605493546, 0.17663194239139557, 0.23502060770988464, -0.32052916288375854], [1.103906512260437, 0.8608554005622864, 1.2498424053192139, 4.049649715423584, 0.0066355750896036625, 0.025004422292113304, 0.3039681315422058, -0.8045127391815186, -0.4390402138233185, 0.36708590388298035], [-0.7686366438865662, 0.549157977104187, 0.3696739077568054, -1.521483063697815, 0.38216009736061096, -0.640012800693512, 0.30894607305526733, -0.2559695839881897, -0.2621142566204071, -0.5793390870094299], [-1.0879968404769897, 0.41003555059432983, 0.33603671193122864, -1.8643994331359863, 0.4524144232273102, -0.6509747505187988, 0.4456316828727722, -0.4359050393104553, -0.18325720727443695, -0.5491936802864075], [-0.8167024254798889, 1.1036274433135986, 1.0874983072280884, -0.3017813265323639, 0.49609243869781494, -0.6620466709136963, 0.6948136687278748, -0.7837076187133789, -0.19471485912799835, -0.4869549572467804], [-0.321516215801239, 0.8447345495223999, 0.8525469303131104, -0.49507761001586914, 0.49049583077430725, -0.6280278563499451, 0.48522189259529114, -0.6130328178405762, -0.48493555188179016, -0.5422452688217163], [0.6578406095504761, 0.18534666299819946, 0.6648485064506531, 3.849747896194458, 0.17362499237060547, 0.306142657995224, -0.016594987362623215, -0.3079341650009155, -0.238290935754776, 0.3514779806137085], [0.24802401661872864, -0.4987601935863495, -0.5751725435256958, 0.4387570023536682, -0.4804157018661499, 0.48718753457069397, -0.6186572313308716, 0.279604434967041, 0.37730440497398376, 0.4838034510612488]], [[-0.13457317650318146, 0.04136316478252411, -0.09546543657779694, 0.036069825291633606, 0.08945468068122864, -0.06543204933404922, 0.045750632882118225, 0.059223562479019165, 0.0674361139535904, 0.11817310750484467], [-0.019152551889419556, -0.09473475068807602, 0.1049523800611496, 0.14075268805027008, 0.03935755789279938, 0.15308396518230438, 0.06386682391166687, 0.09483812749385834, 0.04692953824996948, 0.10547949373722076], [-0.14997228980064392, 0.10150666534900665, -0.10139111429452896, -0.12814506888389587, -0.012709647417068481, -0.10546113550662994, -0.13320551812648773, 0.03036569058895111, 0.13085339963436127, -0.06487224251031876], [-0.02289891242980957, -0.10435698926448822, 0.0012210160493850708, -0.023074090480804443, 0.022908151149749756, -0.009173378348350525, -0.11524535715579987, -0.15757666528224945, -0.04458118975162506, 0.05052413046360016], [-0.14131763577461243, -0.02795650064945221, -0.14362360537052155, 0.1099153608083725, -0.09686562418937683, 0.045592233538627625, -0.12288931012153625, -0.04687947779893875, 0.07885804772377014, -0.011822998523712158], [-0.049354344606399536, 0.040204793214797974, -0.060106247663497925, 0.00073966383934021, -0.0883273035287857, -0.07136650383472443, 0.02599811553955078, -0.12219451367855072, -0.07287967205047607, -0.05647626519203186], [0.058109164237976074, -0.12936438620090485, -0.1370123326778412, 0.09943951666355133, 0.11810560524463654, 0.07228906452655792, 0.046118900179862976, 0.09996090829372406, -0.049590103328228, -0.0761750191450119], [0.035552918910980225, 0.14384852349758148, -0.1421302706003189, 0.01357482373714447, -0.1539345681667328, 0.03817777335643768, -0.10582288354635239, -0.08465585857629776, 0.04490530490875244, -0.07593085616827011], [-0.03831733018159866, -0.03373624384403229, -0.10209929943084717, -0.03239588439464569, -0.003768444061279297, -0.13333353400230408, -0.012747153639793396, 0.14269821345806122, -0.007620319724082947, 0.006545037031173706], [0.035266533493995667, 0.12092109024524689, 0.07209017872810364, -0.07715515047311783, 0.14702172577381134, -0.09440392255783081, 0.014934837818145752, -0.13524949550628662, 0.13637317717075348, -0.1425030529499054]]]}, "dense": {"bias:0": [-0.005540565121918917], "kernel:0": [[-0.21577715873718262], [0.18300963938236237], [0.10215975344181061], [-0.515651524066925], [-0.09659956395626068], [-0.14058399200439453], [-0.20327576994895935], [0.4701632857322693], [0.20855465531349182], [0.6689009666442871]]}, "lstm": {"bias:0": [0.1340498924255371, 0.23560436069965363, 0.6780408024787903, -0.282459557056427, 0.5116785168647766, 0.26721397042274475, -0.08509277552366257, -0.3583861291408539, 0.5890880227088928, -0.5686338543891907, 1.0, 1.0, 1.0, 1.0, 1.0, 1.0, 1.0, 1.0, 1.0, 1.0, 0.020829059183597565, 0.005986469332128763, 0.25465935468673706, 0.03742722421884537, 0.1452297866344452, -0.0780707448720932, -0.01740768551826477, -0.08346662670373917, 0.009448407217860222, 0.16260592639446259, -0.10792296379804611, 0.01621435210108757, 0.6376785635948181, -0.9225339889526367, 0.6090468168258667, 0.07588592916727066, -0.45297056436538696, 0.35669341683387756, 0.6544981002807617, -0.019351942464709282], "kernel:0": [[0.47687238454818726, 0.6579534411430359, 0.7837015390396118, -0.07913926243782043, -0.904664933681488, 0.3845852315425873, -1.0403904914855957, 0.016248440369963646, 0.1041942834854126, -0.1460820734500885, 0.24237143993377686, 0.03611117601394653, -0.26459604501724243, -0.08199521899223328, -0.2864764630794525, 0.03512957692146301, -0.2582700252532959, 0.1671695113182068, -0.32792025804519653, 0.09218782186508179, 0.30174094438552856, 1.412631630897522, 0.7386479377746582, 0.11218132078647614, -0.5042184591293335, 0.2682363986968994, -0.20157425105571747, 0.015517414547502995, -1.441283106803894, 0.020937537774443626, -0.041063353419303894, -0.5853112936019897, 0.829369068145752, 0.06205824390053749, -0.7862507700920105, -0.011072257533669472, 0.7944050431251526, -0.08156666904687881, -0.4717891812324524, 0.28058066964149475], [-0.2792470157146454, 0.023712918162345886, -1.029862403869629, -0.04925425723195076, 1.3026418685913086, -0.6895449161529541, -0.21562537550926208, -0.25423353910446167, 0.02659578062593937, 0.15920710563659668, 0.33942800760269165, 0.3355333209037781, -0.2277228981256485, 0.2030767798423767, -0.32166045904159546, 0.18589413166046143, 0.12136724591255188, -0.09219762682914734, -0.07819300889968872, -0.017319083213806152, -0.1327991783618927, 1.3967936038970947, -0.6755256652832031, -0.20457027852535248, 0.6004136204719543, -0.31489717960357666, -0.005748448893427849, -0.011183655820786953, 1.430946946144104, -0.014469543471932411, -0.15955892205238342, 0.050130244344472885, -1.0468473434448242, 0.08901361376047134, 0.7957404851913452, 0.21795912086963654, -0.15005838871002197, -0.1763601303100586, 0.35671037435531616, 0.25345712900161743], [-0.22334419190883636, -0.16354496777057648, 0.2639893591403961, -0.271301805973053, 0.5692137479782104, -0.3119266927242279, 0.21357615292072296, 0.26489999890327454, -0.08586345613002777, 0.21150252223014832, -0.3377225399017334, 0.21617376804351807, 0.12133923172950745, 0.016680419445037842, 0.0017628073692321777, -0.25059521198272705, 0.24336111545562744, 0.1976746916770935, -0.08804208040237427, -0.2815806567668915, -0.06905551254749298, 1.4485955238342285, -0.6869551539421082, -0.26491492986679077, 0.45745253562927246, -0.12484019994735718, 0.10264994949102402, -0.10877159982919693, 1.3504480123519897, 0.07861295342445374, -0.24185548722743988, -0.011005569249391556, 0.20948182046413422, -0.3244345188140869, 0.18185889720916748, 0.11892248690128326, 0.1407197117805481, -0.34687015414237976, 0.7452294826507568, 0.006939804181456566], [0.18161094188690186, 0.19378000497817993, 1.087896704673767, 0.25022414326667786, -0.8889627456665039, 1.3888695240020752, 0.15324778854846954, -0.01163548231124878, -1.356614351272583, 0.025011342018842697, -0.20932261645793915, -0.035824328660964966, 0.2348528504371643, -0.2905855178833008, 0.028932392597198486, -0.22324895858764648, 0.053204119205474854, -0.08064278960227966, -0.2832324504852295, 0.1316525936126709, 0.07439330965280533, 1.202731966972351, 0.8150436878204346, 0.18132804334163666, -0.5528682470321655, 2.3171160221099854, 0.48375868797302246, -0.012577950023114681, -1.0991880893707275, -0.022944316267967224, 0.1882927566766739, 0.0108175715431571, -0.27514347434043884, -0.05461690202355385, -1.026057481765747, -0.18241961300373077, -0.23744221031665802, -0.40916040539741516, 0.6209415793418884, 0.05643165856599808], [-0.4116038680076599, -0.36243104934692383, -1.1629130840301514, 0.20603875815868378, 0.5840370655059814, -0.7843326330184937, 0.670236349105835, 0.24971583485603333, 0.18627656996250153, -0.12896710634231567, 0.3435545563697815, -0.3426540195941925, 0.1222878098487854, 0.014042645692825317, 0.23274290561676025, -0.3381279706954956, 0.20785236358642578, -0.18747170269489288, -0.02133786678314209, 0.3045240044593811, -0.4276384711265564, 0.5280072093009949, -0.6721706390380859, -0.3539371192455292, 0.3363405168056488, -0.26225802302360535, 0.3499095141887665, -0.004814039915800095, 1.1911330223083496, -0.19250750541687012, -0.07224870473146439, 0.38870662450790405, -1.1669549942016602, 0.14756226539611816, 0.8460649847984314, -0.017257507890462875, -0.3247906565666199, -0.27188265323638916, -0.07067464292049408, 0.19176235795021057], [-0.1046212688088417, 0.12713533639907837, 0.5299686193466187, -0.25293317437171936, -0.9763404130935669, 0.7381682991981506, 0.22021903097629547, -0.043892644345760345, -0.4138522744178772, -0.017811529338359833, 0.2258012890815735, -0.1126939058303833, -0.04803535342216492, 0.08269062638282776, -0.10863490402698517, -0.04528370499610901, 0.061001092195510864, 0.34261488914489746, -0.17866671085357666, -0.33159926533699036, 0.2754942774772644, -1.1997283697128296, 0.7932312488555908, 0.06357046216726303, -0.357492595911026, 0.4620928168296814, 0.28041136264801025, -0.04215371981263161, -1.002539038658142, 0.06829257309436798, 0.3759565055370331, -0.2975195646286011, 0.6483805179595947, 0.12249904125928879, -0.7457623481750488, -0.41193071007728577, 0.13842929899692535, -0.28301331400871277, 0.07384675741195679, -0.2917126417160034], [-0.2834029197692871, -0.3034347891807556, -0.9322366118431091, -0.15878719091415405, 1.1229567527770996, -0.2846311330795288, 0.22253595292568207, -0.021214205771684647, -0.0038919781800359488, 0.07012918591499329, -0.32392221689224243, -0.2192123532295227, 0.3256312608718872, 0.22607362270355225, 0.07226431369781494, 0.15388178825378418, 0.14869704842567444, 0.30442124605178833, -0.2558680474758148, -0.00207674503326416, -0.45620790123939514, 0.5425362586975098, -0.5332844257354736, 0.1414109170436859, 0.6857547163963318, 0.00813053734600544, 0.0007016721647232771, -0.029406016692519188, 1.358177900314331, 0.11624448746442795, -0.6228679418563843, 0.37267881631851196, -0.9448390603065491, -0.15123863518238068, 0.5676631331443787, 0.4827224910259247, -0.10558637976646423, -0.4150776267051697, 0.40099161863327026, 0.14710068702697754], [0.10005993396043777, 0.5544119477272034, 0.8543991446495056, 0.1706838607788086, -1.2266156673431396, 0.2791953980922699, -0.31772926449775696, 0.08352530002593994, 0.20586419105529785, 0.2578570246696472, 0.17188644409179688, 0.13484835624694824, -0.051820725202560425, -0.3353232741355896, 0.25717973709106445, -0.34577661752700806, -0.20127259194850922, 0.22716909646987915, -0.11356143653392792, 0.13342159986495972, 0.2996339797973633, -0.9230777621269226, 0.6713970899581909, -0.07384787499904633, -0.5194600224494934, 0.11257543414831161, -0.012002954259514809, 0.05346814543008804, -1.336981177330017, -0.05909769982099533, 0.2202690690755844, -0.41496172547340393, 1.0424317121505737, -0.189946711063385, -0.7804644703865051, -0.1246865838766098, 0.24217577278614044, -0.17908625304698944, -0.4288673400878906, 0.3101426362991333], [0.32399770617485046, 0.0014354088343679905, 0.3418593406677246, -0.17282697558403015, -0.11901497840881348, 0.15503506362438202, 0.6110904216766357, -0.020216042175889015, 0.5470780730247498, -0.04581980034708977, -0.3441169559955597, 0.12218058109283447, -0.008668303489685059, -0.2968481779098511, -0.13688023388385773, -0.2843468487262726, -0.16014741361141205, 0.11396357417106628, -0.043133288621902466, 0.19105035066604614, 0.3425371050834656, -0.17336060106754303, 0.18322238326072693, 0.1178642213344574, -0.03818729892373085, -0.2853683531284332, 0.7267183661460876, -0.00924825482070446, -0.4415474534034729, 0.052634693682193756, -0.07783085107803345, -0.011955572292208672, 0.32073912024497986, 0.01561577059328556, 0.31598764657974243, 0.07363231480121613, -0.3531891405582428, 0.3188678026199341, -0.507870078086853, -0.04085886478424072], [0.3236461877822876, 0.2806997299194336, 1.091221809387207, -0.06526120007038116, -1.224717617034912, 0.7627333998680115, -0.13744276762008667, 0.21021060645580292, -0.3047618269920349, 0.12545399367809296, 0.007891625165939331, 0.06543150544166565, 0.32170772552490234, 0.06623592972755432, -0.06783977150917053, -0.29983070492744446, 0.18648302555084229, -0.3301778733730316, 0.22602510452270508, 0.2844546437263489, 0.29616597294807434, -0.46897637844085693, 0.7492012977600098, 0.05958603322505951, -0.13152121007442474, 0.6900711059570312, -0.06501399725675583, -0.3380759060382843, -0.7682926654815674, -0.09739478677511215, -0.14623141288757324, -0.12679830193519592, 0.2775013744831085, -0.17676398158073425, -0.5383882522583008, -0.2621076703071594, -0.1797688603401184, 0.4573032557964325, 0.2144290953874588, 0.005600452423095703]], "recurrent_kernel:0": [[0.005742073059082031, -0.016186226159334183, 0.2833866775035858, 0.3135295510292053, 0.22186726331710815, -0.14839372038841248, -0.10561884194612503, 0.08289170265197754, 0.12515386939048767, 0.10633610188961029, -0.06731416285037994, -0.05143578723073006, -0.07722192257642746, -0.15233899652957916, -0.20231151580810547, 0.04360939934849739, -0.04863312840461731, 0.047551803290843964, -0.2864072620868683, -0.03795391693711281, -0.026405401527881622, -0.27824708819389343, -0.1031511202454567, -0.1592196375131607, 0.06065746396780014, 0.07573822885751724, -0.08682738989591599, 0.030435457825660706, -0.28210803866386414, -0.06360722333192825, 0.2401323765516281, 0.23173834383487701, -0.28534236550331116, 0.25984230637550354, -0.025514133274555206, 0.07082858681678772, 0.017543857917189598, 0.19251182675361633, 0.12842844426631927, -0.04606623202562332], [0.019727608188986778, -0.08222690969705582, 0.0068617756478488445, 0.03442535549402237, -0.07183713465929031, 0.011755832470953465, -0.13172580301761627, 0.26116156578063965, -0.11747382581233978, 0.036508359014987946, -0.06641779839992523, -0.1460181474685669, 0.20384037494659424, -0.22071519494056702, 0.27973952889442444, 0.0916731134057045, 0.20592743158340454, -0.028677159920334816, 0.0548316091299057, 0.1621238887310028, -0.24166524410247803, 0.09314318001270294, 0.16534368693828583, -0.14130549132823944, -0.17668671905994415, -0.11212538182735443, -0.21696282923221588, -0.2710510790348053, 0.12733101844787598, -0.17417167127132416, 0.2588265538215637, 0.15280760824680328, 0.27358752489089966, 0.08074960857629776, -0.041687194257974625, 0.12193381041288376, -0.09952578693628311, -0.0017236152198165655, 0.18329545855522156, -0.2310093343257904], [0.03663298115134239, 0.05181984603404999, 0.2235872745513916, -0.009319998323917389, -0.1331750452518463, -0.19525568187236786, -0.01109121274203062, 0.15418310463428497, 0.21998503804206848, -0.054204411804676056, -0.12139477580785751, 0.08890300989151001, -0.07362586259841919, 0.08341838419437408, 0.03631630167365074, 0.35802364349365234, 0.140731543302536, 0.035716596990823746, 0.03248602896928787, -0.15819713473320007, -0.02539394050836563, 0.13154150545597076, -0.35478675365448, 0.15459255874156952, 0.1363910585641861, 0.08275549858808517, -0.08169247955083847, 0.3660261332988739, 0.16552066802978516, -0.16994769871234894, 0.03775235265493393, -0.04463271051645279, 0.1176203191280365, -0.021079178899526596, 0.21518385410308838, 0.11740171909332275, -0.06249373406171799, -0.13729354739189148, -0.10824236273765564, -0.3174436688423157], [0.3246065080165863, 0.058406200259923935, 0.06715846806764603, 0.05798357352614403, -0.15226823091506958, -0.050808344036340714, -0.08901594579219818, -0.12386508285999298, 0.19609971344470978, -0.029581453651189804, 0.13511821627616882, 0.04653675854206085, -0.012143147177994251, 0.028432302176952362, -0.11938738822937012, 0.03392379358410835, 0.02594047039747238, -0.11670267581939697, 0.09260676056146622, 0.1381261944770813, 0.1686348021030426, 0.01971650868654251, -0.057633884251117706, 0.08557423949241638, -0.13613680005073547, 0.0666787326335907, 0.20528960227966309, -0.30266284942626953, 0.31440407037734985, 0.041493773460388184, 0.1135023683309555, 0.18604102730751038, -0.13905954360961914, 0.25631213188171387, -0.0295791644603014, -0.4143402576446533, -0.2545604705810547, 0.023156825453042984, -0.15971258282661438, -0.1534830778837204], [-0.08254456520080566, -0.047147445380687714, 0.18450862169265747, -0.14798757433891296, 0.1403406411409378, -0.03763778135180473, 0.20636095106601715, 0.18237686157226562, 0.07243557274341583, 0.0958426371216774, -0.017553217709064484, 0.0774368941783905, 0.20267964899539948, 0.11886337399482727, 0.1894441694021225, -0.41579222679138184, -0.06600549817085266, -0.08997204899787903, 0.10216158628463745, -0.04585260897874832, -0.012281582690775394, 0.025930382311344147, 0.15429265797138214, -0.0031146062538027763, 0.03644651174545288, 0.10938988626003265, -0.23079870641231537, 0.09152419120073318, 0.009342407807707787, -0.2804175317287445, -0.24152469635009766, -0.0614951029419899, -0.17448244988918304, 0.16881243884563446, 0.23398172855377197, -0.32718899846076965, -0.03761208802461624, 0.16624630987644196, 0.06039978563785553, -0.18572886288166046], [-0.0482824333012104, 0.09823648631572723, 0.06356112658977509, -0.20835864543914795, -0.174983948469162, -0.1369231939315796, -0.20323437452316284, -0.14052310585975647, -0.007633879780769348, -0.13436342775821686, 0.08650687336921692, 0.03869253769516945, 0.0842277929186821, 0.2564273774623871, 0.3180016279220581, 0.011545253917574883, 0.2407020628452301, 0.11286602914333344, -0.21242941915988922, 0.09699522703886032, -0.07341258227825165, -0.13572491705417633, -0.11179225891828537, 0.17967535555362701, 0.09008660912513733, -0.08792517334222794, -0.0012963437475264072, -0.14581072330474854, -0.3440309464931488, 0.16495433449745178, 0.12610885500907898, -0.12089420109987259, 0.09929639101028442, 0.012221683748066425, 0.1360621154308319, -0.1161862313747406, 0.0012686585541814566, 0.41733452677726746, -0.07575191557407379, 0.004512959159910679], [0.08525221049785614, 0.06386740505695343, -0.01503266952931881, -0.09524542093276978, 0.003094632178544998, 0.13350975513458252, -0.16348524391651154, -0.27971673011779785, -0.05734609439969063, 0.1628977358341217, -0.010973285883665085, -0.12208126485347748, 0.07956677675247192, 0.19249601662158966, 0.06837290525436401, 0.2737983465194702, -0.08909041434526443, 0.21452763676643372, -0.07048396021127701, -0.21458700299263, 0.12778107821941376, 0.3231258690357208, -0.022495973855257034, -0.2032071202993393, -0.08819826692342758, 0.06556840986013412, -0.06006351485848427, 0.13522681593894958, 0.1698329895734787, -0.08133264631032944, -0.09019361436367035, 0.013653002679347992, -0.008734242990612984, 0.2250455766916275, 0.02514953725039959, -0.014083534479141235, -0.10662183165550232, 0.24769282341003418, 0.4125637412071228, 0.2212066501379013], [-0.26250308752059937, 0.05958724021911621, 0.17733103036880493, -0.31314998865127563, 0.36464306712150574, 0.20197835564613342, -0.07643352448940277, -0.08234076201915741, 0.15106137096881866, -0.18028727173805237, 0.0945972353219986, -0.31797775626182556, -0.05475538969039917, 0.19323688745498657, 0.017226658761501312, 0.09351655840873718, 0.024101514369249344, -0.21570628881454468, -0.07570837438106537, 0.029122313484549522, -0.008800945244729519, -0.08824241906404495, -0.161055788397789, -0.03597215190529823, 0.04747796058654785, -0.21224722266197205, 0.15523888170719147, -0.12604255974292755, 0.062232937663793564, -0.27728381752967834, 0.05066925287246704, 0.19063927233219147, 0.039804767817258835, -0.0541442446410656, 0.0015808967873454094, -0.12289004027843475, 0.15215374529361725, -0.23051299154758453, 0.06463794410228729, 0.032506074756383896], [0.06855567544698715, -0.06830520927906036, 0.04781557247042656, -0.07355837523937225, -0.17976011335849762, 0.19977590441703796, -0.03310685232281685, -0.131255105137825, -0.18301518261432648, 0.3232669234275818, 0.3340776562690735, 0.21453507244586945, 0.06609977036714554, -0.1466885209083557, -0.0759200006723404, 0.04469301179051399, -0.04844007268548012, -0.11337330937385559, 0.057424284517765045, 0.029014380648732185, -0.0027765047270804644, 0.2509825825691223, -0.1171456053853035, 0.1450105756521225, 0.30762967467308044, 0.03499416261911392, -0.022158481180667877, -0.0640769675374031, -0.3016504943370819, -0.050600845366716385, -0.022707853466272354, 0.35293665528297424, 0.018245646730065346, -0.04559429734945297, 0.08831686526536942, -0.041691817343235016, 0.23903419077396393, -0.09696180373430252, 0.12681007385253906, -0.1798919141292572], [-0.07286474853754044, -0.1354433298110962, -0.13639289140701294, 0.032078105956315994, 0.10755176842212677, 0.2913740277290344, -0.01518293283879757, 0.2899215519428253, 0.13247796893119812, 0.23918133974075317, 0.05187152326107025, 0.12926658987998962, -0.01855679601430893, 0.16528458893299103, 0.018691234290599823, 0.17665454745292664, 0.01963748410344124, -0.3850644528865814, 0.060668595135211945, -0.43314018845558167, 0.14234907925128937, -0.07030846178531647, 0.08071212470531464, 0.16894187033176422, 0.09990517795085907, -0.004908765200525522, -0.06955080479383469, -0.1131979376077652, -0.02220398560166359, 0.05145590379834175, 0.2439296841621399, -0.119505874812603, 0.07454241067171097, 0.0021860599517822266, -0.14034457504749298, 0.02235451526939869, -0.1687193363904953, 0.21336926519870758, -0.09529250860214233, 0.09465310722589493]]}, "input_size": 120}