{"conv1d": {"bias:0": [0.009745460934937, 0.0005039632087573409, -0.005304458551108837, 0.002134403446689248, 0.005038161296397448, 0.00496648671105504, 0.0036942900624126196, 0.011045558378100395, 0.007973680272698402, -0.0011381926015019417, -0.009016882628202438, 0.008697941899299622, 0.0006095287390053272, 0.0009752586483955383, 0.0023888566065579653, 0.0007867515087127686], "kernel:0": [[[-0.21005356311798096, -0.22829069197177887, 0.46733105182647705, 0.1791701763868332, 0.08564093708992004, -0.3717525005340576, 0.48842597007751465, -0.32338693737983704, -0.3348778486251831, 0.18457762897014618, 0.3371504247188568, -0.19412173330783844, -0.5430880188941956, 0.039106592535972595, 0.0418667271733284, -0.26045942306518555]], [[-0.18838997185230255, -0.3341028094291687, 0.003789670532569289, -0.10204824805259705, 0.2868894636631012, -0.3401089310646057, 0.3285181522369385, -0.6066926121711731, -0.4311922490596771, 0.33139657974243164, 0.4738757312297821, -0.07967822253704071, -0.6730642914772034, 0.09698273986577988, 0.243808776140213, -0.04616490751504898]], [[-0.5258235335350037, -0.15006539225578308, -0.24929986894130707, 0.25299444794654846, 0.09079466015100479, -0.2735886573791504, 0.36259326338768005, -0.5482640862464905, -0.42202574014663696, 0.3714146614074707, 0.80330890417099, 0.10312255471944809, -0.5221834778785706, 0.19340696930885315, 0.4062137007713318, -0.43276503682136536]], [[-0.6875514388084412, -0.36050453782081604, -0.5981543064117432, 0.11703109741210938, 0.33883509039878845, -0.0715264305472374, -0.11313194036483765, -0.8599242568016052, -0.1411920189857483, 0.4674241542816162, 0.8739230036735535, 0.22478269040584564, -0.5323281288146973, 0.15073761343955994, 0.3744359314441681, -0.3974307179450989]], [[-0.5732120871543884, -0.05497817322611809, -0.5317239761352539, 0.10697706043720245, 0.23187373578548431, 0.06058492884039879, -0.12071353197097778, -0.8112829327583313, 0.09669821709394455, 0.36595362424850464, 0.6719871759414673, 0.3559955656528473, -0.663345456123352, 0.13653594255447388, 0.33944258093833923, -0.5092466473579407]], [[-0.7468691468238831, 0.19764310121536255, -0.8462918400764465, 0.30113139748573303, 0.4769596457481384, 0.10122063010931015, -0.5755206942558289, -0.6251366138458252, 0.24642623960971832, 0.5338373184204102, 0.8204679489135742, 0.29736384749412537, -0.3816680312156677, 0.2731614410877228, 0.43852511048316956, -0.3808579444885254]], [[-0.6435042023658752, 0.187931627035141, -0.8210439682006836, 0.3186560273170471, 0.2760201692581177, 0.05939400941133499, -0.8227383494377136, -0.2983733117580414, 0.47342541813850403, 0.4358447790145874, 0.5227495431900024, 0.3737923800945282, -0.06610523909330368, 0.4211569130420685, 0.2215076982975006, -0.22510983049869537]], [[-0.2571013569831848, 0.38422253727912903, -0.8734214305877686, 0.4004616141319275, 0.2983522415161133, 0.3194776177406311, -0.7863659262657166, -0.15737241506576538, 0.6062154769897461, 0.30255410075187683, 0.56074059009552, 0.4357074797153473, 0.40702733397483826, 0.48666369915008545, 0.28668445348739624, -0.33889809250831604]], [[-0.3034682273864746, 0.0791509598493576, -0.40085843205451965, 0.2958827018737793, 0.2814028263092041, 0.058222442865371704, -0.30118992924690247, -0.12458226084709167, 0.32749831676483154, 0.0060060229152441025, 0.4889533519744873, 0.16249927878379822, 0.020461350679397583, 0.21784433722496033, 0.21086956560611725, -0.2052093744277954]], [[-0.2212868630886078, 0.3923254907131195, -0.7585906982421875, 0.39406347274780273, 0.21283216774463654, 0.3354843258857727, -0.575046956539154, -0.05431489273905754, 0.5532607436180115, 0.1295839548110962, 0.16399143636226654, 0.17394229769706726, 0.1904877871274948, 0.368097186088562, 0.4348618984222412, -0.3311648368835449]], [[-0.09350565075874329, 0.6530280113220215, -0.6531836986541748, 0.48924946784973145, 0.18603260815143585, 0.551535964012146, -1.1405245065689087, 0.12055862694978714, 0.9801476001739502, -0.2559102475643158, 0.06799215078353882, 0.3613690435886383, 0.47174271941185, 0.4286351501941681, 0.4404560625553131, -0.14988890290260315]], [[0.12266919016838074, 0.9408077001571655, -0.7961206436157227, 0.5531442761421204, 0.4939916133880615, 0.7936705350875854, -1.1100884675979614, 0.41786321997642517, 0.9222210645675659, -0.4305797815322876, -0.2857668697834015, 0.4646855294704437, 0.6198451519012451, 0.5554582476615906, 0.5354502201080322, -0.4110068380832672]]]}, "conv1d_1": {"bias:0": [0.003390734316781163, -0.057818103581666946, -0.09633078426122665, 0.014583516865968704, -0.03453498333692551, 0.012400608509778976, -0.014908269979059696, 0.013143952004611492, 0.0034143738448619843, 0.03623262420296669, 0.02784310095012188, -0.012704878114163876, -0.06571902334690094, -0.00860946998000145, -0.024862634018063545, -0.009173788130283356], "kernel:0": [[[0.12404072284698486, -0.11677566170692444, -0.11183413863182068, 0.09520459175109863, 0.014285802841186523, -0.07219910621643066, -0.08251115679740906, -0.0939185619354248, 0.0872652530670166, -0.07389867305755615, -0.08936849236488342, 0.1167043149471283, -0.0964873731136322, 0.004920542240142822, 0.08683064579963684, -0.022505760192871094], [0.014235138893127441, 0.08334845304489136, 0.07863330841064453, -0.10234585404396057, -0.01823076605796814, -0.037474244832992554, 0.10426104068756104, -0.12351468205451965, 0.09662511944770813, 0.052472829818725586, 0.0337299108505249, 0.06524714827537537, -0.1160200834274292, 0.037257879972457886, -0.009860992431640625, -0.02096325159072876], [-0.1082099974155426, -0.014114737510681152, -0.09875798225402832, -0.01408037543296814, 0.10888192057609558, 0.06607457995414734, 0.08056527376174927, 0.0991988480091095, 0.04413968324661255, -0.1003095805644989, -0.015235066413879395, 0.02283996343612671, 0.07381242513656616, -0.07950305938720703, 0.1078445315361023, 0.09629762172698975], [0.1150367259979248, -0.00450444221496582, -0.08895942568778992, -0.032570600509643555, 0.0690339207649231, 0.03262293338775635, 0.07983925938606262, 0.039553672075271606, 0.09063982963562012, -0.09953168034553528, -0.004279047250747681, -0.0032939612865448, -0.06470298767089844, -0.018742263317108154, -0.10129079222679138, 0.02846914529800415], [-0.0949501097202301, -0.09518882632255554, 0.06672683358192444, -0.11505311727523804, -0.005525171756744385, -0.12001758813858032, -0.11437937617301941, 0.017458438873291016, 0.10983183979988098, -0.0010040700435638428, 0.031743645668029785, -0.019935935735702515, -0.11300474405288696, -0.11447381973266602, -0.09434351325035095, 0.034525930881500244], [-0.04024922847747803, -0.07587066292762756, -0.04740780591964722, 0.008358210325241089, -0.1115233302116394, 0.035353660583496094, -0.09391051530838013, -0.12318527698516846, 0.0384829044342041, -0.023387908935546875, 0.06315016746520996, -0.08535704016685486, -0.013575166463851929, -0.0969327986240387, 0.02436584234237671, 0.0328335165977478], [-0.08371448516845703, 4.270672798156738e-05, -0.010683417320251465, -0.12014353275299072, 0.04843825101852417, 0.036209046840667725, 0.10993051528930664, 0.006896853446960449, -0.1062597930431366, -0.11942681670188904, 0.10631576180458069, -0.002802938222885132, 0.1221306324005127, -0.058781564235687256, 0.041834622621536255, -0.08840709924697876], [0.025085151195526123, -0.05322954058647156, 0.0596318244934082, 0.05859777331352234, 0.10414654016494751, 0.018360912799835205, -0.11223337054252625, -0.061935752630233765, 0.056452542543411255, -0.09271350502967834, 0.08588463068008423, 0.08247700333595276, -0.09589159488677979, -0.10516819357872009, -0.08220529556274414, -0.01665794849395752], [-0.05286106467247009, 0.05844402313232422, 0.07409054040908813, -0.0081387460231781, 0.09535109996795654, -0.054050177335739136, -0.020038366317749023, -0.060272037982940674, 0.025063365697860718, 0.11147603392601013, 0.019414246082305908, -0.015887409448623657, 0.03358420729637146, 0.006014883518218994, -0.05093717575073242, 0.10494178533554077], [-0.05008512735366821, 0.06755721569061279, -0.03298124670982361, -0.018561720848083496, 0.08740037679672241, -0.07547274231910706, 0.06130591034889221, 0.08754625916481018, 0.010091155767440796, -0.10233443975448608, -0.06127634644508362, -0.06472852826118469, -0.0644831657409668, 0.07068935036659241, 0.05131390690803528, -0.10810688138008118], [0.06065204739570618, 0.03643414378166199, -0.08832421898841858, -0.09260258078575134, -0.04148465394973755, -0.002282172441482544, 0.07221484184265137, -0.04860970377922058, 0.07557207345962524, -0.11747020483016968, -0.09545746445655823, -0.06587877869606018, -0.09746310114860535, -0.08448967337608337, 0.0915026068687439, 0.0733710527420044], [0.09658694267272949, 0.01616990566253662, 0.11835050582885742, 0.03645527362823486, 0.03863140940666199, -0.05345156788825989, -0.06595727801322937, 0.10496199131011963, 0.0106486976146698, -0.06966093182563782, 0.018598288297653198, -0.06852376461029053, 0.045343637466430664, 0.021711915731430054, 0.04676970839500427, -0.06374374032020569], [-0.11122411489486694, 0.029321759939193726, 0.12164372205734253, -0.07337203621864319, 0.08537161350250244, -0.09308242797851562, -0.06366905570030212, -0.03267058730125427, 0.07087534666061401, -0.00522950291633606, 0.05169272422790527, 0.007201343774795532, 0.04639837145805359, -0.07415086030960083, -0.006584078073501587, 0.06834670901298523], [-0.006700187921524048, 0.048458099365234375, -0.07639610767364502, -0.007776528596878052, 0.10225123167037964, -0.032425135374069214, 0.02560514211654663, -0.05451232194900513, 0.09546643495559692, -0.03503003716468811, 0.08579930663108826, 0.05017960071563721, 0.0406985878944397, 0.11038672924041748, -0.01904618740081787, 0.004419088363647461], [0.10313045978546143, -0.10792574286460876, -0.01457926630973816, 0.09867745637893677, 0.02676624059677124, 0.023044735193252563, -0.07878699898719788, -0.07611379027366638, 0.06433084607124329, 0.001403719186782837, -0.05674979090690613, -0.013522416353225708, -0.10777837038040161, 0.07798594236373901, 0.040442824363708496, -0.06370732188224792], [0.12153276801109314, -0.03304910659790039, 0.0024722814559936523, -0.08345100283622742, -0.014547020196914673, 0.10593467950820923, -0.025874584913253784, -0.06473445892333984, 0.014255791902542114, 0.07732978463172913, 0.042415350675582886, -0.11398911476135254, 0.0503515899181366, -0.07977107167243958, -0.07139512896537781, -0.10764831304550171]], [[-0.05257793143391609, -0.20229807496070862, -0.16894303262233734, 0.23602843284606934, 0.04304618015885353, -0.13807031512260437, -0.08374325931072235, 0.08727408945560455, 0.04781615734100342, 0.005859544966369867, 0.09193579107522964, -0.07162613421678543, -0.2526678144931793, -0.056465186178684235, 0.011804727837443352, 0.33316895365715027], [0.0876968502998352, 0.11134541779756546, 0.011236696504056454, -0.09444374591112137, 0.014440438710153103, 0.023348113521933556, 0.04148155078291893, -0.1553122103214264, 0.11648552119731903, -0.02817840501666069, -0.10822700709104538, -0.016988717019557953, 0.15438151359558105, -0.07230710983276367, -0.07654544711112976, -0.1295371651649475], [-0.1608518362045288, -0.08769958466291428, 0.15010181069374084, -0.026464063674211502, 0.02397417277097702, -0.1525714248418808, 0.07386620342731476, 0.043035224080085754, -0.07469677180051804, -0.13764524459838867, -0.19874802231788635, -0.2078837752342224, -0.15584447979927063, 0.006256199907511473, 0.03491472452878952, 0.2833541929721832], [-0.09063557535409927, 0.030111050233244896, -0.05536950007081032, -0.06607571989297867, 0.02013920061290264, 0.12694579362869263, 0.01719832234084606, -0.01808764785528183, 0.09945405274629593, 0.031191516667604446, 0.09173846989870071, 0.09115573763847351, -0.07351592928171158, 0.036989618092775345, -0.04243355616927147, -0.045433543622493744], [-0.013169283978641033, 0.20094053447246552, 0.1610153466463089, 0.03031415306031704, 0.08912854641675949, 0.11745531111955643, -0.15259943902492523, -0.09217851608991623, -0.043143484741449356, 0.05212177336215973, -0.10767881572246552, -0.03762242570519447, 0.1371482014656067, -0.005183970555663109, 0.019730860367417336, -0.2076335847377777], [0.008750374428927898, -0.03953060880303383, -0.061714570969343185, 0.08377621322870255, -0.08484257757663727, 0.04012421891093254, -0.05913115665316582, -0.09004069864749908, 0.11739791184663773, 0.09882095456123352, -0.007367156911641359, -0.05484264716506004, -0.058843571692705154, 0.04698823392391205, 0.0860673114657402, -0.14140386879444122], [-0.10517890751361847, -0.11014872044324875, 0.1844315230846405, -0.0034169931896030903, 0.10171975195407867, -0.0558595210313797, 0.05117852985858917, 0.09739074856042862, -0.014646952040493488, 0.03189956396818161, 0.03728485479950905, -0.10439255833625793, -0.2297774851322174, 0.18073756992816925, 0.10889363288879395, 0.22118043899536133], [-0.1315302699804306, -0.2854359447956085, -0.26346731185913086, 0.05515718832612038, -0.0786217674612999, -0.02173710986971855, -0.05099441856145859, 0.10430963337421417, 0.1528698205947876, 0.014865587465465069, 0.07751040160655975, 0.028721921145915985, -0.12243471294641495, 0.07884010672569275, 0.11437373608350754, 0.41395482420921326], [0.1084490641951561, 0.11564292013645172, 0.010915299877524376, 0.03914160281419754, 0.013075390830636024, 0.2459450513124466, -0.009916531853377819, 0.0026659194845706224, -0.08367503434419632, 0.06015118584036827, 0.11886655539274216, -0.04630771651864052, 0.021862467750906944, -0.1477813720703125, -0.011238017119467258, -0.05542169511318207], [-0.03947124630212784, 0.08449359238147736, -0.12408960610628128, -0.017828047275543213, 0.10513871908187866, 0.0499286875128746, -0.14621670544147491, 0.03362658992409706, 0.039191242307424545, -0.049309927970170975, 0.12320888787508011, 0.1382872611284256, 0.1099575087428093, 0.008079320192337036, 0.07741666585206985, -0.09892992675304413], [0.07637829333543777, 0.07944474369287491, 0.2017214447259903, 0.021701550111174583, 0.12492378801107407, 0.011336840689182281, -0.08245737850666046, 0.08924540132284164, 0.006921956781297922, -0.031471483409404755, -0.1365329772233963, -0.06043916195631027, 0.24383939802646637, -0.06065170094370842, -0.16532178223133087, -0.2647264301776886], [0.002260572277009487, 0.200012668967247, -0.021600473672151566, -0.02591375634074211, -0.0010170661844313145, 0.14469273388385773, -0.12083783000707626, -0.020267844200134277, 0.0699031725525856, 0.07492412626743317, 0.05770515277981758, -0.011169199831783772, 0.13520623743534088, 0.05647747591137886, -0.02355961687862873, -0.20917481184005737], [-0.011324143968522549, -0.06000906974077225, -0.3326546847820282, -0.0334382988512516, -0.1629595160484314, 0.01387297734618187, 0.04260128736495972, 0.12990802526474, 0.0720037966966629, -0.03353901207447052, -0.12101292610168457, 0.049782902002334595, -0.17272083461284637, -0.18001188337802887, -0.11888625472784042, 0.13621342182159424], [-0.011387080885469913, -0.076750248670578, -0.032474931329488754, -0.07783528417348862, 0.016344238072633743, 0.08632601052522659, 0.083453468978405, -0.11582846939563751, 0.011612668633460999, -0.02588603086769581, -0.09134837985038757, -0.07222878932952881, 0.13363789021968842, -0.05184867978096008, -0.1342386156320572, -0.24222873151302338], [0.04315267130732536, 0.04761141166090965, -0.019825996831059456, -0.04041615501046181, 0.004410088062286377, 0.22320279479026794, -0.17119894921779633, -0.19477468729019165, 0.08908950537443161, 0.15931692719459534, 0.05361733213067055, -0.025800645351409912, 0.11935199052095413, -0.07709125429391861, 0.01646050438284874, -0.12682656943798065], [-0.08630459755659103, -0.12338150292634964, -0.12690377235412598, 0.12894591689109802, 0.07205228507518768, -0.010571634396910667, 0.17186106741428375, 0.1084376648068428, -0.05604827031493187, -0.04095730558037758, 0.056348495185375214, -0.03087831847369671, 0.08073271065950394, 0.0040301186963915825, 0.06293752789497375, 0.23492461442947388]], [[0.0717865601181984, -0.06377297639846802, -0.01755097322165966, 0.09394603967666626, -0.14048975706100464, -0.18968084454536438, 0.07024575024843216, -0.10522785782814026, -0.07218709588050842, 0.11332639306783676, 0.01776968687772751, 0.009310069493949413, -0.028628569096326828, 0.06611961871385574, -0.08364174515008926, 0.23733657598495483], [-0.0404704324901104, -0.09020070731639862, -0.18145661056041718, 0.0923021137714386, 0.07463067770004272, -0.01344251073896885, -0.07616771757602692, 0.06165293604135513, 0.005201001185923815, -0.14852869510650635, -0.036003805696964264, -0.0990179106593132, 0.003242367645725608, 0.07733196020126343, -0.005647174082696438, -0.012171292677521706], [0.005610875319689512, 0.11970090866088867, 0.012749794870615005, -0.032978519797325134, 0.07894019037485123, -0.11240509897470474, -0.00020838026830460876, -0.09431952238082886, 0.08095672726631165, 0.0025905987713485956, -0.10415133088827133, 0.13821373879909515, 0.003446701681241393, 0.037287887185811996, 0.04203539714217186, 0.06834534555673599], [-0.13459862768650055, 0.07451147586107254, 0.10371147096157074, 0.04980042576789856, 0.07231035828590393, 0.065885029733181, -0.025192514061927795, -0.017933862283825874, -0.06462900340557098, -0.11033421754837036, -0.005068588070571423, -0.03289881721138954, -0.025317665189504623, -0.11834115535020828, 0.12470328062772751, -0.07001792639493942], [-0.016698671504855156, -0.15673711895942688, 0.06978471577167511, 0.0922996774315834, 0.009385678917169571, 0.13910715281963348, -0.08576608449220657, -0.07099892199039459, 0.1175089180469513, 0.09842366725206375, 0.15259723365306854, 0.08603464066982269, -0.1171187311410904, -0.06279145926237106, -0.060122232884168625, -0.10279352217912674], [-0.15975941717624664, -0.07701586931943893, 0.016446731984615326, -0.07540919631719589, 0.02384791150689125, 0.011859780177474022, -0.04339005425572395, 0.06950969994068146, -0.054027363657951355, 0.026428040117025375, 0.06721880286931992, -0.13034255802631378, 0.016156703233718872, -0.09177587926387787, 0.1792180985212326, 0.08073286712169647], [-0.02201232500374317, 0.11749277263879776, -0.01933431811630726, 0.08314280211925507, -0.019147971644997597, -0.06768367439508438, 0.11466474831104279, -0.002976954448968172, -0.0580843910574913, 0.10819170624017715, -0.08009474724531174, -0.07620953023433685, 0.011980533599853516, 0.02607852593064308, -0.20397721230983734, 0.1350802630186081], [0.04446108266711235, 0.11345767974853516, -0.03136392682790756, 0.08595022559165955, 0.0007053529843688011, -0.0025302558206021786, -0.05748200789093971, -0.051206253468990326, 0.007305839564651251, -0.08301214873790741, 0.1229248046875, 0.04802994430065155, -0.14293619990348816, 0.05274408683180809, 0.06464152783155441, 0.16506433486938477], [-0.009550069458782673, -0.038687221705913544, 0.005380562506616116, 0.16206513345241547, -0.052127934992313385, 0.05331667885184288, -0.006261595990508795, 0.053190384060144424, 0.11934249848127365, -0.049865685403347015, 0.21857976913452148, -0.13534703850746155, -0.10161418467760086, 0.032602790743112564, 0.0010615611681714654, 0.043301619589328766], [0.10492777824401855, -0.013527440838515759, -0.17774933576583862, 0.09326566010713577, -0.004944066517055035, 0.043042123317718506, 0.04584599286317825, -0.02283383347094059, -0.12006517499685287, -0.0764036476612091, 0.014639225788414478, -0.014941294677555561, -0.0465138778090477, -0.019015546888113022, -0.029903071001172066, -0.09768027812242508], [-0.11087541282176971, 0.042612653225660324, 0.02762165479362011, -0.02153979241847992, 0.06321030110120773, 0.08433978259563446, 0.05765330791473389, 0.10087580233812332, 0.06709006428718567, -0.08767250180244446, -0.140337735414505, 0.070329949259758, 0.0673547238111496, 0.05194496735930443, 0.047243352979421616, -0.06274765729904175], [-0.01567595638334751, -0.08585511147975922, -0.018693746998906136, 0.07534586638212204, -0.032529186457395554, -0.09745626896619797, 0.1000479906797409, 0.15105408430099487, 0.12892471253871918, 0.0385434627532959, 0.1084926500916481, 0.08806468546390533, -0.056344661861658096, 0.017268147319555283, 0.02216702699661255, -0.11086589843034744], [-0.008526435121893883, -0.07157490402460098, -0.014726690948009491, -0.03328920900821686, -0.09457052499055862, -0.1126914918422699, 0.13925568759441376, 0.04360277205705643, 0.12205913662910461, -0.11139745265245438, -0.09788292646408081, 0.0503336638212204, -0.15975648164749146, 0.06633376330137253, -0.01986011117696762, 0.13342666625976562], [0.051871158182621, -0.038646843284368515, -0.07891711592674255, -0.09587093442678452, 0.11980607360601425, -0.011395732872188091, -0.07301422208547592, -0.056162770837545395, 0.10789600759744644, 0.0401831679046154, 0.13844069838523865, -0.1291922777891159, -0.00947630126029253, 0.02886022999882698, -0.053444698452949524, -0.12352805584669113], [-0.009429264813661575, -0.03149762377142906, -0.023732217028737068, 0.03711511939764023, 0.09892189502716064, 0.12635169923305511, -0.07230786979198456, -0.010587316937744617, -0.06016519293189049, 0.05611724779009819, 0.01590164192020893, -0.019183490425348282, -0.068121537566185, 0.04243575036525726, -0.02064775675535202, -0.012374509125947952], [0.11201164871454239, -0.011083095334470272, -0.05085505545139313, -0.07607632875442505, -0.08041307330131531, -0.032614585012197495, -0.07992319762706757, -0.07045542448759079, -0.05919596925377846, 0.1345064640045166, -0.15316878259181976, 0.047608599066734314, -0.0015593355055898428, -0.10056676715612411, 0.02255004271864891, -0.048517536371946335]], [[0.1515703946352005, 0.25060683488845825, 0.07031208276748657, -0.006983776576817036, 0.0053918492048978806, 0.07336637377738953, -0.063215471804142, -0.10365721583366394, -0.06973857432603836, 0.06846300512552261, 0.03775511682033539, -0.05363164842128754, 0.08969088643789291, -0.05369221046566963, -0.0908292606472969, -0.12642309069633484], [-0.051703065633773804, -0.028944339603185654, -0.059466104954481125, -0.01893894374370575, 0.011907227337360382, -0.008279389701783657, 0.1001465767621994, -0.12990149855613708, 0.08173960447311401, -0.12061063945293427, 0.16933757066726685, 0.05942860618233681, 0.008722065947949886, 0.09681722521781921, 0.07912763953208923, 0.1434173583984375], [0.10060006380081177, 0.22335398197174072, 0.09743920713663101, -0.018527865409851074, 0.0666738748550415, 0.07481599599123001, -0.0071986704133450985, -0.11343890428543091, -0.02356996200978756, 0.2535211443901062, -0.09884648025035858, -0.0015667419647797942, 0.14152944087982178, 0.03095851093530655, -0.005610973108559847, -0.0884985476732254], [-0.011112666688859463, -0.10842814296483994, 0.13638313114643097, 0.01642596162855625, 0.04704933241009712, -0.11895148456096649, 0.10142233967781067, 0.12188556790351868, 0.05097607895731926, -0.01225194800645113, 0.025737613439559937, 0.044690243899822235, -0.06002068892121315, 0.10191108286380768, 0.02519296295940876, -0.02779087796807289], [0.04869101196527481, -0.044757574796676636, -0.06554325670003891, 0.0616128072142601, -0.12454546988010406, -0.04322022199630737, -0.02516590803861618, 0.0036022954154759645, -0.01629731059074402, -0.15220047533512115, 0.003026793245226145, -0.030560923740267754, -0.08440791815519333, -0.0826837569475174, 0.08447566628456116, 0.13689172267913818], [-0.035161182284355164, -0.029260560870170593, 0.011456327512860298, 0.10800833255052567, 0.10130168497562408, -0.10562913864850998, -0.010224862955510616, -0.10243379324674606, -0.026768505573272705, -0.15812329947948456, -0.0037216772325336933, 0.03854592144489288, 0.015043158084154129, -0.01129848137497902, 0.18689066171646118, 0.1004100888967514], [0.2385120391845703, 0.3228323459625244, 0.05843883007764816, 0.053050845861434937, 0.13319388031959534, 0.18472079932689667, 0.030405184254050255, -0.036055490374565125, 0.061702318489551544, 0.05152357369661331, -0.016867343336343765, 0.04960159212350845, 0.13107489049434662, 0.06298704445362091, -0.10958300530910492, 0.012940253131091595], [0.15624800324440002, 0.15568765997886658, -0.1855589896440506, -0.10760989785194397, -0.09732631593942642, 0.06342131644487381, 0.06901216506958008, -0.12090902030467987, -0.06267161667346954, 0.18076354265213013, -0.043221890926361084, -0.0585649348795414, -0.03661559894680977, -0.13631652295589447, -0.19761744141578674, -0.0259030070155859], [-0.1601012796163559, -0.17253704369068146, -0.0094013512134552, 0.07159799337387085, -0.126113623380661, -0.008038254454731941, 0.0992647185921669, 0.0038705214392393827, -0.018841825425624847, -0.16208501160144806, 0.2271532267332077, -0.036170843988657, -0.002115128096193075, 0.1092972680926323, 0.011505565606057644, -0.062068480998277664], [-0.08642549067735672, -0.03440943360328674, 0.03695470839738846, 0.12657904624938965, 0.0024544713087379932, 0.01227911189198494, 0.06705264747142792, 0.0828726589679718, -0.10753709077835083, -0.14949673414230347, -0.04451402649283409, -0.08368612825870514, 0.13049368560314178, 0.027031758800148964, 0.15113306045532227, -0.05897434055805206], [-0.0680667906999588, -0.2114659547805786, 0.056915659457445145, 0.16164448857307434, -0.022166138514876366, 0.03884727880358696, -0.051241520792245865, 0.2300412505865097, 0.046939101070165634, -0.045023113489151, 0.07979491353034973, -0.06675919890403748, 0.031113963574171066, -0.023997047916054726, 0.013701319694519043, 0.03250809758901596], [-0.08065783977508545, -0.04025036096572876, 0.029431156814098358, -0.0399988554418087, 0.11456688493490219, 0.05450345203280449, 0.023113979026675224, 0.07486899197101593, -0.12393353134393692, -0.03601682931184769, -0.022539131343364716, 0.04167383164167404, 0.05190819874405861, 0.07224021106958389, 0.015500144101679325, -0.05999147146940231], [0.06445038318634033, -0.02046867460012436, 0.0094229057431221, -0.0827321782708168, -0.035632360726594925, 0.01580335758626461, -0.024829380214214325, -0.228146493434906, 0.11090695112943649, -0.013037986122071743, 0.07043716311454773, 0.05287884175777435, -0.08445852994918823, -0.0057199327275156975, -0.043335236608982086, -0.09877877682447433], [-0.025228172540664673, -0.07789327204227448, 0.12673130631446838, -0.07516884058713913, -0.04846149682998657, -0.12423194944858551, 0.10934179276227951, 0.010889933444559574, -0.014024032279849052, -0.20205628871917725, 0.11224223673343658, -0.11211755871772766, -0.02087380364537239, -0.07486312091350555, 0.0571584552526474, 0.06944755464792252], [0.022546179592609406, -0.10296442359685898, -0.05697038024663925, 0.10227759927511215, 0.11644069850444794, -0.12006766349077225, -0.007843304425477982, 0.11014137417078018, 0.06721032410860062, -0.12562482059001923, 0.07684339582920074, -0.07983570545911789, 0.01783127710223198, 0.07762517035007477, -6.558524910360575e-05, 0.135085329413414], [0.10327481478452682, 0.2397133708000183, 0.02576117031276226, -0.0717112123966217, 0.046586960554122925, 0.10552192479372025, -0.08821528404951096, 0.04711741954088211, 0.0981198325753212, 0.07793337851762772, -0.05239861086010933, 0.068247951567173, -0.03022882156074047, -0.07479273527860641, -0.17107471823692322, 0.04701230674982071]], [[0.12937293946743011, 0.018778398633003235, -0.030606208369135857, -0.16855326294898987, -0.08352283388376236, 0.1307939887046814, -0.09285088628530502, 0.06569474935531616, -0.08051342517137527, 0.07794114202260971, -0.020509934052824974, -0.12839312851428986, -0.13686339557170868, 0.04657209292054176, -0.010293751955032349, -0.07176997512578964], [-0.08104795217514038, -0.033893220126628876, 0.1503313183784485, 0.13465458154678345, -0.08028420060873032, -0.09871067106723785, -0.11315960437059402, -0.035362426191568375, 6.728543667122722e-06, -0.12072216719388962, -0.03211359679698944, -0.07703136652708054, 0.07693278044462204, 0.04773441702127457, 0.07260246574878693, 0.12207779288291931], [-0.07516416907310486, 0.006841725204139948, -0.0684218630194664, -0.11080949753522873, -0.053555283695459366, 0.14353270828723907, -0.05482878535985947, 0.11638674139976501, 0.01728636957705021, 0.11573862284421921, 0.029358478263020515, -0.08940434455871582, 0.13912908732891083, 0.06739222258329391, -0.06689087301492691, 0.032870396971702576], [0.11091026663780212, 0.07172432541847229, -0.07186523824930191, -0.02794673480093479, -0.0016965527320280671, -0.10903740674257278, -0.0442097969353199, -0.004637786187231541, -0.12435589730739594, -0.015567468479275703, 0.014270876534283161, -0.06207440420985222, -0.056827981024980545, -0.09591551125049591, -0.0572081096470356, 0.00034296588273718953], [-0.018056785687804222, 0.04885626584291458, -0.021031765267252922, -0.022968849167227745, 0.08625993132591248, -0.06342616677284241, -0.1060580387711525, -0.10096293687820435, -0.1045253574848175, 0.09077408909797668, 0.028832891955971718, 0.046488258987665176, -0.1479746699333191, 0.02643462084233761, -0.10873521864414215, -0.019203150644898415], [-0.027152687311172485, 0.10177427530288696, 0.006146623753011227, -0.010466539300978184, -0.019284244626760483, -0.12226218730211258, 0.08477695286273956, -0.12283960729837418, 0.10924691706895828, -0.061617061495780945, 0.1041443720459938, 0.05225606635212898, 0.07473430782556534, -0.009805215522646904, -0.023286757990717888, -0.09780208766460419], [0.0456879660487175, -0.10287975519895554, -0.18942947685718536, -0.12118825316429138, -0.03642157465219498, -0.01416571345180273, 0.044288329780101776, -0.04108505696058273, 0.1197124570608139, 0.08930478245019913, 0.07844769954681396, 0.032160766422748566, 0.03471079841256142, 0.0040735043585300446, -0.05897556245326996, -0.008406889624893665], [0.023765966296195984, -0.019745441153645515, -0.18246380984783173, -0.014218299649655819, -0.06634241342544556, 0.1492067128419876, -0.004337553400546312, 0.08753977715969086, 0.12189848721027374, 0.1607561856508255, 0.04503030702471733, -0.0366731658577919, -0.10709729045629501, 0.027773955836892128, -0.1962537318468094, -0.1370846927165985], [0.043931301683187485, -0.08515054732561111, 0.019401367753744125, 0.05959516018629074, -0.09942316263914108, 0.08685707300901413, 0.05696095526218414, 0.03901325538754463, -0.056075721979141235, 0.08562073856592178, 0.001380368135869503, 0.13131648302078247, -0.059840671718120575, 0.010864241980016232, -0.014950096607208252, 0.03579967841506004], [-0.026883035898208618, 0.08700179308652878, -0.1018124371767044, 0.010003750212490559, -0.017815669998526573, -0.09279454499483109, 0.0762675553560257, -0.05987906455993652, 0.05985141545534134, -0.1666969209909439, -0.057199057191610336, -0.008941462263464928, -0.06377009302377701, -0.07790745794773102, 0.2205827534198761, -0.02982293628156185], [-0.01766337640583515, -0.08512402325868607, 0.27195513248443604, -0.04582144692540169, -0.04819881170988083, 0.031200282275676727, 0.08507024496793747, -0.050293758511543274, 0.041101302951574326, -0.17456839978694916, -0.09305679053068161, 0.09519843757152557, 0.04231962934136391, -0.09258468449115753, -0.0027663817163556814, -0.04644808918237686], [0.09732117503881454, -0.03756576031446457, 0.026486624032258987, -0.0776749923825264, -0.10826881974935532, 0.011930212378501892, 0.08151914924383163, 0.06730320304632187, -0.003949164412915707, -0.08653106540441513, 0.027844205498695374, 0.029669364914298058, -0.012971832416951656, -0.03263339772820473, -0.04896337166428566, 0.14171352982521057], [-0.06390014290809631, -0.049854207783937454, 0.09746667742729187, -0.09203197807073593, 0.07939960807561874, 0.02423042058944702, -0.07584206014871597, -0.03834577649831772, 0.007401604205369949, 0.06036209687590599, 0.031257446855306625, 0.04245781898498535, 0.056071940809488297, -0.007302748039364815, 0.015028074383735657, -0.0923241451382637], [-0.07204802334308624, -0.04910188913345337, 0.1119895726442337, -0.11204288899898529, -0.02069563791155815, 0.02986944280564785, 0.07473345100879669, 0.047803811728954315, 0.09098339825868607, 0.11348661035299301, -0.021304866299033165, -0.03586798906326294, -0.08767903596162796, 0.04662542790174484, -0.07994052022695541, 0.07611926645040512], [-0.040120165795087814, -0.017053933814167976, -0.02731899358332157, -0.08219444006681442, 0.012212492525577545, -0.10918587446212769, -0.04036776348948479, -0.1629195660352707, 0.030687455087900162, -0.06315700709819794, 0.18581083416938782, 0.048017073422670364, -0.04496102035045624, 0.12383992224931717, -0.09527160972356796, 0.10829854756593704], [0.06546387076377869, 0.023469211533665657, -0.0889006182551384, -0.0765257179737091, 0.0966423749923706, 0.09770205616950989, 0.09468153864145279, 0.018120955675840378, -0.0002749825653154403, -0.08301910758018494, 0.02289912849664688, -0.08636552840471268, -0.012395822443068027, -0.05063015595078468, 0.04833720624446869, -0.05850369855761528]], [[-0.08339262008666992, 0.014039238914847374, -0.21891267597675323, -0.20256361365318298, -0.23237302899360657, -0.07414896786212921, -0.15798191726207733, 0.06230967119336128, 0.055369146168231964, -0.10863959789276123, 0.3071958124637604, -0.05684535205364227, -0.06193924695253372, -0.1014178991317749, 0.09762699902057648, -0.1811457872390747], [0.021255072206258774, -0.1252332180738449, 0.0738237276673317, 0.020708082243800163, 0.03405652940273285, 0.03032047115266323, 0.03101995959877968, 0.001227314816787839, -0.049645837396383286, -0.08098527789115906, -0.13108447194099426, -0.09543988108634949, -0.13240493834018707, 0.13960279524326324, -0.04917915537953377, 0.146575465798378], [-0.10692537575960159, -0.00839111115783453, -0.11183234304189682, -0.12908858060836792, -0.19990421831607819, -0.04326460510492325, -0.05651308596134186, -0.02839081361889839, 0.2251565158367157, -0.17559294402599335, 0.18158183991909027, 0.0223969928920269, 0.060409437865018845, -0.012384551577270031, 0.033522315323352814, -0.033685147762298584], [0.059957992285490036, -0.08587563037872314, -0.034893158823251724, 0.07318943738937378, -0.0018306279089301825, 0.07814022153615952, -0.03031870350241661, -0.05867008492350578, -0.052863866090774536, -0.057454757392406464, -0.035438086837530136, 0.023672020062804222, -0.08835569024085999, -0.05848146602511406, -0.21774250268936157, 0.1659461259841919], [0.10288752615451813, -0.09222754836082458, 0.013411839492619038, 0.1334362030029297, 0.10415084660053253, 0.05948176980018616, -0.11436446756124496, 0.0266235563904047, -0.023105043917894363, 0.06004200503230095, -0.08497671782970428, 0.05521807447075844, -0.0682050958275795, 0.09385491907596588, -0.05976935476064682, 0.14386026561260223], [0.02962842769920826, -0.06885397434234619, 0.14571714401245117, 0.1321250945329666, -0.04693787544965744, -0.0023674694821238518, -0.1002926304936409, -0.13716542720794678, -0.19775643944740295, -0.01581280492246151, 0.008909187279641628, 0.1193215399980545, 0.051413293927907944, 0.1048019602894783, -0.18791145086288452, 0.03221776336431503], [0.056593913584947586, 0.04920195788145065, -0.26810333132743835, -0.08128006756305695, -0.12764598429203033, -0.1393776386976242, -0.11752843856811523, -0.023143529891967773, 0.043838176876306534, -0.07940606027841568, 0.027042198926210403, 0.12358836084604263, 0.05413626506924629, 0.03635413199663162, 0.16044825315475464, -0.052772898226976395], [-0.11927483230829239, -0.047248564660549164, -0.18782570958137512, -0.15901340544223785, 0.07284985482692719, -0.13555537164211273, -0.04619120806455612, 0.006874461658298969, 0.11187894642353058, -0.03596063703298569, 0.07351313531398773, 0.016536250710487366, -0.2012612521648407, 0.01360909640789032, 0.11967149376869202, -0.3243902921676636], [0.032660115510225296, -0.030902165919542313, 0.12240511924028397, 0.13083136081695557, 0.02396881952881813, 0.0056376210413873196, -0.036850783973932266, 0.075659841299057, -0.011025476269423962, 0.006459494587033987, -0.1571274846792221, 0.053624823689460754, -0.003073235508054495, 0.0911141037940979, -0.13599640130996704, 0.027844851836562157], [-0.07452325522899628, -0.054312534630298615, 0.15294471383094788, 0.06206272915005684, 6.311689503490925e-05, -0.08128267526626587, 0.07472096383571625, 0.08838986605405807, 0.017160268500447273, 0.05908221751451492, -0.17571942508220673, -0.012630635872483253, 0.06190527230501175, 0.13559363782405853, 0.1088305413722992, -0.004431118257343769], [0.04977678135037422, -0.14846977591514587, 0.05476612597703934, 0.05691932886838913, -0.07710101455450058, -0.07307521998882294, -0.026764415204524994, 0.1586437225341797, -0.13913996517658234, -0.012110205367207527, -0.0878470242023468, -0.06944967806339264, 0.09933400899171829, 0.06517546623945236, -0.26700687408447266, 0.05763644725084305], [-0.07263923436403275, -0.0534089021384716, -0.07206298410892487, 0.11390960216522217, -0.002442777156829834, 0.13434939086437225, -0.09935136884450912, -0.0580570213496685, -0.09790876507759094, -0.011492665857076645, -0.04131847247481346, 0.0072951107285916805, -0.16645953059196472, 0.058136675506830215, -0.04998413845896721, -0.002921240171417594], [-0.0404575876891613, -0.10998228192329407, -0.04422716796398163, -0.016024628654122353, -0.008243861608207226, 0.07998572289943695, -0.04654913768172264, 0.09650874882936478, 0.07523557543754578, -0.05490519106388092, 0.22571244835853577, 0.04573585465550423, -0.004517020657658577, -0.08912385255098343, -0.07375422865152359, -0.016920000314712524], [0.04879558086395264, -0.030050737783312798, 0.09859830886125565, 0.10103931277990341, 0.11723741888999939, -0.04970238730311394, -0.09597459435462952, 0.04933767765760422, -0.032177459448575974, 0.017863057553768158, -0.06397712230682373, 0.011172950267791748, -0.06263075768947601, 0.0006029204232618213, -0.09903420507907867, 0.04776855185627937], [-0.1413981318473816, 0.05514749139547348, 0.12898004055023193, 0.009541938081383705, 0.0013062364887446165, 0.10506556183099747, 0.0513923205435276, -0.04665457084774971, -0.09479675441980362, 0.09268683195114136, -0.11344132572412491, -0.006025799550116062, -0.09404352307319641, 0.014043339528143406, -0.10139606893062592, 0.016401052474975586], [0.041902728378772736, -0.07424256205558777, -0.08677799999713898, 0.045773208141326904, 0.08005069196224213, -0.003944214433431625, 0.0500526949763298, 0.1281808763742447, 0.11100972443819046, -0.021537471562623978, 0.08660430461168289, -0.025595905259251595, 0.12905098497867584, 0.05956689640879631, 0.07017580419778824, -0.03984081745147705]], [[-0.16871219873428345, 0.06650000065565109, -0.06032555550336838, -0.09346717596054077, -0.18234798312187195, -0.2583746612071991, 0.032126523554325104, -0.04165961965918541, 0.05828765779733658, 0.01880778931081295, 0.10954931378364563, -0.08790169656276703, -0.03949575498700142, -0.05123536288738251, 0.15935127437114716, 0.0004746928461827338], [0.020386286079883575, -0.1951438933610916, 0.1593117117881775, 0.0894375890493393, 0.16601425409317017, 0.32900917530059814, -0.06110360473394394, -0.07389362901449203, -0.07662069797515869, 0.04808244854211807, -0.04955138638615608, 0.048323776572942734, -0.026532834395766258, -0.05222692713141441, -0.16342958807945251, 0.09768441319465637], [-0.12956933677196503, 0.22677086293697357, -0.2705531418323517, -0.2533870041370392, -0.1184796467423439, -0.3107500672340393, -0.058546897023916245, 0.021216897293925285, 0.14247626066207886, -0.09798198193311691, 0.2586973309516907, -0.07457894831895828, 0.13216803967952728, 0.01602061279118061, 0.23276105523109436, -0.2044002264738083], [-0.058844078332185745, -0.05052595213055611, 0.0964265838265419, 0.15563613176345825, 0.13829398155212402, 0.09145346283912659, -0.2018754482269287, -0.11637285351753235, -0.11732956767082214, -0.04115177318453789, -0.04407583922147751, 0.07582182437181473, 0.013534601777791977, 0.14237666130065918, -0.3413771092891693, 0.07827828824520111], [-0.07003439217805862, 0.03450207784771919, 0.03680752217769623, 0.12849061191082, 0.16525277495384216, 0.08965746313333511, 0.0042813848704099655, -0.09756672382354736, -0.042294733226299286, -0.04196563735604286, 0.01361082587391138, 0.19134657084941864, -0.09249581396579742, 0.059020865708589554, -0.2554767429828644, 0.19079796969890594], [0.08678343892097473, -0.19171568751335144, -0.038402196019887924, 0.008427008055150509, 0.030933182686567307, 0.11166522651910782, -0.1326843798160553, -0.11844251304864883, -0.1295458823442459, -0.1583424061536789, -0.012900758534669876, 0.012046242132782936, 0.016184043139219284, 0.143501415848732, -0.45671477913856506, 0.22693465650081635], [-0.13959984481334686, 0.44048628211021423, -0.22784674167633057, -0.09984979778528214, -0.1650114506483078, -0.3104259669780731, -0.020475957542657852, 0.07112531363964081, 0.2357361912727356, 0.02566622756421566, 0.0716722384095192, -0.13630369305610657, 0.06297633796930313, 0.0011666113277897239, 0.4907272756099701, -0.18704096972942352], [-0.19599725306034088, 0.09777387231588364, -0.07178822159767151, -0.033255912363529205, 0.04026351124048233, -0.1687251478433609, -0.17568537592887878, 0.011346177197992802, 0.026084277778863907, 0.07298695296049118, -0.09074585139751434, 0.1279066801071167, 0.0032293321564793587, -0.00651120487600565, 0.2285670042037964, -0.11798670142889023], [0.21673931181430817, -0.2984718084335327, 0.362413227558136, 0.23969140648841858, 0.19372406601905823, 0.23593604564666748, -0.051113907247781754, 0.017613466829061508, -0.0502006858587265, 0.08615951985120773, -0.0553438737988472, 0.19898991286754608, -0.14290523529052734, -0.09614969789981842, -0.4271150529384613, 0.1444929987192154], [-0.03482498973608017, 0.013879362493753433, 0.08644499629735947, 0.0231916606426239, 0.10064659267663956, -0.0018588370876386762, 0.08429794758558273, 0.023235253989696503, -0.08956407755613327, -0.07574933022260666, -0.2422996312379837, 0.0822964534163475, -0.0043578436598181725, 0.08392289280891418, 0.07797342538833618, -0.08253119885921478], [-0.01801750250160694, 0.030883749946951866, 0.1760871261358261, -0.024097008630633354, 0.16383975744247437, 0.13649415969848633, -0.01887895166873932, -0.040011655539274216, -0.05523144081234932, -0.028066977858543396, -0.2753477394580841, 0.05379603058099747, -0.023429887369275093, -0.150711327791214, -0.4068661332130432, 0.15258610248565674], [-0.05767118185758591, -0.21272927522659302, 0.04839802160859108, 0.202485129237175, 0.177467480301857, 0.2222556620836258, -0.13541841506958008, -0.2397460788488388, -0.18528032302856445, -0.1254129856824875, -0.17064058780670166, 0.16334328055381775, -0.030042549595236778, 0.10677525401115417, -0.24719905853271484, 0.17941918969154358], [0.3140747547149658, -0.17347019910812378, 0.04542958363890648, 0.009880874305963516, -0.05879214033484459, 0.052483923733234406, -0.08727392554283142, 0.06741099059581757, 0.16926603019237518, -0.0907258540391922, -0.015535317361354828, 0.16870321333408356, -0.15929192304611206, -0.03799720108509064, -0.09152889996767044, -0.01796445995569229], [0.13782191276550293, -0.1238778755068779, 0.04225292429327965, 0.0995694100856781, 0.19513237476348877, 0.2309960573911667, -0.16471607983112335, -0.06274452060461044, -0.11565898358821869, 0.008324450813233852, -0.05804669111967087, 0.001539327553473413, -0.17471574246883392, 0.12823565304279327, -0.33868104219436646, 0.09387152642011642], [0.020986787974834442, -0.01083565317094326, 0.2132224589586258, 0.228341743350029, 0.11542821675539017, 0.24328260123729706, -0.13264945149421692, -0.09374234080314636, -0.04977462440729141, -0.039406631141901016, -0.03599477559328079, 0.1908978670835495, -0.1901581585407257, 0.04532620683312416, -0.33731961250305176, 0.035835541784763336], [-0.05045963451266289, -0.028359871357679367, 0.09582366049289703, -0.22149451076984406, -0.14311398565769196, -0.18828168511390686, 0.1854008585214615, 0.087674081325531, 0.18471509218215942, 0.0008493895875290036, 0.09710240364074707, -0.07874371856451035, -0.057275883853435516, -0.08544033765792847, 0.1829218566417694, -0.17709670960903168]], [[-0.021864835172891617, 0.011266650632023811, 0.09415740519762039, -0.10973364114761353, -0.16634120047092438, -0.19246646761894226, 0.1620848923921585, 0.5236221551895142, 0.00798854697495699, 0.013382801786065102, -0.02902970276772976, -0.06544270366430283, 0.19281072914600372, -0.06304571032524109, 0.46333956718444824, -0.1361161321401596], [0.23228420317173004, -0.28572744131088257, -0.8245247006416321, 0.2706834077835083, 0.1014663502573967, 0.12173128873109818, -0.11001450568437576, -0.5227099657058716, -0.001957658212631941, -0.3551006019115448, 0.917534589767456, 0.13878954946994781, 0.17395924031734467, 0.2864931523799896, -0.06057539954781532, 0.3715178966522217], [-0.2792736291885376, 0.40043169260025024, 0.4438856542110443, -0.22790151834487915, -0.21721789240837097, -0.06865102797746658, 0.12937942147254944, 0.531982421875, 0.09292218834161758, 0.22962605953216553, -0.8208925127983093, -0.01291327178478241, 0.2002210170030594, -0.13807237148284912, 0.7744340896606445, -0.24328623712062836], [0.1256680190563202, -0.201119065284729, -0.6584254503250122, 0.32461461424827576, 0.08008214086294174, 0.08872910588979721, -0.24886585772037506, -0.40477651357650757, -0.04976438358426094, -0.2805522680282593, 0.31767791509628296, 0.2750405967235565, 0.05437595769762993, 0.28127044439315796, -0.42836204171180725, 0.36986851692199707], [0.015108607709407806, 0.04597623646259308, -0.47623223066329956, 0.13024424016475677, 0.3152119815349579, 0.3414021134376526, -0.1363760530948639, -0.2966751754283905, -0.07477007061243057, -0.3200860917568207, 0.12078571319580078, 0.22971560060977936, 0.1326899230480194, 0.2702145278453827, -0.3446177840232849, 0.33193594217300415], [0.1982881724834442, -0.22302038967609406, -1.0250318050384521, 0.20367512106895447, 0.14368247985839844, 0.029425397515296936, -0.08996239304542542, -0.45425117015838623, -0.02334793284535408, -0.13793295621871948, 0.9461553692817688, 0.052669864147901535, 0.2783237397670746, 0.10073888301849365, -0.03814027085900307, 0.4518051743507385], [-0.28741931915283203, 0.5143477320671082, 0.6816697120666504, -0.2203419804573059, -0.12913396954536438, -0.09804166108369827, 0.10551571846008301, 0.5730642080307007, -0.10597839206457138, 0.2946091890335083, -0.9133936762809753, 0.025019604712724686, 0.11647115647792816, -0.2698378562927246, 0.4341873526573181, -0.513593852519989], [0.24480468034744263, -0.08907989412546158, -2.3134118237067014e-05, -0.19066914916038513, -0.042336732149124146, -0.2812657356262207, 0.1509903371334076, 0.31648001074790955, 0.03095240332186222, 0.032268863171339035, 0.23145006597042084, -0.29978206753730774, 0.11170628666877747, 0.027724845334887505, 0.5067782402038574, -0.2667289972305298], [0.300701379776001, -0.4201544225215912, -0.8460921049118042, 0.15962734818458557, 0.08091599494218826, -0.06795506924390793, -0.2670779228210449, -0.6959838271141052, 0.10612384229898453, -0.14792554080486298, 0.8361999988555908, -0.05624515935778618, -0.050739727914333344, 0.28853219747543335, -0.3564256727695465, 0.34869369864463806], [-0.13082358241081238, 0.18816326558589935, 0.45296671986579895, -0.04234195873141289, 0.14972344040870667, 0.12017224729061127, -0.03651285916566849, -0.4418124258518219, -0.029998542740941048, 0.08732093870639801, -0.2697008550167084, -0.017371637746691704, -0.46207380294799805, -0.04132642596960068, -0.5272579193115234, -0.16250447928905487], [-0.05822250619530678, 0.08917050063610077, -0.10613644123077393, 0.2556029260158539, 0.21965894103050232, 0.17471501231193542, -0.04294414445757866, -0.26406431198120117, -0.17489609122276306, -0.12774761021137238, -0.05721234902739525, 0.14379775524139404, -0.13455131649971008, 0.09609542042016983, -0.4819251298904419, 0.2905358076095581], [0.03263901174068451, -0.12018534541130066, -0.6738999485969543, 0.26443108916282654, 0.26505401730537415, 0.16554206609725952, -0.12828363478183746, -0.3828359842300415, 0.01659160479903221, -0.09522615373134613, 0.35321471095085144, 0.13171394169330597, 0.12287769466638565, 0.2652067542076111, -0.33761993050575256, 0.4478617310523987], [0.8201232552528381, -0.576267659664154, -1.1462621688842773, -0.16240514814853668, -0.019527925178408623, -0.25840434432029724, 0.16881535947322845, 0.033215176314115524, 0.23959799110889435, -0.14840275049209595, 1.3025509119033813, -0.14848221838474274, 0.35683342814445496, 0.16509459912776947, 0.6712539792060852, 0.006198391318321228], [-0.06716941297054291, -0.29851311445236206, -0.4421892464160919, 0.26768603920936584, 0.13170264661312103, 0.16962657868862152, -0.1366610825061798, -0.23363682627677917, -0.02723214402794838, -0.29236704111099243, 0.4638504385948181, 0.1717885285615921, 0.023222804069519043, 0.22496995329856873, -0.3252193033695221, 0.37048786878585815], [0.12405985593795776, -0.26257309317588806, -0.4523882567882538, 0.1988821029663086, 0.28833869099617004, 0.218564972281456, -0.1628132313489914, -0.39153796434402466, 0.03664064779877663, -0.256298303604126, 0.36310330033302307, 0.21895906329154968, 0.03809773176908493, 0.08445719629526138, -0.5897275805473328, 0.28202787041664124], [0.04660472273826599, -0.03327782452106476, 0.3625807762145996, -0.15560011565685272, -0.2827243208885193, -0.2669021189212799, 0.2961529791355133, 0.31935349106788635, 0.040273383259773254, 0.30474358797073364, -0.06773240864276886, -0.14818820357322693, -0.01028766855597496, -0.1435461789369583, 0.3103300929069519, -0.23695209622383118]], [[0.8461397290229797, -0.9906971454620361, 1.048444151878357, -0.22134263813495636, -0.22065691649913788, -0.024269629269838333, 0.2826041877269745, -0.5045861601829529, 0.15026502311229706, 0.5544164776802063, -0.04817049205303192, -0.433005154132843, -0.6053057909011841, -0.2771186828613281, -0.37021568417549133, -0.5739126205444336], [0.1874234974384308, -0.37496712803840637, 0.14692911505699158, -0.07360620051622391, -0.010775025002658367, -0.0025023752823472023, 0.29235994815826416, -0.4032982885837555, 0.32255953550338745, 0.4599263072013855, -1.331922173500061, -0.03383795544505119, -0.20430272817611694, -0.3291076123714447, 2.0950005054473877, -0.44726040959358215], [0.8832497000694275, -0.8248147368431091, 0.9325252771377563, -0.07419022172689438, 0.0688396468758583, -0.09054917097091675, 0.2348838746547699, -0.09684614837169647, -0.10262610763311386, 0.28398704528808594, 1.2261816263198853, -0.28429993987083435, -0.5240496397018433, -0.23612728714942932, -1.6290162801742554, -0.3866744041442871], [-0.16727592051029205, 0.12252698838710785, -0.34994617104530334, -0.05938970670104027, -0.09184544533491135, 0.01643628254532814, 0.035554204136133194, -0.14422333240509033, 0.13132040202617645, 0.05139155313372612, -0.8054409027099609, 0.02573508396744728, 0.13495567440986633, -0.07671310007572174, 1.4797226190567017, -0.2192443460226059], [-0.25898462533950806, 0.35413414239883423, -0.574491024017334, -0.11374648660421371, -0.05295667424798012, -0.018342969939112663, 0.02128860168159008, 0.11844607442617416, 0.20966525375843048, 0.12969672679901123, -0.4564933776855469, 0.07644389569759369, 0.09375032037496567, -0.019707586616277695, 0.9995405673980713, -0.06621964275836945], [0.2597757875919342, -0.2401878386735916, 0.208389014005661, -0.09558087587356567, -0.063977912068367, 0.003141622059047222, 0.2525639533996582, -0.25267818570137024, 0.2539075016975403, 0.44228190183639526, -1.1547136306762695, -0.12507447600364685, -0.102968230843544, -0.29924678802490234, 2.204002618789673, -0.4339672923088074], [0.4795040190219879, -0.24384234845638275, 0.5061349272727966, 0.12466505914926529, 0.006013846956193447, -0.13655206561088562, 0.020624738186597824, 0.25754833221435547, -0.056857168674468994, 0.047615211457014084, 1.7375701665878296, -0.13013866543769836, -0.148198202252388, -0.07781413942575455, -2.2325031757354736, 0.21401026844978333], [1.0474348068237305, -1.187099575996399, 1.121345043182373, -0.12991021573543549, -0.053436633199453354, -0.0364135280251503, 0.3966810703277588, -0.6637520790100098, 0.22428204119205475, 0.63835608959198, -0.6208773255348206, -0.4885653555393219, -0.7531781792640686, -0.3312359154224396, 0.38087987899780273, -0.8299633264541626], [-0.3346288204193115, 0.2876572608947754, -0.41746440529823303, -0.11889185011386871, 0.16331219673156738, 0.09301956743001938, 0.1281433254480362, -0.45318853855133057, 0.0715484619140625, 0.1222425177693367, -2.1128389835357666, 0.116066575050354, -0.016454609110951424, -0.0186013076454401, 2.3972694873809814, -0.3370635509490967], [-0.9840316772460938, 1.2764320373535156, -1.0326049327850342, 0.04614720866084099, -0.0019292156212031841, 0.06620296090841293, -0.3804400861263275, 0.7453643679618835, -0.2020227164030075, -0.5963491797447205, 0.8176926374435425, 0.40401211380958557, 0.7727971076965332, 0.32760584354400635, -0.7741689682006836, 0.7166231274604797], [-0.8889585733413696, 0.9704954624176025, -1.2294014692306519, 0.23180346190929413, 0.11135490238666534, 0.08775734901428223, -0.21339379251003265, 0.4072180986404419, -0.16681838035583496, -0.48259642720222473, 0.15697616338729858, 0.46329760551452637, 0.5288459658622742, 0.20612187683582306, 0.1591559797525406, 0.8082635998725891], [-0.2789895534515381, 0.26149705052375793, -0.35465511679649353, -0.19345685839653015, -0.027408597990870476, -0.09150749444961548, 0.1649383008480072, 0.13240088522434235, 0.2069120705127716, 0.2077193707227707, -0.6429262161254883, 0.04395183175802231, 0.08366095274686813, -0.1379040777683258, 1.1521153450012207, -0.1160816177725792], [0.5228954553604126, -0.8043115735054016, 0.7611612677574158, -0.0827183797955513, 0.01704845018684864, -0.11350636184215546, 0.3514394462108612, -0.5024083256721497, 0.24755947291851044, 0.37256187200546265, -1.280278205871582, -0.18151313066482544, -0.4030298590660095, -0.2428710013628006, 2.0898163318634033, -0.3725653886795044], [-0.4296499192714691, 0.3036915063858032, -0.7679620385169983, -0.046336036175489426, 0.03613395243883133, 0.09180156886577606, -0.14351880550384521, -0.14370544254779816, 0.06453326344490051, 0.01506213378161192, -0.7914780974388123, 0.08906573802232742, 0.024365901947021484, -0.02390131726861, 1.3363828659057617, -0.014099624007940292], [-0.47563135623931885, 0.40365615487098694, -0.860499382019043, -0.08581187576055527, 0.054826654493808746, -0.015481088310480118, 1.8753809854388237e-05, 0.09665077179670334, 0.0886402577161789, 0.00516315596178174, -0.6487500071525574, 0.13651029765605927, 0.18794408440589905, 0.1683860868215561, 1.2762473821640015, 0.3536317050457001], [0.2938913404941559, -0.31821414828300476, 0.7360292673110962, 0.1704230159521103, 0.09764013439416885, 0.16496281325817108, 0.05226428061723709, -0.08303622901439667, -0.05384773015975952, 0.07050545513629913, 0.3281797468662262, -0.169250026345253, -0.22241663932800293, 0.033185794949531555, -0.6749273538589478, -0.0968765914440155]], [[-1.0304113626480103, 0.5070192217826843, -1.159410834312439, 0.6230199337005615, 0.6077066659927368, 0.8205268979072571, -0.4945243000984192, -0.8818300366401672, -0.47858861088752747, -0.5102961659431458, -0.42232176661491394, 0.5927053689956665, 0.5351564288139343, 0.6402932405471802, 0.632910430431366, 0.7992374300956726], [-1.0507744550704956, 1.3907808065414429, 0.1983821839094162, -0.2278202623128891, -0.3879534602165222, -0.46554869413375854, 0.030646974220871925, 1.3144692182540894, 0.13189154863357544, 0.025453023612499237, 1.0714540481567383, -0.1978430151939392, -0.022142404690384865, -0.23367199301719666, -2.8012468814849854, 0.03739771619439125], [-0.30169135332107544, -0.31371423602104187, -1.1376402378082275, 0.64466792345047, 0.8556079268455505, 0.6939012408256531, -0.3852927088737488, -1.3679287433624268, -0.6251691579818726, -0.3476623594760895, -1.2562283277511597, 0.6702478528022766, 0.48604899644851685, 0.5925980806350708, 1.7382469177246094, 0.6002076864242554], [0.22543424367904663, 0.016574718058109283, 0.621971607208252, -0.3807920217514038, -0.543494701385498, -0.44727009534835815, 0.2746192216873169, 0.6254498958587646, 0.2909376919269562, 0.3958248198032379, 0.4399644434452057, -0.30236685276031494, -0.3332134783267975, -0.23262876272201538, -0.8391262888908386, -0.23996442556381226], [0.3741656243801117, -0.2576451301574707, 0.738474428653717, -0.51662677526474, -0.5958596467971802, -0.570758044719696, 0.41713497042655945, 0.8266472816467285, 0.444629043340683, 0.4676925539970398, 0.41858357191085815, -0.3505251705646515, -0.4430314898490906, -0.36117953062057495, -0.6675265431404114, -0.41174235939979553], [-0.7968686819076538, 0.8143752217292786, 0.3100723624229431, -0.10766799002885818, -0.410932332277298, -0.29097795486450195, 0.18330168724060059, 1.2617042064666748, 0.020426617935299873, -0.0033496760297566652, 0.9863951206207275, -0.20813582837581635, -0.17059773206710815, -0.22380365431308746, -3.1156439781188965, 0.09023795276880264], [0.3427095413208008, -0.6986353397369385, -0.7542386651039124, 0.34892016649246216, 0.6241657733917236, 0.589560866355896, -0.19963571429252625, -1.7062437534332275, -0.4114808440208435, -0.13308030366897583, -1.1517664194107056, 0.31532806158065796, 0.1035456731915474, 0.48944053053855896, 2.5716309547424316, 0.14852085709571838], [-1.529597282409668, 0.993339478969574, -1.1150046586990356, 0.6624922156333923, 0.5646719932556152, 0.7484933137893677, -0.6072443723678589, -0.41774076223373413, -0.5898644924163818, -0.6523131132125854, -0.04241655766963959, 0.7339247465133667, 0.5064902305603027, 0.5960549712181091, -0.06423880904912949, 0.981777548789978], [-0.5749099850654602, 0.918517529964447, 0.48387661576271057, -0.23735608160495758, -0.5354592800140381, -0.4055892825126648, 0.18414808809757233, 1.324202537536621, 0.2695658802986145, 0.1598128378391266, 0.807309627532959, -0.2566727101802826, -0.020465664565563202, -0.25173231959342957, -2.7485544681549072, -0.05712127685546875], [0.9421398639678955, -0.3825942873954773, 0.7998172640800476, -0.44622233510017395, -0.6118705868721008, -0.5186463594436646, 0.4486384987831116, 0.6433966159820557, 0.4984833896160126, 0.3560839295387268, 0.07586857676506042, -0.46714624762535095, -0.5908674597740173, -0.4755537211894989, -0.23549245297908783, -0.4765896797180176], [0.8676252961158752, -0.6777846217155457, 1.210740327835083, -0.5544524192810059, -0.7073178887367249, -0.49436378479003906, 0.49151676893234253, 0.7516893744468689, 0.6079740524291992, 0.6655890345573425, 0.2563929259777069, -0.4828982651233673, -0.4176240861415863, -0.4756440222263336, -0.3967144191265106, -0.7856690287590027], [0.17479582130908966, 0.11848827451467514, 0.49930939078330994, -0.34342265129089355, -0.538532018661499, -0.5062606334686279, 0.23540760576725006, 0.8313896059989929, 0.29021725058555603, 0.3581608235836029, 0.48021072149276733, -0.41215479373931885, -0.2992892861366272, -0.38307371735572815, -1.4912697076797485, -0.23222345113754272], [-2.0803680419921875, 2.0416741371154785, -1.1916979551315308, 0.44277676939964294, 0.45924729108810425, 0.41105523705482483, -0.6281270384788513, 0.36119359731674194, -0.3608681559562683, -0.7073352336883545, 0.9537711143493652, 0.5320532321929932, 0.7147897481918335, 0.4925231337547302, -1.4830204248428345, 1.0485841035842896], [0.11849132925271988, 0.04732876271009445, 0.506607174873352, -0.28867751359939575, -0.30371513962745667, -0.2586776912212372, 0.18767595291137695, 0.6370731592178345, 0.4147660434246063, 0.17643922567367554, 0.30682238936424255, -0.354788601398468, -0.17697139084339142, -0.25955134630203247, -0.7488770484924316, -0.2556709349155426], [0.6789182424545288, -0.4387328624725342, 0.9629610180854797, -0.44330552220344543, -0.5739370584487915, -0.40842002630233765, 0.4656367003917694, 0.9009783864021301, 0.46209487318992615, 0.4554203748703003, 0.5048105120658875, -0.5393568873405457, -0.5853211283683777, -0.548558235168457, -0.6168259382247925, -0.5163899064064026], [-0.42668986320495605, 0.4357752799987793, -0.7150186896324158, 0.37052732706069946, 0.5324565768241882, 0.4595361351966858, -0.4208267033100128, -0.6561100482940674, -0.4984172284603119, -0.2626553773880005, -0.24884705245494843, 0.4923504889011383, 0.43941056728363037, 0.3680177628993988, 0.3070717453956604, 0.30839911103248596]], [[-0.09948450326919556, 0.023364871740341187, 0.10544928908348083, 0.05976209044456482, -0.1112385094165802, -0.010515749454498291, 0.1095510721206665, 0.010013341903686523, -0.08657750487327576, -0.07558423280715942, -0.010651230812072754, -0.11392921209335327, -0.10280907154083252, 0.038588136434555054, -0.040281444787979126, -0.025478333234786987], [0.0718582272529602, -0.03601256012916565, -0.06307041645050049, 0.05565476417541504, 0.08663985133171082, -0.05004185438156128, -0.12293112277984619, 0.08959802985191345, 0.0271855890750885, 0.11319053173065186, 0.061162978410720825, -0.016013413667678833, -0.05749359726905823, 0.010606080293655396, -0.0442463755607605, -0.010451436042785645], [-0.10682719945907593, -0.0642302930355072, 0.09688091278076172, -0.05048251152038574, -0.018443167209625244, -0.0843890905380249, -0.08814331889152527, 0.02188083529472351, -0.11055970191955566, 0.04832148551940918, 0.05330196022987366, 0.012976765632629395, 0.1183461844921112, 0.05210024118423462, -0.06104600429534912, -0.07886666059494019], [0.09638845920562744, -0.09348535537719727, 0.01247495412826538, -0.0809493362903595, 0.027351468801498413, -0.0410178005695343, -0.004670381546020508, -0.08109989762306213, 0.056942135095596313, 0.0817696750164032, -0.12299340963363647, -0.08898398280143738, 0.11395585536956787, -0.06718581914901733, 0.10758814215660095, -0.031242668628692627], [0.10427853465080261, 0.01615321636199951, 0.11315032839775085, 0.0037724673748016357, 0.010371416807174683, 0.11290332674980164, 0.024822264909744263, -0.1243433952331543, -0.032677531242370605, 0.04144012928009033, 0.039282262325286865, -0.11968973278999329, -0.07746696472167969, -0.035017162561416626, 0.035623252391815186, 0.045737653970718384], [-0.030570685863494873, 0.11475872993469238, -0.11249104142189026, 0.07230398058891296, 0.07607164978981018, 0.015902847051620483, -0.06718045473098755, 0.12480950355529785, -0.06390100717544556, 0.09234079718589783, -0.03899189829826355, 0.08499699831008911, 0.10119032859802246, 0.09874379634857178, 0.05772233009338379, 0.00991317629814148], [-0.01764407753944397, 0.11792677640914917, -0.058587849140167236, 0.02480575442314148, -0.0870157778263092, 0.06763920187950134, -0.08154463768005371, 0.12184205651283264, 0.09314018487930298, 0.032494544982910156, -0.1102871298789978, -0.024988561868667603, 0.04202255606651306, -0.042605966329574585, -0.06679674983024597, -0.04950827360153198], [-0.008111178874969482, 0.059401631355285645, -0.025968730449676514, -0.02857378125190735, -0.04874226450920105, -0.019712358713150024, 0.08501678705215454, 0.06914913654327393, -0.04085761308670044, -0.021042346954345703, 0.015597790479660034, 0.0619986355304718, -0.05441942811012268, 0.033757925033569336, 0.07984209060668945, -0.07569459080696106], [0.10610643029212952, -0.03392210602760315, -0.06554403901100159, 0.029703259468078613, 0.08025577664375305, -0.028947949409484863, 0.07888233661651611, -0.058702439069747925, -0.11446017026901245, 0.05827060341835022, 0.07292166352272034, -0.0311087965965271, -0.052944064140319824, 0.1050599217414856, 0.01733383536338806, 0.002303987741470337], [-0.013226330280303955, 0.08205384016036987, 0.05136615037918091, 0.05874893069267273, -0.10388395190238953, 0.05205172300338745, -0.06837120652198792, -0.08849439024925232, 0.003984302282333374, -0.08277732133865356, 0.09024414420127869, -0.026333630084991455, 0.020019739866256714, 0.09682416915893555, -8.592009544372559e-05, 0.05651584267616272], [0.057331860065460205, -0.09381502866744995, 0.10213497281074524, -0.008101403713226318, -0.028638005256652832, 0.11131060123443604, -0.07601168751716614, 0.06888192892074585, 0.11982238292694092, -0.0693766176700592, -0.03206560015678406, 0.0007873773574829102, 0.059529125690460205, 0.1062980592250824, -0.06199753284454346, 0.034863442182540894], [-0.030679672956466675, -0.053902119398117065, 0.0452023446559906, 0.0070629119873046875, 0.09795787930488586, 0.01821538805961609, 0.1015741229057312, -0.10225990414619446, -0.1204216480255127, -0.056892454624176025, -0.09524416923522949, -0.030253112316131592, -0.08829525113105774, -0.10014232993125916, -0.039232462644577026, -0.10489743947982788], [0.03699234127998352, 0.07782670855522156, 0.12396067380905151, 0.042512863874435425, -0.056112468242645264, -0.02836000919342041, -0.06892499327659607, 0.024492979049682617, -0.016648560762405396, 0.03871971368789673, 0.05715137720108032, 0.08469000458717346, 0.08195096254348755, -0.01208031177520752, -0.018586784601211548, -0.11685958504676819], [0.10672098398208618, -0.053102731704711914, 0.11883783340454102, 0.10881879925727844, 0.039233505725860596, 0.029457807540893555, 0.05595803260803223, 0.05223017930984497, 0.08628964424133301, -0.007908999919891357, -0.09953412413597107, -0.005376279354095459, 0.08458960056304932, 0.009962528944015503, 0.059765905141830444, -0.09126749634742737], [-0.008146286010742188, 0.12328314781188965, -0.04467880725860596, -0.1162167489528656, 0.07801446318626404, -0.02224600315093994, 0.006246358156204224, 0.06271475553512573, -0.01788341999053955, -0.017605841159820557, 0.002415895462036133, 0.1026495099067688, 0.03661221265792847, 0.06560924649238586, 0.06060314178466797, -0.06121891736984253], [0.0905919075012207, 0.018326640129089355, 0.006418466567993164, 0.09983879327774048, 0.07576325535774231, 0.04531988501548767, 0.013864338397979736, -0.05446234345436096, 0.12190327048301697, -0.03173154592514038, -0.0737849771976471, 0.07727652788162231, -0.11669015884399414, 0.07863959670066833, 0.02927890419960022, -0.10658112168312073]], [[-0.010955870151519775, 0.07202956080436707, -0.0476413369178772, 0.044571369886398315, 0.11863461136817932, 0.10499018430709839, -0.005484819412231445, 0.039740920066833496, -0.12346982955932617, 0.07621225714683533, -0.03043609857559204, -0.11672559380531311, -0.07658660411834717, -0.016649454832077026, 0.08736348152160645, -0.029581308364868164], [-0.04787546396255493, 0.0966971218585968, 0.09159407019615173, 0.11102908849716187, 0.10436630249023438, 0.09112286567687988, 0.07713216543197632, 0.042512357234954834, -0.01296350359916687, -0.1135474145412445, -0.02706044912338257, -0.05842626094818115, -0.11880621314048767, -0.054440200328826904, -0.04797181487083435, 0.10476076602935791], [-0.07986640930175781, -0.019307941198349, 0.08514449000358582, -0.007427841424942017, 0.009254634380340576, -0.09695059061050415, -0.10933670401573181, 0.07372346520423889, 0.09184730052947998, -0.024276912212371826, 0.11920380592346191, 0.0031623244285583496, 0.0017670691013336182, -0.052458763122558594, -0.0662127435207367, 0.11885735392570496], [0.09877282381057739, -0.00663149356842041, -0.0786375105381012, -0.050855040550231934, -0.11361131072044373, -0.005682528018951416, 0.048765629529953, -0.09829702973365784, 0.06791505217552185, 0.07740497589111328, -0.06816959381103516, -0.016577988862991333, 0.07677897810935974, 0.057933300733566284, -0.10327863693237305, -0.05029606819152832], [0.06071370840072632, -0.10451439023017883, 0.009214282035827637, 0.08234086632728577, -0.0875767171382904, -0.03001466393470764, 0.03526875376701355, -0.09729549288749695, 0.02450081706047058, -0.08928638696670532, -0.07943150401115417, -0.09785622358322144, -0.0674038827419281, 0.06714358925819397, -0.05384287238121033, -0.038111716508865356], [-0.12110257148742676, 0.05706104636192322, 0.024460256099700928, -0.09044721722602844, -0.09986546635627747, -0.0720917284488678, 0.0035488009452819824, 0.1243874728679657, -0.011995971202850342, -0.09132358431816101, -0.03495529294013977, 0.07539227604866028, -0.03273788094520569, -0.0863690972328186, 0.06349676847457886, -0.020868122577667236], [0.10052689909934998, 0.060302287340164185, -0.10618022084236145, -0.11146131157875061, 0.022606372833251953, 0.0036520659923553467, 0.11090746521949768, -0.07175669074058533, 0.04279536008834839, -0.02547207474708557, -0.10297819972038269, 0.06116825342178345, -0.10077843070030212, -0.08253660798072815, 0.0036451220512390137, -0.002764463424682617], [0.018993526697158813, -0.070963054895401, 0.004917055368423462, -0.10932749509811401, -0.07220137119293213, 0.03456142544746399, 0.09545344114303589, -0.08159616589546204, 0.11060276627540588, -0.09999692440032959, 0.07911625504493713, -0.022709399461746216, -0.11064565181732178, -0.08388718962669373, -0.013321787118911743, 0.03680524230003357], [-0.0006954073905944824, -0.08375179767608643, -0.09129884839057922, -0.006298452615737915, -0.09839865565299988, -0.03614318370819092, 0.0899205207824707, 0.06775197386741638, 0.03372448682785034, 0.010413944721221924, -0.059479862451553345, -0.04757148027420044, 0.0833674967288971, 0.08203327655792236, 0.05884593725204468, 0.045539289712905884], [0.035678744316101074, 0.08448603749275208, -0.0434434711933136, -0.09948915243148804, -0.05288317799568176, -0.07536417245864868, 0.11307388544082642, -0.03700479865074158, 0.0726533830165863, 0.010106146335601807, 0.06608015298843384, 0.11371532082557678, -0.11431169509887695, -0.02718678116798401, 0.0022229552268981934, 0.08438408374786377], [-0.058120787143707275, -0.12304630875587463, -0.04052543640136719, 0.009963065385818481, -0.03440237045288086, 0.019776880741119385, -0.11113572120666504, 0.08633249998092651, 0.0059996843338012695, -0.06261682510375977, -0.00817883014678955, -0.08251908421516418, 0.06473413109779358, 0.09234601259231567, 0.06364059448242188, 0.038441240787506104], [-0.07860183715820312, 0.1033487319946289, 0.07853245735168457, -0.013103991746902466, -0.051442086696624756, -0.12023210525512695, -0.0883752703666687, 0.04258769750595093, -0.11568355560302734, -0.05226415395736694, 0.10492667555809021, -0.07821223139762878, 0.07540404796600342, 0.03535336256027222, 0.1078333854675293, 0.1205262839794159], [-0.004727214574813843, 0.09305968880653381, -0.06406658887863159, 0.005235940217971802, 0.07242578268051147, 0.10421904921531677, 0.09690400958061218, -0.01728588342666626, -0.015573352575302124, 0.03806203603744507, -0.022562891244888306, 0.0010995566844940186, 0.032543450593948364, 0.07083204388618469, -0.06787160038948059, 0.007113754749298096], [-0.06179735064506531, 0.05519533157348633, 0.013409286737442017, -0.02887129783630371, -0.0019518136978149414, -0.03967270255088806, 0.07430249452590942, -0.014147162437438965, 0.03655654191970825, 0.11492994427680969, -0.04953426122665405, 0.05191752314567566, 0.06626558303833008, -0.1060505211353302, -0.11999401450157166, 0.037568747997283936], [0.044782817363739014, 0.07799196243286133, 0.00850909948348999, -0.11471012234687805, 0.010613709688186646, 0.1142822802066803, 0.10951095819473267, -0.11368891596794128, -0.10193127393722534, -0.0384407639503479, 0.09501749277114868, -0.05325546860694885, 0.05832856893539429, -0.07774567604064941, -0.04186871647834778, 0.09232392907142639], [-0.09901055693626404, -0.08721485733985901, -0.007176458835601807, -0.024627000093460083, 0.10993480682373047, -0.07454124093055725, 0.05912250280380249, -0.06887060403823853, 0.10980558395385742, 0.05590572953224182, -0.05318722128868103, 0.07741478085517883, -0.08805280923843384, 0.10799378156661987, -0.05476519465446472, -0.008532047271728516]]]}, "dense": {"bias:0": [-0.009369436651468277], "kernel:0": [[-0.07050112634897232], [0.08832765370607376], [-0.510841429233551], [0.11660566180944443], [0.003710611956194043], [-0.11342521011829376], [0.08295857906341553], [0.14243875443935394], [0.13612008094787598], [-0.2730484902858734], [-0.09329988807439804], [0.06545240432024002], [0.02513916976749897], [0.03431440144777298], [0.03299542888998985], [0.04658465459942818], [-0.2395697683095932], [0.1596142202615738], [-0.20957201719284058], [-0.11798390001058578], [0.04045485705137253], [-0.02145681343972683], [0.032061636447906494], [-0.15294212102890015], [0.04995327442884445], [0.05961387977004051], [0.0733608528971672], [-0.04351207613945007], [-0.052921127527952194], [-0.05183456465601921], [0.06759095937013626], [0.06191401183605194], [-0.16719405353069305], [0.1349802166223526], [-0.0003114000428467989], [-0.07733567804098129]]}, "lstm": {"bias:0": [0.072284996509552, -0.37432730197906494, -0.9049620628356934, 0.5216271281242371, -0.06923842430114746, -0.5033411383628845, -0.14634783565998077, -0.6607533693313599, -0.07343778759241104, -0.8075239658355713, 0.1972765177488327, -0.3019540309906006, 0.8817198872566223, -0.1436787098646164, 0.699993371963501, -0.015825536102056503, 0.4543384909629822, 0.034565698355436325, -0.11373254656791687, -0.11574167013168335, -0.423528790473938, -0.17313967645168304, -0.16540788114070892, -0.11690782755613327, -0.33438199758529663, 0.2757994830608368, 0.06508263945579529, -0.0030190637335181236, -0.24215339124202728, -0.09577421098947525, -0.03093603439629078, -0.08377411961555481, -0.07701832056045532, 0.1028469055891037, -0.09552713483572006, -0.23312193155288696, 1.0, 1.0, 1.0, 1.0, 1.0, 1.0, 1.0, 1.0, 1.0, 1.0, 1.0, 1.0, 1.0, 1.0, 1.0, 1.0, 1.0, 1.0, 1.0, 1.0, 1.0, 1.0, 1.0, 1.0, 1.0, 1.0, 1.0, 1.0, 1.0, 1.0, 1.0, 1.0, 1.0, 1.0, 1.0, 1.0, -0.024078959599137306, -0.019908595830202103, -0.003288954496383667, 0.013092380948364735, 0.0053490204736590385, -0.19413568079471588, 0.012579073198139668, -0.00041201378917321563, 0.03644594922661781, 0.020288720726966858, -0.032571759074926376, -0.034515444189310074, 0.015770085155963898, 0.04624762013554573, -0.0725456178188324, 0.03520771488547325, -0.04373939335346222, -0.015079609118402004, 0.009427008219063282, 0.09897837042808533, -0.012671026401221752, -0.023717358708381653, 0.004626961424946785, -0.007768496870994568, 0.21542491018772125, -0.06874004006385803, -0.06808251887559891, 0.004011673852801323, 0.003620354924350977, -0.017262518405914307, 0.010764515027403831, 0.013788450509309769, -0.038520947098731995, 0.07567456364631653, 0.0510784350335598, 0.0020437748171389103, -0.007127793505787849, -0.5498948097229004, -0.9967299699783325, 0.4729140102863312, -0.11786124110221863, -0.42402464151382446, -0.1427566558122635, -0.6770525574684143, -0.20042721927165985, -0.8884850144386292, 0.1829824000597, -0.4752734303474426, 0.9350401163101196, -0.24931848049163818, 0.9080289006233215, -0.2207040637731552, -0.09902144968509674, -0.1603812277317047, -0.18719474971294403, 0.3904168903827667, -0.3013344407081604, -0.2727409601211548, -0.290994793176651, -0.07094909995794296, 0.2773079574108124, 0.1543479561805725, -0.1782739758491516, -0.1790235936641693, -0.29704636335372925, -0.09002328664064407, -0.051787327975034714, -0.17422722280025482, -0.1659330278635025, 0.15972481667995453, -0.17057016491889954, -0.3008069396018982], "kernel:0": [[0.010561585426330566, -0.23632417619228363, 0.060384079813957214, 1.8075108528137207, -0.7135365605354309, -1.8471734523773193, -0.8868076205253601, 0.16514883935451508, 0.13007140159606934, -0.06240081042051315, -0.6339496970176697, 0.6334177851676941, 0.30471470952033997, 0.5639284253120422, -0.6750916838645935, -0.016701048240065575, 0.7325412631034851, 0.21915286779403687, 0.13564647734165192, 0.6694939136505127, -0.07984492927789688, 0.021655691787600517, 0.14801301062107086, 0.4988594949245453, 0.6342434883117676, 0.06018706038594246, -0.1270069032907486, 0.16093070805072784, -0.39270707964897156, -0.22933635115623474, 0.03659084066748619, -0.16209188103675842, -0.14814527332782745, 0.40929824113845825, -0.4871266782283783, -0.13295875489711761, -0.12271112203598022, 0.05252516269683838, -0.17575296759605408, -0.023642271757125854, 0.13424700498580933, 0.10997149348258972, 0.008973285555839539, 0.026531383395195007, -0.046980202198028564, -0.05846308171749115, 0.11302575469017029, 0.13291245698928833, -0.18375253677368164, -0.00028477609157562256, 0.16981220245361328, -0.16807247698307037, 0.06363794207572937, 0.13116610050201416, 0.03353826701641083, -0.03933194279670715, 0.16830211877822876, -0.12588796019554138, -0.02339942753314972, -0.09080975502729416, -0.04467657208442688, -0.10109236091375351, 0.013081178069114685, 0.17760419845581055, -0.13334032893180847, 0.08490517735481262, 0.03348530828952789, 0.0016291886568069458, 0.09236311912536621, -0.13930311799049377, -0.1714702844619751, 0.02535673975944519, -0.37007543444633484, -0.11801959574222565, 0.03750252723693848, -1.5912524461746216, -0.059784259647130966, -0.749300479888916, -0.06489644199609756, -0.09459526836872101, -0.09080677479505539, -0.03421539068222046, 1.0078073740005493, 0.2587844729423523, -0.7188059687614441, -0.11155465245246887, 0.9819471836090088, 0.2215949445962906, 0.5157502293586731, 0.458901584148407, 0.47894829511642456, -0.20918011665344238, -0.009827880188822746, -0.15689635276794434, 0.12313555181026459, -0.2836759686470032, -0.02915547601878643, 0.8474797606468201, -0.07466015219688416, 0.14914681017398834, -0.15263448655605316, 0.17022037506103516, 0.3022575378417969, 0.13771191239356995, 0.5512567162513733, -0.537925660610199, -0.1940273493528366, -0.03815768286585808, -0.1600547581911087, 0.05539179965853691, -0.014437612146139145, -1.5239912271499634, 0.27696406841278076, -0.995475709438324, 0.7790650129318237, -0.0007031855639070272, -0.17481502890586853, 0.06825178861618042, -0.5914813280105591, 0.48862192034721375, 1.327726125717163, 0.13217946887016296, 0.9598681330680847, 0.2735249400138855, -0.6329337954521179, -0.07906787842512131, 0.12455876916646957, -0.5552693009376526, -0.145615816116333, 0.16298086941242218, 0.19144272804260254, -0.8750582337379456, 1.1387555599212646, 0.11664341390132904, -0.696432888507843, -0.49969398975372314, 0.322759747505188, 0.46048998832702637, 0.04159451276063919, 0.20256415009498596, 0.060896217823028564, -0.7710592150688171, -0.22072455286979675, 0.14405350387096405], [0.11387879401445389, 0.09558901935815811, 0.0070402780547738075, -1.2818206548690796, 0.5374346375465393, 1.2974671125411987, 0.4611649215221405, 0.05729323625564575, -0.3372550308704376, -0.0176206286996603, 0.5056020617485046, -0.46475690603256226, -1.675936222076416, -0.5795197486877441, 1.0217605829238892, 0.0597306564450264, -0.544105589389801, -0.04536982625722885, -0.09710107743740082, -0.6314991116523743, 0.3336825370788574, 0.1504596620798111, -0.2988728880882263, -0.4230503439903259, -0.3696681559085846, 0.2128225862979889, 0.01224924623966217, -0.03219624608755112, 0.49317142367362976, -0.04276098310947418, 0.10128702223300934, 0.053798262029886246, 0.004485352896153927, -0.7647454738616943, 0.08567685633897781, -0.09591174870729446, 0.0028373003005981445, 0.01894257962703705, -0.15763142704963684, -0.015088260173797607, 0.0029381364583969116, 0.18163108825683594, -0.18764647841453552, 0.08183121681213379, -0.03286077082157135, -0.0043283551931381226, 0.061369121074676514, -0.15258046984672546, 0.08573132753372192, 0.08373543620109558, -0.06731678545475006, 0.13578152656555176, -0.04124118387699127, -0.09272057563066483, 0.058583587408065796, -0.002470672130584717, 0.1158289909362793, -0.03129756450653076, 0.0015542060136795044, -0.06127166748046875, -0.014167636632919312, -0.16882209479808807, -0.18102577328681946, -0.12557187676429749, 0.0864797830581665, -0.12747706472873688, -0.180527925491333, 0.09614875912666321, -0.15699461102485657, 0.042496174573898315, 0.08517047762870789, 0.05162569880485535, 0.6878679990768433, 0.033546384423971176, -0.017314106225967407, 0.9768708944320679, 0.06578612327575684, 0.5226914286613464, 0.0811837762594223, 0.07130397111177444, -0.048974789679050446, 0.03270656615495682, -0.5151610970497131, -0.1048724427819252, -0.807907223701477, -0.06684834510087967, -0.8102712631225586, 0.10814835131168365, -0.034498896449804306, -0.40332871675491333, -0.25621357560157776, 0.21377569437026978, -0.14179688692092896, -0.19027751684188843, 0.14217741787433624, 0.15644219517707825, 0.010850413702428341, -0.9979081749916077, 0.14060482382774353, 0.07083240151405334, 0.2026817351579666, -0.2802269160747528, -0.15517356991767883, -0.04733113944530487, -0.46055763959884644, 0.1641416996717453, -0.14043821394443512, -0.13766402006149292, 0.257568359375, 0.125055730342865, -0.02229803055524826, 0.6605355739593506, -0.028068628162145615, 1.293810248374939, -0.4206739068031311, 0.022439535707235336, 0.038004785776138306, 0.11848807334899902, 0.19678950309753418, -0.7961681485176086, 0.9756585359573364, 0.6317769289016724, -1.5716497898101807, 0.20872360467910767, 0.5954936742782593, 0.1653253734111786, 0.05795063450932503, 0.32192087173461914, 0.1539829820394516, -0.352088987827301, 0.24849152565002441, 0.7111350297927856, -0.5493260622024536, -0.16739222407341003, 0.8596285581588745, 0.6536036133766174, -0.17358087003231049, 0.01252951379865408, -0.047033071517944336, -0.011550580151379108, -0.028687015175819397, 0.7719480991363525, 0.06111498549580574, -0.01687612757086754], [0.2319387048482895, 0.07064075767993927, -0.04606636241078377, 0.2775079905986786, -0.5890400409698486, -1.479001760482788, -0.601648211479187, 0.021817248314619064, -0.41231831908226013, 0.23476149141788483, -1.153965950012207, 0.6656648516654968, 0.5343470573425293, 0.21392890810966492, -0.8451088070869446, 0.21722131967544556, 0.6019853353500366, 0.02984771691262722, -0.19356445968151093, 0.4215445816516876, 0.09808196127414703, -0.243056520819664, 0.06705227494239807, 0.500248908996582, -0.5728631615638733, 0.3673190176486969, 0.005019675474613905, 0.3984621465206146, 0.38325074315071106, -0.6242382526397705, -0.29458528757095337, -0.11374055594205856, -0.10131778568029404, 0.2218191921710968, -0.20195861160755157, 0.04315595701336861, 0.12916117906570435, 0.06422260403633118, -0.17866137623786926, 0.13409832119941711, -0.15799541771411896, -0.09461458772420883, -0.13795344531536102, 0.027306199073791504, -0.15535873174667358, -0.153617262840271, 0.08207806944847107, -0.0725979432463646, 0.0013980567455291748, -0.09773541986942291, 0.16046124696731567, -0.013315856456756592, 0.15756916999816895, 0.014840841293334961, 0.0752924382686615, -0.10602447390556335, -0.1719815731048584, 0.005677700042724609, -0.06839388608932495, 0.04320177435874939, 0.11457401514053345, 0.059347838163375854, -0.12828585505485535, 0.086493581533432, -0.07443788647651672, 0.03486129641532898, 0.07497650384902954, 0.12489283084869385, 0.04311387240886688, 0.04797270894050598, -0.07363051921129227, -0.09528053551912308, -0.9706557393074036, 0.031122399494051933, -0.10127341002225876, -0.009082389064133167, 0.01945294812321663, -0.7449162602424622, 0.04538210481405258, 0.11589478701353073, -0.348307728767395, 0.028981326147913933, 0.4269799590110779, 0.15814396739006042, 0.039009787142276764, 0.13555264472961426, 0.9179757237434387, 0.22683919966220856, 1.0352693796157837, -0.42450180649757385, 0.2572815716266632, -0.45405393838882446, -0.11347708106040955, -0.2501663267612457, -0.0558406338095665, -0.1960022747516632, -0.164324089884758, 0.12564429640769958, -0.15230655670166016, -0.11193361133337021, -0.24189282953739166, 0.04594079777598381, 0.15491555631160736, 0.23291169106960297, 0.09574437886476517, -0.7655052542686462, 0.3309534788131714, -0.19432668387889862, -0.44420164823532104, 0.08790602535009384, 0.006132576148957014, -0.43402203917503357, -0.4325515031814575, -0.9285750985145569, 0.45761263370513916, 0.048199694603681564, 0.13767480850219727, 0.199398934841156, -0.9322581887245178, 0.009748087264597416, -0.7979252338409424, -0.06357467919588089, 0.5187868475914001, -0.2328040897846222, -0.5631932616233826, 0.16842594742774963, 0.23390427231788635, -0.6090092062950134, 0.5040076375007629, -0.22402186691761017, -0.09389367699623108, -0.5636956691741943, 0.5243604183197021, -0.48868879675865173, -0.44586074352264404, -0.38412484526634216, -0.22732245922088623, -0.005942548159509897, 0.4299462139606476, -0.0890582725405693, 0.050595205277204514, -0.5909162163734436, -0.07202940434217453, -0.07448720932006836], [-0.3126000463962555, -0.09941881895065308, 0.11565327644348145, -0.30733951926231384, 0.43039143085479736, 1.3763725757598877, 0.4183114469051361, 0.07439061999320984, 0.07392166554927826, -0.029123106971383095, 0.9605956077575684, -0.259766548871994, 0.5926306247711182, 0.05645640939474106, -0.2967720925807953, -0.06698475778102875, -0.44790005683898926, -0.013517421670258045, -0.05429026857018471, -0.5623800754547119, -0.15872223675251007, -0.38636165857315063, 0.05885937809944153, -0.3829965591430664, 0.2680567502975464, -0.12103915214538574, -0.0750388577580452, -0.19061416387557983, 0.060342177748680115, -0.13054098188877106, 0.18050464987754822, 0.03244128078222275, 0.008495459333062172, 0.3118387460708618, 0.073726586997509, -0.1381591111421585, 0.026909053325653076, 0.15292853116989136, -0.13474521040916443, -0.11590097099542618, 0.12038758397102356, 0.19208678603172302, 0.12644407153129578, 0.057398974895477295, -0.014942541718482971, 0.0701715350151062, -0.13487255573272705, 0.10237392783164978, -0.11898689717054367, 0.17376753687858582, -0.18561983108520508, -0.0769481286406517, -0.044216498732566833, 0.18923619389533997, -0.16644075512886047, -0.11269066482782364, -0.00186118483543396, 0.12939032912254333, 0.019269242882728577, -0.14604300260543823, 0.08018702268600464, -0.05937908589839935, -0.07261765748262405, 0.05072012543678284, 0.15776997804641724, -0.16609273850917816, 0.10994046926498413, 0.17906904220581055, -0.0030921995639801025, 0.0579073429107666, 0.01091235876083374, 0.13494938611984253, -0.5020684599876404, 0.0952712893486023, 0.10900889337062836, 0.046894803643226624, -0.04844808578491211, 0.6102498769760132, -0.06929374486207962, 0.05316248908638954, 0.3184795677661896, 0.06279641389846802, -0.5866599678993225, 0.21078798174858093, 0.2293248325586319, -0.15966926515102386, 0.7356150150299072, 0.03208746761083603, -0.7432939410209656, 0.25566813349723816, -0.08115071058273315, 0.41556575894355774, -0.003995217382907867, 0.02115054242312908, 0.2532128393650055, 0.027695201337337494, -0.3192451298236847, 0.18227295577526093, -0.08419688791036606, 0.04498973861336708, -0.07771261781454086, -0.10985272377729416, -0.13722380995750427, -0.06080350652337074, -0.07332052290439606, 0.7019368410110474, -0.2860528528690338, -0.15291787683963776, 0.009500700049102306, -0.22162175178527832, -0.198227196931839, 0.4380103349685669, 0.21136391162872314, 1.1446185111999512, -0.3446938991546631, -0.22712810337543488, 0.012254590168595314, -0.09020403027534485, 0.7112575173377991, 0.3951539695262909, -0.05755949020385742, -0.14448750019073486, -0.23051150143146515, 0.0376758947968483, 0.43200355768203735, 0.07668614387512207, -0.022632699459791183, 0.6334431171417236, 0.22805045545101166, 0.4267284572124481, -0.09117238968610764, 0.2800247371196747, -0.18710610270500183, 0.12918908894062042, 0.19195304811000824, 0.24469907581806183, -0.00652487576007843, -0.3364596366882324, 0.002292831428349018, -0.2429990917444229, -0.05949198454618454, 0.2253391593694687, -0.08162447065114975, 0.23365454375743866], [-0.15429013967514038, -0.26521623134613037, -0.11354821175336838, -0.3758220970630646, 0.48220351338386536, 1.088567852973938, 0.5404602289199829, 0.1878526657819748, 0.3875306248664856, -0.06056041270494461, 1.055216670036316, 0.04846031963825226, 0.17433181405067444, 0.37167617678642273, -0.22376582026481628, -0.19099143147468567, -0.5854132175445557, -0.013317644596099854, -0.029660005122423172, -0.645674467086792, -0.04815022274851799, -0.606981098651886, 0.1699240654706955, -0.5849274396896362, 0.6568799614906311, -0.4247179925441742, -0.030361603945493698, -0.01431728433817625, 0.04955584928393364, -0.08724180608987808, 0.006833383813500404, 0.147583469748497, 0.15631985664367676, 0.25826138257980347, 0.035775650292634964, 0.13365912437438965, 0.023290231823921204, -0.05504104495048523, -0.1642787754535675, 0.09295299649238586, 0.17647141218185425, 0.0859282910823822, 0.13128724694252014, 0.08102983236312866, -0.009607285261154175, -0.122773677110672, -0.04912380874156952, -0.03953365981578827, -0.05406862497329712, 0.04210510849952698, -0.167598694562912, -0.012211158871650696, 0.14131730794906616, 0.1385764181613922, -0.049562886357307434, -0.10614751279354095, 0.18786504864692688, -0.17619556188583374, -0.1767379492521286, 0.13748642802238464, 0.18072223663330078, -0.15384455025196075, 0.1624472737312317, 0.08217686414718628, -0.17670868337154388, 0.18847233057022095, -0.13680894672870636, 0.1333627998828888, -0.07174509763717651, 0.1337834596633911, -0.13284815847873688, 0.17292574048042297, -0.5661329627037048, 0.12260184437036514, 0.026385175064206123, -0.016295714303851128, 0.23784239590168, 0.9771937727928162, -0.06646895408630371, 0.07096996158361435, 0.35292747616767883, -0.1703193187713623, -0.24042406678199768, -0.03697285056114197, 0.01010182872414589, -0.1469656080007553, 0.7036793231964111, -0.02670459821820259, -0.856107771396637, 0.2180463820695877, -0.3574245572090149, 0.4744112491607666, 0.09983618557453156, -0.1517408788204193, 0.28706473112106323, -0.08744969964027405, -0.2905711233615875, 0.2106199413537979, -0.07158602774143219, 0.2305331528186798, -0.13472187519073486, -0.10410885512828827, -0.1779254674911499, -0.16461558640003204, 0.09891694784164429, 0.5177570581436157, -0.1098463237285614, -0.00532300490885973, 0.2700636684894562, -0.06282904744148254, -0.14847606420516968, 0.16349618136882782, 0.2622058391571045, 1.152252435684204, -0.4887791574001312, 0.29827946424484253, -0.032741811126470566, 0.05954951420426369, 0.8771725296974182, 0.568290650844574, 0.043427590280771255, 0.019110435619950294, -0.28888407349586487, 0.324568510055542, 0.729759931564331, -0.07114696502685547, -0.28244462609291077, 0.5856402516365051, 0.6348760724067688, 0.4470354914665222, -0.1203434094786644, 0.33177629113197327, -0.4663286805152893, 0.5171203017234802, -0.07745788991451263, 0.16706570982933044, 0.08875398337841034, -0.09615353494882584, -0.2127949297428131, -0.08247151225805283, 0.18863870203495026, 0.16959761083126068, 0.08718086034059525, -0.025261329486966133], [-0.4098246693611145, -0.05158397555351257, 0.07741844654083252, -0.5873200297355652, 0.4856773316860199, 1.27315092086792, 0.7790385484695435, 0.18540985882282257, 0.2764974534511566, 0.08162436634302139, 1.0847747325897217, -0.32412973046302795, 0.14112047851085663, 0.13625705242156982, -0.2642938792705536, -0.09532590955495834, -0.4099622070789337, 0.07588919252157211, -0.04400810971856117, -0.27922293543815613, -0.2729817032814026, -0.5840965509414673, -0.05248723179101944, -0.5641679763793945, 0.30176782608032227, -0.22010505199432373, 0.0030149787198752165, -0.2693943679332733, -0.011286111548542976, 0.09146710485219955, 0.14421701431274414, 0.2759461998939514, -0.059111740440130234, 0.07852340489625931, 0.0019057074096053839, -0.02803364396095276, -0.14958618581295013, -0.16138768196105957, -0.14483973383903503, -0.05782201886177063, -0.17092178761959076, 0.12859505414962769, -0.12249509245157242, 0.09397512674331665, 0.18126556277275085, 0.15357732772827148, 0.07798075675964355, -0.05759376287460327, -0.13783381879329681, 0.1918838918209076, -0.009730055928230286, -0.010303527116775513, 0.038099125027656555, 0.035173818469047546, -0.054777592420578, -0.03896106779575348, -0.06651204824447632, 0.12059977650642395, -0.17996138334274292, -0.08784142136573792, -0.1424354463815689, 0.11002743244171143, -0.12401541322469711, -0.10517176240682602, -0.007175534963607788, -0.17206241190433502, 0.07098335027694702, -0.02826043963432312, 0.10766929388046265, 0.16982054710388184, 0.10150128602981567, 0.1526668667793274, -0.6696887016296387, 0.08107214421033859, -0.06317268311977386, -0.16529516875743866, -0.09054943919181824, 0.8565048575401306, -0.11769502609968185, 0.04853316769003868, 0.14176690578460693, 0.10591740161180496, -0.3183619976043701, -0.02576279826462269, -0.3879126012325287, -0.2016148865222931, 0.9880833029747009, -0.08069629967212677, -1.1221778392791748, 0.23996177315711975, -0.22642399370670319, 0.44538116455078125, 0.20040734112262726, -0.13362714648246765, 0.11388286203145981, 0.09343766421079636, -0.2571060061454773, 0.49667513370513916, -0.13749949634075165, 0.2273516207933426, -0.15482787787914276, 0.10587331652641296, -0.02285936288535595, -0.007778554689139128, -0.09213957190513611, 0.5804021954536438, -0.2549789547920227, 0.1983945667743683, 0.3300434648990631, 0.12239567935466766, 0.09438446164131165, 0.5338412523269653, 0.7044988870620728, 0.9061921238899231, -0.5464962720870972, 0.04344545304775238, 0.09406164288520813, -0.14146307110786438, 0.8796268105506897, 0.4151163399219513, 0.6309611797332764, -0.35419729351997375, -0.35285839438438416, 0.3363277018070221, 0.5052842497825623, 0.040512122213840485, -0.25439324975013733, 0.7570388913154602, 0.05700342729687691, -0.2272631675004959, 0.006120439153164625, 0.5057255029678345, -0.38999509811401367, -0.02491895854473114, 0.10988500714302063, -0.17343004047870636, -0.006270332261919975, -0.12382389605045319, -0.17082172632217407, -0.1268586367368698, -0.12014501541852951, 0.13459265232086182, -0.015333912335336208, 0.2015724778175354], [0.013105237856507301, 0.13727356493473053, 0.08293236792087555, 1.2293992042541504, -0.46825873851776123, -1.493250846862793, -0.49453726410865784, 0.15187232196331024, 0.001823344500735402, -0.05318547785282135, -0.6840854287147522, 0.1580210030078888, 0.061337895691394806, 0.05618396773934364, -0.10105074197053909, 0.22763536870479584, 0.33972394466400146, -0.11797429621219635, 0.02539939619600773, 0.4229346513748169, -0.1010725125670433, 0.21422737836837769, 0.1885201781988144, 0.6537313461303711, -0.27324777841567993, 0.13836346566677094, 0.0558956116437912, 0.17023533582687378, 0.08332552015781403, -0.04666232690215111, -0.5880762338638306, -0.12063436210155487, -0.15846729278564453, -0.12542635202407837, -0.15142028033733368, -0.0937419906258583, -0.019108474254608154, 0.16822189092636108, 0.13775888085365295, 0.1758042573928833, 0.176601380109787, 0.07702532410621643, 0.11424925923347473, -0.10706351697444916, -0.04701261222362518, -0.022358953952789307, -0.16522608697414398, 0.17177122831344604, 0.1130443811416626, -0.025389790534973145, -0.04259723424911499, 0.0026170313358306885, 0.06962525844573975, 0.1254551112651825, 0.04093208909034729, 0.06650924682617188, -0.1544310450553894, -0.1656113713979721, -0.1860857605934143, -0.06387978792190552, -0.1398819535970688, -0.08036915212869644, 0.06414470076560974, -0.11951138824224472, -0.033261701464653015, -0.03512072563171387, 0.14197561144828796, -0.12373682111501694, 0.08547407388687134, -0.022691547870635986, -0.028842031955718994, -0.01611192524433136, -0.06555112451314926, -0.22423720359802246, -0.03161781281232834, -0.09014175087213516, 0.08014771342277527, -0.5888084173202515, 0.11354441195726395, 0.16365918517112732, -0.1921045035123825, 0.17374563217163086, 0.2941541075706482, -0.03568730503320694, 0.23708994686603546, 0.28353530168533325, -0.4456028640270233, 0.17709602415561676, 0.7563119530677795, -0.22042323648929596, 0.3570270538330078, -0.42967745661735535, -0.06458321213722229, 0.058761823922395706, -0.24826383590698242, 0.005322475451976061, -0.16510336101055145, -0.08830390125513077, -0.06815315783023834, -0.24646179378032684, 0.017929330468177795, 0.11530408263206482, 0.19468975067138672, 0.02768547087907791, 0.24652956426143646, -0.7549431324005127, 0.06132351607084274, 0.019901826977729797, -0.26849931478500366, -0.06307157129049301, 0.01845306158065796, -0.4109805226325989, -0.16885673999786377, -1.1212342977523804, 0.37465932965278625, 0.11321336030960083, -0.034836865961551666, 0.1880950778722763, -0.7013691663742065, -0.10632201284170151, -0.041572168469429016, 0.35031336545944214, 0.1205831915140152, -0.34299442172050476, -0.39435887336730957, 0.11938440054655075, 0.21394526958465576, -0.7015771865844727, 0.038612037897109985, -0.135328009724617, -0.06277428567409515, -0.7079426646232605, 0.5906733870506287, -0.4917224645614624, -0.16358214616775513, -0.03381741791963577, -0.0049447789788246155, 0.08512557297945023, 0.26485908031463623, 0.12957344949245453, 0.06580018252134323, -0.031188949942588806, -0.20694109797477722, -0.07194501161575317], [0.3224906325340271, 0.1366068422794342, 0.10695929825305939, -0.3549616038799286, -0.1928447037935257, -1.1551960706710815, -0.6643150448799133, 0.12839284539222717, -0.4059580862522125, 0.05897222459316254, -0.9981313347816467, 0.09869878739118576, 0.41801339387893677, -0.7456559538841248, 0.1288011372089386, 0.05778559669852257, 0.1980540156364441, 0.1370803564786911, -0.02914590574800968, 0.18155883252620697, -0.33004581928253174, 0.32184481620788574, -0.29415419697761536, 0.03671528771519661, -0.7763236165046692, 0.477731853723526, -0.175729900598526, 0.01835489459335804, 0.1992316097021103, -0.18162153661251068, -0.09367942065000534, -0.07154273986816406, -0.05338667333126068, -0.3368411660194397, -0.04259370639920235, 0.1131250411272049, -0.08048009872436523, -0.061457499861717224, -0.14933669567108154, -0.104613296687603, -0.18542411923408508, -0.15086254477500916, -0.01153227686882019, -0.06139078736305237, -0.06894472986459732, 0.008485913276672363, 0.018692627549171448, 0.028816401958465576, 0.0795682966709137, -0.18276363611221313, -0.12125733494758606, -0.1713884323835373, 0.051676809787750244, 0.045881837606430054, -0.1692650020122528, 0.12147995829582214, -0.16077251732349396, -0.07560048252344131, 0.005818009376525879, 0.041267916560173035, 0.12500157952308655, -0.1424761712551117, -0.1315743327140808, -0.051945239305496216, -0.0002781301736831665, -0.17224131524562836, 0.14565080404281616, -0.13673189282417297, -0.1667657047510147, 0.08968186378479004, 0.017705604434013367, -0.18374520540237427, 0.5123888254165649, 0.03102768026292324, 0.029157081618905067, 0.6436808705329895, -0.10596033930778503, -0.611270010471344, 0.11254200339317322, -0.16068735718727112, -0.21997711062431335, -0.007481749635189772, 0.2750578224658966, 0.22915087640285492, 0.17983904480934143, 0.22645768523216248, -0.8159067034721375, -0.20245243608951569, 1.2872670888900757, -0.6465268135070801, -0.0008937199017964303, -0.1807931810617447, 0.06078849360346794, 0.017608610913157463, -0.15386353433132172, -0.058562830090522766, -0.0008374964818358421, -0.8989151120185852, 0.18342940509319305, 0.11354105919599533, 0.3600635528564453, -0.25041699409484863, 0.06469504535198212, -0.03731109946966171, -0.40970876812934875, -0.25163301825523376, -0.196104496717453, 0.16720527410507202, -0.10476818680763245, -0.02470526099205017, -0.09498342871665955, 0.019872289150953293, -0.020698171108961105, -0.1661265790462494, -0.027257492765784264, 0.07571021467447281, -0.08660612255334854, -0.3234044015407562, -1.0298761129379272, -0.6672471165657043, -0.2895490527153015, -0.1414072960615158, -0.05468105524778366, -0.24165169894695282, -0.3595009446144104, 0.08408573269844055, 0.16133706271648407, -0.7491280436515808, -0.3372439444065094, -0.3322790265083313, 0.28329959511756897, -0.30712375044822693, 0.051122937351465225, -0.8594221472740173, -0.05627400800585747, 0.15478791296482086, -0.1781783550977707, 0.508708119392395, -0.04867587983608246, 0.06232189014554024, -0.02265975810587406, -0.12130963057279587, -0.17521978914737701, -0.02737337350845337], [0.27258193492889404, 0.2015741914510727, 0.06277026981115341, 0.5184943675994873, -0.479870080947876, -1.0976313352584839, -0.6297397017478943, -0.22846461832523346, -0.1787121742963791, -0.11969411373138428, -0.9907603859901428, 0.26130151748657227, -0.6853255033493042, -0.1286853402853012, 0.19250942766666412, 0.11509343236684799, 0.5347219705581665, 0.10167296975851059, 0.08113960921764374, 0.4564943313598633, 0.12091279029846191, 0.6354148387908936, 0.2675573527812958, 0.6857032179832458, -0.1490335315465927, 0.10947488993406296, -0.06314964592456818, 0.22703547775745392, -0.2963372468948364, -0.05877108499407768, -0.29239094257354736, -0.2700844705104828, -0.263480544090271, -0.27178674936294556, -0.299638032913208, -0.2717632055282593, -0.18831303715705872, 