{"conv1d": {"bias:0": [-0.00477589713409543, -0.002170138992369175, 0.006967962719500065, -0.020653780549764633, -0.002669247565791011, 0.02451798878610134, -0.013452226296067238, 0.011991817504167557, 5.665939534083009e-05, -0.000773683306761086], "kernel:0": [[[0.7033525109291077, 0.7277284860610962, -0.13587024807929993, 0.2837693393230438, -0.639401376247406, 0.0842372477054596, -0.13119785487651825, 0.23496608436107635, -0.4341011047363281, 0.20786702632904053]], [[1.0409142971038818, 0.8609669208526611, 0.19915157556533813, -0.17314447462558746, -0.5704099535942078, -0.226682648062706, -0.04826639965176582, 0.08856821805238724, -0.3420560956001282, 0.04724486917257309]], [[0.9624068737030029, 0.8759831190109253, 0.17822979390621185, -0.31837737560272217, -0.42054373025894165, -0.1414949893951416, 0.14299547672271729, 0.24739055335521698, -0.8372451663017273, -0.3442232012748718]], [[1.1070619821548462, 1.0794700384140015, 0.13754749298095703, -0.750452995300293, -0.18737350404262543, -0.3793877959251404, 0.41007259488105774, -0.00847626943141222, -0.9473041296005249, -0.448428213596344]], [[1.1084487438201904, 1.0308610200881958, 0.17545704543590546, -1.072619080543518, -0.13209225237369537, -0.5458498001098633, 0.5965897440910339, -0.3835141658782959, -0.8237118124961853, -0.5081667900085449]], [[0.5580312609672546, 0.8073045611381531, 0.19337248802185059, -1.150342583656311, 0.4103788435459137, -0.44894853234291077, 0.46042969822883606, -0.4076266884803772, -0.7391610145568848, -0.6664249300956726]], [[0.38399624824523926, 0.5901622772216797, 0.23661576211452484, -0.978861391544342, 0.7773715257644653, -0.7434717416763306, 0.6490586996078491, -0.41764554381370544, -0.4143032133579254, -0.3869348466396332]], [[-0.450949490070343, 0.4250977039337158, 0.561866044998169, -0.9653763175010681, 0.7431167364120483, -0.6815438270568848, 0.5930469036102295, -0.7708836793899536, -0.5471217632293701, -0.793678343296051]], [[-0.010006321594119072, 0.33351752161979675, 0.105864979326725, -0.7660115957260132, 0.4855557680130005, -0.5550470948219299, 0.08196508884429932, -0.1955767124891281, -0.19874852895736694, -0.1948961615562439]], [[-0.2992109954357147, -0.06997187435626984, 0.24555064737796783, -0.8710471987724304, 0.9431461095809937, -0.7993102073669434, 0.4326723515987396, -0.7589772939682007, -0.17034751176834106, -0.5094714760780334]], [[-0.4908785820007324, -0.215864360332489, 0.6979281306266785, -0.5389313697814941, 1.3139890432357788, -0.6767516136169434, 0.8223949074745178, -1.0021289587020874, -0.1939409226179123, -0.6158201694488525]], [[-1.0747027397155762, -0.6075880527496338, 0.7862040996551514, -0.2373189479112625, 1.1993426084518433, -0.97413569688797, 0.8686097264289856, -1.3897850513458252, -0.14073172211647034, -0.837550699710846]]]}, "conv1d_1": {"bias:0": [0.07328832894563675, 0.05513854697346687, -0.011432838626205921, -0.054157767444849014, 0.03762926906347275, -0.03704935312271118, -0.04583751782774925, -0.0218955148011446, 0.07744071632623672, 0.02045551687479019], "kernel:0": [[[-0.027665168046951294, -0.05097050219774246, 0.15060798823833466, -0.14830338954925537, 0.06931151449680328, 0.05321145057678223, 0.12924186885356903, 0.14940638840198517, 0.09012429416179657, -0.10313405096530914], [-0.05915337800979614, 0.006701365113258362, -0.11187435686588287, -0.047495037317276, -0.15528994798660278, -0.12936446070671082, 0.07719993591308594, 0.1562051922082901, 0.10279043018817902, 0.12880097329616547], [-0.1150655746459961, -0.06755519658327103, 0.12527231872081757, 0.08893121778964996, -0.0892396941781044, 0.06748168170452118, 0.033415019512176514, 0.06242930889129639, 0.14999397099018097, 0.14014483988285065], [0.09711475670337677, -0.11848849058151245, -0.06431850790977478, 0.008893579244613647, 0.06921319663524628, -0.12961755692958832, 0.15134362876415253, -0.029918715357780457, -0.14965537190437317, -0.047398194670677185], [-0.02908533811569214, -0.14504103362560272, -0.09981925040483475, 0.15425269305706024, -0.006619453430175781, -0.036981187760829926, 0.07412515580654144, -0.07846426218748093, 0.010088056325912476, 0.1337154358625412], [0.10921002924442291, 0.12495531141757965, 0.09786929190158844, 0.11825574934482574, 0.028233498334884644, 0.10896928608417511, -0.13164378702640533, -0.018112748861312866, -0.12056349962949753, 0.016362249851226807], [-0.10494863986968994, -0.023982077836990356, -0.10537311434745789, -0.13906317949295044, 0.11560173332691193, -0.05540657043457031, -0.1286008208990097, -0.047545403242111206, -0.024097919464111328, 0.08489832282066345], [-0.023736730217933655, 0.06985993683338165, 0.13628797233104706, -0.019360005855560303, 0.03610077500343323, -0.05798732489347458, -0.1496627926826477, 0.09067350625991821, 0.1528482586145401, 0.07648515701293945], [0.04746110737323761, -0.13682660460472107, -0.14542628824710846, 0.10676522552967072, 0.029039353132247925, 0.07595987617969513, 0.10565419495105743, 0.13452382385730743, -0.13206946849822998, -0.08046957105398178], [0.0817258358001709, 0.09504537284374237, 0.01520855724811554, -0.019284531474113464, 0.13530723750591278, -0.08120056241750717, 0.09372149407863617, 0.14038710296154022, 0.014136970043182373, -0.13114818930625916]], [[-0.07611660659313202, -0.1113550141453743, 0.22665570676326752, 0.15401360392570496, -0.19630812108516693, -0.031933899968862534, 0.1307988464832306, -0.10531514137983322, -0.03949437662959099, 0.21053940057754517], [0.023026620969176292, -0.013463437557220459, 0.2971230447292328, -0.07455120235681534, 0.09138325601816177, -0.11665046960115433, 0.06564488261938095, 0.026400040835142136, 0.14862167835235596, 0.10805856436491013], [-0.022230153903365135, 0.2055257260799408, -0.03200830891728401, -0.05975167453289032, 0.21320395171642303, 0.005945828277617693, -0.19297002255916595, 0.07614944875240326, -0.03113749623298645, -0.0010518135968595743], [0.12308893352746964, -0.2198098599910736, 0.004685086198151112, 0.0044565056450665, -0.09236710518598557, -0.03936326876282692, 0.05386781692504883, 0.0011474122293293476, -0.17480461299419403, -0.25573843717575073], [0.09243665635585785, 0.07257167994976044, 0.047493524849414825, -0.09988586604595184, 0.01832333765923977, 0.22133469581604004, -0.011483630165457726, 0.11915770918130875, 0.16885149478912354, 0.040194567292928696], [0.07941669225692749, -0.07417310774326324, -0.05053655430674553, -0.040874987840652466, -0.09423781931400299, -0.2269575595855713, -0.1243903711438179, -0.04392923042178154, -0.1693478375673294, -0.00460656126961112], [-0.059264734387397766, 0.008208565413951874, -0.09479493647813797, 0.08950002491474152, -0.004596899729222059, 0.16168703138828278, -0.00994736049324274, 0.0655980259180069, -0.14587216079235077, 0.09246985614299774], [0.1349509209394455, 0.07239234447479248, -0.13135948777198792, 0.08074672520160675, -0.2424260377883911, -0.027067100629210472, -0.04465171694755554, 0.040251538157463074, -0.04407382383942604, -0.04847119003534317], [0.12941735982894897, -0.1653636246919632, -0.03224632143974304, 0.17816781997680664, -0.015031353570520878, -0.11309269070625305, 0.21590618789196014, -0.04701640456914902, -0.022194156423211098, -0.0047881267964839935], [-0.06853348761796951, -0.19267146289348602, -0.1742766946554184, 0.18645671010017395, 0.035897839814424515, -0.0233871191740036, -0.04947977885603905, 0.026999089866876602, 0.11743110418319702, -0.0307131540030241]], [[-0.10287583619356155, -0.12271341681480408, -0.06939858198165894, 0.00810026191174984, 0.05911745876073837, -0.13527590036392212, -0.13239136338233948, 0.05849786847829819, -0.015071024186909199, 0.136886864900589], [0.12413055449724197, 0.12569354474544525, -0.020537637174129486, -0.004280144814401865, 0.07995001971721649, -0.0811232328414917, 0.17596283555030823, 0.08095743507146835, -0.025464829057455063, 0.18387170135974884], [-0.10961513221263885, -0.08066948503255844, -0.05556465685367584, -0.07551378011703491, 0.026606464758515358, -0.0461304597556591, -0.12222019582986832, -0.12736080586910248, 0.08710844814777374, 0.008523581549525261], [0.02911381796002388, -0.046295274049043655, 0.1492156982421875, 0.03031364642083645, -0.01409980095922947, 0.06883193552494049, 0.07972901314496994, 0.046972375363111496, -0.04122166708111763, -0.2168092131614685], [0.13361208140850067, 0.039352208375930786, 0.10493168234825134, -0.11156156659126282, 0.11803290247917175, -0.0641070157289505, 0.07903782278299332, -0.018801091238856316, 0.08120350539684296, 0.09416098892688751], [0.17310118675231934, 0.05067352578043938, -0.1148877739906311, -0.08068583905696869, 0.03352094814181328, -0.13943171501159668, 0.06199154257774353, 0.05289763584733009, 0.11993449926376343, 0.10932549089193344], [0.12405762821435928, 0.07779514044523239, -0.02057795412838459, 0.059174127876758575, -0.04257672652602196, 0.052208952605724335, 0.002673519542440772, -0.15706120431423187, -0.1391317993402481, 0.06807877868413925], [-0.07368361204862595, -0.020497554913163185, 0.060595493763685226, -0.11463163048028946, -0.09826631098985672, 0.03536634147167206, -0.11753571033477783, -0.12229223549365997, 0.04304167628288269, 0.11221438646316528], [0.13375549018383026, -0.04202137142419815, 0.13797782361507416, -0.042841240763664246, 0.058318957686424255, -0.1498742401599884, -0.07032299786806107, 0.004548858851194382, 0.15823504328727722, 0.023757008835673332], [0.09117398411035538, -0.06355620175600052, 0.1467755138874054, -0.02699020877480507, 0.14470729231834412, -0.05739346891641617, 0.12449794262647629, -0.07565051317214966, -0.06264124810695648, 0.07147727906703949]], [[0.08002985268831253, 0.026002749800682068, -0.035622596740722656, 0.0676705613732338, 0.1213650181889534, -0.0844242051243782, 0.04782178997993469, 0.2653283476829529, -0.07612305134534836, 0.11124997586011887], [-0.09347178786993027, -0.16595935821533203, 0.0017858988139778376, -0.04894435778260231, -0.13644930720329285, -0.0007701615104451776, -0.09897571802139282, -0.05420196056365967, 0.1422821581363678, -0.09454917907714844], [0.013696822337806225, -0.09302518516778946, 0.0664210394024849, 0.09231147170066833, -0.1806463599205017, -0.1433129906654358, 0.02071315236389637, -0.0029739884193986654, 0.06122244894504547, -0.06596013903617859], [-0.015608948655426502, -0.06705766916275024, -0.163800910115242, 0.10316970199346542, -0.04006889462471008, -0.04170705005526543, 0.12322457879781723, -0.013790985569357872, -0.1608906388282776, -0.10548007488250732], [0.1850598007440567, -0.1513892412185669, 0.04315672814846039, -0.1677115112543106, -0.003953708801418543, -0.06924072653055191, -0.08141262829303741, 0.06111706793308258, -0.05465768277645111, 0.08378437906503677], [0.06281542778015137, -0.08716066926717758, -0.02198288030922413, 0.1237458810210228, -0.07574144005775452, -0.1161591112613678, -0.09373404830694199, -0.03439800813794136, -0.07290078699588776, -0.09039784222841263], [-0.11348129063844681, -0.03637120500206947, -0.0013410353567451239, 0.11117833852767944, 0.05674789100885391, -0.07568641006946564, 0.11141820251941681, 0.04403887316584587, -0.0981355756521225, 0.055941492319107056], [0.02264081872999668, 0.16066862642765045, 0.03537590429186821, -0.05162927880883217, -0.0011354597518220544, -0.11430168151855469, 0.11139308661222458, 0.18801213800907135, -0.08285093307495117, 0.05933026596903801], [-0.0347052738070488, -0.0024770107120275497, -0.14734122157096863, 0.14447836577892303, -0.06313037872314453, 0.0723116472363472, -0.02726239338517189, 0.10368452966213226, 0.06938387453556061, -0.026993386447429657], [0.01617102324962616, 0.08615688234567642, 0.1095716804265976, -0.11961030960083008, 0.0671643316745758, 0.013342425227165222, 0.051021162420511246, -0.03529241308569908, -0.014535407535731792, 0.14022494852542877]], [[0.10355991870164871, 0.03711948171257973, 0.19680751860141754, 0.08308320492506027, 0.05445411801338196, -0.015972675755620003, 0.09611830115318298, 0.024790935218334198, 0.14892004430294037, 0.022629614919424057], [0.13198311626911163, -0.08013352751731873, 0.05510123819112778, -0.003745271125808358, -0.057105425745248795, -0.010091491974890232, -0.14921817183494568, 0.007337639573961496, -0.11408503353595734, -0.08953262120485306], [0.020879492163658142, -0.039947353303432465, 0.05119391530752182, -0.0939938947558403, -0.10121190547943115, -0.07732592523097992, 0.08642682433128357, 0.09377400577068329, 0.008738137781620026, 0.02170533686876297], [-0.0812113955616951, 0.13101090490818024, -0.031917400658130646, -0.007881367579102516, 0.00918172113597393, 0.08255872130393982, -0.15189777314662933, -0.08159809559583664, -0.01593916304409504, -0.004224902950227261], [0.08059678226709366, -0.01905187964439392, -0.11320763826370239, 0.050284482538700104, -0.12222970277070999, 0.05076341703534126, 0.028873663395643234, -0.05410393700003624, -0.017228879034519196, 0.1253109872341156], [0.06780753284692764, 0.1304992288351059, 0.12532666325569153, 0.03589153662323952, -0.01384618878364563, -0.12331623584032059, 0.009777924045920372, 0.12798626720905304, 0.11789772659540176, 0.15626294910907745], [-0.05131286382675171, 0.09964921325445175, -0.08654090017080307, 0.1512894332408905, -0.009263202548027039, -0.08554576337337494, 0.0319923534989357, -0.06669411063194275, 0.15941636264324188, -0.056176841259002686], [0.1007828563451767, 0.11093033850193024, -0.0309991966933012, -0.1478719860315323, 0.17894281446933746, 0.0342072993516922, 0.08621523529291153, 0.0031859204173088074, -0.11495324224233627, -0.10302475094795227], [-0.001992235193029046, -0.15241961181163788, 0.03986991196870804, -0.10009729117155075, 0.14059317111968994, 0.05909380689263344, -0.03763968497514725, 0.23381607234477997, -0.0797637403011322, -0.019820259883999825], [-0.0627841204404831, 0.09169534593820572, -0.19117212295532227, -0.0045627411454916, -0.027130503207445145, 0.11638396978378296, 0.12718509137630463, 0.008967149071395397, -0.0023696282878518105, -0.05296408757567406]], [[0.07420767843723297, 0.0666438639163971, 0.08600053936243057, 0.07471667230129242, 0.12524999678134918, 0.02234036847949028, 0.18724428117275238, 0.10328375548124313, -0.08179416507482529, -0.12365151941776276], [0.12474989891052246, 0.11569663882255554, 0.10061345249414444, 0.0807710811495781, -0.04470803588628769, 0.127536803483963, -0.09836765378713608, -0.2814716696739197, -0.02661055326461792, -0.013723433017730713], [0.019107991829514503, 0.12524111568927765, -0.2257983386516571, 0.029354270547628403, -0.031989701092243195, -0.021835871040821075, 0.17117245495319366, -0.10684889554977417, 0.00783937331289053, -0.004515236709266901], [-0.02164793573319912, -0.10799536854028702, 0.2917446196079254, -0.21285662055015564, 0.2400362491607666, 0.0015488594071939588, -0.08656387776136398, 0.034296248108148575, 0.10989102721214294, -0.04799140244722366], [0.18205545842647552, -0.11722206324338913, -0.050667788833379745, 0.049868300557136536, -0.2481991946697235, 0.028824152424931526, 0.18205013871192932, -0.06754543632268906, -0.12217357009649277, -0.2113567739725113], [-0.22204606235027313, 0.11333460360765457, 0.1675558090209961, -0.26622846722602844, 0.12182985246181488, 0.14192938804626465, -0.09558729827404022, 0.11103231459856033, 0.06501445919275284, -0.08381553739309311], [0.23622222244739532, -0.2078581005334854, -0.1360858529806137, 0.04803274944424629, -0.03933057561516762, -0.08308163285255432, 0.06993693113327026, 0.06417689472436905, 0.14874695241451263, -0.12256012111902237], [-0.027611587196588516, 0.06442397832870483, 0.17564593255519867, -0.06559135019779205, 0.12516988813877106, 0.15657170116901398, -0.0267215333878994, 0.004333409946411848, -0.022289305925369263, 0.022109854966402054], [0.006739933043718338, 0.06397376209497452, 0.012700132094323635, -0.25774359703063965, 0.09572342783212662, -0.0018964472692459822, 0.11712178587913513, -0.06195484846830368, -0.0051780869252979755, 0.04516136646270752], [-0.04915889352560043, 0.16174836456775665, 0.0729357972741127, -0.2534368932247162, 0.1744730919599533, 0.04674715921282768, -0.09320017695426941, 0.1681734174489975, -0.12320838123559952, -0.0515412837266922]], [[0.08145351707935333, 0.22380653023719788, 0.1727534681558609, 0.1970680058002472, 0.008713856339454651, -0.03602536395192146, -0.0031696863006800413, -0.2600800096988678, 0.042854953557252884, -0.016042428091168404], [0.17616765201091766, -0.015351849608123302, 0.013977667316794395, 0.28607502579689026, -0.24615979194641113, 0.012692229822278023, 0.1644061803817749, -0.07264451682567596, -0.1310514360666275, -0.25274813175201416], [0.22084206342697144, -0.04043984040617943, -0.25684839487075806, 0.11297466605901718, 0.018313314765691757, 0.023628665134310722, 0.09512974321842194, 0.020255019888281822, 0.24118410050868988, 0.18940438330173492], [-0.014417683705687523, -0.06036870554089546, 0.3079203963279724, -0.31029772758483887, 0.05817790701985359, -0.42166104912757874, 0.03266463428735733, 0.24891012907028198, 0.029690755531191826, 0.0480416975915432], [0.026408541947603226, -0.2353978306055069, -0.3120728135108948, 0.175004780292511, -0.1373082548379898, 0.19096998870372772, 0.13792148232460022, -0.01680603250861168, 0.012466155923902988, 0.042900450527668], [-0.12579183280467987, 0.16384710371494293, 0.23751188814640045, -0.43875542283058167, 0.1246579959988594, 0.025504978373646736, -0.24834828078746796, 0.03142790123820305, -0.1554519087076187, -0.011546260677278042], [0.05497905984520912, -0.29038211703300476, -0.4096691310405731, 0.20452041923999786, -0.10174962133169174, -0.13440962135791779, -0.02752102166414261, 0.106757752597332, 0.0569208562374115, -0.03701459988951683], [-0.02408762089908123, 0.17385071516036987, 0.14624714851379395, -0.13960379362106323, 0.03819502145051956, -0.185960054397583, -0.1998361498117447, 0.10222454369068146, -0.2655273973941803, 0.1098983958363533], [-0.06473229080438614, 0.16979673504829407, 0.21102175116539001, -0.3360922038555145, 0.12282181531190872, -0.09652501344680786, -0.07384427636861801, 0.10576215386390686, -0.22258919477462769, -0.044350337237119675], [-0.12275785207748413, 0.17284180223941803, 0.4043548107147217, -0.27275392413139343, -0.0330021008849144, -0.16290637850761414, 0.01845463551580906, 0.1585025042295456, -0.1182449609041214, -0.14338268339633942]], [[-0.03063550777733326, 0.20793014764785767, -0.3760622441768646, 0.13660907745361328, -0.5894815921783447, -0.023858580738306046, 0.3703838586807251, -0.7380704283714294, 0.21628771722316742, -0.008370316587388515], [-0.0647369846701622, -0.32964026927948, -0.38034215569496155, 0.10369457304477692, 0.05822150781750679, 0.12909850478172302, 0.15630070865154266, -0.2855459749698639, 0.579727053642273, 0.06745656579732895], [0.09609580785036087, -0.4384763836860657, -0.34497320652008057, 0.2058308869600296, 0.46222424507141113, 0.7138190269470215, 0.1087510958313942, -0.15888254344463348, 0.5808892846107483, 0.007882860489189625], [0.028408043086528778, 0.3397538959980011, 0.04557628929615021, 0.09001263976097107, -0.36467012763023376, -0.8388254642486572, 0.36375847458839417, 0.6654433608055115, -0.44436386227607727, 0.3981967270374298], [0.05790587514638901, -0.5135467052459717, -0.3542090058326721, 0.17566423118114471, 0.8646183609962463, 0.8331915736198425, -0.0037582211662083864, -0.3757096529006958, 0.5453483462333679, 0.014856941998004913], [-0.05294181406497955, 0.42480576038360596, 0.3986959755420685, -0.22704383730888367, -0.5365835428237915, -0.45976966619491577, -0.1968923956155777, -0.026448829099535942, -0.38763710856437683, -0.09839525818824768], [0.351238489151001, -0.6738866567611694, -0.5483860373497009, 0.09567835181951523, 0.4569830298423767, 0.5144203901290894, 0.05577768012881279, 0.20929983258247375, 0.565348207950592, 0.11401010304689407], [-0.12707634270191193, 0.601652979850769, 0.38629430532455444, -0.18987299501895905, -0.570330023765564, -0.7934035062789917, -0.07899439334869385, 0.08485700190067291, -0.438405305147171, 0.049999136477708817], [-0.2047477513551712, 0.30317920446395874, 0.5092424154281616, -0.22748562693595886, -0.3654317855834961, -0.3793182671070099, -0.21096250414848328, -0.05715271085500717, -0.483888179063797, -0.10637976974248886], [-0.18247464299201965, 0.5156946182250977, 0.5369532108306885, -0.07210446149110794, -0.4934435188770294, -0.5875881314277649, 0.0041867149993777275, -0.02178175002336502, -0.5548675060272217, -0.20400051772594452]], [[0.8220277428627014, -0.9369451403617859, -0.7957851886749268, -0.7296388149261475, -1.4860998392105103, 2.245072603225708, 0.9197720289230347, 1.431000828742981, 0.6304455399513245, 0.3431300222873688], [0.9025236368179321, -0.9898132085800171, -1.007826805114746, -0.6118095517158508, -0.035925064235925674, -0.0003289090236648917, 0.9834391474723816, 1.9275226593017578, 0.534247636795044, 0.6843387484550476], [-0.2515474259853363, 0.23803439736366272, 0.2271376997232437, 0.10307762026786804, 0.9736465215682983, -1.4687944650650024, -0.05384569987654686, 0.34164783358573914, -0.38258710503578186, -0.050489749759435654], [-0.5440644025802612, 0.2997893691062927, 0.7156741619110107, 0.11909498274326324, -0.9130374789237976, 1.36204195022583, -0.6091701984405518, -2.1130969524383545, -0.3362389802932739, -0.40732085704803467], [-0.407672256231308, 0.5290725231170654, 0.6272224187850952, 0.4918000400066376, 1.703794002532959, -2.537355422973633, -0.3157852590084076, 0.42494142055511475, -0.5304567217826843, -0.1360923796892166], [0.09279239922761917, -0.2629038095474243, -0.11976327002048492, -0.23666581511497498, -0.9810156226158142, 1.6388485431671143, 0.04152669012546539, -0.7320297956466675, 0.2423388510942459, 0.05811918526887894], [-0.252718061208725, 0.24815478920936584, 0.33425626158714294, 0.061229318380355835, 0.7258670926094055, -1.3088831901550293, -0.16642819344997406, 0.5059736371040344, -0.37815606594085693, -0.05086935684084892], [0.26109394431114197, -0.48914575576782227, -0.524187445640564, -0.4193551242351532, -1.2913751602172852, 2.170064687728882, 0.11720064282417297, -0.4740562438964844, 0.41535621881484985, 0.14976933598518372], [-0.3689213991165161, 0.38321244716644287, 0.403781920671463, 0.19233514368534088, -0.045416779816150665, 0.4133727252483368, -0.3997105062007904, -1.2793891429901123, -0.0033502287697046995, -0.3120201826095581], [0.11147823184728622, -0.14444683492183685, -0.08796026557683945, -0.035443972796201706, -0.7309461832046509, 1.3432316780090332, -0.06049312651157379, -0.8729110360145569, 0.36105045676231384, -0.019298534840345383]], [[-1.4467912912368774, 1.4085829257965088, 1.2389591932296753, 0.0004051202558912337, 0.6066495776176453, -0.3500846326351166, -1.491098403930664, -2.0860581398010254, -1.2627900838851929, -1.0132744312286377], [-0.8527722358703613, 1.1509901285171509, 0.9842647910118103, -0.5005656480789185, -0.6921645402908325, 0.43260541558265686, -0.9120000004768372, -1.3978137969970703, -1.2203893661499023, -0.9712288975715637], [-0.5036731362342834, 0.32792210578918457, 0.34631258249282837, -0.7485987544059753, -1.063265085220337, 0.9349382519721985, -0.2690054774284363, -0.3456419110298157, -0.33743831515312195, -0.15129883587360382], [0.9027069211006165, -0.8405696153640747, -0.5508574843406677, 1.4936978816986084, 2.285351037979126, -1.3843423128128052, 0.3560870587825775, 1.0486137866973877, 0.8041753172874451, 0.506003737449646], [-0.057712819427251816, 0.19449137151241302, -0.034086354076862335, -1.5440300703048706, -2.74657940864563, 2.111480951309204, 0.3515280783176422, 0.3015725314617157, -0.12687844038009644, -0.08466729521751404], [0.6689170598983765, -0.5342851281166077, -0.4237857758998871, 1.0073894262313843, 1.5830881595611572, -1.0721585750579834, 0.32991981506347656, 0.7134736180305481, 0.5791962146759033, 0.2718956768512726], [-0.5966764092445374, 0.36146020889282227, 0.489460825920105, -0.9343469738960266, -1.5487112998962402, 1.1365960836410522, -0.35458964109420776, -0.46606889367103577, -0.5476441383361816, -0.4321083724498749], [0.3161148428916931, -0.5188465714454651, -0.17508597671985626, 0.8556442260742188, 1.6216585636138916, -1.4047825336456299, 0.15832047164440155, 0.20099930465221405, 0.4070645570755005, 0.3122142553329468], [0.6756095290184021, -0.6720273494720459, -0.6552309393882751, 0.6190045475959778, 0.749367892742157, -0.6582609415054321, 0.770542562007904, 0.8756138682365417, 0.8190024495124817, 0.5375156998634338], [0.5438945293426514, -0.642478883266449, -0.34062573313713074, 1.0182496309280396, 1.6282198429107666, -1.106067419052124, 0.18221311271190643, 0.48446106910705566, 0.617338240146637, 0.3053882420063019]], [[-0.008767679333686829, 0.02408479154109955, 0.12491558492183685, 0.15299908816814423, -0.12680508196353912, 0.01693086326122284, -0.01763617992401123, 0.03854335844516754, 0.047835931181907654, 0.14041639864444733], [0.10852943360805511, -0.10672961175441742, 0.13303135335445404, -0.09237822145223618, 0.10697631537914276, 0.14981256425380707, -0.05383741855621338, -0.11633872985839844, -0.02339765429496765, 0.0801122784614563], [-0.07735494524240494, 0.13390250504016876, 0.026530593633651733, 0.01040184497833252, 0.050157710909843445, -0.11358226835727692, 0.04705114662647247, 0.05589696764945984, -0.03166462481021881, 0.02656795084476471], [-0.1451541930437088, -0.08131199330091476, -0.12676560878753662, 0.1401030272245407, -0.08593884110450745, -0.04690206050872803, -0.12423789501190186, -0.11519043147563934, -0.029125332832336426, 0.1264391988515854], [-0.01992727816104889, 0.05668862164020538, 0.051137909293174744, 0.10070271790027618, 0.05899569392204285, 0.08829492330551147, 0.14699958264827728, 0.02063138782978058, 0.14688120782375336, -0.053471639752388], [-0.1357855200767517, 0.00865231454372406, 0.06838208436965942, 0.02775941789150238, -0.11251211166381836, -0.10288110375404358, 0.0056886374950408936, 0.027728617191314697, 0.1071813553571701, 0.017792820930480957], [0.008310481905937195, -0.028087079524993896, -0.06961407512426376, 0.1521712690591812, -0.0016176998615264893, -0.07211947441101074, 0.0016856789588928223, 0.11068947613239288, -0.052945010364055634, 0.10900305211544037], [0.019828319549560547, 0.00836913287639618, 0.035843223333358765, -0.09024621546268463, -0.14161846041679382, -0.035683535039424896, 0.12390820682048798, -0.030143767595291138, -0.13568229973316193, -0.00813119113445282], [-0.08564284443855286, 0.10683940351009369, 0.0005522966384887695, -0.09516197443008423, -0.08139225095510483, 0.12480713427066803, -0.050271064043045044, 0.14664413034915924, -0.01997978985309601, -0.09402694553136826], [-0.05197007954120636, 0.02372799813747406, -0.008379697799682617, 0.1536153107881546, -0.017255976796150208, -0.006795570254325867, -0.14466609060764313, 0.06156720221042633, -0.07094813883304596, 0.15351544320583344]], [[-0.13199293613433838, -0.10368736833333969, 0.14143683016300201, 0.009290426969528198, -0.08995383232831955, 0.02977965772151947, 0.11163915693759918, -0.03398723155260086, -0.0855512022972107, -0.15030281245708466], [-0.07160588353872299, 0.0005930960178375244, 0.1573687642812729, 0.015384450554847717, -0.12897440791130066, -0.043115027248859406, -0.10468307137489319, -0.1384199857711792, 0.04921078681945801, -0.02926938235759735], [-0.023828372359275818, 0.07659639418125153, 0.0065420567989349365, 0.034425050020217896, 0.0624319463968277, -0.04617944359779358, 0.05523797869682312, 0.04346795380115509, -0.04507464915513992, -0.044526562094688416], [0.10830895602703094, -0.15707585215568542, 0.025656625628471375, -0.06926469504833221, -0.07632169872522354, -0.04141698777675629, -0.09150338172912598, -0.06857883185148239, -0.02466142177581787, -0.017026588320732117], [0.11174161732196808, 0.006820186972618103, 0.04118002951145172, -0.055136166512966156, -0.0852002426981926, -0.1007852852344513, 0.1511678546667099, 0.009473323822021484, -0.12788736820220947, -0.117447629570961], [-0.12738411128520966, 0.13765834271907806, 0.1476108878850937, -0.09866669774055481, 0.03919307887554169, -0.03488796949386597, 0.06178155541419983, 0.023269295692443848, -0.03276105225086212, 0.12726502120494843], [-0.12849833071231842, 0.11090357601642609, 0.13915814459323883, 0.06293293833732605, 0.06483586132526398, 0.13564984500408173, 0.11272136867046356, 0.13436473906040192, 0.04945170879364014, 0.05970492959022522], [-0.14801880717277527, -0.12686999142169952, 0.09147502481937408, 0.12977872788906097, 0.0024773478507995605, -0.042166486382484436, -0.0737939104437828, -0.05883566290140152, -0.08852680027484894, -0.08698520809412003], [-0.04575655609369278, 0.06414419412612915, 0.09159298241138458, 0.1113819032907486, -0.028690502047538757, -0.003179386258125305, -0.12182033061981201, -0.06521909683942795, -0.06535642594099045, 0.08767069876194], [0.09363572299480438, 0.10962642729282379, 0.03307276964187622, 0.053897321224212646, -0.05751185119152069, -0.013683319091796875, 0.13354279100894928, -0.0652911365032196, 0.14635483920574188, 0.11464498937129974]]]}, "dense": {"bias:0": [-0.008161395788192749], "kernel:0": [[0.11038486659526825], [0.19300852715969086], [-0.15483666956424713], [-0.12940797209739685], [-0.7679680585861206], [-0.1308177262544632], [0.09382715821266174], [0.11555853486061096], [0.14174799621105194], [-0.5236891508102417]]}, "lstm": {"bias:0": [-0.324785977602005, 0.5174043774604797, -0.1526644229888916, -0.6545175313949585, -1.0083943605422974, 0.553466796875, 0.7558482885360718, 0.6964555978775024, 0.41200175881385803, -0.5695239305496216, 1.0, 1.0, 1.0, 1.0, 1.0, 1.0, 1.0, 1.0, 1.0, 1.0, 0.0075164539739489555, 0.019026177003979683, 0.07895500212907791, -0.3705783486366272, 0.09296026825904846, 0.22769193351268768, -0.0005548248300328851, -0.0860363319516182, 0.0390554741024971, -0.08890091627836227, 0.5841982364654541, 0.37366050481796265, -0.26713985204696655, -1.2841172218322754, -1.1171510219573975, -0.15501338243484497, 0.5651575922966003, 0.24328069388866425, 0.046109993010759354, -0.506370484828949], "kernel:0": [[-0.7447738647460938, 0.3971600830554962, -1.1712020635604858, -0.08602376282215118, -0.0026394715532660484, 1.2634594440460205, 0.7747182846069336, 0.1424810141324997, 0.07132310420274734, -0.08556614071130753, -0.12313807010650635, -0.22299376130104065, -0.2085372656583786, 0.1784304976463318, -0.02569708228111267, -0.3149360418319702, 0.2984505891799927, 0.022125273942947388, -0.03766825795173645, -0.1744478940963745, 0.3042411804199219, 0.9595744013786316, -0.7042551040649414, 0.13892070949077606, -0.17031331360340118, 0.5834159255027771, 0.5651528239250183, 0.2711273431777954, -0.08298853784799576, -0.00878603383898735, -0.9685496687889099, 0.39096352458000183, 1.2263343334197998, 0.21979859471321106, -0.06202460825443268, -0.1342906355857849, -0.3620412349700928, 0.15598680078983307, 0.20946109294891357, -0.007613564375787973], [0.3885173499584198, -0.009341377764940262, 1.3979169130325317, -0.18097713589668274, 0.1170475110411644, -0.6273137331008911, -0.9081233143806458, 0.30634960532188416, 0.24495764076709747, 0.10469385981559753, -0.3046947121620178, 0.33944737911224365, -0.10348695516586304, 0.14387673139572144, -0.006722956895828247, 0.25616371631622314, -0.3341270387172699, -0.22208303213119507, -0.08138883113861084, -0.21900983154773712, 0.05067169666290283, -0.7093356251716614, 0.27682554721832275, -0.05126781016588211, 0.09672636538743973, -0.468524307012558, -1.2137881517410278, -0.5353876948356628, 0.07919532060623169, 0.03356972709298134, 1.3972008228302002, -0.23401160538196564, -1.2779244184494019, -0.29372638463974, 0.021075552329421043, -0.08013013750314713, 0.48477691411972046, 0.04836985468864441, -0.0057400246150791645, -0.34978270530700684], [-0.2883795201778412, -0.5718719959259033, 1.3225587606430054, 0.23985563218593597, -0.09051605314016342, -0.7808084487915039, -0.9806879758834839, 0.20592717826366425, -0.025921320542693138, 0.14204847812652588, 0.2748967409133911, 0.0068878233432769775, -0.25448349118232727, -0.04026210308074951, -0.08852779865264893, 0.11293748021125793, 0.2017613649368286, -0.021608442068099976, 0.06236457824707031, 0.08987659215927124, -0.35794883966445923, -0.8703704476356506, 0.5280519723892212, -0.08414935320615768, -0.15144313871860504, -0.46217018365859985, -1.1202369928359985, -0.42327407002449036, -0.15958695113658905, 0.02949303574860096, 1.801282525062561, 0.0636223778128624, -0.9692122340202332, -0.8936920166015625, -0.028963200747966766, 0.12551945447921753, 0.7103623151779175, -0.20570144057273865, -0.22453103959560394, 0.34388458728790283], [-1.2928074598312378, 0.0035480945371091366, -0.5154356956481934, 0.42442408204078674, -0.2028130739927292, 0.8767904043197632, -1.561144232749939, 0.1929985135793686, 0.19284991919994354, -0.013422141782939434, -0.28031229972839355, -0.09246581792831421, 0.23019862174987793, 0.340850293636322, -0.2981068789958954, 0.2881573438644409, -0.2963328957557678, -0.30481618642807007, -0.24053674936294556, -0.23778235912322998, -0.34443947672843933, 0.38007545471191406, -0.7377676367759705, 0.21171995997428894, -0.032599251717329025, 0.2849757969379425, -0.22435002028942108, 1.514405369758606, 0.18970298767089844, -0.10196838527917862, -0.6268120408058167, 0.09566408395767212, 0.47976991534233093, 1.38710618019104, 0.11362894624471664, -0.2974577248096466, 0.9955461025238037, -0.7339299917221069, -0.3012309968471527, 0.20509806275367737], [-2.032332181930542, -0.059892360121011734, -0.7776233553886414, 0.2506219148635864, 0.025584401562809944, 1.6416150331497192, -1.369706392288208, 0.41721439361572266, 0.04990147426724434, -0.08099321275949478, 0.1710403561592102, 0.2605186104774475, 0.0097237229347229, -0.05646893382072449, 0.3308224081993103, -0.09270572662353516, 0.16189265251159668, -0.12222610414028168, -0.20435446500778198, -0.016292333602905273, -0.30014950037002563, 0.8883698582649231, 0.7017262578010559, 0.32806622982025146, 0.08289210498332977, 0.26474055647850037, -0.8612997531890869, 2.268648386001587, -0.10323389619588852, -0.043973568826913834, -0.3462769091129303, 0.47838497161865234, 1.2832438945770264, 0.03771187365055084, 0.026413166895508766, 0.06120060384273529, 1.0806729793548584, -0.6737006306648254, 0.20423108339309692, 0.02111048996448517], [0.027896851301193237, -0.04068334028124809, 0.21572895348072052, -0.03136318922042847, -0.08586685359477997, -0.5869852304458618, 0.3964325189590454, -0.06647253781557083, -0.2709597051143646, -0.14439010620117188, -0.00015279650688171387, -0.09961485862731934, 0.18352532386779785, 0.22212326526641846, 0.04873621463775635, 0.13275450468063354, -0.12233775854110718, 0.2026044726371765, -0.12451121211051941, -0.09271714091300964, -0.17171336710453033, -0.4249245226383209, -0.5628447532653809, -0.21459293365478516, 0.13679319620132446, 0.025768553838133812, 2.7246124744415283, -1.3568705320358276, 0.16755422949790955, -0.008239096030592918, 0.3611815273761749, -0.2314300388097763, -0.25626206398010254, 0.5589015483856201, 0.11363513767719269, -0.175021231174469, -0.07966098934412003, 0.10390137881040573, -0.2297697216272354, 0.16253022849559784], [0.03764079138636589, 0.3034777343273163, -1.1130586862564087, -0.14967034757137299, 0.2885265052318573, 0.6316589713096619, 1.2468726634979248, -0.21661734580993652, -0.2271607220172882, 0.4144127666950226, -0.16586269438266754, -0.0882934033870697, 0.34234893321990967, 0.040336936712265015, 0.04707542061805725, -0.21085359156131744, 0.020156502723693848, 0.34034401178359985, 0.3078770041465759, -0.012386620044708252, 0.24407660961151123, 0.9092136025428772, -0.44335153698921204, -0.2976009249687195, -0.06474453210830688, -0.07532595098018646, 0.30623659491539, -0.030415881425142288, 0.2709011435508728, 0.07989390194416046, -1.220189094543457, -0.33765456080436707, 0.8398444652557373, 0.12413027882575989, -0.21595992147922516, -0.012711978517472744, -0.40485331416130066, 0.14086832106113434, -0.18210433423519135, 0.16113780438899994], [-0.22528500854969025, 0.48387086391448975, -1.0484951734542847, -0.028749123215675354, -0.027494793757796288, 1.2189747095108032, 1.6930018663406372, -0.2066817581653595, -0.18021917343139648, -0.0736263170838356, -0.03476130962371826, 0.04315194487571716, -0.010801374912261963, 0.34111642837524414, 0.05748620629310608, 0.11430782079696655, -0.31606951355934143, 0.2170698046684265, -0.27249106764793396, -0.12192563712596893, 0.5356817245483398, 1.4784942865371704, 0.2359926998615265, -0.41193240880966187, 0.16945545375347137, 0.3906359076499939, -0.6751568913459778, 0.36382222175598145, -0.3482012152671814, 0.1499810665845871, -1.7632687091827393, 0.39459019899368286, 1.8661398887634277, -1.6474767923355103, 0.1814035177230835, -0.3933659791946411, -1.40351140499115, -0.06757019460201263, -0.2852080464363098, -0.039085641503334045], [0.2885153591632843, -0.05795743688941002, -1.2854564189910889, -0.27435410022735596, -0.037435032427310944, 0.683300793170929, 0.26169320940971375, 0.10603619366884232, -0.4319959878921509, 0.19998449087142944, 0.24558025598526, 0.33182835578918457, 0.24051183462142944, -0.2516764998435974, 0.11835458874702454, -0.14224664866924286, 0.3167226314544678, -0.2491859644651413, 0.17299950122833252, 0.07806059718132019, 0.5223122835159302, 1.0458285808563232, -0.054765503853559494, -0.31561994552612305, -0.11866135150194168, 0.3370078206062317, 1.5831403732299805, 0.7348198294639587, 0.3513656258583069, 0.07776565104722977, -0.8853933811187744, 0.4846315085887909, 0.8880549669265747, 0.33513960242271423, -0.03892171010375023, -0.026505833491683006, -0.4018196761608124, -0.05330546945333481, 0.17059271037578583, -0.11882222443819046], [0.4930255711078644, 0.29359638690948486, -0.7815136909484863, 0.027470655739307404, -0.1393793225288391, 0.4299650192260742, 0.6495254039764404, -0.3067457973957062, -0.19873307645320892, 0.12196148931980133, -0.05988001823425293, -0.2593443691730499, -0.1404341161251068, 0.18456709384918213, 0.1424938440322876, -0.1612309217453003, -0.1153946965932846, -0.3061977028846741, 0.10655981302261353, -0.2964557111263275, 0.0892534926533699, 0.48591500520706177, -0.08772462606430054, -0.13521967828273773, -0.2337956577539444, 0.24438314139842987, 0.2744326889514923, 0.3269868791103363, -0.13400782644748688, -0.315976083278656, -1.1783466339111328, -0.15103906393051147, 0.871425211429596, -0.5018843412399292, -0.19943569600582123, 0.05712420865893364, -0.3887301981449127, 0.18714101612567902, 0.04760265722870827, -0.06542786210775375]], "recurrent_kernel:0": [[0.2640564441680908, 0.12931829690933228, -0.13056421279907227, -0.06504257023334503, 0.2532932460308075, -0.044407911598682404, 0.013552442193031311, -0.14496895670890808, 0.05342695489525795, -0.048702653497457504, -0.21351483464241028, 0.018887251615524292, 0.01865946315228939, -0.2265380322933197, 0.2469504475593567, 0.2147560566663742, -0.06885787844657898, 0.16680291295051575, -0.23870849609375, -0.2333489954471588, 0.020831311121582985, -0.10426315665245056, 0.0943179801106453, 0.15553772449493408, 0.10539159923791885, -0.1941027045249939, 0.08484414964914322, 0.10559071600437164, -0.06665825843811035, 0.23220853507518768, 0.06462642550468445, -0.33651459217071533, 0.1846872717142105, 0.060560546815395355, -0.20098040997982025, 0.11338748037815094, -0.03436560556292534, 0.12395884096622467, 0.15587282180786133, 0.17839734256267548], [-0.0564073771238327, 0.020809024572372437, -0.12402081489562988, -0.025381145998835564, 0.29005536437034607, 0.13149337470531464, 0.08656434714794159, 0.1605670005083084, 0.1707683950662613, 0.015007590875029564, -0.09053687006235123, -0.14257647097110748, 0.08811477571725845, -0.08605636656284332, -0.12931688129901886, -0.23565612733364105, -0.19294072687625885, -0.047928765416145325, 0.01902144029736519, 0.08789447695016861, 0.14259876310825348, 0.1273910254240036, 0.11046484112739563, 0.10263118147850037, -0.08756570518016815, -0.19209204614162445, 0.18290403485298157, 0.03673052042722702, 0.025384236127138138, -0.015995986759662628, -0.038271188735961914, -0.3573727011680603, -0.28996485471725464, -0.2844613194465637, -0.10740811377763748, -0.14500539004802704, 0.15528720617294312, -0.1968371868133545, -0.09869888424873352, -0.3373467028141022], [0.08581142127513885, 0.010438374243676662, -0.1846451461315155, -0.08523969352245331, -0.02637040987610817, -0.02921927161514759, -0.19417604804039001, 0.06631162762641907, 0.13022606074810028, -0.032950449734926224, 0.1914774477481842, 0.2891744077205658, -0.0380234457552433, 0.4416355788707733, -0.26596224308013916, -0.047621872276067734, -0.1380719691514969, 0.020843908190727234, 0.009917683899402618, 0.057165805250406265, -0.009078760631382465, 0.1473531872034073, -0.1185876652598381, 0.024457961320877075, 0.13599181175231934, -0.46834030747413635, -0.16320449113845825, -0.17266811430454254, -0.07167509943246841, 0.023811161518096924, 0.1963573545217514, -0.12527932226657867, 0.08361410349607468, 0.09918361902236938, 0.013240202330052853, 0.09828348457813263, 0.20965968072414398, 0.07341542840003967, 0.04404771327972412, 0.09045130014419556], [-0.029417192563414574, -0.06377238780260086, -0.05892805755138397, -0.17522843182086945, 0.057389721274375916, -0.06967097520828247, -0.3275010585784912, -0.3613823354244232, 0.11462656408548355, 0.01540430635213852, -0.01596469059586525, 0.08216042071580887, -0.08194785565137863, 0.2111383080482483, 0.09053386002779007, -0.25831639766693115, 0.05894189327955246, 0.23615217208862305, 0.1526934951543808, -0.11965361982584, -0.06362346559762955, -0.011382903903722763, -0.132757306098938, -0.002662388375028968, -0.12375391274690628, 0.2699141800403595, 0.16578324139118195, -0.1436999887228012, -0.05375117063522339, -0.036081939935684204, -0.1528288871049881, -0.055794812738895416, 0.04852858558297157, 0.0009025709005072713, -0.22798675298690796, -0.1003125011920929, -0.017192821949720383, -0.09693460911512375, 0.393855482339859, -0.23115141689777374], [-0.29173848032951355, 0.08490069210529327, 0.034640420228242874, 0.008607341907918453, 0.23041552305221558, -0.24426892399787903, 0.016863837838172913, -0.249271959066391, -0.10870487987995148, 0.0009193941950798035, -0.0070481933653354645, -0.030550792813301086, -0.05023655295372009, 0.21467158198356628, -0.14129334688186646, -0.028163056820631027, -0.1957494616508484, -0.284665584564209, -0.2843233048915863, -0.05822548270225525, -0.3186250329017639, -0.13908176124095917, 0.2338380068540573, -0.029305871576070786, 0.04003918915987015, 0.03845217078924179, -0.07440736144781113, -0.12126512825489044, -0.029056008905172348, -0.05519484356045723, -0.24301902949810028, -0.19674411416053772, -0.21660977602005005, 0.0013833381235599518, 0.1830565482378006, 0.09467808902263641, -0.1833227276802063, 0.1257190704345703, 0.014882337301969528, 0.07116758823394775], [-0.17399775981903076, 0.04304457828402519, 0.03460768237709999, -0.22393883764743805, 0.021250523626804352, 0.2133415788412094, -0.18944212794303894, -0.18502934277057648, -0.19732826948165894, 0.08507857471704483, 0.1736566126346588, 0.11339890211820602, -0.13543352484703064, -0.14839646220207214, 0.09608029574155807, 0.03242046386003494, -0.08954458683729172, 0.06688432395458221, -0.03244592994451523, -0.11924289911985397, -0.2970280945301056, 0.02478453330695629, 0.0365646556019783, 0.16464146971702576, -0.19386807084083557, -0.24421267211437225, 0.007264598272740841, 0.1619427651166916, 0.011769717559218407, -0.13683225214481354, 0.03979656845331192, 0.29697534441947937, -0.17206765711307526, -0.207231804728508, -0.32738304138183594, 0.037002500146627426, 0.13703761994838715, -0.008207005448639393, -0.24268588423728943, 0.15672340989112854], [0.17624431848526, -0.01921693980693817, 0.18215155601501465, -0.32857927680015564, 0.1796700805425644, 0.09142562001943588, -0.06259330362081528, -0.1653083711862564, 0.17735904455184937, -0.034394435584545135, 0.13772174715995789, -0.15001879632472992, 0.12168748676776886, -0.015916209667921066, -0.15893769264221191, 0.34442901611328125, 0.2713932394981384, -0.13888761401176453, 0.2391083836555481, -0.020294345915317535, -0.04627377539873123, 0.21850351989269257, 0.04667090252041817, 0.05157574266195297, 0.28297457098960876, 0.10741601884365082, 0.059083785861730576, -0.13114868104457855, -0.10191372036933899, -0.051590170711278915, -0.21914659440517426, -0.09616423398256302, -0.058849312365055084, 0.11087716370820999, -0.04191388562321663, -0.17958231270313263, 0.09337209165096283, 0.09487327933311462, -0.2486778348684311, 0.07262679934501648], [0.18001748621463776, -0.09835600107908249, 0.11772315204143524, -0.06277323514223099, -0.22512158751487732, 0.19245216250419617, -0.05583387240767479, -0.045716993510723114, -0.11572621762752533, -0.009817524813115597, -0.3284841775894165, 0.01765897497534752, -0.051766376942396164, -0.009308481588959694, 0.1828073412179947, -0.1512414813041687, 0.024536240845918655, 0.16616344451904297, 0.14740592241287231, 0.09263093769550323, -0.24517029523849487, 0.13106422126293182, 0.177866131067276, -0.030295098200440407, 0.31280437111854553, -0.011750014498829842, -0.1401163786649704, -0.24746665358543396, 0.0736999586224556, -0.10707495361566544, 0.2934776246547699, -0.19331598281860352, -0.26512622833251953, -0.18590396642684937, 0.07837054133415222, 0.05493966490030289, -0.25263065099716187, 0.013452759012579918, -0.010736793279647827, 0.026219094172120094], [-0.1203627958893776, -0.03239065036177635, -0.11618595570325851, 0.15954603254795074, 0.16939695179462433, -0.03311159089207649, 0.2384737730026245, -0.09894127398729324, -0.28328439593315125, 0.1155930832028389, 0.24079656600952148, 0.08812516927719116, -0.018988950178027153, -0.005636570975184441, -0.08634814620018005, 0.02101859450340271, 0.12663042545318604, 0.027380138635635376, -0.04068185016512871, 0.030577510595321655, -0.15625786781311035, 0.20598486065864563, 0.04362892732024193, -0.21540166437625885, 0.28534314036369324, -0.011981567367911339, 0.25936591625213623, 0.03008679673075676, 0.2503812313079834, 0.0302908793091774, 0.20464415848255157, -0.03777547553181648, 0.19184935092926025, -0.15296536684036255, -0.0681750699877739, -0.39110732078552246, 0.01431635394692421, -0.11005285382270813, 0.20380571484565735, 0.13623443245887756], [-0.03604867309331894, -0.10080764442682266, -0.19317729771137238, -0.4193135201931, -0.08800681680440903, 0.046501822769641876, 0.11759096384048462, 0.19922862946987152, 0.01696302555501461, 0.12280259281396866, -0.15820711851119995, -0.22379226982593536, -0.38273394107818604, 0.223209947347641, -0.06018417701125145, -0.07627610862255096, 0.05813658982515335, -0.17097565531730652, 0.09719692170619965, -0.16833022236824036, -0.19456340372562408, -0.1647547483444214, -0.03525589406490326, -0.1253339797258377, 0.04085906594991684, 0.08354747295379639, 0.1590251475572586, 0.234196737408638, 0.009750627912580967, 0.1618080884218216, 0.11640297621488571, -0.07890745997428894, 0.2593715190887451, -0.08999095857143402, 0.03077615797519684, 0.07331108301877975, -0.006091137416660786, 0.09665703028440475, -0.17624813318252563, -0.08011686056852341]]}, "input_size": "100"}