{"conv1d": {"bias:0": [0.0005545538733713329, 0.0003013080859091133, 0.002959104022011161, -0.0028296462260186672], "kernel:0": [[[-1.1039786338806152, -1.4448902606964111, -0.6466214656829834, -0.8125687837600708]], [[0.07517945766448975, -0.011215921491384506, 0.2961205840110779, -0.31059908866882324]], [[0.9967242479324341, 0.3544786870479584, 0.08160565793514252, -0.4441378712654114]], [[1.1403155326843262, 0.4756178855895996, 0.03724970296025276, -0.44006437063217163]], [[0.8092645406723022, -0.2690441310405731, -0.6810469627380371, -0.7162752747535706]], [[0.7187333106994629, -0.17973655462265015, -0.8275423645973206, -0.735215425491333]], [[0.008380038663744926, 0.1300434023141861, -0.7543164491653442, -0.33991745114326477]], [[-0.39169833064079285, 0.3195408880710602, -0.5258012413978577, 0.09767428040504456]], [[-0.7289502024650574, 0.5853593945503235, -0.11964570730924606, 0.4638833701610565]], [[-0.7418164014816284, 0.315037339925766, 0.33725741505622864, 0.7425787448883057]], [[-0.7478829622268677, 0.7575159072875977, 0.8635976910591125, 0.39369383454322815]], [[-0.3733445405960083, 0.3112269937992096, 1.0257351398468018, 0.08410128206014633]]]}, "conv1d_1": {"bias:0": [0.020347559824585915, -0.06756961345672607, -0.007957138121128082, 0.025564365088939667], "kernel:0": [[[-0.07486802339553833, 0.08937942981719971, -0.12847739458084106, -0.10343194007873535], [-0.16856974363327026, -0.04761195182800293, -0.11792981624603271, 0.08613604307174683], [0.08447688817977905, -0.0547562837600708, -0.2124118208885193, 0.011123239994049072], [-0.13245028257369995, -0.027160704135894775, 0.22051239013671875, 0.23285603523254395]], [[-0.13792061805725098, 0.4954112768173218, 1.739257574081421, -1.1668204069137573], [-0.3075104355812073, 0.3926669955253601, 1.4156057834625244, -0.8488283157348633], [-0.05236463248729706, 0.07889606058597565, 0.783089280128479, -0.6267750859260559], [-0.8421239852905273, 0.19153761863708496, 0.6909626722335815, -0.4605240821838379]], [[-0.03693583980202675, -0.03709794208407402, -0.5079610347747803, 0.12695927917957306], [-0.18364311754703522, -0.23634006083011627, -0.24192725121974945, 0.15441392362117767], [-0.05637096241116524, 0.05048319697380066, -0.22116565704345703, 0.005339612253010273], [-0.19500653445720673, 0.1604831963777542, 0.21810048818588257, -0.0989748165011406]], [[-0.014561228454113007, -0.07133175432682037, -0.19731058180332184, -0.39890071749687195], [0.05071542039513588, -0.07059185951948166, 0.48168936371803284, -0.31450745463371277], [-0.0491323247551918, 0.09090398252010345, -0.13591274619102478, 0.08061312139034271], [0.08805036544799805, 0.0094304159283638, 0.02543819136917591, -0.19477927684783936]], [[-0.14805617928504944, -0.2601395547389984, 0.061192236840724945, -0.1646765023469925], [-0.10870740562677383, -0.2972710132598877, -0.009729074314236641, 0.15018360316753387], [0.4229064881801605, -0.009884770959615707, 0.2104688435792923, -0.18551938235759735], [0.16586622595787048, 0.3822750151157379, 0.4338899552822113, -0.03803371638059616]], [[0.09936333447694778, 0.1790439933538437, 0.21877573430538177, 0.2027898132801056], [-0.41585567593574524, -0.6825515627861023, -0.7781803011894226, -0.04381454363465309], [0.503444492816925, 0.14688058197498322, 0.10485280305147171, -0.29372650384902954], [-0.07232445478439331, 0.2351447194814682, -0.0355246476829052, 0.44485965371131897]], [[0.13238315284252167, 0.13812437653541565, 0.14670151472091675, 0.5918401479721069], [0.26763492822647095, 0.5958791375160217, 0.18413563072681427, 0.3241936266422272], [-0.5267468094825745, -0.12114071846008301, -0.7764283418655396, 0.15263022482395172], [-0.019742274656891823, -0.8168849945068359, -0.6046997904777527, 0.09030692279338837]], [[0.44718703627586365, -0.27353236079216003, 0.37947800755500793, -0.47084805369377136], [-0.5494337677955627, 0.8949298858642578, -0.2315758466720581, 0.8539711833000183], [-0.26544854044914246, 0.31669092178344727, -0.27285870909690857, -0.8374890685081482], [0.06330081075429916, -0.6873205304145813, -0.34788036346435547, -0.17963403463363647]], [[1.6429815292358398, -2.0269150733947754, 1.3323091268539429, -1.668631911277771], [0.1397729516029358, 1.1398286819458008, -1.0005217790603638, -0.16643455624580383], [-1.171502709388733, 0.09339950233697891, -0.7733776569366455, 0.9950781464576721], [-0.7688894867897034, -0.1663883626461029, -0.3353407680988312, 1.6699295043945312]], [[0.17426249384880066, -1.1525661945343018, 0.2753680348396301, -0.06617073714733124], [0.07646849751472473, -0.8181930780410767, 0.3175930678844452, -0.17854107916355133], [0.3637297451496124, -0.5045813322067261, 0.2755533754825592, 0.24434180557727814], [0.25410720705986023, -0.55644690990448, 0.10534895211458206, 0.19177879393100739]], [[0.6075724959373474, -0.16500498354434967, 0.2563365697860718, 0.010066099464893341], [-0.4394364356994629, -0.12370751798152924, 0.19805891811847687, -0.16900645196437836], [0.3128723204135895, 0.23065270483493805, 0.5378038287162781, -0.12089259177446365], [0.1615874320268631, -0.4715549945831299, -0.15009430050849915, 0.06279254704713821]], [[-0.19026237726211548, 0.132396399974823, 0.18503278493881226, -0.15606659650802612], [0.032011330127716064, 0.12177294492721558, -0.06665146350860596, 0.11314135789871216], [-0.22402429580688477, 0.08442556858062744, -0.17723292112350464, -0.20788240432739258], [0.06896334886550903, -0.014718592166900635, 0.19019001722335815, 0.1116684079170227]]]}, "dense": {"bias:0": [-0.007659558206796646], "kernel:0": [[-0.3880917429924011], [0.00042625164496712387], [-0.0010740053839981556], [0.14889457821846008], [0.11259004473686218], [0.22019851207733154], [-0.23224768042564392], [0.12354692071676254], [-0.1695440113544464], [0.32283705472946167], [0.12797565758228302], [-0.05599796026945114], [-0.12420658022165298], [-0.16134195029735565], [0.05032753571867943], [0.0018940309528261423], [0.10197427868843079], [0.004231181927025318], [0.251602441072464], [-0.38453108072280884], [-0.1850137859582901], [-0.17254474759101868], [-0.25345170497894287], [0.31807783246040344]]}, "lstm": {"lstm_cell": {}, "kernel:0": [[0.11075672507286072, -0.1301543116569519, 0.19346973299980164, -0.04965662211179733, -0.16377288103103638, -0.442915141582489, -0.016550187021493912, 2.5316452980041504, 0.3038380742073059, 1.186082124710083, -0.9064574241638184, 0.4255369305610657, -0.2104487270116806, 0.14472411572933197, -0.3473111093044281, 0.17804473638534546, -0.8870288729667664, -0.10955610126256943, -0.3338220715522766, -0.08552868664264679, -1.286454200744629, 1.3413667678833008, -1.013512134552002, 0.833107590675354, 0.208283469080925, 0.07469315826892853, 0.18882544338703156, 0.13464029133319855, 0.04242570698261261, 0.1367122083902359, -0.1558917760848999, 0.06842832267284393, -0.15376412868499756, 0.18841873109340668, -0.2444937378168106, 0.05133025348186493, 0.10287041962146759, 0.24113069474697113, 0.12797610461711884, 0.043350085616111755, 0.23204942047595978, -0.1329660564661026, -0.04413141310214996, -0.13934630155563354, -0.06596580147743225, -0.19438129663467407, 0.0768682211637497, 0.07859469950199127, -0.36229613423347473, 0.017704730853438377, 0.02639458142220974, -0.10542518645524979, -0.16632811725139618, 0.029208684340119362, -0.023335877805948257, 0.5359603762626648, -0.26202893257141113, -0.3027922809123993, -0.4689314365386963, -0.19337114691734314, -0.2896054685115814, -0.19022992253303528, 0.22832761704921722, 0.018991973251104355, 0.023131849244236946, -0.009620054624974728, 0.32819366455078125, -0.5945610404014587, 0.217624694108963, 1.316006064414978, -0.33295759558677673, 0.26527366042137146, -0.7176061272621155, -0.06139710545539856, -0.799529492855072, -1.0931466817855835, -0.5134407877922058, -0.2858985960483551, 0.27124202251434326, 0.39292827248573303, 0.26545706391334534, 0.8353269100189209, -0.9517321586608887, 0.038882505148649216, 0.546867311000824, -0.05235377326607704, 0.38165482878685, -0.023394934833049774, -1.45979905128479, 0.18713709712028503, -0.3924407362937927, 0.3668407201766968, 0.8022346496582031, -3.3170855045318604, 0.12480776011943817, 0.3777557611465454], [-0.7545768022537231, 0.6332558393478394, 0.5728071331977844, 3.9897024631500244, -0.628368079662323, 0.6583378314971924, 1.2266056537628174, -1.38036048412323, -0.20269998908042908, 0.020733855664730072, -0.632182240486145, -0.20109981298446655, 0.795012891292572, -0.2999478876590729, 0.6550726890563965, 1.2381954193115234, 4.627251625061035, 0.2669603228569031, -0.3399222493171692, -0.2484918087720871, -0.10179955512285233, 0.9518782496452332, 0.5857919454574585, -1.6662914752960205, 0.08025376498699188, -0.1367289125919342, 0.06925936043262482, -0.21597203612327576, -0.02580292522907257, -0.07944852113723755, -0.1736326962709427, 0.18016792833805084, 0.20870260894298553, -0.22185733914375305, 0.06652842462062836, -0.13635998964309692, -0.1051759421825409, -0.20591795444488525, 0.030043020844459534, -0.14851000905036926, -0.23715882003307343, -0.2382495105266571, 0.17920233309268951, 0.06374891102313995, 0.08244971930980682, -0.07708050310611725, -0.22827601432800293, -0.14612430334091187, -0.3082467019557953, -0.02376861497759819, -0.094443678855896, -0.3514135181903839, 0.41730594635009766, -0.24968090653419495, -0.19931235909461975, -0.3593856990337372, 0.34097763895988464, 0.1712508648633957, -0.06779756397008896, 0.16134268045425415, 0.35575586557388306, 0.47902944684028625, -0.18503807485103607, 0.022145496681332588, 0.8065314292907715, 0.021165767684578896, -0.1592033952474594, -0.4845829904079437, 0.07038920372724533, -0.32388827204704285, 0.6174649000167847, -0.20755833387374878, 0.03233620524406433, -0.3768843412399292, 0.6202181577682495, 2.383197784423828, 0.7084293365478516, -0.2326335608959198, 0.07070314139127731, 0.20384439826011658, 0.9373177886009216, -0.33560261130332947, -0.650831937789917, 0.7189906239509583, -0.4967286288738251, 0.4360696077346802, -0.13760258257389069, -0.549409031867981, 2.3790931701660156, 0.47873789072036743, 0.6450135707855225, 0.4549827575683594, 0.8868532180786133, 0.15163633227348328, -0.4567156732082367, 0.6467222571372986], [0.7554028630256653, -0.3511967957019806, 1.3130707740783691, 2.468693256378174, -2.3001487255096436, 0.20042772591114044, 0.8880345225334167, -2.235246181488037, -0.8395713567733765, -0.07684069126844406, 0.1946885585784912, 0.37850043177604675, -0.055375128984451294, 0.4622746407985687, 0.15585455298423767, -0.04418349266052246, -1.2708628177642822, 0.4951627552509308, 1.936272382736206, -0.6486837267875671, 2.203705072402954, -0.3261239528656006, 0.03294797241687775, 0.4434378147125244, 0.2029457837343216, -0.182084858417511, -0.16763678193092346, 0.002070873975753784, 0.11347602307796478, -0.12645283341407776, -0.16572967171669006, -0.12034409493207932, -0.11874346435070038, -0.06813398003578186, 0.20611287653446198, 0.09819592535495758, 0.0860084742307663, -0.149012953042984, -0.1781611144542694, -0.08851863443851471, 0.2049034684896469, 0.11481206119060516, -0.1779557764530182, -0.07772332429885864, -0.11563749611377716, 0.06648387014865875, 0.1499045044183731, -0.12288480252027512, -0.22282418608665466, 0.006413531024008989, -0.11102892458438873, -0.6245099902153015, 0.6996335387229919, 0.4744490385055542, 0.4853285551071167, -0.32435527443885803, -0.2330351024866104, 0.5935114622116089, 0.3717321753501892, -0.08433663100004196, -0.3041767477989197, -0.3634364604949951, 0.20824018120765686, 0.04689176380634308, -0.3915489614009857, 0.026148034259676933, 0.03758155554533005, -0.30421504378318787, -0.5764799118041992, -0.9076815247535706, -0.49728795886039734, 0.3286904990673065, -0.9403107762336731, 0.6567835211753845, 0.42674684524536133, 4.683314800262451, 2.0196595191955566, -0.322924941778183, 0.5797702074050903, -2.1498844623565674, -0.9818470478057861, 0.577988862991333, 0.25124984979629517, -0.36120375990867615, 0.34790006279945374, -0.2215874046087265, 0.2621089220046997, 0.25478458404541016, -1.1572558879852295, 0.010982723906636238, 0.46077173948287964, 0.5244136452674866, -1.5522559881210327, 1.9773467779159546, -0.2736963629722595, 0.0715031623840332], [1.6087985038757324, -0.5883371829986572, 0.11362344026565552, -0.7117518782615662, 0.12193229049444199, 0.6991139650344849, -2.1836256980895996, -1.8125698566436768, 0.014776659198105335, 1.5123132467269897, 0.05767730250954628, 0.582836925983429, -0.6027778387069702, -0.4410819113254547, -0.2030961662530899, -0.8048647046089172, -0.24521216750144958, 0.3212814927101135, 0.08934499323368073, -0.9708219170570374, -1.9038945436477661, 0.01899748481810093, 0.24494624137878418, 0.38501113653182983, -0.006974115967750549, -0.1891288310289383, -0.19031348824501038, -0.046800315380096436, 0.10937102138996124, -0.19175076484680176, 0.16116859018802643, -0.14721369743347168, 0.013885334134101868, 0.049688562750816345, 0.22382216155529022, 0.14484257996082306, -0.24144646525382996, -0.1303936243057251, -0.0758010745048523, -0.04971303045749664, 0.2444939762353897, 0.1013496071100235, -0.2275162786245346, 0.22451083362102509, 0.20363716781139374, -0.16023465991020203, 0.13960431516170502, -0.06790253520011902, 0.5094269514083862, 0.024256182834506035, 0.0323476679623127, -0.6296136379241943, -0.09051975607872009, 0.03308090567588806, 1.1093034744262695, -0.2713501751422882, -0.01538007240742445, 0.05157383531332016, -0.16385352611541748, 0.2710767388343811, 0.039626285433769226, 0.02551000379025936, 0.02150939777493477, 0.0520896278321743, -0.6156899929046631, -0.0010190780740231276, -0.24577975273132324, -0.05741484463214874, 0.3827657401561737, 0.9731980562210083, 0.2886161208152771, -0.4764178991317749, -0.537208080291748, 0.3301057815551758, 0.7398380041122437, 1.5544682741165161, -1.1049505472183228, 0.4927224814891815, 2.465343952178955, -1.9070433378219604, -0.4589410424232483, 0.85169517993927, 0.0997224748134613, -0.361619234085083, -0.1519242823123932, -0.6362083554267883, 0.15142585337162018, 1.12473726272583, 1.812849998474121, -0.22549910843372345, -1.132476806640625, 1.215491533279419, 1.7255610227584839, -0.796180784702301, -0.25500211119651794, -0.130289688706398]], "bias:0": [-0.3474792242050171, -0.4969687759876251, -0.8311495184898376, -1.2450958490371704, -0.2938190698623657, -0.30070775747299194, -0.4445069134235382, -0.892885684967041, -0.3373893201351166, -0.900260865688324, -1.0805625915527344, -0.46327486634254456, -0.1461603045463562, -0.3036770820617676, -0.37294402718544006, -0.5537781119346619, -1.3482598066329956, -0.38124319911003113, -0.5181572437286377, -0.0313129685819149, -0.1074468120932579, -0.030047563835978508, 0.09639132767915726, -0.7814993858337402, 1.0, 1.0, 1.0, 1.0, 1.0, 1.0, 1.0, 1.0, 1.0, 1.0, 1.0, 1.0, 1.0, 1.0, 1.0, 1.0, 1.0, 1.0, 1.0, 1.0, 1.0, 1.0, 1.0, 1.0, -0.022519255056977272, -0.002586762188002467, 0.0038616061210632324, 0.30642324686050415, 0.029744796454906464, -0.01398881059139967, -0.019031256437301636, -0.08958673477172852, 0.03323850780725479, 0.010964303277432919, -0.0038089435547590256, 0.010979041457176208, 0.02517581731081009, 0.022772088646888733, -0.023151231929659843, -0.0003404068702366203, -0.5862913131713867, 0.00028531148564070463, -0.012970021925866604, -0.02717089094221592, -0.012234450317919254, -0.04444774240255356, -0.12838657200336456, -0.05551892891526222, 0.02411622181534767, -0.5251846313476562, -0.846899688243866, -0.8542469143867493, -0.3802633285522461, -0.21050752699375153, 0.39916548132896423, -0.5651913285255432, -0.46097248792648315, -0.5855927467346191, -1.086476445198059, -0.4329763948917389, -0.3169710636138916, -0.1328226774930954, -0.3438485860824585, -0.5447543859481812, -1.4328744411468506, -0.3947054445743561, -0.6020708680152893, -0.054267238825559616, -0.4286137819290161, 0.00545897800475359, 0.051235176622867584, 0.16248352825641632]}, "input_size": 120, "conv1d_stride": 12, "conv1d_1_stride": 12}