{"conv1d": {"bias:0": [0.02913527749478817, -0.08695704489946365, 0.036747176200151443, -0.0099447937682271], "kernel:0": [[[1.429826259613037, -3.925093412399292, 1.7763640880584717, 1.5257594585418701]], [[2.225970983505249, -2.4355056285858154, 1.9502346515655518, 1.726290225982666]], [[3.3633551597595215, -1.494712471961975, 1.7133129835128784, 1.0988277196884155]], [[3.5405266284942627, -0.5791860222816467, 1.2717652320861816, 0.8314865827560425]], [[2.825667142868042, 0.3485858142375946, 0.3810877501964569, 1.2428181171417236]], [[2.1841859817504883, 0.6481664776802063, -0.7929248213768005, 1.264867901802063]], [[0.9023438692092896, 0.6171096563339233, -1.8622981309890747, 1.1474902629852295]], [[-0.031094154343008995, 0.9302313923835754, -2.3269166946411133, 1.0430392026901245]], [[-1.1674790382385254, 0.87861168384552, -3.2412266731262207, 1.22999906539917]], [[-1.3641276359558105, 0.3320281207561493, -3.106410503387451, 0.621613621711731]], [[-1.657713770866394, -0.4136991798877716, -2.4491324424743652, 0.11555324494838715]], [[-0.6165153384208679, -0.715965747833252, -1.423183798789978, 0.11224088817834854]]]}, "conv1d_1": {"bias:0": [0.12961217761039734, -0.033817581832408905, 0.040358223021030426, -0.15802101790905], "kernel:0": [[[-0.1667565107345581, 0.050332069396972656, -0.05173695087432861, -0.24889689683914185], [0.18187808990478516, -0.1635109782218933, 0.034341275691986084, 0.048111915588378906], [0.18869173526763916, -0.08876824378967285, -0.17829835414886475, -0.23316627740859985], [0.2349604368209839, -0.22374290227890015, 0.09228956699371338, 0.06322628259658813]], [[0.31625089049339294, -0.5820326209068298, 0.19452126324176788, -0.18387606739997864], [0.6390764713287354, -0.9017356634140015, 1.669854760169983, -1.3703862428665161], [-0.4934943914413452, 0.24189627170562744, -0.9129787087440491, 0.7624179124832153], [-0.022400764748454094, 0.001871217042207718, -0.24227556586265564, -0.0955318734049797]], [[-0.5857113599777222, 0.22974562644958496, -0.25075563788414, 0.3006547689437866], [0.1638443022966385, -0.09402410686016083, 0.752530038356781, -0.9605359435081482], [-0.22225692868232727, 0.14905162155628204, -0.19125264883041382, 0.03196520358324051], [-0.07121000438928604, -0.16614140570163727, -0.13137634098529816, 0.39159002900123596]], [[-0.2988826036453247, -0.07198408246040344, 0.0860314592719078, 0.4601982831954956], [-0.09182032942771912, -0.17680390179157257, 0.5855980515480042, -0.7176058888435364], [-0.40178874135017395, 0.30497628450393677, -0.3663595914840698, -0.09226572513580322], [0.027196664363145828, 0.13531528413295746, -0.14815238118171692, -0.08316518366336823]], [[-0.8053618669509888, 0.11716526746749878, -0.4631024897098541, 0.7318580746650696], [-0.028237871825695038, -0.3881768584251404, 0.5400084257125854, -0.6556516289710999], [-0.366807222366333, 0.3244723677635193, -0.7838773727416992, -0.08326482772827148], [-0.0618051141500473, 0.16232143342494965, -0.2345285713672638, 0.49696093797683716]], [[-0.8493490815162659, -0.20628391206264496, -1.090067982673645, 1.2589213848114014], [0.023569965735077858, -0.04527341574430466, 0.06762994825839996, -0.3243841826915741], [0.614755392074585, 0.3721301853656769, 0.3229372203350067, -1.5297449827194214], [-0.4459282159805298, -0.28323861956596375, -1.2281097173690796, 1.2849631309509277]], [[0.39451363682746887, 1.059234619140625, 1.6483759880065918, -0.15293365716934204], [-0.5592756867408752, -0.6294472813606262, -1.0234076976776123, 0.5289841294288635], [0.36876219511032104, -0.17723433673381805, -0.7152102589607239, -1.3362655639648438], [0.12201129645109177, 0.8683392405509949, 1.608747124671936, 0.37274521589279175]], [[2.0768635272979736, 0.9330295920372009, -0.1269979178905487, 1.0349385738372803], [-0.6156792640686035, -0.07026341557502747, -0.15740324556827545, 0.39681628346443176], [-3.3970799446105957, 0.8394290208816528, 0.9384979605674744, 1.186336874961853], [2.6102781295776367, 0.0180220864713192, -0.8289391994476318, 0.26432323455810547]], [[-1.1158859729766846, -2.496105194091797, 1.6718379259109497, -0.5716956853866577], [1.0663810968399048, 1.986008644104004, -1.0432584285736084, 2.264761447906494], [2.6971402168273926, -3.43281888961792, 2.446237325668335, 3.662278413772583], [-1.596919059753418, -0.9497422575950623, 0.5654459595680237, -2.413536787033081]], [[-0.24453414976596832, 0.18723201751708984, -0.13691632449626923, -0.05446775257587433], [0.11412185430526733, 0.1075100302696228, 0.5436393022537231, 0.9933162927627563], [0.04039060324430466, 0.01058139093220234, -0.3573768436908722, -0.039479415863752365], [0.18941712379455566, -0.1412782073020935, -0.15734164416790009, -0.308980256319046]], [[-0.012889481149613857, -0.14115440845489502, 0.02422241121530533, 0.2236163467168808], [-0.01863812655210495, -0.4402241110801697, 0.4263107478618622, 0.053589966148138046], [-0.027702346444129944, 0.19222328066825867, 0.3711007833480835, -0.12909948825836182], [-0.31309738755226135, 0.07253134250640869, 0.04426778107881546, 0.03136613219976425]], [[-0.06826436519622803, -0.1640843152999878, 0.10978126525878906, -0.11237740516662598], [0.16948729753494263, -0.13758248090744019, 0.038976192474365234, 0.17655211687088013], [-0.01897728443145752, 0.1793663501739502, 0.19918859004974365, 0.12595897912979126], [-0.17693716287612915, 0.12272202968597412, 0.2317579984664917, 0.023634374141693115]]]}, "dense": {"bias:0": [0.004886694252490997], "kernel:0": [[-0.16678297519683838], [-0.022176340222358704], [-0.10120895504951477], [0.043816953897476196], [-0.14973759651184082], [0.07443724572658539], [0.11196430772542953], [-0.15315645933151245], [0.2010873258113861], [-0.14746080338954926], [-0.042282674461603165], [0.24890781939029694], [0.05606633797287941], [-0.17751498520374298], [-0.3257066309452057], [0.05292131006717682], [0.3423444926738739], [0.34638920426368713], [0.3063899278640747], [0.04263906925916672], [0.06142163276672363], [0.2552207112312317], [-0.09644503146409988], [-0.15201224386692047]]}, "lstm": {"lstm_cell": {}, "kernel:0": [[-0.32214945554733276, 0.11030512303113937, -1.492110252380371, 1.4215693473815918, 0.7736057043075562, 0.10046663880348206, -2.9207241535186768, 0.24960801005363464, -2.138343095779419, -0.07183419167995453, 0.42279160022735596, -0.5200600624084473, -1.1713188886642456, -1.129233479499817, 0.07602225989103317, -0.6832771301269531, 1.2225385904312134, -0.6506510972976685, 0.2622380256652832, -1.022121787071228, -2.4730074405670166, -0.5666654109954834, -1.251455545425415, 0.4577479362487793, 0.03884325921535492, 0.05930425226688385, -0.16420365869998932, -0.0545993447303772, -0.21733680367469788, 0.21617867052555084, -0.08434218168258667, 0.1185852438211441, 0.21834047138690948, -0.13918668031692505, -0.09450840950012207, 0.1975211352109909, 0.11411003768444061, -0.06077617406845093, 0.23659221827983856, 0.04383520781993866, -0.20193317532539368, 0.1201973408460617, -0.016612693667411804, -0.07763215899467468, -0.06818723678588867, 0.1261972039937973, -0.23398534953594208, -0.20382609963417053, 0.48280856013298035, -0.3702396750450134, -0.3314274251461029, 1.1491724252700806, 1.33372962474823, -0.2890554964542389, 0.07893203943967819, -0.2546141743659973, 0.594005286693573, -2.690812349319458, -1.8716191053390503, 0.6694726347923279, 0.7864022254943848, 1.493354320526123, -0.13590574264526367, -1.140465259552002, 0.6813024282455444, -0.28869250416755676, 0.7569653391838074, -0.611351490020752, -0.2100786417722702, 0.2927206754684448, 0.957211971282959, -0.009252477437257767, 0.036483217030763626, 2.105396032333374, -0.10935758054256439, -1.1020830869674683, -0.795950710773468, -1.7199511528015137, -1.03400456905365, -0.6909561157226562, 1.0096354484558105, -1.0736604928970337, -0.5003325343132019, 0.869071900844574, -0.1923835426568985, 1.4264990091323853, -0.1717655509710312, 0.8574573397636414, 0.16830070316791534, 0.3719852566719055, 0.1291939616203308, 0.1867475062608719, -1.9712787866592407, 0.8432227373123169, 0.8470394015312195, 0.6605132222175598], [1.7193894386291504, 0.6132429838180542, 0.441207617521286, -2.476653814315796, -0.09773978590965271, -5.278568744659424, 1.1557502746582031, 1.5123207569122314, -1.160580039024353, -1.6890044212341309, -0.44404879212379456, 0.9130129814147949, -0.2793288230895996, -0.2041504979133606, -0.8098176121711731, 0.11878786981105804, -1.60349440574646, 0.2999325692653656, -1.318031907081604, -2.5621912479400635, 1.7661163806915283, -0.5720517039299011, 1.264101266860962, -1.0430200099945068, -0.128650963306427, 0.11328528821468353, 0.12618125975131989, -0.09538692235946655, -0.13104456663131714, -0.1904415488243103, 0.23269252479076385, -0.12426159530878067, 0.22845213115215302, 0.10642005503177643, -0.2307380586862564, 0.07952205836772919, 0.2431117445230484, -0.1352880597114563, -0.011290490627288818, 0.17916350066661835, 0.06677763164043427, -0.11842535436153412, -0.05828486382961273, -0.1579342633485794, -0.20110657811164856, 0.02473185956478119, 0.12277500331401825, -0.2083290070295334, 2.3666574954986572, -0.591673731803894, -0.11653431504964828, -0.7155720591545105, 1.9314030408859253, 1.232132077217102, -0.09133871644735336, -0.8606982231140137, -0.13696162402629852, 0.47386130690574646, -3.646347999572754, -1.7378177642822266, 0.4401051700115204, 1.4143719673156738, -1.7883633375167847, -0.05453826114535332, -2.084088087081909, -1.970046043395996, -0.7845098972320557, -0.1920318752527237, -0.8798602819442749, -0.7655419111251831, 0.47376418113708496, 1.0152537822723389, -1.775933861732483, -0.7406768202781677, -0.741296648979187, 1.9379234313964844, 0.213036447763443, -0.5892618894577026, -0.7852060794830322, 0.4351043403148651, 0.9035623669624329, 1.3673803806304932, 2.5224876403808594, 0.9189651608467102, -2.167426109313965, 0.17604966461658478, 1.0667587518692017, 0.8775393962860107, -0.538104772567749, 1.2269407510757446, 0.5625055432319641, 1.941667914390564, 1.3335620164871216, -0.148685023188591, -1.030549168586731, 1.8864599466323853], [-0.9812859296798706, -1.0759656429290771, -0.4435243010520935, 0.5185092687606812, -0.10472023487091064, -4.280168533325195, 0.7180168628692627, 2.1684250831604004, -1.563045859336853, -1.2558314800262451, 0.29168829321861267, -0.5355571508407593, -1.1924169063568115, 0.42136213183403015, 0.18812867999076843, 0.22339865565299988, 0.7256919145584106, -0.6282002329826355, 0.6776813268661499, 0.8999475836753845, 0.602596640586853, 0.259756863117218, -1.188571572303772, 0.9872255325317383, -0.016449347138404846, 0.1045430451631546, -0.013323992490768433, 0.035941168665885925, 0.046722397208213806, -0.13669928908348083, -0.0859227329492569, 0.06661088764667511, -0.13005736470222473, -0.1878364235162735, -0.2324220836162567, -0.18944844603538513, -0.06461319327354431, -0.03577263653278351, 0.1737421303987503, 0.21868689358234406, -0.14754045009613037, 0.115343376994133, 0.19883958995342255, -0.03548331558704376, 0.16107644140720367, 0.20337839424610138, -0.11343730986118317, 0.04351551830768585, -1.8110802173614502, -0.2897028625011444, 0.11070147156715393, 0.31964147090911865, -0.875213086605072, 2.155369758605957, 0.18667127192020416, -0.003521190257743001, 0.859114408493042, 1.636613130569458, -1.5782569646835327, 0.7447217106819153, -0.8101286292076111, -0.8410515785217285, -2.887418746948242, 0.3825896680355072, 0.817918062210083, 0.3720409870147705, 0.37576884031295776, 0.0009523077169433236, -0.2849254608154297, 0.7975374460220337, -1.2855838537216187, 0.23196767270565033, 1.3598629236221313, 2.016055107116699, 0.9337207078933716, -0.10016587376594543, -0.40859198570251465, -3.1662650108337402, -1.1963353157043457, -1.2173453569412231, 0.9891824126243591, 0.630747377872467, -1.4765658378601074, -0.6643882393836975, -0.054884761571884155, -0.7463905811309814, 0.09475386142730713, 0.04506881535053253, 0.31968241930007935, 0.23479053378105164, -0.27769237756729126, -0.22960713505744934, -0.3274526596069336, 0.41050636768341064, 0.9944356083869934, 2.860253095626831], [-1.3237444162368774, -1.371389389038086, -1.4204519987106323, -0.9029114842414856, 0.5412572026252747, 0.5737409591674805, -0.28549301624298096, -0.7331197261810303, -0.27167606353759766, -0.8900744915008545, -0.732875645160675, -0.12408822029829025, -0.32735803723335266, 0.008966141380369663, -0.4900236427783966, -1.017350673675537, 1.2505437135696411, 0.42720818519592285, 0.07532064616680145, -0.4755847156047821, -0.691085159778595, -0.7499319911003113, -1.581708550453186, -1.5577889680862427, -0.04596811532974243, 0.18229492008686066, -0.22733014822006226, -0.22142623364925385, 0.17744432389736176, -0.011791735887527466, 0.027926728129386902, 0.18288318812847137, -0.02558538317680359, 0.09996761381626129, 0.18486572802066803, -0.0747113823890686, -0.10349908471107483, 0.008963629603385925, -0.1396644115447998, 0.22244660556316376, 0.14570732414722443, -0.22398526966571808, -0.02730439603328705, -0.09181299805641174, -0.2338877022266388, -0.20170173048973083, -0.21603067219257355, 0.01870189607143402, -0.9229820966720581, 0.2812681496143341, -0.38686469197273254, -0.7297545075416565, 0.7702177166938782, -0.37288087606430054, 0.6698006987571716, -0.30499812960624695, -0.56095290184021, 1.1698936223983765, 0.7384436130523682, 0.6829875707626343, 0.9036446809768677, 0.6779963970184326, 0.7302319407463074, -0.06688108295202255, 0.8784769773483276, -0.9835641980171204, 1.0275441408157349, 0.07368823140859604, -0.7407150268554688, 0.32540616393089294, 0.2531084716320038, 0.20965582132339478, 1.2735624313354492, -0.06692347675561905, -0.3011607527732849, 0.06384236365556717, -0.5156334042549133, 2.211125373840332, 0.7917195558547974, 0.588420033454895, 0.04100056737661362, 0.9799656271934509, 1.6175488233566284, 0.5665005445480347, -0.10298550873994827, 0.7441436052322388, 0.5104607343673706, 0.13479825854301453, -1.1778597831726074, 0.4393814206123352, 0.8918258547782898, 1.4151639938354492, -0.8257223963737488, 0.5686930418014526, 0.8509767651557922, -0.9883705377578735]], "bias:0": [0.8031429052352905, -0.13224676251411438, -1.600692629814148, -1.1535753011703491, 0.6216729283332825, -0.014156948775053024, -0.14224933087825775, -0.9990097880363464, -1.2027860879898071, 1.1873177289962769, 0.16295947134494781, -0.30742499232292175, -0.867137610912323, -0.05949720740318298, -0.21342898905277252, -1.0788867473602295, 0.1408277451992035, -0.08329425752162933, 1.3037716150283813, -0.0007361958269029856, -0.4549212157726288, -0.2921917140483856, 0.5036658048629761, -0.06105510890483856, 1.0, 1.0, 1.0, 1.0, 1.0, 1.0, 1.0, 1.0, 1.0, 1.0, 1.0, 1.0, 1.0, 1.0, 1.0, 1.0, 1.0, 1.0, 1.0, 1.0, 1.0, 1.0, 1.0, 1.0, -0.03357531130313873, 0.11357513815164566, 0.0654405802488327, 0.03299831971526146, -0.3781588673591614, 0.10289661586284637, -0.16313715279102325, 0.4352259337902069, -0.24394281208515167, 0.17126132547855377, 0.09779218584299088, 0.41104909777641296, 0.7248509526252747, 0.030081236734986305, -0.2791201174259186, -0.011881166137754917, -0.30289995670318604, -0.30802932381629944, 0.2270904779434204, -0.41275182366371155, -0.14671637117862701, 0.473979651927948, 0.25919678807258606, 0.0260771531611681, 0.6141918897628784, 0.07055075466632843, 0.06601469218730927, -0.697667121887207, 0.7583164572715759, 0.7838408350944519, 0.188354030251503, 0.045100171118974686, -0.30924203991889954, 0.08613685518503189, -0.21248681843280792, 0.29278847575187683, -1.9604005813598633, 1.1939367055892944, 0.12036511301994324, -0.22627291083335876, 0.007033001631498337, -0.3554098308086395, -0.6789733171463013, 0.8175448179244995, 0.3350982666015625, 0.2740499973297119, 2.008655071258545, -0.34743088483810425]}, "input_size": 120, "conv1d_stride": 12, "conv1d_1_stride": 12}